svm_type c_svc
kernel_type gkm_esttrunc
L 11
k 7
d 3
norc 0
nr_class 2
total_sv 1788
rho 0.101047
label 1 -1
nr_sv 993 795
SV
0.2420778049865987 GGCGGGGCCCAGCATGGCCGGAGAGGCTGGGGCTTTGTAATAATCACCATAACGATTATTGAATTTGAAAAGCCAGGAGTCAATGCATTTCTGCACGATTTTGTCAGCAACAAACCACAGCCTCGCCCTGCCCCACCTCCGTCCGCATAGTGCCCATGGCCAGGCTGTCTGGGCGCAGCATTCCTGGGCCTGCTCTCTGGCTCCCAGTGAGGGTCCCCGCCCCACGGGAGATAAGATAGAGCTGGTGTCAGGGAGGAGGTGTGGACGGGGCCGCACCGGCACGCTGTGAGTGATAAAAGGGGCTTTGGAAAGGTGCTGACGTGGCACCGTGCTTAATGAGGTCATCGCCGAAGCTGCTGCCCCGATAACCTGGAGGTCAGGCTCCCAGCAAGTGGCCATGGCGGGAAGCAGGGCTGTCTGCACTGCCCGTCTCCACCCAGCACCCAGTCGGCGCAGCCACTGGGTGCCCATGGGGCTTGGCTCCGAGCTTATTTCAGAGCTGTCATCCTCAACCCAAGGGTGTCCTTGTCCCGGGGCAGCTGACCCCTCTTTCCCACTGGCTGGTGTGCTGGCAAGGGTGGCGGAGGAGCCGAGGCAGCCCGGCAGAGCTCAGGGCCGCCCGTGAAAGCCAGCCTTGGA
0.7054143211541533 TTCCTTTATCTGTAAAGTGAGGGGTTGGGGCTAGACAGTGTCCAGCATCCCTCCTCTTTGGTGTCTCTTAATTGTCCAGGGCAGAGCAATCCTTGGAGCAAGGCAGCCTGCTGCGGTGGTTTGCAGAAGAGGCACAGTGGGGCGGGCTGGAGGCCGCAGGGGCAGAGTGGGCCGAGGGCCTCTGATGAGGTGTGAATGAGGGAGGCAGAGCAGGGCTGGTGTGGACAGCCCTGTCCCAGCCCTATCTCCCGTCTGCGACACCCTCTCCACACCCCAGTGCTGATAAGCGGGTGTGAGCCACGGCCGCCTTGTGACAGGCCCTTCGGCAGGGAGGGTGATGGTGGGGGTCCACTCCACTTCTGAATTCAGACGTCAGCATCTTTTTCCCCCAACCCCCATTGCCCTGTCAGACTAGACAGGCCCTAGCAACCAGGCACCCTCCCTGACAGTCCCTGGCTTGGAGATTTGTTTCTGCTCCATGTGGCCTCAGCCTTCTCAGAGATGGTAGGAGACAGACCTCCCTCAGTCCTTTCTGGCAAAGTGCCAAGGAGGATGACCACCTCCCACCCCCATCAGGCCCGTTCCTGCAGTGACTGCTGATGCTGGGGCCTGGCACACACAGTGCTTCTTATCACTGGGCAAACTTCAATGGCTGATCCTTTTGTCTCCTCTCCTCACCCCATCTCCTCTATCGCTGTGACCATCAGCTTCCAGTCTTCCCCCTCCAGCTCCCTAGCTTTTGGGCCATTTCTGTGTCTGGGCCCACCTCTTTCCTCTAAGGCCACTGTTCACCAG
0.8967903409402843 CTCCAGCCAGCTTGCCTGTATATCGCTATACAGGTCCCTGTCCTGCCCTGCTCCACCTTAATTTCCTGCCCTTTAAGATTTTCCTTCACCAGGGAAATTTAGCATCTTTCTGCAAGACTCAGTTTAATGGCATTCTCTAGCATTTTCCGACCTTCCCTGGCTGAGCTGAGTGCTGTCTCTGCACTCTGCCCATGGCATCCTGTCCACGCAGCATCTTGGTGCAGCAATCAGCACACTGCTACATTATCTGCATGGCTGTCATCCCCATTAGGTGTGTGCCCTTGGACTGTGTGTTTTCCTCCTCGTATATGAGGCCTCAGCATAGTGCCTGAAAATAATAAACATTTGACATTCAGAAGAAAGGAGTGGAGGAATAAATAAATAAGACAGCCTGTTTTCATGAAGTGTTTTCTACATTGAATGCAATTATTCTAAACATCTCCTTTAACCTGGTCTTCTGAGCTCTTTCAGAAGAGAGTAAGCACCATAAACAAAGAGCTAGAAATCACATCCTACAAGGAAGGAACAG
0.5743958266152847 TGGCGGGTGGCTGGGCTTGGTGGTATTGGGGCCACCCAGCTGGTGAATGGACTCTTGGCTCAGGTCCGCTGATCCAGGTGGGCCCTGTGGGCCTGGAGTGTGCACTCTGCCTTCTGCAAGCTCCCTGGCTCCTCCAGGACTCATCCCATTCAGCACAGGCTCTGTGCCTAGTGGCTGGGAGTACAGAGCTGGGCACAGCCTTGGCCTGCTCCCTAGAGCCCTCCATACCAAGACTATAGGGTAGGGGAGATGGGCATGGTAAGGACCTCACAAGGCCACAAAAGGTCCGGGGGCTGGATCCATCGCTGGCAGCCTTGACAAGGCTTCTTTTGTGCCTGGCTGGGCAACTCTGCCTGGGTCTGCTCAGATTGCAGACAGAACCTGGGTGACAGAGACAAAGCAGAGCCCAGTGGAAAGTGTCCTTATCGCCTGGGGTCTGATAAGGGCCCCGGGGAGGGGGCTGCCGGCCAGCTCCACAGATCTGAGTGCTGGAGGAGCTGGAAGGGCCGGCTGGGGCGGCTGCAGCAGACGCTTGCCCCCTCCCCCACCCCACTCCCACTCCCCCACCGTGGCGGCTGCTCACTGCACAGTATTGATCTAGTGGCTTCTTACACCAACCCTCTCAGCAGCCAGTGGGGGAGGGTGGACTGAGATGGCCCAGCGCCCAGACCCGGCCGGAGATGTCGGGTGTGGGGAGGATTAGGCACCCTTCCCCGTGCTGTGCTGGGCACTGCTCCTGAGAAAGGTCCAGTGTCCCCAGCCTGAGGCCAAGAGGAGCTGGTGATACTTCAGAAGCAGCCTGGTCCGATAGCCCCAGCTCCAGCCCAGATCAGCTCTGGGACCCTGGGTGAGGCACTCACTATCTCTGAACCTTGCCGTCTGTATTATGGGAATGGTCACAAATCTACCCTTCAGGAGTGGCTGTGAGCATTCAGTGGGGGCTGGAATGGGTGGCTGGCCCATGCCAGACTCAGGTGCTGCGGTTATGACCTCTCCTGTGTGCCAGGGGCCAGGAACCACCCTTCTGACTCCTGGTGGCCCATATCTCCTTGCCACTTACCTGAAGTGTCAATAAATACGAATGGGATGGGGTC
0.3854349538212696 CACCACCCTGGACAAATCTCACTGGGCAGGGGCGGCGGGGCTGTGATTACAAGAGCTTGGGGATGTTTAAAGCAACTCCTGCCTTCAAAAGACAGCTGTCCTCTTTTCCAGATAAGTTCTGTATGGTAAAAGAAGGAAAAGGAAAAAAAATAGAGGTTAGAAATCATATTGAAAAATTAAAGGAATGTTTGATTTGTCCATAAGAATTTCCTGACTGTGCCACTTTGCTCAGCGCTTGTCCTAGGTCCTTCCAATATCACATTTAGTGGGTAGTGAGAAGGCGTGGAGTAAGTGACTCTGGTTGCTGACATTCACACTTGGATGAAGTGGAGAAAGATGATGTCCTTCCTTATTTGGTGGCTCTGGAAGCCACATTCCCTCCTCATCCGCCTTCCCAAAAGAACCTTGTGGCTGCCCAGCGGAAGCCAGTGCTTTCAGCAGCCCCCACCCTTGGCATTTCCTTATCTAGGAGTCTTCACTGTGGAATTCCAAGGCCCACCCCAATGCTCCGGATGTGTTTCAATCCATGGCCTGCCACTTTGTTACTCTTGTGATGACAAGCAGATAACATAGCTCACATGCCTTCTTTTCCTGCATACCAACCAGACCCCAGTTCTGAAAAGGAAACAAACCACAAACCAAGAGAGATGTGTTATTTTTATGCAGACATTGTTAAGACACTGCAATAAGCCTAGAATTGTGGAGAGTGCTTTCCCATGTTGCTCCAGTTAATCCCCTCAGTCACTCTGGCATTTATACAAATGAGGAAACCAGTGAGTGTGGAGGTTAAATAGTCAAGGTCTCATAGCAAGTGTGTGTGTGTGCATGTATGTGTGTGTATC
0.6917002906988741 CAGACACCCAAACAACCAAATATTCAGAGAGCCCGTGCCCTTGCCCTGCTTCAGCCCCACAGCCCCGCCTGGGTTGCTGGTCTGACCCGGCTGGGCAGGGTGGCTGTGAGCTGCCGGTGTGGCCCCAGGCACCTCAAAGGGTCCTCGGTGTTCAACAACAGGAAGTGCTGGCAGGCTTCCCTCGCTAGGGAACTGAAAGTGGTGACAACAGAGGATGTGTTCTTCAGGCTATCAGATAAAGCCCTCTGCACTGAGAACTGCTTCTGACGAGGAACAGAGACTTCACTGGTCTCTTCCCCATGCCTTGCCCTTGCCCTAACTAACTTCTGAATTTATATCACCTGTGAGTTCTGCTCTAATTCAGGGACTTGGGCGGAGAGGTTTCGGACAGTGGCCAAAAGCAAGAGACTGTCTGCATGACCCTTTAGAAACACCCGTGACCTGGTGCAGAGCTGAGCCAGCTTTGGCCACACTGTTTGGGATGCTGACTCAA
0.5808812994329141 GATGAGATACGCAGCTGCTCTGAGAGGAGAGAATCCTCAAATGCAGGAGGGATGGACAGACTGCTGCTTTCTATAGCTTCCAGAAAGAGCATCAGTTTCCTTCTGCTTTGAAAGCTCCTAATGCTGTTTAAGTGGCAGCCCTCTCTCGTGTGGCTATGCTGAGGCCTTGGTGCTGAATGGACTGTCTTGTCTCATAGAATGATTTTAACCAGACCCTGGAAAGTAGCAAGGCAGAGAACTGGACCGGCACTCTGGACTTTCTCTCCTCAACTGTCAAACAGAAGGTGGAGGTTGAAAGAGAAGCTTCCCCAGGGTTTTTTGGCACCCTGCCCAGATTTCCTGCCCAACTCTCAGCATCCTATGATTAATGGGATTCCCAGGTTGGGGATGCCTCTGAATGCCGCCCCCCCCTCCCTGCCCCACTAATCTAATCTCCTCACTTAAAGATAGGAGGGAGTGGAAGGGAGAAGCTGCAGGGAATATGTGCTAACATCAGTTACAGGCAAGCCTGTACTTACACAGAGATCTGACATTTTAAAATAAATTCTTGAGCACTCTTTAGACAAACTGCAAAGTTTAGGAAAGTGTGCAATACTCCTTGGCTCATTGGCCCCAGGAATTGGAGCCTCACTTCTTATTATACCAGAACCTCCTACCCACCTTTTTTGCCCTGTCCTTTTCCTGCCTTGGATGATTTCCCAGATGATTAATTTTTTTCTCTAATCTTTTATCTAATGACTTCTTTTTTTTTT
0.7883271580063634 AACAAAAAACAGTGCCCTAAACGTCCGTAACCCTTTTAACTGTGTGAATTTCGTGTCCTGTTGGGCCGATCTCCGTCGGTGCACTTTTGGAGTGTCCTGTGCCGCTGCCCTCCCTGCGGGCCTGGCAGGACCAGACCCACAGCCATGGACGCTGCCATTTACAAAACGCCCACCAAGTGCTACCAGAAATGGGACATGCAGAGCTGGTATGAGCGCACACACGGCATCAGACGCCCAGAGGAAGCCAAACTCAAGAGTGAGCTCCAGCCGTCTACGGTGAAAACAAGCCGGAGCTGTGTCCCACAGGTGTCTGTGTGTGGGGTGCACCTGTTCTGGGCTGCGGGGCACAAGCATGGGGTTGCTGGTCCTAAGGGCACACGAGTGGCCGCCTGGAAAACCAGAAGCAGGAGCTCCTGGACGCCAAGGCTGTGAACAGTCGGACGCCTCCCCGTCTCCAGCAAGCCGGGAGCCTTATCTTATCGCCGGCGCTTCAGCTCTCCCGTTATTTAGGGACCGGCCACAGGCTCGATGGCATTCCTCTGCTGTGAGCACAGAACTAAACTGGGCACGTCCATGGCAGATGAACAGAATGGTGGAGTGAACGCATAAGTGAGATTTCATTGACTTAGCTGCAGCCCTCAGATTTTAATTCTGCCATGATAAACAGCACCCACGGGGTTTTGAAGAGCAAATGCCTCGTAGGAAAGCTGGACTGCATGTCTGTGCACCTGCCATTTCCCTGAAATTCATGCAAAAGCTTGATCCTAAAATCAATTTGCTACTTAAAGGTATTTTAAGAAGCTTTGTCTCCAATCTCGTCCAATCAAGTTTATGTCATTTTCTTAGAACACATTTGTGTATGGGCAACTCTCCAAGCTGAACCATTTTGGGAGATGATATTCTAACTTTAATTCATTGGAATTTAGAACTAATCCCCAAACAGTATTAATGGGTTCACATTTCAAACTGGCTTATTTTACATCCCTTTGTAATGAATTCAGAACAAGAAGGCTTAATCTCTGCAGCGAGAAGTGAGCCCTCACCCTACTCCCACCAGCACGGCCGAGAGAGGCTTCACTGGCTTTAACTCTATTAGAAACAGAAGGTGCTAGGCCTAGTTAACGCTTTACAAATACAAGTGAAAAGTCACGTTTAAAAACTGAATCTTAATAACTGCAAAGTAAAGTAATACTGTCACCCTCAGAGAAACCA
0.4362439954481193 ACAAGAAGAAAGGAAAAACAGCCTGAATGAGAAGCTCCCCCGCTCTTCATTTCACTCACGCCACTTGGATCCATCCTCAAAATCACCCTCTACACATTAATCCGCTAATCCTTCTCTCCCCATCAGCCTTTCAGATACTCCAGAGTGCTCCCAAGTCTCCTCTCCCCTCCCACCCCAAACAACCCCTGTTTCTGCCACTGCTGCTCTTAAAGGTTATCAGCAACGGAAATTCCAACAGCTCCTCGCTGCTGCCCATCGGAATATTGAACGACTGCCAGGTTGTCCTCTTATCTAGTCAGAGTGCCCTGGCCTGCATTCGGTCTCTGGGCCAGCTGATAACACATTTTTGTTGTTGGAGGAAATGCTTTAGCTCCAACGGGGAGTGTCCACCCATGTGACACTGCCCAGAAGGAAAACAGGCCTGGTTCTCTGAGGGGAAATGACAGCAGCCACAGCCCCCTGAAGAAGACTGAATCAGTCCCTGTGTATCCTTTGATCAACAGCCCCTGCTCTCCTTCTCACCTCCCTATTTGCTCTTTC
0.7781899853603009 TAGGCACATTACTATGTACCACAGGGCAGGCCAGGCTGCAGGAGGAGCTTGCAGTCCTGGAGGCTTCTGGCTCTCCTCTCACCCCGCTGCCCGCCCCTCAGTGATTAGTTGGAATCCAAGACAGCAATACAAGATGTGTCGTTGGTGGGAGTGATGGAGTGCCTGCTGAGTGGGCCGCAGATAAGCACCGTGATTTCGGAGGACGCTTCATCATTTCGCCGTAAGAACATGTTAACGGGTGATTGTTTGAATGTCTCCAGCTAATAGGATATTATTCATAACACTCTGGCTAGTTGGAATGGAAGATGATAAGAAATTAAATCCTTAATGGCTTTCTTTAAGGGAGGACTTTTCCCAGGGGAACCAGGAACCCTGGGAAATCGCTCCATGTACCCTGGCAATATCTATACGGAGAGAATTGGCTTTAAATGAACCTCTGAGGGTTACACAAAGGGTAAAAGAAAGAGAACAAAAAGCAATTGACATTAACCGGGTCCCTACTACGTGCCAAGTACTTAGACATTTTACCTACATCACGTTACTTCATCCTGGCCCTGTCTCTGTTGTGACAAGGCACTATTAAGCTCATTTCAGAACTGGGAAAACTGAGGCACACAGAG
0.9773396067395311 GGGAAAGGCTTCTCTACATGTTTGTCTTATAAAACTCTTCAGCGGATCACATAAGTATGCATGCTAATATCAGTAGCTTACAGAGTTAATCTAGTAATGTATTAATATTTAGGACAGAGCCTGGCACAGGAAAGTGTCACATAAGTGCCCACCATGATCTCCAATGGAAGCAAGTAGCACAGCGGGTTAACTTGCCTTGGGGTGTAAGGCCCCTTTAAAGAGGGCGGTGAAGTCAGCCACCTCTTGATAGAACAAAGGCATACCAGGCCCTGCCAGCCCAAAGCCGGGTGGCTGATGGCTTTTGTCACCAAGTGATAGCCTATCTCCTCGTGTCAGGGCCCCCAGGCGTCAGTGAGAGCCACCAAGTGGGGAGGGTGGCTTCTCTTGGGAGTCAGATTCAGGTGGACCAGGCCTGTGCCCAGCAAAGATGGGTGAGCCACATAACGGGGCACCCCCTGTGTACACAGCACCACTGGGACAAGCAGCATCAGCTCCCCGTGCCTCAGTTTCCTCATATGTGAAATGGGAACATGTAATAGAGGTCCTTCAAAAAGTTATCATGAGGTTTAAATGAGTTAATTACTGCTTCTAAAGTTCTAGAATACTGCTGGGCATGGTGATGTT
0.3232143823713999 GACATCGCCCCAAGGCATCTGAGATCCCCATTTCCAGGAAAGCCACCTGCACCTGCTTCCTCATTCGGTGCCACGTGAATTAGTGATGTGACTTTGTGTGGACGGGGACTGGGAGGCAAGGACGCAGGGAGAGGCAAGGACACGGGGCCTGGCGACCCCTGAGTTGAGGATTCCGCAGGCCCTGGGCCGACTCCCACTGAGGACTGAGGACCTGAGGCTCACGCTTCATCCCCAGCGCCGGCTCCCTGAGGAGGCCCCTCTGCACTCTGTCCCTCCTCAGGGGACAGGAGGGGGAGGGTGCAGATAAGGCACCGGGCCCCGGGTTATCTGGCTTGACCTTTGGAGAAGCCGAGAGGGGAGTGTTGTCACCCAGAGGAGATAGAGGGTCGCCTGGTGGGAGCAGCTTCCAGCCTTCCTGAGTGGTCAGGGGCAGGGCCCTGCGAAGACAGCCTGGACTGGGGCACTGGCCTGGCCTGTCAGCGCCATCCCTGCGCGGCTCCCAGACACCCAGCTGTGCCGGCCTGGGGCATGCATG
0.9824957469191409 ATGGCAGAACCAGAGTTAAATCTCAGTTCTTTTGACATCCAGTCCAGTATTCTTTCCATATTTTTAGAGCTCTTTAAGTGACCAGTGTAAACATCTACACAGTATATTTTACTGTGATACTTAGAACATCCCCGAAAGCAATTAACTACATGACTAAAGGTTTGTCCAATTAATTTTTCCTTAATTGCCCATATGCTGAAGGCAACTCACAGGCTACAAATAATTTACGAAACTCTTTTACTCATTGTGGTCATTACTGACCGTATTGGCTAGCAGCAGTCCTTCCCAATGTGAAATGGGTGAAGTGCACTTGGAAATTACATGAGGCTTGCACTTTTCATCCGCTCTTGTTGGCCTGGTCATCTTCAAGTGCCTGTTATCTTGAGTGAGATAGAGGATTCTAGCAACAGCTCCATTGTGTAGTCTTATCTTAGGAACATATGGACTCTTTCACATTTGGTTTCCCTAAGTAGGCCTTTAAAAGTGATGGCAAATTCTGTCAACATCTCCACCTGTTTTGTATTCTCTCCAGTAAAAATCTGTCCAGTAGCTTCAAGAAGCTCAATCTACTGCTGAACCACTTCATGCCAGTTTCACGTGCTCCTTTAGTCATTTTCTTCCTGAAGTCATGTCAAAATGTCTATCTTCAATAAGCCCTGTCACTTAAAATAGAACCCTCTACCTACAGATTATGTTTTCCTTTTGACCTGTGTACCTCATTTGAAGTATGTGGCATAGATTTTCTATATCCAATTCAACGTTTGTTCTATATTCACTTTTGGATGATTCTAAGTCGTGTTATCATATCAGACTATCACAATTTTGAATGTTGAACTCAAACTAAATACTTCAT
0.6017268664325655 GACACCTGGAGAGGGAGGTATTTCCACATGGCTGTCTCTTGTGCCCGCTGCTCCCAAAGCCCGTTCCCTGCCTGGCTGCGGGCAGGGACCTTCCCCCACAGCCCTGCCCAACCACGATGCAGCACCCCAGGGACACGGGCAGCTGAGGACAGCCGCCCAGATAAGCTCAAGTGTCCACTGAGAGGCTGGCAGGTGGTGACGCTGGGAGTCTCAGTCGGGAGGAGGCCCTGCCCCGGCGCACCTGGCCTGGCTCTGGCTCTTTGGGGCTGCTGTGGCTGTTCAGCCTCACCAGGTGGCCCCGGCTCAGAATAGAGGCCCCCGGCCCTTGGTGGCCCT
0.4033264581376698 AATTGTTCCTCAGGCTCTTACTTCAAAGCACACTTGCCCAGAGCTGCCCTTACCGCAAATATCTGGGTGTAACCCGACGCCCGCTGCTGGCCTCTGGTGCTGGGACCGCGCAGTGCTGGAGTGGGGCACAGAGTCCCCATCCATCAGCCACTGTGACTGTGCCAACTCCGTGTTTACTCTGCCTAGAGATGGATGCTGCCCAAACGCCCGGAGCGCTGGGAATGAGGTGGGCTGGCTGGCCAGGATGATTTCTCTGGAAGAACTCAGGCAGGAGCGATAAGCCTGGCATTTCCGCTTATCTCTGACCCTGTCCAGGCCCCAGCGGCATCCAGAGGCTTCACTTGGTTATCTGCCTTGCTGGGCTCTATCTGCCTCCCCGGGGGCCTACTTCCTGCATCACTTAGCAAAGTGTCCAGCTGTGAAACAAACACCGTGTGGTCCAAGGAGGGAGGAATGAAGGGAGGGAGTCCTCGGGCAGAACTGACCTGAGTTCAAAACCCCACATCCGGGTGCAGGGGCCCTGGGGATGTGCAGGGACTCCTTGCATTCAGGGAGCCCTGAGGACAGAGGAGAGGCCGGGTCTGCAGCAGAGAGGTGGCGGCCCTGCAGGTCTTCAGTGGGGCTGCTTGTACCCTGGCCGGACCTGGTCAGTCACTTCTGTGCTGGGAGGGTCCTGCTATTGGCCCTCCAAATAAAACTACTCAGGAGGCAGCAAAGAGGCACAGAGTCCCCAAAGCCTGGGGCTGCAGTGCAGGAGAAGACAAGGAGACAAGGACACGTGGCTCTGT
1 AGATTCACATTCAGGTTACCCTGACTCTAAATATTCTGATGTTAATCCCACGAGGAAAGCTACCCGCCATGGGTGTTAGAGTCATTTTTAAGGTCTGTGACCTAACTTGGAAAGCCAGTTGTAAAGGGTGAGATGGGTGTTTAGGTCCAGGGTGGCAAGTCTGAGCCTGGTACAGGCTGCTGGGCTACATATCCAAGCTGCGCTTATCTTCTCCTGTCAAACCATCTCCCTCCACCTCCCCTTATCTCACTCTAGATAAGGGCTGGTTCCTGGAGCTCCCACGCCTATCCAGCCCTCAGCACCACCTTTAGCTCTTTTTCCACTGGAGCCCGAAGACGAAGTTGTTCATTCTTCTTCTAGGGGAGGAGGGGTGGCCATTGATTGGGGTGCGGAGGAGACAGCTTCTTCCAGTTTGTAAATTATTGTCTGGCTTGATGCCTCTAAACTGTTCATAATTTTAGACAAGGAGGAGCTGGCAACTTGGAGAACTGATTTACAAGACTATTTTCTAAACTGGTACATTTCCCCAGGTACAAATCTGCCTCCTGTGGTAGATG
0.9034562211814554 AAGACAGAGACAATCACTGGGCAAAATCTCAGAGATTTGATTGACACATAAAAATCCCCCACATTATGGAAGTCAGGCAGTGCCATAGTCCAAAGCTGCTTCTGGAAAATGCTTCAGTGTTCAGCCTCCACCTACGAATCCCCACTCAGAGAGATATCTCGGTGCTTGAGTCCCCCCGCCTTATCAGCAGGCATGACATAGATTTCACACAACACCTGGGCCCTAGAGATGGTTGCATAACCCACTAAACAAGCCACAATGCCTGGGCCTTAGAGGTTGCTACACACGCCATGGTGACATGCAGCGTAATTTTAAATGGACAGTCACTTTCACTCTTCCTTGTTTATGATGTGTTCATTTCAATAGTGCATTAGGAAAACTCTAACAAGGCGTTTCAAAAGCATAATGTCGTGGATATTATTGCTTAGGAGAGAACTAAAGTAGATACTTAAGGTTTTTTGTTTAACGTTACTGTAAAGAAAAATATTAATAGTAAAAGTGGCAGTGCATGAGTACCACAATAGATTATGATGATTGTAAGTGAAAGTTTGAATTTTGGAAAACGTGGAATCAGGAGGAGGGGGCAATGTCAGGTTTAAGCTGCAGAGTG
0.4469306245706171 CAGCCGCATTAGGTTAGACATTGGTGAGAACTTCCTGAGTTGCAAAGATGTTCCTAAGAGAGACTGATAACTGTCCATCTCTGGAGCTGCTTCAGTTGTGAGTGGGCACATATATAGATGCCCTTATCTTTTTATAGCTTTTGTCTTTTTTTATGTTTTGAAAGTTTAATTTGAATTATTTTGTGATTACAGATCTTACAGGTAGATGTTGGGTACAAAATTCAGGCATTCTCTGATGGCTATTTGAGAAAGGTTGGCTGTTCCCATCTGCAATAGTCAGGGGCAGGAGCCTGGACTCACAGGCCAGTACAGCACTCAGGGAGACAGCCTAGAAATGGAAGGGCTTTTGGAGGAGGGAAGCTCTTGAACAGAGCAGACAGGGTAGGGGTGTGGGAGCGTTGATGAAGGAAGGCCAAGATAAGGCTGTGGTTTCCATTTGTTACCACCTCTCCCGCTTATCTTGAGTGAGAACAGGCCCTACAGCTCTGAGCGAACCTTTCCATGGGGCTGTTGAGCTGTGAAGAGGACATATACGAGCTCTCCTATCCTCTCTTCCCAGTGCACCCTTTCCCTTGCACACACAGGCACCTGTAAAGGCTGCAGCTTTGGTCTATTGGATGGGTGGGGACAAATGCAGAAGTGTCCCTGTTCTGGGTGCTGATTACTTCCTAGCAGAGCTGGGGGGTGGACTGGCACATTTGTCCTTCATGATCTGAGTCTTACCTCTGCTGGCCTTGTGCTCAGACTGGCTGGTGGGCCATCTTCTGCCTTGTCCCACCCTTACTAGGCTGATAAATTGCTGTTCCAGTCAACAGGGCTCTGACCCAGCCCTTATCTTTGGTCAGAAGGAGGCTGGGTGACAAGGACAGGGGGAGGGGCTGCTGCACAAGCCCAGCCTTTGGACACTGGTAACCTTTTGTGGGGGAATGTACACCCAGCTGC
0.3788691510171884 AGTGTCTTTCAGTCCCACATCAGGAAGGAAAGAAGGGAAATGATGTTGATGTGGGCCCTGCAGTGCTGCCCCTGCTTCTCTGTCCCTGGGCAGAGGTCTGCATTCACCAGCTTTATCCCATGGCCTTGTCTCCTGGCCTTTGCTATCTCCTTTGAATTCCTCCCTTATCAGTTGGGCTACACACAGCAAGTCTTTACCATACATGCACAGAGGTTCTTGATAAGGAGGCTATTTTAGACCAGTATGGAGCTCTTCCGTATAAAGCACTGGTGACTTTTTTTTCTTCTCATGGGCTGTCACTGATGCAGGCTAAAGACACACTTCAGTCGGCCACAGCCGGTCTCATGCCTCAGCCTCCAAGTCGCTGTAGCCAACAGCGGGGTCTCAGCTGCACCACAAGTCCAGCCAGTGCTGGCCTAGGCCGTATTTCTGGGGGGTAAAATATCAGGGTCCAACCTGCCTGTTCTAGGACCCAGTGTTAGAGAGCTCCTGGCTGACCAAGTCCTGGTTTA
0.336353318744248 AAAAGAAAGCCTGAGCCTTCAGGCCTGCATTCTGGCTCGTTTATTCTTTCACCAGCTGGAGTCCTCCCCCGTGGCAGGTGCTGGCTGAGCCTGGGGAGAGCAGGCCACACGGGGGAAGGTGCTTTGAGACCCTCCCCAGAAGAATCCTCCAGCCTCTGGCTAAACCCCCAGCCACCTTCACCAGCCACATCCAGGCTCCTGGGAGCAAACACGAGCTCTCTTGGCTTCCTAAGAACCAGTTGTCCCTGTCCCCACCTACCCTCACCCCAGCAGTGCAGGGAGGGGGTCCCCTCCTGAGAAGGGTCACATTCTAGGCCTGAGGGCGGCCAAGCCAGCCCAGTGGTGTTTTCTCAAGCTGCCTGAAGAAACAAGTCCAGCATCTGGCCTTCCTGCTGTGATAATCCTCTTCCTGCCCCTGCGCCCCCTCCCCACTTGGCCGGAAAGCGGCAGGCTTTCTCTTCCCCTCCTTACAAGGGAGGCCTGGCTGGAATGTGTCCCTTGATAACGGGGCTCGTGAGGGGCTTGGCATAGAATGGGCTGCCTGCTGTGGGCTCTCAGACACATGTGGGGCTGACTGATAAGGGCCCTGCTGGCCTTCTGCGCTGAGGCCCCATTTGACAAGCTGTGGGCAGGATTTGAAGAGGGGTCAGTGTTCACAGAGTACCCTGGAATCCATCAAATGTGCAGGGAGCGGGCTGGGCACAGTGG
0.6129626149940361 AAAATCACTACCACCACCATCAAAGCCATAGGTGAATACTAAATGGTGTAACAATACACATGCCCTCAGCACTCTGTATCCTCTGAGGCCACACAGTAATGCATCTGCTGCATCTAAAAATGGGGCTACCACAGAACAAGGTCATTAAAAAGTGTGAGGAGATGAGTGGTTTGCTGCTGTTTTTAGCACAAGTTCAATCAGCTATGATGTCCTTATCAAGCTGTCACTACCAAGTTCCTTGATAAGATCTGACGTGTGAGGTACATAAACCTGTTCTGTTGTAGCACTGTGGCCTGTATGGAAAAGGTTAGATACATGCAAAATAATGCCCAAACATGCTGTTTAATCTTGGTGATAACAAGAAAGAAAATGGAGGTGTGAAGTGAGTTACCATTGAGGGTTGTATCAGTATAAGCAATTTGTCTGTAATGGGTGTAGAGAAGTTAAGAGAGGTTACATTCTTTAACACTGTCATTCTCACACACACACACACAAAAGCAGGTCTAGGTTCTCTATGGCTTTGTCTCTGTTCCAATAACTCTGAACAGTTTATCAGGTGGTATCATTTCTGCTTACTAGAAAGCAGGAAGTTTAACTGTCCCAAGTATATTTTATCTCCTTTCTTCTTTTAGCTTTTACTGAAGACAAGTGAAACAGGAACCATACTGTAGAGAAATCCTTTCTAATAAAGCCTTGATGAAATTTGAATTCTGAGAGAAATAATGAAACACCAAATCTTACTAGGATGGGCTTTAGAAGTCCTGTGTTTGTAGAAATAAACATTTACTCATTCCCTAAAATCACTACCACCACTACCAAAGCCGTAGGGGATGATCTTTGTCACAGGTGCTAAGAGTTTCATTATTCCCTGTGGAAATCCCTGTGAAAGTTGTTTTCATTGGTAGGCTGGTAAACCAGCTTTCCTTAAT
0.4679310222867856 GATTGTGGATCTGTGGTAGGTGGGGGTCAGGAGGGTGGCTGCCTTTGTCCGACTAGAGTGTGGCTGGACTTTCAGCCGAGATGTGCTAGTTTCATCACCAGGATTTTCTGTGGTACAGAACATGTCTAAGCATGCTGGGGACTGCCAGCAGCGGAAGAGATCCCTGTGAGTCAGCAGTCAGCCCAGCTACTCCCTACCTACATCTGCACTGCCTCCCGTGACTAATTCCTTTAGCAGGGCAGATTAGATAAAGCCAAATGAATTCCTGGCTCACCCCTCATTAAGGAGTCAGCTTCATTCTCTGCCAGTCAGAGCTAAAAATAGAAATTGTGTAGGAGACAAACCTTGTTAATTCCCTAGAAATACATTAAGAGGATAGAGTGGAATTTTTTTTCTCTGCAATCTTGCATTTTTTTAATGGCTCTTTTTTTTTTTCCTGATAAAAACCTTTGGTAGGTAGGGAAGTTATGTTTTCAGGGGTAAATGTGCTACTTTTGTCTTCTAAATTTTGCTCTTTTTTGACTGGTCTAGTCAAGTGACAGCCCGATTATTTTGCTACTCCTTAAAAGTACTATTCTGTCTCTTGGAGTATGGTTGATGGCAATTCCAGTTAACTGCTGTGCAGCTCTCATCTCATTGTGCACACAGCATGGAAATCTTTCTCAAAACT
0.5107228177373382 AAATGGGCACCCATCTCCCAGCAGGTTCCTGTTTCTGCACAGATAGGATGCATCCCCTACTGCAGCAGGAGGAGCTGAGGCTGAGTCTGGGGCCTCCCTTGGGATCTGTGGCATGGAGTCTGGAGCCCCTTGTCTCATTGACTCAGAGACACACCCACAGGAGATAACTTTTCAACTTCTAGTAAGCAATCATTTGAATCATTAAGTATTTTTGGTGTATTATACATAACCACACTTAATTACAATTCATACCTGTACCTTCTTATTGCTACCCATATTTGAGGAATAGGTCTTTCCCTTCTTTCCTTCTATATTTAAAACCTTTTATCTATATTTTCTTCTCATGCCTTGAGTCTAATCTCAAACCTTGTTCTCTTCTTGATCTTTGCTAACTTTGTTGTAAATGTGCTCCTATCCCACTATTGAAACAAACAGGCAAACTCTCCAACATTCGCCTTATCTATCCTCATTTCAGCTGAATTTCTTGACAGTGTAGTTCACACTTCTTTATCTCTGATGCATTCAGCTGCTCTCACCACGTTTTTAAAATCCAGTGGGCACGAGTCACCCATGACCTTTTAGTTGCCAAATCCAGTGAACACTTTTCAGTTCTTGTCTGACTTATCTCTGGCATTTATCAGTGTTGACCTTACCATAACTCTGAAACTTTTCCTGTCTTGCTTAGCTTATGTGATACCTTTTCCCTCAGGTTTTTCTTCTTTTCTGGCTCCTCTTCTTCCTTTTCCACAGCTGGCAATTCCTACTCTTACAGCTCTTCTAATGTTTTCCTTTCCTTTCCTTTATCTTTAGGCAAAGGCTATGGTGTGTGTGTGTGTGTGTGTGTGTGTGTGTGTGTGTGTGTGTGTGTGTGTGTGTTCTAGCAACCTCTTTCAAATGAATTCCAATGGATTCTAACACTAAGCTGGAGTGTCAGGTACTACTTGTGATTTCTTCTCTTTTATCTTCCTGGGAGTTTTACAGAATCTACAGTAGTGATCACTACTTCCCACAGTCTTTTCCTGACACTTTCTTTCTCCCTTTCTCCAGTTTATTCACTTCTCTTTTAGATTACAGGACAATTTTCCTCTGTTCTCCGTACATCCAGCCTGGCTGTCCTCCAGTCTGTGTTCCATAGAGCTACTGAAAACCCTACTAAGAAACAAATTT
0.9667401638875057 CTCCAGGGAACATCTGGCCATGTCTGCAGACATCTTTGGTTGTTACAACTTGGGGGTGGGGGCACAGGAGCCAGGGACACTGCTCATCGCCCTGCAACCACGGACGCCTCCCTCAGCAAAGATGCCCCAACCTAAAATGTAACGGGAGGAAGGGAGAAAGCAAGGAAGGCCAGCCCTCCCCGGGCTCTGCGCGGGTTTAACACTTACCCCTCCTGCAAAGGCAAACCAAGCCTCCCCTCACCGTTCCCCAGCCCCTGACAAAAACCACATGGCCCTGTCATCGCCCCTCCCCAGTGCATCTAAGTGGCTGCTGTCTTATCTCGGTGACAGGACCCAGGCCCCTCTGTGGGGCACCAGCCCTAAATACAGCCTTCTAGGAAAGGGGAGTGAGAGCCACTTCCAGCCCGGCCATACCTCCAGCACCAGCCTCCTCCTGGAAGAGACCCTCTAGGTCTTGTGACTCTGGAAATCAGGGGGAACCTGGTGGCTATGAGAAGGAGACATTTATGGAAAACAAAAACCCAAAGTGCCTGCGTGCATTTCTACAGGGGGGTAGCAGTGAACTAAGTGATGAGTGAACCGG
0.4163502913573467 GGGCTGAGATGAAGTTACCTCCTCCAATGAGAAATTGGGAGCTGATGCCCTGCAACAGATATATATTCCTCTCTCTCTCTGTCTCTCTATCTCTCTCCTCCCTCTCCCTCCCTCCCTCCCCGCCAATAAGCCTTACAAACAGTTTTGAAATCTTGTTCTGTACCTTTTAAGCCAGTGTCTGTGGCGAGGGTGACTGGCAAGTCAGCTGATGAGTTCTGCCTTCTGAGAGCACTGAGTGAGCAAGGCCTTTCATCAGTGTTTTGGCCTTCTCATTGGGTGAGGAAGACATTGAACCAACAGCCAACGAGATATGAACCTGTAAGAAAAAAGTCCTAGAATATAGTATTTTTCCCCAGGCCAGCAAAGTGAAGAAATACAGTGGTGACAGATGAGAAAGGCCATGTTCAAGAGATCTGAAAAGTACATTCCTGCCTTATCAGAAAATGTGTCAGACAGGTTTTATGTCAGCCTCAGTGCTCCTGCGGTGTCGACGCTCTGATAAGGACCATGTTCCAGTTAGAATGCGAGGGAGGGAAAGAGCTGCACTTTGCTTCACCATCAGAACTCTGAGCCAAATAATGAATATGTAAACTATTTTATGATTATTTTAAATGTTTGTTTGGTAACATTTATAAGATCTATTTTTATTTGGGGATAGACTGAGAAGCCACCATTTACATATTAACAAGTGACTTCAGTTCTAAGGGTTGAGATGCCTGTGTGGATTTATAAAATGGTTGCAAGATCTTTTAGACTCTGACATTTATAGCATCACC
1 AAGGAGGAGACAATTTAAAAAATTAATTTAAAAAAACACATTAGGATCAAATAACCCCTCCAAAGAAAGGTGTTCTATGGATGAGAAATGTAATTACTGCTGTAAAAATGTAGGGAATTTTGCACGTTTAATATAGTTTGTCTCCTATTAGAAGCACTAGTTGGCATTTTTCAGTATTAGGGTTGTGGCTTGCCAGGCCCACCCTCCTGCTGTGTTTGTTTCAGGGAATAGAACTTACCCAGTCGCAGGTTTCAGAAGAGCTGAGGTAACCTCCTTCAATGTGACACAAGTACTGTTTATGTTGGAGACAAATCCCAGAAACTCAAGGTAACAACGTACACAGAGTGAGAGAGTATATGCAAGAGATTTTTATTTGGCATTTTTACTGCTAACAGTCTACAGAAGTTTTAGTATTTAGTGCCAGTTCAGGCTTAAGGGGTAGTTTCTATTTCTGTGTGATTTTGAAAGGTTTAAAGAATCAGCAAATTATTATATAATAGATAATAAAGAATAAAGATTCTGGCTTCTATGGAAGCTTGCAAAGATATGAGGGAGGGCAAACAACTGCTTCTACGTGTTTTGTTTTGTTTTAAGAACTCAAAAAAGCATGGTAGGTTCTTTGAGCAAGGCCTTAGTTGTCAAAAGTTTCTGAAGCCCTCAAACCAATAAATAGTATTATTACTAATTAAAAGAGCAGATAAACTGAGAAACAAAGCACTTAGACCTAGGGTGACATGGTGAGACCAAAACTGAATTCTGTGTCTTAAAATTCAGTTATCTAATCTCCCCACTTCATTGCATATTCTACTAGCAGTCATTCAGTAAAGTACCTTTCATCACTGCAGGAGTCTCTCTGAACACAGTGGCTTTGGAATAGGGTTATCTCCAGACATTGTTGACATCATGTCTCTGCTCACATACCAATTGAGTGAATATTGGCCCACATGATTCTTGTAAGTGGATTACAAGAAATCCACGATAGACTTCATTCACTTTTGATGAAACCAAGAACTTTCCCTCTTGAGCTACCTAATGAGATACTGTTATTTGTTTATTATGCAGGGTACAGGTTGGGGCTTGTTAGCTCTCTGAATTCTTAAGCACTCAACTGAGGAAATCAAATGCATGATTTTACTATGCCTGCACAGGAGTTGGAGAAATTCATAAAGTTTATACTTTACTAGTTTTCTTAAGAATACAGATGTAAATAGGCTGTTAAGTCTGCCCAGGCAGAACTGTTGT
0.822839199335746 GCTGACCTGGTGGCAGCCAGGTGCATCCCCACAGGGACCCAGGCTGCTGGCTGGTCTCTGATGTGCCTTCCACCTTAATGACTCTGCAGTGCCGAAGCCATAGGGATAAGTGGCTACCTCTCCCCTCGCCTGGGTAATGCTGCCTGGAGGACAAGGCTGTTACGGAAAAATGTGGCACTAAGAATAGCCAGCTAGACGTGGTGATAAGGGCCCAGATGGCCAGGGATGTCAGCTGGGGACAGGGAAGGCGGAGGTGGTGGAGAAAGAAGAGGGTGATAAGATAGGGGCAGCAACACCGGAATGCACAGCTGGGGCTCTGGAGACAGGCCACAGGAGTCTGCCGTGGGCGAGGGAGCTGCCCGGAGCTCCTTCTGGCTGTGCCCTGTGGGTGTGAGCCAGTGGAAGGGAAGGTGAGTGCCAGCCTGAGCAAATCAATCAGGGAATTTCAGGGGCAGTGGGATTTTAGTGATCCTGGCTTTTACCTCCATCCACCCCTAGTACTTTAGAGGGGGAGGAATTTGTGGCTTTGAGATGTGAAGGGGCCACTTGGAGGTTGGTGGCAGAGCTCAGTCCAACCCCAGATCTTCTGCCTTTCCCACAGGTTTCCTTCTGCCACCACCCCAGGCCCTGCTGTGGCTGCCACCTTGTGAGCCTCTGCTCCACACCTGGGAGTGCAAGCCACCTC
0.5856733881013259 CCTCAAGCAATCCTCCCACTTAAGCAATCTTCCCACTTTGGCCTCCCAAAGTGCTGAGATTACAGACATGAGTCACCACCCCATCGTTCCTTTGTTGCTTCCTGTCCTACTTACTATTGCCTTATCAGTTTATCTGTCTCTGCCCCTGCCCCTGTCCTTAGACAGAGGCATCCTAGCACAGGTGCCTCATGGTTTTCCCCTCTGGGTGACCCTGGAGCAAGACCAACCTCTTAAGAGGGGAGGGGAGGGAATGTGAATAAGTAAATAAATAAGCAGATGAATGAGGGACTCTTCTCAGCATCTTTGGTGACCCTGTCTGACTATCACTGGCTGTAGAATGTGTGACAACTGAGTCTACCAGGCAACGGCTGTTTGCCGGGAGCAGCAGGACCCAGCCAGAAGACATAATGGAAGCAGGCCCTGGCCAGAGCAGGGACCTCAGAGCCTTTCCCGGCAGAGGGAACGCAATCAAAGCTGGCGCTGCTTCCGGGAGGAGAGAATTCCCAAAAGGCTCTGTCAGCCCCTCTGATAGGGATCTGCAGGGTGTGTGAGAGATTTGTTTTTCAGCCAGGATGTGGGGAGTTAAAAATAGACACCCTAATCCCTTGAGTTCGTGTCACACTTGACGCTGTGCAGAGCCCTATGGCTCCATTATCTCACTTGAGTGGCTCGGCAGCCTTTGACGTGGGGAGAGGTTGCACTGCCCGCTTTATAAATGAGCGTGTGGAGGTGCGTGCCCAATTTCTTACTTGAGACTGTACCCCAAATTCAGTGGCAGAACCTGTCTGATCCTCAGCCCCTGAGGTCTGTGTTTTATATTCTTAGGAGAAGCCAGATGAGAGTCAACAGGC
0.3773406081047246 CATCCCTGGCCTCTTTCGCGCCATCCCTCTGGCAGAAACCACTCCTTGAAGGTGTAAGGGAGGCGAGTTTCCTTTGTTTAGTCAGTTCGCTCCAGTCTCTTCCCCCCACAGGCCCAGCGCCGGCAGCTCAGCGATGCACTCACCATGCTGCAAGCGCTACCGGTTTCCGAGACGCGACCACACAACCACTCAGCTCGCTCTCTCCACTCGGACTAATTCGCCTCCTCCGCCCCCAGCGCCTCATAAACACCTCCCTCCGCCAGATCCCTCCGCCGCATCCAGATAACGGAACATCGCAAACGAGTCCCGGCCAACCCCCTCCCCTCAAACTCTTCTCGGGACCCCTTTCTTCACAGTTATTTGGTCGATGAGGCAAGAGATCAAGGAAAGTGGGCGAACGGATGACGTAAGTGGGTTTCATTTCCAGCGAGCCGTTAAAAGGCCGGTGGAGCGGCCCCTGAGGGGCGCTACTTTGCGGCGCGGAGGAGCATCGTGGCGGCGATGCGTCCCCCGTTGGTCGTTGAGCCTGCCTCTGATTGGCTGGTTTGTACCTGCAATGCGTCACTGGGACTCGCAGCCGCCGCCGGGACGCGGTGCGGCTTCTGCCGTTGCTGCTCGGGCCGCGCTGTCCTGGCAACTG
0.5040082941176209 AATAAAATCTCTGGAGGAGAAACAAGCTTCTGGGCCCATCTCCTCCTCCCTCTCCTCCCTGCCATCTCTCCTCTCCTCAAATGTCCCTGCAGTGTGAACCCCGGCCTTGAGGCTGGGAGCAGGGAGGCCAAGAGAGGAAGCTGTACTCCGCCTAGCTCCTGGCTGTCAGCACCCATGGCTGGCAGGATTGCCACAAACTCTGGCGCTCTAAAGGCTGATAAAGCCCCACAGCCTGCACGTCTGGAGCCTGGGCCTCCAGCCCTGATAAGCTGGACCTGTCAGCACCATGGCCACACCTGCTGTAGGCAGTGAGCGCCACCCGCCTCCCCTGGCCACTCCCACTCACGGCTTCCTGTTCCCTGTGCACAGCCAAGCCCTGGCCACCATGCCTAGGCCACCCCTCCCTGGATGAAGAACAAAGTGGAGTGGCCATGGGCAAGCAGATTTGCCCATTACATTTCATCTCTGCATCCCCCCAACCCCATCCCGCTCTTAAGCACCAGCGCTGGGGATCAGAAGACCTGGGAGATTCAGGATAGGGGTGCTGGAGCCCACCAGGCACACAGTTCCCTGAGGAAGTCACATGGGCCGATCACACGCAGAGCATGAAGTGCTGTCAGCAGCTCCAACACATTCCTGGGATTCTCCAGCCCACCCCATGTGGCCCTGAGGGGAGTGTGCAAGTGCATGGGGGCTGAGAGCCTG
0.8812885872129548 TGTTCTGGTATCCTATAGCCATAATATGTATTGTCCAAATAATAGAAGGGACCAGTTTTCTCTCCCTAAAGAAAAAAAACACGAGGCTGCCAGTCTGTTTTTCTCCACAGCTGGCATCTCAGGGCCACTCAGACCAGTGTGCATTCCACCCTCCTTTTGGCATTCCTCCTACAGAATTTAAAACCTATAGCCACAAATGTTAAGCATCCATATGGCACTTTATGCCTGTGCAATGTTTTTTTTTTTCATTTTTATTGGTCATTTCTGGAAACAACTCTCTAAGGCAGGTTCATGTCATCACCCTTACATGATAGATGAAGGAACACAGTCTCACAGAAGCTCTGGGTCACACAGCAGGGAGAAGGCTGATTCTCTCTCCAGGCTCCTGCTGCTTCTATCTAATCTCTACAGTCCTGTGCTGGAGAGCTTCCATTTGCCCAGCCAGAGCCATGCTCCTCTGTCTAGGGAGCCTGACCTGTATCAACAGACTCTTTTGCCCTTGTCTTCTGTTTGAGTTTGGCTATTGCAGAGAACAAGAGAAAAAAAACAAGAAAGGCAGGATTTTAGGGATGGAGTATTTATTTCTCTAGCTCTCTTTCTGA
0.4903348511296733 AATTACAACAACCAATCTTCAATCAATTTTGAACCCATGAAGAGAAGAAACTTTGGAGACAGAAACTCTGGCACCTAAAAAAAAAAGAAAGAAAGAAACTCTGGCCCCTGTGGTGGCTGAGGCTACTATGTTGCCAAAACATCAAATCAAGGTGGCTAAGGCATGTGAAAGTTGCCAGTACCAGAATGGAGTCACTTATGTCAAAACCCTAACAAAGTGGAGTCAGGAGGCCCTAAAAAAGTTCTCACCGCACATGCCTATAATATACCTTATCACAAGAAATTCCTGCAGGTCCCACATGCCCCACTTCTGCACTCACCCTGCAACAGAGCTTATCACAGGAATTTTTCAGGCCTGCAGTATTTCAGACAAGCTGCCAGCACCAGGACAGTTACTCAGCAACAGCCATCTCCACCAATGAATAAACGCCAACTCCTGCACTGAGCTTCTGTGACCCGTGAGCTTTATTTCAAGCTTTATTTCATGGATTTCTCTTTGTCTTTAAAAGCTTTCCCTTTCCCCAACTCCCCTGGATACATTAATGGCCCGTCATAGCTTGCATACCCTGCAATTGCAATCCCTCTGCTATTCCTAGATA
0.5691588858714158 ATTTGCCATAATACCTATTATTTAAAAAAAAAAAGAAAGAAAGAAAGAAAGAAAAAGAGACACACACCAAGCCCTCCCTCATTTCTAGGCAGTTTTGGGAGGATCTGATTATAAACACATGCCCAGGACGGCATGTCTGCATGCCTGAATCAGGTCAGTGGAGTTTGCTTCTTCTTTAAAGCACAGAAACCATAAATCAAGATGAAAATCCGTCATCCCAAAAGCCTTACCAATTGATACAATTTGAAAATGGGCAGCTGGAGAGGCTGGAGAGAAAGCTGACATGATGACTTTTATAATAGCAGAACGTTTAAGGTTATAGAAATAAAAGGAAGAGGATGAAATCAGGCCCGTTGATCTCTGCCTGCAGGCTCTCTCAGCTCACTGGAAGCTCCAGCAATTATTTCTGCTCCGGTTTTCCCCTCCTTTTTTTCCAGCAGACTGTTTGAAATGAAGCAGAACCAGGCATGGCAGGCTTATCAGTGTCGTTAGCTGACAGGGCGCCCAGCACACCTGCTTTTACTTGCTGCCGTTTCAGGCACTAATGCCACAGAGAATGTTGCTTGGGCCCTTATAATGTGTAAAGATTCATTTATTTCACCTTTTGAACCTGCCTGACCCCGTGGGCTTGTGTTGGGGAGGGGGTGGAGGGCTGCAGAGGGCTTTTTTCCTGGCACTTAGAAGAAGCTGGCAATTAGGGGTCTGGCCCTGGGGCTGTTGCTATGATAGAGGCTTAAAAGAGAGGTAGGAGCTCAGCCAGGGAGGCGCTGGGAGCTGGGACTGGGGGCTGGTGCA
1 AAAAATAGAGTGGCTTTTCAGAAGACCAGTTTGGTAAAAGAAATTGAGTTGTAGAAATCACTATTTTTTTTTTTTTTTGCAAGAGCAAAGCAGATGGTTGTTGATATCAGGGTATTGAAACCCAGTGGCTGTTATATGTCAGAGTAACTTACAGTGAATGCCAACAATCTTCTTTTCCTAATTGCTGCTGCTCAACATGATGGCATTGTTCAGTCTGGAATCCCTCTCCACTCCCTCTCCAGGGATAAGCAGCTGACAGCTCTAAGGGGGCAGGATGGATTCCCATCAGATAGCAAGGTGGAGTAGTTATGTGTGCTGGTGGGGGAAATGCACTCTCTGCTTTGTATTTGGGTCTTGTTTTGGGGACTGGTAACTTCTTCCTGTTTTGATAAATATATAAATAACTCTAAGTATCAGGAGAGACAGTAACTTAGGCTTCTTAAAGAACGGAGGGTTTTTCATAAGAATTAAACATTTTTTAAAAAAGAATAAAGGATTTTTACTCAGAGATGAAAAATGTTTGTTTCTCAAATGAAATGTCACATTATAATTTT
0.3538894354842332 AAGAACATTTTGTTGTTGTCATTTGACGTACCTTTAGCTAGTACAAATGGCGTTACTGTGAGCATTCGTGTACAAGTTTTTGTGTGAACATACATTCCCATAGGAGTAGAACTGCAGGGCCATGTAGTAACTCTGCACTTAACCTTTTGAACGACTGCCAAACTGTTTTCCAAAACGGCTGCATCATTGTATGTGAGGGTTCCATCCAGTCTTACGAAGAATTCCGGATTTTCTGATAATAAGCAGGGGCTGTGGGAACAGGAGGTAGGAGATAAGCCTGTTGGTCTCTCCTATGTCTGACCCGCTTGCTGGCTGCTGTGCCCCGCACAGTTACTGTGCGTCACCAGCCAGATAAGATGCCTGTGTTCTTGTGGCTGGTGCGCAGACTGTGTTGCTGTTACAGGCCGGCTGTTTGTAATCCTTGCCTCCTGACTTTAGAGATACCAAGCTACCAAATTGTCTTTGTCCCATCCTTGTCCTAGTTAGAGGAAAATCAAACCCTTCATCACAAAGCAGTCCAGGTTTGAACATGTCAAAATCACCCACTTGACCAGTGAAGACAGCTGTAGCGACTTCACAGCAAGAGAGCAGCTTTTGTTTTTGTTAGGGTTTACATTCTCAAATCTGAGCTTACTCTTTTCTTCTTTGGCAGGCCAGACTGGACGTTCCCTCGTCTGTACTGAAATTTTGTGTGTGTGTGTGTGTGTGTGTGTGTGTGTGTGTGTGTGTGTGTGTGCGCGCGCGCGCGTTTAAGGGAGGGGAAGGCACTGGCTCTTCCTCTAGGCATATTTGGGTCCTGGTAAGGACACACACTGTACATTCCAAGGCTTTGTTTGCATCTGGAAAAAATTAGCCACACTCAGATCTTTCCCACTACAGGTCCCGTCAGGAAGCCCAAGTATGTGGAAAGCCCCAGAGTGCCTGGAGATGCAGTTATAATGCCATTCAGAGAAGTAGCCAAGCCAACAGAGCCTGATGAGCATGGTAAGAATTTCAGTGATTTC
0.4438681833371349 GCTTACACCAAGTGGAATGCAATCAGATTCCATGGCCACTTCTGCATTTGTTTTTAATTCCATGTAATCACCATGGCTGCAGCTTTTAATCTCCTGAATGGCCATAGCATACATTGCTGGTTCCATGCCAATCCCCAGAGCCCAGGCACCACTGAATGCAGGTAAGTGACTCACATGCTTTGAAAAGTTCCTTGACTCACCCTGTCAGTGACTATAGTCAGGGTTCCTTATCAACAAGTCCCGCCCCTTCTTGATAGGGGAGGACCTCTCAGCAGCACGAGTTGCCACTTCATCCTTCACACAAAGCTGTGGTTGTGTGGCTCCACAGCCCCCTTGTCAGTAATGAAATGGCCATGTGTGCAGTACTGTGAAGGGCCACAGATAGTTGCCAGGCATGCCAGCTGCAATGGAGTGTTTTGAGACATTGGAGTTTATGAGTAATGATCTAGGAGAGCATAGTTATTTTTTCTGAAGTGGGCCACAGTGAGTTCATTCTGGTTTAAGGGGC
0.600957087155883 GGGGGTGGACAATTGTTAGGCAGTAGGGGGTTGGAATTCCCTTTTGCAGGCCGGGCTGTGTGAGCCATAAACATTTGTCATAGAAACCCTGGATTTACAGGGACAAAGAGCCCTGAGCACAGGAACAAATGGACTCAAGGCCCATAACTCCTCTCCATCAATCTTTTCTTCTGGATTGTGCAAGACTCTGGCGATTGCATACAGCGGCTCCTGGCAGCCTCGAGTGATGGACAGGGGTAGCGATAAGAGGCACATTTCTGGGAAGAAAGAATGTGCTTGGCCTGGCAGGATGAGGTCGAGGGAGTTGACAGGGAGCCCAGATATAAAACAGACCCTACACACAGAGATATGTGGACAAGGCTCTCCAGTATCCTAGTTGGGATGGGAGGCAAAGATTGGCCAAACTATCTCCAAGAGAGGGCAATTTGGAAGGGGCAGGAGTTGTAGCAATGTTTCTTCTAACTATTTTAAAAATTGTATTTTCAGCTGCCACCTTTTATGGAATCAACAGCAAACTTAATTTCTTTTTGGAAAATGGTTTCGCATTGGGGGATAATGAGTGAAGGTGCTTATCCTCCACATGTAAAGGGCAGGCTCAGACTTGAAATTAGACATTGTAGGGAATCTCCTGCGGCTTTGCATCTTGACAAAATAAGACAAAATCAGAAAGAACGAGAAGAAGACAATCAACCACAGCTGGTTGCATGCATCTTAGAAGCAATCCTCTGCTACCTGAGAGCTCTTAAAGCACTGCAGTGAACAGAAAATGCAGCTCTTATCTGGCTTGAAACATAAATGTATTGGCTCA
0.4726029818705531 TCCACATTCTTGAACACAGGAGGAACAGGAGGAATGGAAGCTTAGTGGAGCGGCGGGGCCTGTGGCTGACAAACACCAGCTGCACTGAGTACATATCACATCATGGCCTGGCAGACGTCTTCTCCTTCAAAATGACACAGGCTATTAGCAGACTCACCGCAAAAGGATATGCCAGGAGTGGATGCATGGAATTCCTGCTGATATACTGGAATCCCAAGACTAAAGCAGGCTTCCCTGCCCTTATCAGACCAGCCAAGATAACTGGAGCAAGGGTGGAATCTGCACACAAGAAAGAAATTCCACCTTACAAATACCAGGCCCCAGATCCAGGCCCCGTGTTTGATGAATTTATTGATTCCACATAGCTGAAGGCCTGTTCTGTGCCAAGTATACTGCTTGGAGTTGTAGACACAGGATGATAAAATATAGTCCGTGCTGTAAGGGTACTCCTGGACCAATGGGAAATGCAAATGACATCTAAACCAACCACAAACATGCAGTGTGATGAGTGCATAGATAGATTGAAGCCAGGAGTGGGACGGAGGCATGGAGGACAGGCACAGAGTCAATTCATGGGGTGGAGACGACTTTTGAAGGATCACGCTTGAGCTGCGTCTCTCAGGAGAGGGAGGAGAGGCCAGACAAAGAAAGATAGTCACACGATGTCACAGAGCATAGTTCTTTTTGGACCTTCTCTGAGAGATGCTTTG
0.6536486271553209 TAGAATGCATTAATATTGCTCTGTATAATCCAAATAAAAATAAACTTTATTTTATTTGGTATATTAATGCAGATACTTGCAGAGCCTATTTTCATTATTTGCTTCTGGCCTTCTCTTCAACAATTGGTTCCTCTGAAACACCAAACCTAAGGATTTGTGAAGCTCTTTCTCATTCACGCCTGTCCTGGCCGCTATTCATTCCTCATTTTTCTTGAGCAGTATATCTCAATGAGAGCAATTAGTACACGACCAATTCAACAACCACTAGATATAATGACTGTCCTACTTTGGTGCAGCGGACATCTTTTTGTTGTCGTTGTTCCCAACACCATATAAGTACTGATTAGAAGCAGGAATGCCTGTCCAGGCCCTGTGAAGGAGGTGATGAATGGTATGTCTGAACAGCACAGCCCTGGCTTAGTATCACTGAAATGCCACACTCCTCACTGAAGTCTGTTGATAAGCCTGACAGTGCTCAGCAACTTTTACCAGCAGACTTTATATCGGGGGACCCAAGCTGAAAGTTAGCACATGGGGTGTTCTGTCAGCACAGAAGGCTTACACCATTAGTAGATCTAAATGGTGTTTAGATTACGGAGTTCAACAAAAATCTAGGTCATTAAGTGCATAAAAGAAATGTTACAATGACTCCATTCCAAATAAAATGATGTTTGGAGGGAAACAAAGAA
0.4994530945028986 AAAGGATGCAAGAACAATGAGAACAAAGTTCACCATAAAAGAGTTGTTCCATAAATGTTCACTGTCTTTAGAAAGACAGGAATAATAGGAAACGTGGGAATAAGTCACCAGAACGTGTAATCAAATGCCCAAGTGGGTGTACAGATAAGCGTTCCAGGAAGCAAGAAGGCGCAATGTGTAAGAGTGTAAGATCCACTACCATTTTTATGCTAGGATTATTCCACAGGTGTAATACTTCTCAAGTCTAGGCAAAACTACCTGTTTAAGGAAGCAACAAAATAAAATCTTCCTGTATCTATCAAACAAGTTCTTGAATTTTTGGCTCATTACCATGAGAACCTTCTTCATCAATCTTCTGAAACATGATCCCTTGAGGCTTCATTCTCATGTCTTATCTAATTCAACAATCTAGTTCTGTTATCTTTTCCTATTTTAATCTGGAGCTTTCAAGACATATTTGCCTAAATTTTCGTGCATCATTTGCAAAGCAGAAAATTATTAAATAAGACTCGGCTGCAGACTGTGCATTGGTGCACAATTAGTCTGAATCCTCTGAAAAAGCTGAGATAACCTCTGCGAGAGAGGCTTATCTAGCTTGTTTTTACAAATCGAAAACAAGGTGCTGAACAAGGGTTTATCTCAACCAGGAGAGCTACTTGAACAATTTAGATAACTTTCTATTTGCCAGCCAACTTTCTGTTATCAGGAAATACTATAGCAAGAGGTTGGCCGTGTAAAATATGTGGAAATTTTCAGCATACACTTATATTCCAGCGGGAAAGATGATGTTGTTTAAATAACAGACAAGTGATGAAATGCTATTAAAAGTGTACAAAGTAACTGCCAGTCAAAAAAGCCAGAGCAAGCTGTCACAGATAGGCTCATATATCAACAGCACTGTGACTTTTTGTTTGCTTTTTATCACAGCTTGGTGTATAAAGAGCCATTTACCTGATTGGATATGGGACAGTTGCCATTTTCTTCTTTCCTTTGAAAAGGTGTATTTTGGAGTTGTGTGCCTGATGATGCTCTATAGACAGAGCTTTCTATACAGCGGTGTTTCTAGAAATCTCCAAAAATTCAGAAGATACATTTAGAATCCTTCAAGATCAAAAGCTTCCTGCAAAATTTGAGGGGGTGGAGAGGGACAGAAAATTCAAAGGCTTCAAAGGAAAAAACAAACTTGCTACCAGAGAGTGTTTTGCGAGTGAAACTAATTTTCAGCAGTGGAATCGATTACAAAAATAAAAGTGGCC
0.7321008949158311 GTGCTGCATGGATTGGGGGCACCTGGAACAGTTGGCCCCTTCACCCCTTTCCCCCACCTTTCCAGCCCCTCTGGCTATAATCAGACAGTTGTGTGCGATGTCTTTCTCCCTCCTGAAGGGGTCATTTAGTCAGGCTCCTACTCATGGCCCAGGAATGTGCCCCTCCCTGCCTGTCCCCTACCCCCAAGCAGGCCGTGCCTCCAGCCCCCTGCTGTCTCTGAAGGGCCTGGGCATGGGGCAGCCTCTGCAGCATCCCCAGGGCCCGAGCTGATCTGCACAGCAGAAGGGAATTGGGGGAAAGCTTTTTTTCTACCCAGCACCTGGCAGGGGGCCACCCTGTTGCACCCCAGAGACCCTTGTCTAAGTTTTGTTATTTCAGATGATTTCATAAGTTGGGGGAGGCGGAGCCCCAGCCCCCACAGCCCCTGTTGTTGCCTCACTGCTGAGCTCTGCTGTGTATCTGCTGACAGGTCTGCTGATAGCAGAAGGGGCTGGAGAGAGGGAAGCTCTGGGCCCTGCCCTCCCCAACCCCTGCTTAGGGGACATCCCTGATAAGAGGAAATTCCAGCCTGTGACAGATGGCCAGTGTCCACCCACCCACGGGGGAACTTTTCTTTCTCTTTGTAAGTTTGCAGATTTGCCAGGAACTAAAGGAATCTCTGGTTGACAGGCCACTGTGGACATGGCTGGAGGGCTGGCACGGGCTGGATCTTGGGGTTGCTTTGAGGTAGGGGCCGCTCCTGCTGGAAGGTTCCTTGGGGTGGGGAAGGCATCAGGGCCATTCCCTGACCCTCCCTCTGCAGTGGATCCACTTCAGAGCCTGAGACAAGGCAAGGGGGCAGCAGAAAACAGAATATAAAATAGCCCCCCCCACCACACACCGCACCAGAAGTCAGAGGATTCATCCTTGGCCTGCCCTCCCTGCAGCCTAAGTTCTGAGAGTGGCTCTTTAGGAAGTGAATGGTGATGGTTTGCAGGTCAG
1 CTCCGCGCAGGCGCACTTGGCGGAGCTCTACGGCCGCGCAGAAGACCCAATATTCCTCGAGGCGAACGTATTTGTGTCGCTTTTCTGAAGATTTCGATTGTCAAGTTGCAGCTGACTCTCTTCATTGTACCAAAATTCAAATTCGAATAAAGATTCAAACTGTTCTCTTGAAACTGCATTCCTTCCTGGAACCCTTACGGACCAGTCTGGTTACCGTGCCCCATTGTGTCTTGGGCTCAAGTCAGCCTTCATAGTGACCCCTGCTGGTCGAAACAATTTTCGAGATGATTATCAGGAGTATTTCCCCACAGGGGGGCCGTAGGGCTCAGTGTAGAAGAGCAAGGACCCCTTTCTGCGCGCTTACTTTGACATAAGATTTTGAAATGTAACGAAACGGAACTGCTTCGGTCCTTCTAAGATTATCCTCAACGATCGAGGCGAACTCTCAAAACGGAGTTCCTATTTTGATGGGTCCTGCTCTCGGAAGGAGCATTCTGCAATTGATTACAGGATTCTCATCGAACCTCGGTCTTGGTACCCCTGAGACTCACCGCAGTACCTGGTGTACAATCGGTGCTCCATAAACACTTGGCAGCATGAATGTGCAAGTGTTTAGCTAGATAATGGTGAAATAAGATAAAAATAAAAACAAG
0.7715149084567572 GTCTATTGTTGGAGTTTCTGTAGTTGCTTAGAATATTAATCTTAACCTTCTAGCTAATAACAATGGTATTACTTTTAAATATACACTGTTTTTGAACTCATTACCAGGATAGGTCTTAGTCCTCTTTGAAACCTGCTTCTTTCTTGTCTCTAGTAACCTATCATTGACCAGGTCTGTATCTTAAAGAGTGCTAGGTTTGAGCTGTCCTTGAACTGACAAACAATGGAGATGAGGATCACAAGTGAAATGGCATGTATAGAGGCCCAGAGGAATTAAAGAGTTTGCATGTCTGAAGAACGGCTATTCTAAGTATGCATGTCACGTGGTGGCCAGAGATAAGATATAGGTAGTGAGTGGGGGCTAGGTCACAAACAATTCAGTATGTCATGCTAAGGAACTGTTATTTTTATCCTACAGGCAATTTCGTAAGAATTTCAATAAGGAAATGTCTTGATTAGAATTACAAATTCGAAAGGCTTTTGTAGCCACATGAAGAATAAACTGAGACAGGGGAAGTGGTAAGCAGGCTATCGCAGGACATGAGAGGCTGGATGGATTTGGGAATTACTTGGCAGGTCAAATAATTAGGAATTAGTGATCTATTGGATATAGGCAGGAAGTAAAAGAATAGAGTCCAGGATGGCCCTTAGGTTTCCTTCAGTTTGAATTAGTGAATGTAGAAGGAGCAGTCTGGGTTGGTGGCATATGAATGTGACT
0.7838890575591465 CCGAAAAGGCAATTTTAAGCATTGAGAATGTTCTGAGATGGATTTCTGCAGAGTAGGAAGTTGGATTCTTATATATAGGAAATCCCTGTCAGTACTTAAATTCTACGATTCTATGATTTATTAAGAATAGCCACTTGTGACCACATAGGGCACAACCTGAAAACAGGGCAGCCGCCTAAGAGAAGGCCCTTAAATAGTTATGAGTGAATGCCCAATGTGAGGTGAAGAAAGGGAGAGGTCATTAGAAAGGAAGTTGTGTACAAAACACAAGATTTTACTGCCTTGGTGAATTTTGAACCACAGCCAAATTACTTTCTTCTCTGAGAAGATATGAGGAAGAGAATAAAACTCTTCAAGGCAACAGCATGATATAAATCCAAAGCATTTTCATACTTTGGGAACGTGCTTGCATGCAGAAGTGTGAGCCGGGGGAGGAATCTTGGGTGATAAGAAAAACACGTCAGCAGGGCAGAGTGGTGAATGGCCTTCAAGATAAGGATAAGTAATTGAAATTGGTTAGGAAAGCAACAGGGAGCCAGAAGAAGGAATTGAAATGAGTAATGGGAAGCCAGAAGATTAGAAAAGCTAGACGGATTACCTTGGGAAGCAGGATTTTGAGATGGTAATGGCCAAAGGGGAGATTGTAGAATCAAGACAGGAAACAAAAAGACAAGG
0.5545785135569489 TATTTTGCCCCTGGCTTTCATTAGTGCCTAAAAACCCAGGCCCAAGTGTCAACTGATGCATTACCATCAGATTATTTACTTCACAGATCAGTGACTAAGTTTATTTGAGTCCGATTTTCATGGAATAGCATGGATTTTTTGTTTTATTTTTAAATCTGATAAGTATAAGCTTACAGGTGTACCTGTTTCCTGCTGTTCTGAAAACGTGACCAGGCTCTCTCTGTGACAGGATCACACCACAGCTCGTAGCCACTCTGTGCAATAATCTGCAGATGATAACGCCTTTGCAGAGCAGACCTGCACGTGTACTTGCAGAAAGGTCTCTGTCAGACACAGCGGGTGCCTGTGATATCTGAGAGTGGGTCAGCAGGACTGGCACGTTCAGCAGCTCAGGAAGCCAACTTCCAACGGCAGGAGCAGGACCCTCTGCATGTGACTCTGATGGGGCAGATGGTCCTTGGGGCTTCCCTAAAGCCAATGGTACCAAATAAAAGAGAACATCATCTACCCTTGAGACTGCTAAGTGGCTTTAAGAGGCAGAAAAATGCCAAGCATGGACCTTAACCCCCAGATGACAGCAAAATGGGCAGAAAGCAAGCCATCTCAAAA
0.6964535086684819 ATTTCTATCACCTCAAAATGATCTCTTACTTTTTAATCACAAGAAATGATACTAGAGAAAATAATTTTAATCTACTATTTCCTGTATTTACATTAGCTAAGTGCTATTCTTAATAATAAACGCCCTCTATGGATATCTCTCGCAGGCAAACATGAGACAGTTGGAGGGCAGCTCTTGCAATCTTATCAGAAGCTGAGGTGAGTGTTACAAAGGACAGACCGTCCCTGGCCCTCCGGGGCAGGAGCGCAGAGGACACTCTGCAAGAACTTATAGGTCTCTTGACTTTCACATGTCACTGCTTTGGAATGTGACTCTTTTTTTTTTTTTTCTTTTAAAGATAAAGTTCCTGAAAAAGATTAAAGCAGAGATGTTTCCAGATTCTCATGAGAAACCTTCTAGTTAGCATAGTATTTTCTCACTAGACATTCAGCTCTACTTCTTAAATTCTCCTGAAGTGTTATAAGGAAACTAAATATTATGTTTAATTGCGCTTAAGTGAAATTCTAAAGCAAGCATGTGCTTTGATTAATCATGCCTATCTCTAACACCCTACCCAGCGCCTGGCGCGTTAGAGATACTGGTGAAATAAACATTGATAGAATTGAATAATGGCCTGAGAGATGTGAACTTCTTTGCACAAAATTCTAAAAACTGAGCAGTCATGAA
0.9388385145987296 GTCCATCAACTACGCTACTCACTGACCTACCCTATCCCATACCCTACTGACTTCCAATTTTGATTTCCCTATTTTTATCATTCTCTCAGTCGCTCAGTTCCAAACTTCAGAATCACCTCTGGTTCCTCCCCTTCCCACAGCATAATCACTAAACCTTGTGTACTCTTCTCTCATGTATCTACCATACCCACCCCCTTATCACTTGCAGGTTGTCACCACTCACTTCAATTGCACTCCCTTCCTCCAGTCCTTCCCCTACTGCTTCAGGCAGTTGCCACTCAGATACAAACTCTTTGCACTTGAATTAAACTTTACCATATGATTCTGCCCTGTGTCCCAGCTAGAATATAAATTTGAGGGGAGAAACCTTACATGCGGCACTACTATATTACACACACAAGCATGTAGCATTTAATATGATGCTCACAAAAAAAAATTGATAAGTGTTAATTCAGAGAACAAACACACA
0.5493217714935994 ACCAGAGCCCACAGCGCTGAGGGAAGGGCTGTGGGCGGCAGGGCCCATTTTCCACTTGCTGGCAGGTCACTGGCACGCTCCTGCCCTGCCCTGGGAACTGGGGGAAGCAGAGGCTGGGGCGCATCCCAGCCGTCTCCCCTCCTGGGCTCCCGATGGCCCCAGCCTGATGCACTACCAGTTCTGTGGGGCCAGGCTGGTACCCTTGGCAGGGACGGCAGGCGGCAGGCAGGCGCGTGTGCAGGGGGCCTTATCTTATCTCCCTTCCTCACTCCCTCCCAGATCCGCCCTCACCGGCTGCTGTGTCGCCGTCATCAAGCCCTCCGGACACTGACACACACACAGACACAGAATTTATTTCTGGACGCATTCTGCAGGCTGGAGGTCCCGGCAGGCACAGGGCTCACACCTTGGGTTTTGCAAACACCTCCCAGCCCTCCAGCCGGCCCATCTTGACCAGGGAGGCCGCTATGCC
0.4338277112006513 ACTTCCACGTCGGCTGAGGCCTGTTCATATTTTATTCCCAAAGTGCCCCTTTATCATTGAAAATATCCCTTGAGAGCCCTCCCTGACCACAGACTCAGTGCTCGCTTCTACAGAGAAAATTACAATTACGCCAGAGTGTGTTGAAACTAACTTGTCACTGGGCTCAGGAAAGACCATGTTATTCATGGGAGCCAAGAACCCTTATCTTAGACTTCCAGAGATTTCTTACAGGGAGGTCAAGTCACTTATTGGTGGTTCAAGTAGAAAAAAATATAGTGGGCTTTTTGAGATTAATATTTCCTGGTGGCATTTTTAGTGTTCATTGGAAAGGAACAAGTTCTAGTCGGGTAAGCTGACAGACATAAAAAGGGAAGGAGCTGCCGCACCTAGAGGAGGATTTGTTTTCTCCTGGGACTGTGTATAGATAAGCACACACCCAGAAGCCTGGGCAAACCCAGAGAGCAGCAGGGGGATTACCTGCTGACAAGTACAGCAAGGGTGAGCAGATTGCCCTGTGATAAAAGCCGCTCAATTGCATCATCTCTCCAGCAAGGGGAAACCAGCTCTAAGGCAGCCATCTAGTTGCAAGGTGAGTTCACTGTAATTGCATGTTGTGAGTAGCGGTTGCTTAAAAACAATGAATTTATACCCATTACTCCCAGCGTCAACTTCAGAATGATTTTCATCACGCCTGCTTTTGTGCAGCTAAGCTGCAAAATGTGCGCTGCGACAGACTGAAGCAGATAAAGAACAAATTTGCATGTTACTGGGTTGCAAGAGCCCTTTGATTGTTGGAGAGGCCCGATAATGCTGTCAAGAGCTCGGTGGACTGAGCGGCGGCCGAGACGCACCAGATCTGCACTAAGTGTAGCTGACAGCAAACGATTTAGAGTCAGCACGGAATCAAAGCGTTGGAAATATCTCAAGTAAAAATGTTAAAAACACAAAGAAGCCTGCATCTTGATAAGAGGACATCAGTGAGGAGAGATATGCACAGAAAGAAAGAAAATGACCTTGAGTTTATAAAAATGCTACACGTCTCGGAATTGTAAAATGCCTAAAATGAAAAGAAAATGGGCAGCTCAAATCAGACTTCAAGCTAGGAAAGCCTGAAAGTTGTGTGCTTGCCACAGTTGAAGAAGAGAAAAAGAAGCAATAGCTAACT
0.5940169835251877 GGTATGCAGTGAACAGGTATATAGTAAAAATTGTGTCTCTCCACCCAGTTACTCAGTCACCTTCACCAGAGGCCACCACTGTTATCGACAGTTATTTTAGTTTTGAGGAGAGCTAAGGAACTCAGACCTAAAATGGAATTAGGGAAGCTATTTAACCTCATCGATAGAGACAGAGCCTGGAGTCAGCAGCCTGCATTCAAAGCAAGGCTTCGCCGCTTCCTGACGTAGAGCCTGGCTGACAGGCTTTATCTCACAGGGCTGTTGAGATAATGAAATGAGCCAGCCGCTGCAAAGTGCTTAGCCCAGGCACCGTGCATTTCTACCTTCAATACGTGTCAGCTGTTATTAGCTACGGGGTGGTGGAGCTGGTGGAGGAAGGTGGGAGGG
0.809024211250203 GAGGGCTAGTGATGTAGTGAAACTATGAGAGGCCAAGTACCATGTTAAATTCTTAGTATGTGTGGGTGCTTGAAGAGTTTGTGCCCAAAACAGTCCACAAAGTGCGCATGGAAATATACACATAAGGGATTTGAACCTGTGCTTGGCTGGTGCAGAGCCTGCCTCTCTCCCCAGCATCAGGGATGGTTTCACGGCATGTGGCCTCTCCCTGCTGCCATGCCTCCATCAACTCTCCCTTTCTCATATCAGAAGATCACAAGCATTTAACAGCCTTGCACTTGTCTGACCCGAGCTTGCTGTATCTGCCCAAGAGGGCTGGGAAGATAAGATGAAACAATCCCTGTGAAATACTGATCACTAGTCAGCACTCAAGAGGTACCAGTACATCACCATTCATCACATATTCATTTAGGACCTAATACATGCCGGGCCTTGGGATAGGCGTTCTCATCACCTTCATCACTTACTGTTACTACGTTTAACACCCTCCACTCCCAGCAACATGCAGAGTGCTTCACACAATACACACTCAGTAAATGTGGGTTCAGTAAGTAAATGGTGATGATCTTGGTGGTAGATCAATTTAT
0.4124490324815597 AAGCAAATCTGAATGTAGTTACCACTCCATTGTATCCAGTGCTAGGACATGTGTCTTGCCTTCCAAACTCACCCAGTGGTCCTCTGTAGTCAGAGGAAGGCAGAGAGGGCACACAGCCTCACATTTCATGAGGAGAGCTAAAGGGCCCATCTTGCTGTGAAAACAGTCAGTGTTGCAAGAGGAATGATGCGTCTGGAGGCATAGCTCTGAGGCTGTCTCCTTTCTTCATCAGGCAGGGGAGGCAGAGAAAATAAAAGTTAAAAGACTGAGTAGTGTTGCAATGAAACTAAATACCTCGTGAGAAGGCAGGTGTCTTTGTTCCTCTCCCACCATGGACAGCTGGGCTGTTCCTTCTCTTCTGGGTGCTCTCAACACCTTACTATCAGCTATCACCCAGCAGATAAGAATAAAGTAGCCAAGGAGCAATAGGGGTTTTGTTTTTCACTGTTTTTGAGATTGTAGAAATTGATAGCGCACTGCACTCTCATCTTGAGATCTGTGGGCTGAGCTCCCAGGGTTCTTAACATGGGCCAAGTTAGTCTGGATGCAACCTTTTGTTATTGTCTAAGTCACTGGCAGATTTAAAAATCACAGCGGTTCACAGCCAGATGACCAGCCTAGGGATGAAGGCGGGGCAGGGGGCGGTCAGTATCTCCACTCACATGTCATCTAGTCACGATGCAGAGGTTGAAACACTGAGTTAAAGGAAGCTTATCTTCATATGAAGAATTAGAGGCCACACCTCCCTAAGCTAAATTTAGAAGTGTTAGTATGTGAACAGGAGGTATACAGTATCTCAGGTTTCCTGGGGCACCAGCCAGATAAGACATTCCAGATAATTCTCTTCCATGCCTAACTTGTACCTCACCAGTCAGGCCAGAGGAGGCACTGCAGAAGGAGCTGTCCTCTTGTGTGGCTCTGTCCTTCTTTTCAAGTTTGAGGGGGTTGTGGACCATGTGAGGCTGGACGGCTCACATGTCAGCCGCCAGGCTCTTAGTTACAGACATGGCAAACTTCCATCATTTAAGCAGTGGCACAGATGTTGTGGAGAAATCCCAGTGCTCTAGCTGTGTGGCAGAGGGAAGGGCCAGGTCTGTGAGAAAATAAAATTATTCTCAGCCTCT
0.6970568074188963 AAAGAAAATGTTATTGAGACAATCACACAGAAAAGAAAATCTATGTCCTATTCATTAAGTAGAAGTGGATCATCCTGAAGGGCTTCATCCTTGTTGTCTTCACCTTGAGTCAGCTGAGCAGGAACAGGAGGGAGAAGAGGGGCTGGTCTTGCTGTCTCATGGGTAACAGAGGTAGAAGAAAATTCTCATCTAAGTGGATGCGCACTGTTCAAACTCATGTCAAGGGTATTTATAATTTTCCAAAGGGCTGTTGCCACCTTATTGCATTTTATTCTAATAATAACAGTCAGATGATAACTGTTCACAAAATGAAGATGAAAACTTAGCTACAGAGAAGTCGGCCAGACTTTCCTGCGTGACCTTGGTAGTCTGCTGGTGATTCAGAATCTCCCTACCTCAGCCTCCTGGCTTCACTCAGCCAAGACTCCTTATCCACCAACAATAAACAGCACCATGTGGCTGGCTGTTCACCACTGTCCATCAGGCCCAGACATTGTTTTTAATCCCTCTACTCTAACAGAAAATGGTTCCAAATTCCAGGACTGAAGCGATAAGAGCTCCCCTGCTAAGCACTCAGAAGCCAGATGCCATTTAATGTGCCTGGGGCCGCCGATAACTGATAGCACTCCACTACTCCAGCTAAATTTAATTTCTCCTGCCTCTGCTCGGCTTGTCTGGGCACCTTTAGAAGGGTGTTGTCCTGACAGCTGTCTTGATTCTGATGAGCTTTGTCTGCACCTGATTAGCATTCTATTTCTATGCAAATAAGCACTTGCCTTTGTGGCTCCTGGATTAATGGACACTGTGAATTGGAGCCCTGGTCTTCAGAATCCAGAGAGCTGTGGAATAAAAGGGGTGGATGGGACTTTACAGAATCAGAAGCCAAATGTCTTCATTTTAAAGATGAGGAAAGTGGGGCTGAGAGTGACCTAGTGGGTTTCCCAGGTGCATATCACTAGTGAGTGCAGTCAGTCCCAAAATTTGGATTATCATAGCCCATATTTTTATCTCTA
0.8490240790258361 GGGTTGAACTAAATGTTAGCTAAGGCCTCTTACATCACCATCACCCACCACCTCCTCCACAACAATTCAGCTTACCCAGGTTGGCCTACCCTGCTTGACTCTATTCTACTCTAACCAGGTTGCTCCCCTGGGTCAGGGAAAACATTTCCCCAGATAGGACCAAGGCAAGAACGCAGGGGTACTGGGGGCATGTGGTCACCGAGAAGCCAGCCAGTTTGTATTGCCCGTGTCCTGTGAAATCAAAGACTTAGATCTATGACAAAGAACTACATACTGAGAAGGTTAAGAGGTACTCAATGAAGACATAAAAAGTCGACAGTCAGGAAGGAGCTGGGGACTTCAGCAGCAACTCAGAGTCCACTGCCAGGTCAGGACCACCTGTGCCGGCTGCTGCCTAATCTGATATATATACAACAGCACGGTCTACATTCATTGTCAGCCATCCTCACACAAACGTCATCCACAGGAGAGGGTCTTGGCCAGAGCAGAAATCAACAAGACTATGACTTGGAAATTCTAGGGGGAGGGGAGGCCTCTAGCCTCAGGAATTTTGTCACCCAGGTCAGGGTCTGTATAATAGCCTTCTTAAGAGACAAAAAGGGCACTCACAGAGATTTGGACCAGGGCTGGCCTCCATCCAGCTTTCTACATTATCTTGAGCTCACTTGGTGAGATAACATAGCTAGCAGCTTCTGCATTCCTTCCTGGAATGCCTGTGATGTTTGGAGCCCTGCCACATGGCTCAGGCATTAATCATCAACCAGTGGATAAATGTTGACTGAGCATACTCTGTTAGGTCCCTGGTGTGCCTAAGAAGAGGGGTACCCTTTCCCTTTGGAAGGTTGCAGAAGATATATACCCATTAAAAGACTATTTAAAATCTTGACTAGTTAGTGATAACTTCCTTAAGAGTATAGGTGCT
0.571723312621409 CTGACCCTACTTGATGGAGAGGTGGCAGAGGGAGCTCCCCATTCTCAAGTCCTACCTGACAAGCTGATCCCAAGCAACCCACTCCTAAGGTGGGCCTCTTCTTGGGGAGATGCCCTTATAGATGCTGCCCATTCTCCCAGTGCCAGGAATCTTCCCTACAATTAGGTACGAGATAAATCAAAGCCAAACTTGGCTGACGAAATTCAGGAGCCAGTAGTGACCCTTGCCACACATATAAATCGCAGCAGGCTGGCCAAGGGCCTTTGTCTGGCCAGGAGAGTTCAGGATTATCTGGCCCTCTTTGCTGATGTATGGAGTCACCGGCTGTCGGAGTGTTTACTAACGGTTATCACCTCAATGCTGTGGCCATTATCAGAGGCAGGACCGCCTGCCGAGGCTGGGGCTCGCACCCTCTCTATTACCACCTGTCATTGGCAGGGAGTGTGTGCTGACACTGCCCAGCCCTCACTGCCTGGCGAAGATAGTTTCTGACGGCTGATCAAAGAGGAGAAGCAAGGCCTGATAAAGAGTGCGTGTTTCGTGTACTTTTAACTTTGGGAAACGTTGGCATTTGCATTTTTTCCCCATCTTCCCGATGCTGGCAGGAACCAAGCCCAATAAATGCAGTGGATTCAGTTACCTAATCGCTGGGGAAATGGTATGTGCTTAAAGCAACAGAGCGTGACTATAATCTCCTTCCGAGAGAGAGTGGATGAAATAAGCTTTCACAGAAGACTTGCTGTATAATAAAGTAGAATAATTCAAGTTCGGACTTTGAAGTGATCTCACATGTAAGATCTAATCTTAGCGTTCAGCAGAACACCACAGACGTTTTGGAATTGGGGAGCAGCTTTGGCTTA
0.3295774716499349 TTCATACCCCGGCAGAGAAAAAGCTGCATACTTCATGCCCTTTGCCCTTCACCATCTCATCTGATCCTCCCAGCAGCCAGCAAGGACACGGGGCAAGGCACTGGAGGCAACAGAGGCTCAGCAGCAAGACAGGGTACGTGCAGAGAGCTGCGGGACAGACGTGGCCTCACCAGCAGGACCCGTGATTAAACAGCAGCTGTGGTTCACTAAGTGCTTTCTGCTTATTATGTGCCAAGTACTTCACATGTGGCTGCTTTGTGTCATTCTCACATCAAACCTGATGGGTGGTTACTATAATTATCTCCTTTTACAGATAAGGAAACTGAAGCCCAGAGGGGTGGAGTAACTAGTCCAGCAAAAGTAAGCCATGTAACTGGGATTCAAATTCAGCTTGAACATCTCAGCACTCATCTGTTTTCGATCACATAACACTCCCTCTAGGCATTCACAGGAGCTCAAGGATAGGAGTAGGGAGGGGAAAGCTAGGAGTCCGAAGACTTGAGGGGCCAGGCATGGTGGCATGCACCTGTAATCCCAGCATTTTAGGAGG
0.06004296693074088 ACAAAGCTCTGACCTAGTCCCTGCCCTCTTTGACTGCTCACCCTCTTCCAGCCCCTCTACCCAGCCTCAATCTCTCATTCTTCCTCTACTTTGAAGTCTGGCTTCTGTCTTGGCCCCTGTGGGTTTGATGACAAAGGGCAGTTCAGGAATGACACTATCTACACATACATGGCCATATGGACAATTTCAGGTGGTGGGACTTGCAGCAGCTGGGGTTCCCAGGACTGCTGACATTCTGCTGAGTGTTATTAGAAGATCAGGGACAGAGCTTATCATCTGGCTGTCACTGCCCCTTTCCAAGCCACAGCGAGCCTCCACAGAGGGGCCCTGGGGGATAGCCAGCTGCCCTGTGCTCATGCTGGAGTGAACTTTCCTCTGATCTTCCCTGTTTTCTGGATTTAGCCAGGGAAAATACAAGGGAGCTCCTTGCTCCCTGTGTGAGGTTCCAACTGAGAGATCCCACCCTTCCCAGCTCTGATCAGATACCCCTGAAGTTTGGAAGGCAACAGCTATACAATCTCTCTCTCTCTTTTTTTTTTTCTTCCCCTGAGACAAGCATCACTCTGTCAC
0.4187201201943072 CCAGTGTCTGTGACCTCTTCCATGCTGGGGCTAAAGAGGCCAGCAGGATTGGGGGCTGGCATTAGTGGAGAACCTCAGAGCCCAGGGCTGTGGGCTGATGGGTGGCGAGGCCCCCGCCAGCTGCTTGGGGATAGCCCAGCCACTGTTCTTGGTCCACCCGGCCTTTGATTCCTTTTTCCTGTGTGCATTTTTGAGCACCTTCTGTGTGCGAGAGGCCGTGCCTGCCCGAGAAGAGAAGGAAACACCACAATGAGCCTCGGACACCCACAGTCTGAAGGGCCCGGAGTAAGCCTCAGACGCCCACAGTCTGGAGGGCCCGGCGCTGTGAACGAGCAGTCACAGGGAACAGCGTGCCCTTATCGCTGACACAGGCTCTGGAGGGCCCGGCGCTGTGAGTGAGCAGTCATAGGGAACAGTGCACCCTTATCGCTGACACAGGCGAGGGCTTCGTCTTCTCACAGCTCTTATCTTGGGTGTCACCCCAGCCAGAGTCAGGGCTGATGGCGGGGGGTGGGGGGGGGGCAGGCTGTGGTCAGGGACCTGCAGGAGAGGGGAGGGCCTCGCTTCTGATGGGCGACGTTCATTTACACACAGCT
0.8238263214518345 GGACATTTTGGGAAAGCATCTATTTCAAGAAATTGTACCCAAGGAGTCAAAGGACCCTAGTGCCGTCATCGGTCCTCACCACTGAGTGGTATTCAATGTTAACAATGCAGCATAATTTCATCAGTCTGTATCCAAACACTGCCCCGCGGGTGACCTCAACTGTAAACCAAGGGAGAGCGCCACTTCTTCAGGATAAGATTAGAGAGGCTTCAAGTGCCCAAGAGTGAATTTAACCCTCTCTGAACTGGACAAAATTGACCAAGAGTTGAGCTCAGTGAACATCACCATATCTGCAAATTTTGAGACCTCTAAAGCTCAATCTGTCTCTTGTACACCAAGGGAGTCTTGAATATTCATATAATTTCAATAAAAGCTCAAGACATTAAACATTATGCTTGTTTTCACAACAGCATCCAGGACACCAGGGGTTCTTAAGAATGCTACAGGTTTCATATCAGCTTTGGAGACGAGTAATAGAAAAGGTTTTTACAGTTTCACCTCTTTCTTATCAGACATGAGCTCAAAGAAAGTGGGTGAGTGAGAACTGCCCTGAACAGCAGCAACCTTGGAGGAGCAGAGAGTTCAAAAATAAACACAACACATTCTCCCTGAATCAACTTGCAATATTGTAACGCTTCACAAACTGTCTTTTTGCTTTTGTATAGAGATCCAAATTTCGCATGAGCAAAACAGGTAGCCACTTTCCTGGTGTTCTCAAAGAAGGACTGAAAAGGTGCTTACACTGATGCCAATCTGCCCTTCTGGTGTATGAAATGCCACCATTATCATTTAATTCTTTCAAACTATTTAATTTCCATTTTCGGCAGCTCTTAGGAAATGCACACATTCCTGGCAGAGTTAGCACTGAGCTGAACAACTTGGTGCTTATTAGAATGTCTTCATCTGAGACTAAAGCCAGACAGTGTAAGATAACTGGTGATCTGCGTAAAGAGGGGAGGAGTCCCTAACAGCTGGTGGGGTGAGGTGGCTTGGTGTGAAAGGGAGGGGGAGGGAGGCCACAAAGACAAGCAGAAGAGTAGAAGGGATGTTGCTGGCAAAGATGGACTTTTTTCACCCTCCAGGCAACACAAAGCTCTCATTTTGTCCAGTGGTGTTTAAATTTTTGTAGGTGAAACAGCATCACTGATTTCTAATAAAAGCTACAGTTTATGTATACGACTTTGGAAGCAGAAAAATATTT
0.1608156556878328 AGGAGCATTCACTTTGGCAATAGTCATGCCCATCACAGCACCTGTCTTGGCCTAGGGTACCCCTGCTCTGGCCTGGTGACAGACCCCAGGACCTTTTGGACACCTGGGTGTAGACAGTGTGAGAAGGAGGTGATCTGTAGGCCTGGCCCCAGAGTGGGAAGCCACACGGTTCAGGGAGCTGGAGCAGCTGCCCTCTCCAGGGCCCCCATCCTCAGTCTGATGAGATAAGCCAGGAAGAGTCTGACAGGCCAGGCTGCTGGAGAGAAAGAGAGTCCCCCTCAACAGGGCCTGGGGCTACCCAGCTAGGGCCGCCTCTCACTCTGACTCCGCCTCTGCAGAGCATGTGGGTTCTCATGGCCTTATCTGCCAGATGGCTCCCGGAGGGGATGATTTATTAGGTGCAGAAAGCTCGCTGATAAATTTTACTGCAAGTCCCCGGCAGAAGACTGGGGGTAGCAACAGCCCGGCGCAGGCAGCTCTAATGGAAAGTGCCGTCACCAAAGAGCAAAGCATTATTTATGACTGTCTGTAATGCCGTTCGGGGGAAATTCATCATCGCCTCCCTGCTCCTTGCACGCAGGGACAGCAGCACTGGGCGGGTGGCAGGGGGAGCACAGGACAGGTGGGGAACAGTCAGAGCTTCTCTGGGAATCTGCCAGTGGAGAGCAAGGCCATATTTTCCCTGGGTGACCCAACTCCCCTTGT
0.8050591146234013 TTACTTGTGCCAGGCACTGCACAATCTATGTTTCCTGAATTCATTGTTCATGAAGTTAATGCCCTCATTATATGAAATATTGAAATCCATCCTCACAGTCCTTGCTTTCTGGCTGAGGACACACATGATCCATAAATCTAAAATGGGCTTTAGAACAGTTACAAAGTAGTCTGCCGATGAAGTGAGTGTGAGTGAAGAGAGCGCTGAGTAAATGGCTGATAAGGGAGGCGTGGGGAGAGGAGTGACGAGTCCGAGTCCTTGCAGCCAGAGGTAGGGCACAGGCGGGAGACAAGCTGCGGGTGGGGGACAGCAGGCACCCCAGCAGCAGTGAGAACTCAAAACTAGAGCAGACGGCTGTGAAGACTGGGAGCAAAGGTTCAGTTTGGCAGGAGGAATAAATTCTGAAAATATATTGTAGAGCATGGTGGCTGTAGTTGAAAAT
0.4239320957396457 TAGAAGGAACCTATTCCTGACCTCCCCCTCCCTGTTTTCTTTTCTCCCATCCTTGCCTTTGGGACTTTTACCTCCCTGACCTGGTTCCGCTCTGGGTGACACAGGCCCTTGCACAAGGAACTGAGATTTCATGGCCTCTGTGAACCTTGGGATTTTATGATCAAGTCCCAGATGAGACATAAAACCCAAGGCAGCGTAGGCTAGAACGTGGGAAGCAGGCGAGCTCTGGCTTGGTCAGGGAGAGCCAGGGCCAGGTCCTGGCAGCTCAGGAGGGTGGAGAGGGTCCGAGGTAGGTGGGAAAATGCCCTGGATGTCCCCAGAGCACTGTGCTTATCTTGCAGATGACGAGTCACCTAGGCCCAGGAGGACCAGGAATCTGGCCGCCACCCGAGTGTCCAGCCCACTGCACCTCACTATTTATAACCCAGCCCTTCCCCCACTCCAGGGCCACTCAGCTCCTCTATCTCTGGAATGTTGAGTAGAGGTCACAAGACCATGTATGTGTTCATAGAATGATTGTCCCTTGTGGTGACAACGCTGTCTGGTCTGTGTCTTACGATAACAGGTTGAATCAGATATTTCCAGTTGATTTGGAACTCCCTGGTGGCGTGGGAAGCTGTGTTAACATTTTCGCATTTGTCTGTTGCAGTAGGAGTTGGGGGGTGAATTCTTTTAAAAGAGAATGTGCCATACAAAACATTATCCCTTTGGACTGAACTCATTGTGGTGAGTGTAGACTGCATGGAGTTTTGAGAATTTCATTGATTGGAAAAGAGCCAGAAATAAACAAGCAGAGCCTCCTCTGCCCTTGTCTAGCATCCAGGTCTAGGAGACCTGGAACCTGAGTATCAGAGGTGCATGGGAGAATCTGGAGCTAAGGTCACAATGAAAGTGACATGTCAATCAGTTAAAAGTCAACAGAATGTTTATTGAGTGCCTACGATGTGCAAGGCTCTTGGGGGACCTGGAGATAAGTAGGCATAATCCTTATTCTAAAGCATTTGCAATCACAGTGGGAAAGAGACTCACAGGTCTGCAGAGAGATGAATGAGATTGTTTGT
0.5151348097764757 GGGCTTCCTCACTCTCCACTTCCAAGTGCATCCTTCTAGAATGCTACTTCTGTCCCAGTGGGCCTTTCTCTTCGTCTATCCGTCCCCCTCCATCATAAAACAAGGTTTGTCTCTGATGCCCTCTGCCAAGCAGACACCCCTTCTCTCTTAATTCTCCAAAGGCAAGAAGGACAGATGAATTATTTGACTACCTGTTTCCAAAATCTGTAAATAGAGAAAGAGCGAAACACCCTGCACACCAGATAGCTGGAAAGCAAGTCTCACTTGACCCCTTGATATAAAACCTCAGCAGCCCTCACCCCATCCAGCCCTGCTGCCCCTGGTAACTGGGATGGGGGCTCAAGAGAGGTATGTAAAGCCCGTAAGTGGCTCTCCCCGGCTCTTTAGAAAGCTGCTTATCAGGGAATGAAACACTGGCCCAAGCTTGCCATGACAGCAGGAGCTGCCTGAGAAGAGAGGCTGAGATAAATGAAGTATCCTTCATCCCCATCAGTGTGGGCCAGACAGAAACCAGGTGCGAGGCAGTGAGCCTTCATCTTCTGTAAACAATCTTCCATCGCCCACTGCAGCAGCTTGAGCCTGAGATGAGGATTAGAAGAACAGCTTCTGCAGGCCTGGGGCCTCTCAGCTGGACAGAGAGTTAAAGGGCGCACAAGATAGCTCACTGCTGGGAAGGATGCTTGAGGAAACACAGCCATTCGTCACCAGGGGGTTTGCCTGACCTGGCAGGAGAGAATCTGATATCTAAACAGTTCCCTGCGTCCCTGAAGCACTCTGAAAGTTCTCCAGCTAAATATTTGATACTGCATCAGATAACAGCCCAAAGCTCTTCCCACTAGTTTGAGAAGGCTGCTGCTACAGAAGGGAGAGACCTAGCCAGTGCTGGGCTTGGCTGCAATCATGCAGGACTTAAGGTGGGGGCATCCTAGCTCCCACCTCAAATTTTTGGTGTCCTTTCACCTTGGCCAGGTTAGGGCCAATTAAGGGCAAAGAGGT
0.6860751360100605 CAGCCTCCCACCAGGGAAGCTCAACAAAGAAGTGAACATTGCTCCAGGGATTTTTTTTTGTCTGGCAGAAGCAGTTAGATCTGATCTCAGCTGGAATCCTTCCTGGATTGGAAGACACTGAGCCACTCTCCGTGCTATATCCCGGCCACAGCTCACTCTCCCCCAAACAGGTCCTGTCACACCCCATACGCTCCCCTCACCCTCCCACATGCTCCCCTCACCCCATCCCCACTCACTCCTCACAGGCCGAGGCACAGGGAACCCTGCCAAGTTCAATCCAGACCTTGGGCAGGGAGGCAATAAAGCTAAGGGAGGTGGGGAACTCCCGGCCTGTGAGGAGGGGAGGCAGGGTGGCCTGCGAGGAATTTAGGGAATGCAGGGAGATAAGGGGAGAGCGGAGAGGAGAGGCAGTGGTGCTGACAGCATTAGCCTGCTGGGAAGGAGCTTCATGAGCACCATCTGATTTACTTGGTCCTTGTGTCCGCCCGAGGGGCACCAGCCGGGTCAGGTGGCCTGACCACTCACAGCTATGACCCAGGCACATTACTGAACCTGCTTCCACATCTGCAAAAGAGACTGGTGGATGGCCTGCAGGGGATTCTAGGAGGTTAAGGAGGTCAGGGGCCAGATCCCCACCCAGGGACAGGCTGTAGAAGCCATTCTGTGGGACGCTGGCCATCCCATGGG
0.4866767945254394 GAGAGGCTGCGGTGGGGAAAGGAGGTGCTGGGGAGAAGGGAAGCCCAGACCGCTACCCCTCACCCCCTTTTCCCCAGCCTGGCCGAGGGGCAGGGGCCGCAGGAAGATGTAAGCGACCAACAGCCTTGCCTTGTTGCAAAGAAAATATTCCCTGAAAGACATTAAAATGAAGTAAATAAAAGAGATAAAAATGGAAATATCAAGGCAGCAACTTCTCTTCTGATTACAAAGCAGGCAGCGGGAAGCAGCGGGAGCCCATGAGGACGCAGCTGCACAGCCGGGCGGGCCTGATAAGGCCTCGTAGCCTGCGCGGGCGAGATAAAGCCAGCACGCGCCTGTCCTCAATCCCGGCCGCCATCAACATGCAGACAGCCTGAGCGACTGGCATTCCAGATAGAATAAGCACGCACGGCCGCGCTATTACTGAGACCTTATTAATCCGCCTGCAGGCGTTTAAATGCCGTGGGAAATATGGAGTTTACCAGCGCAGCTGACGGGGACTTGACACTTCATCACGTTGTTCC
0.4574195298247175 TCTCTGACAGCTTCAGTCCAAATGATGCTGTCAATGTTAAACACTGAGTGCAAATTTATTTATTTATTTACCACATGCCAGACCTGGTGCTGGGCCTTGGGCGTGGCCCTGTCTCCAGGGCACTTACAGCCTGGTGGGTGAGGTAGGTATTACAGCCCGTTCCAGAAAAGTCAGTGCCAGGGTGGGAATGGTCCAGTCGCCATGGAACTCAGCAGGGAAGAATGGCGCCAGACCATGTATTAGAGGGAGAGTCACAGGAAACTTCCAGAGGAGTACTATCTAAACAGAAGTCCAAAGCATGAATAGGAAATTGGGGGAGGGGAGGAAAATACTGAGTCCCAAGCAGGCAGCAGAGCCTGTGTCCAGATAAGAGGGGAATGGGAACAGCATGGTGTCTGCAAGAAACTGAAGGAGGCCGGAGGTCTGGAATGTGGAGAATGGCAAGAGATAAGGGTGGCCATCCATCCTGGCGACAGCAACTAGCAACTTGGACCTTGATAGGAGTTAGGAAGGCAAAGAAGGACTGTGCAAGGCTTAATCATGTTGTAAAAGTCAAGAAACCAGATCCAAGAGGTATAAGGAGAGAAAAAAAAA
0.64547377290167 TAAATAATTTTGGAAACATTTTCATGTAAGTACTAAATGTCAAAACTCACTTTCTATGAGGTAACTATTTAGTAATTTCTTTGTAAGTGGCTCTGAGGATATTTTTAGCACCAGTACTGCCTCCTAGAATCTCTCTGTTCTTTAGCCAGGTCCCAAGGAAGCTAATCTAATCTGGTTGCAAAGTCTGTCCCACAGTACGCACAATTCAAATAAGAGTTATCCACCCACAGCTCTGGTGACACAACTCAAGCCTTGCTTTTACACCCAAGCAAGTGCTGATGTTTTGGATAGAAACCAAAGCACTTTCTGTCATCCTGCAATCCGTGAGAGGGCCCTTCAAACTGAGTGTGATGGTCATTCTTATGTGTCACTTAGCAAGGCCATAGTACCCAATGATCTAACCAAACACTAATCCAGGTGTTGCTGTGAGGGTATTTTGCAGATGTGGTTAATGTGAAGTAACAATTACCTTCCAGAACATAGAGGGAAATCATCCAGGCAGTTGAAAGTCTTAAGACAATAACCGATTTCCCAGAAAAGGAATTCCACCTCAAGACTGCAGTGTCTACTCCTGGCT
0.4865301141739154 CATTCCACATGGGTTTGTTGGTCATGGCTTAACTCCTCTGTGCACTCTGGCTGCCTCATCTGGACATAGAGGAAGGCAGCACTGCAGCCTTCATCTGAGTGTAGTTACCAGGGTCTTCTCTTTGCTGCTTGGCTGCGTGTTGCCTTTGTCTATTAAAAGGATGTGTGTAAGTATGTATGTCAACTGGGGACTTCAGCCTCTGTAGGCCAAGTGTTGAAAAGGGTGAGAGGGCTGCTCTGGTAGAAGTGTCAGAGCTGGGATGTCTGTACACCTCCCTCTCCATAGCTAGTCCTGGAGATAAGTAAGAGCAGATTCTGGGACTGAGCTGTCGCATACACCCTGGTGGTGATAACAGCAAACACAGCAATGGGCTATGTAGAGGGAGCCCTGAATAATCTCCATGAGCTGCAGAGATAGGGCCAGTGAGTGGCAAATCCTTTTATAGTGTGGAGGAGAGGAGGTGGGGAGCAGCTGCAGGAGAAGGTGGGGAGCAGCTGCAGAAGGAGAAGGTGGAGCAGGAGCTACGTTGGACAAGCCAGTGAATACTTTGCTCTGATTGGACAACCCAGATCATGTGCCCACCAAAAACCAGCGACTTAGTGGGAGGGGCAGGAGTGGGGAATGAAACTCAATGATTGGCTTAATCCAACCAGGGACTCTCTATATAGCTAAGTATGGGGCCAGGGT
0.8027934081349112 AGGGTGACCCTGTCCGCACACATCGGTTACTATGACAATATAACCACAGCCTCCAGTTGCCATGGCAGCTGCCTATCCAATCCGATTGTCTTCTCTTCCTCTCCGGGCCCCACCTTATCCCCTCCAAGAGTCTCCCAGCGTGCATGGGGAGGGGCTGCAGCGAAGAGGAGAGGGGGTCCTTCGAGTCACTCTCTACGCGCGAGGGAAGACAGGCGTTGAGGGACTGCTGGGAGGAACTGTAGGAGGAAGGGGCGGCGTTTCCGGTGGGGAAGAGTGGAGGCGTGCAAAAAGGAAGAGGGAAATCGGCAGGAGTGATAAGAAGGGGGAAGACTTTGAGTGTAACTCCCGTTCTTTTGGCCTGGGTGTTCCCGGTGGTGGGATTGGGATTGCCCCCTTGCGCGGGAGGAGAAGGGTGGATTGGCAGGAAGCCGCCAAGCGCCACCAGCCGGTCTCTCAGAAGCCGCACAGGCGCCACACAGCTCGTTGATCCCAAAAGGGAGCGCTACAGAGAGGCGGAAATCACTGAGGGACAGGCGCTGCTGAAATCTCGCGAGAGGGACCC
0.6147916087765388 GTCTCCAGATGAATTCAATTAGGGGTTGAAGTTGCTCTCATATTAGTAAACCTGATAGCTTTGCTAATGGACCCAAATGGTGGGGCGGGTCCCCATTTGTCGCTGTCAGGCCCCTCCTGCCTAGCCGGGGTCATGGACAAGAAAACAAAAACAAAAAACCAACACCCAGAAGTTGTGTACTGAAAACATTGAGTAGGGACAACTAGCCAGGGGAGTCCTTGGAACATTTGGGAAGAAGCATGACATCCACGTGCAGAATGTGACAGCCCTCACCCAGTGGGAACCAAGCGGCTTCTGTTCACCCACAGCCCCCAAATCCCGTCCCAGCCCTCCCTCTTATCTTACCCTGCTGTGGTCAGCCTTGCCTAGGGCACACAGCCAGTAGCTGACATTCTTCAAGCTGAAGGGCTTGATAACTTTGGGGATGAATTATGACTTCCTTATCTCTGTTGAGCCCAGTGCCTGTCACAAAGTCAGCACTCAGTGGCTAGGTGTCAAATTAAATTCTTGAATTGAAGGCAGTGTTATTAAAGATGCTAAACTTTTATAGATGCCTCTTTCCCTATAGCTTGTTTCCTTCAAGATTTGTAAGTGAAACCACATTTATTTTTACCTTGTATAAGACAATCCTAAACCTCTAATCTTCCAGCTCAGTCTCTGTGAGGCTGTCACTTCACTACTCACCTATAGAGAGCCTCTCCCTAGCCCCAGGCTACTTTTGCCTAGAGAAAATGATGTGGACAAAAGAAAGTGGGG
0.3432761912847985 TATTTACTGATACTTTATATCGATTGCTGTGCTTTTATTATTTGTGTACTTTTATTGTGATTTTCTGAGCTTAGTTGATGATACCTTTATGAAGAAATGTATTAGGTTTTACTCATGTTTTAATGTCTGACTTATAGCTGTTATCACAGTAGATGTGGCACTGTAGTTATTGCAAGTCTTGTCTCTCAAGGATAAAGCCTTATCTTGGTATCCTTCAAAATGGCAAGATGTTCATTCTCACCACATACAATTGCATTGTCCACTGTGCCCTGCCATGATTTTCACATTTCACTCAATACCCATGGTCTGCATCAATCTGGAATCATGCATTCTGCCATCTGCCCCTTTCCTTGAAAGTCCTGCTGGCTGCAAAACAGCTGAGATTTACTAATGGGTTAATATGTTACTTCGCCCCTAATTAAAGCTATTGGTATTTAACAGGAACTTGGCCTAGATAAGGGGTGACTCAACTCTAGAGAATTTCTGAGTGGCTGGTGGACTGATGGGATGATATTTTGGGTCTGGAACAGTTTTCAATGCCTGGTAAGTGGCTGACAAGTTTATCTGTGTCTGAGAGATAGCATACGAGATTCCTGTAAACATGCGTCCATGCACTCGCTCACAAATGTACCAGGGCCCTGCAATCCTGTGAACGCCAGGTTCCTAAGAACAGTAGTAAGGCTCACCTACCTTTGTTCCTCAGGGAGCCAATGAGGGCCCAGCCATTGCGCAAGTCTGGATTCGTAGGAGATCACCTTTTATTCCAAATCACATCCTAGTTTTTGTCTTGGTCTGAATGGAAACATTAGG
0.4275105592342645 ACTACAGGACTGAAAAGTCCAGCAGCGTGGGATGATGCGGCCACATCCTGCTCTCTGTTTTTCCCAAGCAGAATGAGGAGAGCCAGCATGGGAGGCACATTTGTGTTCCATTTGGAATGTGTTCTCTCTTGGCACCGGAAGAAAGGGTGACCCCAGATGGATACCATGTTTGGAATTGGAATCCAAGAGGTACTGGCAGTGAGAAAAAACAGGCCAGGCACAGGCAGCCTGGCAGAGCACTTAACATACCTCCCAGAGGACAAGATAAGACCTCAGGGTCAGAGAGACAGACAAGGAGAGAGAAAGGAAAAGTGAGCACAGAATTCACCTGAACACCTCAGGCAGGAAACTGTCCCGAGCTCCCTTTGGGGAGAGCCAGACAGTGCTTCTGAGTGAGGACACATCAGAGTAGGAAAGTATGGGACTATTATCAGAAAAAATCCTAACAGTGAAAGCTGGAAAACCCCCTGAAGGCCTTTATTA
0.5895808150459257 CGAACAACGGGGGCTGGGTTGGGGGTGGTGATGTTTTGGGGCTGTGTCCAAGAAGGGCTCTGCCTGTGCCTGGCTGTCCACCGCGTTGGACACAGGCAGGCAGTGGGCAGGGCCGGAGTAGGTGCTTTTCTGAATGGAAATTCATCAATGCGCTTTGTGTCTGCTGTGGTTATCAGTGTTGCTATTTCAGTAAGTAATGGTAAAGCCTTCACCCGGCTCATGCCAGATGCGGAGGGTGGGGGCGCGGGCCTGTGATATGGCTGGGGTCCTCTGTCGTCAGAAAACATGAGCTCATGCCAAGGTTTCCGCAGGTCACCGAGATAGCACCGGCTCTCTGGAGACAGGCGTGACCCCCAGGTCAGCTCCTTGTCATTGAACTAAGTGGGCTCAGTGTCAGCTTGAACGTTAGTGGTGATAAGGGCCGGATAATGGTAGCCAAACTCCCACGGCCTCTTTAGGCCTCCCCTGGGGCCCTGAGGCCAGCAAGAGGGCAGGTCAGGGAGGGGCCAGGAGGAGGAGCAGGCAGGGAGGCTGCTGGTGCCTTTGGCTCAGCCAGTGGGGCTCTCAGCCCTCTGGAGTGTGCCCTAGGGACCAGTTTGTCCATGCCCCTGCCTCCAGGCCAGTCACTAGGACCAACAGATGTCCCAAGGAA
0.1079387374914783 ATGTAATGGAAAAGGCATCACCTCTCTCATGGAACGCAGCTGGAAGGACCAACCCCTTCATAGTTACAGGAATCTGAGCTATGAAGACACTAGCCAGGCAACAAGGCCCTGGGCTCAGACACAGATGAAGTTTCTCTGGAAGAGAAATCTGGCCTGTTACAGACCTGGGAAGTGCCAAGGCTTAGCTCCTGAGAAGGATTGCTGGTGCTGACAGCTGGGAGTCAGGACTCCAGGGCCACTTGTATGGAAGCTGGTGCCCGTGGTGCAGGAGGATGGGGGCTCTGGATTCTGCACCACCCCCCATAGACTGGCCCCTCAGAGGGCTCCTGTGGTGTCAGAGCCCTCTCACAAGCGCCTGCCGTGGTTATCAGCTGAAGCTGAGTGCTTGTGGAGTGTGGACAGAGGGCAGAGGGAGAGAAGCAGCCATGGGCTTCCTGCCAGGAAGCTCAGCAGCTCCGAGGAGACTGGAGAGTCATGGGACACAGTGCGTCCTCCCCAGAACAGCCTCCAGCCTGCCAGTTCAGAGCACACGCTTGGAGGCAGGAAGGCTGAGGTCCAACCCCATTCCTGCTATGGGCCAGCTGAGAGCTGTGGACAAGTCATTCGGCTTCTCTGAGCCGCAGTCTTCTCACCTGTAAAGCGGGGGTAATAATACCCTCCTCACAAGGTTGTTGCAAGGCTTTGTGGGGAAAAATACAAAGTGCACAGAGTTGTTCAGTAAGGCGTGGGCCTGC
0.7154579947710117 TTGATTATTGAGTTATCTTTCTATTCTGCTGCTGTCAGTAGATTTGCCATAAATGTTTCCTGAGAGTCTCTCTCTTGAAGAGATTCAGGCCCCAGTTAAGTTCATCCCAATTAAAAATAGAACCCTGAGATGCAGCAGCTGTAGCACCTCTTAAACCTCTTCAAATAACATTGAACGATTAAGTGGCTGCTACTGTGGAGATAGTGCCCACAAAACCAGCAGCAGGCCCTCTCGGAAAATGATAACACTCTAAGTGGCTGTCAGTCCTTAGTCATTTCTAGTCATTCAGGGGATGTTGCCTTATCTTCTACAAGTTCTAAAAGTTCCTGGGAAGAGAAGAATCACATAAATTCTTTATTTAAAAAAATCCCCCTTCCCACAGCAAAATTCTCTAAAACAATACTAAACAAGCAGGCATGCGCAATTCTAATGAAGTCTATCATTTGAGTGGAAGAGAATTGCTATGGTTACCAATGTTTCTGTCTGGCAGTTTTGGGATAAAAGTCTGATGAAGTGATATTGTCTGGAAAATGAGCATTGATTCCTAGGGAGATGGAAGAATTTACTTTTTTTCTTCCTATTTCTTGAATACATGGCTAGCTTTCAAATATA
0.4271560685764362 CATAAACATTTCAGAGATGTTGAAGCAGCTCTCAAGGCTTGCAACAGGCATTGCTAACGGCCTGCCCCAGATCCGTGCCCCCCTTGTTCCTTATGAGGAGATTCCCCACTGTGGTTCAGGTTGTTAGTGCCTCTCCGTATCTTCTTTCTTGCAGATGTGACCAGGTGACCCCCCTCTGGCCAGGGAACAATGGGCCGAAGTCCTCAGGGGATTTGTGGGGAAGCGCGCCCCCTCCTCCTTGGGGTTTTCTTGCGGAGCTGCTGTGAAGACTCAGCTCAGCTGTGATAATTACCTGAGGTCAGCTTCTCCAGAATGCCCTTATCTCCTAAGGCCTTTGAGATAAGCAGGAATTGTGGTGTCTGCCTTGCCTCCAAACCTTTATCCTTGCTTATCTCAGTGGAAAATTCCAGCAGGGATTTCTGAACACCAAGTTAAATTCCTCCACTCAACAATCAGTTTGGCACGTGGCTGCCCGCCAGTCTGGGCAGAACAGAGGGGAGCCAAGGGAATAAACCCAAGTCCTGCCCCCAGGTGCCCAGAGCCTGGCGGGGATGGGACAGTTGCCTGCAGAGCAAGAGGCTGCCACCCAGTTTCACACAGGCCAGAGAGGCTGACCTACCTGCCCAGAGGCAGGGGAAGAATCCAGAGGACCTCTCCCGGAGGAGGCACGAGAA
0.6794320561373142 CATGAGGTGACTCAGGGACAGACGCCCTTATCGTGACGCAAGTCCAGCCCCCAGTGGAGCCCCTCCTCCCAAGGCACAGCCACCTCCCAGGCTGGCAATGGCAAGGTTGTGAGGTCAAGAGGTCATGGTGGCAATTCACCTAGGGCCAGTCACCGCCCAAGCCAGGCCCAGCAGGTGACCGCAGGAACCACCTTGGCCCAGGGATGTGGAGCTTGGACTTTGTCTCTGGGCCCTGACAGACGGCAAATGGCGACCTATGGGTTACTGACCCAGCAAATGAGGGAGCTGACAACCTCAGGCCCTGGTGGCTTCTTGCTCCCAGCAGGCCCTGTCGTCTCTGCAGAAGGGGGGCTGCCCCCAGGGCCTGACGGCTGCCAGCACCCTGTCCCTTTCACACACACCCTAGGGAGCTATCTGCAGGCACATTCCTCCACCATTGATAAGCACCACTCCCCACCTCAGCCCCCGCCTACCGCTCCTGTCCTGCCTCCAGCCTTTCATCTTCTGTTTGCTTTCCCTCGCCTCCTTCCTTCCGTTCTGGGGACCCACTTACCTCCAGGAGGGAGAGAGGGAGGGAGGGAGAAGCCGGTGCCCGCCCAGCGGAGATGCCAGCGCCTAGCTTTGCCCCCAGTGTGAGCTGAGGGTGGGGCAGACAGG
0.7655635467616956 CATGACAAGGGCCTCACCATGTCTCACTTAGGCTGCAGCAAATAAACAGATAAGTATACAAAAATAATAATCATCATCACAGCCATGTCTGTATGCCTAGGCCATGAGTGAGTACTCATTAATTATGTTAAATTAATGCCTTCCTCTTCTTCCTCTTCATTCTCTCCTCTACAGTGCCTCTGAACCAAGGCCAGCCACTTATGTCTCCAGTTGCTGAGGATGGAATAAGAGCTGTCAGATTTCCCTAGTCAAGGGCCCCATGAGCCATGACCAGGGTTGGAATGGGCAGTCCGGGATGAGATCATCCAGTTTACAAATGAGTATGCAGAGACAGCCAGACCTGGTTAGCATCCGCAAAATAACTTGCTTATTTCCTCTTTCCCATTCTTCTTCCGCTATCACCCAGCCGTCTGGTGCAAACGACCCATTTAAACACCTCAGAAGTGATGATAAGAAGCAAGATAATAAGGTAGCCAGCCCCCAGTTCCCCAGGCAGCAATCACGGTGTGTAGGATAGAGTGCAGGGGCCTCTCTGTCGCTCTCATCTGTCACACATCAAGTGAGAAAAGATCTATTTTTTCCCTAGGCAGCATGCCTACAACTTCAATTGGCCTAAAATAAGCTTGGCTAAATTTTCTTGTGAGACGCTCTAAATGGTACACAGTGATCCATGCAAAGTCACTGCGAGGAGCCTCACCATGACGTGGATGGTGCCGGGGCTCCATAAGATGAGCAGATCTGAGC
0.452721378228192 AGACTCCAAGGCCAACTGGGCTGGGGCAGCTAAGTCCAGAGAAGGACCTCAGGAGTCTGCCCTTAATCCTGTACCCAGGACGGGGCGGGTGAGAGGCACATGCTCAGATTTGTTCCTGACATGTAACTTCAAGAGCAGTGCTACATATTTTGCTTATCTATCCAGAAGACTGACTGCATACAGATGAGATAGGGCGTGGGGGGCCAAGTGGGAGGGAGCTCCAGGAGGTGCCTCCAGACATGGACCAGGGACAAGAGGACAGCTTAAAGAAAGGTTGTGGGAATTGAGTGCAACATTTCGGGTCTCAGCTTAGATGTCACTTGGCTGGGTAGCCTTTCCTATCTTGGCAGTTCTGGGTGACGTACCATTTTCCTAAGGGATCTTACAGCACCAAGACATCTTGAATCAGAGCTCTTAACACCTGTATCTATAGATTAGCTGAACAAATTCATTAAGGCCGACAGTGAGCCAGGCCCTTGCTTGGCATGGGGAATATAGCACTGAAGGCAGGGAAGAGTGTCTGTCCTCAAGCACTGCTCTAGAGCTAACCTGCTGGCAGGGGATAC
0.4836038901734697 ACTGAGTAGAACAAGGACTAACCTCCCATGAGCAAGAGGAAGTTCTGCCAGCAGACTGCTTTCCAACTTCATCTGCAACATTGGCTTTTCCTGGCTCACCAGCAGACTGTCTTCAGACTTGAAGTTCAACTTTTTCCTGAGTCAGTCCTCAGTCTGTTGGCCTCCCCAGTCAGATTTTAGATTCACCAGGTTTATACAGTTGTGTGAGCCAATGACTTAAGATAAATCTTTTTCTCTCTCTCCATATCCACTTGATTCTGTTTCTCTGGAGAGTTCAGACCCATACAGTGATGTCACAGGCACTCTGTGCATATCTCACTGCATTCTTAAGGGCATTGATTGTTGAAGGTCAAATAGTTACAAATAGTGGTAGAGACAATATTCAAATCCACATCAAGTCCCATGTTATCCTCATCAAATCACCCTCCTTGGGGCCCAGAAAAGGACTTTTGAAAAACTAGTGAGAGAGACAGTAGAAAGAAACTAGCAAGGCAGATAGGGCAGAGTCCTCGGCAGAACTTTCCTTCTAACGAAAAGCAGCCCAAGAAATCACTTCTCTTCTAACAAAGAGCAGCCTGGAAGATTGGGCTGCAAACATAGATAAGGAAGTGCACTCTGGCACAGAGAGGGAGCTTCCTGGGTAATCAGCTAGCTTCACATACATACGGTGGGTCCCAGCAAGCACAGTGGGGCTTAGTAAGCACATTCCTTTCCTTTTTTAGGCATACTCAGATAAGGAAGTTGGAAACTTGCATGGGGAATGCCTGCAGCTGCACTGATAGAAAGGATTACCTTGGGCCAGGCATGCTCATTGTGGGAGCACCATCCCCTCTCCTTTAGCACATGCACTGTAGGAAAGAGATAAACAAGACAGAGTAGTTCAGGCTAAGGACCCGCCTGCATAATAAAAGATTGGGATGGGGACTGCCAGAGATTCATGCTCTATGCAGATGACACACCTCGTTTTAACTGTTTTTTGTACCCTATGTAGATAAGGTACCCCCTCCCCACTAGCTCATTTATAAAAACCCTTGCATTTCACTGCAGAATGGCAACCCTTTTTGGGACCCCGCTCTGCAGCAGAGAGCTGTTCTCTTTTTTTTGCC
0.868215993903524 TTCATATTTAACTGTTTAGAACTCAGCTGTCAGGGCTGTAATGGGGTGTATGGCCAAGGGGCACAGGGCCTGGGTGCTGTTTGTCACCTTTCCTGCACCTATCCGGGCCCTCCCTGGTGGAGTGTGTCTACTGTTTCCTGCAATCCCCTCAGTTAACTTCTGGGTGACCTCGCTGTGCCTTGCACTTATTCATTTAGCATATCAGCTTGTCAGTGTGATGAAGTGTTCCTGCTGATAGGCGCTAAGGGCTGAGTAAGCCACAGTGCCTCCATCACCGGGGAGAAGTGTTGATGGGAGCCCAACGCTGAGGTCGCCCTTCCCACAACAGCCACCAGGCACCAGCTGGAAACCTGTGGGCTTCACCTCCATCTGTGGGCAGGAAGCAAGTGGATGTCAGGGACGGTGGTGGGGGGCTCTGCTTGGAAGTTTTAAGACCACACTCATCTTTTGTGGCCATGGACTTTTCAATACCATCCTAAGTCAAGATTTTTTGTTGTTTGTTGTTGTTTTTGTTGTTGCCCATGACAGAAAA
0.6571335412993635 AAATATAGCTGAAAAAGTAACCCTGTGGTCTTCTTGCTAGTCACCACTTAAGGAAGTAGAGATTTTTCCAGACCCTTCTGTCACTCTGGGCAGGTGACTGACTTATAACTCAGGTGTGCATTTGCCTGCTTAAATCTGCCTCAGTTCCAAACAGCTTGCCATGCTCTATATATAGAGATGACTTCACCCTCTGTTGGAATGCAGCAGCTGTTCAGCAGTGCACACTGATATGCTTCAGAGACTTAGGCCATATCTAATTGAGCACTTCAATACTGCAGAGATAGGCGCCTTGGAAATATTTAGATAAAATACCTTTGGCCAGATGGAAGCCGGCCAGGATACCAGCATAAAATCTTCATCTCACAGGACTGCTAGTGAGCCTTGGCGGGGGGCTCCATGGAGGGAGGTGGCATCAGGAGAGATGCCAGTCTGTCCTATCCACCCCCTGCACTGTAAACATGACACAAAGAATAGTAGGAAATAGGAGAAATCAGAATTTTGTTGCTTCCTCCTTCTCCCCTTGGCAGACCAAACACAGCCTACCCTCTGTGAAAACAATCTGAATGTTAATGGTGCCTCCATGTCAGGAAGCTTCCCAGTTGTAATATTCCCCCACAGGACTGTCCCTTCCCCTAGAGGCCAGATTGCCAGCCCTGGAAATTGGTTGGCAGGTATAGAATCAATGGTACTTTTTAAACATTTATTTGCCTAGGATTCATTGCTAATCTTGCTAGGAGAAGCAACCAGCTATCACAGTTGGCTGGGAACTGGCCAGAAAGCACTTCTGGCTTTGCTACCCATGGTCCACATGACTCCAGCAAGCCTGTGTTGTGCTGGATCTCACTTTTCCCATCTGTAAACTTTAGAGATTGGCAGATTTAACTTCAATTTCTCTTCCAGCTCTAAAAGAACCTGTGTGTGTCTTTCACGACACAACTCCCTCTCCCATTCTTTTTTCTTAGAAGAAAAAGAAAAAAAAAGAAAAAACATTAGCAGATGATAATGAAAACATCTTGCATTTGCATGTAATCTATTGTTTAGATAAATATATCCACCTTTAAGCCAAAGTAAGTGCTATTATTTTCATTTAGAAGAATCAACAGAAACACAGAGAAAATGAGTGGTTT
1 AGCCCCATGGAATCAATAACCACTTTGCTTTTGAAAGAAAGGGGAAGAGGGCATAAACCAGAGACACAGACACACTAACCTGAGTTCATCCCACAGTGGAAGATAGGAAATATTGGAGATGAACTGGAGTTTGGTAGGGTTGCAGCAGAATCCTCAGAAACAAAACACGATGCCCAAGGAAGTTCTAAACCAACAATAAATGTCATTTCTCCACTCCCACACATATATACACTTGTTGCATAAAACAGCTGTATACCTTTAAGAACAGCTTAAAAATCACTGGATCCCACAAAGAACACAACTATATAAGATGACTACTAATTAAAAGATTCAAATCAGATGATTTTGTTATAATGTTCTGCAGACACAGGCAAAGGAGGTATGTAGAATGTCTGTAAGGAATCCAGGATTCTCAGCTAGCTGATAACGACTTCATGCTGCTGCTTTATTTCATTTGACACCTTCCATTCTCGTATCAGCTACTGCGTGCAAACCAAACCTCCCAAGAATGGTGACCCTGTCCTCTTCAGTTCACCTAACACCCTGGCCAAGAAGTAAATTAAAATGCAATGTATTTCAGCTCCTATAAATGTTACCTACTTACTCTATTTAACTCAACTCTCAAAGTACCGTTGGGATAAATCTGAACATTACAACTTAAAGAAAAAAAAAACCCTTACAGACTATCTAGTCCAGCCCTCAATTTTACAGATGAAGAAACCTAGCTGCAAAAGGATCAACAGCTATCTCAAAGAAGCAGACCAAGTCAGTGGCAGAATCAGATGGCACCCAGACGTCTCACAGTTCACTGTGCCATGCTGCTGCT
0.6894997934778984 CACTCATACCCAGCGGATTAATATCCAAAGACCAGGCCTAGAACAAAGACTGGGCCTAGAACAAAGGCTGGGCCTAGAACAAAGACTGGACTTGGCTTTTATACACACTTCTAAAAGGGGATGGGCTAGTTTGAAACAAGCTTACAGTGGCGTGAAGCATAGTGGTGTGAAAGCTCAGGTACAGAAGCAGAACAAAGGCAGTTAATCATACTTTGACAGGTTCATAACTCAGGCTTACAATGACTCTTGCTATGCGGCCTAGATGGCTGTTATCTAGGCTTGCTCTAGTGCCTTGTGCTGGCTTATCTCATAACCTTCACTATGGTGTCTAGATGGCTACAATCCAGGCCCGCCCAGGCATGTCTCATGACTTTCACTGAGCTGCTTAGATAAAACAATGCTTGAAGTTACTAGTTATAGAAAACAAGAATCTATAAACTCATAAGTTTACTCATACCATAGGAGAAAGAAAAATAAAGAAAATTTGTTTTTTTCTTCTCCCCATGTTGGGGGAGTGCTGGGAGAGTCTTCAGAGCACATTCCTTTGAGCCCTAGCTTCTTAGATAATATTATCAAGACTTTCCTGGGTCTGGGCTGTGCCTGTTTCTGCCTCTGGGATAAGTCAGCCTAATACATGAAAGCTTGTTTTTCAAACTTGCTTTTCTCTTTTTAATTTTATTTTTCTTTTTTTTTCTTTAATTTCCCACCTCAAGAGAAGTATGTGGTTGATAAAACATAGTTATTTGGCTGCTAATTTTGCAAAGAATGGGTTAAGTAGCAAACTACTATTT
0.1344949116627976 CAGGCTTTGCTAAGACAAGGCCGCTGAGCAGATCAGCACACATCGGGTTATTTATAAAGCTCCCGCCTTCCTCTCCACCCACTCCCCTCTCTCTTGGCTACGGAGAAGCCTTCGGCCAGGACATTCCCTTGCAGCCTACTCAAGCTGCTATATAAAGCCCTGCACTTCTCGGGGCTGGATCAGAACGTTCCTTATCTCTCTGCAGCAGGACGCTGATAATCTGCCCAGCTGGCAGGCGCTCTGAGGTCGGCTTGGGCTGCTGCTCTCAGGGCCTACAGCCCCCGTGTGGTCGTCTTCTCTGGTTCCCACTGAAACTTGGCCAACAACACTAACTGAAACCTCAAATATAGGAAGTTGTTGGCTTGTTTCATTAGAGGGCAGTTGCCAGACAGCTGAGATGAACTTAATGGGC
0.7448398478074555 AGAATATGGGGGGATATAATGGATATTTAATCTTCTAACAAAATGCACAGACTTCACTCACTGTGTCTTACCCTGGGTCAGTGATATCCTAGGAAAAGCTCCTTTTGGTATCAACGGGAAGTTTTCACACATAAAGATTAGGGGGTCGTGTCTCTGAGTATGAAACACATGAGGCAGATTCTTAAGCTAAAGCATTCATACCAGCTGGGAAGAGGGGTTTTCCCGAGGAACAGTAACTTCCCTCTACATCCAGGAAAGCCTCATGGTGTGGATGGGCGTCCAACAAGCAGGCTGTTCTGGCCCTCTTTGGGTGCTGACTCTGTGTTCCCAAGGGCCATTGATAAGCTAAGCAGGAATAGTGTAACCACAGGAATGCCTGCTGATAACAGGAAAGTAGGCGGCTGCATTCCTGAGCCATGGCTGATGCTGCTCCATCCACTGCCAAGGTGTAGAAAAAAGAGACAAAGTAGTAAATTCTAAAGATTTGTCAGTCTGGGTTGGCAGCTCTTAGAGAATGGATATGTGGCAAATATGTCTCTCCCTCTGTGTGTGTGTATGTTTGTGTGTGTGCGTGTGCGTGTGTGTGT
0.4007543640526536 TGCTAAGAACACTTTGGTTTTCATTAAGCATCAAGCAAGACATAAACAAAGTAATCAAGATGGCTGAAGTGGGAGCAGGAGTGGGGCTGCTTTTTGGGACATATTTTAAAGGGGCCTGTGAGCAAGGGCCAAGCACCCTCCCCCTGCTCATGGAGGTGGCGATTTTATGTCCCTGTTTGGCTCAGGTCTGAAGCACAGCCTGGCTGAGAGGCAGCTGGCACGGGCCCAGGCACGATTGCATGCCTGCCCCTGTGGGCCCCACTTCCAGCAGGTCACCCGGTCTGTGTTGTCACCTTGAAACATTCTAGAGAGCTGTGAGCTTCAGAAGGTGAGGCTCTGGGGGCTGGGCTGGGGGCAGGGAAGGCAGCCACGCAGGGTGGCTGGAGAGCTTTTGACAGCCCCTAGCAGAGCCCAGCATCCCATTCCCGACGACGTGAGCCCCCCAGGCAGGCGCCGAGTGGATAAGAGTGTAGACAGCGAGGCCGGCCTGTGACGCTTGCCAGCACCTGCAGATAGCAGGCAAATAATTGGCACATGCTTAAAAAAAATTAAAAACCTCTTGGATGTGAGTATTTTCTAACAGCATCTGGCGGGAGTGCCCGGGAGGAATTTAATCAGCAAGAGTTGTTTAAATGGGGCTCCGCACAGGCCCCGGCCAGGCCCGCCATGAACTCGGCATCATGTGCCACCCCTGTCTGCTGAGAACATTCAATTTGTTAATTCTGCAGCTGGTGAGAGAGGTCAGATAGGAAAGTGACGATTGTTTTCTGACGTTCCAACCCCTGCTCACATCTTTCTAATTAATCCTTTTAGGAGCCACAGGAAGATTAAGAAGGAGAAAAGGTGAGGGAATCAAGTACCAGAGAAATTGATGGAAAGACAACGCTGCTGCCCTTCTCTTCTCAAATGGGATGGATGTGAGGAGCTGGGGGTGGGGAGAGAGAAAAAAAAATTGAGGACTGCTGCCTGCCACTCTTCTCGCTCAA
0.269705610655821 TTAATAGCCCCTTCTCCTTTCAGGCCCCAGAGGAGTGATTTGGCTACTCCTCCTCTTGCCAGCCCGGATTTAGTAGCTGGCACCTCCTCCTTATCACCCCTGGTTCCTGTTTGCCTATCAGTAGCCCAGCCACTGTGGCTCAGGACCCTGCTTTAAACCTGCCAGGGGGCCTTATCTTATCTCCTGGGCTGCCTTCCTAGCAGCCCGCGGGGTGGCTGGCTGGCCGGGTTCCTTAAAGGGGCTGCACTGCATTCCCACTTGCTCCATTCACCCTCAAGAGTACCCCAGAGATCTGGAGGTGTTCTACTTGTGTAGGGTCAGAATTTACTATACCACCCTTCCTTCCCATCCTTTACAGTCACAGCTACTGTAGAGCTGCTACTGAAATGATCTATGACTTAGAACAGAAAGATGCTCATGCTTTTA
0.357339331183829 TTTCCTCTCTACCTAATTGTGCTCTAATCTGTACTTAGGAGTATAGTTTTTTAAGTGGGACATGTCAGGCTTTTATGCCACAGATTAAACTCCAAGGCAAATAAATGTGTGACAGCTTAAGAGGCGAAAAGAAGAGTCTTCGTCAAATGGCAGAGTTTGATTGTTTAACCTAGACTAATCAGTCTTTGGAGGGCCTGCCACATGTCTTCCAGACGGCTAGAATGCTCAGGAGATAAGAGTGGGGCCTATCGCTCTGTGGCTTTCTCCCCCTGCATTAGCCGCAGAGCTGAGTGAGTCTATGAAAACCCATTGGTCGGGCTGCCCTAGCAACACAGAATGCTGTGCTGACACATACTCCATCACATGTTTGCGATGAAAATGCTGTATTTTTAGAACACTTCAAAGTCAGGAAACCGTTAAACCACACTGCATCCTCTCTTGCCCTCTGGCCACTTCCTCCACACCCCCAGGAACATTGCCCCCATTTCACAGAAAAGGAGCCTGAGACAAAGATTAAGTGATATTTTAAGCAAAGCTGATAATCCCAGGGAAAATTG
0.9177080876560643 CACCACATTAGATTTTTCTCAAAACTAAGGACTATTTTATTCAGGTGGACAAATACGGTTGCTGTATAATTTTTCAATCAATTCGTATCAAACTCTGTGGGGTTAAAACTAGCTGGGACATTTTGGTAGGCTTCATGCACTCAAGGGCTTCCTGCGGGCTTAACTGTTAAGCCGAGCTCATGGAGGTGGTGTTATCAGAATGCTTAATGGGGACCGAGGGAACGTGCTGGCTGATGAGGTTCTGCACATATCAAGTAATGTCAACTCTGTGCCACTCAGCAGCTGCCTGTCAGCTAGAGCAGCACCTTTGATAAGTGGGTCCTGGGTAGAGATCTGGCAGTCCCAGGCTGGGATTTTTCTTTTAATAAAACATCCGTAGGTTGCTGTGCTGACGACAAATGACCTTGAAGGAGGTGACACAGTGGAGCAGGGGGATTTTTTTTTTTTTGGTATAGCATTAACATCTAAAAGGAAAACATGCCTTTCCTCACAATTTTCCAATTTTCATATGGAA
0.5393485051105702 TGACTCGCGCCCGGACACGGCGACAGGGAGAGCATGGGAAGTGCTTCCTTCGCCCGGCGGGTTCGAGCGAGTAGCACTTTACTTTCCCTACAGGTGGAGGCGGGCCTTGGTGCGCGGCTGTCCATCTCCGGACCGCCCACCCGGGCACTGGCCCATGCGTCTCCTCCCCCGGAAGCGGTAAGCGAATCAGGCGCGGGGGAAGGGAGAACGTTGCTCCTCGGGCCCCTCCTCCCGATAAGCCTGGAATGTCAAATATTTGTTCGCGGGGCGGGGCGCAACCGCGAGTAACGCTCCTCCCCCTCCCGCCCGGTAGGGCGCCTGCGCTTGGTGGAGGCGGCCCTTCCTCCGGCCACGCCCTTCCAGCCAACTCCCCTAAACCAGTGGCCCTAACCGCCGCATTCCTAA
1 TGAATATACATCCCTGAAATACACCAGGATCTTCTTGCTTTCCTGCTTTCATATATGCTGTTTCTTCTACCTGGTTGCCTTTTCTCCAAAATATCATTTACATATTCAGCTCAGGGATTATTTTTCACATTGTCACTGTGAACAAATTCTATATATCATCTGATTCTTGGATTCAGGATTAAAATAAATATATAGTCTCAATTCAGGGCCTGGGCCCTGATATATACTATGTGCATAGGAAATACTACTTCCTTTACCCATTTCCTTCTGGAAAGTGCATTTTAACCCTTCATCTTCTTGATATACCTTCTGCAACTCACCCAAAATTACTGTTAATTATTATCTCAAAATCTCTGTTATTACACTTGTCATACTGTATTGTAATTATTTCATTTTTTCCCATTCTAAACTAAAAGCATCCCAAGTTCAAATACTAATCCTCTTTTTCTATATCCTCAATTTATAACATAAAGCCCGGGACATAGCAAATGCTCAATAAATGTTTATGGACTGAACAAATAGGGATGAAATAATGCCCATGCCTGAACCAGATAAGATTAGAAAGGAAGTGAGGCTCATGTTCAGCTTTGTTAAGGCTTACTGAAATATCTGCTAGCTCTCAGGACATGTGCATAGTGCTGACATCCCTTGCTAATCTTGACAACGTGTGACTTTCAAGGCACTTGAAGTGAACTCTTTGTTATCCATCACTTCAGGAAGAAGTGGCAGTGTTAAAAGAAATGGAAGAAAAACAACTAAATGAATTTTTATCATACTATATTGTTCTCTTAGTGCCTGGCATTGTGCTTGCCACAAAGTAGGCACTCAAGTAGCATATTGAATGGAATTGGTTTGAGAACCCAGTTAATCCTTCAGAGAAGTTACTTCTCTGAGACTCACTTTTCTTGTCTGAAAAATGGGCATTT
0.5149496621401675 GAAAAAAAAAAAGAAAACTATAACCCAATTACATCTAAAGTTTGACCACTATAAAACTTGGGTATGATCCCTAATTAATATTAGGTAAGCATCCTTAAGTGTTATTCTTTGGTCATCTGCTTGGTAGTGTATACATTTTATCTTTACTTAGTATTTATAGCAGCTCTGCTGTATGGGTATAATTATCCTTACAGGTATGAAGACAGATGTTCGGAGAGGCTAAGAAACTTGGGGAAAATCTCACAGCCAATAAGGTCAGAGCCTGCATTCTAACAGAGCTGTCAGACCACAAAGCTTCTTGCTTGTTGGCCAGCTGCTCCCTCTCCCACGTGCAGGGACAGTTGGTTTTGTAGCTTTATTAACTGTCCTTATCAGCTGCCTTGCCTTTGCCTTGTCTGCAGTGTCTGCTGCCTCCCCAACAAGACTGACAGCTACTTGAGACTAAGAGCCGTTCCCCCGTATCTAATCTGTTTGGCACACAGAGGGGAGCTGGGTATGTTCTGTTGGGTTGAACATCACTGAATTAAACAAGGCTCTGACCCAGGGACCTGTAAAGGGGACAGTCCCCAGCAAGGCAGGCTTGCTGGAGAGAGTAGTTTTGCCACTTCTCCCCACCCTTTCCTTCCAGAAATCCGGTTTGGCAAACGCTACTGAGTTTCCTGTTGAATTGAAGTAACCTCCCAGAGCAACCTCTGAGCAGATCCACAGGGCTCCTCCCATGCCTTATCCACTCTGTTTTCAACAAATCCCTCGAATACTAAGGGATTGGAATTCCTTTCCCAGCTACTCAGGCCCACTGTGAACTCCAGCTCCTCCTCTGAGCTCTGTAGCATGTGGTGCCAACTGTTTGCTATAGCCATGGGTCAAGCAGAGCCCGT
0.6705024924546992 ACGCTTCAAGGAAACTTCAATAGTGAAAAACAAGATAATGGACAATTATCACTTCAACTTCATTAATCAGGTGAGAGGGCAGAAAAAAATGTTTTTAATGATGAAGCAGCTCCAGAATATGAGCTCTCAGAGATCTCTATCTCCAAAAGAGGCTGTAAAAAGAATGGGAAATAAGGAAAAGAGCTATGACTAAGGTGACCTCCTCCACAGGTTAAATACCAGCAATGGCCAATTTTAGTACTGCTGTACCTCCCTAAAAGATTAGACTCTCTCAGGCTCTGCTCTGGATAACCTCACTGCAATGGCAACTTGAGCCTTGTTGAAGTTGTGCAAAAACATGGCTCTATCTCTGCTGTATCACACAGCTCCCTTCAATCAAGTGATACCAGTCTCCCGGCCTCCATTCTTGACAGCCTCAAGGAGTTTTCTCGCTGCAACCCACGTTGCACTTGAAATTAATCTGACTTCTGAGCCTTCAGACCCTACGGCACTTAAACGGCCCCAACCTCACCCGTCACCCTCAGGTTAAGTGTGAACACTGGCACAGCATGAAGTGACTCCTTACTACCTATACACACTATGGCCATTTGCCACCCCTTACTTTATACTCTAAGGATACCCAACTTGTTTGGAACGCTTCACCAATCCTCCCCCACCTCCCAATCTCCACACCACCGCACTACATGTGATGAAACAGGCTTCTCCTAATTCCTCCTTTACCCCGCTCAACTCAA
0.553791358414266 TTGCATTATACTAGGCTGCCTCTCCACGCTGTAGGAGCCTGGAAAGGTAAAGGAAGCTCCAACTGAGAGGGCAGTGACACGACAAGTACAATCCTGTCCCCTCTTCTCCTCCCCCCTCCCCACCACCTCCTGGGCTTCTGAAAGAATCAGTGCAAGAGCCAACATCTCCTTCAACCCATTGACGTCTGTGAGATACCCAGAGACGTTCAACCCAGAGATATCCAGGCTGCTTGCCAAACAAGGAAATCCAAGATAAACGTGCCATTCTGTCATGACCTTATCCTGCTGAGAGACAGACAGAAACAATGGCAGAGAGGAATAGCCTTGCATGTTTTCATGGCACCTTTCAGAAAGAGATGAAATTCACCATCAGTCACACCTCTTGGAGGTTGTACCATTTAGCTGATAAGAAACAGCCAGAGAGGCAGGGAGTATGGACACTCCTGAAGGCAATCCTATGAGGAGCCCCCTGAAACTTCTTGAAGAAGAAAAATAGCACTGTTCCCCTCCCCTTCCAACTCTTCACGCTGACAGGAGTTTCTACGAGGCAGTGTTTGTCAGTAGTATTATTAAAAAAGGAACCAGGCC
0.7914333923547515 CCCGTGAAAAGGACAAATAAAGCAATGAATACATTTTCAGTCGTCCTATTTTTATTTCTGGGGACTCTATTCAGAAGGACGTATCCAGATTAGTTTTCCCTTGGTTCATAAACTCGAGAGAGCCTGTTTTTATAAAGAAAACCTGGAATCTTAAGTAAGACATAATCATTCCTTCTCCTTTCCTTATCTCTAATTTAAACATCTCTATTTTTCCCAAATGTTTTATCTCACGGTGTTTTCAGACCCTTCACTTTCCTATCCCCCATCCTAAATAAATTTTTACATTTAAAAAATGAAAAAATAATTTTCAAAATATTGTCTGATAAGACTAGCATCTTACTAACTTCATTGGTTTGGCTTCTGTTTCACTAGAATGCTAGTTCTTAAGTTTGTAGTTAAGCTATGGCCACTCAATAGCTTTCACCAATCCTTCCACCAAGTTAGGCCTTTACTACATCATCCTTAGGCAAATGGGTGATGAACTATCTTTTCTTTCCTTTACTCTGTCATCTACAGTGATGACAGAATTATCTTTCCAAGGAATTATTCTGGTAATATCATGACGGCCTGTAGAGCAGATTTCAAGCTTCTGAGCATGGCATGCAAGGCTGTTCATGATCTGGCTTTTGGTTACACGTCTAGTCTTCTTATCTACATTCCTTTCTTCACATGCGCTCTACTCCAGCCACACTGAACAGATAACTAAATCCTTTTCCCTCTAACACTCTTACACCTTAATGAAAAATCAAGTTTCTTCCTACCTAGAATGTCTGCCACCATCGACCTTCAGACCTGGCCTGTGTCAGTCTTTGGACTGTTTGCTGTCAGGTCCATTTCCTCCACTTCCCCTGTTCTGCTCTGCTCTGCTCTGCTGTGTGTTGAGGCAGGACAGGAAACATGATACTGATTGCTGCAGCTTGCATTTCTCAGGTTCCCAAATCAGCTGACATTTGGGCTAGGTTCTGCCCCTGGGAGGCGCAGGCAGTAGATAGGAAGTAGGAAAAGAGGAAAACTATTGTATGACCCTTTCTGGCT
1 GAGATGGTCTCGATCTCAACCTTGTGTTCCACCCGCCTCAGCCTCCCAAAGTGCTGGGATTACAGGCGTGAGCCACTGCACCCAGCGTGTTATCTCAATCCTCATAATGCAGTTAGGTAGAGGTATTCTCTCCACTATATCAGTAAACAAGACTAAAACATCTTGCCATGAGTCATACAGCTAACATAATGCAGGCCTAGCAAATGTTTTCTGAGTATCATAGGTGCTGAGTGCTGGCTGGGCCCCTGAAGAGAGATAAGCAAGATAGTCTTTGCCCCTTAGAAGGGGAGGGCATAGCATATAACTGCCAGAGTATGTGAGAACATGCTCAGCACAAACACTCCAATGGATATAACAGGAGTATCAAGGAGTGAGCAAATCTTTCTGTCTTTTATAGCTGGACCTGG
0.4622841261593989 CCCGAGACCAGGTAAGTGGCACCAAGGGGCAGGGCGGCGTCGGGCCGGCGATGCCCTGGGATCAGTCCCTGTGAGGGCGGCCTGGCCCCTGGAGGCCTGGGCTGGGCCTGCGCCCTCGAGCCCTCTCAGCCCCAAGGCCCAGGGCCTGGGGACATGGCCGGGCTGGAATGGCTTTCATAGCCCCTTGTGACCCCTCCTGATCCATGCGCCTCAGGCCTCTGGCAATTCGAGGCTCAAGAGAGGACAAAGGCTCCACTTTGGAGTGATTTCATGGGGTCTGAAGGCTTTCCTTATCTCCCCTGCCCCCTACCCTGCTACTCCCTGGCTTGGGATTCCACAGCTAGCGATAAGGAAAGCCAGAGTGGCTGAAATTCCTCCCTGGCAGGAAGGGAGGGGGAGAGCACTGGTGGGGACAGGGAGAGGGTGCTGGGGGGCTGCCCAGAGTAGGAGCTGCTTAGCTCAGGGTGGGGAGGTTCTCCAGG
0.6118892514698956 CCTGTGCGCACAGCGCCCGCCCCGCCGCCGTCGTCGTCGTCGTCCCTGCAGCCTCCGCCGCCGTTGCGCCTATTACCCCTGCTAAGGCGGCTGCCGCGGTCGCGAGCCAGAATGTCGTCACTCATCGGCGCCCGACGCATTTGCATCATCATGCTGCGACGAGCTGATAGGCAAAGAGGAAGGGCTGGTCGAGTCCACGCTCTCGGCCGCGCGGCACGCTGGGAAACGTAGTTCAACAACGGAACGCGGCTTCTCGGAAAGGAAGAGGGACGGGGAAGGAGATCTCCGGGGCGCCGCAGAGGCACA
0.5565617003421975 GCATGGGTGCCCACTCAGTGAGGTCAGCACATTGCAGGCTCTCACTGTTCCTGGCGTCACTCTGGCATGCAGAGGCCTCCGGTGTTGCCTTCCATAATGGTCACCTGATCCTGGAGCTGGTGGGCAAACAGCCTGAGATGTTTATTCTCTGATGCCCAACTGGCTTGACAGGCGGGGTGATAAGAGAGACAGAGAAGGCAACTGGGGGACAGGGTGGATAAAGGAGTCCCCTGCCTCTGAGAAGTGCTGTTTTCCTTGGCTGGGGCCTACAGTCACACCACTGGCCTCTGAATGACAGTGACATTCCCCAGGGATTAAGCACGACTTGTGGAAGCTGGGTCTCCACAGGGGGTGCAGAGCCC
0.9257626710821716 CCAAATCGCACTGAATAAAGGTGAGAGAGGCTGGCTATGAAGAATCACATCAATACGATCTTTGAGGCAGATTTGGCCCTGTTATCTATGTGCAAACATGAACACAGAGTCTTCTAAATTTTGCTTTTGTTTGATTGCCTTCCTATAAAGAAAAAAATTATCCAACATGATTAACCTTTGTTTGTAAAAATATATAAATAAATAAATTTTCCCTCGCTTTTGCTAAATAGTTAGAAGAGTAAGTTTGCAAATTAACACTTTAGCAAGACTCTGAATCAATCTCAAAGAAGGCTCTACTTAAGGATGGTTCTAATACATCTCAAGTCCAATGTGTGGTTGATTCCCTGCCATATGCTCTGAGTTTTATCAGGCTCAATGAGAAATACCAGTGCTTGCTACACAGAGATTTCTAATGCACCCTCACTTCTGGCAATAGTCTGGAATTTACTTCAGTTGATTTAAAGAATTTGTGAACAAGAATTTTATCTGAATTGTCATCACCTTGGAGCAACTGGTCAGGCTGAAAAGGTGTCCTGAATGGGGCTAGACACGTCAGCGAGACCTGCCAGGTGTCTCGTCACTCAGCACGGCCACTTCCTAATAGTAACAGGATCAGCCCTGGGGACTTGCTGATGGGCAGCATGGCAGGATGACCCCAGCCATCTCCACATGCACTCTGATAAGGACTGGCAGGTTAAATAAGGGCATATGCTGCATGCTGCTCCATCAGCACCTCCACTTGGCTCCTTCTCAGCCCAGGAGTTAGAATTTGTTGATGTAACCCACACCATGGGAAGAATGAAAACTCAAGCAGCAAAGCCCGTGTTAAGATGCCTTTTGTCGGGAAAAAAAAAAAAAAGGCAGTTTATGCCTCCAGCTGCTGCATTCAGGGACCAGTTAACAATGGGAGACAGCAGAGAGAGCTGGGTAAAGATGGGAACAACACAGAGGAAAGGGTTTGTGA
0.7116357661047261 CAGGTTCTTGGGAATCTGTTGGCTTACAACGTCCGAGGGTCCTTTTTCATAAGAAGCTAAAACAATGTCCATAAAAGGCAGCAAGTTCACAAAGTCCCGGCCTCAATGCTGTCTACTTAGTACCTACCCACATCCCCCCAACCTCGACAGAAAGAGCTAAGAGGAGATTAGAACCAGGAATGTGACCCCCACCCCTTCCCCTCTGATATCTAAACTGAGTGCCACAGCAAGAGTGAGGTCTGGCTTCTAACTTTCACATGCACAAAACCACTTTAGATTAGAATACACTAATACAGGTCATAGAATGCACAAAGAGATCTAGATTTGACGTTCATCTACACACATGACCTGCTGTTTGACTTGGCTAAG
0.6507137257234843 GCAGGGAAGTGTCACACTGAAAACATGTCCTCTCTGAGTTGCCCCTGATGGGAAGGGCAACTCAGATAAAGGAAACAGATACATATCTGTTGTTGGGAAGCTTTGTTTCCACACATGATATATGGTTCCGGAGGAGGAGTTAGAAAACAAATTATTGTGTCTCTTCACCACCGACAGGTCTTTAGTGGTACCGACCACAGAGAAGAGATGCCAGAGATTAGCAGTTACCTCACAATAGGTCCGCAGTACAGGAAAAGTGTCTTAAGTTTATCTATTGTTAAGTGATATAATTTATCATCGCCAAGGGTTAAGGAGCAATTCCAGTCCTTTCCTACTTCAGGAACAGAGATTTATAAGATGATGCCCAAATTTAGACATTGAGGCACTGCTGGCAGAAACGTCCCCAAAGGCTGATGGCTTGTGTGTGCGTTTGAAGTCAAGTCATTCACAGAGCTAATTTGAGGCTCTCCTCGGAAACTATATTTGCTTTCTGAGTGCATGGTGAGTTTTCATTTGGGCCCTGACCAGCTGACAGCTATGCAAGTTTGTAGATACCAGTAATTGAATATAGATAACCTTGATGGTTGACCTCGTCAGAGCCAGGCCTGCCTGTTCCCCATTGTTTCTGGTTTTGCCAGTAGATACTAAACTGCTGCTGGATGAATTTATATATTAAGAATTCGCTGCAGTGAGAATTGCTTATCGTTCCCTGGTCTATCCTGTAAGCTTCTATTTACTTGACGTAGTGAGCTGGGAATAAAAGCCATGATTTGACTGTTCACTATTAGTGGCAAGGGGCGGTCTGTTGGAAAAGCTCTATTAATTTCTAAAAACAAAGGAGGCAGAGAGATCATGGTTTTGCTTTATCCAAATCGCAAAGAAAGGTTCTTATCTCCCAAAGCTGCCTGTGGCTGTCCGAAATTGGTTCCCAGCCATCTTTTTAGTGTTCAATTTAGCTTAAAAGCAGAGTTTGAATCAAACACTGTACTGTCACCCATGTG
0.7351120516410214 CTTATTTTAATGTCTAAATGTGGCAAAGGATTATCAAGTTATTAAGTAGAGAGGTAGTTGTAGTAATATTCTTCCAGCCTAGGAATGTTTTATACAAAGCTACACTTTAAAATATTCGTGGGGTTGTCATTGAGTATAATAATATTTAAGGTGAAGAAAGAGGGCAAAATCCTCTCACTAAAAAAACTCTTTAAAGGCTGGATAAATAGTAAGGAGTGTGTTTAATACAACTAATTTATAGATAAATGTGGTGCCAAGCTAGAATACATTAACAAGGTAAGGCTTCAGGGTCTCTAGGTAAGATAATATATTGCTTTCATTAAAAAGCAATCTGCATGGACGATATCCACCACCACTGGAAACTCTGCAGTTGTCACCTTTATCAGGGGAACAAGAGCAAGCCACTACATTTTAATCACTGGAGTTTGTCAGGAACGAAAAACAGCCAGCTTCCCACAAATCAACAGACATGTATCCTGATAAGGGAAGTGCATTGGAAAAGGACAGCTACATACCACATGACACCACCTATTCCAGGGTGATCAAAGCTCCATAATTGTTGAAGATAAATCTACTGAATTGGGCTTTAGGATGAAATAGTTGTCTTTGAACAAAGTAGACACATACTTGTACAAATTACCCACAACTTAGAACACTGTTAGATCTAAGTATATTTTGCAATGTGGGAAGGAATGAGTGATAGAATGGCAAAGCGTGGGGCATCGTCACACTATACTTGTTCCAATAACTCATTTCTGGCTATATGATCCTTTAATCAAATTAAGAAGATATCGTGAAAAAACTGGAATAAGAGTCAGTCAGAACAAGACATCTGAGTGGAAACAAGACACTTGCATAAATGAGACAGAAATGGGGAATTATTTT
0.8022235855543648 CCAAGGAAAGGAATGCATAATGGTGTGGTCAAGGCATTAGTGTTAATATTTGTAGAAAGGGTAATTAACAACAGTCTGAGCAATCACATTCTAACAACTAGTAAGGTTGGCAGGAGCCTCAGTATAATGGTGTGAGGAACGAAATCATTATAGTGCCAAATAGAGTATACCATCTCTTTAGTACAATGTCTTTCAAAATGAGGCTGATTGTGTTGGCTTTATATTTGACTCCTTAATAATTAAGGCAGTAAATTCTAGCTGGAGCTAAATACCTACAAGGCCTAAAACAGCATAATGGACAACCTGGCAGGTGTCCTTGCTGGAAGATGACAAGAGTGCTGAAAGGAGAGTCCTGGTTTTTCTCCCAAGACATGACATTTGGGGGCTTCCATTAAAAAATTACCAAGCCTCTGCCACTGTAATCTCTTCCTTAAGTGCCTATGATTTTTTCACAGTCACAGGTCTATGCCTGGTCAATACCCAGTGGCCAGGTCTCTGAGCTGCGTGCAGAGATGGCAGCGACTTGGAGGGCTGGGAGGAGATAAGGGGAGGAAAGATCACTTTTCATGACAACTTACAACTTGATTCCACTTATAAGCCATTTATTTTCAGAAACAAGTAATGGGTGAGGACACAGGCCAGGTCCACAATTTGTGCACTTGAGAGATTAAGGCCTCCGAGATCAAATTACCACAGCAAACTGAGACAGAATTATTGTAGGGATGTTTGGGGAGGATGCAGAGAGAAGAGGAAGAAGCCAGAGACCCAAGAAAGGAGACAGGAATAGATTTTGATGAAAATTGCTTCCTACTCTGTACCCTTGAGGAAACAAAGAGGACAAATAAGAAGCAGCAGTGATAGGAGGCTGGGCGCTTCTCTGGAATAACACTGGCTAGGTAGTGGAGCATTGATAGTGAGTGTGCTTGGTT
0.5398268894121054 AGGAGACAGAAGACATACCTGGGTTATTCCAGTAGCTTCAGTCACAAATACTTGGCGTATACACTACCACTTGCCTCTCTTGTGCCCTTAAAAGGCTTGAATAATAAACACAATGCTGTCATCATGACTTAAGCTTAGCACCCTCTCAAACTTCTCAACACGGTATTCCCAGCAGTGAATACCCATTGATTAGATAAGGAATGTGAGAGTGAAGCCTATTTTTAATCTCTGGATAGCCTGAGAAGTGGTCCCAATGAGTTTATCCAATCTCATGTCCAATGTGATATAATACATAATATCTTTGCATAATTTTGCAATGTCATTTCACACCTGCCTTTCCAATTGAGGGGATTGGAGCACTCATACGTGACTGATGGGCAAGAAAGAGTTCTCTAGAAGGAGAAAGGGGAGAACAATGGGCCTGCCAGGTGGCACTGACATATGAAGCAAAATGATGGGTTTGAGGCTACATTGAGCAGGAGTAGCTTTGGGCCTGTGGGACTCAGATCATCTGAGTTATCTGTCCCACGCCCTAAATCTCCCCAACTGAGAGAAGCACAGTTAACCCACCACTCCAAGGTATCCAAGACAACCTTGTCAGAGGGATCATTTCAGTGCACTCTGTGAGTATGTTGCTCCCATCTCCAAAAGCTTTCAATGGCTGTTCATGGCCTGCTGGATAAAAACCAAGCTCTTTACTCTACCACTGATATTGCAATCTTAGTTGCCCAATTCTCAGCTCCCAGGCCCTCCAAATTTAATTCTAGTCAA
0.3492762369541828 CACTAATCTTTCTTCCCAAAAAGGGAAATAGTTTGTGCCTGAAATTCTAAACTCCCTGATTTCAGGCAAGGCCTGGGAGAGTATAAATAAGCGTATGAATATTTAGCAAAAATGACTGCTATGCAAAGCTTGAAGCACTGTTGTCATAATGCAGAGCCCGCTTTAATCGCAGCCACAGGGAAAGCATTTGTCGCTGTCTTATCACACAGGAATGATTTTCCCATTGGCAATGGCAGCCTGCCAGCTGGCTGTAAAGCCAGCGCCTTCCTGGTCTTTCAGGTCGCAATCTCAGATGGCATGCACCACCACTGCCAGGCACTGACATTTCTATTTTTGCAGGACATGCTGGGTCAGGAAACAAAACTGCAGAATCACAGACTATTTCTTATTTACATTGAATGTGAATCTCATTTTGGCTCAGAAGCCTACGGATTTCCAACTCT
0.2579182231115167 ACTTTCTGTTAGAATTATAATTATTTATGACCCTTACTCAATTAAAAATACCAGCTTTTTGTAATCCAAGATCTGACCTGTTACATTCTGTTCAGAAGAAAATAGCCTCAGAAGCAGGACTTTACCTGGTGCACGCATTCATGATCTGGATGCTGTTTCAGCATGTAGAGAGGAAACCCAAACAGGCCATGAGAGAAGCTCAGGCCAAGCTGGATTCTGAATTCCCATGTCCTTTAGCAAAGTCTGGGTCTCTCAAGAGCTAAAGGATTAAGATAAAGGCCTCTGCTACTCATGATTACCAAGGACCGTGTTCTGTGTGGTTTGTTCCTCTTATCTGCAGTCCTGACAACAGCTTGGGTACATGAGACCTGTCTGCACAGCTGCTGACATCTCCCCAGGGTACACACTGCTGACGTCCAATGCTTTAACGAGACACAGGCTTTCCTGCCAGCCTGGATATCCTTCAAACATGGCAGCCCCCAGCCTGGGACTCCAGCCAACAGTGCCCCTAGCCTGTCTTAGTTTAAACTGCTTACCTTTAACAGTTATTTCTAGCTGAAAACAGACCACAGCTCCTGTTCAAGCCATGCTGGTGGCCTAAAAACACCTAGCTATGCTTTGAAAAGTACAGTTGTGAGGACTGCTATATCAGTTTTTAATGCTAGTGTTGGGATGCAATTTTAATCCTGATCCCATTCACATTTGTCTGTTCGTTACATTTGTCGTGAGGGTCCAGGGTGGACCAGCCACTCTGCTGGGCTCCAGAGTTCAGCAGGGAGCAAGACCAACACAGGCTTCCAGGCTCCAGTTGTTGGTACAAGATAAAGTCTCAGAAGCATCATAAGGCTGGCTGAAAATGTGCCGACATTTGTGAGAAATACTAGGCCGTGCTACCACAATACCAG
0.2233924907935347 AAGATATAATTGGTTCGTTTGTAACAATCTCTGCCTGTAATAAAGGTAGAAGACTGTGCTGGAAGCCAAGTGAAGTTTTTCCTGAGGGAGGAAATGGCCAACTCAGTGACATGCTGCTAAGAATGTGAGTAAAGTCAGTATAAAGTGTCCCTTGGACTGGGCAATACATAGGCTTTTGGTTATCTTGACAAGAGCAATTTGTTTTCAGTAGTGGGATGAAAGCCAGATCAGAGTAGGTTAGAGATTGAATGGGAGGTGAGGAAGTGGAGACAGCGCACAGTTAAGTAGTTGAGATATTTGGTTGAGAAAAGGGAGAGAGAAATGGAAAGGGGCTAGCTGAAAGGAATGTGGAGCCAAGAAAGAATTGTTTTTACCATGGAAGATATGAATGGCCCACTAGAAAAGGACAGATTGGCATTGTCGGAGAGAAGAGATAACTCCCAGAGAAAAGGCTGTAAGTATTTGAGAGGTGATGAGATCCAGAGCACAGGCAGGGGCTTGGCCATTGGTCCCAGGTTTGCTCTATCCGTTAACAAGGAAAGAACAGATACAGGTGTGAAAGCAAGCAGGTTCCCATGCATGACAGCAGGAAGATGAGAGCTAATTTCATCTCAAAACTCTTGGAGTTGTAATTAACACCATATTCTTTAACTCATGCCA
0.2530925403707576 TCTTTGGCCAATGGGATATTATTAGCAGCAGAGGCTAAGAAGTGCTTAAGCATTTCAACTTGCACTCTTGCACTCTGCCACTGCCATGAAAGTATGACAAGGCTAATCTGCTGGAAAATTAGAGATACATGAAGCAGAGCTCAGTCACCCCAGTTATCGTAGTTGAGTTATCATAGATCAGCTGGCAGTCAGCTGACCCTCAGATAGATAACAGAGCACAGCTGAGATTGGTGGGGTTGTCTAATCTACTGTCATAGACATATAATCATAAATGCTGAGGTTTCACAATGTTTTGTTATGCAGCATTATTGTGGCAATAAATAACAAATCCCACTCCTAGATGCTTCCATAGCACTCTTCACAACCTCCTCATAG
0.9405170358721653 CCAGTGGAGTAAATTAACTCAAGATTGCTTCCATTAGCCTTTCCTCTTCTCATCCCCCCATCTGCCTGGAGGAAAATGCTTGCTGATGGCACTTCCTGGCACAACAGCAATTGTGATATTTTCAGTGGGCTTTGCCTTTTGTTGCTCCCTGAGCTCCGTGACCCACCCGTGCTGGCCAGAGCTGCATTAACCAGGTCCCGCCCGCACAGGAGAAATTCCTTTCATTCATCAACAGATAAGGAGTTTTGACAAGACTCTCTGGGGAGCAAAAGGGAGAAAATACACACACACACACACACACACACACACACACACACACACACACACACACACAAGATTGCCCTGTAATATTGAGAAACACAAAGTAAAGGGACCAAAAAAAGACTGAAGGAAGCTTTAAGGCGGCCAGGGCAGACAGGGAGTCTGCTATCAGAATTAAACGCGATGCAGTCCAGAGCCCTGCTCTCTGTTTCTACCTGCTTCTTCTCAATGTCACTGTCGGCCAAGAGTTTGATAAAAAACAGATCCCCAGAAGTATTCCAGTAACTCCTCAGGACCACCAGGGCAAAAACAAAAACATTCAGGGCTTGACACTTACCAGGGCAACTTGCCAAGCTTATCACATGTGAAAAGAGCTGCTCAGAGAGAATAATCTTGCTCGCGTTCACAAGGCGGGGTGTTAAGTCTCGGAGAACCCAGGGCATTTTCCATCCAGAGCAGCCTAGAAGGGTTGGAAATAGCACTTTTCTATGAACTGCCAGAAAGGGCAATTATACACTTTATGTAAGGGAAGGCTGAAGGAGAACTTGAAAGGTCATTTGAGGGAGAATGTGGAGAATTAGTCTACCTTCTAGCCTTCAAGTCTGAATAGACTGGA
0.07791582745416308 ACAGACCTGTCTTAGTTGAGTCAGCCACTCTGACTTAAAGTCCTGGGCATGGTCCTTGGCTTTCCACATCCTCCAGCTGGAGGTGATGAGAGCTTCACTGCATGTAACTGAAGAGTCCCTGTGGCTTGCATTCCTGGCTTTCAGTTGCCTGTTGTTCATCTTCAGCTGTGCATTATCTTTTTGGAGAGGATCAATGACACTTAGCAATAGCCATCCAATCCCACTCTCTTAATGTCTGCACCTTCTTAAGTGTCAAGCGTCCTGTAGATTTCTCTCACTAGTTCGTTCCCTTCTACTAACACACCATCCCAATTCGCAACTAATGAAAGTGTTAACAACAGGACCACCACCTGGTGCAGGGGCTGTCAGTACTCCACCTATCACCAGAAAAACAGGCCCTAATTGCCAGGCAGGTGGTGAGTGATTCAACTTCAAACTCTGTCTTATCTCCACCAGCTTTCTCAGCCCCCCTCTCACTGCCAAGTGTTGCAAGGCTGGCTGTCTAGAAGCAGTCACTGACACAGAGTTTGGGGAGCACAATACTTATTAGAGATTAATACCCATAAAAGGAAGAGAGAAGAGACAGGATTGGTCAGAGGAAGAAGGTGATCAGCAACACAGACCCACAAAGCTTTGGCTAACCTGGCAGGGCATTCTGGAATGAATATTCCCTATCAGAGTCTCTTGCAGGCTGCCCTGGAGGAGCAAGACCAGCGAAATGGCTTCTGCAGCTGAAGCT
0.5631219250469454 AAAACTCTACTGAGAACCACCTTGCCTGAAAACCTGGCTTTTGACACGGGCTGACAAGGACCGAAGCAGGCAGTGTCAGACGCAATAATAGTAAAGAGAAGACAAGAGGAACTTGTCTCTTCATTGCATGCAATTACAAACAGAGGCTGTTCAGAGAATTAGGCCTAGTTAAAGCTGCCCCCTGGATAAAATGTGTTCCCAAGCAGCCTCGGACAAGCTGCAAAACAGACAAACAGACGTGACTATGGGCCCTGGCATTTGGCAAGAACACTCACTGTCAGTTAGAAAAATATCAGCCTGGACAGGGCATCAGCTGCACAGAAATAAAGCAGGTCTGTGGTGTCACTGGAGGAGCATTCCAATGGCAGAGATAAGGATGGGGGTTGGGAAACCCAGCCCCATGTGAACTTCCTTTTCTAGATCCAAATTACCCTCCCCGCTTTACTTGGTGTCAATATGTCTCAACGTATTAAACTGAACAGACAGACATCAGTATCTAGCTTTTTTTCCTTTAGTACCCAAACGCACAATACAATAAGTATCAAGCACTTTCAAGTATAAATGTTTTATAAC
0.1185076664934532 CTTTTGCAACCCAGAAGAGCCCTCTCTGAACTCTGTCCCTACCTGCTCTCAGCAACAATGCAAATCATGACATTTTTGACACAGTGCCATCATCCCTGAAGCAGGGAGTTGCAGAGCAAGAGCTTGAGAGTCAGGTCTACGTTTACACACGTCCCAGCTGGGCCACTTATTAGTCATATCCTCTCAGGCAAGTCCCCTACATTTTAACCTCAGTTTCCTTATCTGTAAGTGGGGATGATGACAGCACTTATCTCACAGGGCTGCTGTGAGGATCCAATTGACATAACATATGTGGAGTGCTTGGCAGAATGCCAGGTCCCCGGAACACTCTCCAATAAAGGTTAGCTTAGTTATCACTGCTGTTCTTACATTCGTCGCCAAAGGAAACTTCCCCATTCCTATGTCTGATGCATGGCCAATTGCATAATACTAATACACTCCCAAGGCAGAATGGTGGCTTACACTGTAATCTCAGCTGTTCAGGAAGCTAAAGCAG
0.6515199221460545 TTTGTTCAGGCAGCACTGAAGAGCTAGACTTTGAGAGGTTCCCTAGCATGGGGCCTGCTTCAACACAATTGCAGCAAATGCCCTGTGTTCTGCCTTTGTCCTCTCTGGTCTGACTTCAGCATTACTCACGCAATTCCTCTCCCTTTCGCATAACCCAGTGTCATTCTATTCCAGCCAAGTTTATCTCTGCACCACTCAGATAAGCCCCATGCTGCTCTTTGTAAATGTCACTCTTAGAAGAAGATAGGATGTTTTCTGAAAGAGTTCTTTTTTAAAGCGTTCACTGACTGAATCCATTCTGAAGGATAGTTTGGGTAGAGGGCTTTCTAAAAAAAAATGTTTCATTTTTTAGCCTTTTAGGAGAGCATCTGGAGACAGGTACCCCATTACTCAGGAAACTCCCTAGACTTTTTAGATGGATAAACAGAGCAGAAATAAAATATGTCTAAATTATGTTCTTACACTATCTGATTCAGGCAGTCAAGTTTCTTAGTGACTCATCTGTTACAAATTTTTAGTATCTGTGTTGAGAAATTAAGCAAACAAAGTTAACCATATAGATTAGTAAAT
0.7529157444306067 GCGGGCCCAGAGTATCTAACGCGTCCGAGTGCGAACAGTGTCAGAAGGCACTGAGGCAGCGCGGTTCCCACCTCGGCATTGCAGGCCCAGAGTATCTAACGCGTCTGCGTGTGAACAGTGTCGGAAGGCACTGAGGCAGCGCAGTCCCCACCTTGGCATTGCAGGCCCGGAGTGTCTTACTCATCCGAGTGTGAACAATGTTGGAAGGCACTGAGGCAGCACAGTCCCCCCACCTCGGCATTGCGGACCTGGAGCATGTAACACGTCTGAGTGTGAACAGCGTCAGAAGGCACTGCCGCAGCGCTCCTGCTATTTTTAGCGTCCTGCTATCTTTAGCTGATAGAGTCAGGCCACGGTGAGGCCAGCAGGCCGCTGAATCTCACGGAGGCTTCAGAAGTTGTGATGCTGGCCCCTCAGCTTGCGGGAACTCTTCGAGGAAAAAAACGCGCAAACTGTTAATGTTGTCAGTGATTAATCTGATTGAAGCAAACGGGGAATGGTTGTTACTTTTAAATGGCTCCTGACAATGGTTTGGCCAGGGCTTAGATGTAACAGTAGTACTTACTTCTTCAATAGCCAAAGCTTGAACTTAGGAAAATGGGCAGCATAATTTTTAGTTACAGATTTGGGAGCTGGAAGGGTGCAGAGTCTCATCTCTGTGTCCATGCTAAGTGCAGCTTCTCATGATGGTGGAGGACGAGTTTCTTCATGGGAAATAAAAGAGCCCGTGGGAACCCTTCGCAGCGGCCCACATAGACCACGGACCACATGGGAGCCG
0.4827288772222387 GGCAACTAGTGTAGGGGTTAGTATTAAGGAAGTAAACTCAGCAGAACTGGCTCATTCCTAGATTGGAAAAGAGTGAGGGTGAGGAGGCAATGAAGAATGATCCTGAGTGCCTGGTTTAGGTGGAACCATCTGGCACTTGTCAGAGAAGAAAAGAATCAAAAGGCAGAGTCACAGGTGTGGGAGATAACAGGCTGAGCATTGAGTTCTGGGGCCCGTGGGACTGCACGTGGATGGCTTGCAGGCTCAGCTTTGGCCTAGGGAGTCAGACCCTGCCTGCTTCTGGGCCCCAGAGCCACCCCCATCCACTTGTGATCTGGGAAAGTCATTTAACACCAGGACCCTTGTTTTCTTATCTGTAACATGGAGATGCTGGTAACTCGTGCCTCATAAAATCACTTGATGTGGGTGAGAGAGAAAGCTAAGTGTTGATGACAGTGTGGGCCTGACCGTGCCTGAGTAAGCCCCATGGGAACACAGCCGTGGTGGGAAGCAGCTTCCCAGCAGCCCTCCCCGCCATCGGGAGAATCCCCTGAGGCCATGAGAGGGTC
0.3749889836375537 AGCTGCTTCTCAGGGAAAGCGGCCACCCGGAATGTAACGCGGCAGAAACCGGTCTCACTGCCTGCCACCAAGCAAACGTGGCCTGTTCTGATGGCTCAGTGGCCAATGTCTTCCTGTCACCAAGCTCCTCCAAATCGCGGGGGAGATTGTTTTGACATTTGATTAGCCACAGAGTGTAACTTGTGAGTGCTTGAGCAAGCCGACTCTCAAGCAATGGCATCGCTGAGTGCTTTAGCCTGTTAGAGATACCATGTATCAGGGAAAGCGATGGCGGGCAGGGCTCCAAGAGGGAAGATAAGTGGGCTGTTGGGAGAAATTAATACGAAGAAAGGAAGCGGCGAATGAAGTCAAACGAAAACAGGGTCCTGTGATATCCATGACTCATAAATTTCATTGATACCCAGAATGTGAGTTCCCTGCTCTC
0.5210555396556584 CTGGCTCCTAGTGGGCCTTTGGGACATGTTTGATGACTGAAGGGAGCTGAGCACTATGCATTTGGAGGCCATGAGTCATTCACACCCAGAAATTACAACTCCTTTATCTACTGGGCTGCTGTTCTCACTGGGGAAGTCCCCAGTTGCCTGGTTGGCACATTGTTCCAGCCAACCAGGTATTTACAGCTATCTCTGGCTATTCTGAGCATGAACAAGATTACCTGGGAATTTCCCTCTTGATAGGACTAGAGACTCCTACCCTTAGAGCAGAGAAGGCAGCTCTGATAATGAGATGACAAAACAGAGGGCTTTTCTCTGTTCTCAACTAAGTCCTTAGTGGCAGGAAAACAGACTGTAGTGTGCACAGGCTCAGGCCAAGGGCCACAGAATATCTTCCGAGTAAGAATACAGGAGCAAGGACAAGCTAGGATCATCAGTGATACCCACTCAGAGTGGGTAAAATCCTCAGGCCACAGACAACAGAAAAAGGCAGGCAGAAAGTAGTGAGCAAGTGGCCAATTGTGTCCCGGATGCCCAGGGCTTATTAGAGCAGGGGAAGGCCAGAAGGAGTCAAAAGCCTAGGCAGAGGTGGTCAAACAAAGAT
0.6816158984551824 TCTGTATTTACATATGTGATCTAGTCTTGAAGGTGGCTGGCTGGGGGGGCGCTCAGTTTTGTGTATTGAAAATTGCTAGAAACTGAGAGTTGGTTATTATATTGCCATTGAACTTCCTGTGTAATGGATGGTTACCATGTGTTTGTGTTATTCTCTGGTAAAAGGCACTTTTTATACCAGTGGAGTGTAAATTCCAATGTGAAAACGTTAATCTTTGAAAACCCTGAGCTAGGCTCCTGTTAACAGCCACTTGAGGTTATCTGGTGCTAGAGGCTAACCAGATCCCATTAGGCAATCCTTTCCCTCCCTGTAGCACATTACCCGAGGGCGGGACTCTTGGAAACTTCAAACTGAGGCTCCCCATGGCTGTCATTGCTTAAGATCTCCCCTGGGTTTTTACAGAATGGGATAATGAGAAACCTTCCAGACAGAGGGGCAGTCTTATACCTGTCTCCATTCATTTTG
0.7741852971185292 CTCTTGTGAAGGAAATTCTATGACTTTTCCTTGCTTTTAGGGATGCTCAGGCCCTCATGAGCTCCTTTTAGGGCCTATGTGATTTGGTGCATGCCTCCTCCCCTCAGGGCCTTTGCACATTCCACTTCTTCTGGCCAAGGGACCCCAATCCTGCTCCTGGTCAATGCCAACCATGGGACTTTCCAGCTTTAGCAAGGCCATTCCTGACCTCCCCAAATTTCTTTCAGACTAGCCTGTGCTCTGCCACACTGCTTACCGCTGTTGTGCACATACACTTTGGTGTGGTTGTTTAATATCAGCTCATCTTTGAACTCTCAGTGACTTTAGAACAGGGACCAACTTGACTTTGTCATCACTGCTTGCCTAGCACCTAACGCAGTACCTGGCATTGATAAATAAGTGTGTGTTATCTTGACAACAGCCAGGCACAACCTTAGCTGTTGCCAAGAGGCCAGGCTGAGGCTTCCCTGCAGAGGTTCCTTGAGTGTGTGTGTTTTTTTTTTTTTTTGGTGAGACATTCTCACTCCGAGCCTAGGCTGGAGTGCAGTGGCACAATCT
0.622024863060717 ACTTGCATGAGTCCTTCCTAGAATCGAAGGATACATCTCTTCCTGTTGAATATTTAGTCATTGCTAAAACTGCCGGTAAAACTGTACTCAGAACCAATCAAATGGGAAATGGGGTATGCGTCACAGGATTGTCATAGTGTGTGTTTGCTAATAACTTTTAGTGGGTAGGGAATAAGGTTAAGGAGCCTGTCCTTGGTGATACTATGCTGCTTTCAACGTGGCTTGTTGAAACTGCAGCTGATAAGCAGGGCATTCGTGCCTCTGATATGGGGCATTTGTGCCTCTATTCTTGAATGAGGTGCATTCCAGTCAACAGCTTCAAGCTGATACTGCTGAAGGAGGCTGTAACTTGTAACTAATCTGAATTACACTATATGCTTTACTTTATGTGTCTATACACAGTTTCAAGCT
0.3214832811593104 CGGGGCCGGCCGCCCGCTTCCCCTTTCTCTCCAGATTCCTTTGATCCGCGGGCTCTCCGCCGCACCTCGGCTCCCGGGCTGCCCCGGTCGGCCCGCGGGGATCCTGGAAACGGTCCCCAGCTTATCTCCTTTCATCAAGCGGCCTTGGGCCGCCTTGAAACCGCGGAGCCAGTAATTGCTTTTTTCAGGAGGCCCAGTGCGGACTGGACAACAGCCAATCAGCGCCTTGTTTACACTCGGTGATGGACAGTCCACTGGCGGAGTGCCAACCAATCCCAGCGGTCCCGCGGGAGCGGGAGTGGGGGCGGGGAAACAGAGAGACAACAGGCTT
0.5469149244045421 CCACCTATCCTTGACCTATGGTACCAGAATCCAGATAATGTTCCAGCTGTTCCTGACAGCCATGCACCCAGGTGGAAGCTTAGTTTTATGGGTCAGCAGAAAAGGCCAGAAACAGGCCACCAGCTGGAAATAAGGTTGTGAGTCACCCTCAGAAAATCAACATTGCATAGTGATGACTGTTTCTGGGCCTTGCCCAACCTCCAGTGTGATAACATTGCCGTGACATCATCTGAGCTGTAAAGAGAATAGAATGTTATAAATTGATATAGAGGTCTTTGTTTAGTGTTCCTTCTGTGCTATGAATGATAGACTGCTTTAGAGAGAGATAATCAGACCCATGCCCAATAGAGCAGTGAATTCCCAGAGATAAGTGTGTTGTAAATTGCTCCCAATGGAGAGCTAGGCAGAGAAGAGATCCAGGCCTGGCCCCACATGGGTAAGTTTGGGCTAGGTCCAGATCTGATAGGCCAGAGGGAGCAGGCCCCCTCCCTTTGCTAGAATGACTGAGTGAATAAGTGAGTAGGAGGCTTCTATATGGAGAGCGAGGCCTGCCTCTGGAAGGCATGGGGTGGGAGAATTGAGATCTGAAGGTCAGTGTTGACCGCATCAGATATGCAAGGAGCTTTTGCTTCCAAATATGAGAAGTGACCCTCTGTAGTGAAGACAGCCTACTCATTGGAGTGGAAGGCAGGGTGAGGAGAGTGGTTCAGTTACAAAAGAAGCCCAGATGGGTCTTCACAGTGTATTTTCATTATTTTGTTTCAGGTGCTATGAATATCTATCACCC
0.7574202490066254 AAGCAGACAGGCCCACCACGGCCCAGCTGTGCAGGATGAGCCAGCTCCCCAGGTGGAAAGGCCTGCCCAGGAAAGTCGCCAGAACAAAGCAGAAAGAGCCGCTGGCTGAGCTAGTCATTCTTCCCAAGTGAATAATTAGACAAGCGCCACCTTGAGAGGCCAGGAGCATGCTTAGAGGACATTCCCTCCTCCTGGAAGCTGTGTGTCCCCTAGGGGGCTCTTCAACACCCACCTCAGTGCAGCCACACAGGGAAGGGCTGGCGTCTGGGCCACCCTGGCGGGGATCCAGGACTACCTCACACTGCCCCACACCCACCGCCAATCTGCCCCTTAACCCAATGGTATCAGAGCATCTTAAAAGCACAACCACTAGACTCTGATAGCTGCTGTGTCAGATAAGAAGCAGGCCCCGTGGTGACAGACCACACACGGACGCAGCTGGCTCCTGGCTGCCTCACAGTCCGCCTCTCTCCTCACAGTTCAGCACTTTATTCGGAAGAGCATTAGACCTGCCATCCAGACAGCTTGTCCACCTTCACTCACAGCCTCACAATCCCAGAACCTGTGCTG
0.5036132161854348 TTATTCACCTATGTGTGTGTGCCTTCCCCACAAGAGAGGAAGACCTGCAAAACCAATCAACTCTGGTTCAAGTGAAGTGCCCCTGGCAGAGCCGGAAAGGTGTTACAGGGTTTGTTTGTGTGGATGGAAGAGGCTGACCTGTCCCGCAGCCTGAAAACAGGAGGTGGGAGGGGGTGGGCAATGGAGCCCTCTCTCTGCATGGAGACACTTCAACGAAGATAAGGGAAAGCTTATCAGGCAGCATTCACGGTGTCAACAGCAGACAAGAAATGTTTCTAACACTTCAGCCTTGCCAACACTCCCTATTTATCTCAAGAAACACAAGTGTTTTTCTTTCTTTCTTTTTTTTGTTTCCGTTCTCTCCTGCTATAAAATGCTCAGAGTCTCACAGTGCAAGATGAAGGGTTGACACGCGGTGAAAACTCATTTTTAGATTCCATCAAGTTCCATCAGTCGCACTCCCCTTGCAGCAGA
0.7366585077397987 GCCGAGTGTGGGAACTTGCAAAGTGGAGAAAGTCGTTTGGATCACTCCACCCGCAGAGTTGTCTTAAGCTTAAAGAGGAATTAGCCAAGAGCCCCAAGCTGATAAAGGCTGGCTGTTATTTCTTTTTTTAATCCCCTGAGTGTGGCCATTTGTTGCTAATGAGGTGAGGACAAAACATTACTTGTGGCTATCTTGCATAGGGCAAGTGCAGAGGCTCAGAATGGAATCTTATCTGCTTTCCTGCCCCTCCTACACCCCAGGGACCCATGGAGGGGCTCCAAAGTGGTTCTTGTCTGGAGGGCTTTAATGGCGCTTTTCTCCTATTCATCACGTTCATTTATTGAACTTAGCTCCAGCCTCCTAAGCTTTGAGCTGTCAACACTCTGAGATGAAGACAGTAGACAGCCTTCCGTGGGATTGAGGGGGATCCCTGTGGTTGCCCGGTGTCACCGACTGACCAGCAGGGCTCCGGCTTTGGAGTCAGGATAATCCAAGTGTATATTTGGCTCTGACACTTAACAAATCTGCAGCAAGTTCTCCACTCCTCTGAGTCTGTTTTCCCAGCTGTAAAAGGGAGCTAATAATAGCTCTTGCGGCTAGCGTTGGATCACCCAATAAACCTTGTAAGCATATGCTGAGGGCACACCCACACAGGCATGCACGAGAAGGAAGAATGCCATAGTTGCCATTTCATAAGCACCACGAAGATAAACATCATGGGAAAAATAGCAACTTTAGGCTGGGCACGGTGGCTCATACCCATAATCCCAGCACTTTGGGAGGTCAAGGCAGGAGGATCACTTGAGGCCAGGAATGAGAGACCAGCCTG
0.1901960442820093 TCACGTTCCATTTTTATCGGATTGCACTGCGCTAGAGGCACATGTCTGGAGAGGAGGAGACGTGAACAGAGCTGTCCCCATGGCCCAGGCAGGCAAGGAAAGCAAAGGAAGCATGAAGGGAGGCCAGAGGAAAGCAAGGGAAATGCCACGCCTGCCTTACGAGCTCCGACAGGGAAGTCGAGCCCTCTTATCAGTGGTCTAGTTGACTGGAGAGATAATCTACCACGCTCGCCAGCCTGTTCTGGAGAGACTCAATGACAACCCTATCACGTTAGAGGACCTGGCTCAGCAGTAGAACACAGGCTGGCAGCAGAGACTGTGGGATTCAGCTCTGGACACCAGCACCAGCTCAGATGGGAGCTCTGCTGTGGTTTTCACTTTGCTCTGGCTTTATTTTTATCAAAAGTATTCCAGGCCCCAAACCTCCCTCCTTAAACTTCCAGGAGAGG
0.2200443685716906 ATCTGTTTGCAAAAGCTTTAGCACAAGGAGAGCGATCTGCCTGAATTGCGGTAGAGAGTGTTGTTTGCGCATTTGTAAAACGAGGCGAATGACCCAGCTGTTGGCCGTAGGGGCCTTTGCTGTCCTTCCTGGGGTTTGTGGTCGCTGCCGAGGATCAGCACTTTCACACGCGACCTTACGCATTCCTTGTCATCTTGTCCTTGGCGGGCCTGTCAAAAAGAAGTTATTTTGAAAGCGTATCGCTGATTGCACATTTTATTCCATAAGTGCTCAGCGCGTTTCATGTAACTCCTGGAGGCCTCTGAGATAAGAGTGGAAAAGTGCCCTGTGCCCTTCTGAGTGGTGGGTGATCTATTTTCGACTTGGAGACTGGTGACAAAGCTGTCTTCTGTCAGGTCAGACTCGCAGGGACTTTCTTGTTTTCTGTTCCTCTGTTGACAGCTGTGCCTGTGTTCAGAATGGTCATGGGGTAGCTGGAAGATAGCTCTGGCATTTAAACACCTAGATAGGAAGGAGACGATGGAATGTATTTTTCTTTGCTATTTTGGTTAGCAAGTCCCTAGTAGTCCATACTGAGAGGGGAAGAAGCAGAGAGACCTTTGGGAGGGCGGGCAGGAAAAGATGTCCAACTTCAGGTTTAGAAGGCACAGAGGGAGT
0.4463056425821012 CCGTCCCCGCCATTCCAGGCCCTGGCACTTAGGAGCCAAAACCTCAGGTCAGGCGCACTTTGGGCCTCCAGCCCAGCCCCGCCTCCTCAGCGCTAGCTAGTAGGCAAAAGGAAAACAGCTGCCCCTTAATGAGGCTATGTGGACATCGTAGTTTTTTTTCCAGTCAGTAGCGCAGAGACTGTGATAAGAAAAATCACAATTCCCAGAATGCCGCGGTGCTACGGCAGCCGAAGGGGCCATTCCGTGTGCAGCGCTCCCGCCCACCCTCCGGTCTCGGCGGCTCTCCAGAGCGTCTGTAAACACCCAGAGACTGTCATGGAGGGGGAGGAGGAGGCGGCGGCGGCGAAGGGAGGCGTTTGGGGCCGCCTCCAGGGTCCGCTCTGCCATTCCTGAACTGGTCCCTCGTCC
0.7633445993496489 CATGAATGCCAGATATACCAAATCCTCCCAGTAGCAGTATATATATCAGATGCAAAAAAAATCCTATTTGTCCTGAGGTACTTTGGCAGCTTTAGAAATATTTTATTAACTTAATTCATAATTTATAAGTTGCTTTCTTCAAAATATGATGGGAAATGGCTTACTGGCCATATTGCATTTCAAGCTGCAATGATAGAATTAGTAAGAAGTGGCATACGGAAGCCTCCCCAGCTCAGACCTGCTCCCTTACCCTGTCACCTTTATCACCTTGGCTTTCAGCACTTGCTCTAGCCCGGAAAGAGAGAACTACAGACATACCAGTGCTTAGATAAAGGCCGAAATCCGGCTACAGCTCTACTTACTGTATAACTTGACTCCCTAGTGTCTGGCACTTATCCCAAGCTTAAAAATAGATTTTAGTTACTTTCATCCATTTTATCAAGCAAATGGATATAAATCCTGCTAAATGCAAAAAGTTAATGACCTTCTCCTTGCATGTAACTAGAAGATGGTAGGTGATGAATCCTATCCACATTAGG
0.6543521351395112 ATTGTCAGATAGGATCATGTTACAGCCCTGCCTCCCTTGTTGGTCTGTATACTGGTAAACTGTGTGGCTGTTCCCTGCCTAACCAGCTTGCTGCTTTAAGGTGACCTGTCCTGAAATCCCAGACAAACACATTTCGTGATACAAGTTCTGCCCTCATTTCTATCTCAGAGCTATGTGTCTGGACCCTATGACTCTGCACCCTCTCATAGCTGAAGAGTGTTATCAAGAGTAAACACTCAGGATTGATAATGGTCTTTCAAAGGTCTAAAAACACACCCACAGTCCAATGACCTATTGAAAGGAGGATGAGTGGTTTCTTTTGATATCGGGCTGCTGGACAGACTTTAGTGAGTGAAAGATTATGCTGCTTATTTACCTGGAAAAAATCGACGTCATAAGGATGCCCCCAGGCCAGTGGGGAAATGTCCACTCTGTGTACATTGTATAGGGATTAAGACACAGCCTCCAAAGTCAAACCTACTTGTGACTGAATCCTGGCTGCACCACTTAATGTAT
0.6664492574498896 TACAGGTGTAAGCCTCCCTGTCTGGCCTAGGCAAGAGTTTAAGTAGGTGAGTCATGGGCACATATCTTAGCTGTGCTGGGTGTTGTTAGGGCAAAGATAAGATTTCCTCCAAACGGAGAGTGAGTGCTGATGGAAAAAAGGGTTCATTGGCAGACAGCCAAGAAGATATCACATGTTTATGGCCAAGAAGTGTTTGGAATTCAGCCATGCATGGAGATTTTAATAGTATATCTAGACACTAATATCTCTACCCTGAAGTTGTTGCTATGTTATTGTTATCACTATGTAGTGGTAAAGGGCTCATATTCTGAAATCACAGAGGCCTAAGCCTGAATTCCAACTCTGCCCCACAGTAGCTGTGACTTTGGGAGAGTAAATTACTACTATCACACTGCAAGTCTCAGTTTCCTCATCAGAAATATGGCGGTGATGTTAATACTGACCTTATAGGATTGATATGAAAATTGAAGGATATGACATATTCAAAAGA
0.7809257821927061 CATGCAGCTAAAGCAGGGAGTCAGATTGTTAGAATTTTGAAGATCAACCAATCTAGAGCTCAAATACTAGCACTCCATGGGCCGAATCTGGCCCAGACAAATATTTGTCTGACTTGCATGGTCACTTGGTGCTTTCTGATTGTTTTAATTTTGAATTAGTTGCCAACATTTAAAAATTAGAAAATTCTGAAAGCTAAAAAATCTAAATTTCCCTTGAAAATGTGAAAGAGCAGACAACACTTGGCCCTCATTCCTGAAGGAAACAATTTGTTAGATTAAGAAGGGGTGAGTCCTTCCAGACAGAGTATGCTTTCTAGATTAGCACAGTCCCTGTCAGCACCCATTATCTTGCACTCATTCTACTTCACTCATTTACATTATCAGCCTGGGCTCTGTGGTCTAACCTTTCCACTTTGCAAAAAAAAACTGAGAGGTCTAAGTGGTTTGGTCAAGGTCATAGATACAGGTACAGTGTTAATATCTGGCCCTAGGCCCGAGGCTTCTGGTTAAGCTCAGTGTGTTAACACTATCTTCATGGGCCCTTTGGAATCTATCAATGACCTGTAAACACCTAGAACACTCAATTTGCTGTTCCTTTACAGCCCTTACTACTTCTTACTTTCCACTGGAGTTACTTCTAGATGCTCAATTGGTCCTTTATTCATTTATCCACTTAGTGT
0.1314563916583949 TGAGGTCTCTCGTTCAGACCAGGTATGTGAGGGCTTGGTTATCATGCACTGCTCCTGAATCCACCATCTCCATGTCCACATCCTTGGCAGGGAGACCAGAGCCAACTGGGAACTCTGCCACCTGGAGAGACCTTTGAAACACTGTCGCCACCAGTGTTCCATTTGTGTGTTTGCAGAATGCCAAGTAAGCACATTCTTTTTCACCCTCTGACATGACCTCAGGGTTACTTTCTGTGGCTGTTGACAAATTTTTAGACATCCCAGTTTTATCAGCGGAAACCTTGAAGAGTGACAAATGGTTCTTGGAAGAGTTGGTACATACTATAAAAATGTCAGCTGGCTCATTTATAACCCAGTGATGTCCAGTGTCTGAGCCGTGCTATCAGCATGGTCTATAGATAACTCACCCTCACGATGCTCCGCTCTCCCCAAGTACTTTGTGCAGCTGTTCTGGTTGAAGACCCAGTTGACATCTATAATAGATATCAAATGGAGAGCCTCTTATTTTATCACTCTCTGTGTTTCAGCACTGGCGGTCCCCATGGACTGTCAGAAACAGGCAGCCAGCACGTTATGGGAAAGGTGACTTGCTGAGTCCCTGTGCCCTGAGGACATTATTAAGTGCTAGGGAACCTTGTTAGCTCATAAAGTTGGTTCAAACCAATTATTGTTCTGCGACCATTACCATTGCCAAGAATGTAACTCTTTTAAATTCTTGCCCATAAAGCCGATCTTTCCATTACATTATATCATAGAGCAAGACTTCTGATCTGGCCGCACTTGTATCCCACCGGCTGCAAAGACTAAACATTGCATTTGCTGCTCAATATTGGTTACCCTTCAGTGCTTCATGGAGGCAGCAAGACTGCTATTTATAGATTTACTTTCTGTCTCCCTAGTTCAGCACAGTCAGTTTTGACACACTGTCCCAGTAATCTGATCAGCCATGCTGCTTTTAAATGAAGGTCTAGGCCTTGGCCTCTGCAGAGAGGGTGACAGCTGTCAGATACAGATAGTAGGCTACAGATCCTGGCTGCTAAAACCCTCTCATTCATTCCTGTTACAGATCATTGACCACAGCTTGAAGCCATGCTTTACAGTTGGCCGATTAGTTGGCAAGAGATCTACATACTGTATTAGCAAGGTCAACCACTGAGATAAAGGCAAAAACGTAAACCCCTG
0.6729742108134021 AAATGGCTCCCATTCCCCAAGTTAGTCCCAGAAGCTGGACCCTCCCTGATTTGGTCCTCATTCTCCCAGAGAAGCGTGTTCCGTGATTGACTGTGTCCCCTCCCTCTGTCCTCTGTGCCTCTGCACTAAGTACCAGGAGGCCCTCGTCCTGTCCACACTCAGCCATCGCTCGGCCGGAGATACACATGCAGCTCCTCTAATCTTTCCCGGCAGCTCAGCCACCCCGCTCCCCTCACCCCCCATTCCATCCCTTGTTCCCCTTCCTCCTTAATCAAATTAAGGGAAAGAAGAGGATTTAGATAGGGTTGCTAAATATATTTCTGTTCAGGGGAGGGAGAAAAAGAGAAGAGTTTGGAGGAGGAGATAGAGTGTGAAATTCCTTAATAGAATGTGCTCTGAGAGCCTACTTTCTCCAGAATAAGCCGTGCAATCACCTATCTGGATAGAGTTTTCTCTTTGGCAAAGTGCTTTCACATACATTATCTCATTAAGATATGGGCCGGGGTGGCAGAGTGCCCACTCCCCGGAAAGGTCTGCCGAGGCCACTGGGCCTCGTGAGCTGGCCTGACCCTGGTCTATATATTTCACAGGACACCCTGGCCCCAAAGGGGTGACTCGGCTTTCTGTGGAGCATGACACCAGCAGCCGGGCTGCTGACGTCTGGAGGTCACAGTTTCCCTCTGTGTGTTCTCCCGACAGCAGATTCTAGATCTTTTTTAAAGTTTCACTTTTGAAAAACCAGAAGAGTGCTTAT
0.7571696617105947 GATTGCTACAACCAGTAAGTCACTTATTCTAGAAAAATACAGAAGTTAGGCAGGCTTAAAACCGCTTCTTCAACAGTTAAATTCATTTGCACATTCTACTCACCTCAACCAACCTCAGCAACAAGGGAATAAATAGCTTCCCACTTATGTTGCAGCTGAGGGAAGAGGTACAGCAGCAAATACAAGTCTCCCTAAATAAAGGCAAATATTTCTGTCATGCCAAGGAGGGAGGGAAAAAGGGAGGCTTGCCAGAGTCGGCTGGGAGATAACAGTGGGAACTGCTGGTCCATCTGGTTTTCATTCTGCTAACACTCACACGGAACTGTTAGAGAAGGCAGTCCAGATACACAGATTTGAAGCACGTGGTTGCACAGACAGAGAAAGGAAGAGCAGGAGGGGGAGGGGAAGTGGGAGTAACAAAAAAATAAATAAAGCAATAGGAGGAAAAAGAAGAGGAGGAAAAAGAACAAAATAGAGAGACAAGAGCCTGATGGGGGAGTAAGTTACCCTCAACAGCTTCCTTTACCCTCAGTGTCTACAAGCTGGACCTTAATGTGCACAGCCCCCTACCTGACTCAAGTTTATAGAGTTAAG
0.4930993926362158 TTAAGTAATTTGCCCAAGGTCACAGAATTGGAATTCCAACAGAGAGCAGCTGCCTATGGTGTTCTCAAAGGGAGGGCAATGCCAAACGAAAACAAGCAACAAGACTCTACTCATTGCAAGTGAGCAAAGGTTCTGATCAAATCTTCATTCTTGCTTCCAAATCACTTGCTGAAAAATTAAAACTAGATAAGTAAGGACAGCTGCCTTTATACCTTCTGGCCTATTCACAGGCAGATTTCCAGACGAAACCAAAGGCCTTCATGAGGAAAAACAAAGCTCCTCAGTCTCAGGGCAGCTAATGCTGGGCCTGGCATTTTTTCCACTCTTATCTAAAATATGCTACAGGAGAATCTAGGCCCAGTGATAAGCCAGGTTTCAACTTCACCTCCCCAGCCTGAGAGCGATTACACACATACTTGGGATTTAACCAGCAAGAGAAGGACACGGAAACCTGGGTCCCTCCGAGCCCAGTTTCTGTTGACACTGTTGCCAGGGCTGAGCCAATTGCACCAGTGTCAAGAGCTCCACAGGGAGGTTTCAGCAGGGAAACCAGCCCTACAGGTGTATCCAGGGAGGCAGGTGTACAAGGCCACATTCTTTCCTCCACTGAACAAATCAAGGTTTGTCTCCCTGCTGTGCGGGGCTCACAGGGCCAGATAAATCTCTCTCAGACAACAACCTCAGCACAGAAACAGTGTAGCTTGCTGCCACTCTGTAGCACC
0.4810284292851859 GGATGGCGGTGGGGGTGGGGGGTGTTGGCTGCTATTTTGGCAGGTGCCAGGGACAAGGCTACAGGAACATGTACCCCACGCCATATAAGCCCATGTGGTCCTCCAGCTGCTCAGATAAGCTATTTAAAACCAGAGCAGATATGCAGGGAACAGTCATGCAACATAAACCAGCTGTCCCTCTTGAGAATCCTGATAAAGCAGAGGCCAGCAACCCAGGCCTGGGAGGGCCAGCTGGGAGCAGGGTTGGGGGGCAGAAGGCAACCTCCAAGACACTCCATAAGTCTCAGCACCAGAATCTTGGAAGGCAGAGGGCAAGAGTTATGTGCTGCTCC
0.4716714474362591 ATGAAGAAGGATAGAGTGAAGTGGCATTCTTTGGCCCAGGTAATATAATCATAGTAACAGCAAGCGCATACTAAGTGTTGACAATGTGACAGGCACCATGCTAAGCACTTAAGCACTTTACACGCATTATCTCAGATAAGTCACCTAACAGCTCTCTGAGTTGCTGTAGTAGGCACAAGCAGGACATCTAGCAGATGCAGGACATCTAAGTCAGATACTTTCCACTTTCCACAGTGTGACTTTATCAGGGACATCATAGCTGTTCTCTAGCCTGAGAAGAGGGCCAAGTGGGCAGAAACAGTCACGGGCTGTGTGACTCCTGCCTTCACTACCCATCAGCTGCTTTATCTTGGGCAAGTTAATTAACCCTATAAACCTTGGTTTCCTCATCTGTAAAACAGGAGGTAATAGGAGTTCTTACACCCTAGAATTGTATGAGAGTTCACCTGATGATTCACACAGGGCACAGCGCTTGGCCTGTCCACAGGATGCATTCAGGAGTCATGTGGCCTTTGCCACTGTGCAGTCCACTGCACTCACACTTCACTGTCACCCTGCTGGGGAGCAGGTGACCTGCAGGAGTGAACACAACA
