svm_type c_svc
kernel_type gkm_esttrunc
L 11
k 7
d 3
norc 0
nr_class 2
total_sv 14154
rho 0.148457
label 1 -1
nr_sv 7625 6529
SV
0.6982798920697699 TTCCTTTATCTGTAAAGTGAGGGGTTGGGGCTAGACAGTGTCCAGCATCCCTCCTCTTTGGTGTCTCTTAATTGTCCAGGGCAGAGCAATCCTTGGAGCAAGGCAGCCTGCTGCGGTGGTTTGCAGAAGAGGCACAGTGGGGCGGGCTGGAGGCCGCAGGGGCAGAGTGGGCCGAGGGCCTCTGATGAGGTGTGAATGAGGGAGGCAGAGCAGGGCTGGTGTGGACAGCCCTGTCCCAGCCCTATCTCCCGTCTGCGACACCCTCTCCACACCCCAGTGCTGATAAGCGGGTGTGAGCCACGGCCGCCTTGTGACAGGCCCTTCGGCAGGGAGGGTGATGGTGGGGGTCCACTCCACTTCTGAATTCAGACGTCAGCATCTTTTTCCCCCAACCCCCATTGCCCTGTCAGACTAGACAGGCCCTAGCAACCAGGCACCCTCCCTGACAGTCCCTGGCTTGGAGATTTGTTTCTGCTCCATGTGGCCTCAGCCTTCTCAGAGATGGTAGGAGACAGACCTCCCTCAGTCCTTTCTGGCAAAGTGCCAAGGAGGATGACCACCTCCCACCCCCATCAGGCCCGTTCCTGCAGTGACTGCTGATGCTGGGGCCTGGCACACACAGTGCTTCTTATCACTGGGCAAACTTCAATGGCTGATCCTTTTGTCTCCTCTCCTCACCCCATCTCCTCTATCGCTGTGACCATCAGCTTCCAGTCTTCCCCCTCCAGCTCCCTAGCTTTTGGGCCATTTCTGTGTCTGGGCCCACCTCTTTCCTCTAAGGCCACTGTTCACCAG
1 CTCCAGCCAGCTTGCCTGTATATCGCTATACAGGTCCCTGTCCTGCCCTGCTCCACCTTAATTTCCTGCCCTTTAAGATTTTCCTTCACCAGGGAAATTTAGCATCTTTCTGCAAGACTCAGTTTAATGGCATTCTCTAGCATTTTCCGACCTTCCCTGGCTGAGCTGAGTGCTGTCTCTGCACTCTGCCCATGGCATCCTGTCCACGCAGCATCTTGGTGCAGCAATCAGCACACTGCTACATTATCTGCATGGCTGTCATCCCCATTAGGTGTGTGCCCTTGGACTGTGTGTTTTCCTCCTCGTATATGAGGCCTCAGCATAGTGCCTGAAAATAATAAACATTTGACATTCAGAAGAAAGGAGTGGAGGAATAAATAAATAAGACAGCCTGTTTTCATGAAGTGTTTTCTACATTGAATGCAATTATTCTAAACATCTCCTTTAACCTGGTCTTCTGAGCTCTTTCAGAAGAGAGTAAGCACCATAAACAAAGAGCTAGAAATCACATCCTACAAGGAAGGAACAG
0.7072161798826413 TGGCGGGTGGCTGGGCTTGGTGGTATTGGGGCCACCCAGCTGGTGAATGGACTCTTGGCTCAGGTCCGCTGATCCAGGTGGGCCCTGTGGGCCTGGAGTGTGCACTCTGCCTTCTGCAAGCTCCCTGGCTCCTCCAGGACTCATCCCATTCAGCACAGGCTCTGTGCCTAGTGGCTGGGAGTACAGAGCTGGGCACAGCCTTGGCCTGCTCCCTAGAGCCCTCCATACCAAGACTATAGGGTAGGGGAGATGGGCATGGTAAGGACCTCACAAGGCCACAAAAGGTCCGGGGGCTGGATCCATCGCTGGCAGCCTTGACAAGGCTTCTTTTGTGCCTGGCTGGGCAACTCTGCCTGGGTCTGCTCAGATTGCAGACAGAACCTGGGTGACAGAGACAAAGCAGAGCCCAGTGGAAAGTGTCCTTATCGCCTGGGGTCTGATAAGGGCCCCGGGGAGGGGGCTGCCGGCCAGCTCCACAGATCTGAGTGCTGGAGGAGCTGGAAGGGCCGGCTGGGGCGGCTGCAGCAGACGCTTGCCCCCTCCCCCACCCCACTCCCACTCCCCCACCGTGGCGGCTGCTCACTGCACAGTATTGATCTAGTGGCTTCTTACACCAACCCTCTCAGCAGCCAGTGGGGGAGGGTGGACTGAGATGGCCCAGCGCCCAGACCCGGCCGGAGATGTCGGGTGTGGGGAGGATTAGGCACCCTTCCCCGTGCTGTGCTGGGCACTGCTCCTGAGAAAGGTCCAGTGTCCCCAGCCTGAGGCCAAGAGGAGCTGGTGATACTTCAGAAGCAGCCTGGTCCGATAGCCCCAGCTCCAGCCCAGATCAGCTCTGGGACCCTGGGTGAGGCACTCACTATCTCTGAACCTTGCCGTCTGTATTATGGGAATGGTCACAAATCTACCCTTCAGGAGTGGCTGTGAGCATTCAGTGGGGGCTGGAATGGGTGGCTGGCCCATGCCAGACTCAGGTGCTGCGGTTATGACCTCTCCTGTGTGCCAGGGGCCAGGAACCACCCTTCTGACTCCTGGTGGCCCATATCTCCTTGCCACTTACCTGAAGTGTCAATAAATACGAATGGGATGGGGTC
1 CAGACACCCAAACAACCAAATATTCAGAGAGCCCGTGCCCTTGCCCTGCTTCAGCCCCACAGCCCCGCCTGGGTTGCTGGTCTGACCCGGCTGGGCAGGGTGGCTGTGAGCTGCCGGTGTGGCCCCAGGCACCTCAAAGGGTCCTCGGTGTTCAACAACAGGAAGTGCTGGCAGGCTTCCCTCGCTAGGGAACTGAAAGTGGTGACAACAGAGGATGTGTTCTTCAGGCTATCAGATAAAGCCCTCTGCACTGAGAACTGCTTCTGACGAGGAACAGAGACTTCACTGGTCTCTTCCCCATGCCTTGCCCTTGCCCTAACTAACTTCTGAATTTATATCACCTGTGAGTTCTGCTCTAATTCAGGGACTTGGGCGGAGAGGTTTCGGACAGTGGCCAAAAGCAAGAGACTGTCTGCATGACCCTTTAGAAACACCCGTGACCTGGTGCAGAGCTGAGCCAGCTTTGGCCACACTGTTTGGGATGCTGACTCAA
0.6552606267714236 GATGAGATACGCAGCTGCTCTGAGAGGAGAGAATCCTCAAATGCAGGAGGGATGGACAGACTGCTGCTTTCTATAGCTTCCAGAAAGAGCATCAGTTTCCTTCTGCTTTGAAAGCTCCTAATGCTGTTTAAGTGGCAGCCCTCTCTCGTGTGGCTATGCTGAGGCCTTGGTGCTGAATGGACTGTCTTGTCTCATAGAATGATTTTAACCAGACCCTGGAAAGTAGCAAGGCAGAGAACTGGACCGGCACTCTGGACTTTCTCTCCTCAACTGTCAAACAGAAGGTGGAGGTTGAAAGAGAAGCTTCCCCAGGGTTTTTTGGCACCCTGCCCAGATTTCCTGCCCAACTCTCAGCATCCTATGATTAATGGGATTCCCAGGTTGGGGATGCCTCTGAATGCCGCCCCCCCCTCCCTGCCCCACTAATCTAATCTCCTCACTTAAAGATAGGAGGGAGTGGAAGGGAGAAGCTGCAGGGAATATGTGCTAACATCAGTTACAGGCAAGCCTGTACTTACACAGAGATCTGACATTTTAAAATAAATTCTTGAGCACTCTTTAGACAAACTGCAAAGTTTAGGAAAGTGTGCAATACTCCTTGGCTCATTGGCCCCAGGAATTGGAGCCTCACTTCTTATTATACCAGAACCTCCTACCCACCTTTTTTGCCCTGTCCTTTTCCTGCCTTGGATGATTTCCCAGATGATTAATTTTTTTCTCTAATCTTTTATCTAATGACTTCTTTTTTTTTT
1 AACAAAAAACAGTGCCCTAAACGTCCGTAACCCTTTTAACTGTGTGAATTTCGTGTCCTGTTGGGCCGATCTCCGTCGGTGCACTTTTGGAGTGTCCTGTGCCGCTGCCCTCCCTGCGGGCCTGGCAGGACCAGACCCACAGCCATGGACGCTGCCATTTACAAAACGCCCACCAAGTGCTACCAGAAATGGGACATGCAGAGCTGGTATGAGCGCACACACGGCATCAGACGCCCAGAGGAAGCCAAACTCAAGAGTGAGCTCCAGCCGTCTACGGTGAAAACAAGCCGGAGCTGTGTCCCACAGGTGTCTGTGTGTGGGGTGCACCTGTTCTGGGCTGCGGGGCACAAGCATGGGGTTGCTGGTCCTAAGGGCACACGAGTGGCCGCCTGGAAAACCAGAAGCAGGAGCTCCTGGACGCCAAGGCTGTGAACAGTCGGACGCCTCCCCGTCTCCAGCAAGCCGGGAGCCTTATCTTATCGCCGGCGCTTCAGCTCTCCCGTTATTTAGGGACCGGCCACAGGCTCGATGGCATTCCTCTGCTGTGAGCACAGAACTAAACTGGGCACGTCCATGGCAGATGAACAGAATGGTGGAGTGAACGCATAAGTGAGATTTCATTGACTTAGCTGCAGCCCTCAGATTTTAATTCTGCCATGATAAACAGCACCCACGGGGTTTTGAAGAGCAAATGCCTCGTAGGAAAGCTGGACTGCATGTCTGTGCACCTGCCATTTCCCTGAAATTCATGCAAAAGCTTGATCCTAAAATCAATTTGCTACTTAAAGGTATTTTAAGAAGCTTTGTCTCCAATCTCGTCCAATCAAGTTTATGTCATTTTCTTAGAACACATTTGTGTATGGGCAACTCTCCAAGCTGAACCATTTTGGGAGATGATATTCTAACTTTAATTCATTGGAATTTAGAACTAATCCCCAAACAGTATTAATGGGTTCACATTTCAAACTGGCTTATTTTACATCCCTTTGTAATGAATTCAGAACAAGAAGGCTTAATCTCTGCAGCGAGAAGTGAGCCCTCACCCTACTCCCACCAGCACGGCCGAGAGAGGCTTCACTGGCTTTAACTCTATTAGAAACAGAAGGTGCTAGGCCTAGTTAACGCTTTACAAATACAAGTGAAAAGTCACGTTTAAAAACTGAATCTTAATAACTGCAAAGTAAAGTAATACTGTCACCCTCAGAGAAACCA
0.1530354903303377 TAGGCACATTACTATGTACCACAGGGCAGGCCAGGCTGCAGGAGGAGCTTGCAGTCCTGGAGGCTTCTGGCTCTCCTCTCACCCCGCTGCCCGCCCCTCAGTGATTAGTTGGAATCCAAGACAGCAATACAAGATGTGTCGTTGGTGGGAGTGATGGAGTGCCTGCTGAGTGGGCCGCAGATAAGCACCGTGATTTCGGAGGACGCTTCATCATTTCGCCGTAAGAACATGTTAACGGGTGATTGTTTGAATGTCTCCAGCTAATAGGATATTATTCATAACACTCTGGCTAGTTGGAATGGAAGATGATAAGAAATTAAATCCTTAATGGCTTTCTTTAAGGGAGGACTTTTCCCAGGGGAACCAGGAACCCTGGGAAATCGCTCCATGTACCCTGGCAATATCTATACGGAGAGAATTGGCTTTAAATGAACCTCTGAGGGTTACACAAAGGGTAAAAGAAAGAGAACAAAAAGCAATTGACATTAACCGGGTCCCTACTACGTGCCAAGTACTTAGACATTTTACCTACATCACGTTACTTCATCCTGGCCCTGTCTCTGTTGTGACAAGGCACTATTAAGCTCATTTCAGAACTGGGAAAACTGAGGCACACAGAG
1 GGGAAAGGCTTCTCTACATGTTTGTCTTATAAAACTCTTCAGCGGATCACATAAGTATGCATGCTAATATCAGTAGCTTACAGAGTTAATCTAGTAATGTATTAATATTTAGGACAGAGCCTGGCACAGGAAAGTGTCACATAAGTGCCCACCATGATCTCCAATGGAAGCAAGTAGCACAGCGGGTTAACTTGCCTTGGGGTGTAAGGCCCCTTTAAAGAGGGCGGTGAAGTCAGCCACCTCTTGATAGAACAAAGGCATACCAGGCCCTGCCAGCCCAAAGCCGGGTGGCTGATGGCTTTTGTCACCAAGTGATAGCCTATCTCCTCGTGTCAGGGCCCCCAGGCGTCAGTGAGAGCCACCAAGTGGGGAGGGTGGCTTCTCTTGGGAGTCAGATTCAGGTGGACCAGGCCTGTGCCCAGCAAAGATGGGTGAGCCACATAACGGGGCACCCCCTGTGTACACAGCACCACTGGGACAAGCAGCATCAGCTCCCCGTGCCTCAGTTTCCTCATATGTGAAATGGGAACATGTAATAGAGGTCCTTCAAAAAGTTATCATGAGGTTTAAATGAGTTAATTACTGCTTCTAAAGTTCTAGAATACTGCTGGGCATGGTGATGTT
0.4425202792381521 GACATCGCCCCAAGGCATCTGAGATCCCCATTTCCAGGAAAGCCACCTGCACCTGCTTCCTCATTCGGTGCCACGTGAATTAGTGATGTGACTTTGTGTGGACGGGGACTGGGAGGCAAGGACGCAGGGAGAGGCAAGGACACGGGGCCTGGCGACCCCTGAGTTGAGGATTCCGCAGGCCCTGGGCCGACTCCCACTGAGGACTGAGGACCTGAGGCTCACGCTTCATCCCCAGCGCCGGCTCCCTGAGGAGGCCCCTCTGCACTCTGTCCCTCCTCAGGGGACAGGAGGGGGAGGGTGCAGATAAGGCACCGGGCCCCGGGTTATCTGGCTTGACCTTTGGAGAAGCCGAGAGGGGAGTGTTGTCACCCAGAGGAGATAGAGGGTCGCCTGGTGGGAGCAGCTTCCAGCCTTCCTGAGTGGTCAGGGGCAGGGCCCTGCGAAGACAGCCTGGACTGGGGCACTGGCCTGGCCTGTCAGCGCCATCCCTGCGCGGCTCCCAGACACCCAGCTGTGCCGGCCTGGGGCATGCATG
0.2446055409826031 ATGGCAGAACCAGAGTTAAATCTCAGTTCTTTTGACATCCAGTCCAGTATTCTTTCCATATTTTTAGAGCTCTTTAAGTGACCAGTGTAAACATCTACACAGTATATTTTACTGTGATACTTAGAACATCCCCGAAAGCAATTAACTACATGACTAAAGGTTTGTCCAATTAATTTTTCCTTAATTGCCCATATGCTGAAGGCAACTCACAGGCTACAAATAATTTACGAAACTCTTTTACTCATTGTGGTCATTACTGACCGTATTGGCTAGCAGCAGTCCTTCCCAATGTGAAATGGGTGAAGTGCACTTGGAAATTACATGAGGCTTGCACTTTTCATCCGCTCTTGTTGGCCTGGTCATCTTCAAGTGCCTGTTATCTTGAGTGAGATAGAGGATTCTAGCAACAGCTCCATTGTGTAGTCTTATCTTAGGAACATATGGACTCTTTCACATTTGGTTTCCCTAAGTAGGCCTTTAAAAGTGATGGCAAATTCTGTCAACATCTCCACCTGTTTTGTATTCTCTCCAGTAAAAATCTGTCCAGTAGCTTCAAGAAGCTCAATCTACTGCTGAACCACTTCATGCCAGTTTCACGTGCTCCTTTAGTCATTTTCTTCCTGAAGTCATGTCAAAATGTCTATCTTCAATAAGCCCTGTCACTTAAAATAGAACCCTCTACCTACAGATTATGTTTTCCTTTTGACCTGTGTACCTCATTTGAAGTATGTGGCATAGATTTTCTATATCCAATTCAACGTTTGTTCTATATTCACTTTTGGATGATTCTAAGTCGTGTTATCATATCAGACTATCACAATTTTGAATGTTGAACTCAAACTAAATACTTCAT
0.8762543730509436 GACACCTGGAGAGGGAGGTATTTCCACATGGCTGTCTCTTGTGCCCGCTGCTCCCAAAGCCCGTTCCCTGCCTGGCTGCGGGCAGGGACCTTCCCCCACAGCCCTGCCCAACCACGATGCAGCACCCCAGGGACACGGGCAGCTGAGGACAGCCGCCCAGATAAGCTCAAGTGTCCACTGAGAGGCTGGCAGGTGGTGACGCTGGGAGTCTCAGTCGGGAGGAGGCCCTGCCCCGGCGCACCTGGCCTGGCTCTGGCTCTTTGGGGCTGCTGTGGCTGTTCAGCCTCACCAGGTGGCCCCGGCTCAGAATAGAGGCCCCCGGCCCTTGGTGGCCCT
1 AATTGTTCCTCAGGCTCTTACTTCAAAGCACACTTGCCCAGAGCTGCCCTTACCGCAAATATCTGGGTGTAACCCGACGCCCGCTGCTGGCCTCTGGTGCTGGGACCGCGCAGTGCTGGAGTGGGGCACAGAGTCCCCATCCATCAGCCACTGTGACTGTGCCAACTCCGTGTTTACTCTGCCTAGAGATGGATGCTGCCCAAACGCCCGGAGCGCTGGGAATGAGGTGGGCTGGCTGGCCAGGATGATTTCTCTGGAAGAACTCAGGCAGGAGCGATAAGCCTGGCATTTCCGCTTATCTCTGACCCTGTCCAGGCCCCAGCGGCATCCAGAGGCTTCACTTGGTTATCTGCCTTGCTGGGCTCTATCTGCCTCCCCGGGGGCCTACTTCCTGCATCACTTAGCAAAGTGTCCAGCTGTGAAACAAACACCGTGTGGTCCAAGGAGGGAGGAATGAAGGGAGGGAGTCCTCGGGCAGAACTGACCTGAGTTCAAAACCCCACATCCGGGTGCAGGGGCCCTGGGGATGTGCAGGGACTCCTTGCATTCAGGGAGCCCTGAGGACAGAGGAGAGGCCGGGTCTGCAGCAGAGAGGTGGCGGCCCTGCAGGTCTTCAGTGGGGCTGCTTGTACCCTGGCCGGACCTGGTCAGTCACTTCTGTGCTGGGAGGGTCCTGCTATTGGCCCTCCAAATAAAACTACTCAGGAGGCAGCAAAGAGGCACAGAGTCCCCAAAGCCTGGGGCTGCAGTGCAGGAGAAGACAAGGAGACAAGGACACGTGGCTCTGT
0.2273395690996785 AGATTCACATTCAGGTTACCCTGACTCTAAATATTCTGATGTTAATCCCACGAGGAAAGCTACCCGCCATGGGTGTTAGAGTCATTTTTAAGGTCTGTGACCTAACTTGGAAAGCCAGTTGTAAAGGGTGAGATGGGTGTTTAGGTCCAGGGTGGCAAGTCTGAGCCTGGTACAGGCTGCTGGGCTACATATCCAAGCTGCGCTTATCTTCTCCTGTCAAACCATCTCCCTCCACCTCCCCTTATCTCACTCTAGATAAGGGCTGGTTCCTGGAGCTCCCACGCCTATCCAGCCCTCAGCACCACCTTTAGCTCTTTTTCCACTGGAGCCCGAAGACGAAGTTGTTCATTCTTCTTCTAGGGGAGGAGGGGTGGCCATTGATTGGGGTGCGGAGGAGACAGCTTCTTCCAGTTTGTAAATTATTGTCTGGCTTGATGCCTCTAAACTGTTCATAATTTTAGACAAGGAGGAGCTGGCAACTTGGAGAACTGATTTACAAGACTATTTTCTAAACTGGTACATTTCCCCAGGTACAAATCTGCCTCCTGTGGTAGATG
0.6136442422907484 AAGACAGAGACAATCACTGGGCAAAATCTCAGAGATTTGATTGACACATAAAAATCCCCCACATTATGGAAGTCAGGCAGTGCCATAGTCCAAAGCTGCTTCTGGAAAATGCTTCAGTGTTCAGCCTCCACCTACGAATCCCCACTCAGAGAGATATCTCGGTGCTTGAGTCCCCCCGCCTTATCAGCAGGCATGACATAGATTTCACACAACACCTGGGCCCTAGAGATGGTTGCATAACCCACTAAACAAGCCACAATGCCTGGGCCTTAGAGGTTGCTACACACGCCATGGTGACATGCAGCGTAATTTTAAATGGACAGTCACTTTCACTCTTCCTTGTTTATGATGTGTTCATTTCAATAGTGCATTAGGAAAACTCTAACAAGGCGTTTCAAAAGCATAATGTCGTGGATATTATTGCTTAGGAGAGAACTAAAGTAGATACTTAAGGTTTTTTGTTTAACGTTACTGTAAAGAAAAATATTAATAGTAAAAGTGGCAGTGCATGAGTACCACAATAGATTATGATGATTGTAAGTGAAAGTTTGAATTTTGGAAAACGTGGAATCAGGAGGAGGGGGCAATGTCAGGTTTAAGCTGCAGAGTG
0.05158666376430587 CAGCCGCATTAGGTTAGACATTGGTGAGAACTTCCTGAGTTGCAAAGATGTTCCTAAGAGAGACTGATAACTGTCCATCTCTGGAGCTGCTTCAGTTGTGAGTGGGCACATATATAGATGCCCTTATCTTTTTATAGCTTTTGTCTTTTTTTATGTTTTGAAAGTTTAATTTGAATTATTTTGTGATTACAGATCTTACAGGTAGATGTTGGGTACAAAATTCAGGCATTCTCTGATGGCTATTTGAGAAAGGTTGGCTGTTCCCATCTGCAATAGTCAGGGGCAGGAGCCTGGACTCACAGGCCAGTACAGCACTCAGGGAGACAGCCTAGAAATGGAAGGGCTTTTGGAGGAGGGAAGCTCTTGAACAGAGCAGACAGGGTAGGGGTGTGGGAGCGTTGATGAAGGAAGGCCAAGATAAGGCTGTGGTTTCCATTTGTTACCACCTCTCCCGCTTATCTTGAGTGAGAACAGGCCCTACAGCTCTGAGCGAACCTTTCCATGGGGCTGTTGAGCTGTGAAGAGGACATATACGAGCTCTCCTATCCTCTCTTCCCAGTGCACCCTTTCCCTTGCACACACAGGCACCTGTAAAGGCTGCAGCTTTGGTCTATTGGATGGGTGGGGACAAATGCAGAAGTGTCCCTGTTCTGGGTGCTGATTACTTCCTAGCAGAGCTGGGGGGTGGACTGGCACATTTGTCCTTCATGATCTGAGTCTTACCTCTGCTGGCCTTGTGCTCAGACTGGCTGGTGGGCCATCTTCTGCCTTGTCCCACCCTTACTAGGCTGATAAATTGCTGTTCCAGTCAACAGGGCTCTGACCCAGCCCTTATCTTTGGTCAGAAGGAGGCTGGGTGACAAGGACAGGGGGAGGGGCTGCTGCACAAGCCCAGCCTTTGGACACTGGTAACCTTTTGTGGGGGAATGTACACCCAGCTGC
0.6872122536547731 AGTGTCTTTCAGTCCCACATCAGGAAGGAAAGAAGGGAAATGATGTTGATGTGGGCCCTGCAGTGCTGCCCCTGCTTCTCTGTCCCTGGGCAGAGGTCTGCATTCACCAGCTTTATCCCATGGCCTTGTCTCCTGGCCTTTGCTATCTCCTTTGAATTCCTCCCTTATCAGTTGGGCTACACACAGCAAGTCTTTACCATACATGCACAGAGGTTCTTGATAAGGAGGCTATTTTAGACCAGTATGGAGCTCTTCCGTATAAAGCACTGGTGACTTTTTTTTCTTCTCATGGGCTGTCACTGATGCAGGCTAAAGACACACTTCAGTCGGCCACAGCCGGTCTCATGCCTCAGCCTCCAAGTCGCTGTAGCCAACAGCGGGGTCTCAGCTGCACCACAAGTCCAGCCAGTGCTGGCCTAGGCCGTATTTCTGGGGGGTAAAATATCAGGGTCCAACCTGCCTGTTCTAGGACCCAGTGTTAGAGAGCTCCTGGCTGACCAAGTCCTGGTTTA
0.4213408273595533 AAAAGAAAGCCTGAGCCTTCAGGCCTGCATTCTGGCTCGTTTATTCTTTCACCAGCTGGAGTCCTCCCCCGTGGCAGGTGCTGGCTGAGCCTGGGGAGAGCAGGCCACACGGGGGAAGGTGCTTTGAGACCCTCCCCAGAAGAATCCTCCAGCCTCTGGCTAAACCCCCAGCCACCTTCACCAGCCACATCCAGGCTCCTGGGAGCAAACACGAGCTCTCTTGGCTTCCTAAGAACCAGTTGTCCCTGTCCCCACCTACCCTCACCCCAGCAGTGCAGGGAGGGGGTCCCCTCCTGAGAAGGGTCACATTCTAGGCCTGAGGGCGGCCAAGCCAGCCCAGTGGTGTTTTCTCAAGCTGCCTGAAGAAACAAGTCCAGCATCTGGCCTTCCTGCTGTGATAATCCTCTTCCTGCCCCTGCGCCCCCTCCCCACTTGGCCGGAAAGCGGCAGGCTTTCTCTTCCCCTCCTTACAAGGGAGGCCTGGCTGGAATGTGTCCCTTGATAACGGGGCTCGTGAGGGGCTTGGCATAGAATGGGCTGCCTGCTGTGGGCTCTCAGACACATGTGGGGCTGACTGATAAGGGCCCTGCTGGCCTTCTGCGCTGAGGCCCCATTTGACAAGCTGTGGGCAGGATTTGAAGAGGGGTCAGTGTTCACAGAGTACCCTGGAATCCATCAAATGTGCAGGGAGCGGGCTGGGCACAGTGG
0.2279786414506598 AAAATCACTACCACCACCATCAAAGCCATAGGTGAATACTAAATGGTGTAACAATACACATGCCCTCAGCACTCTGTATCCTCTGAGGCCACACAGTAATGCATCTGCTGCATCTAAAAATGGGGCTACCACAGAACAAGGTCATTAAAAAGTGTGAGGAGATGAGTGGTTTGCTGCTGTTTTTAGCACAAGTTCAATCAGCTATGATGTCCTTATCAAGCTGTCACTACCAAGTTCCTTGATAAGATCTGACGTGTGAGGTACATAAACCTGTTCTGTTGTAGCACTGTGGCCTGTATGGAAAAGGTTAGATACATGCAAAATAATGCCCAAACATGCTGTTTAATCTTGGTGATAACAAGAAAGAAAATGGAGGTGTGAAGTGAGTTACCATTGAGGGTTGTATCAGTATAAGCAATTTGTCTGTAATGGGTGTAGAGAAGTTAAGAGAGGTTACATTCTTTAACACTGTCATTCTCACACACACACACACAAAAGCAGGTCTAGGTTCTCTATGGCTTTGTCTCTGTTCCAATAACTCTGAACAGTTTATCAGGTGGTATCATTTCTGCTTACTAGAAAGCAGGAAGTTTAACTGTCCCAAGTATATTTTATCTCCTTTCTTCTTTTAGCTTTTACTGAAGACAAGTGAAACAGGAACCATACTGTAGAGAAATCCTTTCTAATAAAGCCTTGATGAAATTTGAATTCTGAGAGAAATAATGAAACACCAAATCTTACTAGGATGGGCTTTAGAAGTCCTGTGTTTGTAGAAATAAACATTTACTCATTCCCTAAAATCACTACCACCACTACCAAAGCCGTAGGGGATGATCTTTGTCACAGGTGCTAAGAGTTTCATTATTCCCTGTGGAAATCCCTGTGAAAGTTGTTTTCATTGGTAGGCTGGTAAACCAGCTTTCCTTAAT
1 CTCCAGGGAACATCTGGCCATGTCTGCAGACATCTTTGGTTGTTACAACTTGGGGGTGGGGGCACAGGAGCCAGGGACACTGCTCATCGCCCTGCAACCACGGACGCCTCCCTCAGCAAAGATGCCCCAACCTAAAATGTAACGGGAGGAAGGGAGAAAGCAAGGAAGGCCAGCCCTCCCCGGGCTCTGCGCGGGTTTAACACTTACCCCTCCTGCAAAGGCAAACCAAGCCTCCCCTCACCGTTCCCCAGCCCCTGACAAAAACCACATGGCCCTGTCATCGCCCCTCCCCAGTGCATCTAAGTGGCTGCTGTCTTATCTCGGTGACAGGACCCAGGCCCCTCTGTGGGGCACCAGCCCTAAATACAGCCTTCTAGGAAAGGGGAGTGAGAGCCACTTCCAGCCCGGCCATACCTCCAGCACCAGCCTCCTCCTGGAAGAGACCCTCTAGGTCTTGTGACTCTGGAAATCAGGGGGAACCTGGTGGCTATGAGAAGGAGACATTTATGGAAAACAAAAACCCAAAGTGCCTGCGTGCATTTCTACAGGGGGGTAGCAGTGAACTAAGTGATGAGTGAACCGG
1 AAGGAGGAGACAATTTAAAAAATTAATTTAAAAAAACACATTAGGATCAAATAACCCCTCCAAAGAAAGGTGTTCTATGGATGAGAAATGTAATTACTGCTGTAAAAATGTAGGGAATTTTGCACGTTTAATATAGTTTGTCTCCTATTAGAAGCACTAGTTGGCATTTTTCAGTATTAGGGTTGTGGCTTGCCAGGCCCACCCTCCTGCTGTGTTTGTTTCAGGGAATAGAACTTACCCAGTCGCAGGTTTCAGAAGAGCTGAGGTAACCTCCTTCAATGTGACACAAGTACTGTTTATGTTGGAGACAAATCCCAGAAACTCAAGGTAACAACGTACACAGAGTGAGAGAGTATATGCAAGAGATTTTTATTTGGCATTTTTACTGCTAACAGTCTACAGAAGTTTTAGTATTTAGTGCCAGTTCAGGCTTAAGGGGTAGTTTCTATTTCTGTGTGATTTTGAAAGGTTTAAAGAATCAGCAAATTATTATATAATAGATAATAAAGAATAAAGATTCTGGCTTCTATGGAAGCTTGCAAAGATATGAGGGAGGGCAAACAACTGCTTCTACGTGTTTTGTTTTGTTTTAAGAACTCAAAAAAGCATGGTAGGTTCTTTGAGCAAGGCCTTAGTTGTCAAAAGTTTCTGAAGCCCTCAAACCAATAAATAGTATTATTACTAATTAAAAGAGCAGATAAACTGAGAAACAAAGCACTTAGACCTAGGGTGACATGGTGAGACCAAAACTGAATTCTGTGTCTTAAAATTCAGTTATCTAATCTCCCCACTTCATTGCATATTCTACTAGCAGTCATTCAGTAAAGTACCTTTCATCACTGCAGGAGTCTCTCTGAACACAGTGGCTTTGGAATAGGGTTATCTCCAGACATTGTTGACATCATGTCTCTGCTCACATACCAATTGAGTGAATATTGGCCCACATGATTCTTGTAAGTGGATTACAAGAAATCCACGATAGACTTCATTCACTTTTGATGAAACCAAGAACTTTCCCTCTTGAGCTACCTAATGAGATACTGTTATTTGTTTATTATGCAGGGTACAGGTTGGGGCTTGTTAGCTCTCTGAATTCTTAAGCACTCAACTGAGGAAATCAAATGCATGATTTTACTATGCCTGCACAGGAGTTGGAGAAATTCATAAAGTTTATACTTTACTAGTTTTCTTAAGAATACAGATGTAAATAGGCTGTTAAGTCTGCCCAGGCAGAACTGTTGT
0.813141677781748 GCTGACCTGGTGGCAGCCAGGTGCATCCCCACAGGGACCCAGGCTGCTGGCTGGTCTCTGATGTGCCTTCCACCTTAATGACTCTGCAGTGCCGAAGCCATAGGGATAAGTGGCTACCTCTCCCCTCGCCTGGGTAATGCTGCCTGGAGGACAAGGCTGTTACGGAAAAATGTGGCACTAAGAATAGCCAGCTAGACGTGGTGATAAGGGCCCAGATGGCCAGGGATGTCAGCTGGGGACAGGGAAGGCGGAGGTGGTGGAGAAAGAAGAGGGTGATAAGATAGGGGCAGCAACACCGGAATGCACAGCTGGGGCTCTGGAGACAGGCCACAGGAGTCTGCCGTGGGCGAGGGAGCTGCCCGGAGCTCCTTCTGGCTGTGCCCTGTGGGTGTGAGCCAGTGGAAGGGAAGGTGAGTGCCAGCCTGAGCAAATCAATCAGGGAATTTCAGGGGCAGTGGGATTTTAGTGATCCTGGCTTTTACCTCCATCCACCCCTAGTACTTTAGAGGGGGAGGAATTTGTGGCTTTGAGATGTGAAGGGGCCACTTGGAGGTTGGTGGCAGAGCTCAGTCCAACCCCAGATCTTCTGCCTTTCCCACAGGTTTCCTTCTGCCACCACCCCAGGCCCTGCTGTGGCTGCCACCTTGTGAGCCTCTGCTCCACACCTGGGAGTGCAAGCCACCTC
0.5931424419151888 CCTCAAGCAATCCTCCCACTTAAGCAATCTTCCCACTTTGGCCTCCCAAAGTGCTGAGATTACAGACATGAGTCACCACCCCATCGTTCCTTTGTTGCTTCCTGTCCTACTTACTATTGCCTTATCAGTTTATCTGTCTCTGCCCCTGCCCCTGTCCTTAGACAGAGGCATCCTAGCACAGGTGCCTCATGGTTTTCCCCTCTGGGTGACCCTGGAGCAAGACCAACCTCTTAAGAGGGGAGGGGAGGGAATGTGAATAAGTAAATAAATAAGCAGATGAATGAGGGACTCTTCTCAGCATCTTTGGTGACCCTGTCTGACTATCACTGGCTGTAGAATGTGTGACAACTGAGTCTACCAGGCAACGGCTGTTTGCCGGGAGCAGCAGGACCCAGCCAGAAGACATAATGGAAGCAGGCCCTGGCCAGAGCAGGGACCTCAGAGCCTTTCCCGGCAGAGGGAACGCAATCAAAGCTGGCGCTGCTTCCGGGAGGAGAGAATTCCCAAAAGGCTCTGTCAGCCCCTCTGATAGGGATCTGCAGGGTGTGTGAGAGATTTGTTTTTCAGCCAGGATGTGGGGAGTTAAAAATAGACACCCTAATCCCTTGAGTTCGTGTCACACTTGACGCTGTGCAGAGCCCTATGGCTCCATTATCTCACTTGAGTGGCTCGGCAGCCTTTGACGTGGGGAGAGGTTGCACTGCCCGCTTTATAAATGAGCGTGTGGAGGTGCGTGCCCAATTTCTTACTTGAGACTGTACCCCAAATTCAGTGGCAGAACCTGTCTGATCCTCAGCCCCTGAGGTCTGTGTTTTATATTCTTAGGAGAAGCCAGATGAGAGTCAACAGGC
0.07504507825592623 AATAAAATCTCTGGAGGAGAAACAAGCTTCTGGGCCCATCTCCTCCTCCCTCTCCTCCCTGCCATCTCTCCTCTCCTCAAATGTCCCTGCAGTGTGAACCCCGGCCTTGAGGCTGGGAGCAGGGAGGCCAAGAGAGGAAGCTGTACTCCGCCTAGCTCCTGGCTGTCAGCACCCATGGCTGGCAGGATTGCCACAAACTCTGGCGCTCTAAAGGCTGATAAAGCCCCACAGCCTGCACGTCTGGAGCCTGGGCCTCCAGCCCTGATAAGCTGGACCTGTCAGCACCATGGCCACACCTGCTGTAGGCAGTGAGCGCCACCCGCCTCCCCTGGCCACTCCCACTCACGGCTTCCTGTTCCCTGTGCACAGCCAAGCCCTGGCCACCATGCCTAGGCCACCCCTCCCTGGATGAAGAACAAAGTGGAGTGGCCATGGGCAAGCAGATTTGCCCATTACATTTCATCTCTGCATCCCCCCAACCCCATCCCGCTCTTAAGCACCAGCGCTGGGGATCAGAAGACCTGGGAGATTCAGGATAGGGGTGCTGGAGCCCACCAGGCACACAGTTCCCTGAGGAAGTCACATGGGCCGATCACACGCAGAGCATGAAGTGCTGTCAGCAGCTCCAACACATTCCTGGGATTCTCCAGCCCACCCCATGTGGCCCTGAGGGGAGTGTGCAAGTGCATGGGGGCTGAGAGCCTG
0.7448485698835347 TGTTCTGGTATCCTATAGCCATAATATGTATTGTCCAAATAATAGAAGGGACCAGTTTTCTCTCCCTAAAGAAAAAAAACACGAGGCTGCCAGTCTGTTTTTCTCCACAGCTGGCATCTCAGGGCCACTCAGACCAGTGTGCATTCCACCCTCCTTTTGGCATTCCTCCTACAGAATTTAAAACCTATAGCCACAAATGTTAAGCATCCATATGGCACTTTATGCCTGTGCAATGTTTTTTTTTTTCATTTTTATTGGTCATTTCTGGAAACAACTCTCTAAGGCAGGTTCATGTCATCACCCTTACATGATAGATGAAGGAACACAGTCTCACAGAAGCTCTGGGTCACACAGCAGGGAGAAGGCTGATTCTCTCTCCAGGCTCCTGCTGCTTCTATCTAATCTCTACAGTCCTGTGCTGGAGAGCTTCCATTTGCCCAGCCAGAGCCATGCTCCTCTGTCTAGGGAGCCTGACCTGTATCAACAGACTCTTTTGCCCTTGTCTTCTGTTTGAGTTTGGCTATTGCAGAGAACAAGAGAAAAAAAACAAGAAAGGCAGGATTTTAGGGATGGAGTATTTATTTCTCTAGCTCTCTTTCTGA
1 AATTACAACAACCAATCTTCAATCAATTTTGAACCCATGAAGAGAAGAAACTTTGGAGACAGAAACTCTGGCACCTAAAAAAAAAAGAAAGAAAGAAACTCTGGCCCCTGTGGTGGCTGAGGCTACTATGTTGCCAAAACATCAAATCAAGGTGGCTAAGGCATGTGAAAGTTGCCAGTACCAGAATGGAGTCACTTATGTCAAAACCCTAACAAAGTGGAGTCAGGAGGCCCTAAAAAAGTTCTCACCGCACATGCCTATAATATACCTTATCACAAGAAATTCCTGCAGGTCCCACATGCCCCACTTCTGCACTCACCCTGCAACAGAGCTTATCACAGGAATTTTTCAGGCCTGCAGTATTTCAGACAAGCTGCCAGCACCAGGACAGTTACTCAGCAACAGCCATCTCCACCAATGAATAAACGCCAACTCCTGCACTGAGCTTCTGTGACCCGTGAGCTTTATTTCAAGCTTTATTTCATGGATTTCTCTTTGTCTTTAAAAGCTTTCCCTTTCCCCAACTCCCCTGGATACATTAATGGCCCGTCATAGCTTGCATACCCTGCAATTGCAATCCCTCTGCTATTCCTAGATA
1 ATTTGCCATAATACCTATTATTTAAAAAAAAAAAGAAAGAAAGAAAGAAAGAAAAAGAGACACACACCAAGCCCTCCCTCATTTCTAGGCAGTTTTGGGAGGATCTGATTATAAACACATGCCCAGGACGGCATGTCTGCATGCCTGAATCAGGTCAGTGGAGTTTGCTTCTTCTTTAAAGCACAGAAACCATAAATCAAGATGAAAATCCGTCATCCCAAAAGCCTTACCAATTGATACAATTTGAAAATGGGCAGCTGGAGAGGCTGGAGAGAAAGCTGACATGATGACTTTTATAATAGCAGAACGTTTAAGGTTATAGAAATAAAAGGAAGAGGATGAAATCAGGCCCGTTGATCTCTGCCTGCAGGCTCTCTCAGCTCACTGGAAGCTCCAGCAATTATTTCTGCTCCGGTTTTCCCCTCCTTTTTTTCCAGCAGACTGTTTGAAATGAAGCAGAACCAGGCATGGCAGGCTTATCAGTGTCGTTAGCTGACAGGGCGCCCAGCACACCTGCTTTTACTTGCTGCCGTTTCAGGCACTAATGCCACAGAGAATGTTGCTTGGGCCCTTATAATGTGTAAAGATTCATTTATTTCACCTTTTGAACCTGCCTGACCCCGTGGGCTTGTGTTGGGGAGGGGGTGGAGGGCTGCAGAGGGCTTTTTTCCTGGCACTTAGAAGAAGCTGGCAATTAGGGGTCTGGCCCTGGGGCTGTTGCTATGATAGAGGCTTAAAAGAGAGGTAGGAGCTCAGCCAGGGAGGCGCTGGGAGCTGGGACTGGGGGCTGGTGCA
0.2733271144610808 AAAAATAGAGTGGCTTTTCAGAAGACCAGTTTGGTAAAAGAAATTGAGTTGTAGAAATCACTATTTTTTTTTTTTTTTGCAAGAGCAAAGCAGATGGTTGTTGATATCAGGGTATTGAAACCCAGTGGCTGTTATATGTCAGAGTAACTTACAGTGAATGCCAACAATCTTCTTTTCCTAATTGCTGCTGCTCAACATGATGGCATTGTTCAGTCTGGAATCCCTCTCCACTCCCTCTCCAGGGATAAGCAGCTGACAGCTCTAAGGGGGCAGGATGGATTCCCATCAGATAGCAAGGTGGAGTAGTTATGTGTGCTGGTGGGGGAAATGCACTCTCTGCTTTGTATTTGGGTCTTGTTTTGGGGACTGGTAACTTCTTCCTGTTTTGATAAATATATAAATAACTCTAAGTATCAGGAGAGACAGTAACTTAGGCTTCTTAAAGAACGGAGGGTTTTTCATAAGAATTAAACATTTTTTAAAAAAGAATAAAGGATTTTTACTCAGAGATGAAAAATGTTTGTTTCTCAAATGAAATGTCACATTATAATTTT
0.9651717674437527 GGGGGTGGACAATTGTTAGGCAGTAGGGGGTTGGAATTCCCTTTTGCAGGCCGGGCTGTGTGAGCCATAAACATTTGTCATAGAAACCCTGGATTTACAGGGACAAAGAGCCCTGAGCACAGGAACAAATGGACTCAAGGCCCATAACTCCTCTCCATCAATCTTTTCTTCTGGATTGTGCAAGACTCTGGCGATTGCATACAGCGGCTCCTGGCAGCCTCGAGTGATGGACAGGGGTAGCGATAAGAGGCACATTTCTGGGAAGAAAGAATGTGCTTGGCCTGGCAGGATGAGGTCGAGGGAGTTGACAGGGAGCCCAGATATAAAACAGACCCTACACACAGAGATATGTGGACAAGGCTCTCCAGTATCCTAGTTGGGATGGGAGGCAAAGATTGGCCAAACTATCTCCAAGAGAGGGCAATTTGGAAGGGGCAGGAGTTGTAGCAATGTTTCTTCTAACTATTTTAAAAATTGTATTTTCAGCTGCCACCTTTTATGGAATCAACAGCAAACTTAATTTCTTTTTGGAAAATGGTTTCGCATTGGGGGATAATGAGTGAAGGTGCTTATCCTCCACATGTAAAGGGCAGGCTCAGACTTGAAATTAGACATTGTAGGGAATCTCCTGCGGCTTTGCATCTTGACAAAATAAGACAAAATCAGAAAGAACGAGAAGAAGACAATCAACCACAGCTGGTTGCATGCATCTTAGAAGCAATCCTCTGCTACCTGAGAGCTCTTAAAGCACTGCAGTGAACAGAAAATGCAGCTCTTATCTGGCTTGAAACATAAATGTATTGGCTCA
0.3193486974592048 TCCACATTCTTGAACACAGGAGGAACAGGAGGAATGGAAGCTTAGTGGAGCGGCGGGGCCTGTGGCTGACAAACACCAGCTGCACTGAGTACATATCACATCATGGCCTGGCAGACGTCTTCTCCTTCAAAATGACACAGGCTATTAGCAGACTCACCGCAAAAGGATATGCCAGGAGTGGATGCATGGAATTCCTGCTGATATACTGGAATCCCAAGACTAAAGCAGGCTTCCCTGCCCTTATCAGACCAGCCAAGATAACTGGAGCAAGGGTGGAATCTGCACACAAGAAAGAAATTCCACCTTACAAATACCAGGCCCCAGATCCAGGCCCCGTGTTTGATGAATTTATTGATTCCACATAGCTGAAGGCCTGTTCTGTGCCAAGTATACTGCTTGGAGTTGTAGACACAGGATGATAAAATATAGTCCGTGCTGTAAGGGTACTCCTGGACCAATGGGAAATGCAAATGACATCTAAACCAACCACAAACATGCAGTGTGATGAGTGCATAGATAGATTGAAGCCAGGAGTGGGACGGAGGCATGGAGGACAGGCACAGAGTCAATTCATGGGGTGGAGACGACTTTTGAAGGATCACGCTTGAGCTGCGTCTCTCAGGAGAGGGAGGAGAGGCCAGACAAAGAAAGATAGTCACACGATGTCACAGAGCATAGTTCTTTTTGGACCTTCTCTGAGAGATGCTTTG
0.4161201863669342 TAGAATGCATTAATATTGCTCTGTATAATCCAAATAAAAATAAACTTTATTTTATTTGGTATATTAATGCAGATACTTGCAGAGCCTATTTTCATTATTTGCTTCTGGCCTTCTCTTCAACAATTGGTTCCTCTGAAACACCAAACCTAAGGATTTGTGAAGCTCTTTCTCATTCACGCCTGTCCTGGCCGCTATTCATTCCTCATTTTTCTTGAGCAGTATATCTCAATGAGAGCAATTAGTACACGACCAATTCAACAACCACTAGATATAATGACTGTCCTACTTTGGTGCAGCGGACATCTTTTTGTTGTCGTTGTTCCCAACACCATATAAGTACTGATTAGAAGCAGGAATGCCTGTCCAGGCCCTGTGAAGGAGGTGATGAATGGTATGTCTGAACAGCACAGCCCTGGCTTAGTATCACTGAAATGCCACACTCCTCACTGAAGTCTGTTGATAAGCCTGACAGTGCTCAGCAACTTTTACCAGCAGACTTTATATCGGGGGACCCAAGCTGAAAGTTAGCACATGGGGTGTTCTGTCAGCACAGAAGGCTTACACCATTAGTAGATCTAAATGGTGTTTAGATTACGGAGTTCAACAAAAATCTAGGTCATTAAGTGCATAAAAGAAATGTTACAATGACTCCATTCCAAATAAAATGATGTTTGGAGGGAAACAAAGAA
1 GTGCTGCATGGATTGGGGGCACCTGGAACAGTTGGCCCCTTCACCCCTTTCCCCCACCTTTCCAGCCCCTCTGGCTATAATCAGACAGTTGTGTGCGATGTCTTTCTCCCTCCTGAAGGGGTCATTTAGTCAGGCTCCTACTCATGGCCCAGGAATGTGCCCCTCCCTGCCTGTCCCCTACCCCCAAGCAGGCCGTGCCTCCAGCCCCCTGCTGTCTCTGAAGGGCCTGGGCATGGGGCAGCCTCTGCAGCATCCCCAGGGCCCGAGCTGATCTGCACAGCAGAAGGGAATTGGGGGAAAGCTTTTTTTCTACCCAGCACCTGGCAGGGGGCCACCCTGTTGCACCCCAGAGACCCTTGTCTAAGTTTTGTTATTTCAGATGATTTCATAAGTTGGGGGAGGCGGAGCCCCAGCCCCCACAGCCCCTGTTGTTGCCTCACTGCTGAGCTCTGCTGTGTATCTGCTGACAGGTCTGCTGATAGCAGAAGGGGCTGGAGAGAGGGAAGCTCTGGGCCCTGCCCTCCCCAACCCCTGCTTAGGGGACATCCCTGATAAGAGGAAATTCCAGCCTGTGACAGATGGCCAGTGTCCACCCACCCACGGGGGAACTTTTCTTTCTCTTTGTAAGTTTGCAGATTTGCCAGGAACTAAAGGAATCTCTGGTTGACAGGCCACTGTGGACATGGCTGGAGGGCTGGCACGGGCTGGATCTTGGGGTTGCTTTGAGGTAGGGGCCGCTCCTGCTGGAAGGTTCCTTGGGGTGGGGAAGGCATCAGGGCCATTCCCTGACCCTCCCTCTGCAGTGGATCCACTTCAGAGCCTGAGACAAGGCAAGGGGGCAGCAGAAAACAGAATATAAAATAGCCCCCCCCACCACACACCGCACCAGAAGTCAGAGGATTCATCCTTGGCCTGCCCTCCCTGCAGCCTAAGTTCTGAGAGTGGCTCTTTAGGAAGTGAATGGTGATGGTTTGCAGGTCAG
0.5627300365658655 CTCCGCGCAGGCGCACTTGGCGGAGCTCTACGGCCGCGCAGAAGACCCAATATTCCTCGAGGCGAACGTATTTGTGTCGCTTTTCTGAAGATTTCGATTGTCAAGTTGCAGCTGACTCTCTTCATTGTACCAAAATTCAAATTCGAATAAAGATTCAAACTGTTCTCTTGAAACTGCATTCCTTCCTGGAACCCTTACGGACCAGTCTGGTTACCGTGCCCCATTGTGTCTTGGGCTCAAGTCAGCCTTCATAGTGACCCCTGCTGGTCGAAACAATTTTCGAGATGATTATCAGGAGTATTTCCCCACAGGGGGGCCGTAGGGCTCAGTGTAGAAGAGCAAGGACCCCTTTCTGCGCGCTTACTTTGACATAAGATTTTGAAATGTAACGAAACGGAACTGCTTCGGTCCTTCTAAGATTATCCTCAACGATCGAGGCGAACTCTCAAAACGGAGTTCCTATTTTGATGGGTCCTGCTCTCGGAAGGAGCATTCTGCAATTGATTACAGGATTCTCATCGAACCTCGGTCTTGGTACCCCTGAGACTCACCGCAGTACCTGGTGTACAATCGGTGCTCCATAAACACTTGGCAGCATGAATGTGCAAGTGTTTAGCTAGATAATGGTGAAATAAGATAAAAATAAAAACAAG
0.8735993290639322 GTCTATTGTTGGAGTTTCTGTAGTTGCTTAGAATATTAATCTTAACCTTCTAGCTAATAACAATGGTATTACTTTTAAATATACACTGTTTTTGAACTCATTACCAGGATAGGTCTTAGTCCTCTTTGAAACCTGCTTCTTTCTTGTCTCTAGTAACCTATCATTGACCAGGTCTGTATCTTAAAGAGTGCTAGGTTTGAGCTGTCCTTGAACTGACAAACAATGGAGATGAGGATCACAAGTGAAATGGCATGTATAGAGGCCCAGAGGAATTAAAGAGTTTGCATGTCTGAAGAACGGCTATTCTAAGTATGCATGTCACGTGGTGGCCAGAGATAAGATATAGGTAGTGAGTGGGGGCTAGGTCACAAACAATTCAGTATGTCATGCTAAGGAACTGTTATTTTTATCCTACAGGCAATTTCGTAAGAATTTCAATAAGGAAATGTCTTGATTAGAATTACAAATTCGAAAGGCTTTTGTAGCCACATGAAGAATAAACTGAGACAGGGGAAGTGGTAAGCAGGCTATCGCAGGACATGAGAGGCTGGATGGATTTGGGAATTACTTGGCAGGTCAAATAATTAGGAATTAGTGATCTATTGGATATAGGCAGGAAGTAAAAGAATAGAGTCCAGGATGGCCCTTAGGTTTCCTTCAGTTTGAATTAGTGAATGTAGAAGGAGCAGTCTGGGTTGGTGGCATATGAATGTGACT
0.6934000245822021 TATTTTGCCCCTGGCTTTCATTAGTGCCTAAAAACCCAGGCCCAAGTGTCAACTGATGCATTACCATCAGATTATTTACTTCACAGATCAGTGACTAAGTTTATTTGAGTCCGATTTTCATGGAATAGCATGGATTTTTTGTTTTATTTTTAAATCTGATAAGTATAAGCTTACAGGTGTACCTGTTTCCTGCTGTTCTGAAAACGTGACCAGGCTCTCTCTGTGACAGGATCACACCACAGCTCGTAGCCACTCTGTGCAATAATCTGCAGATGATAACGCCTTTGCAGAGCAGACCTGCACGTGTACTTGCAGAAAGGTCTCTGTCAGACACAGCGGGTGCCTGTGATATCTGAGAGTGGGTCAGCAGGACTGGCACGTTCAGCAGCTCAGGAAGCCAACTTCCAACGGCAGGAGCAGGACCCTCTGCATGTGACTCTGATGGGGCAGATGGTCCTTGGGGCTTCCCTAAAGCCAATGGTACCAAATAAAAGAGAACATCATCTACCCTTGAGACTGCTAAGTGGCTTTAAGAGGCAGAAAAATGCCAAGCATGGACCTTAACCCCCAGATGACAGCAAAATGGGCAGAAAGCAAGCCATCTCAAAA
0.7575679577844544 GTCCATCAACTACGCTACTCACTGACCTACCCTATCCCATACCCTACTGACTTCCAATTTTGATTTCCCTATTTTTATCATTCTCTCAGTCGCTCAGTTCCAAACTTCAGAATCACCTCTGGTTCCTCCCCTTCCCACAGCATAATCACTAAACCTTGTGTACTCTTCTCTCATGTATCTACCATACCCACCCCCTTATCACTTGCAGGTTGTCACCACTCACTTCAATTGCACTCCCTTCCTCCAGTCCTTCCCCTACTGCTTCAGGCAGTTGCCACTCAGATACAAACTCTTTGCACTTGAATTAAACTTTACCATATGATTCTGCCCTGTGTCCCAGCTAGAATATAAATTTGAGGGGAGAAACCTTACATGCGGCACTACTATATTACACACACAAGCATGTAGCATTTAATATGATGCTCACAAAAAAAAATTGATAAGTGTTAATTCAGAGAACAAACACACA
0.6282782229951773 ACCAGAGCCCACAGCGCTGAGGGAAGGGCTGTGGGCGGCAGGGCCCATTTTCCACTTGCTGGCAGGTCACTGGCACGCTCCTGCCCTGCCCTGGGAACTGGGGGAAGCAGAGGCTGGGGCGCATCCCAGCCGTCTCCCCTCCTGGGCTCCCGATGGCCCCAGCCTGATGCACTACCAGTTCTGTGGGGCCAGGCTGGTACCCTTGGCAGGGACGGCAGGCGGCAGGCAGGCGCGTGTGCAGGGGGCCTTATCTTATCTCCCTTCCTCACTCCCTCCCAGATCCGCCCTCACCGGCTGCTGTGTCGCCGTCATCAAGCCCTCCGGACACTGACACACACACAGACACAGAATTTATTTCTGGACGCATTCTGCAGGCTGGAGGTCCCGGCAGGCACAGGGCTCACACCTTGGGTTTTGCAAACACCTCCCAGCCCTCCAGCCGGCCCATCTTGACCAGGGAGGCCGCTATGCC
0.09410137899366751 GGTATGCAGTGAACAGGTATATAGTAAAAATTGTGTCTCTCCACCCAGTTACTCAGTCACCTTCACCAGAGGCCACCACTGTTATCGACAGTTATTTTAGTTTTGAGGAGAGCTAAGGAACTCAGACCTAAAATGGAATTAGGGAAGCTATTTAACCTCATCGATAGAGACAGAGCCTGGAGTCAGCAGCCTGCATTCAAAGCAAGGCTTCGCCGCTTCCTGACGTAGAGCCTGGCTGACAGGCTTTATCTCACAGGGCTGTTGAGATAATGAAATGAGCCAGCCGCTGCAAAGTGCTTAGCCCAGGCACCGTGCATTTCTACCTTCAATACGTGTCAGCTGTTATTAGCTACGGGGTGGTGGAGCTGGTGGAGGAAGGTGGGAGGG
0.6209299657485301 GAGGGCTAGTGATGTAGTGAAACTATGAGAGGCCAAGTACCATGTTAAATTCTTAGTATGTGTGGGTGCTTGAAGAGTTTGTGCCCAAAACAGTCCACAAAGTGCGCATGGAAATATACACATAAGGGATTTGAACCTGTGCTTGGCTGGTGCAGAGCCTGCCTCTCTCCCCAGCATCAGGGATGGTTTCACGGCATGTGGCCTCTCCCTGCTGCCATGCCTCCATCAACTCTCCCTTTCTCATATCAGAAGATCACAAGCATTTAACAGCCTTGCACTTGTCTGACCCGAGCTTGCTGTATCTGCCCAAGAGGGCTGGGAAGATAAGATGAAACAATCCCTGTGAAATACTGATCACTAGTCAGCACTCAAGAGGTACCAGTACATCACCATTCATCACATATTCATTTAGGACCTAATACATGCCGGGCCTTGGGATAGGCGTTCTCATCACCTTCATCACTTACTGTTACTACGTTTAACACCCTCCACTCCCAGCAACATGCAGAGTGCTTCACACAATACACACTCAGTAAATGTGGGTTCAGTAAGTAAATGGTGATGATCTTGGTGGTAGATCAATTTAT
0.2031545414267096 AAGCAAATCTGAATGTAGTTACCACTCCATTGTATCCAGTGCTAGGACATGTGTCTTGCCTTCCAAACTCACCCAGTGGTCCTCTGTAGTCAGAGGAAGGCAGAGAGGGCACACAGCCTCACATTTCATGAGGAGAGCTAAAGGGCCCATCTTGCTGTGAAAACAGTCAGTGTTGCAAGAGGAATGATGCGTCTGGAGGCATAGCTCTGAGGCTGTCTCCTTTCTTCATCAGGCAGGGGAGGCAGAGAAAATAAAAGTTAAAAGACTGAGTAGTGTTGCAATGAAACTAAATACCTCGTGAGAAGGCAGGTGTCTTTGTTCCTCTCCCACCATGGACAGCTGGGCTGTTCCTTCTCTTCTGGGTGCTCTCAACACCTTACTATCAGCTATCACCCAGCAGATAAGAATAAAGTAGCCAAGGAGCAATAGGGGTTTTGTTTTTCACTGTTTTTGAGATTGTAGAAATTGATAGCGCACTGCACTCTCATCTTGAGATCTGTGGGCTGAGCTCCCAGGGTTCTTAACATGGGCCAAGTTAGTCTGGATGCAACCTTTTGTTATTGTCTAAGTCACTGGCAGATTTAAAAATCACAGCGGTTCACAGCCAGATGACCAGCCTAGGGATGAAGGCGGGGCAGGGGGCGGTCAGTATCTCCACTCACATGTCATCTAGTCACGATGCAGAGGTTGAAACACTGAGTTAAAGGAAGCTTATCTTCATATGAAGAATTAGAGGCCACACCTCCCTAAGCTAAATTTAGAAGTGTTAGTATGTGAACAGGAGGTATACAGTATCTCAGGTTTCCTGGGGCACCAGCCAGATAAGACATTCCAGATAATTCTCTTCCATGCCTAACTTGTACCTCACCAGTCAGGCCAGAGGAGGCACTGCAGAAGGAGCTGTCCTCTTGTGTGGCTCTGTCCTTCTTTTCAAGTTTGAGGGGGTTGTGGACCATGTGAGGCTGGACGGCTCACATGTCAGCCGCCAGGCTCTTAGTTACAGACATGGCAAACTTCCATCATTTAAGCAGTGGCACAGATGTTGTGGAGAAATCCCAGTGCTCTAGCTGTGTGGCAGAGGGAAGGGCCAGGTCTGTGAGAAAATAAAATTATTCTCAGCCTCT
0.2266687820033414 AAAGAAAATGTTATTGAGACAATCACACAGAAAAGAAAATCTATGTCCTATTCATTAAGTAGAAGTGGATCATCCTGAAGGGCTTCATCCTTGTTGTCTTCACCTTGAGTCAGCTGAGCAGGAACAGGAGGGAGAAGAGGGGCTGGTCTTGCTGTCTCATGGGTAACAGAGGTAGAAGAAAATTCTCATCTAAGTGGATGCGCACTGTTCAAACTCATGTCAAGGGTATTTATAATTTTCCAAAGGGCTGTTGCCACCTTATTGCATTTTATTCTAATAATAACAGTCAGATGATAACTGTTCACAAAATGAAGATGAAAACTTAGCTACAGAGAAGTCGGCCAGACTTTCCTGCGTGACCTTGGTAGTCTGCTGGTGATTCAGAATCTCCCTACCTCAGCCTCCTGGCTTCACTCAGCCAAGACTCCTTATCCACCAACAATAAACAGCACCATGTGGCTGGCTGTTCACCACTGTCCATCAGGCCCAGACATTGTTTTTAATCCCTCTACTCTAACAGAAAATGGTTCCAAATTCCAGGACTGAAGCGATAAGAGCTCCCCTGCTAAGCACTCAGAAGCCAGATGCCATTTAATGTGCCTGGGGCCGCCGATAACTGATAGCACTCCACTACTCCAGCTAAATTTAATTTCTCCTGCCTCTGCTCGGCTTGTCTGGGCACCTTTAGAAGGGTGTTGTCCTGACAGCTGTCTTGATTCTGATGAGCTTTGTCTGCACCTGATTAGCATTCTATTTCTATGCAAATAAGCACTTGCCTTTGTGGCTCCTGGATTAATGGACACTGTGAATTGGAGCCCTGGTCTTCAGAATCCAGAGAGCTGTGGAATAAAAGGGGTGGATGGGACTTTACAGAATCAGAAGCCAAATGTCTTCATTTTAAAGATGAGGAAAGTGGGGCTGAGAGTGACCTAGTGGGTTTCCCAGGTGCATATCACTAGTGAGTGCAGTCAGTCCCAAAATTTGGATTATCATAGCCCATATTTTTATCTCTA
0.719353674031497 GGGTTGAACTAAATGTTAGCTAAGGCCTCTTACATCACCATCACCCACCACCTCCTCCACAACAATTCAGCTTACCCAGGTTGGCCTACCCTGCTTGACTCTATTCTACTCTAACCAGGTTGCTCCCCTGGGTCAGGGAAAACATTTCCCCAGATAGGACCAAGGCAAGAACGCAGGGGTACTGGGGGCATGTGGTCACCGAGAAGCCAGCCAGTTTGTATTGCCCGTGTCCTGTGAAATCAAAGACTTAGATCTATGACAAAGAACTACATACTGAGAAGGTTAAGAGGTACTCAATGAAGACATAAAAAGTCGACAGTCAGGAAGGAGCTGGGGACTTCAGCAGCAACTCAGAGTCCACTGCCAGGTCAGGACCACCTGTGCCGGCTGCTGCCTAATCTGATATATATACAACAGCACGGTCTACATTCATTGTCAGCCATCCTCACACAAACGTCATCCACAGGAGAGGGTCTTGGCCAGAGCAGAAATCAACAAGACTATGACTTGGAAATTCTAGGGGGAGGGGAGGCCTCTAGCCTCAGGAATTTTGTCACCCAGGTCAGGGTCTGTATAATAGCCTTCTTAAGAGACAAAAAGGGCACTCACAGAGATTTGGACCAGGGCTGGCCTCCATCCAGCTTTCTACATTATCTTGAGCTCACTTGGTGAGATAACATAGCTAGCAGCTTCTGCATTCCTTCCTGGAATGCCTGTGATGTTTGGAGCCCTGCCACATGGCTCAGGCATTAATCATCAACCAGTGGATAAATGTTGACTGAGCATACTCTGTTAGGTCCCTGGTGTGCCTAAGAAGAGGGGTACCCTTTCCCTTTGGAAGGTTGCAGAAGATATATACCCATTAAAAGACTATTTAAAATCTTGACTAGTTAGTGATAACTTCCTTAAGAGTATAGGTGCT
0.3008000035373367 TTCATACCCCGGCAGAGAAAAAGCTGCATACTTCATGCCCTTTGCCCTTCACCATCTCATCTGATCCTCCCAGCAGCCAGCAAGGACACGGGGCAAGGCACTGGAGGCAACAGAGGCTCAGCAGCAAGACAGGGTACGTGCAGAGAGCTGCGGGACAGACGTGGCCTCACCAGCAGGACCCGTGATTAAACAGCAGCTGTGGTTCACTAAGTGCTTTCTGCTTATTATGTGCCAAGTACTTCACATGTGGCTGCTTTGTGTCATTCTCACATCAAACCTGATGGGTGGTTACTATAATTATCTCCTTTTACAGATAAGGAAACTGAAGCCCAGAGGGGTGGAGTAACTAGTCCAGCAAAAGTAAGCCATGTAACTGGGATTCAAATTCAGCTTGAACATCTCAGCACTCATCTGTTTTCGATCACATAACACTCCCTCTAGGCATTCACAGGAGCTCAAGGATAGGAGTAGGGAGGGGAAAGCTAGGAGTCCGAAGACTTGAGGGGCCAGGCATGGTGGCATGCACCTGTAATCCCAGCATTTTAGGAGG
0.4242703654309262 ACAAAGCTCTGACCTAGTCCCTGCCCTCTTTGACTGCTCACCCTCTTCCAGCCCCTCTACCCAGCCTCAATCTCTCATTCTTCCTCTACTTTGAAGTCTGGCTTCTGTCTTGGCCCCTGTGGGTTTGATGACAAAGGGCAGTTCAGGAATGACACTATCTACACATACATGGCCATATGGACAATTTCAGGTGGTGGGACTTGCAGCAGCTGGGGTTCCCAGGACTGCTGACATTCTGCTGAGTGTTATTAGAAGATCAGGGACAGAGCTTATCATCTGGCTGTCACTGCCCCTTTCCAAGCCACAGCGAGCCTCCACAGAGGGGCCCTGGGGGATAGCCAGCTGCCCTGTGCTCATGCTGGAGTGAACTTTCCTCTGATCTTCCCTGTTTTCTGGATTTAGCCAGGGAAAATACAAGGGAGCTCCTTGCTCCCTGTGTGAGGTTCCAACTGAGAGATCCCACCCTTCCCAGCTCTGATCAGATACCCCTGAAGTTTGGAAGGCAACAGCTATACAATCTCTCTCTCTCTTTTTTTTTTTCTTCCCCTGAGACAAGCATCACTCTGTCAC
0.3614835180863369 CCAGTGTCTGTGACCTCTTCCATGCTGGGGCTAAAGAGGCCAGCAGGATTGGGGGCTGGCATTAGTGGAGAACCTCAGAGCCCAGGGCTGTGGGCTGATGGGTGGCGAGGCCCCCGCCAGCTGCTTGGGGATAGCCCAGCCACTGTTCTTGGTCCACCCGGCCTTTGATTCCTTTTTCCTGTGTGCATTTTTGAGCACCTTCTGTGTGCGAGAGGCCGTGCCTGCCCGAGAAGAGAAGGAAACACCACAATGAGCCTCGGACACCCACAGTCTGAAGGGCCCGGAGTAAGCCTCAGACGCCCACAGTCTGGAGGGCCCGGCGCTGTGAACGAGCAGTCACAGGGAACAGCGTGCCCTTATCGCTGACACAGGCTCTGGAGGGCCCGGCGCTGTGAGTGAGCAGTCATAGGGAACAGTGCACCCTTATCGCTGACACAGGCGAGGGCTTCGTCTTCTCACAGCTCTTATCTTGGGTGTCACCCCAGCCAGAGTCAGGGCTGATGGCGGGGGGTGGGGGGGGGGCAGGCTGTGGTCAGGGACCTGCAGGAGAGGGGAGGGCCTCGCTTCTGATGGGCGACGTTCATTTACACACAGCT
1 GGACATTTTGGGAAAGCATCTATTTCAAGAAATTGTACCCAAGGAGTCAAAGGACCCTAGTGCCGTCATCGGTCCTCACCACTGAGTGGTATTCAATGTTAACAATGCAGCATAATTTCATCAGTCTGTATCCAAACACTGCCCCGCGGGTGACCTCAACTGTAAACCAAGGGAGAGCGCCACTTCTTCAGGATAAGATTAGAGAGGCTTCAAGTGCCCAAGAGTGAATTTAACCCTCTCTGAACTGGACAAAATTGACCAAGAGTTGAGCTCAGTGAACATCACCATATCTGCAAATTTTGAGACCTCTAAAGCTCAATCTGTCTCTTGTACACCAAGGGAGTCTTGAATATTCATATAATTTCAATAAAAGCTCAAGACATTAAACATTATGCTTGTTTTCACAACAGCATCCAGGACACCAGGGGTTCTTAAGAATGCTACAGGTTTCATATCAGCTTTGGAGACGAGTAATAGAAAAGGTTTTTACAGTTTCACCTCTTTCTTATCAGACATGAGCTCAAAGAAAGTGGGTGAGTGAGAACTGCCCTGAACAGCAGCAACCTTGGAGGAGCAGAGAGTTCAAAAATAAACACAACACATTCTCCCTGAATCAACTTGCAATATTGTAACGCTTCACAAACTGTCTTTTTGCTTTTGTATAGAGATCCAAATTTCGCATGAGCAAAACAGGTAGCCACTTTCCTGGTGTTCTCAAAGAAGGACTGAAAAGGTGCTTACACTGATGCCAATCTGCCCTTCTGGTGTATGAAATGCCACCATTATCATTTAATTCTTTCAAACTATTTAATTTCCATTTTCGGCAGCTCTTAGGAAATGCACACATTCCTGGCAGAGTTAGCACTGAGCTGAACAACTTGGTGCTTATTAGAATGTCTTCATCTGAGACTAAAGCCAGACAGTGTAAGATAACTGGTGATCTGCGTAAAGAGGGGAGGAGTCCCTAACAGCTGGTGGGGTGAGGTGGCTTGGTGTGAAAGGGAGGGGGAGGGAGGCCACAAAGACAAGCAGAAGAGTAGAAGGGATGTTGCTGGCAAAGATGGACTTTTTTCACCCTCCAGGCAACACAAAGCTCTCATTTTGTCCAGTGGTGTTTAAATTTTTGTAGGTGAAACAGCATCACTGATTTCTAATAAAAGCTACAGTTTATGTATACGACTTTGGAAGCAGAAAAATATTT
0.373395721894658 AGGAGCATTCACTTTGGCAATAGTCATGCCCATCACAGCACCTGTCTTGGCCTAGGGTACCCCTGCTCTGGCCTGGTGACAGACCCCAGGACCTTTTGGACACCTGGGTGTAGACAGTGTGAGAAGGAGGTGATCTGTAGGCCTGGCCCCAGAGTGGGAAGCCACACGGTTCAGGGAGCTGGAGCAGCTGCCCTCTCCAGGGCCCCCATCCTCAGTCTGATGAGATAAGCCAGGAAGAGTCTGACAGGCCAGGCTGCTGGAGAGAAAGAGAGTCCCCCTCAACAGGGCCTGGGGCTACCCAGCTAGGGCCGCCTCTCACTCTGACTCCGCCTCTGCAGAGCATGTGGGTTCTCATGGCCTTATCTGCCAGATGGCTCCCGGAGGGGATGATTTATTAGGTGCAGAAAGCTCGCTGATAAATTTTACTGCAAGTCCCCGGCAGAAGACTGGGGGTAGCAACAGCCCGGCGCAGGCAGCTCTAATGGAAAGTGCCGTCACCAAAGAGCAAAGCATTATTTATGACTGTCTGTAATGCCGTTCGGGGGAAATTCATCATCGCCTCCCTGCTCCTTGCACGCAGGGACAGCAGCACTGGGCGGGTGGCAGGGGGAGCACAGGACAGGTGGGGAACAGTCAGAGCTTCTCTGGGAATCTGCCAGTGGAGAGCAAGGCCATATTTTCCCTGGGTGACCCAACTCCCCTTGT
0.9249270965858805 TTACTTGTGCCAGGCACTGCACAATCTATGTTTCCTGAATTCATTGTTCATGAAGTTAATGCCCTCATTATATGAAATATTGAAATCCATCCTCACAGTCCTTGCTTTCTGGCTGAGGACACACATGATCCATAAATCTAAAATGGGCTTTAGAACAGTTACAAAGTAGTCTGCCGATGAAGTGAGTGTGAGTGAAGAGAGCGCTGAGTAAATGGCTGATAAGGGAGGCGTGGGGAGAGGAGTGACGAGTCCGAGTCCTTGCAGCCAGAGGTAGGGCACAGGCGGGAGACAAGCTGCGGGTGGGGGACAGCAGGCACCCCAGCAGCAGTGAGAACTCAAAACTAGAGCAGACGGCTGTGAAGACTGGGAGCAAAGGTTCAGTTTGGCAGGAGGAATAAATTCTGAAAATATATTGTAGAGCATGGTGGCTGTAGTTGAAAAT
0.8689030141177231 TAGAAGGAACCTATTCCTGACCTCCCCCTCCCTGTTTTCTTTTCTCCCATCCTTGCCTTTGGGACTTTTACCTCCCTGACCTGGTTCCGCTCTGGGTGACACAGGCCCTTGCACAAGGAACTGAGATTTCATGGCCTCTGTGAACCTTGGGATTTTATGATCAAGTCCCAGATGAGACATAAAACCCAAGGCAGCGTAGGCTAGAACGTGGGAAGCAGGCGAGCTCTGGCTTGGTCAGGGAGAGCCAGGGCCAGGTCCTGGCAGCTCAGGAGGGTGGAGAGGGTCCGAGGTAGGTGGGAAAATGCCCTGGATGTCCCCAGAGCACTGTGCTTATCTTGCAGATGACGAGTCACCTAGGCCCAGGAGGACCAGGAATCTGGCCGCCACCCGAGTGTCCAGCCCACTGCACCTCACTATTTATAACCCAGCCCTTCCCCCACTCCAGGGCCACTCAGCTCCTCTATCTCTGGAATGTTGAGTAGAGGTCACAAGACCATGTATGTGTTCATAGAATGATTGTCCCTTGTGGTGACAACGCTGTCTGGTCTGTGTCTTACGATAACAGGTTGAATCAGATATTTCCAGTTGATTTGGAACTCCCTGGTGGCGTGGGAAGCTGTGTTAACATTTTCGCATTTGTCTGTTGCAGTAGGAGTTGGGGGGTGAATTCTTTTAAAAGAGAATGTGCCATACAAAACATTATCCCTTTGGACTGAACTCATTGTGGTGAGTGTAGACTGCATGGAGTTTTGAGAATTTCATTGATTGGAAAAGAGCCAGAAATAAACAAGCAGAGCCTCCTCTGCCCTTGTCTAGCATCCAGGTCTAGGAGACCTGGAACCTGAGTATCAGAGGTGCATGGGAGAATCTGGAGCTAAGGTCACAATGAAAGTGACATGTCAATCAGTTAAAAGTCAACAGAATGTTTATTGAGTGCCTACGATGTGCAAGGCTCTTGGGGGACCTGGAGATAAGTAGGCATAATCCTTATTCTAAAGCATTTGCAATCACAGTGGGAAAGAGACTCACAGGTCTGCAGAGAGATGAATGAGATTGTTTGT
0.4553342805995727 GGGCTTCCTCACTCTCCACTTCCAAGTGCATCCTTCTAGAATGCTACTTCTGTCCCAGTGGGCCTTTCTCTTCGTCTATCCGTCCCCCTCCATCATAAAACAAGGTTTGTCTCTGATGCCCTCTGCCAAGCAGACACCCCTTCTCTCTTAATTCTCCAAAGGCAAGAAGGACAGATGAATTATTTGACTACCTGTTTCCAAAATCTGTAAATAGAGAAAGAGCGAAACACCCTGCACACCAGATAGCTGGAAAGCAAGTCTCACTTGACCCCTTGATATAAAACCTCAGCAGCCCTCACCCCATCCAGCCCTGCTGCCCCTGGTAACTGGGATGGGGGCTCAAGAGAGGTATGTAAAGCCCGTAAGTGGCTCTCCCCGGCTCTTTAGAAAGCTGCTTATCAGGGAATGAAACACTGGCCCAAGCTTGCCATGACAGCAGGAGCTGCCTGAGAAGAGAGGCTGAGATAAATGAAGTATCCTTCATCCCCATCAGTGTGGGCCAGACAGAAACCAGGTGCGAGGCAGTGAGCCTTCATCTTCTGTAAACAATCTTCCATCGCCCACTGCAGCAGCTTGAGCCTGAGATGAGGATTAGAAGAACAGCTTCTGCAGGCCTGGGGCCTCTCAGCTGGACAGAGAGTTAAAGGGCGCACAAGATAGCTCACTGCTGGGAAGGATGCTTGAGGAAACACAGCCATTCGTCACCAGGGGGTTTGCCTGACCTGGCAGGAGAGAATCTGATATCTAAACAGTTCCCTGCGTCCCTGAAGCACTCTGAAAGTTCTCCAGCTAAATATTTGATACTGCATCAGATAACAGCCCAAAGCTCTTCCCACTAGTTTGAGAAGGCTGCTGCTACAGAAGGGAGAGACCTAGCCAGTGCTGGGCTTGGCTGCAATCATGCAGGACTTAAGGTGGGGGCATCCTAGCTCCCACCTCAAATTTTTGGTGTCCTTTCACCTTGGCCAGGTTAGGGCCAATTAAGGGCAAAGAGGT
0.5335305372961185 CAGCCTCCCACCAGGGAAGCTCAACAAAGAAGTGAACATTGCTCCAGGGATTTTTTTTTGTCTGGCAGAAGCAGTTAGATCTGATCTCAGCTGGAATCCTTCCTGGATTGGAAGACACTGAGCCACTCTCCGTGCTATATCCCGGCCACAGCTCACTCTCCCCCAAACAGGTCCTGTCACACCCCATACGCTCCCCTCACCCTCCCACATGCTCCCCTCACCCCATCCCCACTCACTCCTCACAGGCCGAGGCACAGGGAACCCTGCCAAGTTCAATCCAGACCTTGGGCAGGGAGGCAATAAAGCTAAGGGAGGTGGGGAACTCCCGGCCTGTGAGGAGGGGAGGCAGGGTGGCCTGCGAGGAATTTAGGGAATGCAGGGAGATAAGGGGAGAGCGGAGAGGAGAGGCAGTGGTGCTGACAGCATTAGCCTGCTGGGAAGGAGCTTCATGAGCACCATCTGATTTACTTGGTCCTTGTGTCCGCCCGAGGGGCACCAGCCGGGTCAGGTGGCCTGACCACTCACAGCTATGACCCAGGCACATTACTGAACCTGCTTCCACATCTGCAAAAGAGACTGGTGGATGGCCTGCAGGGGATTCTAGGAGGTTAAGGAGGTCAGGGGCCAGATCCCCACCCAGGGACAGGCTGTAGAAGCCATTCTGTGGGACGCTGGCCATCCCATGGG
0.5531805707525066 TAAATAATTTTGGAAACATTTTCATGTAAGTACTAAATGTCAAAACTCACTTTCTATGAGGTAACTATTTAGTAATTTCTTTGTAAGTGGCTCTGAGGATATTTTTAGCACCAGTACTGCCTCCTAGAATCTCTCTGTTCTTTAGCCAGGTCCCAAGGAAGCTAATCTAATCTGGTTGCAAAGTCTGTCCCACAGTACGCACAATTCAAATAAGAGTTATCCACCCACAGCTCTGGTGACACAACTCAAGCCTTGCTTTTACACCCAAGCAAGTGCTGATGTTTTGGATAGAAACCAAAGCACTTTCTGTCATCCTGCAATCCGTGAGAGGGCCCTTCAAACTGAGTGTGATGGTCATTCTTATGTGTCACTTAGCAAGGCCATAGTACCCAATGATCTAACCAAACACTAATCCAGGTGTTGCTGTGAGGGTATTTTGCAGATGTGGTTAATGTGAAGTAACAATTACCTTCCAGAACATAGAGGGAAATCATCCAGGCAGTTGAAAGTCTTAAGACAATAACCGATTTCCCAGAAAAGGAATTCCACCTCAAGACTGCAGTGTCTACTCCTGGCT
0.02548779436313212 AGGGTGACCCTGTCCGCACACATCGGTTACTATGACAATATAACCACAGCCTCCAGTTGCCATGGCAGCTGCCTATCCAATCCGATTGTCTTCTCTTCCTCTCCGGGCCCCACCTTATCCCCTCCAAGAGTCTCCCAGCGTGCATGGGGAGGGGCTGCAGCGAAGAGGAGAGGGGGTCCTTCGAGTCACTCTCTACGCGCGAGGGAAGACAGGCGTTGAGGGACTGCTGGGAGGAACTGTAGGAGGAAGGGGCGGCGTTTCCGGTGGGGAAGAGTGGAGGCGTGCAAAAAGGAAGAGGGAAATCGGCAGGAGTGATAAGAAGGGGGAAGACTTTGAGTGTAACTCCCGTTCTTTTGGCCTGGGTGTTCCCGGTGGTGGGATTGGGATTGCCCCCTTGCGCGGGAGGAGAAGGGTGGATTGGCAGGAAGCCGCCAAGCGCCACCAGCCGGTCTCTCAGAAGCCGCACAGGCGCCACACAGCTCGTTGATCCCAAAAGGGAGCGCTACAGAGAGGCGGAAATCACTGAGGGACAGGCGCTGCTGAAATCTCGCGAGAGGGACCC
0.2151435371381133 GTCTCCAGATGAATTCAATTAGGGGTTGAAGTTGCTCTCATATTAGTAAACCTGATAGCTTTGCTAATGGACCCAAATGGTGGGGCGGGTCCCCATTTGTCGCTGTCAGGCCCCTCCTGCCTAGCCGGGGTCATGGACAAGAAAACAAAAACAAAAAACCAACACCCAGAAGTTGTGTACTGAAAACATTGAGTAGGGACAACTAGCCAGGGGAGTCCTTGGAACATTTGGGAAGAAGCATGACATCCACGTGCAGAATGTGACAGCCCTCACCCAGTGGGAACCAAGCGGCTTCTGTTCACCCACAGCCCCCAAATCCCGTCCCAGCCCTCCCTCTTATCTTACCCTGCTGTGGTCAGCCTTGCCTAGGGCACACAGCCAGTAGCTGACATTCTTCAAGCTGAAGGGCTTGATAACTTTGGGGATGAATTATGACTTCCTTATCTCTGTTGAGCCCAGTGCCTGTCACAAAGTCAGCACTCAGTGGCTAGGTGTCAAATTAAATTCTTGAATTGAAGGCAGTGTTATTAAAGATGCTAAACTTTTATAGATGCCTCTTTCCCTATAGCTTGTTTCCTTCAAGATTTGTAAGTGAAACCACATTTATTTTTACCTTGTATAAGACAATCCTAAACCTCTAATCTTCCAGCTCAGTCTCTGTGAGGCTGTCACTTCACTACTCACCTATAGAGAGCCTCTCCCTAGCCCCAGGCTACTTTTGCCTAGAGAAAATGATGTGGACAAAAGAAAGTGGGG
0.2792001123486376 TATTTACTGATACTTTATATCGATTGCTGTGCTTTTATTATTTGTGTACTTTTATTGTGATTTTCTGAGCTTAGTTGATGATACCTTTATGAAGAAATGTATTAGGTTTTACTCATGTTTTAATGTCTGACTTATAGCTGTTATCACAGTAGATGTGGCACTGTAGTTATTGCAAGTCTTGTCTCTCAAGGATAAAGCCTTATCTTGGTATCCTTCAAAATGGCAAGATGTTCATTCTCACCACATACAATTGCATTGTCCACTGTGCCCTGCCATGATTTTCACATTTCACTCAATACCCATGGTCTGCATCAATCTGGAATCATGCATTCTGCCATCTGCCCCTTTCCTTGAAAGTCCTGCTGGCTGCAAAACAGCTGAGATTTACTAATGGGTTAATATGTTACTTCGCCCCTAATTAAAGCTATTGGTATTTAACAGGAACTTGGCCTAGATAAGGGGTGACTCAACTCTAGAGAATTTCTGAGTGGCTGGTGGACTGATGGGATGATATTTTGGGTCTGGAACAGTTTTCAATGCCTGGTAAGTGGCTGACAAGTTTATCTGTGTCTGAGAGATAGCATACGAGATTCCTGTAAACATGCGTCCATGCACTCGCTCACAAATGTACCAGGGCCCTGCAATCCTGTGAACGCCAGGTTCCTAAGAACAGTAGTAAGGCTCACCTACCTTTGTTCCTCAGGGAGCCAATGAGGGCCCAGCCATTGCGCAAGTCTGGATTCGTAGGAGATCACCTTTTATTCCAAATCACATCCTAGTTTTTGTCTTGGTCTGAATGGAAACATTAGG
0.7259168575465317 ACTACAGGACTGAAAAGTCCAGCAGCGTGGGATGATGCGGCCACATCCTGCTCTCTGTTTTTCCCAAGCAGAATGAGGAGAGCCAGCATGGGAGGCACATTTGTGTTCCATTTGGAATGTGTTCTCTCTTGGCACCGGAAGAAAGGGTGACCCCAGATGGATACCATGTTTGGAATTGGAATCCAAGAGGTACTGGCAGTGAGAAAAAACAGGCCAGGCACAGGCAGCCTGGCAGAGCACTTAACATACCTCCCAGAGGACAAGATAAGACCTCAGGGTCAGAGAGACAGACAAGGAGAGAGAAAGGAAAAGTGAGCACAGAATTCACCTGAACACCTCAGGCAGGAAACTGTCCCGAGCTCCCTTTGGGGAGAGCCAGACAGTGCTTCTGAGTGAGGACACATCAGAGTAGGAAAGTATGGGACTATTATCAGAAAAAATCCTAACAGTGAAAGCTGGAAAACCCCCTGAAGGCCTTTATTA
0.3981822147217463 CGAACAACGGGGGCTGGGTTGGGGGTGGTGATGTTTTGGGGCTGTGTCCAAGAAGGGCTCTGCCTGTGCCTGGCTGTCCACCGCGTTGGACACAGGCAGGCAGTGGGCAGGGCCGGAGTAGGTGCTTTTCTGAATGGAAATTCATCAATGCGCTTTGTGTCTGCTGTGGTTATCAGTGTTGCTATTTCAGTAAGTAATGGTAAAGCCTTCACCCGGCTCATGCCAGATGCGGAGGGTGGGGGCGCGGGCCTGTGATATGGCTGGGGTCCTCTGTCGTCAGAAAACATGAGCTCATGCCAAGGTTTCCGCAGGTCACCGAGATAGCACCGGCTCTCTGGAGACAGGCGTGACCCCCAGGTCAGCTCCTTGTCATTGAACTAAGTGGGCTCAGTGTCAGCTTGAACGTTAGTGGTGATAAGGGCCGGATAATGGTAGCCAAACTCCCACGGCCTCTTTAGGCCTCCCCTGGGGCCCTGAGGCCAGCAAGAGGGCAGGTCAGGGAGGGGCCAGGAGGAGGAGCAGGCAGGGAGGCTGCTGGTGCCTTTGGCTCAGCCAGTGGGGCTCTCAGCCCTCTGGAGTGTGCCCTAGGGACCAGTTTGTCCATGCCCCTGCCTCCAGGCCAGTCACTAGGACCAACAGATGTCCCAAGGAA
1 CATGAGGTGACTCAGGGACAGACGCCCTTATCGTGACGCAAGTCCAGCCCCCAGTGGAGCCCCTCCTCCCAAGGCACAGCCACCTCCCAGGCTGGCAATGGCAAGGTTGTGAGGTCAAGAGGTCATGGTGGCAATTCACCTAGGGCCAGTCACCGCCCAAGCCAGGCCCAGCAGGTGACCGCAGGAACCACCTTGGCCCAGGGATGTGGAGCTTGGACTTTGTCTCTGGGCCCTGACAGACGGCAAATGGCGACCTATGGGTTACTGACCCAGCAAATGAGGGAGCTGACAACCTCAGGCCCTGGTGGCTTCTTGCTCCCAGCAGGCCCTGTCGTCTCTGCAGAAGGGGGGCTGCCCCCAGGGCCTGACGGCTGCCAGCACCCTGTCCCTTTCACACACACCCTAGGGAGCTATCTGCAGGCACATTCCTCCACCATTGATAAGCACCACTCCCCACCTCAGCCCCCGCCTACCGCTCCTGTCCTGCCTCCAGCCTTTCATCTTCTGTTTGCTTTCCCTCGCCTCCTTCCTTCCGTTCTGGGGACCCACTTACCTCCAGGAGGGAGAGAGGGAGGGAGGGAGAAGCCGGTGCCCGCCCAGCGGAGATGCCAGCGCCTAGCTTTGCCCCCAGTGTGAGCTGAGGGTGGGGCAGACAGG
0.3353473477587994 CATGACAAGGGCCTCACCATGTCTCACTTAGGCTGCAGCAAATAAACAGATAAGTATACAAAAATAATAATCATCATCACAGCCATGTCTGTATGCCTAGGCCATGAGTGAGTACTCATTAATTATGTTAAATTAATGCCTTCCTCTTCTTCCTCTTCATTCTCTCCTCTACAGTGCCTCTGAACCAAGGCCAGCCACTTATGTCTCCAGTTGCTGAGGATGGAATAAGAGCTGTCAGATTTCCCTAGTCAAGGGCCCCATGAGCCATGACCAGGGTTGGAATGGGCAGTCCGGGATGAGATCATCCAGTTTACAAATGAGTATGCAGAGACAGCCAGACCTGGTTAGCATCCGCAAAATAACTTGCTTATTTCCTCTTTCCCATTCTTCTTCCGCTATCACCCAGCCGTCTGGTGCAAACGACCCATTTAAACACCTCAGAAGTGATGATAAGAAGCAAGATAATAAGGTAGCCAGCCCCCAGTTCCCCAGGCAGCAATCACGGTGTGTAGGATAGAGTGCAGGGGCCTCTCTGTCGCTCTCATCTGTCACACATCAAGTGAGAAAAGATCTATTTTTTCCCTAGGCAGCATGCCTACAACTTCAATTGGCCTAAAATAAGCTTGGCTAAATTTTCTTGTGAGACGCTCTAAATGGTACACAGTGATCCATGCAAAGTCACTGCGAGGAGCCTCACCATGACGTGGATGGTGCCGGGGCTCCATAAGATGAGCAGATCTGAGC
0.09977202169975345 AGACTCCAAGGCCAACTGGGCTGGGGCAGCTAAGTCCAGAGAAGGACCTCAGGAGTCTGCCCTTAATCCTGTACCCAGGACGGGGCGGGTGAGAGGCACATGCTCAGATTTGTTCCTGACATGTAACTTCAAGAGCAGTGCTACATATTTTGCTTATCTATCCAGAAGACTGACTGCATACAGATGAGATAGGGCGTGGGGGGCCAAGTGGGAGGGAGCTCCAGGAGGTGCCTCCAGACATGGACCAGGGACAAGAGGACAGCTTAAAGAAAGGTTGTGGGAATTGAGTGCAACATTTCGGGTCTCAGCTTAGATGTCACTTGGCTGGGTAGCCTTTCCTATCTTGGCAGTTCTGGGTGACGTACCATTTTCCTAAGGGATCTTACAGCACCAAGACATCTTGAATCAGAGCTCTTAACACCTGTATCTATAGATTAGCTGAACAAATTCATTAAGGCCGACAGTGAGCCAGGCCCTTGCTTGGCATGGGGAATATAGCACTGAAGGCAGGGAAGAGTGTCTGTCCTCAAGCACTGCTCTAGAGCTAACCTGCTGGCAGGGGATAC
0.9956243081883075 TTCATATTTAACTGTTTAGAACTCAGCTGTCAGGGCTGTAATGGGGTGTATGGCCAAGGGGCACAGGGCCTGGGTGCTGTTTGTCACCTTTCCTGCACCTATCCGGGCCCTCCCTGGTGGAGTGTGTCTACTGTTTCCTGCAATCCCCTCAGTTAACTTCTGGGTGACCTCGCTGTGCCTTGCACTTATTCATTTAGCATATCAGCTTGTCAGTGTGATGAAGTGTTCCTGCTGATAGGCGCTAAGGGCTGAGTAAGCCACAGTGCCTCCATCACCGGGGAGAAGTGTTGATGGGAGCCCAACGCTGAGGTCGCCCTTCCCACAACAGCCACCAGGCACCAGCTGGAAACCTGTGGGCTTCACCTCCATCTGTGGGCAGGAAGCAAGTGGATGTCAGGGACGGTGGTGGGGGGCTCTGCTTGGAAGTTTTAAGACCACACTCATCTTTTGTGGCCATGGACTTTTCAATACCATCCTAAGTCAAGATTTTTTGTTGTTTGTTGTTGTTTTTGTTGTTGCCCATGACAGAAAA
0.5591414330515242 AAATATAGCTGAAAAAGTAACCCTGTGGTCTTCTTGCTAGTCACCACTTAAGGAAGTAGAGATTTTTCCAGACCCTTCTGTCACTCTGGGCAGGTGACTGACTTATAACTCAGGTGTGCATTTGCCTGCTTAAATCTGCCTCAGTTCCAAACAGCTTGCCATGCTCTATATATAGAGATGACTTCACCCTCTGTTGGAATGCAGCAGCTGTTCAGCAGTGCACACTGATATGCTTCAGAGACTTAGGCCATATCTAATTGAGCACTTCAATACTGCAGAGATAGGCGCCTTGGAAATATTTAGATAAAATACCTTTGGCCAGATGGAAGCCGGCCAGGATACCAGCATAAAATCTTCATCTCACAGGACTGCTAGTGAGCCTTGGCGGGGGGCTCCATGGAGGGAGGTGGCATCAGGAGAGATGCCAGTCTGTCCTATCCACCCCCTGCACTGTAAACATGACACAAAGAATAGTAGGAAATAGGAGAAATCAGAATTTTGTTGCTTCCTCCTTCTCCCCTTGGCAGACCAAACACAGCCTACCCTCTGTGAAAACAATCTGAATGTTAATGGTGCCTCCATGTCAGGAAGCTTCCCAGTTGTAATATTCCCCCACAGGACTGTCCCTTCCCCTAGAGGCCAGATTGCCAGCCCTGGAAATTGGTTGGCAGGTATAGAATCAATGGTACTTTTTAAACATTTATTTGCCTAGGATTCATTGCTAATCTTGCTAGGAGAAGCAACCAGCTATCACAGTTGGCTGGGAACTGGCCAGAAAGCACTTCTGGCTTTGCTACCCATGGTCCACATGACTCCAGCAAGCCTGTGTTGTGCTGGATCTCACTTTTCCCATCTGTAAACTTTAGAGATTGGCAGATTTAACTTCAATTTCTCTTCCAGCTCTAAAAGAACCTGTGTGTGTCTTTCACGACACAACTCCCTCTCCCATTCTTTTTTCTTAGAAGAAAAAGAAAAAAAAAGAAAAAACATTAGCAGATGATAATGAAAACATCTTGCATTTGCATGTAATCTATTGTTTAGATAAATATATCCACCTTTAAGCCAAAGTAAGTGCTATTATTTTCATTTAGAAGAATCAACAGAAACACAGAGAAAATGAGTGGTTT
1 AGCCCCATGGAATCAATAACCACTTTGCTTTTGAAAGAAAGGGGAAGAGGGCATAAACCAGAGACACAGACACACTAACCTGAGTTCATCCCACAGTGGAAGATAGGAAATATTGGAGATGAACTGGAGTTTGGTAGGGTTGCAGCAGAATCCTCAGAAACAAAACACGATGCCCAAGGAAGTTCTAAACCAACAATAAATGTCATTTCTCCACTCCCACACATATATACACTTGTTGCATAAAACAGCTGTATACCTTTAAGAACAGCTTAAAAATCACTGGATCCCACAAAGAACACAACTATATAAGATGACTACTAATTAAAAGATTCAAATCAGATGATTTTGTTATAATGTTCTGCAGACACAGGCAAAGGAGGTATGTAGAATGTCTGTAAGGAATCCAGGATTCTCAGCTAGCTGATAACGACTTCATGCTGCTGCTTTATTTCATTTGACACCTTCCATTCTCGTATCAGCTACTGCGTGCAAACCAAACCTCCCAAGAATGGTGACCCTGTCCTCTTCAGTTCACCTAACACCCTGGCCAAGAAGTAAATTAAAATGCAATGTATTTCAGCTCCTATAAATGTTACCTACTTACTCTATTTAACTCAACTCTCAAAGTACCGTTGGGATAAATCTGAACATTACAACTTAAAGAAAAAAAAAACCCTTACAGACTATCTAGTCCAGCCCTCAATTTTACAGATGAAGAAACCTAGCTGCAAAAGGATCAACAGCTATCTCAAAGAAGCAGACCAAGTCAGTGGCAGAATCAGATGGCACCCAGACGTCTCACAGTTCACTGTGCCATGCTGCTGCT
0.3386683373866503 CACTCATACCCAGCGGATTAATATCCAAAGACCAGGCCTAGAACAAAGACTGGGCCTAGAACAAAGGCTGGGCCTAGAACAAAGACTGGACTTGGCTTTTATACACACTTCTAAAAGGGGATGGGCTAGTTTGAAACAAGCTTACAGTGGCGTGAAGCATAGTGGTGTGAAAGCTCAGGTACAGAAGCAGAACAAAGGCAGTTAATCATACTTTGACAGGTTCATAACTCAGGCTTACAATGACTCTTGCTATGCGGCCTAGATGGCTGTTATCTAGGCTTGCTCTAGTGCCTTGTGCTGGCTTATCTCATAACCTTCACTATGGTGTCTAGATGGCTACAATCCAGGCCCGCCCAGGCATGTCTCATGACTTTCACTGAGCTGCTTAGATAAAACAATGCTTGAAGTTACTAGTTATAGAAAACAAGAATCTATAAACTCATAAGTTTACTCATACCATAGGAGAAAGAAAAATAAAGAAAATTTGTTTTTTTCTTCTCCCCATGTTGGGGGAGTGCTGGGAGAGTCTTCAGAGCACATTCCTTTGAGCCCTAGCTTCTTAGATAATATTATCAAGACTTTCCTGGGTCTGGGCTGTGCCTGTTTCTGCCTCTGGGATAAGTCAGCCTAATACATGAAAGCTTGTTTTTCAAACTTGCTTTTCTCTTTTTAATTTTATTTTTCTTTTTTTTTCTTTAATTTCCCACCTCAAGAGAAGTATGTGGTTGATAAAACATAGTTATTTGGCTGCTAATTTTGCAAAGAATGGGTTAAGTAGCAAACTACTATTT
0.646170731443354 AGAATATGGGGGGATATAATGGATATTTAATCTTCTAACAAAATGCACAGACTTCACTCACTGTGTCTTACCCTGGGTCAGTGATATCCTAGGAAAAGCTCCTTTTGGTATCAACGGGAAGTTTTCACACATAAAGATTAGGGGGTCGTGTCTCTGAGTATGAAACACATGAGGCAGATTCTTAAGCTAAAGCATTCATACCAGCTGGGAAGAGGGGTTTTCCCGAGGAACAGTAACTTCCCTCTACATCCAGGAAAGCCTCATGGTGTGGATGGGCGTCCAACAAGCAGGCTGTTCTGGCCCTCTTTGGGTGCTGACTCTGTGTTCCCAAGGGCCATTGATAAGCTAAGCAGGAATAGTGTAACCACAGGAATGCCTGCTGATAACAGGAAAGTAGGCGGCTGCATTCCTGAGCCATGGCTGATGCTGCTCCATCCACTGCCAAGGTGTAGAAAAAAGAGACAAAGTAGTAAATTCTAAAGATTTGTCAGTCTGGGTTGGCAGCTCTTAGAGAATGGATATGTGGCAAATATGTCTCTCCCTCTGTGTGTGTGTATGTTTGTGTGTGTGCGTGTGCGTGTGTGTGT
0.3860858229627103 TGCTAAGAACACTTTGGTTTTCATTAAGCATCAAGCAAGACATAAACAAAGTAATCAAGATGGCTGAAGTGGGAGCAGGAGTGGGGCTGCTTTTTGGGACATATTTTAAAGGGGCCTGTGAGCAAGGGCCAAGCACCCTCCCCCTGCTCATGGAGGTGGCGATTTTATGTCCCTGTTTGGCTCAGGTCTGAAGCACAGCCTGGCTGAGAGGCAGCTGGCACGGGCCCAGGCACGATTGCATGCCTGCCCCTGTGGGCCCCACTTCCAGCAGGTCACCCGGTCTGTGTTGTCACCTTGAAACATTCTAGAGAGCTGTGAGCTTCAGAAGGTGAGGCTCTGGGGGCTGGGCTGGGGGCAGGGAAGGCAGCCACGCAGGGTGGCTGGAGAGCTTTTGACAGCCCCTAGCAGAGCCCAGCATCCCATTCCCGACGACGTGAGCCCCCCAGGCAGGCGCCGAGTGGATAAGAGTGTAGACAGCGAGGCCGGCCTGTGACGCTTGCCAGCACCTGCAGATAGCAGGCAAATAATTGGCACATGCTTAAAAAAAATTAAAAACCTCTTGGATGTGAGTATTTTCTAACAGCATCTGGCGGGAGTGCCCGGGAGGAATTTAATCAGCAAGAGTTGTTTAAATGGGGCTCCGCACAGGCCCCGGCCAGGCCCGCCATGAACTCGGCATCATGTGCCACCCCTGTCTGCTGAGAACATTCAATTTGTTAATTCTGCAGCTGGTGAGAGAGGTCAGATAGGAAAGTGACGATTGTTTTCTGACGTTCCAACCCCTGCTCACATCTTTCTAATTAATCCTTTTAGGAGCCACAGGAAGATTAAGAAGGAGAAAAGGTGAGGGAATCAAGTACCAGAGAAATTGATGGAAAGACAACGCTGCTGCCCTTCTCTTCTCAAATGGGATGGATGTGAGGAGCTGGGGGTGGGGAGAGAGAAAAAAAAATTGAGGACTGCTGCCTGCCACTCTTCTCGCTCAA
0.3918877252718327 CACCACATTAGATTTTTCTCAAAACTAAGGACTATTTTATTCAGGTGGACAAATACGGTTGCTGTATAATTTTTCAATCAATTCGTATCAAACTCTGTGGGGTTAAAACTAGCTGGGACATTTTGGTAGGCTTCATGCACTCAAGGGCTTCCTGCGGGCTTAACTGTTAAGCCGAGCTCATGGAGGTGGTGTTATCAGAATGCTTAATGGGGACCGAGGGAACGTGCTGGCTGATGAGGTTCTGCACATATCAAGTAATGTCAACTCTGTGCCACTCAGCAGCTGCCTGTCAGCTAGAGCAGCACCTTTGATAAGTGGGTCCTGGGTAGAGATCTGGCAGTCCCAGGCTGGGATTTTTCTTTTAATAAAACATCCGTAGGTTGCTGTGCTGACGACAAATGACCTTGAAGGAGGTGACACAGTGGAGCAGGGGGATTTTTTTTTTTTTGGTATAGCATTAACATCTAAAAGGAAAACATGCCTTTCCTCACAATTTTCCAATTTTCATATGGAA
1 TGAATATACATCCCTGAAATACACCAGGATCTTCTTGCTTTCCTGCTTTCATATATGCTGTTTCTTCTACCTGGTTGCCTTTTCTCCAAAATATCATTTACATATTCAGCTCAGGGATTATTTTTCACATTGTCACTGTGAACAAATTCTATATATCATCTGATTCTTGGATTCAGGATTAAAATAAATATATAGTCTCAATTCAGGGCCTGGGCCCTGATATATACTATGTGCATAGGAAATACTACTTCCTTTACCCATTTCCTTCTGGAAAGTGCATTTTAACCCTTCATCTTCTTGATATACCTTCTGCAACTCACCCAAAATTACTGTTAATTATTATCTCAAAATCTCTGTTATTACACTTGTCATACTGTATTGTAATTATTTCATTTTTTCCCATTCTAAACTAAAAGCATCCCAAGTTCAAATACTAATCCTCTTTTTCTATATCCTCAATTTATAACATAAAGCCCGGGACATAGCAAATGCTCAATAAATGTTTATGGACTGAACAAATAGGGATGAAATAATGCCCATGCCTGAACCAGATAAGATTAGAAAGGAAGTGAGGCTCATGTTCAGCTTTGTTAAGGCTTACTGAAATATCTGCTAGCTCTCAGGACATGTGCATAGTGCTGACATCCCTTGCTAATCTTGACAACGTGTGACTTTCAAGGCACTTGAAGTGAACTCTTTGTTATCCATCACTTCAGGAAGAAGTGGCAGTGTTAAAAGAAATGGAAGAAAAACAACTAAATGAATTTTTATCATACTATATTGTTCTCTTAGTGCCTGGCATTGTGCTTGCCACAAAGTAGGCACTCAAGTAGCATATTGAATGGAATTGGTTTGAGAACCCAGTTAATCCTTCAGAGAAGTTACTTCTCTGAGACTCACTTTTCTTGTCTGAAAAATGGGCATTT
0.07014332973440736 TTGCATTATACTAGGCTGCCTCTCCACGCTGTAGGAGCCTGGAAAGGTAAAGGAAGCTCCAACTGAGAGGGCAGTGACACGACAAGTACAATCCTGTCCCCTCTTCTCCTCCCCCCTCCCCACCACCTCCTGGGCTTCTGAAAGAATCAGTGCAAGAGCCAACATCTCCTTCAACCCATTGACGTCTGTGAGATACCCAGAGACGTTCAACCCAGAGATATCCAGGCTGCTTGCCAAACAAGGAAATCCAAGATAAACGTGCCATTCTGTCATGACCTTATCCTGCTGAGAGACAGACAGAAACAATGGCAGAGAGGAATAGCCTTGCATGTTTTCATGGCACCTTTCAGAAAGAGATGAAATTCACCATCAGTCACACCTCTTGGAGGTTGTACCATTTAGCTGATAAGAAACAGCCAGAGAGGCAGGGAGTATGGACACTCCTGAAGGCAATCCTATGAGGAGCCCCCTGAAACTTCTTGAAGAAGAAAAATAGCACTGTTCCCCTCCCCTTCCAACTCTTCACGCTGACAGGAGTTTCTACGAGGCAGTGTTTGTCAGTAGTATTATTAAAAAAGGAACCAGGCC
0.83163847923853 GAGATGGTCTCGATCTCAACCTTGTGTTCCACCCGCCTCAGCCTCCCAAAGTGCTGGGATTACAGGCGTGAGCCACTGCACCCAGCGTGTTATCTCAATCCTCATAATGCAGTTAGGTAGAGGTATTCTCTCCACTATATCAGTAAACAAGACTAAAACATCTTGCCATGAGTCATACAGCTAACATAATGCAGGCCTAGCAAATGTTTTCTGAGTATCATAGGTGCTGAGTGCTGGCTGGGCCCCTGAAGAGAGATAAGCAAGATAGTCTTTGCCCCTTAGAAGGGGAGGGCATAGCATATAACTGCCAGAGTATGTGAGAACATGCTCAGCACAAACACTCCAATGGATATAACAGGAGTATCAAGGAGTGAGCAAATCTTTCTGTCTTTTATAGCTGGACCTGG
0.0987968048932192 CCCGAGACCAGGTAAGTGGCACCAAGGGGCAGGGCGGCGTCGGGCCGGCGATGCCCTGGGATCAGTCCCTGTGAGGGCGGCCTGGCCCCTGGAGGCCTGGGCTGGGCCTGCGCCCTCGAGCCCTCTCAGCCCCAAGGCCCAGGGCCTGGGGACATGGCCGGGCTGGAATGGCTTTCATAGCCCCTTGTGACCCCTCCTGATCCATGCGCCTCAGGCCTCTGGCAATTCGAGGCTCAAGAGAGGACAAAGGCTCCACTTTGGAGTGATTTCATGGGGTCTGAAGGCTTTCCTTATCTCCCCTGCCCCCTACCCTGCTACTCCCTGGCTTGGGATTCCACAGCTAGCGATAAGGAAAGCCAGAGTGGCTGAAATTCCTCCCTGGCAGGAAGGGAGGGGGAGAGCACTGGTGGGGACAGGGAGAGGGTGCTGGGGGGCTGCCCAGAGTAGGAGCTGCTTAGCTCAGGGTGGGGAGGTTCTCCAGG
1 GCATGGGTGCCCACTCAGTGAGGTCAGCACATTGCAGGCTCTCACTGTTCCTGGCGTCACTCTGGCATGCAGAGGCCTCCGGTGTTGCCTTCCATAATGGTCACCTGATCCTGGAGCTGGTGGGCAAACAGCCTGAGATGTTTATTCTCTGATGCCCAACTGGCTTGACAGGCGGGGTGATAAGAGAGACAGAGAAGGCAACTGGGGGACAGGGTGGATAAAGGAGTCCCCTGCCTCTGAGAAGTGCTGTTTTCCTTGGCTGGGGCCTACAGTCACACCACTGGCCTCTGAATGACAGTGACATTCCCCAGGGATTAAGCACGACTTGTGGAAGCTGGGTCTCCACAGGGGGTGCAGAGCCC
0.1707126414719588 CCAAATCGCACTGAATAAAGGTGAGAGAGGCTGGCTATGAAGAATCACATCAATACGATCTTTGAGGCAGATTTGGCCCTGTTATCTATGTGCAAACATGAACACAGAGTCTTCTAAATTTTGCTTTTGTTTGATTGCCTTCCTATAAAGAAAAAAATTATCCAACATGATTAACCTTTGTTTGTAAAAATATATAAATAAATAAATTTTCCCTCGCTTTTGCTAAATAGTTAGAAGAGTAAGTTTGCAAATTAACACTTTAGCAAGACTCTGAATCAATCTCAAAGAAGGCTCTACTTAAGGATGGTTCTAATACATCTCAAGTCCAATGTGTGGTTGATTCCCTGCCATATGCTCTGAGTTTTATCAGGCTCAATGAGAAATACCAGTGCTTGCTACACAGAGATTTCTAATGCACCCTCACTTCTGGCAATAGTCTGGAATTTACTTCAGTTGATTTAAAGAATTTGTGAACAAGAATTTTATCTGAATTGTCATCACCTTGGAGCAACTGGTCAGGCTGAAAAGGTGTCCTGAATGGGGCTAGACACGTCAGCGAGACCTGCCAGGTGTCTCGTCACTCAGCACGGCCACTTCCTAATAGTAACAGGATCAGCCCTGGGGACTTGCTGATGGGCAGCATGGCAGGATGACCCCAGCCATCTCCACATGCACTCTGATAAGGACTGGCAGGTTAAATAAGGGCATATGCTGCATGCTGCTCCATCAGCACCTCCACTTGGCTCCTTCTCAGCCCAGGAGTTAGAATTTGTTGATGTAACCCACACCATGGGAAGAATGAAAACTCAAGCAGCAAAGCCCGTGTTAAGATGCCTTTTGTCGGGAAAAAAAAAAAAAAGGCAGTTTATGCCTCCAGCTGCTGCATTCAGGGACCAGTTAACAATGGGAGACAGCAGAGAGAGCTGGGTAAAGATGGGAACAACACAGAGGAAAGGGTTTGTGA
0.6144857773734359 CAGGTTCTTGGGAATCTGTTGGCTTACAACGTCCGAGGGTCCTTTTTCATAAGAAGCTAAAACAATGTCCATAAAAGGCAGCAAGTTCACAAAGTCCCGGCCTCAATGCTGTCTACTTAGTACCTACCCACATCCCCCCAACCTCGACAGAAAGAGCTAAGAGGAGATTAGAACCAGGAATGTGACCCCCACCCCTTCCCCTCTGATATCTAAACTGAGTGCCACAGCAAGAGTGAGGTCTGGCTTCTAACTTTCACATGCACAAAACCACTTTAGATTAGAATACACTAATACAGGTCATAGAATGCACAAAGAGATCTAGATTTGACGTTCATCTACACACATGACCTGCTGTTTGACTTGGCTAAG
0.1506188790884361 CTTATTTTAATGTCTAAATGTGGCAAAGGATTATCAAGTTATTAAGTAGAGAGGTAGTTGTAGTAATATTCTTCCAGCCTAGGAATGTTTTATACAAAGCTACACTTTAAAATATTCGTGGGGTTGTCATTGAGTATAATAATATTTAAGGTGAAGAAAGAGGGCAAAATCCTCTCACTAAAAAAACTCTTTAAAGGCTGGATAAATAGTAAGGAGTGTGTTTAATACAACTAATTTATAGATAAATGTGGTGCCAAGCTAGAATACATTAACAAGGTAAGGCTTCAGGGTCTCTAGGTAAGATAATATATTGCTTTCATTAAAAAGCAATCTGCATGGACGATATCCACCACCACTGGAAACTCTGCAGTTGTCACCTTTATCAGGGGAACAAGAGCAAGCCACTACATTTTAATCACTGGAGTTTGTCAGGAACGAAAAACAGCCAGCTTCCCACAAATCAACAGACATGTATCCTGATAAGGGAAGTGCATTGGAAAAGGACAGCTACATACCACATGACACCACCTATTCCAGGGTGATCAAAGCTCCATAATTGTTGAAGATAAATCTACTGAATTGGGCTTTAGGATGAAATAGTTGTCTTTGAACAAAGTAGACACATACTTGTACAAATTACCCACAACTTAGAACACTGTTAGATCTAAGTATATTTTGCAATGTGGGAAGGAATGAGTGATAGAATGGCAAAGCGTGGGGCATCGTCACACTATACTTGTTCCAATAACTCATTTCTGGCTATATGATCCTTTAATCAAATTAAGAAGATATCGTGAAAAAACTGGAATAAGAGTCAGTCAGAACAAGACATCTGAGTGGAAACAAGACACTTGCATAAATGAGACAGAAATGGGGAATTATTTT
0.98794634827078 CCAAGGAAAGGAATGCATAATGGTGTGGTCAAGGCATTAGTGTTAATATTTGTAGAAAGGGTAATTAACAACAGTCTGAGCAATCACATTCTAACAACTAGTAAGGTTGGCAGGAGCCTCAGTATAATGGTGTGAGGAACGAAATCATTATAGTGCCAAATAGAGTATACCATCTCTTTAGTACAATGTCTTTCAAAATGAGGCTGATTGTGTTGGCTTTATATTTGACTCCTTAATAATTAAGGCAGTAAATTCTAGCTGGAGCTAAATACCTACAAGGCCTAAAACAGCATAATGGACAACCTGGCAGGTGTCCTTGCTGGAAGATGACAAGAGTGCTGAAAGGAGAGTCCTGGTTTTTCTCCCAAGACATGACATTTGGGGGCTTCCATTAAAAAATTACCAAGCCTCTGCCACTGTAATCTCTTCCTTAAGTGCCTATGATTTTTTCACAGTCACAGGTCTATGCCTGGTCAATACCCAGTGGCCAGGTCTCTGAGCTGCGTGCAGAGATGGCAGCGACTTGGAGGGCTGGGAGGAGATAAGGGGAGGAAAGATCACTTTTCATGACAACTTACAACTTGATTCCACTTATAAGCCATTTATTTTCAGAAACAAGTAATGGGTGAGGACACAGGCCAGGTCCACAATTTGTGCACTTGAGAGATTAAGGCCTCCGAGATCAAATTACCACAGCAAACTGAGACAGAATTATTGTAGGGATGTTTGGGGAGGATGCAGAGAGAAGAGGAAGAAGCCAGAGACCCAAGAAAGGAGACAGGAATAGATTTTGATGAAAATTGCTTCCTACTCTGTACCCTTGAGGAAACAAAGAGGACAAATAAGAAGCAGCAGTGATAGGAGGCTGGGCGCTTCTCTGGAATAACACTGGCTAGGTAGTGGAGCATTGATAGTGAGTGTGCTTGGTT
0.2834837748686143 AGGAGACAGAAGACATACCTGGGTTATTCCAGTAGCTTCAGTCACAAATACTTGGCGTATACACTACCACTTGCCTCTCTTGTGCCCTTAAAAGGCTTGAATAATAAACACAATGCTGTCATCATGACTTAAGCTTAGCACCCTCTCAAACTTCTCAACACGGTATTCCCAGCAGTGAATACCCATTGATTAGATAAGGAATGTGAGAGTGAAGCCTATTTTTAATCTCTGGATAGCCTGAGAAGTGGTCCCAATGAGTTTATCCAATCTCATGTCCAATGTGATATAATACATAATATCTTTGCATAATTTTGCAATGTCATTTCACACCTGCCTTTCCAATTGAGGGGATTGGAGCACTCATACGTGACTGATGGGCAAGAAAGAGTTCTCTAGAAGGAGAAAGGGGAGAACAATGGGCCTGCCAGGTGGCACTGACATATGAAGCAAAATGATGGGTTTGAGGCTACATTGAGCAGGAGTAGCTTTGGGCCTGTGGGACTCAGATCATCTGAGTTATCTGTCCCACGCCCTAAATCTCCCCAACTGAGAGAAGCACAGTTAACCCACCACTCCAAGGTATCCAAGACAACCTTGTCAGAGGGATCATTTCAGTGCACTCTGTGAGTATGTTGCTCCCATCTCCAAAAGCTTTCAATGGCTGTTCATGGCCTGCTGGATAAAAACCAAGCTCTTTACTCTACCACTGATATTGCAATCTTAGTTGCCCAATTCTCAGCTCCCAGGCCCTCCAAATTTAATTCTAGTCAA
0.09651800939022787 CACTAATCTTTCTTCCCAAAAAGGGAAATAGTTTGTGCCTGAAATTCTAAACTCCCTGATTTCAGGCAAGGCCTGGGAGAGTATAAATAAGCGTATGAATATTTAGCAAAAATGACTGCTATGCAAAGCTTGAAGCACTGTTGTCATAATGCAGAGCCCGCTTTAATCGCAGCCACAGGGAAAGCATTTGTCGCTGTCTTATCACACAGGAATGATTTTCCCATTGGCAATGGCAGCCTGCCAGCTGGCTGTAAAGCCAGCGCCTTCCTGGTCTTTCAGGTCGCAATCTCAGATGGCATGCACCACCACTGCCAGGCACTGACATTTCTATTTTTGCAGGACATGCTGGGTCAGGAAACAAAACTGCAGAATCACAGACTATTTCTTATTTACATTGAATGTGAATCTCATTTTGGCTCAGAAGCCTACGGATTTCCAACTCT
0.2833513647391557 ACTTTCTGTTAGAATTATAATTATTTATGACCCTTACTCAATTAAAAATACCAGCTTTTTGTAATCCAAGATCTGACCTGTTACATTCTGTTCAGAAGAAAATAGCCTCAGAAGCAGGACTTTACCTGGTGCACGCATTCATGATCTGGATGCTGTTTCAGCATGTAGAGAGGAAACCCAAACAGGCCATGAGAGAAGCTCAGGCCAAGCTGGATTCTGAATTCCCATGTCCTTTAGCAAAGTCTGGGTCTCTCAAGAGCTAAAGGATTAAGATAAAGGCCTCTGCTACTCATGATTACCAAGGACCGTGTTCTGTGTGGTTTGTTCCTCTTATCTGCAGTCCTGACAACAGCTTGGGTACATGAGACCTGTCTGCACAGCTGCTGACATCTCCCCAGGGTACACACTGCTGACGTCCAATGCTTTAACGAGACACAGGCTTTCCTGCCAGCCTGGATATCCTTCAAACATGGCAGCCCCCAGCCTGGGACTCCAGCCAACAGTGCCCCTAGCCTGTCTTAGTTTAAACTGCTTACCTTTAACAGTTATTTCTAGCTGAAAACAGACCACAGCTCCTGTTCAAGCCATGCTGGTGGCCTAAAAACACCTAGCTATGCTTTGAAAAGTACAGTTGTGAGGACTGCTATATCAGTTTTTAATGCTAGTGTTGGGATGCAATTTTAATCCTGATCCCATTCACATTTGTCTGTTCGTTACATTTGTCGTGAGGGTCCAGGGTGGACCAGCCACTCTGCTGGGCTCCAGAGTTCAGCAGGGAGCAAGACCAACACAGGCTTCCAGGCTCCAGTTGTTGGTACAAGATAAAGTCTCAGAAGCATCATAAGGCTGGCTGAAAATGTGCCGACATTTGTGAGAAATACTAGGCCGTGCTACCACAATACCAG
0.04031952262947203 AAGATATAATTGGTTCGTTTGTAACAATCTCTGCCTGTAATAAAGGTAGAAGACTGTGCTGGAAGCCAAGTGAAGTTTTTCCTGAGGGAGGAAATGGCCAACTCAGTGACATGCTGCTAAGAATGTGAGTAAAGTCAGTATAAAGTGTCCCTTGGACTGGGCAATACATAGGCTTTTGGTTATCTTGACAAGAGCAATTTGTTTTCAGTAGTGGGATGAAAGCCAGATCAGAGTAGGTTAGAGATTGAATGGGAGGTGAGGAAGTGGAGACAGCGCACAGTTAAGTAGTTGAGATATTTGGTTGAGAAAAGGGAGAGAGAAATGGAAAGGGGCTAGCTGAAAGGAATGTGGAGCCAAGAAAGAATTGTTTTTACCATGGAAGATATGAATGGCCCACTAGAAAAGGACAGATTGGCATTGTCGGAGAGAAGAGATAACTCCCAGAGAAAAGGCTGTAAGTATTTGAGAGGTGATGAGATCCAGAGCACAGGCAGGGGCTTGGCCATTGGTCCCAGGTTTGCTCTATCCGTTAACAAGGAAAGAACAGATACAGGTGTGAAAGCAAGCAGGTTCCCATGCATGACAGCAGGAAGATGAGAGCTAATTTCATCTCAAAACTCTTGGAGTTGTAATTAACACCATATTCTTTAACTCATGCCA
0.1561190880480439 AAAACTCTACTGAGAACCACCTTGCCTGAAAACCTGGCTTTTGACACGGGCTGACAAGGACCGAAGCAGGCAGTGTCAGACGCAATAATAGTAAAGAGAAGACAAGAGGAACTTGTCTCTTCATTGCATGCAATTACAAACAGAGGCTGTTCAGAGAATTAGGCCTAGTTAAAGCTGCCCCCTGGATAAAATGTGTTCCCAAGCAGCCTCGGACAAGCTGCAAAACAGACAAACAGACGTGACTATGGGCCCTGGCATTTGGCAAGAACACTCACTGTCAGTTAGAAAAATATCAGCCTGGACAGGGCATCAGCTGCACAGAAATAAAGCAGGTCTGTGGTGTCACTGGAGGAGCATTCCAATGGCAGAGATAAGGATGGGGGTTGGGAAACCCAGCCCCATGTGAACTTCCTTTTCTAGATCCAAATTACCCTCCCCGCTTTACTTGGTGTCAATATGTCTCAACGTATTAAACTGAACAGACAGACATCAGTATCTAGCTTTTTTTCCTTTAGTACCCAAACGCACAATACAATAAGTATCAAGCACTTTCAAGTATAAATGTTTTATAAC
0.7233361700672264 TTTGTTCAGGCAGCACTGAAGAGCTAGACTTTGAGAGGTTCCCTAGCATGGGGCCTGCTTCAACACAATTGCAGCAAATGCCCTGTGTTCTGCCTTTGTCCTCTCTGGTCTGACTTCAGCATTACTCACGCAATTCCTCTCCCTTTCGCATAACCCAGTGTCATTCTATTCCAGCCAAGTTTATCTCTGCACCACTCAGATAAGCCCCATGCTGCTCTTTGTAAATGTCACTCTTAGAAGAAGATAGGATGTTTTCTGAAAGAGTTCTTTTTTAAAGCGTTCACTGACTGAATCCATTCTGAAGGATAGTTTGGGTAGAGGGCTTTCTAAAAAAAAATGTTTCATTTTTTAGCCTTTTAGGAGAGCATCTGGAGACAGGTACCCCATTACTCAGGAAACTCCCTAGACTTTTTAGATGGATAAACAGAGCAGAAATAAAATATGTCTAAATTATGTTCTTACACTATCTGATTCAGGCAGTCAAGTTTCTTAGTGACTCATCTGTTACAAATTTTTAGTATCTGTGTTGAGAAATTAAGCAAACAAAGTTAACCATATAGATTAGTAAAT
0.762105939477409 GCGGGCCCAGAGTATCTAACGCGTCCGAGTGCGAACAGTGTCAGAAGGCACTGAGGCAGCGCGGTTCCCACCTCGGCATTGCAGGCCCAGAGTATCTAACGCGTCTGCGTGTGAACAGTGTCGGAAGGCACTGAGGCAGCGCAGTCCCCACCTTGGCATTGCAGGCCCGGAGTGTCTTACTCATCCGAGTGTGAACAATGTTGGAAGGCACTGAGGCAGCACAGTCCCCCCACCTCGGCATTGCGGACCTGGAGCATGTAACACGTCTGAGTGTGAACAGCGTCAGAAGGCACTGCCGCAGCGCTCCTGCTATTTTTAGCGTCCTGCTATCTTTAGCTGATAGAGTCAGGCCACGGTGAGGCCAGCAGGCCGCTGAATCTCACGGAGGCTTCAGAAGTTGTGATGCTGGCCCCTCAGCTTGCGGGAACTCTTCGAGGAAAAAAACGCGCAAACTGTTAATGTTGTCAGTGATTAATCTGATTGAAGCAAACGGGGAATGGTTGTTACTTTTAAATGGCTCCTGACAATGGTTTGGCCAGGGCTTAGATGTAACAGTAGTACTTACTTCTTCAATAGCCAAAGCTTGAACTTAGGAAAATGGGCAGCATAATTTTTAGTTACAGATTTGGGAGCTGGAAGGGTGCAGAGTCTCATCTCTGTGTCCATGCTAAGTGCAGCTTCTCATGATGGTGGAGGACGAGTTTCTTCATGGGAAATAAAAGAGCCCGTGGGAACCCTTCGCAGCGGCCCACATAGACCACGGACCACATGGGAGCCG
0.5460755319211884 GGCAACTAGTGTAGGGGTTAGTATTAAGGAAGTAAACTCAGCAGAACTGGCTCATTCCTAGATTGGAAAAGAGTGAGGGTGAGGAGGCAATGAAGAATGATCCTGAGTGCCTGGTTTAGGTGGAACCATCTGGCACTTGTCAGAGAAGAAAAGAATCAAAAGGCAGAGTCACAGGTGTGGGAGATAACAGGCTGAGCATTGAGTTCTGGGGCCCGTGGGACTGCACGTGGATGGCTTGCAGGCTCAGCTTTGGCCTAGGGAGTCAGACCCTGCCTGCTTCTGGGCCCCAGAGCCACCCCCATCCACTTGTGATCTGGGAAAGTCATTTAACACCAGGACCCTTGTTTTCTTATCTGTAACATGGAGATGCTGGTAACTCGTGCCTCATAAAATCACTTGATGTGGGTGAGAGAGAAAGCTAAGTGTTGATGACAGTGTGGGCCTGACCGTGCCTGAGTAAGCCCCATGGGAACACAGCCGTGGTGGGAAGCAGCTTCCCAGCAGCCCTCCCCGCCATCGGGAGAATCCCCTGAGGCCATGAGAGGGTC
0.3757811625732286 CTGGCTCCTAGTGGGCCTTTGGGACATGTTTGATGACTGAAGGGAGCTGAGCACTATGCATTTGGAGGCCATGAGTCATTCACACCCAGAAATTACAACTCCTTTATCTACTGGGCTGCTGTTCTCACTGGGGAAGTCCCCAGTTGCCTGGTTGGCACATTGTTCCAGCCAACCAGGTATTTACAGCTATCTCTGGCTATTCTGAGCATGAACAAGATTACCTGGGAATTTCCCTCTTGATAGGACTAGAGACTCCTACCCTTAGAGCAGAGAAGGCAGCTCTGATAATGAGATGACAAAACAGAGGGCTTTTCTCTGTTCTCAACTAAGTCCTTAGTGGCAGGAAAACAGACTGTAGTGTGCACAGGCTCAGGCCAAGGGCCACAGAATATCTTCCGAGTAAGAATACAGGAGCAAGGACAAGCTAGGATCATCAGTGATACCCACTCAGAGTGGGTAAAATCCTCAGGCCACAGACAACAGAAAAAGGCAGGCAGAAAGTAGTGAGCAAGTGGCCAATTGTGTCCCGGATGCCCAGGGCTTATTAGAGCAGGGGAAGGCCAGAAGGAGTCAAAAGCCTAGGCAGAGGTGGTCAAACAAAGAT
0.6658301342485875 TCTGTATTTACATATGTGATCTAGTCTTGAAGGTGGCTGGCTGGGGGGGCGCTCAGTTTTGTGTATTGAAAATTGCTAGAAACTGAGAGTTGGTTATTATATTGCCATTGAACTTCCTGTGTAATGGATGGTTACCATGTGTTTGTGTTATTCTCTGGTAAAAGGCACTTTTTATACCAGTGGAGTGTAAATTCCAATGTGAAAACGTTAATCTTTGAAAACCCTGAGCTAGGCTCCTGTTAACAGCCACTTGAGGTTATCTGGTGCTAGAGGCTAACCAGATCCCATTAGGCAATCCTTTCCCTCCCTGTAGCACATTACCCGAGGGCGGGACTCTTGGAAACTTCAAACTGAGGCTCCCCATGGCTGTCATTGCTTAAGATCTCCCCTGGGTTTTTACAGAATGGGATAATGAGAAACCTTCCAGACAGAGGGGCAGTCTTATACCTGTCTCCATTCATTTTG
0.8399772072712518 CTCTTGTGAAGGAAATTCTATGACTTTTCCTTGCTTTTAGGGATGCTCAGGCCCTCATGAGCTCCTTTTAGGGCCTATGTGATTTGGTGCATGCCTCCTCCCCTCAGGGCCTTTGCACATTCCACTTCTTCTGGCCAAGGGACCCCAATCCTGCTCCTGGTCAATGCCAACCATGGGACTTTCCAGCTTTAGCAAGGCCATTCCTGACCTCCCCAAATTTCTTTCAGACTAGCCTGTGCTCTGCCACACTGCTTACCGCTGTTGTGCACATACACTTTGGTGTGGTTGTTTAATATCAGCTCATCTTTGAACTCTCAGTGACTTTAGAACAGGGACCAACTTGACTTTGTCATCACTGCTTGCCTAGCACCTAACGCAGTACCTGGCATTGATAAATAAGTGTGTGTTATCTTGACAACAGCCAGGCACAACCTTAGCTGTTGCCAAGAGGCCAGGCTGAGGCTTCCCTGCAGAGGTTCCTTGAGTGTGTGTGTTTTTTTTTTTTTTTGGTGAGACATTCTCACTCCGAGCCTAGGCTGGAGTGCAGTGGCACAATCT
0.6651395190868906 ACTTGCATGAGTCCTTCCTAGAATCGAAGGATACATCTCTTCCTGTTGAATATTTAGTCATTGCTAAAACTGCCGGTAAAACTGTACTCAGAACCAATCAAATGGGAAATGGGGTATGCGTCACAGGATTGTCATAGTGTGTGTTTGCTAATAACTTTTAGTGGGTAGGGAATAAGGTTAAGGAGCCTGTCCTTGGTGATACTATGCTGCTTTCAACGTGGCTTGTTGAAACTGCAGCTGATAAGCAGGGCATTCGTGCCTCTGATATGGGGCATTTGTGCCTCTATTCTTGAATGAGGTGCATTCCAGTCAACAGCTTCAAGCTGATACTGCTGAAGGAGGCTGTAACTTGTAACTAATCTGAATTACACTATATGCTTTACTTTATGTGTCTATACACAGTTTCAAGCT
0.04280585842394082 CCACCTATCCTTGACCTATGGTACCAGAATCCAGATAATGTTCCAGCTGTTCCTGACAGCCATGCACCCAGGTGGAAGCTTAGTTTTATGGGTCAGCAGAAAAGGCCAGAAACAGGCCACCAGCTGGAAATAAGGTTGTGAGTCACCCTCAGAAAATCAACATTGCATAGTGATGACTGTTTCTGGGCCTTGCCCAACCTCCAGTGTGATAACATTGCCGTGACATCATCTGAGCTGTAAAGAGAATAGAATGTTATAAATTGATATAGAGGTCTTTGTTTAGTGTTCCTTCTGTGCTATGAATGATAGACTGCTTTAGAGAGAGATAATCAGACCCATGCCCAATAGAGCAGTGAATTCCCAGAGATAAGTGTGTTGTAAATTGCTCCCAATGGAGAGCTAGGCAGAGAAGAGATCCAGGCCTGGCCCCACATGGGTAAGTTTGGGCTAGGTCCAGATCTGATAGGCCAGAGGGAGCAGGCCCCCTCCCTTTGCTAGAATGACTGAGTGAATAAGTGAGTAGGAGGCTTCTATATGGAGAGCGAGGCCTGCCTCTGGAAGGCATGGGGTGGGAGAATTGAGATCTGAAGGTCAGTGTTGACCGCATCAGATATGCAAGGAGCTTTTGCTTCCAAATATGAGAAGTGACCCTCTGTAGTGAAGACAGCCTACTCATTGGAGTGGAAGGCAGGGTGAGGAGAGTGGTTCAGTTACAAAAGAAGCCCAGATGGGTCTTCACAGTGTATTTTCATTATTTTGTTTCAGGTGCTATGAATATCTATCACCC
0.3802104200284525 AAGCAGACAGGCCCACCACGGCCCAGCTGTGCAGGATGAGCCAGCTCCCCAGGTGGAAAGGCCTGCCCAGGAAAGTCGCCAGAACAAAGCAGAAAGAGCCGCTGGCTGAGCTAGTCATTCTTCCCAAGTGAATAATTAGACAAGCGCCACCTTGAGAGGCCAGGAGCATGCTTAGAGGACATTCCCTCCTCCTGGAAGCTGTGTGTCCCCTAGGGGGCTCTTCAACACCCACCTCAGTGCAGCCACACAGGGAAGGGCTGGCGTCTGGGCCACCCTGGCGGGGATCCAGGACTACCTCACACTGCCCCACACCCACCGCCAATCTGCCCCTTAACCCAATGGTATCAGAGCATCTTAAAAGCACAACCACTAGACTCTGATAGCTGCTGTGTCAGATAAGAAGCAGGCCCCGTGGTGACAGACCACACACGGACGCAGCTGGCTCCTGGCTGCCTCACAGTCCGCCTCTCTCCTCACAGTTCAGCACTTTATTCGGAAGAGCATTAGACCTGCCATCCAGACAGCTTGTCCACCTTCACTCACAGCCTCACAATCCCAGAACCTGTGCTG
0.660368017149612 GCCGAGTGTGGGAACTTGCAAAGTGGAGAAAGTCGTTTGGATCACTCCACCCGCAGAGTTGTCTTAAGCTTAAAGAGGAATTAGCCAAGAGCCCCAAGCTGATAAAGGCTGGCTGTTATTTCTTTTTTTAATCCCCTGAGTGTGGCCATTTGTTGCTAATGAGGTGAGGACAAAACATTACTTGTGGCTATCTTGCATAGGGCAAGTGCAGAGGCTCAGAATGGAATCTTATCTGCTTTCCTGCCCCTCCTACACCCCAGGGACCCATGGAGGGGCTCCAAAGTGGTTCTTGTCTGGAGGGCTTTAATGGCGCTTTTCTCCTATTCATCACGTTCATTTATTGAACTTAGCTCCAGCCTCCTAAGCTTTGAGCTGTCAACACTCTGAGATGAAGACAGTAGACAGCCTTCCGTGGGATTGAGGGGGATCCCTGTGGTTGCCCGGTGTCACCGACTGACCAGCAGGGCTCCGGCTTTGGAGTCAGGATAATCCAAGTGTATATTTGGCTCTGACACTTAACAAATCTGCAGCAAGTTCTCCACTCCTCTGAGTCTGTTTTCCCAGCTGTAAAAGGGAGCTAATAATAGCTCTTGCGGCTAGCGTTGGATCACCCAATAAACCTTGTAAGCATATGCTGAGGGCACACCCACACAGGCATGCACGAGAAGGAAGAATGCCATAGTTGCCATTTCATAAGCACCACGAAGATAAACATCATGGGAAAAATAGCAACTTTAGGCTGGGCACGGTGGCTCATACCCATAATCCCAGCACTTTGGGAGGTCAAGGCAGGAGGATCACTTGAGGCCAGGAATGAGAGACCAGCCTG
0.733142172082519 CATGAATGCCAGATATACCAAATCCTCCCAGTAGCAGTATATATATCAGATGCAAAAAAAATCCTATTTGTCCTGAGGTACTTTGGCAGCTTTAGAAATATTTTATTAACTTAATTCATAATTTATAAGTTGCTTTCTTCAAAATATGATGGGAAATGGCTTACTGGCCATATTGCATTTCAAGCTGCAATGATAGAATTAGTAAGAAGTGGCATACGGAAGCCTCCCCAGCTCAGACCTGCTCCCTTACCCTGTCACCTTTATCACCTTGGCTTTCAGCACTTGCTCTAGCCCGGAAAGAGAGAACTACAGACATACCAGTGCTTAGATAAAGGCCGAAATCCGGCTACAGCTCTACTTACTGTATAACTTGACTCCCTAGTGTCTGGCACTTATCCCAAGCTTAAAAATAGATTTTAGTTACTTTCATCCATTTTATCAAGCAAATGGATATAAATCCTGCTAAATGCAAAAAGTTAATGACCTTCTCCTTGCATGTAACTAGAAGATGGTAGGTGATGAATCCTATCCACATTAGG
0.7370832083915433 ATTGTCAGATAGGATCATGTTACAGCCCTGCCTCCCTTGTTGGTCTGTATACTGGTAAACTGTGTGGCTGTTCCCTGCCTAACCAGCTTGCTGCTTTAAGGTGACCTGTCCTGAAATCCCAGACAAACACATTTCGTGATACAAGTTCTGCCCTCATTTCTATCTCAGAGCTATGTGTCTGGACCCTATGACTCTGCACCCTCTCATAGCTGAAGAGTGTTATCAAGAGTAAACACTCAGGATTGATAATGGTCTTTCAAAGGTCTAAAAACACACCCACAGTCCAATGACCTATTGAAAGGAGGATGAGTGGTTTCTTTTGATATCGGGCTGCTGGACAGACTTTAGTGAGTGAAAGATTATGCTGCTTATTTACCTGGAAAAAATCGACGTCATAAGGATGCCCCCAGGCCAGTGGGGAAATGTCCACTCTGTGTACATTGTATAGGGATTAAGACACAGCCTCCAAAGTCAAACCTACTTGTGACTGAATCCTGGCTGCACCACTTAATGTAT
0.01375354166399323 CATGCAGCTAAAGCAGGGAGTCAGATTGTTAGAATTTTGAAGATCAACCAATCTAGAGCTCAAATACTAGCACTCCATGGGCCGAATCTGGCCCAGACAAATATTTGTCTGACTTGCATGGTCACTTGGTGCTTTCTGATTGTTTTAATTTTGAATTAGTTGCCAACATTTAAAAATTAGAAAATTCTGAAAGCTAAAAAATCTAAATTTCCCTTGAAAATGTGAAAGAGCAGACAACACTTGGCCCTCATTCCTGAAGGAAACAATTTGTTAGATTAAGAAGGGGTGAGTCCTTCCAGACAGAGTATGCTTTCTAGATTAGCACAGTCCCTGTCAGCACCCATTATCTTGCACTCATTCTACTTCACTCATTTACATTATCAGCCTGGGCTCTGTGGTCTAACCTTTCCACTTTGCAAAAAAAAACTGAGAGGTCTAAGTGGTTTGGTCAAGGTCATAGATACAGGTACAGTGTTAATATCTGGCCCTAGGCCCGAGGCTTCTGGTTAAGCTCAGTGTGTTAACACTATCTTCATGGGCCCTTTGGAATCTATCAATGACCTGTAAACACCTAGAACACTCAATTTGCTGTTCCTTTACAGCCCTTACTACTTCTTACTTTCCACTGGAGTTACTTCTAGATGCTCAATTGGTCCTTTATTCATTTATCCACTTAGTGT
0.7706116960707345 AAATGGCTCCCATTCCCCAAGTTAGTCCCAGAAGCTGGACCCTCCCTGATTTGGTCCTCATTCTCCCAGAGAAGCGTGTTCCGTGATTGACTGTGTCCCCTCCCTCTGTCCTCTGTGCCTCTGCACTAAGTACCAGGAGGCCCTCGTCCTGTCCACACTCAGCCATCGCTCGGCCGGAGATACACATGCAGCTCCTCTAATCTTTCCCGGCAGCTCAGCCACCCCGCTCCCCTCACCCCCCATTCCATCCCTTGTTCCCCTTCCTCCTTAATCAAATTAAGGGAAAGAAGAGGATTTAGATAGGGTTGCTAAATATATTTCTGTTCAGGGGAGGGAGAAAAAGAGAAGAGTTTGGAGGAGGAGATAGAGTGTGAAATTCCTTAATAGAATGTGCTCTGAGAGCCTACTTTCTCCAGAATAAGCCGTGCAATCACCTATCTGGATAGAGTTTTCTCTTTGGCAAAGTGCTTTCACATACATTATCTCATTAAGATATGGGCCGGGGTGGCAGAGTGCCCACTCCCCGGAAAGGTCTGCCGAGGCCACTGGGCCTCGTGAGCTGGCCTGACCCTGGTCTATATATTTCACAGGACACCCTGGCCCCAAAGGGGTGACTCGGCTTTCTGTGGAGCATGACACCAGCAGCCGGGCTGCTGACGTCTGGAGGTCACAGTTTCCCTCTGTGTGTTCTCCCGACAGCAGATTCTAGATCTTTTTTAAAGTTTCACTTTTGAAAAACCAGAAGAGTGCTTAT
0.9819234790146975 GATTGCTACAACCAGTAAGTCACTTATTCTAGAAAAATACAGAAGTTAGGCAGGCTTAAAACCGCTTCTTCAACAGTTAAATTCATTTGCACATTCTACTCACCTCAACCAACCTCAGCAACAAGGGAATAAATAGCTTCCCACTTATGTTGCAGCTGAGGGAAGAGGTACAGCAGCAAATACAAGTCTCCCTAAATAAAGGCAAATATTTCTGTCATGCCAAGGAGGGAGGGAAAAAGGGAGGCTTGCCAGAGTCGGCTGGGAGATAACAGTGGGAACTGCTGGTCCATCTGGTTTTCATTCTGCTAACACTCACACGGAACTGTTAGAGAAGGCAGTCCAGATACACAGATTTGAAGCACGTGGTTGCACAGACAGAGAAAGGAAGAGCAGGAGGGGGAGGGGAAGTGGGAGTAACAAAAAAATAAATAAAGCAATAGGAGGAAAAAGAAGAGGAGGAAAAAGAACAAAATAGAGAGACAAGAGCCTGATGGGGGAGTAAGTTACCCTCAACAGCTTCCTTTACCCTCAGTGTCTACAAGCTGGACCTTAATGTGCACAGCCCCCTACCTGACTCAAGTTTATAGAGTTAAG
0.07538993855103683 TTAAGTAATTTGCCCAAGGTCACAGAATTGGAATTCCAACAGAGAGCAGCTGCCTATGGTGTTCTCAAAGGGAGGGCAATGCCAAACGAAAACAAGCAACAAGACTCTACTCATTGCAAGTGAGCAAAGGTTCTGATCAAATCTTCATTCTTGCTTCCAAATCACTTGCTGAAAAATTAAAACTAGATAAGTAAGGACAGCTGCCTTTATACCTTCTGGCCTATTCACAGGCAGATTTCCAGACGAAACCAAAGGCCTTCATGAGGAAAAACAAAGCTCCTCAGTCTCAGGGCAGCTAATGCTGGGCCTGGCATTTTTTCCACTCTTATCTAAAATATGCTACAGGAGAATCTAGGCCCAGTGATAAGCCAGGTTTCAACTTCACCTCCCCAGCCTGAGAGCGATTACACACATACTTGGGATTTAACCAGCAAGAGAAGGACACGGAAACCTGGGTCCCTCCGAGCCCAGTTTCTGTTGACACTGTTGCCAGGGCTGAGCCAATTGCACCAGTGTCAAGAGCTCCACAGGGAGGTTTCAGCAGGGAAACCAGCCCTACAGGTGTATCCAGGGAGGCAGGTGTACAAGGCCACATTCTTTCCTCCACTGAACAAATCAAGGTTTGTCTCCCTGCTGTGCGGGGCTCACAGGGCCAGATAAATCTCTCTCAGACAACAACCTCAGCACAGAAACAGTGTAGCTTGCTGCCACTCTGTAGCACC
0.08171919718091183 ATGAAGAAGGATAGAGTGAAGTGGCATTCTTTGGCCCAGGTAATATAATCATAGTAACAGCAAGCGCATACTAAGTGTTGACAATGTGACAGGCACCATGCTAAGCACTTAAGCACTTTACACGCATTATCTCAGATAAGTCACCTAACAGCTCTCTGAGTTGCTGTAGTAGGCACAAGCAGGACATCTAGCAGATGCAGGACATCTAAGTCAGATACTTTCCACTTTCCACAGTGTGACTTTATCAGGGACATCATAGCTGTTCTCTAGCCTGAGAAGAGGGCCAAGTGGGCAGAAACAGTCACGGGCTGTGTGACTCCTGCCTTCACTACCCATCAGCTGCTTTATCTTGGGCAAGTTAATTAACCCTATAAACCTTGGTTTCCTCATCTGTAAAACAGGAGGTAATAGGAGTTCTTACACCCTAGAATTGTATGAGAGTTCACCTGATGATTCACACAGGGCACAGCGCTTGGCCTGTCCACAGGATGCATTCAGGAGTCATGTGGCCTTTGCCACTGTGCAGTCCACTGCACTCACACTTCACTGTCACCCTGCTGGGGAGCAGGTGACCTGCAGGAGTGAACACAACA
0.4543225053242363 GGCTTGCCTGTAGAAACCTGACCTTTTAAGTTTAGGTGAATATGGACTAGCTGAACACACCATTGCCCTCAGCACTGAGCCAGGAAATCTACTGACAGGTTAAACAAAACAGAAGGTTGTAACTGTCATAATTTGCATTGCACTTTCACGCCAACAAGGGTGTTATCAGTAGGGGCAAGCCCTGGAACACACAACTCCAGCACCCTTAAGCCACGCTACTCATAAATTTTCAAGTGAAGTGAGATAAAACATAAATTCACAAATAGCAATGCATTTCTCATCTCTCAGTCTTTTAGGTTTGCACTTTGCAAACCCACAGAGTGCCCATCAACAACTCCTTTTGGTCACCTGGCACTCCCATTGCACTAATTAGGGACTTTCAATGACCATAACACAGAAGTAAAAATAACAATGCCCATTTAAGACCTATTTTAGAGAGACTATATAATATAGCAGATAGACTGACTGGTATATATGTCAAAATGAGAACAATTAGATCTCAATATGCTATCTTTTCT
0.1452817823754506 CCGGCCCGTACCTCAGTGCTTGGCTAAAGATTAGCACACAAACAATGTGGACTCAAAAATGGGTATGCTTACTGGCAGGTCAGGCTCCTCTATGACTCTTCAAGTTGTAAGATTCTTTCTTTAAAAACATTTAAAATAGAATTTGCATATTAAAGGACAGGAATTAATTATTAATTATTTGCCTAAGAAACAGCATTTGGATGGCATGAATCTAATGGAATCAGTAATATCCATGCATCTGTTGAAAACCAATCAACCCGTTTAAGATTTCAAATTACGATCTGAAATGTGAAAATGATTGGTAGATTATCAAACTCACTGGGCTGGACAGAGCAATATGTCAGCACCTTTGCCCACGTCCACAGCCTGAAAGCTTTTGAAGGTAAGCAGCGCCGTCATCATTTTGGCATTCTATTTTAGTCTAAGCCTACATCAGAAGCCTGCCAGGGCTCAGTGCTGATAACAAAGCACTATCGCTTTTCAAAGTGACAGAGCACAGTGACATATCAACACTAAGACTTAAACGAAAAGCCCCTTCTCATTTAACTGGGAATCTGCTGAAGCTGTATTCAGCCCAGCACTCGTTTTCAATTAAAACTTTCTTGTCGCAAGAGAAAAGTTTGGCATATCCTTTTCAACGACAGTTATGGAAGTGAGTGGAAAGGGTAGTGTAGTGTAGAGTATAGATGGTCCAGGAACAGCTAAGTACGTATCAGCCTTTTTCATCTACTAATTGCAGTACCTATGGTTCAACAAAAGTTTTACCTAATGACTCATGTTGCTGAAAGTCCTTCCTCTCAATACCACTGCTTTTCCAGGAATGCTACTCACACACAGCATATAAGGCAGTAAAGGGGACATGATGCATCAATAACTGAGTACCTGCT
1 GTGCGCTTTTGTCTTGCAGGGCCATGGGTGTCATCTCCTACCTCAGGTGAGCAGAGCCCTGCCCCATCAGCTGCCTCCTCCAAAGCTGACATGAGACCCCTCCCTTGTAGGCCCACCGAGGGCATGTGCACTGCTGGCTGCTCCCCATATCAGAAACCTGAGACCCAAGGGGCTACTATCTTGGGAACAGGCGGTCAGCCAACCCTGATAAGAGGTTCCTGCCCGGAGTGTCTCACAAACACCCTGTCATCAGAGGGCTGTGCTGGGTCACGAGGCAGCCAAACCACTGCCCTGCAGGACTGGGGGTTGTCCAGCAGCCGCTCATAACAGCCACTGCTGCCCTGAGGATGATGGTGGTATGGTATAGACTGAGCCTGGACCTCCTCAGCAGGCTGATCCTTAATTCCTAACTCAGGCTGATCTTGATCCC
0.5218511755505333 GGGGGTCTCGCATTGTCTGTTTGCACCTGCAGCCCTTCCCCCAGTGTGGCATGTCCTCATAATCTTTGACAACTTCATGGAATGCCCTCCTGGGAAATCCAATTTTATCCTTTTTGCTGCATTTCTGGGTGCATTTTAGCATTTCTTATGGATTAGCACTTCAAGCAGCCATTTCATAAGCTTATTCCCCATCTATCTTGGCATTTATACACAGACATCAAATTGTATTAGAATTGAAAATGGAAGGGGGAAGGAGGGAGAGGTGGAGAGTATCTGAGTAATCAATTTGGTTCTCTCCTGCCCTTAGGCTGTGTTGACACAGCTTAGCTCTCGCCTGCTCCTCCCAGGCAAGCTTATCTGCTGCACACTGAACTCCATTAATCTTCTTGAAAGGCAAATGTGTTCAGGACAATGTTAACACTTAGCTCTCCTGAAAAGAAGACAGATTCTATGAGGTACAGAGTCAGGGCTCCAGGGCCTGCACTGGCAGTTCAGACAGGCCTCAGCCAGAAGGATTCCGTGTGGAAA
0.3458408034814139 AAGGAGTCCAGTCCCTGTGGTTCTGAGCTGGTAAGTAGGAAAGAGAACTAGGAAACAGCTGTAACCACAATTTGTCGATTCCCTTACCATATGCTGAACATTGCTTGGCGTGCTTTGTGATCCCACCTGCAACCCACTCAAGTGATCATTGTATCTCCACTTAGAGCTAGGAAAATGAGGGCCCACAGGGGTTAATAGTTTGCCCAAGGCTGTATGCGAGTCCATGGCAGAGCTGGGGTGGTCTGACCATTGCCTTATCTGGCCTGGGGGCCGCCTTTCAGCCTGGAACAGGCAGTACTGATAACAGCTGACTTTCCAGCGGTCTTATCACTTTGTAAAGTGCTTCCACACACTGCGACCTCCCTTTGCTCTCACAGTGACAGGCCCAGGGAGTGGGGTGTAGTTGTCACTCCCTTTGTGTGCACATGAAGCTGAGACCCAGCCCAGCTTATCCTGCACTCTGAGGCAGAGCCAAGATGAGAATTTAGGAATCCTCACTTCTGGGCCAGTGCTGTTTTCACT
0.9354020804002003 GGGAGGATGCGTCTGTGGAAAAGGAACAGGGCTGGGCCCCCTTCTCACTGGTCCTAGATGGGATCAGGCCTGCCCAGAAGCCAAGAAAAAGATGTTGTATAGACCTCAATGGGGCAAGGCCGGGATGATTGAGGGGATACCTTCAGGGGAGGAGGTGCTAGGCAGTTTTCTGAAAATGGTGCGTTCAGACAGCTCACTATTTCCTGTAGTAATTCCAGGAAAAGACTGAGTAAGACAAGGTCAGGACCGGGAGGAATGCAGCTGGAGGAGGTGTGTATGCACAGTCTCCCCAGGGTGAGCCTGTCCAGAGCCATAAACCTTATCTCCTTCCTCTGAATAGCTGGGATAGCTATCTCTGGCTCCCAGGGGCTCAGGCTGAGTCAGGGCTGGAGGCTGGGAGAGACTGTGGGCCCCGAAGCATACCTAAAACTGTGAGACCACTCAGCACTTAGGTATGAATGGCGCCATTTAGGGTCTGAAATGGTCACCATTTTCAGAAACCTGCTCAACACCTCTTCCCCTGCAGGTATCCCCCTCCGTCATCCTGGCCTTGCCCCATTGATACCTGAAGTGTGGCACATTCAGGAATGAGATTGGAGCAAAAGGGATCTCTTTGGCGGAGGT
0.1775959222882671 ACGTGCGGTGTTCGAGAAGACTGTTATTGGTCAGAGTTTTGCTCTAGAGGACAAGTAGGACTGTAACATCTCTAGGATGGGTCACTTCCCAAGCCCTCTATTACTTAAAAATTCAAGGAGGAACCGATGCTGGAGTACTTGTATCTCAGACTTCTAATCACTGCTCCTACGCTTTTCCAATATTACAACAAAAGACCAGTAGGGGGAGAAAAACGCACAGTACCGAACCCTTATCAGTAGTAATCTCAAAAGTCAACAGATTGATTTACTCTCAAGCAAACAGACTTCTAAGGTACGCAGCACCAAGACACTACCTTGAATCAAATCTATAGCCTATATGACATTTCTGAAGTCTCTGTTGGCATTACGCGAAAAATCCCCCACGTCTTCTGAATAGTTAGAATTGAATCCTACAAGCTGCTTCGAATCAGAATTCGATTTAAAAAAAAAAATGAGGGCATAGCAAAAGGTCTCCACGAAGTGAGTCAAAGGACTGCAGAGGGCTGTGACAGTGCATTCCGCCTTCGGGATGGTATACAACTTAAACCATGTCGGCAGAAGAACGCACAGCAACGCTTTGTAAAAAGCATTCTTTCTATTATAGAATCCATAACCACGCTGGTTAGCCACTGACAGCGGCGGTTAGCCACCGCACCTCCTCTCACCCCCGAACTAATCTCGTTTCCTCTATGGGTGTAAAAGTGAAATAACCCACTTGCTCCCAATATTCCTTTCTATATCTCTACCCCAGCTCGCCTGCTGCTCGTAGAAACAAATATACTACACGTACGCTGTCCTAGGATGACACAACACCCTCACTACTGCAGAAGACGGATCATTAAACAAACGTCAGAAGAGCAGCCCCAACTGTACATAAACTTCGGGCGGAAAAGCAAGACGCAGGCGCAGTAGCACATATTG
0.6914684064867939 CCCTGAGGGGTTAAGAACATGGGTTTTCAAGTCAGGCCCTGGGCCTACTTTCCTGCATTCGCCACGGTGTGTGAGGCTCCTCAGGAGGGTGAGGCCTCACTGAGAGAATGACAGTATCCACATTCAAGCACCAGGCACAGCCCAGGCAGAGATAAGGACCCACGTCAGTGCCAGCCCCACCCACCTGACAGATAAGGCGGTGGTGCTCCCACAGGAGGCCCCAGAAATCCAGCCCAGCCCTCAGATCTCCCTTGGAGCTGCACTCCCTCAGCTCCTCATAGGCTGAGGGGCCTTGGGCAGACCCCTTCACCCCCTGGCACAATGGAAGCAGGGAGGTTTGGC
0.975226782261292 CTGCGGCCTCTTTGGGCCAGAGCTGTCAGTAACACAGCCAAGCAAGAGGGAGAGTGGTGCCAGGCAGCACAGGATGTGTTTGTGCTGCGGGAAGCAGGGTGGGTGGGTTCTGAGCACTCTCTCGCCTGCTCAGTGTGAATACACATGACAGAGCCAAGTGGAAATTCTGTGTGTATTATCTATTGTCCTGAGTTATCTGCCAGGCTACTCCTCACCAGTGCTGCAGAAAACACAGAGCTGATAAGGCAGCATTCCTCACAGCTGACCCAGAAGCAATCCCACTGGGCCAAGGTGATGGGGAGAGTAGCTGTTGGGCAACAGAGAAACAAAGGACAAATTCCCAATCTGTTTAGGTTCACAGGGGCCACTGCTTATTCAAGGTTTCTTCGTTTCCAAAAGCCAGCTGCCTGGGTACCCACCACCCACTCCTGCACGCTACCCTTTCTGGATTTGGGTTCTGCTGCCAGGGGACCCCCAGGCCCAAGGCTGGGG
0.3383701717885911 AAAAAGCCTTGGTATCTACGAAGCGCAGTAAAACAAGGTTTGCCTGTAGCTCGTACCTTATGGGGTTTTTATAAAAATAAAGTGAGTAAATATACGTGAATCCCGGTGATAAGTGCATGGGACATACATGCTAAGGATTCAATAAATATCAGCTATGAATGTGGAACTGTGTATTCAAGCTGTCCAGAGTGTCCCATGGAAGACCTGTAGTGCTGAAGAGTGACCTTTCTTGGGAGTGACAACACGACCATTTGAGGAGGAGCTAGTTAAAATTGGAGTCTTGGTTTTTCAAATAAAAATCCCAAAGCGCAAAGTGTATGAAGCCTTAATGTCCTCATTTATTTTGTGGTTTGATCTATGGGCTTTCCCATTTGGCAGTGGCAGAAGGGACTTCCCAAGTGCCCACTGCTATCTGCGCTCACCTTAAATATGCCCAACCAGAGTCTTATCTCCGACAGCTCATGCATCACCCTCCCTGGGAGAGGGAGCCCCGCTGACTTGCTGACAGACCCTCAGTTAATTTCTGGATTCTTTTTTTTCTCAGTTATTTATAGCTCAGCTGCTGATATTTCAAGCTCTCATTGCTAAGCAAGGAAAGGCTTGAATGCTGCGAGATGGCAGCTGAGTCCGGCGCTTGCTTCACTCTTCATCTAGTTTGTAAGGTGTGTCCCATGTCCATGGAAACACACTGGGGCATGGCCCCAGCCCCGGCGTGTTCTAGTGATGAG
0.9455742857580658 TGGGAATTGGTAACACTGCCATGAAGACCTAGGTGGGTAAGGTCATTCAGATGGAGCCAGTGGAAAGGATGTACCTTAAAACTGACTTTCTGAAGTATAATTCTCCATAGCTGCTGCTGAAGCCTGGAGGCCTCGACTCTGAAAGCTAAATAACTCTTCTTTATAAATGACTACTTCTCAAGGTTTCAGCAAAGATAGAAGGGAAAGATGAAAGGAGCAGTATGCTAGGAGTCAAAAGGGGGGAAGGAAACTCTGGAGATTGTCAAGGTCAGCAAACTGCCTCGAGAGAATTAGTTCTGATATAACACTTAACCTCTCCAAGGACCTCTGTATTTTTGGAAACAAGGAGACACTAGGGAGGCAGAGAAAGCCGCTAGGGAATGTTGTTCAGAGATTATACTCTCCTAATCAAGCTGAACTCTGTTAACCCTATGATGTTTGCCAAAAGTGACTGACTCTTCTGAATTTCTGATGGCTTCATATCTTATCCTTTCTTATCTTTTCCATTCTAAGTGCACAATGTGTAAGGAGTCCCTCGGAATAAAGCAGCCCTGGCATGCCATCGGGGATTGAAGTAGGAACGATTTAACAAGGGATACTTGGAAATGTTGTCATGTGCGAGTTGTAAATTTTCTTTTTTAATCTGGTGGAAAATTGGAATGGCATTTCTCTGTTTTGCCCAGCTATGCCAAAAATCTTCTTGGTCCCACATAGGCCTAGGAAGGATGTAGATGGCAATCACAAAACAAACAAAAAATGAGCAAACAAATAGAAGACCTCAAGCAACATTTTCTCTTGTTAATAGGTTAGCAACCTCATATTTGTATATTAAAGAGATCTGCATTATGTTAGGTTGATTTCATATAATTTCAGCTAAGTAGATCTAGTTTAAGGTCAGTGTTTTATTGAATCTTGTATTTTAGCTT
1 GAGACTTCCCAGGACTTACCACTACCCATTGCCATTACACAGACCTGTCCCATATCCCAGATCCCCAGCACACTGTCCTCTCCTTTCTGAAGTACTAATACCTGATATAATAAGCTAATAATTCTAACTGTTCATGGAATTTCTGGTCTTCTTAAACAATACCCTTTCCTTTGTTGACAGCCAGAGGAGTGATTTCAATGGGATATATTCCCAAATAGAAGAAAAAGATGCCGTGCTTGCAGGTCAAGGCTGGAAATATTTTACAATAGGCAGAGGCCTTTGGCATAGGCAGACATATTAAGCAGTCCTCACACTTGCTGTAATAAGAATCCAGACTTTGGAGCTTATCTTATCTGCAGTCAATATGAGTTTGGGCAGTCATTTCTTCATCTCTCCACCCAGGCTCAGGAAGTTGTTGACAGGATTTAGTGCTATAATATCTATAAGCTCTTAGCTCAGGGTAAGCTCTCGGGTTATCACTGACTATTTTTGAACAAGGGAAGCACCCTATAGTATTTTGTAACCTTCTCTTCTTCCTTTTCACCACATCCAATTTTTCCATCCAAGTAGTAGCTGAACAACTCTACTAATTTTCATTTGTTTCCATGACTTAAAATTTAGAAGGAATTTATATGTTTTAACAACAATGTCTTATGTGTAGAGAAGGTGCCCCCCAACCTTGATTTTGCATTTTTGATATCTTTAAAGTTTTCAGAATAGCATGAGATCAAACTTTTGTTGAAAACATTTTTTCCTCCACCATCACTTTCTCAAATCTCCAAAACACACAGGCTTGCTTTGAGTCTCTCTTTCTACTGGACTCTAATACTCATAATCAGAGGACTTCATCTTAGAGGAACAAGAAACCCAGTCCCCAAGTCCACCCTTCTTCCAACTAAACCAATAATATACCAGGTT
0.1553708061881053 ATTTACCCCGTGTATGAGCCGGAGATTTCACTGTTAGTGTTAAGTTACAGTGCCTTGCTGGTTGGGAGCTTGCCTTTTGAAAAGTTCAGGTCCAGCCCTCCTTTGCCTTATCTTGGGAAATGACTTTCTGCTAAAATAATTTCGGTTTGTACATATGCATGTCCATGCACACACCCCAGCTCCACACCATCCAGTGGGAAAGGGAGTCAGGGATTTCATGGTAGCTGTCATTTTGATGAATGTCCCTGTGTCCACCCACAGAGGCCGTGACATTCCTGCCTTTCCCACTTGATAATCTGAAAATCTCCCAAGCCTGATTGCCTTGCTATAGGCCTGCAACCTGGAATGCTGCATAGGTTCTGAGTTTCAATCCCCAGGGTCCGCACTGGCCAGGATCTGTAAGAGCCTGTGGGCTTGATGCTGATAAGGCAGAGAGCTAACGGGGGATTATCAGAGAGGGAGAGTGCCAGACAAGGTGCATTCCTCTGGGGATAGAGCAGCAGGACTTTGGGAGCTGGGACAATTGTGTGAAGCAGGACGTGATTGCGTGGTCTTGTTTCAGCCAGCCTCAGCTATCCCCTTTTATCTGCCCCCAGAGGCACTGTGCTTTTTAGGCCTCCTCACCTTCCCTCTGAAATGTGCTCCCCAATGTGCCCACCTCTTCTTTCTGTTTTCCAGCCTCTGCTGGGCAAAAGTGGGAAGTTGCTCTCAAGTGTTAAACGTGTTCACTCTCACCAAGTGGAAGATTTTACATTAGAATTCAATCATTCTGTTTACTTCCTTTAAAGTC
0.1652159440482427 GAAGCTTGTTCCCTCTCCCATCCATCCTGCGACTGACACTGAATATTAATACAGCTTCAGAAGCTTCTGTCCTTGCTCTCCTATAGCCAGTGACCATGTGGCCCTATGTTCCTCCCCCTCTCTAATCTGGGCCGTCAGACCCTTTCCAGAGGGAGACAATCAAAGCAGATTGGAAGCTGTTTGAAGAAAGAACAAATAGCTGAAAATCAATTTGCAGAGATAGTAGCAAGAATTACAGTTCTTTTTGTCTGCTTATTAACGGGCTCCAGCTAAGTATCAAATGGGAGAAGAGAATGCATTCCCAACACAGTAAGTGGCTGATTTGGAGATGTTATTAAAAAGAGTTGACAGAATTCATTCAGATTATGACCAATTTAATTTTGGAGGGCTTTAAGGGTTCTGTTTACTTCTCAGCTCATGGCTCTCTTGTGCCCAGAACTTGTACCCCAGGCCTGTGTTCATTCATTTCCATTTCTGAATTATCACAAGGACACGGAGATAACAAGGTCTGGTGACCAGAATATGGCTGTGGGAACTAAGAAATACTGTGATAACTGTCCTACAGCAATCTGGGGTTGGCCTTTGCATCAGCAGTGTGGCTGGCAGCAGGAAACGCATACTGTGAAATCACAGAGAACAAGTTTCATCCCCAGATCTGCTGGTCACTGGCTGTAGGGCCTTGGACAGGTCACTTAAACTATCTGAATCTCGAAGTTCTTATCTGTAAAATGGGCATTCTAACATTGAATTTACAGGGTTATTGTGCTGATCAAAGGGCATAGTTAGCAAATGTCCTTTATTCCAAATGTTGACCAAGATATACAATAAATAGCTGTTATTATTTCTTTTCTCTATTTTCTTCTTGGTAGCA
1 ATAAAATACATAAGCTATCCAAAGATTTCTCCCACACAAATACACACTCCCTCCTAGTCTTAAGCCTAAGGTAGGAGGTCCACCCTGCCTTTGTCATTTGGGAAGTGGTTCTGGTTCTCATCAGAAGAGATAGTGTGGGAATATCTCGGCAAGTGTGAGGAGGCTTATCTATTGTTGCCCCCAAGAACTCTCTGTTTTTTTATGTTAACTGGATTGCCCACTTATAAATCCAAACAAGGCTGTGCAGATGTCAGCTCAGCCAATAGCTAACCTCTCCTTTTTGTCCAACTATTAATAGAATGAGAATTGAGTCACATGAGTGAACTGACTGTATGTATATATAGAAAGTATTAAAATAGGGAGCATAAGGCTTATTGCTAATACTTTTTTGAAGCCACCAGAAG
0.4521390558574101 ACACCAAAATGGAACGGAAAGGTCTGGAAGTCACTGCTCTGTCCACAGCCCTGGCACCACTCCTGGGGAGGCTTCAAACTCCTGAGTCAGGCTCAGAATGAGCTCAGTCTTGCCAGGTTTGTCCCCTCCCCCAGTGCACAGCTGACCGCAGATGGGAAAGGGAGCTGGTGGCCAGGCAGGGGAAACCCAGCTGGGCCGAAGCCAGGGGCTGTGTATTTCAGGAGGAGGTGACAGAGCGGCAGCAGCACCAACTCAACTGTCAGTATCTGTGGGGCCAGCTAAGAGAAGGCAGCTATCTGGGATTACAAAACTCAAGGAGTCTATCTCTTCCCTCTTATCAGACTGACCTTTGGCAGCCTTGCAGCCTGTGAACAAACTGCCATTAACAACCCCTCCCCCGCTTCCTGTAAGCACAATTCTTTGTGACCAGCCCAGGACAGCCAGAGGCTGCCAGAAAGCCTGCCCCTTCCTCCCTGCTAGGGTGGGGCTTGGGGCCCATCTCTCCCCAGACCCCTCTATCCTATCCCTCCCTCTTGGACACAATCCAGGAAACCTTATGCTCTGCTCAAACTGGACTTCTCAAGGTCCCCACACGTCCCCTGCCT
0.4680639112612632 GCATGACTTATAAGAGGGCCGATGCTTATGTGTGTATACTGTATAAGTGTGCATCCTGGGGGGTTGATCTCTCATGCTGAGAAGGGGTTGGGTGAGTTTGAATGGCTAGAGGTCTCTTTCCAGCTCTCAGCCTGTACAAACTGAGGTGGATACACTGCTACTCATAAAGAATTAGGGCATCTGCTCCTCTCAGTTCCTATGAACTGATATGTAATGAGCCTCTGAAGGGACTTTGGCTCTAATTCAGTAGCTCAGGCACAACACTGACTCCCGGACCGGAGCCAGCACCTCATTAATCCTTGCACTATCTCTTCCAGGTGCTGACAGATAAACTATACTTGGACACAGAGCGAGTCTGGCTTTGCTCCACCACATATGAAGGTGAACGGGTGGGCTGTCAGCTCCTGATGCAGGGAGGGTTTGTGTGACAAGTATTGTGCCACTCTCACGATGACCTGGAAAGCTGCCCTTGTAAAATACTCCTTCCCATGATTGTGATTTCAGGCCTGCTTTGCCTGCATGGTGTTCTGACCAACCCTGCAAACTGTCTCTGGCTACACGTTTCCCC
0.926991070185922 TTTTCATGCTACAGAGAAGGTTTTTTACAGTCTTTCCATGTCAACATAAGGGCAATTATCACAGGTTCCTATGGTTCCTTTGAACTCTGGACAGACTTTGTACCATAACATATCTAATTTAGCTATTTTGAAAAGTAGACCAGTCAATTTAGAAAAAACTACCTAATCAAGCTGTCAAGTATTCTATGTTAGTCATATGTCATGATTCTAGATAAATTCCACAATATCACATGAAATTTTTGAAAGAATAGGTTTTGCTGGGGTAATAGGAAATCTTACGTGGCCAGGGACAATAAAGCTATAATTCTCTGGTGGTCAGGGTGAGGCACCATTCTGGGGATCATTCTTAAAAGAAGAAGTTGTTCTCCTATTTGCAGGGAGTGGTATCAGCCTTCAGCTGACAGCTGCTATGGGGATTATCTAAATTGTAGAGGGCAACCCCACTCAATGTCGTACCTTCCTGAAACTGCTGACATTCAATGAGTAGTAATGGCAAGACTCGGGGTGCCACACAGTCACAGGAATTATCTGAGGAATCCAGCTCCTGAGTATTTGGAGATCTTGGCAACTGTGGAATATTGTCCCCTCCTATTCATGTGGAAAACTGAGACTGGGTACAGCTCCAACATCTAGATAAAG
0.302932579203145 GGTTGGTATTTCAGTTCTCTCTTCTCCTTATAAAAATTATCCTCTCTTGTAGCATTTGAGGCTGGATGGAAATTTCATCTCTTGAAGTTAGAGTTGGGATCTATGCCAGTTTGAGTCATGGGAAGTAAATGTCATTCCTGAAGATGTGAATTTCACCTACCGACATACATTGAGTGCCTCATACCCAATCCACATTGCTAAGCACCGTAGAAGCACAGAGGAATGCAAGATAAGGTCCCTGTGCTCAGGGAGTGTGAAAGATATGCACACACACATCAAACCAAAATACAAAGCAGTCGGTACAGAGGAACACGGAAGGTGAAGAGAGGGTAAGGGCTTTATCATTGTGCGGAAAGGAGACAGTTCCGCTAGCTGTGGTGCTCAGGATAAGTTTAATGGTAAAATAGGCACTTACAGGAGACCTGGCAGTGGATAAGATTTGGATGGACAGAGAGAAGAGACAGCAGGAATTTCAGGTATGTGAGGAAATACATAACCATTCT
0.005186838345666349 TTCTGCAGTCACTCCCTCCCTCTTTGGAAGCAGAGGGTGCTAGCCTCCTACAGAGAGGACTGTGAGCTCCCCCCTTGTCACGGATGGCCCTGCAGTGCCAAGTGCTGACAGGAGGTCGTGGCTGCTTTCAGCGGAGCATTAGCCCTAATAGGTTTGGCAGGATTTTAAAATAATCAAAACAAAGCAGGTTAGAAGGTTTGATGGGGGAGGTATGTGGTGACTGCTTGAGCTCAGATCACATGGTATGTCCAGCAGCCTGGCCCAGAACAGCTCCAAGGCCTGATGCCAAGGGTCTGGGCTGAACAGAAATCTGAAGTGGCTTTATCAGAGAAATTAGTGTGTGATTAGAGCTGAGAAGAGTCACGAGTCTTAACTTCTGTTTAGCACTCCAAGAATAAGGTGTCCCGTGTGGTGCCAAATTACTCCCTCTGGGCAGTCTAAAGCATGAGTGGGATGCTTATCCAGGGAGCACGGTGGAGGAAAGGTGT
0.8112556466440681 AAAACCTCCAAACCTTGACCTCCCTGGGCAGCTCAGCCTGCCACCTGGCAGGGGCCCCTCTGGGGCTCACACTTGTTTTGGCCTTTGTGAACTGCGCAGAACCAGGGCTGACCCTGCCGAACTGTGGATGTGTGGCCAAGACAGGTCCCAGTGTCCTGCCCGGGCTGTGCATGTGAGGGAGGCGGTGATGCAACGTGATGGCATTTGTGACAGGGTGAGGGAAAGAGATTGCTGGCTGGGGCTTCAAGGGGTGTGATTAGATTACGGCGGAGTTGCCTGTTTGGCGGAGATGGAAGACTTGGTTCTGTTCATTTCATAGGCAGCGGATTCCCGCAGTTTCAGACTGGCCAGAGAAATCCATTTCTGGAGTAGTAGGCAGAAATGTGGAGCTGAGAGGCTCATTCCACAATGCTTCCCTGAGCTTTTGCTTTTTACTTCTTCACTTTTTTTCCTTCTCTGGCTTTCTTTTTCTAAGCTCGCACGCTTCCACAATGCTAAAACATCTGCTAATAAAGGTTTTA
0.2603446173644174 AAACATATTTTTCTTCAGAGTTTAGTTTTACTATCTTTGGAGACAATGACTCAGGCATCTCTTTGTTGCCTGCTCTCTAATTAGCAAGTTCTAAAGACATCGCACTCAGAAAAGAGGAAAAGTAGCCTTGATTTTGTTCAAAACTTCACTCATATCGTCCCCTAAATGAACTTCTAAAAATGCTATCAAGCTACTACAGAAGCTGATGAAAGGAGAAAGTACACCGCCTGTTACAACAAGCTTCCCTAGAAGCACAAGCCCAGCCCTCTGACACAGGCTTTCAAAGGTTGCCAAGGTCTTCAGACACACGTTTTATCAGACACCTATTTACTCTGTGACCCTCTAGAGTGCCAGTCAAGTGCTGGTGGGTTGTAAGATACACAGTTTTATCACCACTTCCTAACGTGAAGAGAACCAGAACCAGAACACAGGAGGGGAAGAGAAGGAAGAAGACTGGAAGGGTGAAGAGCAATTTTTCCAAATCAGTCTAAGGGAGAATTGGGCCATAGCATTTTTTTTTTCACATGAAAACATGATGAAAAAGAAGAAAAAAGGCCCACACGATTTGTTTTATGGACTTTCAGAAGAAACTGCCTCAATGCTCTGCATCCCAGGAGCTGTTAAACTCTCTCTTACTTCCAGGCCTCCCAGTGACTCCCTGCAGAGAAGGGCATTACTGAGATTGCAGCTGATTGCGGCTGAGCTGCTGCAGTCAGGCTGCACTCAGTTTGATAGTCCCAAGAGAAATGGAGCGTAGGACATTTAGGTTTCAGCATCACCAAGGCGTTTTCAACAGAGGCGAGTTCCTGATTATGAGGGAATGTGGCAGGTTTGTTTTACACAGTTATCAAAACCCCAAACATTTTAAGAGACCGAGCACTGAATATGTTATACAC
0.62978735923836 GTGTGTTCGTGAAACAAACAGGTTCCACAGCAACTTCCTGCTCCCCAGATCTCAGTCAAGGTGCTATGAACTTGGACCCTGATCTTCTGTTTGTAGTAGCAGTGGCAGTTCCCTTGACAGCTCCTGCTGCAGCAGTGTTCTGGGAGACATCCCTGGGGATTGAGCTGAGAGTCTGCTCTTGCAACCTTCAACAGTGCTCTAACACCAGTCAATATCAAATCCCTTTCTGCTTAAGTTAACCAGAGCAGTGTCTATGGGTAATTGAATCATGACTGATGCTATTATCAAATATAAACTGATGACAATGGCAAGTGGGAAACCTGCTGTTTTACAAATACCAGATGTGCATCACATGGAGGTTTATTCACTCCTATTTGCGTTTTGATAATAATCCTTTCTAATAATTGGTTCATTGGTGTAATCTTTATGAAATTAACCTGAGTGGCTCAAAATTCATTTTGTAGCACTGAATGCAATTACTAATTGAGCTATTTAAGCAAACTAGCCAGCCACCTACAGCTACTTAATCTTACTGGCCTACTATAGTAGCTCTGACTCACCCTTATCTTAACCAGATAAGGGATACCATACATTCTCTCTAAAGAACACCACTGACCTCACACACAGGGCTAAGTAGGCTATGCCTATTGTTAATATATCCAAATACCAGTTGAATACTCAGCAGGTCAACAGTATTTCCCATCCAGTTTATGCCAGCTGTGTAAGTATGAGATATAATTAAAAATTATGTAAATAGATTAGCTGTGAATACAGCGGTGTTATTGTTTCTACCAAATTTAAGTTGAATCCTTTGGAAAGCACCATTAAAGATGAGGTAATTTATTTTTAATCTCAAACGAGGTGTGGGAATTATAACAGTAAAAAGTTAAGAGATCGGGAATTTGTAAACATCTGCAAGGATTCTGGCTCATATTGCTTCTCAAGTATCCTAATTCTCATACTGTTATTAAAAACAAACCCACAAAAAAACGAA
1 ATTAAAGATCTATTTTTAAGTAGGATTGATAATGGTTGTGAGAAAAACCTTGCCCACCCCCTCCAGCAGTTAGGGACCCAGACAGGGAGTAAATAAAACCCATGGCAATGAACAAGTCACCAACAACTCAAGCATCTGAGACACAAGAGGCGAGAGATAAAATTTTCCTAGGTGTCTGCAACTTTGGAGATAAGGGCAGTGAGTGTGGGCAGATGGAGGCCCCAGGGAACCCTCTGTCTAGGCCCCCCTGCACTACATCACAGGTACCCTTCACAGGCCTAGTATCCATGCACTGTTCTTTTCCCCCCTTCTCCAGAGTTTGCTTTTTGGCTCATTCAGGTATTTTCCTTTCTGAGAGTCACTGGGGACTCAGAGCATCCTCAGGTTATCTGTCCTCAGGCCTAGCCGGCTCCTTGCTGGGTTCTGACCTCACCTCTGGCGTCAGTCTTATCAGGTGTGGACAGAATCGTCTCCCCAGCTCCTGGAGCTGCAAGCCCAGGATACTCCCCACACCCAGGCCTCATCCGGTATGATGGAGGAGGGCCAGGCACCTCTGGGACTAAACACAGTGGTCACCTGCCAAATCAAAATGACCACAGGGGTCTGCAAGCGAAGCCATGAGGCCCAGAATCAGGGAGGAAGGGTGGGGTTTACATAAGTGTTGACAAAGAACAGAGCAGATGCCATGCTCCGCCAAGCAGGAAAGAGGGAGGAGGATGCTGGGGAGAAACAGCAACCCTCTGCAGCCCAGGTCTTCATAGGGACACTAGCAAAGGGACAACAGGTCATGATGGGGATTTAGTGTC
1 GATTGTGCCCCTGTACTCCAGCCTGGGTGGCAGAGCAAGACCCTGCATCAGAAAAAAAAAAAAAAAAAAGCTCTGAAGGACCGCAGGGGTATGGGGTTTTCATAGCCCTGGAGTTATCTTATCTATGGCTGTCAGATATTGGATATAATTTCAGAGAATACAAAGCAGGCGCACTCGAAATGGCTAAAAATAGGCTTGTTCAGGCTATGTTTCAAACAATCCAGTGTGTTAAAATTGCAGTTTGGCAGGGGTAGGCTATTGTGAATACTAGTGAGACAAACATTGGTGTACAAATATCTCTGAGTCCCTGCTCTGAACAGTTTTGGATATGCCAAAGTGGAATATCTGGATCACATGGTAATTCTGTTTAATCGTTCTTTTTTTTTCTTTTTTTTGAGACAGGGTCTCACTCTATTGTCTAGGCTCGAATGCAGTGACGTGATCATGGATCACTGCAGTCCTCAACTTACTGGGCTCAGGTAATCCT
0.3479897596933419 GTTAAGTGCCTCCTCCCTTCTCCTCCCACCTGTCAGCCCCAACCCAACAGTCCATCCATCCCACAAGGCAGGGTGGCAATGGCTGTCAGCCACAAACGCTGCCCTAGACATGCCTCCATGGCACATATCAGCCAACCTCCCATCAGGAAGAAGTGACGGAGAGCTTTTTAAAAAAAAAAAAAGCAGCTAAGCAGCTGACACTGACATGAACGCCCCTGAATGCCCTCTTCCATGGGCCAGCTTTCCAGGGCACATCTTATCTGGGCAGTACACAGGGGGCTGGGGGAAGGGAGCTGCCTTAGGGATGAGTCATCCATGCCTCTACAGAGTTAGCTACAAGAGGGCTGGCAGAGACAGGGAAGAGTCAGCCCAGAGAAGTAGGGCCCATCTAGGGGTAGGAATGCATCCTTTCTTCCCACAGAGCCTGGGCTGGTGGAGCTGCTGGAGCTCACTCCCACCCA
1 CAGCCACTCTGCCACCCTGAGGCTCCCACTCCTCCTTCTCTGGAACCCTCTCCCTTGCCTGTAGGTCACGGGAATGTCAAGAGCACCCAGGGAAGTGCCTGCTGCCAGTCATCACTCACTGATTATGTGACAGCAGAGGAGCCAAGAAGCTGCTGGGAATCGAGACACCCCCCCATTCAGTCCCCACCATCTCTGTCTTCATGAGGTTCCCTGGGAGAAGCTCCTATGTCTGGGAATGGAAATGTCTCCACCTGGATAGGGACAAACAGGAGCTGGGGGCTGCATCTTAAGACTTCTTGTCCCATTAGTGCTGACCTCTGGAGACGGCTCCTGAATTGTGCCCACTCCCCCACCTCCTCACCACACACATGCTCTGGGCCGTGCGAGGCTCAGCTTGTCACGGACAAGCTAAAATGAGGTGGCCTGAATGCCCCTTATCATAGACAGCTTATCTCCTGTGGTCACTCACCTGACAGACTCCAGAGAGCCACTCAGCGGGCCTCTCCCAGCCGCCTGCTTCTCAGCTCTGACTCTCCCTTGCCTTAAGGGGACACTGGATTCCAGTGACCCTCCTATTGGTCAGAGTTGGGCTGAGCACAGAGAAGGGGTAGAATGCTCCTGGGAACTCGGAAAGCTCTGGGATGCCAGCTTTTCCCACATGTTCTCACTCACCCCTCTGTAATACAGATTCTGCAGCCCTGCCCCCCACACACACACTCCTACACCTCTGCTCTCAAAGTGAAGAAGTAGGCTAATATCTGTGGTACATTTATTTACCTACT
0.3797474249571257 ATCCCTTTAAATATGTCCCTCTTGCTCTGGTGTGTTGCTGTAGGGGAGGGGAAAGGCATGTGGGATTACAGCTAGGCCCCCGGGAATGTCACATAATCACTAGCTCAGCTTATCTGTGCTCAGCCTCTTGTGCATGCTGTTACTGATGTGTCATGAATACTTGAAGAGGTTACACATCCTTGCAATTCTTTGCCTCTTCACAGTTTGGTTTATTCAAAACATGGGTCTAGTCTGTAGTTTAGAACATAGCTTGTCACAGCAGACTGACTTTGGGGCATCTGTCTTTGCTGC
0.01710539072680013 CAGCCTCTGGACAGTTGTGTGTCTGCTGGTCATTTCAGAAGGCCAGGGTTACTTGGATTCATTCAGGGAAAGAGCTCAGCTCACACTGATTACTCTGCCAAAAGGAAAGAACAGGAGGTTAAAAATAGACAACCCCATTGAGTTTATCGTGAGAGAGAAAGGAGCGAACGAGAGAGAATTGCCACGCCCCTAGTATGGTGACACTAAGTGCCTGTTATTTTTGCTGTTATCTTAAATGTGGAGGACAGCTTCAAGCTCTTTCCTTATCAGCTGATGTTTGATAACAAATGGAAAAAAAAATTACATCCTGACAACCCAAATTAGTTTTGCCACCGAAACTATGCCATTGTAACCATGGACTTTGAAACAAGTAAGTCTTTGACCTGGTTATCAATCTTTTCAAGATTTTTGAAATCTCTCTGATGCAAAGAGAACTACCAAAGTGTACTTTAAAAAAGTTTTGGTATTTGTCTTGGGGTTAAGTCACAAATTGCTTAAAACACATTTTTAGATTAATCTGCTTTTCTAAAACTTACTGTTCTTTGCTAAATGAAGTTTAGATGGAATAGCCACATTTTCTCAGAGCCTCAGATTTCTTAGGAATTTTTAAAAAATATTTCAACCAGCATTTATAAATAGGTGCCTATCATTTCAGATTTTCTTTGTGACTATTCTGCTCCATTGGACAAGGTTTTCAAGTTCAGTTATTAATACCATGAGAAAGCAAAATACTTTGCTGTTACCTTTTAATTGCAGCAAGAAAATGTTTTCTGTGTGGTTAAAAGTTATTAAGACATATATTTTGCTGCAATTAAAAACAAAAACAAAAAGGAAAGTACTGTGCTTCAGGCTTTTTATTCCCTACCCCCACCTCCTGTTCAGGAAAATTATAGCCAGCTTCAAATCAGTGCCCCACATTGGTAGATTAATCCTATTGCTAGAAACTCAGCCTGTGTCACAAGTTGTCTGTGGTATTAAACAGCAGCTGTTGGATTCCCTGTCAAAGAACAGCTGAAAATAACACTAAAGTTTAGGTCAGAAGTCAGATGCAAACATATCAGAGTTACTAACTCCAAAGCTGCTGGAAGCATTGGAAATCTCTGGGACAAAGCCACAACAGAGAATATAGCAAAAAACAGTTTTAATGAATCCACTTGCTCTGTAAACCTTTTAGCCCAATTTAATAGTA
0.8777425804779186 ACATATCAGTGACTCAAAACCTCTACAGTAAATGAACTTTCTGATGTCTAACCCCAATTTCTTCTTGTTTCCATTTGAACTCATTTCTTTTATTTGTCTTCCGTGTAACTGACAGCAGCTGCTCACAATCATTCAGATCCCATTAGATAGTGACCTTTTCTTTACATGATTGATCATTACATCTCATGATCATTCCATACAGTGATTTTCATTTGACTATAACTGGTCATCAAACAGTTCTGAGAGCATTCCTCAACCTCTTAATATTCCTTCCAATTATAAAACAAATAGACATTAAATTCAGAAATTAATGCTTTTTGCCATTATCTCACTTGAAACATCTTCCATTTACTATGAATTAGCTTTTGGTTGAAAGTAAAATCCCTTCAAACATATTCCATCTTTGCTTCCTTTTCCCCACTCCCATGCCAAAGCACAAGCATCCAGGCCATATCTTATCTTTTCCTGCACAGTATCCAATCGGCTTTTTATAGCCAGAAACTCTCTGAATGCAAAGCACGACCTTGGCTACCAGCTTCCCCTGGCAATAGTTCGAAAGTTATTTATAACTTTAAAATTAGCGTGAAAGCCTACGTTTCTCATAACTAGTCAAAACATTCCTATTTCATACAATAATGTGATCTTCCTCAGTTCAGAAGAAAACCCCAAATTTTAAACCTATGATTATAACTAAGACACAGGAATTCAATGCAGAAATGAGAATTCGCTGAAGTTCAGCTCTTCTCTTTACAAACTTGATTCTTACCTTTCTGTTTCTTCCTATAAAGTAAATGGGCTTAAAATTCAGCTCCCGTAGGGAATTTTCCAAAAAGAGCTTTGTGGGGGACGGAAAAAGGCTTCTTGGTGGTCACAGAGTTACAGAGTACCAAATTGAGAGGCAGATGACAGTGGGGCAGTCAATTTCGCTGAGCGTTGTTCACCCAGGATAAGAAAGAAAGGGGAGGTTACAAGCCAGGGTGGGTGGTATCTAATCCTGAACCGCTAGTCACTGACCTCACTGACAACTTGTTACTGAAAATACTTCGTTGAAAAAGGCCAGACACATACTTTGCCTAGAGACCTACAAACATAGCTCTGAATAAGTTTAGATTTGCATTTCTCTAGTTCCTTTCCAAAAGAAGAACCTCTTCTATCTAATTAAAGCCAAAGGCTGGAATTATTGAAAGTGAAAAATGATAAAGCAGGGAAAACAAGAGTCCAGGAAATCCTCACATCAAAAGATCAATTATGTAAAATTCAATGTCTTCAGAACCCTAGAGATGATGGCATCAAGGCCATGTGTCACATCTGA
0.09533246721122331 GCTGTTAAATAATAAAATACTCAAACATAAGATTGATTCAGAAAATAGCTTCTTAAGCTCAAAAATATTGCTAGAATTGTTCTCAATAATAGAACAAGTAGTTTTTGCAATGAGATTAAATAGGAGAAAGCAACCATCTTTAATTCTATTTAGTCAGAAGAGCCTTATGCTTCCAATAGCTGACATTCAACTTGGACCGTATCTGTGGCCAGGTTGATAATTCTTTTGGGAAACATGCCACTGCACTTGAGTTTTCAGATGATTGTGTCAATATTGACGTGTCGAAGAAATGAACTGCATGCCTCTCTGATAAAAGGTATCTGGTGAAGGGATTAGCAAAGGACAAGTCAGTTAGAGCAATAAACATTCCTTTCATTAGTAACGTTTGAGCAGTTCCTAAGGACATTTTGCTGCCCTTAAAATTATTCCAGAAAATGCTTACTGCTATTTGAGATGTGCAGCGGGGCAGACCTCTGGATACTTCTAAGGCTTGGTATGCTTTGTACTGGGTGATGCTGCCATACAGCTTGGACTCCAGCACCCAGGAGGCTCAGGCCAGGGATGGATTGGCTCCTGTGGAGTGAGTCAAGCCCAGTCAAGGAAACTTGGGTCAAGAAGATAAAAATTCCATCAACTAACACTTAAGAGACATTGCACTTCTTTTCCTTTGGTGACTGCCAATGTGATAACTTACAGAAGGGGAAA
0.04772323072297953 CATCAAAATGTTTTTACCACGTGCTAGGTGCTAAGCATTCAGTAGCAATTAAACCCAGTCACTGCCCCAAGGAATTTTAAATCTAGAATTAGCAGTATCAAGTGCTGTCCCCTGTCTTTTCAGCAAGATAATAATACACACAAGTGGCTAACGTGAAAGAACAAGATATCAGGCACACAGAGTATCAGAGGCCAAGACTGTGGGCCCTCTTGTACTCCCAGCAGGTGCAGCACTTCCCACTCCTACGTGACTGAGCCGTGAGTAGCAGAAGAGTCAGGCGCTACTCTGGGTTCAGCCTGAGTCAAGGCCTGTCCAAAACAACTCTTACACAAGAGATTACATCTGCCAACACTGCCTCAGCAACAGCTCCAACTACAACAAAAGCCAGCCAAATGCAGCTAGATTTATTGTCCCACTAGGCTTTCAACATAGGACTTGATAATCAAAGCAACCATGTATTACAACATGCAGCTAAATGTTTATATTTTATAA
0.3437226608409943 AGCCCTGATTCCGCTGAGCCCAGTGTGGTTCTGCTGCACTCCACTGCCTGCCTTGGAGGAAGGAAGGGCAAAGGTTGTCAAAACCCCGCCTCGCGCTGCTGGCCTGCCAGCCTTTTCATCACCTCTGCTATCACAAAGTACTGGTGTGAATAAGTGTCACTTGAATAATACTGTAATCTTATCAGCATGCTGAAAGATATAAACGGAAACAGCCCTTTTCTCTCCTGCCTTCTCAGCTGACAAGCCGACCAAAGCCAAGGTTAATTCGTTGTTGAGAATTTCTCTGCCCTCTACCACAAATCTTTTATCTGGCATGTTTGTTCATCTTTCCTCTAATAGAGGTTCACACTTGCAGAGGAAGAAGGTGGGCCCAGAAATGAAACTCTGGGAGTGTGTTCTTGTCCAGCACGGAGTTCCCAAGCCAGGGAACACCCCCACCACGCCTGACCAGCCCTT
0.9580820074746546 ATATATTTTTTCATACATATATATACACATGTAGAGACACATGCTGAAGGTTTCCCACTGCTGTCTAATTTCCAAGTTACTTGTGTGTCAACAGGTGCTTTTGACAGCCTTATCAGACCACTGTAGGATCCACTCATGGACGTCCCAAGCTGGAGCTTGACGGGACAGCTAGTCTCCATGGGAACAACTGTGACATCATGGTCACTAACTGTGGACCTAGTAAGTGATCCTGGCAGGAGAAAGCTGTTAGTGACAATGGAGGAGAAGGCTTCTGTCGTCACACAAATGCGTTTAGCAATTGATAGAGATGGGAAAGAAACCAGCAAGAGTTCTATCCAATTCCTTCAAAAAGCATAC
1 GGGTTCTTCCATTTGTTCATTTTAAGGGGAATGCATAGTAACAGTTGTGATTTGTCCTTATAGTTGAGCCTTCAACCCTGTGACACTATAAATAAACTGCTCCTGGAGCTGCGGAAATTGCCCATTATCTCCAAGAGCATGTTCTGATAAGAGTCCATCAACATGAAGCCAAAACTCATTCAGAGCATCAAGAGAGGAAAGTTTCTAGTGATGGTTTGGTCATGGTCTCTTTCAGGATGATTGCATGGCAGAGGAAGGAATAAAACTGTGAAAGAATTAAAGTTGG
1 TGGGATCAAATGAAATTATACATCTCAACAGCCCTTTCTAGTTTGCAGAGCTCTCTGAACATTCAGCTCATTTCGTCCTCCTGCCACCTGGCCCTGGGAGCTGCAGCTGCATCTATGATGCCCATCTAGACTCCACCAGGCTGCAGCGCCACCTGTCTGCAGAACAGAGCTGCAGAGATGACTACCACTGATAAGAATGCATCTGTGACCACCTAGGGATGCCCATTCTGTCCCAGACACTGCGCTAGCACTTGATGCACACATGACCTCATTTTCTTCACAACTACCATATAAGGTAGGTACTTTCCTCCCTTATATTTCAGAAAACTGAGACTGGAAGAGGTGAAGTGACTTGACTGGGACCACAGATTCCTAAGTGGCAGGATGAAATTCCAACCGAGTTCTGCTTGACTCCAAAGTCTGTGTTCTTTCTACTTCCCCACCCTGCTGCCCAGGATCTAAAAGGTTCCTCTGCCCATATTCACCTGGGAGTACCTGCTCATCTTCTGAGGTTCAGCTTATCTGTAATCCCATTCCTGAACCCCCTCTTCTTCCCCACTGGTAGAACTGGCCTCTTCCTTCATTGTGTCTCCACTAGA
0.7590247468812675 CAATAATTATCTAAAATAAAATAAATGCTTAAAACAATAATGTGGCGGTTAACAATAACAAAATGGAGTCACTTATGTCAAAACTTTAACCAAAATGAAGTCGGGGAAGGCCATAAAGAAACTCTCTCCCTTGCATTCCTGAAATATCTGGACATCTTGTTAGTACTTGTACACAGAGCAAACAGAGATTATCACAGGAATTTCCTCTGGCCTACAGTATTTCAGATAAGACATTCAGACCTGGACAGTTGCCTAGCAACAGCTATCTCCCCAAATGAATTAGTGCCAACCCCTGCAATGTGTCCCTGAGACCAATGAGCTTTGTTTCAAAGCAGTTTGTGTAAATTTCTCTTTGTCTTTAAAAATTTCCAGTTTGTCCCAGTTTTCCTCATGTGGGCCCATGATTTTCATAGCATGTACACCCTAGGTTGCAAGCCTTTGCTATTACCAAATAAACTCTTTTGTTCTAGACAGCCTATCTCTCTGAGTTTCTTTTTTAGGTTGACAAATGAAATGAAAACTCCTTCTCAGGATCGATCCCTCACAAACCCAAGAAGCAATCACCACTGGTCAGAATTTTTAAAATTCAGTGTCTTTTCCATATTCTAACTTCCTCTTGTAATTAATCATGATATCAAA
0.6743314255212843 CTCCCTCTGCATGCAACAAGATGCCTACAGAGCTGCTGCAGAGACAGGCTGGGAAGGATGGCAAGGGTGAGAGAAGGGCACAGGGGAACCAGTGGCCCTTACCTGTGGTTTTAGGGTTCTGTCTTCTGTCCTCCAGCCCGATGAGCAGGGACAGCTGCTGTGCAGGCGGACTGCCTGGTTGGATGGCCCCAACCTTCTGTGCAGCTGCCAGCCAGCTGCGCTGCCCTTGTCAGTGGCGCTATAAATAAGGCACGTCTGGACATTGGCCAGGCCTAGGAGATAAGAACCCAGCCCCTGGCTCCCACGTGCCTTTTAAGGTCTCCAGATTAAAGAAGCCTCAGCTCCCAGATGGGAAGGGGCTGCCATGTCCTCGTTTGTCCTGCCTGCTTCAAGGACACACGAGGCCTCATATTTTCCAGGAATCCAAAGGGTGGCTAAACTGGGAAGGCCACCAGCACCAGAAAGGGACCTCACTTTGTCATACAAGAGGCAGAGCCTCCAACAGGCTGCTCAGCTCCACCTCTGTGCACCCCCCAG
0.6331706187599008 GCTGTGGCATGATAAGAGTACATGTGTGTGTTGATGAGGGTAGGAGGTCTGCAGCCGTCAGAGCATAGCTCGAGCATGTGTGTGGCCATGTGCCCAGCACATGCTCCATCACTGTAGCACCTGGCACATGCTCTGTCACTGTAACACCCAGTGACACGTGACTAAGCATGCCCTAATGTGTCTGCTTTAAGCTGTGCATGTGACTGAGTGTGGGTGGTATGTACCTCTCTGTGTGACTGCGAGGTTGGACATACCTGGGGAGGAAGGGGCTGTAAGCTGTGGATGTGCTCACCATAAATGCCCTAAGATCAGGATGTCACCCGGAATACTTGTGGCTATTAAAAGAAGGCCAGCTGTCGGCCCAAGTGCCTATGGAACGGAATGTTGATGGCGATTAGAGAAGGCCATATTCTGGAACACTGGAAATGTCGTGTGCACAGGCTCCCAAGCAGCCCTTCGCCCCAGCTGACAGCTCCCCATCTGCCCCTCCTGTCACACCCACACAACACCCTCAGCTCAGCTCCTGGGCTCTCTCCAGCTTCCCTAGCTAGTCCAAGGCCAAAGGCACATTCCTGCCTGCCTTTCTTCCTGAGTGCTGTGCCCCTGTGCATCCAAGAACGAAAGCCCTGGGCTGTACCTGCAGTCGGGGAGCCTCAGCCTCCCTCAGCATTCCCCCCGGGGGCCCCGCACCCTGTCCTGGAGCCCAGGCACTGTGCATGCCATAAACGCCAGGACAAAGGCCTGGCAGTGACCCCCAGGCTGGCCAGGCACTGATGAAAGACACAGTGCCTGTCTTGGAGGGATAGGCTCAGGGGGGTTGCTGGGCAGCCATCAACAATCACCAAACACATGTGATAAGCGCTGCCATTGAGGTGTGAGCACGCAGGGTACTGAAAGCAGAGGCAAGTCCCTGAGGTTCCCCAGGAAGATAGAGGTGAAGCAGGGATCTGCAGGCAGCAGGGGTGGGGAGTGGGGGGAGCACTGAGCTGTCCAGGATGAGGATACAGCCTGTGTGACTGTGCAAACACAGGGGCACAGGGGAGGGAGCTCAATA
0.0409159329901994 TTTAGTATCCATTCGGGACACTGGGTTGAGAACTGGAATTAGAAGCTGTGATTGGTCCAATCCAAGGTTGCAGTGAGGGGGATACAGGTTACATGTGCAGCTGTTGCTTCTGATGTGTTTCTCCAGCCTGAACTACTTCTACTCTCCACGTTCTGCTCCATTCTTTAAAGACCCCCTGCTTTTGGGAGGCCTTTCTCAGCCTGTGCTATCTACAGAAGTTTTTCCTCTGAACTCACAGTAACTCTCAGTGTTGCTATTTTGGTCCTTAAGCATACATTCTCTTTGAATGCTTATCTCTGGATGCCTGAGAGAGAGAGAGAGAGAGTGTGTGTGTGTGTGTGTTTGTGTGTGTGTCACCTGTCTAACTTGACTGCAAGCAACTTGAGAGCAAGACCATTTATCATACTTCCTGGTATAGCCTCCAGTATCATGTAGAGAACTAACAGACGGGCAGACATGTGGTTACAAAGTAGGTTCCCCTACTTTATAGGGGATATATATATCTCATATATATATATAAATTCATTC
1 TCACACACTCCTATAGACACATACATGTATTCACACATATGCATTTGTAAAACATTCACATTGATACATGTATACACACATTTAAACTCCCTTTCTAAAAGAAAGATTCATAATTTTCTAAGATTACACTAAGTCTCTGTGTTTGCCAAACATGACAGCATGATAGGGAGGGAATTAAGGCCCTTGTGCTATCATATCTCGCTGGGCAAGCACAAGGCAGGAGGTGTGCTAGAGGCTGCTCTTGCTGGGAACAGCCCAGCACGTAAAGTTAACCTTGAGATCAACACCGTCAGTGAGATGAGTTACAGGACTTCATGGCAGAGCATCACAGAAACTCAGGAACATATCAAAGCATTCGTCACTCTGGTGGCAGGAAATAAGATGAAAGAATTTAGAGAATTGCAATCACACATAATAGCGTTATCACTGGTGACTAGAATTTGAATTATGTGCACATAGACTTCTCCCCCAGTAGGTACTGCTCACAAGCACTTAAGGAAAAGGGGGTTCTGGATAAAATCAATTAGAGACCAGTTACATGAAGTTGGGCAAATGCTATAGAGTATAAACAGTAGGACAGAGTGCAGCCAGGGTGGGTGAAATTCAATTGTGAGTAATAAGTGCAGTTTTGGCAGCATTGCTGGGGAATATTTTTTTCCCTTGGGGATGTGAGAGCTTAATACTGTCATTATGATGGACATGCAATCACTGAGACTCCTGCATGGGACATTCTTTGTTTGCACTCCTCAGTATCTACCACGGCATGCTGTAGGTGTGAGGGGAACTGTATAGGTTGAGCCCTTTTACCAAGGGCAGAGATCAAGGCAGCCACAGCTGGAAATTCTCTCCATATTCCTTGAAGTTGGCAGACAATCAGAATCACCATAAAAAA
0.557813388150484 ATGAGCTGAACTATTTTAGATGTTACGTATCAGTGGACTCATGCAGCATTTGTCTTTCTGAGTTGGCTTATTTCACTTAGCATAATGTCCTTTGGGTAGATCCATGTTGTTGCAAATAGCAGGATTATCTTCATTTGTAAAGGCTGAGTAATATTCCATTGTGTATAGATGCCAGATTTTCTTTATTCATTCATCTGTGGAAGGACATTTAGGTCATTTCCATATCTTGGCTATTGTGAATAACACCACAATAAATCTTGATGAAATCTCATTGAGAAATAAACAACGTGTAACTATGATTGCTTTTAAACCTGAGGAATGGCTGCTGCCCAGACTGAAAGAAAATCGAAAATACTGCTGTTATCTGACTCCCAGAATAGCCGGCTCCTCCTCACTTAACTCTTACAGTTAATCTCCAGCCCCCAGAGGTGGGCCTCTTACACTTCCTTATCAGGGCACAGAGCATTTCTCAGGCGCTCTTTCCATACACGAAGGACCATAGTTTTAGCTGCAAGATCTGAGTTTATGTCCAGTCTTTATTTAACAAACAAATGTGTTCTAAGCTGCATTTTGCTTTCTACTTCCTGAAGTTAATAACTATTCTCATTGCGCGCTCCTTTCCCAGCAAAAAATTGTGGGACTTGAATAATGGAGTATTTTCCTGTCTCCAGTTGGATGACAAGAA
0.675584145330537 TTTTTTTTGCACTAATCACAGCAAGTAAGTCTTCAAACAGAAACCAAGTAAAAATAGCATCATACCTGAACCTGGGAATTGGAATCCTCAAAGACCCATAAATATTCAGGGCTTTGAGATCCAGATATGGGGTGAGACAGCTGCTTTGATGGAGTATTTGAATGTTTGCTCCAAAGAGAATAGAAAGGAGAGGAAAGTACTTGAATAATCTTTCACCACCAAGCTGCCTCTGAATTTCTAAATAAAGCCTTGAGTGGAGGGAAGATAACATGAGGAGCCTGCACACCATCACTCCGCACTCTCATAAGGCTTGCAGTTGGGCGACCCAGCCATAACCATTTGGTAAAAATGTTACACTGAAGGGAAATATGGAGGTTGAAACTGCCAGGCACGATCATTTCACCAGCTATCCAGCCTCGAAATGGTACCTTATGCAAATTTTGATTTTTATCCCTCAAG
0.4401703761531868 CTCAGAGCCTTCCTGTATCCACACAGTAACTTTCCACTGGCCTGGAGTTGGCCACTGCACATGCTGGCTGCACGCTCCCCCAGTGTGGCCTCCTGGTTCCCTCCCCACAGGCGCCCCTCTGGGGGTTGGAGGGCTGACGCACACCCTGCCTGAGATCCCAGCCGCCTGGAAGCTGATAAGGAGCCCTGGCCTCATTACATGGGACCAGCTGGAGGGACTGGCCCTGGCTGTTAGCATCAGCTGGATGGCTTCCAAATTGGAGAGATGCAGAGATAAGTGGGGGAGCACTTAGGGACTCTGGGCTGAGTGAGTGGCCAGTGAAGCTAGAAGAGATGTGGACTGTGCCAACTATGAAGACCTCAGGAGGCCTGGCTGGGGACGAGCCAGCAAACAGCAGCTGACAGGAAGGGTTTAGGAAATAAGAGGTGCAGAAGGGACTCCCACACAGCCTCGGGTTAGGGCTGAGGCAGAGCAGGGACTCC
0.3429584162371096 CAGGAGGTCGAGGAAAGAACAGCCCCTCTCACCTGGCGTCGGTGGCAGCTGAACCCTGGGCCCGACTGTGCGATTTAAGGGGTGCCCTGGGGGTGAGACCGCCCCCCCACCCAACTGCCTTATCTGGCCAGACCCGGCTCTGTGAGCTAAATCGGGCAGCAGCTGTCACCACCAGGGGGTGTGGGACAGCTGTCCCCCTCCCCCCGCACCTGCCCTGCGCCTGCCTCTTGACCACAGCCCCTCCCTCTCCCTTTCTGCAGCCTGGGGGTGTGGAGAGGCCACTGGCATCTGTGCGGGGCGCCCCAGCCCCCTCAGCTCTGGGA
0.8202701980965289 GTTTCTGAATAAACAGAAGCAGCCTTGTAAATTGAACCTATGGACTTATTGAACAATAGGAAGAGTTCAAAATTTGCATGCCTTTGGAAGCAGGTATCTCATAGTCATCTTTATGTCACTGCTCAGGATTTTAAAGTTATGTGAAATAGGTCCATCATGCAAAATGTTCTAAGTAGAAAGTCACTTTCTTCTGTGAGGCTAAGAGAACTGCGCTGTGCACTCCAGGTATTTTTTCCATTCATTTGCTCAAAGATAAGCAGCAATCTATTACACTCTTGTAGGGCTGCCTTCAGACACTATTTCTGACCACCACTTGTGGGAATGGTTTATGAGATGTCAGTGTGTGTGAGAAGAGATAGCATAGTTTGTCATGGGAAGATAGGCCATATTCTGCTACAAACTGATGGCTTTGTCTTTTATCACTGTTACAGGCTTATTTAACAAGCTGTGACTCTGGGGTTCATCACAAAGAAAACTGTCATCCCCAGACACGTGGCCTGAACATCCTTTCATCTTCCATGCCAGTAGGATCTGTCATGTGACATCAAGCAGACCAGAAACTCCAGATGGACCATGCGGCTGCAACTGTGTAACAAGGAAGGTTTATACTGGCATAGATCCAGGCTTTGCACCTTTGATTAGATTACACGGATGGGAAAAACATATGTAAGCTTTTAAGTTGTGCACACTGATAATATGTCACAAATATCACCTTAAAGGAAATGGTACAACTCATTGGGTTTAGGTGATAATTATTTATCATGGTGTTATTCTGAGTAACAGATAAATCAATTAAGATTGATTTGCTCCACCTTCCCACCGATCTTAATGAACTGTTTTCATCGCTATGTATTAATAATATGTAATTTTTGAAGCAATTGTATAGCTTTAATTATTAATGATGTCTCAA
