svm_type c_svc
kernel_type gkm_esttrunc
L 11
k 7
d 3
norc 0
nr_class 2
total_sv 1803
rho 0.0716399
label 1 -1
nr_sv 988 815
SV
1 GACGGANNNNNNNNNNNNNNNNNNNNNNNNNNNNNNNNNNNNNNNNNNNNNNNNNNNNNNNNNNNNNNNNNNNNNNNNNNNNNNNNNNNNNNNNNNNNNNNNNNNNATAATATATGGTTTGTGAACTTTGATATTTCATGTAGAGTATAAAATATATATTTGGGGTACATTGATATTATATTTACAGTATGTAATCTATATTTGATGTACTTTCATATTTTATGTACCTAATATATATTTGATGTAATTTCATATTTTATGTACAGTGTATAATGTATAGTTTGGGTACTTTGATATTTTATGTACACTATAGTATATATATCTGGTGTACTTTGATATTTTATGTACAGAATAAAATATATATTTGATGTAATTTTATATTTTATGTACGGTATATAATACATGCTTTGGGTACTTTGATATTTTTTGTACACTATAGAATATATACCTTGGGTACTTTGATATTTTATGTACAGTATATAATATATAGTTTGTGAACTTTGATATTTCATGTACAGTATATAATATATATTGGGGTACTTTGGACCTCTTTGAAGTCTTCGTTGGAAATGGGATTTCTTCATATAATGCTAGACAGAAGAGACTTCTCAGTAACTGCTTTTTCTGGTGTGTATTCAACTCTCAGA
1 AATTGCACAGTAATGATTTGTAAATCTTCCAAAGAAAGGTGAAAATCAGAGAAGCAAGAATTCCCGAAGTCCTGATGTTTCACAGATTAGTAGCCTGCCATTAAGAAACTGTGGGGTTTGGGTGAGTGAGCTGGAGCCATAAGCATTATCAGGTAAAAGTGAGGTTTCCTGGGGCTGCAGAAAGAAATGAGCTTGTTACTACTTCTGGTATTAATCATAATAAGTGTTTTATCTAAGCCTGTCATGTTTAGTTTCTCCATGCAATTTACCTCTCAGGCACACTGTTCACAGTATCAGTTGGCCTTATCTTTTAACTTATAGTCTTCAAGTGCCTAAATGTATTTCCTCCAAAGTTCCCACAGTTAACATGACAAAGTGAACATCAGTGCTATTTTAAGACAATGCCGCACCCGCGTTATGAAAGACAGAGTTGCTTATGCCTGGCTACTCCTATCATCTGTTGAAAAGCTTAACAGGCAGCACTGATTCTTTGCCTAATTGCAGTTTTGCTGTGAGATTAGCAAGATTTTAAATGTAGAGCCCAAGTACGTGCTTCAATACATTCATTTATTTCATTTTTCACCTTTGCAAAGAAATAAAATAAAGATCTACTTATCCTCTATCTTGCTCGTCTTTTATCGACTGACACTTGTTAGCCAATGGAGTCAAGTAGCTTTTGAGGGACCATATTATGAAGCTCAATTTCTAAGAATCATAGAACGCTACTAG
0.3930650449755538 AACTACCTGTTTAAGGAAGCAACAAAATAAAATCTTCCTGTATCTATCAAACAAGTTCTTGAATTTTTGGCTCATTACCATGAGAACCTTCTTCATCAATCTTCTGAAACATGATCCCTTGAGGCTTCATTCTCATGTCTTATCTAATTCAACAATCTAGTTCTGTTATCTTTTCCTATTTTAATCTGGAGCTTTCAAGACATATTTGCCTAAATTTTCGTGCATCATTTGCAAAGCAGAAAATTATTAAATAAGACTCGGCTGCAGACTGTGCATTGGTGCACAATTAGTCTGAATCCTCTGAAAAAGCTGAGATAACCTCTGCGAGAGAGGCTTATCTAGCTTGTTTTTACAAATCGAAAACAAGGTGCTGAACAAGGGTTTATCTCAACCAGGAGAGCTACTTGAACAATTTAGATAACTTTCTATTTGCCAGCCAACTTTCTGTTATCAGGAAATACTATAGCAAGAGGTTGGCCGTGTAAAATATGTGGAAATTTTCAGCATACACTTATATTCCAGCGGGAAAGATGATGTTGTTTAAATAACAGACAAGTGATGAAATGCTATTAAAAGTGTACAAAGTAACTGCCAGTCAAAAAAGCCAGAGCAAGCTGTCACAGATAGGCTCATATATCAACAGCACTGTGACTTTTTGTTTGCTTTTTATCACAGCTTGGTGTATAAAGAGCCATTTACCTGATTGGATATGGGACAGTTGCCATTTTCTTCTTTCCTTTGAAAAGGTGTATTTTGGAGTTGTGTGCCTGATGAT
0.6002531928464779 CTACAAATAATTTACGAAACTCTTTTACTCATTGTGGTCATTACTGACCGTATTGGCTAGCAGCAGTCCTTCCCAATGTGAAATGGGTGAAGTGCACTTGGAAATTACATGAGGCTTGCACTTTTCATCCGCTCTTGTTGGCCTGGTCATCTTCAAGTGCCTGTTATCTTGAGTGAGATAGAGGATTCTAGCAACAGCTCCATTGTGTAGTCTTATCTTAGGAACATATGGACTCTTTCACATTTGGTTTCCCTAAGTAGGCCTTTAAAAGTGATGGCAAATTCTGTCAACATCTCCACCTGTTTTGTATTCTCTCCAGTAAAAATCTGTCCAGTAGCTTCAAGAAGCTCAATCTACTGCTGAACCACTTCATGCCAGTTTCACGTGCTCCTTTAGTCATTTTCTTCCTGAAGTCATGTCAAAATGTCTATCTTCAATAAGCCCTGTCACTTAAAATAGAACCCTCTACCTAC
0.3770096574740791 TTGCCCAGAGCTGCCCTTACCGCAAATATCTGGGTGTAACCCGACGCCCGCTGCTGGCCTCTGGTGCTGGGACCGCGCAGTGCTGGAGTGGGGCACAGAGTCCCCATCCATCAGCCACTGTGACTGTGCCAACTCCGTGTTTACTCTGCCTAGAGATGGATGCTGCCCAAACGCCCGGAGCGCTGGGAATGAGGTGGGCTGGCTGGCCAGGATGATTTCTCTGGAAGAACTCAGGCAGGAGCGATAAGCCTGGCATTTCCGCTTATCTCTGACCCTGTCCAGGCCCCAGCGGCATCCAGAGGCTTCACTTGGTTATCTGCCTTGCTGGGCTCTATCTGCCTCCCCGGGGGCCTACTTCCTGCATCACTTAGCAAAGTGTCCAGCTGTGAAACAAACACCGTGTGGTCCAAGGAGGGAGGAATGAAGGGAGGGAGTCCTCGGGCAGAACTGACCTGAGTTCAAAACCCCACATCCGGGTGCAGGGGCCCT
0.4010342845480182 ATCCTCAAAATCACCCTCTACACATTAATCCGCTAATCCTTCTCTCCCCATCAGCCTTTCAGATACTCCAGAGTGCTCCCAAGTCTCCTCTCCCCTCCCACCCCAAACAACCCCTGTTTCTGCCACTGCTGCTCTTAAAGGTTATCAGCAACGGAAATTCCAACAGCTCCTCGCTGCTGCCCATCGGAATATTGAACGACTGCCAGGTTGTCCTCTTATCTAGTCAGAGTGCCCTGGCCTGCATTCGGTCTCTGGGCCAGCTGATAACACATTTTTGTTGTTGGAGGAAATGCTTTAGCTCCAACGGGGAGTGTCCACCCATGTGACACTGCCCAGAAGGAAAACAGGCCTGGTTCTCTGAGGGGAAATGACAGCAGCCACAGCCCCCTGAAGAAGACTGAATCAGTCCCTGTGTATCCTTTGATCAACAGCCCCTGCTCTCCTTCTCACCTCCCTATTTGCT
0.7957854787501417 CCAACTCGTCTGTTCAGGTTGACTTTCTGGAAAAGTGTTTTATTCTCAGAGGATTTGATTATTGAGTTATCTTTCTATTCTGCTGCTGTCAGTAGATTTGCCATAAATGTTTCCTGAGAGTCTCTCTCTTGAAGAGATTCAGGCCCCAGTTAAGTTCATCCCAATTAAAAATAGAACCCTGAGATGCAGCAGCTGTAGCACCTCTTAAACCTCTTCAAATAACATTGAACGATTAAGTGGCTGCTACTGTGGAGATAGTGCCCACAAAACCAGCAGCAGGCCCTCTCGGAAAATGATAACACTCTAAGTGGCTGTCAGTCCTTAGTCATTTCTAGTCATTCAGGGGATGTTGCCTTATCTTCTACAAGTTCTAAAAGTTCCTGGGAAGAGAAGAATCACATAAATTCTTTATTTAAAAAAATCCCCCTTCCCACAGCAAAATTCTCTAAAACAATACTAAACAAGCAGGCATGCGCAATTCTAATGAAGTCTATCATTTGAGTGGAAGAGAATTGCTATGGTTACCAATGTTTCTGTCTGGCAGTTTTGGGATAAAAGTCTGATGAAGTGATATTGTCTGGAAAATGAGCATTGATTCCTAGGGAGAT
0.8868622421389765 AAAGATTCTGGCTTCTATGGAAGCTTGCAAAGATATGAGGGAGGGCAAACAACTGCTTCTACGTGTTTTGTTTTGTTTTAAGAACTCAAAAAAGCATGGTAGGTTCTTTGAGCAAGGCCTTAGTTGTCAAAAGTTTCTGAAGCCCTCAAACCAATAAATAGTATTATTACTAATTAAAAGAGCAGATAAACTGAGAAACAAAGCACTTAGACCTAGGGTGACATGGTGAGACCAAAACTGAATTCTGTGTCTTAAAATTCAGTTATCTAATCTCCCCACTTCATTGCATATTCTACTAGCAGTCATTCAGTAAAGTACCTTTCATCACTGCAGGAGTCTCTCTGAACACAGTGGCTTTGGAATAGGGTTATCTCCAGACATTGTTGACATCATGTCTCTGCTCACATACCAATTGAGTGAATATTGGCCCACATGATTCTTGTAAGTGGATTACAAGAAATCCACGATAGACTTCATTCACTTTTGATGAAACCAAGAACTTTCCCTCTTGAGCTACCTAATGAGATACTGTTATTTGTTTATTATGCAGGGTACAGGTTGGGGCTTGTTAGCTCTCTGAATTCTTAAGCACTCAACTGAGGAAATCAAATGCAT
0.3765698648678368 CAGTGTCCAGCATCCCTCCTCTTTGGTGTCTCTTAATTGTCCAGGGCAGAGCAATCCTTGGAGCAAGGCAGCCTGCTGCGGTGGTTTGCAGAAGAGGCACAGTGGGGCGGGCTGGAGGCCGCAGGGGCAGAGTGGGCCGAGGGCCTCTGATGAGGTGTGAATGAGGGAGGCAGAGCAGGGCTGGTGTGGACAGCCCTGTCCCAGCCCTATCTCCCGTCTGCGACACCCTCTCCACACCCCAGTGCTGATAAGCGGGTGTGAGCCACGGCCGCCTTGTGACAGGCCCTTCGGCAGGGAGGGTGATGGTGGGGGTCCACTCCACTTCTGAATTCAGACGTCAGCATCTTTTTCCCCCAACCCCCATTGCCCTGTCAGACTAGACAGGCCCTAGCAACCAGGCACCCTCCCTGACAGTCCCTGGCTTGGAGATTTGTTTCTGCTCCATGTGGCCTCAGCCTTCTCAGAGATGGTAGGAGACAGACCTCCCTCAGTCCTTTCTGGCAAAGTGCCAAGGAGGATGACCACCTCCCACCCCCATCAGGCCCGTTCCTGCAGTGACTGCTGATGCTGGGGCCTGGCACACACAGTGCTTCTTATCACTGGGCAAACTTCAATGGCTGATCCTTTTGTCTCCTCTCCTCACCCCATCTCCTCTATCGCTGTGACCATCAG
0.1066850559328241 TCAATGCATTTCTGCACGATTTTGTCAGCAACAAACCACAGCCTCGCCCTGCCCCACCTCCGTCCGCATAGTGCCCATGGCCAGGCTGTCTGGGCGCAGCATTCCTGGGCCTGCTCTCTGGCTCCCAGTGAGGGTCCCCGCCCCACGGGAGATAAGATAGAGCTGGTGTCAGGGAGGAGGTGTGGACGGGGCCGCACCGGCACGCTGTGAGTGATAAAAGGGGCTTTGGAAAGGTGCTGACGTGGCACCGTGCTTAATGAGGTCATCGCCGAAGCTGCTGCCCCGATAACCTGGAGGTCAGGCTCCCAGCAAGTGGCCATGGCGGGAAGCAGGGCTGTCTGCACTGCCCGTCTCCACCCAGCACCCAGTCGGCGCAGCCACTGGGTGCCCATGGGGCTTGGCTCCGAGCTTATTTCAGAGCT
0.6579555156742928 TAACGCGGCAGAAACCGGTCTCACTGCCTGCCACCAAGCAAACGTGGCCTGTTCTGATGGCTCAGTGGCCAATGTCTTCCTGTCACCAAGCTCCTCCAAATCGCGGGGGAGATTGTTTTGACATTTGATTAGCCACAGAGTGTAACTTGTGAGTGCTTGAGCAAGCCGACTCTCAAGCAATGGCATCGCTGAGTGCTTTAGCCTGTTAGAGATACCATGTATCAGGGAAAGCGATGGCGGGCAGGGCTCCAAGAGGGAAGATAAGTGGGCTGTTGGGAGAAATTAATACGAAGAAAGGAAGCGGCGAATGAAGTCAAACGAAAACAGGGTCCTGTGATATCCATGACTCATAAATTTCATTGATACCCAGAATGTGAGTTCCCTGCTCTCCCTCGAGTTAGTAAA
0.2639823064641998 GAAGACTGTGCTGGAAGCCAAGTGAAGTTTTTCCTGAGGGAGGAAATGGCCAACTCAGTGACATGCTGCTAAGAATGTGAGTAAAGTCAGTATAAAGTGTCCCTTGGACTGGGCAATACATAGGCTTTTGGTTATCTTGACAAGAGCAATTTGTTTTCAGTAGTGGGATGAAAGCCAGATCAGAGTAGGTTAGAGATTGAATGGGAGGTGAGGAAGTGGAGACAGCGCACAGTTAAGTAGTTGAGATATTTGGTTGAGAAAAGGGAGAGAGAAATGGAAAGGGGCTAGCTGAAAGGAATGTGGAGCCAAGAAAGAATTGTTTTTACCATGGAAGATATGAATGGCCCACTAGAAAAGGACAGATTGGCATTGTCGGAGAGAAGAGATAACTCCCAGAGAAAAGGCTGTAAGTATTTGAGAGGTGATGAGATCCAGAGCACAGGCAGGGGCTTGGCCATTGGTCCCAGGTTTGCTCTATCCGTTAACAAGGAAAGAACAGATACAGGTGTGAAAGCAAGCAGGTTCCCATGCATGACAGCAGGAAGATGAGAGCTAATTTCATCTCAAAACTCTTGGAGTTGTAATTAACACCATATTCTTTAACTCATGCCAAAAGGATATAGTTTACATCTGTGTCAGTCAGGAT
0.09969994470694971 CTATGACAGTTTTAGAGAGATTCTTGGCTTACTGCTGTTGAGCCACTTACACAATTCTGCAGAGAATAAATGTAGGAGAGAGCAACCTCTTTCCTGCCACCTGACCTTCACTTGGTGGTCAGTCGTGTGGAGCTGGACGTCACTGTCAGCTTCAGTGGAGTCCAACTGCTGACAGATAAGTGGGAGCACATGGCACGTGCGAGATAAGAGCCTATAAGAGCCTGGCGGCCTGAAATAAATGGCAACAACAATGCTCTTCTAAGTGGTCTTCCGAGAAAGCCCTGTTATCATCAGCATTGTTCACACTTAGTAACAACTTTCCTTGAATGGGGTTTTCAACATGTTTGTTCCTTTCAGTCTGAATTATCTGCCAGGGAAGAAACTCTTTCTAAAGTCCGTCAACAGTTGTGAGATTGGGTTGAGGCTCTCAAAGGAGTTTCCGGCTGTTGTCAACACAGCAGGAAGGGGCAAGGATAAAGGGTGATTTAGGAGCCTGTGCC
0.5098441051964001 CGAGTTGTCTTTAGGGGTGTAATATAGCGTAGTGCAGTCATATGGCTCTGTAGAAGTCCTTACTCTGGGAAATAACCATGAGCACCTCAATGGTGGAAGGGTCCCTCCAGCTTTCTTTAGCAGCAATCTTGTTAACCACATGCTTGCTCTGACAACCTTATCACTTGCCAAGTGCAAGCAGCAGTGTTTGCACTCTTACTATCTCTTACCCACTCTTACTATCAACCACCCACTATGCACTGCGTCTGTTTCTGAGTCTCTGTTTCTGAGCTCAGCGCTGCTTAATGCTAGATAATTCGTGTTTCCCATGTTACCCTTGACTCCAGATGAAACAAAGTCACACAAACAATACTCAGCAGTATTCCTCGGGTTCTCATTCCCAGCCGCAGGTCCATTTCCA
0.8138151942790589 GCCGAATCTGGCCCAGACAAATATTTGTCTGACTTGCATGGTCACTTGGTGCTTTCTGATTGTTTTAATTTTGAATTAGTTGCCAACATTTAAAAATTAGAAAATTCTGAAAGCTAAAAAATCTAAATTTCCCTTGAAAATGTGAAAGAGCAGACAACACTTGGCCCTCATTCCTGAAGGAAACAATTTGTTAGATTAAGAAGGGGTGAGTCCTTCCAGACAGAGTATGCTTTCTAGATTAGCACAGTCCCTGTCAGCACCCATTATCTTGCACTCATTCTACTTCACTCATTTACATTATCAGCCTGGGCTCTGTGGTCTAACCTTTCCACTTTGCAAAAAAAAACTGAGAGGTCTAAGTGGTTTGGTCAAGGTCATAGATACAGGTACAGTGTTAATATCTGGCCCTAGGCCCGAGGCTTCTGGTTAAGCTCAGTGTGTTAACACTATCTTCATGGGCCCTTTGGAATCTATCAATGACCTGTAAACACCTAGAACACTCAATTTGCTGTTCCTTTACAGCCCTTACTACTTCTTAC
0.8280356455428226 AGGGCAGGCCAGGCTGCAGGAGGAGCTTGCAGTCCTGGAGGCTTCTGGCTCTCCTCTCACCCCGCTGCCCGCCCCTCAGTGATTAGTTGGAATCCAAGACAGCAATACAAGATGTGTCGTTGGTGGGAGTGATGGAGTGCCTGCTGAGTGGGCCGCAGATAAGCACCGTGATTTCGGAGGACGCTTCATCATTTCGCCGTAAGAACATGTTAACGGGTGATTGTTTGAATGTCTCCAGCTAATAGGATATTATTCATAACACTCTGGCTAGTTGGAATGGAAGATGATAAGAAATTAAATCCTTAATGGCTTTCTTTAAGGGAGGACTTTTCCCAGGGGAACCAGGAACCCTGGGAAATCGCTCCATGTACCCTGGCAATATCTATACGGAGAGAATTGGCTTTAAATGAACCTCTGAGGGTTACACAAAGGGTAAAAGAAAGAGAACAAAAAGCAATTGACATTAACCGGGTCCCTACTACGTGC
0.5173075411143377 ATTTATTCCCCAAAATCACTACCACCACCATCAAAGCCATAGGTGAATACTAAATGGTGTAACAATACACATGCCCTCAGCACTCTGTATCCTCTGAGGCCACACAGTAATGCATCTGCTGCATCTAAAAATGGGGCTACCACAGAACAAGGTCATTAAAAAGTGTGAGGAGATGAGTGGTTTGCTGCTGTTTTTAGCACAAGTTCAATCAGCTATGATGTCCTTATCAAGCTGTCACTACCAAGTTCCTTGATAAGATCTGACGTGTGAGGTACATAAACCTGTTCTGTTGTAGCACTGTGGCCTGTATGGAAAAGGTTAGATACATGCAAAATAATGCCCAAACATGCTGTTTAATCTTGGTGATAACAAGAAAGAAAATGGAGGTGTGAAGTGAGTTACCATTGAGGGTTGTATCAGTATAAGCAATTTGTCTGTAATGGGTGTAGAGAAGTTAAGAGAGGTTACATTCTTTAACACTGTCATTCTCACACACACACACACAAAAGCAGGTCTAGGTTCTCTATGGCTTTGTCTCTGTTCCAATAACTCTGAACAGTTTATCAGGTGGTATCATTTCTGCTTACTAGAAAGCAGGAAGTTTAACTGTCCCAAGTATATTTTATCTCCTTTCTTCTTTTAGCTTTTACTGAAGACAAGTGAAACAGG
1 TCAGAGGCAGTTGCTGAGGCATGCCCTAAAATAAAATGTTCACGGGGTTAGGGGGCTGGGGGCAGGTAACCTAACTAATCTTCGCAGATTGCCTAAAATAAGGAAAACATGATGGGGTCAGATAATCTGGAAAGTGAGTACTCCGCATATAGAAGACACCTCCACTCAGCCCAGGCTAAGTGATGCCATAAGGGCCCTCTATTACCAGACTCTTATTTTTCAAGGGAAGTTAGAAATCTTTATTTAATGTAAATTTTCCTGATTTTTAAGTTAGTAATTAATCCAAGTATAAAATTATTTTGCAGACTAAAATGCTTAAGGAAAACAAAACACATCTATGGTTTAGATTCAGCCCAAGATGATTGCTGTATAATCAGTCCATGAATTCCAATTACAACTCAACACTCAATACAACTCAACACTGCTTGATTGAAAGCAGTGGCTGGTTGATAAGATAGGAGAAAGAGGTAGTGTTTGTAGTGCTACAGAGAACAGCATATGGAAAATAAATGTAGGGGCAGGACAGAAGGAAATAAGACTGAGGCACATTTTGAAGGCCAGTAATCTAAGATTAGAGTAACAGCAAAACATCTTTTTTTTTTTTTTTCAGAGGAAGATATACACAATGGAAAAAAATCAAGGATAAGGCTAAAGTAATAGAATTAGATGTAACTATTTTATTCAT
0.5721425315652031 GCAGTCATAAGAATAAAAAAACACCTCTAAGGAGACAGAAGACATACCTGGGTTATTCCAGTAGCTTCAGTCACAAATACTTGGCGTATACACTACCACTTGCCTCTCTTGTGCCCTTAAAAGGCTTGAATAATAAACACAATGCTGTCATCATGACTTAAGCTTAGCACCCTCTCAAACTTCTCAACACGGTATTCCCAGCAGTGAATACCCATTGATTAGATAAGGAATGTGAGAGTGAAGCCTATTTTTAATCTCTGGATAGCCTGAGAAGTGGTCCCAATGAGTTTATCCAATCTCATGTCCAATGTGATATAATACATAATATCTTTGCATAATTTTGCAATGTCATTTCACACCTGCCTTTCCAATTGAGGGGATTGGAGCACTCATACGTGACTGATGGGCAAGAAAGAGTTCTCTAGAAGGAGAAAGGGGAGAACAATGGGCCTGCCAGGTGGCACTGACATATGAAGCAAAATGATGGGTTTGAGGCTACATTGAGCAGGAGTAG
0.4668302791990562 ACAGGGACCCAGGCTGCTGGCTGGTCTCTGATGTGCCTTCCACCTTAATGACTCTGCAGTGCCGAAGCCATAGGGATAAGTGGCTACCTCTCCCCTCGCCTGGGTAATGCTGCCTGGAGGACAAGGCTGTTACGGAAAAATGTGGCACTAAGAATAGCCAGCTAGACGTGGTGATAAGGGCCCAGATGGCCAGGGATGTCAGCTGGGGACAGGGAAGGCGGAGGTGGTGGAGAAAGAAGAGGGTGATAAGATAGGGGCAGCAACACCGGAATGCACAGCTGGGGCTCTGGAGACAGGCCACAGGAGTCTGCCGTGGGCGAGGGAGCTGCCCGGAGCTCCTTCTGGCTGTGCCCTGTGGGTGTGAGCCAGTGGAAGGGAAGGTGAGTGCCAGCCTGAGCAAATCAATCAGGGAATTTCAGGGGCAGTGGGATTTTAGTGATCCTGGCTTTTAC
0.3879922001026743 GTCCACAAAGTGCGCATGGAAATATACACATAAGGGATTTGAACCTGTGCTTGGCTGGTGCAGAGCCTGCCTCTCTCCCCAGCATCAGGGATGGTTTCACGGCATGTGGCCTCTCCCTGCTGCCATGCCTCCATCAACTCTCCCTTTCTCATATCAGAAGATCACAAGCATTTAACAGCCTTGCACTTGTCTGACCCGAGCTTGCTGTATCTGCCCAAGAGGGCTGGGAAGATAAGATGAAACAATCCCTGTGAAATACTGATCACTAGTCAGCACTCAAGAGGTACCAGTACATCACCATTCATCACATATTCATTTAGGACCTAATACATGCCGGGCCTTGGGATAGGCGTTCTCATCACCTTCATCACTTACTGTTACTACGTTTAACACCCTCCACTCCCAGCA
0.3223757596550407 TAATGTCTGACTTATAGCTGTTATCACAGTAGATGTGGCACTGTAGTTATTGCAAGTCTTGTCTCTCAAGGATAAAGCCTTATCTTGGTATCCTTCAAAATGGCAAGATGTTCATTCTCACCACATACAATTGCATTGTCCACTGTGCCCTGCCATGATTTTCACATTTCACTCAATACCCATGGTCTGCATCAATCTGGAATCATGCATTCTGCCATCTGCCCCTTTCCTTGAAAGTCCTGCTGGCTGCAAAACAGCTGAGATTTACTAATGGGTTAATATGTTACTTCGCCCCTAATTAAAGCTATTGGTATTTAACAGGAACTTGGCCTAGATAAGGGGTGACTCAACTCTAGAGAATTTCTGAGTGGCTGGTGGACTGATGGGATGATATTTTGGGTCTGGAACAGTTTTCAATGCCTGGTAAGTGGCTGACAAGTTTATCTGTGTCTGAGAGATAGCATACGAGATTCCTGTAAACATGCGTCCATGCACTCGCTCACAAATGTACCAGGGCCCTGCAATCCTGTGAACGCCAGGTTCCTAAGAACAGTAGTAAGGCTCACCTACCTTTGTTCCTCAGGGAGCCAATGAGGGCCCAGCCATTGCGCAAGTCTGG
0.9106988623056687 TGCTGAGGCCTTGGTGCTGAATGGACTGTCTTGTCTCATAGAATGATTTTAACCAGACCCTGGAAAGTAGCAAGGCAGAGAACTGGACCGGCACTCTGGACTTTCTCTCCTCAACTGTCAAACAGAAGGTGGAGGTTGAAAGAGAAGCTTCCCCAGGGTTTTTTGGCACCCTGCCCAGATTTCCTGCCCAACTCTCAGCATCCTATGATTAATGGGATTCCCAGGTTGGGGATGCCTCTGAATGCCGCCCCCCCCTCCCTGCCCCACTAATCTAATCTCCTCACTTAAAGATAGGAGGGAGTGGAAGGGAGAAGCTGCAGGGAATATGTGCTAACATCAGTTACAGGCAAGCCTGTACTTACACAGAGATCTGACATTTTAAAATAAATTCTTGAGCACTCTTTAGACAAACTGCAAAGTTTAGGAAAGTGTGCAATACTCCTTGGCTCATTGGCCCCAGG
0.4141877242565031 TATATTCCTCTCTCTCTCTGTCTCTCTATCTCTCTCCTCCCTCTCCCTCCCTCCCTCCCCGCCAATAAGCCTTACAAACAGTTTTGAAATCTTGTTCTGTACCTTTTAAGCCAGTGTCTGTGGCGAGGGTGACTGGCAAGTCAGCTGATGAGTTCTGCCTTCTGAGAGCACTGAGTGAGCAAGGCCTTTCATCAGTGTTTTGGCCTTCTCATTGGGTGAGGAAGACATTGAACCAACAGCCAACGAGATATGAACCTGTAAGAAAAAAGTCCTAGAATATAGTATTTTTCCCCAGGCCAGCAAAGTGAAGAAATACAGTGGTGACAGATGAGAAAGGCCATGTTCAAGAGATCTGAAAAGTACATTCCTGCCTTATCAGAAAATGTGTCAGACAGGTTTTATGTCAGCCTCAGTGCTCCTGCGGTGTCGACGCTCTGATAAGGACCATGTTCCAGTTAGAATGCGAGGGAGGGAAAGAGCTGCACTTTGCTTCACCATCAGAACTCTGAGCCAAATAATGAATATGTAAACTATTTTATGATTATTTTAAATGTTTGTTTGGTAACATTTATA
0.5826700387286945 AAAAAAAGACTGTCTCTCACTTATGAAGTGTCTTTCAGTCCCACATCAGGAAGGAAAGAAGGGAAATGATGTTGATGTGGGCCCTGCAGTGCTGCCCCTGCTTCTCTGTCCCTGGGCAGAGGTCTGCATTCACCAGCTTTATCCCATGGCCTTGTCTCCTGGCCTTTGCTATCTCCTTTGAATTCCTCCCTTATCAGTTGGGCTACACACAGCAAGTCTTTACCATACATGCACAGAGGTTCTTGATAAGGAGGCTATTTTAGACCAGTATGGAGCTCTTCCGTATAAAGCACTGGTGACTTTTTTTTCTTCTCATGGGCTGTCACTGATGCAGGCTAAAGACACACTTCAGTCGGCCACAGCCGGTCTCATGCCTCAGC
0.2259734685112486 CATGTTGTTAAAGAGTTAACTGTAAATGTAATAAAATATTATTAGAACATAACCACTATGAAGAAGGATAGAGTGAAGTGGCATTCTTTGGCCCAGGTAATATAATCATAGTAACAGCAAGCGCATACTAAGTGTTGACAATGTGACAGGCACCATGCTAAGCACTTAAGCACTTTACACGCATTATCTCAGATAAGTCACCTAACAGCTCTCTGAGTTGCTGTAGTAGGCACAAGCAGGACATCTAGCAGATGCAGGACATCTAAGTCAGATACTTTCCACTTTCCACAGTGTGACTTTATCAGGGACATCATAGCTGTTCTCTAGCCTGAGAAGAGGGCCAAGTGGGCAGAAACAGTCACGGGCTGTGTGACTCCTGCCTTCACTACCCATCAGCTGCTTTATCTTGGGCAAGTTAATTAACCCTATAAACCTTGGTTTCCTCATCTGTAAAACAGGAGGTAATAGGAGTTCTTACACCCTAGAATTGTATGAGAGTTCACCTGATGATTCACACAGGGCACAGCGCTTGGCCTGTCCACAGGA
1 TACTCATTTCTGCCTGGACTAAGTGTCATTTCTTGGGCATGATTAATGTTTTGGCTTTAGTATCTGTTTTCTGCTTTGAGAACATATAATCTACTGGCATTCAGTGCTCTCAAGTAGAGATAATCCTTGCAGGGAGTGAAGTACAAAAAATTTAAGCACAGTTATAGACACCACTATTCGGAGGTTAAAACAATTTAACCAGATGGCATTTCATACTGGTGACTATGCTTAAAAGACTTCCTCATCTTCAGTAGAAGGTATGCTGTGTCTGGCAGAGTTGCTAAATTTGCATTTTCTTAGGCAAGATATGCATCACGTAGTTGAGAAATTTTTTGGAGATTAGTTACTTTCATTACTAGTCAAGGCACAAAATGCTAAACCTTAGAGCACTGATTCTGAGCCCTTGCATACCTCAACCCGTAATAATAAGAGAAAGTTCCTGTATACATTCCTTGCAGAGTGTGATTTGAGAAAAAGCAGGGGGATGAAATTCAGGTTCTAGTCTTTAATGACTTGAACACAGATGTTGCTGTTGACAGGCGGAGATATGTTGAGTGTTGTTTCTCCATTTGCTTAGCAAGATTTGACATGTGGTGAGCCAGAATAGAAATCTGAAGAGTTGAATCAAGATGTGTTGAGAGAACTTTGGGTGTAAGAAGTGATAAAAGAAGCAGGTCTGGATATACAACATTAGGTGGCAGATGGAAACTTTTTCAAAAAATATCTTTCCAGGATTGCCTGCTTGGATAAACTGATTGGTAAATTTAGTTGTCCTTAGAAAAGAATTTTTAAAATACAGAGGATACACAGCCAGTATATCATCACTCTAAACAAACAGTGCTCATTGTTCATCTATGTGCATTTGTTCACATTATGATAAGTGCTTACAGATGGGTCTGGCAACCTGAACTGGAGGAAATAAAATAAGGTGATGGGGCTGGGGTGGGGTGGGTTGTGCACTAGGTCCCAAACTACCAGTCTTCCAGGTCTTCGTGACTCATAGTCACTGGTTTCTAATGTTGGAAAAGGCCAGGCCATGTACCACAGATCTGTTAA
0.6382911518509645 GGAGTGTGTTTAATACAACTAATTTATAGATAAATGTGGTGCCAAGCTAGAATACATTAACAAGGTAAGGCTTCAGGGTCTCTAGGTAAGATAATATATTGCTTTCATTAAAAAGCAATCTGCATGGACGATATCCACCACCACTGGAAACTCTGCAGTTGTCACCTTTATCAGGGGAACAAGAGCAAGCCACTACATTTTAATCACTGGAGTTTGTCAGGAACGAAAAACAGCCAGCTTCCCACAAATCAACAGACATGTATCCTGATAAGGGAAGTGCATTGGAAAAGGACAGCTACATACCACATGACACCACCTATTCCAGGGTGATCAAAGCTCCATAATTGTTGAAGATAAATCTACTGAATTGGGCTTTAGGATGAAATAGTTGTCTTTGAACAAAGTAGACACATACTTGTACAAATTACCCACAACTTAGAACACTGTTAGATCTAAGTATATTTTGCAATGTGGGAAGGAATGAGTGATAGAA
0.4663286446056845 ATTTTACAGGACCCAGCCTGAAGCATTTTTGGAGCCCAGAGGGAGCCAGGCTCCACATTCTTGAACACAGGAGGAACAGGAGGAATGGAAGCTTAGTGGAGCGGCGGGGCCTGTGGCTGACAAACACCAGCTGCACTGAGTACATATCACATCATGGCCTGGCAGACGTCTTCTCCTTCAAAATGACACAGGCTATTAGCAGACTCACCGCAAAAGGATATGCCAGGAGTGGATGCATGGAATTCCTGCTGATATACTGGAATCCCAAGACTAAAGCAGGCTTCCCTGCCCTTATCAGACCAGCCAAGATAACTGGAGCAAGGGTGGAATCTGCACACAAGAAAGAAATTCCACCTTACAAATACCAGGCCCCAGATCCAGGCCCCGTGTTTGATGAATTTATTGATTCCACATAGCTGAAGGCCTGTTCTGTGCCAAGTATACTGCTTGGAGTTGTAGACACAGGATGATAAAATATAGTCCGTGCTGTAAGGGTACTCCTGGACCAATGGGAAATGCAAATGACATCTAAACCAACCACAAACATGCAGTGTGATGAGTGCATAGATAGATTGAAGCCAGGAGTGGGACGGAGGCATGGAGGACAGGCACAGAGTCAATTCATGGGGTGGAGACGACTTTTGAAGGATCACGCTTGAGCTGCGTCTCTCAGGAGAGGGAGGAGAGGCCAGACAAAGAAAGATAGTCACACGATGTCACAGAGCATAGTTCTTTTT
1 TGAATTACACATAAAGACAACTGTCAAATAAAGACAAATTCAGACTTAGAGAAGAAGAGACTTTCTTCAAAAAGAATATTGCAATAGGCAGAATATTCTTATCTCATAAATCTGCAAGCATGTGAAAATAAAAAAAGAAAAAGGTTCATTTTGTAAGGAGAGATAAGCAATGCTTAGCAGAAACTTTTAAGGAGAAGTTGAGTAACCAAAAGGGAGCATAATCCTGGTTCGACAGAAAATTTGTCTTCTATCATTAGCAAGCACACAAGATAAGCTGACAAGAGGAGCAAGCTAAAGTTCAAGGGCCTGTGTGAAAGAGAGATGCCTGACTAATGTTTTGTCAAGATAAAGCAGAGGGTTGGTGACAGACAGTAAGTATTATGTTAGCACTTCTGGATTCTGGAACTCCACACTCATCTGAATTTCATATTACACTGTTAGCTACTCCCTCTCCATCTTTTTTTTTTTTTTTCCAGAGAGAGGATCTCACTCTGTTACCAAG
0.1949568481857777 GTAGGAGACCTGAGTCTCTTAGATGGTTTCCCTATATGACCTTGGTCAATCCAGATACTCTCGTTGGGCCTCATTTTCTCCTTCTGTAAAGCCTCCGAGATCTTCCAGCTCTGACGTTCTATGGTTCATTTCCACCTGAGATGGCTGTGGCACTTTGACTTCACTGGGGGAAGCATTTCAGATAAGCAGGCCCTGCTATCTCTGGAGCCTTTCTCTTCACCTTCATCCCTTCACGTGAAACCCAACGCCAGAGCTTCTGGGACAGCCTCCTCATTGATAAAGTGTTCCCTGACTTCTCAATGAGCTTGCACACTGTAGCTGCAGCGATAATGGGCTATATCTGGCTGGCCCGGAATCTTGCCTATGTTCCAGTCAGTGCTGTGACTATCAGTTGTCTGCTGAGCATGAATGGCCAGAGGCAGAAAAAGGACAAGGAGCCCCGCTGGTGAGAAGTGGAAGTGATTAACTTATGTCGCATGCTCCAGCGGGAGTCTCAGCCAGCGATAGGCGAATGAGTGTATGATGACAGCTGCCTTGGAGTTCACACCACACCATCAGCACTCTGCAGGAAACAGATTACTTCAGGGCTTGAGAGCTCGTTGACAGCTGGAGCTTTCTGATAAAGTTGTCAGAAAGTGAAAAGGACAGTCCCAGGAAGTTGTAAGCTTCCTGTCCTTGGAGGTGTTGTGGTAGAGGAGGAGAAGTGGTGGATGGGATGTTGTAGACGAGGTTGAAAGT
0.3199775972751285 AAAACAAAACAAATGAAATGTAAAATAATACAGCCACTGTGGGGGAGTTTGGCAGTTTCACTCCTAGGTTGTCATGTAAGGACTAATAGTTAAAGCCTGGTATCATGTTCTATCTCGGCATCTGGTGAAACTGGAAGGGCTATAAAGGCATAACTGCATATTTATCTCCCTCCTCTGCTCCTGAAGATAAGGTCCCCACTAAACAGCTCTGCTTATCAAGGAGACCAGATACAGTTCCTGCTTATCTCTCAACAGTGGGTTTCAGTTCCCTGGCAGCCTGCAGAATTATTCAAACAAGCCAATCATACGCTCCTGTGGGATCTAGGGGTCACCTCACCCTCTTGATATTACAAAGCTTATGTCCCAGAGTCCCTGGTTGTTCCCTCTGTTCCTAAGTGCGGTCCTCACGTGGACCTATGTGCTATGTGGTGTTCTCCTCTGCAGGGCTGTGAATGTACACAGCAATAAATTGCTTTGGATGCATCTGTTCAGTGTCAGGTGTTGTGTGTTTGGGTATAACCATAGCCCTAGGATAGGAATCTCTC
0.4599012024980824 TGGGCTGGGGGCATTCACATGATAAGGAAAGATGCCTTCCTGGAGTCAGACTCCAAGGCCAACTGGGCTGGGGCAGCTAAGTCCAGAGAAGGACCTCAGGAGTCTGCCCTTAATCCTGTACCCAGGACGGGGCGGGTGAGAGGCACATGCTCAGATTTGTTCCTGACATGTAACTTCAAGAGCAGTGCTACATATTTTGCTTATCTATCCAGAAGACTGACTGCATACAGATGAGATAGGGCGTGGGGGGCCAAGTGGGAGGGAGCTCCAGGAGGTGCCTCCAGACATGGACCAGGGACAAGAGGACAGCTTAAAGAAAGGTTGTGGGAATTGAGTGCAACATTTCGGGTCTCAGCTTAGATGTCACTTGGCTGGGTAGCCTTTCCTATCTTGGCAGTTCTGGGTGACGTACCATTTTCCTAAGGGATCTTACAGCACCAAGACATCTTGAATCAGAGCTCTTAACACCTGTATCTATAGATTAGCTGAACAAATTCATTAAGGCCGACAGTGAGC
0.816975978167496 CAGCTCACACTGATTACTCTGCCAAAAGGAAAGAACAGGAGGTTAAAAATAGACAACCCCATTGAGTTTATCGTGAGAGAGAAAGGAGCGAACGAGAGAGAATTGCCACGCCCCTAGTATGGTGACACTAAGTGCCTGTTATTTTTGCTGTTATCTTAAATGTGGAGGACAGCTTCAAGCTCTTTCCTTATCAGCTGATGTTTGATAACAAATGGAAAAAAAAATTACATCCTGACAACCCAAATTAGTTTTGCCACCGAAACTATGCCATTGTAACCATGGACTTTGAAACAAGTAAGTCTTTGACCTGGTTATCAATCTTTTCAAGATTTTTGAAATCTCTCTGATGCAAAGAGAACTACCAAAGTGTACTTTAAAAAAGTTTTGGTATTTGTCTTGGGGTTAAGTCACAAATTGCTTAAAACACATTTTTAGATTAATCTGCTTTTCTAAAACTTACTGTTCTTTG
0.6160299741914717 AGCCTGGCACAGGAAAGTGTCACATAAGTGCCCACCATGATCTCCAATGGAAGCAAGTAGCACAGCGGGTTAACTTGCCTTGGGGTGTAAGGCCCCTTTAAAGAGGGCGGTGAAGTCAGCCACCTCTTGATAGAACAAAGGCATACCAGGCCCTGCCAGCCCAAAGCCGGGTGGCTGATGGCTTTTGTCACCAAGTGATAGCCTATCTCCTCGTGTCAGGGCCCCCAGGCGTCAGTGAGAGCCACCAAGTGGGGAGGGTGGCTTCTCTTGGGAGTCAGATTCAGGTGGACCAGGCCTGTGCCCAGCAAAGATGGGTGAGCCACATAACGGGGCACCCCCTGTGTACACAGCACCACTGGGACAAGCAGCATCAGCTC
0.4289300836886796 ACCCATACCCACCTCTGCGAGAAAACTGCTCATTGTGTGTATCATTAAAACTCAACATGAAGAGGTTAGGACAGATAACTAAAGACAAGCTTTATCAAGGAGTCAATGACCCACAGAGAAGTAACACACAGTGTCTCGTAGAGCGAAATCTTTTACCTTGCCATTTAACAGTGTGGGCGATTCAGCAGGTGAAGATATGGGTCAAAGGGCATCTGATCTGGCTTAAAAACAGTCACTCAATCTGATGGTTACTAGGAGATATTAGACATAAAACATTGTTATCTCTCAACCCTTTGTTCAGCTCTGTGACATCATTCTGCTGCCCTGGTGCCCCTTTCCATCACTATCATTGGCACCTTGCTTCTGTGGCTAACCTGATAAGGGCTATGGAAACATGTGTAGGCCCCTGAGCACCAGCAGCTGTTGAAAGGAGTGGGACAAGAGAGTTAGAAGAGAGACTGTATGTTTGAGCCCAGAAGAGCCGTATTTCTTGAATTTTGGTCATTAATACACTACCGTCAGGATTT
0.6155508317405768 CACAATTATGGTTAAATCTCACGTTAGTGAAGATTTTGTGGTTGAAGCCATCTGGAATCCTCTCACTAAGTGGCTTCCCATAGCTCTGGCCAGAAGTCACCTTGGTTGGACATAAGGACATGATTATATATCCTGTTGTTCAGACCTAAGCCTGAGTACTCAATCAGGTTATTAAATTGTTTTTACCCTCACCCTGGATTTTTCTGTAACAAGGATCACCTTGAAAACAGGCTAGACTCTGCTATCTAAAGGTACCTTTACAAAGAGTCTGAAAACAGAATAAATATTATGTTTTCTTGATGAGGCGTTTATTGTACCCTCTGAGCATCCAAACTTAATGGGTCAGAAGAATACCAGGTGCTGCTCTTGTTTGATAAAAGCAGTTATCACATGCTATTTAGAGAGTGTGTGGAAGGAGTTCTTGGCTGTGATTGAATCCTGCAATTCTGTCTCCAACAGGCTTTCAGCAGCCATGGCTCTGAGTCATCTGCCTGGTGACCAGAAGCTGACATCCAATATCATGTGCCTCCCCAGATAATGAGGTCAAATGTGCCAGACCCACAAGGGGCTTGATAACAGCTTATTAACATCCCCAAATGATAGCACTTTTGATTAAACCTCACATGTCTGCCTGTCCCCCCTCTCATCCTTTCTAAAATTAGAGCTGGTATTTTACTAACCATGCCCTTGCTTGAACTTTAGAATGGTTCAAGGATAGTGCAAAATCATGATGTCTTTTCACTGTAATCCCCAAGAA
0.3069022444447206 TGTCCTGGCCGCTATTCATTCCTCATTTTTCTTGAGCAGTATATCTCAATGAGAGCAATTAGTACACGACCAATTCAACAACCACTAGATATAATGACTGTCCTACTTTGGTGCAGCGGACATCTTTTTGTTGTCGTTGTTCCCAACACCATATAAGTACTGATTAGAAGCAGGAATGCCTGTCCAGGCCCTGTGAAGGAGGTGATGAATGGTATGTCTGAACAGCACAGCCCTGGCTTAGTATCACTGAAATGCCACACTCCTCACTGAAGTCTGTTGATAAGCCTGACAGTGCTCAGCAACTTTTACCAGCAGACTTTATATCGGGGGACCCAAGCTGAAAGTTAGCACATGGGGTGTTCTGTCAGCACAGAAGGCTTACACCATTAGTAGATCTAAATGGTGTTTAGATTACGGAGTTCAACAAAAATCTAGGTCATTAAGTGCATAAAAGAAATGTTACAATGACTCCATTCCAAATAAAATGATGTTTGGAG
0.4136348091598991 CTGACATTCACACTTGGATGAAGTGGAGAAAGATGATGTCCTTCCTTATTTGGTGGCTCTGGAAGCCACATTCCCTCCTCATCCGCCTTCCCAAAAGAACCTTGTGGCTGCCCAGCGGAAGCCAGTGCTTTCAGCAGCCCCCACCCTTGGCATTTCCTTATCTAGGAGTCTTCACTGTGGAATTCCAAGGCCCACCCCAATGCTCCGGATGTGTTTCAATCCATGGCCTGCCACTTTGTTACTCTTGTGATGACAAGCAGATAACATAGCTCACATGCCTTCTTTTCCTGCATACCAACCAGACCCCAGTTCTGAAAAGGAAACAAACCACAAACCAAGAGAGATGTGTTATTTTTATGCAGACATTGTTAAGACACTGCAATAAGCCTAGAATTGTGGAGAGTGCTTTCCCATGTTGCTCCAGTTAATCCCCTCAGTCACTCTGGCATTTATACAAATGAGGAAACCAGTGAGTGTGGAGGTTAAATAGTCAAGGTCTCATAGCAAGTGTGTGTGTGTGCATGTATGTGTGTGTATCTTGGGGGGTGAGGGTTGCCAATTCAAAGTCCAGAATGACTC
0.7110515354985387 AATCACTGGGCAAAATCTCAGAGATTTGATTGACACATAAAAATCCCCCACATTATGGAAGTCAGGCAGTGCCATAGTCCAAAGCTGCTTCTGGAAAATGCTTCAGTGTTCAGCCTCCACCTACGAATCCCCACTCAGAGAGATATCTCGGTGCTTGAGTCCCCCCGCCTTATCAGCAGGCATGACATAGATTTCACACAACACCTGGGCCCTAGAGATGGTTGCATAACCCACTAAACAAGCCACAATGCCTGGGCCTTAGAGGTTGCTACACACGCCATGGTGACATGCAGCGTAATTTTAAATGGACAGTCACTTTCACTCTTCCTTGTTTATG
0.4430243502646994 ATGCCCATCACAGCACCTGTCTTGGCCTAGGGTACCCCTGCTCTGGCCTGGTGACAGACCCCAGGACCTTTTGGACACCTGGGTGTAGACAGTGTGAGAAGGAGGTGATCTGTAGGCCTGGCCCCAGAGTGGGAAGCCACACGGTTCAGGGAGCTGGAGCAGCTGCCCTCTCCAGGGCCCCCATCCTCAGTCTGATGAGATAAGCCAGGAAGAGTCTGACAGGCCAGGCTGCTGGAGAGAAAGAGAGTCCCCCTCAACAGGGCCTGGGGCTACCCAGCTAGGGCCGCCTCTCACTCTGACTCCGCCTCTGCAGAGCATGTGGGTTCTCATGGCCTTATCTGCCAGATGGCTCCCGGAGGGGATGATTTATTAGGTGCAGAAAGCTCGCTGATAAATTTTACTGCAAGTCCCCGGCAGAAGACTGGGGGTAGCAACAGCCCGGCGCAGGCAGCTCTAATGGAAAGTGCCGTCACCAAAGAGCAAAGCATTATTTATGACTGTCTGTAATGCCGTTCGGGGGAAATTCA
0.9838210746961374 CAAAAAACAAAGAGCCCATTTGTATTATTTCACTGCCTAAATTCCAGAAAGCAACAAAAACCAAATCACAATTTTCAAGAACAAACAAATTTAGCAAGACTGCAAAATAGACAAACAGCAATAGCAAGACTGCAAAATAGACAAACAGCAAGGTTATCCCAGTCAGAACTTCATAGCTATGTTTGTGGATATCTGCTAATCAGCATAACACAAATGTAAGTGATCGTCAGAAAGAATCAGACAGGAGCAATCAGGGTGTTGCAAGTCCTGATTACGCAGAGACGTTAATCACGTTTCATGCATCTCCAATCATCATGTTCTAATCTGCCCTCCGGAGGAGGAACAGGTAAGGATTATCCCACCTGACGATACAGACAAACAGCCGACATTCTGCACTCAGTGAAAAAGATTCCGTTACAAGCTAGGGTGAGTTCATAACGCGCTGGTATGAGCAATCCTATTAT
0.6999010465983769 ATGTTTCCTGAATTCATTGTTCATGAAGTTAATGCCCTCATTATATGAAATATTGAAATCCATCCTCACAGTCCTTGCTTTCTGGCTGAGGACACACATGATCCATAAATCTAAAATGGGCTTTAGAACAGTTACAAAGTAGTCTGCCGATGAAGTGAGTGTGAGTGAAGAGAGCGCTGAGTAAATGGCTGATAAGGGAGGCGTGGGGAGAGGAGTGACGAGTCCGAGTCCTTGCAGCCAGAGGTAGGGCACAGGCGGGAGACAAGCTGCGGGTGGGGGACAGCAGGCACCCCAGCAGCAGTGAGAACTCAAAACTAGAGCAGACGGCTGTGAAGACTGGGAGCAAAGGTTCAG
0.3411092661631441 AAGTCCAATGTGTGGTTGATTCCCTGCCATATGCTCTGAGTTTTATCAGGCTCAATGAGAAATACCAGTGCTTGCTACACAGAGATTTCTAATGCACCCTCACTTCTGGCAATAGTCTGGAATTTACTTCAGTTGATTTAAAGAATTTGTGAACAAGAATTTTATCTGAATTGTCATCACCTTGGAGCAACTGGTCAGGCTGAAAAGGTGTCCTGAATGGGGCTAGACACGTCAGCGAGACCTGCCAGGTGTCTCGTCACTCAGCACGGCCACTTCCTAATAGTAACAGGATCAGCCCTGGGGACTTGCTGATGGGCAGCATGGCAGGATGACCCCAGCCATCTCCACATGCACTCTGATAAGGACTGGCAGGTTAAATAAGGGCATATGCTGCATGCTGCTCCATCAGCACCTCCACTTGGCTCCTTCTCAGCCCAGGAGTTAGAATTTGTTGATGTAACCCACACCATGGGAAGAATGAAAACTCAAGCAGCAAAGCCC
0.6643261459375409 GAGGTAGAAGAAAATTCTCATCTAAGTGGATGCGCACTGTTCAAACTCATGTCAAGGGTATTTATAATTTTCCAAAGGGCTGTTGCCACCTTATTGCATTTTATTCTAATAATAACAGTCAGATGATAACTGTTCACAAAATGAAGATGAAAACTTAGCTACAGAGAAGTCGGCCAGACTTTCCTGCGTGACCTTGGTAGTCTGCTGGTGATTCAGAATCTCCCTACCTCAGCCTCCTGGCTTCACTCAGCCAAGACTCCTTATCCACCAACAATAAACAGCACCATGTGGCTGGCTGTTCACCACTGTCCATCAGGCCCAGACATTGTTTTTAATCCCTCTACTCTAACAGAAAATGGTTCCAAATTCCAGGACTGAAGCGATAAGAGCTCCCCTGCTAAGCACTCAGAAGCCAGATGCCATTTAATGTGCCTGGGGCCGCCGATAACTGATAGCACTCCACTACTCCAGCTAAATTTAATTTCTCCTGCCTCTGCTCGGCTTGTCTGGGCACCTTTAGAAGGGTGTTGTCCTGACAGCTGTCTTGATTCTGATGAGCTTTGTCTGCACCTGATTAGCATTCTATTTCTATGCAAATAAGCACTTGCCTTTGTGGCTCCTGGATTAATGGACACTGTGAATTGGAGCCCTGGTCTTCAGAATCCAGAGAGCTGTGGAATAAAAGGGGTGGATGGGACTTTACAGAATCAGAAGCCA
0.3487246044379975 CAAGCCTTCAGGGTGAATCTGATGCATGCTCAGATTTGGGACCCATTATTCTAATGAGACATAGACCAGCCCTCTAACAGGATGTCGTCCATCATCACGTCAACACATCTGTCTGTTCCTATCTATTCTCTCATTGTTTCCACCAGCCCTAGAGGGATCAAAGTGGGATAAGAATATGAAAATGCCTAGCATATGATAACGACAATAGCTAACACTTAAACAGTGCTTGTGTGCCAGATACTGTTCTGAGTGGTTTATATTTGTTAACTGAGTTTATCTTCAGAGTGACATGATGAGGTAAGCATTATTATCCTATTTTCCACAGAAGAGAAACTTGTGGCAAAGAACAACTAAGT
0.8673089908383644 TAACACTCTGTCTCAAAAAAAGAAAGAAAAAGAAAAGAAAAAAAAAGAAAGAAAAAATTGCAAACTGGCTTACACCAAGTGGAATGCAATCAGATTCCATGGCCACTTCTGCATTTGTTTTTAATTCCATGTAATCACCATGGCTGCAGCTTTTAATCTCCTGAATGGCCATAGCATACATTGCTGGTTCCATGCCAATCCCCAGAGCCCAGGCACCACTGAATGCAGGTAAGTGACTCACATGCTTTGAAAAGTTCCTTGACTCACCCTGTCAGTGACTATAGTCAGGGTTCCTTATCAACAAGTCCCGCCCCTTCTTGATAGGGGAGGACCTCTCAGCAGCACGAGTTGCCACTTCATCCTTCACACAAAGCTGTGGTTGTGTGGCTCCACAGCCCCCTTGTCAGTAATGAAATGGCCATGTGTGCAGTACTGTGAAGGGCCACAGATAGTTGCCAGGCATGCCAGCTGCAATGGAGTGTTTTGAGACATTGGAGTTTATGAGTAATGATCTAGGAGAGCATAGTTATTTTTTCTGAAGTGGGCCAC
0.5240400718924523 GTTTTATCAGAGGCTAACAGAAGTATGGGACTCCTAAAAAGTTTAAGAACCACTAGTTAGACAAAGCATTTAAGCTGCTCCTGGTAATCTGTAGTCATGGAGAGTTATGCAGGGATGGAGTAGGGCAATGCCCTTGAAAGCTATCTGGATGTACAAGGCTTTCCTGTCCCTACGTCAAGTAACACTTAGTAAGCACTTACTAAATGCAGAGCTCTACATGGATTATCTCATTAAATCCCTCAACACTCATTGAAGAAAGAACGATAACATGAAGTCCATTATGCCCATTACAGACAGAGATAGTAATTAGGTCGAGGTCACATAGCTACCAAGGAGTGAGGCCAGATACCTATCTGGCTATGCTGGCTCCAAGCTGGCTCTCTATTATTGTGAGAAGTGGATTGAAACAAAAAGTAAATGGACTCTGACTGAGGATTCCTCTAAGAAGAGCATGTTATCAGGC
1 TCTTAGGTCCCTGCAACTTAATCCATACAGACTCACATTGCTCTGGAATTAGACCACCTTTTTTTCTTCCCTGAATGAAGAAACCATTTATTTAACAAAACTTAGGGGAATACCTATTTTGTGACTGACACAGGAATAGATAATGAGTATATTCAACCTAGTTGAATGGAAGAAACAGACATATACAATATCCACACTACAACGTGATGAAAACTAGAGTCCCTTGCTACTTCCCCTCCTAGCTAGAGATAACTTTGCCTCCAATGACACAGGTTCTTGAAAGCTATCAGATAATAAAGCATAGCCTGTTCTTTTTCACTTCAACTGCTGAATAACTGGAGAGTTTCAATTGCTTTTCTTTAAATACTCAGGTAATGAAAAATAAAAACAAAAAGAACGCAATGACGGAAGTCTTCCAATTGTCTCCAGAGTTGAGGAATATAGTTAGATAAACAATTCACCATCAGAATAATTTTT
0.3630451488007734 GTCAAGCACGGCCTCTCTCAGGAGTGAATTTGCACTGAGACCTGAGTAATGAGAAGTCTCCAGCTGGGCAGGGATTTAAAGAGGGGGCTGGCCAGGCTTAGGCACCAGAGAGCCCACAGATCCAAAAAGAGAGGGTCTTTGGTGTGATCCTGGAACAGAAATATCAGTAACATTGGAGCAGACACATCATTTTCCACATAAGCACAGAGCATGAGAGGTTTTTGCCCTTTACGGTCAAACCAGATGTCTCTCATTGACCTTTTATCACGTGAAAAGAATAGAATTCAAGTCAACTTAAACGGTTATCAGGTAACCATACATGACATCATGTTTTAGTGTTTAAACGGGCAGAACACTCTTTAGGCCTTTCATTCTTCTAGCCCTCTTGAGATAACATTTGTGATAAGGTGTTGAAAAGAGCATAAGGTTTCCATCAAGCCTTTGACTCGAATGCGAACCTGTCTCCAGAGGACTTGCGGTGTTACACTTGTTTAAATGCCAAGAATCAGT
0.662683004483567 AGGTGTCTGTGTGTGGGGTGCACCTGTTCTGGGCTGCGGGGCACAAGCATGGGGTTGCTGGTCCTAAGGGCACACGAGTGGCCGCCTGGAAAACCAGAAGCAGGAGCTCCTGGACGCCAAGGCTGTGAACAGTCGGACGCCTCCCCGTCTCCAGCAAGCCGGGAGCCTTATCTTATCGCCGGCGCTTCAGCTCTCCCGTTATTTAGGGACCGGCCACAGGCTCGATGGCATTCCTCTGCTGTGAGCACAGAACTAAACTGGGCACGTCCATGGCAGATGAACAGAATGGTGGAGTGAACGCATAAGTGAGATTTCATTGACTTAGCTGCAGCCCTCAGATTTTAATTCTGCCATGATAAACAGCACCC
0.6903114076218743 CCGATTAATAGTAAAGAGAATTTAGTTGACAACTGGCTACAGCTGTTTCAATCAGCTTAGTCTCAACATTTAGGCTAGGGGTAAATGTTCCTTTATTACTAAGAAACAAAATACAAATTAGACCTTTATTCATCTCCTTAAGTTTGGAGACTATTAAGGAGCTTCATACTTGTACTCTTCACCAAAGGAATGTAAGTGCACAGTAGACATTTTATTTAGTCAAGTTCTATCAATATTTTTTGAGTAATTATCAGTGTTGAGTTGACAGTATGATTCAACTCATGTACCAACACATAAGGGATGATAAGTGGAGTATAGTGTTGAAAAGGACTCTAAGGCTTAACCTGGGTTCAGTATCAAGGGTGCTATGTTAACTAGTGACACTGCCTGGTGGTGTGCAAGACTGAGAAAGGGGCTTGAATGCCACATATCTGCCATCACGTAAAGG
0.8337277649824485 CCATATGAGTCAATGGGGCATAAGAGCTTTCTGCAAAAATAAATCTTGAAAATGTTTTTGCTACTTTATAAGTCTGAAAAATAATTCAAGCCACTCTAAACCCTTGAAATTCTGTTGGATAATGAACTTAAGGAGCTGTTGACATCCATGTCGCCTGGTGTCCACACTTGGCCTCATATCAGACAGCCACTGGAAAGCGATTTGCATGAACATGTATCTGAGAACCCTCTGTTTTATTTTTAAATGATAACAAAAGTAAGTACAACCATGATAGTAGCCTACTAATAATAAAGGGAGCTATTTATACATTTTTAAGTGACTGTGGTAGATATAGTTAGCTATCAACATGAAGTTCTTGTACCTTAGAGATGGCATGTCACTGAAAGAAACAGACTCCAGGTCATGGGAGTTCCAAATCTCCTCTCAGATGATTGGAACCCAGGAGTACACCCTTCCCCAGCATAACCTGCATGTAGATGCATAGCCCACTGCTGAGGGACATGTACCTGTGACCAGCGCCTCAGATACAATACTGGGAGGACATCTGTACTTAAGCTGTCTATATTCAAGTGACCTTTGCTCTCAGAGAAGTGGGACTATATTCAGAATGGTGCCCCTTAACATATTTCA
0.3479277060672388 AGGTGGGCCTCTTCTTGGGGAGATGCCCTTATAGATGCTGCCCATTCTCCCAGTGCCAGGAATCTTCCCTACAATTAGGTACGAGATAAATCAAAGCCAAACTTGGCTGACGAAATTCAGGAGCCAGTAGTGACCCTTGCCACACATATAAATCGCAGCAGGCTGGCCAAGGGCCTTTGTCTGGCCAGGAGAGTTCAGGATTATCTGGCCCTCTTTGCTGATGTATGGAGTCACCGGCTGTCGGAGTGTTTACTAACGGTTATCACCTCAATGCTGTGGCCATTATCAGAGGCAGGACCGCCTGCCGAGGCTGGGGCTCGCACCCTCTCTATTACCACCTGTCATTGGCAGGGAGTGTGTGCTGACACTGCCCAGCCCTCACTGCCTGGCGAAGATAGTTTCTGACGGCTGATCAAAGAGGAGAAGCAAGGCCTGATAAAGAGTGCGTGTTTCGTGTACTTTTAACTTTGGGAAACGTTGGCATTTGCATTTTTTCCCCATCTTCCCGATGCTGGCAGGAACCAAGCCCAATAAATGCAGTGGATTCAGTTACCTAATCGCTGGGGAAATGGTATGTGCTTAAAGCAACAGAGCGTGACTATAATCTCCTTCCGAGAGAGAGTGGATGAAATAAGCTTTCACAGAAGA
0.5591501767617958 GGAAGCTCCAACTGAGAGGGCAGTGACACGACAAGTACAATCCTGTCCCCTCTTCTCCTCCCCCCTCCCCACCACCTCCTGGGCTTCTGAAAGAATCAGTGCAAGAGCCAACATCTCCTTCAACCCATTGACGTCTGTGAGATACCCAGAGACGTTCAACCCAGAGATATCCAGGCTGCTTGCCAAACAAGGAAATCCAAGATAAACGTGCCATTCTGTCATGACCTTATCCTGCTGAGAGACAGACAGAAACAATGGCAGAGAGGAATAGCCTTGCATGTTTTCATGGCACCTTTCAGAAAGAGATGAAATTCACCATCAGTCACACCTCTTGGAGGTTGTACCATTTAGCTGATAAGAAACAGCCAGAGAGGCAGGGAGTATGGACACTCCTGAAGGCAATCCTATGAGGAGCCCCCTGAAACTTCTTGAAGAAGAAAAATAGCACTGTTCCCCTCCCCTTCCAACTCTTCACGCTGACAGGAGTTTCTACGAGGCAGTGTTTGTCAGTAGTATTATTAAAAAAGGAACCAGGCCA
0.5713867589282255 GCAGCGTAGGCTAGAACGTGGGAAGCAGGCGAGCTCTGGCTTGGTCAGGGAGAGCCAGGGCCAGGTCCTGGCAGCTCAGGAGGGTGGAGAGGGTCCGAGGTAGGTGGGAAAATGCCCTGGATGTCCCCAGAGCACTGTGCTTATCTTGCAGATGACGAGTCACCTAGGCCCAGGAGGACCAGGAATCTGGCCGCCACCCGAGTGTCCAGCCCACTGCACCTCACTATTTATAACCCAGCCCTTCCCCCACTCCAGGGCCACTCAGCTCCTCTATCTCTGGAATGTTGAGTAGAGGTCACAAGACCATGTATGTGTTCATAGAATGATTGTCCCTTGTGGTGACAACGCTGTCTGGTCTGTGTCTTACGATAACAGGTTGAATCAGATATTTCCAGTTGATTTGGAACTCCCTGGTGGCGTGGGAAGCTGTGTTAACATTTTCGCATTTGTCTGTTGCAGTAGGAGTTGGGGGGTGAATTCTTTTAAAAGAGAATGTGCCATACAAAACATTATCCCTTTGGACTGAACTCATTGTGGTGAGTGTAGACTGCATGGAGTTTTGAGAATTTCATTGATTGGAAAAGAGCCAGAAATAAACAAGCAGAGCCTCCTCTGCCCTTGTCTAGCATCCAGGTCTAGGAGACCTGGAACCTGAGTATCAGAGGTGCATGGGAGAATCTGGAGCTAAGGTCACAATGAAAGTGACATGTCAATCAGTTAAAAGTCAACAGAATGTTTATTGAGTGCCTACGATGTGCAAGGCTCTTGGGG
0.6407054844042636 GAGAGGTTCCCTAGCATGGGGCCTGCTTCAACACAATTGCAGCAAATGCCCTGTGTTCTGCCTTTGTCCTCTCTGGTCTGACTTCAGCATTACTCACGCAATTCCTCTCCCTTTCGCATAACCCAGTGTCATTCTATTCCAGCCAAGTTTATCTCTGCACCACTCAGATAAGCCCCATGCTGCTCTTTGTAAATGTCACTCTTAGAAGAAGATAGGATGTTTTCTGAAAGAGTTCTTTTTTAAAGCGTTCACTGACTGAATCCATTCTGAAGGATAGTTTGGGTAGAGGGCTTTCTAAAAAAAAATGTTTCATTTTTTAGCCTTTTAGGAGAGC
0.5031023573070296 AAACCTGACCTTTTAAGTTTAGGTGAATATGGACTAGCTGAACACACCATTGCCCTCAGCACTGAGCCAGGAAATCTACTGACAGGTTAAACAAAACAGAAGGTTGTAACTGTCATAATTTGCATTGCACTTTCACGCCAACAAGGGTGTTATCAGTAGGGGCAAGCCCTGGAACACACAACTCCAGCACCCTTAAGCCACGCTACTCATAAATTTTCAAGTGAAGTGAGATAAAACATAAATTCACAAATAGCAATGCATTTCTCATCTCTCAGTCTTTTAGGTTTGCACTTTGCAAACCCACAGAGTGCCCATCAACAACTCCTTTTGGTCACCTGGCACTCCCATTGCACTAATTAGGGACTTTCAATGACCATAACACAGAAGTAAAAATAACAATGCCCATTT
0.5498099403919158 GAGATGGGCATGGTAAGGACCTCACAAGGCCACAAAAGGTCCGGGGGCTGGATCCATCGCTGGCAGCCTTGACAAGGCTTCTTTTGTGCCTGGCTGGGCAACTCTGCCTGGGTCTGCTCAGATTGCAGACAGAACCTGGGTGACAGAGACAAAGCAGAGCCCAGTGGAAAGTGTCCTTATCGCCTGGGGTCTGATAAGGGCCCCGGGGAGGGGGCTGCCGGCCAGCTCCACAGATCTGAGTGCTGGAGGAGCTGGAAGGGCCGGCTGGGGCGGCTGCAGCAGACGCTTGCCCCCTCCCCCACCCCACTCCCACTCCCCCACCGTGGCGGCTGCTCACTGCACAGTATTGATCTAGTGGCTTCTTACACCAACCCTCTCAGCAGCCAGTGGGGGAGGGTGGACTGAGATGGCCCAGCGCCCAGACCCGGCCGGAGATGTCGGGTGTGGGGAGGATTAGGCACCCTTCCCCGTGCTGTGCTGGGCACTGCTCCTGAGAAAGGTCCAGTGTCCCCAGCCTGAGGCCAAGA
0.5750470993318826 AGCCTGTGTTTTTACACCAAGGACTGCGTGGGGCCCTACAGACCTGCCTTTCCCTGCCCAACCTCCTTCTCTGACCAAGACAAAACTGCAGGTTCACTGTGGCAGGTGATTACAACGGACAGAGGGTTTGTTCCCATACTCCATCTACCAGTGGTGACACTTCCTTTCCCTTCAGCTCACCTGCTCCCCCAACTCTTTGAAGAAATCTCAGTAATTCACTGAGATCAGAGTCTATCACACAAACATCCGAAATTGTAGCACACCGGGGAGCCTGCCAGGAAGGCCTATAATCAGATAACACATTCCAGCCCGGAGACCTTTCCAGAGGAAGGGTTAAGCTCCCAAGGTAGTTAGTGGAAATCAAAGAACTGCATGCTCTCATTATCTCATAACAAACATACCAGGTTAATAGCTGTCGCTGCCGCTCTAAACCACGTGTGTTGTGTTTTGTGAGTGCTGACATGGGGCGTTCTTTCTCCCACCATATCTGCAACTTGACAGTGTCATCGTGGTTGGGTGCTGGAGTCTCCTAAAGTGTTTTGCATACTGTCTCCTGCACGTTGCCTCGAAGGATTTTTAAATAATTGCTGTGTTTAATGGGAACTCCTTCCCCTCTCTAATCCCCTCCAGTAGAAAAGCTGGCCAGTGTGCCAG
0.5051523863765135 ATGCAATCGAAAGGAATCATCATTGAATGCAATCACATGGAATCATCACAGAATGGAATCGTACGGAATCATCATCGAATGGAATTGAATGGAATCATCAATTGGACTCGAATGGAAACATCAAATGGAATCGATTGGAAGTGTCGAATGGACTCGAATGAAATCATCGAGTGGAATCGAATGGAATCATCGAAAGGACTCGAATCAAATCATAAAATGGACTCGAATGGAATCATCGAATGCACTCCAATGGAATCAACATCGAACGGACCCTACCGGAATGATCAAATGGACTCGAATGGAATCATTGAATGGAAATGAATGGAATCATTGAATGGACTCAAATGGAATTATCGAACGGGCTCAAATGGAATCATCGAATGGACTCGGATGTAATCATTATCGAATGGAATCGAATGGAATCATCGAATGGAATTGATCGAAATCATTATCGAATGGAATCAAATGAAATCATCAAATGGAATCGAATCCAATCATCATCGAATGGAATCGAATGGAATCATCATCGAATACAATAGAATGGAATCATCAAATGGAATCGAATGGAATCATCATCGAATGGAATCGAATGGAATCATCAA
0.2825533606512405 TCTGTTTGTAGTAGCAGTGGCAGTTCCCTTGACAGCTCCTGCTGCAGCAGTGTTCTGGGAGACATCCCTGGGGATTGAGCTGAGAGTCTGCTCTTGCAACCTTCAACAGTGCTCTAACACCAGTCAATATCAAATCCCTTTCTGCTTAAGTTAACCAGAGCAGTGTCTATGGGTAATTGAATCATGACTGATGCTATTATCAAATATAAACTGATGACAATGGCAAGTGGGAAACCTGCTGTTTTACAAATACCAGATGTGCATCACATGGAGGTTTATTCACTCCTATTTGCGTTTTGATAATAATCCTTTCTAATAATTGGTTCATTGGTGTAATCTTTATGAAATTAACCTGAGTGGCTCAAAATTCATTTTGTAGCACTGAATGCAATTACTAATTGAGCTATTTAAGCAAACTAGCCAGCCACCTACAGCTACTTAATCTTACTGGCCTACTATAGTAGCTCTGACTCACCCTTATCTTAACCAGATAAGGGATACCATACATTCTCTCTAAAGAACACCACTGACCTCACACACAGGGCTAAGTAGGCTATGCCTATTGTTAATATATCCAAATACCAGTTGAATACTCAGCAGGTCAACAGTATTTCCCATCCAGTTTATGCCAGCTGTG
0.9267315242460306 GGTTTCCGAGACGCGACCACACAACCACTCAGCTCGCTCTCTCCACTCGGACTAATTCGCCTCCTCCGCCCCCAGCGCCTCATAAACACCTCCCTCCGCCAGATCCCTCCGCCGCATCCAGATAACGGAACATCGCAAACGAGTCCCGGCCAACCCCCTCCCCTCAAACTCTTCTCGGGACCCCTTTCTTCACAGTTATTTGGTCGATGAGGCAAGAGATCAAGGAAAGTGGGCGAACGGATGACGTAAGTGGGTTTCATTTCCAGCGAGCCGTTAAAAGGCCGGTGGAGCGGCCCCTGAGGGGCGCTACTTTGCGGCGCGGAGGAGCATCGTGGCGGCGATGCGTCCCCCGTTGGTCGTTGAGCCTGCCTCTGATTGGCTGGTTTGTACCTGCAATGCGTCACTGGGACTCGCAGCCGCCGCCGGGACG
0.8715369577040697 CCAACCAACTTTCCTCAAGAACTTTAGAACTTTTCTTCCTGCCAGGGGATGACACAGTCACCTCATAGACTGTTTTCTTTCTGTCTTGCAGCCATGAAGTTCTCCATAATTTTTGTATTGCCAGAAAGCCTGAATGAACATTTAGCACAACCCCCTTCTACTTTATATCCCTTTATATCCTCCCAAAATAGCCTTCTCTACACAATGATAAGGACTTGATAAAAGGGCCCCTATTGTGCAGTCCCAGCCTGGACAAAGTAGTTTTAAAGCCATAGCAGAATGGCCATCAGGTTGTCAGAAATGACAAAAGCCACAGCACATATGCAAGTGGTACAAATGCTTAGTGCCAAGTTAAGATATGAAACTACACTTTCATATCTCTATGAGTGTGTGTGTGTGTGTGTGTGTGTGTGTGTGTGTATTAGTTTTCTGGAGAGACAAAACCAATAGGATATATCTAGAGGGAGACAGAGAAAGAGATGGAGAAAGAGAAAGAGAAGAGAGGAGATTTATTAGGGGAATTGGCTCATA
0.3490298238555561 ATGACCCAGCTGTTGGCCGTAGGGGCCTTTGCTGTCCTTCCTGGGGTTTGTGGTCGCTGCCGAGGATCAGCACTTTCACACGCGACCTTACGCATTCCTTGTCATCTTGTCCTTGGCGGGCCTGTCAAAAAGAAGTTATTTTGAAAGCGTATCGCTGATTGCACATTTTATTCCATAAGTGCTCAGCGCGTTTCATGTAACTCCTGGAGGCCTCTGAGATAAGAGTGGAAAAGTGCCCTGTGCCCTTCTGAGTGGTGGGTGATCTATTTTCGACTTGGAGACTGGTGACAAAGCTGTCTTCTGTCAGGTCAGACTCGCAGGGACTTTCTTGTTTTCTGTTCCTCTGTTGACAGCTGTGCCTGTGTTCAGAATGGTCATGGGGTAGCTGGAAGATAGCTCTGGCATTTAAACACCTAGATAGGAAGGAGACGATGGAATGTATTTTTCTTTGCTATTTTGGTTAGCAAGTCCCTAGTAGTCCATACTGAGAGGGGAAGAAGCAGAGAGACCTTTGGGAGGGCGGGCAGGAAAAGATGTCCAACTTCAGGTTTAGAAGGCACAGAGGGAGTTCTACCGTTGGTATATGGT
1 CCTCCTTTTGGCATTCCTCCTACAGAATTTAAAACCTATAGCCACAAATGTTAAGCATCCATATGGCACTTTATGCCTGTGCAATGTTTTTTTTTTTCATTTTTATTGGTCATTTCTGGAAACAACTCTCTAAGGCAGGTTCATGTCATCACCCTTACATGATAGATGAAGGAACACAGTCTCACAGAAGCTCTGGGTCACACAGCAGGGAGAAGGCTGATTCTCTCTCCAGGCTCCTGCTGCTTCTATCTAATCTCTACAGTCCTGTGCTGGAGAGCTTCCATTTGCCCAGCCAGAGCCATGCTCCTCTGTCTAGGGAGCCTGACCTGTATCAACAGACTCTTTTGCCCTTGTCTTCTGTTTGAGTTTGGCTATTGCAGAGAACAAGAGAAAAAAAACAAGAAAGGCAGGAT
0.7364058875855253 ACACAATGAAAATGCAGGAGCCCTTGTCCAAAAATTAATAAGAATTTCATGCTGTTGTTGGCAGAGCATTAAACACGGCGTGGGCTCTTCTAAGTATGATGTCCTGAACAACGAACTGCACAGGTCACATGCCCTTGAAGCTGATCTGTAGAAAGCTTTATCTGGTGGAGGCAACCGGGAGTGCAAGTGGGAAGAATGCAGAGGTAGCTAGTGTGGTCTGGTAATGAGTGACTGGTTCAAAGTGTAGACAAGTCACAAGCTGCTGCTGTGACTGAGTTGAAGTGTTATTAAAGATAGAAGAGTGTAGACGTGAAAGATGAAGAGAAGAAAGAAATAAGATTAACAATGTGACTTTATACTTTATCTGCCAACATTCAGTCATGAGTCATGCCCAGAAGCTGTGAGTGTCAATTCTTATTTATTAACATCTCTTTCTTTTAATCAAAATTGATAACAGCCACAATTGTTGAGCTCACTCAGCAATAAGAGCTTCCCTAAATACTAGTAGGTGTACTGCATGAATGATGGTGTGAAAAAGCGTTAGAGACTCCAAAGCAAAACAAAACATCATGGATATCTGAAGGTTTCTCTGGCTTTCAATTAAGCATATTTCACTTCTAGTTTAGCCTAATAATTGAGAAAAAGAAACAACATGCCTTATAATGCCTGCCTTGCCTACCTTAGAGGCCATTGTAAGGATCTCTCAT
0.8994677603543628 TTGTAAAACATTCACATTGATACATGTATACACACATTTAAACTCCCTTTCTAAAAGAAAGATTCATAATTTTCTAAGATTACACTAAGTCTCTGTGTTTGCCAAACATGACAGCATGATAGGGAGGGAATTAAGGCCCTTGTGCTATCATATCTCGCTGGGCAAGCACAAGGCAGGAGGTGTGCTAGAGGCTGCTCTTGCTGGGAACAGCCCAGCACGTAAAGTTAACCTTGAGATCAACACCGTCAGTGAGATGAGTTACAGGACTTCATGGCAGAGCATCACAGAAACTCAGGAACATATCAAAGCATTCGTCACTCTGGTGGCAGGAAATAAGATGAAAGAATTTAGAGAATTGCAATCACACATAATAGCGTTATCACTGGTGACTAGAATTTGAATTATGTGCACATAGACTTCTCCCCCAGTAGGTACTGCTCACAAGCACTTAAGGAAAAGGGGGTTCTGGATAAAATCAATTAGAGACCAGTTACATGAAGTTGGGCAAATGCTATAGAGTATAAACAGTAGGACAGAGTGCAGCCAGGGTGGGTGAAATTC
1 TCATTTTCTGATGCATAAATTTTGCCATCTGTTGATGAGCATCTGGCTCTGTTCTTTTTTCACTACATGGACAATGTCACTGTGAGCACGTTTGGTCACGTCTGCTGGTGCCCATGTAAAGCTTTTCTCTAGATAAGAGCCTATACCTAAGAGTAGAACTGCTCTGTGCCTCTTCAGCTTTTCCAGATAATGCTAAGTTATTTTCCATAGTAGCTGTGCCAGCATACGCTTGTAGTAGTATGTGGGCGTGTGAGAGTCTGTGCTATTCAACATTCTACCACCATTTGGTATGAGCAGATTTTCTATTTTAATTTTTCCAGTCATATTTTCTTGTGGTTTTAATTTGCAGTTCCTCGATTACTAATAAAAATGAGCATCTTTTC
0.4907221754133485 ACAGCTCATCTTATGCTGGATAGAGGGAAATGCCACCTATCCTTGACCTATGGTACCAGAATCCAGATAATGTTCCAGCTGTTCCTGACAGCCATGCACCCAGGTGGAAGCTTAGTTTTATGGGTCAGCAGAAAAGGCCAGAAACAGGCCACCAGCTGGAAATAAGGTTGTGAGTCACCCTCAGAAAATCAACATTGCATAGTGATGACTGTTTCTGGGCCTTGCCCAACCTCCAGTGTGATAACATTGCCGTGACATCATCTGAGCTGTAAAGAGAATAGAATGTTATAAATTGATATAGAGGTCTTTGTTTAGTGTTCCTTCTGTGCTATGAATGATAGACTGCTTTAGAGAGAGATAATCAGACCCATGCCCAATAGAGCAGTGAATTCCCAGAGATAAGTGTGTTGTAAATTGCTCCCAATGGAGAGCTAGGCAGAGAAGAGATCCAGGCCTGGCCCCACATGGGTAAGTTTGGGCTAGGTCCAGATCTGATAGGCCAGAGGGAGCAGGCCCCCTCCCTTTGCTAGAATGACTGAGTGAATAAGTGAGTAGGAGGCTTCTATATGGAGAGCGAGGCCTGCCTCTGGAAGGCATGGGGTGGGAGAATTGAGATCTGAAGGTCAGTGTTGACCGCATC
0.954382733616416 CAGGTCCCTGTCCTGCCCTGCTCCACCTTAATTTCCTGCCCTTTAAGATTTTCCTTCACCAGGGAAATTTAGCATCTTTCTGCAAGACTCAGTTTAATGGCATTCTCTAGCATTTTCCGACCTTCCCTGGCTGAGCTGAGTGCTGTCTCTGCACTCTGCCCATGGCATCCTGTCCACGCAGCATCTTGGTGCAGCAATCAGCACACTGCTACATTATCTGCATGGCTGTCATCCCCATTAGGTGTGTGCCCTTGGACTGTGTGTTTTCCTCCTCGTATATGAGGCCTCAGCATAGTGCCTGAAAATAATAAACATTTGACATTCAGAAGAAAGGAGTGGAGGAATAAATAAATAAGACAGCCT
0.4991958441763275 AAGCTATGGCCACTCAATAGCTTTCACCAATCCTTCCACCAAGTTAGGCCTTTACTACATCATCCTTAGGCAAATGGGTGATGAACTATCTTTTCTTTCCTTTACTCTGTCATCTACAGTGATGACAGAATTATCTTTCCAAGGAATTATTCTGGTAATATCATGACGGCCTGTAGAGCAGATTTCAAGCTTCTGAGCATGGCATGCAAGGCTGTTCATGATCTGGCTTTTGGTTACACGTCTAGTCTTCTTATCTACATTCCTTTCTTCACATGCGCTCTACTCCAGCCACACTGAACAGATAACTAAATCCTTTTCCCTCTAACACTCTTACACCTTAATGAAAAATCAAGTTTCTTCCTACCTAGAATGTCTGCCACCATCGACCTTCAGACCTGGCCTGTGTCAGTCTTTGGACTGTTTGCTGTCAGGTCCATTTCCTCCACTTCCCCTGTTCTGCTCTGCTCTGCTCTGCTGTGTGTTGAGGCAGGACAGGAAACATGATACTGATTGCTGCAGCTTGCATTTCTCAGGTTCCCAAATCAGCTGACATTTGGGCTAGGTTCTGCCCCTGGGAGGCGCAGGCAGTAGATAGGAAGTAGGAAAAGAGGAAAACTATTGTATGACCCTTTCTGGCTCTGTATTAGGGAGAAGTCTCTGGAAATGACTGTACCACGTCTGAGCTCCAGGTCC
0.4979080192350761 GCAGAGAAAATAAAAGTTAAAAGACTGAGTAGTGTTGCAATGAAACTAAATACCTCGTGAGAAGGCAGGTGTCTTTGTTCCTCTCCCACCATGGACAGCTGGGCTGTTCCTTCTCTTCTGGGTGCTCTCAACACCTTACTATCAGCTATCACCCAGCAGATAAGAATAAAGTAGCCAAGGAGCAATAGGGGTTTTGTTTTTCACTGTTTTTGAGATTGTAGAAATTGATAGCGCACTGCACTCTCATCTTGAGATCTGTGGGCTGAGCTCCCAGGGTTCTTAACATGGGCCAAGTTAGTCTGGATGCAACCTTTTGTTATTGTCTAAGTCACTGGCAGATTTAAAAATCACAGCGGTTCACAGCCAGATGACCAGCCTAGGGATGAAGGCGGGGCAGGGGGCGGTCAGTATCTCCACTCACATGTCATCTAGTCACGATGCAGAGGTTGAAACACTGAGTTAAAGGAAGCTTATCTTCATATGAAGAATTAGAGGCCACACCTCCCTAAGCTAAATTTAGAAGTGTTAGTATGTGAACAGGAGGTATACAGTATCTCAGGTTTCCTGGGGCACCAGCCAGATAAGACATTCCAGATAATTCTCTTCCATGCCTAACTTGTACCTCACCAGTCAGGCCAGAGGAGGCACTGCAGAAGGAGCTGTCCTCTTGTGTGGCTCTGTCCTTCTTTTCAAGTTTGAGGGGGTTGTGGACCATGTGAGGCTGGACGGCTCACATGTCAGCCGCCAGGCTCTTAGTTACAGACATGGCAAACTTCCATCATTTAAGCAGTGGCACAGATGTTGTGGAG
0.5740011039317037 CCTGCCCTCTTTGACTGCTCACCCTCTTCCAGCCCCTCTACCCAGCCTCAATCTCTCATTCTTCCTCTACTTTGAAGTCTGGCTTCTGTCTTGGCCCCTGTGGGTTTGATGACAAAGGGCAGTTCAGGAATGACACTATCTACACATACATGGCCATATGGACAATTTCAGGTGGTGGGACTTGCAGCAGCTGGGGTTCCCAGGACTGCTGACATTCTGCTGAGTGTTATTAGAAGATCAGGGACAGAGCTTATCATCTGGCTGTCACTGCCCCTTTCCAAGCCACAGCGAGCCTCCACAGAGGGGCCCTGGGGGATAGCCAGCTGCCCTGTGCTCATGCTGGAGTGAACTTTCCTCTGATCTTCCCTGTTTTCTGGATTTAGCCAGGGAAAATACAAGGGAGCTCCTTGCTCCCTG
0.793933519698984 CCTCGTGAATGGATTAATGCTGTTATCACAGGAGTGAGTTTCTGATAAAAAGATGAGTTTGCTACCCCTCTGTCATGTCTGCTTTCTTGCACTTCTGTCTTCTGCAATGTGATGATGAAGCAAGAGGACCTTCACTAGATGCAGGCCTCTCGAGCTTGGACTTTACAGCCTCCAGAACTGCAGGAAATTAATCTCTTTTTTTCATAAATTACCCACTCTCATGTATTCTGCTATGGCAGCACAAAACAAACAAAGATGCATTCCTACCACCCCCAGCAAGAAACCAGAAATCTAGCCCAAAGTAGTTCCTCTCCCAAACGCTCTGAGAGGAGAGAGAGCCTGACGCATCCAGCATCAAACATCTGCAACCCAGATGGGCCTATCAAAGGGAGAGTACTTATCAAGCTCTGGACTGGTCAGGAGGAGATATGAATTACAGATACATTACCCAGCCAGTTGAACAGACTTACCAAGATAAAGGAACTTGGAACTAGGCAGGGCTACATAAGCCAGATGTCTGTTTCTACATAGTAGCTGCCCTGAGAGATGATCTGCGAGAGTTAAGGGAAGGAAGGGTGTTGAGTGTCCACTTCAGTAAAATCACAAATGTCATTGACTATTCCCTGTGGTACATACTAGGGAGCTCAGCCCAAAGGAATTTCTGTACCCTCAGGGGAACTTGTCTT
0.9978940670147032 CTTAAAACAATAATGTGGCGGTTAACAATAACAAAATGGAGTCACTTATGTCAAAACTTTAACCAAAATGAAGTCGGGGAAGGCCATAAAGAAACTCTCTCCCTTGCATTCCTGAAATATCTGGACATCTTGTTAGTACTTGTACACAGAGCAAACAGAGATTATCACAGGAATTTCCTCTGGCCTACAGTATTTCAGATAAGACATTCAGACCTGGACAGTTGCCTAGCAACAGCTATCTCCCCAAATGAATTAGTGCCAACCCCTGCAATGTGTCCCTGAGACCAATGAGCTTTGTTTCAAAGCAGTTTGTGTAAATTTCTCTTTGTCTTTAAAAATTTCCAGTTTGTCCCAGTTTTCCTCAT
0.5683646435790248 ACGTAGGTGCCCAATAAAAGGAGGTTTCCTTTTTCTCTCATTGCTCATGCAGCATCTGGCTCCTAGTGGGCCTTTGGGACATGTTTGATGACTGAAGGGAGCTGAGCACTATGCATTTGGAGGCCATGAGTCATTCACACCCAGAAATTACAACTCCTTTATCTACTGGGCTGCTGTTCTCACTGGGGAAGTCCCCAGTTGCCTGGTTGGCACATTGTTCCAGCCAACCAGGTATTTACAGCTATCTCTGGCTATTCTGAGCATGAACAAGATTACCTGGGAATTTCCCTCTTGATAGGACTAGAGACTCCTACCCTTAGAGCAGAGAAGGCAGCTCTGATAATGAGATGACAAAACAGAGGGCTTTTCTCTGTTCTCAACTAAGTCCTTAGTGGCAGGAAAACAGACTGTAGTGTGCACAGGCTCAGGCCAAGGG
0.3912670776276966 CCCTGGAGCCCAGATTGGAAGGGTGGGGTGGTTGAGTGCTGCTGCTGGAAGCTCTCGTAAAAGGGGTGAATGAAGTAAACATCATTAGAATTGCTGGGTGCCAGAGGCGCCTGTGTGACATGTCTGGATGGCTTCACCGAGACACACAACTGATTAGATATTCAAAGTCAGGTGCTAAGAAACCAAGGTCATGCCATACTGCATTTCTCTCAAACAACTGGGCCCAGATAAGTTAAGCAGTGGGTGATACCCCCAGACAGATAAGGTGGCAATTTTTAACAATCTTAAAATATTGTTACAGCAAGGAAGGTCGTGATAAGATCAAAGCATTTGGAATTATGTTAACGGGTGCTGGGATTTCTTTTGCCCTCCCCTCTCCCTGAGCCTCCCCCTTCCTGCCACGT
0.4983790047504696 TCAGCCACTCTGACTTAAAGTCCTGGGCATGGTCCTTGGCTTTCCACATCCTCCAGCTGGAGGTGATGAGAGCTTCACTGCATGTAACTGAAGAGTCCCTGTGGCTTGCATTCCTGGCTTTCAGTTGCCTGTTGTTCATCTTCAGCTGTGCATTATCTTTTTGGAGAGGATCAATGACACTTAGCAATAGCCATCCAATCCCACTCTCTTAATGTCTGCACCTTCTTAAGTGTCAAGCGTCCTGTAGATTTCTCTCACTAGTTCGTTCCCTTCTACTAACACACCATCCCAATTCGCAACTAATGAAAGTGTTAACAACAGGACCACCACCTGGTGCAGGGGCTGTCAGTACTCCACCTATCACCAGAAAAACAGGCCCTAATTGCCAGGCAGGTGGTGAGTGATTCAACTTCAAACTCTGTCTTATCTCCACCAGCTTTCTCAGCCCCCCTCTCACTGCCAAGTGTTGCAAGGCTGGCTGTCTAGAAGCAGTCACTGACACAGAGTTTGGGGAGCACAATACTTATTAGAGATTAATACCCATAAAAGGAAGAGAGAAGAGACAGGATTGGTCAGAGGAAGAAGGTGATCAGCAACACAGACCCACAAAGCTTT
0.7180369835364752 CTGTGATCAACACTATTTAAACGCAACCTGAAGAAGGCAACTAGTGTAGGGGTTAGTATTAAGGAAGTAAACTCAGCAGAACTGGCTCATTCCTAGATTGGAAAAGAGTGAGGGTGAGGAGGCAATGAAGAATGATCCTGAGTGCCTGGTTTAGGTGGAACCATCTGGCACTTGTCAGAGAAGAAAAGAATCAAAAGGCAGAGTCACAGGTGTGGGAGATAACAGGCTGAGCATTGAGTTCTGGGGCCCGTGGGACTGCACGTGGATGGCTTGCAGGCTCAGCTTTGGCCTAGGGAGTCAGACCCTGCCTGCTTCTGGGCCCCAGAGCCACCCCCATCCACTTGTGATCTGGGAAAGTCATTTAACACCAGGACCCTTGTTTTCTTATCTGTAACATGGAGATGCTGGTAACTCGTGCCTCATAAAATCACTTGATGTGGGTGAGAGAGAAAGCTAAGTGTTGATGACAGTGTGGGCCTGACCGTGCCTGAGTAAGCCCCATGGGAACACAGCCGTGGTGGGAAGCAGCTTCCCAGCAGCCCTCCCCGCCATCGGGAGAATCCCCTGAGGCCATGAGAGGGTCTCAGGGA
0.6689731725929521 GGAGACAATGACTCAGGCATCTCTTTGTTGCCTGCTCTCTAATTAGCAAGTTCTAAAGACATCGCACTCAGAAAAGAGGAAAAGTAGCCTTGATTTTGTTCAAAACTTCACTCATATCGTCCCCTAAATGAACTTCTAAAAATGCTATCAAGCTACTACAGAAGCTGATGAAAGGAGAAAGTACACCGCCTGTTACAACAAGCTTCCCTAGAAGCACAAGCCCAGCCCTCTGACACAGGCTTTCAAAGGTTGCCAAGGTCTTCAGACACACGTTTTATCAGACACCTATTTACTCTGTGACCCTCTAGAGTGCCAGTCAAGTGCTGGTGGGTTGTAAGATACACAGTTTTATCACCACTTCCTAACGTGAAGAGAACCAGAACCAGAACACAGGAGGGGAAGAGAAGGAAGAAGACTGGAAGGGTGAAGAGCAATTTTTCCAAATCAGTCTAAGGGAGAATTGGGCCATAGCATTTTTTTTTTCACATGAAAACATGATGAAAAAGAAGAAAAAAGGCCCACACGATTTGTTTTATGGACTTTCAGAAGAAACTGCCTCAATGCTCTGCATCCCAGGAGCTGTTAAACTCTCTCTTACTTCCAGGCCTCCCAGTGACTCCCTGCAGAGAAGGGCATTACTGAGATTGCAGCTGATTGCGGCTGAGCTGCTGCAGTCAGGCTGCACTCAGTTTGATAGTCCCAAGAGAAATGGAGCGTAGGACATTTAGGTTTCAGCATCACCAAGGCGTTTTCAACAGAGGCGAGTTCCTGATTATGAGGGAATGTGGCAGGTTTGTTTTACACAGTTATCAAAACCCCAAACATTTTAAGAGACCGAGCACTGAATATGTTATACACTGG
0.2835652120279935 CCAGTGGTGTTTTCTCAAGCTGCCTGAAGAAACAAGTCCAGCATCTGGCCTTCCTGCTGTGATAATCCTCTTCCTGCCCCTGCGCCCCCTCCCCACTTGGCCGGAAAGCGGCAGGCTTTCTCTTCCCCTCCTTACAAGGGAGGCCTGGCTGGAATGTGTCCCTTGATAACGGGGCTCGTGAGGGGCTTGGCATAGAATGGGCTGCCTGCTGTGGGCTCTCAGACACATGTGGGGCTGACTGATAAGGGCCCTGCTGGCCTTCTGCGCTGAGGCCCCATTTGACAAGCTGTGGGCAGGATTTGAAGAGGGGTCAGTGTTCACAGAGTACCCTGGAATCCATCAAATGTGCAGGGAGCGGGCTGGGCACAGTGGCTCATGCCTGTAATCTC
0.1942342248331173 AAGGTTGCAGTGAGGGGGATACAGGTTACATGTGCAGCTGTTGCTTCTGATGTGTTTCTCCAGCCTGAACTACTTCTACTCTCCACGTTCTGCTCCATTCTTTAAAGACCCCCTGCTTTTGGGAGGCCTTTCTCAGCCTGTGCTATCTACAGAAGTTTTTCCTCTGAACTCACAGTAACTCTCAGTGTTGCTATTTTGGTCCTTAAGCATACATTCTCTTTGAATGCTTATCTCTGGATGCCTGAGAGAGAGAGAGAGAGAGTGTGTGTGTGTGTGTGTTTGTGTGTGTGTCACCTGTCTAACTTGACTGCAAGCAACTTGAGAGCAAGACCATTTATCATACTTCCTGGTATAGCCTCCAGTATCATGTAGAGAACTAACAGACGGGCAGACATGTGGTTA
0.4652947580009943 ACAAGCTTCAATCCTACCCCGGAGTTGGAACCTAAGACTGACAGTTATTTGTTTTATGGCTGCTGGAAAGAACCTCTGGAAGTGATGAAGGGTGTTGGCCAGGCCCCTTCCCTTGCCAATCCCCAGGCTCTTGAGTCTTTCAAATGCACCAACCTCTCTGCAGCTAAGCCCTTACTGATAAAGAATACAGAAATCACTGTCCACTAGACCTCCCATCCAATGCTGCCTTGCAGCGTGCAATTTTCTGCTGATAAGTGAGGCGCTGTTATCAGTCCACATTCAGAATGCTACTCCATGCTTACTTCTTAAATGTATTCTCAATAGCCCACTTCAGCTCTAGAAACTGCAGATATAAGTAGAGTATCAGGCCTCACTGTCAGAAAGAATGCAAAAGGTTCGCTTTCTACAGTTTTCCTGGCACAACCTTCTACTCACAACCACCCATCAACCTTCCAAACCAGCTTGTATGTGATTAGAAAGGATATTGGGGTCAG
0.5286597415348211 CTCAAGCAATCCTCCCACTTAAGCAATCTTCCCACTTTGGCCTCCCAAAGTGCTGAGATTACAGACATGAGTCACCACCCCATCGTTCCTTTGTTGCTTCCTGTCCTACTTACTATTGCCTTATCAGTTTATCTGTCTCTGCCCCTGCCCCTGTCCTTAGACAGAGGCATCCTAGCACAGGTGCCTCATGGTTTTCCCCTCTGGGTGACCCTGGAGCAAGACCAACCTCTTAAGAGGGGAGGGGAGGGAATGTGAATAAGTAAATAAATAAGCAGATGAATGAGGGACTCTTCTCAGCATCTTTGGTGACCCTGTCTGACTATCACTGGCTGTAGAATGTGTGACAACTGAGTCTACCAGGCAACGGCTGTTTGCCGGGAGCAGCAGGACCCAGCCAGAAGACATAATGGAAGCAGGCCCTGGCCAGAGCAGGGACCTCAGAGCCTTTCCCGGCAGAGGGAACGCAATCAAAGCTGGCGCTGCTTCCGGGAGGAGAGAATTCCCAAAAGGCTCTGTCAGCCCCTCTGATAGGGATCTGCAGGGTGTGTGAGAGATTTGTTTTTCAGCCAGGATGTGGGGAGTTAAAAATAGACACCCTAATCCCTTGAGTTCGTGTCACACTTGACGCTGTGCAGAGCCCTATGGCTCCATTATCTCACTTGAGTGGCTCGGCAGCCTTTGACGTGGGGAGAGGTTGCACTGCCCGCTTTATAAATGAGCGTGTGGAGGTGCGTGCCCA
1 TTCTTTGAAGAGTACAATTCATCTGAGTCATAAATTATATTTTCCTAAAAACAGTCACGTAATCTCATATTTTTACATCTTGTTTTTTTTTTTTATGAATTGGTTGTAGAGGGTGTTCTAGCCCTGGGATATCTGGAGAACAATTATAATGACTTTTTTTCTTTTACAATTTCTAATTATTTTTAGGTGGCTTTCATTTATCTAGTGCTCTCCTTTTCACTGGAGCACTTATCATGTGTCCTATTAACACTGGTACTTGTTATCAGCTGGCTTTCAGATAATCCTGCTTAAGTGACTGGTTGATGACAGCTTTTAAGATACTGCCTCTCCAAGTTATATTTCTATTCATGGAGGATTCTAGAAGAACAAAAAGCCTTGACATGAGGCTTTCTAATAAAGGCACTCATGTGGGGCATCATGCAGTATGGAAAACAGTGGAGGCAAAACAAT
0.4528698549732492 GGCCCTGGGCCGACTCCCACTGAGGACTGAGGACCTGAGGCTCACGCTTCATCCCCAGCGCCGGCTCCCTGAGGAGGCCCCTCTGCACTCTGTCCCTCCTCAGGGGACAGGAGGGGGAGGGTGCAGATAAGGCACCGGGCCCCGGGTTATCTGGCTTGACCTTTGGAGAAGCCGAGAGGGGAGTGTTGTCACCCAGAGGAGATAGAGGGTCGCCTGGTGGGAGCAGCTTCCAGCCTTCCTGAGTGGTCAGGGGCAGGGCCCTGCGAAGACAGCCTGGACTGGGGCACTGGCCTGGCCTGTCAGCGCCATCCCTGCGCGGCTCCCAGACACCCAGCTGTGCCGGCCTGGGGCATGCATGAGCGCTCACGTGCCTTTGCTTCTGAAAGGAACTTGCAG
0.9520058474030705 CAGCTCCAGAATATGAGCTCTCAGAGATCTCTATCTCCAAAAGAGGCTGTAAAAAGAATGGGAAATAAGGAAAAGAGCTATGACTAAGGTGACCTCCTCCACAGGTTAAATACCAGCAATGGCCAATTTTAGTACTGCTGTACCTCCCTAAAAGATTAGACTCTCTCAGGCTCTGCTCTGGATAACCTCACTGCAATGGCAACTTGAGCCTTGTTGAAGTTGTGCAAAAACATGGCTCTATCTCTGCTGTATCACACAGCTCCCTTCAATCAAGTGATACCAGTCTCCCGGCCTCCATTCTTGACAGCCTCAAGGAGTTTTCTCGCTGCAACCCACGTTGCACTTGAAATTAATCTGACTTCTGAGCCTTCAGACCCTACGGCACTTAAACGGCCCCAACCTCACCCGTCACCCTCAGGTTAAGTGTGAACACTGGCACAGCATGAAGTGACTCCTTACTACCTATACACACTATGGCCATTTGCCACCCCTTACTTTATACTCTAAGGATACCCAACTTGTTTGGAACGCTTCACCAATCCTCCCCCACCTCCCAATCTCCACACCACCGCACTACATGTGATGAAACAGGCTTCTCCTAATTCCTCCTTTACCCCGCTCAACTCAAAATCACCAGTATTCCTCCAGAAGGAAACTTTCCACAAGCCTCCTCT
0.7328714380802448 CAAGCAACGTTAGGTTTCCCTGTGACCATTCAGACTTAATGTGACTCTATGAGAAAGCACTGTTGCAGGCCGGGGATTGGCAGGCAGCCCCGGCCCCCAGCCTCAGATAACAAGCTGCTCTCCAAGAACACGTGCTAGGAAAAGTGCTTGATCAGAGTGTCAGCTTGTGGACTGAGTAGGAACACTAAGTGGTTTTGTCTGTCACCTCCTTCACCCCAGCTGGAATTTGGCCATAATCTGATAGAAACACTTTGCCCACTTTCAGGAGAATTTTCCACTATCAGTAAGGCTGCTTTTTCATACTTCGGCTATCACCAAAGCCTTTCAGAACACTTGTACTACTATCGCCCAGGGGAGCTTATATGTCTCAAGGGTAGGGGGTGGGGGACCAAAACCATTCTGAGCATGGAACACTCAGTTGATTCAGGTTTCATCCATGTTGAATTTCAGTCCCTGTTTCCTGAGGACTAGACTGTACTAGATGCTGTCC
0.3660883099601634 ATCTTAGTTTCTAAGAGAAAAATATGTGGTTTAAGCTCTGATGATTATAAAGTCTAATATAATGGAACATCCACTACACTACATACATAAACACACACACACGCACACACACACACACACACAGAGAGAGAGAGAGAGAGAGAGAGCTCTACATTTGCAAAGATAAGTCCTACTCTAAACACTCCATGCAGAAAAGACATTTCAGTTCCTGCCAATATTCTGGAGGTACTTACAGCATAAGTGGACTGAGCTAGGGAGTCTTTCATTGCTTCTTCAACACCTTTTGTAACAACTATTTTAGCAATGTCAAGTTACAGCAAGGTTAAGAACACTACTTTGAATTAAACGACTGAGATTAGGAATAAGTAGGTTTCCTTT
0.2755844056506528 TGATCATTGTATCTCCACTTAGAGCTAGGAAAATGAGGGCCCACAGGGGTTAATAGTTTGCCCAAGGCTGTATGCGAGTCCATGGCAGAGCTGGGGTGGTCTGACCATTGCCTTATCTGGCCTGGGGGCCGCCTTTCAGCCTGGAACAGGCAGTACTGATAACAGCTGACTTTCCAGCGGTCTTATCACTTTGTAAAGTGCTTCCACACACTGCGACCTCCCTTTGCTCTCACAGTGACAGGCCCAGGGAGTGGGGTGTAGTTGTCACTCCCTTTGTGTGCACATGAAGCTGAGACCCAGCCCAGCTTATCCTGCACTCTGAGGCAGAGCCAAGATG
0.4705014227650473 AAAGCAAACTCACATTTACCTGATTAGTGCCAAATGTTTCTACTACAGGTTTTGCATGTCACCAGAAAAAAGGCCTGATATGTAGGTGTTAGAGCAGAATAGTATCTAGCCTACAGGAAGATTAAAGGATTAAAATGAACTAATACTCTACTTCCTAAAACATACAGACTTCTACACAGTGCCAGTCAAATGGCAGCCAAGTGTTATCAGCAAGGCTAAATTTGGATCACATAACCTAAAAACCACTTAAGATAAAAAGAGTGCTGAAATAAGCGCAAGCCATAATAAGGGCCAATGAGAGAATGGGTCACGTCAGGTGACATGGTTTCCAAAATAAAAAAAGGCCAACTCAAAATACAAAAGAACTGGGATAAATTCTTGATAGCTGGAATGTTTGGTGGAGGCTTAAAATGAGCAC
0.5048830288859385 TGATGAAAACTATAATCAAATTCTGCTACCTGAGTGGCACATTGCCTAATGCACTGAAAGCAAAATAGAAACCCCTAATCAAGAAGTCAGCATGTTGTTTAGGACAAGGGTAGATCAAGTATAGTGTCAACATGGCTACAAAGTCAAACCAAGCAAAAATATTGAGTGCTGACAACACTCATTTGTTTCTTATCTTTCTTTCTGATTAGCAGACTTGGACAAGGTGGCATAACAAGGTCCATGAACAGTATGTGTGTGTTTAACTACTTGTCATTTAAAATTTAGATTAGATAAGACCTCCAATAAGCCTTCACTGATTGCCACTCCCACCTCCTATTCATCTTTGCTCCTTGGCAATCCCATACACACTTATAATGATCAAATACCCTGACTGACTAAGATTTCTTTCTGTTGTCAGTTTCCTCCGTTAGACTGTAGGTTCTC
0.7355990927899027 TGAGCACTTACTTTGTTCCAGTCACTATTCTAAGGATTTTGCTTGTATTATCTTATTTAACCTTCACAATGCCCTCAGATAAAAGTGTGCCTATTTTATAGACAAGGACAGTGAGTCCCCACCTCTTAAAATCCTATGAGCAATAGGTGATGGAGTAGAAATTTCATAAGACTGTGAGATGAATATGGATACTGTTGCCTTTGAGGTACAAAGAAATAGAAAGATTATCAGTATGGCTCACCATAGAGGAAACATTGGAGATTGAGGAATCTGAGTGTTTTCTGACCCCAGGAATGGAGCAAATTGAAAGAATAACAGTGGAGAACCACATTTTTCCTCTGTTAAACCAGAGCTATCTAGAGGAACTCTGCAGTATTGACGTGAAGAGAATTGTAGTGGATAAGAACAAGGAAAATTCAAGGCTTATCAGTAGAAATGGAATGTTTGAAGTCGGAGAACTCATAGGAATGCTAGTACCAAGTACAGAATCAGATTAGCTGGAGGAGGGAGCTGGAGAATGTCTACACTTCACTAGATAATGAGAGTGGAGTGAGCCAAGAACTCAGTTGGAGTTTGACGGAATGAAGCAGAGGGTCCAACTGAGGCTGAACTGAGCGTGAACTACATTCAGCGGCCTAGGCAGTGCCCTCCTTGATAAGATAATGATAACAAACATATGCAAATGAATTAAACAGTACAGCAACATGTGGTCCAGCTAGCCTCACCTTGGACTCTGAAAAGTTCCATAGGGGCTT
1 ATCATACTAATATGCACTATAAATTTTAAAATTACTTAATGTAGTAATTTAATGTTTGCAGTATGCAAGGGAATGTATTACGTACTGGAAGGAGAGAGGAGACAAACACCAGACCCTGTACTCAAGGAGTACTGGTAGTATCATTTATCATACAAGACAGATAAGATAAGGTCCATATGAGAGCTATAAACAGATGCTGTGAGTTCAGACTAAGGAGAATCAGTTCTTGCTGTAGGTAAGGGGAATGCTGTGTTTATAAAGCAAATGACATGGCAACTGGATCTTGAAGGATGAGTTAGGTGAGTAAATTTCATCTGAAGGAGTTGGGAAATATCCTAGATGAAGAAAATTGATTGGCGGGGG
0.7508059020754413 TCAATGATGATCAATGCAATCTTTAGCTCCTCTCCCCTCCCCAGAGGTGGTGGGTTAGGGCTGTGAGTTCCAACCCTCTGAGCACATGGTTGGTGTCCCTGGCAACCAGCACCTCAACCAGTGGGGTTATCTAGAAACTTTCCAAAAATAACCTCATTAACATAAGCTCAAGTGTGGTTAAAAGGGGCTTATGATAAGTAACAAAAGACTATATTTCATCTTTATCACTCTGGAACTGATCCAGAGCTGTTTCAAGAACCCAGGACAAAAGGCCAAATATAACCAAAGATACTCTTATTGCTGTAGTCACTTATGAAATTACACAGGTTATAGGAGCAGTCAGCCAGGAACCACGGACAAAAACCAAAATATGCACAGCACATTTTGATTAATGACAGATGGCATATATGACATAAGTTCCATAAGATTATGATACTGGACTTTCATTGTACTTTTTCTGTGTTTAGGTATGTTTAGATAAAGAAATACCATTGTCTCCCAACTGCCTGCAGTATTCAGTACGGTAACACACTGCACAGGCCTAGAAGCAACAGGCCATACCATAGAGCCTAGGAACGGAGTAGGCTAT
0.4218535411487928 TGGCTGAGGCTACTATGTTGCCAAAACATCAAATCAAGGTGGCTAAGGCATGTGAAAGTTGCCAGTACCAGAATGGAGTCACTTATGTCAAAACCCTAACAAAGTGGAGTCAGGAGGCCCTAAAAAAGTTCTCACCGCACATGCCTATAATATACCTTATCACAAGAAATTCCTGCAGGTCCCACATGCCCCACTTCTGCACTCACCCTGCAACAGAGCTTATCACAGGAATTTTTCAGGCCTGCAGTATTTCAGACAAGCTGCCAGCACCAGGACAGTTACTCAGCAACAGCCATCTCCACCAATGAATAAACGCCAACTCCTGCACTGAGCTTCTGTGACCCGTGAGCTTTATTTCAAGCTTTATTTCATGGATTTCTCTTTGTCTTTA
0.1793113591121733 GGAGGGATAAATTCACCCAGATAACACTATCCTTGGGGTATGGTGCCAGGTTCTCCAGCTAGGGCCCTGACTTTGACATCTCACAACTACATCTGTGCATTGAACTGTGTTGAAAGTTCACCTGCTCTGACTCTTAGACAAGGGTTTGGTCTTCAGCTCTTTCTGCTAATCTACTGCATGAGATAAGGGCTTCTTTGTAAGCTGCCAAAGCACTCTGGCTCTCATGCTTAGTTTTCAATGACTTGCTAATTGAGCATGGCTTGCATTGTCAAACCACTCCTCATGCCAACTATGCTAGTCAGGTTCTCCAGCAATCAGACATTGAGATAACATTAGATTTACAGAAGTTGCACTGACAAGTAACGTCTTAGAAAAAAACCAAACACCGCATGTTGTCACTCACAGATGGAAACTGAAC
0.5939132495193389 TTGAGGCTGGATGGAAATTTCATCTCTTGAAGTTAGAGTTGGGATCTATGCCAGTTTGAGTCATGGGAAGTAAATGTCATTCCTGAAGATGTGAATTTCACCTACCGACATACATTGAGTGCCTCATACCCAATCCACATTGCTAAGCACCGTAGAAGCACAGAGGAATGCAAGATAAGGTCCCTGTGCTCAGGGAGTGTGAAAGATATGCACACACACATCAAACCAAAATACAAAGCAGTCGGTACAGAGGAACACGGAAGGTGAAGAGAGGGTAAGGGCTTTATCATTGTGCGGAAAGGAGACAGTTCCGCTAGCTGTGGTGCTCAGGATAAGTTTAATGGTAAAATAGGCACTTACAGGAGACCTGGCAGTGGATAAGATTTGGATGGACAGAGAGAAGAGACA
0.5747742841906615 GACTGACTTATAACTCAGGTGTGCATTTGCCTGCTTAAATCTGCCTCAGTTCCAAACAGCTTGCCATGCTCTATATATAGAGATGACTTCACCCTCTGTTGGAATGCAGCAGCTGTTCAGCAGTGCACACTGATATGCTTCAGAGACTTAGGCCATATCTAATTGAGCACTTCAATACTGCAGAGATAGGCGCCTTGGAAATATTTAGATAAAATACCTTTGGCCAGATGGAAGCCGGCCAGGATACCAGCATAAAATCTTCATCTCACAGGACTGCTAGTGAGCCTTGGCGGGGGGCTCCATGGAGGGAGGTGGCATCAGGAGAGATGCCAGTCTGTCCTATCCACCCCCTGCACTGT
0.4413049387681725 TACGGTTGCTGTATAATTTTTCAATCAATTCGTATCAAACTCTGTGGGGTTAAAACTAGCTGGGACATTTTGGTAGGCTTCATGCACTCAAGGGCTTCCTGCGGGCTTAACTGTTAAGCCGAGCTCATGGAGGTGGTGTTATCAGAATGCTTAATGGGGACCGAGGGAACGTGCTGGCTGATGAGGTTCTGCACATATCAAGTAATGTCAACTCTGTGCCACTCAGCAGCTGCCTGTCAGCTAGAGCAGCACCTTTGATAAGTGGGTCCTGGGTAGAGATCTGGCAGTCCCAGGCTGGGATTTTTCTTTTAATAAAACATCCGTAGGTTGCTGTGCTGACGACAAATGACCTTGAAGGAGGTGACACAGTGGAGCAGGGGGATTTTTTTTTTTTT
0.5014433801313684 GGGGAAACGGAGGCATGCAGGTGAGAACGTGGCAGCAGTCCCTAAAAGTCACTTCTGGTGCTGGCCCTGGCTCATCCGTGCCCTGGGGGAGAAATGCAAGTGTCAGAGCTGCGGAAAGGAGCTGAGATCTAGCAGGGCTCGCCCTTATCAACCTCCGCCTCTAACAAGGGCCACACAGCACGTAGGGGAGATTAGGCCGATCTGCCTGCCTCATCGCGGGAGGCCAGGAGGGTGGAAGGCAGCGGATCGCGCCCTAGCGAGCAACCCACATGCTCTGGAAGTGTGGTTCAACTTTCACCAGGCTACTGCGGGCGGCCGGCCAGCTGTCAGCGGGCACTCCGCCCCCAGGAGCTGTCCGCAAGCGCGGGGCGGTGGGCACCGCGGGGAACAGCCCCCGGACAGCCAGTGGCACGCGGAGACCTCGGAGAGCGCAGGCCCTGCTTTCCCGTAGGAACACTCGTGGGCATCGGGTCGCCCGCTTCGCCCCCGCGCTCTAGACGCACTTTCCTGCCGCCTGGCGATGTCCGAAGTGCATATCAGAGCATGGACTTGGTCTTCCCAGCGCTACCAGACCGCTGAGCCTCCCCGCACGTGGTGGGGCGCAGGCGGGGCGCCAGCT
0.6610676655463386 ATATATACAACAGCACGGTCTACATTCATTGTCAGCCATCCTCACACAAACGTCATCCACAGGAGAGGGTCTTGGCCAGAGCAGAAATCAACAAGACTATGACTTGGAAATTCTAGGGGGAGGGGAGGCCTCTAGCCTCAGGAATTTTGTCACCCAGGTCAGGGTCTGTATAATAGCCTTCTTAAGAGACAAAAAGGGCACTCACAGAGATTTGGACCAGGGCTGGCCTCCATCCAGCTTTCTACATTATCTTGAGCTCACTTGGTGAGATAACATAGCTAGCAGCTTCTGCATTCCTTCCTGGAATGCCTGTGATGTTTGGAGCCCTGCCACATGGCTCAGGCATTAATCATCAACCAGTGGATAAATGTTGACTGAGCATACTCTGTTAGGTCCCTGGTGTGCCTAAGAAGAGGGGTACCCTTTCC
0.4603923533154326 TCAGATGCAGGCAGGAAGAATAGACATTTAGACACACTTCACACTCGGCTGTGAGCCTGGCGCTCCTCCTAAACATGCTATTCAAAGTGCTTGGCTGCCTGTCTCTGGCCCACACCTGCCAGCGTTGACAAGTGCCACTGAGTTCATGTCAACTCAGGCGCTTGTCAGAGGGAATCTAGACCAGGCTGGGGCTGAGACAGGTGGGCGATCCTCATCCCACTGCCTCCCACTAAGACATAACATTGTGTGGAACAAGGAAGGACTGGTTCAAAGCCACAGAGCTGGTTACAGGCAAAGCCGGAAGCAGAACCTCTAACTTCAGGCTCACGTCAAAAATGCCCATAGAGTGCATTTTTTTCTGTTAAGATTTTAGAACTTTTTTCATTGAATTTAATCATTTCTGATATATTTGGGCTTATGCCTACCATTTTACTATTTGTTTTCCATTTGTCCACTATGTTCTGTACCATTTTTTCTCCTTTTTGCCTTCTTTAGGATTTTCAAGTATTTCTTATGACCATTTTGATAGACAGATAGATGATAGATAGATAGATTAGATAGATAGATAGATAGATAGATAGATAGATAGATAGATGATAGATAAATAGATAGATGCATGGATGGATGGATGGATGGGATAGATAGATAGGTAGATAGATGATAGATAGATAGATAGATAGATAGATAGATAGATAGATAATGGAAGGATGAGAGAGAGATGCACGGATGGATGGGATAGATAGATAGATGCATAGATGGATGAGTGGATGGGTGGATGGATGGATGAGATGGATGACTAGATAGATGAATGGATGAGATAGATGATAGATAGATAGATAGATAGATAAAGAGAGAGATAGATAAGACAGATAGGATAGATGGCTAGATAGATGAATGGACGAGGTAGATGATAGATAGATAGGATAGATGGCTAGATAGATGAATGGATGAGATAGATGACAGATTAGATAGATAGATGATAGATAGATAGATAGATAGATAGATAGATAGATAGATAAGTAGATGAATGAGATAG
0.7936739210303473 AGGAATTAATTATTAATTATTTGCCTAAGAAACAGCATTTGGATGGCATGAATCTAATGGAATCAGTAATATCCATGCATCTGTTGAAAACCAATCAACCCGTTTAAGATTTCAAATTACGATCTGAAATGTGAAAATGATTGGTAGATTATCAAACTCACTGGGCTGGACAGAGCAATATGTCAGCACCTTTGCCCACGTCCACAGCCTGAAAGCTTTTGAAGGTAAGCAGCGCCGTCATCATTTTGGCATTCTATTTTAGTCTAAGCCTACATCAGAAGCCTGCCAGGGCTCAGTGCTGATAACAAAGCACTATCGCTTTTCAAAGTGACAGAGCACAGTGACATATCAACACTAAGACTTAAACGAAAAGCCCCTTCTCATTTAACTGGGAATCTGCTGAAGCTGTATTCAGCCCAGCACTCGTTTTCAATTAAAACTTTCTTGTCGCAAGAGAAAAGTTTGGCATATCCTTTTCAACGACAGTTATGGAAGTGAGTGGAAAGGGTAGTGTAGTGTAGAGTATAGATGGTCCAGGAACAG
0.8637296517800969 ATGATATCAATAGTTTAACTTATTTAGTTTCTATTGTTCTTCTGTGTGAGCTCAGTTCTGTTGCTTTAGTTCTGTTCCTGCTGCCATTTCTATTTTCTGCTCTAGAGGCCTAAGACTTGATCTGTTTATCTTTGTTCATTGTAGTTCATTTAGTTGCCAAACTTTTATTAAGTGCCTCTGTCAGTTAGTGTTGTAAACCTCAAGGACACCTTGTTAACAAGTGATTTAAGATTACTACCTGAAGTGGTTTTTATCTGTTGTTAGTGGGGTAATACCAAATGGAATTAAAATTCAGAGAAACTGCCAACTTATCTTTTAAGGAAATGGTTTAAACCTTTTCTTAACCTGGAATAAGTGTAGTTGATACTACTATTAATAGCAAGTGGTGCTATTGACTGTTACTCTACCCTGTGGCAAGTGGTTAATGTGGAATATTCT
0.780719384019074 TATCCCATACCCTACTGACTTCCAATTTTGATTTCCCTATTTTTATCATTCTCTCAGTCGCTCAGTTCCAAACTTCAGAATCACCTCTGGTTCCTCCCCTTCCCACAGCATAATCACTAAACCTTGTGTACTCTTCTCTCATGTATCTACCATACCCACCCCCTTATCACTTGCAGGTTGTCACCACTCACTTCAATTGCACTCCCTTCCTCCAGTCCTTCCCCTACTGCTTCAGGCAGTTGCCACTCAGATACAAACTCTTTGCACTTGAATTAAACTTTACCATATGATTCTGCCCT
0.6834270710034087 TGGGGCCTGGGAAGGAAATGTTCCCCCTTTCTGGGGCAGGGAAGTGTCACACTGAAAACATGTCCTCTCTGAGTTGCCCCTGATGGGAAGGGCAACTCAGATAAAGGAAACAGATACATATCTGTTGTTGGGAAGCTTTGTTTCCACACATGATATATGGTTCCGGAGGAGGAGTTAGAAAACAAATTATTGTGTCTCTTCACCACCGACAGGTCTTTAGTGGTACCGACCACAGAGAAGAGATGCCAGAGATTAGCAGTTACCTCACAATAGGTCCGCAGTACAGGAAAAGTGTCTTAAGTTTATCTATTGTTAAGTGATATAATTTATCATCGCCAAGGGTTAAGGAGCAATTCCAGTCCTTTCCTACTTCAGGAACAGAGATTTATAAGATGATGCCCAAATTTAGACATTGAGGCACTGCTGGCAGAAACGTCCCCAAAGGCTGATGGCTTGTGTGTGCGTTTGAAGTCAAGTCATTCACAGAGCTAATTTGAGGCTCTCCTCGGAAACTATATTTGCTTTCTGAGTGCATGGTGAGTTTTCATTTGGGCCCTGACCAGCTGACAGCTATGCAAGTTTGTAGATACCAGTAATTGAATATAGATAACCTTGATGGTTGACCTCGTCAGAGCCAGGCCTGCCTGTTCCCCATTGTTTCTGGTTTTGCCAGTAGATACTAAACTGCTGCTGGATGAATTTATATATTAAGAATTCGCTGCAGTGAGAATTGCTTATCGTTCCCTGGTCTATCCTGTAAGCTTCTATTTACTTGACGTAGTGAGCTGGGAATAAAAGCCATGATTTGACTGTTCACTATTAGTGGCAAGGGGCGGTCTGTTGGAAAAGCTCTATTAATTTCTAAAAACAAAGGAGGCAGAGAGATCATGGTTTTGCTTTATCCAAATCGCAAAGAAAGGTTCTTATCTCCCAAAGCTGCCTGTGGCTGTCCGAAATTGGTTCCCAGCCATCTTTTTAGTGTTCAATTTAGCTTAAAAGCAGAGTTTGAATCAAACACTGTACTGTCACCCATGTGTAGCACTTGTGTTTTAAGGAAAGCATTTGGAAGAGGTTCAGAATTTATGTTTAATTCAGAGA
0.6837837649499688 CCTGGCTTTCATTAGTGCCTAAAAACCCAGGCCCAAGTGTCAACTGATGCATTACCATCAGATTATTTACTTCACAGATCAGTGACTAAGTTTATTTGAGTCCGATTTTCATGGAATAGCATGGATTTTTTGTTTTATTTTTAAATCTGATAAGTATAAGCTTACAGGTGTACCTGTTTCCTGCTGTTCTGAAAACGTGACCAGGCTCTCTCTGTGACAGGATCACACCACAGCTCGTAGCCACTCTGTGCAATAATCTGCAGATGATAACGCCTTTGCAGAGCAGACCTGCACGTGTACTTGCAGAAAGGTCTCTGTCAGACACAGCGGGTGCCTGTGATATCTGAGAGTGGGTCAGCAGGACTGGCACGTTCAGCAGCTCAGGAAGCCAACTTCCAACGGCAGGAGCAGGACCCTCTGCATGTGACTCTGATGGGGCAGATGGTCCTTGGGGCTTCCCTAAAGCCAATGGTA
0.1367494769369326 TGGTTTTCAATAGGATTGCTGATTTGCCAAACTACACTTTTGTCCTCTTCGCCTTTGCCCCTTGAGTGGCCCTTTAAGCTATTTTAGCTGAAGAGCCTGCTGAGTGAAACAGAGCTAACCCATTGGCCGGGATTGCCTTCTACCCCACAATCACAGAAACTGGCTGGACTCTCATAGCACTGATATGGGACAATCAGAGTTATGTCAGATGCACTTGCAGGCCTGATAGGAAATGTCACTCTGAGATGCCTCAGCTGCAGGACAGAGAGCTCAAAATTGGTGTTTGAAAATAACCATGATGAGACCCAGAGACAGAGCACTTGAAAGGTTGAAGAGACAGAGCACTTGAAAGGTTTGAAGGGACAAAGGACAGATTTACAAAGAACAATCCCAAGGGACTGTCTCTC
0.6191029523998069 CCAAGTCTCCTGTACACCTCCGTGCTAGTGACAACATGTGGGGACCTCTCATCCCAAAGTTTTGGGACAAAGTCTCCCGTCCCTTATCATTTGTTTTCACTGAGGCTAAATGTATCTGTTCAGTACATGGATAGATTTTTAAGCTCCTCTCACAAAGTCTTGTGCTTGAGACAAAATCAGCCCAGGTTCTGCACTTTGTCTATATTTCAGCAGCTCTCCTGCTTGATATTAAAAATAGCCTTGTCTAGTCCATCGAGATCAGACCCAGGAGACAGGCGCCTGCTATTCTAATCTCTGCTTCACAAATAGCTCTCTATGGGCTCAAGCATCTATCAACACTTCCAGGGGTCTCCAGTTATAAAACAGGGCCAGGCCTAGTCACCTATAAAGGTAGGCTCTGC
0.7749043331081489 TACTGACTTTGTAGATTGCCAGTTGACAATATCTGGGCTGTAAAGATCTTAACTGCCTAACCTCACCCCACCAACACACACACAAACACATACATACATACACACACACACACACACACACACACACACACGTAGGCATTACTGGAAGACCTCCCAGGTTATCTTGTTTACCCTCCCAGCCTTTAGACTGGTGCCAACTAACATATTCCAGAGTGCTGTCAACTCTACGTTCACACAGCTGTACTTTCATGATTTTTTATTCCAGTGCAAAGAATCAGTGTTA
1 TGAAAGCTAAATAACTCTTCTTTATAAATGACTACTTCTCAAGGTTTCAGCAAAGATAGAAGGGAAAGATGAAAGGAGCAGTATGCTAGGAGTCAAAAGGGGGGAAGGAAACTCTGGAGATTGTCAAGGTCAGCAAACTGCCTCGAGAGAATTAGTTCTGATATAACACTTAACCTCTCCAAGGACCTCTGTATTTTTGGAAACAAGGAGACACTAGGGAGGCAGAGAAAGCCGCTAGGGAATGTTGTTCAGAGATTATACTCTCCTAATCAAGCTGAACTCTGTTAACCCTATGATGTTTGCCAAAAGTGACTGACTCTTCTGAATTTCTGATGGCTTCATATCTTATCCTTTCTTATCTTTTCCATTCTAAGTGCACAATGTGTAAGGAGTCCCTCGGAATAAAGCAGCCCTGGCATGCCATCGGGGATTGAAGTAGGAACGATTTAACAAGGGATACTTGGAAATGTTGTCATGTGCGAGTTGTAAATTTTCTTTTTTAATCTGGTGGAAAATTGGAATGGCATTTCTCTGTTTTGCCCAGCTATGCCAAAAATCTTCTTGGTCCCACATAGGCCTAGGAAGGATGTAGATGGCAATCACAAAACAAACAAAAAATGAGCAAACAAATAGAAG
0.4957648513677992 ATCAGAAGCCCATGGGTTTGCCTATCACATGTCTTGTTTTCTCCTGATCCGTGGCTCACAGGCTCAGTGTGACCCAACCTCCTAGATTTCCCCATCAGTGCTATTTGCAGTGCCCCCAAGCACTTTCCTCCACTCCAGTCCCTGAGCGCATGCCAACGGCCCTATTTTCAGCCACCCCTCTCCATGCCTCTTGTCTGTCTCTAGCTGACAAGCAGATTATCTCTTCTGTCCACTTTGTTTGCCAATGTACTTTGGCACCATTGAATTCCAACACATGAAGTAAACTGAACTGTGTACAACGCTGAGCACACACGTGGTTTGGAGAGCAGCCCCTTGTCAGGATCCAAAATGTTCCCAAGCCTTGTTGATATTTGGGTCACTGCAGATCTCTGAGTCCCCCTTCCTTTTTAATCTTCTTCCCCTCAA
0.3417286548524798 CTATCTCTATCTCTATCTGTGTCTCTATCTCTATCTCTATCTGTGTCTCTATCTCTATCTCTATCTCTATCTGTGTCTCTATCTCTATCTCTATCTGTGTCTCTATCTCTATCTCTATCTCTATCTCTATCTCTATCTCTGCCTATTGATATATCTGTATATATCTATCTAAATCTCTGAAACAGCTGCTCAGAGTAAAAGAGGACTGGGTGCTATGAAAAGAGATAGGGCTTAGAATCTTTTTCAGATGAGTGTGTTTCTCTCACTGTTGTATGTGGGTTGTTGAGTTATGGGGTAGGGGTTGGGGGTGGGTGCTGCAGGGTGACACTGGTATGATATTCAAGTCTGCTTGTGAAG
1 CCAACCTCAGCAACAAGGGAATAAATAGCTTCCCACTTATGTTGCAGCTGAGGGAAGAGGTACAGCAGCAAATACAAGTCTCCCTAAATAAAGGCAAATATTTCTGTCATGCCAAGGAGGGAGGGAAAAAGGGAGGCTTGCCAGAGTCGGCTGGGAGATAACAGTGGGAACTGCTGGTCCATCTGGTTTTCATTCTGCTAACACTCACACGGAACTGTTAGAGAAGGCAGTCCAGATACACAGATTTGAAGCACGTGGTTGCACAGACAGAGAAAGGAAGAGCAGGAGGGGGAGGGGAAGTGGGAGTAACAAAAAAATAAATAAAGCAATAGGAGGAAAAAGAAGAGGAGGA
0.8005720925916755 CTACCTCACAGGTCTTTAGCCAGCATTATTATCAGAACACTATGTTTGGTCCACCAGCATGGACAATTATATATCACAACAGCCCAGAAGACCCAAAGTCCCTCAAAGGAAGTGTAACAGGGCACTCATGATTGTGTCATACATTTTTCCTATCACATACTGAACCATTCAGCTACAAGAGTGTTGAAATAACTAATCAAAGATACAGAAAAAACATATCTTTGAAAGGTGTTTCAACACTCTAGTAGATAAAATGTATCTTTGATAGGCTATTTCAAGCTACTAGAGTGTTGAAATAACCTCTACTAGAGTTTCCTAGCTACTAGAGTGTTGAAATAACCTATCAAAGATACAGATAAAATGTCAAGTTACTGGCAATATAAGTTTGGGGAGTCATTTTCCAGGATTCACTATGTACACA
0.5231851725529242 TAGTGCCTCTCCGTATCTTCTTTCTTGCAGATGTGACCAGGTGACCCCCCTCTGGCCAGGGAACAATGGGCCGAAGTCCTCAGGGGATTTGTGGGGAAGCGCGCCCCCTCCTCCTTGGGGTTTTCTTGCGGAGCTGCTGTGAAGACTCAGCTCAGCTGTGATAATTACCTGAGGTCAGCTTCTCCAGAATGCCCTTATCTCCTAAGGCCTTTGAGATAAGCAGGAATTGTGGTGTCTGCCTTGCCTCCAAACCTTTATCCTTGCTTATCTCAGTGGAAAATTCCAGCAGGGATTTCTGAACACCAAGTTAAATTCCTCCACTCAACAATCAGTTTGGCACGTGGCTGCCCGCCAGTCTGGGCAGAACAGAGGGGAGCCAAGGGAATAAACCCAAGTCCTGCCCCCAGGTGCCCAGAGCCTGGCGGGGATGGGACAGTTGCCTGCAGAG
0.5112610974190962 GCTCTCTGGTTCTCCTGGGGAGTCACCAAGGCCCAGCGTGGGTGAAGGACTTGCTAACAGCCACCTGAAGCCCACACTTTATCTCCTATGCTCTGTGATCAGGCCTCTTGCAATGATATTACAGCTGCTTTGTATGCCCTCCCCCACACACACACAAAAAATTGTTTGAGAAAAGACAGAGGCAACTTTGTATGACTCTAATCTTTGCTCCACTTAAAAATCCCAGCTAGTCTCTGTGTGTTAAGATAAACTCTCCTGGAAGGCGTCTGAAGGAAAAGCAAATATTTTGACCATTAAAAGAACCTCTAAATAACAAATGTCAAAGACAGGGCATGTGTTAGGCAACTTCACTTATCTCA
0.7105528804152386 ATTATGCATCCTGGAGCCTTTTAAACAATATGGGTAAACTACTGTTTGTGAGGTTAATGACAATTATCCCCTAATTACTGCATAAGTCACTCAGTCCACTTTATCTCATAGGCAGGGTTCTGCTCTGTGTATCTGCCATTGTGTCACCGTAAATGAATCTTGTATTGCTATGTTTATCTGCCATTGCCTTGTAAATTATACTGACAGAAGAATGAACAAATTACTGCATGTCATCACTTAAATACTACTTCTGAAATAAAAATAAAAAGGCTTTGGCACAGAGCTTAAATTTTAGCGGATCACAATTAGTAAAA
1 GATTTGTGAGTAAGAGTCAAGAGAATTTGAAAGCTGGGTACAGAAGTCTGTATGCTTTACTGAAGCACCAGTTTAATCTGACACTCACTGTGGCCTTGAATGAGTCACCTTTCAGGGCTGAGTTCTCTAATCTGTAAAATGAGAGTGTTATGTTAAATGTTTACTGAGGTTGATTATTCTATCAGCTACTTGTAATTCAGCTGCATCATTTCAGTTAGCTATAAATAAACCCCCTAAGACCCTCAGTGTGAATATGAACAACTATCATTTCATATTATTTCATATATCAAGTATTCTCATTTATAATTGGGTTGAGGTTTATTAAAAAAAAAAAAAAAAGCTTTTTGGCAAAGGGAGGGACTGAAAACAAATTCACCACTGCATGGTGCCCTGCTTGAGCCAATCTGACTGGAGCTTAAGAAACTCCACCCAGTTCTGGCTAACATCAAAGGAGACTCAACACCACTCTGCCAGAAAATAAGCCCTGTATTATCTAACCAGGCACTAAGGGAACACACAGTTTTCAAGCACAGCACTTTGTATATCTGATCTTTCATTCTGATGACATGCCTGAAGTGAAACTATTAGTGAGCCGGGTTTTTTAAAATAGGTAAACTAAGGCAAGAGGCAACTACATGGCATGATGATAAAATACTCTCTTGACTACAATCTCACTATTAAGAGCTAGGTGCTCATAAACAGGAAATAAGGATATATGATGAGGCCACAGTACTTTGTT
0.2656762113727198 GTGCCTGGAAGATTTGGAAAACTTCTGAGAGAGACATCGTGTGAATTTTTCCTCCCTGCATGTCCGCACTGCAGGTGCAGAGTGGGCAGATAACACATGGAAGCCAGTGTGGCCCTATTTCCCCAGTGTTCACAGGACATGGGGCACAAAGGGCCAGCATCTTTTCGCTGTTGCTGCTTGCCATATTTAGTCACTGAGATCTGGAACGGGCCTGAGGAATGCTGAACTGAACTGTTGCTTATGTCATTAAAAACTCAACTAGGCAGAAAGCTAGGAATGGAGCAGTTGACAAAGATAAAGCCGAGAGCTCTGTGGCTTATCCTTAATTAGGTGTTGGCATTGGTTCTTGTCAAACAAGGGGAAAGAGAGTGTGCTGTAGCACACGGACGCACACAGACAGCCCTAGTCACAGTTGGAGAGAACACAAAGTGCATTCAAGCTGGCATTGAAAGGGATTTAGATAAGTACTCGAGGTAACAAAAATCGAAAAAGGAGGATGATAGCAATGGAAGCTTTAGATGAATTGCAACTGAGTGCACCTTTATTACAGCTTATCAGTCTCCAGACAGCTACAAACCAACCTTCCTAGTGCATTTCTCTTCGTGCTCTCCTGGATTAAAGGTCAAAGTAACTCAGATTTA
0.7068732097179461 CTGCTGCTATTATTATTGTTATTGTTATTATTTCTCTGTCACATAAAAGTCTGGGGCTAGTATGGTAGCTCTGCTCTATCAAGAGTATTTTAGAGACCCAGCCTATTTCTAGCTTATCAAGTCACACTAGGCTTGAAGGGACAAAGAGTACATGCTGGCTTTATCTTAAAGCACATTCCTGAGTGCTGCCTGTCACACAACATTTTCAACTTCATTCCCTTGGCCAGAATGTACTCTCATGAACCTATCTAGCTGCAAGGAAGGCTGGAAAAGAAAGTCTTCATTCAGCTGGCCATATGCCCAGCTAAACTTCTGTTACTATGGAAGACAAGTTGAACCATCTAGAAACAAACAAGAATAACCGAATGA
0.5213810586085629 GTATTGCAGGACAAAAAGCCGCTACTTTGCCTCTGCAACTATCACAGTTCAATATTTCTGCAAAACCAGTTTGAGATCTTTGGCAGGGCTAAAATTATCCTTGCTTCCACTGGCAGAGCTTTAATTTGGATCTGTCTGTTGTCTGCTATCAGAAATCATGTTGACTTAATGGCAGAATAAAAATAGAACTCCTCTTCTCCTCCGTTATCTAAAGCTCGGGTTCTTTATCAGGGCTGTTCCCTGTCTGAGGGCTGTCATGTTGTACACTTCTCACTGAAGGCCCTCCTTTTAGAGACAGAAGTCTTTCATCATTCCACTCTGTGGGAATGTTGGTAGAAGTATGTGAACAAACATCCTTCCCTTGTCTTGAGCTTAGGGGAAAATCATTCAGTCTTT
0.7690952687520546 GTAAATATTTTCCTGCACATATTACCACCCCAAGCAAACTCAGGTGATATAGGAAAATAAAAGTAAGTAGGCAACAAGCAGTCAACTGATTTATCCAGAAACACTAAATAAAGTTAGGATGGACAATCAATAGAGTATATCAGTGGATGCATCTTCATAAATCTTTTATCTTTTGGAATAAAGAAGATCTAAGTAAATGGAAAGTGATGACAAATATACTGCAGCTATAAAATTGTTTCATGTTGATAAGAAGTGAAGTGTTGAGTGGGAAAAGAGCCAACTGCATGCAGTCATGTGCTCTTTTCCAGACCCTTGGCATTCCAATCAGCAATGCTGAGATGAACACCTTTGTTATCTACGCGTGAGGTCAGAGTGACCATTTGAAATGTGACACTGAATACTGAAGGTTATTTAGACCAAAATTATGGATTGTTTTGTAACCAGACCCCTTGAGATTTTAGTGCCCTAGCATGTATAGTGACTAAAATCATAAAA
0.2078153552809599 CCTCAATGTGTTTTCCAAAGGCTGCTAAATTTGCTTTCTGAAAATACAAGTCTGAACTTGTCCTTTGCAGGCAGAATATCAGTTTCAGAGGCTTCAGAGTGACTTCAGGATAAAGTCCAAATTCCCAACAGACTTTTAGGATCTTTTTCTTATCTCTCTATTCTTATCTCTTATCCCTTGTACCAGCACCAGAAAACACTCCTCACATTTACTGCTAGGATTTCAGCATACATTTTTATCTAAACACATTCCACAAGTAGGCTGTCATGTTTTTCAGGACTCAGCCCATCATCACCTTTTCCTGAGAAGCCTTTCTGCACTTTCCTCTTAAACCCCTGGTGGGCGGTTGGGTTGAGCACACTCCTGTGGGCTCCTTCAGCACCTGGGCCCTCTGTCT
0.5906219093760503 AAGTACTCTCCAGCCCAGAGGAACAAGGATTCAATCCTGAACAGTTTCCAGTAGACTACCCTGGCAAAGTCCCCTTCAAATTTCATCAGCTCTCAAGCAGTCACAAACTGATTAAGATCCTTGAATTGGAATGTCAGTAATACATCATCACCCATTACTGTCTGTGTAGAGGAACCAATTAGTTTAAGCATCAGCATGCAACAGCTTTGTTAGACTCTGCTGTTATCAACAGCATGTTATCACCTTCAGCACCTCCTGGATATGCTCTTGCCGCTCTGCTTCTGTGATCCGGTCCACGTACCATTTGAGCACTTTGATGAGATCTCTAAAATACAGGGGAAAATGTGCAGAATGTAAAATTGGTCTAATTCTCAATTAAATGCCAACAAATC
0.5288407198763941 TTCTCTGTTTTGCACACAGCCCTGCACATGCAAGGGGAAGTATCTTGGGCAAGCTTCCATAGCAATCAGCATGAAAGCAGAGAGGCTTTCCTTTCCTTTCCTTTCCCAGTGGTGAAGTTACAGCTATTAAAGGGCTGCTACTGCACAGAGCTGCGAAGCTTGTGAAGGGGACTTCTGTTATCTAATCAGCGCCAGGGCCAGAAATGACCATGTTGGTTACTACACAATGACTAAGTGTTCCAGTAAGCTAGAAGGAAGGACTGGTATTTGACAGAGGATACATGTAACGTTCAGAAAAGACAAGAAGCAACTGAGCTTATCACCTCAAGGAGCAGATCATGAAATAATCCAAGGTCAGTTAGCCTATAGTAAAAGAACCACTCTGCTCTTCTAAAACTGCTTAATTTTTGCAGAGACCTGCTATCAG
1 GGGAAAATAAAAATAAAAAGAGGGGAAAGGGATGAGACTCTGTCTGCGACAGATTTTATTTTATTTTTTTCTGGCGATCTTTATCCCTTCTTATCCTGATTCTATTATTTATAGCTGCATTAAAAAGTATCCCAGGCAAGAGGCATTTATTACCTCACCATGTCTGTGAGTCAGGAATCTCACAGTGATATATCTGGGTGATTCAACCTTAGGGTCTGTGTCTTACAAAGTAGCCATCAAACTTGTTTGGGGCTGCTGTCATCAGATGGTTCAACTAGGTGAAGATCTGCTTCTGGACTCACTCACGTCACTGTTGGCTGGCCACAGAAGATCTATTTCTAAACGTACTCATCTGGGTCTCACTTCAGGGCTACTGCATGTCATGGCAGTGGCTTTCTCCAGATGCAAGGGATCTGAGAGAGGAAGAAAGAACCAAAGCACGCAAGATGGAAGCCACAACCGTCTATAATCTAATCTCAGAAGTGATGTCTCATCACTTCTGCCATATTCTACTTATTACAAATGAGTCATTAAATCCAGCCCACACTCACCAAGAAGGTATTACACAGAGGCATGAATTCCAGGAGGTGGAGATTATGAGAGCCCCTTTTAGAGGCCACCTCTAACACTGAATTCAGTACTGTCATTCAAGCCGATCTCAAACTTGTGTGCAAGAGACTGGGGAACTCAGGTATCTGTCTCTGT
0.3556869515146917 GCTAAGTGTTCCTCTCATCTTCCTATGGTCAACTTGCCCCACACAGTCTTGCCCAAATGCTGCAGCATGTTAGTCTGAAGTTTGGCTAAGCACCACCACACATAACTGACAGCCCCTTGTATCACTCAATTGTAGGAACTGCTGATTAGCCACATACTGGTGAAATGAGGGGCCTCAAATCAGTGCAGAGAGAAGCCTATCAGTGCTTCCCTGACCATGGGACTGTGAGTGGAACCTTTCTCACTAGAACAGAAGGCAGGAAGGACAAGCACTTTGATGTCAATGCTGAGCATAATTTGCAGGAACAGTAAGAAGAAACTCAGCCAACTGAGTTGAGGAAAGAAAAAAAGCACAGCTGAGGTGTTGAAAATGTGAATCCGTACTGGATAAGGGATAATAGAAATAGCCTCTGTCCAACAACCTTTCAACAATTAGAATGTGATAGATAGACAAGGCTATGAAACAACTAACTACATACATAACTCTCACAGCTGGGTTAACCCTAAAGGAATCTGTGAGATTTGAAACATGACTACTAAGGCACTGATAAGAACTCTTCACCAGATGGGAGCCTGTGAGGAAAACACAATGTTTAGCATATTAATGAAAACTTATATACT
0.3850706806822112 CCTGGCTGTCCACCGCGTTGGACACAGGCAGGCAGTGGGCAGGGCCGGAGTAGGTGCTTTTCTGAATGGAAATTCATCAATGCGCTTTGTGTCTGCTGTGGTTATCAGTGTTGCTATTTCAGTAAGTAATGGTAAAGCCTTCACCCGGCTCATGCCAGATGCGGAGGGTGGGGGCGCGGGCCTGTGATATGGCTGGGGTCCTCTGTCGTCAGAAAACATGAGCTCATGCCAAGGTTTCCGCAGGTCACCGAGATAGCACCGGCTCTCTGGAGACAGGCGTGACCCCCAGGTCAGCTCCTTGTCATTGAACTAAGTGGGCTCAGTGTCAGCTTGAACGTTAGTGGTGATAAGGGCCGGATAATGGTAGCCAAACTCCCACGGCCTCTTTAGGCCTCCCCTGGGGCCCTGAGGCCAGCAAGAGGGCAGGTCAGGGAGGGGCCAGGAGGAGGAGCAGGCAGGGAGGCTGCTGGTGC
0.1652501414260758 AGGTCCCCTGTAAGTCTCTAGTTACACTATTTTCATTAGCTTATTAGCATACATCCTTGTTTTATGTGTGTTACTGTTTAAAAACTCTCATTCTCTCTCTCACACACGTGCACACACACACACACACACAGAGACAGAGAGAGAGAGAGAGAGAAAGAGAGATTAACATTGCACTTACAGCCAGTGGCACTCAACCAACACTCTAACTCGTCTGAGTGAAGCTTATCTGACATGCATATTTTCTTATAAGGCTCATCACTGCCTTCTGCTTAGGGACATTAGACAGCAGTTCAGCACTACAGCTGGGGGCCATTTTAAACAGTGAAATCACCAAGGAAAAGCACAAAAATGCAAAAGAATTTATATATGGCACTAAATAGACCATGAAAGGGGCAC
0.6984052090726757 CATCCTAGGAACTACTGTATGATTTTTATAATGGCCCAGTCACTTTATCAGCTGATGTGCTGCTTATTTGTAAGTCATAAGGCATCAGCCTGGGGAACCCAGTGCCCTTCAGACACAGTGACTCAGGTTTGAGCCGACGGCAGGGACGTTATCGAAGGTCCACGGTTGGGCTATTTTTATGATTGCATTCAGTACTAATAGGGCTTTTGGAGTGTACACAGCCATGTGCTCATTGTTGAACTATACAAGATAAGATCCTTGTCCCAAGGAGCTTACTGCCTGACTTTTGCAAAAACCAGATGGCAGAAAATGGTTTCCCTCTGCCCATCAGCAATGATTGAGGGGGTGGAGATGAGAAGCGGTGCAGTCAATTCATAACTCTCCTGGGGTGGGACCTT
0.6645217500165683 TATTCCCAGTCCCCTAGATTTATAGGGATAAAAACGCCTAACGTGCTAAGAAATTTAAAGTGAAAGAAAGAATCTTTGTCCTCATAGCCAACATACTTTCCCCATCATGTCACATTGCGCTATTCTGGCTTTATCTGCCAACCATTCAGTAGTCTATCACAGACAAGATTGCTGCTCACTGCGTTCCATTCAGTCGAGCATTTGAACTGCTTATTATCTTGGCTACCAATGTGTAGGGTGCCTGTTTTTGTCTTGAACCAGATATACCCTATCCTGCACACTTGATTGCTGAAAACTTCCAGAGACCTCTATTTGCAACAGACTCACATTTGCATGTGTAATTCCTTACTGGTTTGTCAAACAAGGAACAGGATAAATATACTGATTGA
0.5883084207177502 GCACATTCCACTTCTTCTGGCCAAGGGACCCCAATCCTGCTCCTGGTCAATGCCAACCATGGGACTTTCCAGCTTTAGCAAGGCCATTCCTGACCTCCCCAAATTTCTTTCAGACTAGCCTGTGCTCTGCCACACTGCTTACCGCTGTTGTGCACATACACTTTGGTGTGGTTGTTTAATATCAGCTCATCTTTGAACTCTCAGTGACTTTAGAACAGGGACCAACTTGACTTTGTCATCACTGCTTGCCTAGCACCTAACGCAGTACCTGGCATTGATAAATAAGTGTGTGTTATCTTGACAACAGCCAGGCACAACCTTAGCTGTTGCCAAGAGGCCAGGCTGAGGCTTCCCTGCAGAGGTTCCTTGAGTGTGTGTGTTTTTTTTTTTTTTTGGTGAGACATTCTCACTCCGAGCCTAGGCTGGAG
0.8549196554880949 GATAAAATAGTTCACTCGAAACCTTTTACAATATGCTTTGTTACCGGGAGGTGTCTGTGCATCTCACTCCATCACTAGCCATTTGACACAACATAAAAAGCTTCAAAAGCCATGTTAGGCCTCTTAATCAAAAACTAATTGTAATAGATATTGGGGAGTGTTAACACGGTGACCGCTAGCTTGTAGCGGTGGTATGGAAGCTGCAGTGAACATTAAACACAACCCCGGGTTGATAGGGCTTATCTCCATTTCAGAGCTGAGTGCTAAGTACTACAGGCCAGTATCTCCTTGCTATGGCTTTGTACCACTTTTGGAGTTAATTGCCCCAGAAGGCTTCATCTTCTTAATGAAATTTATAACATTGTCAGAGAACTTGGAAGATACTGCTGCGGTTTAGCAGACTTTACAGAAAACAGAGACATAAACAGAAGGGAAAAGAAAATACATACTTGGAGCCTAATGCCTCTGCAGCCTGGG
0.4613288107153705 CTAGGAGGTTCATGACATCGCACTTCTCTTCCCTGCTGGAGATCTGAATCAATTAAGTAACATGACAAGGCGACCTCACATGAAAGATCAACATACCCACTTTATTACTGATGAAGTCAATACTGCAGAAAACATCTTTCTGCACACAAGGGCACTTCCTCACTGTGAACTCCAGAACAAGATAAGCACATGTTCCCTGTCAGCAGCCCATTCCCATCAACAAGAGGAGAGCGGAATCAGGCACACTTAGGTTATTCTTGGATTTACTAATCAGAATTCACTCTCCTCTCGCCACTGTGAGCAGAAGTAAAGAGAGAGAGGGAAGGAGTTGAAAGGGGAGCTCCCTCCGTGT
0.4451864605397908 CCAGGAAAAGAGAGTCTAGTTCAGGGCAGGACAACATTCCAGCCCCCACTGACAGCAACTCCGGATCCTCTCTCTGAGCAGTGCCAATTTTTCCAAAGTGTTTAGAGGTCCCTGCCAGCATTGGCTTTCATCAATTTGATTGTATGAAGTGGCTGAGTGAGTCTGAGATAAGATAGGGCAAGAGAAATACACAGTCATTCACACCTGCTAACTTGAGGGCTGCCAGGGCAGCTCTAGTGCCCAACGGTAGAGGAAGAATGGTGCCTACCATAAGATGGACAGACAAGTAGCACGT
0.7357393670182538 AAATAGGAGAAAGCAACCATCTTTAATTCTATTTAGTCAGAAGAGCCTTATGCTTCCAATAGCTGACATTCAACTTGGACCGTATCTGTGGCCAGGTTGATAATTCTTTTGGGAAACATGCCACTGCACTTGAGTTTTCAGATGATTGTGTCAATATTGACGTGTCGAAGAAATGAACTGCATGCCTCTCTGATAAAAGGTATCTGGTGAAGGGATTAGCAAAGGACAAGTCAGTTAGAGCAATAAACATTCCTTTCATTAGTAACGTTTGAGCAGTTCCTAAGGACATTTTGCTGCCCTTAAAATTATTCCAGAAAA
1 AGGCCTTAAAAATAGAATTTGAAGATTGGGTTACTCACCCATTTGTAGAGAGCAAGAACAAGCTTCTAAGGGTAGACGGGATAGTGATCATCTGTAGCATTACGATTAAAATTATCACTGGTCATGGCATATGATGGAGTGCAGGTGGAAGAAAAAGAAGTGTTGAGACCTGAAGTGGCTCTGGCACTTTGTCACTATAAGAGCAATGGTGATTATGAAAACCCTGGGATACGCTAACCGCTTCTGACTGCTCTAGAGAGAACACACACAGAGAAGGACAAAATGAAAACAGTGAATTCCTGAATAAAAGAATAGTTGGAAATCAGGAAGACTTTCTTGGC
0.1875593291769045 CTCCCAGCAGCCAGCAAGGACACGGGGCAAGGCACTGGAGGCAACAGAGGCTCAGCAGCAAGACAGGGTACGTGCAGAGAGCTGCGGGACAGACGTGGCCTCACCAGCAGGACCCGTGATTAAACAGCAGCTGTGGTTCACTAAGTGCTTTCTGCTTATTATGTGCCAAGTACTTCACATGTGGCTGCTTTGTGTCATTCTCACATCAAACCTGATGGGTGGTTACTATAATTATCTCCTTTTACAGATAAGGAAACTGAAGCCCAGAGGGGTGGAGTAACTAGTCCAGCAAAAGTAAGCCATGTAACTGGGATTCAAATTCAGCTTGAACATCTCAGCACTCATCTGTTTTCGATCACATAACACTCCCTCTAGGCATTCACAGGAGCTCAAGGATAGGAGTAGGGAGGGGAAAGCTAGGAGTC
0.3140699444201765 CCCCTTTATCATTGAAAATATCCCTTGAGAGCCCTCCCTGACCACAGACTCAGTGCTCGCTTCTACAGAGAAAATTACAATTACGCCAGAGTGTGTTGAAACTAACTTGTCACTGGGCTCAGGAAAGACCATGTTATTCATGGGAGCCAAGAACCCTTATCTTAGACTTCCAGAGATTTCTTACAGGGAGGTCAAGTCACTTATTGGTGGTTCAAGTAGAAAAAAATATAGTGGGCTTTTTGAGATTAATATTTCCTGGTGGCATTTTTAGTGTTCATTGGAAAGGAACAAGTTCTAGTCGGGTAAGCTGACAGACATAAAAAGGGAAGGAGCTGCCGCACCTAGAGGAGGATTTGTTTTCTCCTGGGACTGTGTATAGATAAGCACACACCCAGAAGCCTGGGCAAACCCAGAGAGCAGCAGGGGGATTACCTGCTGACAAGTACAGCAAGGGTGAGCAGATTGCCCTGTGATAAAAGCCGCTCAATTGCATCATCTCTCCAGCAAGGGGAAACCAGCTCTAAGGCAGCCATCTAGTTGCAAGGTGAGTTCACTGTAATTGCATGTTGTGAGTAGCGGTTGCTTAAAAACAATGAATTTATACCCATTACTCCCAGCGTCAACTTCAGAATGATTTTCATCACGCCTGCTTTTGTGCAGCTAAGCTGCAAAATGTGCGCTGCGACAGACTGAAGCAGATAAAGAACAAATTTGCATGTTACTGGGTTGCAAGAGCCCTTTGATTGTTGGAGAGGCCCGATAATGCTGTCAAGAGCTCGGTGGACTGAGCGGCGGCCGAGACGCACCAGATCTGCACTAAGTGTAGCTGACAGCAAACGATTTAGAGTCAGCACGGAATCAAAGCGTTGGAAATATCTCAAGTAAAAATGTTAAAAACACAAAGAAGCCTGCATCTTGATAAGA
0.4017196863220486 CTACACATCTCATTGCCTGAAAATTCAGTGATCACTGAGGGGTTAGCACCCCAAATTCTTTCAGGTCTGTCTAGATTTGAGATCCCTCAGCTAGGAGCCTTATCTGGGTATGTAAGACTTCAGTTTCAATAATAATAAAGGTTGATTTATCAAAGCCCTACTCAGCACCCAGCACTATGCCTGGGATATGACAGGCACTATTTCTAATTCCCACAGCCACCCTGAGAGGAAGGTGTTAACACCACCTTATAGATAAGACTGAATTAAGGGCTCCACAGCTAGTAAATGATAAAGCCAGGTTCCGACCCCTGGTCTATCTGACTACAAAGTGTTGCTCACAATCTCCTGTCTCACTGAGCTGTTGACAGCAGCCTATTCAGTGTTCAATAACAGCAATGACAACAAAAATGAATTTCAAATTGAAAAGGCAAGAAATCAAAGTCTAGAACTTTAGGGTGCTGATTTTCTTTCCTACCAAGAACTGCATCACCCTAGGCAATTCCCCAGATCGCTGGGCCTCCTA
0.9113957700752905 AGCAGATGCAGGCTCCTACAATTGACCAGGTTTCAGATTGTAATGAAATAGGCAAGTTAAGAAGCCTAGGTTTAATTCTGTCTAGACACTATCATCTGTTGCTTGTGTAGCCATGAGTAATAATTATAATTATAAGCATCCCTGAAGTCATGTGCAAGCTGTTAAAGTACGTTCATACACATTGTTTCCATTCCATACTGACAAGCCTGTACAGTAAGCATGGAAACTGGCATGGCAAGTGCTGTTATTTAAGTACGTAGATAAGGAAACTGAAGCATAACAAAGTGAAAGGGAACACAGTAAAACCAGAACCCAAATCCAGTTCCTTCTGATTCCAGGTCTAGTCCTTTTTCTACTATATCAAATGACCTCATACTTCTCTTTTCTGAAA
0.6241470187305691 CTAACTTGGAAAGCCAGTTGTAAAGGGTGAGATGGGTGTTTAGGTCCAGGGTGGCAAGTCTGAGCCTGGTACAGGCTGCTGGGCTACATATCCAAGCTGCGCTTATCTTCTCCTGTCAAACCATCTCCCTCCACCTCCCCTTATCTCACTCTAGATAAGGGCTGGTTCCTGGAGCTCCCACGCCTATCCAGCCCTCAGCACCACCTTTAGCTCTTTTTCCACTGGAGCCCGAAGACGAAGTTGTTCATTCTTCTTCTAGGGGAGGAGGGGTGGCCATTGATTGGGGTGCGGAG
0.7514329077581745 AAGAAATTGAGTTGTAGAAATCACTATTTTTTTTTTTTTTTGCAAGAGCAAAGCAGATGGTTGTTGATATCAGGGTATTGAAACCCAGTGGCTGTTATATGTCAGAGTAACTTACAGTGAATGCCAACAATCTTCTTTTCCTAATTGCTGCTGCTCAACATGATGGCATTGTTCAGTCTGGAATCCCTCTCCACTCCCTCTCCAGGGATAAGCAGCTGACAGCTCTAAGGGGGCAGGATGGATTCCCATCAGATAGCAAGGTGGAGTAGTTATGTGTGCTGGTGGGGGAAATGCACTCTCTGCTTTGTATTTGGGTCTTGTTTTGGGGACTGGTAACTTCTTCCTGTTTTGATAAATATATAAATAACTCTAAGTATCAGGAGAGACAGTAACTTAGGCTTCTTAAAG
0.1900686337039858 CATCATCCCTGAAGCAGGGAGTTGCAGAGCAAGAGCTTGAGAGTCAGGTCTACGTTTACACACGTCCCAGCTGGGCCACTTATTAGTCATATCCTCTCAGGCAAGTCCCCTACATTTTAACCTCAGTTTCCTTATCTGTAAGTGGGGATGATGACAGCACTTATCTCACAGGGCTGCTGTGAGGATCCAATTGACATAACATATGTGGAGTGCTTGGCAGAATGCCAGGTCCCCGGAACACTCTCCAATAAAGGTTAGCTTAGTTATCACTGCTGTTCTTACATTCGTCGCCAAAGGAAACTTCCCCATTCCTATGTCTGATGCATGGCCAATTGCATAATACTAATACACTCCCAAGGCAGAATGGTGGCTTACACTGTAATCTCAGCTGTTCAGGAA
0.3778009593164496 ATCAAAGCAGCTTAGGCGTTGGAACCCAGGGAAGGAAGAAGAGATTAAAAAAAAAAAAAAAAAGCCCCACTGCCAGTCGGGCAGCTCTCTGTCTGCTGTCTGCAGGCTGCTGCTACCCACTCGTTACAATTAAAATGAAGTGTCCGTCAGCGGCTATCTTCTCTGTGTGGCCCATATGTTTCTGAGCTGATACTGTCCGGATTATTCTGTTCGGGAAAACGATAACGGCTGTTTATAACCTTGGCAAAGACTGAGGCCTAATCAGGCTGGAGCACATTTTCACCGACTGGCTGATAACAGGCTGTTAGCAGCCTTATCGCTCGGGAGAGATAGGCCAAAATAAGCAGATCTGTGAGCACAGGAGCCCAATCGAGTGGTACACACTCTGGCCCTGGCTTTATTTTTAGATTTTCCTTTCCCGGTTGATATCGGAAGGCACAGAGGCAGGAGGTGGGGTGGATAGTAATGTGTGCCCCCTTGGGGGTCAGAGTGAGGTGGAGGGGGATGTTAATCACCATGAGAGGCAGAGGGTCAGCCCAGCTTCCAGTGCTCCGGGCTCCCTTCAAATGAGGGAAAACACGTGCAGGTCTTAGGA
0.8394293947976808 CAGCCAGTCATCTCCCCATCCCACTCCTATTCTTCTTACATTCTGGTTTCCAGCTCTGTGATTTCAGTTAAATAATAAATCCTATTCTATCAGTAAGTCCTGCCAGTTCTGTCACTTCTCATGTTTATGGGTCCTCCCACCCACACCCCACTTCACCTGTCTTATCTTACCCTCTTTCAGTTCACCCTCCATGCAGCTATCAGGGGATTCTTTGGATAAGGCCTAATTCCTTGGCAGGCATCCCAGCTTCCATGACCTCATCATACCCATCTTTCTCACCTCTCTGCTGGCCCTGTCCTCCTTAACACCCTACCTTCCAGCTATATGTCACCTGCTATTTCTCTCCCAGTGCCTTCTGCTTCTTAT
0.337341291527456 AGGCAACAAGGCCCTGGGCTCAGACACAGATGAAGTTTCTCTGGAAGAGAAATCTGGCCTGTTACAGACCTGGGAAGTGCCAAGGCTTAGCTCCTGAGAAGGATTGCTGGTGCTGACAGCTGGGAGTCAGGACTCCAGGGCCACTTGTATGGAAGCTGGTGCCCGTGGTGCAGGAGGATGGGGGCTCTGGATTCTGCACCACCCCCCATAGACTGGCCCCTCAGAGGGCTCCTGTGGTGTCAGAGCCCTCTCACAAGCGCCTGCCGTGGTTATCAGCTGAAGCTGAGTGCTTGTGGAGTGTGGACAGAGGGCAGAGGGAGAGAAGCAGCCATGGGCTTCCTGCCAGGAAGCTCAGCAGCTCCGAGGAGACTGGAGAGTCATGGGACACAGTGCGTCCTCCCCAGAACAGCCTCCAGCCTGCCAGTTCAGAGCACACGCTTGGAGGCAGGAAGGCTGA
0.3742343553485706 GGGTTTTCCCGAGGAACAGTAACTTCCCTCTACATCCAGGAAAGCCTCATGGTGTGGATGGGCGTCCAACAAGCAGGCTGTTCTGGCCCTCTTTGGGTGCTGACTCTGTGTTCCCAAGGGCCATTGATAAGCTAAGCAGGAATAGTGTAACCACAGGAATGCCTGCTGATAACAGGAAAGTAGGCGGCTGCATTCCTGAGCCATGGCTGATGCTGCTCCATCCACTGCCAAGGTGTAGAAAAAAGAGACAAAGTAGTAAATTCTAAAGATTTGTCAGTCTGGGTTGGCAGCTCTTAGAGAATGGATATGTGGCAAATATGTCTCTCCCTCTGTGTGTGTGTATGT
0.3944471605237639 CTTACTTTGAATCAGTAAGTCACTTAAGCTCTCAGACACCCTGATTAGAAAACTTGGAATCTTTTTGGACCCTGCTTATCCCACAGTTTCCACATTTAAGCAAGTTGTTGACTTGGCCTAATCTTCAGAATCTCTCTTCCCCTTCTCTTTCCCATCACCCTTGTGCAACCTCTCATGCCTCTTATTCAGACTACAGCAATGGCCCCCTAAAGGGGCCCTGCTCTTTCTCCATGCTGCCTCACTTACTGCTGTTAGGCTCAACTCTGTTCCTAAAGCACGGTTCTGATTACCTTACTTCCTTGCTAAAAACCATTCATTCCTGAGTCCTCCAAGCTTCAGTCTGGCACATCAGCAATTCTTTCCAATCTGACTTCAGCTGACATTTCTGTCTTATCTCTAACCCTCTCCCAACACTCTTGCAATTGACGGTCCAGTGGGGGGATCAACACTAATCCATCACCACACAAGCATGCATCTGTGAATTACAATAAGGACTCTGAATGAAAAGAAGATTATGCTGTCAGAACATAAAACTGAGAGCCTGATCTGGCCCATGCAAGCAGCTGATGAAAGGTTGGAGAGATGCAAACAGTGGGGGCATGCATGCAACTCAGAGGAGAGGTGGCAGGGCCTTAGAGAAGGTGCCTGATAGATTTTGATCTGTATCCCAAGAGCAATGGAAAGCCACTGGAGGGTTCTAAACCTGATGGGCAAGATTAGATTTACATCCTTAAAAGGTGGTTGCACAGCAGGTAAGCTCCCTGAGAAGGGGGGTCTCTGC
1 CCAAAATTCAAATTCGAATAAAGATTCAAACTGTTCTCTTGAAACTGCATTCCTTCCTGGAACCCTTACGGACCAGTCTGGTTACCGTGCCCCATTGTGTCTTGGGCTCAAGTCAGCCTTCATAGTGACCCCTGCTGGTCGAAACAATTTTCGAGATGATTATCAGGAGTATTTCCCCACAGGGGGGCCGTAGGGCTCAGTGTAGAAGAGCAAGGACCCCTTTCTGCGCGCTTACTTTGACATAAGATTTTGAAATGTAACGAAACGGAACTGCTTCGGTCCTTCTAAGATTATCCTCAACGATCGAGGCGAACTCTCAAAACGGAGTTCCTATTTTGATGGGTCCTGCTCTCGGAAGGAGCATTCTGCAAT
0.527404291811098 TACTGTTCCTTCAAATCAATGACCTTAGTTGTGCAAAGATCAACTGTCTCTCTTGAAATTATTATTCTCCTTGAGATGCGTACATTTAGTAATAAAATCAATTGTGTTAAGACGCACGAATGTGCAATCAGTTAGGTTCCTGAAAACAATCTTCAGTAATGCATTTGATGCAGTTCAGATACTGAGCTATCTGAGGCAAATGCCAGGACTCCCATTATCGCCAGTCATGAGATGTGCTCATCTATGAAAGATGAAGGTAGGCTGCAAAGGGCAGCCCCTTCAGACAGAAGAATGTCTGGTGATAGCAACTCCTGCCTAATTTTAGAGCCTGACAGGTTTAAAGGAGAATGTTCATAAAAGGGTGTTGAGCTCCCCCTTTTTATCAGAGTTGACAGAGGCCACTTGTGTGGTCTGTGCTACGTGTGCCAAATAAATCTGACAAGGAGCAGAACTGCTCTGAGTCCACAGGCAGCATGCAGAGGAACAAGACATTCCATTACCAAAAGAACTGGACAGTAGGCGGGCAAACTCCGTGCTTCAGTTACCCTGTA
1 AGAAATAAAAGGAAGAGGATGAAATCAGGCCCGTTGATCTCTGCCTGCAGGCTCTCTCAGCTCACTGGAAGCTCCAGCAATTATTTCTGCTCCGGTTTTCCCCTCCTTTTTTTCCAGCAGACTGTTTGAAATGAAGCAGAACCAGGCATGGCAGGCTTATCAGTGTCGTTAGCTGACAGGGCGCCCAGCACACCTGCTTTTACTTGCTGCCGTTTCAGGCACTAATGCCACAGAGAATGTTGCTTGGGCCCTTATAATGTGTAAAGATTCATTTATTTCACCTTTTGAACCTGCCTGACCCCGTGGGCTTGTGTTGGGGAGGGGGTGGAGGGCTGCAGAGGGCTT
0.3310508148268358 CAGGCAAGAAAGGTGTTGCTATTTTAAGTCCCTTAGCATAATACATCTCTTTGAACAGCACTGAAATGAATTGAACCAGATGAACTCCGCCTTGTTGTTAGTAGGTCATTTCATGCTTAACAACCCGCAACACATTCAATCCACATCAACTCAACACCTTTTTCACAAAGGACTTTAAAGCTGAAATGGTTTCCAGTGGGAGATAAGCAACTATGCGCCCTGCAGGGAAGTAGTCTTGTTAGTGGCTATCAGCTGTCACTCACTCAACTCCATTCAGAAAAGGCTGATTGATGTAGCTCTGGGGAAGGAAGATAAGGTGAATATGAGTCGATTTATTATTTTTAGCTATGTGTCTAGTTTAAAAGAATTTCATGTGACCCTTTCTAAATAATCAGAAAACT
0.4586383187303379 TGAAACAGAGTGCCTTTAAGTACAGCCCAGTAGGATTTTTCTTTTTTACCATGATCATAAATGGGATATACAGAGAATACAAGTTCCCTCTCCCTACACACCCACAATTAATAGCCCCTTCTCCTTTCAGGCCCCAGAGGAGTGATTTGGCTACTCCTCCTCTTGCCAGCCCGGATTTAGTAGCTGGCACCTCCTCCTTATCACCCCTGGTTCCTGTTTGCCTATCAGTAGCCCAGCCACTGTGGCTCAGGACCCTGCTTTAAACCTGCCAGGGGGCCTTATCTTATCTCCTGGGCTGCCTTCCTAGCAGCCCGCGGGGTGGCTGGCTGGCCGGGTTCCTTAAAGGGGCTGCACTGCATTCCCACTTGCTCCATTCACCCTCAAGAGTACCCCAGAGATCTGGAGGTGTTCTACTTGTGTAGGGTCAGAATTTACTATACCACCCTTCCTTCCCATCCTTTACAGTCACAGCTACTGTAGAGC
0.6186804667742879 ATTGGGGGAAAGCTTTTTTTCTACCCAGCACCTGGCAGGGGGCCACCCTGTTGCACCCCAGAGACCCTTGTCTAAGTTTTGTTATTTCAGATGATTTCATAAGTTGGGGGAGGCGGAGCCCCAGCCCCCACAGCCCCTGTTGTTGCCTCACTGCTGAGCTCTGCTGTGTATCTGCTGACAGGTCTGCTGATAGCAGAAGGGGCTGGAGAGAGGGAAGCTCTGGGCCCTGCCCTCCCCAACCCCTGCTTAGGGGACATCCCTGATAAGAGGAAATTCCAGCCTGTGACAGATGGCCAGTGTCCACCCACCCACGGGGGAACTTTTCTTTCTCTTTGTAAGTTTGCAGATTTGCCAGGAACTAAAGGAATCTCTGGTTGACAGGCCACTGTGGACATGGCTGGAGGGCTGGCACGGGCTGGATCTTGGGGTTGCTTTGAGGTAGGGGCCGCTCCTGCTGGAAGGTTCCTTGGGGTGGGGAAGGCATCAGGGCCATTCCCTGACCCTCCCTCTGCAGTGGATCCACTTCAGAGCCTGAGAC
0.890033379701339 ACCATAAGTATTTAAAATAAATGACAAATTAGAAAGTCCAGAAGACCATGCAGTGGCTGCATAAAGGTGACAAAGCTCATGCTTGTGTTTCTTTAAAAGAAACTTATCACCCTTCGCAGCCAGGTCTCCTTTAGATAGCGTGCTTGGCCGGGAGCAGATCAGAAATGGCAAACTAAAGATAAAGACAATCACAAAGGCAAAACCAACAAAGCGACAGCTAACAGCTTGACAGGAAGAGAGGGGACAGAAAGCAGACACAGAGTCTCTAAGCACAGCCGTCTGGTTTGGGGCAAACAACTTTTTGCACTTTACCGTGCCTGTGGAAACTATGTCATGCGGCATGGAA
0.412601688670317 TCCAATTTCCAAAGGCAAAATCAGTGATGTCTTCCACTGTGCTGCAGCTGCCCACCTCCTGGAAGCCTGCTCTGTGTGCCCCACTTATCTGCTATTCTGGCAATGTAAACATGTGAGGAAGGCTCTTTGTTCAGAGGGCATGTTGAGTGGAATATGAGGTCAGGGTTCATCTGCATTTTTGGCTACAGAAGGCTATGGAGATAATAGGAGCCCCTTTGTGTTCAGTGGGGCTGGGTGGGAGCAAGTGGATGTCTGAAGGAGATTACAAGCAGTTCTAGATATTGCTTGTCATGCTACCATCAGCAGACGCCTTTTCCAATTGACTAGTTGCTTGTATTTCCAGAATAGGGAATGCCAGATGTATTTACTGCAGTGAAGGAGAGTGCTGAAGGCCCTTGGAAAGATATCCAGCTGTTGAGTATCTGAGGAGAGCAGGATAGTTTAACCCCTCATGGCCTAGTAATCAGAATTCCTGGGGAGCCAAGGACAGAAAAGGCAGCACACGCCAAACGAATGAC
0.8839076475326917 TCAATTCCTTACTCAGAAAAGTGTGCTTTCAGACTTTTTACTTTTGGATTTCTGGCCCCAATCAGCCAATATCAGTTCATTATAGAATCTACAGAGACACCATAATCTTCCTATTTTAAGACACAATTTTAATTGTAATTTTGCTAAACTCTCTCCTAAGACAAGCAGCAGCTTTTTATCGCCTGTTATCTAGGGTGTTGCTTTCACAAATCCACACCCTCTGGGCCCGTCACAGGCAGCCAGATCCTGGGACTTCTCAGTCAGTTGCTTTGCTGACGGTTCTTCAGAGGTGATGAGCTGTGTGTGAAGGCCCCCTTCAGACCATGGTCCCACGAGGGCATTACACATCAGGCATATGTGCAGAGATTAGAAACTTCTCAAGGATTTCATGTTCTATTCCAAGAAGTAAGGTCTAAAAATGAAAACCCATT
0.1708186683769374 ACTGACCTAGGATATCCCAGGAGTGGAATCGACTGTCTGTCAGTGTGCTCTTAGAATCACTAGAGGTGTTTGACAGCTGTGCTAAGCAACAACACAGAGTGCAAAGACAAAGAAGTAAACCCAGCCAGGGCACTCTGCCACCACACTGAGATAAGTCAAGCCCTTTAACACCAGAGGCTGCTAAGGGTTTATTCCACACTCTCAGCAAGATAAGCTGCCATTCACACCTCACAAGACACTCAGATCTGGAAAGCAGCCTAGAGGAAAAAGTAAGAGATGCGAATAAGTGCAATTATTTCAGTGAAGAAATTAACAGATTTCACATTGTTTGATTTCACTCCCATGAACAGCCATCAAAAGCCATGTTCCTTGGAAAGCTGGCTTTTCCAGCATGTTCATGTGGAC
0.5782360291759244 GCCTTTGTCTATTAAAAGGATGTGTGTAAGTATGTATGTCAACTGGGGACTTCAGCCTCTGTAGGCCAAGTGTTGAAAAGGGTGAGAGGGCTGCTCTGGTAGAAGTGTCAGAGCTGGGATGTCTGTACACCTCCCTCTCCATAGCTAGTCCTGGAGATAAGTAAGAGCAGATTCTGGGACTGAGCTGTCGCATACACCCTGGTGGTGATAACAGCAAACACAGCAATGGGCTATGTAGAGGGAGCCCTGAATAATCTCCATGAGCTGCAGAGATAGGGCCAGTGAGTGGCAAATCCTTTTATAGTGTGGAGGAGAGGAGGTGGGGAGCAGCTGCAGGAGAAGGTGGGGAGCAGCTGCAGAAGGAGAAGGTGGAGCAGGAGCTACGTTGGACAAGCCAGTGAATACTTTGCTCT
0.5064524891614399 GGGACTTCTCCCTGATGACTCAGGCACTCAGGAGAGCAACAGCGATGTTATCAGAGAGGACAATTCCAAAATGCTATATGTGTATCATACTAAATTAAAAGCAGAAATGGAAACAAGGATACAGTCAGTGTGGCCAGGGTACTAAGAAAGGCCATGAGAGGAGAAGGGCAATGGCAATGAAGAGAGTGTTAACTACTGATTAGGGAGGTGGGAGAAGGGAGGTGATAGGAAGCCAAAGAGCTATGGGCCTGCACAGAATTACCTGACAATCCACCTTAGCCTGATTATCATAGGCTGTCAGCTCAGCCAAGTGAGGGATGACTGAGAACACAGCTGATAAATAGATGTTTCCTTTATTCTTCCTTTTATAGCGTCTCTCCCTCGCTCCTATTTCTTTGGATAAGGCAATGGAAATCTTGCGGAATGCTGACAATGCTTTTGGCTGGTTTTATAATGACACTTCAGTGATGCCAAGCTTCTATGGCCCTCTTCTCAGGACGCCCAGAATAGCCATGTTCTGCACCTC
0.7441870931881885 CAAGAAATGATACTAGAGAAAATAATTTTAATCTACTATTTCCTGTATTTACATTAGCTAAGTGCTATTCTTAATAATAAACGCCCTCTATGGATATCTCTCGCAGGCAAACATGAGACAGTTGGAGGGCAGCTCTTGCAATCTTATCAGAAGCTGAGGTGAGTGTTACAAAGGACAGACCGTCCCTGGCCCTCCGGGGCAGGAGCGCAGAGGACACTCTGCAAGAACTTATAGGTCTCTTGACTTTCACATGTCACTGCTTTGGAATGTGACTCTTTTTTTTTTTTTTCTTTTAAAGATAAAGTTCCTGAAAAAGATTAAAGCAGAGATGTTTCCAGATTCTCATGAGAAACCTTCTAGTTAGCATAGTATTTTCTCACTAGACATTCAGCTCTACTTCTTAAATTCTCCTGAAGTGTTATAAGGAAACTAAATATTATGTTTAATTGCGCTTAAGTGAAATTCTAAAGCAAGCATGTGCTTTGATTAATCATGCCTATCTCTAACACCCTACCCAGCGCCTGGCGCGTTAGAGATACTGGTGAAATAAACATTGATAGAATTGAATAATGGCC
0.9706283433562241 AATGTATATCATTCTCTATTTACACATTGATAATTTTTTCCTACAGGGTAAAAAAAAAATGCACCAGATGCAGCACTTTTGTGTAAGTATAGACACATCAGGGCTCTTTGTTAAGGATAAGAAACAATCGCTTCCACTTCAGGCTCTAATGTTATCATAGCCAACTGCCAGAGCCGCTCTGTAATTACGTCTCCTGAGTGGAAAGCTCTCAAAATGCCACTTGGTCTAAGAGTTTGAAGCTGGGCTTGCCTCTCCACTTTGGCCAAGATGACTAAAGCATCACATATTTTTAAAGCAACTTTTAAGAAATGAGGTATA
0.5629945664873807 ACTTCTATATCCCATTTGCTGTTTTATGTACATTTTGGACCAGATCTTCCTGTGCTGGGGGCAGAGTGCAACTTAGTGGCAACAGTGTAGTGAAAGTCTGTGGATTCCAAACCTTTCTGCAGAACTCAGACATATGATGCTGAAGCCTCTGGCTGCTCTCTTATCCTTTATCCCATGACTCACAATGGATGCCTGTAGCAGGGGTTTGACAAGGTGCTGCTGGCACAATTTTATCTCCACCACTTTCTCTATGACAGATGAGGGATGCAAGAACCTTGGCAAGCGTGGCACAGAGATTCTGCAAGCTCTTCAACCTGTCAAGTAGCAAAGCAAAATCAATCACAGAAGCAACCCCTCGCTGTGGTTGGAGATTAACATCTTTACAAGATAATAAAGGCAACAAATTACATCTGCCAGCACTCAAGGCAGGAGGCTCATAAAGAAATTCTTCAATAAGCAATGAGACTCTTTGCCCTGGCCCAGTAGATTTAGAGAGACAGCTGGAACCTGGGCTGCAGGCAGTTATAGAT
0.5993531140596603 GTTGGATAATTTTAATAGCGAATAACTCAAATCCTCAGAAAATAAAAAGTGGTTAGAAGAATAAGCTTACTCGAGTTGTTGAAACTAATTTCTCTGCCACCACCAACTCTTTCTGTGAGATAATTGTGCAGGTGAATGCATGGAGAATTATTTTTGACACTCTTATCTTAGACCCTCACCCTAAGCCTGGAATGTGTATCAGAAATATGGCCAACACACTGAGACAGGAGATAGGTGAGGTCATGTTGTCTGTACAGGAAATAATGATGCATCGGAAACTGAAAGTATTTTCAAACGATAGAACAGCTACCCAGGAAGAAAAGACATTTGAACCTTGGCTGACCCATCCTAACAGAAATCTGCAAGAGTAGTGGTGAGTGGAATGTGAGAATGATAGGGACTAGTGGAAGGCTTTAAAGAGTGTGCAGCAGAGGTCATCAAGTTTCCCGAGATAGGCAGTACCTACATAGCTCTAGCCACATAATACACTGGCTAAGTATTTTAAGAATTGCAAATAATAAGAAAGAAGGCAACAGCCTCTCGAAGGCAACAGCCTCTCAAAGGCTTGGCTCCAGAACGTTTTAGGAAACATTGCTCTCACATGGCAGGGTACACATTATTAGTTATTGGACTACTCTCAGTGAAACACTATTATGCAAATTTAGGCACAAGACTAATTCTTGAGCTTCCCAGAGCTGAAAGAAATGCTTAGATCATTATCTGGAACTTGAGAGCCAACTTGGCTGTGACAGCAGCTCTGAGCATTGTTCAGTGATGAACTTGAAAAGATCTGTAA
0.6310605144265523 GTTTTTCAAATAAAAATCCCAAAGCGCAAAGTGTATGAAGCCTTAATGTCCTCATTTATTTTGTGGTTTGATCTATGGGCTTTCCCATTTGGCAGTGGCAGAAGGGACTTCCCAAGTGCCCACTGCTATCTGCGCTCACCTTAAATATGCCCAACCAGAGTCTTATCTCCGACAGCTCATGCATCACCCTCCCTGGGAGAGGGAGCCCCGCTGACTTGCTGACAGACCCTCAGTTAATTTCTGGATTCTTTTTTTTCTCAGTTATTTATAGCTCAGCTGCTGATATTTCAAGCTCTCATTGCTAAGCAAGGAAAGGCTTGAATGCTGCGAGATGGCAGCTGAGTCCGGCGCTTGCTTCACTCTTCAT
1 CAGAGAGGAATGAAGGTGGAAGAGGAATCTAGGGCCATTTAGGGAAGCCATGAAGCCTCCTGCCCACACTAGTGGGTAGAGTGGAGCCAGGCGTTTTGCTAGGGCTTGCTATATCTCTTGGCAGGGTGCTCTGCTGCCAAAGCCAAGAATTCTAAATTAGATTAAATAGCCAGAAAGAATGTTAAACATTTGGACATGATATCCTCCCTCACAGATTAGCTAGAGTGTAGTTCTGCTGTGCTAGATACTTAAATAAATACCTCCCTAGCTGTGAAGCCTGCTTATCACAGTACTATATTTTAGGATGAGGTCATTATTTTCCTATGCATACACATGCATTGTATAATCTTGCCAATGTAGGTCAGCCCAAAAGAAGTGACAAATGTGTAGAACACACATTGGACTAGCTTGGGACA
0.2259687087634009 ACCATGGAGTTGCAATTTGCAACTAGCACTATTCAAAACACCTTCATGCATTACCTCATTTAATTATAGTAAGCCCTGTGAGGTGTTAACAGTTACTGTTACTGTCACCATCATGGCCACTTACAGATTAGATAACTAGGACCTAAAGCTGTCAGATAACTTACCAAAGATAACACAGTAACAGTAGACCTGGAATCCAAACACAGGCGGTTTATTTCTAGAAGTGTGCTCTTAACCACCATGCCACCTTGCCTCTACAAAGTGCCAGTACTTAAAAAAAAGGAGA
0.8506535994166688 ATGGAGGCTGCAGTGAGCTGAGATTGTGCCCCTGTACTCCAGCCTGGGTGGCAGAGCAAGACCCTGCATCAGAAAAAAAAAAAAAAAAAAGCTCTGAAGGACCGCAGGGGTATGGGGTTTTCATAGCCCTGGAGTTATCTTATCTATGGCTGTCAGATATTGGATATAATTTCAGAGAATACAAAGCAGGCGCACTCGAAATGGCTAAAAATAGGCTTGTTCAGGCTATGTTTCAAACAATCCAGTGTGTTAAAATTGCAGTTTGGCAGGGGTAGGCTATTGTGAATACTAGTGAGACAAACATTGGTGTACAAATATCTCTGAGTCCCTGCTCTGAACAGTTTTGGATATGCCAAAGTGGAATA
1 TGGCGAGATGGTCTCGATCTCAACCTTGTGTTCCACCCGCCTCAGCCTCCCAAAGTGCTGGGATTACAGGCGTGAGCCACTGCACCCAGCGTGTTATCTCAATCCTCATAATGCAGTTAGGTAGAGGTATTCTCTCCACTATATCAGTAAACAAGACTAAAACATCTTGCCATGAGTCATACAGCTAACATAATGCAGGCCTAGCAAATGTTTTCTGAGTATCATAGGTGCTGAGTGCTGGCTGGGCCCCTGAAGAGAGATAAGCAAGATAGTCTTTGCCCCTTAGAAGGGGAGGGCATAGCATATAACTGCCAGAGTATGTGAGAACATGCTCAGCACAAACACTCCAATGGATATAACAGGAGTATCAAGGAGTGAGCAAATCTTTCTGTCTTTTATAGCTGGACCTGGAAGAATATTTTTTCTCTTTCTTGAAGAAGAAATGCAACTGGG
0.8094276639349842 ACATATACATACTATATATGTGTGTAAATATATATATGGTGTGTGTGTATATATACACTTACATATACACACATATAATTAAAAACTTAGGCACATGTTATAAATGAATAAGATAGTTTACTGAAAGGCTACTATATACCAGGCACTGTGATAAGTGCTTTATAGATATCATATCCTACAAGTCTCAACAACTCTTAAGAGGTAGGCATTTATGATTATCACCACCTAACAGATAAGAAGCTAAGAGTCATAGAAGAGAAGGAAATTGCCCAAGCTGCATACCTAACAAGTGATGGAGGTAAGATTCCTTTCCAGGCAGTCTAATTTCAGTGGCTGTGAGCTTAACCAGTGGCTCTACTGCCCTTCTCTCAGTGTGAATGCATTTTAGATAACTGACCCAGTCCAGGGAG
0.7652946747684896 ATCCCAAGTTCAAATACTAATCCTCTTTTTCTATATCCTCAATTTATAACATAAAGCCCGGGACATAGCAAATGCTCAATAAATGTTTATGGACTGAACAAATAGGGATGAAATAATGCCCATGCCTGAACCAGATAAGATTAGAAAGGAAGTGAGGCTCATGTTCAGCTTTGTTAAGGCTTACTGAAATATCTGCTAGCTCTCAGGACATGTGCATAGTGCTGACATCCCTTGCTAATCTTGACAACGTGTGACTTTCAAGGCACTTGAAGTGAACTCTTTGTTATCCATCACTTCAGGAAGAAGTGGCAGTGTTAAAAGAAATGGAAGAAAAACAACTAAATGAATTTTTATCATACTATATTGTTCTCTTAGTGCCTGGC
0.7138636785870888 TGTTAACTTCATTATTGATAAAGCCAACTGGGGAACATGTCTTTAGATGTTTGGTCAAAAGCCTTGCTGAGTTGAATTTTCTCCTACAACAGCAGCCCAGAATGCACTCTCTCTGCACTTGGTTTGCAGGCTGGCTTATGGAGAGTCAGGGGTTAAGTGTTCTTCCAACTTTGCAAAAGATAAATCAGTCATCTACTAGGAAAAGAGGAAAATCAGAGATAAGCTGAAAGCATTCCTCTCATAATTTTCCATTCCTGGGGAGTAGATTTGACATTTTCTTCCCTTAATGGAAACATGAGTCATGAGGAATAAATGCTCCCTGCTATCAGTCCTCTCTCTCCCTTCTAGGGCTTCTCCTGGTTCCTGTTCGGCCCCCAGAAAGCTTGTCTAATCTTGGCTAGCCTGATCCAGCCTCCACCAGCCCCGATGCTGCTGGTATACACTTGCTCCTTAACCACACATACTGTGGTTTCTGCTTTAACAATCAGCCATAGGATTTTAATTACCC
0.7355116540890509 TTGATTGAGAAATGGCTTCATCCAGTGCCACAGCACGCTTTTTGACATCTTCTTTAATTTGACTGTAAAGGGTGTCGGCTGCCACATACTTCTCTTGGATAGAAAAGCCTTCCCCAGGGCTCAATTCCAGTAACTGTGGCCCAGTTTTGTTCATCTTATCTATATGAGGCTTGTGTTCAGCTATCAACTCACGCAGTTGCTATAACAAACCAAACAGCTTTTCAGTATCTCAGGGTCACACCTCCATATTACAGCTGTCTACACCTGCAATGCATCCAGCTGGCAAGAAACTCCAAACAAACCCCTCCCCATCACAAGGCATTTAACACATGATGGCTCATACAGCTCTTTGCCAGGAAGAGAAGGTCCTGACA
0.2569658766531048 GGTGGACTTGAGCCCTGATTCCGCTGAGCCCAGTGTGGTTCTGCTGCACTCCACTGCCTGCCTTGGAGGAAGGAAGGGCAAAGGTTGTCAAAACCCCGCCTCGCGCTGCTGGCCTGCCAGCCTTTTCATCACCTCTGCTATCACAAAGTACTGGTGTGAATAAGTGTCACTTGAATAATACTGTAATCTTATCAGCATGCTGAAAGATATAAACGGAAACAGCCCTTTTCTCTCCTGCCTTCTCAGCTGACAAGCCGACCAAAGCCAAGGTTAATTCGTTGTTGAGAATTTCTCTGCCCTCTACCACAAATCTTTTATCTGGCATGTTTGTTCATCTTTCCTCTAATAGAGGTTCACACTTGCAGAGGAAGAAGGTGGGCCCAGAAATGAAACTCTGGGAGTGTGTTCTTGTCCAGCACGGAGTTCCCAAG
0.4152260729366793 GAGTCCTACCATGTTCGTGAGAAAGTCCTGGTTAACAGTGCAGGATCCTAGTGGCCTTGAAAGGGTGGAGGTGTGTGCAGAAAAGAGACAGCATAGCAGGCCTGACTGCGATCCTTGGAAAGGCTTGTTTACAAGATTAGCTCCTGACTGTACTCAGAGTGTCTGGGAATTTGGAGTGTTTCCGCTATTTTCAGAACTGATAAGAATGGCATTCTATGCCTAAACAATACAGTTTCTGCTGAACACCTGCTTTCCCTCAGGGAGTCTGGAATTTTGGTATGTGCCAGGCAGAGGCTGCCTGCATACCAGCCTCCAATAAACACTGAATGCTTTGTCTCTAATGAGCTCCACTAC
0.402908064205001 ATAAACAACTGTGTTCAAGTCTACACTAAACAGTGCCAGACAGCTACTCTTTTTCACTTCCTGCATTTCTTTCTGTCTTCTGTCAGCTGTCACTTCTTAGGTTATCAGTTTGTTTTGTCCCACTTCCAAGTCACTGCTTCTAATCTACTGTCAGCTCTAGGAAAACCAGATAACTGAGCAAATGGGAACTGTGTGCAAGTTACAGAAGAGCCTAGAGGGTTTTATGGGTTTTGCTATATATATCTTGATTTCTCAGAAGCTGTTTCTGCTCTTATCTTCATTCTTGTCTACAATACACATGGCTATAACTGCAGGACATGCAAGTTCTGAATAGGTGATATATTTCTGTATCATGTCCAGACTGAGGAAAACAATAAGCTCTTACAGTTGTGTGCTGTTCATACCATGTCTGGAATACTGTTTTCAGTTCAGATCAACAATTACAACACATATAGTAACAGGACCAGCTGGTAGCAAGTCCACATATCATGCTGTATTAAGCCAAGTGAATGTGCTGGGAATGTTTAA
0.8145245094621034 TGTAGTGTGTAGAATGGATTGGAGAGGAATACAGATGACTGGTTAAGAATCTATTGCAGGAAACTGAGTAAGGGTGATATGTAATAAGATGGTTGAGATGGCATTCTTGGGAAGAGATCCCAGTGTAAAGAGAAATATATTTTGGTTTTAGATATGTTGAGATTGTGAGCCCTTGAGATACCAAAGAGAGAATGTTAAGTGGCAGTAAGATATCTGTATTTTGAGCTCAGTGAATATGTCTGGAATGTCTAGAGCCACTTAACACCTTTTGCTCCATCTGTAAGAAGAAAATAGCATGCTGAGATTAGGAACTCCCTTGAGCCAGATCAAGTTTACCTTCTGATCATGTACACACAGAGACTTTAATGCATCTATTGAATTTTATTTTGCATTCCTTACCTT
0.4018799224123288 ATCACATCGCTCAGCAATGCAAGTCATCCTATTTGTCAAGAGTCAGGGGACAGCTGTCTGTTGACATTGCACCACATCACTGCCCTTTTTTTCTTTGTCAGCTTTCATATGACTACCTATCAAGAAAATGTAGATGCCCTACATATCACACCCCCAGTAATATCTTTCTGATAAGCAGACTTATCAACACTTCACTTAGGGGAAACTTGTCCCAGGACATCCTATTCCCTGGGTAAACAGCCTGAGGGGAAGGGATCTGGGCCCTAAAGGCACTTGTCTATATCTGTTTGGAATTCTTTGGAGTGATGTCTGGGGCTAAATAGGCCCCATGACATGCCACCTTACCATCATTATAAGAAATTG
0.674801644150576 TTCTCACAGTACGACTTCTGGTTGAAGGCTTTCCCATATACAACATATTCATATGATCTGTGCAACATGAATTCTCTGCTTTATGATTAGAGCTGATTACTGTGAGAAGGCTTTATGACTTTCAGGAAACAAATAAGTTTTTTTTTCCATATATGAATGCTCTGATGCATACTGAGAACTGATTATCTGGATACCAGGGTGACTGAATGGAGCCCTTATCACAGTCACTGCATTGATAGGCTTTATCTTAAGTATGAGCATGCTGGGTTTCTTCATATTTGACATTTGAAGGCTTCCTCACAGTTAGTTCACATATAGGTTTCTCTCCTGTATGAATTTAGTAACGTAG
0.9542896957170298 GGAAGGACATTTAGGTCATTTCCATATCTTGGCTATTGTGAATAACACCACAATAAATCTTGATGAAATCTCATTGAGAAATAAACAACGTGTAACTATGATTGCTTTTAAACCTGAGGAATGGCTGCTGCCCAGACTGAAAGAAAATCGAAAATACTGCTGTTATCTGACTCCCAGAATAGCCGGCTCCTCCTCACTTAACTCTTACAGTTAATCTCCAGCCCCCAGAGGTGGGCCTCTTACACTTCCTTATCAGGGCACAGAGCATTTCTCAGGCGCTCTTTCCATACACGAAGGACCATAGTTTTAGCTGCAAGATCTGAGTTTATGTCCAGTCTTTATTTAACAAACAAATGTGTTCTAAGCTGCATTTTGCTTTCTACTTCCTGAAGTTAATAACTATTCTCATTGCGCGCTCCTTTCCCAGCAAAAAATTGTGGGACTTGAATAATGGAGTATTTTCCTGTCTCCAGTTGGATGACAAGAACTTA
0.8499046707432962 GTCTTGTAACAGTTATCACATTGTTAAAGTCGTTCCCCAGTAAACTATGAGACCCTTAACTGTGGAAGGGAAGGCATCTTTTTAACCTTTGTTTTTGTGCCATACTTAGCCTAGAGCCTGACATTAAGCAGGTACTTCTCAAAAAAAAAAAAAAAAAACACAGGGTAGAGACAGATAACAAGGGATTCCTGACACCTACGCTGTAGATAGCTATAACATTTCAATAGGAATCTTGGGAATCTGGGGAACTGGAAGCAGCTGGGAAAGCACCGGCATCTGAGCCACTCAGTACTCTTCCAGGCTTGTGTGTGAGCCTTGCCACCTTCAGGTATTAGCACTTGAAATCTAA
0.3713954832650497 ATCAGATAAATGGTTATCACCTGCAGAGCCACAGTATTCCAGAGAACAGGAAGCATGCCCCAGCTGAGGCCCATGGGAAAATTTGAGCCATACATCCTTTTAGAAGCAGAGAAGAGAAGGCCAGTAGCCTGGGGCCCTGGGAATTCAGCCTGCAGCTCAGAATAGAGTCCTGGAATATCAGAGCTGGGCGGGACCTTTAAGAGCTATTTCTATCTGCCTCCTTCTATAGGAAACAGAGGTCAAGAGAGGGGAAGTGACTTGCTCAAGGCTGGAGAGATAACATGAACATTTTCTGATATCAGTTTTGCTTTGGGAACTATTCTGAGATGAGAGAAAAGAACCCACCAACCCAGAGAGTACATGACTAAAGACACAGACACTTGGCCAAACAATTTTCCTGGCTCAAAGGCCTCTTGAAACCTTATCTTGGGTGCATGGACTGTCTCTTAGAGAGGATGTGGCTCAGTGACAGCTCCAGTCATAACCTAAACAGAGGGGTCACTGGTCCCGGTTAATATTTGCATCCTGTGCTGTGGAATATGGAGTTCTATAAAGATCATTTACCTCTGAGTATAGGCAGATTGAG
0.6559330098863123 GAGTAATGTCTTGATGAAGCTAAATGTAGCTAAACTTAAAAACATGATAAACTAAACATCAGGAGAATAAAAACAAAGCCTCAGGACTTTCAGCCTAGACTGTTTTCCATTACACAGTAACTTCTTATCAGCTTGCGACAAGTTCCTTATCCCTCCTTTTTTATAGCTCAGTGAGGAAGACTGGCCATATGTGAAATTCCAAAGAGGCAGGAAAGAGGTGCAAGGGAAAGAAGCCAGGCTCTCTAGTACTAATATATTGGCATATGGCTTTGGCATTCTCTCTCAGCTGTTATTAAGTTAAAAGTGGTAGTGTGGTGTGGAAGTTAGGGTAGGGG
0.728593684981735 ACAGGGAAATGGCCACGTGTAATTCATTTGACAGCCTCTGCTTTTTGTTTCCGAGGAAGTAACTCTACTTAGTTATCATCACCCAAAAGTGTCTTGCTGTTGGGCAGAGATGAAGTTGCTATTGTATCTGCATGTCTAAGGTAGGATTTAATTATGAGAGAAGAAGATATCCTATCACACTGAAATTTTATCTTGCCCAAGGGACATTTAGGCATGGGAGGTTAGCCAAGAGATATCAAGAGAGCAGCTGATGCAGCTGAGACTGGATCTCAGTCCTGGAGAATTGGGCTGCTGGTGCTTAGAGGAGTGAAGAGGACTACAGGGTACTTGTCTTTTGGTTTAGATAAAACAATATTTTACTCTGAATACAGGAAATAAACTGCCAGTTTTGAATATTG
0.3593271422761344 GGTAGTCTTGTTCTAAGTGCCGGTGACCCCCCTGCCGGCGCTGCTCACTGCTCTCAGATTTGGCTTGCCAAGGGTCATCCTGGTCACATTTATTTCCCTCTCAAAAGTCTTCAGAGGCTTCACGTCACTTCCCAGATAAACTAAAGACTTTAGAGGATGGAATTCAAGATCCTCCACGACATGTCGTCAGTCTGCTTTTATAGCATTATCTTACATGTTTGAATCCTGTGTGTCTTTTAAGTTGAACTCGTTGCCTTATCTGAACTCAGGCACTTTCTCACTTCAACACTTTGATTCACGTATTCCTCTCTAATTAGAATGCTTTCACCCGTTATCTCTACCTATCAAAATCTTTAACACCTTTCAAGGATCAGCTGAAAAGCCTGCTCCTTCATTGAACTTTTCTGGATAAGCCCTGTCACATATGGTCTATCTCTCACTCACTCATTTTCTTCTTTGAACCTCTCTAGAATTCCCTGTATATGTCTTTTAAGGGTGTTATCACCAACTGCCTTGTATTTTGCTGTTAGTATACCTGTACATTTCCCATATTAT
0.1061335649902486 CCAGCCATACTGAGAAGAGAGGCTCATCTCTGCCATCTGACAACAGCTCATTCACAGACTTGGAACCAGGCACAACACTGGTTCCCAGGCAACTTCTTAGATACCAGAATTGTTTCATATCAAATTCTAAAGTAGATCAGTTGTTTCGGCTGAGGCTTAAATGGCCTGGGTCTAAGTGCCCTTTGTCAGAACAAGGGCCTTGTCTCAGCGCTGCATGTGATGGGAGCTGCCGCTAGAGGAAGAACTGTTGACAATGAGATAAGAGCCAAAAACAAGCCCCCT
0.3259763380896942 TACAGGTAGATGTTGGGTACAAAATTCAGGCATTCTCTGATGGCTATTTGAGAAAGGTTGGCTGTTCCCATCTGCAATAGTCAGGGGCAGGAGCCTGGACTCACAGGCCAGTACAGCACTCAGGGAGACAGCCTAGAAATGGAAGGGCTTTTGGAGGAGGGAAGCTCTTGAACAGAGCAGACAGGGTAGGGGTGTGGGAGCGTTGATGAAGGAAGGCCAAGATAAGGCTGTGGTTTCCATTTGTTACCACCTCTCCCGCTTATCTTGAGTGAGAACAGGCCCTACAGCTCTGAGCGAACCTTTCCATGGGGCTGTTGAGCTGTGAAGAGGACATATACGAGCTCTCCTATCCTCTCTTCCCAGTGCACCCTTTCCCTTGCACACACAGGCACCTGTAAAGGCTGCAGCTTTGGTCTATTGGATGGGTGGGGACAAATGCAGAAGTGTCCCTGTTCTGGGTGCTGATTACTTCCTAGCAGAGCTGGGGGGTGGACTGGCACATTTGTCCTTCATGATCTGAGTCTTACCTCTGCTGGCCTTGTGCTCAGACTGGCTGGTGGGCCATCTTCTGCCTTGTCCCACCCTTACTAGGCTGATAAATTGCTGTTCCAGTCAACAGGGCTCTGACCCAGCCCTTATCTTTGGTCAGAAGGAGGCTGGGTGACAAGGACAGGGGGAGGGGCTGCTGCACAAGCCCAGCCTTTGGACACTGGTAACCTTTTGTGGGGGAATGTACACCCAGCTGCTT
0.4792937216378675 CCCGGCTGGGCAGGGTGGCTGTGAGCTGCCGGTGTGGCCCCAGGCACCTCAAAGGGTCCTCGGTGTTCAACAACAGGAAGTGCTGGCAGGCTTCCCTCGCTAGGGAACTGAAAGTGGTGACAACAGAGGATGTGTTCTTCAGGCTATCAGATAAAGCCCTCTGCACTGAGAACTGCTTCTGACGAGGAACAGAGACTTCACTGGTCTCTTCCCCATGCCTTGCCCTTGCCCTAACTAACTTCTGAATTTATATCACCTGTGAGTTCTGCTCTAATTCAGGGACTTGGGCGGAGAGGTTTCGGACAGTGGCCAAAAGCAAGAGACTGTCTGCATGACCCTTTAGAAACACCCGTGA
0.3164636419810491 CAGGGGAAACCCAGCTGGGCCGAAGCCAGGGGCTGTGTATTTCAGGAGGAGGTGACAGAGCGGCAGCAGCACCAACTCAACTGTCAGTATCTGTGGGGCCAGCTAAGAGAAGGCAGCTATCTGGGATTACAAAACTCAAGGAGTCTATCTCTTCCCTCTTATCAGACTGACCTTTGGCAGCCTTGCAGCCTGTGAACAAACTGCCATTAACAACCCCTCCCCCGCTTCCTGTAAGCACAATTCTTTGTGACCAGCCCAGGACAGCCAGAGGCTGCCAGAAAGCCTGCCCCTTCCTCCCTGCTAGGGTGGGGCTTGGGGCCCATCTCTCCCCAGACCCCTCTATCCTATCCCT
0.5715007883567159 GTGTTACAGGGTTTGTTTGTGTGGATGGAAGAGGCTGACCTGTCCCGCAGCCTGAAAACAGGAGGTGGGAGGGGGTGGGCAATGGAGCCCTCTCTCTGCATGGAGACACTTCAACGAAGATAAGGGAAAGCTTATCAGGCAGCATTCACGGTGTCAACAGCAGACAAGAAATGTTTCTAACACTTCAGCCTTGCCAACACTCCCTATTTATCTCAAGAAACACAAGTGTTTTTCTTTCTTTCTTTTTTTTGTTTCCGTTCTCTCCTGCTATAAAATGCTCAGAGTCTCACAGTGCAAGATGAAGGGTTGACACGCGGTGAAAACTCATTTTTAGATTCCATCA
