svm_type c_svc
kernel_type gkm_esttrunc
L 11
k 7
d 3
norc 0
nr_class 2
total_sv 1837
rho 0.0480506
label 1 -1
nr_sv 985 852
SV
0.08557812218998365 TTCTGCACGATTTTGTCAGCAACAAACCACAGCCTCGCCCTGCCCCACCTCCGTCCGCATAGTGCCCATGGCCAGGCTGTCTGGGCGCAGCATTCCTGGGCCTGCTCTCTGGCTCCCAGTGAGGGTCCCCGCCCCACGGGAGATAAGATAGAGCTGGTGTCAGGGAGGAGGTGTGGACGGGGCCGCACCGGCACGCTGTGAGTGATAAAAGGGGCTTTGGAAAGGTGCTGACGTGGCACCGTGCTTAATGAGGTCATCGCCGAAGCTGCTGCCCCGATAACCTGGAGGTCAGGCTCCCAGCAAGTGGCCATGGCGGGAAGCAGGGCTGTCTGCACTGCCCGTCTCCACCCAGCACCCAGTCGGCGCAGCCACTGGGTGCCCATGG
0.3974372803725292 AAGACATACCTGGGTTATTCCAGTAGCTTCAGTCACAAATACTTGGCGTATACACTACCACTTGCCTCTCTTGTGCCCTTAAAAGGCTTGAATAATAAACACAATGCTGTCATCATGACTTAAGCTTAGCACCCTCTCAAACTTCTCAACACGGTATTCCCAGCAGTGAATACCCATTGATTAGATAAGGAATGTGAGAGTGAAGCCTATTTTTAATCTCTGGATAGCCTGAGAAGTGGTCCCAATGAGTTTATCCAATCTCATGTCCAATGTGATATAATACATAATATCTTTGCATAATTTTGCAATGTCATTTCACACCTGCCTTTCCAATTGAGGGGATTGGAGCACTCATACGTGACTGATGGGCAAGAAAGAGTTCTCTAGAAGGAGAAAGGGGAGAACAATGGGCCTGCC
1 AAAGTAGCAAGGCAGAGAACTGGACCGGCACTCTGGACTTTCTCTCCTCAACTGTCAAACAGAAGGTGGAGGTTGAAAGAGAAGCTTCCCCAGGGTTTTTTGGCACCCTGCCCAGATTTCCTGCCCAACTCTCAGCATCCTATGATTAATGGGATTCCCAGGTTGGGGATGCCTCTGAATGCCGCCCCCCCCTCCCTGCCCCACTAATCTAATCTCCTCACTTAAAGATAGGAGGGAGTGGAAGGGAGAAGCTGCAGGGAATATGTGCTAACATCAGTTACAGGCAAGCCTGTACTTACACAGAGATCTGACATTTTAAAATAAATTCTTGAGCACTCTTTAGACAAACTGCAAAGTTTAGGAAAGTGTGCAATACTCCT
0.5852128359453141 AATATAGCGTAGTGCAGTCATATGGCTCTGTAGAAGTCCTTACTCTGGGAAATAACCATGAGCACCTCAATGGTGGAAGGGTCCCTCCAGCTTTCTTTAGCAGCAATCTTGTTAACCACATGCTTGCTCTGACAACCTTATCACTTGCCAAGTGCAAGCAGCAGTGTTTGCACTCTTACTATCTCTTACCCACTCTTACTATCAACCACCCACTATGCACTGCGTCTGTTTCTGAGTCTCTGTTTCTGAGCTCAGCGCTGCTTAATGCTAGATAATTCGTGTTTCCCATGTTACCCTTGACTCCAGATGAAACAAAGTCACACAAACAATACTCAGCAGTATTCCTCGGGTTCTCATTCCCAGCCGCA
0.6258821522714573 CCTTATCTTGGTATCCTTCAAAATGGCAAGATGTTCATTCTCACCACATACAATTGCATTGTCCACTGTGCCCTGCCATGATTTTCACATTTCACTCAATACCCATGGTCTGCATCAATCTGGAATCATGCATTCTGCCATCTGCCCCTTTCCTTGAAAGTCCTGCTGGCTGCAAAACAGCTGAGATTTACTAATGGGTTAATATGTTACTTCGCCCCTAATTAAAGCTATTGGTATTTAACAGGAACTTGGCCTAGATAAGGGGTGACTCAACTCTAGAGAATTTCTGAGTGGCTGGTGGACTGATGGGATGATATTTTGGGTCTGGAACAGTTTTCAATGCCTGGTAAGTGGCTGACAAGTTTATCTGTGTCTGAGAGATAGCATACGAGATTCCTGTAAACATGCGTCCATGCACTCGCTCACAAATGTACCAGGGCCCTGCAATCCTGTGAACGCCAGGTTCCTAAGAACAGTAGTAAGGCTCACCTACCTTTGTTCCTCAGGGAGCCAATG
0.5700873250760761 GCTCCACATTCTTGAACACAGGAGGAACAGGAGGAATGGAAGCTTAGTGGAGCGGCGGGGCCTGTGGCTGACAAACACCAGCTGCACTGAGTACATATCACATCATGGCCTGGCAGACGTCTTCTCCTTCAAAATGACACAGGCTATTAGCAGACTCACCGCAAAAGGATATGCCAGGAGTGGATGCATGGAATTCCTGCTGATATACTGGAATCCCAAGACTAAAGCAGGCTTCCCTGCCCTTATCAGACCAGCCAAGATAACTGGAGCAAGGGTGGAATCTGCACACAAGAAAGAAATTCCACCTTACAAATACCAGGCCCCAGATCCAGGCCCCGTGTTTGATGAATTTATTGATTCCACATAGCTGAAGGCCTGTTCTGTGCCAAGTATACTGCTTGGAGTTGTAGACACAGGATGATAAAATATAGTCCGTGCTGTAAGGGTACTCCTGGACCAATGGGAAATGCAAATGACATCTAAACCAACCACAAACATGCAGTGTGATGAGTGCATAGATAGATTGAAGCCAGGAGTGGGACGGAGGCATGGAGGACAGGCACAGAGTCAATTCATGGGGT
0.5901982539986486 AAATGTAATAAAATATTATTAGAACATAACCACTATGAAGAAGGATAGAGTGAAGTGGCATTCTTTGGCCCAGGTAATATAATCATAGTAACAGCAAGCGCATACTAAGTGTTGACAATGTGACAGGCACCATGCTAAGCACTTAAGCACTTTACACGCATTATCTCAGATAAGTCACCTAACAGCTCTCTGAGTTGCTGTAGTAGGCACAAGCAGGACATCTAGCAGATGCAGGACATCTAAGTCAGATACTTTCCACTTTCCACAGTGTGACTTTATCAGGGACATCATAGCTGTTCTCTAGCCTGAGAAGAGGGCCAAGTGGGCAGAAACAGTCACGGGCTGTGTGACTCCTGCCTTCACTACCCATCAGCTGCTTTATCTTGGGCAAGTTAATTAACCCTATAAACCTTGGTTTCCTCATCTGTAAAACAGGAGGTAATAGGAGTTCTTACACCCTAGAATTGTATGAGAGTTCACCTGATGATTCACACAGGGCACA
0.8031755292297595 AATTCATTGTTCATGAAGTTAATGCCCTCATTATATGAAATATTGAAATCCATCCTCACAGTCCTTGCTTTCTGGCTGAGGACACACATGATCCATAAATCTAAAATGGGCTTTAGAACAGTTACAAAGTAGTCTGCCGATGAAGTGAGTGTGAGTGAAGAGAGCGCTGAGTAAATGGCTGATAAGGGAGGCGTGGGGAGAGGAGTGACGAGTCCGAGTCCTTGCAGCCAGAGGTAGGGCACAGGCGGGAGACAAGCTGCGGGTGGGGGACAGCAGGCACCCCAGCAGCAGTGAGAACTCAAAACTAGAGCAG
0.77890187953726 CACATAAGTGCCCACCATGATCTCCAATGGAAGCAAGTAGCACAGCGGGTTAACTTGCCTTGGGGTGTAAGGCCCCTTTAAAGAGGGCGGTGAAGTCAGCCACCTCTTGATAGAACAAAGGCATACCAGGCCCTGCCAGCCCAAAGCCGGGTGGCTGATGGCTTTTGTCACCAAGTGATAGCCTATCTCCTCGTGTCAGGGCCCCCAGGCGTCAGTGAGAGCCACCAAGTGGGGAGGGTGGCTTCTCTTGGGAGTCAGATTCAGGTGGACCAGGCCTGTGCCCAGCAAAGATGGGTGAGCCACATAACGGGGCACCCCCTGTGTACACAGCA
0.6814041220664848 ATCTCAGAGATTTGATTGACACATAAAAATCCCCCACATTATGGAAGTCAGGCAGTGCCATAGTCCAAAGCTGCTTCTGGAAAATGCTTCAGTGTTCAGCCTCCACCTACGAATCCCCACTCAGAGAGATATCTCGGTGCTTGAGTCCCCCCGCCTTATCAGCAGGCATGACATAGATTTCACACAACACCTGGGCCCTAGAGATGGTTGCATAACCCACTAAACAAGCCACAATGCCTGGGCCTTAGAGGTTGCTACACACGCCATGGTGACATGCAGCGTAATTTTAAATGGACAGTCACTTTCACTCTT
1 CAAACAACTGCTTCTACGTGTTTTGTTTTGTTTTAAGAACTCAAAAAAGCATGGTAGGTTCTTTGAGCAAGGCCTTAGTTGTCAAAAGTTTCTGAAGCCCTCAAACCAATAAATAGTATTATTACTAATTAAAAGAGCAGATAAACTGAGAAACAAAGCACTTAGACCTAGGGTGACATGGTGAGACCAAAACTGAATTCTGTGTCTTAAAATTCAGTTATCTAATCTCCCCACTTCATTGCATATTCTACTAGCAGTCATTCAGTAAAGTACCTTTCATCACTGCAGGAGTCTCTCTGAACACAGTGGCTTTGGAATAGGGTTATCTCCAGACATTGTTGACATCATGTCTCTGCTCACATACCAATTGAGTGAATATTGGCCCACATGATTCTTGTAAGTGGATTACAAGAAATCCACGATAGACTTCATTCACTTTTGATGAAACCAAGAACTTTCCCTCTTGAGCTACCTAATGAGATACTGTTATTTGTTTATTATGCAGGGTACAGGTTGGGGC
0.5599224250786183 CACTGCCTGCCACCAAGCAAACGTGGCCTGTTCTGATGGCTCAGTGGCCAATGTCTTCCTGTCACCAAGCTCCTCCAAATCGCGGGGGAGATTGTTTTGACATTTGATTAGCCACAGAGTGTAACTTGTGAGTGCTTGAGCAAGCCGACTCTCAAGCAATGGCATCGCTGAGTGCTTTAGCCTGTTAGAGATACCATGTATCAGGGAAAGCGATGGCGGGCAGGGCTCCAAGAGGGAAGATAAGTGGGCTGTTGGGAGAAATTAATACGAAGAAAGGAAGCGGCGAATGAAGTCAAACGAAAACAGGGTCCTGTGATATCCATGACTCATAAATTTCATTGATACCCAGAATGTGAGTT
0.5941448974171191 GCTGCTGGCCTCTGGTGCTGGGACCGCGCAGTGCTGGAGTGGGGCACAGAGTCCCCATCCATCAGCCACTGTGACTGTGCCAACTCCGTGTTTACTCTGCCTAGAGATGGATGCTGCCCAAACGCCCGGAGCGCTGGGAATGAGGTGGGCTGGCTGGCCAGGATGATTTCTCTGGAAGAACTCAGGCAGGAGCGATAAGCCTGGCATTTCCGCTTATCTCTGACCCTGTCCAGGCCCCAGCGGCATCCAGAGGCTTCACTTGGTTATCTGCCTTGCTGGGCTCTATCTGCCTCCCCGGGGGCCTACTTCCTGCATCACTTAGCAAAGTGTCCAGCTGTGAAACAAACACCGTGTGGTCCAAGGAGGGAGGAATGAAGGGAGGGAGTCCTCGGGCAGAACTGACCTGAGTTCAAAACCCCACATCCGGGTG
1 GATATTTACTGATGTGCAATGTTTCCTGAGAAGTGAGGATTAAAGTTATCAAACGACAAAAAACAAAGAGCCCATTTGTATTATTTCACTGCCTAAATTCCAGAAAGCAACAAAAACCAAATCACAATTTTCAAGAACAAACAAATTTAGCAAGACTGCAAAATAGACAAACAGCAATAGCAAGACTGCAAAATAGACAAACAGCAAGGTTATCCCAGTCAGAACTTCATAGCTATGTTTGTGGATATCTGCTAATCAGCATAACACAAATGTAAGTGATCGTCAGAAAGAATCAGACAGGAGCAATCAGGGTGTTGCAAGTCCTGATTACGCAGAGACGTTAATCACGTTTCATGCATCTCCAATCATCATGTTCTAATCTGCCCTCCGGAGGAGGAACAGGTAAGGATTATCCCACCTGACGATACAG
1 CTTGAACCCAGGAGATGGAGGCTGCAGTGAGCTGAGATTGTGCCCCTGTACTCCAGCCTGGGTGGCAGAGCAAGACCCTGCATCAGAAAAAAAAAAAAAAAAAAGCTCTGAAGGACCGCAGGGGTATGGGGTTTTCATAGCCCTGGAGTTATCTTATCTATGGCTGTCAGATATTGGATATAATTTCAGAGAATACAAAGCAGGCGCACTCGAAATGGCTAAAAATAGGCTTGTTCAGGCTATGTTTCAAACAATCCAGTGTGTTAAAATTGCAGTTTGGCAGGGGTAGGCTATTGTGAATACTAGTGAGACAAACATTGGTGTACAAATATCTCTGAGTCCCTGCTCTGAACAGTTTTGGATATG
1 GAAAGTGAGTACTCCGCATATAGAAGACACCTCCACTCAGCCCAGGCTAAGTGATGCCATAAGGGCCCTCTATTACCAGACTCTTATTTTTCAAGGGAAGTTAGAAATCTTTATTTAATGTAAATTTTCCTGATTTTTAAGTTAGTAATTAATCCAAGTATAAAATTATTTTGCAGACTAAAATGCTTAAGGAAAACAAAACACATCTATGGTTTAGATTCAGCCCAAGATGATTGCTGTATAATCAGTCCATGAATTCCAATTACAACTCAACACTCAATACAACTCAACACTGCTTGATTGAAAGCAGTGGCTGGTTGATAAGATAGGAGAAAGAGGTAGTGTTTGTAGTGCTACAGAGAACAGCATATGGAAAATAAATGTAGGGGCAGGACAGAAGGAAATAAGACTGAGGCACATTTTGAAGGCCAGTAATCTAAGATTAGAGTAACAGCAAAACATCTTTTTTTTTTTTTTTCAGAGGAAGATATACACAATGGAAAAAAATCAAGGAT
0.3054087233362461 ACACAATTCTGCAGAGAATAAATGTAGGAGAGAGCAACCTCTTTCCTGCCACCTGACCTTCACTTGGTGGTCAGTCGTGTGGAGCTGGACGTCACTGTCAGCTTCAGTGGAGTCCAACTGCTGACAGATAAGTGGGAGCACATGGCACGTGCGAGATAAGAGCCTATAAGAGCCTGGCGGCCTGAAATAAATGGCAACAACAATGCTCTTCTAAGTGGTCTTCCGAGAAAGCCCTGTTATCATCAGCATTGTTCACACTTAGTAACAACTTTCCTTGAATGGGGTTTTCAACATGTTTGTTCCTTTCAGTCTGAATTATCTGCCAGGGAAGAAACTCTTTCTAAAGTCCGTCAACAGTTGTGAGATTGGGTTGAGGCTCTCAAAGGAGTTTCCGGCTGTTGTCAACACAGCAGGAAGGGGCAAGGATAAAGGGTGATTTAGGAGCCTGTGCCTG
0.5661763874938713 AAGACTGTCTCTCACTTATGAAGTGTCTTTCAGTCCCACATCAGGAAGGAAAGAAGGGAAATGATGTTGATGTGGGCCCTGCAGTGCTGCCCCTGCTTCTCTGTCCCTGGGCAGAGGTCTGCATTCACCAGCTTTATCCCATGGCCTTGTCTCCTGGCCTTTGCTATCTCCTTTGAATTCCTCCCTTATCAGTTGGGCTACACACAGCAAGTCTTTACCATACATGCACAGAGGTTCTTGATAAGGAGGCTATTTTAGACCAGTATGGAGCTCTTCCGTATAAAGCACTGGTGACTTTTTTTTCTTCTCATGGGCTGTCACTGATGCAGGCTAAAGACACACTTCAGTCGGCCACAGCCGGTCTCATGCC
0.9086169769139355 ATGTACCACAGGGCAGGCCAGGCTGCAGGAGGAGCTTGCAGTCCTGGAGGCTTCTGGCTCTCCTCTCACCCCGCTGCCCGCCCCTCAGTGATTAGTTGGAATCCAAGACAGCAATACAAGATGTGTCGTTGGTGGGAGTGATGGAGTGCCTGCTGAGTGGGCCGCAGATAAGCACCGTGATTTCGGAGGACGCTTCATCATTTCGCCGTAAGAACATGTTAACGGGTGATTGTTTGAATGTCTCCAGCTAATAGGATATTATTCATAACACTCTGGCTAGTTGGAATGGAAGATGATAAGAAATTAAATCCTTAATGGCTTTCTTTAAGGGAGGACTTTTCCCAGGGGAACCAGGAACCCTGGGAAATCGCTCCATGTACCCTGGCAATATCTATACGGAGAGAATTGGCTTTAAATGAACCTCTGAGGGTTACACAAAGGGTAAAAGAAAGAGAACAAAAAGCAATTGACATTA
0.9847820504942589 GCTTTCTGATTGTTTTAATTTTGAATTAGTTGCCAACATTTAAAAATTAGAAAATTCTGAAAGCTAAAAAATCTAAATTTCCCTTGAAAATGTGAAAGAGCAGACAACACTTGGCCCTCATTCCTGAAGGAAACAATTTGTTAGATTAAGAAGGGGTGAGTCCTTCCAGACAGAGTATGCTTTCTAGATTAGCACAGTCCCTGTCAGCACCCATTATCTTGCACTCATTCTACTTCACTCATTTACATTATCAGCCTGGGCTCTGTGGTCTAACCTTTCCACTTTGCAAAAAAAAACTGAGAGGTCTAAGTGGTTTGGTCAAGGTCATAGATACAGGTACAGTGTTAATATCTGGCCCTAGGCCCGAGGCTTCTGGTTAAGCTCAGTGTGTTAACACTATCTTCATGGGCCCTTTGGAATCTATCAATGACCTGTAAACACCTAGAACACTCAATTTGCTGTTCCTTTACAGCC
0.4704153584359669 TTGTCCAGGGCAGAGCAATCCTTGGAGCAAGGCAGCCTGCTGCGGTGGTTTGCAGAAGAGGCACAGTGGGGCGGGCTGGAGGCCGCAGGGGCAGAGTGGGCCGAGGGCCTCTGATGAGGTGTGAATGAGGGAGGCAGAGCAGGGCTGGTGTGGACAGCCCTGTCCCAGCCCTATCTCCCGTCTGCGACACCCTCTCCACACCCCAGTGCTGATAAGCGGGTGTGAGCCACGGCCGCCTTGTGACAGGCCCTTCGGCAGGGAGGGTGATGGTGGGGGTCCACTCCACTTCTGAATTCAGACGTCAGCATCTTTTTCCCCCAACCCCCATTGCCCTGTCAGACTAGACAGGCCCTAGCAACCAGGCACCCTCCCTGACAGTCCCTGGCTTGGAGATTTGTTTCTGCTCCATGTGGCCTCAGCCTTCTCAGAGATGGTAGGAGAC
0.2227038144540434 GATTTGAACCTGTGCTTGGCTGGTGCAGAGCCTGCCTCTCTCCCCAGCATCAGGGATGGTTTCACGGCATGTGGCCTCTCCCTGCTGCCATGCCTCCATCAACTCTCCCTTTCTCATATCAGAAGATCACAAGCATTTAACAGCCTTGCACTTGTCTGACCCGAGCTTGCTGTATCTGCCCAAGAGGGCTGGGAAGATAAGATGAAACAATCCCTGTGAAATACTGATCACTAGTCAGCACTCAAGAGGTACCAGTACATCACCATTCATCACATATTCATTTAGGACCTAATACATGCCGGGCCTTGGGATAGGCGTTCTCATCACCTTCATCACTTACTGTTACTACGTTTAACACCCTC
0.4826597895874584 GAAATCTTGTTCTGTACCTTTTAAGCCAGTGTCTGTGGCGAGGGTGACTGGCAAGTCAGCTGATGAGTTCTGCCTTCTGAGAGCACTGAGTGAGCAAGGCCTTTCATCAGTGTTTTGGCCTTCTCATTGGGTGAGGAAGACATTGAACCAACAGCCAACGAGATATGAACCTGTAAGAAAAAAGTCCTAGAATATAGTATTTTTCCCCAGGCCAGCAAAGTGAAGAAATACAGTGGTGACAGATGAGAAAGGCCATGTTCAAGAGATCTGAAAAGTACATTCCTGCCTTATCAGAAAATGTGTCAGACAGGTTTTATGTCAGCCTCAGTGCTCCTGCGGTGTCGACGCTCTGATAAGGACCATGTTCCAGTTAGAATGCGAGGGAGGGAAAGAGCTGCACTTTGCTTCACCATCAGAACTCTGAGCCAAATAATGAATATGTAAACTATTTTATGATTATTTTAA
0.4037686194243653 CAGAGAATAAACCTGAGAGGGATTTCTGGCCAATTTCAGTCAGGCGCCTTCTCTCTTACAGATTAAGGGTATTTAAGGGTTTAGGGAGGGAGAGCTTATCACACACTCAGAATGTTTCTGTGTGTAGGAGAGTTTGATTGCAGAGTTGGAATGTCTCTGGTCAGAGGGGATGTTATCTCGGGGCTGGCATGTTTCTGGTGGGAGAGGAGGTTATCTCAGGGTTGGCATGTTTCTGGTCAGGGGTGGTTTATCTCAGGGTTGGAATATTTCTGGTCAGAGGTGTCACTTCTGGCTTATGGTCATGCTGACATTAGCCATTAGGCTTATGTTTTGGGGCTGGATTTAGGAGGTTTTTAATCAAGAGGAACTTAAAATGGCAGT
0.8879345366068576 GAAGTATGGGACTCCTAAAAAGTTTAAGAACCACTAGTTAGACAAAGCATTTAAGCTGCTCCTGGTAATCTGTAGTCATGGAGAGTTATGCAGGGATGGAGTAGGGCAATGCCCTTGAAAGCTATCTGGATGTACAAGGCTTTCCTGTCCCTACGTCAAGTAACACTTAGTAAGCACTTACTAAATGCAGAGCTCTACATGGATTATCTCATTAAATCCCTCAACACTCATTGAAGAAAGAACGATAACATGAAGTCCATTATGCCCATTACAGACAGAGATAGTAATTAGGTCGAGGTCACATAGCTACCAAGGAGTGAGGCCAGATACCTATCTGGCTATGCTGGCTCCAAGCTGGCTCTCTATTATTGTGAGAAGTGGATTGAAACAAAAAGTAAATGGACTC
0.7832153264876024 AGAATTCCCGAAGTCCTGATGTTTCACAGATTAGTAGCCTGCCATTAAGAAACTGTGGGGTTTGGGTGAGTGAGCTGGAGCCATAAGCATTATCAGGTAAAAGTGAGGTTTCCTGGGGCTGCAGAAAGAAATGAGCTTGTTACTACTTCTGGTATTAATCATAATAAGTGTTTTATCTAAGCCTGTCATGTTTAGTTTCTCCATGCAATTTACCTCTCAGGCACACTGTTCACAGTATCAGTTGGCCTTATCTTTTAACTTATAGTCTTCAAGTGCCTAAATGTATTTCCTCCAAAGTTCCCACAGTTAACATGACAAAGTGAACATCAGTGCTATTTTAAGACAATGCCGCACCCGCGTTATGAAAGACAGAGTTGCTTATGCCTGGCTACTCCTATCATCTGTTGAAAAGCTTAACAGGCAGCACTGATTCTTTGCCTAATTGCAGTTTTGCTGTGAGATTAGCAAGATTTTAAATGTAGAGCCCAAGTACGTGCTTCAATACATTCATTTATTTCATTTTTCACCTTTGCAAAGAAATAAAATAAAGATCTACTTATCCTCTATCTTGCTCGTCTTT
0.2497632010669814 CCTCATTTTTCTTGAGCAGTATATCTCAATGAGAGCAATTAGTACACGACCAATTCAACAACCACTAGATATAATGACTGTCCTACTTTGGTGCAGCGGACATCTTTTTGTTGTCGTTGTTCCCAACACCATATAAGTACTGATTAGAAGCAGGAATGCCTGTCCAGGCCCTGTGAAGGAGGTGATGAATGGTATGTCTGAACAGCACAGCCCTGGCTTAGTATCACTGAAATGCCACACTCCTCACTGAAGTCTGTTGATAAGCCTGACAGTGCTCAGCAACTTTTACCAGCAGACTTTATATCGGGGGACCCAAGCTGAAAGTTAGCACATGGGGTGTTCTGTCAGCACAGAAGGCTTACACCATTAGTAGATCTAAATGGTGTTTAGATTACGGAGTTCAACAAAAATCTAGGTCATTAAGTGCATAAAAGAAATGTTACAATGACTCC
0.3185877095325853 GGAGCAGACACATCATTTTCCACATAAGCACAGAGCATGAGAGGTTTTTGCCCTTTACGGTCAAACCAGATGTCTCTCATTGACCTTTTATCACGTGAAAAGAATAGAATTCAAGTCAACTTAAACGGTTATCAGGTAACCATACATGACATCATGTTTTAGTGTTTAAACGGGCAGAACACTCTTTAGGCCTTTCATTCTTCTAGCCCTCTTGAGATAACATTTGTGATAAGGTGTTGAAAAGAGCATAAGGTTTCCATCAAGCCTTTGACTCGAATGCGAACCTGTCTCCAGAGGACTTGCGGTGTTACACTTGTTTAAATGCCAAGAATCAGT
0.5314662827238967 CGCACTGTTCAAACTCATGTCAAGGGTATTTATAATTTTCCAAAGGGCTGTTGCCACCTTATTGCATTTTATTCTAATAATAACAGTCAGATGATAACTGTTCACAAAATGAAGATGAAAACTTAGCTACAGAGAAGTCGGCCAGACTTTCCTGCGTGACCTTGGTAGTCTGCTGGTGATTCAGAATCTCCCTACCTCAGCCTCCTGGCTTCACTCAGCCAAGACTCCTTATCCACCAACAATAAACAGCACCATGTGGCTGGCTGTTCACCACTGTCCATCAGGCCCAGACATTGTTTTTAATCCCTCTACTCTAACAGAAAATGGTTCCAAATTCCAGGACTGAAGCGATAAGAGCTCCCCTGCTAAGCACTCAGAAGCCAGATGCCATTTAATGTGCCTGGGGCCGCCGATAACTGATAGCACTCCACTACTCCAGCTAAATTTAATTTCTCCTGCCTCTGCTCGGCTTGTCTGGGCACCTTTAGAAGGGTGTTGTCCTGACAGCTGTCTTGATTCTGATGAGCTTTGTCTGCACCTGATTAGCATTCTATTTCTATGCAAATAAGCACTTGCCTTTGTGGCTCCTGGATTAATGGACACTGTGAATTGGAGCCCTGGTCTTCAGAATCCAGAGAGCTGTG
0.5256484614050699 CTGGTCTGACCCGGCTGGGCAGGGTGGCTGTGAGCTGCCGGTGTGGCCCCAGGCACCTCAAAGGGTCCTCGGTGTTCAACAACAGGAAGTGCTGGCAGGCTTCCCTCGCTAGGGAACTGAAAGTGGTGACAACAGAGGATGTGTTCTTCAGGCTATCAGATAAAGCCCTCTGCACTGAGAACTGCTTCTGACGAGGAACAGAGACTTCACTGGTCTCTTCCCCATGCCTTGCCCTTGCCCTAACTAACTTCTGAATTTATATCACCTGTGAGTTCTGCTCTAATTCAGGGACTTGGGCGGAGAGGTTTCGGACAGTGGCCAAAAGCAAGAGACTGTCTGCATG
0.8162684165443309 CCAGAATTCTATGCTGAATAGCGTTTCAGGGTGACTTTGTATTTTGGCAACATATCCCAGACAGTTAGTGGAAATGAGAGAACATGTTTTATTTAATTTGTACTTTGGTACCTTTTATGTGAACGAGGCATGTTTAAGCACTTAATGTTGTCACCAGCCTTTTAAAACTATCTTTTTTTCCCGCTGCCCAACTGTAGTTTCCCTTCAGTGTTGAGTGGTCGTAATCTAAACACATTAAGTTTTTGTCTTGTTCTTTCTGCAGAGATAGAAAGCTGGGTCTGAAAATAAAAGCAGAGCTTTTATACAAGGAGGTCAGTGTTTGTACTCAGAAAAGAAAGTATGTAAAC
0.3886413672590906 AGGGAGGAAATGGCCAACTCAGTGACATGCTGCTAAGAATGTGAGTAAAGTCAGTATAAAGTGTCCCTTGGACTGGGCAATACATAGGCTTTTGGTTATCTTGACAAGAGCAATTTGTTTTCAGTAGTGGGATGAAAGCCAGATCAGAGTAGGTTAGAGATTGAATGGGAGGTGAGGAAGTGGAGACAGCGCACAGTTAAGTAGTTGAGATATTTGGTTGAGAAAAGGGAGAGAGAAATGGAAAGGGGCTAGCTGAAAGGAATGTGGAGCCAAGAAAGAATTGTTTTTACCATGGAAGATATGAATGGCCCACTAGAAAAGGACAGATTGGCATTGTCGGAGAGAAGAGATAACTCCCAGAGAAAAGGCTGTAAGTATTTGAGAGGTGATGAGATCCAGAGCACAGGCAGGGGCTTGGCCATTGGTCCCAGGTTTGCTCTATCCGTTAACAAGGAAAGAACAGATACAGGTGTGAAAGCAAGCAGGTTCCCATGCATGACAGCAGGAAGATGAGAGCTAATTTCATCTCAAAACTCTTGGAGTTGTAATTAAC
0.715298868917412 GATAAATGTGGTGCCAAGCTAGAATACATTAACAAGGTAAGGCTTCAGGGTCTCTAGGTAAGATAATATATTGCTTTCATTAAAAAGCAATCTGCATGGACGATATCCACCACCACTGGAAACTCTGCAGTTGTCACCTTTATCAGGGGAACAAGAGCAAGCCACTACATTTTAATCACTGGAGTTTGTCAGGAACGAAAAACAGCCAGCTTCCCACAAATCAACAGACATGTATCCTGATAAGGGAAGTGCATTGGAAAAGGACAGCTACATACCACATGACACCACCTATTCCAGGGTGATCAAAGCTCCATAATTGTTGAAGATAAATCTACTGAATTGGGCTTTAGGATGAAATAGTTGTCTTTGAACAAAGTAGACACATACTTGTACAAATTACCCACAACTTAGA
0.09751307262289671 TATAACCCTGAGCTCAACCCTGTTATGTTCTTTGGCCAATGGGATATTATTAGCAGCAGAGGCTAAGAAGTGCTTAAGCATTTCAACTTGCACTCTTGCACTCTGCCACTGCCATGAAAGTATGACAAGGCTAATCTGCTGGAAAATTAGAGATACATGAAGCAGAGCTCAGTCACCCCAGTTATCGTAGTTGAGTTATCATAGATCAGCTGGCAGTCAGCTGACCCTCAGATAGATAACAGAGCACAGCTGAGATTGGTGGGGTTGTCTAATCTACTGTCATAGACATATAATCATAAATGCTGAGGTTTCACAATGTTTTGTTATGCAGCATTATTGTGGCAATAAATAACAAATCCCACTCCTAGATGCTTCCATAGCACTCTTCACAAC
0.5922989568662372 GGATAAAAACGCCTAACGTGCTAAGAAATTTAAAGTGAAAGAAAGAATCTTTGTCCTCATAGCCAACATACTTTCCCCATCATGTCACATTGCGCTATTCTGGCTTTATCTGCCAACCATTCAGTAGTCTATCACAGACAAGATTGCTGCTCACTGCGTTCCATTCAGTCGAGCATTTGAACTGCTTATTATCTTGGCTACCAATGTGTAGGGTGCCTGTTTTTGTCTTGAACCAGATATACCCTATCCTGCACACTTGATTGCTGAAAACTTCCAGAGACCTCTATTTGCAACAGACTCACATTTGCATGTGTAATTCCTTACTGGTTTGTCAAACAAGGAACAGGA
0.6267166984484989 GAAACTCTTTTACTCATTGTGGTCATTACTGACCGTATTGGCTAGCAGCAGTCCTTCCCAATGTGAAATGGGTGAAGTGCACTTGGAAATTACATGAGGCTTGCACTTTTCATCCGCTCTTGTTGGCCTGGTCATCTTCAAGTGCCTGTTATCTTGAGTGAGATAGAGGATTCTAGCAACAGCTCCATTGTGTAGTCTTATCTTAGGAACATATGGACTCTTTCACATTTGGTTTCCCTAAGTAGGCCTTTAAAAGTGATGGCAAATTCTGTCAACATCTCCACCTGTTTTGTATTCTCTCCAGTAAAAATCTGTCCAGTAGCTTCAAGAAGCTCAATCTACTGCTGAACCACTTCATGCCAGTTTCACGTGCTCCTTTAGTCATTTTCTTCCTGAAGTCATGTCAAAATGTCTATCTTCAAT
0.7183904613023684 GATTTGATTATTGAGTTATCTTTCTATTCTGCTGCTGTCAGTAGATTTGCCATAAATGTTTCCTGAGAGTCTCTCTCTTGAAGAGATTCAGGCCCCAGTTAAGTTCATCCCAATTAAAAATAGAACCCTGAGATGCAGCAGCTGTAGCACCTCTTAAACCTCTTCAAATAACATTGAACGATTAAGTGGCTGCTACTGTGGAGATAGTGCCCACAAAACCAGCAGCAGGCCCTCTCGGAAAATGATAACACTCTAAGTGGCTGTCAGTCCTTAGTCATTTCTAGTCATTCAGGGGATGTTGCCTTATCTTCTACAAGTTCTAAAAGTTCCTGGGAAGAGAAGAATCACATAAATTCTTTATTTAAAAAAATCCCCCTTCCCACAGCAAAATTCTCTAAAACAATACTAAACAAGCAGGCATGCGCAATTCTAATGAAGTCTATCATTTG
0.700226359637244 CATTGACCAGGTCTGTATCTTAAAGAGTGCTAGGTTTGAGCTGTCCTTGAACTGACAAACAATGGAGATGAGGATCACAAGTGAAATGGCATGTATAGAGGCCCAGAGGAATTAAAGAGTTTGCATGTCTGAAGAACGGCTATTCTAAGTATGCATGTCACGTGGTGGCCAGAGATAAGATATAGGTAGTGAGTGGGGGCTAGGTCACAAACAATTCAGTATGTCATGCTAAGGAACTGTTATTTTTATCCTACAGGCAATTTCGTAAGAATTTCAATAAGGAAATGTCTTGATTAGAATTACAAATTCGAAAGGCTTTTGTAGCCACATGAA
0.5669697313710509 CATTAAAACTCAACATGAAGAGGTTAGGACAGATAACTAAAGACAAGCTTTATCAAGGAGTCAATGACCCACAGAGAAGTAACACACAGTGTCTCGTAGAGCGAAATCTTTTACCTTGCCATTTAACAGTGTGGGCGATTCAGCAGGTGAAGATATGGGTCAAAGGGCATCTGATCTGGCTTAAAAACAGTCACTCAATCTGATGGTTACTAGGAGATATTAGACATAAAACATTGTTATCTCTCAACCCTTTGTTCAGCTCTGTGACATCATTCTGCTGCCCTGGTGCCCCTTTCCATCACTATCATTGGCACCTTGCTTCTGTGGCTAACCTGATAAGGGCTATGGAAACATGTGTAGGCCCCTGAGCACCAGCAGCTGTTGAAAGGAGTGGGACAAGAGAGTTAGAAGAGAGACTGTATGTTTGAGCCCAGAAGAGCCGTATTTCTTGAATTTTGGTCATTAATACACTA
0.2135913652755487 CAGGACCTTTTGGACACCTGGGTGTAGACAGTGTGAGAAGGAGGTGATCTGTAGGCCTGGCCCCAGAGTGGGAAGCCACACGGTTCAGGGAGCTGGAGCAGCTGCCCTCTCCAGGGCCCCCATCCTCAGTCTGATGAGATAAGCCAGGAAGAGTCTGACAGGCCAGGCTGCTGGAGAGAAAGAGAGTCCCCCTCAACAGGGCCTGGGGCTACCCAGCTAGGGCCGCCTCTCACTCTGACTCCGCCTCTGCAGAGCATGTGGGTTCTCATGGCCTTATCTGCCAGATGGCTCCCGGAGGGGATGATTTATTAGGTGCAGAAAGCTCGCTGATAAATTTTACTGCAAGTCCCCGGCAGAAGACTGGGGGTAGCAACAGCCCGGCGCAGGCAGCTCTAATGGAAAGTGCCGTCACCAAAGAGCAAAGCATTATTTATGACTGTCTGTAATGCCGTT
0.8888593120017297 AAGACAAATTCAGACTTAGAGAAGAAGAGACTTTCTTCAAAAAGAATATTGCAATAGGCAGAATATTCTTATCTCATAAATCTGCAAGCATGTGAAAATAAAAAAAGAAAAAGGTTCATTTTGTAAGGAGAGATAAGCAATGCTTAGCAGAAACTTTTAAGGAGAAGTTGAGTAACCAAAAGGGAGCATAATCCTGGTTCGACAGAAAATTTGTCTTCTATCATTAGCAAGCACACAAGATAAGCTGACAAGAGGAGCAAGCTAAAGTTCAAGGGCCTGTGTGAAAGAGAGATGCCTGACTAATGTTTTGTCAAGATAAAGCAGAGGGTTGGTGACAGACAGTAAGTATTATGTTAGCACTTCTGGATTCTGGAACTCCACACTCATCTGAATTTCATATTACACTGTTAGCTACTCCCTCTCCATCTTTTTTTTTTTTTTTCCAGAGAGAGGATCTCACTCTGTTA
0.1712095471339689 TCCCTTGAGGCTTCATTCTCATGTCTTATCTAATTCAACAATCTAGTTCTGTTATCTTTTCCTATTTTAATCTGGAGCTTTCAAGACATATTTGCCTAAATTTTCGTGCATCATTTGCAAAGCAGAAAATTATTAAATAAGACTCGGCTGCAGACTGTGCATTGGTGCACAATTAGTCTGAATCCTCTGAAAAAGCTGAGATAACCTCTGCGAGAGAGGCTTATCTAGCTTGTTTTTACAAATCGAAAACAAGGTGCTGAACAAGGGTTTATCTCAACCAGGAGAGCTACTTGAACAATTTAGATAACTTTCTATTTGCCAGCCAACTTTCTGTTATCAGGAAATACTATAGCAAGAGGTTGGCCGTGTAAAATATGTGGAAATTTTCAGCATACACTTATATTCCAGCGGGAAAGATGATGTTGTTTAAATAACAGACAAGTGATGAAATGCTATTAAAAGTGTACAAAGTAACTGCCAGTCAAAAAAGCCAGAGCAAGCTGTCACAGATAGGCTCATATATCAACAGCACTGTGACTTTTTGTTTGCTTTTTATCACAGCTTGGTGTATAAAGAGCCATTTACCTGATTGGATATGGGACAGTTG
0.462622185220838 ATCCGCTAATCCTTCTCTCCCCATCAGCCTTTCAGATACTCCAGAGTGCTCCCAAGTCTCCTCTCCCCTCCCACCCCAAACAACCCCTGTTTCTGCCACTGCTGCTCTTAAAGGTTATCAGCAACGGAAATTCCAACAGCTCCTCGCTGCTGCCCATCGGAATATTGAACGACTGCCAGGTTGTCCTCTTATCTAGTCAGAGTGCCCTGGCCTGCATTCGGTCTCTGGGCCAGCTGATAACACATTTTTGTTGTTGGAGGAAATGCTTTAGCTCCAACGGGGAGTGTCCACCCATGTGACACTGCCCAGAAGGAAAACAGGCCTGGTTCTCTGAGGGGAAATGACAGCAGCCACAGCCCCCTGAAGAAGACTGAATCAGTCCCTGTGTATCCTTTGA
0.6156634325219031 CTCATAGACTGTTTTCTTTCTGTCTTGCAGCCATGAAGTTCTCCATAATTTTTGTATTGCCAGAAAGCCTGAATGAACATTTAGCACAACCCCCTTCTACTTTATATCCCTTTATATCCTCCCAAAATAGCCTTCTCTACACAATGATAAGGACTTGATAAAAGGGCCCCTATTGTGCAGTCCCAGCCTGGACAAAGTAGTTTTAAAGCCATAGCAGAATGGCCATCAGGTTGTCAGAAATGACAAAAGCCACAGCACATATGCAAGTGGTACAAATGCTTAGTGCCAAGTTAAGATATGAAACTACACTTTCATATCTCTATGAGTGTGTGTGTGTGTGTGTGTGTGTGTGTGTGTGTATTAGTTTTCTGGAGAGACAAAACCAATAGGATATATCTAGAGGGAGACAGAGAAAGAGATGGAGAAAGAGAAAGAGAAGAGAGGAGATTTATTAGGGGAATTGGCTCATA
0.6850103774818324 TGCCTTCCTGGAGTCAGACTCCAAGGCCAACTGGGCTGGGGCAGCTAAGTCCAGAGAAGGACCTCAGGAGTCTGCCCTTAATCCTGTACCCAGGACGGGGCGGGTGAGAGGCACATGCTCAGATTTGTTCCTGACATGTAACTTCAAGAGCAGTGCTACATATTTTGCTTATCTATCCAGAAGACTGACTGCATACAGATGAGATAGGGCGTGGGGGGCCAAGTGGGAGGGAGCTCCAGGAGGTGCCTCCAGACATGGACCAGGGACAAGAGGACAGCTTAAAGAAAGGTTGTGGGAATTGAGTGCAACATTTCGGGTCTCAGCTTAGATGTCACTTGGCTGGGTAGCCTTTCCTATCTTGGCAGTTCTGGGTGACGTACCATTTTCCTAAGGGATCTTACAGCACCAAGACATCTTG
0.7766647244590094 CCCAAGTTCAAATACTAATCCTCTTTTTCTATATCCTCAATTTATAACATAAAGCCCGGGACATAGCAAATGCTCAATAAATGTTTATGGACTGAACAAATAGGGATGAAATAATGCCCATGCCTGAACCAGATAAGATTAGAAAGGAAGTGAGGCTCATGTTCAGCTTTGTTAAGGCTTACTGAAATATCTGCTAGCTCTCAGGACATGTGCATAGTGCTGACATCCCTTGCTAATCTTGACAACGTGTGACTTTCAAGGCACTTGAAGTGAACTCTTTGTTATCCATCACTTCAGGAAGAAGTGGCAGTGTTAAAAGAAATGGAAGAAAAACAACTAAATGAATTTTTATCAT
1 ATGAAGAAACCATTTATTTAACAAAACTTAGGGGAATACCTATTTTGTGACTGACACAGGAATAGATAATGAGTATATTCAACCTAGTTGAATGGAAGAAACAGACATATACAATATCCACACTACAACGTGATGAAAACTAGAGTCCCTTGCTACTTCCCCTCCTAGCTAGAGATAACTTTGCCTCCAATGACACAGGTTCTTGAAAGCTATCAGATAATAAAGCATAGCCTGTTCTTTTTCACTTCAACTGCTGAATAACTGGAGAGTTTCAATTGCTTTTCTTTAAATACTCAGGTAATGAAAAATAAAAACAAAAAGAACGCAATGACGGAAGTCTTCCAATTGTCTCCAGAGTTGAGGAATATAGTTAGATA
0.1575443998182163 AGAGGCTGGGGCGCATCCCAGCCGTCTCCCCTCCTGGGCTCCCGATGGCCCCAGCCTGATGCACTACCAGTTCTGTGGGGCCAGGCTGGTACCCTTGGCAGGGACGGCAGGCGGCAGGCAGGCGCGTGTGCAGGGGGCCTTATCTTATCTCCCTTCCTCACTCCCTCCCAGATCCGCCCTCACCGGCTGCTGTGTCGCCGTCATCAAGCCCTCCGGACACTGACACACACACAGACACAGAATTTATTTCTGGACGCATTCTGCAGGCTGGAGGTCCCGGCAGGCACAGGGCTCACACCTTGGG
0.5255448790858682 AGCCTTCAGGGTGAATCTGATGCATGCTCAGATTTGGGACCCATTATTCTAATGAGACATAGACCAGCCCTCTAACAGGATGTCGTCCATCATCACGTCAACACATCTGTCTGTTCCTATCTATTCTCTCATTGTTTCCACCAGCCCTAGAGGGATCAAAGTGGGATAAGAATATGAAAATGCCTAGCATATGATAACGACAATAGCTAACACTTAAACAGTGCTTGTGTGCCAGATACTGTTCTGAGTGGTTTATATTTGTTAACTGAGTTTATCTTCAGAGTGACATGATGAGGTAAGCATTATTATCCTATTTTCCACAGAAGAGAAACTTGTGGCAAAGAACAACTAAGTAACTTTCCTAAGATG
0.6897669731126974 ACCTGTTCTGGGCTGCGGGGCACAAGCATGGGGTTGCTGGTCCTAAGGGCACACGAGTGGCCGCCTGGAAAACCAGAAGCAGGAGCTCCTGGACGCCAAGGCTGTGAACAGTCGGACGCCTCCCCGTCTCCAGCAAGCCGGGAGCCTTATCTTATCGCCGGCGCTTCAGCTCTCCCGTTATTTAGGGACCGGCCACAGGCTCGATGGCATTCCTCTGCTGTGAGCACAGAACTAAACTGGGCACGTCCATGGCAGATGAACAGAATGGTGGAGTGAACGCATAAGTGAGATTTCATTGACTTAGCTGCAGCCCTCAG
0.202729873959838 TCCAATGTGTGGTTGATTCCCTGCCATATGCTCTGAGTTTTATCAGGCTCAATGAGAAATACCAGTGCTTGCTACACAGAGATTTCTAATGCACCCTCACTTCTGGCAATAGTCTGGAATTTACTTCAGTTGATTTAAAGAATTTGTGAACAAGAATTTTATCTGAATTGTCATCACCTTGGAGCAACTGGTCAGGCTGAAAAGGTGTCCTGAATGGGGCTAGACACGTCAGCGAGACCTGCCAGGTGTCTCGTCACTCAGCACGGCCACTTCCTAATAGTAACAGGATCAGCCCTGGGGACTTGCTGATGGGCAGCATGGCAGGATGACCCCAGCCATCTCCACATGCACTCTGATAAGGACTGGCAGGTTAAATAAGGGCATATGCTGCATGCTGCTCCATCAGCACCTCCACTTGGCTCCTTCTCAGCCCAGGAGTTAGAAT
0.2921401587119508 GTGCCTTCCACCTTAATGACTCTGCAGTGCCGAAGCCATAGGGATAAGTGGCTACCTCTCCCCTCGCCTGGGTAATGCTGCCTGGAGGACAAGGCTGTTACGGAAAAATGTGGCACTAAGAATAGCCAGCTAGACGTGGTGATAAGGGCCCAGATGGCCAGGGATGTCAGCTGGGGACAGGGAAGGCGGAGGTGGTGGAGAAAGAAGAGGGTGATAAGATAGGGGCAGCAACACCGGAATGCACAGCTGGGGCTCTGGAGACAGGCCACAGGAGTCTGCCGTGGGCGAGGGAGCTGCCCGGAGCTCCTTCTGGCTGTGCCCTGTGGGTGTGAGCCAGTGGAAGGGAAGGTGAGTGCCAGCCTGAGCAAAT
0.5523351766823454 ACTCTGCCAAAAGGAAAGAACAGGAGGTTAAAAATAGACAACCCCATTGAGTTTATCGTGAGAGAGAAAGGAGCGAACGAGAGAGAATTGCCACGCCCCTAGTATGGTGACACTAAGTGCCTGTTATTTTTGCTGTTATCTTAAATGTGGAGGACAGCTTCAAGCTCTTTCCTTATCAGCTGATGTTTGATAACAAATGGAAAAAAAAATTACATCCTGACAACCCAAATTAGTTTTGCCACCGAAACTATGCCATTGTAACCATGGACTTTGAAACAAGTAAGTCTTTGACCTGGTTATCAATCTTTTCAAGATTTTTGAAATCTCTCTGATGCAAAGAGA
0.6987746191855821 GGAGAAAGATGATGTCCTTCCTTATTTGGTGGCTCTGGAAGCCACATTCCCTCCTCATCCGCCTTCCCAAAAGAACCTTGTGGCTGCCCAGCGGAAGCCAGTGCTTTCAGCAGCCCCCACCCTTGGCATTTCCTTATCTAGGAGTCTTCACTGTGGAATTCCAAGGCCCACCCCAATGCTCCGGATGTGTTTCAATCCATGGCCTGCCACTTTGTTACTCTTGTGATGACAAGCAGATAACATAGCTCACATGCCTTCTTTTCCTGCATACCAACCAGACCCCAGTTCTGAAAAGGAAACAAACCACAAACCAAGAGAGATGTGTTATTTTTATGCAGACATTGTTAAGACACTGCAATAAGCCTAGAATTG
0.3513554295229718 TGACCCTTGCCACACATATAAATCGCAGCAGGCTGGCCAAGGGCCTTTGTCTGGCCAGGAGAGTTCAGGATTATCTGGCCCTCTTTGCTGATGTATGGAGTCACCGGCTGTCGGAGTGTTTACTAACGGTTATCACCTCAATGCTGTGGCCATTATCAGAGGCAGGACCGCCTGCCGAGGCTGGGGCTCGCACCCTCTCTATTACCACCTGTCATTGGCAGGGAGTGTGTGCTGACACTGCCCAGCCCTCACTGCCTGGCGAAGATAGTTTCTGACGGCTGATCAAAGAGGAGAAGCAAGGCCTGATAAAGAGTGCGTGTTTCGTGTACTTTTAACTTTGGGAAACGTTGGCATTTGCATTTTTTCCCCATCTTCCCGATGCTGGCAGGAACCAAGCCCAATAAATGCAGTGGATTCAGTTACCTAATCGCTGGGGAAATGGTATGTGCTTAAAGCAACAGAGCGTGACTATAATCTCCTTCCGA
0.8663780051942942 CTGTTCATGTCCATCAACTACGCTACTCACTGACCTACCCTATCCCATACCCTACTGACTTCCAATTTTGATTTCCCTATTTTTATCATTCTCTCAGTCGCTCAGTTCCAAACTTCAGAATCACCTCTGGTTCCTCCCCTTCCCACAGCATAATCACTAAACCTTGTGTACTCTTCTCTCATGTATCTACCATACCCACCCCCTTATCACTTGCAGGTTGTCACCACTCACTTCAATTGCACTCCCTTCCTCCAGTCCTTCCCCTACTGCTTCAGGCAGTTGCCACTCAGATACAAACTCTTTGCACTTGAATTAAACTTTACCATATGATTCTGCCCTGTGTCCCAGCTAGAATATAAATTTG
0.3378476276504733 AGAAAAAATTGCAAACTGGCTTACACCAAGTGGAATGCAATCAGATTCCATGGCCACTTCTGCATTTGTTTTTAATTCCATGTAATCACCATGGCTGCAGCTTTTAATCTCCTGAATGGCCATAGCATACATTGCTGGTTCCATGCCAATCCCCAGAGCCCAGGCACCACTGAATGCAGGTAAGTGACTCACATGCTTTGAAAAGTTCCTTGACTCACCCTGTCAGTGACTATAGTCAGGGTTCCTTATCAACAAGTCCCGCCCCTTCTTGATAGGGGAGGACCTCTCAGCAGCACGAGTTGCCACTTCATCCTTCACACAAAGCTGTGGTTGTGTGGCTCCACAGCCCCCTTGTCAGTAATGAAATGGCCATGTGTGCAGTACTGTGAAGGGCCACAGATAGTTGCCAGGCATGCCAGCTGCAATGGAGTGTTTTGAGACATTGGAGTTTATGAGTAAT
0.5013719106061876 CCTGCCCAACCTCCTTCTCTGACCAAGACAAAACTGCAGGTTCACTGTGGCAGGTGATTACAACGGACAGAGGGTTTGTTCCCATACTCCATCTACCAGTGGTGACACTTCCTTTCCCTTCAGCTCACCTGCTCCCCCAACTCTTTGAAGAAATCTCAGTAATTCACTGAGATCAGAGTCTATCACACAAACATCCGAAATTGTAGCACACCGGGGAGCCTGCCAGGAAGGCCTATAATCAGATAACACATTCCAGCCCGGAGACCTTTCCAGAGGAAGGGTTAAGCTCCCAAGGTAGTTAGTGGAAATCAAAGAACTGCATGCTCTCATTATCTCATAACAAACATACCAGGTTAATAGCTGTCGCTGCCGCTCTAAACCACGTGTGTTGTGTTTTGTGAGTGCTGACATGGGGCGTTCTTTCTCCCACCATATCTGCAACTTGACAGTGTCATCGTGGTTGGGTGCTGGAGTCTCCTAAAGTGTTTTGCATACTGTCTCCTGCACGTTGCCTCGAAGGATTTTT
0.9152927273156458 GACGCGACCACACAACCACTCAGCTCGCTCTCTCCACTCGGACTAATTCGCCTCCTCCGCCCCCAGCGCCTCATAAACACCTCCCTCCGCCAGATCCCTCCGCCGCATCCAGATAACGGAACATCGCAAACGAGTCCCGGCCAACCCCCTCCCCTCAAACTCTTCTCGGGACCCCTTTCTTCACAGTTATTTGGTCGATGAGGCAAGAGATCAAGGAAAGTGGGCGAACGGATGACGTAAGTGGGTTTCATTTCCAGCGAGCCGTTAAAAGGCCGGTGGAGCGGCCCCTGAGGGGCGCTACTTTGCGGCGCGGAGGAGCATCGTGGCGGCGATGCGTCCCCCGTTGGTCGTTGAGCCTGCCTCTGATTGGCTGGTTTGTACC
0.653253740819097 TTGCTGCTTTAAGGTGACCTGTCCTGAAATCCCAGACAAACACATTTCGTGATACAAGTTCTGCCCTCATTTCTATCTCAGAGCTATGTGTCTGGACCCTATGACTCTGCACCCTCTCATAGCTGAAGAGTGTTATCAAGAGTAAACACTCAGGATTGATAATGGTCTTTCAAAGGTCTAAAAACACACCCACAGTCCAATGACCTATTGAAAGGAGGATGAGTGGTTTCTTTTGATATCGGGCTGCTGGACAGACTTTAGTGAGTGAAAGATTATGCTGCTTATTTACCTGGAAAAAATCGACGTCATAAG
0.7385061077853146 GTTAACAATAACAAAATGGAGTCACTTATGTCAAAACTTTAACCAAAATGAAGTCGGGGAAGGCCATAAAGAAACTCTCTCCCTTGCATTCCTGAAATATCTGGACATCTTGTTAGTACTTGTACACAGAGCAAACAGAGATTATCACAGGAATTTCCTCTGGCCTACAGTATTTCAGATAAGACATTCAGACCTGGACAGTTGCCTAGCAACAGCTATCTCCCCAAATGAATTAGTGCCAACCCCTGCAATGTGTCCCTGAGACCAATGAGCTTTGTTTCAAAGCAGTTTGTGTAAATTTCTCTTTGTCTTTAAAAATTTCCAGTTT
0.05923809834138308 CAATCCAGATACTCTCGTTGGGCCTCATTTTCTCCTTCTGTAAAGCCTCCGAGATCTTCCAGCTCTGACGTTCTATGGTTCATTTCCACCTGAGATGGCTGTGGCACTTTGACTTCACTGGGGGAAGCATTTCAGATAAGCAGGCCCTGCTATCTCTGGAGCCTTTCTCTTCACCTTCATCCCTTCACGTGAAACCCAACGCCAGAGCTTCTGGGACAGCCTCCTCATTGATAAAGTGTTCCCTGACTTCTCAATGAGCTTGCACACTGTAGCTGCAGCGATAATGGGCTATATCTGGCTGGCCCGGAATCTTGCCTATGTTCCAGTCAGTGCTGTGACTATCAGTTGTCTGCTGAGCATGAATGGCCAGAGGCAGAAAAAGGACAAGGAGCCCCGCTGGTGAGAAGTGGAAGTGATTAACTTATGTCGCATGCTCCAGCGGGAGTCTCAGCCAGCGATAGGCGAATGAGTGTATGATGACAGCTGCCTTGGAGTTCACACCACACCATCAGCACTCTGCAGGAAACAGATTACTTCAGGGCTTGAGAGCTCGTTGACAGCTGGAGCTTTCTGATAAAGTTGTCAGAAAGTGAAAAGGACAGTCCCAGGAAGTTGTAAGCTTCCTGTCCTTGGAGGTGTTGTGGTAGAGGAGGAGAAGTGGTGGATGGGATGTTG
0.4133092760535652 AAATGAAATGTAAAATAATACAGCCACTGTGGGGGAGTTTGGCAGTTTCACTCCTAGGTTGTCATGTAAGGACTAATAGTTAAAGCCTGGTATCATGTTCTATCTCGGCATCTGGTGAAACTGGAAGGGCTATAAAGGCATAACTGCATATTTATCTCCCTCCTCTGCTCCTGAAGATAAGGTCCCCACTAAACAGCTCTGCTTATCAAGGAGACCAGATACAGTTCCTGCTTATCTCTCAACAGTGGGTTTCAGTTCCCTGGCAGCCTGCAGAATTATTCAAACAAGCCAATCATACGCTCCTGTGGGATCTAGGGGTCACCTCACCCTCTTGATATTACAAAGCTTATGTCCCAGAGTCCCTGGTTGTTCCCTCTGTTCCTAAGTGCGGTCCTCACGTGGACCTATGTGCTATGTGGTGTTCTCCTCTGCAGGGCTGTGAATGTACACAGCAATAAATTGCTTTGGATGCATCTGTTCAGTGTCAGGT
1 TACAGAATTTAAAACCTATAGCCACAAATGTTAAGCATCCATATGGCACTTTATGCCTGTGCAATGTTTTTTTTTTTCATTTTTATTGGTCATTTCTGGAAACAACTCTCTAAGGCAGGTTCATGTCATCACCCTTACATGATAGATGAAGGAACACAGTCTCACAGAAGCTCTGGGTCACACAGCAGGGAGAAGGCTGATTCTCTCTCCAGGCTCCTGCTGCTTCTATCTAATCTCTACAGTCCTGTGCTGGAGAGCTTCCATTTGCCCAGCCAGAGCCATGCTCCTCTGTCTAGGGAGCCTGACCTGTATCAACAGACTCTTTTGCCCTTGTCTTCTGTTTGAGTTTGGCTATTGCAGAGAACAAGAGAAAAAAAACAAGAAAGGCAGGATTTTAG
0.6137244478412164 ATTTTTGTCTACTGACTTTGTAGATTGCCAGTTGACAATATCTGGGCTGTAAAGATCTTAACTGCCTAACCTCACCCCACCAACACACACACAAACACATACATACATACACACACACACACACACACACACACACACACGTAGGCATTACTGGAAGACCTCCCAGGTTATCTTGTTTACCCTCCCAGCCTTTAGACTGGTGCCAACTAACATATTCCAGAGTGCTGTCAACTCTACGTTCACACAGCTGTACTTTCATGATTTTTTATTCCAGTGCAAAGAATCAGTGTTAGGAAGTTCC
0.1943728036932703 CTGCCTGAAGAAACAAGTCCAGCATCTGGCCTTCCTGCTGTGATAATCCTCTTCCTGCCCCTGCGCCCCCTCCCCACTTGGCCGGAAAGCGGCAGGCTTTCTCTTCCCCTCCTTACAAGGGAGGCCTGGCTGGAATGTGTCCCTTGATAACGGGGCTCGTGAGGGGCTTGGCATAGAATGGGCTGCCTGCTGTGGGCTCTCAGACACATGTGGGGCTGACTGATAAGGGCCCTGCTGGCCTTCTGCGCTGAGGCCCCATTTGACAAGCTGTGGGCAGGATTTGAAGAGGGGTCAGTGTTCACAGAGTACCCTGGAATCCATCAAATGTGCAGGGAGCGGGCTGGGCACAGTGGCTCATGCCTG
0.8497400092644058 GGGCCTGCTTCAACACAATTGCAGCAAATGCCCTGTGTTCTGCCTTTGTCCTCTCTGGTCTGACTTCAGCATTACTCACGCAATTCCTCTCCCTTTCGCATAACCCAGTGTCATTCTATTCCAGCCAAGTTTATCTCTGCACCACTCAGATAAGCCCCATGCTGCTCTTTGTAAATGTCACTCTTAGAAGAAGATAGGATGTTTTCTGAAAGAGTTCTTTTTTAAAGCGTTCACTGACTGAATCCATTCTGAAGGATAGTTTGGGTAGAGGGCTTTCTAAAAAAAAATGTTTCATTTTTT
0.7318659249663214 TCATCTCTTGAAGTTAGAGTTGGGATCTATGCCAGTTTGAGTCATGGGAAGTAAATGTCATTCCTGAAGATGTGAATTTCACCTACCGACATACATTGAGTGCCTCATACCCAATCCACATTGCTAAGCACCGTAGAAGCACAGAGGAATGCAAGATAAGGTCCCTGTGCTCAGGGAGTGTGAAAGATATGCACACACACATCAAACCAAAATACAAAGCAGTCGGTACAGAGGAACACGGAAGGTGAAGAGAGGGTAAGGGCTTTATCATTGTGCGGAAAGGAGACAGTTCCGCTAGCTGTGGTGCTCAGGATAAGTTTAATGGTAAAATAGGCACTTACAGGAGACCTGGCAGTGGATAAGATTTGGATGGACAGAGAGAAGAGACAGCAGGAATTTCAGGTATGTGAGG
0.2311326912131168 CTGATTTGCCAAACTACACTTTTGTCCTCTTCGCCTTTGCCCCTTGAGTGGCCCTTTAAGCTATTTTAGCTGAAGAGCCTGCTGAGTGAAACAGAGCTAACCCATTGGCCGGGATTGCCTTCTACCCCACAATCACAGAAACTGGCTGGACTCTCATAGCACTGATATGGGACAATCAGAGTTATGTCAGATGCACTTGCAGGCCTGATAGGAAATGTCACTCTGAGATGCCTCAGCTGCAGGACAGAGAGCTCAAAATTGGTGTTTGAAAATAACCATGATGAGACCCAGAGACAGAGCACTTGAAAGGTTGAAGAGACAGAGCACTTGAAAGGTTTGAAGGGACAAAGGACAGATTTAC
0.6289222527949017 TTAAGTTTAGGTGAATATGGACTAGCTGAACACACCATTGCCCTCAGCACTGAGCCAGGAAATCTACTGACAGGTTAAACAAAACAGAAGGTTGTAACTGTCATAATTTGCATTGCACTTTCACGCCAACAAGGGTGTTATCAGTAGGGGCAAGCCCTGGAACACACAACTCCAGCACCCTTAAGCCACGCTACTCATAAATTTTCAAGTGAAGTGAGATAAAACATAAATTCACAAATAGCAATGCATTTCTCATCTCTCAGTCTTTTAGGTTTGCACTTTGCAAACCCACAGAGTGCCCATCAACAACTCCTTTTGGTCACCTGGCACTC
0.594090990684737 GGAAAGCCAGTTGTAAAGGGTGAGATGGGTGTTTAGGTCCAGGGTGGCAAGTCTGAGCCTGGTACAGGCTGCTGGGCTACATATCCAAGCTGCGCTTATCTTCTCCTGTCAAACCATCTCCCTCCACCTCCCCTTATCTCACTCTAGATAAGGGCTGGTTCCTGGAGCTCCCACGCCTATCCAGCCCTCAGCACCACCTTTAGCTCTTTTTCCACTGGAGCCCGAAGACGAAGTTGTTCATTCTTCTTCTAGGGGAGGAGGGGTGGCCATTGATTGGGGTGCGGAGG
0.6828091924231501 TAAATTTTGCCATCTGTTGATGAGCATCTGGCTCTGTTCTTTTTTCACTACATGGACAATGTCACTGTGAGCACGTTTGGTCACGTCTGCTGGTGCCCATGTAAAGCTTTTCTCTAGATAAGAGCCTATACCTAAGAGTAGAACTGCTCTGTGCCTCTTCAGCTTTTCCAGATAATGCTAAGTTATTTTCCATAGTAGCTGTGCCAGCATACGCTTGTAGTAGTATGTGGGCGTGTGAGAGTCTGTGCTATTCAACATTCTACCACCATTTGGTATGAGCAGATTTTCTATTTTAATT
0.9397304778221819 TTAAGATTTTCCTTCACCAGGGAAATTTAGCATCTTTCTGCAAGACTCAGTTTAATGGCATTCTCTAGCATTTTCCGACCTTCCCTGGCTGAGCTGAGTGCTGTCTCTGCACTCTGCCCATGGCATCCTGTCCACGCAGCATCTTGGTGCAGCAATCAGCACACTGCTACATTATCTGCATGGCTGTCATCCCCATTAGGTGTGTGCCCTTGGACTGTGTGTTTTCCTCCTCGTATATGAGGCCTCAGCATAGTGCCTGAAAATAATAAACATTTGACATTCAGAAGAAAGGAGTGGAGGAATAAATAAATAAGACAGCCTGTT
0.9716136885904 TTTTGGAAACATTTTCATGTAAGTACTAAATGTCAAAACTCACTTTCTATGAGGTAACTATTTAGTAATTTCTTTGTAAGTGGCTCTGAGGATATTTTTAGCACCAGTACTGCCTCCTAGAATCTCTCTGTTCTTTAGCCAGGTCCCAAGGAAGCTAATCTAATCTGGTTGCAAAGTCTGTCCCACAGTACGCACAATTCAAATAAGAGTTATCCACCCACAGCTCTGGTGACACAACTCAAGCCTTGCTTTTACACCCAAGCAAGTGCTGATGTTTTGGATAGAAACCAAAGCACTTTCTGTCATCCTGCAATCCGTGAGAGGGCCCTTCAAACTGAGTGTGATGGTCATTCTTATGTGTCACTTAGCAAGGCCATAGTACCCAATGATCTAACC
0.2312006382736837 CCCTGAAAGACATTAAAATGAAGTAAATAAAAGAGATAAAAATGGAAATATCAAGGCAGCAACTTCTCTTCTGATTACAAAGCAGGCAGCGGGAAGCAGCGGGAGCCCATGAGGACGCAGCTGCACAGCCGGGCGGGCCTGATAAGGCCTCGTAGCCTGCGCGGGCGAGATAAAGCCAGCACGCGCCTGTCCTCAATCCCGGCCGCCATCAACATGCAGACAGCCTGAGCGACTGGCATTCCAGATAGAATAAGCACGCACGGCCGCGCTATTACTGAGACCTTATTAATCCGCCTGCAGGCGTTTAAATGCCGTGGGAAATATGGAGTTTACCAGCGCAGCTGACGGGGACTTGACACTTCATCACGTT
0.54115240861838 CGGAGTTGGAACCTAAGACTGACAGTTATTTGTTTTATGGCTGCTGGAAAGAACCTCTGGAAGTGATGAAGGGTGTTGGCCAGGCCCCTTCCCTTGCCAATCCCCAGGCTCTTGAGTCTTTCAAATGCACCAACCTCTCTGCAGCTAAGCCCTTACTGATAAAGAATACAGAAATCACTGTCCACTAGACCTCCCATCCAATGCTGCCTTGCAGCGTGCAATTTTCTGCTGATAAGTGAGGCGCTGTTATCAGTCCACATTCAGAATGCTACTCCATGCTTACTTCTTAAATGTATTCTCAATAGCCCACTTCAGCTCTAGAAACTGCAGATATAAGTAGAGTATCAGGCCTCACTGTCAGAAAGAATGCAAAAGGTTCGCTTTCTACAGTTTTCCTGGCACAACCTTCTACTCACAACCACCCATCAACCTTCCAAACCAGCTTGTATG
0.5965042374849848 AACTCAGGTGTGCATTTGCCTGCTTAAATCTGCCTCAGTTCCAAACAGCTTGCCATGCTCTATATATAGAGATGACTTCACCCTCTGTTGGAATGCAGCAGCTGTTCAGCAGTGCACACTGATATGCTTCAGAGACTTAGGCCATATCTAATTGAGCACTTCAATACTGCAGAGATAGGCGCCTTGGAAATATTTAGATAAAATACCTTTGGCCAGATGGAAGCCGGCCAGGATACCAGCATAAAATCTTCATCTCACAGGACTGCTAGTGAGCCTTGGCGGGGGGCTCCATGGAGGGAGGTGGCATCAGGAGA
0.9217671766798685 TACAGCTGTTTCAATCAGCTTAGTCTCAACATTTAGGCTAGGGGTAAATGTTCCTTTATTACTAAGAAACAAAATACAAATTAGACCTTTATTCATCTCCTTAAGTTTGGAGACTATTAAGGAGCTTCATACTTGTACTCTTCACCAAAGGAATGTAAGTGCACAGTAGACATTTTATTTAGTCAAGTTCTATCAATATTTTTTGAGTAATTATCAGTGTTGAGTTGACAGTATGATTCAACTCATGTACCAACACATAAGGGATGATAAGTGGAGTATAGTGTTGAAAAGGACTCTAAGGCTTAACCTGGGTTCAGTATCAAGGGTGCTATGTTAACTAGTGACACTGCCTGGTGGTGTGCAAGACTGAGAAAGGGGCTTGAATGCCACATATCTGCCATCACGTAAAGGCAATGAACAAGTAATAGATGAATGTCCAT
0.696411218094966 TTAAACAATATGGGTAAACTACTGTTTGTGAGGTTAATGACAATTATCCCCTAATTACTGCATAAGTCACTCAGTCCACTTTATCTCATAGGCAGGGTTCTGCTCTGTGTATCTGCCATTGTGTCACCGTAAATGAATCTTGTATTGCTATGTTTATCTGCCATTGCCTTGTAAATTATACTGACAGAAGAATGAACAAATTACTGCATGTCATCACTTAAATACTACTTCTGAAATAAAAATAAAAAGGCTTTGGCACAGAGCTTAAATTTTAGCGGATCACAATTAGTAAAAACATAT
0.4648989619968854 CCAGCCCCTCTACCCAGCCTCAATCTCTCATTCTTCCTCTACTTTGAAGTCTGGCTTCTGTCTTGGCCCCTGTGGGTTTGATGACAAAGGGCAGTTCAGGAATGACACTATCTACACATACATGGCCATATGGACAATTTCAGGTGGTGGGACTTGCAGCAGCTGGGGTTCCCAGGACTGCTGACATTCTGCTGAGTGTTATTAGAAGATCAGGGACAGAGCTTATCATCTGGCTGTCACTGCCCCTTTCCAAGCCACAGCGAGCCTCCACAGAGGGGCCCTGGGGGATAGCCAGCTGCCCTGTGCTCATGCTGGAGTGAACTTTCCTCTGATCTTCCCTGTTTTCTGGATTTAGCCA
0.6713265517529673 ACCATTCAGACTTAATGTGACTCTATGAGAAAGCACTGTTGCAGGCCGGGGATTGGCAGGCAGCCCCGGCCCCCAGCCTCAGATAACAAGCTGCTCTCCAAGAACACGTGCTAGGAAAAGTGCTTGATCAGAGTGTCAGCTTGTGGACTGAGTAGGAACACTAAGTGGTTTTGTCTGTCACCTCCTTCACCCCAGCTGGAATTTGGCCATAATCTGATAGAAACACTTTGCCCACTTTCAGGAGAATTTTCCACTATCAGTAAGGCTGCTTTTTCATACTTCGGCTATCACCAAAGCCTTTCAGAACACTTGTACTACTATCGCCCAGGGGAGCTTATATGTCTCAAGGGTAGGGGGTGGGGGACCAAAACCATTCTGAGCATGGAACACTCAGTTGATTCAGGTTTCATCCATGTTGAATTTCAGTCCCTGTTTCCTGAGGACTAGACTGT
0.7204342416797661 TGGCGAGATGGTCTCGATCTCAACCTTGTGTTCCACCCGCCTCAGCCTCCCAAAGTGCTGGGATTACAGGCGTGAGCCACTGCACCCAGCGTGTTATCTCAATCCTCATAATGCAGTTAGGTAGAGGTATTCTCTCCACTATATCAGTAAACAAGACTAAAACATCTTGCCATGAGTCATACAGCTAACATAATGCAGGCCTAGCAAATGTTTTCTGAGTATCATAGGTGCTGAGTGCTGGCTGGGCCCCTGAAGAGAGATAAGCAAGATAGTCTTTGCCCCTTAGAAGGGGAGGGCATAGCATATAACTGCCAGAGTATGTGAGAACATGCTCAGCACAAACACTCCAATGGATATAACAGGAGTATCAAGGAGTGAGCAAATCTTTCTGTCTTTTATAGCTGGACCTGGAAGAATA
0.4754440301754013 AGGGGGCTCTTCAACACCCACCTCAGTGCAGCCACACAGGGAAGGGCTGGCGTCTGGGCCACCCTGGCGGGGATCCAGGACTACCTCACACTGCCCCACACCCACCGCCAATCTGCCCCTTAACCCAATGGTATCAGAGCATCTTAAAAGCACAACCACTAGACTCTGATAGCTGCTGTGTCAGATAAGAAGCAGGCCCCGTGGTGACAGACCACACACGGACGCAGCTGGCTCCTGGCTGCCTCACAGTCCGCCTCTCTCCTCACAGTTCAGCACTTTATTCGGAAGAGCATTAGACCTGCCATCCAGACAGCTT
1 AAATAAATCTTGAAAATGTTTTTGCTACTTTATAAGTCTGAAAAATAATTCAAGCCACTCTAAACCCTTGAAATTCTGTTGGATAATGAACTTAAGGAGCTGTTGACATCCATGTCGCCTGGTGTCCACACTTGGCCTCATATCAGACAGCCACTGGAAAGCGATTTGCATGAACATGTATCTGAGAACCCTCTGTTTTATTTTTAAATGATAACAAAAGTAAGTACAACCATGATAGTAGCCTACTAATAATAAAGGGAGCTATTTATACATTTTTAAGTGACTGTGGTAGATATAGTTAGCTATCAACATGAAGTTCTTGTACCTTAGAGATGGCATGTCACTGAAAGAAACAGACTCCAGGTCATGGGAGTTCCAAATCTCCTCTCAGATGATTGGAACCCAGGAGTACACCCTTCCCCAGCATAACCTGCATGTAGATGCATAGCCCACTGCTGAGGGACATGTACCTG
1 AGGGAATAAATAGCTTCCCACTTATGTTGCAGCTGAGGGAAGAGGTACAGCAGCAAATACAAGTCTCCCTAAATAAAGGCAAATATTTCTGTCATGCCAAGGAGGGAGGGAAAAAGGGAGGCTTGCCAGAGTCGGCTGGGAGATAACAGTGGGAACTGCTGGTCCATCTGGTTTTCATTCTGCTAACACTCACACGGAACTGTTAGAGAAGGCAGTCCAGATACACAGATTTGAAGCACGTGGTTGCACAGACAGAGAAAGGAAGAGCAGGAGGGGGAGGGGAAGTGGGAGTAACAAAAAAATAAATAAAGCAATAGGAGGAAAAAGAAG
0.3735660708075767 GTTCACCTTGGAACTGCCATTTACGTGCTAAACAGCTCTTGTTACAGGAGAGCTGCTATCAGGCGCTGTAGAATTTAGCAGCTCTTTGCATAGTTAGAGACAGTCCTTGTTAGGGACAAACTGCCTCAGGAAAGCTTCTTGGTGCTGCCCACCCCTCCCCCTAATACTCTGCAACTCTTCTCCATGCTGCCCACCCTTCCCCCAAGCCTCTTTACATTCCTAAGCCCTTATCTAGGTGCTGCAGTGAAGCCAGCAGACTTCACCTATCAGGCCTTTCTGCGATAAGCAAACTCCAATTATAAACCAACCTGATCGCACAGGGGGAGGTCTTGGGAAGCATAAACAAAGTTTACCTACACCCTCCTGTAAGTTCCTGTTCGTCTAGCTGCTACTATAAATGTCTCAAGGTGATATGAGGCAAAATTAACCAGCAAACAATCCCAGGATGTGGCCATACC
0.387392873401723 TGAAAACTATAATCAAATTCTGCTACCTGAGTGGCACATTGCCTAATGCACTGAAAGCAAAATAGAAACCCCTAATCAAGAAGTCAGCATGTTGTTTAGGACAAGGGTAGATCAAGTATAGTGTCAACATGGCTACAAAGTCAAACCAAGCAAAAATATTGAGTGCTGACAACACTCATTTGTTTCTTATCTTTCTTTCTGATTAGCAGACTTGGACAAGGTGGCATAACAAGGTCCATGAACAGTATGTGTGTGTTTAACTACTTGTCATTTAAAATTTAGATTAGATAAGACCTCCAATAAGCCTTCACTGATTGCCACTCCCACCTCCTATTCATCTTTGCTCCTTGGCAATCCCATACACACTTATAATGATCAAATACCCTGACTGACTAAGATTTCTTTCTGTTGTCAGTTTCCTC
0.6277083252276486 GTGGAGAGGGTCCGAGGTAGGTGGGAAAATGCCCTGGATGTCCCCAGAGCACTGTGCTTATCTTGCAGATGACGAGTCACCTAGGCCCAGGAGGACCAGGAATCTGGCCGCCACCCGAGTGTCCAGCCCACTGCACCTCACTATTTATAACCCAGCCCTTCCCCCACTCCAGGGCCACTCAGCTCCTCTATCTCTGGAATGTTGAGTAGAGGTCACAAGACCATGTATGTGTTCATAGAATGATTGTCCCTTGTGGTGACAACGCTGTCTGGTCTGTGTCTTACGATAACAGGTTGAATCAGATATTTCCAGTTGATTTGGAACTCCCTGGTGGCGTGGGAAGCTGTGTTAACATTTTCGCATTTGTCTGTTGCAGTAGGAGTTGGGGGGTGAATTCTTTTAAAAGAGAATGTGCCATACAAAACATTATCCCTTTGGACTGAACTCAT
0.4146530396855447 CATCTGGCTCCTAGTGGGCCTTTGGGACATGTTTGATGACTGAAGGGAGCTGAGCACTATGCATTTGGAGGCCATGAGTCATTCACACCCAGAAATTACAACTCCTTTATCTACTGGGCTGCTGTTCTCACTGGGGAAGTCCCCAGTTGCCTGGTTGGCACATTGTTCCAGCCAACCAGGTATTTACAGCTATCTCTGGCTATTCTGAGCATGAACAAGATTACCTGGGAATTTCCCTCTTGATAGGACTAGAGACTCCTACCCTTAGAGCAGAGAAGGCAGCTCTGATAATGAGATGACAAAACAGAGGGCTTTTCTCTGTTCTCAACTAAGTCCTTAGTGGCAGGAAAACAGACTGTAGTGTGC
0.726893509428661 CGGTCTACATTCATTGTCAGCCATCCTCACACAAACGTCATCCACAGGAGAGGGTCTTGGCCAGAGCAGAAATCAACAAGACTATGACTTGGAAATTCTAGGGGGAGGGGAGGCCTCTAGCCTCAGGAATTTTGTCACCCAGGTCAGGGTCTGTATAATAGCCTTCTTAAGAGACAAAAAGGGCACTCACAGAGATTTGGACCAGGGCTGGCCTCCATCCAGCTTTCTACATTATCTTGAGCTCACTTGGTGAGATAACATAGCTAGCAGCTTCTGCATTCCTTCCTGGAATGCCTGTGATGTTTGGAGCCCTGCCACATGGCTCAGGCATTAATCATCAACCAGTGGATAAATGTTGACTGAGCATACTCTGTTAGGTCCCTGGTGTGCCTAAGAAGAGGGGTA
0.6584244505275765 TCAGCAGAACTGGCTCATTCCTAGATTGGAAAAGAGTGAGGGTGAGGAGGCAATGAAGAATGATCCTGAGTGCCTGGTTTAGGTGGAACCATCTGGCACTTGTCAGAGAAGAAAAGAATCAAAAGGCAGAGTCACAGGTGTGGGAGATAACAGGCTGAGCATTGAGTTCTGGGGCCCGTGGGACTGCACGTGGATGGCTTGCAGGCTCAGCTTTGGCCTAGGGAGTCAGACCCTGCCTGCTTCTGGGCCCCAGAGCCACCCCCATCCACTTGTGATCTGGGAAAGTCATTTAACACCAGGACCCTTGTTTTCTTATCTGTAACATGGAGATGCTGGTAACTCGTGCCTCATAAAATCACTTGATGTGGGTGAGAGAGAAAGCTAAGTGTTGATGACAGTGTGGGCCTGACCGTGCCTGAGTAAGCCCCATGGGAACACAGCCGTGGTGGGAAGCAGCTTCCCAGCAGCCCTCCCCGCC
0.2770733638372992 GAGAAAAATATGTGGTTTAAGCTCTGATGATTATAAAGTCTAATATAATGGAACATCCACTACACTACATACATAAACACACACACACGCACACACACACACACACACAGAGAGAGAGAGAGAGAGAGAGAGCTCTACATTTGCAAAGATAAGTCCTACTCTAAACACTCCATGCAGAAAAGACATTTCAGTTCCTGCCAATATTCTGGAGGTACTTACAGCATAAGTGGACTGAGCTAGGGAGTCTTTCATTGCTTCTTCAACACCTTTTGTAACAACTATTTTAGCAATGTC
0.2264996111315642 AGCTGTTGCTTCTGATGTGTTTCTCCAGCCTGAACTACTTCTACTCTCCACGTTCTGCTCCATTCTTTAAAGACCCCCTGCTTTTGGGAGGCCTTTCTCAGCCTGTGCTATCTACAGAAGTTTTTCCTCTGAACTCACAGTAACTCTCAGTGTTGCTATTTTGGTCCTTAAGCATACATTCTCTTTGAATGCTTATCTCTGGATGCCTGAGAGAGAGAGAGAGAGAGTGTGTGTGTGTGTGTGTTTGTGTGTGTGTCACCTGTCTAACTTGACTGCAAGCAACTTGAGAGCAAGACCATTTATCATACTTCCTGGTATAGCCTCCAGTATCATGTAGAGAACTAACAGACGGGCAG
0.8869903300078588 ATTCTGAGCCCTTGCATACCTCAACCCGTAATAATAAGAGAAAGTTCCTGTATACATTCCTTGCAGAGTGTGATTTGAGAAAAAGCAGGGGGATGAAATTCAGGTTCTAGTCTTTAATGACTTGAACACAGATGTTGCTGTTGACAGGCGGAGATATGTTGAGTGTTGTTTCTCCATTTGCTTAGCAAGATTTGACATGTGGTGAGCCAGAATAGAAATCTGAAGAGTTGAATCAAGATGTGTTGAGAGAACTTTGGGTGTAAGAAGTGATAAAAGAAGCAGGTCTGGATATACAACATTAGGTGGCAGATGGAAACTTTTTCAAAAAATATCTTTCCAGGATTGCCTGCTTGGATAAACTGATTGGTAAATTTAGTTGTCCTTAGAAAAGAATTTTTAAAATACAGAGGATACACAGCCAGTATATCATCACTCTAAACAAACAGTGCTCATTGTTCATCTATGTGCATTTGTTCACATTATGATAAGTGCTTACAGATGGGTCTGGCAACCTGAACTGGAGG
0.8604207111924086 ATAAAATTAACTATACTACATACTGTACTACGATAATAATTTTGTAGCCATCTCCTGTTGCTATTGCAGTGAGCTCAAGTGTTGTGAGGAATATGTACTTGAAATGCTTTGTGATGCTAGTCATCTCCTCTTGAGCAGTTTATCTCTCCAGTAAATTGTGTATTGCGATAAAAAGTGATCTCTGGAGGTTCTCACATAGTTTTCATCATGTTAGTGTGATACCATAAACCTTGAATAACACCATGGGACTCATACTAAATGCAACTAGTGATGCTGGAAATGCTCCCAAGAAACAGAGAAAAGTCCTGACATTATATGA
0.4159070754250749 AGGTTGGCTGTTCCCATCTGCAATAGTCAGGGGCAGGAGCCTGGACTCACAGGCCAGTACAGCACTCAGGGAGACAGCCTAGAAATGGAAGGGCTTTTGGAGGAGGGAAGCTCTTGAACAGAGCAGACAGGGTAGGGGTGTGGGAGCGTTGATGAAGGAAGGCCAAGATAAGGCTGTGGTTTCCATTTGTTACCACCTCTCCCGCTTATCTTGAGTGAGAACAGGCCCTACAGCTCTGAGCGAACCTTTCCATGGGGCTGTTGAGCTGTGAAGAGGACATATACGAGCTCTCCTATCCTCTCTTCCCAGTGCACCCTTTCCCTTGCACACACAGGCACCTGTAAAGGCTGCAGCTTTGGTCTATTGGATGGGTGGGGACAAATGCAGAAGTGTCCCTGTTCTGGGTGCTGATTACTTCCTAGCAGAGCTGGGGGGTGGACTGG
0.4045580058608699 GCATCTGTTGAAAACCAATCAACCCGTTTAAGATTTCAAATTACGATCTGAAATGTGAAAATGATTGGTAGATTATCAAACTCACTGGGCTGGACAGAGCAATATGTCAGCACCTTTGCCCACGTCCACAGCCTGAAAGCTTTTGAAGGTAAGCAGCGCCGTCATCATTTTGGCATTCTATTTTAGTCTAAGCCTACATCAGAAGCCTGCCAGGGCTCAGTGCTGATAACAAAGCACTATCGCTTTTCAAAGTGACAGAGCACAGTGACATATCAACACTAAGACTTAAACGAAAAGCCCCTTCTCATTTAACTGGGAATCTGCTGAAGCTGTATTCAGCCCAGCACTCGTTTTCAATTAAAACTTTCTTGTCGCAAGAGAAAAGTTTGGCATATCCTTTTCAACGACAGTTATGGAAGTGAGTGGAAAGGGTAGTGTAGTGTAGAGTATAGATGGTCCAGGAACAGCTAAGTACGTATCAGCCTTTTTCATCTACTAATTGCAGTA
0.3529411409152902 GGGCAGGGCCGGAGTAGGTGCTTTTCTGAATGGAAATTCATCAATGCGCTTTGTGTCTGCTGTGGTTATCAGTGTTGCTATTTCAGTAAGTAATGGTAAAGCCTTCACCCGGCTCATGCCAGATGCGGAGGGTGGGGGCGCGGGCCTGTGATATGGCTGGGGTCCTCTGTCGTCAGAAAACATGAGCTCATGCCAAGGTTTCCGCAGGTCACCGAGATAGCACCGGCTCTCTGGAGACAGGCGTGACCCCCAGGTCAGCTCCTTGTCATTGAACTAAGTGGGCTCAGTGTCAGCTTGAACGTTAGTGGTGATAAGGGCCGGATAATGGTAGCCAAACTCCCACGGCCTCTTTAGGCCTCCCCTGGGGCCCTGAGGCCAGCAAGAGGGCAGGTCAGGGAGGGGCCAGGAGGAGGAGCAGGCAGGGAGGCT
0.1188592590115547 TTTTTGACACAGTGCCATCATCCCTGAAGCAGGGAGTTGCAGAGCAAGAGCTTGAGAGTCAGGTCTACGTTTACACACGTCCCAGCTGGGCCACTTATTAGTCATATCCTCTCAGGCAAGTCCCCTACATTTTAACCTCAGTTTCCTTATCTGTAAGTGGGGATGATGACAGCACTTATCTCACAGGGCTGCTGTGAGGATCCAATTGACATAACATATGTGGAGTGCTTGGCAGAATGCCAGGTCCCCGGAACACTCTCCAATAAAGGTTAGCTTAGTTATCACTGCTGTTCTTACATTCGTCGCCAAAGGAAACTTCCCCATTCCTATGTCTGATGCATGGCCAATTGCATAATACTAATACACTCCCAAGGCAGAATGGTGGCTTACACTGTAATCTCAGCT
0.8865014133561284 CTTTTCTACCTCACAGGTCTTTAGCCAGCATTATTATCAGAACACTATGTTTGGTCCACCAGCATGGACAATTATATATCACAACAGCCCAGAAGACCCAAAGTCCCTCAAAGGAAGTGTAACAGGGCACTCATGATTGTGTCATACATTTTTCCTATCACATACTGAACCATTCAGCTACAAGAGTGTTGAAATAACTAATCAAAGATACAGAAAAAACATATCTTTGAAAGGTGTTTCAACACTCTAGTAGATAAAATGTATCTTTGATAGGCTATTTCAAGCTACTAGAGTGTTGAAATAACCTCTACTAGAGTTTCCTAGCTACTAGAGTGTTGAAATAACCTATCAAAGATACAGATAAAATGTCAAGTTACTGGCAATATAAGTTTGGGGAGTCATTTTCCAGGATTCACTATGTACAC
0.679709585079556 CAACATTACATAATAATTTCTCCCTCTGGCATTTACTTGCTGTATGTTTGGAAGTTAGCTATGCACAACAGATATAAGCCACTCCATAGGATTTCTGAGTGTGCGACCAGAGGTTAATCAGTTTAGCCTCTCTTGACCTCATTTCACTAACATGCAATTAGAGATAACAGTACCATTGTGTTCTATATAAGCAGGATTATTATGGTTAGGGAGTTGACATGTATGAGATAGCAGAGTAACATGCTGCTTAGTGGGGGTATAAGCCCTCCTTATCAAGTAGAGAAAAAGGGGAGAAGGTCATATTGCTAAAGCAATTGTGTTAAGCCCCATATTATTTTTACTTGTGGAAGA
0.3988985497623545 GGAGTCACCAAGGCCCAGCGTGGGTGAAGGACTTGCTAACAGCCACCTGAAGCCCACACTTTATCTCCTATGCTCTGTGATCAGGCCTCTTGCAATGATATTACAGCTGCTTTGTATGCCCTCCCCCACACACACACAAAAAATTGTTTGAGAAAAGACAGAGGCAACTTTGTATGACTCTAATCTTTGCTCCACTTAAAAATCCCAGCTAGTCTCTGTGTGTTAAGATAAACTCTCCTGGAAGGCGTCTGAAGGAAAAGCAAATATTTTGACCATTAAAAGAACCTCTAAATAACAAATGTCAAAGACAGGGCATGTGTTAGGCAACTTCACTTATCTCAGGGTTTGCAGGCTACTTTG
0.3960054011061108 GGGACAAAGTCTCCCGTCCCTTATCATTTGTTTTCACTGAGGCTAAATGTATCTGTTCAGTACATGGATAGATTTTTAAGCTCCTCTCACAAAGTCTTGTGCTTGAGACAAAATCAGCCCAGGTTCTGCACTTTGTCTATATTTCAGCAGCTCTCCTGCTTGATATTAAAAATAGCCTTGTCTAGTCCATCGAGATCAGACCCAGGAGACAGGCGCCTGCTATTCTAATCTCTGCTTCACAAATAGCTCTCTATGGGCTCAAGCATCTATCAACACTTCCAGGGGTCTCCAGTTATAAAACAGGGCCAGGCCTAGTCACCTATAAAGGTAGGCTCTGCTTAACT
0.7042396589592126 CTATTTTATTCTCTTCTTGCCTCCCTGGCTCCTGGCAGACCCTAGATGTACCTCGAAAATGTACTGATGTGTGAATGAATGAGCGGATGATGTGTTCCAGGCGTCTCACCAGCCTTCCTTTATCTGCACACTCTTCACTTTGCTAGGGTCCCTCTCAAAAACACAACCGGATCAGGAGTAGGGGGAGGGAGGAGAAGGGAGCTGCTGTAAAGCAACACACTGCTGTCAACATTTTTAAATGCGCATAACCCAAGAGAACATGCACAGTATATTTTGCGAAGTCAACTGGAAAGTGTCAGGGCCACACCTTACTGTAGTTGAAATTCAATGGCATTGAGCTCTTGATATTATAGATAGTAATTTTCTAGAGTACACACAATGGTGTGTGAACATATGACTGGGCTGGAATCTATCAAAGTACTTGCATGGACTATTACAGATCATTGATGCATTACAGTAAGCCATTTGTGGATATT
0.5918272338372242 ACAAAGACTGGACTTGGCTTTTATACACACTTCTAAAAGGGGATGGGCTAGTTTGAAACAAGCTTACAGTGGCGTGAAGCATAGTGGTGTGAAAGCTCAGGTACAGAAGCAGAACAAAGGCAGTTAATCATACTTTGACAGGTTCATAACTCAGGCTTACAATGACTCTTGCTATGCGGCCTAGATGGCTGTTATCTAGGCTTGCTCTAGTGCCTTGTGCTGGCTTATCTCATAACCTTCACTATGGTGTCTAGATGGCTACAATCCAGGCCCGCCCAGGCATGTCTCATGACTTTCACTGAGCTGCTTAGATAAAACAATGCTTGAAGTTACTAGTTATAGAAAACAAGAATCTATAAACTCATAAGTTTACTCATACCATAGGAGAAAGAAAAATAAAGAAAATTTGTTTTTTTCTTCTCCCCATGTTGGGGGAGTGCTGGGAGAGTCTTCAGAGCACATTCCTTTGAGCCCT
0.7097177539142118 ATGTATACACACATTTAAACTCCCTTTCTAAAAGAAAGATTCATAATTTTCTAAGATTACACTAAGTCTCTGTGTTTGCCAAACATGACAGCATGATAGGGAGGGAATTAAGGCCCTTGTGCTATCATATCTCGCTGGGCAAGCACAAGGCAGGAGGTGTGCTAGAGGCTGCTCTTGCTGGGAACAGCCCAGCACGTAAAGTTAACCTTGAGATCAACACCGTCAGTGAGATGAGTTACAGGACTTCATGGCAGAGCATCACAGAAACTCAGGAACATATCAAAGCATTCGTCACTCTGGTGGCAGGAAATAAGATGAAAGAATTTAGAGAATTGCAATCACACATAATAGCGTTATCACTGGTGACTAGAATTTGAATTATGTGCACATAGACTTCTCCCCCAGTAGGTACTGCTCACAAGCACTTAAGGAAAAGGGGGTTCTGGATAAAATCAATTAGAGACCAGTTACATGAAGTTGGGCAAATGCTATAGAGTATAAACAGTAG
0.3992733473955753 CCTTTGTCTATTAAAAGGATGTGTGTAAGTATGTATGTCAACTGGGGACTTCAGCCTCTGTAGGCCAAGTGTTGAAAAGGGTGAGAGGGCTGCTCTGGTAGAAGTGTCAGAGCTGGGATGTCTGTACACCTCCCTCTCCATAGCTAGTCCTGGAGATAAGTAAGAGCAGATTCTGGGACTGAGCTGTCGCATACACCCTGGTGGTGATAACAGCAAACACAGCAATGGGCTATGTAGAGGGAGCCCTGAATAATCTCCATGAGCTGCAGAGATAGGGCCAGTGAGTGGCAAATCCTTTTATAGTGTGGAGGAGAGGAGGTGGGGAGCAGCTGCAGGAGAAGGTGGGGAGCAGCTGCAGAAGGAGAAGGTGGAGCAGGAGCTACGTTGGACAA
0.5159774446057229 AATTGGTTGTAGAGGGTGTTCTAGCCCTGGGATATCTGGAGAACAATTATAATGACTTTTTTTCTTTTACAATTTCTAATTATTTTTAGGTGGCTTTCATTTATCTAGTGCTCTCCTTTTCACTGGAGCACTTATCATGTGTCCTATTAACACTGGTACTTGTTATCAGCTGGCTTTCAGATAATCCTGCTTAAGTGACTGGTTGATGACAGCTTTTAAGATACTGCCTCTCCAAGTTATATTTCTATTCATGGAGGATTCTAGAAGAACAAAAAGCCTTGACATGAGGCTTTCTAATAAAGGCACTCATGTGGGGCATCATGCAGTATGGAAAACAGTG
0.5479318042106188 AGGCTAGACTCTGCTATCTAAAGGTACCTTTACAAAGAGTCTGAAAACAGAATAAATATTATGTTTTCTTGATGAGGCGTTTATTGTACCCTCTGAGCATCCAAACTTAATGGGTCAGAAGAATACCAGGTGCTGCTCTTGTTTGATAAAAGCAGTTATCACATGCTATTTAGAGAGTGTGTGGAAGGAGTTCTTGGCTGTGATTGAATCCTGCAATTCTGTCTCCAACAGGCTTTCAGCAGCCATGGCTCTGAGTCATCTGCCTGGTGACCAGAAGCTGACATCCAATATCATGTGCCTCCCCAGATAATGAGGTCAAATGTGCCAGACCCACAAGGGGCTTGATAACAGCTTATTAACATCCCCAAATGATAGCACTTTTGATTAAACCTCACATGTCTGCCTGTCCCCCCTCTCATCCTTTCTAAAATTAGAGCTGGTATTTTACTAACCATGCCCTTGCTTGAACTTTAGAATGGTTCAAGGATAGTGC
0.3636858490089279 TTGCCAAAACATCAAATCAAGGTGGCTAAGGCATGTGAAAGTTGCCAGTACCAGAATGGAGTCACTTATGTCAAAACCCTAACAAAGTGGAGTCAGGAGGCCCTAAAAAAGTTCTCACCGCACATGCCTATAATATACCTTATCACAAGAAATTCCTGCAGGTCCCACATGCCCCACTTCTGCACTCACCCTGCAACAGAGCTTATCACAGGAATTTTTCAGGCCTGCAGTATTTCAGACAAGCTGCCAGCACCAGGACAGTTACTCAGCAACAGCCATCTCCACCAATGAATAAACGCCAACTCCTGCACTGAGCTTCTGTGACCCGTGAGCT
0.4371081426634119 GGGTGGTTGAGTGCTGCTGCTGGAAGCTCTCGTAAAAGGGGTGAATGAAGTAAACATCATTAGAATTGCTGGGTGCCAGAGGCGCCTGTGTGACATGTCTGGATGGCTTCACCGAGACACACAACTGATTAGATATTCAAAGTCAGGTGCTAAGAAACCAAGGTCATGCCATACTGCATTTCTCTCAAACAACTGGGCCCAGATAAGTTAAGCAGTGGGTGATACCCCCAGACAGATAAGGTGGCAATTTTTAACAATCTTAAAATATTGTTACAGCAAGGAAGGTCGTGATAAGATCAAAGCATTTGGAATTATGTTAACGGGTGCTGGGATTTCTTTTGCCCTCCCCTCTCCCTGAGCCTCCCCCTTCCTGCCACGTCTGCTTACAAGCACAC
0.9531678905303962 AGCCTGGCGCTCCTCCTAAACATGCTATTCAAAGTGCTTGGCTGCCTGTCTCTGGCCCACACCTGCCAGCGTTGACAAGTGCCACTGAGTTCATGTCAACTCAGGCGCTTGTCAGAGGGAATCTAGACCAGGCTGGGGCTGAGACAGGTGGGCGATCCTCATCCCACTGCCTCCCACTAAGACATAACATTGTGTGGAACAAGGAAGGACTGGTTCAAAGCCACAGAGCTGGTTACAGGCAAAGCCGGAAGCAGAACCTCTAACTTCAGGCTCACGTCAAAAATGCCCATAGAGTGCATTTTTTTCTGTTAAGATTTTAGAACTTTTTTCATTGAATTTAATCATTTCTGATATATTTGGGCTTATGCCTACCATTTTACTATTTGTTTTCCATTTGTCCACTATGTTCTGTACCATTTTTTCTCCTTTTTGCCTTCTTTAGGATTTTCAAGTATTTCTTATGACCATTTTGATAGACAGATAGATGATAGATAGATAGATTAGATAGATAGATAGATAGATAGATAGATAGATAGATAGATGATAGATAAATAGATAGATGCATGGATGGATGGATGGATGGGATAGATAGATAGGTAGATAGATGATAGATAGATAGATAGATAGATAGATAGATAGATAGATAATGGAAGGATGAGAGAGAGATGCACGGATGGATGGGATAGATAGATAGATGCATAGATGGATGAGTGGATGGGTGGATGGATGGATGAGATGGATGACTAGATAGATGAATGGATGAGATAGATGATAGATAGATAGATAGATAGATAAAGAGAGAGATAGATAAGACAGATAGGATAGATGGCTAGATAGATGAATGGACGAGGTAGATGATAGATAGATAGGATAGATGGCTAGATAGATGAATGGATGAGATAGATGACAGATTAGATAGATAGATGATAGATAGATAGATAGATAGATAGATAGATAGATAGATAAGTAGATGAATGAGATAGATGGCTAGATAGATAGATGAATGGATGAGATAAATGATAGATAGATAGATAGATAGATAGACAGATG
0.6534075359024496 GGCTGGCGAACTCCTGGCCTCAAGCAATCCTCCCACTTAAGCAATCTTCCCACTTTGGCCTCCCAAAGTGCTGAGATTACAGACATGAGTCACCACCCCATCGTTCCTTTGTTGCTTCCTGTCCTACTTACTATTGCCTTATCAGTTTATCTGTCTCTGCCCCTGCCCCTGTCCTTAGACAGAGGCATCCTAGCACAGGTGCCTCATGGTTTTCCCCTCTGGGTGACCCTGGAGCAAGACCAACCTCTTAAGAGGGGAGGGGAGGGAATGTGAATAAGTAAATAAATAAGCAGATGAATGAGGGACTCTTCTCAGCATCTTTGGTGACCCTGTCTGACTATCACTGGCTGTAGAATGTGTGACAACTGAGTCTACCAGGCAACGGCTGTTTGCCGGGAGCAGCAGGACCCAGCCAGAAGACATAATGGAAGCAGGCCCTGGCCAGAGCAGGGACCTCAGAGCCTTTCCCGGCAGAGGGAACGCAATCAAAGCTGGCGCTGCTTCCGGGAGGAGAGAATTCCCAAAAGGCTCTGTCAGCCCCTCTGATAGGGATCTGCAGGGTGTGTGAGAGATTTGTTTTTCAGCCAGGATGTGGGGAGTTAAAAATAGACACCCTAATCCCTTGAGTTCGTGTCACACTTGACGCTGTGCAGAGCCCTATGGCTCCATTATCTCACTTGAGTGGCTCGGCAGCCTTTGACGTGGGGAGAGGTTGCACTGCCCGCTTTATAAATGAGCGTGTGGAGGTGCGTGCCC
0.3707570461781232 CCCTGCACATGCAAGGGGAAGTATCTTGGGCAAGCTTCCATAGCAATCAGCATGAAAGCAGAGAGGCTTTCCTTTCCTTTCCTTTCCCAGTGGTGAAGTTACAGCTATTAAAGGGCTGCTACTGCACAGAGCTGCGAAGCTTGTGAAGGGGACTTCTGTTATCTAATCAGCGCCAGGGCCAGAAATGACCATGTTGGTTACTACACAATGACTAAGTGTTCCAGTAAGCTAGAAGGAAGGACTGGTATTTGACAGAGGATACATGTAACGTTCAGAAAAGACAAGAAGCAACTGAGCTTATCACCTCAAGGAGCAGATCATGAAATAATCCAAGGTCAGTTAGCCTATAGT
0.3828469583595789 GTGAGAACGTGGCAGCAGTCCCTAAAAGTCACTTCTGGTGCTGGCCCTGGCTCATCCGTGCCCTGGGGGAGAAATGCAAGTGTCAGAGCTGCGGAAAGGAGCTGAGATCTAGCAGGGCTCGCCCTTATCAACCTCCGCCTCTAACAAGGGCCACACAGCACGTAGGGGAGATTAGGCCGATCTGCCTGCCTCATCGCGGGAGGCCAGGAGGGTGGAAGGCAGCGGATCGCGCCCTAGCGAGCAACCCACATGCTCTGGAAGTGTGGTTCAACTTTCACCAGGCTACTGCGGGCGGCCGGCCAGCTGTCAGCGGGCACTCCGCCCCCAGGAGCTGTCCGCAAGCGCGGGGCGGTGGGCACCGCGGGGAACAGCCC
0.8858063996694059 TGCACTATAAATTTTAAAATTACTTAATGTAGTAATTTAATGTTTGCAGTATGCAAGGGAATGTATTACGTACTGGAAGGAGAGAGGAGACAAACACCAGACCCTGTACTCAAGGAGTACTGGTAGTATCATTTATCATACAAGACAGATAAGATAAGGTCCATATGAGAGCTATAAACAGATGCTGTGAGTTCAGACTAAGGAGAATCAGTTCTTGCTGTAGGTAAGGGGAATGCTGTGTTTATAAAGCAAATGACATGGCAACTGGATCTTGAAGGATGAGTTAGGTGAGTAAATTTCATCTGAAGGAGTTGGGAAATATCCTAGATGAAGAA
0.8220934633632665 AAGGAAGAGGATGAAATCAGGCCCGTTGATCTCTGCCTGCAGGCTCTCTCAGCTCACTGGAAGCTCCAGCAATTATTTCTGCTCCGGTTTTCCCCTCCTTTTTTTCCAGCAGACTGTTTGAAATGAAGCAGAACCAGGCATGGCAGGCTTATCAGTGTCGTTAGCTGACAGGGCGCCCAGCACACCTGCTTTTACTTGCTGCCGTTTCAGGCACTAATGCCACAGAGAATGTTGCTTGGGCCCTTATAATGTGTAAAGATTCATTTATTTCACCTTTTGAACCTGCCTGACCCCGTGGGCTTG
0.187932896520889 GTGATCATTGTATCTCCACTTAGAGCTAGGAAAATGAGGGCCCACAGGGGTTAATAGTTTGCCCAAGGCTGTATGCGAGTCCATGGCAGAGCTGGGGTGGTCTGACCATTGCCTTATCTGGCCTGGGGGCCGCCTTTCAGCCTGGAACAGGCAGTACTGATAACAGCTGACTTTCCAGCGGTCTTATCACTTTGTAAAGTGCTTCCACACACTGCGACCTCCCTTTGCTCTCACAGTGACAGGCCCAGGGAGTGGGGTGTAGTTGTCACTCCCTTTGTGTGCACATGAAGCTGAGACCCAGCCCAGCTTATCCTGCACTCTGAGG
0.648646066497517 ATTTACAGGGACAAAGAGCCCTGAGCACAGGAACAAATGGACTCAAGGCCCATAACTCCTCTCCATCAATCTTTTCTTCTGGATTGTGCAAGACTCTGGCGATTGCATACAGCGGCTCCTGGCAGCCTCGAGTGATGGACAGGGGTAGCGATAAGAGGCACATTTCTGGGAAGAAAGAATGTGCTTGGCCTGGCAGGATGAGGTCGAGGGAGTTGACAGGGAGCCCAGATATAAAACAGACCCTACACACAGAGATATGTGGACAAGGCTCTCCAGTATCCTAGTTGGGATGGGAGGCAAAGATTGGCCAAACTATCTCCAAGAGAGGGCAATTTGGAAGGGGCAGGAGTTGTAGCAATGTTTCTTCTAACTATTTTAAAAATTGTATTTTCAGCTGCCACCTTTTATGGAATCAACAGC
0.3564612627467789 AGTGAATCCTCCTGAGATATAAACAACTGTGTTCAAGTCTACACTAAACAGTGCCAGACAGCTACTCTTTTTCACTTCCTGCATTTCTTTCTGTCTTCTGTCAGCTGTCACTTCTTAGGTTATCAGTTTGTTTTGTCCCACTTCCAAGTCACTGCTTCTAATCTACTGTCAGCTCTAGGAAAACCAGATAACTGAGCAAATGGGAACTGTGTGCAAGTTACAGAAGAGCCTAGAGGGTTTTATGGGTTTTGCTATATATATCTTGATTTCTCAGAAGCTGTTTCTGCTCTTATCTTCATTCTTGTCTACAATACACATGGCTATAACTGCAGGACATGCAAGTTCTGAATAGGTGATATATTTCTGTATCATGTCCAGACTGAGGAAAACAATAAGCTCTTACAGTTGTGTGCTGTTCATACCATGTCTGGAATACTGTTTTCAGTTCAGATCAACAATTACAACACATATAGTAACA
0.5415711248340732 TTGTTATTGTTATTATTTCTCTGTCACATAAAAGTCTGGGGCTAGTATGGTAGCTCTGCTCTATCAAGAGTATTTTAGAGACCCAGCCTATTTCTAGCTTATCAAGTCACACTAGGCTTGAAGGGACAAAGAGTACATGCTGGCTTTATCTTAAAGCACATTCCTGAGTGCTGCCTGTCACACAACATTTTCAACTTCATTCCCTTGGCCAGAATGTACTCTCATGAACCTATCTAGCTGCAAGGAAGGCTGGAAAAGAAAGTCTTCATTCAGCTGGCCATATGCCCAGCTAAACTTCTGTTACTATGGAAGACAAGTTGAACC
0.8454112951597016 ACTCAATAGCTTTCACCAATCCTTCCACCAAGTTAGGCCTTTACTACATCATCCTTAGGCAAATGGGTGATGAACTATCTTTTCTTTCCTTTACTCTGTCATCTACAGTGATGACAGAATTATCTTTCCAAGGAATTATTCTGGTAATATCATGACGGCCTGTAGAGCAGATTTCAAGCTTCTGAGCATGGCATGCAAGGCTGTTCATGATCTGGCTTTTGGTTACACGTCTAGTCTTCTTATCTACATTCCTTTCTTCACATGCGCTCTACTCCAGCCACACTGAACAGATAACTAAATCCTTTTCCCTCTAACACTCTTACACCTTAATGAAAAATCAAGTTTCTTCCTACCTAGAATGTCTGCCACCATCGACCTTCAGACCTGGCCTGTGTCAGTCTTTGGACTGTTTGCTGTCAGGTCCATTTCCTCCACTTCCCCTGTTCTGCTCTGCTCTGCTCTGCTGTGTGTTGAGGCAGGACAGGAAACATGATACTGATTGCTGCAGCTTGCATTTCTCAGGTTCCCAAATCAGCTGACATTTGGGCTAGGTTCTGCCCCTGGGAGGCGCAGGCAGTAGATAGGAAGTAGGAAAAGAGGAAAACTATTG
0.8466530407709578 CTGCAGCAGTGTTCTGGGAGACATCCCTGGGGATTGAGCTGAGAGTCTGCTCTTGCAACCTTCAACAGTGCTCTAACACCAGTCAATATCAAATCCCTTTCTGCTTAAGTTAACCAGAGCAGTGTCTATGGGTAATTGAATCATGACTGATGCTATTATCAAATATAAACTGATGACAATGGCAAGTGGGAAACCTGCTGTTTTACAAATACCAGATGTGCATCACATGGAGGTTTATTCACTCCTATTTGCGTTTTGATAATAATCCTTTCTAATAATTGGTTCATTGGTGTAATCTTTATGAAATTAACCTGAGTGGCTCAAAATTCATTTTGTAGCACTGAATGCAATTACTAATTGAGCTATTTAAGCAAACTAGCCAGCCACCTACAGCTACTTAATCTTACTGGCCTACTATAGTAGCTCTGACTCACCCTTATCTTAACCAGATAAGGGATACCATACATTCTCTCTAAAGAACACCACTGACCTCACACACAGGGCTAAGTAGGCTATGCCTATTGTTAATATATCCAAATACCAGTTGAATACTCAGCAGGTCAACAGTATTTCCCATCC
0.5504510225904643 GGAAGAGAGGACTCAGATGAAGGCAAAGAGAAAAAACAACTTTAGGAAAGTGTGAAGTTTAAGGAGACATGCCTATAACACTGGCTTTCTACCCAGTCTCATGCTAACTCCTGGCTAGAAATATATAGGGACACAGACACACACACACACAAACACACCACCTCCTTGAAGGAAGAAACATTTTATTTAATCAGGATTGCTAAGGAATGTTGCTGCTGATAAGGCGACAGAAAATATTTCTGGGAGTGCATTTTCGGAACTTGGGAACAGAGACAGTCTGTCTGAACCCAGCTCAACTTTTCTTTCTTATCACTTTTTAAAAGCATGTTATCTTTAAGAGCCAAATTAACTTTTCATGATATGGTTTCTCAGCAGCTGACACTTGGGCATTACAGGGCTGGACAGGAATGACTAAGCAGTTTTGTAAAATGACTATCCCCAGAGCTGCTGGCTTGCTGGTTTTGGTGTCAATCATATAT
0.3060342406948979 TTAAAGTCCTGGGCATGGTCCTTGGCTTTCCACATCCTCCAGCTGGAGGTGATGAGAGCTTCACTGCATGTAACTGAAGAGTCCCTGTGGCTTGCATTCCTGGCTTTCAGTTGCCTGTTGTTCATCTTCAGCTGTGCATTATCTTTTTGGAGAGGATCAATGACACTTAGCAATAGCCATCCAATCCCACTCTCTTAATGTCTGCACCTTCTTAAGTGTCAAGCGTCCTGTAGATTTCTCTCACTAGTTCGTTCCCTTCTACTAACACACCATCCCAATTCGCAACTAATGAAAGTGTTAACAACAGGACCACCACCTGGTGCAGGGGCTGTCAGTACTCCACCTATCACCAGAAAAACAGGCCCTAATTGCCAGGCAGGTGGTGAGTGATTCAACTTCAAACTCTGTCTTATCTCCACCAGCTTTCTCAGCCCCCCTCTCACTGCCAAGTGTTGCAAGGCTGGCTGTCTAGAAGCAGTCACTGACACAGAGTTTGGGGAGCACAATACTTATTAGAGATTAATACCCATAAAAGGAAGAGAGAAGAGACAG
0.6833658745670192 GGAAAAGTAGCCTTGATTTTGTTCAAAACTTCACTCATATCGTCCCCTAAATGAACTTCTAAAAATGCTATCAAGCTACTACAGAAGCTGATGAAAGGAGAAAGTACACCGCCTGTTACAACAAGCTTCCCTAGAAGCACAAGCCCAGCCCTCTGACACAGGCTTTCAAAGGTTGCCAAGGTCTTCAGACACACGTTTTATCAGACACCTATTTACTCTGTGACCCTCTAGAGTGCCAGTCAAGTGCTGGTGGGTTGTAAGATACACAGTTTTATCACCACTTCCTAACGTGAAGAGAACCAGAACCAGAACACAGGAGGGGAAGAGAAGGAAGAAGACTGGAAGGGTGAAGAGCAATTTTTCCAAATCAGTCTAAGGGAGAATTGGGCCATAGCATTTTTTTTTTCACATGAAAACATGATGAAAAAGAAGAAAAAAGGCCCACACGATTTGTTTTATGGACTTTCAGAAGAAACTGCCTCAATGCTCTGCATCCCAGGAGCTGTTAAACTCTCTCTTACTTCCAGGCCTCCCAGTGACTCCCTGCAGAGAAGGGCATTACTGAGATTGCAGCTGATTGCGGCTGAGCTGCTGCAGTCAGGCTGCACTCAGTTTGATAGTCCCAAGAGAAATGGAGCGTAGGACATTTAGGTTTCAGCATCACCAAGGCGTTTTCAACAGAGGCGAGTTCCTGATTATGAGGGAATGTGGCAGGTTTGTTTTACACAG
0.4395020938765645 AAAAGAGAGTCTAGTTCAGGGCAGGACAACATTCCAGCCCCCACTGACAGCAACTCCGGATCCTCTCTCTGAGCAGTGCCAATTTTTCCAAAGTGTTTAGAGGTCCCTGCCAGCATTGGCTTTCATCAATTTGATTGTATGAAGTGGCTGAGTGAGTCTGAGATAAGATAGGGCAAGAGAAATACACAGTCATTCACACCTGCTAACTTGAGGGCTGCCAGGGCAGCTCTAGTGCCCAACGGTAGAGGAAGAATGGTGCCTACCATAAGATGGACAGACAAGTAGCAC
0.535792874841576 CCCCCTCCCCACCACCTCCTGGGCTTCTGAAAGAATCAGTGCAAGAGCCAACATCTCCTTCAACCCATTGACGTCTGTGAGATACCCAGAGACGTTCAACCCAGAGATATCCAGGCTGCTTGCCAAACAAGGAAATCCAAGATAAACGTGCCATTCTGTCATGACCTTATCCTGCTGAGAGACAGACAGAAACAATGGCAGAGAGGAATAGCCTTGCATGTTTTCATGGCACCTTTCAGAAAGAGATGAAATTCACCATCAGTCACACCTCTTGGAGGTTGTACCATTTAGCTGATAAGAAACAGCCAGAGAGGCAGGGAGTATGGACACTCCTGAAGGCAATCCTATGAGGAGCCCCCTGAAACTTCTTGAAGAAGAAAAATAGCACTGTTCCCCTCCCCTTCCAACTCTTCACGCTGACAGGAGTTTCTACGAGGCAGTGTTTGTCAGTAGTATTATT
0.3446971319950704 GCAGGCCCTGGGCCGACTCCCACTGAGGACTGAGGACCTGAGGCTCACGCTTCATCCCCAGCGCCGGCTCCCTGAGGAGGCCCCTCTGCACTCTGTCCCTCCTCAGGGGACAGGAGGGGGAGGGTGCAGATAAGGCACCGGGCCCCGGGTTATCTGGCTTGACCTTTGGAGAAGCCGAGAGGGGAGTGTTGTCACCCAGAGGAGATAGAGGGTCGCCTGGTGGGAGCAGCTTCCAGCCTTCCTGAGTGGTCAGGGGCAGGGCCCTGCGAAGACAGCCTGGACTGGGGCACTGGCCTGGCCTGTCAGCGCCATCCCTGCGCGGCTCCCAGACACCCAGCTGTGCCGGCCTGGGGCATGCATGAGCGCTCA
0.3850450408398428 TGCTGACAGGAGGTCGTGGCTGCTTTCAGCGGAGCATTAGCCCTAATAGGTTTGGCAGGATTTTAAAATAATCAAAACAAAGCAGGTTAGAAGGTTTGATGGGGGAGGTATGTGGTGACTGCTTGAGCTCAGATCACATGGTATGTCCAGCAGCCTGGCCCAGAACAGCTCCAAGGCCTGATGCCAAGGGTCTGGGCTGAACAGAAATCTGAAGTGGCTTTATCAGAGAAATTAGTGTGTGATTAGAGCTGAGAAGAGTCACGAGTCTTAACTTCTGTTTAGCACTCCAAGAATAAGGTGTCCCGTGTGGTGCCAAATTACTCCCTCTGGGCAGTCTAAAGCATGAGTGGGATGCTTATCCAGGGAGCACGGTGGAGGA
0.848265496708585 AGTTCACTCGAAACCTTTTACAATATGCTTTGTTACCGGGAGGTGTCTGTGCATCTCACTCCATCACTAGCCATTTGACACAACATAAAAAGCTTCAAAAGCCATGTTAGGCCTCTTAATCAAAAACTAATTGTAATAGATATTGGGGAGTGTTAACACGGTGACCGCTAGCTTGTAGCGGTGGTATGGAAGCTGCAGTGAACATTAAACACAACCCCGGGTTGATAGGGCTTATCTCCATTTCAGAGCTGAGTGCTAAGTACTACAGGCCAGTATCTCCTTGCTATGGCTTTGTACCACTTTTGGAGTTAATTGCCCCAGAAGGCTTCATCTTCTTAATGAAATTTATAACATTGTCAGAGAACTTGGAAGATACTGCTGCGGTTTAGCAGACTTTACAGAAAACAG
0.5822420606387252 CTGACCGCAGATGGGAAAGGGAGCTGGTGGCCAGGCAGGGGAAACCCAGCTGGGCCGAAGCCAGGGGCTGTGTATTTCAGGAGGAGGTGACAGAGCGGCAGCAGCACCAACTCAACTGTCAGTATCTGTGGGGCCAGCTAAGAGAAGGCAGCTATCTGGGATTACAAAACTCAAGGAGTCTATCTCTTCCCTCTTATCAGACTGACCTTTGGCAGCCTTGCAGCCTGTGAACAAACTGCCATTAACAACCCCTCCCCCGCTTCCTGTAAGCACAATTCTTTGTGACCAGCCCAGGACAGCCAGAGGCTGCCAGAAAGCCTGCCCCTTCCTCCCTGCTAGGGTGGGGCTTGGGGCCCAT
0.6280899765314654 CAAAGATAGAAGGGAAAGATGAAAGGAGCAGTATGCTAGGAGTCAAAAGGGGGGAAGGAAACTCTGGAGATTGTCAAGGTCAGCAAACTGCCTCGAGAGAATTAGTTCTGATATAACACTTAACCTCTCCAAGGACCTCTGTATTTTTGGAAACAAGGAGACACTAGGGAGGCAGAGAAAGCCGCTAGGGAATGTTGTTCAGAGATTATACTCTCCTAATCAAGCTGAACTCTGTTAACCCTATGATGTTTGCCAAAAGTGACTGACTCTTCTGAATTTCTGATGGCTTCATATCTTATCCTTTCTTATCTTTTCCATTCTAAGTGCACAATGTGTAAGGAGTCCCTCGGAATAAAGCAGCCCTGGCATGCCATCGGGGATTGAAGTAGGAACGATTTAACAAGGGATACTTGGAAATGTTGTCATGTGCGAGTTGTAAATTTTCTTTTTTAATCTGGTGGAAAATTGGAATGGCATTTCTCTGTTTTGCCCAG
0.6400782460483946 ATATGGAAATGGCAGGAGTCTCAAACTCAGGGCATGGTGACACTGTGTCTCTGCTAGTAATCAAGGTTTACGTGCTCACTGTCTGTGTTTTTCTTGAACAGAGCTGTGGAGCACGGGTCAGCCAGACAGATTATCATTTTCTGTAAGTAACAAGTTTATCTACCTCTTAGGAAAGGAATGGGGGGAGAGGACGGGAGAAAGAGAGAGGGGGGCAGACAGGGGGCCTGTGCATGCTCATGAGTACATCAGTCGGTATTTGTTCTGTAGAAATTCAATTTATTCAACAAAAATTCTGGTCTTTTTAGCCTTCAGCTAGATTGTGTCTGATACGCAGAGGTCACATGTGTTTGGAAGCCACTGAAAACCTCCTCCTCTTGCCTTCTCTGATTTCTGTCTCTAGAATTATCGCTGCCTTTCTTTTCTCTGGGCCACTCCCTTCCCCATTATCAGCTCTCCTCTCATGCTTTCTGGTAGTTCTCACTGTCATGCCAATGACAGACCATCTGATTAGACTGTTTTAAACATTCTAATTTTAAACTTGTGTGTGTGTGTGTGTGTGTGTGTGTGTGTGTAAGCGGTATACGTATTCCCAAAAGGCTGTTCGATGAAATTTGATTTATGTCCTCTTTCTGGGCTTACTCTCAA
0.5859563892625237 GGTATTAAAACACACACATAAGCCACTGAATGGGAAGACAAAAGAGAATGAGGGGGAGGCAGCAACTCAGGAACAATGTTAACAAGCAGGTCAATGTTATGGCTAAACGTAGCTATGGCCACAATCATTTCTGGGTGTAAGATAAGTGGATACTTGTCTAGACATGTTGACTGAGAACATTTTAATCAGCTGACACAGGCATTTGTGCCTTCCGTCCATGGGCAAGAGCTGGCAGGGGATGCCCAGTGCCTGCATGACAGCCAATGTTGCAAACATGTGGTCC
0.3047452488078247 GGTCCGGGGGCTGGATCCATCGCTGGCAGCCTTGACAAGGCTTCTTTTGTGCCTGGCTGGGCAACTCTGCCTGGGTCTGCTCAGATTGCAGACAGAACCTGGGTGACAGAGACAAAGCAGAGCCCAGTGGAAAGTGTCCTTATCGCCTGGGGTCTGATAAGGGCCCCGGGGAGGGGGCTGCCGGCCAGCTCCACAGATCTGAGTGCTGGAGGAGCTGGAAGGGCCGGCTGGGGCGGCTGCAGCAGACGCTTGCCCCCTCCCCCACCCCACTCC
0.6932096612416727 TATATGGTGTGTGTGTATATATACACTTACATATACACACATATAATTAAAAACTTAGGCACATGTTATAAATGAATAAGATAGTTTACTGAAAGGCTACTATATACCAGGCACTGTGATAAGTGCTTTATAGATATCATATCCTACAAGTCTCAACAACTCTTAAGAGGTAGGCATTTATGATTATCACCACCTAACAGATAAGAAGCTAAGAGTCATAGAAGAGAAGGAAATTGCCCAAGCTGCATACCTAACAAGTGATGGAGGTAAGATTCCTTTCCAGGCAGTCTAATTTCAGTGGCTGTGAGCTTAACCAGTGGCTCTACTGCCCTTCTCTCAGTGTGAATGCATTTTAGATAA
0.1155870579078488 ATGAGGGATTTGAGCAGGGGAGTGATATGATGTGTACAACCTGTGTTTTGAGTGATTACTCTGACAGCTATGTGGAGAATATACTGTCAACACTGAAGTATATTCTCCACATAGCTGTCAGAGTAATCACTTAAAACACGAGTGGTTTAACACAAGAAACCAAAGATAGTGCCAGTAAGACGAGATAGGATACCATAGTTGCTGAAAGCAACTATGATTGCTTGGACTAGGGTAACCAAAGTGATGATAAGAAGTGGAAATATTTGAGATAAAATTTGGATGTAAAATCGTGAATGTAGTTCAAAGTCATAGCAT
0.5684028480098842 GCCCGCTTCCCCTTTCTCTCCAGATTCCTTTGATCCGCGGGCTCTCCGCCGCACCTCGGCTCCCGGGCTGCCCCGGTCGGCCCGCGGGGATCCTGGAAACGGTCCCCAGCTTATCTCCTTTCATCAAGCGGCCTTGGGCCGCCTTGAAACCGCGGAGCCAGTAATTGCTTTTTTCAGGAGGCCCAGTGCGGACTGGACAACAGCCAATCAGCGCCTTGTTTACACTCGGTGATGGACAGTCCACTGGCGGAGTGCCAACCAATCCCAGCG
0.1780817866795333 TCCACTGCCTGCCTTGGAGGAAGGAAGGGCAAAGGTTGTCAAAACCCCGCCTCGCGCTGCTGGCCTGCCAGCCTTTTCATCACCTCTGCTATCACAAAGTACTGGTGTGAATAAGTGTCACTTGAATAATACTGTAATCTTATCAGCATGCTGAAAGATATAAACGGAAACAGCCCTTTTCTCTCCTGCCTTCTCAGCTGACAAGCCGACCAAAGCCAAGGTTAATTCGTTGTTGAGAATTTCTCTGCCCTCTACCACAAATCTTTTATCTGGCATGTTTGTTCATCTTTCCTCTAATAGAGGTTCACACTTGCAGAGGAAGAAGGTGGGCCCAGAAATGAAACTCTGGGAGTGTGTTCTTGTCCAGCACGGAGTTCCCA
0.2601897531508721 GCAACAGAGGCTCAGCAGCAAGACAGGGTACGTGCAGAGAGCTGCGGGACAGACGTGGCCTCACCAGCAGGACCCGTGATTAAACAGCAGCTGTGGTTCACTAAGTGCTTTCTGCTTATTATGTGCCAAGTACTTCACATGTGGCTGCTTTGTGTCATTCTCACATCAAACCTGATGGGTGGTTACTATAATTATCTCCTTTTACAGATAAGGAAACTGAAGCCCAGAGGGGTGGAGTAACTAGTCCAGCAAAAGTAAGCCATGTAACTGGGATTCAAATTCAGCTTGAACATCTCAGCACTCATCTGTTTTCGATCACATAACACTCCCTCTAGGCATTCACAGGAGCTCAAGGATAGGAGTAGGGAGGGGAAAGCTAG
0.6826847039369671 GCCGGAAAGGTGTTACAGGGTTTGTTTGTGTGGATGGAAGAGGCTGACCTGTCCCGCAGCCTGAAAACAGGAGGTGGGAGGGGGTGGGCAATGGAGCCCTCTCTCTGCATGGAGACACTTCAACGAAGATAAGGGAAAGCTTATCAGGCAGCATTCACGGTGTCAACAGCAGACAAGAAATGTTTCTAACACTTCAGCCTTGCCAACACTCCCTATTTATCTCAAGAAACACAAGTGTTTTTCTTTCTTTCTTTTTTTTGTTTCCGTTCTCTCCTGCTATAAAATGCTCAGAGTCTCACAGTGCAAGATGAAGGGTTGACACGCGGTGAAAACTCATTTTTAGA
0.3793838284084586 ATTGCTAAAACTGCCGGTAAAACTGTACTCAGAACCAATCAAATGGGAAATGGGGTATGCGTCACAGGATTGTCATAGTGTGTGTTTGCTAATAACTTTTAGTGGGTAGGGAATAAGGTTAAGGAGCCTGTCCTTGGTGATACTATGCTGCTTTCAACGTGGCTTGTTGAAACTGCAGCTGATAAGCAGGGCATTCGTGCCTCTGATATGGGGCATTTGTGCCTCTATTCTTGAATGAGGTGCATTCCAGTCAACAGCTTCAAGCTGATACTGCTGAAGGAGGCTGTAACTTGTAACTAATCTGAATTACACTATATGCTTTACTTTATGTGTCTATACACAGT
1 ATATCAAATGCTGGCAAGGATATGGAGAAAAGGGAGCACTCATACAGTGTTGGCGGGAATGTAAATTAGTACAACCACTGTGGAGAACACTTTGGAGGTACCTCACAAAACTAAAACAGAGCTACCATATGATTCAGCAATCCCACTGCTAGGTATATACCTACAAGAAAGGAAATCAGTATATGGAAGAGATATCTGCACTCCCGTGTTTATTGCAGCACTATCCACAATAGCCAAGATTTGGAAGCTACCCAAGTGTCCATCAACAGGCAAATGGATAAAGAAGTGTGGTACAGATACACAATGGAGTGTATTCAGCCGTAAGAAAGAATGAGGTTCTGTCATTTGCAAAAACATGGATAGAACGAGAGGTCATTATGTTAAGTGAAATGAAATAAGCCAGGCACAGAAAGATAAGCTTCGCATGTTCTCACTCACTTGTGGGAGCTAAAAATTAAAACAATTGAACTCACGGAGATAGAGAGTAGAATGATGGTTACCAGAGGCTGAGAAGGATAGTGGGGGGTGGGGTGGAAATGTGGATGATTAATGGGCATTAAAAAATAGTTAGAATTAATAAGATCTAGTATTTGATAGCACAACAGGGTGACTGTAGTCAA
0.7262188563254334 AAGTGTCAACTGATGCATTACCATCAGATTATTTACTTCACAGATCAGTGACTAAGTTTATTTGAGTCCGATTTTCATGGAATAGCATGGATTTTTTGTTTTATTTTTAAATCTGATAAGTATAAGCTTACAGGTGTACCTGTTTCCTGCTGTTCTGAAAACGTGACCAGGCTCTCTCTGTGACAGGATCACACCACAGCTCGTAGCCACTCTGTGCAATAATCTGCAGATGATAACGCCTTTGCAGAGCAGACCTGCACGTGTACTTGCAGAAAGGTCTCTGTCAGACACAGCGGGTGCCTGTGATATCTGAGAGTGGGTCAGCAGGACTGGCACGTTCAGCAGCTCAGGAAGCCAACTTCCAACGGCAGGAGCAGGACCCTCTGCATGTGACTCTGATGGGGCAGATGGTCCTT
0.1063932390506606 CACACAGTCTTGCCCAAATGCTGCAGCATGTTAGTCTGAAGTTTGGCTAAGCACCACCACACATAACTGACAGCCCCTTGTATCACTCAATTGTAGGAACTGCTGATTAGCCACATACTGGTGAAATGAGGGGCCTCAAATCAGTGCAGAGAGAAGCCTATCAGTGCTTCCCTGACCATGGGACTGTGAGTGGAACCTTTCTCACTAGAACAGAAGGCAGGAAGGACAAGCACTTTGATGTCAATGCTGAGCATAATTTGCAGGAACAGTAAGAAGAAACTCAGCCAACTGAGTTGAGGAAAGAAAAAAAGCACAGCTGAGGTGTTGAAAATGTGAATCCGTACTGGATAAGGGATAATAGAAATAGCCTCTGTCCAACAACCTTTCAACAATTAGAATGTGATAGATAGACAAGGCTATGAAACAACTAACTACATACATAACTCTCACAGCTGGGTTAACCCTAAAGGAATCTGTGAGATTTGAAACATGACTACTAAGGCACTGATAAGAACTCTTCACCAGATGGGAGCCTGTGAGGAAAACACAATGTTTAGC
0.3937336748958423 TGGCAGGGGGCCACCCTGTTGCACCCCAGAGACCCTTGTCTAAGTTTTGTTATTTCAGATGATTTCATAAGTTGGGGGAGGCGGAGCCCCAGCCCCCACAGCCCCTGTTGTTGCCTCACTGCTGAGCTCTGCTGTGTATCTGCTGACAGGTCTGCTGATAGCAGAAGGGGCTGGAGAGAGGGAAGCTCTGGGCCCTGCCCTCCCCAACCCCTGCTTAGGGGACATCCCTGATAAGAGGAAATTCCAGCCTGTGACAGATGGCCAGTGTCCACCCACCCACGGGGGAACTTTTCTTTCTCTTTGTAAGTTTGCAGATTTGCCAGGAACTAAAGGAATCTCTGGTTGACAGGCCACTGTGGACATGGCTGGAGGGCTGGCACGGGCTGGATCTTGG
0.6822038959566602 ACCAGAAAAAAGGCCTGATATGTAGGTGTTAGAGCAGAATAGTATCTAGCCTACAGGAAGATTAAAGGATTAAAATGAACTAATACTCTACTTCCTAAAACATACAGACTTCTACACAGTGCCAGTCAAATGGCAGCCAAGTGTTATCAGCAAGGCTAAATTTGGATCACATAACCTAAAAACCACTTAAGATAAAAAGAGTGCTGAAATAAGCGCAAGCCATAATAAGGGCCAATGAGAGAATGGGTCACGTCAGGTGACATGGTTTCCAAAATAAAAAAAGGCCAACTCAAAATACAAAAGAACTGGGATAAATTCTTGA
0.247597037793995 GACCCAGCTGTTGGCCGTAGGGGCCTTTGCTGTCCTTCCTGGGGTTTGTGGTCGCTGCCGAGGATCAGCACTTTCACACGCGACCTTACGCATTCCTTGTCATCTTGTCCTTGGCGGGCCTGTCAAAAAGAAGTTATTTTGAAAGCGTATCGCTGATTGCACATTTTATTCCATAAGTGCTCAGCGCGTTTCATGTAACTCCTGGAGGCCTCTGAGATAAGAGTGGAAAAGTGCCCTGTGCCCTTCTGAGTGGTGGGTGATCTATTTTCGACTTGGAGACTGGTGACAAAGCTGTCTTCTGTCAGGTCAGACTCGCAGGGACTTTCTTGTTTTCTGTTCCTCTGTTGACAGCTGTGCCTGTGTTCAGAATGGTCATGGGGTAGCTGGAAGATAGCTCTGGCATTTAAACACCTAGATAGGAAGGAGACGATGGAATGTATTTTTCTTTGCTATTTTGGTTAGCAAGTCCCTAGTAGTCCATACTGAGAGGGGAAGAAGCAGAGAGACCTTTGGGAGGGCG
0.525107158783934 AGTTCACGAGGTCTTTTTGAGTCTGCCGAAGGAGATCTTAGCTACCAATGAAGACCAAAGAGTCCGGGTCGAAGGCCTCTTCTCAGTGTTCTTCCCCTTGTGATGTCCTCAGCATCTGACACAGGGCCTGGCATGTTCACTATCTGATAAGCCCCTGTTGCGTGAAGTCCTTGAATGCCGATAGCGTTCCCTGAGGTTGGCCTTGTCCTGTCTTCCTGTAGATGGCTCTGGAATTTTTGACGCGCAGGAGGTGGGGCCTCTGAACTTTGCTGCCTGAGCACTTGAGCCAAGAGAGTGTTAGTTGACATTAGGCACATAGACTGCTTTTGCTTTGACTGACAGATCTTG
0.6383628459431666 AAATTAATAAGAATTTCATGCTGTTGTTGGCAGAGCATTAAACACGGCGTGGGCTCTTCTAAGTATGATGTCCTGAACAACGAACTGCACAGGTCACATGCCCTTGAAGCTGATCTGTAGAAAGCTTTATCTGGTGGAGGCAACCGGGAGTGCAAGTGGGAAGAATGCAGAGGTAGCTAGTGTGGTCTGGTAATGAGTGACTGGTTCAAAGTGTAGACAAGTCACAAGCTGCTGCTGTGACTGAGTTGAAGTGTTATTAAAGATAGAAGAGTGTAGACGTGAAAGATGAAGAGAAGAAAGAAATAAGATTAACAATGTGACTTTATACTTTATCTGCCAACATTCAGTCATGAGTCATGCCCAGAAGCTGTGAGTGTCAATTCTTATTTATTAACATCTCTTTCTTTTAATCAAAATTGATAACAGCCACAATTGTTGAGCTCACTCAGCAATAAGAGCTTCCCTAAATACTAGTAGGTGTACTGCATGAATGATGGTGTGAAAAAGCGTTAGAGACTCCAAAGCAAAACAAAACATCATGGATATCTGAAGGTTTCTCTGGCTTTCAATTAAGCATATTTCACTTCTAGTTTAGCCTAATAATTGAG
0.8241940888316439 CAGCTGGGAAGAGGGGTTTTCCCGAGGAACAGTAACTTCCCTCTACATCCAGGAAAGCCTCATGGTGTGGATGGGCGTCCAACAAGCAGGCTGTTCTGGCCCTCTTTGGGTGCTGACTCTGTGTTCCCAAGGGCCATTGATAAGCTAAGCAGGAATAGTGTAACCACAGGAATGCCTGCTGATAACAGGAAAGTAGGCGGCTGCATTCCTGAGCCATGGCTGATGCTGCTCCATCCACTGCCAAGGTGTAGAAAAAAGAGACAAAGTAGTAAATTCTAAAGATTTGTCAGTCTGGGTTGGCAGCTCTTAGAGAATGGATATGTGGCAAATATGTCTCTC
0.5630493723006312 TTATATCTACAGACATCTATATATTAGATACCTATTATATCTACAGACATCTATATATTAGATACCTATATCTAGATATCTAGATTAGATATCTATGATATCTAGAGATATCTATAGATTAGATGTCTATGATATCTAGAGATATCTATAGATTAGATGTCTATGATATCTAGAGATATCTATAGATTAGATGTCTATGATATCTAGAGATATCTATAGATTAGATGTCTATGATATCTAGAGATATCTATAGATTAGATGTCTATGATATCTAGAGATATCTATAGATTAGATGTCTATGATATCTAGAGATATCTATAGATTAGATAGATATCTAGAGATATCTATAGATTAGATATCTATGATATCTAGAGATATCTATAGATTAGATATCTATGATATCTAGAGATATCTATAGATTAGATATCTATATCTAGAGATATCTATAGATTAGATATCTATGGTATCTAGAGCTGTCTATAGATTAGATATCTATGATATCTAGAGATGTCTATAGATTAGATATCTATGATATCTAGAGATATCTATAGATTAGATATCTATGATGTCTAGAGATTTCTATAGATTAGATATCTATGATGTCTAGAGATATCTATAGATTAGATATCTATGATATCTAGAGATATCTATAGATTAGATATCTATGATATCTAGAGATATCTATAGATTGGATATCTATATCTAGAGATATCTATAGATTAGATATCTCTGATATCTAGAGATATCTATAGATTAGATATCTATGATATCTA
1 TAATGATCCCCTGATGATGTTGAGTATCTTTTTCATCTCCCGGTTGGCCATGTGTATATCTGCTTGGGAGAAAATAAAGTCCTTTGCTCATTTTTAAATTGGGTTCTTTTTGTTGTTGATTTGTAGGCGTTCTTTACATATTGTGGATACTAGATCCTTATCAGACATAATTTTGTGGGGTTTGGGGTTTTTTTGTTTGTTTTTGAGATAGGGTCTCACTGTGTCACCCAGACTAGAGTGCAGTGGCTCAATCACAGCTCACTGCAGTCTCAAACCTCAAACTCCTATCAAGAGATCCTTTCTCCTCAGCCTCCTGAGTAGCTGGGACCACAGGCAGGCCACCACCATGCTCAGCTAATA
1 GACCAGTTTGGTAAAAGAAATTGAGTTGTAGAAATCACTATTTTTTTTTTTTTTTGCAAGAGCAAAGCAGATGGTTGTTGATATCAGGGTATTGAAACCCAGTGGCTGTTATATGTCAGAGTAACTTACAGTGAATGCCAACAATCTTCTTTTCCTAATTGCTGCTGCTCAACATGATGGCATTGTTCAGTCTGGAATCCCTCTCCACTCCCTCTCCAGGGATAAGCAGCTGACAGCTCTAAGGGGGCAGGATGGATTCCCATCAGATAGCAAGGTGGAGTAGTTATGTGTGCTGGTGGGGGAAATGCACTCTCTGCTTTGTATTTGGGTCTTGTTTTGGGGACTGGTAACTTCTTCCTGTTTTGATAAATATATAAATAACTCTAAGTATCAGGAGAGAC
0.8838079178992168 CCCCTGGGTGGGTGTCTAATAAGCTCAGCACACCTCTGGATATCCTTCCTCCAGTCCACCTGTTTTTATACTCCTGTGCTCTCCTGCCTTTTCAAATGCCACACTTGTTCCACAGCCTTATCTGCCTCTCCCTCACCACCTTCAACCTTTCCCTATCTCGTGGCTCCTTTCCAGCAACAATTGAACATGCTCAAGCATGTTTAAATGTTTTCCTCTCTTGACTTTTGCTTCACTGCCAGATTTCTTTAAAGGGGTTTCTGTATTTGCTGACTCCATAGGTTCACTCGCTACTGTATCTGCAA
0.7035286643500195 GATCTCTATCTCCAAAAGAGGCTGTAAAAAGAATGGGAAATAAGGAAAAGAGCTATGACTAAGGTGACCTCCTCCACAGGTTAAATACCAGCAATGGCCAATTTTAGTACTGCTGTACCTCCCTAAAAGATTAGACTCTCTCAGGCTCTGCTCTGGATAACCTCACTGCAATGGCAACTTGAGCCTTGTTGAAGTTGTGCAAAAACATGGCTCTATCTCTGCTGTATCACACAGCTCCCTTCAATCAAGTGATACCAGTCTCCCGGCCTCCATTCTTGACAGCCTCAAGGAGTTTTCTCGCTGCAACCCACGTTGCACTTGAAATTAATCTGACTTCTGAGCCTTCAGACCCTACGGCACTTAAACGGCCCCAACCTCACCCGTCACCCTCAGGTTAAGTGTGAACACTGGCACAGCATGAAGTGACTCCTTACTACCTATACACACTATGGCCATTTGCCACCCCTTACTTTATACTCTAAGGATACCCAACTTGTTTGGAACGCTTCAC
0.1883569599145339 CAGCCAAGCAAGAGGGAGAGTGGTGCCAGGCAGCACAGGATGTGTTTGTGCTGCGGGAAGCAGGGTGGGTGGGTTCTGAGCACTCTCTCGCCTGCTCAGTGTGAATACACATGACAGAGCCAAGTGGAAATTCTGTGTGTATTATCTATTGTCCTGAGTTATCTGCCAGGCTACTCCTCACCAGTGCTGCAGAAAACACAGAGCTGATAAGGCAGCATTCCTCACAGCTGACCCAGAAGCAATCCCACTGGGCCAAGGTGATGGGGAGAGTAGCTGTTGGGCAACAGAGAAACAAAGGACAAATTCCCAATCT
0.7467709727800065 TTCAATATTTCTGCAAAACCAGTTTGAGATCTTTGGCAGGGCTAAAATTATCCTTGCTTCCACTGGCAGAGCTTTAATTTGGATCTGTCTGTTGTCTGCTATCAGAAATCATGTTGACTTAATGGCAGAATAAAAATAGAACTCCTCTTCTCCTCCGTTATCTAAAGCTCGGGTTCTTTATCAGGGCTGTTCCCTGTCTGAGGGCTGTCATGTTGTACACTTCTCACTGAAGGCCCTCCTTTTAGAGACAGAAGTCTTTCATCATTCCACTCTGTGGGAATGTTGGTAGAAGTATGTGAACAAACATCCTTCCCTTGTCTTGAGCTTAGGGGAAAATCATTCAGTCTTTTGCCATTAATTATGAGTGTCCG
0.4939715020561779 CCTCTGGCCAGGGAACAATGGGCCGAAGTCCTCAGGGGATTTGTGGGGAAGCGCGCCCCCTCCTCCTTGGGGTTTTCTTGCGGAGCTGCTGTGAAGACTCAGCTCAGCTGTGATAATTACCTGAGGTCAGCTTCTCCAGAATGCCCTTATCTCCTAAGGCCTTTGAGATAAGCAGGAATTGTGGTGTCTGCCTTGCCTCCAAACCTTTATCCTTGCTTATCTCAGTGGAAAATTCCAGCAGGGATTTCTGAACACCAAGTTAAATTCCTCCACTCAACAATCAGTTTGGCACGTGGCTGCCCGCCAGTCTGGGCAGAACAGAGGGGAGCCAAGGGAATAAACCCAAGTCCTGCCCCCAGGTGCCCAGA
0.6480180348398175 TCTGGTCAAGGGAGTCGTGAGACCAATTCTAGCTGAACGGAGCTGCAGCTGTTCTGTCAGCCCCTTCCCTGGGTTCCACGTGACTCTCCCAGGCCCTCTAGCAGAGCTCTCCCTTGGTTATCAGCAGTAATAGAGAGCTTCTTTATGCACTTGAGATAACTGGGAACACAACTACATCAGTGACCTCTAAATTCGCCATCCCTGTCTACTGTCAAGTACAATTACCTTGTTCCATCCTAAAGGAAAAAAATGATTTACCCTTTCCCCAGTGATAACGTTCTTTTAAGTGTTCAAAGCATTAA
1 TCCTCTATACCACTTCCCTCTTCCAATGGCTGTTCATTTTTTTCTGCTCCCCTTCATAACAAAATTCCTTGACGTTGCTGTCCCTACAGTTTATCTCTGTGTTCTCTCCACCCAGCCTCTTGAAGCATTACAAAGAGGCTTTCACCCGCATTGCTCTATTGAAACTTATCTTGCTAAGGTTGCCAAAGGCTTCAACATTACAAAACCCTAGAGTCAACTCTTAATTGTCATCATACCTCTCTGTTGGCAGCATTTAGTTGATCTGCATTCCTTCTTGGCTTTCCTCAACATCTGAGTTGTCTGCCTATTGAAATCACTCTTTCTCTGTTCCTTTGCTCATTATTCCTTATCATCCAACCTAAAAGTGTTGGAGGACTCAGGATATACCTTTTGGAACTCCTCTCCCTTAGTGACTTCATTTAGTCTTATGGTCATCTAAATAATTACAACTCCCAAAGATATATACAGTCTGGAATGTTCCCCTGAACCTCAAATTCATGTAATCAACTGCCTAGTCAACAGCCTCTTATATTAGAGGTCTGCAGACATTCCAAAATTGATATTGCCAAGGAGAACTTCTAATCTTCCTCACCATTGCCCAAACCTATTCCTCTCCATATTGGAAAATGGCATGTTGTCCCAGTTACTCAGATAAGTATACATAAAAAAAGAAAAACCCCGAGAAACATACAAAAAATTCCCTAAAACATTCTTAGTACCATCCATTCTTTGATAT
0.7775301408811848 ACCCATGGGATTTCCTTTAAAGATATAAAACATTGTGCTAGTGCTTCCTTTTTTGTTCTGATACCCACATCCTGTGCTCTGTGGAGAGTCACAGTTTTTGAAATATGTTGACAGCCAGCACAGATAAGCAGTGTACTTAGCCTTTGGTCAAGGACTGGAAACTGGCTAGTATCTGAATCATCTGCTTAATGCAGAACTGCCCTCCTCTTAGGGAGATGCAGCCTGGTGTGTGGTATGACATGGAGCTCTATGGTGTGTTACTGTATGGGAA
0.257288543665771 CGGCTGCTTTCTTATCACGGCTCTCCCTTTCTCTCCCTCCTGGGATTGAGGCTTGGTGTTCACCCAGTCTTTTCATGGCTGTCATCGTTTTCGGGACACCTATCTACCCCGTGATGACAGGGGTGCTGCTCCATCATCCACAATGCATAGAAGACAGCACGGACATGCAGAGACGCTCACAGTGCCTACAAGGACACTAAGCCCGTTAGTACAAAACGAGGGCCCCCACACCATCCAACTCCCAGACCAATACTTTCCCAACTAGGCCGAGCTATTTTTGGTTCTGGCAGCAGCAGATCTGATGATTTTGAGGTTTTATCAAAAGAAGCTTCTGGAATTCCCTTTTGAGGACCCTAGTGTGATAATCAGCAGATAAATATCAGGGCTGCCTACCCCTTCAGAGCTTGGCTGTTAGACCTGTCCTCAGCATCCAAAGCCCTAAGGAGGGTGTTATTAACACATCCCATGTGCCCTTCTGTAAATAGAAAGTCACGTCAGATGCTATTTTGAACTTGTAAGTGCTAATCTTGACATAACTAGACAGAGGATTGTTGTGGGGACTGTGTACTAGTGACAATAATTTTGTGATGAGATGAGTCAGAGAAGCAAG
0.57560376762379 TATCCTTGGGGTATGGTGCCAGGTTCTCCAGCTAGGGCCCTGACTTTGACATCTCACAACTACATCTGTGCATTGAACTGTGTTGAAAGTTCACCTGCTCTGACTCTTAGACAAGGGTTTGGTCTTCAGCTCTTTCTGCTAATCTACTGCATGAGATAAGGGCTTCTTTGTAAGCTGCCAAAGCACTCTGGCTCTCATGCTTAGTTTTCAATGACTTGCTAATTGAGCATGGCTTGCATTGTCAAACCACTCCTCATGCCAACTATGCTAGTCAGGTTCTCCAGCAATCAGACATTGAGATAACATTAGATTTACAGAAGTTGCACTGACAAGTAACGTCTTAGAAAAAAACCAAACACCGCATGTTGTCACTCACAGATGGAAACTGAACAATGAGAACACAGGGACA
0.890072040058446 TTTATTCAGGGCCTGATTGAGTGGGGGCGTGGCCACCCCTTTATTGCCTTATTTTTTAATGTATATCATTCTCTATTTACACATTGATAATTTTTTCCTACAGGGTAAAAAAAAAATGCACCAGATGCAGCACTTTTGTGTAAGTATAGACACATCAGGGCTCTTTGTTAAGGATAAGAAACAATCGCTTCCACTTCAGGCTCTAATGTTATCATAGCCAACTGCCAGAGCCGCTCTGTAATTACGTCTCCTGAGTGGAAAGCTCTCAAAATGCCACTTGGTCTAAGAGTTTGAAGCTGGGCTTGCCTCTCCACTTTGGCCAAGATGACTAAAGCATCACATATTTTTAAAGCAACTTTTAAGAAA
0.4271412564443635 AAGTCTCTAGTTACACTATTTTCATTAGCTTATTAGCATACATCCTTGTTTTATGTGTGTTACTGTTTAAAAACTCTCATTCTCTCTCTCACACACGTGCACACACACACACACACACAGAGACAGAGAGAGAGAGAGAGAGAAAGAGAGATTAACATTGCACTTACAGCCAGTGGCACTCAACCAACACTCTAACTCGTCTGAGTGAAGCTTATCTGACATGCATATTTTCTTATAAGGCTCATCACTGCCTTCTGCTTAGGGACATTAGACAGCAGTTCAGCACTACAGCTGGGGGCCATTTTAAACAGTGAAATCACCAAGGAAAAGCACAAAAATGCAAAAGAATTTATATATGGCACTAAATAGACCATGAAAG
0.5415659695672558 TGCAATGAAACTAAATACCTCGTGAGAAGGCAGGTGTCTTTGTTCCTCTCCCACCATGGACAGCTGGGCTGTTCCTTCTCTTCTGGGTGCTCTCAACACCTTACTATCAGCTATCACCCAGCAGATAAGAATAAAGTAGCCAAGGAGCAATAGGGGTTTTGTTTTTCACTGTTTTTGAGATTGTAGAAATTGATAGCGCACTGCACTCTCATCTTGAGATCTGTGGGCTGAGCTCCCAGGGTTCTTAACATGGGCCAAGTTAGTCTGGATGCAACCTTTTGTTATTGTCTAAGTCACTGGCAGATTTAAAAATCACAGCGGTTCACAGCCAGATGACCAGCCTAGGGATGAAGGCGGGGCAGGGGGCGGTCAGTATCTCCACTCACATGTCATCTAGTCACGATGCAGAGGTTGAAACACTGAGTTAAAGGAAGCTTATCTTCATATGAAGAATTAGAGGCCACACCTCCCTAAGCTAAATTTAGAAGTGTTAGTATGTGAACAGGAGGTATACAGTATCTCAGGTTTCCTGGGGCACCAGCCAGATAAGACATTCCAGATAATTCTCTTCCATGCCTAACTTGTACCTCACCAGTCAGGCCAGAGGAGGCACTGCAGAAGGAGCTGTCCTCTTGTGTGGCTCTGTCCTTCTTTTCAAGTTTGAGGGGGTTGTGGACCATGTGAGGCTGGACGGCTCACATGTCA
0.634922131555665 GTATGGCTCACCATAGAGGAAACATTGGAGATTGAGGAATCTGAGTGTTTTCTGACCCCAGGAATGGAGCAAATTGAAAGAATAACAGTGGAGAACCACATTTTTCCTCTGTTAAACCAGAGCTATCTAGAGGAACTCTGCAGTATTGACGTGAAGAGAATTGTAGTGGATAAGAACAAGGAAAATTCAAGGCTTATCAGTAGAAATGGAATGTTTGAAGTCGGAGAACTCATAGGAATGCTAGTACCAAGTACAGAATCAGATTAGCTGGAGGAGGGAGCTGGAGAATGTCTACACTTCACTAGATAATGAGAGTGGAGTGAGCCAAGAACTCAGTTGGAGTTTGACGGAATGAAGCAGAGGGTCCAACTGAGGCTGAACTGAGCGTGAACTACATTCAGCGGCCTAGGCAGTGCCCTCCTTGATAAGATAATGATAACAAACATATGCAAATGAATTAAACAGTACAGCAACATGTG
0.5485576299233115 TCTTTCATCGTTGACTCCTCCCTCTCTTTCACCCAATTCAGTCTCCAAATTGGAGAATTCCAGCTGCTTAGTATCTCTTGACTTTGTCTTCTCCTCCTAATCTCCAAAGAGAGGCCTTGTCATCTTCTACTGAAATACTGAAACCATCTTTTATATTGTCTTACTGTCCTCAATGTGTTTTCCAAAGGCTGCTAAATTTGCTTTCTGAAAATACAAGTCTGAACTTGTCCTTTGCAGGCAGAATATCAGTTTCAGAGGCTTCAGAGTGACTTCAGGATAAAGTCCAAATTCCCAACAGACTTTTAGGATCTTTTTCTTATCTCTCTATTCTTATCTCTTATCCCTTGTACCAGCACCAGAAAACACTCCTCACATTTACTGCTAGGATTTCAGCATACATTTTTATCTAAACACATTCCACAAGTAGGCTGTCATGTTTTTCAGGACTCAGCCCATCATCACCTTTTCCTGAGAAGCCTTTCTGCACTTTCCTCTTAAACCCCTGGTGGGCGGTTGGGTTGAGCACACTCCTGTGGGCT
0.6902873392354469 GATGCATTCCTACCACCCCCAGCAAGAAACCAGAAATCTAGCCCAAAGTAGTTCCTCTCCCAAACGCTCTGAGAGGAGAGAGAGCCTGACGCATCCAGCATCAAACATCTGCAACCCAGATGGGCCTATCAAAGGGAGAGTACTTATCAAGCTCTGGACTGGTCAGGAGGAGATATGAATTACAGATACATTACCCAGCCAGTTGAACAGACTTACCAAGATAAAGGAACTTGGAACTAGGCAGGGCTACATAAGCCAGATGTCTGTTTCTACATAGTAGCTGCCCTGAGAGATGATCTGCGAGAGTTAAGGGAAGGAAGGGTGTTGAGTGTCCACTTCAGTAAAATCACAAATGTCATTGACTATTCCCTGTGGTACATACTAGGGAGCTCAGCCCAAA
0.5451544066370878 GGTTTGCCTATCACATGTCTTGTTTTCTCCTGATCCGTGGCTCACAGGCTCAGTGTGACCCAACCTCCTAGATTTCCCCATCAGTGCTATTTGCAGTGCCCCCAAGCACTTTCCTCCACTCCAGTCCCTGAGCGCATGCCAACGGCCCTATTTTCAGCCACCCCTCTCCATGCCTCTTGTCTGTCTCTAGCTGACAAGCAGATTATCTCTTCTGTCCACTTTGTTTGCCAATGTACTTTGGCACCATTGAATTCCAACACATGAAGTAAACTGAACTGTGTACAACGCTGAGCACACACGTGGTTTGGAGAGCAGCCCCTTGTCAGGATCCAAAATGTTCCCAAGCCTTGTTGATATTTGG
0.6370836847815649 CCTCCCTTCCATCTCATTCATAAATCCCCTAGCACTTGCCCCTACCTCCCACACACCTAGGAAGTGGGAGGAAATCTCTCTACCCTGGGGTCAACATTGTCAGGCACAGCAGAACTGATAGACCTTTCAACAGCCCGAGCTATGGGCTTCCCACACTATTCATGACCACGAGAAAGTACTTTAGCTCTTAGAAAAGCAACACTACAAGAGCCACCATATCAAGTCCGATGGATACTGCAGAGCTGGCTGTCACAGGGACACTGAGACACCTTCCAGAGCACGGATTGACTCTCAATACCAGATTATTCTGAAAGCTGGGTTGTGTGCAGAATGGACGGGAGGAGGAGATTGGAAGATG
0.4650185525812289 GTGGAAGCTTAGTTTTATGGGTCAGCAGAAAAGGCCAGAAACAGGCCACCAGCTGGAAATAAGGTTGTGAGTCACCCTCAGAAAATCAACATTGCATAGTGATGACTGTTTCTGGGCCTTGCCCAACCTCCAGTGTGATAACATTGCCGTGACATCATCTGAGCTGTAAAGAGAATAGAATGTTATAAATTGATATAGAGGTCTTTGTTTAGTGTTCCTTCTGTGCTATGAATGATAGACTGCTTTAGAGAGAGATAATCAGACCCATGCCCAATAGAGCAGTGAATTCCCAGAGATAAGTGTGTTGTAAATTGCTCCCAATGGAGAGCTAGGCAGAGAAGAGATCCAGGCCTGGCCCCACATGGGTAAGTTTGGGCTAGGTCCAGATCTGATAGGCCAGAGGGAGCAGGCCCCCTCCCTTTGCTAGAATGACTGAGTGAATAAGTGAG
0.5908243177045194 CATCCTCCTCAGTAGTTGGGACTACAGGCGCAGGCCACCATGCCTGGCTGATTAGCTTTTTGGTCTCCAAGGATTAGTCTCTGAGGCTCCATTTCTTCAGCTGCAAAATGGAGATAATAATAGACCCTCTCACCACATCACTTATGAGTTGAGACACTCCATGCCCATATCAGCCCATTGTGAGCCCGTTGTGTTTTCCTGTATATCACTTGCACTAAAATTAGATAAGGGTGCTGATTTTGGAGCTCTTGGACTCCCGTGAATTAATTGGCAGTCAGTGAAGGTCTGCTGTTTCCTAGCACTCTGCTCTGGGTACTGTGGCTTGTATTTAGGAATTTCTGTCCACTTGAGATACATCCATGAAATGTACATTATATTATGTGCCTTATATAGTGAGTGTTGAATTCTGTAGTCACTAAGCATACTTAAGATAAAGATGGGGTTGGTCAG
0.7740932517060527 ATCCCACTCCTATTCTTCTTACATTCTGGTTTCCAGCTCTGTGATTTCAGTTAAATAATAAATCCTATTCTATCAGTAAGTCCTGCCAGTTCTGTCACTTCTCATGTTTATGGGTCCTCCCACCCACACCCCACTTCACCTGTCTTATCTTACCCTCTTTCAGTTCACCCTCCATGCAGCTATCAGGGGATTCTTTGGATAAGGCCTAATTCCTTGGCAGGCATCCCAGCTTCCATGACCTCATCATACCCATCTTTCTCACCTCTCTGCTGGCCCTGTCCTCCTTAACACCCTACCTTCCAGCTATATGTCACCTGCTATTTCTCTCCCAGTGCCTTCTGCTTCTTATCTTTCACCACCCCTCCTGTGTTCCAGTGTGCCTGTACAGTCGCTTCTTGCATGGTGTTGCCCAACTCCACTGC
0.8996558968639581 TTTTTTTCTGGCGATCTTTATCCCTTCTTATCCTGATTCTATTATTTATAGCTGCATTAAAAAGTATCCCAGGCAAGAGGCATTTATTACCTCACCATGTCTGTGAGTCAGGAATCTCACAGTGATATATCTGGGTGATTCAACCTTAGGGTCTGTGTCTTACAAAGTAGCCATCAAACTTGTTTGGGGCTGCTGTCATCAGATGGTTCAACTAGGTGAAGATCTGCTTCTGGACTCACTCACGTCACTGTTGGCTGGCCACAGAAGATCTATTTCTAAACGTACTCATCTGGGTCTCACTTCAGGGCTACTGCATGTCATGGCAGTGGCTTTCTCCAGATGCAAGGGATCTGAGAGAGGAAGAAAGAACCAAAGCACGCAAGATGGAAGCCACAACCGTCTATAATCTAATCTCAGAAGTGATGTCTCATCACTTCTGCCATATTCTACTTATTACAAATGAGTCATTAAATCCAGCCCACACTCACCAAGAAGGTATTACACAGAGGCATGAATTCCAGGAGGTGGAGATTATGAGAGCCCCTTTTAGAGGCCACCTCTAACACTGAATTCAGTACTGTCATTCAAGCCGATCTCAAA
0.6153473928775129 CAGAGGTGGTGGGTTAGGGCTGTGAGTTCCAACCCTCTGAGCACATGGTTGGTGTCCCTGGCAACCAGCACCTCAACCAGTGGGGTTATCTAGAAACTTTCCAAAAATAACCTCATTAACATAAGCTCAAGTGTGGTTAAAAGGGGCTTATGATAAGTAACAAAAGACTATATTTCATCTTTATCACTCTGGAACTGATCCAGAGCTGTTTCAAGAACCCAGGACAAAAGGCCAAATATAACCAAAGATACTCTTATTGCTGTAGTCACTTATGAAATTACACAGGTTATAGGAGCAGTCAGCCAGGAACCACGGACAAAAACCAAAATATGCACAGCACATTTTGATTAATGACAGATGGCATATATGACATAAGTTCCATAAGATTATGATACTGGACTTTCATTGTACTTTTTCTGTGTTTAGGTATGTTTAGATAAAGAAATACCATTGTCTCCCAACTGCCTGCAGTATTCAGTACGGTAACACACTGCACA
0.9378918091684498 AGATTGGGTTACTCACCCATTTGTAGAGAGCAAGAACAAGCTTCTAAGGGTAGACGGGATAGTGATCATCTGTAGCATTACGATTAAAATTATCACTGGTCATGGCATATGATGGAGTGCAGGTGGAAGAAAAAGAAGTGTTGAGACCTGAAGTGGCTCTGGCACTTTGTCACTATAAGAGCAATGGTGATTATGAAAACCCTGGGATACGCTAACCGCTTCTGACTGCTCTAGAGAGAACACACACAGAGAAGGACAAAATGAAAACAGTGAATTCCTGAATAAAAGAAT
1 ATTCAAATTCGAATAAAGATTCAAACTGTTCTCTTGAAACTGCATTCCTTCCTGGAACCCTTACGGACCAGTCTGGTTACCGTGCCCCATTGTGTCTTGGGCTCAAGTCAGCCTTCATAGTGACCCCTGCTGGTCGAAACAATTTTCGAGATGATTATCAGGAGTATTTCCCCACAGGGGGGCCGTAGGGCTCAGTGTAGAAGAGCAAGGACCCCTTTCTGCGCGCTTACTTTGACATAAGATTTTGAAATGTAACGAAACGGAACTGCTTCGGTCCTTCTAAGATTATCCTCAACGATCGAGGCGAACTCTCAAAACGGAGTTCCTATTTTGATGGGTCCTGCTCTCGGAAGGAGCATTCTGCAATTGATTACAGGATTCTCATCGA
0.8694600489845761 AGCTCAGTTCTGTTGCTTTAGTTCTGTTCCTGCTGCCATTTCTATTTTCTGCTCTAGAGGCCTAAGACTTGATCTGTTTATCTTTGTTCATTGTAGTTCATTTAGTTGCCAAACTTTTATTAAGTGCCTCTGTCAGTTAGTGTTGTAAACCTCAAGGACACCTTGTTAACAAGTGATTTAAGATTACTACCTGAAGTGGTTTTTATCTGTTGTTAGTGGGGTAATACCAAATGGAATTAAAATTCAGAGAAACTGCCAACTTATCTTTTAAGGAAATGGTTTAAACCTTTTCTTAACCTGGAATAAGTGTAGTTGATACTACTATTAATAGCAAGTGGTGCTATTGACTGTTACTC
0.4843254388910755 TAGCATAATACATCTCTTTGAACAGCACTGAAATGAATTGAACCAGATGAACTCCGCCTTGTTGTTAGTAGGTCATTTCATGCTTAACAACCCGCAACACATTCAATCCACATCAACTCAACACCTTTTTCACAAAGGACTTTAAAGCTGAAATGGTTTCCAGTGGGAGATAAGCAACTATGCGCCCTGCAGGGAAGTAGTCTTGTTAGTGGCTATCAGCTGTCACTCACTCAACTCCATTCAGAAAAGGCTGATTGATGTAGCTCTGGGGAAGGAAGATAAGGTGAATATGAGTCGATTTATTATTTTTAGCTATGTGTCTAGTTTAAAAGAATTTCATGTGACCCTTT
0.4593221002300253 GATTCAATCCTGAACAGTTTCCAGTAGACTACCCTGGCAAAGTCCCCTTCAAATTTCATCAGCTCTCAAGCAGTCACAAACTGATTAAGATCCTTGAATTGGAATGTCAGTAATACATCATCACCCATTACTGTCTGTGTAGAGGAACCAATTAGTTTAAGCATCAGCATGCAACAGCTTTGTTAGACTCTGCTGTTATCAACAGCATGTTATCACCTTCAGCACCTCCTGGATATGCTCTTGCCGCTCTGCTTCTGTGATCCGGTCCACGTACCATTTGAGCACTTTGATGAGATCTCTAAAATACAGGGGAAAATGTGCAGAATGTAAAATTGGTCTAAT
0.773227921990891 TGAAATAGGCAAGTTAAGAAGCCTAGGTTTAATTCTGTCTAGACACTATCATCTGTTGCTTGTGTAGCCATGAGTAATAATTATAATTATAAGCATCCCTGAAGTCATGTGCAAGCTGTTAAAGTACGTTCATACACATTGTTTCCATTCCATACTGACAAGCCTGTACAGTAAGCATGGAAACTGGCATGGCAAGTGCTGTTATTTAAGTACGTAGATAAGGAAACTGAAGCATAACAAAGTGAAAGGGAACACAGTAAAACCAGAACCCAAATCCAGTTCCTTCTGATTCCAGGTCTAGTCCTTTTTCTACTATATCAAATGACC
0.3046300135534533 TTTATCTATATTTTCTTCTCATGCCTTGAGTCTAATCTCAAACCTTGTTCTCTTCTTGATCTTTGCTAACTTTGTTGTAAATGTGCTCCTATCCCACTATTGAAACAAACAGGCAAACTCTCCAACATTCGCCTTATCTATCCTCATTTCAGCTGAATTTCTTGACAGTGTAGTTCACACTTCTTTATCTCTGATGCATTCAGCTGCTCTCACCACGTTTTTAAAATCCAGTGGGCACGAGTCACCCATGACCTTTTAGTTGCCAAATCCAGTGAACACTTTTCAGTTCTTGTCTGACTTATCTCTGGCATTTATCAGTGTTGACCTTACCATAACTCTGAAACTTTTCCTGTCTTGCTTAGCTTATGTGATACCTTTTCCCTCAGGTTTTTCTTCTTTTCTGGCTCCTCTTCTTCCTTTTCCACAGCTGGCAATTCCTACTCTTACAGCTCTTCTAATGTTTTCCTTTCCTTTCCTTTATCTTTAGGCAAAGGCTATGGTGTGTGTGTGTGTGTGTGTGTGTGTGTGTGTGTGTGTGTGTGTGTGTGTGTGTTCTAGCAACCTCTTTCAAATGAATTCCAATGGATTCTAACACTAAGCTGGAGTGTCAGGTACTACTTGTGATTTCTTCTCTTTTATCTTCCTGGGAGT
0.8464195761274244 TTCTCACAGTACGACTTCTGGTTGAAGGCTTTCCCATATACAACATATTCATATGATCTGTGCAACATGAATTCTCTGCTTTATGATTAGAGCTGATTACTGTGAGAAGGCTTTATGACTTTCAGGAAACAAATAAGTTTTTTTTTCCATATATGAATGCTCTGATGCATACTGAGAACTGATTATCTGGATACCAGGGTGACTGAATGGAGCCCTTATCACAGTCACTGCATTGATAGGCTTTATCTTAAGTATGAGCATGCTGGGTTTCTTCATATTTGACATTTGAAGGCTTCCTCACAGTTAGTTCACATATAGGTTTCTCTCCTGTATGAATTTAGTAACGTAGTTGAAGATGTGATTTCTTAG
0.4934220867570348 TTGCTGTATAATTTTTCAATCAATTCGTATCAAACTCTGTGGGGTTAAAACTAGCTGGGACATTTTGGTAGGCTTCATGCACTCAAGGGCTTCCTGCGGGCTTAACTGTTAAGCCGAGCTCATGGAGGTGGTGTTATCAGAATGCTTAATGGGGACCGAGGGAACGTGCTGGCTGATGAGGTTCTGCACATATCAAGTAATGTCAACTCTGTGCCACTCAGCAGCTGCCTGTCAGCTAGAGCAGCACCTTTGATAAGTGGGTCCTGGGTAGAGATCTGGCAGTCCCAGGCTGGGATTTTTCTTTTAATAAAACATCCGTAGGTTGCTGTGCTGACGACAAATGACCTTGAAGGAGGTGACACAGTGGA
0.7781249673473205 TCGCTTGCCCTCCCCACTCCACACCTTCTGTTGTCATTGTGTTGGGGTTCTAGGAGGTTCATGACATCGCACTTCTCTTCCCTGCTGGAGATCTGAATCAATTAAGTAACATGACAAGGCGACCTCACATGAAAGATCAACATACCCACTTTATTACTGATGAAGTCAATACTGCAGAAAACATCTTTCTGCACACAAGGGCACTTCCTCACTGTGAACTCCAGAACAAGATAAGCACATGTTCCCTGTCAGCAGCCCATTCCCATCAACAAGAGGAGAGCGGAATCAGGCACACTTAGGTTATTCTTGGATTTACTAATCAGAATTCACTCTCCTCTCGCCACTGTGAGCAGAAGTAAAGAGAGAGAGGGAAGGAGTTGAAAGGG
0.6878628041121846 ATTTATCATCGCCAAGGGTTAAGGAGCAATTCCAGTCCTTTCCTACTTCAGGAACAGAGATTTATAAGATGATGCCCAAATTTAGACATTGAGGCACTGCTGGCAGAAACGTCCCCAAAGGCTGATGGCTTGTGTGTGCGTTTGAAGTCAAGTCATTCACAGAGCTAATTTGAGGCTCTCCTCGGAAACTATATTTGCTTTCTGAGTGCATGGTGAGTTTTCATTTGGGCCCTGACCAGCTGACAGCTATGCAAGTTTGTAGATACCAGTAATTGAATATAGATAACCTTGATGGTTGACCTCGTCAGAGCCAGGCCTGCCTGTTCCCCATTGTTTCTGGTTTTGCCAGTAGATACTAAACTGCTGCTGGATGAATTTATATATTAAGAATTCGCTGCAGTGAGAATTGCTTATCGTTCCCTGGTCTA
0.5634373481042958 CCAGATCTTCCTGTGCTGGGGGCAGAGTGCAACTTAGTGGCAACAGTGTAGTGAAAGTCTGTGGATTCCAAACCTTTCTGCAGAACTCAGACATATGATGCTGAAGCCTCTGGCTGCTCTCTTATCCTTTATCCCATGACTCACAATGGATGCCTGTAGCAGGGGTTTGACAAGGTGCTGCTGGCACAATTTTATCTCCACCACTTTCTCTATGACAGATGAGGGATGCAAGAACCTTGGCAAGCGTGGCACAGAGATTCTGCAAGCTCTTCAACCTGTCAAGTAGCAAAGCAAAATCAATCACAGAAGCAACCCCTCGCTGTGGTTGGAGATTAACATCTTTACAAGATAATAAAGGCAACAAATTACATCTGCCAGCACTCAAGGCAGGAGGCTCATAAAGAAATTCTTCAATAAGCAATGAGACTCTTTGCCCTGGCCCAGTAGATTTAGAGAGACAGCTGGAACCTGGG
1 CCCGAAGTGCTGGGATTACAGGCGTGAGCCACCGCACCCAGCCAGAGCTGAGTCGTCTTATCACTTAAAATGGTGTTGACGTGATACTGAGACTGAACACCCTGGAATGTGAAACATGGGAAAAGAAAGGGGGAAAAACACAGAGGCTCCTCTATCTTAAGGGCCTCCAGCCACTTGAAAACACAGTTAAGATTATAAGGTTTGAAGAATGGATATGTGTTCTTGAAATGTTTGTGAAAGGCACCAGGTGCTAGCTGGCAAAGTAGAACAACTACAGGGATTCTGAGGGTTTAACAGGG
0.54152592625197 CAGCCTGGCTGAGAGGCAGCTGGCACGGGCCCAGGCACGATTGCATGCCTGCCCCTGTGGGCCCCACTTCCAGCAGGTCACCCGGTCTGTGTTGTCACCTTGAAACATTCTAGAGAGCTGTGAGCTTCAGAAGGTGAGGCTCTGGGGGCTGGGCTGGGGGCAGGGAAGGCAGCCACGCAGGGTGGCTGGAGAGCTTTTGACAGCCCCTAGCAGAGCCCAGCATCCCATTCCCGACGACGTGAGCCCCCCAGGCAGGCGCCGAGTGGATAAGAGTGTAGACAGCGAGGCCGGCCTGTGACGCTTGCCAGCACCTGCAGATAGCAGGCAAATAATTGGCACATGCTTAAAAAAAATTAAAAACCTCTTGGATGTGAGTATTTTCTAACAGCATCTGGCGGGAGTGCCCGGGAGGAATTTAATCAGCAAGAGTTGTTTAAATGGGGCTCCGCACAGGCCCCGGCCAGGCCCGCCATGAACTCGGCATCATGTGCCACCCCTGTCTGCTGAGAACATTCAATTTGTTAATTCTGCAGCTGGTGAGAGAGGTCAGATAGGAAAGTGACGATTGTTTTCTGACGTTCCAACCCCTGCTCACATCTTTCTAATTAATCCTTTTAGGAGCCACAGGAAGATTAAGAAGGAGAAAAGGTGAGGGAATCAAGTACCAGAGAAATTGATGGAAAGACAAC
0.842663948504625 ACTCAGGTGATATAGGAAAATAAAAGTAAGTAGGCAACAAGCAGTCAACTGATTTATCCAGAAACACTAAATAAAGTTAGGATGGACAATCAATAGAGTATATCAGTGGATGCATCTTCATAAATCTTTTATCTTTTGGAATAAAGAAGATCTAAGTAAATGGAAAGTGATGACAAATATACTGCAGCTATAAAATTGTTTCATGTTGATAAGAAGTGAAGTGTTGAGTGGGAAAAGAGCCAACTGCATGCAGTCATGTGCTCTTTTCCAGACCCTTGGCATTCCAATCAGCAATGCTGAGATGAACACCTTTGTTATCTACGCGTGAGGTCAGAGTGACCATTTGAAATGTGACACTGAATACTGAAGGTTATTTAGACCAAAATTATGGATTGTTTTGTAACCAGACCCCTTGAGATTTTAGTGCCCTAGCAT
0.5424026423224629 CCCATCAGGCGCTGCGTATCAGAGCTGCACACCTGCACCAGCAGAAGGAACAGGACCCCAGGCTGCAGTGAGCAGGCGACCTCAGCGCCCTCTTCACTGAAGCACTGGAGCCTGGGCGGGTTTCCATCAGCGGAGTCAAGTAATTGAGCTCAGATTAGATTAAACCCAGACGCATCCCGTGTTTAGTGCCAATTACTCACGGCCAGCAGAGGCGGGCAAGGGGTCTGGACTGTGTCACGTCGTGCCTTCTTGGAGGCTGACTGCTCCCTCCAGCTCAAGGTGAGTTGACCCGAAATACCAACAGTCGTGTCG
0.3024397615664257 CTGCCCGAGAAGAGAAGGAAACACCACAATGAGCCTCGGACACCCACAGTCTGAAGGGCCCGGAGTAAGCCTCAGACGCCCACAGTCTGGAGGGCCCGGCGCTGTGAACGAGCAGTCACAGGGAACAGCGTGCCCTTATCGCTGACACAGGCTCTGGAGGGCCCGGCGCTGTGAGTGAGCAGTCATAGGGAACAGTGCACCCTTATCGCTGACACAGGCGAGGGCTTCGTCTTCTCACAGCTCTTATCTTGGGTGTCACCCCAGCCAGAGTCAGGGCTGATGGCGGGGGG
0.1783757638937797 CCCAGACTCTCAAAGGGACAAACACATGCAGGAAAGTGATCCTGGAAAGAAGGGGTTAATATAAGCTGCACAGTGCACTCAGTGATGCCTTAAATAATTGTCACATGTCCCCTATAATCTGTCCCATGCTGTCAGCACTGAGTTAGTCATAATAATATCAGATAAGAGCTGTTCAAAGTGACACACTAACCAACATGGGAGCCACATGACTTTCTGGCTTGGCTACTGCCCTTCAGCTGAACTTTGGCTTAGAACACAAGGCTCCCAGAGGCAGCCTGGCACATGCCGCCGCGTGGAGTGTCCG
0.862436036088078 TAATTCATGATCCCTTTTCTTAGAGCAACCAGATTTTTTAAAAATATATAATCTGTAAGTTTCCTACCCTCTTTTGCTTATCCCTGTAGAGCTCAGGTCCAGATACTTGAGCTGGTGACAGCTCCATGCCAGCACATGGATTCCTGCATTGGTAATCTGTCAGCAACCACTCACATTGAGATACCTAGAGTGTAAGTAAAAAGGACTTAATAGAGGCTTTTCACAAGTGGTCACACTTAGCTTCCCTTCTCCTATCTGTAGAACAAGAATTGGACAACTAGCTGAGAGGATGCCTCAGTGGAGTTTGCTGTTATAAAGATGAAACATACCA
0.3741782765846932 ACACCATCTCACTTCATTTTCCAGAGATAAGGGCATTTGTCATGCGTTTCTCAGCCCACCACTTAACAGTTCAGGAGTGGAAGCTTAAAGTGTTTCCCCCTCCCCCTCAGGACACGTGCATTTAGAAGAAAGGACAAGAATCCATTTCCTTATGTAGCAGAACCTCTGATAGTTCTATCCCAGTTCCCAGCCACTTCAGAGTGAAGACAGTCACCCAACACCTGCTACTAAAAGCCCTTATCAGCCATGTTTTTGCGGTTAATCTCCTTCTGATAAAGTGGTTCATTTTTCAGAGCTGTGAATATTGGTGACATGTAGGAGGGACCAAAATTTTCAGCCCTCATTCAACCCTCCCTTGTTTTTTATCAGTTGATTTTCCCATGTTAGAAAAGGACAGTTGCTGGTACAATCTCATAAAATGGGCTCCAGTGTTTAGAGAAGGACAGTCAGAGGAGTGG
0.2355854351302632 TCAGGAAGCTTTCCTAGCTGGTTTTGTCTACAGTCACACCCCTCTGTGCTTGCCCCATCACACTGCTGACAAAGCCCTTGATTCTGAGTGATGGCACTCCACGGTTCCCTCCATCACAGGTTGGAAGATAAGGCCTGACTTATAGATAATGGCACTTGTTTTGCTCTCTCTGAAGCCTGTTCAGTCCACATGGCCCAGTGCTCTGGGGGTTACATTGCTGGCAGTCCTTGCATTCCCTGCACATTCCCCTACAGTGGACTCAGGAGTAAGAATGGCACATGGAATGCAGGCAGACACTTGGTCCTATTCTCCCGCCT
1 ACTCCTGACCTCAAGGGATCCGCCCATCTCGGCCTTCTGAAGTGCTGGGATTACAGGCGTGAGCCACCGCTATCTAGCCCAGGCTAAGAGCAATTCTTACAGATATTAACAGCTTGTACAAAACATCCCACGCCCCTCCACAATTGTCCTCACCCACTTGAAAGTATGACTGCAATATGTACACACATTCACGTTGGATATAATGGCAATGCTGCTCATACTCCACACTTGTATTCTAAGTAGCTGACTGCATGTATGCCTCCCCCTGTTCACAAGTTCTATAAAGTCAGAGACGCTTGGTTTATCTGC
0.7221965346745954 CCTAACTGTATACTCATACTACAAAAATAATTCAGTTGGCTTAGGTTCAAAATCCAGCCACAGTGTCGCTATTGTGCTGAAAGGTCTTTGCTTGTTGTTATTTCTCACTACTTCTGAAATCCATTACAACCCTTTGGTTATCTTCAGTGCTGTTGGTTCTGTCTAATTATTCCCTAGAGATAGACTAGAAAACACAGATATGAAAGTAAGGCTTGAGATTTTAATGACAGCAGGTTGGAGGTGGGCAGTGAAAGTGACTGACAAGTAGATGATCTTTCTGCATAGACTCTATGC
0.7650660370350222 TTGGTCAAAAGCCTTGCTGAGTTGAATTTTCTCCTACAACAGCAGCCCAGAATGCACTCTCTCTGCACTTGGTTTGCAGGCTGGCTTATGGAGAGTCAGGGGTTAAGTGTTCTTCCAACTTTGCAAAAGATAAATCAGTCATCTACTAGGAAAAGAGGAAAATCAGAGATAAGCTGAAAGCATTCCTCTCATAATTTTCCATTCCTGGGGAGTAGATTTGACATTTTCTTCCCTTAATGGAAACATGAGTCATGAGGAATAAATGCTCCCTGCTATCAGTCCTCTCTCTCCCTTCTAGGGCTTCTCCTGGTTCCTGTTCGGCCCCCAGAAAGCTTGTCTAATCTTGGCTAGCCTGATCCAGCCTCCACCAGCCCCGATGCTGCTGGTATACACTTGCTCCTTAACCACACATACTGTGGTTTCTGCTTTAACAATCAGC
0.4323784252583809 ACAAACCCCGCCACTTTTAAGTTCCACCTCCCTTTCTAGCTTCATGCATTTCAAGGAAATCACTTCCAACTACAAGCAGCCAGAAACAGCAGACAGTAAAACACAGATAAGACCCCTGGGGCACAGAGGGAGGTGAGGGAAAAGTCTCTTGGGTAACTGCCAAACTTCACCCTCATACACTGGGCCCCAGTAAAACAGTGGGCCTTAATAAGCACATTCCTTTCCATTCAGGTGCACTAAGATAGGGAGGCTAAAAGCAGACTCGGGGCTATGCCTGCCGCGCAGAAAGATATATGGGAACAGACACACACCTCTCCCTCCCAGATAAGCATAAGCACCACAAAGAGACACAGAAGCAGTCCAGGCTTCTGATAAACTCTCCCGCCCTGAATCCTTGAAAACTCTTAGTCTGTAACA
0.3657128318517877 CCAGAAGTATATACTGAGGGTTAGAGTCCTACCATGTTCGTGAGAAAGTCCTGGTTAACAGTGCAGGATCCTAGTGGCCTTGAAAGGGTGGAGGTGTGTGCAGAAAAGAGACAGCATAGCAGGCCTGACTGCGATCCTTGGAAAGGCTTGTTTACAAGATTAGCTCCTGACTGTACTCAGAGTGTCTGGGAATTTGGAGTGTTTCCGCTATTTTCAGAACTGATAAGAATGGCATTCTATGCCTAAACAATACAGTTTCTGCTGAACACCTGCTTTCCCTCAGGGAGTCTGGAATTTTGGTATGTGCCAGGCAGAGGCTGCCTGCATACCAGCCTCCAATAAACACTGAATGCTTTGTCTCTAATGAGCTCCACTACTTGGCAATATTTTA
0.6911818237518846 TGCATGTGGGTCCTAAGCCTGAGTTACTCCATATTCTTTCATTTCCCTTACTGCACACGTGTCAGGAGATGGAATTTTCCACCGCCGACGTGTCTGGTTCTACGTAACATTTTTATCTATACAGCTGCAGGCCTGTCTTAGGAAAGCCCCCTTGTGCAAGTTCCCTTATCTGAGTATGCCCAAAAAGGAAAGGAATGTGCTCAAGGAACCCATCGTATATAACTGGAGCTAGCTGGTTGCACAAGAGATAAAGGTGTTGGATCTTGCTTCCTTATCTGCACTTACAGCTTGATTTCTTCCAGGTTGCTCTTTTGATAAAAGGACTTCTACCACGGGACTTGTCCTAACTATTTGCCTAACCAGTTCCTTCCTCTCTCTTCCCTCAAAATGACCATGTTTAACATGACTCAAAAGTCATCAAAAACTCTTTCATTATGCTTCCTCCTGCTTGAGTTTGCAAGATTATGAAACTGCCTTTGAAAAACATTCTAACTGAGACAATGATTACAGTGA
0.2068179331776276 GCCATACTGAGAAGAGAGGCTCATCTCTGCCATCTGACAACAGCTCATTCACAGACTTGGAACCAGGCACAACACTGGTTCCCAGGCAACTTCTTAGATACCAGAATTGTTTCATATCAAATTCTAAAGTAGATCAGTTGTTTCGGCTGAGGCTTAAATGGCCTGGGTCTAAGTGCCCTTTGTCAGAACAAGGGCCTTGTCTCAGCGCTGCATGTGATGGGAGCTGCCGCTAGAGGAAGAACTGTTGACAATGAGATAAGAGCCAAAAACAAGCCCCCTCCTGGATCACTCTCTGATGACCTTTTCAGTGGTCTA
0.2772396453864588 GGAGTTGCAATTTGCAACTAGCACTATTCAAAACACCTTCATGCATTACCTCATTTAATTATAGTAAGCCCTGTGAGGTGTTAACAGTTACTGTTACTGTCACCATCATGGCCACTTACAGATTAGATAACTAGGACCTAAAGCTGTCAGATAACTTACCAAAGATAACACAGTAACAGTAGACCTGGAATCCAAACACAGGCGGTTTATTTCTAGAAGTGTGCTCTTAACCACCATGCCACCTTGCCTCTACAAAGTGCCAGTACTTAAAAAAAAGGAG
1 ATTTGTTCATTTTAAGGGGAATGCATAGTAACAGTTGTGATTTGTCCTTATAGTTGAGCCTTCAACCCTGTGACACTATAAATAAACTGCTCCTGGAGCTGCGGAAATTGCCCATTATCTCCAAGAGCATGTTCTGATAAGAGTCCATCAACATGAAGCCAAAACTCATTCAGAGCATCAAGAGAGGAAAGTTTCTAGTGATGGTTTGGTCATGGTCTCTTTCAGGATGATTGCATGGCAGAGGAAGGAATAAAACTGTGAAAGAATTAAAGTTGGTGGATGCGGAA
1 AAGTCGTTCCCCAGTAAACTATGAGACCCTTAACTGTGGAAGGGAAGGCATCTTTTTAACCTTTGTTTTTGTGCCATACTTAGCCTAGAGCCTGACATTAAGCAGGTACTTCTCAAAAAAAAAAAAAAAAAACACAGGGTAGAGACAGATAACAAGGGATTCCTGACACCTACGCTGTAGATAGCTATAACATTTCAATAGGAATCTTGGGAATCTGGGGAACTGGAAGCAGCTGGGAAAGCACCGGCATCTGAGCCACTCAGTACTCTTCCAGGCTTGTGTGTGAGCCTTGCCACCTTCAGGTATTAGCA
0.2057213137913643 TCCCAAATAGAAGAAAAAGATGCCGTGCTTGCAGGTCAAGGCTGGAAATATTTTACAATAGGCAGAGGCCTTTGGCATAGGCAGACATATTAAGCAGTCCTCACACTTGCTGTAATAAGAATCCAGACTTTGGAGCTTATCTTATCTGCAGTCAATATGAGTTTGGGCAGTCATTTCTTCATCTCTCCACCCAGGCTCAGGAAGTTGTTGACAGGATTTAGTGCTATAATATCTATAAGCTCTTAGCTCAGGGTAAGCTCTCGGGTTATCACTGACTATTTTTGAACAAGGGAAGCACCCTATAGTATTTTGTAACCTTCTCTTCTT
0.4402241732410201 CAGGCAAGGCCTGGGAGAGTATAAATAAGCGTATGAATATTTAGCAAAAATGACTGCTATGCAAAGCTTGAAGCACTGTTGTCATAATGCAGAGCCCGCTTTAATCGCAGCCACAGGGAAAGCATTTGTCGCTGTCTTATCACACAGGAATGATTTTCCCATTGGCAATGGCAGCCTGCCAGCTGGCTGTAAAGCCAGCGCCTTCCTGGTCTTTCAGGTCGCAATCTCAGATGGCATGCACCACCACTGCCAGGCACTGACATTTCTATTTTTGCAGGACATGCTGGGTCAGGAAACAAAACTGCAGAATCACAGACTATTTCTTATTTACATTGAATGTGAATC
0.4967671023572923 AGTATAGGAAGGTTTATACGTTCAAGGAGAAGGAGGAAAAGACCTCAGAGAATAACTCAAAATGTTATCTCCTATAGCTTTTCCATTCTGTGTCTATTCATAGCACTTAACGTCCTTATCTTTGTTAGCACTTTGCATTTACATTACACTGTGAATCCTCTGTTATCTTTAACATTTGGTAGAGTGTTTGATACATGTTCGAATGGTTTATTTTTAGAAGCAACCAGATTGTATACCCTTATGTATGTAGCTGAGTCCTAGGTCAGTTACTTTCATGTAAAAAGGTTGACCAACATCTTGTTAGGAA
0.1677114503359419 TAGGACTGGTCCCCATCAGAGCTGGCGTTCTGGAGACCACACAGGTGCTGACAGCCCCGGGCACTGATGTGCGTCAGCTCGGGCCGAGTGCTGGCTGCCCTGGCTGGGATTGGCAGCAGCACTTCTGAGCCTGGCGCTTTATTGTGTACTATCTTATCTCAATAGGAAAAGGCAATTCAGGGGAAGAATTTCCCTGTCACAGTGCTCCAGACTTTCCATTGTCCAGCTTTCTTAGTCCTGGGTCATCCCCTGGGTCTGACCATTACTCATATCCATGGAGGCACCTTATCAGGGCTGTCTAAGATATGGGGCCTATTTTTTTCTCAGTACCAGACAAACTGGAATTTATCCACCCTTTGTGGCCTGACATCACACGACAATTAGTCGGCCCAGAATCCAGCCACATTTGGGAAGCT
0.8763343532524751 TCACAGTGAGCTATGATCGTACTACTGCACTGTAGCCTGGGTGACAGAGCGAGACTCCATCTCAAACAAAACAGAACAAAAAAACCAAGTATTTACAGAGACATGAGTCATCGAGAGGCTATCTAAACCGAGATAAGCTGCAGTGCAGTGATGACAGTTTCTTTCCACTTCCCCGGAGGGGCTCATGGCTCAGCAGATCAGCTGCAGGAAAGAGAGAAACATCGTCTCTCCGTGCGCCTTTCCTTGTATATTAATCTGCGATCCTGCTACACATGCCACTG
0.3541874675510628 TCAAAGCAGCTTAGGCGTTGGAACCCAGGGAAGGAAGAAGAGATTAAAAAAAAAAAAAAAAAGCCCCACTGCCAGTCGGGCAGCTCTCTGTCTGCTGTCTGCAGGCTGCTGCTACCCACTCGTTACAATTAAAATGAAGTGTCCGTCAGCGGCTATCTTCTCTGTGTGGCCCATATGTTTCTGAGCTGATACTGTCCGGATTATTCTGTTCGGGAAAACGATAACGGCTGTTTATAACCTTGGCAAAGACTGAGGCCTAATCAGGCTGGAGCACATTTTCACCGACTGGCTGATAACAGGCTGTTAGCAGCCTTATCGCTCGGGAGAGATAGGCCAAAATAAGCAGATCTGTGAGCACAGGAGCCCAATCGAGTGGTACACACTCTGGCCCTGGCTTTATTTTTAGATTTTCCTTTCCCGGTTGATATCGGAAGGCACAGAGGCAGGAGGTGGGGTGGATAGTAATGTGTGCCCCCTTGGGGGTCAGAGTGAGGTGGAGGGGGATGTTAATCACCATGAGAGGCAGAGGGTCAGCCCAGCTTCCAGTGCTCCGGGCTCCCTTCAAATGAGGGAAAACA
0.4708159745330908 TATGATTTTTATAATGGCCCAGTCACTTTATCAGCTGATGTGCTGCTTATTTGTAAGTCATAAGGCATCAGCCTGGGGAACCCAGTGCCCTTCAGACACAGTGACTCAGGTTTGAGCCGACGGCAGGGACGTTATCGAAGGTCCACGGTTGGGCTATTTTTATGATTGCATTCAGTACTAATAGGGCTTTTGGAGTGTACACAGCCATGTGCTCATTGTTGAACTATACAAGATAAGATCCTTGTCCCAAGGAGCTTACTGCCTGACTTTTGCAAAAACCAGATGGCAGAAAATGGTTTCCCTCTGCCCATCAGCAATGATTGAGGGGGTGGAGATGAGAAGCGGTGCAGTCAATTCA
1 ACTGTAATAATGATGCTTCTGTGAACTATCCTGCAGTAGAAATGTACTGTTGGTGTTTTAGATTTAAATATGTGTGCACTCATCTTAAATATATCGCCACAGTTATTTTCAGCAAAGGGCACACGGTAGTCAGGGGACCTGACTATCTATTCCTGACTCTAGAAGTCTATTTTAGTCTTCTCGTGATGAAGATAACTTACTTACCTTATCAGAGTTGTTGAGGATTACATAAGTATGTTGATAATAGGCTTTTTTAAAGTAGCACTAGAATTTTAGTGTTCTAAGAGAGATTTACAGCCATATTCTCTACTGCTAGATTTACAAGTTTTGTTTTCTTTCCCTTGGTGG
0.997334525806538 TCGAAGAACTTGCAACAAGTTAGACAAATTTTCAAGGCTACCTGCTTTACTCTTCCTGCTCTTTCCCTCCTCCCAAAGAAAGAAAAATAAAACAACTCATGAGTTCAAACTGGAGTGGCAGCCACAGTAGATAAGCAAAGAGAAAAGTGGTGTTATCTAGAGGCACATACCAGTATTTAATCTGCAGTGGGCCTGAGACAAAATAGGAAAGAACTAACTAAGATGCCTGCATGACACGAGGGCCCCTGGAAGAGTGCTAACATGCTCCCAGTCAGTAGCTCCCCCAGTTTCTAATTCT
0.5814091304858723 GTGGTACAGAACATGTCTAAGCATGCTGGGGACTGCCAGCAGCGGAAGAGATCCCTGTGAGTCAGCAGTCAGCCCAGCTACTCCCTACCTACATCTGCACTGCCTCCCGTGACTAATTCCTTTAGCAGGGCAGATTAGATAAAGCCAAATGAATTCCTGGCTCACCCCTCATTAAGGAGTCAGCTTCATTCTCTGCCAGTCAGAGCTAAAAATAGAAATTGTGTAGGAGACAAACCTTGTTAATTCCCTAGAAATACATTAAGAGGATAGAGTGGAATTTTTTTTCTCTGCAATCTTGCATTTTTTTAATGGCTCTTTTTTTTT
0.5151351849522737 TCAAAAACAAACTAAAAATGGTACATTGAGAGAAGTGGCACTTGCATCATTGTCAAAGGCCAGAAAAAGGTAGTGCTGAAATAAACCAGGCTCCTTTCAACAACCTGGCCACAGCTTATGGAGCCTGGCCACAGAGTCCATGTTGTCTTATTCAGATAAGATATAGAAGTCCTCTTCATTATGTTAAGTGAAATAAGCCAGGCACAGAAAGATAAATAGCACACGATCTCACTTACATGTGGGATCTAAAAAGTAGAACTCGTAGTAATAGAATGGTGGTTACCAAAAGCTTGGGGTGTATGTAGGGGAAGGGGGAGAGGTTAGTC
0.4043223803065032 GGTTAGCACCCCAAATTCTTTCAGGTCTGTCTAGATTTGAGATCCCTCAGCTAGGAGCCTTATCTGGGTATGTAAGACTTCAGTTTCAATAATAATAAAGGTTGATTTATCAAAGCCCTACTCAGCACCCAGCACTATGCCTGGGATATGACAGGCACTATTTCTAATTCCCACAGCCACCCTGAGAGGAAGGTGTTAACACCACCTTATAGATAAGACTGAATTAAGGGCTCCACAGCTAGTAAATGATAAAGCCAGGTTCCGACCCCTGGTCTATCTGACTACAAAGTGTTGCTCACAATCTCCTGTCTCACTGAGCTGTTGACAGCAGCCTATTCAGTGTTCAATAACAGCAATGACAACAAAAATGAATTTCAAATTGAAAAGGCAAGAAATCAAAGTCTAGAACTTTAGGGTGCTGATTTTCTTTCCTACCAAGAA
1 CAGAGAGGAATGAAGGTGGAAGAGGAATCTAGGGCCATTTAGGGAAGCCATGAAGCCTCCTGCCCACACTAGTGGGTAGAGTGGAGCCAGGCGTTTTGCTAGGGCTTGCTATATCTCTTGGCAGGGTGCTCTGCTGCCAAAGCCAAGAATTCTAAATTAGATTAAATAGCCAGAAAGAATGTTAAACATTTGGACATGATATCCTCCCTCACAGATTAGCTAGAGTGTAGTTCTGCTGTGCTAGATACTTAAATAAATACCTCCCTAGCTGTGAAGCCTGCTTATCACAGTACTATATTTTAGGATGAGGTCATTATTTTCCTATGCATACACATGCATTGTATAATCTTGCCAATGTAGGTCAGCCCAAAAGAAGTGACAAATGTGTAGAACACACATTGGACT
0.9927688899998712 GGGAGGGGCTGCAGCGAAGAGGAGAGGGGGTCCTTCGAGTCACTCTCTACGCGCGAGGGAAGACAGGCGTTGAGGGACTGCTGGGAGGAACTGTAGGAGGAAGGGGCGGCGTTTCCGGTGGGGAAGAGTGGAGGCGTGCAAAAAGGAAGAGGGAAATCGGCAGGAGTGATAAGAAGGGGGAAGACTTTGAGTGTAACTCCCGTTCTTTTGGCCTGGGTGTTCCCGGTGGTGGGATTGGGATTGCCCCCTTGCGCGGGAGGAGAAGGGTGGATTGGCAGGAAGCCGCCAAGCGCCACCAGCCGGTCTCTCAGAAGCCGCACAGGCGCCACACAGCTCGTTGATCCCAAAAGGGAGCGCTACAGAGAGGCGGAAATCACTGAGG
0.6588388877948969 TAAAAGGGAAGTCCCTCTCCTAACTCCAGCATACGCACTCATCTCTGGGCTATCAATAGAAGCTAAAGAAAAAATTAAAGAAACACTGGCTGCATGCCAAATTTTGGGTTAATAGGGAAGAGAAAGCTGGTTGGCAATCTCCCTTCCTAGTCCTTATCTTTTCCTCCCCTTATCTCTCCTGTGCTAGGGGTGCTGGGATGTCTGTACTCTGTAACCTCTTTCTCTGAATGGAGACAGAAGCAGGAAGTCAGGTGCCCTGCACTTTAATGTCTTATTATTCTTCTCCTTGAGTAAATCCTAACTGTTAACG
0.5016900100807844 GCACAATCAGACGTGGAGCCCGTCGGACTATTTATACCCCTTGGAACATCAGCAGGCCAGCCAGGAGGCGAAGACCTTCGCAACATGTCCAAGGCCCGCAGCTGCTACCCCTCCTCACCCAGGGCTTCCGTGAGGACCTGCTCAGTGTTATCAGTGCACCCACTCCACAGATAAGAAGCTGTGCCTGGCCCCACTAATGGTATTATTTTAGGGACCACTCAAAGGACAGGCCAGGATTGGGGCCTGGGTCATCTGTCATTCCTTCCTTCATCGACACGCTAAATAAGGGTCAAACAGAGACCAGCACTTGTTTGCAGGGCTGGAGGGGCTCTGCCAAGCTGGAGTATCATCCTCCCCAGAGACTGCTGGGAAAGGC
0.7621517776998739 ATCTTGATGAAATCTCATTGAGAAATAAACAACGTGTAACTATGATTGCTTTTAAACCTGAGGAATGGCTGCTGCCCAGACTGAAAGAAAATCGAAAATACTGCTGTTATCTGACTCCCAGAATAGCCGGCTCCTCCTCACTTAACTCTTACAGTTAATCTCCAGCCCCCAGAGGTGGGCCTCTTACACTTCCTTATCAGGGCACAGAGCATTTCTCAGGCGCTCTTTCCATACACGAAGGACCATAGTTTTAGCTGCAAGATCTGAGTTTATGTCCAGTCTTTATTTAACAAACAAATGTGTTCTAAGCTGCATTTTGCTTTCTAC
0.5959610976530486 TGGATGGTGGGCTCATTCTCATTGATAAAGAACACTAAAAGAGTCCGAGCTTAGAGCAAAAAACCATGTGTAATTTTGAACTGGCTGGCTTGGATATACTTTTGTGATAGCCAGTGTGATAATCCAGGGGAGGTTAGATAAAAAGGCCTGGAATTCATAAAGGAGGCCTAAACCAGAGATTGTAATGCTTGAGACTTTCTTTGTAGGAGATAAAACTGTCAGTGTGGGTGAGTTGCCTGGGGAAAGAGAACAGACAAGAAGGTGACCTAGGTTTCGTTGTGAAGTACAAGGCAAGAGCTTCTGCTGAGAGTTATCAAGGA
0.05749204059749299 CAGAGAATACAAGTTCCCTCTCCCTACACACCCACAATTAATAGCCCCTTCTCCTTTCAGGCCCCAGAGGAGTGATTTGGCTACTCCTCCTCTTGCCAGCCCGGATTTAGTAGCTGGCACCTCCTCCTTATCACCCCTGGTTCCTGTTTGCCTATCAGTAGCCCAGCCACTGTGGCTCAGGACCCTGCTTTAAACCTGCCAGGGGGCCTTATCTTATCTCCTGGGCTGCCTTCCTAGCAGCCCGCGGGGTGGCTGGCTGGCCGGGTTCCTTAAAGGGGCTGCACTGCATTCCCACTTGCTCCATTCACCCTCAAGAGTACCCCAGAGATCTGGAGGTGTTCTACTTGTGTAGGGTCAGAAT
0.6212484899821203 AAATGACAAATTAGAAAGTCCAGAAGACCATGCAGTGGCTGCATAAAGGTGACAAAGCTCATGCTTGTGTTTCTTTAAAAGAAACTTATCACCCTTCGCAGCCAGGTCTCCTTTAGATAGCGTGCTTGGCCGGGAGCAGATCAGAAATGGCAAACTAAAGATAAAGACAATCACAAAGGCAAAACCAACAAAGCGACAGCTAACAGCTTGACAGGAAGAGAGGGGACAGAAAGCAGACACAGAGTCTCTAAGCACAGCCGTCTGGTTTGGGGCAAACAACTTTTTGCACTTTACCGTGCC
0.7538562814551885 CTAGAGAAAATAATTTTAATCTACTATTTCCTGTATTTACATTAGCTAAGTGCTATTCTTAATAATAAACGCCCTCTATGGATATCTCTCGCAGGCAAACATGAGACAGTTGGAGGGCAGCTCTTGCAATCTTATCAGAAGCTGAGGTGAGTGTTACAAAGGACAGACCGTCCCTGGCCCTCCGGGGCAGGAGCGCAGAGGACACTCTGCAAGAACTTATAGGTCTCTTGACTTTCACATGTCACTGCTTTGGAATGTGACTCTTTTTTTTTTTTTTCTTTTAAAGATAAAGTTCCTGAAAAAGATTAAAGCAGAGATGTTTCCAGATTCTCATGAGAAACCTTCTAGTTAGCATAGTATTTTCTCACTAGACATTCAGCT
0.6005874636654733 ATTCCTGTATGCCTGAGTCACCCCACCCCCACCCCCTTTGCTCCCTGTAATATAACAGGGACAGATTTAGACAACTCAAGTACAGGGTACTTTTAGAAACAAGCTGCTACTGAAATTTAGTCCTCCTGATGAGAATCAAAACACCATATCCTATTTGAAGACAAAGCTTCTCATCTAGTGACTACTGATAAGGCAGCATGCTGTTTACACGTCATGAATTATGGGTGTTGAAAACTTAAGTGGGATCCAATAGTTTCTTGTTGAAACTTTCTAGACCCACTATAAACCTATTCAGGTCATTGGTAACAACAGATTAGATAGACAGATTTAGTTTATATGTTTGGATATTTTCTTGGTAATCTACTGTGCTTTAAATAGACTGTCATCTATTTATATTTATGTGTTAATATCACTCT
1 ATAATCGAATGGAGTCGAATGGAATCATCATCGAATGGAGTTGAATGGAAACATCACTGAATGGAATCAAATGAAATCACCGAATTGAATCAAATGGAATGATCATCAAAGGGAATCAAAGGAAATCATCGAATGGGATCAAATGGAGTCATCGAATGGAATCAAGTGGAATCATCAAATGGATTTGAACAGAATCAACATCGAATGGAATCGAATGGAATCATCGAATGGACTCGAATGGAATCATCTAATGCACTCGAATGGAATAATCATCGAATGTAATCGAATGGACTCATCCAATGGAATCAAATGGAATCATCAAATGGAATCGAACGGAATCATCATCAAAAGGAACCGAATGGAATCATTGAATGGAATCAAAGGCAATCATGGTCGAATGGAATCAAATGGAAACATCATTGAATAGAATTGAATGGAATCATCACATGGAATCGAATGGAATCATCGTAAATGCAATCAAGTGGAATCATCGAATGGAATCTAAGGGAATCATCATCGAATGGAATGGAATGGAATCATTGAATGAAATTTAATGGAATCACCAATGAAAGGAATTGAACGGAATCATCGTCAAACGGAATCAAG
