svm_type c_svc
kernel_type gkm_esttrunc
L 11
k 7
d 3
norc 0
nr_class 2
total_sv 1722
rho -0.0471427
label 1 -1
nr_sv 918 804
SV
0.3442397600685889 TTTTGGCTCATTACCATGAGAACCTTCTTCATCAATCTTCTGAAACATGATCCCTTGAGGCTTCATTCTCATGTCTTATCTAATTCAACAATCTAGTTCTGTTATCTTTTCCTATTTTAATCTGGAGCTTTCAAGACATATTTGCCTAAATTTTCGTGCATCATTTGCAAAGCAGAAAATTATTAAATAAGACTCGGCTGCAGACTGTGCATTGGTGCACAATTAGTCTGAATCCTCTGAAAAAGCTGAGATAACCTCTGCGAGAGAGGCTTATCTAGCTTGTTTTTACAAATCGAAAACAAGGTGCTGAACAAGGGTTTATCTCAACCAGGAGAGCTACTTGAACAATTTAGATAACTTTCTATTTGCCAGCCAACTTTCTGTTATCAGGAAATACTATAGCAAGAGGTTGGCCGTGTAAAATATGTGGAAATTTTCAGCATACACTTATATTCCAGCGGGAAAGATGATGTTGTTTAAATAACAGACAAGTGATGAAATGCTATTAAAAGTGTACAAAGTAACTGCCAGTCAAAAAAGCCAGAGCAAGCTGTCACAGATAGGCTCATATATCAACAGCACTGTGACTTTTTGTTTGCTTTTTATCACAGCTTGGTGTATAAAGAGCCATTTA
1 TCTGGCCTACCACCTTAAGCTCTTTTTATGGGAATTGCACAGTAATGATTTGTAAATCTTCCAAAGAAAGGTGAAAATCAGAGAAGCAAGAATTCCCGAAGTCCTGATGTTTCACAGATTAGTAGCCTGCCATTAAGAAACTGTGGGGTTTGGGTGAGTGAGCTGGAGCCATAAGCATTATCAGGTAAAAGTGAGGTTTCCTGGGGCTGCAGAAAGAAATGAGCTTGTTACTACTTCTGGTATTAATCATAATAAGTGTTTTATCTAAGCCTGTCATGTTTAGTTTCTCCATGCAATTTACCTCTCAGGCACACTGTTCACAGTATCAGTTGGCCTTATCTTTTAACTTATAGTCTTCAAGTGCCTAAATGTATTTCCTCCAAAGTTCCCACAGTTAACATGACAAAGTGAACATCAGTGCTATTTTAAGACAATGCCGCACCCGCGTTATGAAAGACAGAGTTGCTTATGCCTGGCTACTCCTATCATCTGTTGAAAAGCTTAACAGGCAGCACTGATTCTTTGCCTAATTGCAGTTTTGCTGTGAGATTAGCAAGATTTTAAATGTAGAGCCCAAGTACGTGCTTCAATACATTCATTTATTTCATTTTTCACCTTTGCAAAGAAATAAAATAAAGATCTACTTATCCTCTATCTTGCTCGTCTTTTATCGACTGACACTTGTTAGCCAATGGAGTCAAGTAGCTTTTGAGGGACCATATTATGAAGCTCAATTTCTAAGAATCATAGAACGCTACTAGGAGCAACCATACCAACCAGCAAAGAATTCAAACCCACAACAATGCAGAGACAGACTTTTTGCTAAAAATAGAGGAAAAAACTAGTA
0.8428494953320537 GCAAAGATATGAGGGAGGGCAAACAACTGCTTCTACGTGTTTTGTTTTGTTTTAAGAACTCAAAAAAGCATGGTAGGTTCTTTGAGCAAGGCCTTAGTTGTCAAAAGTTTCTGAAGCCCTCAAACCAATAAATAGTATTATTACTAATTAAAAGAGCAGATAAACTGAGAAACAAAGCACTTAGACCTAGGGTGACATGGTGAGACCAAAACTGAATTCTGTGTCTTAAAATTCAGTTATCTAATCTCCCCACTTCATTGCATATTCTACTAGCAGTCATTCAGTAAAGTACCTTTCATCACTGCAGGAGTCTCTCTGAACACAGTGGCTTTGGAATAGGGTTATCTCCAGACATTGTTGACATCATGTCTCTGCTCACATACCAATTGAGTGAATATTGGCCCACATGATTCTTGTAAGTGGATTACAAGAAATCCACGATAGACTTCATTCACTTTTGATGAAACCAAGAACTTTCCCTCTTGAGCTACCTAATGAGATACTGTTATTTGTTTATTATGCAGGGTACAGGTTGGGGCTTGTTAGCTCTCTGAATTCTTAAGCACTC
1 TTGGCATGACATTAGAGACCCGATTCCCTCTCTGAGTCTCGTTTTCCACATTTATTGGACAGGGTTGGGGTATGCATCCCCACCTAGATCTCTCATCAACAATAACACTGAACCCTCCTCTCTTTCCACAAATTGACACAGATATAAAAATCTGCTCTGGCCAGGTACAGTGGCTCACGCCTCTAATCCCAGGACTTTGGGATGTTGAGGCAAGAGGATTGCTTGAGCCCAGGAGCTCGAGACCAGCCTAGGCCATATAGCAAGACCCTGTTTCTACAAGACGTTTTATTTTATATCTTATCTTATCTTATCTTATCTTATCTTATCTTATCTTATCTTATTTTTGAGACAGAGTTTCACTCTTGTTGCCCAGGCTGGAGTGCAATGGTACAATCTTGCTCACCACAACCTCTGCCTCCTGGGTTTAAGTGATTCTCCTGCCTCAGCCTCCTGAGTAGCTGGCGCCTGCCACCACACCGGGCTAATTTTTGTATTTTTAGTAGAGACAGGGTTTTGCCATGTTGGCCAGGCTGGTCTTGAACCTCTGACCTCAGGTGATCCACCCGCCTCGGCCTCCCAAAGTGCTGGGATTACAGGCGTGAGCCACTGTGCCCGGCCTCTACAAGAAATTTTTAAAATTTAGCCAGGCGTGGGGGTGCACATCTGTACTCCAAGCTACTCGGGAGGCTGAAGTGGGAGGATCTCCTGAGCCCAGGAGTTGGAGGCTGCAGTGAGCAGTGATCGCACCACTGCATTCCAGCCTGGGTGACAGAGTGAGA
0.3720633006927789 CTGCGGTGGTTTGCAGAAGAGGCACAGTGGGGCGGGCTGGAGGCCGCAGGGGCAGAGTGGGCCGAGGGCCTCTGATGAGGTGTGAATGAGGGAGGCAGAGCAGGGCTGGTGTGGACAGCCCTGTCCCAGCCCTATCTCCCGTCTGCGACACCCTCTCCACACCCCAGTGCTGATAAGCGGGTGTGAGCCACGGCCGCCTTGTGACAGGCCCTTCGGCAGGGAGGGTGATGGTGGGGGTCCACTCCACTTCTGAATTCAGACGTCAGCATCTTTTTCCCCCAACCCCCATTGCCCTGTCAGACTAGACAGGCCCTAGCAACCAGGCACCCTCCCTGACAGTCCCTGGC
0.60018096766119 GGCTACAAATAATTTACGAAACTCTTTTACTCATTGTGGTCATTACTGACCGTATTGGCTAGCAGCAGTCCTTCCCAATGTGAAATGGGTGAAGTGCACTTGGAAATTACATGAGGCTTGCACTTTTCATCCGCTCTTGTTGGCCTGGTCATCTTCAAGTGCCTGTTATCTTGAGTGAGATAGAGGATTCTAGCAACAGCTCCATTGTGTAGTCTTATCTTAGGAACATATGGACTCTTTCACATTTGGTTTCCCTAAGTAGGCCTTTAAAAGTGATGGCAAATTCTGTCAACATCTCCACCTGTTTTGTATTCTCTCCAGTAAAAATCTGTCCAGTAGCTTCAAGAAGCTCAATCTACTGCTGAACCACTTCATGCCAGTTTCACGTGCTCCTTTAGTCATTTTCTTCCTGAAGTCATGTCAAAATGTCTATCTTCAATAAGCCCTGTCACTTAAAATAGAACCCTCTACCTACAGATTATGTTTTCCTTTTGACCTGTGTACCTCATTTGAAGTATGTGGCATAGATTTTCT
0.5533381126681577 TCATTTTCCACATAAGCACAGAGCATGAGAGGTTTTTGCCCTTTACGGTCAAACCAGATGTCTCTCATTGACCTTTTATCACGTGAAAAGAATAGAATTCAAGTCAACTTAAACGGTTATCAGGTAACCATACATGACATCATGTTTTAGTGTTTAAACGGGCAGAACACTCTTTAGGCCTTTCATTCTTCTAGCCCTCTTGAGATAACATTTGTGATAAGGTGTTGAAAAGAGCATAAGGTTTCCATCAAGCCTTTGACTCGAATGCGAACCTGTCTCCAGAGGACTTGCGGTGTTACACTTGTTTAAATGCCAAGAATCAGTAAACATTATTATAAACAAATTTTCAATAAAATCATCAAAGGTCTTTTCCCACTGAACGTGAACT
0.9188099539771449 CCTTTAAGATTTTCCTTCACCAGGGAAATTTAGCATCTTTCTGCAAGACTCAGTTTAATGGCATTCTCTAGCATTTTCCGACCTTCCCTGGCTGAGCTGAGTGCTGTCTCTGCACTCTGCCCATGGCATCCTGTCCACGCAGCATCTTGGTGCAGCAATCAGCACACTGCTACATTATCTGCATGGCTGTCATCCCCATTAGGTGTGTGCCCTTGGACTGTGTGTTTTCCTCCTCGTATATGAGGCCTCAGCATAGTGCCTGAAAATAATAAACATTTGACATTCAGAAGAAAGGAGTGGAGGAATAAATAAATAAGACAGCCTGTTTTCATGAAGTGTTTTCTACATTGAATGCAATTATTCTAAACA
0.5759392218268224 AGCGTAGTGCAGTCATATGGCTCTGTAGAAGTCCTTACTCTGGGAAATAACCATGAGCACCTCAATGGTGGAAGGGTCCCTCCAGCTTTCTTTAGCAGCAATCTTGTTAACCACATGCTTGCTCTGACAACCTTATCACTTGCCAAGTGCAAGCAGCAGTGTTTGCACTCTTACTATCTCTTACCCACTCTTACTATCAACCACCCACTATGCACTGCGTCTGTTTCTGAGTCTCTGTTTCTGAGCTCAGCGCTGCTTAATGCTAGATAATTCGTGTTTCCCATGTTACCCTTGACTCCAGATGAAACAAAGTCACACAAACAATACTCAGCAGTATTCCTCGGGTTCTCATTCCCAGCCGCAGGTCCATTTC
0.7388897509209919 ACAACTAATTTATAGATAAATGTGGTGCCAAGCTAGAATACATTAACAAGGTAAGGCTTCAGGGTCTCTAGGTAAGATAATATATTGCTTTCATTAAAAAGCAATCTGCATGGACGATATCCACCACCACTGGAAACTCTGCAGTTGTCACCTTTATCAGGGGAACAAGAGCAAGCCACTACATTTTAATCACTGGAGTTTGTCAGGAACGAAAAACAGCCAGCTTCCCACAAATCAACAGACATGTATCCTGATAAGGGAAGTGCATTGGAAAAGGACAGCTACATACCACATGACACCACCTATTCCAGGGTGATCAAAGCTCCATAATTGTTGAAGATAAATCTACTGAATTGGGCTTTAGGATGAAATAGTTGTCTTTGAACAAAGTAGACACATACTTGTACAAATTACCCACAACTTAGAACACTGTTAGATCTAAGTATATTTTGCAATG
0.6346372401161761 ACAAGCAGCCCAAACAATGTGGTAAATGTTCTCACCAAGAGATGTCCCAGCATCAGGGGGCCAGAGACTTGGAATATGCCAAGCTCCTCCTACATGCGGGCCACACCCATGACGATTCCTCCACTTGGGATGTTCTCTCCTGACTCCTTCCCTGGCTAAACCTGCCCATCCTTCAAGTCTTGACTGACCTTCCAGACTAAATGACCTCCTTCCTCCACCCTCTCTCACGGCTCCCCATCCTCCTCCTCACAGCAATCACTGTGTGCAATTAGGCATTGGTCTCCCAGCCCCCTGCACACAGCATGGGACTTAGCAAAGGTGCAATAAATATAGATAGATACATAGATAGATAGATACATAGATAGATAGATAGATACATAGATAGATAGACACATAGATAGATACATAGATAGATACATAGATAGATACATAGATAGATAGATAGATACATAGATAGATAGATACATAGATAGATAGATAGATACATACATACATACATACATAC
0.5586369464051565 GCCCTTGCCCTGCTTCAGCCCCACAGCCCCGCCTGGGTTGCTGGTCTGACCCGGCTGGGCAGGGTGGCTGTGAGCTGCCGGTGTGGCCCCAGGCACCTCAAAGGGTCCTCGGTGTTCAACAACAGGAAGTGCTGGCAGGCTTCCCTCGCTAGGGAACTGAAAGTGGTGACAACAGAGGATGTGTTCTTCAGGCTATCAGATAAAGCCCTCTGCACTGAGAACTGCTTCTGACGAGGAACAGAGACTTCACTGGTCTCTTCCCCATGCCTTGCCCTTGCCCTAACTAACTTCTGAATTTATATCACCTGTGAGTTCTGCTCTAATTCAGGGACTTGGGCGGAGAGGTTTCGGACAGTGGCCAAAAGCAAGAGACTGTCTGCATGACCCTTTAGAAACACCCGTGACCTGGTGCAGAGCTGAGCCAGCTTTGGCCACACTGTTTGGGATGCTGACTCAACGCAGCTCATTATATCTGATTG
1 TGTGTACAAAACACAAGATTTTACTGCCTTGGTGAATTTTGAACCACAGCCAAATTACTTTCTTCTCTGAGAAGATATGAGGAAGAGAATAAAACTCTTCAAGGCAACAGCATGATATAAATCCAAAGCATTTTCATACTTTGGGAACGTGCTTGCATGCAGAAGTGTGAGCCGGGGGAGGAATCTTGGGTGATAAGAAAAACACGTCAGCAGGGCAGAGTGGTGAATGGCCTTCAAGATAAGGATAAGTAATTGAAATTGGTTAGGAAAGCAACAGGGAGCCAGAAGAAGGAATTGAAATGAGTAATGGGAAGCCAGAAGATTAGAAAAGCTAGACGGATTACCTTGGGAAGCAGGATTTTGAGATGGTAATGGCCAAAGGGGAGATTGTAGAATCAAGACAGGAAACAAAAAGACAAGGATGGATAGACCTATTCCCGAAACAGGAATAGTACCTTCATGAGGTCCCAGAGAGGCAGTTTGTAATAACAAAAATGAGGCCTTCACTGAAGCTTGGGAGTTATA
0.68120829425742 GTCAGGCCCACAGACACCTGGAGAGGGAGGTATTTCCACATGGCTGTCTCTTGTGCCCGCTGCTCCCAAAGCCCGTTCCCTGCCTGGCTGCGGGCAGGGACCTTCCCCCACAGCCCTGCCCAACCACGATGCAGCACCCCAGGGACACGGGCAGCTGAGGACAGCCGCCCAGATAAGCTCAAGTGTCCACTGAGAGGCTGGCAGGTGGTGACGCTGGGAGTCTCAGTCGGGAGGAGGCCCTGCCCCGGCGCACCTGGCCTGGCTCTGGCTCTTTGGGGCTGCTGTGGCTGTTCAGCCTCACCAGGTGGCCCCGGCTCAGAATAGAGGCCC
0.6318784929792362 ACTTTTAAATATACACTGTTTTTGAACTCATTACCAGGATAGGTCTTAGTCCTCTTTGAAACCTGCTTCTTTCTTGTCTCTAGTAACCTATCATTGACCAGGTCTGTATCTTAAAGAGTGCTAGGTTTGAGCTGTCCTTGAACTGACAAACAATGGAGATGAGGATCACAAGTGAAATGGCATGTATAGAGGCCCAGAGGAATTAAAGAGTTTGCATGTCTGAAGAACGGCTATTCTAAGTATGCATGTCACGTGGTGGCCAGAGATAAGATATAGGTAGTGAGTGGGGGCTAGGTCACAAACAATTCAGTATGTCATGCTAAGGAACTGTTATTTTTATCCTACAGGCAATTTCGTAAGAATTTCAATAAGGAAATGTCTTGATTAGAATTACAAATTCGAAAGGCTTTTGTAGCCACATGAAGAATAAACTGAGACAGGGGAAGTGGTAAGCAGGCTATCGCAGGACATGAGAGGCTGGA
0.6331115509727493 TCCCCTCTGGGATAGGCACATTACTATGTACCACAGGGCAGGCCAGGCTGCAGGAGGAGCTTGCAGTCCTGGAGGCTTCTGGCTCTCCTCTCACCCCGCTGCCCGCCCCTCAGTGATTAGTTGGAATCCAAGACAGCAATACAAGATGTGTCGTTGGTGGGAGTGATGGAGTGCCTGCTGAGTGGGCCGCAGATAAGCACCGTGATTTCGGAGGACGCTTCATCATTTCGCCGTAAGAACATGTTAACGGGTGATTGTTTGAATGTCTCCAGCTAATAGGATATTATTCATAACACTCTGGCTAGTTGGAATGGAAGATGATAAGAAATTAAATCCTTAATGGCTTTCTTTAAGGGAGGACTTTTCCCAGGGGAACCAGGAACCCTGGGAAATCGCTCCATGTACCCTGGCAATATCTATACGGAGAGAATTGGCTTTAAATGAACCTCTGAGGGTTACACAAAGGGTAAAAGAAA
0.7963409846232226 CCCTCTTTGACTGCTCACCCTCTTCCAGCCCCTCTACCCAGCCTCAATCTCTCATTCTTCCTCTACTTTGAAGTCTGGCTTCTGTCTTGGCCCCTGTGGGTTTGATGACAAAGGGCAGTTCAGGAATGACACTATCTACACATACATGGCCATATGGACAATTTCAGGTGGTGGGACTTGCAGCAGCTGGGGTTCCCAGGACTGCTGACATTCTGCTGAGTGTTATTAGAAGATCAGGGACAGAGCTTATCATCTGGCTGTCACTGCCCCTTTCCAAGCCACAGCGAGCCTCCACAGAGGGGCCCTGGGGGATAGCCAGCTGCCCTGTGCTCATGCTGGAGTGAACTTTCCTCTGATCTTCCCTGTTTTCTGGATTTAGCCAGGGAAAATACAAGGGAGCTCCTTGCTCCCTGTG
0.9760178145445718 CTCTTACTTTTTAATCACAAGAAATGATACTAGAGAAAATAATTTTAATCTACTATTTCCTGTATTTACATTAGCTAAGTGCTATTCTTAATAATAAACGCCCTCTATGGATATCTCTCGCAGGCAAACATGAGACAGTTGGAGGGCAGCTCTTGCAATCTTATCAGAAGCTGAGGTGAGTGTTACAAAGGACAGACCGTCCCTGGCCCTCCGGGGCAGGAGCGCAGAGGACACTCTGCAAGAACTTATAGGTCTCTTGACTTTCACATGTCACTGCTTTGGAATGTGACTCTTTTTTTTTTTTTTCTTTTAAAGATAAAGTTCCTGAAAAAGATTAAAGCAGAGATGTTTCCAGATTCTCATGAGAAACCTTCTAGTTAGCATAGTATTTTCTCACTAGACATTCAGCTCTACTTC
0.3945872925648171 GGTTGGCTGTTCCCATCTGCAATAGTCAGGGGCAGGAGCCTGGACTCACAGGCCAGTACAGCACTCAGGGAGACAGCCTAGAAATGGAAGGGCTTTTGGAGGAGGGAAGCTCTTGAACAGAGCAGACAGGGTAGGGGTGTGGGAGCGTTGATGAAGGAAGGCCAAGATAAGGCTGTGGTTTCCATTTGTTACCACCTCTCCCGCTTATCTTGAGTGAGAACAGGCCCTACAGCTCTGAGCGAACCTTTCCATGGGGCTGTTGAGCTGTGAAGAGGACATATACGAGCTCTCCTATCCTCTCTTCCCAGTGCACCCTTTCCCTTGCACACACAGGCACCTGTAAAGGCTGCAGCTTTGGTCTATTGGATGGGTGGGGACAAAT
0.4830779503988844 GAGGCTAACAGAAGTATGGGACTCCTAAAAAGTTTAAGAACCACTAGTTAGACAAAGCATTTAAGCTGCTCCTGGTAATCTGTAGTCATGGAGAGTTATGCAGGGATGGAGTAGGGCAATGCCCTTGAAAGCTATCTGGATGTACAAGGCTTTCCTGTCCCTACGTCAAGTAACACTTAGTAAGCACTTACTAAATGCAGAGCTCTACATGGATTATCTCATTAAATCCCTCAACACTCATTGAAGAAAGAACGATAACATGAAGTCCATTATGCCCATTACAGACAGAGATAGTAATTAGGTCGAGGTCACATAGCTACCAAGGAGTGAGGCCAGATACCTATCTGGCTATGCTGGCTCCAAGCTGGCTCTCTATTATTGTGAGAAGTGGA
0.6925062340677821 CTGCTGTCAGTAGATTTGCCATAAATGTTTCCTGAGAGTCTCTCTCTTGAAGAGATTCAGGCCCCAGTTAAGTTCATCCCAATTAAAAATAGAACCCTGAGATGCAGCAGCTGTAGCACCTCTTAAACCTCTTCAAATAACATTGAACGATTAAGTGGCTGCTACTGTGGAGATAGTGCCCACAAAACCAGCAGCAGGCCCTCTCGGAAAATGATAACACTCTAAGTGGCTGTCAGTCCTTAGTCATTTCTAGTCATTCAGGGGATGTTGCCTTATCTTCTACAAGTTCTAAAAGTTCCTGGGAAGAGAAGAATCACATAAATTCTTTATTTAAAAAAATCCCCCTTCCCACAGCAAAATTCTCTAAAACAATACTAAACAAGCAGGCATGCGCAATTCTAATGAAGTCTATCATTTGAGT
0.515849854297737 AGTCCCACATCAGGAAGGAAAGAAGGGAAATGATGTTGATGTGGGCCCTGCAGTGCTGCCCCTGCTTCTCTGTCCCTGGGCAGAGGTCTGCATTCACCAGCTTTATCCCATGGCCTTGTCTCCTGGCCTTTGCTATCTCCTTTGAATTCCTCCCTTATCAGTTGGGCTACACACAGCAAGTCTTTACCATACATGCACAGAGGTTCTTGATAAGGAGGCTATTTTAGACCAGTATGGAGCTCTTCCGTATAAAGCACTGGTGACTTTTTTTTCTTCTCATGGGCTGTCACTGATGCAGGCTAAAGACACACTTCAGTCGGCCACAGCCGGTCTCATGCCTCAGCCTC
0.6855461996518549 ATGTTTCCTGAATTCATTGTTCATGAAGTTAATGCCCTCATTATATGAAATATTGAAATCCATCCTCACAGTCCTTGCTTTCTGGCTGAGGACACACATGATCCATAAATCTAAAATGGGCTTTAGAACAGTTACAAAGTAGTCTGCCGATGAAGTGAGTGTGAGTGAAGAGAGCGCTGAGTAAATGGCTGATAAGGGAGGCGTGGGGAGAGGAGTGACGAGTCCGAGTCCTTGCAGCCAGAGGTAGGGCACAGGCGGGAGACAAGCTGCGGGTGGGGGACAGCAGGCACCCCAGCAGCAGTGAGAACTCAAAACTAGAGCAGACGGCTGTGAAGACTGG
0.9257773381915448 GATATACCTTCTGCAACTCACCCAAAATTACTGTTAATTATTATCTCAAAATCTCTGTTATTACACTTGTCATACTGTATTGTAATTATTTCATTTTTTCCCATTCTAAACTAAAAGCATCCCAAGTTCAAATACTAATCCTCTTTTTCTATATCCTCAATTTATAACATAAAGCCCGGGACATAGCAAATGCTCAATAAATGTTTATGGACTGAACAAATAGGGATGAAATAATGCCCATGCCTGAACCAGATAAGATTAGAAAGGAAGTGAGGCTCATGTTCAGCTTTGTTAAGGCTTACTGAAATATCTGCTAGCTCTCAGGACATGTGCATAGTGCTGACATCCCTTGCTAATCTTGACAACGTGTGACTTTCAAGGCACTTGAAGTGAACTCTTTGTTATCCATCACTTCAGGAAGAAGTGGCAGTGTTAAAAGAAATGGAAGAAAAACAACTAAATGAATTTTTATCATACTATATTGTTCTCTTAGTGCCTGGCATTGTGCTTGCCACAAAGTAGGCACTCAAGTAGCATA
0.7498947888296235 GAGCACTGAGTGAGCAAGGCCTTTCATCAGTGTTTTGGCCTTCTCATTGGGTGAGGAAGACATTGAACCAACAGCCAACGAGATATGAACCTGTAAGAAAAAAGTCCTAGAATATAGTATTTTTCCCCAGGCCAGCAAAGTGAAGAAATACAGTGGTGACAGATGAGAAAGGCCATGTTCAAGAGATCTGAAAAGTACATTCCTGCCTTATCAGAAAATGTGTCAGACAGGTTTTATGTCAGCCTCAGTGCTCCTGCGGTGTCGACGCTCTGATAAGGACCATGTTCCAGTTAGAATGCGAGGGAGGGAAAGAGCTGCACTTTGCTTCACCATCAGAACTCTGAGCCAAATAATGAATATGTAAACTATTTTATGATTATTTTAAATGTTTGTTTGGTAACATTTATAAGATCTAT
0.6006303739230964 GCCGGCCGCCCGCTTCCCCTTTCTCTCCAGATTCCTTTGATCCGCGGGCTCTCCGCCGCACCTCGGCTCCCGGGCTGCCCCGGTCGGCCCGCGGGGATCCTGGAAACGGTCCCCAGCTTATCTCCTTTCATCAAGCGGCCTTGGGCCGCCTTGAAACCGCGGAGCCAGTAATTGCTTTTTTCAGGAGGCCCAGTGCGGACTGGACAACAGCCAATCAGCGCCTTGTTTACACTCGGTGATGGACAGTCCACTGGCGGAGTGCCAACCAATCCCAGCGGTCCCGCGGGAGCGGGAGTGGGGGCGGGGAAACAGAGAGACAACAGGCTTTGAGTTTAACTCTTTCGTG
0.4153781548488365 CGGGGCAAGGCACTGGAGGCAACAGAGGCTCAGCAGCAAGACAGGGTACGTGCAGAGAGCTGCGGGACAGACGTGGCCTCACCAGCAGGACCCGTGATTAAACAGCAGCTGTGGTTCACTAAGTGCTTTCTGCTTATTATGTGCCAAGTACTTCACATGTGGCTGCTTTGTGTCATTCTCACATCAAACCTGATGGGTGGTTACTATAATTATCTCCTTTTACAGATAAGGAAACTGAAGCCCAGAGGGGTGGAGTAACTAGTCCAGCAAAAGTAAGCCATGTAACTGGGATTCAAATTCAGCTTGAACATCTCAGCACTCATCTGTTTTCGATCACATAACACTCCCTCTAGGCATTCACAGGAGCTCAAGGATAGGAGTAGGGAGGGGAAAGCTAGGAGTCCGAAGACTTGAGGGGCCAGGCATGGTGGCATGCACCTGTAATCCCAGCATTTTAGGAGGCTGAGGT
0.6890044168232664 AGGAAGCCAAACTCAAGAGTGAGCTCCAGCCGTCTACGGTGAAAACAAGCCGGAGCTGTGTCCCACAGGTGTCTGTGTGTGGGGTGCACCTGTTCTGGGCTGCGGGGCACAAGCATGGGGTTGCTGGTCCTAAGGGCACACGAGTGGCCGCCTGGAAAACCAGAAGCAGGAGCTCCTGGACGCCAAGGCTGTGAACAGTCGGACGCCTCCCCGTCTCCAGCAAGCCGGGAGCCTTATCTTATCGCCGGCGCTTCAGCTCTCCCGTTATTTAGGGACCGGCCACAGGCTCGATGGCATTCCTCTGCTGTGAGCACAGAACTAAACTGGGCACGTCCATGGCAGATGAACAGAATGGTGGAGTGAACGCATAAGTGAGATTTCATTGACTTAGCTGCAGCCCTCAGATTTTAATTCTGCCATGATAA
0.6532358405256238 CATGGGGCAGCCTCTGCAGCATCCCCAGGGCCCGAGCTGATCTGCACAGCAGAAGGGAATTGGGGGAAAGCTTTTTTTCTACCCAGCACCTGGCAGGGGGCCACCCTGTTGCACCCCAGAGACCCTTGTCTAAGTTTTGTTATTTCAGATGATTTCATAAGTTGGGGGAGGCGGAGCCCCAGCCCCCACAGCCCCTGTTGTTGCCTCACTGCTGAGCTCTGCTGTGTATCTGCTGACAGGTCTGCTGATAGCAGAAGGGGCTGGAGAGAGGGAAGCTCTGGGCCCTGCCCTCCCCAACCCCTGCTTAGGGGACATCCCTGATAAGAGGAAATTCCAGCCTGTGACAGATGGCCAGTGTCCACCCACCCACGGGGGAACTTTTCTTTCTCTTTGTAAGTTTGCAGATTTGCCAGGAACTAAAGGAATCTCTGGTTGACAGGCCACTGTGGACATGGCTGGAGGGCTGGCACGGGCTGGATCTTGGGGTTGCTTTGAGGTAGGGGCCGCTCCTGCTGGAAGGTTCCTTGGGGTGGGGAAGGCATCAGGGCCATTCCCTGACCCTCCCTCTGCAGTGGATCCACTTCAGAGCCTGAGACAAGGCAAGGGGGCAGCAGAAAACAGAATATAAAATAGCCCCCCCCACCACACACCGCACCAGAAGTCAGAGGATTCATCCTTGGCCTGCCCTCCCTGCAGCCTAAGTTCTGAGAGTGGCTCTTTAGGAAGTGAATGGTGATGGTTTGCAGGTCAGAGCTTGCT
1 CCTGAGGGCAACCACCATGTGCACAAGACTGCAGATATTTACTGATGTGCAATGTTTCCTGAGAAGTGAGGATTAAAGTTATCAAACGACAAAAAACAAAGAGCCCATTTGTATTATTTCACTGCCTAAATTCCAGAAAGCAACAAAAACCAAATCACAATTTTCAAGAACAAACAAATTTAGCAAGACTGCAAAATAGACAAACAGCAATAGCAAGACTGCAAAATAGACAAACAGCAAGGTTATCCCAGTCAGAACTTCATAGCTATGTTTGTGGATATCTGCTAATCAGCATAACACAAATGTAAGTGATCGTCAGAAAGAATCAGACAGGAGCAATCAGGGTGTTGCAAGTCCTGATTACGCAGAGACGTTAATCACGTTTCATGCATCTCCAATCATCATGTTCTAATCTGCCCTCCGGAGGAGGAACAGGTAAGGATTATCCCACCTGACGATACAGACAAACAGCCGACATTCTGCACTCAGTGAAAAAGATTCCGTTACAAGCTAGGGTGAGTTCATAACGCGCTGGTATGAGCAATCCTATTATTTAGCG
0.5587159795072447 TGACTCTGGTTGCTGACATTCACACTTGGATGAAGTGGAGAAAGATGATGTCCTTCCTTATTTGGTGGCTCTGGAAGCCACATTCCCTCCTCATCCGCCTTCCCAAAAGAACCTTGTGGCTGCCCAGCGGAAGCCAGTGCTTTCAGCAGCCCCCACCCTTGGCATTTCCTTATCTAGGAGTCTTCACTGTGGAATTCCAAGGCCCACCCCAATGCTCCGGATGTGTTTCAATCCATGGCCTGCCACTTTGTTACTCTTGTGATGACAAGCAGATAACATAGCTCACATGCCTTCTTTTCCTGCATACCAACCAGACCCCAGTTCTGAAAAGGAAACAAACCACAAACCAAGAGAGATGTGTTATTTTTATGCAGACATTGTTAAGACACTGCAATAAGCCTAGAATTGTGGAGAGTGCTTTCCCATGTTGCTCCAGTTAATCCCCTCAGTCACTCTGGCATTTATACAAATGAGGAAACCAGTGAGTGTGGAGGTTA
0.6913823772291396 CTGGCTTGGTCAGGGAGAGCCAGGGCCAGGTCCTGGCAGCTCAGGAGGGTGGAGAGGGTCCGAGGTAGGTGGGAAAATGCCCTGGATGTCCCCAGAGCACTGTGCTTATCTTGCAGATGACGAGTCACCTAGGCCCAGGAGGACCAGGAATCTGGCCGCCACCCGAGTGTCCAGCCCACTGCACCTCACTATTTATAACCCAGCCCTTCCCCCACTCCAGGGCCACTCAGCTCCTCTATCTCTGGAATGTTGAGTAGAGGTCACAAGACCATGTATGTGTTCATAGAATGATTGTCCCTTGTGGTGACAACGCTGTCTGGTCTGTGTCTTACGATAACAGGTTGAATCAGATATTTCCAGTTGATTTGGAACTCCCTGGTGGCGTGGGAAGCTGTGTTAACATTTTCGCATTTGTCTGTTGCAGTAGGAGTTGGGGGGTGAATTCTTTTAAAAGAGAATGTGCCATACAAAACATTATCCCTTTGGACTGAACTCATTGTGGTGAGTGTAGACTGCATGGAGTTTTGAGAATTTCATT
0.5961236481175604 TCTATCTCTATCTCTATCTGTGTCTCTATCTCTATCTCTATCTGTGTCTCTATCTCTATCTCTATCTCTATCTGTGTCTCTATCTCTATCTCTATCTGTGTCTCTATCTCTATCTCTATCTCTATCTCTATCTCTATCTCTGCCTATTGATATATCTGTATATATCTATCTAAATCTCTGAAACAGCTGCTCAGAGTAAAAGAGGACTGGGTGCTATGAAAAGAGATAGGGCTTAGAATCTTTTTCAGATGAGTGTGTTTCTCTCACTGTTGTATGTGGGTTGTTGAGTTATGGGGTAGGGGTTGGGGGTGGGTGCTGCAGGGT
1 ATCGCTTGAACCCAGGAGATGGAGGCTGCAGTGAGCTGAGATTGTGCCCCTGTACTCCAGCCTGGGTGGCAGAGCAAGACCCTGCATCAGAAAAAAAAAAAAAAAAAAGCTCTGAAGGACCGCAGGGGTATGGGGTTTTCATAGCCCTGGAGTTATCTTATCTATGGCTGTCAGATATTGGATATAATTTCAGAGAATACAAAGCAGGCGCACTCGAAATGGCTAAAAATAGGCTTGTTCAGGCTATGTTTCAAACAATCCAGTGTGTTAAAATTGCAGTTTGGCAGGGGTAGGCTATTGTGAATACTAGTGAGACAAACATTGGTGTACAAATATCTCTGAGTCCCTGCTCTGAACAGTTTTGGATATGCCAAAGTGGAATATCTGGATCACAT
0.4879715054735063 TACTAAATGGTGTAACAATACACATGCCCTCAGCACTCTGTATCCTCTGAGGCCACACAGTAATGCATCTGCTGCATCTAAAAATGGGGCTACCACAGAACAAGGTCATTAAAAAGTGTGAGGAGATGAGTGGTTTGCTGCTGTTTTTAGCACAAGTTCAATCAGCTATGATGTCCTTATCAAGCTGTCACTACCAAGTTCCTTGATAAGATCTGACGTGTGAGGTACATAAACCTGTTCTGTTGTAGCACTGTGGCCTGTATGGAAAAGGTTAGATACATGCAAAATAATGCCCAAACATGCTGTTTAATCTTGGTGATAACAAGAAAGAAAATGGAGGTGTGAAGTGAGTTACCATTGAGGGTTGTATCAGTATAAGCAATTTGTCTGTAATGGGTGTAGAGAAGTTAAGAGAGGTTACATTCTTTAACACTGTCATTCTCACACACACACACACAAAAGCAGGTCTAGGTTCTCTATGGCTT
0.5633509120404647 GTGGCTGAGGCTACTATGTTGCCAAAACATCAAATCAAGGTGGCTAAGGCATGTGAAAGTTGCCAGTACCAGAATGGAGTCACTTATGTCAAAACCCTAACAAAGTGGAGTCAGGAGGCCCTAAAAAAGTTCTCACCGCACATGCCTATAATATACCTTATCACAAGAAATTCCTGCAGGTCCCACATGCCCCACTTCTGCACTCACCCTGCAACAGAGCTTATCACAGGAATTTTTCAGGCCTGCAGTATTTCAGACAAGCTGCCAGCACCAGGACAGTTACTCAGCAACAGCCATCTCCACCAATGAATAAACGCCAACTCCTGCACTGAGCTTCTGTGACCCGTGAGCTTTATTTCAAGCTTTATTTCATGGATTTCTCTTTGTCTTTA
1 AGTAGCTTACAGAGTTAATCTAGTAATGTATTAATATTTAGGACAGAGCCTGGCACAGGAAAGTGTCACATAAGTGCCCACCATGATCTCCAATGGAAGCAAGTAGCACAGCGGGTTAACTTGCCTTGGGGTGTAAGGCCCCTTTAAAGAGGGCGGTGAAGTCAGCCACCTCTTGATAGAACAAAGGCATACCAGGCCCTGCCAGCCCAAAGCCGGGTGGCTGATGGCTTTTGTCACCAAGTGATAGCCTATCTCCTCGTGTCAGGGCCCCCAGGCGTCAGTGAGAGCCACCAAGTGGGGAGGGTGGCTTCTCTTGGGAGTCAGATTCAGGTGGACCAGGCCTGTGCCCAGCAAAGATGGGTGAGCCACATAACGGGGCACCCCCTGTGTACACAGCACCACTGGGACAAGCAGCATCAGCTCCCCGTGCCTCAGTTTCCTCATATGTGAAATGGGAACATGTAATAGAGGTCCTTCAAAAAGTTATCATGAGGTTTAAATGAGTTAATTACTGCTTCTAAAGTTCTAGAATACT
0.6448023725045151 AACATTTGTCATAGAAACCCTGGATTTACAGGGACAAAGAGCCCTGAGCACAGGAACAAATGGACTCAAGGCCCATAACTCCTCTCCATCAATCTTTTCTTCTGGATTGTGCAAGACTCTGGCGATTGCATACAGCGGCTCCTGGCAGCCTCGAGTGATGGACAGGGGTAGCGATAAGAGGCACATTTCTGGGAAGAAAGAATGTGCTTGGCCTGGCAGGATGAGGTCGAGGGAGTTGACAGGGAGCCCAGATATAAAACAGACCCTACACACAGAGATATGTGGACAAGGCTCTCCAGTATCCTAGTTGGGATGGGAGGCAAAGATTGGCCAAACTATCTCCAAGAGAGGGCAATTTGGAAGGGGCAGGAGTTGTAGCAATGTTTCTTCTAACTATTTTAAAAATTGTATTTTCAGCTGCCACCTTTTATG
0.1133420491188963 CACAATTCTGCAGAGAATAAATGTAGGAGAGAGCAACCTCTTTCCTGCCACCTGACCTTCACTTGGTGGTCAGTCGTGTGGAGCTGGACGTCACTGTCAGCTTCAGTGGAGTCCAACTGCTGACAGATAAGTGGGAGCACATGGCACGTGCGAGATAAGAGCCTATAAGAGCCTGGCGGCCTGAAATAAATGGCAACAACAATGCTCTTCTAAGTGGTCTTCCGAGAAAGCCCTGTTATCATCAGCATTGTTCACACTTAGTAACAACTTTCCTTGAATGGGGTTTTCAACATGTTTGTTCCTTTCAGTCTGAATTATCTGCCAGGGAAGAAACTCTTTCTAAAGTCCGTCAACAGTTGTGAGATTGGGTTGAGGCTCTCAAAGGAGTTTCCGGCTGTTGTCAACACAGCAGGAAGGGGCAAGGATAAAGGGT
1 CATATGCACACATGATATATATATGTGTGTGTATATGTATACACATATACATACTATATATGTGTGTAAATATATATATGGTGTGTGTGTATATATACACTTACATATACACACATATAATTAAAAACTTAGGCACATGTTATAAATGAATAAGATAGTTTACTGAAAGGCTACTATATACCAGGCACTGTGATAAGTGCTTTATAGATATCATATCCTACAAGTCTCAACAACTCTTAAGAGGTAGGCATTTATGATTATCACCACCTAACAGATAAGAAGCTAAGAGTCATAGAAGAGAAGGAAATTGCCCAAGCTGCATACCTAACAAGTGATGGAGGTAAGATTCCTTTCCAGGCAGTCTAATTTCAGTGGCTGTGAGCTTAACCAGTGGCTCTACTGCCCTTCTCTCAGTGTGAATGCATTTTAGATAACT
0.3898870487092837 TGCCCCGCTCTGAGCCGGCGCGTCCTTGCTCCCCCACCACTCTTCTCTCTCGGGCCAGCCGAGCCCAAAAGGCCTCTCCTCTTCTGTTTTTCCAGTTCCCTCCTCAATTTCACCTCCTCGGAGACCCTCCACCACCCAGATCTTCAGCGAGCAAGTCACCTTTCCTTTAGATAGACAGACAGGTTAGAGATAGATTAGAGAGATTAGATAGAGATTAGACGGATAGATTAGATAGACTGATAAGATGAAAGATGTAGATGGTAGAGATTTGCATACATATGGATAGATACATATGGATAGATCATAGACAGATGGATGATTGATACGATGTGGATGATAGATGGTTGGATAAAGATGATAGTTATAGATGATAAAAAGGCATAGATGATAGATACATATAGATGACAGAGATAGATAGAGATGATATATAACATTGTAACACGTATAGATAGGCCACAGATAGGTAGGCAGTGGGTAGATAGGAGGTAGATGGATGGATATGCGTATAGATATAGGTA
0.3988597955902661 GCAACCTTCAACAGTGCTCTAACACCAGTCAATATCAAATCCCTTTCTGCTTAAGTTAACCAGAGCAGTGTCTATGGGTAATTGAATCATGACTGATGCTATTATCAAATATAAACTGATGACAATGGCAAGTGGGAAACCTGCTGTTTTACAAATACCAGATGTGCATCACATGGAGGTTTATTCACTCCTATTTGCGTTTTGATAATAATCCTTTCTAATAATTGGTTCATTGGTGTAATCTTTATGAAATTAACCTGAGTGGCTCAAAATTCATTTTGTAGCACTGAATGCAATTACTAATTGAGCTATTTAAGCAAACTAGCCAGCCACCTACAGCTACTTAATCTTACTGGCCTACTATAGTAGCTCTGACTCACCCTTATCTTAACCAGATAAGGGATACCATACATTCTCTCTAAAGAACACCACTGACCTCACACACAGGGCTAAGTAGGCTATGCCTATTGTTAATATATCCAAATACCAGTTGAATACTCAGCAGGTCAACAGTATTTCCCATCCAGTTTATGCCAGCTGTGTAAGTATGAGATATAATTAAAAATTATGTAAATAGATTAGCTG
0.8911579669809149 ACTCAATGAAGACATAAAAAGTCGACAGTCAGGAAGGAGCTGGGGACTTCAGCAGCAACTCAGAGTCCACTGCCAGGTCAGGACCACCTGTGCCGGCTGCTGCCTAATCTGATATATATACAACAGCACGGTCTACATTCATTGTCAGCCATCCTCACACAAACGTCATCCACAGGAGAGGGTCTTGGCCAGAGCAGAAATCAACAAGACTATGACTTGGAAATTCTAGGGGGAGGGGAGGCCTCTAGCCTCAGGAATTTTGTCACCCAGGTCAGGGTCTGTATAATAGCCTTCTTAAGAGACAAAAAGGGCACTCACAGAGATTTGGACCAGGGCTGGCCTCCATCCAGCTTTCTACATTATCTTGAGCTCACTTGGTGAGATAACATAGCTAGCAGCTTCTGCATTCCTTCCTGGAATGCCTGTGATGTTTGGAGCCCTGCCACATGGCTCAGGCATTAATCATCAACCAGTGGATAAATGTTGACTGAGCATACTCTGTTAGGTCCCTGGTGTGCCTAAGAAGAGGGGTACCCTTTCCCTTTGGAAGGTTGCAGAAGATATATACC
1 CCCAATATTCCTCGAGGCGAACGTATTTGTGTCGCTTTTCTGAAGATTTCGATTGTCAAGTTGCAGCTGACTCTCTTCATTGTACCAAAATTCAAATTCGAATAAAGATTCAAACTGTTCTCTTGAAACTGCATTCCTTCCTGGAACCCTTACGGACCAGTCTGGTTACCGTGCCCCATTGTGTCTTGGGCTCAAGTCAGCCTTCATAGTGACCCCTGCTGGTCGAAACAATTTTCGAGATGATTATCAGGAGTATTTCCCCACAGGGGGGCCGTAGGGCTCAGTGTAGAAGAGCAAGGACCCCTTTCTGCGCGCTTACTTTGACATAAGATTTTGAAATGTAACGAAACGGAACTGCTTCGGTCCTTCTAAGATTATCCTCAACGATCGAGGCGAACTCTCAAAACGGAGTTCCTATTTTGATGGGTCCTGCTCTCGGAAGGAGCATTCTGCAATTGATTACAGGATTCTCATCGAACCTCGGTCTTGGTACCCCTGAGACTCACCGCAGTACCTGGTGTACAATCGGTGCTCCATAAACACTTGGCAGCAT
0.7751941755174029 GCCGGCAGCTCAGCGATGCACTCACCATGCTGCAAGCGCTACCGGTTTCCGAGACGCGACCACACAACCACTCAGCTCGCTCTCTCCACTCGGACTAATTCGCCTCCTCCGCCCCCAGCGCCTCATAAACACCTCCCTCCGCCAGATCCCTCCGCCGCATCCAGATAACGGAACATCGCAAACGAGTCCCGGCCAACCCCCTCCCCTCAAACTCTTCTCGGGACCCCTTTCTTCACAGTTATTTGGTCGATGAGGCAAGAGATCAAGGAAAGTGGGCGAACGGATGACGTAAGTGGGTTTCATTTCCAGCGAGCCGTTAAAAGGCCGGTGGAGCGGCCCCTGAGGGGCGCTACTTTGCGGCGCGGAGGAGCATCGTGGCGGCGATGCGTCCCCCGTTGGTCGTTGAGCCTG
0.9743429545694188 TCCATCAACTACGCTACTCACTGACCTACCCTATCCCATACCCTACTGACTTCCAATTTTGATTTCCCTATTTTTATCATTCTCTCAGTCGCTCAGTTCCAAACTTCAGAATCACCTCTGGTTCCTCCCCTTCCCACAGCATAATCACTAAACCTTGTGTACTCTTCTCTCATGTATCTACCATACCCACCCCCTTATCACTTGCAGGTTGTCACCACTCACTTCAATTGCACTCCCTTCCTCCAGTCCTTCCCCTACTGCTTCAGGCAGTTGCCACTCAGATACAAACTCTTTGCACTTGAATTAAACTTTACCATATGATTCTGCCCTGTGTCCCAGCTAGAATATAAATTTGAGGGGAGAAACCTTACATGCGGCACTACTATATTACACACACAAGCATGTAGCATTTAATATGATGCTCACAAAAAAAA
0.4972886812041069 TGACCTAACTTGGAAAGCCAGTTGTAAAGGGTGAGATGGGTGTTTAGGTCCAGGGTGGCAAGTCTGAGCCTGGTACAGGCTGCTGGGCTACATATCCAAGCTGCGCTTATCTTCTCCTGTCAAACCATCTCCCTCCACCTCCCCTTATCTCACTCTAGATAAGGGCTGGTTCCTGGAGCTCCCACGCCTATCCAGCCCTCAGCACCACCTTTAGCTCTTTTTCCACTGGAGCCCGAAGACGAAGTTGTTCATTCTTCTTCTAGGGGAGGAGGGGTGGCCATTGATTGGGGTGCGGAGGAGACAGCTTCTTCCAGTTTGT
0.08199592193227286 AACTATGTTAAGAGAGTACTTTTTCTTTCTTCACAGAAACAAGAAAAATTATTTGCCGTGGAGTCCAAGAGAGGAGCATATCTATCGAAATGGTAATTGAAAGAGAAACTGGAAACATCACCTGTATGAAAAATAGTGGATGGCTCTGTTAACGAAACAGGCATGCTGGTGACAACAGGCAACAAATCTAATCTAATCTAATCTAATCTAATCTAATCTAATCTGTTTCTCCATAATAAGCAGCAATCATACAACCCACTAAATGACTGCTGTTGCTTGTCACTGAAGATGTCCATATTTTACTGGGACATAACATTTCTTCTTGGCATGAAGAGAATGGATTAAGCAAATGAATAAAAGCTATGGTTCTACTTTACCAG
1 TTGCTCTAGAGGACAAGTAGGACTGTAACATCTCTAGGATGGGTCACTTCCCAAGCCCTCTATTACTTAAAAATTCAAGGAGGAACCGATGCTGGAGTACTTGTATCTCAGACTTCTAATCACTGCTCCTACGCTTTTCCAATATTACAACAAAAGACCAGTAGGGGGAGAAAAACGCACAGTACCGAACCCTTATCAGTAGTAATCTCAAAAGTCAACAGATTGATTTACTCTCAAGCAAACAGACTTCTAAGGTACGCAGCACCAAGACACTACCTTGAATCAAATCTATAGCCTATATGACATTTCTGAAGTCTCTGTTGGCATTACGCGAAAAATCCCCCACGTCTTCTGAATAGTTAGAATTGAATCCTACAAGCTGCTTCGAATCAGAATTCGATTTAAAAAAAAAAATGAGGGCATAGCAAAAGGTCTCCACGAAGTGAGTCAAAGGACTGCAGAGGGCTGTGACAGTG
0.5025406784760119 AGACTGTGCTGGAAGCCAAGTGAAGTTTTTCCTGAGGGAGGAAATGGCCAACTCAGTGACATGCTGCTAAGAATGTGAGTAAAGTCAGTATAAAGTGTCCCTTGGACTGGGCAATACATAGGCTTTTGGTTATCTTGACAAGAGCAATTTGTTTTCAGTAGTGGGATGAAAGCCAGATCAGAGTAGGTTAGAGATTGAATGGGAGGTGAGGAAGTGGAGACAGCGCACAGTTAAGTAGTTGAGATATTTGGTTGAGAAAAGGGAGAGAGAAATGGAAAGGGGCTAGCTGAAAGGAATGTGGAGCCAAGAAAGAATTGTTTTTACCATGGAAGATATGAATGGCCCACTAGAAAAGGACAGATTGGCATTGTCGGAGAGAAGAGATAACTCCCAGAGAAAAGGCTGTAAGTATTTGAGAGGTGATGAGATCCAGAGCACAGGCAGGGGCTTGGCCATTGGTCCCAGGTTTGCTCTATCCGTTAACAAGGAAAGAACAGATACAGGTGTGAAAGCAAGCAGGTTCCCATGCATGACAGCAGGAAGATGAGAGCTAATTTCATC
1 TGTACATGGAAAGATACAGTATTAAATCATAACTATAAAATTAACTATACTACATACTGTACTACGATAATAATTTTGTAGCCATCTCCTGTTGCTATTGCAGTGAGCTCAAGTGTTGTGAGGAATATGTACTTGAAATGCTTTGTGATGCTAGTCATCTCCTCTTGAGCAGTTTATCTCTCCAGTAAATTGTGTATTGCGATAAAAAGTGATCTCTGGAGGTTCTCACATAGTTTTCATCATGTTAGTGTGATACCATAAACCTTGAATAACACCATGGGACTCATACTAAATGCAACTAGTGATGCTGGAAATGCTCCCAAGAAACAGAGAAAAGTCCTGACATTATATGAAAAAGTTAAATTGCTTGATATGCAC
0.7001677506642424 ATTGCTACCCATATTTGAGGAATAGGTCTTTCCCTTCTTTCCTTCTATATTTAAAACCTTTTATCTATATTTTCTTCTCATGCCTTGAGTCTAATCTCAAACCTTGTTCTCTTCTTGATCTTTGCTAACTTTGTTGTAAATGTGCTCCTATCCCACTATTGAAACAAACAGGCAAACTCTCCAACATTCGCCTTATCTATCCTCATTTCAGCTGAATTTCTTGACAGTGTAGTTCACACTTCTTTATCTCTGATGCATTCAGCTGCTCTCACCACGTTTTTAAAATCCAGTGGGCACGAGTCACCCATGACCTTTTAGTTGCCAAATCCAGTGAACACTTTTCAGTTCTTGTCTGACTTATCTCTGGCATTTATCAGTGTTGACCTTACCATAACTCTGAAACTTTTCCTGTCTTGCTTAGCTTATGTGATACCTTTTCCCTCAGGTTTTTCTTCTTTTCTGGCTCCTCTTCTTCCTTTTCCACAGCTGGCAATTCCTACTCTTACAGCTCTTCTAATGTTTTCCTTTCCTTTCCTTTATCTTTAGGCAAAGGCTATGGTGTGTGTGTGTGTGTGTGTGTGTGTGTGTGTGTGTGTGTGTGTGTGTGTGTGTTCTAGCAACCTCTTTCAAATGAATTCCAATGGATTCTAACACTAAGCTGGA
0.3760262516149172 ACATCCTCCAGCTGGAGGTGATGAGAGCTTCACTGCATGTAACTGAAGAGTCCCTGTGGCTTGCATTCCTGGCTTTCAGTTGCCTGTTGTTCATCTTCAGCTGTGCATTATCTTTTTGGAGAGGATCAATGACACTTAGCAATAGCCATCCAATCCCACTCTCTTAATGTCTGCACCTTCTTAAGTGTCAAGCGTCCTGTAGATTTCTCTCACTAGTTCGTTCCCTTCTACTAACACACCATCCCAATTCGCAACTAATGAAAGTGTTAACAACAGGACCACCACCTGGTGCAGGGGCTGTCAGTACTCCACCTATCACCAGAAAAACAGGCCCTAATTGCCAGGCAGGTGGTGAGTGATTCAACTTCAAACTCTGTCTTATCTCCACCAGCTTTCTCAGCCCCCCTCTCACTGCCAAGTGTTGCAAGGCTGGCTGTCTAGAAGCAGTCACTGACACAGAGTTTGGGGAGCACAATACTTATTAGAGATTAATACCCATAAAAGGAA
0.4380018778269105 GGTAGGGGAGATGGGCATGGTAAGGACCTCACAAGGCCACAAAAGGTCCGGGGGCTGGATCCATCGCTGGCAGCCTTGACAAGGCTTCTTTTGTGCCTGGCTGGGCAACTCTGCCTGGGTCTGCTCAGATTGCAGACAGAACCTGGGTGACAGAGACAAAGCAGAGCCCAGTGGAAAGTGTCCTTATCGCCTGGGGTCTGATAAGGGCCCCGGGGAGGGGGCTGCCGGCCAGCTCCACAGATCTGAGTGCTGGAGGAGCTGGAAGGGCCGGCTGGGGCGGCTGCAGCAGACGCTTGC
0.789175637174362 TGGCCTGCCTGGGAGCCCCCATCTCCAGCCTGCTGTGCTGGCTACTTCTGGCACTTATAGCCCTTGAGATAGTACCGCCAGCAGCTCCCTGTGAAGTGCTAACACCCCTTCAAAGCAGCACCAACCCAATTGTGAACAAGCTAGGAGTAAAAGACGTAAATGAATTGGTCACCCCAATGCAGGGGATACAGACTTGTTTTAATATAAAAAAGAAGTGGCCTTAACCGTGCAGGGCTTGCAGGCCTTTGTAGGCATGGGAGCATGCTGTGATCCCTGGTTCTGTGCTAAACACTCAAAAGGGCTCTCTGACTCAAGTGGAGGTGATAAACCTTTTCAATAGTAACAGGAGAGAGTGTGATATCAAAGTGCCAGAAGTCCTCACGGACCAACATTTAGCACAGACATTCAAACTGCTGAAAGAACCAAACAGAACTCAACTGAAAAAAACAGACCTTTTAAGAAAAGCAA
0.8539269163547738 CCACCTTATCCCCTCCAAGAGTCTCCCAGCGTGCATGGGGAGGGGCTGCAGCGAAGAGGAGAGGGGGTCCTTCGAGTCACTCTCTACGCGCGAGGGAAGACAGGCGTTGAGGGACTGCTGGGAGGAACTGTAGGAGGAAGGGGCGGCGTTTCCGGTGGGGAAGAGTGGAGGCGTGCAAAAAGGAAGAGGGAAATCGGCAGGAGTGATAAGAAGGGGGAAGACTTTGAGTGTAACTCCCGTTCTTTTGGCCTGGGTGTTCCCGGTGGTGGGATTGGGATTGCCCCCTTGCGCGGGAGGAGAAGGGTGGATTGGCAGGAAGCCGCCAAGCGCCACCAGCCGGTCTCTCAGAAGCCGCACAGGCGCCACACAGCTCGTTGATCCCAAA
0.5462934543009837 CCTCTACACATTAATCCGCTAATCCTTCTCTCCCCATCAGCCTTTCAGATACTCCAGAGTGCTCCCAAGTCTCCTCTCCCCTCCCACCCCAAACAACCCCTGTTTCTGCCACTGCTGCTCTTAAAGGTTATCAGCAACGGAAATTCCAACAGCTCCTCGCTGCTGCCCATCGGAATATTGAACGACTGCCAGGTTGTCCTCTTATCTAGTCAGAGTGCCCTGGCCTGCATTCGGTCTCTGGGCCAGCTGATAACACATTTTTGTTGTTGGAGGAAATGCTTTAGCTCCAACGGGGAGTGTCCACCCATGTGACACTGCCCAGAAGGAAAACAGGCCTGGTTCTCTGAGGGGAAATGACAGCAGCCACAGCCCCCTGAAGAAGACTGAATCAGTCCCTGTGTATCCTTTGATCAACAGCCCCTG
0.3622434253470903 CTGGGACCGCGCAGTGCTGGAGTGGGGCACAGAGTCCCCATCCATCAGCCACTGTGACTGTGCCAACTCCGTGTTTACTCTGCCTAGAGATGGATGCTGCCCAAACGCCCGGAGCGCTGGGAATGAGGTGGGCTGGCTGGCCAGGATGATTTCTCTGGAAGAACTCAGGCAGGAGCGATAAGCCTGGCATTTCCGCTTATCTCTGACCCTGTCCAGGCCCCAGCGGCATCCAGAGGCTTCACTTGGTTATCTGCCTTGCTGGGCTCTATCTGCCTCCCCGGGGGCCTACTTCCTGCATCACTTAGCAAAGTGTCCAGCTGTGAAACAAACACCGTGTGGTCCAAGGAGGGAGGAATGAAGGGAGGGAGTCCTCGGGCAGAACTGACCTGAGTTCAAAACCCCACATCCGGGTGCAGGGGCCCTGGGGATGTGCAGGGACTCCTTGCATTCAGGGAGCCCTGAGGACAG
0.2749215125667459 ATTCATTCCTCATTTTTCTTGAGCAGTATATCTCAATGAGAGCAATTAGTACACGACCAATTCAACAACCACTAGATATAATGACTGTCCTACTTTGGTGCAGCGGACATCTTTTTGTTGTCGTTGTTCCCAACACCATATAAGTACTGATTAGAAGCAGGAATGCCTGTCCAGGCCCTGTGAAGGAGGTGATGAATGGTATGTCTGAACAGCACAGCCCTGGCTTAGTATCACTGAAATGCCACACTCCTCACTGAAGTCTGTTGATAAGCCTGACAGTGCTCAGCAACTTTTACCAGCAGACTTTATATCGGGGGACCCAAGCTGAAAGTTAGCACATGGGGTGTTCTGTCAGCACAGAAGGCTTACACCATTAGTAGATCTAAATGGTGTTTAGATTACGGAGTTCAACAAAAATCTAGGTCATTAAGTGCATAAAAGAAATGTTACA
0.01696989099925613 ATGATGAAAACTATAATCAAATTCTGCTACCTGAGTGGCACATTGCCTAATGCACTGAAAGCAAAATAGAAACCCCTAATCAAGAAGTCAGCATGTTGTTTAGGACAAGGGTAGATCAAGTATAGTGTCAACATGGCTACAAAGTCAAACCAAGCAAAAATATTGAGTGCTGACAACACTCATTTGTTTCTTATCTTTCTTTCTGATTAGCAGACTTGGACAAGGTGGCATAACAAGGTCCATGAACAGTATGTGTGTGTTTAACTACTTGTCATTTAAAATTTAGATTAGATAAGACCTCCAATAAGCCTTCACTGATTGCCACTCCCACCTCCTATTCATCTTTGCTCCTTGGCAAT
0.996295110466084 TATTACCAGACTCTTATTTTTCAAGGGAAGTTAGAAATCTTTATTTAATGTAAATTTTCCTGATTTTTAAGTTAGTAATTAATCCAAGTATAAAATTATTTTGCAGACTAAAATGCTTAAGGAAAACAAAACACATCTATGGTTTAGATTCAGCCCAAGATGATTGCTGTATAATCAGTCCATGAATTCCAATTACAACTCAACACTCAATACAACTCAACACTGCTTGATTGAAAGCAGTGGCTGGTTGATAAGATAGGAGAAAGAGGTAGTGTTTGTAGTGCTACAGAGAACAGCATATGGAAAATAAATGTAGGGGCAGGACAGAAGGAAATAAGACTGAGGCACATTTTGAAGGCCAGTAATCTAAGATTAGAGTAACAGCAAAA
1 TGCATAAAACAGCTGTATACCTTTAAGAACAGCTTAAAAATCACTGGATCCCACAAAGAACACAACTATATAAGATGACTACTAATTAAAAGATTCAAATCAGATGATTTTGTTATAATGTTCTGCAGACACAGGCAAAGGAGGTATGTAGAATGTCTGTAAGGAATCCAGGATTCTCAGCTAGCTGATAACGACTTCATGCTGCTGCTTTATTTCATTTGACACCTTCCATTCTCGTATCAGCTACTGCGTGCAAACCAAACCTCCCAAGAATGGTGACCCTGTCCTCTTCAGTTCACCTAACACCCTGGCCAAGAAGTAAATTAAAATGCAATGTATTTCAGCTCCTATAAATGTTA
0.9648793625451292 TACCTCACAGGTCTTTAGCCAGCATTATTATCAGAACACTATGTTTGGTCCACCAGCATGGACAATTATATATCACAACAGCCCAGAAGACCCAAAGTCCCTCAAAGGAAGTGTAACAGGGCACTCATGATTGTGTCATACATTTTTCCTATCACATACTGAACCATTCAGCTACAAGAGTGTTGAAATAACTAATCAAAGATACAGAAAAAACATATCTTTGAAAGGTGTTTCAACACTCTAGTAGATAAAATGTATCTTTGATAGGCTATTTCAAGCTACTAGAGTGTTGAAATAACCTCTACTAGAGTTTCCTAGCTACTAGAGTGTTGAAATAACCTATCAAAGATACAGATAAAATGTCAAGTTACTGGCAATATAAGTTTGGGGAGTCATTTTCCAGGATTCACTATGTACACAGTAGAAAATACTTTAATACTATACTTTGTTCCTAACAGGAAAAATACAGGGGGTGGAAGTGGCA
0.2673305000794449 GGTGTAGACAGTGTGAGAAGGAGGTGATCTGTAGGCCTGGCCCCAGAGTGGGAAGCCACACGGTTCAGGGAGCTGGAGCAGCTGCCCTCTCCAGGGCCCCCATCCTCAGTCTGATGAGATAAGCCAGGAAGAGTCTGACAGGCCAGGCTGCTGGAGAGAAAGAGAGTCCCCCTCAACAGGGCCTGGGGCTACCCAGCTAGGGCCGCCTCTCACTCTGACTCCGCCTCTGCAGAGCATGTGGGTTCTCATGGCCTTATCTGCCAGATGGCTCCCGGAGGGGATGATTTATTAGGTGCAGAAAGCTCGCTGATAAATTTTACTGCAAGTCCCCGGCAGAAGACTGGGGGTAGCAACAGCCCGGCGCAGGCAGCTCTAATGGAAAGTGCCGTCACCAAAGAGCAAAGCATTATTTATGACTGTCTGTA
0.3451457067031737 CTAACCCCCATGTTGTTAAAGAGTTAACTGTAAATGTAATAAAATATTATTAGAACATAACCACTATGAAGAAGGATAGAGTGAAGTGGCATTCTTTGGCCCAGGTAATATAATCATAGTAACAGCAAGCGCATACTAAGTGTTGACAATGTGACAGGCACCATGCTAAGCACTTAAGCACTTTACACGCATTATCTCAGATAAGTCACCTAACAGCTCTCTGAGTTGCTGTAGTAGGCACAAGCAGGACATCTAGCAGATGCAGGACATCTAAGTCAGATACTTTCCACTTTCCACAGTGTGACTTTATCAGGGACATCATAGCTGTTCTCTAGCCTGAGAAGAGGGCCAAGTGGGCAGAAACAGTCACGGGCTGTGTGACTCCTGCCTTCACTACCCATCAGCTGCTTTATCTTGGGCAAGTTAATTAACCCTATAAACCTTGGTTTCCTCATCTGTAAAACAGGAGGTAATAGGAGTTCTTACACCCTAGAATTGTATGAGAGTTCACCTGATGATTCACACAGGGCACAGCGCTTGGCCTGTCCACAGGA
0.6153947584755165 CACAATTGTAATGTCTTCCCTGTTGACTCAAAGGATTTTATTTCAAGTTTTCATTTCTAAGAAGTCACTGTTCTTTCCTATTCCTGTATGCCTGAGTCACCCCACCCCCACCCCCTTTGCTCCCTGTAATATAACAGGGACAGATTTAGACAACTCAAGTACAGGGTACTTTTAGAAACAAGCTGCTACTGAAATTTAGTCCTCCTGATGAGAATCAAAACACCATATCCTATTTGAAGACAAAGCTTCTCATCTAGTGACTACTGATAAGGCAGCATGCTGTTTACACGTCATGAATTATGGGTGTTGAAAACTTAAGTGGGATCCAATAGTTTCTTGTTGAAACTTTCTAGACCCACTATAAACCTATTCAGGTCATTGGTAACAACAGATTAGATAGACAGATTTAGTTTATATGTTTGGATATTTTCTTGGTAATCTACTGTGCTTT
0.4050958718990801 AAGAGTCCCGTTTAGCCCAGTCTAGAACTCTCTAGATCTCTAATGGACAACTTACTATGACATTAGGGCATCAGGCACTGATGCAGTCTCTCCCAACTTCTCACCAAATATACCAGATAGATAGTTAGATAGTAGATGGATAGATAGATAGATAGTAGATGAATAGATAGATAGATAGTAGATGGATAGATGGATAGATAGATAGTGGATAGATAGAAAGTAGATGGATAGATAGATAGTAGATGGATAGATAGATAGTAGATGAATAGATAGCTAGATAGTAGATGGATAGATGGGTAGATAGATAGACAGAAAGTAGATGGATAGATAGATAGATAGTAGATGGATAGATAGATAGTAGATGGGTAGATAGATAGATGGTTAGCTAGTAGATGATAGATAGTAGATGGATAGATAGATAGATAGTAGATGGATAGATAGTAGATGGATAGACAGTAGATTGATAGATAGATGGATTGATAGATAGTAGATGGATAGATAGATAGATAGTAGATGGAGAGATAGTAGATGGATAGGTAGATAGTAGATGGAGAGATAGATAGTAGATGGATAGATAGTAGATGGATGATAGATAGATAGTAGATGGATAGATAGTAGATGGATAGATAGTAGATGGATAGATAGATAGATAGTAGATAGATAGTAGATGGATAGATAGATAGATAGAGAAAAAAGGAACACACATGCATACAAT
0.3882549635294858 AGGGGGTCCCCTCCTGAGAAGGGTCACATTCTAGGCCTGAGGGCGGCCAAGCCAGCCCAGTGGTGTTTTCTCAAGCTGCCTGAAGAAACAAGTCCAGCATCTGGCCTTCCTGCTGTGATAATCCTCTTCCTGCCCCTGCGCCCCCTCCCCACTTGGCCGGAAAGCGGCAGGCTTTCTCTTCCCCTCCTTACAAGGGAGGCCTGGCTGGAATGTGTCCCTTGATAACGGGGCTCGTGAGGGGCTTGGCATAGAATGGGCTGCCTGCTGTGGGCTCTCAGACACATGTGGGGCTGACTGATAAGGGCCCTGCTGGCCTTCTGCGCTGAGGCCCCATTTGACAAGCTGTGGGCAGGATTTGAAGAGGGGTCAGTGTTCACAGAGTACCCTGGAATCCATCAAATGTGCAGGGAGCGGGCT
0.6148517103482299 GAAGTGCTTCCTTCGCCCGGCGGGTTCGAGCGAGTAGCACTTTACTTTCCCTACAGGTGGAGGCGGGCCTTGGTGCGCGGCTGTCCATCTCCGGACCGCCCACCCGGGCACTGGCCCATGCGTCTCCTCCCCCGGAAGCGGTAAGCGAATCAGGCGCGGGGGAAGGGAGAACGTTGCTCCTCGGGCCCCTCCTCCCGATAAGCCTGGAATGTCAAATATTTGTTCGCGGGGCGGGGCGCAACCGCGAGTAACGCTCCTCCCCCTCCCGCCCGGTAGGGCGCCTGCGCTTGGTGGAGGCGGCCCTTCCTCCGGCCACGC
0.7008610616149399 CCAGTGCCAGGAATCTTCCCTACAATTAGGTACGAGATAAATCAAAGCCAAACTTGGCTGACGAAATTCAGGAGCCAGTAGTGACCCTTGCCACACATATAAATCGCAGCAGGCTGGCCAAGGGCCTTTGTCTGGCCAGGAGAGTTCAGGATTATCTGGCCCTCTTTGCTGATGTATGGAGTCACCGGCTGTCGGAGTGTTTACTAACGGTTATCACCTCAATGCTGTGGCCATTATCAGAGGCAGGACCGCCTGCCGAGGCTGGGGCTCGCACCCTCTCTATTACCACCTGTCATTGGCAGGGAGTGTGTGCTGACACTGCCCAGCCCTCACTGCCTGGCGAAGATAGTTTCTGACGGCTGATCAAAGAGGAGAAGCAAGGCCTGATAAAGAGTGCGTGTTTCGTGTACTTTTAACTTTGGGAAACGTTGGCATTTGCATTTTTTCCCCATCTTCCCGATGCTGGCAGGAACCAAGCCCAATAAATGCAGTGGATTCAGTTACCTAATCGCTGGGGAAATGGTATGTGCTTAAAGCAACAGAGCGTGACTATAATCTCCTTCCGAGAGAGAGTGGA
0.6515646007379698 AACTAATAAGATTTTTGACTTCTGCGTACCTTCACTGTTAATCCAACAGAATATTCTCTGAATTATAAAAATACCACGAAAAGAAACCCAGCTAGTTATCAGAGTTGTCAAGAGAATGATTGGTCACAGCCAGCACCAGGGAAAGAGAGTCTCCCAATAGACAGAAAACACCTGGAGCTGGTGACAGCGGCTTCCTGATAAGATCTCCGGAGCTGGGTGAGCAGGCTCAAGCATGCGCACTAAGAGGCAAAATGGTGGATGTATGACCTTCTTCAGGGAGCATTTGACTGGTAAAGGAAAATAGCCCCTAGAGAGCAGGTGCACAACCTTAGTAAAGGCACTACACATGTGGCCCCTCCTAAGTGCTGACAGGCCACTATGCATGCA
0.8813312910974084 TCAGGTGTGCATTTGCCTGCTTAAATCTGCCTCAGTTCCAAACAGCTTGCCATGCTCTATATATAGAGATGACTTCACCCTCTGTTGGAATGCAGCAGCTGTTCAGCAGTGCACACTGATATGCTTCAGAGACTTAGGCCATATCTAATTGAGCACTTCAATACTGCAGAGATAGGCGCCTTGGAAATATTTAGATAAAATACCTTTGGCCAGATGGAAGCCGGCCAGGATACCAGCATAAAATCTTCATCTCACAGGACTGCTAGTGAGCCTTGGCGGGGGGCTCCATGGAGGGAGGTGGCATCAGGAGAGATGCCAGTCTGTCCTATCCACCCCCTGCACTGTAAACATGACACAAAGAATAGTAGGAAATAGGAGAAATCAGAATTTTGTTGCTTCCTCCTTCTCCCCTTGGCAGACCAAACACAGCCTACCCTCTGTGAAAACAATCTGAATGTTA
0.534776125738505 AAAACTAGAGGGTGTGAGAAGCACAGCAATAGGAAGTCTCTCCACAAACTAGGGGAACACAAATGGGGTCATTCACGTGCCTGGACTGTCACTATGTGGCTGTCACGTGAAGTGCTGGTGTTGATTTCCATTTCAGCCAGTGGGTAGCTGATAAGCCAGTGCCAGCATCCAGCATGAGCAGATGTCGGGGAGACTGGGAAGTCTCCAGCGTTACTGCTCTCCTTCCCTTCATGATAAGCCAGTGCCAGCATCCAGCGTGAGCAGACGTCGGGGAGACTGGGAAGTCTCCGATGTTACTGCCTGCCTTCCTTTCGTGTGAGGG
0.3613029425474465 CATTTTCCACTTGCTGGCAGGTCACTGGCACGCTCCTGCCCTGCCCTGGGAACTGGGGGAAGCAGAGGCTGGGGCGCATCCCAGCCGTCTCCCCTCCTGGGCTCCCGATGGCCCCAGCCTGATGCACTACCAGTTCTGTGGGGCCAGGCTGGTACCCTTGGCAGGGACGGCAGGCGGCAGGCAGGCGCGTGTGCAGGGGGCCTTATCTTATCTCCCTTCCTCACTCCCTCCCAGATCCGCCCTCACCGGCTGCTGTGTCGCCGTCATCAAGCCCTCCGGACACTGACACACACACAGACACAGAATTTATTTCTGGACGCATTCTGCAGGCTGGAGGTCCCGGCAGGCACAGGGCTCACACCTTGGGTTTTGCAAACACCTCC
0.6862567580386939 ACTGTTACCGTTATTATTATCACTACGATTTTTAGAGGCCTTAACAGGAACATCCAGCACCTTCAACAGTATATGGCTCATAGGAATCATTCCATGAATATTTGTTAGCAGAAGGACAGCTCTATGAGATAGATTGCTATCAATTACTGCCCCATTTTACAGATGAGGAAACTGAGGCCCAGAGAAGCCAAGTAGTGACCTAGGGTCACACAGATTGCCGTTAAGTGGCAAGATACGGGGTGTGTACTCAGGCATATCGGATCTGTAAAGTGAGGGATAAGGAACCTTAATGTATTTTGTA
0.9233925237442594 GGCTTGTTTCACCCTGCAGGATTGCCGTCCAGTTGCTCTCAGTGGTAACGTTCTTGATATTTTCCCTTAATTGACTACCTTTTCTTCCTTGCCTTACTTCTCCACTCTCCTATCGGAATTTCCTGGGATTGCAAGCGAACATCTCAGAGTGTGATTCTGGAGGAACCCAAACTAAGAGAGGGCTATCTATATCTATCTATATCTAGATCTAGATCTATATCTATCTATATCTAGATCTAGATCTATATCTATCTATCTATATATACATACCTATGTATACATACATAGGTATACATGTATATATACACACACATATATTCATATGTGTATATGTGTATGTGTAGTATATATGTGTATATATAGATACAGTTTTTACACAAGTGATAACGTTCTACATCTTGCTTTTTCACTTAATTATATATCTTGGTGGTGTTCCTTATCAGTATAGTGAGCTACTAATATCTTATTATTTCTTGCAACATTCTAT
0.8014896050261053 CACTGATTACTCTGCCAAAAGGAAAGAACAGGAGGTTAAAAATAGACAACCCCATTGAGTTTATCGTGAGAGAGAAAGGAGCGAACGAGAGAGAATTGCCACGCCCCTAGTATGGTGACACTAAGTGCCTGTTATTTTTGCTGTTATCTTAAATGTGGAGGACAGCTTCAAGCTCTTTCCTTATCAGCTGATGTTTGATAACAAATGGAAAAAAAAATTACATCCTGACAACCCAAATTAGTTTTGCCACCGAAACTATGCCATTGTAACCATGGACTTTGAAACAAGTAAGTCTTTGACCTGGTTATCAATCTTTTCAAGATTTTTGAAATCTCTCTGATGCAAAGAGAACTACCAAAGTGTACTTTAAAAAAGTTTTGGTATTTGTCTTGGGGTTAAGTCACAAATTGCTTAAAACACATTTT
0.7830906306408536 GCCAGTTTCTACATTGCTTCTCTTTGGTCTTTATCATTATCTCCTAGTTACTCTCCTCAATTTGGATTCTCAACCTTTCTTCCTGTCTGCTCCCTGTTCAAAGAGCTGCTGCTCCCTCCACTGGTACCATGCCAGCACCTCATTCATTTTTCCTATGTTGTCACTTTCAAGTGCCTAGTCGTGCTGACATGTTAATACATTACCATAATCTTATCTTTATAGTTAAGTATACCCCTGGGAGACTACAGTCTCCTGGAGCTCTCAGGAGTATTGGCCTTGACGTTTTTTGATGGCTGTTTAGGAATTTATATGGCTAATAATGTCTGAAGTCTGTATGTGTAACATATATGAATACAAAAATAACAAAACAACAAGAAAATTGTGCATCTTTTACTTTTC
0.7995312378981895 NNGAATTCCATTCGATTATCATTCCGTATGAATCCATTTGATGATTATTCCATTGGATTCCTTTCGATGATGATTCCATTCAATTCCATTTGATGATGTTTCTCTTGTATTCCATTGGATAATTCCTTTCAGTTCCCTACGATGATTATTCTTTCGAGTCAATTCGATGATTCTATTCCATTCCCTTCGATGATGATTCCATTTCACTCCATTTGATGATTCCATTCGACTCAATTTGGTGATGATTCAATTCGATGACATTCGATGACTCCATTCAATTTCATTTGATGATGATTACATTCGAGTCCATTTGATGATTGTATTCCTTTCCTTTTGATGATTATTCCATTCGTGTCTATTCAAAGGTTCCATTCTATTCCATTCAATGATGATTGCATTTGATTCCATTCAAA
0.9500112309964217 ATAGGAAAATAAAAGTAAGTAGGCAACAAGCAGTCAACTGATTTATCCAGAAACACTAAATAAAGTTAGGATGGACAATCAATAGAGTATATCAGTGGATGCATCTTCATAAATCTTTTATCTTTTGGAATAAAGAAGATCTAAGTAAATGGAAAGTGATGACAAATATACTGCAGCTATAAAATTGTTTCATGTTGATAAGAAGTGAAGTGTTGAGTGGGAAAAGAGCCAACTGCATGCAGTCATGTGCTCTTTTCCAGACCCTTGGCATTCCAATCAGCAATGCTGAGATGAACACCTTTGTTATCTACGCGTGAGGTCAGAGTGACCATTTGAAATGTGACACTGAATACTGAAGGTTATTTAGACCAAAATTATGGATTGTTTTGTAACCAGACCCCTTGAGATTTTAGTGCCCTAGCATGTATAGTGACTAAAATCATAAAAATTCTTGATTAGGCCCTTGCTTGCTTATACATGTAAACCACTCACTTTTTGCACAGCATCCCTTGTTCCCACAATATAATTATAAACTACTGATACAT
0.8750431664656605 GGGAGGCCATAAAGGGTTTTGTCTGTCCTGTGTACAACTGACCAATAAGGGAAGGGAAGCAGTCTAGGCTTTAAATAGCTTCTGAGTGTCAGGGAAGGATAGCTCTCCTCAACTAGAACAATGAAATATCCTTTAAGGGAAAGGTAGAATGCCTCAGAGAGTTCAAAATAAAAGAATCCATTCTAACATGAAACTTACCAAGATGAGGAAGAAGTTATTAAAATCTTTCCTGTAAGATCAAAAGGTACTTTTCCTGTAAGTTCCTTCAACCTATCCTGGTAACTTGAAGCATTTTATTAGCAAAAATAAAAGGGGCAAACATTATCAAGCATTCCAAGCTTATCAGCTTTCCGTATAGGGCAAATCACTGGGAAGAACAGTAAATGTCATCACTCTGCAGGTGGCCAGGAATCGGAGTACTCCAGCCAGCCACAGCCACTGGAGTTCCAAGCCTTCCCAAAATAGCTATGACTTACATACAAATGCTCATCAAGTAGCTCACACACAGTCTCAAACGGAGAA
0.5515674932720005 TGTGACCATTCAGACTTAATGTGACTCTATGAGAAAGCACTGTTGCAGGCCGGGGATTGGCAGGCAGCCCCGGCCCCCAGCCTCAGATAACAAGCTGCTCTCCAAGAACACGTGCTAGGAAAAGTGCTTGATCAGAGTGTCAGCTTGTGGACTGAGTAGGAACACTAAGTGGTTTTGTCTGTCACCTCCTTCACCCCAGCTGGAATTTGGCCATAATCTGATAGAAACACTTTGCCCACTTTCAGGAGAATTTTCCACTATCAGTAAGGCTGCTTTTTCATACTTCGGCTATCACCAAAGCCTTTCAGAACACTTGTACTACTATCGCCCAGGGGAGCTTATATGTCTCAAGGGTAGGGGGTGGGGGACCAAAACCATTCTGAGCATGGAACACTCAGTTGATTCAGGTT
0.2047915352661372 CCTGTGCTTGGCTGGTGCAGAGCCTGCCTCTCTCCCCAGCATCAGGGATGGTTTCACGGCATGTGGCCTCTCCCTGCTGCCATGCCTCCATCAACTCTCCCTTTCTCATATCAGAAGATCACAAGCATTTAACAGCCTTGCACTTGTCTGACCCGAGCTTGCTGTATCTGCCCAAGAGGGCTGGGAAGATAAGATGAAACAATCCCTGTGAAATACTGATCACTAGTCAGCACTCAAGAGGTACCAGTACATCACCATTCATCACATATTCATTTAGGACCTAATACATGCCGGGCCTTGGGATAGGCGTTCTCATCACCTTCATCACTTACTGTTACTACGTTTAACACCCTCCACTCCCAGC
0.6553116742164029 AGCCACGCAGGGTGGCTGGAGAGCTTTTGACAGCCCCTAGCAGAGCCCAGCATCCCATTCCCGACGACGTGAGCCCCCCAGGCAGGCGCCGAGTGGATAAGAGTGTAGACAGCGAGGCCGGCCTGTGACGCTTGCCAGCACCTGCAGATAGCAGGCAAATAATTGGCACATGCTTAAAAAAAATTAAAAACCTCTTGGATGTGAGTATTTTCTAACAGCATCTGGCGGGAGTGCCCGGGAGGAATTTAATCAGCAAGAGTTGTTTAAATGGGGCTCCGCACAGGCCCCGGCCAGGCCCGCCATGAACTCGGCATCATGTGCCACCCCTGTCTGCTGAGAACATTCAATTTGTTAATTCTGCAGCTGGTGAGAGAGGTCAGATAGGAAAGTGACGATTGTTTTCTGACGTTCCAACCCCTGCTCACATCTTTCTAATTAATCCTTTTAGGAGCCACAGGAAGATTAAGAAGGAGAAAAGGTGAGGG
0.4724785353159269 CTAAATTTCCCTTGAAAATGTGAAAGAGCAGACAACACTTGGCCCTCATTCCTGAAGGAAACAATTTGTTAGATTAAGAAGGGGTGAGTCCTTCCAGACAGAGTATGCTTTCTAGATTAGCACAGTCCCTGTCAGCACCCATTATCTTGCACTCATTCTACTTCACTCATTTACATTATCAGCCTGGGCTCTGTGGTCTAACCTTTCCACTTTGCAAAAAAAAACTGAGAGGTCTAAGTGGTTTGGTCAAGGTCATAGATACAGGTACAGTGTTAATATCTGGCCCTAGGCCCGAGGCTTCTGGTTAAGCTCAGTGTGTTAACACTATCTTCATGGGCCCTTTGGAATCTATCAATGACCTGTAAACACCTAGAACACTCAATTTGCTGTTCCTTTACAGCCCTTACTACTTCTTACTTTCCACT
1 CTAGGGGTAAATGTTCCTTTATTACTAAGAAACAAAATACAAATTAGACCTTTATTCATCTCCTTAAGTTTGGAGACTATTAAGGAGCTTCATACTTGTACTCTTCACCAAAGGAATGTAAGTGCACAGTAGACATTTTATTTAGTCAAGTTCTATCAATATTTTTTGAGTAATTATCAGTGTTGAGTTGACAGTATGATTCAACTCATGTACCAACACATAAGGGATGATAAGTGGAGTATAGTGTTGAAAAGGACTCTAAGGCTTAACCTGGGTTCAGTATCAAGGGTGCTATGTTAACTAGTGACACTGCCTGGTGGTGTGCAAGACTGAGAAAGGGGCTTGAATGCCACATATCTGCCATCACGTAAAGGCAATGAACAAGTAATAGATGAATGTCCATCCCCAATACCAATATTTCTCAATCTTTAGAGTATAAGAATCATCTTGTGAGCTGTGAGAAATTCAAATTGCTGGTGTCCACTTGTAGCTATTATTATT
0.5877068424174512 TCTGCCCCTGCCCCTGTCCTTAGACAGAGGCATCCTAGCACAGGTGCCTCATGGTTTTCCCCTCTGGGTGACCCTGGAGCAAGACCAACCTCTTAAGAGGGGAGGGGAGGGAATGTGAATAAGTAAATAAATAAGCAGATGAATGAGGGACTCTTCTCAGCATCTTTGGTGACCCTGTCTGACTATCACTGGCTGTAGAATGTGTGACAACTGAGTCTACCAGGCAACGGCTGTTTGCCGGGAGCAGCAGGACCCAGCCAGAAGACATAATGGAAGCAGGCCCTGGCCAGAGCAGGGACCTCAGAGCCTTTCCCGGCAGAGGGAACGCAATCAAAGCTGGCGCTGCTTCCGGGAGGAGAGAATTCCCAAAAGGCTCTGTCAGCCCCTCTGATAGGGATCTGCAGGGTGTGTGAGAGATTTGTTTTTCAGCCAGGATGTGGGGAGTTAAAAATAGACACCCTAATCCCTTGAGTTCGTGTCACACTTGACGCTGTGCAGAGCCCTATGGCTCCATTATCTCACTTGAGTGGCTCGGCAGCCTTTGACGTGGGGAGAGGTTGCACTGCCCGCTTTATAAATGAGCGTGTGGAGGTGCGTGCCCAATTTCTTACTTGAGACTGTACCCCAAATTC
1 TTTTACTAAATGCTGTTCACAGAAAGAGTATCAAATTCTACCTATCAGTTTCTCTCATTCTTTCCTAACTAAAGACTTAAAAGCCAAATAAAATAGTAACTGGGAGCTTAAAAAACATGTAAAATACCATATAATCAAGATTGCTTAAATGTATAAAACTGTCAAGCAGATTATCCTTTATGCAATTCAAATGAGCCTTTGGGAGACAGAATTAACTGAGGGCAAACAAGAGCTTAACTTTAAAAGACAAAGAGTTGGCTTATATCAAGTTGACACTTCCAGATAAGATACTGCATTATACCAGGTTATACTTGCAGTAATAATTTTTGATTGGCATATCATTTGCCACTAACTGCTGCCTGGCTTCCACTGAGCACACGCAACATACTATAAACTGTTATGAAAGATGTCTTTGTATTGTTCAATATTTAC
0.6287499914469208 CTTCCAGGGGTTCCTGGCATCTTAGCTGTGGCTCTCCAATACCTGCAGGTCACAGGGCCACACAGGCTGGGCCTCCTGGAGCAGAGGACACAGAGCAGTGAAGTCGAGACCTGGAAACTCCGGCGGCAGCGAGAGACAAAGGCCCAGCCACATCCCGGAAGCCGCCCTGTCCGCTCCAGCTTTGTGCCTGATTGGACAGTTCCCAGCCCAGCGTCCCTGATTAGATAACGTTTAAGGCCCCGCCTTCTCAGGCCCTGAGTGACAGAAGATGTGATCAGACACTGGGCTGAATGAAGAAAGAGTGACAGCGTAGGCTGCAGCCTTTTCAGGCAGGGCTTCCTCAGCTCAGCCAGGCCCACCTCAGAGCA
0.3203710612663576 TTTGTCTTCTCCTCCTAATCTCCAAAGAGAGGCCTTGTCATCTTCTACTGAAATACTGAAACCATCTTTTATATTGTCTTACTGTCCTCAATGTGTTTTCCAAAGGCTGCTAAATTTGCTTTCTGAAAATACAAGTCTGAACTTGTCCTTTGCAGGCAGAATATCAGTTTCAGAGGCTTCAGAGTGACTTCAGGATAAAGTCCAAATTCCCAACAGACTTTTAGGATCTTTTTCTTATCTCTCTATTCTTATCTCTTATCCCTTGTACCAGCACCAGAAAACACTCCTCACATTTACTGCTAGGATTTCAGCATACATTTTTATCTAAACACATTCCACAAGTAGGCTGTCATGTTTTTCAGGACTCAGCCCATCATCACCTTTTCCTGAGAAGCCTTTCTGCACTTTCCTCTTAAACCCCTGGTGGGCGGTTGGGTTGAGCACACTCCTGTGGGCTCCTTCAGCA
0.4750220999153851 TTCTTTTTTCCGTATTTCTGTTGCTAAACACGGCTGTTGCCAACACCATCTCACTTCATTTTCCAGAGATAAGGGCATTTGTCATGCGTTTCTCAGCCCACCACTTAACAGTTCAGGAGTGGAAGCTTAAAGTGTTTCCCCCTCCCCCTCAGGACACGTGCATTTAGAAGAAAGGACAAGAATCCATTTCCTTATGTAGCAGAACCTCTGATAGTTCTATCCCAGTTCCCAGCCACTTCAGAGTGAAGACAGTCACCCAACACCTGCTACTAAAAGCCCTTATCAGCCATGTTTTTGCGGTTAATCTCCTTCTGATAAAGTGGTTCATTTTTCAGAGCTGTGAATATTGGTGACATGTAGGAGGGACCAAAATTTTCAGCCCTCATTCAACCCTCCCTTGTTTTTTATCAGTTGATTTTCCCATGTTAGAAAAGGACAGTTGCTGGTACAATCTCATAAAATGGG
0.5880859392755343 TTAGAGCAGAATAGTATCTAGCCTACAGGAAGATTAAAGGATTAAAATGAACTAATACTCTACTTCCTAAAACATACAGACTTCTACACAGTGCCAGTCAAATGGCAGCCAAGTGTTATCAGCAAGGCTAAATTTGGATCACATAACCTAAAAACCACTTAAGATAAAAAGAGTGCTGAAATAAGCGCAAGCCATAATAAGGGCCAATGAGAGAATGGGTCACGTCAGGTGACATGGTTTCCAAAATAAAAAAAGGCCAACTCAAAATACAAAAGAACTGGGATAAATTCTTGATAGCTGGAATGTTTGGTGGAGGCTTAAAATGAGCACCTTACACCCCACCCCCAACAAAAGGGCCCTTAGCCATTCTTTATAGAATTGAGATCCTGCTTTAAAGAAACCAGAGCACACA
1 GAAGGCGGAGCGAGGCGGAGCTTGCAGTGAGCCGAGATCGCGCCACTGCTCTCCAGCCTGGGAGACAGAGCGAGACTACGTCTCAAAAATATATATATATCTATATAGATCTCTACAGATATCTAGATATCTATCTATATATATAGATATTTATCTATAGATATATCTACATATCTATATATAGATCTATATATCTACATATCTATATATAGATATATCTATATAGCTCTATATATCTACATATCTATATATAGATCTATATCTATCGATCTATATATCTAGATATATAGATCGATAGATCTATATCTAGATACATATCTAGATATATAGATCGATAGATCTATCTCTAGATATCTATAGATATCTCTAGATATCTAGATATGTCTATAGATATATATACATACATACATATATTTGGCTGGGCGCGGCGGCTCACGCTTATGCCAGCACTTTGGGAGGCCAAGGCAGGCGGATCACTTAAGGTCAGAAGTTTAAGACCAGCCTGGCCAACGTGGTGATATGTTTAAAATAAAATTTTTTTTTCTTTTTTGAGACAGGGTCTCAACTCTGTCGCCCAGG
1 ATAAAAGTAAAACTTCATCTAAAACAAAACTCATGATGATGTTTCTTATTCTCTGATGTTGTATTATTTGAAAATTGTTTTTCTTTTTTTCCCAAGAAGTATAATAAGGCTAGAAGCATTCAGAGCGACACATTCTGAAGATACACTATCTGAAAAGAGACATGAGGAAATTCCTGTGTCTCCAAATGGCAGACTAAACTCACAATGGGGCATGACTTGTTATCACCTGCTGGAATGTTTCAAGTGGCCTGATTTGACAAGGCAGAGGTGATTTACGGTTAATGTTTTATTTGATTCCAATGTCTAACAATAGAACAGTCACTTCTGTTTATTTGGGCAACAGCAGAAATCTGACTTACTATGCAGAATAAATGCCTAGAAGACATAAAACATATTAA
1 CTGGTTAAGAATCTATTGCAGGAAACTGAGTAAGGGTGATATGTAATAAGATGGTTGAGATGGCATTCTTGGGAAGAGATCCCAGTGTAAAGAGAAATATATTTTGGTTTTAGATATGTTGAGATTGTGAGCCCTTGAGATACCAAAGAGAGAATGTTAAGTGGCAGTAAGATATCTGTATTTTGAGCTCAGTGAATATGTCTGGAATGTCTAGAGCCACTTAACACCTTTTGCTCCATCTGTAAGAAGAAAATAGCATGCTGAGATTAGGAACTCCCTTGAGCCAGATCAAGTTTACCTTCTGATCATGTACACACAGAGACTTTAATGCATCT
0.5769881492322796 ACCTCAGGAGTCTGCCCTTAATCCTGTACCCAGGACGGGGCGGGTGAGAGGCACATGCTCAGATTTGTTCCTGACATGTAACTTCAAGAGCAGTGCTACATATTTTGCTTATCTATCCAGAAGACTGACTGCATACAGATGAGATAGGGCGTGGGGGGCCAAGTGGGAGGGAGCTCCAGGAGGTGCCTCCAGACATGGACCAGGGACAAGAGGACAGCTTAAAGAAAGGTTGTGGGAATTGAGTGCAACATTTCGGGTCTCAGCTTAGATGTCACTTGGCTGGGTAGCCT
1 TGGATCACTGGCAGGATCCAAACACTTGGCTTCTCAAGGTAACCACTGAGAGGCTGGAGGTCAAGTTCAGGAAGGTACCATGTAGAAACCATACTATTCACCCAGCCAACTGGAGACAGTTAACCGATCACAAAGAAAAATGAAAATTGCAACTTCTAGAATTTAAAGGGGTTTGTCCCTGGAATCTTGGCTCTGTTAATGGCATCGACCCCTCAGGTTAATATTAAACAAACTACACTCTGGTATTCATTACCTTATCGTGAGCCAAAGGAAGATAAGCAAAATATGCAGGGCTCTGACACAGCTGGAGTGGGCCACGTAACAGAATAGCTCTTGAAGAGCCTTTTACTAGTACCGTCCTGGTAACAAATAACATTTAGTGATGATTAAATGAGTATTTATTCTCACCAAAGAAATATGCAAAAATTTCCTCATATATTTTTGTGTCTTAATCTCTTTTCTTTCCAATCTATAATTTTTCTTTAGCACAGGTTTTCTCATTCACTTAGTTTCAATGTTATTTAATCTTT
0.4586068828518849 TTGTGACCCGATTCCAGCGTGGCCTGTCTCCTGCACCTTCTCTCTGAGAGGCGCTGACAAGTGCTCAAAACCTGGCCCGTTTCCCTTTAATCCCGAGCCCTTCAAAGCACCTGAACCCTCCCATGTTGGCAACCTCTTATCACTCCCACTCAAGTGTGACTTAGTGTGTTTGTGTTCGGGTACCTTTCTCACAGTGGCTATATTATTATCAAATGGGGAAGTCAAAGGATGATGAATGGACGTTTCTCCACTGTGGACTGCACTAAGGGATTGCGACAGAGAATAGTAATA
0.8868073641814974 TACCTACAAGAAAGGAAATCAGTATATGGAAGAGATATCTGCACTCCCGTGTTTATTGCAGCACTATCCACAATAGCCAAGATTTGGAAGCTACCCAAGTGTCCATCAACAGGCAAATGGATAAAGAAGTGTGGTACAGATACACAATGGAGTGTATTCAGCCGTAAGAAAGAATGAGGTTCTGTCATTTGCAAAAACATGGATAGAACGAGAGGTCATTATGTTAAGTGAAATGAAATAAGCCAGGCACAGAAAGATAAGCTTCGCATGTTCTCACTCACTTGTGGGAGCTAAAAATTAAAACAATTGAACTCACGGAGATAGAGAGTAGAATGATGGTTACCAGAGGCTGAGAAGGATAGTGGGGGGTGGGGTGGAAATGTGGATGATTAATGGGCATTAAAAAATAGTTAGAATTAATAAGATCTAGTATTTGATAGCACAACAGGGTGACTGTAGTCAATAATAATTTAATTGTACATGTAAACATAACTAAAAGA
0.8767373670669592 CTCTCTTATAGGGTTTCTGTGAGTATATAAAAATTGTCTACAAGAGGACCTTTCACATAGTAGGCACTCAACATTAATTAATAATTTTAAAAAACAATTAGCCAAATCAGGAGTACAATAAAACAACCCAGATTTTCTTACGTTAAAATGTTCCAATTATTTATGATTATTAATTTGAAAATGATCTTCTTAACAGCAGGGCTGTACCGTATCTCAACGGTGGGACTGTGCTCTATCACTCTTTGCAACCCTTGAATCTATGCTAGTACCTGGCATGTTGTCAGCACCTGATAAATATGACTGGAACACCCCTCCCCAAGAGCTGGCATGCCCGGCTCTTCTCAGCGCCCAGCCATCCAGTATTAACTTTCAAAGTCCTGGCCTCAGAGACTCATTCAGGCACCATCCAGTTAAAAAGCAGCTCATCATTCTCCGTCACTGTCTGGCCCATTACCTGATTTATTT
0.845497925056798 CCCCTCTTCTCCTCCCCCCTCCCCACCACCTCCTGGGCTTCTGAAAGAATCAGTGCAAGAGCCAACATCTCCTTCAACCCATTGACGTCTGTGAGATACCCAGAGACGTTCAACCCAGAGATATCCAGGCTGCTTGCCAAACAAGGAAATCCAAGATAAACGTGCCATTCTGTCATGACCTTATCCTGCTGAGAGACAGACAGAAACAATGGCAGAGAGGAATAGCCTTGCATGTTTTCATGGCACCTTTCAGAAAGAGATGAAATTCACCATCAGTCACACCTCTTGGAGGTTGTACCATTTAGCTGATAAGAAACAGCCAGAGAGGCAGGGAGTATGGACACTCCTGAAGGCAATCCTATGAGGAGCCCCCTGAAACTTCTTGAAGAAGAA
0.832425767227103 TTCTGTGTGAGCTCAGTTCTGTTGCTTTAGTTCTGTTCCTGCTGCCATTTCTATTTTCTGCTCTAGAGGCCTAAGACTTGATCTGTTTATCTTTGTTCATTGTAGTTCATTTAGTTGCCAAACTTTTATTAAGTGCCTCTGTCAGTTAGTGTTGTAAACCTCAAGGACACCTTGTTAACAAGTGATTTAAGATTACTACCTGAAGTGGTTTTTATCTGTTGTTAGTGGGGTAATACCAAATGGAATTAAAATTCAGAGAAACTGCCAACTTATCTTTTAAGGAAATGGTTTAAACCTTTTCTTAACCTGGAATAAGTGTAGTT
0.881744179266431 TTTCTGCTCTCACATTATATTTATATTACCATATTCATATCAGTAAAATTTCTCATTACACATTGTGATTATAATCAGTAGTGAGGAGTTAGGAATGAGTATCATCACTCATTGAAAATACTGTAAATTCATACCATAATCTTATTTCTGTGGCTGTGGAATTCTGTTACTTTATTTAGAGGGGACACCTCAAGTGTCTTGGAAAGTAAGGGAAGAGAGTGATAAAAGAACCTTTGTTCTTTTATCTGGTGTGACTTACAGCTCAAGTAGTTGTTGAAGGAAGGAGTGGATTATTGATAACCACAGCTCAGTGGACTTGAGAGGAAGCTTTACTCCATTAGGAAGGAGGAGTATCGTGGATTAACTCATAGT
1 ATACCATACTGGTACAACTTCTTACTATCTCTTATATGCACATATATGTGTGACATTGAATTACACATAAAGACAACTGTCAAATAAAGACAAATTCAGACTTAGAGAAGAAGAGACTTTCTTCAAAAAGAATATTGCAATAGGCAGAATATTCTTATCTCATAAATCTGCAAGCATGTGAAAATAAAAAAAGAAAAAGGTTCATTTTGTAAGGAGAGATAAGCAATGCTTAGCAGAAACTTTTAAGGAGAAGTTGAGTAACCAAAAGGGAGCATAATCCTGGTTCGACAGAAAATTTGTCTTCTATCATTAGCAAGCACACAAGATAAGCTGACAAGAGGAGCAAGCTAAAGTTCAAGGGCCTGTGTGAAAGAGAGATGCCTGACTAATGTTTTGTCAAGATAAAGCAGAGGGTTGGTGACAGACAGTAAGTATTATGTTAGCACTTCTGGATTCTGGAACTCCACACTCATCTGAATTTCATATTACACTGTTAGCTACTCCCTCTCCATCTTTTTTTTTTTTTTTCCAGAGAG
0.8193062252541626 CTTTCTCTCCTCAACTGTCAAACAGAAGGTGGAGGTTGAAAGAGAAGCTTCCCCAGGGTTTTTTGGCACCCTGCCCAGATTTCCTGCCCAACTCTCAGCATCCTATGATTAATGGGATTCCCAGGTTGGGGATGCCTCTGAATGCCGCCCCCCCCTCCCTGCCCCACTAATCTAATCTCCTCACTTAAAGATAGGAGGGAGTGGAAGGGAGAAGCTGCAGGGAATATGTGCTAACATCAGTTACAGGCAAGCCTGTACTTACACAGAGATCTGACATTTTAAAATAAATTCTTGAGCACTCTTTAGACAAACTGCAAAGTTTAGGAAAGTGTGCAATACTCCTTGGCTCATTGGCCCCAGGAATTGGAG
0.6969465448657649 AGGATCATGTTACAGCCCTGCCTCCCTTGTTGGTCTGTATACTGGTAAACTGTGTGGCTGTTCCCTGCCTAACCAGCTTGCTGCTTTAAGGTGACCTGTCCTGAAATCCCAGACAAACACATTTCGTGATACAAGTTCTGCCCTCATTTCTATCTCAGAGCTATGTGTCTGGACCCTATGACTCTGCACCCTCTCATAGCTGAAGAGTGTTATCAAGAGTAAACACTCAGGATTGATAATGGTCTTTCAAAGGTCTAAAAACACACCCACAGTCCAATGACCTATTGAAAGGAGGATGAGTGGTTTCTTTTGATATCGGGCTGCTGGACAGACTTTAGTGAGTGAAAGATTATGCTGCTTATTTACCTGGAAAAAAT
0.3864451205981017 GGGTTAGAGTCCTACCATGTTCGTGAGAAAGTCCTGGTTAACAGTGCAGGATCCTAGTGGCCTTGAAAGGGTGGAGGTGTGTGCAGAAAAGAGACAGCATAGCAGGCCTGACTGCGATCCTTGGAAAGGCTTGTTTACAAGATTAGCTCCTGACTGTACTCAGAGTGTCTGGGAATTTGGAGTGTTTCCGCTATTTTCAGAACTGATAAGAATGGCATTCTATGCCTAAACAATACAGTTTCTGCTGAACACCTGCTTTCCCTCAGGGAGTCTGGAATTTTGGTATGTGCCAGGCAGAGGCTGCCTGCATACCAGCCTCCAATAAACACTGAATGCTTTGTCTCTAATGAGC
1 TACAGTGAGCTGGGGATTCCCTGTGTTTGCATAAGGTTGTCCTGTAGCTCTTTCTGTATTTACATATGTGATCTAGTCTTGAAGGTGGCTGGCTGGGGGGGCGCTCAGTTTTGTGTATTGAAAATTGCTAGAAACTGAGAGTTGGTTATTATATTGCCATTGAACTTCCTGTGTAATGGATGGTTACCATGTGTTTGTGTTATTCTCTGGTAAAAGGCACTTTTTATACCAGTGGAGTGTAAATTCCAATGTGAAAACGTTAATCTTTGAAAACCCTGAGCTAGGCTCCTGTTAACAGCCACTTGAGGTTATCTGGTGCTAGAGGCTAACCAGATCCCATTAGGCAATCCTTTCCCTCCCTGTAGCACATTACCCGAGGGCGGGACTCTTGGAAACTTCAAACTGAGGCTCCCCATGGCTGTCATTGCTTAAGATCTCCCCTGGGTTTTTACAGAATGGGATAATGAGAAACCTTCCAGACAGA
0.6693418206740338 GAAAAGTCAGTGCCAGGGTGGGAATGGTCCAGTCGCCATGGAACTCAGCAGGGAAGAATGGCGCCAGACCATGTATTAGAGGGAGAGTCACAGGAAACTTCCAGAGGAGTACTATCTAAACAGAAGTCCAAAGCATGAATAGGAAATTGGGGGAGGGGAGGAAAATACTGAGTCCCAAGCAGGCAGCAGAGCCTGTGTCCAGATAAGAGGGGAATGGGAACAGCATGGTGTCTGCAAGAAACTGAAGGAGGCCGGAGGTCTGGAATGTGGAGAATGGCAAGAGATAAGGGTGGCCATCCATCCTGGCGACAGCAACTAGCAACTTGGACCTTGATAGGAGTTAGGAAGGCAAAGAAGGACTGTGCAAGGCTTAATCATGTTGTAAAAGTCAAGAAACCAGATCCAAGAG
0.4421980707124246 TCGAGTGAGATCGAATGGAATCATCGAATAACATCGAATGGAATCATCGTCGAATGGAGTCTAATGGAATCATCAAATGGACTCGAACGGAATTGTCATGGAATGTAATTGAATAGAATCTTCTAATGGACTCAAGTGGAATCATCATCGAAAGCAAGCGAATGGAATCATCATCGAATTTAATCGAATGGAGTCATCATCATATGGAATCGAGTGGAAGCATTGAATGGGCTCAAAAGAAATCATCAGAGAATGGAATTGAATGGAATCATCAAAAGGACTCGAATGGAATCATCATCAAGTGGAATCAAATGGAATCATCGAA
0.7695039816381213 TACGGTTGACATGCATTCTTTCCCCTATGAACACACCTCAGCAGCCGCCAGAGGGAGACTTTCCACACACGGTTTTTGCGAAGAGAATTTCCTTGGAGATTACTGCACCCTACATGATACAAATTCCTCCCCACGTTCCCCTTCACAGGCAGGGCTTCTAATCTTGACAGTTCCCAGAGCAGCAGTCATGGCTATATCAGGCAATTATACCATTGGGAACATTAGGGCTGCTTTGTAAAACCATAAGCACCCAAGAACAGATACTTTAAAAAATGTAAAAACAAGACAGCAGTGACAGCAGAAAGGACACAGCAGCTGAGTCACCTCACTGCATTTCTCCACATCCT
1 CAAGCCGAGAAAGGGAAGCAGCCAGCCAGCTTGGATCTGATCACCATCTTGTCCATGGAGAAGAGGATTTTTAGTTCCAAAGGGTTAAACCCACATAAAGAGAAAATTAACCTTTGGCACACTTTTAGGAATCCATTCCCAAGGAATGCCTGCATGCATATATATGGAGACAAAATTCCCAAGGCCGTTTGTAATGGCAAAAATAATTGGCAACAACCCCAATATCCATCCATCAATGCTGATAAGTTGACACACTGAAGTACTATTTTGCTGATAAAAAGAATGAGGTAATTCTCTGGACTGACGTGGCAGAACCTCCAAGACATATTGCCAAGTAACAGTAACCAAGAAAGCAAGTTGCTGAACAATACATAAATCGTGATCTCATTTTATGCTTCTTTAACTAGGTAGAC
0.5494140740965885 GAATCGAATGGAAATGTCAACCAATTGAATCAAATACAATCATCATGGAATTGAATCGAATGGCTCACTGTCGAATCAAATCAAATGGAATCATCATCGTATGGAATTGAATGGAAACATTGCAAGGAATTGAATGGAATCATCATTGAATGGAATCGAATGAAATCATCAACGAATGGAATCCAATGTAATCATCATAGAATTGAAACCAATGGATTCATTAAATGGACTCGAATGGAATCATCGAATGGACTCGAATGGAATCATCATCAAATGAAATAGAATGCAATCATCA
0.6020393700862257 GGCGTGAGCCACTGCACCCAGCGTGTTATCTCAATCCTCATAATGCAGTTAGGTAGAGGTATTCTCTCCACTATATCAGTAAACAAGACTAAAACATCTTGCCATGAGTCATACAGCTAACATAATGCAGGCCTAGCAAATGTTTTCTGAGTATCATAGGTGCTGAGTGCTGGCTGGGCCCCTGAAGAGAGATAAGCAAGATAGTCTTTGCCCCTTAGAAGGGGAGGGCATAGCATATAACTGCCAGAGTATGTGAGAACATGCTCAGCACAAACACTCCAATGGATATAACAGGAGTATCAAGGAGTGAGCAAATCTTTCTGTCTTTTATAGCTGGACCTGGAAGAATATTTTTTCTCTTTCTTGAAGAA
0.5296948854237701 CCTCGTGAGAAGGCAGGTGTCTTTGTTCCTCTCCCACCATGGACAGCTGGGCTGTTCCTTCTCTTCTGGGTGCTCTCAACACCTTACTATCAGCTATCACCCAGCAGATAAGAATAAAGTAGCCAAGGAGCAATAGGGGTTTTGTTTTTCACTGTTTTTGAGATTGTAGAAATTGATAGCGCACTGCACTCTCATCTTGAGATCTGTGGGCTGAGCTCCCAGGGTTCTTAACATGGGCCAAGTTAGTCTGGATGCAACCTTTTGTTATTGTCTAAGTCACTGGCAGATTTAAAAATCACAGCGGTTCACAGCCAGATGACCAGCCTAGGGATGAAGGCGGGGCAGGGGGCGGTCAGTATCTCCACTCACATGTCATCTAGTCACGATGCAGAGGTTGAAACACTGAGTTAAAGGAAGCTTATCTTCATATGAAGAATTAGAGGCCACACCTCCCTAAGCTAAATTTAGAAGTGTTAGTATGTGAACAGGAGGTATACAGTATCTCAGGTTTCCTGGGGCACCAGCCAGATAAGACATTCCAGATAATTCTCTTCCATGCCTAACTTGTACCTCACCAGTCAGGCCAGAGGAGGCACTGCAGAAGGAGCTGTCCTCTTGTGTGGCTCTGTCCTTCTTTTCAAGTTTGAGGGGGTTGTGGACCATGTGA
0.7886510307947983 TTTCAGGGTGACTTTGTATTTTGGCAACATATCCCAGACAGTTAGTGGAAATGAGAGAACATGTTTTATTTAATTTGTACTTTGGTACCTTTTATGTGAACGAGGCATGTTTAAGCACTTAATGTTGTCACCAGCCTTTTAAAACTATCTTTTTTTCCCGCTGCCCAACTGTAGTTTCCCTTCAGTGTTGAGTGGTCGTAATCTAAACACATTAAGTTTTTGTCTTGTTCTTTCTGCAGAGATAGAAAGCTGGGTCTGAAAATAAAAGCAGAGCTTTTATACAAGGAGGTCAGTGTTTGTACTCAGAAAAGAAAG
0.4822298705935055 CCTGCCACCAAGCAAACGTGGCCTGTTCTGATGGCTCAGTGGCCAATGTCTTCCTGTCACCAAGCTCCTCCAAATCGCGGGGGAGATTGTTTTGACATTTGATTAGCCACAGAGTGTAACTTGTGAGTGCTTGAGCAAGCCGACTCTCAAGCAATGGCATCGCTGAGTGCTTTAGCCTGTTAGAGATACCATGTATCAGGGAAAGCGATGGCGGGCAGGGCTCCAAGAGGGAAGATAAGTGGGCTGTTGGGAGAAATTAATACGAAGAAAGGAAGCGGCGAATGAAGTCAAACGAAAACAGGGTCCTG
0.2844811496416686 CATCCCTGAAGCAGGGAGTTGCAGAGCAAGAGCTTGAGAGTCAGGTCTACGTTTACACACGTCCCAGCTGGGCCACTTATTAGTCATATCCTCTCAGGCAAGTCCCCTACATTTTAACCTCAGTTTCCTTATCTGTAAGTGGGGATGATGACAGCACTTATCTCACAGGGCTGCTGTGAGGATCCAATTGACATAACATATGTGGAGTGCTTGGCAGAATGCCAGGTCCCCGGAACACTCTCCAATAAAGGTTAGCTTAGTTATCACTGCTGTTCTTACATTCGTCGCCAAAGGAAACTTCCCCATTCCTATGTCTGATGCATGGCCAATTGCATAATACTAATACACTCCCAAGGCAGAATGGTGGCTTACACT
1 AATCATTTGCTGATTACTTCTGTAACACAGACTGAATCAGGTGAGGCTTTTGTTTTTTAAGTTCTTGTTGTGTGTATACATGTTTTAATCTATATACTGGTGAGCTGGCATGAATCATTGGCTGAATAATGTCTGAATGTCTCCAGAGAACACAGAATGTGTGACTGATACAATCAACATATAATGGATGGGTTTAGAAATATGAAGAGTCTCTTCAAAGAGAATGAATAGTTCCCAAGCCAGAACAAGACTTGACTCATTGATATCAGCTGAGCTAAAGAAGAAAAATATGTTAAGAGAAAATAGGTTGTCAGCAACAGCAGCTGAGAAAAATGCAGAGAGAGGAAAACCAATGTTTGCAATGCGTATCTGGACAGTGT
0.7124263807922119 AAATATTTTATTAACTTAATTCATAATTTATAAGTTGCTTTCTTCAAAATATGATGGGAAATGGCTTACTGGCCATATTGCATTTCAAGCTGCAATGATAGAATTAGTAAGAAGTGGCATACGGAAGCCTCCCCAGCTCAGACCTGCTCCCTTACCCTGTCACCTTTATCACCTTGGCTTTCAGCACTTGCTCTAGCCCGGAAAGAGAGAACTACAGACATACCAGTGCTTAGATAAAGGCCGAAATCCGGCTACAGCTCTACTTACTGTATAACTTGACTCCCTAGTGTCTGGCACTTATCCCAAGCTTAAAAATAGATTTTAGTTACTTTCATCCATTTTATCAAGCAAAT
1 TGGAATTAGACCACCTTTTTTTCTTCCCTGAATGAAGAAACCATTTATTTAACAAAACTTAGGGGAATACCTATTTTGTGACTGACACAGGAATAGATAATGAGTATATTCAACCTAGTTGAATGGAAGAAACAGACATATACAATATCCACACTACAACGTGATGAAAACTAGAGTCCCTTGCTACTTCCCCTCCTAGCTAGAGATAACTTTGCCTCCAATGACACAGGTTCTTGAAAGCTATCAGATAATAAAGCATAGCCTGTTCTTTTTCACTTCAACTGCTGAATAACTGGAGAGTTTCAATTGCTTTTCTTTAAATACTCAGGTAATGAAAAATAAAAACAAAAAGAACGCAATGACGGAAGTCTTCCAATTGTCTCCAGAGTTGAGGAAT
0.4350289117577517 AAACTGTACTCAGAACCAATCAAATGGGAAATGGGGTATGCGTCACAGGATTGTCATAGTGTGTGTTTGCTAATAACTTTTAGTGGGTAGGGAATAAGGTTAAGGAGCCTGTCCTTGGTGATACTATGCTGCTTTCAACGTGGCTTGTTGAAACTGCAGCTGATAAGCAGGGCATTCGTGCCTCTGATATGGGGCATTTGTGCCTCTATTCTTGAATGAGGTGCATTCCAGTCAACAGCTTCAAGCTGATACTGCTGAAGGAGGCTGTAACTTGTAACTAATCTGAATTACACTATATGCTTTACTTTATGTGTCTATACACAGTTTCAAGCTTGCATTTCATATATACCTTGT
0.2762225674750564 TAATGACTCTGCAGTGCCGAAGCCATAGGGATAAGTGGCTACCTCTCCCCTCGCCTGGGTAATGCTGCCTGGAGGACAAGGCTGTTACGGAAAAATGTGGCACTAAGAATAGCCAGCTAGACGTGGTGATAAGGGCCCAGATGGCCAGGGATGTCAGCTGGGGACAGGGAAGGCGGAGGTGGTGGAGAAAGAAGAGGGTGATAAGATAGGGGCAGCAACACCGGAATGCACAGCTGGGGCTCTGGAGACAGGCCACAGGAGTCTGCCGTGGGCGAGGGAGCTGCCCGGAGCTCCTTCTGGCTGTGCCCTGTG
0.6220192859939344 CGAACCATCAAGGGAAATAATGGTAGATTAAAAATTATTTTGCCCCTGGCTTTCATTAGTGCCTAAAAACCCAGGCCCAAGTGTCAACTGATGCATTACCATCAGATTATTTACTTCACAGATCAGTGACTAAGTTTATTTGAGTCCGATTTTCATGGAATAGCATGGATTTTTTGTTTTATTTTTAAATCTGATAAGTATAAGCTTACAGGTGTACCTGTTTCCTGCTGTTCTGAAAACGTGACCAGGCTCTCTCTGTGACAGGATCACACCACAGCTCGTAGCCACTCTGTGCAATAATCTGCAGATGATAACGCCTTTGCAGAGCAGACCTGCACGTGTACTTGCAGAAAGGTCTCTGTCAGACACAGCGGGTGCCTGTGATATCTGAGAGTGGGTCAGCAGGACTGGCACGTTCAGCAGCTCAGGAAGCCAACTTCC
0.5659080075692382 ATAATGATTTACCATGGAGTTGCAATTTGCAACTAGCACTATTCAAAACACCTTCATGCATTACCTCATTTAATTATAGTAAGCCCTGTGAGGTGTTAACAGTTACTGTTACTGTCACCATCATGGCCACTTACAGATTAGATAACTAGGACCTAAAGCTGTCAGATAACTTACCAAAGATAACACAGTAACAGTAGACCTGGAATCCAAACACAGGCGGTTTATTTCTAGAAGTGTGCTCTTAACCACCATGCCACCTTGCCTCTACAAAGTGCCAGTACTTAAAAAAAAGGAGAACAGAATAAAAGGTAAGACTAAGACATGAAGTT
0.6059605888537444 TAATTTCTCCCTCTGGCATTTACTTGCTGTATGTTTGGAAGTTAGCTATGCACAACAGATATAAGCCACTCCATAGGATTTCTGAGTGTGCGACCAGAGGTTAATCAGTTTAGCCTCTCTTGACCTCATTTCACTAACATGCAATTAGAGATAACAGTACCATTGTGTTCTATATAAGCAGGATTATTATGGTTAGGGAGTTGACATGTATGAGATAGCAGAGTAACATGCTGCTTAGTGGGGGTATAAGCCCTCCTTATCAAGTAGAGAAAAAGGGGAGAAGGTCATATTGCTAAAGCAATTGTGTTAAGCCCCATATTATTTTTACTTGT
1 AAGTCCAAAGTTGGATAGTTCAAAACTGAAAACATAATTGATAAATGCGTGTGTGTAATCAGATTGTTCTCAGCATCCTTCATTCTACTGTTCCTCTAATCTATTGAGTCACTTTCTTGGCCTCATTGCTCCAATCTTCAAATAAGCCAAAGTATGTTGCTGATACTAGCCGGAATTTATTGAGTGATAGGATATTTGTAATGTACTTTGAGACTGAACTTAGAGCCCTGAAGATTAGGCAATTAATTCGTAGGGAAATATTTTTGCCATTTAGAAAAAAAAAAAAAACTTCGGACTAATTGAAAGTCTATATTGGAATGTCCCATTTTTATAAGGCTATTTTAGACCTCTGGTTTTTAATTAGGTGTGAGGTGTTCATTTAGTGCTGACAATGTGAAGTAGGCTGATGCCTAAATTTGCTTCTGATAAACCTCTCATTGATGTCAGCACTTGAATACTTAACTGCTACATTGAACATCGTATTCAAAGATAGTGTGGGTGAAAGCTAACTGCTTATGAGCCTGATTTTTGCTAAGAGACCTTACGTCACATCCTGGTAGCATTCTCTAAATTGACACTAAAAAAAAAAAAAAAAACCTTAGGACATGGCCTCCAG
0.7438317214260971 TCAACTCTGGTTCAAGTGAAGTGCCCCTGGCAGAGCCGGAAAGGTGTTACAGGGTTTGTTTGTGTGGATGGAAGAGGCTGACCTGTCCCGCAGCCTGAAAACAGGAGGTGGGAGGGGGTGGGCAATGGAGCCCTCTCTCTGCATGGAGACACTTCAACGAAGATAAGGGAAAGCTTATCAGGCAGCATTCACGGTGTCAACAGCAGACAAGAAATGTTTCTAACACTTCAGCCTTGCCAACACTCCCTATTTATCTCAAGAAACACAAGTGTTTTTCTTTCTTTCTTTTTTTTGTTTCCGTTCTCTCCTGCTATAAAATGCTCAGAGTCTCACAGTGCAAGATGAAGGGTTGACACGCGGTGAAA
1 GATTTGCACTTCCCTAATGATCCCCTGATGATGTTGAGTATCTTTTTCATCTCCCGGTTGGCCATGTGTATATCTGCTTGGGAGAAAATAAAGTCCTTTGCTCATTTTTAAATTGGGTTCTTTTTGTTGTTGATTTGTAGGCGTTCTTTACATATTGTGGATACTAGATCCTTATCAGACATAATTTTGTGGGGTTTGGGGTTTTTTTGTTTGTTTTTGAGATAGGGTCTCACTGTGTCACCCAGACTAGAGTGCAGTGGCTCAATCACAGCTCACTGCAGTCTCAAACCTCAAACTCCTATCAAGAGATCCTTTCTCCTCAGCCTCCTGAGTAGCTGGGACCACAGGCAGGCCACCACCATGCTCAGCTAATAAAAAAAAAATTGGGGCCAGGCATGCTGGCTCACACAT
0.4157028376211678 ATGGTTAATACCCAGTGAGTTCAGCCTCTGTGGGCTTTCTGCACCTGCACATATGTACCTCCGTGTTTTGTTATCTCTTGGTGGATACTGGAATTGTACCCTGGGCTGTACAGCATCAAGTTGCATTTAAATCAGAGAGCTGGCATATCTCACTCACCACAGCAGGTCTGCGTCAGCTGAATCTTGCAAAGCGTGTCTTATCTTCCAGAGCATAAATCAGTAAGGGACTGCAAAGCTGCTATGGGATCTTCTCCCTCCCTGTGGAAAGGAACACAGTCCAGGAATGCCCTCAAATGGACAAACCACTCTCTTCATATCATTTGTTGTCTTCATTCTATTTCTAATTCAAAGACAGCTGAAAGCCACAGACAATAGCAGAATCCCTGCATGGTTGGTGGTCCTGGAAGAAG
0.26016856672018 CAGGCCGAGGCACAGGGAACCCTGCCAAGTTCAATCCAGACCTTGGGCAGGGAGGCAATAAAGCTAAGGGAGGTGGGGAACTCCCGGCCTGTGAGGAGGGGAGGCAGGGTGGCCTGCGAGGAATTTAGGGAATGCAGGGAGATAAGGGGAGAGCGGAGAGGAGAGGCAGTGGTGCTGACAGCATTAGCCTGCTGGGAAGGAGCTTCATGAGCACCATCTGATTTACTTGGTCCTTGTGTCCGCCCGAGGGGCACCAGCCGGGTCAGGTGGCCTGACCACTCACAGCTATGACCCAGGCACATTACTGAACCTGCTTCCAC
0.3797735541135614 ATGCTTGGTGGACAAGAATACAGAGCCCTGGTGAAGCAGTTGGGTGGGCAGGTGGGGACCTCCTCTTTCACTGTGCACGAGGCTCTGAAGTTGCCCTAGAGTGAATGAACTAGTTCCTGCCACCAAGGAGCTCATAGACTAGGAAGGAGATACACCACCCATGTGACCGGAGAGAATGCAGAGGAAGATAAGAGAGGCCCAAAAGGGTTATTAAGCACAGTATCAGTGATAAAAATAGCTGCTTTTGATGGGCTTGGGCTAAGTGCTTTCTATACATTGGCTCATTTGACTCTCATACCAGCACCTGGAGGGAGGACTGTTACGTCTGTCTTACAGATCAGAGAATGAGGCTCAGAGAGATTAGGTAACTTATTCAAGATCATACAGCTAACAGGGGCAGAGCTGAGATTTGATCCCAGGCCTACTTG
0.4103390673088185 CTTGTTGCAAAGAAAATATTCCCTGAAAGACATTAAAATGAAGTAAATAAAAGAGATAAAAATGGAAATATCAAGGCAGCAACTTCTCTTCTGATTACAAAGCAGGCAGCGGGAAGCAGCGGGAGCCCATGAGGACGCAGCTGCACAGCCGGGCGGGCCTGATAAGGCCTCGTAGCCTGCGCGGGCGAGATAAAGCCAGCACGCGCCTGTCCTCAATCCCGGCCGCCATCAACATGCAGACAGCCTGAGCGACTGGCATTCCAGATAGAATAAGCACGCACGGCCGCGCTATTACTGAGACCTTATTAATCCGCCTGCAGGCGTTTAAATGCCGTGGGAAATATGGAGTTTACCAGCGCAGCTGACGGGGACTTGACACTTCATCAC
1 GTGACGAGAGCGAGACTCCGTCTCAAAAAAAAAAAAAAAAAGAAGAAGAAAAATCACCCACTTTCTTTTTCTTCCTTCCCCCCGCCTCTCCTCTTCATTCCTTCCCTCTCTAAACACCCCACTCCAGCAATACATGCTTATCTAATTATGCTCTTAAAAAATTCCAGAGGCTAATCTTGAAACAAACCAGGCACAGGGCCCCTGTGGAATCCTCCCGCTTAGGGGGAGGCACGAACAATTAGTCCACCATCATCGGGACAAAGTCAACATAAGGCCAACCTGACCTCCGGACCAGTGATTACCTAAGATAGCCATCAGAACAAGGCACAGAGACCCCCGACCCTGTACCACACCCACATATATCCCATACCAAGTTGCCCTTTAAAAATCCTATGGTAAATTTTAAAATGTAAGAATGTACTTTAAAATGCTTTTTGGTTTGCTGG
0.3258706985383782 ACACAGGTGCTGACAGCCCCGGGCACTGATGTGCGTCAGCTCGGGCCGAGTGCTGGCTGCCCTGGCTGGGATTGGCAGCAGCACTTCTGAGCCTGGCGCTTTATTGTGTACTATCTTATCTCAATAGGAAAAGGCAATTCAGGGGAAGAATTTCCCTGTCACAGTGCTCCAGACTTTCCATTGTCCAGCTTTCTTAGTCCTGGGTCATCCCCTGGGTCTGACCATTACTCATATCCATGGAGGCACCTTATCAGGGCTGTCTAAGATATGGGGCCTATTTTTTTCTCAGTACCAGACAAACTGGAATTTATCCACCCTTTGTGGCCTGACATCACACGACAATTAGTCGGCCCAGAATCCAGCCACATTTGGGAAGCTGCTTGAAAAGCAGTCTCTAATAACCAGCT
0.6340361088361141 AACTGCCTCAGGAAAGCTTCTTGGTGCTGCCCACCCCTCCCCCTAATACTCTGCAACTCTTCTCCATGCTGCCCACCCTTCCCCCAAGCCTCTTTACATTCCTAAGCCCTTATCTAGGTGCTGCAGTGAAGCCAGCAGACTTCACCTATCAGGCCTTTCTGCGATAAGCAAACTCCAATTATAAACCAACCTGATCGCACAGGGGGAGGTCTTGGGAAGCATAAACAAAGTTTACCTACACCCTCCTGTAAGTTCCTGTTCGTCTAGCTGCTACTATAAATGTCTCAAGGTGATATGAGGCAAAATTAACCAGCAAACAATCCCAGGATGTGGCCATACCAAAGAACTCCCTCAA
0.4968685173505759 CGCTTTTGCTAAATAGTTAGAAGAGTAAGTTTGCAAATTAACACTTTAGCAAGACTCTGAATCAATCTCAAAGAAGGCTCTACTTAAGGATGGTTCTAATACATCTCAAGTCCAATGTGTGGTTGATTCCCTGCCATATGCTCTGAGTTTTATCAGGCTCAATGAGAAATACCAGTGCTTGCTACACAGAGATTTCTAATGCACCCTCACTTCTGGCAATAGTCTGGAATTTACTTCAGTTGATTTAAAGAATTTGTGAACAAGAATTTTATCTGAATTGTCATCACCTTGGAGCAACTGGTCAGGCTGAAAAGGTGTCCTGAATGGGGCTAGACACGTCAGCGAGACCTGCCAGGTGTCTCGTCACTCAGCACGGCCACTTCCTAATAGTAACAGGATCAGCCCTGGGGACTTGCTGATGGGCAGCATGGCAGGATGACCCCAGCCATCTCCACATGCACTCTGATAAGGACTGGCAGGTTAAATAAGGGCATATGCTGCATGCTGCTCCATCAGCACCTCCACTTGGCTCCTTCTCAGCCCAGGAGTTAGAATTTGTTGATGTAACCCA
1 TCTTATTGTGAAAAACATGGTCATCATCAATAAGCCACTATACCATGTAAATTTCATTAGTGAGTTTTATATAGATATTTATGACAAAATTTAACTTGTTTGCCCTTTTTTGGTCTAATTCAAAATAAGAGTTAATGGCAAATGTCAGAGGCTAAGAACAGTTTGGAAAGGGGGTTCATGAAGGAGACCACTCAGAGACAGTGTTTTAGTGGCTAAAAAATAAGTTGCCTTTCTGAAAAATATTTGTATGCTTTTTACTCCATTGTCCACCAGAGGGAGCATCACATCTGATTAAGAGATAATGGGGAACTCCCAGATAGAAATGGAAAATCATCTGAAACTTGATCTACGAGGTGCTACAGATGGTAGCATATACAGTTAAATGTAAAATCAAATCAGAGAACCCCCAAAAGAATCTCAAAGTGAGTGGGAGGACAGCCTCCTAGGGAGATCTCATCTCTAAAAAAAAATTTTCTTTTAATTAGCTGGGTATGATGTTGCA
0.4569338137247194 GTGTGTCCCCTAGGGGGCTCTTCAACACCCACCTCAGTGCAGCCACACAGGGAAGGGCTGGCGTCTGGGCCACCCTGGCGGGGATCCAGGACTACCTCACACTGCCCCACACCCACCGCCAATCTGCCCCTTAACCCAATGGTATCAGAGCATCTTAAAAGCACAACCACTAGACTCTGATAGCTGCTGTGTCAGATAAGAAGCAGGCCCCGTGGTGACAGACCACACACGGACGCAGCTGGCTCCTGGCTGCCTCACAGTCCGCCTCTCTCCTCACAGTTCAGCACTTTATTCGGAAGAGCATTAGACCTGCCATCCAGACAGCTTGTCC
0.4298001529939017 CGAGATGTGCTAGTTTCATCACCAGGATTTTCTGTGGTACAGAACATGTCTAAGCATGCTGGGGACTGCCAGCAGCGGAAGAGATCCCTGTGAGTCAGCAGTCAGCCCAGCTACTCCCTACCTACATCTGCACTGCCTCCCGTGACTAATTCCTTTAGCAGGGCAGATTAGATAAAGCCAAATGAATTCCTGGCTCACCCCTCATTAAGGAGTCAGCTTCATTCTCTGCCAGTCAGAGCTAAAAATAGAAATTGTGTAGGAGACAAACCTTGTTAATTCCCTAGAAATACATTAAGAGGATAGAGTGGAATTTTT
0.8075645144238111 ATGGGGCCTGCTTCAACACAATTGCAGCAAATGCCCTGTGTTCTGCCTTTGTCCTCTCTGGTCTGACTTCAGCATTACTCACGCAATTCCTCTCCCTTTCGCATAACCCAGTGTCATTCTATTCCAGCCAAGTTTATCTCTGCACCACTCAGATAAGCCCCATGCTGCTCTTTGTAAATGTCACTCTTAGAAGAAGATAGGATGTTTTCTGAAAGAGTTCTTTTTTAAAGCGTTCACTGACTGAATCCATTCTGAAGGATAGTTTGGGTAGAGGGCTTTCTAAAAAAAAATGTTTCATTTTTTAGCCTTTTAGGAGAGCATCTGGAGACAGGTACCCCATTACTCAGGAAACTCCC
0.6314816720900105 ATGCTAGTTCTTAAGTTTGTAGTTAAGCTATGGCCACTCAATAGCTTTCACCAATCCTTCCACCAAGTTAGGCCTTTACTACATCATCCTTAGGCAAATGGGTGATGAACTATCTTTTCTTTCCTTTACTCTGTCATCTACAGTGATGACAGAATTATCTTTCCAAGGAATTATTCTGGTAATATCATGACGGCCTGTAGAGCAGATTTCAAGCTTCTGAGCATGGCATGCAAGGCTGTTCATGATCTGGCTTTTGGTTACACGTCTAGTCTTCTTATCTACATTCCTTTCTTCACATGCGCTCTACTCCAGCCACACTGAACAGATAACTAAATCCTTTTCCCTCTAACACTCTTACACCTTAATGAAAAATCAAGTTTCTTCCTACC
0.6691066041071241 TTTATACACACTTCTAAAAGGGGATGGGCTAGTTTGAAACAAGCTTACAGTGGCGTGAAGCATAGTGGTGTGAAAGCTCAGGTACAGAAGCAGAACAAAGGCAGTTAATCATACTTTGACAGGTTCATAACTCAGGCTTACAATGACTCTTGCTATGCGGCCTAGATGGCTGTTATCTAGGCTTGCTCTAGTGCCTTGTGCTGGCTTATCTCATAACCTTCACTATGGTGTCTAGATGGCTACAATCCAGGCCCGCCCAGGCATGTCTCATGACTTTCACTGAGCTGCTTAGATAAAACAATGCTTGAAGTTACTAGTTATAGAAAACAAGAATCTATAAACTCATAAGTTTACTCATACCATAGGAGAAAGAAAAATAAAGAAAATTTGTTTTTTTCTTCTCCCCATGTTGGGGGAGTGCTGGGAGAGTCTTCAGAGCACATTCCTTTGAGCCCTAGCTTCTTAGATAATATTATCAAGACTTTCCTGGGTCTGGGCTGTGCCTGTTTCTGCCTCT
0.7857385352933661 TTTAACCTTCACAATGCCCTCAGATAAAAGTGTGCCTATTTTATAGACAAGGACAGTGAGTCCCCACCTCTTAAAATCCTATGAGCAATAGGTGATGGAGTAGAAATTTCATAAGACTGTGAGATGAATATGGATACTGTTGCCTTTGAGGTACAAAGAAATAGAAAGATTATCAGTATGGCTCACCATAGAGGAAACATTGGAGATTGAGGAATCTGAGTGTTTTCTGACCCCAGGAATGGAGCAAATTGAAAGAATAACAGTGGAGAACCACATTTTTCCTCTGTTAAACCAGAGCTATCTAGAGGAACTCTGCAGTATTGACGTGAAGAGAATTGTAGTGGATAAGAACAAGGAAAATTCAAGGCTTATCAGTAGAAATGGAATGTTTGAAGTCGGAGAACTCATAGGAATGCTAGTACCAAGTACAGAATCAGATTAGCTGGAGGAGGGAGCTGGAGAATGTCTACACTTCACTAGATAATGAGAGTGGAGTGAGCCAAGAACTCAGTTGGAGTTTGACGGAATGAAGCAGAGGGTCCAACTGAGGCTGAACTGAGCGTGAACTACATTCAGCGGCCTAGGCAGTGCCCTCCTTGATAAGATAATGATAACAAACATATGCAAATGAATTAAACAGTACA
0.5976713825039578 ACTGGCTTGGTCCAAGCGGTAAGTAGCTGTCCTCTTGCACACTGTGCACAAACCATCCTCTCAGAAATCATTTTCACAACCCCTTATGCACTCTGTTTGCAGCCCCTTCCACAGAGGCAGAATGGGAATGCCAAAAATGTCATCTTATCTTGCTTTGCAATAGTTCAAAGATTATGCTGCAAGTATTTGTGTGTTCAGTGAGATATTTTTAAGAACTTAAAATGCTGCATCAGATAATCAAAGCCTTGTGTATCCATCCCAAATGGCTTCACCCATTACTTTTCTTATAGCTAATTATGAATTATATCCAAATATTCTGTCTTCATTGCCTACTTA
0.3257176934373969 TATCCTTCATTATACAAGGGGCAACTGCTATCTATTTCTAAAAATGCTTATGAAGGTTTGCCATATAAAAATAACGGCAGCAAATCCACAACACTCTTTTGAAGGTTCCTTTTATCTCTTAAAGGGCAGAGCTAAATATCTAAACACAAGACTGGAAAGCTGAGCTGGAATTTCTATTCTAGTTTTATCACTAATATGTTATCACAACTTAAAAATAGTGACAACAGCTTGACACTTATTTCTTCATTTGTGGGGTGACTAAAACTAGGTAACAGACAATGGAGATAAAGAGATGCATTCTACAGAAATAAACAGATTGCAGTTCCAAATGCAGTCCTCCAGGAAGTCTGCACTTCTTCAGCAATCTTTCAAAAGATCAATTTTAAGTTCTTAAATAAATAGAAAATCTCACATTAGCCTGATACTGCTCCAGTATCACATGACCTGGAAATTCTGGCTCAGGCACAGACGCAAACTTCTTGATAATGTCTTCAAGCGCCTGGAGCCCAGCCATTCGCAGCTGGTTGCTATGATCAGTTGCAGCCATGAATGCCATGCGAATGAGGTCAGAG
0.788558029113439 CCCTTCCATCTCATTCATAAATCCCCTAGCACTTGCCCCTACCTCCCACACACCTAGGAAGTGGGAGGAAATCTCTCTACCCTGGGGTCAACATTGTCAGGCACAGCAGAACTGATAGACCTTTCAACAGCCCGAGCTATGGGCTTCCCACACTATTCATGACCACGAGAAAGTACTTTAGCTCTTAGAAAAGCAACACTACAAGAGCCACCATATCAAGTCCGATGGATACTGCAGAGCTGGCTGTCACAGGGACACTGAGACACCTTCCAGAGCACGGATTGACTCTCAATACCAGATTATTCTGAAAGCTGGGTTGTGTGCAGAATGGACGGGAGGAGGAGAT
0.3980044334421258 CCCACTGACTGCGTGACGGCGGCCGTGTCACTTAGCCTTTCTGTATGTAGCTCAGTTTTGTCATCTGTACACGGGCGATAACTCCAAGAAGAGGTGAACCAGATCCGACCTGCAGAGACCCGGGCACGTGGTCTGACGGGGAGGGGAGCTATGAGAAATGATAAGACTGTCATCAGCTCTTCCATCATAAGATTGATGCCATCCTGTTGCCTGGAATGGAACCTGCCCCCTGAGTTTGCTCCAGCTCATGCCTTCCCCAGGACGATAAGAGAGAATGGAAGCAGGGCATGGAGTCCTTTGATCCAGTGGCCTTCACCCCCAGCTC
1 GCGTCTTAGCGGGGCTTTACATAGGTGTTATCTTTTATATTAGGAGTCATGGCTATTGGCCAACTATATTAGCTGAAAAAAATAATTTTAAAACTTTTTATTAAAGAAACTTTTAAACATACACATGGGGAGAGAGAGTATGTAATGAACATTATACCCATCACCCAGCTTCATAATTATGATTATGTGCACACGGCCAATAATATTTTATCTATAACCACTCATTCCCCTGCCACCACCCTCTCATGTTATTTTGATAATAGCAGCACACTTGATGTTGTATTTGTGGAAAGATCCCTCTTACAGTCCTGGCTGACTTTTATGTCCCGGCTTCCCTCCTAGTAAATGGGGACACTGTCTGCTGTGCATTGAGAGAGTCGATGTGAAATTGTTTAGAAAGATTCGAGGGCAT
0.5512821226629318 CTAGTGTGCATGTGGGTCCTAAGCCTGAGTTACTCCATATTCTTTCATTTCCCTTACTGCACACGTGTCAGGAGATGGAATTTTCCACCGCCGACGTGTCTGGTTCTACGTAACATTTTTATCTATACAGCTGCAGGCCTGTCTTAGGAAAGCCCCCTTGTGCAAGTTCCCTTATCTGAGTATGCCCAAAAAGGAAAGGAATGTGCTCAAGGAACCCATCGTATATAACTGGAGCTAGCTGGTTGCACAAGAGATAAAGGTGTTGGATCTTGCTTCCTTATCTGCACTTACAGCTTGATTTCTTCCAGGTTGCTCTTTTGATAAAAGGACTTCTACCACGGGACTTGTCCTAACTATTTGCCTAACCAGTTCCTTCCTCTCTCTTCCCTCAAAATGACCATGTTTAACATGACTCAAAAGTCATCAAAAACTCTTTCATTATGCTTCCTCCTGCTTGAGTTTGCAAGATTATGAAACTGCCTTTGAAAAACATTCTAACTGAGACAATGATTACAGTGAAAG
0.3982641906671343 TTAGTGTAATAAAGATAATGTCTTCCTTCAAGGCAAAAGTCAGGCAAGCTTGCTTACTGCCCATTATAAAAGATTAGGACTTCTTAAACTCAGGGTTTTCCTTCTGTAATGTGACCCACCTCATGCACAGGCATCACCTGCCCTTTTGCATCACCTTTGTATCTGTCCCAAGAGTCTCCTGCTTTTCTCCAGCATCCAAAACATTGTGGCAGGTTTGTAAGTAGAATAATAAAATCAGAGATTCTACATTATATTTCATGACAGATGGGAATAGATTGAACATCATGAGATATAATATATATCTGTATGATCTGAAATTTTTTTACCCCATCTGAAAACTAACAATATGTATATCCATATCTGGATATCTATCTATCTCTAAAGACAGATAGATATCTATCTATATCTAAAGATAGATATCTATCTATATCTAAAGATAGATATCTATCTATATCTAAAGATAGATATCT
0.7730869175891999 ATACTCAACAGAAATTAGACAGTTAAAGGAACATTGTAAAACATGGATTTTGGTGCAAGCTGTTTATCAGGCACACTTTGAGGACGATGAAAGCCCCAGTTAAGTGTATTTGTCTGCATACTGTAAAACACTTAAGATCAAATTCAGGATTGGGTGAGCTATCCACAATTACTGGCGTCAGCAGTTTAAATATAGTTCTTGCTGAGAACACCTTCATGATAACTGTTCCAAACCCATGCATTTTGCCAGGTAGAGGCAATAATTGGTAACTGTCAATGCTACCTACAAACACCATGTTCCTCCAAAAATAACCCGGAATGATTAGCTCTCAGCAATTGGCTGCACTTTTGCTGACTTCTTCTGAGTGGTTTTTCACACACAGTCATAGATAAACCCACTGTAACCTAACACAGCTGATGACTCATTTCATGGCTTTCTGCTTGTCTCTTTCAAAGCTGTATGTTGTTTCTGTTTTAGAAAGAACAAGCATCTATTTTTAAAGGAAGGGTGGGTTTG
0.9002060711940182 CTTCTGGCCAAGGGACCCCAATCCTGCTCCTGGTCAATGCCAACCATGGGACTTTCCAGCTTTAGCAAGGCCATTCCTGACCTCCCCAAATTTCTTTCAGACTAGCCTGTGCTCTGCCACACTGCTTACCGCTGTTGTGCACATACACTTTGGTGTGGTTGTTTAATATCAGCTCATCTTTGAACTCTCAGTGACTTTAGAACAGGGACCAACTTGACTTTGTCATCACTGCTTGCCTAGCACCTAACGCAGTACCTGGCATTGATAAATAAGTGTGTGTTATCTTGACAACAGCCAGGCACAACCTTAGCTGTTGCCAAGAGGCCAGGCTGAGGCTTCCCTGCAGAGGTTCCTTGAGTGTGTGTGTTTTTTTTTTTTTTTGGTGAGACATTCTCACTCCGAGCCTAGG
0.5742989481493409 AAAAGCATTTAAATGTCTAATTTGAAACTAAAGCCGGATTATGACTTTATTGTACTTGGCTGTCTTGATAGTATAGGAAGGTTTATACGTTCAAGGAGAAGGAGGAAAAGACCTCAGAGAATAACTCAAAATGTTATCTCCTATAGCTTTTCCATTCTGTGTCTATTCATAGCACTTAACGTCCTTATCTTTGTTAGCACTTTGCATTTACATTACACTGTGAATCCTCTGTTATCTTTAACATTTGGTAGAGTGTTTGATACATGTTCGAATGGTTTATTTTTAGAAGCAACCAGATTGTATACCCTTATGTATGTAGCTGAGTCCTAGGTCAGTTACTTTCATGTAAAAAGGTTGACCAACATCTTGTTAGGAAA
0.4270388360375695 TTCATTCTCACCACATACAATTGCATTGTCCACTGTGCCCTGCCATGATTTTCACATTTCACTCAATACCCATGGTCTGCATCAATCTGGAATCATGCATTCTGCCATCTGCCCCTTTCCTTGAAAGTCCTGCTGGCTGCAAAACAGCTGAGATTTACTAATGGGTTAATATGTTACTTCGCCCCTAATTAAAGCTATTGGTATTTAACAGGAACTTGGCCTAGATAAGGGGTGACTCAACTCTAGAGAATTTCTGAGTGGCTGGTGGACTGATGGGATGATATTTTGGGTCTGGAACAGTTTTCAATGCCTGGTAAGTGGCTGACAAGTTTATCTGTGTCTGAGAGATAGCATACGAGATTCCTGTAAACATGCGTCCATGCACTCGCTCACAAATGTACCAGGGCCCTGCAATCCTGTGAACGCCAGGTTCCTAAGAACAGTAGTAAGGCTCACCTACCTTTGTTCCTCAGGGAGCCAATGAGGGCCC
0.9294671672277587 CTGAAGTATGAAGATTGCTGAAGACCACATGGAGATACTACGCTCCGTGCTCAGTTATAAAACAAAACCTTCTCTCAACAAGACACTCAAACACGCGTCATTCAACACACTAGCGATAAAAACACCTAATCCAACTCAAACAACAAGAACATAACTATTTAGCTTGTACCCTAACTGATCGAAATCTTCCATTAAACAACGGTTGTTCTCTCCCCGAAGGGAGAGTGCACCGTTCCTGGAAGTACTGCAATACCAGGTCGATGCGTGGAGTGGACGGAGCAAGCTCCTATTCCATCTCCTATTTCCAAAAATCCATTTAATATATTGTCCTCGGATAGAGGACGTATCAGATATTAAACTGATAAGAACAGATACTACACTTGATCTTAGCCAAAAGGCCGAGAAGCGATACCTTTACTTCGGTCGCCTCGGCGGCCTTATCCTTCCCATCTTCCAACCAGTTATGGTAACTATCCAGGCACTAAATGTTAAATTATCTCCCAATACATTATAATTCCGAAACACAGTTTTCATTATTCTTTCTTTATAGTAGTGGCTATATTTTGGAAACAGCCCTATTTAAACGTCCTCTA
0.839388572953325 TGTCATCAGATGGTTCAACTAGGTGAAGATCTGCTTCTGGACTCACTCACGTCACTGTTGGCTGGCCACAGAAGATCTATTTCTAAACGTACTCATCTGGGTCTCACTTCAGGGCTACTGCATGTCATGGCAGTGGCTTTCTCCAGATGCAAGGGATCTGAGAGAGGAAGAAAGAACCAAAGCACGCAAGATGGAAGCCACAACCGTCTATAATCTAATCTCAGAAGTGATGTCTCATCACTTCTGCCATATTCTACTTATTACAAATGAGTCATTAAATCCAGCCCACACTCACCAAGAAGGTATTACACAGAGGCATGAATTCCAGGAGGTGGAGATTATGAGAGCCCCTTTTAGAGGCCACCTCTAACACTGAATTCAGTACTGTCATTCAAGCCGATCT
0.6166458784429448 CTGGCTCCTGGCAGACCCTAGATGTACCTCGAAAATGTACTGATGTGTGAATGAATGAGCGGATGATGTGTTCCAGGCGTCTCACCAGCCTTCCTTTATCTGCACACTCTTCACTTTGCTAGGGTCCCTCTCAAAAACACAACCGGATCAGGAGTAGGGGGAGGGAGGAGAAGGGAGCTGCTGTAAAGCAACACACTGCTGTCAACATTTTTAAATGCGCATAACCCAAGAGAACATGCACAGTATATTTTGCGAAGTCAACTGGAAAGTGTCAGGGCCACACCTTACTGTAGTTGAAATTCAATGGCATTGAGCTCTTGATATTATAGATAGTAATTTTCTAGAGTACACACAATGGTGTGTGAACATATGACTGGGCTGGAATCTATCAAAGTACTTGCATGGACTATTACAGATCATTGATGCATTACAGTAAGCCATTTGTGGATATTTTATGATATGTACACAGACTAACATCACTGGGATAGCAAAGGCTATCAGAATTTCACCTGCGTAATAACAGTCATTTGCAAGGAAAAATCTTATCAAAAATAAATTGATGATCTGTAGTAATGGACTGGGTTTT
0.4517446430411711 GAGTGTTTTAATACAGTGAATCCTCCTGAGATATAAACAACTGTGTTCAAGTCTACACTAAACAGTGCCAGACAGCTACTCTTTTTCACTTCCTGCATTTCTTTCTGTCTTCTGTCAGCTGTCACTTCTTAGGTTATCAGTTTGTTTTGTCCCACTTCCAAGTCACTGCTTCTAATCTACTGTCAGCTCTAGGAAAACCAGATAACTGAGCAAATGGGAACTGTGTGCAAGTTACAGAAGAGCCTAGAGGGTTTTATGGGTTTTGCTATATATATCTTGATTTCTCAGAAGCTGTTTCTGCTCTTATCTTCATTCTTGTCTACAATACACATGGCTATAACTGCAGGACATGCAAGTTCTGAATAGGTGATATATTTCTGTATCATGTCCAGACTGAGGAAAACAATAAGCTCTTACAGTTGTGTGCTGTTCATACCATGTCTGGAATACTGTTTTCAGTTCAGATCAACAATTACAACACATATAGTAACAGGACCAGCTGGTAGCAAGTCCACATATCATGCTGTATTAAGCCAAGTGAATGTGCTGGGAATGTTTAACCTTGAGACTTTCTAAGATGAAAT
1 GTATATAAACTAGTCTATATGTGCCAGATTTTTTACCATAAGCATATGAACATGCACATAAACATGCACTAATATGTGCATATAAATATGCACTAATACCAATTAAAAGTCATCTCATAGTCATTCTGTTCCATCAGCCCACTTAATTACGCCTGGACTTTGGCATTTCAGCAATGTTATCTTGTGCCGACAATTCAAAGTGCTCTTTATGTCTTCTACCACACACAATTTCCTGGCTGCCATCCACAGTCAGTTAACAAACAGCTATGCTCCATCATATTTGAGTCCCTGTAAGAATAAGTGTTCACATTTGGTTTTATATAATAAAACTTTATAAATTGGAAAGCCTAATCTAATATGTGA
0.6623918153511789 TGTTAATACACAATAGTCTTCCTTAAGTATAAATACAAGCTAAGTATCCAGAGAATCAACCCCAAAAGTACTGCAATGATTGGAAAGGCTGAATCAGGTTTCAGTTGGACAGGAGACAGGGATAGTCATCTAAATTAGTGTTCTTCGAGGCATGGTCCATGAACTGATGCTGGCTCACAGGCTACTTGTTGACAGTCTGAGATAAGATAATAAGAGAAGTTGAGAGTAAGCATTTGTTACTAAAATGCCAGGGGTTCCATCTAAGTCCCATGGCTCACCAAACAGAAAGCCAATCACTGAGACAAGTATTGGCAGGGAAGAAGTCTTTACTCAGCT
0.5082832031244925 GACAGAGGGTTTGTTCCCATACTCCATCTACCAGTGGTGACACTTCCTTTCCCTTCAGCTCACCTGCTCCCCCAACTCTTTGAAGAAATCTCAGTAATTCACTGAGATCAGAGTCTATCACACAAACATCCGAAATTGTAGCACACCGGGGAGCCTGCCAGGAAGGCCTATAATCAGATAACACATTCCAGCCCGGAGACCTTTCCAGAGGAAGGGTTAAGCTCCCAAGGTAGTTAGTGGAAATCAAAGAACTGCATGCTCTCATTATCTCATAACAAACATACCAGGTTAATAGCTGTCGCTGCCGCTCTAAACCACGTGTGTTGTGTTTTGTGAGTGCTGACATGGGGCGTTCTTTCTCCCACCATATCTGCAACTTGACAGTGTCATCGTGGTTGGGTGCTGGAGTCTCCTAAAGTGTTTTGCATACTGTCTCCTGCACGTTGCCTCGAAGGATTTTTAAATAATTGCTGTGTTTAATGGGAACTCCTTCCCCTCTCTAATCCCCTCCAGTAGAAAAGCTGGCCA
0.8254331587339497 CCAGCATGAAATACTACATTCTGTGGGCAAGTTTCCCACTGTGTTCTGTGAGAATAACTTGGCCCCAGTACCAGAGCCCAGCTCTTGAAGGGATTTCTCTCACTCTAGAAGTTATTTATAGCACACTATATCATGCAAGTCTAGAGTTCCTCAGATAAGAAAAAGATTACATTCAGGAGCATATCATGACTTTAAAACAGCTGCCTGGATCTCGTTAAGCTACTGAGATACTGTTACTTGCTTATAGATCACTTACAATAGAGGGATATCTAACTTCATGGGCCTATGGCAGGTATTTCTGGCTATTCCCTACCTACACACCAGATTTAACCATTCTAATTTTCCAAGCTGGTTTTGGTTTCTGTGGGTAACCTACAAAGCTGTAGGTATTCTTGAGCAAGTGAAATAATTCTCTGCTTACTACA
0.3565224366496317 TTTCACTGAGGCTAAATGTATCTGTTCAGTACATGGATAGATTTTTAAGCTCCTCTCACAAAGTCTTGTGCTTGAGACAAAATCAGCCCAGGTTCTGCACTTTGTCTATATTTCAGCAGCTCTCCTGCTTGATATTAAAAATAGCCTTGTCTAGTCCATCGAGATCAGACCCAGGAGACAGGCGCCTGCTATTCTAATCTCTGCTTCACAAATAGCTCTCTATGGGCTCAAGCATCTATCAACACTTCCAGGGGTCTCCAGTTATAAAACAGGGCCAGGCCTAGTCACCTATAAAGGTAGGCTCTGCTTAACTCCCCTGA
0.6851429464941822 ATAGTTGATTAAGTGCATTGCTCTCCTTAAGATACTTTCATGACTCAGCATTACTTTCCAGATAAAGTCCAAACTCTTTATCATATGACCATTTCCTCTGTCATTCTACAAGCTGAATCTGATGCTGAAATAAAATTGAGTGTAACTGAAGTTACTCCCCTCCTCCAGGATATTTATGTACAAGTTCCTTTTCTATCTACAGATAACAGCATGAAGTCTGGGACACCTCATGCCATCAACACATCCACAAATGCACTTTGCTCTGTGCATTTGTGGAATGCACAGAGTCTGGAAAAGGAGTCTGGAAATCCTTTAGACCTAATGATTAACTGGAGATGTTGAGAATATACCATACTTGGCCACAGAGC
0.07473873595247124 TGTTGACAGCCAGAGGAGTGATTTCAATGGGATATATTCCCAAATAGAAGAAAAAGATGCCGTGCTTGCAGGTCAAGGCTGGAAATATTTTACAATAGGCAGAGGCCTTTGGCATAGGCAGACATATTAAGCAGTCCTCACACTTGCTGTAATAAGAATCCAGACTTTGGAGCTTATCTTATCTGCAGTCAATATGAGTTTGGGCAGTCATTTCTTCATCTCTCCACCCAGGCTCAGGAAGTTGTTGACAGGATTTAGTGCTATAATATCTATAAGCTCTTAGCTCAGGGTAAGCTCTCGGGTTATCACTGACTATTTTTGAACAAGGGAAGCACCCTATAGTATTTTGTAACCTTC
1 TATTCACATTAAAAATACTATTTTTTAAGTTTTGAGGAACATTTATACTATTTTCATCTATTACTGTCAAACATGCATTCGATACTAGTAAGAAAGGTGGGAAATCTCGCCTAAGGTTTCATGAAGTAAAGTATGCATCAGAGCTGGAATGAGAACTAATTCTTGATTTTAGAAGATCCCACGTCCATGAACAGTCCTACTTAGCAATCAGTGACTCAGAATGAAGGCAGTCGAGTACAATAGCTTGAGAAAAACACAGTTATCTTCTGAATCTGTTGCCACTAGGGGTCAGGCTGTTGTTGGAAATAGTTCAGGTTTCCTCATTTAAAAAATAATGCTGGAGGACAAGCTAACCCGAATCCAGACTGTTCTTCTCAAATGCTTACTGTGATCAGATTTTCAGAATACATACCAAGTGGTATTAGGCGCTCCTGAGCAGAAGAGTTCAG
0.8582610297006463 TCTTATTAATATTTCCCCCTAGCGCTTTGACAGATTACCTTGTCATTATGCATCCTGGAGCCTTTTAAACAATATGGGTAAACTACTGTTTGTGAGGTTAATGACAATTATCCCCTAATTACTGCATAAGTCACTCAGTCCACTTTATCTCATAGGCAGGGTTCTGCTCTGTGTATCTGCCATTGTGTCACCGTAAATGAATCTTGTATTGCTATGTTTATCTGCCATTGCCTTGTAAATTATACTGACAGAAGAATGAACAAATTACTGCATGTCATCACTTAAATACTACTTCTGAAATAAAAATAAAAAGGCTTTGGCACAGAGCTTAAATTTTAGCGGATCACAATTAGTAAAAACATATTTAATGTTCTATG
0.9069609672702943 TAACAAAAGCCCTCTTCCTCTATACCACTTCCCTCTTCCAATGGCTGTTCATTTTTTTCTGCTCCCCTTCATAACAAAATTCCTTGACGTTGCTGTCCCTACAGTTTATCTCTGTGTTCTCTCCACCCAGCCTCTTGAAGCATTACAAAGAGGCTTTCACCCGCATTGCTCTATTGAAACTTATCTTGCTAAGGTTGCCAAAGGCTTCAACATTACAAAACCCTAGAGTCAACTCTTAATTGTCATCATACCTCTCTGTTGGCAGCATTTAGTTGATCTGCATTCCTTCTTGGCTTTCCTCAACATCTGAGTTGTCTGCCTATTGAAATCACTCTTTCTCTGTTCCTTTGCTCATTATTCCTTATCATCCAACCTAAAAGTGTTGGAGGACTCAGGATATACCTTTTGGAACTCCTCTCCCTTAGTGACTTCATTTAGTCTTATGGTCATCTAAATAATTACAACTCCCAAAGATATATACAGTCTGGAATGTTCCCCTGAACCTCAAATTCATGTAATCAACTGCCTAGTCAACAGCCTCTTATATTAGAGGTCTGCAGACATTCCAAAATTGATATTGCCAAGGAGAACTTCTAATCTTCCTCACCATTGCCCAAACCTATTCCTCTCCATATTGGAAAATGGCATGTTGTCCCAGTTACTCAGATAAGTATACATAAA
0.92473890448162 AAATGCTTAAAACAATAATGTGGCGGTTAACAATAACAAAATGGAGTCACTTATGTCAAAACTTTAACCAAAATGAAGTCGGGGAAGGCCATAAAGAAACTCTCTCCCTTGCATTCCTGAAATATCTGGACATCTTGTTAGTACTTGTACACAGAGCAAACAGAGATTATCACAGGAATTTCCTCTGGCCTACAGTATTTCAGATAAGACATTCAGACCTGGACAGTTGCCTAGCAACAGCTATCTCCCCAAATGAATTAGTGCCAACCCCTGCAATGTGTCCCTGAGACCAATGAGCTTTGTTTCAAAGCAGTTTGTGTAAATTTCTCTTTGTCTTTAAAAATTTCCAGTTTGTCCCAGTTTTCCTCATGTGGGCCCATGATTTTCATAGCATGTACACCCTAGGT
0.4270330820459434 AACATGGCCAGGTGTCATGATCACCCTGAGGGGTTAAGAACATGGGTTTTCAAGTCAGGCCCTGGGCCTACTTTCCTGCATTCGCCACGGTGTGTGAGGCTCCTCAGGAGGGTGAGGCCTCACTGAGAGAATGACAGTATCCACATTCAAGCACCAGGCACAGCCCAGGCAGAGATAAGGACCCACGTCAGTGCCAGCCCCACCCACCTGACAGATAAGGCGGTGGTGCTCCCACAGGAGGCCCCAGAAATCCAGCCCAGCCCTCAGATCTCCCTTGGAGCTGCACTCCCTCAGCTCCTCATAGGCTGAGGGGCCTTGGGCAGACCCCTTCACCCCCTGGCACAATGGAAGCAGGGAGGTTTGGCTTGCTGTTCTCTGAGATTTCCCGCAGAGGTCAACACTCCTGAACATGGGCCTCCTCCAGGGGCCCCAAAGGGAGGGGT
0.8271148993280109 TTTATAGGGATAAAAACGCCTAACGTGCTAAGAAATTTAAAGTGAAAGAAAGAATCTTTGTCCTCATAGCCAACATACTTTCCCCATCATGTCACATTGCGCTATTCTGGCTTTATCTGCCAACCATTCAGTAGTCTATCACAGACAAGATTGCTGCTCACTGCGTTCCATTCAGTCGAGCATTTGAACTGCTTATTATCTTGGCTACCAATGTGTAGGGTGCCTGTTTTTGTCTTGAACCAGATATACCCTATCCTGCACACTTGATTGCTGAAAACTTCCAGAGACCTCTATTTGCAACAGACTCACATTTGCATGTGTAATTCCTTACTGGTTTGTCAAACAAGGAACAGGATAAATATACTGATTGATAAAAATTATTCTAAAACAGAAAGCAAAGACTCCTGAGTG
0.6965618779858649 AGACAGACTCAAAGAACAATCGCTGTCCTCAGCTCTGCCTGCTGCCTCAGCCCCACCGGCAGCACGCAGAAGCCTTTTCTCCAGCTTCTGGGCCCACTGAGCTACCCGTCAGCACCTCCTGGCCAGTGCTGAATACTCCTGTGCATATTGAACAGGCTTCCTTTTATGCTCATGCCCAGAATTCCAGAAGAGATAAGGACTTCCAGGGCACCAGTGAGAGATGAAACTCTGGGAGTGGGCACTGGGCCAGCTCTAAAATGAGTTATGTTGAGTCAGCAGAGTCAAATTGACTTTCCCAAGAGACTCACACTAGAACGTTGCTCAGTTCCTGGAAAGTTAAAACTGCAA
0.3741830549032736 TTATCCATTCTTCTGTTAATAGTCACTTGAGTTGTTAGCAACCTATCGCCTTCACAAAGAGTGCTGCCTTGAACATATTTCTGTAACTCTCCAGATGCCTATGTACAAGAGTGTCTCTACTTAATCAGGAATGGAATTACAGGACTACAGAGTGTACATGTCATCAGCTGCACTAGATAATGCCAAAATGGATTCCAAGGAGTGGTTCCCATTTACACTGTCATCAGCAGCATGGGATAGTTACCATTATTCCAG
0.1795988782849219 CATGATCTGGATGCTGTTTCAGCATGTAGAGAGGAAACCCAAACAGGCCATGAGAGAAGCTCAGGCCAAGCTGGATTCTGAATTCCCATGTCCTTTAGCAAAGTCTGGGTCTCTCAAGAGCTAAAGGATTAAGATAAAGGCCTCTGCTACTCATGATTACCAAGGACCGTGTTCTGTGTGGTTTGTTCCTCTTATCTGCAGTCCTGACAACAGCTTGGGTACATGAGACCTGTCTGCACAGCTGCTGACATCTCCCCAGGGTACACACTGCTGACGTCCAATGCTTTAACGAGACACAGGCTTTCCTGCCAGCCTGGATATCCTTCAAACATGGCAGC
0.5283950917290676 TTTTGGTGTCATTTGAGCAGTGAATGAGTAATGTACAGCAGAAGCCTTAATCCGCCCCCCACCCCTAGTTTCACTTTTGTTCAGATATGTCCTAAAGATTCCATTAGCTGTCTGTCATAAATTCCAAAGTAGCCACAATTCCTGAGCATTTACAAGATCAAGATAAAGAAATGCCATCATGAAATGAGGTCGACTAAATGTCTTTGAACAAAGGGTTTCTAGTGACTTGCCTCACATGTATCTCAAGTGTGTGATAGCAAAGGCATTACAAATAGAGATTGCATCACCATGTCTACCAGCACCCTTTACTAATCAACTGACCTTGCATGAACTGTACTTACATGCC
1 GGATGGGTTTATTGTCCTTTTCAACAGACTAGAGTATACGGGGTGAAACTGCTTCACTTGATTCAATAAAATCGTTTCCGGTAACAGGCCCCAGGAATCCTAGACCTAAGCCTGGCGCGAAACTACATTTCCCACAATCCTTCGGGGGCTGATAAGGCTCCGCAATGGTCTGAACTACAATTCCCACAATCCAGGGCGATTTCCGCTTTGTCGCGTTTCCTCAAGGCTCCGCCCCATTTCCCATCTTTCTTTTCAGTCCTTGCGCACCGGGGAACAAGG
0.4871466990118248 CAGAAGACATACCTGGGTTATTCCAGTAGCTTCAGTCACAAATACTTGGCGTATACACTACCACTTGCCTCTCTTGTGCCCTTAAAAGGCTTGAATAATAAACACAATGCTGTCATCATGACTTAAGCTTAGCACCCTCTCAAACTTCTCAACACGGTATTCCCAGCAGTGAATACCCATTGATTAGATAAGGAATGTGAGAGTGAAGCCTATTTTTAATCTCTGGATAGCCTGAGAAGTGGTCCCAATGAGTTTATCCAATCTCATGTCCAATGTGATATAATACATAATATCTTTGCATAATTTTGCAATGTCATTTCACACCTGCCTTTCCAATTGAGGGGATTGGAGCACTCATACGTGACTGATGGGCAAGAAAGAGTTCTCTAGAAGGAGAAAGGGGAGAACAATGGGCCTGCCAGGTGGCACTGACATATGAAGCAAAATGATGGGTTTGAGGCTACATTGAGCAGGAGTAGCTTTG
0.4494371250938881 AGATACCAGAGGGGAAACGGAGGCATGCAGGTGAGAACGTGGCAGCAGTCCCTAAAAGTCACTTCTGGTGCTGGCCCTGGCTCATCCGTGCCCTGGGGGAGAAATGCAAGTGTCAGAGCTGCGGAAAGGAGCTGAGATCTAGCAGGGCTCGCCCTTATCAACCTCCGCCTCTAACAAGGGCCACACAGCACGTAGGGGAGATTAGGCCGATCTGCCTGCCTCATCGCGGGAGGCCAGGAGGGTGGAAGGCAGCGGATCGCGCCCTAGCGAGCAACCCACATGCTCTGGAAGTGTGGTTCAACTTTCACCAGGCTACTGCGGGCGGCCGGCCAGCTGTCAGCGGGCACTCCGCCCCCAGGAGCTGTCCGCAAGCGCGGGGCG
0.9185472773040904 GCAAGCAAAATATTTAATGACAACTTACAATCAGAGTTAGAGCTACACTACCGTAGCCAGAATAAACAAGTAGGAAAGAATGTGGAAATTAGAAAAATCTAAGTTTGAGTCTGAGCTTCGCCAGTTATGCATTTTGTGACATCAAGCAAGTCACTGAAACATTCTTAATCTTACTTTGCTCATTTCTAAAATAGAAATAATAGCTCCACCCGTATCTAATCCTGGGATTGTTTTGAGAAGAACATGAGATAACATAAATGAAAGAACTCTGGGAACTACAGAGTAACACACAATGCAAAGACATTATTATTGTTATCTTGGCATGTGCCTGTTGATGGTCATGACAGAAGCAAGGGTCTGATGTTTGCCATGAGATGTGTCGCTAATGCTCCGCAGTTAATAAACGTGATTATCATAATTGCA
0.5638029700569143 GGTCAATCTACTGCTAAGGGATTTCAGCCCAGCAAATGCACACATTAAGAATAATGCCAGAATGTAGAAAAGTGGCTTTATCTTTCAGTAGCGGTGGACTGTTCGCACACACTCAACAGTTAACAAGCTCCGCTCTGAAGTTATTCTAGACCTTATCTTTGGAAATAATGCAGGCATGATAAATAAGGTTGGAGTAGAAAAGCACTAAAGATGCAATCATAATGTCATCAGGTTTGAATTGCCGATGAAGATCTGTGGGAAGAGTACTAACACAAAAATATGGGGCTTGAGAA
1 CTGATTCTGAGCCCTTGCATACCTCAACCCGTAATAATAAGAGAAAGTTCCTGTATACATTCCTTGCAGAGTGTGATTTGAGAAAAAGCAGGGGGATGAAATTCAGGTTCTAGTCTTTAATGACTTGAACACAGATGTTGCTGTTGACAGGCGGAGATATGTTGAGTGTTGTTTCTCCATTTGCTTAGCAAGATTTGACATGTGGTGAGCCAGAATAGAAATCTGAAGAGTTGAATCAAGATGTGTTGAGAGAACTTTGGGTGTAAGAAGTGATAAAAGAAGCAGGTCTGGATATACAACATTAGGTGGCAGATGGAAACTTTTTCAAAAAATATCTTTCCAGGATTGCCTGCTTGGATAAACTGATTGGTAAATTTAGTTGTCCTTAGAAAAGAATTTTTAAAATACAGAGGATACACAGCCAGTATATCATCACTCTAAACAAACAGTGCTCATTGTTCATCTATGTGCATTTGTTCACATTATGATAAGTGCTTACAGATGGGTCTGGCAACCTGAACTGGAGGAAATAAAATAAGGTGATGGGGCTGGGGTGGGGTGGGTTGTGCACTAGGTCCCAAACTACCAGTCTTCCAGGTCTTCGTGACTCATAGTCAC
0.8614968129697562 TCAAGGACACAATGATTAAGACAGCAGTTGCAGCGAGCTGGGGCCAAACCGATAAAAGTTTCCACCCATCCTCCTCCTACATTTAGGGCTATTTACCAGTGCAGCACGGAGCAGACAGGGCTCTCTAACGCTGAGGTATGTGTCCCTTCTCTGGGCCCCGTAAGCTTTCAGTACTGATAAGGGGAAACCCACGGGTAGAGATTGGGTCTTGCTGTATTTTCAATGAACCACCAGAGGGCGCCCCAGGATGGCACCACATTCCTGGTCTATCGGGTGATCATGGGACTAAACAACAAAGAAGTAACTTATGAAGGTGGAAAAGTAGATTTGGAAAATAAGGAA
0.2875299345588173 TCCACTTGCCTTGGCCTCCCAAAGTGCTGGAATTACAGGTGTGAGCCACTGCATCCGGCCTTATATATCTATCTTGTCTGTCTGACTGTCTAATCTAATTCATCTATTTTATCTGTTTATCTTATCTATCATCTATTTATCTAATCTATCTGTCTGTATGTCTGTTTTTTTTTTGTTTTTTTTTTTTTTTTGAGATAGAGTCTTGCTCTGTCGCCGAGGCTGGAGTGCGGTGGCGCGATCTCAGCTCACTGCTGAACCTCCGCCTCCTGGGTTCTAAGCGATTCTCCTGCCTCAATCTTTGGAGTAGCTGGGATTACAGGCCCGTACCACTGTGCCCGGCTAATTTTGTATTTTTAGTAGAGAAGGGTTTCACCATGTTGGTCAGGCTTGTATTGAACTCCTGACCTCAGGTGATCTACCCGCCTAAGCCTCCCAAAGTGCTGGGAGTACAGGTGTGAGCCACTGTGTCTGTCCCTAAATGTCTGTCTCTATCTATCTATCTATCTATCTATCTATCTATCTATCTAATCTATCTTTCTGTCTAACCTAATCTATTTTATCTATCTTATTCATCATCTATCTAATCTGTCTGTATGTTTATCTAATCTATTTACCTAATCTATCAATCTATCATCTAATCTATCTAATCTGTCTATCTAATCTATTTTATCTATCTATCTATCTGTCCATCCATCTATCTACCTACCTGTCTATCTCAAGCACCTACCACGTATTAAGCCCTGGCTACCTCCTCTTCCAGGCAGATGGAGTAACTGGAGGCAGCTAACAAAGATGGAGTCACTTTTCTTATC
0.3674848293434682 ATCACCATGGCTGCAGCTTTTAATCTCCTGAATGGCCATAGCATACATTGCTGGTTCCATGCCAATCCCCAGAGCCCAGGCACCACTGAATGCAGGTAAGTGACTCACATGCTTTGAAAAGTTCCTTGACTCACCCTGTCAGTGACTATAGTCAGGGTTCCTTATCAACAAGTCCCGCCCCTTCTTGATAGGGGAGGACCTCTCAGCAGCACGAGTTGCCACTTCATCCTTCACACAAAGCTGTGGTTGTGTGGCTCCACAGCCCCCTTGTCAGTAATGAAATGGCCATGTGTGCAGTACTGTGAAGGGCCACAGATAGTTGCCAGGCATGCCAGCTGCAATGGAGTGTTTTGAGACATTGGAGTTTATGAG
1 TATATCTTAGTTTCTAAGAGAAAAATATGTGGTTTAAGCTCTGATGATTATAAAGTCTAATATAATGGAACATCCACTACACTACATACATAAACACACACACACGCACACACACACACACACACAGAGAGAGAGAGAGAGAGAGAGAGCTCTACATTTGCAAAGATAAGTCCTACTCTAAACACTCCATGCAGAAAAGACATTTCAGTTCCTGCCAATATTCTGGAGGTACTTACAGCATAAGTGGACTGAGCTAGGGAGTCTTTCATTGCTTCTTCAACACCTTTTGTAACAACTATTTTAGCAATGTC
1 ACGCGATAGCATTGCGAGACGCTGGAGCCGGAGCACCCTATGTCGCAGTATCTGTCTTTGATTCCTGCCTCATCCTATTATTTATCGCACCTACGTTCAATATTACAGGCGAACATACTTACTAAAGTGTGTTAATTAATTAATGCTTGTAGGACATAATAATAACAATTGAATGTCTGCACAGCCACTTTCCACACAGACATCATAACAAAAAATTTCCACCAAACCCCCCCTCCCCCGCTTCTGGCCACAGCACTTAAACACATCTCTGCCAAACCCCAAAAACAAAGAACCCTAACACCAGCCTAACCAGATTTCAAATTTTATCTTTTGGCGGTATGCACTTTTAACAGTCACCCCCCAACTAACACATTATTTTCCCCTCCCACTCCCATACTACTAATCTCATCAATACAACCCCCGCCCATCCTACCCAGCACACACACACCGCTGCTAACCCCATACCCCGAACCAACCAAACCCCAAAGACACCCCCCACAGTTTATGTAGCTTACCTCCTCAAAGCAATACACTGAAAATGTTTAGACGGGCTCACATCACCCCATAAACAAATAGGTTTGGTCCTAGCCTTTCTATTAGCTCTTAGTAAGATTACACATGCAAGCATCCCCGTTCCAGTGAGTTCACCCTCTAAATCACCACGATCAAAAGGAACAAGCATCAAGCACGCAGCAATGCAGCTCAAAACGCTTAGCCTAGCCACACCCCCACGGGAAACAGCAGTGATTAACCTTTAGCAATAAACGAAAGTTTAACTAAGCTATACTAACCCCAGGGTTGGTCAATTTCGTGCCAGCCACCGCGGTCACACGATTAACCCAAGTCAATAGAAGCCGGCGTAAAGAGTGTTTTAGATCACCCCCTCCCCAATAAAGCTAAAACTCACCTGAGTTGTAAAAAACTCCAGTTGACACA
0.3948550275093552 ACGGGGCCTGGCGACCCCTGAGTTGAGGATTCCGCAGGCCCTGGGCCGACTCCCACTGAGGACTGAGGACCTGAGGCTCACGCTTCATCCCCAGCGCCGGCTCCCTGAGGAGGCCCCTCTGCACTCTGTCCCTCCTCAGGGGACAGGAGGGGGAGGGTGCAGATAAGGCACCGGGCCCCGGGTTATCTGGCTTGACCTTTGGAGAAGCCGAGAGGGGAGTGTTGTCACCCAGAGGAGATAGAGGGTCGCCTGGTGGGAGCAGCTTCCAGCCTTCCTGAGTGGTCAGGGGCAGGGCCCTGCGAAGACAGCCTGGACTGGGGCACTGGCCTGGCCTGTCAGCGCCATCCCTGCGCGGCTCCCAGAC
0.5698439746462841 GTGGAGCGGCGGGGCCTGTGGCTGACAAACACCAGCTGCACTGAGTACATATCACATCATGGCCTGGCAGACGTCTTCTCCTTCAAAATGACACAGGCTATTAGCAGACTCACCGCAAAAGGATATGCCAGGAGTGGATGCATGGAATTCCTGCTGATATACTGGAATCCCAAGACTAAAGCAGGCTTCCCTGCCCTTATCAGACCAGCCAAGATAACTGGAGCAAGGGTGGAATCTGCACACAAGAAAGAAATTCCACCTTACAAATACCAGGCCCCAGATCCAGGCCCCGTGTTTGATGAATTTATTGATTCCACATAGCTGAAGGCCTGTTCTGTGCCAAGTATACTGCTTGGAGTTGTAGACACAGGATGATAAAATATAGTCCGTGCTGTAAGGGTACTCCTGGACCAATGGGAAATGCAAATGACATCTAAA
0.3697163150220449 CTGTCCCCATGGCCCAGGCAGGCAAGGAAAGCAAAGGAAGCATGAAGGGAGGCCAGAGGAAAGCAAGGGAAATGCCACGCCTGCCTTACGAGCTCCGACAGGGAAGTCGAGCCCTCTTATCAGTGGTCTAGTTGACTGGAGAGATAATCTACCACGCTCGCCAGCCTGTTCTGGAGAGACTCAATGACAACCCTATCACGTTAGAGGACCTGGCTCAGCAGTAGAACACAGGCTGGCAGCAGAGACTGTGGGATTCAGCTCTGGACACCAGCACCAGCTCAGATGGGAGCTCTGCTGTGGTTTTCACTTTGCTCTGGCTT
0.712493211696583 TTGAAGGCTTTCCCATATACAACATATTCATATGATCTGTGCAACATGAATTCTCTGCTTTATGATTAGAGCTGATTACTGTGAGAAGGCTTTATGACTTTCAGGAAACAAATAAGTTTTTTTTTCCATATATGAATGCTCTGATGCATACTGAGAACTGATTATCTGGATACCAGGGTGACTGAATGGAGCCCTTATCACAGTCACTGCATTGATAGGCTTTATCTTAAGTATGAGCATGCTGGGTTTCTTCATATTTGACATTTGAAGGCTTCCTCACAGTTAGTTCACATATAGGTTTCTCTCCTGTATGAATTTAGTAACGTAGTTGAAGATGTGATTTCTTAGCAAAAGACTTCTCACAGATGCCGCATTCATGAGGT
0.4793247862273535 CCACACTGCCTAGTCTCAGGAGCAGGGGCTAATCTGGGGATGGGGTGGGCTAATGACAGGCTCTTTCCCAGAAATCTCAGCCATGAGATTCAACTTGGTTGCTCTCCTAAACGGAGATCTTAACCCTAGGGCCGGTTTGCAAGTCGGCTGCAGTTAGCTGTTATCTAAGGAATGCTGGGAATGCTGGTAGGGGCTAGGCCCACGGGGCAGCTCTGACTCCTCCCCATAGTCCCAGTGCTTAAATTCCAAGGTACTTAGCTTTTGCTGAAATGCTGGGGCAGGAAGTCTCCCAGAATGCAGTGGCTGTGAACAGCAAGGCTA
0.7681633501131474 CTTTTTTATGTTTGTGAAATTCACACACAAGTAGCTGTAATTTGCCTTATTACTGTACAGTTTTTCATTGTATATAAGACACCAGAATGTTTGTTTGTTTCTTAAATATATTCCACTGCTGATTAAAATTTGGGCTGTTTTCAGTTGGGGAGCAATAATGAACAATGTAGCCATGAATGTTTCAAATGTCCTCTGAAACCTAAAACCTATTAGTCACCACCTTGTTATTTGGCAGAATATAGAAGCTAACAGATAAGGGAGCCTTGGTGACACAGTGAATAAAGATTAGCCCCCAGCCATTCAGAGCAGAGAGGAGAGGGTGGAGAGTAACTCTCAAGGGCAGTCCAAGAATATGCAGCACTCATGTCTCAACGACT
0.6202814512723626 TGCACCTATCCGGGCCCTCCCTGGTGGAGTGTGTCTACTGTTTCCTGCAATCCCCTCAGTTAACTTCTGGGTGACCTCGCTGTGCCTTGCACTTATTCATTTAGCATATCAGCTTGTCAGTGTGATGAAGTGTTCCTGCTGATAGGCGCTAAGGGCTGAGTAAGCCACAGTGCCTCCATCACCGGGGAGAAGTGTTGATGGGAGCCCAACGCTGAGGTCGCCCTTCCCACAACAGCCACCAGGCACCAGCTGGAAACCTGTGGGCTTCACCT
0.2757914985124285 GCCCTCCCTCTTATCTTACCCTGCTGTGGTCAGCCTTGCCTAGGGCACACAGCCAGTAGCTGACATTCTTCAAGCTGAAGGGCTTGATAACTTTGGGGATGAATTATGACTTCCTTATCTCTGTTGAGCCCAGTGCCTGTCACAAAGTCAGCACTCAGTGGCTAGGTGTCAAATTAAATTCTTGAATTGAAGGCAGTGTTATTAAAGATGCTAAACTTTTATAGATGCCTCTTTCCCTATAGCTTGTTTCCTTCAAGATTTGTAAGTGAAACCACATTTATTTTTACCTTGTATAAGACAAT
0.7583765991605229 TTGCAACAAGTTAGACAAATTTTCAAGGCTACCTGCTTTACTCTTCCTGCTCTTTCCCTCCTCCCAAAGAAAGAAAAATAAAACAACTCATGAGTTCAAACTGGAGTGGCAGCCACAGTAGATAAGCAAAGAGAAAAGTGGTGTTATCTAGAGGCACATACCAGTATTTAATCTGCAGTGGGCCTGAGACAAAATAGGAAAGAACTAACTAAGATGCCTGCATGACACGAGGGCCCCTGGAAGAGTGCTAACATGCTCCCAGTCAGTAGCTCCCCCAGTTTCTAATTCT
0.5197256084560281 TAAACTACTAAGTTTGTGGTAATTTTTTATAGCATCAATAAAACTAATATGAGGGATTTGAGCAGGGGAGTGATATGATGTGTACAACCTGTGTTTTGAGTGATTACTCTGACAGCTATGTGGAGAATATACTGTCAACACTGAAGTATATTCTCCACATAGCTGTCAGAGTAATCACTTAAAACACGAGTGGTTTAACACAAGAAACCAAAGATAGTGCCAGTAAGACGAGATAGGATACCATAGTTGCTGAAAGCAACTATGATTGCTTGGACTAGGGTAACCAAAGTGATGATAAGAAGTGGAAATATTTGAGATAAAATTTGGATGTAAAATCGTGAATGTAGTTCAAAGTCATAGCA
0.612022163876584 TGGAATGTGTTCTCTCTTGGCACCGGAAGAAAGGGTGACCCCAGATGGATACCATGTTTGGAATTGGAATCCAAGAGGTACTGGCAGTGAGAAAAAACAGGCCAGGCACAGGCAGCCTGGCAGAGCACTTAACATACCTCCCAGAGGACAAGATAAGACCTCAGGGTCAGAGAGACAGACAAGGAGAGAGAAAGGAAAAGTGAGCACAGAATTCACCTGAACACCTCAGGCAGGAAACTGTCC
0.6747875697429214 TTCAGGATTTGGATCTATGAGGTCTGACTTCAGAGCTGGCACTTCTATTCACTCGATTAAGAATTAATGATAGATTTCATGCAACAGGGAATATTTTGTGCCTTTATTTTGTCCAAATCTTGATTTGCTGATGCATTGTCACCATTAAATAATCTTAGGGAAGTTATCTTCTTAACTGTAAATGGGACTTTCGCTACCCACTTGATAGAATGGCTATTTTTAGCTCTGCAAAAGATATGACTGTGCTGAAGGTTGAGTGAGTGACCAAATGGAAAATCTGTGACTGGGAAAGTCATATGGGATTATCCAAGGGAAGCTCAGGACATGAGGCACAGGCAGCAGAGAAGGGCTTGGAAGTTTCACAAACGTGTGTGGA
0.3246944080738429 GGAAAAGAGAGTCTAGTTCAGGGCAGGACAACATTCCAGCCCCCACTGACAGCAACTCCGGATCCTCTCTCTGAGCAGTGCCAATTTTTCCAAAGTGTTTAGAGGTCCCTGCCAGCATTGGCTTTCATCAATTTGATTGTATGAAGTGGCTGAGTGAGTCTGAGATAAGATAGGGCAAGAGAAATACACAGTCATTCACACCTGCTAACTTGAGGGCTGCCAGGGCAGCTCTAGTGCCCAACGGTAGAGGAAGAATGGTGCCTACCATAAG
1 TCTGCCTCTTCCTACACATCGGGCGAGGCCTATATTACGGATCATTTCTCTACTCAGAAACCTGAAACATCGGCATTATCCTCCTGCTTGCAACTATAGCAACAGCCTTCATAGGCTATGTCCTCCCGTGAGGCCAAATATCATTCTGAGGGGCCACAGTAATTACAAACTTACTATCCGCCATCCCATACATTGGGACAGACCTAGTTCAATGAATCTGAGGAGGCTACTCAGTAGACAGTCCCACCCTCACACGATTCTTTACCTTTCACTTCATCTTGCCCTTCATTATTGCAGCCCTAGCAACACTCCACCTCCTATTCTTGCACGAAACGGGATCAAACAACCCCCTAGGAATCACCTCCCATTCCGATAAAATCACCTTCCACCCTTACTACACAATCAAAGACGCCCTCGGCTTACTTCTCTTCCTTCTCTCCTTAATGACATTAACACTATTCTCACCAGACCTCCTAGGCGACCCAGACAATTATACCCTAGCCAACCCCTTAAACACCCCTCCCCACATCAAGCCCGAATGATATTTCCTATTCGCCTACACAATTCTCCGATCCGTCCCTAACAAACTAGGAGGCGTCCTTGCCCTATTACTATCCATCCTCATCCTAGCAATAATCCCCATCCTCCATATATCCAAACAACAAAGCATAATATTTCGCCCACTAAGCCAATCACTTTATTGACTCCTAGCCGCAGACCTCCTCATTCTAACCTGAATCGGAGGACAACCAGTAAGCTACCCTTTTACCATCATTGGACAAGTAGCATCCGTACTATACTTCACAACAATCCTAATCCTAATACCAACTATCTCCCTAATTGAAAACAAAATACTCAAATGGGCCTGTCCTTGTAGTATAAACTAATACACCAGTCTTGTAAACCGGAGATGAAAACCTTTTTCCAAGGACAAATCAGAGAAAAAGTCTTTAACTCCACCATTAGCACCCAAAGCTAAGATTCTAATTTAAACTATTCTCTGTTCTTTCATGGGGAAGCAGATTTGGGTACCACCCAAGTATTGACTCACCCATCAACAACCGCTATGTATTTCGTACATTACTGCCAGCCACCATGAATATTGTACGGTACCATAAATACTTGACCACCTGTAGTACATAAAAACCCAATCCACATCAAAACCCCCTCCCCATGCTTACAAGCAAGTACAGCAATCAACCCTCAACTATCACACATCAACTGCAACTCCAAAGCCACCCCTCACCCACTAGGATACCAACAAACCTACCCACCCTTAACAGTACATAGTACATAAAGCCATTTACCGTACATAGCACATTACAGTCAAATCCCTTCTCGTCCCCATGGATGACCCCCCTCAGATAGGGGTCCCTTGACCACCATCCTCCGTGAAATCAATATCCCGCACAAGAGTGCTACTCTCCTCGCTCCGGGCCCATAACACTTGGGGGTAGCTAAAGTGAAC
0.9073493397554928 GCTGGAAAATCTACTATGTCAGACTTCCATGCAACCGCTGGTGGGAGAAAGTTTTCACGAGTCTCTCTGGGCCCTTATCCCTCTCCCCTGTATTCCCATCCTTATCCAAATCCACATTTCACCAAACTCCCTAACGCTAAGCAGCTGTTGAAGTTCAGATCACAGTCTCTGAGGAGCTCCTGGTTTCCCATGGAATGTGATTTGCCTCATCATCTTACAGCCTGCCTCCACTTTGCTTTCTTATCATTTCAGAGGCTTGGGATGCCTGTGTGCACAATAAATCAATGGCATTTTAAGCTTTCCCTGTGGCCTCAATCACTATGCGCCTTGGTGCAGCTTGCTGTGCTGATCACGTTTATGACTTCACCTAAATTCTTAATGCTCTATCTCATTGCAAAGAAAGGGGATTATTTTTTATGAAAATGTAATTTTAGC
0.7367843327812564 CTCAGCTGTCCTTTCATACTGAAGTTCTTTATATATTCCGGGCACTAAACATAGACATAGATATGAGTATAGACATAGATATGGATATGGATATAGATATGGATATGGATATAGATATGGATATAGACATGGATATAGATATGGATAGATTGGAAATGGATATGGATGTGGATATAGATATAGATGTGGATATGGATATAGATATGGATGTAGATATTGATAAGGATATAGATATGGATAGATTGGATATGGATATAGATGTGGATATGGCTATAGATGTGGATACGGATATAGATATGGATAGGTTGAATATGGATATGGATATAGATATGGATATGGATATAGACATGGATATAGATATGGATAGATTGAAAATGGATATGGATGTGGATATGGATATAGATGTGGATATGGATATAGATATGGATGTAGATATTGATAAGGATATAGATATGGATATAGATATAGATATGGATATAGATATGGATAGATTGGATATGGATATAGATGTGAATATGGATATAGATGTGGATATGGATATAGATATGGATGTAGATATTGATAA
0.6052059979354212 TTCCCTCTACATCCAGGAAAGCCTCATGGTGTGGATGGGCGTCCAACAAGCAGGCTGTTCTGGCCCTCTTTGGGTGCTGACTCTGTGTTCCCAAGGGCCATTGATAAGCTAAGCAGGAATAGTGTAACCACAGGAATGCCTGCTGATAACAGGAAAGTAGGCGGCTGCATTCCTGAGCCATGGCTGATGCTGCTCCATCCACTGCCAAGGTGTAGAAAAAAGAGACAAAGTAGTAAATTCTAAAGATTTGTCAGTCTGGGTTGGCAGCTCTTAGAGAATGGATATGTGGCAAATATGTCTCTCCCTCTGTGTGTG
0.7045346404480635 ATTATTAATGCAACATCTGGAGTTAAGTTATTTAAAAGCTAATACCAGGGCTTATGCCACTGAATTTCCAAGGGACTTGGCAAAGGAGAATTATCTATTTATTTTCTAAATACCACAGATTCCTTTAAATTACCCAACCTCTCTTGCTTCATTCAAACATGTGCAGCTTCAAGTGGGCGTCTACTGCATTAGATTAGATAAGTCACAAGGGCAGAGTCTCTGGACTGCAGGCGTTGCTTTGCAGTTGAGCTGCTCTCTTCACATGGGTACCACCATAATGTATGCTCCAGGGTGAAGAGCAG
0.595013195490063 AGCACAGTCCCCCCACCTCGGCATTGCGGACCTGGAGCATGTAACACGTCTGAGTGTGAACAGCGTCAGAAGGCACTGCCGCAGCGCTCCTGCTATTTTTAGCGTCCTGCTATCTTTAGCTGATAGAGTCAGGCCACGGTGAGGCCAGCAGGCCGCTGAATCTCACGGAGGCTTCAGAAGTTGTGATGCTGGCCCCTCAGCTTGCGGGAACTCTTCGAGGAAAAAAACGCGCAAACTGTTAATGTTGTCAGTGATTAATCTGATTGAAGCAAACGGGGAATGGTTGTTACTTTTAAATGG
1 GAGCCTCCCAGAGTGCTGGGATTATTGGCATGAGCCACTGCTCCCAGCCCATACTTCATTTCTTTTTTATGGCCAAGCAATATGATGTTGTATGAATATACCACATTTTGTTTATCTATTCATCTGTTGATGGATGGGTTGTTTCCTTTTTTTAGCTTGTGAGAGCAATGGTGCTATGAACATATGTGTACAAGTTTTAAATCTCTTGGGTATATACATAGAAATGGAATTGCTGGATCATGTGGGAAGTCTATACTTAGCTTTCTGAGGACTTGTCAAACTCTTTTTCAAAGTGACTGCACAATTTTACACTCTTATCAGTAATGTTTGAAGGTTTCAATGTCTCCACATCTTCACTAACACTTATTGCATTATTGCATGTCACTTTGATTAAAGGCAGTCCTGTGGACATAAGGTGATATCTCATTGCAGTTTTGATTTGTATTTCCCTAGTGACTAATGATATTGAGCATCTTTTCATGTGCTCATAGGCCATTTCTATATCTTCTTTTGAAAAATATCTA
0.3588674010706026 AGGCACCTGGGATTAATTTCTGGGTGAGGAGGGGTTTTCTGAGTCCCTCAGGAAGCTTTCCTAGCTGGTTTTGTCTACAGTCACACCCCTCTGTGCTTGCCCCATCACACTGCTGACAAAGCCCTTGATTCTGAGTGATGGCACTCCACGGTTCCCTCCATCACAGGTTGGAAGATAAGGCCTGACTTATAGATAATGGCACTTGTTTTGCTCTCTCTGAAGCCTGTTCAGTCCACATGGCCCAGTGCTCTGGGGGTTACATTGCTGGCAGTCCTTGCATTCCCTGCACATTCCCCTACAGTGGACTCAGGAGTAAGAATGGCACATGGAATGCAGGC
0.9703244710774237 GGATAACTATTTATAGCCTCTTGCTTATCTTACGCAGTCCAGTCCTCAGGGAGTATGTGACACATGGCCGTTCCTGTGTCTGGGACACATCATTACTCCACCATGGCTCTGACTCAGACGGATGTCTGGGGCAGGGGTCCTCTCTCAGGGCCCCTTTAAAGTTTGATGAATGGATGAGAGAATAAGTAAACAAATAAATGTAAAGCAAAACAAAACAAAAACAGCTTTGGAAACAGAAGGAGTCACAGACAAAACCTTACAGGATGGCGGAAACAGCCGGACAAGGAGACCCCATGGTTAACAGAGCGGTGTGACTTATCTCCCCTCAAGCATGGTATCTACTCAGTGCACACATGCATCTTGTTGCCTCACTCCACATGTGACATGCAGGCAAGAAATGTGCGAAGAATCAGGGCCCCTGCCTTTCAAACTCACTATCAGCATTCCTGCAATGGCATGTCAAGCATGATGAAAAAAAAAATGAGCTATGAAGGCAGGAAAACACAAAGAGGAAACTTAAATGCATATTACTAAGTGAAA
0.7845345577246096 GAAGAGGATGAAATCAGGCCCGTTGATCTCTGCCTGCAGGCTCTCTCAGCTCACTGGAAGCTCCAGCAATTATTTCTGCTCCGGTTTTCCCCTCCTTTTTTTCCAGCAGACTGTTTGAAATGAAGCAGAACCAGGCATGGCAGGCTTATCAGTGTCGTTAGCTGACAGGGCGCCCAGCACACCTGCTTTTACTTGCTGCCGTTTCAGGCACTAATGCCACAGAGAATGTTGCTTGGGCCCTTATAATGTGTAAAGATTCATTTATTTCACCTTTTGAACCTGCCTGACCCCGTGGGCTTGTGTTGGGGAGGGGGT
0.411214572127146 TTATTTATAAAGCTCCCGCCTTCCTCTCCACCCACTCCCCTCTCTCTTGGCTACGGAGAAGCCTTCGGCCAGGACATTCCCTTGCAGCCTACTCAAGCTGCTATATAAAGCCCTGCACTTCTCGGGGCTGGATCAGAACGTTCCTTATCTCTCTGCAGCAGGACGCTGATAATCTGCCCAGCTGGCAGGCGCTCTGAGGTCGGCTTGGGCTGCTGCTCTCAGGGCCTACAGCCCCCGTGTGGTCGTCTTCTCTGGTTCCCACTGAAACTTGGCCAACAACACTAACTGAAACCTCAAATATAGGA
0.4896233981917376 AGAGTAACTGGAATTCAGAGGAAGTATTGACATATTCCCAGAGGCAATGCACAGCTCCAGTAGAAACTTTTGCTAACACCAGCCAGCTCTATCCAGAGATAAAGACCCATCATGAACCACTCTGTGCTCAGTGCTCTAATCTACACAAGATAATTAATTACCCATTCCTTCAGCACATTTATGTCAGTTCTAGGTGCTGACAACATAGGCTTGTCTCCTTTTATGTGGCCACTTGAAACTTTGACAGCAACCAAAGCTCAGATTTAATCATTTGATTCTGACTGCTTTCTGTACCAAATTGTAATGGGATTCAAGTACAGTGTGACAGTTCAGGGACAATAACACTG
0.7735904621998776 AGATGATGCCCAAATTTAGACATTGAGGCACTGCTGGCAGAAACGTCCCCAAAGGCTGATGGCTTGTGTGTGCGTTTGAAGTCAAGTCATTCACAGAGCTAATTTGAGGCTCTCCTCGGAAACTATATTTGCTTTCTGAGTGCATGGTGAGTTTTCATTTGGGCCCTGACCAGCTGACAGCTATGCAAGTTTGTAGATACCAGTAATTGAATATAGATAACCTTGATGGTTGACCTCGTCAGAGCCAGGCCTGCCTGTTCCCCATTGTTTCTGGTTTTGCCAGTAGATACTAAACTGCTGCTGGATGAATTTATATATTAAGAATTCGCTGCAGTGAGAATTGCTTATCGTTCCCTGGTCTATCCTGTA
0.7421265894411889 AACAATAGGCTGTCTGCAGGCTGAGGAGCAAGGACAGCCAGTCCACATTCCAAAACTGAAGAACTTGGTGCCTGCTTATATTCTAGCTGTGCTGGCAGCTGATTAGATTGTGCCCACTCAGATTAAGTGGGGTCTGCCTTTCCCAGCTCACTGACTCAAATGATAATCTTTTTTGGCAACACCCTCAGACACACACCTAAGATCAATACTTTGTATACTTCAATCAAATGAAGTTGACACTCAATATTAACCATCACAGGTGGAGATAGAGTCTCTATCTTGTTTTTGAAAGAGAGACTTTATAAATCAGTCAGGCAGCCAAATCTACCCATGAGTAGCTCTCT
0.8646847712662988 ACTACTTCTCAAGGTTTCAGCAAAGATAGAAGGGAAAGATGAAAGGAGCAGTATGCTAGGAGTCAAAAGGGGGGAAGGAAACTCTGGAGATTGTCAAGGTCAGCAAACTGCCTCGAGAGAATTAGTTCTGATATAACACTTAACCTCTCCAAGGACCTCTGTATTTTTGGAAACAAGGAGACACTAGGGAGGCAGAGAAAGCCGCTAGGGAATGTTGTTCAGAGATTATACTCTCCTAATCAAGCTGAACTCTGTTAACCCTATGATGTTTGCCAAAAGTGACTGACTCTTCTGAATTTCTGATGGCTTCATATCTTATCCTTTCTTATCTTTTCCATTCTAAGTGCACAATGTGTAAGGAGTCCCTCGGAATAAAGCAGCCCTGGCATGCCATCGGGGATTGAAGTAGGAACGATTTAACAAGGGATACTTGGAAATGTTGTCATGTGCGAGTTGTAAATTTTCTTTTTTAATCTGGTGGAAAATTGGAATGGCATTTCTCTGTTTTGCCCAGCTATGCCAAAAATCTTCTTGGTCCCACATAGGCCTAGGAAGGATGTAGATGGCAATCACAAAACAAACAAAAAATGAGCAAACAAATAGAAG
0.8376158857856683 AAATGTTTTTGCTACTTTATAAGTCTGAAAAATAATTCAAGCCACTCTAAACCCTTGAAATTCTGTTGGATAATGAACTTAAGGAGCTGTTGACATCCATGTCGCCTGGTGTCCACACTTGGCCTCATATCAGACAGCCACTGGAAAGCGATTTGCATGAACATGTATCTGAGAACCCTCTGTTTTATTTTTAAATGATAACAAAAGTAAGTACAACCATGATAGTAGCCTACTAATAATAAAGGGAGCTATTTATACATTTTTAAGTGACTGTGGTAGATATAGTTAGCTATCAACATGAAGTTCTTGTACCTTAGAGATGGCATGTCACTGAAAGAAACAGACTC
0.5583698493372603 CCCAGATAAACTAAAGACTTTAGAGGATGGAATTCAAGATCCTCCACGACATGTCGTCAGTCTGCTTTTATAGCATTATCTTACATGTTTGAATCCTGTGTGTCTTTTAAGTTGAACTCGTTGCCTTATCTGAACTCAGGCACTTTCTCACTTCAACACTTTGATTCACGTATTCCTCTCTAATTAGAATGCTTTCACCCGTTATCTCTACCTATCAAAATCTTTAACACCTTTCAAGGATCAGCTGAAAAGCCTGCTCCTTCATTGAACTTTTCTGGATAAGCCCTGTCACATATGGTCTATCTCTCACTCACTCATTTTCTTCTTTGAACCTCTCTAGAATTCCCTGTATATGTCTTTTAAGGGTGTTATCACCAACTGCCTTGTATT
0.1936396218095423 ATGGGATATTATTAGCAGCAGAGGCTAAGAAGTGCTTAAGCATTTCAACTTGCACTCTTGCACTCTGCCACTGCCATGAAAGTATGACAAGGCTAATCTGCTGGAAAATTAGAGATACATGAAGCAGAGCTCAGTCACCCCAGTTATCGTAGTTGAGTTATCATAGATCAGCTGGCAGTCAGCTGACCCTCAGATAGATAACAGAGCACAGCTGAGATTGGTGGGGTTGTCTAATCTACTGTCATAGACATATAATCATAAATGCTGAGGTTTCACAATGTTTTGTTATGCAGCATTATTGTGGCAATAAATAACAAATCCCACTCCTAGATGCTTCCATAGCACTCTTCACAAC
0.5654703641212999 ATGCATCTGTTGAAAACCAATCAACCCGTTTAAGATTTCAAATTACGATCTGAAATGTGAAAATGATTGGTAGATTATCAAACTCACTGGGCTGGACAGAGCAATATGTCAGCACCTTTGCCCACGTCCACAGCCTGAAAGCTTTTGAAGGTAAGCAGCGCCGTCATCATTTTGGCATTCTATTTTAGTCTAAGCCTACATCAGAAGCCTGCCAGGGCTCAGTGCTGATAACAAAGCACTATCGCTTTTCAAAGTGACAGAGCACAGTGACATATCAACACTAAGACTTAAACGAAAAGCCCCTTCTCATTTAACTGGGAATCTGCTGAAGCTGTATTCAGCCCAGCACTCGTTTTCAATTAAAACTTTCTTGTCGCAAGAGAAAAGTTTGGCATATCCTTTTCAACGACAGTTATGGAAGTGAGTGGAAAGGGTAGTGTAGTGTA
0.8728615457112902 AAAAGTCTCAAACAGGAAAAGAAAAAACCTACAAACAAACCACCTAGTGTGCCAGTCACGTTTCTATTCTCAGCTGCAAGCTCATCCTTGTAGTCTCTACTGTTCTACTGTAGCTGCCACTCTGTAAACTACATTTCCCAGATTCCCTTATCAGCTGGCTTCCTGTTAGGGTCTACCAATGGAAGCCACTAGAGGGAGATTAGACGGCAGTAGATAGCAATTGCCCTAGACCCAGTGGTTTTTTGCATGAGACAATTTTATATATTAAGCCCCTGAGATTTAAGGATTAT
0.8913627595406002 GGTGGAAGAGGAATCTAGGGCCATTTAGGGAAGCCATGAAGCCTCCTGCCCACACTAGTGGGTAGAGTGGAGCCAGGCGTTTTGCTAGGGCTTGCTATATCTCTTGGCAGGGTGCTCTGCTGCCAAAGCCAAGAATTCTAAATTAGATTAAATAGCCAGAAAGAATGTTAAACATTTGGACATGATATCCTCCCTCACAGATTAGCTAGAGTGTAGTTCTGCTGTGCTAGATACTTAAATAAATACCTCCCTAGCTGTGAAGCCTGCTTATCACAGTACTATATTTTAGGATGAGGTCATTATTTTCCTATGCATACACATGCATTGTATAATCTTGCCAATGTAGGTCAGCCCAAAAGAAGTGACAAATGTGTAGAACACACATTGGACTAGCTTGGGACAAAATTAGTATACCTAAAGATGACAGAT
