svm_type c_svc
kernel_type gkm_esttrunc
L 11
k 7
d 3
norc 0
nr_class 2
total_sv 1648
rho -0.0932352
label 1 -1
nr_sv 885 763
SV
0.3587013518905489 AGCAACAAACCACAGCCTCGCCCTGCCCCACCTCCGTCCGCATAGTGCCCATGGCCAGGCTGTCTGGGCGCAGCATTCCTGGGCCTGCTCTCTGGCTCCCAGTGAGGGTCCCCGCCCCACGGGAGATAAGATAGAGCTGGTGTCAGGGAGGAGGTGTGGACGGGGCCGCACCGGCACGCTGTGAGTGATAAAAGGGGCTTTGGAAAGGTGCTGACGTGGCACCGTGCTTAATGAGGTCATCGCCGAAGCTGCTGCCCCGATAACCTGGAGGTCAGGCTCCCAGCAAGTGGCCATGGCGGGAAGCAGGGCTGTCTGCACTGCCCGTCTCCACCCAGCACCCAGTCGGCGCAGCCACTGGGTGCCCA
0.5995828497264633 GTCATATGGCTCTGTAGAAGTCCTTACTCTGGGAAATAACCATGAGCACCTCAATGGTGGAAGGGTCCCTCCAGCTTTCTTTAGCAGCAATCTTGTTAACCACATGCTTGCTCTGACAACCTTATCACTTGCCAAGTGCAAGCAGCAGTGTTTGCACTCTTACTATCTCTTACCCACTCTTACTATCAACCACCCACTATGCACTGCGTCTGTTTCTGAGTCTCTGTTTCTGAGCTCAGCGCTGCTTAATGCTAGATAATTCGTGTTTCCCATGTTACCCTTGACTCCAGATGAAACAAAGTCACACAAACAATACTCAGCAGTATTCCTCGGGTTCTCATTCCCAGCCG
0.2632941882987828 ACATAACCACTATGAAGAAGGATAGAGTGAAGTGGCATTCTTTGGCCCAGGTAATATAATCATAGTAACAGCAAGCGCATACTAAGTGTTGACAATGTGACAGGCACCATGCTAAGCACTTAAGCACTTTACACGCATTATCTCAGATAAGTCACCTAACAGCTCTCTGAGTTGCTGTAGTAGGCACAAGCAGGACATCTAGCAGATGCAGGACATCTAAGTCAGATACTTTCCACTTTCCACAGTGTGACTTTATCAGGGACATCATAGCTGTTCTCTAGCCTGAGAAGAGGGCCAAGTGGGCAGAAACAGTCACGGGCTGTGTGACTCCTGCCTTCACTACCCATCAGCTGCTTTATCTTGGGCAAGTTAATTAACCCTATAAACCTTGGTTTCCTCATCTGTAAAACAGGAGGTAATAGGAGTTCTTACACCCTAGAATTGTATGA
0.9910602357573574 GCAAACAACTGCTTCTACGTGTTTTGTTTTGTTTTAAGAACTCAAAAAAGCATGGTAGGTTCTTTGAGCAAGGCCTTAGTTGTCAAAAGTTTCTGAAGCCCTCAAACCAATAAATAGTATTATTACTAATTAAAAGAGCAGATAAACTGAGAAACAAAGCACTTAGACCTAGGGTGACATGGTGAGACCAAAACTGAATTCTGTGTCTTAAAATTCAGTTATCTAATCTCCCCACTTCATTGCATATTCTACTAGCAGTCATTCAGTAAAGTACCTTTCATCACTGCAGGAGTCTCTCTGAACACAGTGGCTTTGGAATAGGGTTATCTCCAGACATTGTTGACATCATGTCTCTGCTCACATACCAATTGAGTGAATATTGGCCCACATGATTCTTGTAAGTGGATTACAAGAAATCCACGATAGACTTCATTCACTTTTGATGAAACCAAGAACTTTCCCTCTTGAGCTACCTAATGAGATACTGTTATTTGTTTATTATGCAGGGTACAGGTTGGGGCTTGTTAGCTCTCTGAATT
0.5142644337552409 CTGCCTGCCACCAAGCAAACGTGGCCTGTTCTGATGGCTCAGTGGCCAATGTCTTCCTGTCACCAAGCTCCTCCAAATCGCGGGGGAGATTGTTTTGACATTTGATTAGCCACAGAGTGTAACTTGTGAGTGCTTGAGCAAGCCGACTCTCAAGCAATGGCATCGCTGAGTGCTTTAGCCTGTTAGAGATACCATGTATCAGGGAAAGCGATGGCGGGCAGGGCTCCAAGAGGGAAGATAAGTGGGCTGTTGGGAGAAATTAATACGAAGAAAGGAAGCGGCGAATGAAGTCAAACGAAAACAGGGTCCTGTGATATCCATGACTCATAAATTTCATTGA
0.5787864314467701 ACCGCGCAGTGCTGGAGTGGGGCACAGAGTCCCCATCCATCAGCCACTGTGACTGTGCCAACTCCGTGTTTACTCTGCCTAGAGATGGATGCTGCCCAAACGCCCGGAGCGCTGGGAATGAGGTGGGCTGGCTGGCCAGGATGATTTCTCTGGAAGAACTCAGGCAGGAGCGATAAGCCTGGCATTTCCGCTTATCTCTGACCCTGTCCAGGCCCCAGCGGCATCCAGAGGCTTCACTTGGTTATCTGCCTTGCTGGGCTCTATCTGCCTCCCCGGGGGCCTACTTCCTGCATCACTTAGCAAAGTGTCCAGCTGTGAAACAAACACCGTGTGGTCCAAGGAGGGAGGAATGAAGGGAGGGAGTCCTCGGGCAGAACTGACCTGAGTT
1 ATTAAAGTTATCAAACGACAAAAAACAAAGAGCCCATTTGTATTATTTCACTGCCTAAATTCCAGAAAGCAACAAAAACCAAATCACAATTTTCAAGAACAAACAAATTTAGCAAGACTGCAAAATAGACAAACAGCAATAGCAAGACTGCAAAATAGACAAACAGCAAGGTTATCCCAGTCAGAACTTCATAGCTATGTTTGTGGATATCTGCTAATCAGCATAACACAAATGTAAGTGATCGTCAGAAAGAATCAGACAGGAGCAATCAGGGTGTTGCAAGTCCTGATTACGCAGAGACGTTAATCACGTTTCATGCATCTCCAATCATCATGTTCTAATCTGCCCTCCGGAGGAGGAACAGGTAAGGATTATCCCACCTGACGATACAGACAAACAGCCGACATT
0.9782668382293231 GTGAGCTGAGATTGTGCCCCTGTACTCCAGCCTGGGTGGCAGAGCAAGACCCTGCATCAGAAAAAAAAAAAAAAAAAAGCTCTGAAGGACCGCAGGGGTATGGGGTTTTCATAGCCCTGGAGTTATCTTATCTATGGCTGTCAGATATTGGATATAATTTCAGAGAATACAAAGCAGGCGCACTCGAAATGGCTAAAAATAGGCTTGTTCAGGCTATGTTTCAAACAATCCAGTGTGTTAAAATTGCAGTTTGGCAGGGGTAGGCTATTGTGAATACTAGTGAGACAAACATTGGTGTACAAATATCTCTGAGTCCCTGCTCTGAACAGTTTTGGAT
1 AGTGAGTACTCCGCATATAGAAGACACCTCCACTCAGCCCAGGCTAAGTGATGCCATAAGGGCCCTCTATTACCAGACTCTTATTTTTCAAGGGAAGTTAGAAATCTTTATTTAATGTAAATTTTCCTGATTTTTAAGTTAGTAATTAATCCAAGTATAAAATTATTTTGCAGACTAAAATGCTTAAGGAAAACAAAACACATCTATGGTTTAGATTCAGCCCAAGATGATTGCTGTATAATCAGTCCATGAATTCCAATTACAACTCAACACTCAATACAACTCAACACTGCTTGATTGAAAGCAGTGGCTGGTTGATAAGATAGGAGAAAGAGGTAGTGTTTGTAGTGCTACAGAGAACAGCATATGGAAAATAAATGTAGGGGCAGGACAGAAGGAAATAAGACTGAGGCACATTTTGAAGGCCAGTAATCTAAGATTAGAGTAACAGCAAAACATCTTTTTTTTTTTTTTTCAGAGGAAGATATACACAATGGAAAAAAATCAA
0.8925478935667196 CAGGAGGAGCTTGCAGTCCTGGAGGCTTCTGGCTCTCCTCTCACCCCGCTGCCCGCCCCTCAGTGATTAGTTGGAATCCAAGACAGCAATACAAGATGTGTCGTTGGTGGGAGTGATGGAGTGCCTGCTGAGTGGGCCGCAGATAAGCACCGTGATTTCGGAGGACGCTTCATCATTTCGCCGTAAGAACATGTTAACGGGTGATTGTTTGAATGTCTCCAGCTAATAGGATATTATTCATAACACTCTGGCTAGTTGGAATGGAAGATGATAAGAAATTAAATCCTTAATGGCTTTCTTTAAGGGAGGACTTTTCCCAGGGGAACCAGGAACCCTGGGAAATCGCTCCATGTACCCTGGCAATATCTATACGGAGAGAATTGGCTTTAAATGAACCTCTGAGGGTTACACAAAGGGTAAAAGAAAGAGAACAAAAAGCAATTGA
0.7435220865148126 TTTGGTGTCTCTTAATTGTCCAGGGCAGAGCAATCCTTGGAGCAAGGCAGCCTGCTGCGGTGGTTTGCAGAAGAGGCACAGTGGGGCGGGCTGGAGGCCGCAGGGGCAGAGTGGGCCGAGGGCCTCTGATGAGGTGTGAATGAGGGAGGCAGAGCAGGGCTGGTGTGGACAGCCCTGTCCCAGCCCTATCTCCCGTCTGCGACACCCTCTCCACACCCCAGTGCTGATAAGCGGGTGTGAGCCACGGCCGCCTTGTGACAGGCCCTTCGGCAGGGAGGGTGATGGTGGGGGTCCACTCCACTTCTGAATTCAGACGTCAGCATCTTTTTCCCCCAACCCCCATTGCCCTGTCAGACTAGACAGGCCCTAGCAACCAGGCACCCTCCCTGACAGTCCCTGGCTTGGAGATTTGTTTCT
1 NNNNNNNNNNNNNNNNNNNNNNNNNNNNNNNNNNNNNNNNNNNNNNNNNNNNNNNNNATAATATATGGTTTGTGAACTTTGATATTTCATGTAGAGTATAAAATATATATTTGGGGTACATTGATATTATATTTACAGTATGTAATCTATATTTGATGTACTTTCATATTTTATGTACCTAATATATATTTGATGTAATTTCATATTTTATGTACAGTGTATAATGTATAGTTTGGGTACTTTGATATTTTATGTACACTATAGTATATATATCTGGTGTACTTTGATATTTTATGTACAGAATAAAATATATATTTGATGTAATTTTATATTTTATGTACGGTATATAATACATGCTTTGGGTACTTTGATATTTTTTGTACACTATAGAATATATACCTTGGGTACTTTGATATTTTATGTACAGTATATAATATATAGTTTGTGAACTTTGATATTTCATGTACAGTATATAATATATATTGGGGTACTTTGGACCTCTTTGAAGTCTTCGTTGGAAATGGGATTTCTTCATATAATGCTAGACAGA
0.586372299866011 AAACAGCTCTTGTTACAGGAGAGCTGCTATCAGGCGCTGTAGAATTTAGCAGCTCTTTGCATAGTTAGAGACAGTCCTTGTTAGGGACAAACTGCCTCAGGAAAGCTTCTTGGTGCTGCCCACCCCTCCCCCTAATACTCTGCAACTCTTCTCCATGCTGCCCACCCTTCCCCCAAGCCTCTTTACATTCCTAAGCCCTTATCTAGGTGCTGCAGTGAAGCCAGCAGACTTCACCTATCAGGCCTTTCTGCGATAAGCAAACTCCAATTATAAACCAACCTGATCGCACAGGGGGAGGTCTTGGGAAGCATAAACAAAGTTTACCTACACCCTCCTGTAAGTTCCTGTTCGTCTAGCTGCTACTATAAATGTCTCAAGGTGATATGAGGCAAAATTAACCAGCAAACAATCCCAGGATGTGGCCATACCAAAGAACTCCCTCAAACTCCCCTCC
0.5949766646337766 TAGTTAGACAAAGCATTTAAGCTGCTCCTGGTAATCTGTAGTCATGGAGAGTTATGCAGGGATGGAGTAGGGCAATGCCCTTGAAAGCTATCTGGATGTACAAGGCTTTCCTGTCCCTACGTCAAGTAACACTTAGTAAGCACTTACTAAATGCAGAGCTCTACATGGATTATCTCATTAAATCCCTCAACACTCATTGAAGAAAGAACGATAACATGAAGTCCATTATGCCCATTACAGACAGAGATAGTAATTAGGTCGAGGTCACATAGCTACCAAGGAGTGAGGCCAGATACCTATCTGGCTATGCTGGCTCCAAGCTGGCTCTCTATTATTGTGAGAAGTGGATTGAAACAAAAAGTAAATGGA
0.9506864058027202 CAAGAATTCCCGAAGTCCTGATGTTTCACAGATTAGTAGCCTGCCATTAAGAAACTGTGGGGTTTGGGTGAGTGAGCTGGAGCCATAAGCATTATCAGGTAAAAGTGAGGTTTCCTGGGGCTGCAGAAAGAAATGAGCTTGTTACTACTTCTGGTATTAATCATAATAAGTGTTTTATCTAAGCCTGTCATGTTTAGTTTCTCCATGCAATTTACCTCTCAGGCACACTGTTCACAGTATCAGTTGGCCTTATCTTTTAACTTATAGTCTTCAAGTGCCTAAATGTATTTCCTCCAAAGTTCCCACAGTTAACATGACAAAGTGAACATCAGTGCTATTTTAAGACAATGCCGCACCCGCGTTATGAAAGACAGAGTTGCTTATGCCTGGCTACTCCTATCATCTGTTGAAAAGCTTAACAGGCAGCACTGATTCTTTGCCTAATTGCAGTTTTGCTGTGAGATTAGCAAGATTTTAAATGTAGAGCCCAAGTACGTGCTTCAATACATTCATTTATTTCATTTTTCACCTTTGCAAAGAAATAAAATAAAGAT
0.4409478276791254 GGGCAGGGTGGCTGTGAGCTGCCGGTGTGGCCCCAGGCACCTCAAAGGGTCCTCGGTGTTCAACAACAGGAAGTGCTGGCAGGCTTCCCTCGCTAGGGAACTGAAAGTGGTGACAACAGAGGATGTGTTCTTCAGGCTATCAGATAAAGCCCTCTGCACTGAGAACTGCTTCTGACGAGGAACAGAGACTTCACTGGTCTCTTCCCCATGCCTTGCCCTTGCCCTAACTAACTTCTGAATTTATATCACCTGTGAGTTCTGCTCTAATTCAGGGACTTGGGCGGAGAGGTTTCGGACAGTGGCCAAAAGCAAGAGA
0.4467820119842038 ATCTATATATTAGATACCTATTATATCTACAGACATCTATATATTAGATACCTATATCTAGATATCTAGATTAGATATCTATGATATCTAGAGATATCTATAGATTAGATGTCTATGATATCTAGAGATATCTATAGATTAGATGTCTATGATATCTAGAGATATCTATAGATTAGATGTCTATGATATCTAGAGATATCTATAGATTAGATGTCTATGATATCTAGAGATATCTATAGATTAGATGTCTATGATATCTAGAGATATCTATAGATTAGATGTCTATGATATCTAGAGATATCTATAGATTAGATAGATATCTAGAGATATCTATAGATTAGATATCTATGATATCTAGAGATATCTATAGATTAGATATCTATGATATCTAGAGATATCTATAGATTAGATATCTATATCTAGAGATATCTATAGATTAGATATCTATGGTATCTAGAGCTGTCTATAGATTAGATATCTATGATATCTAGAGATGTCTATAGATTAGATATCTATGATATCTAGAGATATCTATAGATTAGATATCTATGATGTCTAGAGATTTCTATAGATTAGATATCTATGATGTCTAGAGATATCTATAGATTAGATATCTATGATATCTAGAGATATCTATAGATTAGATATCTATGATATCTAGAGATATCTATAGATTGGATATCTATATCTAGAGATATCTATAGATTAGATATCTCTGATATCTAGAGATATCTATAGATTAGATATCTATGATATCTAGAGATGTCTATAGATTAGATATCTATGATATCTAGAGATATCTATAGATTAGATATCTA
0.5062061540329087 TTACTCATTGTGGTCATTACTGACCGTATTGGCTAGCAGCAGTCCTTCCCAATGTGAAATGGGTGAAGTGCACTTGGAAATTACATGAGGCTTGCACTTTTCATCCGCTCTTGTTGGCCTGGTCATCTTCAAGTGCCTGTTATCTTGAGTGAGATAGAGGATTCTAGCAACAGCTCCATTGTGTAGTCTTATCTTAGGAACATATGGACTCTTTCACATTTGGTTTCCCTAAGTAGGCCTTTAAAAGTGATGGCAAATTCTGTCAACATCTCCACCTGTTTTGTATTCTCTCCAGTAAAAATCTGTCCAGTAGCTTCAAGAAGCTCAATCTACTGCTGAACCACTTCATGCCAGTTTCACGTGCTCCTTTAGTCATTTTCTTCCTGAAGTCATGTCAAAATGTCTATCTT
0.7454059425027652 GAGTTATCTTTCTATTCTGCTGCTGTCAGTAGATTTGCCATAAATGTTTCCTGAGAGTCTCTCTCTTGAAGAGATTCAGGCCCCAGTTAAGTTCATCCCAATTAAAAATAGAACCCTGAGATGCAGCAGCTGTAGCACCTCTTAAACCTCTTCAAATAACATTGAACGATTAAGTGGCTGCTACTGTGGAGATAGTGCCCACAAAACCAGCAGCAGGCCCTCTCGGAAAATGATAACACTCTAAGTGGCTGTCAGTCCTTAGTCATTTCTAGTCATTCAGGGGATGTTGCCTTATCTTCTACAAGTTCTAAAAGTTCCTGGGAAGAGAAGAATCACATAAATTCTTTATTTAAAAAAATCCCCCTTCCCACAGCAAAATTCTCTAAAACAATACTAAACAAGCAGG
0.6650534707527717 GTCTTGCAGCCATGAAGTTCTCCATAATTTTTGTATTGCCAGAAAGCCTGAATGAACATTTAGCACAACCCCCTTCTACTTTATATCCCTTTATATCCTCCCAAAATAGCCTTCTCTACACAATGATAAGGACTTGATAAAAGGGCCCCTATTGTGCAGTCCCAGCCTGGACAAAGTAGTTTTAAAGCCATAGCAGAATGGCCATCAGGTTGTCAGAAATGACAAAAGCCACAGCACATATGCAAGTGGTACAAATGCTTAGTGCCAAGTTAAGATATGAAACTACACTTTCATATCTCTATGAGTGTGTGTGTGTGTGTGTGTGTGTGTGTGTGTGTATTAGTTTTCTGGAGAGACAAAACCAATAGGATATATCTAGAGGGAGACAGAGAAAGAGATGGAGAAAGAGAAA
0.3549088500483412 AAAACTCAACATGAAGAGGTTAGGACAGATAACTAAAGACAAGCTTTATCAAGGAGTCAATGACCCACAGAGAAGTAACACACAGTGTCTCGTAGAGCGAAATCTTTTACCTTGCCATTTAACAGTGTGGGCGATTCAGCAGGTGAAGATATGGGTCAAAGGGCATCTGATCTGGCTTAAAAACAGTCACTCAATCTGATGGTTACTAGGAGATATTAGACATAAAACATTGTTATCTCTCAACCCTTTGTTCAGCTCTGTGACATCATTCTGCTGCCCTGGTGCCCCTTTCCATCACTATCATTGGCACCTTGCTTCTGTGGCTAACCTGATAAGGGCTATGGAAACATGTGTAGGCCCCTGAGCACCAGCAGCTGTTGAAAGGAGTGGGACAAGAGAGTTAGAAGAGAGACTGTATGTTTGAGCCCAGAAGAGCCGTATTTC
0.4110413781029841 GTGTGAGAAGGAGGTGATCTGTAGGCCTGGCCCCAGAGTGGGAAGCCACACGGTTCAGGGAGCTGGAGCAGCTGCCCTCTCCAGGGCCCCCATCCTCAGTCTGATGAGATAAGCCAGGAAGAGTCTGACAGGCCAGGCTGCTGGAGAGAAAGAGAGTCCCCCTCAACAGGGCCTGGGGCTACCCAGCTAGGGCCGCCTCTCACTCTGACTCCGCCTCTGCAGAGCATGTGGGTTCTCATGGCCTTATCTGCCAGATGGCTCCCGGAGGGGATGATTTATTAGGTGCAGAAAGCTCGCTGATAAATTTTACTGCAAGTCCCCGGCAGAAGACTGGGGGTAGCAACAGCCCGGCGCAGGCAGCTCTAATGGAAAGTGCCGTCACCAAAGAGCAAAGCATTATTTATGA
0.09449605153050174 CATTCTCATGTCTTATCTAATTCAACAATCTAGTTCTGTTATCTTTTCCTATTTTAATCTGGAGCTTTCAAGACATATTTGCCTAAATTTTCGTGCATCATTTGCAAAGCAGAAAATTATTAAATAAGACTCGGCTGCAGACTGTGCATTGGTGCACAATTAGTCTGAATCCTCTGAAAAAGCTGAGATAACCTCTGCGAGAGAGGCTTATCTAGCTTGTTTTTACAAATCGAAAACAAGGTGCTGAACAAGGGTTTATCTCAACCAGGAGAGCTACTTGAACAATTTAGATAACTTTCTATTTGCCAGCCAACTTTCTGTTATCAGGAAATACTATAGCAAGAGGTTGGCCGTGTAAAATATGTGGAAATTTTCAGCATACACTTATATTCCAGCGGGAAAGATGATGTTGTTTAAATAACAGACAAGTGATGAAATGCTATTAAAAGTGTACAAAGTAACTGCCAGTCAAAAAAGCCAGAGCAAGCTGTCACAGATAGGCTCATATATCAACAGCACTGTGACTTTTTGTTTGCTTTTTATCACAGCTTGGTGTATAAAGAGCCATTTACCTGATTGGATA
0.4498252771320039 TCCTTCTCTCCCCATCAGCCTTTCAGATACTCCAGAGTGCTCCCAAGTCTCCTCTCCCCTCCCACCCCAAACAACCCCTGTTTCTGCCACTGCTGCTCTTAAAGGTTATCAGCAACGGAAATTCCAACAGCTCCTCGCTGCTGCCCATCGGAATATTGAACGACTGCCAGGTTGTCCTCTTATCTAGTCAGAGTGCCCTGGCCTGCATTCGGTCTCTGGGCCAGCTGATAACACATTTTTGTTGTTGGAGGAAATGCTTTAGCTCCAACGGGGAGTGTCCACCCATGTGACACTGCCCAGAAGGAAAACAGGCCTGGTTCTCTGAGGGGAAATGACAGCAGCCACAGCCCCCTGAAGAAGACTGAATCAGTCCCTGTGTATCCT
1 GATCCCCATTGGCTACTTCAAATGGATCAGGGGCGGCTACAGTGGCCAAATAAGGAACAGATGTGGGTTTTACAGGTTGGGCTGCAGATTGGGAACAGATGTGGGTTTTACAGGTTGGGCTGCAGATTGGGAACAGATGTGGGTTTTACAGGTTGGGCTGCAGATTGGGAACAGATGTGGGTTTTACAGATTGGGCTGCAGATTGGGAACAGATGTGGGTTACAGATTGGGTTATAGATTGGGAGTGGCTGGAAGGTTGTTTGCTGTAAAGTGGAACCTTTGAAGAGGAACTCACTG
0.6111927669760968 TTTTGGGAACTTTGCTATTTTATGTACAGTATATAATACATACTTTGTGTATTTGATAGTTTATGTAACGTATATAATATATATTTTGGATATTTTGATATTTTAAGTACAGTATATACTATATAGTATGGGTAATTTGATATGTTATGTACCGCACATAATATATAGTTTGAGTACATTGATATTTTATGTACAGTTTATTATAAATGTTTGGGTACTTTCATATATTATGTACAGTGTATAATACATATTTTGGCTACTTTGATATTTTTTGTACGGTATATAGTATATACTTTGGGTACTTTGGTATTTTATGTACAGTATATAATATATATTTTGGATATTTTGATATTTTATGTACAGTATATAATATATATTTTGGGTCCTTTGATATTGTATGTACAGTACATAATACATATTTTGTGTACTTTGATATTTTATGTACAGCATATAATATATATTTGGGGTATTTTATATTTTATGTACAGTATATAATATATACTTTGGGTACTTTGATATTTTATGTACAGTATATAATACATACTTTGGGTACTTTGATATTTTATGTGCAGCGTATAATATATATTTGATGTACCTTCATATTTTATGTACAGTATATAATATATATTTGGTAGACTTTAATATATTATGTACACTATATAATATATATTTGGTGTAATTTGATATTTTATGTACAGAATACAATATATATTTTATGTACCTTCATATTTTATATGCAGTGTATAATACACACTTTGGGTACTTTGATATTTTATGTACAGTACATAATATATAGTTTGGATACTTTGATATTTTATGTACAGTATACAATATATATTTTGCGTATTTTGATATTTTATGTAGAGTATATAATGTATACTTTGGGTACTTTGATATTTTATCTACAGTTTACACTATATATTTTGGGTACCTTGATATTTTATGTACAGTATATGCTACACAGTTTGGGTACTTTGATGCTTTATGTACAGTATATAATATACAGTTTGAGTACTTTGATATTTTATGTACAGTTTATTATAAATGTTTGGTTACTTTCATATTTTATGTACAGTATACAATACATATTTTGGGTAATTTAATATTTTATGTACAGTATATAATATATACTTGGTGTACTTTGATATTTTACGTACAGAATATAATATGTATCGGATGTACCTTCATATTTTATGTA
0.6525619042019132 TTGCTGGCTAGCCTCCAAATTGGTCTCTAATTTGAGGTTGATCGGGGTTTATCGATTACAGAACAGGCTCCTCTAGAGGGATATGAAGCACCGCCAGGTCCTTTGAGTTTTAAGCTGTGGCTCGTAGTGTTCTGGCGAGCAGTTTTGTTGATTTAACTGTTGAGGTTTAGGGCTAAGCATAGTGGGGTATCTAATCCCAGTTTGGGTCTTAGCTATTGTGTGTTCAGATATGTTAAAGCCACTTTCGTAGTTTATTTTGTATCAACTGGAGTTTTTTACAACTCAGGTCTCTGTTGACTGTTGCAAAAT
0.6130089491129154 AAAAAAAAAAAAGACTGTCTCTCACTTATGAAGTGTCTTTCAGTCCCACATCAGGAAGGAAAGAAGGGAAATGATGTTGATGTGGGCCCTGCAGTGCTGCCCCTGCTTCTCTGTCCCTGGGCAGAGGTCTGCATTCACCAGCTTTATCCCATGGCCTTGTCTCCTGGCCTTTGCTATCTCCTTTGAATTCCTCCCTTATCAGTTGGGCTACACACAGCAAGTCTTTACCATACATGCACAGAGGTTCTTGATAAGGAGGCTATTTTAGACCAGTATGGAGCTCTTCCGTATAAAGCACTGGTGACTTTTTTTTCTTCTCATGGGCTGTCACTGATGCAGGCTAAAGACACACTTCAGTCG
0.7159079146787335 CTCCAATGGAAGCAAGTAGCACAGCGGGTTAACTTGCCTTGGGGTGTAAGGCCCCTTTAAAGAGGGCGGTGAAGTCAGCCACCTCTTGATAGAACAAAGGCATACCAGGCCCTGCCAGCCCAAAGCCGGGTGGCTGATGGCTTTTGTCACCAAGTGATAGCCTATCTCCTCGTGTCAGGGCCCCCAGGCGTCAGTGAGAGCCACCAAGTGGGGAGGGTGGCTTCTCTTGGGAGTCAGATTCAGGTGGACCAGGCCTGTGCCCAGCAAAGATGGGTGAGCCACATAACGGGGCA
0.9787089689121707 GTTAGGGTTAGGGTTGGGGTTGGGGTCGGGGTCGGGGTCGGGGTCAGGGTCAGGGTCAGGGTCAGGGTCAGGGTTAGGGTTAGGGTTAGGGTTAGGGTTAGGGTTAGGGTTAGGGTTAGGGTTAGGGTTAGGGTTAGGGTTAGGGTTAGGGTTAGGGTTAGGGTTAGGGTTAGNNNNNNNNNNNNNNNNNNNNNNNNNNNNNNNNNNNNNNNNNNNNNNNNNNNNNNNNNNNNNNN
0.1755537443830354 AATGGCCAACTCAGTGACATGCTGCTAAGAATGTGAGTAAAGTCAGTATAAAGTGTCCCTTGGACTGGGCAATACATAGGCTTTTGGTTATCTTGACAAGAGCAATTTGTTTTCAGTAGTGGGATGAAAGCCAGATCAGAGTAGGTTAGAGATTGAATGGGAGGTGAGGAAGTGGAGACAGCGCACAGTTAAGTAGTTGAGATATTTGGTTGAGAAAAGGGAGAGAGAAATGGAAAGGGGCTAGCTGAAAGGAATGTGGAGCCAAGAAAGAATTGTTTTTACCATGGAAGATATGAATGGCCCACTAGAAAAGGACAGATTGGCATTGTCGGAGAGAAGAGATAACTCCCAGAGAAAAGGCTGTAAGTATTTGAGAGGTGATGAGATCCAGAGCACAGGCAGGGGCTTGGCCATTGGTCCCAGGTTTGCTCTATCCGTTAACAAGGAAAGAACAGATACAGGTGTGAAAGCAAGCAGGTTCCCATGCATGACAGCAGGAAGATGAGAGCTAATTTCATCTCAAAACTCTTGGAGTTGTA
0.7550680810532374 ATTTGATTGACACATAAAAATCCCCCACATTATGGAAGTCAGGCAGTGCCATAGTCCAAAGCTGCTTCTGGAAAATGCTTCAGTGTTCAGCCTCCACCTACGAATCCCCACTCAGAGAGATATCTCGGTGCTTGAGTCCCCCCGCCTTATCAGCAGGCATGACATAGATTTCACACAACACCTGGGCCCTAGAGATGGTTGCATAACCCACTAAACAAGCCACAATGCCTGGGCCTTAGAGGTTGCTACACACGCCATGGTGACATGCAGCGTAATTTTAAATG
0.8903868147341917 TCTATGCTGAATAGCGTTTCAGGGTGACTTTGTATTTTGGCAACATATCCCAGACAGTTAGTGGAAATGAGAGAACATGTTTTATTTAATTTGTACTTTGGTACCTTTTATGTGAACGAGGCATGTTTAAGCACTTAATGTTGTCACCAGCCTTTTAAAACTATCTTTTTTTCCCGCTGCCCAACTGTAGTTTCCCTTCAGTGTTGAGTGGTCGTAATCTAAACACATTAAGTTTTTGTCTTGTTCTTTCTGCAGAGATAGAAAGCTGGGTCTGAAAATAAAAGCAGAGCTTTTATACAAGGAGGTCAGTGTTTGTACTCAGAAAAGAAAGT
0.1467885942143232 AATGTAGGAGAGAGCAACCTCTTTCCTGCCACCTGACCTTCACTTGGTGGTCAGTCGTGTGGAGCTGGACGTCACTGTCAGCTTCAGTGGAGTCCAACTGCTGACAGATAAGTGGGAGCACATGGCACGTGCGAGATAAGAGCCTATAAGAGCCTGGCGGCCTGAAATAAATGGCAACAACAATGCTCTTCTAAGTGGTCTTCCGAGAAAGCCCTGTTATCATCAGCATTGTTCACACTTAGTAACAACTTTCCTTGAATGGGGTTTTCAACATGTTTGTTCCTTTCAGTCTGAATTATCTGCCAGGGAAGAAACTCTTTCTAAAGTCCGTCAACAGTTGTGAGATTGGGTTGAGGCTCTCAAAGGAGTTTCCGGCTGTTGTCAACACAGCAGGAAGGGGCAAGGATAAAGGGTGATTTAG
0.5341301435160887 AGTCAAAGACATTTATTTCAGAGAATAAACCTGAGAGGGATTTCTGGCCAATTTCAGTCAGGCGCCTTCTCTCTTACAGATTAAGGGTATTTAAGGGTTTAGGGAGGGAGAGCTTATCACACACTCAGAATGTTTCTGTGTGTAGGAGAGTTTGATTGCAGAGTTGGAATGTCTCTGGTCAGAGGGGATGTTATCTCGGGGCTGGCATGTTTCTGGTGGGAGAGGAGGTTATCTCAGGGTTGGCATGTTTCTGGTCAGGGGTGGTTTATCTCAGGGTTGGAATATTTCTGGTCAGAGGTGTCACTTCTGGCTTATGGTCATGCTGACATTAGCCATTAGGCTTATGTTTTGGGGCTGGATTTAGGAGGTTTTTAATCAAGAGGAACTTAAAATG
0.8627564203122522 TTCAGACTTAGAGAAGAAGAGACTTTCTTCAAAAAGAATATTGCAATAGGCAGAATATTCTTATCTCATAAATCTGCAAGCATGTGAAAATAAAAAAAGAAAAAGGTTCATTTTGTAAGGAGAGATAAGCAATGCTTAGCAGAAACTTTTAAGGAGAAGTTGAGTAACCAAAAGGGAGCATAATCCTGGTTCGACAGAAAATTTGTCTTCTATCATTAGCAAGCACACAAGATAAGCTGACAAGAGGAGCAAGCTAAAGTTCAAGGGCCTGTGTGAAAGAGAGATGCCTGACTAATGTTTTGTCAAGATAAAGCAGAGGGTTGGTGACAGACAGTAAGTATTATGTTAGCACTTCTGGATTCTGGAACTCCACACTCATCTGAATTTCATATTACACTGTTAGCTACTCCCTCTCCATCTTTTTTTTTTTTTTTCCAGAGAGAGGATCT
0.4710911802985154 GGAGCAGACACATCATTTTCCACATAAGCACAGAGCATGAGAGGTTTTTGCCCTTTACGGTCAAACCAGATGTCTCTCATTGACCTTTTATCACGTGAAAAGAATAGAATTCAAGTCAACTTAAACGGTTATCAGGTAACCATACATGACATCATGTTTTAGTGTTTAAACGGGCAGAACACTCTTTAGGCCTTTCATTCTTCTAGCCCTCTTGAGATAACATTTGTGATAAGGTGTTGAAAAGAGCATAAGGTTTCCATCAAGCCTTTGACTCGAATGCGAACCTGTCTCCAGAGGACTTGCGGTGTTACACTTGTTTAAATGC
1 TAGCAAGGCAGAGAACTGGACCGGCACTCTGGACTTTCTCTCCTCAACTGTCAAACAGAAGGTGGAGGTTGAAAGAGAAGCTTCCCCAGGGTTTTTTGGCACCCTGCCCAGATTTCCTGCCCAACTCTCAGCATCCTATGATTAATGGGATTCCCAGGTTGGGGATGCCTCTGAATGCCGCCCCCCCCTCCCTGCCCCACTAATCTAATCTCCTCACTTAAAGATAGGAGGGAGTGGAAGGGAGAAGCTGCAGGGAATATGTGCTAACATCAGTTACAGGCAAGCCTGTACTTACACAGAGATCTGACATTTTAAAATAAATTCTTGAGCACTCTTTAGACAAACTGCAAAGTTTAGGAAAGTGT
0.5793221015980194 ATTATATGAAATATTGAAATCCATCCTCACAGTCCTTGCTTTCTGGCTGAGGACACACATGATCCATAAATCTAAAATGGGCTTTAGAACAGTTACAAAGTAGTCTGCCGATGAAGTGAGTGTGAGTGAAGAGAGCGCTGAGTAAATGGCTGATAAGGGAGGCGTGGGGAGAGGAGTGACGAGTCCGAGTCCTTGCAGCCAGAGGTAGGGCACAGGCGGGAGACAAGCTGCGGGTGGGGGACAGCAGGCACCCCAGCAGCAGTGAGAACTCAAAACT
0.7122142798344574 GGTCTGTATCTTAAAGAGTGCTAGGTTTGAGCTGTCCTTGAACTGACAAACAATGGAGATGAGGATCACAAGTGAAATGGCATGTATAGAGGCCCAGAGGAATTAAAGAGTTTGCATGTCTGAAGAACGGCTATTCTAAGTATGCATGTCACGTGGTGGCCAGAGATAAGATATAGGTAGTGAGTGGGGGCTAGGTCACAAACAATTCAGTATGTCATGCTAAGGAACTGTTATTTTTATCCTACAGGCAATTTCGTAAGAATTTCAATAAGGAAATGTCTTGATTAGAATTACAAATTCGAAAGGCTTTTGTAG
0.7420387652263702 TTAACAAGGTAAGGCTTCAGGGTCTCTAGGTAAGATAATATATTGCTTTCATTAAAAAGCAATCTGCATGGACGATATCCACCACCACTGGAAACTCTGCAGTTGTCACCTTTATCAGGGGAACAAGAGCAAGCCACTACATTTTAATCACTGGAGTTTGTCAGGAACGAAAAACAGCCAGCTTCCCACAAATCAACAGACATGTATCCTGATAAGGGAAGTGCATTGGAAAAGGACAGCTACATACCACATGACACCACCTATTCCAGGGTGATCAAAGCTCCATAATTGTTGAAGATAAATCTACTGAATTGGGCTTTAGGATGAAATAGTTGTCTTTGAACAAAGTAGACACATACTTGTACAAATTACCCACAACTT
0.860086592777049 TTTTAATTTTGAATTAGTTGCCAACATTTAAAAATTAGAAAATTCTGAAAGCTAAAAAATCTAAATTTCCCTTGAAAATGTGAAAGAGCAGACAACACTTGGCCCTCATTCCTGAAGGAAACAATTTGTTAGATTAAGAAGGGGTGAGTCCTTCCAGACAGAGTATGCTTTCTAGATTAGCACAGTCCCTGTCAGCACCCATTATCTTGCACTCATTCTACTTCACTCATTTACATTATCAGCCTGGGCTCTGTGGTCTAACCTTTCCACTTTGCAAAAAAAAACTGAGAGGTCTAAGTGGTTTGGTCAAGGTCATAGATACAGGTACAGTGTTAATATCTGGCCCTAGGCCCGAGGCTTCTGGTTAAGCTCAGTGTGTTAACACTATCTTCATGGGCCCTTTGGAATCTATCAATGACCTGTAAACACCTAGAACACTCAATTTGCTGTTCCT
0.4627976409000215 TGAAATCTTGTTCTGTACCTTTTAAGCCAGTGTCTGTGGCGAGGGTGACTGGCAAGTCAGCTGATGAGTTCTGCCTTCTGAGAGCACTGAGTGAGCAAGGCCTTTCATCAGTGTTTTGGCCTTCTCATTGGGTGAGGAAGACATTGAACCAACAGCCAACGAGATATGAACCTGTAAGAAAAAAGTCCTAGAATATAGTATTTTTCCCCAGGCCAGCAAAGTGAAGAAATACAGTGGTGACAGATGAGAAAGGCCATGTTCAAGAGATCTGAAAAGTACATTCCTGCCTTATCAGAAAATGTGTCAGACAGGTTTTATGTCAGCCTCAGTGCTCCTGCGGTGTCGACGCTCTGATAAGGACCATGTTCCAGTTAGAATGCGAGGGAGGGAAAGAGCTGCACTTTGCTTCACCATCAGAACTCTGAGCCAAATAATGAATATGTAAACTA
0.388440005250232 ACACATGCCCTCAGCACTCTGTATCCTCTGAGGCCACACAGTAATGCATCTGCTGCATCTAAAAATGGGGCTACCACAGAACAAGGTCATTAAAAAGTGTGAGGAGATGAGTGGTTTGCTGCTGTTTTTAGCACAAGTTCAATCAGCTATGATGTCCTTATCAAGCTGTCACTACCAAGTTCCTTGATAAGATCTGACGTGTGAGGTACATAAACCTGTTCTGTTGTAGCACTGTGGCCTGTATGGAAAAGGTTAGATACATGCAAAATAATGCCCAAACATGCTGTTTAATCTTGGTGATAACAAGAAAGAAAATGGAGGTGTGAAGTGAGTTACCATTGAGGGTTGTATCAGTATAAGCAATTTGTCTGTAATGGGTGTAGAGAAGTTAAGAGAGGTTACATTCTTTAACACTGTCATTCTCACACACACACACACAAAAGCAGGTCTAGGTTCTCTATGGCTTTGTCTCTGTTCCAATAACTCTGAACAGTTTATCAGGTGGTATCATTTCTGCT
0.6071016038987167 CATTCTTGAACACAGGAGGAACAGGAGGAATGGAAGCTTAGTGGAGCGGCGGGGCCTGTGGCTGACAAACACCAGCTGCACTGAGTACATATCACATCATGGCCTGGCAGACGTCTTCTCCTTCAAAATGACACAGGCTATTAGCAGACTCACCGCAAAAGGATATGCCAGGAGTGGATGCATGGAATTCCTGCTGATATACTGGAATCCCAAGACTAAAGCAGGCTTCCCTGCCCTTATCAGACCAGCCAAGATAACTGGAGCAAGGGTGGAATCTGCACACAAGAAAGAAATTCCACCTTACAAATACCAGGCCCCAGATCCAGGCCCCGTGTTTGATGAATTTATTGATTCCACATAGCTGAAGGCCTGTTCTGTGCCAAGTATACTGCTTGGAGTTGTAGACACAGGATGATAAAATATAGTCCGTGCTGTAAGGGTACTCCTGGACCAATGGGAAATGCAAATGACATCTAAACCAACCACAAACATGCAGTGTGATGAGTGCATAGATAGATTGAAGCCAGGAGTGGGA
0.2320664229876706 TACCCAAATTATGTATTATATACTGTACATAATATATCAAAGTACCCAAAGTATGTACTGTATACTATACACAAAATATCAAAGTGCCCAAAGTATGTATTATACACTGTACATAAAATATGAAAGTACCCAAACATTTATAATAAACTGTATAAAAAATATCAAAGTACTCAAAATATATACTGTATATAAAATATCAAAGTACCAAAACTATATATTTTATAGTGGACATAAAATATCAAAGTACTCAAAGTATGTATTGTATACTGTACATAAAATATCAAAGTACCCAAAGTATGCATTATATACTGTACATAAAATCTCAGAGTACCCCAAGTATGTATTGTATACTGTACATAAAATATCAAAGTACCCAAAGTATGTATTGTATACTGTACATAAAATATCAAAGTGCCCAAAGTATGTATTATATACTGTACATAAAATATAAAAATACCCAAAGTATGTATTATATACTGTACATAAAATATCAAAGTACCCAAAGTATGTATTATATACTGTACATAAAATATCAAAGTACCCAAGGTATGTATTACATATTGTACATAAAATATCAACATACCCAAAGTA
0.4353688723903229 CCGTCTCCCCTCCTGGGCTCCCGATGGCCCCAGCCTGATGCACTACCAGTTCTGTGGGGCCAGGCTGGTACCCTTGGCAGGGACGGCAGGCGGCAGGCAGGCGCGTGTGCAGGGGGCCTTATCTTATCTCCCTTCCTCACTCCCTCCCAGATCCGCCCTCACCGGCTGCTGTGTCGCCGTCATCAAGCCCTCCGGACACTGACACACACACAGACACAGAATTTATTTCTGGACGCATTCTGCAGGCTGGAGGTCCCGGC
0.2567000710167337 ATTTGAACCTGTGCTTGGCTGGTGCAGAGCCTGCCTCTCTCCCCAGCATCAGGGATGGTTTCACGGCATGTGGCCTCTCCCTGCTGCCATGCCTCCATCAACTCTCCCTTTCTCATATCAGAAGATCACAAGCATTTAACAGCCTTGCACTTGTCTGACCCGAGCTTGCTGTATCTGCCCAAGAGGGCTGGGAAGATAAGATGAAACAATCCCTGTGAAATACTGATCACTAGTCAGCACTCAAGAGGTACCAGTACATCACCATTCATCACATATTCATTTAGGACCTAATACATGCCGGGCCTTGGGATAGGCGTTCTCATCACCTTCATCACTTACTGTTACTA
0.5379130578739405 AGGCCAACTGGGCTGGGGCAGCTAAGTCCAGAGAAGGACCTCAGGAGTCTGCCCTTAATCCTGTACCCAGGACGGGGCGGGTGAGAGGCACATGCTCAGATTTGTTCCTGACATGTAACTTCAAGAGCAGTGCTACATATTTTGCTTATCTATCCAGAAGACTGACTGCATACAGATGAGATAGGGCGTGGGGGGCCAAGTGGGAGGGAGCTCCAGGAGGTGCCTCCAGACATGGACCAGGGACAAGAGGACAGCTTAAAGAAAGGTTGTGGGAATTGAGTGCAACATTTCGGGTCTCAGCTTAGATGTCACTTGGCTGGGTAGCCTTTC
1 TTTTTTCTTCCCTGAATGAAGAAACCATTTATTTAACAAAACTTAGGGGAATACCTATTTTGTGACTGACACAGGAATAGATAATGAGTATATTCAACCTAGTTGAATGGAAGAAACAGACATATACAATATCCACACTACAACGTGATGAAAACTAGAGTCCCTTGCTACTTCCCCTCCTAGCTAGAGATAACTTTGCCTCCAATGACACAGGTTCTTGAAAGCTATCAGATAATAAAGCATAGCCTGTTCTTTTTCACTTCAACTGCTGAATAACTGGAGAGTTTCAATTGCTTTTCTTTAAATACTCAGGTAATGAAAAATAAAAACAAAAAGAACGCAATGACGGAAGTCTTCCAATTGTCTCCAGAGTTGAGGAATATAGTTA
0.4025434505413545 GTATATCTCAATGAGAGCAATTAGTACACGACCAATTCAACAACCACTAGATATAATGACTGTCCTACTTTGGTGCAGCGGACATCTTTTTGTTGTCGTTGTTCCCAACACCATATAAGTACTGATTAGAAGCAGGAATGCCTGTCCAGGCCCTGTGAAGGAGGTGATGAATGGTATGTCTGAACAGCACAGCCCTGGCTTAGTATCACTGAAATGCCACACTCCTCACTGAAGTCTGTTGATAAGCCTGACAGTGCTCAGCAACTTTTACCAGCAGACTTTATATCGGGGGACCCAAGCTGAAAGTTAGCACATGGGGTGTTCTGTCAGCACAGAAGGCTTACACCATTAGTAGATCTAAATGGTGTTTAGATTACGGAGTTCAACAAAAATCTAGGTCATTAAGTGCATAAAAGAAATGTTACAAT
0.6293825771803054 ATTCCAGTAGCTTCAGTCACAAATACTTGGCGTATACACTACCACTTGCCTCTCTTGTGCCCTTAAAAGGCTTGAATAATAAACACAATGCTGTCATCATGACTTAAGCTTAGCACCCTCTCAAACTTCTCAACACGGTATTCCCAGCAGTGAATACCCATTGATTAGATAAGGAATGTGAGAGTGAAGCCTATTTTTAATCTCTGGATAGCCTGAGAAGTGGTCCCAATGAGTTTATCCAATCTCATGTCCAATGTGATATAATACATAATATCTTTGCATAATTTTGCAATGTCATTTCACACCTGCCTTTCCAATTGAGGGGATTGGAGCACTCATACGTGACTGATGGGCAAGAAAGAGTTCTCTAGAAGGAGAAAGGGGAGAACAATG
0.6260477459795017 GGGCACAAGCATGGGGTTGCTGGTCCTAAGGGCACACGAGTGGCCGCCTGGAAAACCAGAAGCAGGAGCTCCTGGACGCCAAGGCTGTGAACAGTCGGACGCCTCCCCGTCTCCAGCAAGCCGGGAGCCTTATCTTATCGCCGGCGCTTCAGCTCTCCCGTTATTTAGGGACCGGCCACAGGCTCGATGGCATTCCTCTGCTGTGAGCACAGAACTAAACTGGGCACGTCCATGGCAGATGAACAGAATGGTGGAGTGAACGCATAAGTGAGAT
0.6198600075643801 TGGTGATTCAGAATCTCCCTACCTCAGCCTCCTGGCTTCACTCAGCCAAGACTCCTTATCCACCAACAATAAACAGCACCATGTGGCTGGCTGTTCACCACTGTCCATCAGGCCCAGACATTGTTTTTAATCCCTCTACTCTAACAGAAAATGGTTCCAAATTCCAGGACTGAAGCGATAAGAGCTCCCCTGCTAAGCACTCAGAAGCCAGATGCCATTTAATGTGCCTGGGGCCGCCGATAACTGATAGCACTCCACTACTCCAGCTAAATTTAATTTCTCCTGCCTCTGCTCGGCTTGTCTGGGCACCTTTAGAAGGGTGTTGTCCTGACAGCTGTCTTGATTCTGATGAGCTTTGTCTGCACCTGATTAGCATTCTATTTCTATGCAAATAAGCACTTGCCTTTGTGGCTCCTGGATTAATGGACACTGTGAATTGGAGCCCTGGTCTTCAGAATCCAGA
0.6708166127784456 AAAGGGTGAGATGGGTGTTTAGGTCCAGGGTGGCAAGTCTGAGCCTGGTACAGGCTGCTGGGCTACATATCCAAGCTGCGCTTATCTTCTCCTGTCAAACCATCTCCCTCCACCTCCCCTTATCTCACTCTAGATAAGGGCTGGTTCCTGGAGCTCCCACGCCTATCCAGCCCTCAGCACCACCTTTAGCTCTTTTTCCACTGGAGCCCGAAGACGAAGTTGTTCATTCTTCTTCTAGGGGAGGAGGGGTGGCCATTGATT
0.153269995504253 TATAACCCTGAGCTCAACCCTGTTATGTTCTTTGGCCAATGGGATATTATTAGCAGCAGAGGCTAAGAAGTGCTTAAGCATTTCAACTTGCACTCTTGCACTCTGCCACTGCCATGAAAGTATGACAAGGCTAATCTGCTGGAAAATTAGAGATACATGAAGCAGAGCTCAGTCACCCCAGTTATCGTAGTTGAGTTATCATAGATCAGCTGGCAGTCAGCTGACCCTCAGATAGATAACAGAGCACAGCTGAGATTGGTGGGGTTGTCTAATCTACTGTCATAGACATATAATCATAAATGCTGAGGTTTCACAATGTTTTGTTATGCAGCATTATTGTGGCAATAAATAACAAATCCCACTCCTAGA
0.6346857283780981 TGCAGTGCCGAAGCCATAGGGATAAGTGGCTACCTCTCCCCTCGCCTGGGTAATGCTGCCTGGAGGACAAGGCTGTTACGGAAAAATGTGGCACTAAGAATAGCCAGCTAGACGTGGTGATAAGGGCCCAGATGGCCAGGGATGTCAGCTGGGGACAGGGAAGGCGGAGGTGGTGGAGAAAGAAGAGGGTGATAAGATAGGGGCAGCAACACCGGAATGCACAGCTGGGGCTCTGGAGACAGGCCACAGGAGTCTGCCGTGGGCGAGGGAGCTGCCCGGAGCTCCTTCTGGCTGTGCCCTGTGGGTGTGAGCCAGTGGAAGGGAAGGTGAGTGCCAGCCT
0.6331646709668821 CCATGATTTTCACATTTCACTCAATACCCATGGTCTGCATCAATCTGGAATCATGCATTCTGCCATCTGCCCCTTTCCTTGAAAGTCCTGCTGGCTGCAAAACAGCTGAGATTTACTAATGGGTTAATATGTTACTTCGCCCCTAATTAAAGCTATTGGTATTTAACAGGAACTTGGCCTAGATAAGGGGTGACTCAACTCTAGAGAATTTCTGAGTGGCTGGTGGACTGATGGGATGATATTTTGGGTCTGGAACAGTTTTCAATGCCTGGTAAGTGGCTGACAAGTTTATCTGTGTCTGAGAGATAGCATACGAGATTCCTGTAAACATGCGTCCATGCACTCGCTCACAAATGTACCAGGGCCCTGCAATCCTGTGAACGCCAGGTTCCTAAGAACAGTAGTAAGGCTCACCTACCTTTGTTCC
0.6828542308539379 CTGAGCACTGGGGATACAGTGGCAAATGAAACAAAGGCTGATGATCTCTATCTCTATCTCTATCTCTATCTCTATCTCTATCTATCTCTATCTCTATCTCTATCTCTATCTGTGTCTCTATCTCTATCTCTATCTCTATCTCTATCTATCTCTATCTCTATCTCTATCTATCTCTATCTCTATCTATCTCTATCTCTATCTCTATCTCTATCTCTATCTCTATCTGTGTCTCTATCTCTATCTATCTCTATCTCTATCTCTATCTCTATCTCTATCTCTATCTGTGTCTCTATCTCTATCTCTATCTCTATCTCTATCTCTATCTCTATCTGTGTCTCTATCTATCTCTATCTCTATCTCTATCTCTATCTCTATCTGTGTCTCTATCTCTATCTCTATCTCTATCTCTATCTATCTCTATCTCTATCTCTATCTATCTCTATCTCTATCTATCTATCTCTATCTCTATCTCTATATCTCTATCTCTATCTGTGTCTCTATCTCTATCTCTATCTCTATCTCTATCTGTGTCTCTATCTCTATCTCTATCTCTATCTCTATCTCTATCTGTGTCTCTATCTCTATCTCTATCTCTATCTCTATCTGTGTCTCTATCTCTATCTCTATCTCTATCTCTATCTGTGTCTCTATCTCTATCTCTATCTCTATCTCTATCTGTGTCTCTATCTCTATCTCTATCTCTATCTGTGTCTCTATCTCTATCTCTATCTCTATCTCTATCTGTGTCTCTATCTCTATCTCTATCTCTATCTGTGTCTCTATCTCTATCTCTATCTCTATCTCTATCTGTGTCTCTATCTCTATCTCTATCTCTATCTGTGTCTCTATCTCTATCTCTATCTCTATCTCTATCTGTGTCTCTATCTCTATCTCTATCTCTATCTCTATCTCTATCTGTGTCTCTATCTCTATCTCTATCTCTATCTGTGTCTCTATCTCTATCTCTATCTGTGTCTCTATCTCTATCTCTATCTCTATCTGTGTCTCTATCTCTATCTCTATCTGTGTCTCTATCTCTATCTCTATCTCTATCTCTATCTCTATCTCTGCCTATTGATATATCTGTATATATCTATCTAAATCTCTGAAACAGCTGCTCAGAGTAAAAGAGGACTGGGTGCTATGAAAAGAGATAGGGCTTAGAATCTTTTTCAGATGAGTGTGTTTCTCT
0.5745413108824626 TTTTTGTCTACTGACTTTGTAGATTGCCAGTTGACAATATCTGGGCTGTAAAGATCTTAACTGCCTAACCTCACCCCACCAACACACACACAAACACATACATACATACACACACACACACACACACACACACACACACGTAGGCATTACTGGAAGACCTCCCAGGTTATCTTGTTTACCCTCCCAGCCTTTAGACTGGTGCCAACTAACATATTCCAGAGTGCTGTCAACTCTACGTTCACACAGCTGTACTTTCATGATTTTTTATTCCAGTGCAAAGAAT
0.9171089070600236 AATTTAGCATCTTTCTGCAAGACTCAGTTTAATGGCATTCTCTAGCATTTTCCGACCTTCCCTGGCTGAGCTGAGTGCTGTCTCTGCACTCTGCCCATGGCATCCTGTCCACGCAGCATCTTGGTGCAGCAATCAGCACACTGCTACATTATCTGCATGGCTGTCATCCCCATTAGGTGTGTGCCCTTGGACTGTGTGTTTTCCTCCTCGTATATGAGGCCTCAGCATAGTGCCTGAAAATAATAAACATTTGACATTCAGAAGAAAGGAGTGGAGGAATAAATAAATAAGACA
0.8627358647515295 TTATGTACAGTATATAATACATATTTTGTGTACTTTGATATTTTATGTACAGTATATAATATATATTTGGGGTATTTTATATTTTATGTACAGTATATAATATATAATTTGGGTACTTTGATATTTTATGTACAGTATATAATACATACTTTGGGTACTTTGATATTTTATGTGCAGCATATAATATATATTTGATGTACCTTCATATTTTATGTACAGTATATAATATATATTTGGGCAACTTTAATATATTATGTACAGCATATAATATATATTTGGTGTACTTTGAGATTTTATGTACAGAATATAATATATCTTTCATGTACCTTCATATTTTATGTACAGTATACAATATATATTTTGGGTACTTTGATATTTTATGTACAGTATGCTATATATTCGGGTACTTTGATATATTATGTACAGTATATAATATACAGTTTGGGTACTTTGACATTTTATATACTGTATATAATATGTAGTTTGAGTACTTTGATATTTTATGTACAGTTTATTATAAATGGTTACTTTCATATTTTATGTACAGTATATAATACATATTTTTGGTACTTTGATATTTTATGTACAGTATATAATATATATTTGATGTACTTTGATATTTTATGTGCCGAATATAAAATATATTTGATGAAACTTCATATTTTATGTACAGTATATAATATACACTTTGGGTACTTTGATATTTTATGTACAGTATATAATGCATACCTTGGGTAGTTTGATATTTTATGTGCAGCATGTAATATGAATTTGAAGTACCTTCATATTTTATATACAGTATACAATATATATTTGGGGGATTTAATATATTATGTACAGTACACAATATCTAATAGGTGTAGTTTGATATTTTATGTACAGGATATAATATATATTTGATGTACCTTCATATTTTATGGACAGTATATAGTATATATTTTGGGTACTTTGATATTTTATGTACAGTATACAATATATATTTCAGGTACTGTGATATTTTATATACACTATATAATAATACACAGTTTGGGTACTTTGATATTTTATGTACAGTATATGATATATAGTTTGAGTACTTTGATATTTTATGTACAGTTTATTATAAATGTTTTGTTAATTTCATATTTTATGTACAGTATATAATGCATATTTTGGGTACTCTGATAATTTACGTACAGTATATAATACATAATTTGGGTACTTTGATATTTTATGTACAGTATGTAATATATATTTTGAGTATTTGGATATTTTATGTACAGTATATAATATTTATTTTGTGTCCTTTGATATTTTATGTACAGTATATAATATGTATTATGGGTACTTTGATATTTTATGTACAGTATATAATATATATTTGGGGTATTTTATATTTTATGTACAGTATACAATATATATTTTGGCTACTTTGATATTTTATGTACAGTTTACAATATATATTTTGGGTACTTTGATATTTTATGGACAGTATATAATACACAGTTTGGGTACTTTGGTATTTTATGTAGAGTTTATTATAAATGGTTGGGTACTTTCATATTTTATGTACAGTATATAATACATATTTTGGGAACTTTGCTATTTTATGTACAGTATATAATACATACTTTGTGTATTTGATAGTTTATGTAACGTATATAATATATATTTTGGATATTTTGATATTTTAAGTACAGTATATACTATATAGTATGGGTAATTTGATATGTTATGTACCGCACATAATATATAGTTTGAGTACATTGATATTTTATGTACAGTTTATTATAAATGTTTGGGTACTTTCATATATTATGTACAGTGTATAATACATATTTTGGCTACTTTGATATTTTTTGTACGGTATATAATATATACTTTGGGTACTTTGGTATTTTATGTAGAGTATATAATATATATTTTGGGTATTTTGATATTTT
0.5462116734276051 CTTTCTTTGATAGTTCAGGTTTGAAACACTCTTTTTCTAGAAACTGCAAGGGGATAACTGCACTTCTTTGAGGCCTACCGTAGTAAAGGAAATAACTTCCTATAAAAAGAAGACAGAAGCTTTCTCAGAAAATTCTTTGGGATGATTGAGTTGAACTCACAGAGCTGAACATTCCTTGCGATGGAGCAGTTTAGAAACACACTTTCTGCAGAATCTGCAAGTGCATATTTG
0.9986326081932732 CTACAGCTGTTTCAATCAGCTTAGTCTCAACATTTAGGCTAGGGGTAAATGTTCCTTTATTACTAAGAAACAAAATACAAATTAGACCTTTATTCATCTCCTTAAGTTTGGAGACTATTAAGGAGCTTCATACTTGTACTCTTCACCAAAGGAATGTAAGTGCACAGTAGACATTTTATTTAGTCAAGTTCTATCAATATTTTTTGAGTAATTATCAGTGTTGAGTTGACAGTATGATTCAACTCATGTACCAACACATAAGGGATGATAAGTGGAGTATAGTGTTGAAAAGGACTCTAAGGCTTAACCTGGGTTCAGTATCAAGGGTGCTATGTTAACTAGTGACACTGCCTGGTGGTGTGCAAGACTGAGAAAGGGGCTTGAATGCCACATATCTGCCATCACGTAAAGGCAATGAACAAGTAATAGA
0.5540460407390891 ACTAGCTGAACACACCATTGCCCTCAGCACTGAGCCAGGAAATCTACTGACAGGTTAAACAAAACAGAAGGTTGTAACTGTCATAATTTGCATTGCACTTTCACGCCAACAAGGGTGTTATCAGTAGGGGCAAGCCCTGGAACACACAACTCCAGCACCCTTAAGCCACGCTACTCATAAATTTTCAAGTGAAGTGAGATAAAACATAAATTCACAAATAGCAATGCATTTCTCATCTCTCAGTCTTTTAGGTTTGCACTTTGCAAACCCACAGAGTGCCCATCAACAACTCCTTTTGGTCACCTGGCA
0.9070042813479459 ATAAAAACGCCTAACGTGCTAAGAAATTTAAAGTGAAAGAAAGAATCTTTGTCCTCATAGCCAACATACTTTCCCCATCATGTCACATTGCGCTATTCTGGCTTTATCTGCCAACCATTCAGTAGTCTATCACAGACAAGATTGCTGCTCACTGCGTTCCATTCAGTCGAGCATTTGAACTGCTTATTATCTTGGCTACCAATGTGTAGGGTGCCTGTTTTTGTCTTGAACCAGATATACCCTATCCTGCACACTTGATTGCTGAAAACTTCCAGAGACCTCTATTTGCAACAGACTCACATTTGCATGTGTAATTCCTTACTGGTTTGTCAAACAAGGAACAG
0.5790618348797616 TCCTTATTTGGTGGCTCTGGAAGCCACATTCCCTCCTCATCCGCCTTCCCAAAAGAACCTTGTGGCTGCCCAGCGGAAGCCAGTGCTTTCAGCAGCCCCCACCCTTGGCATTTCCTTATCTAGGAGTCTTCACTGTGGAATTCCAAGGCCCACCCCAATGCTCCGGATGTGTTTCAATCCATGGCCTGCCACTTTGTTACTCTTGTGATGACAAGCAGATAACATAGCTCACATGCCTTCTTTTCCTGCATACCAACCAGACCCCAGTTCTGAAAAGGAAACAAACCACAAACCAAGAGAGATGTGTTATTTTTATGCAGACATTGTTAAGACACTGCA
0.6429817856912178 GGAGTCACTTATGTCAAAACTTTAACCAAAATGAAGTCGGGGAAGGCCATAAAGAAACTCTCTCCCTTGCATTCCTGAAATATCTGGACATCTTGTTAGTACTTGTACACAGAGCAAACAGAGATTATCACAGGAATTTCCTCTGGCCTACAGTATTTCAGATAAGACATTCAGACCTGGACAGTTGCCTAGCAACAGCTATCTCCCCAAATGAATTAGTGCCAACCCCTGCAATGTGTCCCTGAGACCAATGAGCTTTGTTTCAAAGCAGTTTGTGTAAATTTCTCTTTGTCTTTAAAAATTTC
0.4707463339220938 ATATCCTCAATTTATAACATAAAGCCCGGGACATAGCAAATGCTCAATAAATGTTTATGGACTGAACAAATAGGGATGAAATAATGCCCATGCCTGAACCAGATAAGATTAGAAAGGAAGTGAGGCTCATGTTCAGCTTTGTTAAGGCTTACTGAAATATCTGCTAGCTCTCAGGACATGTGCATAGTGCTGACATCCCTTGCTAATCTTGACAACGTGTGACTTTCAAGGCACTTGAAGTGAACTCTTTGTTATCCATCACTTCAGGAAGAAGTGGCAGTGTTAAAAGAAATGGAAGAAAAACAACTAAAT
0.4018595168945051 CTTCTCTGTAACCTCCTACTCCAACAATGAGAAACCTGGCTCCAACCATCCACTATCCACTTACTTAATTGTTCATTTCCAGTATAAGTGTATAGTGTCAGAACTGTCAACCTGTATCTTCATGAGAAGTAACTTTATCAGCTAGAGTGCCGTGTTCATGAGAAGTAACTTTATCAGCTAGAGTGCCATGTTCATGAGCAGTAACTTTATCAGCTAGAGTGCCGTGTTCATGAGAAGTAACTTTATCAGCTAGAGTGCCGTGTTCATGAGAAGTAACTTTATCAGCTAGAGTGCCGTGTTCATGAGAAGTAACTTTATCAGCTAGAGTGCTGTGCTTATGTGTAGTTCTTTCTGCCATTAGTCCTGCAGTCTCCACTCGTTTCCAGGGTTACTTTGGTCAACACCCTCCTCACCCCCTTCAGT
0.7373217839377405 CTACGCTACTCACTGACCTACCCTATCCCATACCCTACTGACTTCCAATTTTGATTTCCCTATTTTTATCATTCTCTCAGTCGCTCAGTTCCAAACTTCAGAATCACCTCTGGTTCCTCCCCTTCCCACAGCATAATCACTAAACCTTGTGTACTCTTCTCTCATGTATCTACCATACCCACCCCCTTATCACTTGCAGGTTGTCACCACTCACTTCAATTGCACTCCCTTCCTCCAGTCCTTCCCCTACTGCTTCAGGCAGTTGCCACTCAGATACAAACTCTTTGCACTTGAATTAAACTTTACCATATGATTCTGCCCTGTGTCCC
0.4857099720606149 GGAAAATGCCCTGGATGTCCCCAGAGCACTGTGCTTATCTTGCAGATGACGAGTCACCTAGGCCCAGGAGGACCAGGAATCTGGCCGCCACCCGAGTGTCCAGCCCACTGCACCTCACTATTTATAACCCAGCCCTTCCCCCACTCCAGGGCCACTCAGCTCCTCTATCTCTGGAATGTTGAGTAGAGGTCACAAGACCATGTATGTGTTCATAGAATGATTGTCCCTTGTGGTGACAACGCTGTCTGGTCTGTGTCTTACGATAACAGGTTGAATCAGATATTTCCAGTTGATTTGGAACTCCCTGGTGGCGTGGGAAGCTGTGTTAACATTTTCGCATTTGTCTGTTGCAGTAGGAGTTGGGGGGTGAATTCTTTTAAAAGAGAAT
0.3707797842986411 AAATTGCAAACTGGCTTACACCAAGTGGAATGCAATCAGATTCCATGGCCACTTCTGCATTTGTTTTTAATTCCATGTAATCACCATGGCTGCAGCTTTTAATCTCCTGAATGGCCATAGCATACATTGCTGGTTCCATGCCAATCCCCAGAGCCCAGGCACCACTGAATGCAGGTAAGTGACTCACATGCTTTGAAAAGTTCCTTGACTCACCCTGTCAGTGACTATAGTCAGGGTTCCTTATCAACAAGTCCCGCCCCTTCTTGATAGGGGAGGACCTCTCAGCAGCACGAGTTGCCACTTCATCCTTCACACAAAGCTGTGGTTGTGTGGCTCCACAGCCCCCTTGTCAGTAATGAAATGGCCATGTGTGCAGTACTGTGAAGGGCCACAGATAGTTGCCAGGCATGCCAGCTGCAATGGAGTGTTTTGAGACATTGG
0.5944413751221748 CAAACTCAGGGCATGGTGACACTGTGTCTCTGCTAGTAATCAAGGTTTACGTGCTCACTGTCTGTGTTTTTCTTGAACAGAGCTGTGGAGCACGGGTCAGCCAGACAGATTATCATTTTCTGTAAGTAACAAGTTTATCTACCTCTTAGGAAAGGAATGGGGGGAGAGGACGGGAGAAAGAGAGAGGGGGGCAGACAGGGGGCCTGTGCATGCTCATGAGTACATCAGTCGGTATTTGTTCTGTAGAAATTCAATTTATTCAACAAAAATTCTGGTCTTTTTAGCCTTCAGCTAGATTGTGTCTGATACGCAGAGGTCACATGTGTTTGGAAGCCACTGAAAACCTCCTCCTCTTGCCTTCTCTGATTTCTGTCTCTAGAATTATCGCTGCCTTTCTTTTCTCTGGGCCACTCCCTTCCCCATTATCAGCTCTCCTCTCATGCTTTCTGGTAGTTCTCACTGTCATGCCAATGACAGACCATCTGATTAGACTGTTTTAAACATTCTAATTTTAAACTTGTGTGTGTGTGTGTGTGTGTGTGTGTGTGTGTAAGCGGTATACGTATTCCCAAAAGGCTGTTCGATGAAATTTGATTTATGTCCT
0.5745679629718231 AAAGGAAAGAACAGGAGGTTAAAAATAGACAACCCCATTGAGTTTATCGTGAGAGAGAAAGGAGCGAACGAGAGAGAATTGCCACGCCCCTAGTATGGTGACACTAAGTGCCTGTTATTTTTGCTGTTATCTTAAATGTGGAGGACAGCTTCAAGCTCTTTCCTTATCAGCTGATGTTTGATAACAAATGGAAAAAAAAATTACATCCTGACAACCCAAATTAGTTTTGCCACCGAAACTATGCCATTGTAACCATGGACTTTGAAACAAGTAAGTCTTTGACCTGGTTATCAATCTTTTCAAGATTTTTGAAATCTCTCTG
0.4249451364422377 CATTTGCCTGCTTAAATCTGCCTCAGTTCCAAACAGCTTGCCATGCTCTATATATAGAGATGACTTCACCCTCTGTTGGAATGCAGCAGCTGTTCAGCAGTGCACACTGATATGCTTCAGAGACTTAGGCCATATCTAATTGAGCACTTCAATACTGCAGAGATAGGCGCCTTGGAAATATTTAGATAAAATACCTTTGGCCAGATGGAAGCCGGCCAGGATACCAGCATAAAATCTTCATCTCACAGGACTGCTAGTGAGCCTTGGCGGGGGGCTCCATGGA
0.4338502073169027 GAATCTGATGCATGCTCAGATTTGGGACCCATTATTCTAATGAGACATAGACCAGCCCTCTAACAGGATGTCGTCCATCATCACGTCAACACATCTGTCTGTTCCTATCTATTCTCTCATTGTTTCCACCAGCCCTAGAGGGATCAAAGTGGGATAAGAATATGAAAATGCCTAGCATATGATAACGACAATAGCTAACACTTAAACAGTGCTTGTGTGCCAGATACTGTTCTGAGTGGTTTATATTTGTTAACTGAGTTTATCTTCAGAGTGACATGATGAGGTAAGCATTATTATCCTATTTTCCACAGAAGAGAAACTTGTGGCAAAGAACAACTAAGT
0.5828312747575888 CATCCTCACACAAACGTCATCCACAGGAGAGGGTCTTGGCCAGAGCAGAAATCAACAAGACTATGACTTGGAAATTCTAGGGGGAGGGGAGGCCTCTAGCCTCAGGAATTTTGTCACCCAGGTCAGGGTCTGTATAATAGCCTTCTTAAGAGACAAAAAGGGCACTCACAGAGATTTGGACCAGGGCTGGCCTCCATCCAGCTTTCTACATTATCTTGAGCTCACTTGGTGAGATAACATAGCTAGCAGCTTCTGCATTCCTTCCTGGAATGCCTGTGATGTTTGGAGCCCTGCCACATGGCTCAGGCATTAATCATCAACCAGTGGATAAATGTTGACTGAGCATACTCTGTTAGGTCCCTGGTG
0.4202813515311729 TACTCAACACATTTTTTATAAAAAAAAATAGATATCGGTCTAGATAGTATCTATCTAGATATCGGTCTAGATAGTATCTATCTAGATATCTGTGTAGATGTCTAGATATCTATCTAGATATTATCTATCTAGATATCTGTCGCTATCTAGATATCTATCTAGATATCTGTCGCTATCTAGATATCTATCTAGATATCTGTCGCTATCTAGATATCTATCTAGATAGTATCTGTCGCTATCTAGATATCTATCTAGATAGTATCTGTCGCTATCTAGATATCTATCTAGATAGTATCTGTCGCTATCTAGATATCTATCTAGATAGTATCTGTCGCTATCTAGATATCTATCTAGATAGTATCTGTCGCTATCTAGATATCTATCTAGATAGTATCTGTCGCTATCTAGATATCTATCTAGATAGTATCTGTCGCTATCTAGATATCTATCTAGATAGTATCTGTCGCTATCTAGATATCTATCTAGATAGTATCTGTCGCTATCTAGATATCTATCTAGATAGTATCTGTCGCTATCTAGATATCTATCTAGATAGTATCTGTCGCTATCTAGATATCTATCTAGATAGTATCTGTCGCTATCTAGATATCTATCTAGATAGTATCTGTCGCTATCTAGATATCTATCTAGATAGTATCTGTCGCTATCTAGATATCTATCTAGATAGTATCTGTCGCTATCTAGATATCTATCTAGATAGTATCTGTCGCTATCTAGATATCTAGATAGTATCTGTCGCTATCTAGATATCTAGATAGTATCTGTCTAGATAGCTATCTAGATAGTATCTGTCTAGATAGCTATCTAGATAGTATCTGTCCAGATATCTGTAGCTATCTAGATTGTATCTGTCTAGATATCTGTAGATATCTAGATATCTATATCTATCTGGATATCTATAGATATTTAACTGCCGGGCAATGTCCTAAACCCTT
0.3928781168106036 GATTTGCCAAACTACACTTTTGTCCTCTTCGCCTTTGCCCCTTGAGTGGCCCTTTAAGCTATTTTAGCTGAAGAGCCTGCTGAGTGAAACAGAGCTAACCCATTGGCCGGGATTGCCTTCTACCCCACAATCACAGAAACTGGCTGGACTCTCATAGCACTGATATGGGACAATCAGAGTTATGTCAGATGCACTTGCAGGCCTGATAGGAAATGTCACTCTGAGATGCCTCAGCTGCAGGACAGAGAGCTCAAAATTGGTGTTTGAAAATAACCATGATGAGACCCAGAGACAGAGCACTTGAAAGGTTGAAGAGACAGAGCACTTGAAAGGTTTGAAGGGACAAAG
0.3096966035228739 CACTGTGGGGGAGTTTGGCAGTTTCACTCCTAGGTTGTCATGTAAGGACTAATAGTTAAAGCCTGGTATCATGTTCTATCTCGGCATCTGGTGAAACTGGAAGGGCTATAAAGGCATAACTGCATATTTATCTCCCTCCTCTGCTCCTGAAGATAAGGTCCCCACTAAACAGCTCTGCTTATCAAGGAGACCAGATACAGTTCCTGCTTATCTCTCAACAGTGGGTTTCAGTTCCCTGGCAGCCTGCAGAATTATTCAAACAAGCCAATCATACGCTCCTGTGGGATCTAGGGGTCACCTCACCCTCTTGATATTACAAAGCTTATGTCCCAGAGTCCCTGGTTGTTCCCTCTGTTCCTAAGTGCGGTCCTCACGTGGACCTATGTGCTATGTGGTGTTCTCCTCTGCAGGGCTGTGAATGTACACAGCAATAAATTGCTTTGGATGCATCTGTTCAGTGTC
1 TCTATATACACTCACAACTTCCCCCGGTGTTATAATCATCATTACATCTATATACACTCACAACTTCCCCCGGTGTCATAATCATCATTACATCTATATACACTCACAACTTCCCCCGGTGTTATAATCATCATTACATCTATATACACTCACAACTTCCCCCGGTGTTATAATCATCATTACATCTATATACACTCACAACTTCCCCCGGTGTTATAATCATCATTACATCTATATACACTCACAACTTCCCCCGGTGTTATAATCATCATTACATCTATATACACTCACAACTTCCCCCGGTGTCATAATCATCATTACATCTATATACACTCACAACTTCCCCCGGTGTTATAATCATCATTACATCTATATACACTCACAACTTCCCCCGGTGTTATAATCATCATTACATCTATATACACTCACAACTTCCCCCGGTGTTATAATCATCATTACATCTATATACACTCACAACTTCCCCCGGTGTTATAATCATCATTACATCTATATACACTCACAACTTCCCCCGGTGTTATAATCATCATTACATCTATATACACTCACAACTTCCCCCGGTGTTATAATCATTATTACATCTATATACACTCACAACTTCCCCCGGTGTTATAATCATCATTACATCTATATACACTCACAACTTCCCCCGGTGTTATAATCATCATTACATCTATATACACTCACAACTTCCCCCGGTGTCATAATCATCATTACATCTATATACACTCACAACTTCCCCCGGTGTTATAATCATCATTACATCTATATACACTCACAACTTCCCCCGGTGTCATAATCATCATTACATCTATATACACTCACAACTTCCCCCGGTG
0.3096489931758784 ATTCCCTGCCATATGCTCTGAGTTTTATCAGGCTCAATGAGAAATACCAGTGCTTGCTACACAGAGATTTCTAATGCACCCTCACTTCTGGCAATAGTCTGGAATTTACTTCAGTTGATTTAAAGAATTTGTGAACAAGAATTTTATCTGAATTGTCATCACCTTGGAGCAACTGGTCAGGCTGAAAAGGTGTCCTGAATGGGGCTAGACACGTCAGCGAGACCTGCCAGGTGTCTCGTCACTCAGCACGGCCACTTCCTAATAGTAACAGGATCAGCCCTGGGGACTTGCTGATGGGCAGCATGGCAGGATGACCCCAGCCATCTCCACATGCACTCTGATAAGGACTGGCAGGTTAAATAAGGGCATATGCTGCATGCTGCTCCATCAGCACCTCCACTTGGCTCCTTCTCAGCCCAGGAGTTAGAAT
0.6424322372157464 AACTACTGTTTGTGAGGTTAATGACAATTATCCCCTAATTACTGCATAAGTCACTCAGTCCACTTTATCTCATAGGCAGGGTTCTGCTCTGTGTATCTGCCATTGTGTCACCGTAAATGAATCTTGTATTGCTATGTTTATCTGCCATTGCCTTGTAAATTATACTGACAGAAGAATGAACAAATTACTGCATGTCATCACTTAAATACTACTTCTGAAATAAAAATAAAAAGGCTTTGGCACAGAGCTTAAATTTTAGCGGATCACAATTAGTAAAA
1 CTTCTCATAGAGTAGTTCTGAAACATGCTTTTCGTAGTGTCTGCAAGTGGACATTTGGAGCGCTTTCAGGCCTGTGGTGGAAAACGAATTATGGTCACATAAAAACTGGAGAGAAGCATTGTCAGAAACTTCTTTGTGATGATTGCATTCAACTCACAGGGTTGAAGGTTCCTTTTCAAAGAGCAGTTTCCAATCACTCTTTCTGTGGAATCTGCAAGTGGATATTTGGA
0.544558574566895 TGGAAAAGAGTGAGGGTGAGGAGGCAATGAAGAATGATCCTGAGTGCCTGGTTTAGGTGGAACCATCTGGCACTTGTCAGAGAAGAAAAGAATCAAAAGGCAGAGTCACAGGTGTGGGAGATAACAGGCTGAGCATTGAGTTCTGGGGCCCGTGGGACTGCACGTGGATGGCTTGCAGGCTCAGCTTTGGCCTAGGGAGTCAGACCCTGCCTGCTTCTGGGCCCCAGAGCCACCCCCATCCACTTGTGATCTGGGAAAGTCATTTAACACCAGGACCCTTGTTTTCTTATCTGTAACATGGAGATGCTGGTAACTCGTGCCTCATAAAATCACTTGATGTGGGTGAGAGAGAAAGCTAAGTGTTGATGACAGTGTGGGCCTGACCGTGCCTGAGTAAGCCCCATGGGAACACAGCCGTGGTGGGAAGCAGCTTCCCAGCAGCCCTCCCCGC
0.1809538805392012 CCAGCATCTGGCCTTCCTGCTGTGATAATCCTCTTCCTGCCCCTGCGCCCCCTCCCCACTTGGCCGGAAAGCGGCAGGCTTTCTCTTCCCCTCCTTACAAGGGAGGCCTGGCTGGAATGTGTCCCTTGATAACGGGGCTCGTGAGGGGCTTGGCATAGAATGGGCTGCCTGCTGTGGGCTCTCAGACACATGTGGGGCTGACTGATAAGGGCCCTGCTGGCCTTCTGCGCTGAGGCCCCATTTGACAAGCTGTGGGCAGGATTTGAAGAGGGGTCAGTGTTCACAGAGTACCCTGGAATCCATCAAATGTGCAGGGAGCGGGCTGGGCACA
0.5299605164719131 ATGGAATGGAATGAAATTAAATGGACACGAATGCAATGGCCTCAAATGGAATAGAATCGAATTGTATGGCATCGAATGGAATGGAATGGAATGGAACGGAACGGAACGGAACGGAATGGAATGGAATGGAATGGAATGGAATGGAATGGAATGGAATGGAATCGACCCAAAAGTAATGGACTCAAATGGAATGGACTCAAATAGAAAGGACTCGAAAGCAATGGTCTCGAA
0.6743650629007155 GCTTCAACACAATTGCAGCAAATGCCCTGTGTTCTGCCTTTGTCCTCTCTGGTCTGACTTCAGCATTACTCACGCAATTCCTCTCCCTTTCGCATAACCCAGTGTCATTCTATTCCAGCCAAGTTTATCTCTGCACCACTCAGATAAGCCCCATGCTGCTCTTTGTAAATGTCACTCTTAGAAGAAGATAGGATGTTTTCTGAAAGAGTTCTTTTTTAAAGCGTTCACTGACTGAATCCATTCTGAAGGATAGTTTGGGTAGAGGGCTTTCTAAAAAAAAATGTT
0.3730805857330947 ACTACACAGAAGCATTCTCAGAAACTGCTTTGTCATCTGTGCGTTCAGTTCACAGAGTTTCACCTTTCTCTTCATAGAGCAGTTTGGAAAGACTCTGTCTGTAAAGTCTGCAAGTGATTAGTTAGACCCGTTTGAGGCCTTCGTTAGAAGCGGGATTTCTCATTTACTGCTAGACAGAAGAATTCTCAGTAAATCCTTTGTGTTGTGTGTATTCAACTCACAGAAGTGGAACCT
0.6636304456960828 AACACTCCTTTTGAGAGCGCAGTTTTGAAACTCTCTTTCTGTGGCATCTGCAAGGGGACATGTAGACCTCTTTGAAGATTTCGTTGGAAACGGAATCATCTTCACATAAAAACTATACAGATGCATTCTCAGGAACTTTTTGGTGATGTTTGTATTCAACTCCCAGAGTTGAACTTTCCTTTGGAAAGAGCAGCTATGAAACACTCTTTTTCTAGAATCTGCAAGTGGACGATTGGAGGGCTTTGTGGTTTGTGGTGGAAAAGGAAATATCTTCACCTAAATACTAGAGAGAAGCATTCTCAGAAACTGCTTTGTGATGATTGCATTCACCTCACAGAGTTGACCATTCCTATTGATAGAGCAGTTTGGAAACACTCTTGTTGTGGAATGTGCAAGTGGAGATTTGGAGTGCTTTGAGGCCTATGGTAGTAAAGGGAATAGCTTCATAGAAAAACTAGACAGAAGCATTCTCAGAAAATACTTTGTGATGATTGAGTTTAACTCACAGAGCTGAACATTCCTTTGGATGGAGCAGGTTTGAATCACACTTTTTGTAGAATCTGCAAGT
0.7699114195753481 GGTGACCTGTCCTGAAATCCCAGACAAACACATTTCGTGATACAAGTTCTGCCCTCATTTCTATCTCAGAGCTATGTGTCTGGACCCTATGACTCTGCACCCTCTCATAGCTGAAGAGTGTTATCAAGAGTAAACACTCAGGATTGATAATGGTCTTTCAAAGGTCTAAAAACACACCCACAGTCCAATGACCTATTGAAAGGAGGATGAGTGGTTTCTTTTGATATCGGGCTGCTGGACAGACTTTAGTGAGTGAAAGATTATGCTGCTTATTTACCTGGAAAAAATCGACGTC
0.2697366178175569 TTGGGCCTCATTTTCTCCTTCTGTAAAGCCTCCGAGATCTTCCAGCTCTGACGTTCTATGGTTCATTTCCACCTGAGATGGCTGTGGCACTTTGACTTCACTGGGGGAAGCATTTCAGATAAGCAGGCCCTGCTATCTCTGGAGCCTTTCTCTTCACCTTCATCCCTTCACGTGAAACCCAACGCCAGAGCTTCTGGGACAGCCTCCTCATTGATAAAGTGTTCCCTGACTTCTCAATGAGCTTGCACACTGTAGCTGCAGCGATAATGGGCTATATCTGGCTGGCCCGGAATCTTGCCTATGTTCCAGTCAGTGCTGTGACTATCAGTTGTCTGCTGAGCATGAATGGCCAGAGGCAGAAAAAGGACAAGGAGCCCCGCTGGTGAGAAGTGGAAGTGATTAACTTATGTCGCATGCTCCAGCGGGAGTCTCAGCCAGCGATAGGCGAATGAGTGTATGATGACAGCTGCCTTGGAGTTCACACCACACCATCAGCACTCTGCAGGAAACAGATTACTTCAGGGCTTGAGAGCTCGTTGACAGCTGGAGCTTTCTGATAAAGTTGTCAGAAAGTGAAAAGGACAGTCCCAGGAAGTTGTAAGCTTCCTGTCCTTGGAGGTGTTGTGGTAGAGGAGGAGAAG
0.3134406449009585 TTCTCATAGAGTAGTTCTGAAACATGCTTTTCGTAGTGTCTGCAAGTGGACATTTGGAGCGCTTTCAGGCCTGTGGTGGAAAACGAATTATGGTCACATAAAAACTGGAGAGAAGCATTGTCAGAAACTTCTTTGTGATGATTGCATTCAACTCACAGGGTTGAAGGTTCCTTTTCAAAGAGCAGTTTCCAATCACTCTTTCTGTGGAATCTGCAAGTGGATATTT
0.4358819903460158 GGGCCTTTGGGACATGTTTGATGACTGAAGGGAGCTGAGCACTATGCATTTGGAGGCCATGAGTCATTCACACCCAGAAATTACAACTCCTTTATCTACTGGGCTGCTGTTCTCACTGGGGAAGTCCCCAGTTGCCTGGTTGGCACATTGTTCCAGCCAACCAGGTATTTACAGCTATCTCTGGCTATTCTGAGCATGAACAAGATTACCTGGGAATTTCCCTCTTGATAGGACTAGAGACTCCTACCCTTAGAGCAGAGAAGGCAGCTCTGATAATGAGATGACAAAACAGAGGGCTTTTCTCTGTTCTCAACTAAGTCCTTAGTGGC
0.5270038137851225 AATCTCTCATTCTTCCTCTACTTTGAAGTCTGGCTTCTGTCTTGGCCCCTGTGGGTTTGATGACAAAGGGCAGTTCAGGAATGACACTATCTACACATACATGGCCATATGGACAATTTCAGGTGGTGGGACTTGCAGCAGCTGGGGTTCCCAGGACTGCTGACATTCTGCTGAGTGTTATTAGAAGATCAGGGACAGAGCTTATCATCTGGCTGTCACTGCCCCTTTCCAAGCCACAGCGAGCCTCCACAGAGGGGCCCTGGGGGATAGCCAGCTGCCCTGTGCTCATGCTGGAGTGAACTTTCCT
0.3164148096436307 CCTGCCCAACCTCCTTCTCTGACCAAGACAAAACTGCAGGTTCACTGTGGCAGGTGATTACAACGGACAGAGGGTTTGTTCCCATACTCCATCTACCAGTGGTGACACTTCCTTTCCCTTCAGCTCACCTGCTCCCCCAACTCTTTGAAGAAATCTCAGTAATTCACTGAGATCAGAGTCTATCACACAAACATCCGAAATTGTAGCACACCGGGGAGCCTGCCAGGAAGGCCTATAATCAGATAACACATTCCAGCCCGGAGACCTTTCCAGAGGAAGGGTTAAGCTCCCAAGGTAGTTAGTGGAAATCAAAGAACTGCATGCTCTCATTATCTCATAACAAACATACCAGGTTAATAGCTGTCGCTGCCGCTCTAAACCACGTGTGTTGTGTTTTGTGAGTGCTGACATGGGGCGTTCTTTCTCCCACCATATCTGCAACTTGACAGTGTCATCGTGGTTGGGTGCTGGAGTCTCCTAAAGTGTTTTGCATACTGTCTCCTGCACGTTGCCTCGAAGGATTTTTAA
0.8606366595449643 TTTTCATGTAAGTACTAAATGTCAAAACTCACTTTCTATGAGGTAACTATTTAGTAATTTCTTTGTAAGTGGCTCTGAGGATATTTTTAGCACCAGTACTGCCTCCTAGAATCTCTCTGTTCTTTAGCCAGGTCCCAAGGAAGCTAATCTAATCTGGTTGCAAAGTCTGTCCCACAGTACGCACAATTCAAATAAGAGTTATCCACCCACAGCTCTGGTGACACAACTCAAGCCTTGCTTTTACACCCAAGCAAGTGCTGATGTTTTGGATAGAAACCAAAGCACTTTCTGTCATCCTGCAATCCGTGAGAGGGCCCTTCAAACTGAGTGTGATGGTCATTCTTATGTGTCACTTAGCAAGGCC
0.935922466222878 GAGATGGTCTCGATCTCAACCTTGTGTTCCACCCGCCTCAGCCTCCCAAAGTGCTGGGATTACAGGCGTGAGCCACTGCACCCAGCGTGTTATCTCAATCCTCATAATGCAGTTAGGTAGAGGTATTCTCTCCACTATATCAGTAAACAAGACTAAAACATCTTGCCATGAGTCATACAGCTAACATAATGCAGGCCTAGCAAATGTTTTCTGAGTATCATAGGTGCTGAGTGCTGGCTGGGCCCCTGAAGAGAGATAAGCAAGATAGTCTTTGCCCCTTAGAAGGGGAGGGCATAGCATATAACTGCCAGAGTATGTGAGAACATGCTCAGCACAAACACTCCAATGGATATAACAGGAGTATCAAGGAGTGAGCAAATCTTTCTGTCTTTTAT
0.3703952435891331 ACCCGTTTAAGATTTCAAATTACGATCTGAAATGTGAAAATGATTGGTAGATTATCAAACTCACTGGGCTGGACAGAGCAATATGTCAGCACCTTTGCCCACGTCCACAGCCTGAAAGCTTTTGAAGGTAAGCAGCGCCGTCATCATTTTGGCATTCTATTTTAGTCTAAGCCTACATCAGAAGCCTGCCAGGGCTCAGTGCTGATAACAAAGCACTATCGCTTTTCAAAGTGACAGAGCACAGTGACATATCAACACTAAGACTTAAACGAAAAGCCCCTTCTCATTTAACTGGGAATCTGCTGAAGCTGTATTCAGCCCAGCACTCGTTTTCAATTAAAACTTTCTTGTCGCAAGAGAAAAGTTTGGCATATCCTTTTCAACGACAGTTATGGAAGTGAGTGGAAAGG
1 CCATACAATACAAAAAGTGTGTTTCAAACCTGCTCTATGAATGGGAATGTTCATCTCTATGTGCTGAATGGAAATATCAGAAAGAAATTTCTGAGAATGCTGCTACATTTTTATGAATTCCCGCTGCCAACGAAATCCTCAAAGCAATCCAAATATCCACTTGCAGATTCCACAAAAAGAGTGTTTCAAAACTGCTCTATCAATAGAAAGGTTCAACTCTTTTAGTTGAGTACACACATCACATACAAGTTTCTGAGAAAGCTTCTGTCTACTTTTTAAGGGAAGACATTTCCTTTTTCACCAAAGGCATCAAAGCGCTCCAAATGTCCACTTTCAGATTCTACAAAAAGAGTGTTTCAAACCTGCTCTAAGTAAGGGAGTTTTCAACTCTGTGACTGGAATGCAGATATCACAAAGTAGTTTCTGAGACTGCTTCTGTGTATACTTTAGATGAAGATATTCCCGTTTCCAATGATATCGTTAGACCTAACCAAATATCCACTTACAGTTTCTACAAAAAGAGTGTTTCCAAACTGCTGCATCAAAAGAAAGGTTCAGCTCTGTTAGTTGAGGACACACATCACAAAGAAGTTTCTGAGAAAGCTTCTGTCTAGATTTTGTATGAAGATA
1 NNNNNNNNNNNNNNNNNNNNNNNNNNNNNNNNNNNNNNNNNNNNNNNNNNNNNNNNNNNNNNNNNNNNNNNNNACCCTAACCCTAACCCTAACCCTAACCCTAACCCTAACCCTAACCCTAACCCTAACCCTAACCCTAACCCTAACCCTAACCCTAACCCTCTGAAAGTGGACCTATCAGCAGGATGTGGGTGGGAGCAGATTAGAGAATAAAAGCAGACTGCCTGAGCCAGCA
0.317696326720928 ATATAAATCGCAGCAGGCTGGCCAAGGGCCTTTGTCTGGCCAGGAGAGTTCAGGATTATCTGGCCCTCTTTGCTGATGTATGGAGTCACCGGCTGTCGGAGTGTTTACTAACGGTTATCACCTCAATGCTGTGGCCATTATCAGAGGCAGGACCGCCTGCCGAGGCTGGGGCTCGCACCCTCTCTATTACCACCTGTCATTGGCAGGGAGTGTGTGCTGACACTGCCCAGCCCTCACTGCCTGGCGAAGATAGTTTCTGACGGCTGATCAAAGAGGAGAAGCAAGGCCTGATAAAGAGTGCGTGTTTCGTGTACTTTTAACTTTGGGAAACGTTGGCATTTGCATTTTTTCCCCATCTTCCCGATGCTGGCAGGAACCAAGCCCAATAAATGCAGTGGATTCAGTTACCTAATCGCTGGGGAAATGGTATGTGCTTAAAGCAACAGAGCGTGACTATA
0.5739333469898326 TTCTCTCCAGATTCCTTTGATCCGCGGGCTCTCCGCCGCACCTCGGCTCCCGGGCTGCCCCGGTCGGCCCGCGGGGATCCTGGAAACGGTCCCCAGCTTATCTCCTTTCATCAAGCGGCCTTGGGCCGCCTTGAAACCGCGGAGCCAGTAATTGCTTTTTTCAGGAGGCCCAGTGCGGACTGGACAACAGCCAATCAGCGCCTTGTTTACACTCGGTGATGGACAGTCCACTGGCGGAGTGCCA
0.3558280110522575 GAAGTATCTTGGGCAAGCTTCCATAGCAATCAGCATGAAAGCAGAGAGGCTTTCCTTTCCTTTCCTTTCCCAGTGGTGAAGTTACAGCTATTAAAGGGCTGCTACTGCACAGAGCTGCGAAGCTTGTGAAGGGGACTTCTGTTATCTAATCAGCGCCAGGGCCAGAAATGACCATGTTGGTTACTACACAATGACTAAGTGTTCCAGTAAGCTAGAAGGAAGGACTGGTATTTGACAGAGGATACATGTAACGTTCAGAAAAGACAAGAAGCAACTGAGCTTATCACCTCAAGGAGCAGATCATGAAATAATCCAAGGTCAGTTAGCCTATAGTAAA
0.6753504569443015 TTCTAAAAGGGGATGGGCTAGTTTGAAACAAGCTTACAGTGGCGTGAAGCATAGTGGTGTGAAAGCTCAGGTACAGAAGCAGAACAAAGGCAGTTAATCATACTTTGACAGGTTCATAACTCAGGCTTACAATGACTCTTGCTATGCGGCCTAGATGGCTGTTATCTAGGCTTGCTCTAGTGCCTTGTGCTGGCTTATCTCATAACCTTCACTATGGTGTCTAGATGGCTACAATCCAGGCCCGCCCAGGCATGTCTCATGACTTTCACTGAGCTGCTTAGATAAAACAATGCTTGAAGTTACTAGTTATAGAAAACAAGAATCTATAAACTCATAAGTTTACTCATACCATAGGAGAAAGAAAAATAAAGAAAATTTGTTTTTTTCTTCTCCCCATGTTGGGGGAGTGCTGGGAGAGTCTTCAGAGCACATTCCTTTGAGCCCTAGCTTCTTAGATAATAT
0.6177950579555403 TAGAGTTGGGATCTATGCCAGTTTGAGTCATGGGAAGTAAATGTCATTCCTGAAGATGTGAATTTCACCTACCGACATACATTGAGTGCCTCATACCCAATCCACATTGCTAAGCACCGTAGAAGCACAGAGGAATGCAAGATAAGGTCCCTGTGCTCAGGGAGTGTGAAAGATATGCACACACACATCAAACCAAAATACAAAGCAGTCGGTACAGAGGAACACGGAAGGTGAAGAGAGGGTAAGGGCTTTATCATTGTGCGGAAAGGAGACAGTTCCGCTAGCTGTGGTGCTCAGGATAAGTTTAATGGTAAAATAGGCACTTACAGGAGACCTGGCAGTGGATAAGATTTGGATGGACAGAGAGAAGAGACAGCAGGAATTTCAGGTATG
0.5009286303157474 TTCAACACCCACCTCAGTGCAGCCACACAGGGAAGGGCTGGCGTCTGGGCCACCCTGGCGGGGATCCAGGACTACCTCACACTGCCCCACACCCACCGCCAATCTGCCCCTTAACCCAATGGTATCAGAGCATCTTAAAAGCACAACCACTAGACTCTGATAGCTGCTGTGTCAGATAAGAAGCAGGCCCCGTGGTGACAGACCACACACGGACGCAGCTGGCTCCTGGCTGCCTCACAGTCCGCCTCTCTCCTCACAGTTCAGCACTTTATTCGGAAGAGCATTAGACCTGCCATCCAGACAG
0.6837670732311061 CGTGGGTGAAGGACTTGCTAACAGCCACCTGAAGCCCACACTTTATCTCCTATGCTCTGTGATCAGGCCTCTTGCAATGATATTACAGCTGCTTTGTATGCCCTCCCCCACACACACACAAAAAATTGTTTGAGAAAAGACAGAGGCAACTTTGTATGACTCTAATCTTTGCTCCACTTAAAAATCCCAGCTAGTCTCTGTGTGTTAAGATAAACTCTCCTGGAAGGCGTCTGAAGGAAAAGCAAATATTTTGACCATTAAAAGAACCTCTAAATAACAAATGTCAAAGACAGGGCATGTGTTAGGCAACTTCACTTATCTC
1 TACAGAATTTAAAACCTATAGCCACAAATGTTAAGCATCCATATGGCACTTTATGCCTGTGCAATGTTTTTTTTTTTCATTTTTATTGGTCATTTCTGGAAACAACTCTCTAAGGCAGGTTCATGTCATCACCCTTACATGATAGATGAAGGAACACAGTCTCACAGAAGCTCTGGGTCACACAGCAGGGAGAAGGCTGATTCTCTCTCCAGGCTCCTGCTGCTTCTATCTAATCTCTACAGTCCTGTGCTGGAGAGCTTCCATTTGCCCAGCCAGAGCCATGCTCCTCTGTCTAGGGAGCCTGACCTGTATCAACAGACTCTTTTGCCCTTGTCTTCTGTTTGAGTTTGGCTATTGCAGAGAACAAGAGAAAAAAAACAAGAAAGGC
0.2105307725393964 TCAAATGGAATGGAATGGACTCTAATGAAATGGAATGGACCCAAAAGGAATGGAATGGAATGGAATGGAACGGAATGGAATGGAATGGAATGGAATGGAATGGAATGGAATGGAACAGAATGGAACGGAATGGAATGGAATGGAATGGAATGGAACGGAACGGAACGGAATGGAATGGAATGGAATGCAGTGGAATGGAATGGTATGTATTGGAATGGACTTCAATGGAACAGAATTGGA
0.277073449282045 TTAAAATGAAGTAAATAAAAGAGATAAAAATGGAAATATCAAGGCAGCAACTTCTCTTCTGATTACAAAGCAGGCAGCGGGAAGCAGCGGGAGCCCATGAGGACGCAGCTGCACAGCCGGGCGGGCCTGATAAGGCCTCGTAGCCTGCGCGGGCGAGATAAAGCCAGCACGCGCCTGTCCTCAATCCCGGCCGCCATCAACATGCAGACAGCCTGAGCGACTGGCATTCCAGATAGAATAAGCACGCACGGCCGCGCTATTACTGAGACCTTATTAATCCGCCTGCAGGCGTTTAAATGCCGTGGGAAATATGGAGTTTACCAGCGCAGCTGACGGGGACTTGACACTTC
0.3379785449304588 TTGGAACCTAAGACTGACAGTTATTTGTTTTATGGCTGCTGGAAAGAACCTCTGGAAGTGATGAAGGGTGTTGGCCAGGCCCCTTCCCTTGCCAATCCCCAGGCTCTTGAGTCTTTCAAATGCACCAACCTCTCTGCAGCTAAGCCCTTACTGATAAAGAATACAGAAATCACTGTCCACTAGACCTCCCATCCAATGCTGCCTTGCAGCGTGCAATTTTCTGCTGATAAGTGAGGCGCTGTTATCAGTCCACATTCAGAATGCTACTCCATGCTTACTTCTTAAATGTATTCTCAATAGCCCACTTCAGCTCTAGAAACTGCAGATATAAGTAGAGTATCAGGCCTCACTGTCAGAAAGAATGCAAAAGGTTCGCTTTCTACAGTTTTCCTGGCACAACCTTCTACTCACAACC
0.4207784167155967 GGTGGCTAAGGCATGTGAAAGTTGCCAGTACCAGAATGGAGTCACTTATGTCAAAACCCTAACAAAGTGGAGTCAGGAGGCCCTAAAAAAGTTCTCACCGCACATGCCTATAATATACCTTATCACAAGAAATTCCTGCAGGTCCCACATGCCCCACTTCTGCACTCACCCTGCAACAGAGCTTATCACAGGAATTTTTCAGGCCTGCAGTATTTCAGACAAGCTGCCAGCACCAGGACAGTTACTCAGCAACAGCCATCTCCACCAATGAATAAACGCCAACTCCTGCACTGAGCTTCTGTG
0.9083537416768898 AAATTAACTATACTACATACTGTACTACGATAATAATTTTGTAGCCATCTCCTGTTGCTATTGCAGTGAGCTCAAGTGTTGTGAGGAATATGTACTTGAAATGCTTTGTGATGCTAGTCATCTCCTCTTGAGCAGTTTATCTCTCCAGTAAATTGTGTATTGCGATAAAAAGTGATCTCTGGAGGTTCTCACATAGTTTTCATCATGTTAGTGTGATACCATAAACCTTGAATAACACCATGGGACTCATACTAAATGCAACTAGTGATGCTGGAAATGCTCCCAAGAAACAGAGAAAAGTCCTGACATTAT
0.5283298920917682 AAATATTATGTTTTCTTGATGAGGCGTTTATTGTACCCTCTGAGCATCCAAACTTAATGGGTCAGAAGAATACCAGGTGCTGCTCTTGTTTGATAAAAGCAGTTATCACATGCTATTTAGAGAGTGTGTGGAAGGAGTTCTTGGCTGTGATTGAATCCTGCAATTCTGTCTCCAACAGGCTTTCAGCAGCCATGGCTCTGAGTCATCTGCCTGGTGACCAGAAGCTGACATCCAATATCATGTGCCTCCCCAGATAATGAGGTCAAATGTGCCAGACCCACAAGGGGCTTGATAACAGCTTATTAACATCCCCAAATGATAGCACTTTTGATTAAACCTCACATGTCTGCCTGTCCCCCCTCTCATCCTTTCTAAAATTAGAGCTGGTATTTTACTAACCATGCCCTTGCTTGAACTTTAGAATGGTTCAA
0.5030099563803283 AGTGCTGCTGCTGGAAGCTCTCGTAAAAGGGGTGAATGAAGTAAACATCATTAGAATTGCTGGGTGCCAGAGGCGCCTGTGTGACATGTCTGGATGGCTTCACCGAGACACACAACTGATTAGATATTCAAAGTCAGGTGCTAAGAAACCAAGGTCATGCCATACTGCATTTCTCTCAAACAACTGGGCCCAGATAAGTTAAGCAGTGGGTGATACCCCCAGACAGATAAGGTGGCAATTTTTAACAATCTTAAAATATTGTTACAGCAAGGAAGGTCGTGATAAGATCAAAGCATTTGGAATTATGTTAACGGGTGCTGGGATTTCTTTTGCCCTCCCCTCTCCCTGAGCCTCCCCCTTCCTGCCACGTCTGCTTACAAGCACA
0.5581139228956146 CTAAGTTTTGTTATTTCAGATGATTTCATAAGTTGGGGGAGGCGGAGCCCCAGCCCCCACAGCCCCTGTTGTTGCCTCACTGCTGAGCTCTGCTGTGTATCTGCTGACAGGTCTGCTGATAGCAGAAGGGGCTGGAGAGAGGGAAGCTCTGGGCCCTGCCCTCCCCAACCCCTGCTTAGGGGACATCCCTGATAAGAGGAAATTCCAGCCTGTGACAGATGGCCAGTGTCCACCCACCCACGGGGGAACTTTTCTTTCTCTTTGTAAGTTTGCAGATTTGCCAGGAACTAAAGGAATCTCTGGTTGACAGGCCACTGTGGACATGGCTGGAGGGCTGGCACGGGCTGGATC
0.6656404212127977 CCTGATATGTAGGTGTTAGAGCAGAATAGTATCTAGCCTACAGGAAGATTAAAGGATTAAAATGAACTAATACTCTACTTCCTAAAACATACAGACTTCTACACAGTGCCAGTCAAATGGCAGCCAAGTGTTATCAGCAAGGCTAAATTTGGATCACATAACCTAAAAACCACTTAAGATAAAAAGAGTGCTGAAATAAGCGCAAGCCATAATAAGGGCCAATGAGAGAATGGGTCACGTCAGGTGACATGGTTTCCAAAATAAAAAAAGGCCAACTCAAAATACAAA
0.9143829355377199 TCAGGCCCGTTGATCTCTGCCTGCAGGCTCTCTCAGCTCACTGGAAGCTCCAGCAATTATTTCTGCTCCGGTTTTCCCCTCCTTTTTTTCCAGCAGACTGTTTGAAATGAAGCAGAACCAGGCATGGCAGGCTTATCAGTGTCGTTAGCTGACAGGGCGCCCAGCACACCTGCTTTTACTTGCTGCCGTTTCAGGCACTAATGCCACAGAGAATGTTGCTTGGGCCCTTATAATGTGTAAAGATTCATTTATTTCACCTTTTGAACC
0.6220628610094929 TTTTGCCATCTGTTGATGAGCATCTGGCTCTGTTCTTTTTTCACTACATGGACAATGTCACTGTGAGCACGTTTGGTCACGTCTGCTGGTGCCCATGTAAAGCTTTTCTCTAGATAAGAGCCTATACCTAAGAGTAGAACTGCTCTGTGCCTCTTCAGCTTTTCCAGATAATGCTAAGTTATTTTCCATAGTAGCTGTGCCAGCATACGCTTGTAGTAGTATGTGGGCGTGTGAGAGTCTGTGCTATTCAACATTCTACCACCATTTGGTATGAGCAGATTTTCTAT
0.7363147737648205 AAGACCACCCTGGCTAACACGGTGAAACCCCTCGATGATAGTTCCATTCGATTCTATGCGATGATTCCATTCCATTCCATTGGAAGATGATTCCATTCGAGACCATTCGATGATTGCATTCAATTCATTCGATGACGATTCCATTCAATTCCGTTCAATGATTCCATTAGATTCCATTTGATGATGATTCCATTCGTCTCTACTAAAAATACAAAAAAATTAGCCGGGCGTGGTGGCAGGCGCCT
0.7428098809343389 GCCCAAGTGTCAACTGATGCATTACCATCAGATTATTTACTTCACAGATCAGTGACTAAGTTTATTTGAGTCCGATTTTCATGGAATAGCATGGATTTTTTGTTTTATTTTTAAATCTGATAAGTATAAGCTTACAGGTGTACCTGTTTCCTGCTGTTCTGAAAACGTGACCAGGCTCTCTCTGTGACAGGATCACACCACAGCTCGTAGCCACTCTGTGCAATAATCTGCAGATGATAACGCCTTTGCAGAGCAGACCTGCACGTGTACTTGCAGAAAGGTCTCTGTCAGACACAGCGGGTGCCTGTGATATCTGAGAGTGGGTCAGCAGGACTGGCACGTTCAGCAGCTCAGGAAGCCAACTTCCAACGGCAGGAGCAGGACCCTCTGCATGTGACTCTGATGGGGCAGATGGTCCTT
0.9950227773213727 AATAATAAGAGAAAGTTCCTGTATACATTCCTTGCAGAGTGTGATTTGAGAAAAAGCAGGGGGATGAAATTCAGGTTCTAGTCTTTAATGACTTGAACACAGATGTTGCTGTTGACAGGCGGAGATATGTTGAGTGTTGTTTCTCCATTTGCTTAGCAAGATTTGACATGTGGTGAGCCAGAATAGAAATCTGAAGAGTTGAATCAAGATGTGTTGAGAGAACTTTGGGTGTAAGAAGTGATAAAAGAAGCAGGTCTGGATATACAACATTAGGTGGCAGATGGAAACTTTTTCAAAAAATATCTTTCCAGGATTGCCTGCTTGGATAAACTGATTGGTAAATTTAGTTGTCCTTAGAAAAGAATTTTTAAAATACAGAGGATACACAGCCAGTATATCATCACTCTAAACAAACAGTGCTCATTGTTCATCTATGTGCATTTGTTCACATTATGATAAGTGCTTACAGATGGGTCTG
0.4134670573507633 TGGGACAAAGTCTCCCGTCCCTTATCATTTGTTTTCACTGAGGCTAAATGTATCTGTTCAGTACATGGATAGATTTTTAAGCTCCTCTCACAAAGTCTTGTGCTTGAGACAAAATCAGCCCAGGTTCTGCACTTTGTCTATATTTCAGCAGCTCTCCTGCTTGATATTAAAAATAGCCTTGTCTAGTCCATCGAGATCAGACCCAGGAGACAGGCGCCTGCTATTCTAATCTCTGCTTCACAAATAGCTCTCTATGGGCTCAAGCATCTATCAACACTTCCAGGGGTCTCCAGTTATAAAACAGGGCCAGGCCTAGTCACCTATAAAGGTAG
1 TTTATAAGTCTGAAAAATAATTCAAGCCACTCTAAACCCTTGAAATTCTGTTGGATAATGAACTTAAGGAGCTGTTGACATCCATGTCGCCTGGTGTCCACACTTGGCCTCATATCAGACAGCCACTGGAAAGCGATTTGCATGAACATGTATCTGAGAACCCTCTGTTTTATTTTTAAATGATAACAAAAGTAAGTACAACCATGATAGTAGCCTACTAATAATAAAGGGAGCTATTTATACATTTTTAAGTGACTGTGGTAGATATAGTTAGCTATCAACATGAAGTTCTTGTACCTTAGAGATGGCATGTCACTGAAAGAAACAGACTCCAGGTCATGGGAGTTCCAAATCTCCTCTCAGATGATTGGAACCCAGGAGTACACCCTTCCCCAGCATAACCTGCATGTAGATGCATAG
0.5634381663552191 TGGGAGACATCCCTGGGGATTGAGCTGAGAGTCTGCTCTTGCAACCTTCAACAGTGCTCTAACACCAGTCAATATCAAATCCCTTTCTGCTTAAGTTAACCAGAGCAGTGTCTATGGGTAATTGAATCATGACTGATGCTATTATCAAATATAAACTGATGACAATGGCAAGTGGGAAACCTGCTGTTTTACAAATACCAGATGTGCATCACATGGAGGTTTATTCACTCCTATTTGCGTTTTGATAATAATCCTTTCTAATAATTGGTTCATTGGTGTAATCTTTATGAAATTAACCTGAGTGGCTCAAAATTCATTTTGTAGCACTGAATGCAATTACTAATTGAGCTATTTAAGCAAACTAGCCAGCCACCTACAGCTACTTAATCTTACTGGCCTACTATAGTAGCTCTGACTCACCCTTATCTTAACCAGATAAGGGATACCATACATTCTCTCTAAAGAACACCACTGACCTCACACACAGGGCTAAGTAGGCTATGCCTATTGTTAATATATCCAAATACCAGTTGAATACTCAGCAGGTCAACAGTATTTC
0.2769492282071414 CTGCAATAGTCAGGGGCAGGAGCCTGGACTCACAGGCCAGTACAGCACTCAGGGAGACAGCCTAGAAATGGAAGGGCTTTTGGAGGAGGGAAGCTCTTGAACAGAGCAGACAGGGTAGGGGTGTGGGAGCGTTGATGAAGGAAGGCCAAGATAAGGCTGTGGTTTCCATTTGTTACCACCTCTCCCGCTTATCTTGAGTGAGAACAGGCCCTACAGCTCTGAGCGAACCTTTCCATGGGGCTGTTGAGCTGTGAAGAGGACATATACGAGCTCTCCTATCCTCTCTTCCCAGTGCACCCTTTCCCTTGCACACACAGGCACCTGT
1 CTTCCCACTTATGTTGCAGCTGAGGGAAGAGGTACAGCAGCAAATACAAGTCTCCCTAAATAAAGGCAAATATTTCTGTCATGCCAAGGAGGGAGGGAAAAAGGGAGGCTTGCCAGAGTCGGCTGGGAGATAACAGTGGGAACTGCTGGTCCATCTGGTTTTCATTCTGCTAACACTCACACGGAACTGTTAGAGAAGGCAGTCCAGATACACAGATTTGAAGCACGTGGTTGCACAGACAGAGAAAGGAAGAGCAGGAGGGGGAGGGGAAGTGGGAGTAACAAAAAAATAAATAAAGCAATAGG
0.4741112660326559 ACATGTCTTGTTTTCTCCTGATCCGTGGCTCACAGGCTCAGTGTGACCCAACCTCCTAGATTTCCCCATCAGTGCTATTTGCAGTGCCCCCAAGCACTTTCCTCCACTCCAGTCCCTGAGCGCATGCCAACGGCCCTATTTTCAGCCACCCCTCTCCATGCCTCTTGTCTGTCTCTAGCTGACAAGCAGATTATCTCTTCTGTCCACTTTGTTTGCCAATGTACTTTGGCACCATTGAATTCCAACACATGAAGTAAACTGAACTGTGTACAACGCTGAGCACACACGTGGTTTGGAGAGCAGCCCCTTGTCAGGATCCAAAAT
0.4738086346251055 CAACATTCCAGCCCCCACTGACAGCAACTCCGGATCCTCTCTCTGAGCAGTGCCAATTTTTCCAAAGTGTTTAGAGGTCCCTGCCAGCATTGGCTTTCATCAATTTGATTGTATGAAGTGGCTGAGTGAGTCTGAGATAAGATAGGGCAAGAGAAATACACAGTCATTCACACCTGCTAACTTGAGGGCTGCCAGGGCAGCTCTAGTGCCCAACGGTAGAGGAAGAATGGTGCCTACCATAAGATG
1 AGTAGTGGTGGTAGTAATGGTAGCAATGATAGTAGTAGTGGTGGTGGTAGTAGTAGTAGTGATGGTGGTAGTAGTGGTAGTAGTAGTAGTGGTGGTGGTAGTAGTAGTGGTAGTAGTAGTAGTGGTGGTGGTGGTGGTGGTAGTAGTAATAGTAGTGGTGGTGGTGGTAGTAGTGGTGGTAGTAGTAGTGGTAGTAGTAGTAGTGGTAGTAGTAGTAGTGGTGGTGGTAGTAGTAGTGGTAGTAGTAGTGGTAGTAGTAGTAGTGGGGGGGTGGTAGTAGTAGTAGTAGCAGTAGCAGTAGCAGTACTGCTACTACTTTGAGGAT
0.2580425214412386 CCGGGGGCTGGATCCATCGCTGGCAGCCTTGACAAGGCTTCTTTTGTGCCTGGCTGGGCAACTCTGCCTGGGTCTGCTCAGATTGCAGACAGAACCTGGGTGACAGAGACAAAGCAGAGCCCAGTGGAAAGTGTCCTTATCGCCTGGGGTCTGATAAGGGCCCCGGGGAGGGGGCTGCCGGCCAGCTCCACAGATCTGAGTGCTGGAGGAGCTGGAAGGGCCGGCTGGGGCGGCTGCAGCAGACGCTTGCCCC
0.7631247368960568 CTAAAAGAAAGATTCATAATTTTCTAAGATTACACTAAGTCTCTGTGTTTGCCAAACATGACAGCATGATAGGGAGGGAATTAAGGCCCTTGTGCTATCATATCTCGCTGGGCAAGCACAAGGCAGGAGGTGTGCTAGAGGCTGCTCTTGCTGGGAACAGCCCAGCACGTAAAGTTAACCTTGAGATCAACACCGTCAGTGAGATGAGTTACAGGACTTCATGGCAGAGCATCACAGAAACTCAGGAACATATCAAAGCATTCGTCACTCTGGTGGCAGGAAATAAGATGAAAGAATTTAGAGAATTGCAATCACACATAATAGCGTTATCACTGGTGACTAGAATTTGAATTATGTGCACATAGACTTCTCCCCCAGTAGGTACTGCTCACAAGCACTTAAGGAAAAGGGGGTTCTGGATAAAATCAATTAGAGACCAGTTACATGAAGTTGGGCAAATGCTATAGAGTAT
0.2362397763542354 ACACCACAATGAGCCTCGGACACCCACAGTCTGAAGGGCCCGGAGTAAGCCTCAGACGCCCACAGTCTGGAGGGCCCGGCGCTGTGAACGAGCAGTCACAGGGAACAGCGTGCCCTTATCGCTGACACAGGCTCTGGAGGGCCCGGCGCTGTGAGTGAGCAGTCATAGGGAACAGTGCACCCTTATCGCTGACACAGGCGAGGGCTTCGTCTTCTCACAGCTCTTATCTTGGGTGTCACCCCAGCCAGAGTCAGGGCTGATGGCG
0.5553332290923549 CACATAAGCCACTGAATGGGAAGACAAAAGAGAATGAGGGGGAGGCAGCAACTCAGGAACAATGTTAACAAGCAGGTCAATGTTATGGCTAAACGTAGCTATGGCCACAATCATTTCTGGGTGTAAGATAAGTGGATACTTGTCTAGACATGTTGACTGAGAACATTTTAATCAGCTGACACAGGCATTTGTGCCTTCCGTCCATGGGCAAGAGCTGGCAGGGGATGCCCAGTGCCTGCATGACAGCC
0.6590925528034255 AACCTTCCTTTATTCAGAGCAGTTTTGAAAAACACTTTTTGTTGAATTTGCAAGTGGAGATTTCAAGCGATTTGACGCCAATCTTAGACATGGAAATATCTTCATATTAAAAGTATACAGTCATTCGTAGAAACTAGTTTGTGATGTGTGCCTTCAACTCACAGATTTTAACCTTTCTTTTCATAGAGCAGTTTGGAAACACTCTATTTGTAAAGTCTGCAAGTGGATATTT
0.5142761370689287 GCTTTCACCAATCCTTCCACCAAGTTAGGCCTTTACTACATCATCCTTAGGCAAATGGGTGATGAACTATCTTTTCTTTCCTTTACTCTGTCATCTACAGTGATGACAGAATTATCTTTCCAAGGAATTATTCTGGTAATATCATGACGGCCTGTAGAGCAGATTTCAAGCTTCTGAGCATGGCATGCAAGGCTGTTCATGATCTGGCTTTTGGTTACACGTCTAGTCTTCTTATCTACATTCCTTTCTTCACATGCGCTCTACTCCAGCCACACTGAACAGATAACTAAATCCTTTTCCCTCTAACACTCTTACACCTTAATGAAAAATCAAGTTTCTTCCTACCTAGAATGTCTGCCACCATCGACCTTCAGACCTGGCCTGTGTCAGTCTTTGGACTGTTTGCTGTCAGGTCCATTTCCTCCACTTCCCCTGTTCTGCTCTGCTCTGCTCTGCTGTGTGTTGAGGCAGGACAGGAAACATGATACTGATTGCTGCAGCTTGCATTTCTCAGGTTCCCAAATCAGCTGACATTTGGGCTAGGTTCTGCCCCTGGGAGGCGCAGGCA
0.5259160198929138 TGCCTCCCTGGCTCCTGGCAGACCCTAGATGTACCTCGAAAATGTACTGATGTGTGAATGAATGAGCGGATGATGTGTTCCAGGCGTCTCACCAGCCTTCCTTTATCTGCACACTCTTCACTTTGCTAGGGTCCCTCTCAAAAACACAACCGGATCAGGAGTAGGGGGAGGGAGGAGAAGGGAGCTGCTGTAAAGCAACACACTGCTGTCAACATTTTTAAATGCGCATAACCCAAGAGAACATGCACAGTATATTTTGCGAAGTCAACTGGAAAGTGTCAGGGCCACACCTTACTGTAGTTGAAATTCAATGGCATTGAGCTCTTGATATTATAGATAGTAATTTTCTAGAGTACACACAATGGTGTGTGAACATATGACTGGGCTGGAATCTATCAAAGTACTTGCATGGACTATTACAGATCATTGATGCATTACAGTAA
0.990821488251218 TTACCGGGAGGTGTCTGTGCATCTCACTCCATCACTAGCCATTTGACACAACATAAAAAGCTTCAAAAGCCATGTTAGGCCTCTTAATCAAAAACTAATTGTAATAGATATTGGGGAGTGTTAACACGGTGACCGCTAGCTTGTAGCGGTGGTATGGAAGCTGCAGTGAACATTAAACACAACCCCGGGTTGATAGGGCTTATCTCCATTTCAGAGCTGAGTGCTAAGTACTACAGGCCAGTATCTCCTTGCTATGGCTTTGTACCACTTTTGGAGTTAATTGCCCCAGAAGGCTTCATCTTCTTAATGAAATTTATAACATTGTCAGAGAACTTGGAAGATACTGCTGCGGTTTAGCAGACTTTACAGAAAACAGAGACATAAACAGAAG
0.7773500639262056 TTGTGATTTGTCCTTATAGTTGAGCCTTCAACCCTGTGACACTATAAATAAACTGCTCCTGGAGCTGCGGAAATTGCCCATTATCTCCAAGAGCATGTTCTGATAAGAGTCCATCAACATGAAGCCAAAACTCATTCAGAGCATCAAGAGAGGAAAGTTTCTAGTGATGGTTTGGTCATGGTCTCTTTCAGGATGATTGCATGGCAGAGGAAGGAATAAAACTGTGAAAGAAT
0.3382466825921429 TTAGAGCTAGGAAAATGAGGGCCCACAGGGGTTAATAGTTTGCCCAAGGCTGTATGCGAGTCCATGGCAGAGCTGGGGTGGTCTGACCATTGCCTTATCTGGCCTGGGGGCCGCCTTTCAGCCTGGAACAGGCAGTACTGATAACAGCTGACTTTCCAGCGGTCTTATCACTTTGTAAAGTGCTTCCACACACTGCGACCTCCCTTTGCTCTCACAGTGACAGGCCCAGGGAGTGGGGTGTAGTTGTCACTCCCTTTGTGTGCACATGAAGCTGAGACCCAGCCCAGCTT
0.3482295627589681 GCAGGGGAAACCCAGCTGGGCCGAAGCCAGGGGCTGTGTATTTCAGGAGGAGGTGACAGAGCGGCAGCAGCACCAACTCAACTGTCAGTATCTGTGGGGCCAGCTAAGAGAAGGCAGCTATCTGGGATTACAAAACTCAAGGAGTCTATCTCTTCCCTCTTATCAGACTGACCTTTGGCAGCCTTGCAGCCTGTGAACAAACTGCCATTAACAACCCCTCCCCCGCTTCCTGTAAGCACAATTCTTTGTGACCAGCCCAGGACAGCCAGAGGCTGCCAGAAAGCCTGCCCCTTCCTCCCTGCTAGG
0.139090383002149 CTGCCAGTAGCATATGCTTGTCTCAAAGATTAAGCCATGCATGTCTAAGTACGCACGGCCGGTACAGTGAAACTGCGAATGGCTCATTAAATCAGTTATGGTTCCTTTGGTCGCTCGCTCCTCTCCTACTTGGATAACTGTGGTAATTCTAGAGCTAATACATGCCGACGGGCGCTGACCCCCTTCGCGGGGGGGATGCGTGCATTTATCAGATCAAAACCAACCCGGTCAGCCCCTCTCCGGCCCCGGCCGGGGGGCGGGCGCCGGCGGCTTTGGTGACTCTAGATAACCTCGGGCTGATCGCACGCCCCCCGTGGCGGCGACGACCCATTCGAACGTCTGCCCTATCAACTTTCGATGGTAGTCGCCGTGCCTACCATGGTGACCACGGGTGACGGGGAATCAGGGTTCGATTCCGGAGAGGGAGCCTGAGAAACGGCTACCACATCCAAGGAAGGCAGCAGGCGCGCAAATTACCCACTCCCGACCCGGGGAGGTAGTGACGAAAAATAACAATACAGGACTCTTTCGAG
0.7057905581598196 ATTTTAGAACTTTTTTCATTGAATTTAATCATTTCTGATATATTTGGGCTTATGCCTACCATTTTACTATTTGTTTTCCATTTGTCCACTATGTTCTGTACCATTTTTTCTCCTTTTTGCCTTCTTTAGGATTTTCAAGTATTTCTTATGACCATTTTGATAGACAGATAGATGATAGATAGATAGATTAGATAGATAGATAGATAGATAGATAGATAGATAGATAGATGATAGATAAATAGATAGATGCATGGATGGATGGATGGATGGGATAGATAGATAGGTAGATAGATGATAGATAGATAGATAGATAGATAGATAGATAGATAGATAATGGAAGGATGAGAGAGAGATGCACGGATGGATGGGATAGATAGATAGATGCATAGATGGATGAGTGGATGGGTGGATGGATGGATGAGATGGATGACTAGATAGATGAATGGATGAGATAGATGATAGATAGATAGATAGATAGATAAAGAGAGAGATAGATAAGACAGATAGGATAGATGGCTAGATAGATGAATGGACGAGGTAGATGATAGATAGATAGGATAGATGGCTAGATAGATGAATGGATGAGATAGATGACAGATTAGATAGATAGATGATAGATAGATAGATAGATAGATAGATAGATAGATAGATAAGTAGATGAATGAGATAGATGGCTAGATAGATAGATGAATGGATGAGATAAATGATAGATAGATAGATAGATAGATAGACAGATGATAGATGATAGATAGATAGATAGATGATAGATGATAGATAGATAGATAGATAAGTAGATGAATGAGATAGATGGCTAGATAGATAGATGAATGGATGAGATAAATGATAGATAGATAGATAGATAGATGACAGATGATAGATGATAGATAGATAGATAGATAGATAGGTAAGTAGATGAATGAGATAGATGGCTAGATAGATGAATGGATGAGATAAATGATAGATAGATAGATAGACAGATGATGATAGATAGATAGATAAGTAAGATGGATGAGATAGATGGCTAGATAGATAGATGAATGGATGAGATAAATGATAGATAGATAGATAGATAGATAGACAGATGATAGATGATAGATAGATAGATAGATAGGTAAGTAGATGGATGAGATAGATG
0.9280678694677225 CTTTAGTTCTGTTCCTGCTGCCATTTCTATTTTCTGCTCTAGAGGCCTAAGACTTGATCTGTTTATCTTTGTTCATTGTAGTTCATTTAGTTGCCAAACTTTTATTAAGTGCCTCTGTCAGTTAGTGTTGTAAACCTCAAGGACACCTTGTTAACAAGTGATTTAAGATTACTACCTGAAGTGGTTTTTATCTGTTGTTAGTGGGGTAATACCAAATGGAATTAAAATTCAGAGAAACTGCCAACTTATCTTTTAAGGAAATGGTTTAAACCTTTTCTTAACCTGGAATAAGTGTAGTTGATACTACTATTAATAGCAAGTGGT
0.4948814772898419 AGCATAATACATCTCTTTGAACAGCACTGAAATGAATTGAACCAGATGAACTCCGCCTTGTTGTTAGTAGGTCATTTCATGCTTAACAACCCGCAACACATTCAATCCACATCAACTCAACACCTTTTTCACAAAGGACTTTAAAGCTGAAATGGTTTCCAGTGGGAGATAAGCAACTATGCGCCCTGCAGGGAAGTAGTCTTGTTAGTGGCTATCAGCTGTCACTCACTCAACTCCATTCAGAAAAGGCTGATTGATGTAGCTCTGGGGAAGGAAGATAAGGTGAATATGAGTCGATTTATTATTTTTAGCTATGTGTCTAGTTTAAAAGAATTTCATGTGAC
0.6970957163941029 ACTTAATGTAGTAATTTAATGTTTGCAGTATGCAAGGGAATGTATTACGTACTGGAAGGAGAGAGGAGACAAACACCAGACCCTGTACTCAAGGAGTACTGGTAGTATCATTTATCATACAAGACAGATAAGATAAGGTCCATATGAGAGCTATAAACAGATGCTGTGAGTTCAGACTAAGGAGAATCAGTTCTTGCTGTAGGTAAGGGGAATGCTGTGTTTATAAAGCAAATGACATGGCAACTGGATCTTGAAGGATGAGTTAGGTGAGTAAATTTCATCTGAAGGAGTTGGGAAATATC
0.9874344707502402 ACTCACCCATTTGTAGAGAGCAAGAACAAGCTTCTAAGGGTAGACGGGATAGTGATCATCTGTAGCATTACGATTAAAATTATCACTGGTCATGGCATATGATGGAGTGCAGGTGGAAGAAAAAGAAGTGTTGAGACCTGAAGTGGCTCTGGCACTTTGTCACTATAAGAGCAATGGTGATTATGAAAACCCTGGGATACGCTAACCGCTTCTGACTGCTCTAGAGAGAACACACACAGAGAAGGACAAAATGAAAACAGTGAATTC
0.2663495167431271 CATACATCCTTGTTTTATGTGTGTTACTGTTTAAAAACTCTCATTCTCTCTCTCACACACGTGCACACACACACACACACACAGAGACAGAGAGAGAGAGAGAGAGAAAGAGAGATTAACATTGCACTTACAGCCAGTGGCACTCAACCAACACTCTAACTCGTCTGAGTGAAGCTTATCTGACATGCATATTTTCTTATAAGGCTCATCACTGCCTTCTGCTTAGGGACATTAGACAGCAGTTCAGCACTACAGCTGGGGGCCATTTTAAACAGTGAAATCACCAAGGAAAAGCACAAAAATGCAAAAGAATTTATATATGGCA
1 ACGTAATCTCATATTTTTACATCTTGTTTTTTTTTTTTATGAATTGGTTGTAGAGGGTGTTCTAGCCCTGGGATATCTGGAGAACAATTATAATGACTTTTTTTCTTTTACAATTTCTAATTATTTTTAGGTGGCTTTCATTTATCTAGTGCTCTCCTTTTCACTGGAGCACTTATCATGTGTCCTATTAACACTGGTACTTGTTATCAGCTGGCTTTCAGATAATCCTGCTTAAGTGACTGGTTGATGACAGCTTTTAAGATACTGCCTCTCCAAGTTATATTTCTATTCATGGAGGATTCTAGAAGAACAAAAAGCCTTGACATGAGGCTTTCTAATAAAGGCACTCATGTGGGGCATCATGCAGTATG
0.8370849746929631 CTGAGCACAGGAACAAATGGACTCAAGGCCCATAACTCCTCTCCATCAATCTTTTCTTCTGGATTGTGCAAGACTCTGGCGATTGCATACAGCGGCTCCTGGCAGCCTCGAGTGATGGACAGGGGTAGCGATAAGAGGCACATTTCTGGGAAGAAAGAATGTGCTTGGCCTGGCAGGATGAGGTCGAGGGAGTTGACAGGGAGCCCAGATATAAAACAGACCCTACACACAGAGATATGTGGACAAGGCTCTCCAGTATCCTAGTTGGGATGGGAGGCAAAGATTGGCCAAACTATCTCCAAGAGAGGGCAATTTGGAAGGGGCAGGAGTTGTAGCAATGTTTCTTCTAACTATTTTAAAAATTGTATTTTCAGCTG
0.559790576590128 GCAGTCCCTAAAAGTCACTTCTGGTGCTGGCCCTGGCTCATCCGTGCCCTGGGGGAGAAATGCAAGTGTCAGAGCTGCGGAAAGGAGCTGAGATCTAGCAGGGCTCGCCCTTATCAACCTCCGCCTCTAACAAGGGCCACACAGCACGTAGGGGAGATTAGGCCGATCTGCCTGCCTCATCGCGGGAGGCCAGGAGGGTGGAAGGCAGCGGATCGCGCCCTAGCGAGCAACCCACATGCTCTGGAAGTGTGGTTCAACTTTCACCAGGCTACTGCGGGCGGCCGGCCAGCTGTCAGCGGGCACTCCGCCCCCAGGAGCTGTCCGCAAGCGCGGGGCGGTGGGCACCGCGGGGAACAGCCC
0.2998642848933533 ACTCCACTGCCTGCCTTGGAGGAAGGAAGGGCAAAGGTTGTCAAAACCCCGCCTCGCGCTGCTGGCCTGCCAGCCTTTTCATCACCTCTGCTATCACAAAGTACTGGTGTGAATAAGTGTCACTTGAATAATACTGTAATCTTATCAGCATGCTGAAAGATATAAACGGAAACAGCCCTTTTCTCTCCTGCCTTCTCAGCTGACAAGCCGACCAAAGCCAAGGTTAATTCGTTGTTGAGAATTTCTCTGCCCTCTACCACAAATCTTTTATCTGGCATGTTTGTTCATCTTTCCTCTAATAGAGGTTCACACTTGCAGAGGAAGAAGGTGGGCCCAGAAATGAAACTCTGGGAGTGTGTTCTTGTCCAGCACGGA
0.6742845122490864 AGACCAATTCTAGCTGAACGGAGCTGCAGCTGTTCTGTCAGCCCCTTCCCTGGGTTCCACGTGACTCTCCCAGGCCCTCTAGCAGAGCTCTCCCTTGGTTATCAGCAGTAATAGAGAGCTTCTTTATGCACTTGAGATAACTGGGAACACAACTACATCAGTGACCTCTAAATTCGCCATCCCTGTCTACTGTCAAGTACAATTACCTTGTTCCATCCTAAAGGAAAAAAATGATTTACCCTTTCCCCAGTGATAACGTTCTTTTAAGT
0.6123428530765698 CTCAAGCAATCCTCCCACTTAAGCAATCTTCCCACTTTGGCCTCCCAAAGTGCTGAGATTACAGACATGAGTCACCACCCCATCGTTCCTTTGTTGCTTCCTGTCCTACTTACTATTGCCTTATCAGTTTATCTGTCTCTGCCCCTGCCCCTGTCCTTAGACAGAGGCATCCTAGCACAGGTGCCTCATGGTTTTCCCCTCTGGGTGACCCTGGAGCAAGACCAACCTCTTAAGAGGGGAGGGGAGGGAATGTGAATAAGTAAATAAATAAGCAGATGAATGAGGGACTCTTCTCAGCATCTTTGGTGACCCTGTCTGACTATCACTGGCTGTAGAATGTGTGACAACTGAGTCTACCAGGCAACGGCTGTTTGCCGGGAGCAGCAGGACCCAGCCAGAAGACATAATGGAAGCAGGCCCTGGCCAGAGCAGGGACCTCAGAGCCTTTCCCGGCAGAGGGAACGCAATCAAAGCTGGCGCTGCTTCCGGGAGGAGAGAATTCCCAAAAGGCTCTGTCAGCCCCTCTGATAGGGATCTGCAGGGTGTGTGAGAGATTTGTTTTTCAGCCAGGATGTGGGGAGTTAAAAATAGACACCCTAATCCCTTGAGTTCGTGTCACACTTGACGCTGTGCAGAGCCCTATGGCTCCATTATCTCACTTGAGTGGCTCGGCAGCCTTTGACGTGGGGAGAGGTTGCACTGCCCGCTTTATAAATGAGCGTGTG
0.2953808717189322 TATATACACTTACATATACACACATATAATTAAAAACTTAGGCACATGTTATAAATGAATAAGATAGTTTACTGAAAGGCTACTATATACCAGGCACTGTGATAAGTGCTTTATAGATATCATATCCTACAAGTCTCAACAACTCTTAAGAGGTAGGCATTTATGATTATCACCACCTAACAGATAAGAAGCTAAGAGTCATAGAAGAGAAGGAAATTGCCCAAGCTGCATACCTAACAAGTGATGGAGGTAAGATTCCTTTCCAGGCAGTCTAATTTCAGTGGCTGTGAGCTTAACCAGTGGCTCTACTGCCCTTCTCTCAGTGTGAATGCATTTTAGATAA
0.3844774992436533 GGGCATGGTCCTTGGCTTTCCACATCCTCCAGCTGGAGGTGATGAGAGCTTCACTGCATGTAACTGAAGAGTCCCTGTGGCTTGCATTCCTGGCTTTCAGTTGCCTGTTGTTCATCTTCAGCTGTGCATTATCTTTTTGGAGAGGATCAATGACACTTAGCAATAGCCATCCAATCCCACTCTCTTAATGTCTGCACCTTCTTAAGTGTCAAGCGTCCTGTAGATTTCTCTCACTAGTTCGTTCCCTTCTACTAACACACCATCCCAATTCGCAACTAATGAAAGTGTTAACAACAGGACCACCACCTGGTGCAGGGGCTGTCAGTACTCCACCTATCACCAGAAAAACAGGCCCTAATTGCCAGGCAGGTGGTGAGTGATTCAACTTCAAACTCTGTCTTATCTCCACCAGCTTTCTCAGCCCCCCTCTCACTGCCAAGTGTTGCAAGGCTGGCTGTCTAGAAGCAGTCACTGACACAGAGTTTGGGGAGCACAATACTTATTAGAGATTAATA
0.2636176609118272 TCATCCCTGAAGCAGGGAGTTGCAGAGCAAGAGCTTGAGAGTCAGGTCTACGTTTACACACGTCCCAGCTGGGCCACTTATTAGTCATATCCTCTCAGGCAAGTCCCCTACATTTTAACCTCAGTTTCCTTATCTGTAAGTGGGGATGATGACAGCACTTATCTCACAGGGCTGCTGTGAGGATCCAATTGACATAACATATGTGGAGTGCTTGGCAGAATGCCAGGTCCCCGGAACACTCTCCAATAAAGGTTAGCTTAGTTATCACTGCTGTTCTTACATTCGTCGCCAAAGGAAACTTCCCCATTCCTATGTCTGATGCATGGCCAATTGCATAATACTAATACACTCCCAAGGCAGAATGG
0.5399916045157739 CTGCTTTCAGCGGAGCATTAGCCCTAATAGGTTTGGCAGGATTTTAAAATAATCAAAACAAAGCAGGTTAGAAGGTTTGATGGGGGAGGTATGTGGTGACTGCTTGAGCTCAGATCACATGGTATGTCCAGCAGCCTGGCCCAGAACAGCTCCAAGGCCTGATGCCAAGGGTCTGGGCTGAACAGAAATCTGAAGTGGCTTTATCAGAGAAATTAGTGTGTGATTAGAGCTGAGAAGAGTCACGAGTCTTAACTTCTGTTTAGCACTCCAAGAATAAGGTGTCCCGTGTGGTGCCAAATTACTCCCTCTGGGCAGTCTAAAGCATGAGTGGGATGCTTATCCAGGGAGC
0.5070375023167726 TCCTGAGATATAAACAACTGTGTTCAAGTCTACACTAAACAGTGCCAGACAGCTACTCTTTTTCACTTCCTGCATTTCTTTCTGTCTTCTGTCAGCTGTCACTTCTTAGGTTATCAGTTTGTTTTGTCCCACTTCCAAGTCACTGCTTCTAATCTACTGTCAGCTCTAGGAAAACCAGATAACTGAGCAAATGGGAACTGTGTGCAAGTTACAGAAGAGCCTAGAGGGTTTTATGGGTTTTGCTATATATATCTTGATTTCTCAGAAGCTGTTTCTGCTCTTATCTTCATTCTTGTCTACAATACACATGGCTATAACTGCAGGACATGCAAGTTCTGAATAGGTGATATATTTCTGTATCATGTCCAGACTGAGGAAAACAATAAGCTCTTACAGTTGTGTGCTGTTCATACCATGTCTGGAATACTGTTTTCAGTTCAGATCAACAATTACAACAC
0.8465511413202725 TTGAGTTGTAGAAATCACTATTTTTTTTTTTTTTTGCAAGAGCAAAGCAGATGGTTGTTGATATCAGGGTATTGAAACCCAGTGGCTGTTATATGTCAGAGTAACTTACAGTGAATGCCAACAATCTTCTTTTCCTAATTGCTGCTGCTCAACATGATGGCATTGTTCAGTCTGGAATCCCTCTCCACTCCCTCTCCAGGGATAAGCAGCTGACAGCTCTAAGGGGGCAGGATGGATTCCCATCAGATAGCAAGGTGGAGTAGTTATGTGTGCTGGTGGGGGAAATGCACTCTCTGCTTTGTATTTGGGTCTTGTTTTGGGGACTGGTAACTTCTTCCTGTTTTGATAAA
0.6965115033335373 TGGACTCGAATGGAAAGGAAACGAGTAGAATGGAATGGAATGGAATGGCTTGAAATGGATAAGAAATGAAAAGAATGTAATGGAATCGGATGGAATGGAATTGAATGTATTGGAGTCGAGTAGAACAGAATTGAATGGAATGGCATCAAATGGAATGGAAACGAAAGGAATGGAATTGAATGGACTCAAATGTTATGGAATCAAAGGGAATGGACTCAAATAGAATGGACTCAAAAGAAATGGCTTTGAATGGAACTTATTCGAATATAATTTAATCGAATGGAATGCAATAGTATGGAATGGAATCGAATAGATTGGAAAGAAATCGAATGGAACGGAATAGAATAGACTCGAATGTAATGGATTGCTATGTAATTGATTCGAATGGAATGGAATCGAATGGAATGCAATCCAATGGAATGGAATGCAATGCAATGGAATGGAATCGAATGGAATGCAGTGGAAGGGAATG
0.5880951086138216 ATAAGAATTTCATGCTGTTGTTGGCAGAGCATTAAACACGGCGTGGGCTCTTCTAAGTATGATGTCCTGAACAACGAACTGCACAGGTCACATGCCCTTGAAGCTGATCTGTAGAAAGCTTTATCTGGTGGAGGCAACCGGGAGTGCAAGTGGGAAGAATGCAGAGGTAGCTAGTGTGGTCTGGTAATGAGTGACTGGTTCAAAGTGTAGACAAGTCACAAGCTGCTGCTGTGACTGAGTTGAAGTGTTATTAAAGATAGAAGAGTGTAGACGTGAAAGATGAAGAGAAGAAAGAAATAAGATTAACAATGTGACTTTATACTTTATCTGCCAACATTCAGTCATGAGTCATGCCCAGAAGCTGTGAGTGTCAATTCTTATTTATTAACATCTCTTTCTTTTAATCAAAATTGATAACAGCCACAATTGTTGAGCTCACTCAGCAATAAGAGCTTCCCTAAATACTAGTAGGTGTACTGCATGAATGATGGTGTGAAAAAGCGTTAGAGACTCCAAAGCAAAACAAAACATCATGGATATCTGAAGGTTTCTCTGGCTTTCAATTAAGCATATTTCACTTCTAGTTTAGCCTAATAATTG
0.836603333048431 TTTATAAGATGATGCCCAAATTTAGACATTGAGGCACTGCTGGCAGAAACGTCCCCAAAGGCTGATGGCTTGTGTGTGCGTTTGAAGTCAAGTCATTCACAGAGCTAATTTGAGGCTCTCCTCGGAAACTATATTTGCTTTCTGAGTGCATGGTGAGTTTTCATTTGGGCCCTGACCAGCTGACAGCTATGCAAGTTTGTAGATACCAGTAATTGAATATAGATAACCTTGATGGTTGACCTCGTCAGAGCCAGGCCTGCCTGTTCCCCATTGTTTCTGGTTTTGCCAGTAGATACTAAACTGCTGCTGGATGAATTTATATATTAAGAATTCGCTGCAG
0.6504940892408512 TACCTCACAGGTCTTTAGCCAGCATTATTATCAGAACACTATGTTTGGTCCACCAGCATGGACAATTATATATCACAACAGCCCAGAAGACCCAAAGTCCCTCAAAGGAAGTGTAACAGGGCACTCATGATTGTGTCATACATTTTTCCTATCACATACTGAACCATTCAGCTACAAGAGTGTTGAAATAACTAATCAAAGATACAGAAAAAACATATCTTTGAAAGGTGTTTCAACACTCTAGTAGATAAAATGTATCTTTGATAGGCTATTTCAAGCTACTAGAGTGTTGAAATAACCTCTACTAGAGTTTCCTAGCTACTAGAGTGTTGAAATAACCTATCAAAGATACAGATAAAATGTCAAGTTACTGGCAATATAAGTTTGGGGAGTCATTTTCCAGGATTCACTATGTACAC
1 CTCTATACCACTTCCCTCTTCCAATGGCTGTTCATTTTTTTCTGCTCCCCTTCATAACAAAATTCCTTGACGTTGCTGTCCCTACAGTTTATCTCTGTGTTCTCTCCACCCAGCCTCTTGAAGCATTACAAAGAGGCTTTCACCCGCATTGCTCTATTGAAACTTATCTTGCTAAGGTTGCCAAAGGCTTCAACATTACAAAACCCTAGAGTCAACTCTTAATTGTCATCATACCTCTCTGTTGGCAGCATTTAGTTGATCTGCATTCCTTCTTGGCTTTCCTCAACATCTGAGTTGTCTGCCTATTGAAATCACTCTTTCTCTGTTCCTTTGCTCATTATTCCTTATCATCCAACCTAAAAGTGTTGGAGGACTCAGGATATACCTTTTGGAACTCCTCTCCCTTAGTGACTTCATTTAGTCTTATGGTCATCTAAATAATTACAACTCCCAAAGATATATACAGTCTGGAATGTTCCCCTGAACCTCAAATTCATGTAATCAACTGCCTAGTCAACAGCCTCTTATATTAGAGGTCTGCAGACATTCCAAAATTGATATTGCCAAGGAGAACTTCTAATCTTCCTCACCATTGCCCAAACCTATTCCTCTCCATATTGGAAAATGGCATGTTGTCCCAGTTACTCAGATAAGTATACATAAAAAAAGAAAAACCCCGAGAAACATACAAAAAATTCCCTAAAA
0.3233449335730813 ATCAAATTCTGCTACCTGAGTGGCACATTGCCTAATGCACTGAAAGCAAAATAGAAACCCCTAATCAAGAAGTCAGCATGTTGTTTAGGACAAGGGTAGATCAAGTATAGTGTCAACATGGCTACAAAGTCAAACCAAGCAAAAATATTGAGTGCTGACAACACTCATTTGTTTCTTATCTTTCTTTCTGATTAGCAGACTTGGACAAGGTGGCATAACAAGGTCCATGAACAGTATGTGTGTGTTTAACTACTTGTCATTTAAAATTTAGATTAGATAAGACCTCCAATAAGCCTTCACTGATTGCCACTCCCACCTCCTATTCATCTTTGCTCCTTGGCAATCCCATACACACTTATAATGATCAAATACCCTGACTGACTAAGATTTCTTTCTG
0.4819355909890851 ACCATGCCTGGCTGATTAGCTTTTTGGTCTCCAAGGATTAGTCTCTGAGGCTCCATTTCTTCAGCTGCAAAATGGAGATAATAATAGACCCTCTCACCACATCACTTATGAGTTGAGACACTCCATGCCCATATCAGCCCATTGTGAGCCCGTTGTGTTTTCCTGTATATCACTTGCACTAAAATTAGATAAGGGTGCTGATTTTGGAGCTCTTGGACTCCCGTGAATTAATTGGCAGTCAGTGAAGGTCTGCTGTTTCCTAGCACTCTGCTCTGGGTACTGTGGCTTGTATTTAGGAATTTCTGTCCACTTGAGATACATCCATGAAATGTACATTATATTATGTGCCTTATATAGTGAGTGTTGAATTCTGTAGTCACTAAGCATACTTAAGATAAAGATGGG
0.3511579986957507 GCCGAAGGAGATCTTAGCTACCAATGAAGACCAAAGAGTCCGGGTCGAAGGCCTCTTCTCAGTGTTCTTCCCCTTGTGATGTCCTCAGCATCTGACACAGGGCCTGGCATGTTCACTATCTGATAAGCCCCTGTTGCGTGAAGTCCTTGAATGCCGATAGCGTTCCCTGAGGTTGGCCTTGTCCTGTCTTCCTGTAGATGGCTCTGGAATTTTTGACGCGCAGGAGGTGGGGCCTCTGAACTTTGCTGCCTGAGCACTTGAGCCAAGAGAGTGTTAGTTGACATTAGGCACATAGACTGCTTTTGCTTT
0.8469470394542735 CTCATATCGTCCCCTAAATGAACTTCTAAAAATGCTATCAAGCTACTACAGAAGCTGATGAAAGGAGAAAGTACACCGCCTGTTACAACAAGCTTCCCTAGAAGCACAAGCCCAGCCCTCTGACACAGGCTTTCAAAGGTTGCCAAGGTCTTCAGACACACGTTTTATCAGACACCTATTTACTCTGTGACCCTCTAGAGTGCCAGTCAAGTGCTGGTGGGTTGTAAGATACACAGTTTTATCACCACTTCCTAACGTGAAGAGAACCAGAACCAGAACACAGGAGGGGAAGAGAAGGAAGAAGACTGGAAGGGTGAAGAGCAATTTTTCCAAATCAGTCTAAGGGAGAATTGGGCCATAGCATTTTTTTTTTCACATGAAAACATGATGAAAAAGAAGAAAAAAGGCCCACACGATTTGTTTTATGGACTTTCAGAAGAAACTGCCTCAATGCTCTGCATCCCAGGAGCTGTTAAACTCTCTCTTACTTCCAGGCCTCCCAGTGACTCCCTGCAGAGAAGGGCATTACTGAGATTGCAGCTGATTGCGGCTGAGCTGCTGCAGTCAGGCTGCACTCAGTTTGATAGTCCCAAGAGAAATGGAGCGTAGGACATTTAGGTTTCAGCATCACCAAGGCGTTTTCAACAGAGGCGAGTTCCTGATTATGAGGGAATGTGGCAGGTT
0.2145675127224342 GCTTTCCTAGCTGGTTTTGTCTACAGTCACACCCCTCTGTGCTTGCCCCATCACACTGCTGACAAAGCCCTTGATTCTGAGTGATGGCACTCCACGGTTCCCTCCATCACAGGTTGGAAGATAAGGCCTGACTTATAGATAATGGCACTTGTTTTGCTCTCTCTGAAGCCTGTTCAGTCCACATGGCCCAGTGCTCTGGGGGTTACATTGCTGGCAGTCCTTGCATTCCCTGCACATTCCCCTACAGTGGACTCAGGAGTAAGAATGGCACATGGAATGCAGGCAGACACTTGGTCCTATTCTCCCG
0.8666711294886185 AGGCAGGTGTCTTTGTTCCTCTCCCACCATGGACAGCTGGGCTGTTCCTTCTCTTCTGGGTGCTCTCAACACCTTACTATCAGCTATCACCCAGCAGATAAGAATAAAGTAGCCAAGGAGCAATAGGGGTTTTGTTTTTCACTGTTTTTGAGATTGTAGAAATTGATAGCGCACTGCACTCTCATCTTGAGATCTGTGGGCTGAGCTCCCAGGGTTCTTAACATGGGCCAAGTTAGTCTGGATGCAACCTTTTGTTATTGTCTAAGTCACTGGCAGATTTAAAAATCACAGCGGTTCACAGCCAGATGACCAGCCTAGGGATGAAGGCGGGGCAGGGGGCGGTCAGTATCTCCACTCACATGTCATCTAGTCACGATGCAGAGGTTGAAACACTGAGTTAAAGGAAGCTTATCTTCATATGAAGAATTAGAGGCCACACCTCCCTAAGCTAAATTTAGAAGTGTTAGTATGTGAACAGGAGGTATACAGTATCTCAGGTTTCCTGGGGCACCAGCCAGATAAGACATTCCAGATAATTCTCTTCCATGCCTAACTTGTACCTCACCAGTCAGGCCAGAGGAGGCACTGCAGAAGGAGCTGTCCTCTTGTGTGGCTCTGTCCTTCTTTTCAAGTTTGAGGGGGTTGTGGACCATGTGAGGCTGGACGGCTC
0.8927680957982627 CACACCTCTGGATATCCTTCCTCCAGTCCACCTGTTTTTATACTCCTGTGCTCTCCTGCCTTTTCAAATGCCACACTTGTTCCACAGCCTTATCTGCCTCTCCCTCACCACCTTCAACCTTTCCCTATCTCGTGGCTCCTTTCCAGCAACAATTGAACATGCTCAAGCATGTTTAAATGTTTTCCTCTCTTGACTTTTGCTTCACTGCCAGATTTCTTTAAAGGGGTTTCTGTATTTGCTGACTCCATAGGTTCACTCG
0.9015405115158965 CCACTCAGCTCGCTCTCTCCACTCGGACTAATTCGCCTCCTCCGCCCCCAGCGCCTCATAAACACCTCCCTCCGCCAGATCCCTCCGCCGCATCCAGATAACGGAACATCGCAAACGAGTCCCGGCCAACCCCCTCCCCTCAAACTCTTCTCGGGACCCCTTTCTTCACAGTTATTTGGTCGATGAGGCAAGAGATCAAGGAAAGTGGGCGAACGGATGACGTAAGTGGGTTTCATTTCCAGCGAGCCGTTAAAAGGCCGGTGGAGCGGCCCCTGAGGGGCGCTACTTTGCGGCGCGGAGGAGCATCGTGGCGGCGATGCGTCCCCCGTTGGTCGTTGAGCCTGCCTCTGATTGGCTGGTTTGTACC
0.3000513687740096 CTCCCACTGAGGACTGAGGACCTGAGGCTCACGCTTCATCCCCAGCGCCGGCTCCCTGAGGAGGCCCCTCTGCACTCTGTCCCTCCTCAGGGGACAGGAGGGGGAGGGTGCAGATAAGGCACCGGGCCCCGGGTTATCTGGCTTGACCTTTGGAGAAGCCGAGAGGGGAGTGTTGTCACCCAGAGGAGATAGAGGGTCGCCTGGTGGGAGCAGCTTCCAGCCTTCCTGAGTGGTCAGGGGCAGGGCCCTGCGAAGACAGCCTGGACTGGGGCACTGGCCTGGCCTGTCAGCGCCATCCCTGCGCGGCTCCCAGACACCCAGCTGTGCCGGCCTGGGGCATGCATGAGCGCT
1 GGGGCGTGGCCACCCCTTTATTGCCTTATTTTTTAATGTATATCATTCTCTATTTACACATTGATAATTTTTTCCTACAGGGTAAAAAAAAAATGCACCAGATGCAGCACTTTTGTGTAAGTATAGACACATCAGGGCTCTTTGTTAAGGATAAGAAACAATCGCTTCCACTTCAGGCTCTAATGTTATCATAGCCAACTGCCAGAGCCGCTCTGTAATTACGTCTCCTGAGTGGAAAGCTCTCAAAATGCCACTTGGTCTAAGAGTTTGAAGCTGGGCTTGCCTCTCCACTTTGGCCAAGATGACTAAAGCATCACATATTTTTAAAGC
0.2681443328810372 AGAGAGGAAACCCAAACAGGCCATGAGAGAAGCTCAGGCCAAGCTGGATTCTGAATTCCCATGTCCTTTAGCAAAGTCTGGGTCTCTCAAGAGCTAAAGGATTAAGATAAAGGCCTCTGCTACTCATGATTACCAAGGACCGTGTTCTGTGTGGTTTGTTCCTCTTATCTGCAGTCCTGACAACAGCTTGGGTACATGAGACCTGTCTGCACAGCTGCTGACATCTCCCCAGGGTACACACTGCTGACGTCCAATGCTTTAACGAGACACAGGCTTTCCTGCCAGCCTGGATATCCTTCAAACATGGCAGCCCCCAG
0.9504494304947995 TGGGATTACAGGCGTGAGCCACCGCACCCAGCCAGAGCTGAGTCGTCTTATCACTTAAAATGGTGTTGACGTGATACTGAGACTGAACACCCTGGAATGTGAAACATGGGAAAAGAAAGGGGGAAAAACACAGAGGCTCCTCTATCTTAAGGGCCTCCAGCCACTTGAAAACACAGTTAAGATTATAAGGTTTGAAGAATGGATATGTGTTCTTGAAATGTTTGTGAAAGGCACCAGGTGCTAGCTGGCAAAGTAGAACAACTACAGGGATTCTG
0.681649430040437 CAGCTGGGAAGAGGGGTTTTCCCGAGGAACAGTAACTTCCCTCTACATCCAGGAAAGCCTCATGGTGTGGATGGGCGTCCAACAAGCAGGCTGTTCTGGCCCTCTTTGGGTGCTGACTCTGTGTTCCCAAGGGCCATTGATAAGCTAAGCAGGAATAGTGTAACCACAGGAATGCCTGCTGATAACAGGAAAGTAGGCGGCTGCATTCCTGAGCCATGGCTGATGCTGCTCCATCCACTGCCAAGGTGTAGAAAAAAGAGACAAAGTAGTAAATTCTAAAGATTTGTCAGTCTGGGTTGGCAGCTCTTAGAGAATGGATATGTGGCAAATATGTCTCTCCCTCTGTGTGTGTGTATGTTTGTGTGTGTG
0.3654382926811799 GCGAATGGCTCATTAAATCAGTTATGGTTCCTTTGGTCGCTCGCTCCTCTCCTACTTGGATAACTGTGGTAATTCTAGAGCTAATACATGCCGACGGGCGCTGACCCCCTTCGCGGGGGGGATGCGTGCATTTATCAGATCAAAACCAACCCGGTCAGCCCCTCTCCGGCCCCGGCCGGGGGGCGGGCGCCGGCGGCTTTGGTGACTCTAGATAACCTCGGGCCGATCGCACGCCCCCCGTGGCGGCGACGACCCATTCGAACGTCTGCCCTATCAACTTTCGATGGTAGTCGCCGTGCCTACCATGGTGACCACGGGTGACGGGGAATCAGGGTTCG
0.8302455781972735 GGACCCCCTGGGATGCAAGCCAAAGCTGCGGAATCCCGAGTCTCCTCCAGCACTGCTGACAGGCTACAGAACTTTATACACTTAAACACACACACACACACACACACACACACACACACACACACACTGATAAGATTATTTCTACAAATGCAGAATCTAAATAAAATTATCGTATACCTGTAGTTTTGAACTTTCCAGTGGCTCATTTCTAGAATAGTTTCTCTAGTGAGATACCATTAAATAGGATTTTCTCATTAAAAATAAGGGGGGAGGTAGATGGAAT
0.486277871126148 AGGATGTGTGTAAGTATGTATGTCAACTGGGGACTTCAGCCTCTGTAGGCCAAGTGTTGAAAAGGGTGAGAGGGCTGCTCTGGTAGAAGTGTCAGAGCTGGGATGTCTGTACACCTCCCTCTCCATAGCTAGTCCTGGAGATAAGTAAGAGCAGATTCTGGGACTGAGCTGTCGCATACACCCTGGTGGTGATAACAGCAAACACAGCAATGGGCTATGTAGAGGGAGCCCTGAATAATCTCCATGAGCTGCAGAGATAGGGCCAGTGAGTGGCAAATCCTTTTATAGTGTGGAGGAGAGGAGGTGGGGAGCAGCTGCAGGAGAAGGTGGGGAGCAGCTGCAGAAGGAGAAGGTGGAGCAGGAGCT
0.7887724652871824 GAAAGTCCAGAAGACCATGCAGTGGCTGCATAAAGGTGACAAAGCTCATGCTTGTGTTTCTTTAAAAGAAACTTATCACCCTTCGCAGCCAGGTCTCCTTTAGATAGCGTGCTTGGCCGGGAGCAGATCAGAAATGGCAAACTAAAGATAAAGACAATCACAAAGGCAAAACCAACAAAGCGACAGCTAACAGCTTGACAGGAAGAGAGGGGACAGAAAGCAGACACAGAGTCTCTAAGCACAGCCGTCTGGTTTGGGGCAAACAAC
0.3584490019718378 ATCCTGAACAGTTTCCAGTAGACTACCCTGGCAAAGTCCCCTTCAAATTTCATCAGCTCTCAAGCAGTCACAAACTGATTAAGATCCTTGAATTGGAATGTCAGTAATACATCATCACCCATTACTGTCTGTGTAGAGGAACCAATTAGTTTAAGCATCAGCATGCAACAGCTTTGTTAGACTCTGCTGTTATCAACAGCATGTTATCACCTTCAGCACCTCCTGGATATGCTCTTGCCGCTCTGCTTCTGTGATCCGGTCCACGTACCATTTGAGCACTTTGATGAGATCTCTAAAATACAGGGGA
0.6572909094952486 ACAGAAGTAGAGATATAATTTCTCACTGCAGTATCACACCAGACCACTCTGGATATAAATAGTCTGTTGGGAACTGACCAAAGCCACTTTGTTCATTTCCTTTTATCATGTTCTTTATGGCAGATAGCATATCCTTTCACAGAAAGAGATAGGTAAGTGCCGTAGGCCTTCCCCGCAGTTATTTTGATGTGAGGTATAGAGATACAAGGAAAACAAAAGTCAGACCA
0.1181654751302976 ATTCAAAACACCTTCATGCATTACCTCATTTAATTATAGTAAGCCCTGTGAGGTGTTAACAGTTACTGTTACTGTCACCATCATGGCCACTTACAGATTAGATAACTAGGACCTAAAGCTGTCAGATAACTTACCAAAGATAACACAGTAACAGTAGACCTGGAATCCAAACACAGGCGGTTTATTTCTAGAAGTGTGCTCTTAACCACCATGCCACCTTGCCTCTACAAAGTGCCAGTACT
0.6868664923476057 CATAATAATTTCTCCCTCTGGCATTTACTTGCTGTATGTTTGGAAGTTAGCTATGCACAACAGATATAAGCCACTCCATAGGATTTCTGAGTGTGCGACCAGAGGTTAATCAGTTTAGCCTCTCTTGACCTCATTTCACTAACATGCAATTAGAGATAACAGTACCATTGTGTTCTATATAAGCAGGATTATTATGGTTAGGGAGTTGACATGTATGAGATAGCAGAGTAACATGCTGCTTAGTGGGGGTATAAGCCCTCCTTATCAAGTAGAGAAAAAGGGGAGAAGGTCATATTGCTAAAGCAATTGTGTTAAGCCCCATATTATTTTTACTTGT
0.3518946219950444 TAAAACTGCCGGTAAAACTGTACTCAGAACCAATCAAATGGGAAATGGGGTATGCGTCACAGGATTGTCATAGTGTGTGTTTGCTAATAACTTTTAGTGGGTAGGGAATAAGGTTAAGGAGCCTGTCCTTGGTGATACTATGCTGCTTTCAACGTGGCTTGTTGAAACTGCAGCTGATAAGCAGGGCATTCGTGCCTCTGATATGGGGCATTTGTGCCTCTATTCTTGAATGAGGTGCATTCCAGTCAACAGCTTCAAGCTGATACTGCTGAAGGAGGCTGTAACTTGTAACTAATCTGAATTACACTATATGCTTTACTTTATGTGTCTA
0.4167006491076805 GCCGTAGGGGCCTTTGCTGTCCTTCCTGGGGTTTGTGGTCGCTGCCGAGGATCAGCACTTTCACACGCGACCTTACGCATTCCTTGTCATCTTGTCCTTGGCGGGCCTGTCAAAAAGAAGTTATTTTGAAAGCGTATCGCTGATTGCACATTTTATTCCATAAGTGCTCAGCGCGTTTCATGTAACTCCTGGAGGCCTCTGAGATAAGAGTGGAAAAGTGCCCTGTGCCCTTCTGAGTGGTGGGTGATCTATTTTCGACTTGGAGACTGGTGACAAAGCTGTCTTCTGTCAGGTCAGACTCGCAGGGACTTTCTTGTTTTCTGTTCCTCTGTTGACAGCTGTGCCTGTGTTCAGAATGGTCATGGGGTAGCTGGAAGATAGCTCTGGCATTTAAACACCTAGATAGGAAGGAGACGATGGAATGTATTTTTCTTTGCTATTTTGGTTAGCAAGTCCCTAGTAGTCCATACTGAGAGGGGAAGAAGCAGAGAG
1 CATACAGTGTTGGCGGGAATGTAAATTAGTACAACCACTGTGGAGAACACTTTGGAGGTACCTCACAAAACTAAAACAGAGCTACCATATGATTCAGCAATCCCACTGCTAGGTATATACCTACAAGAAAGGAAATCAGTATATGGAAGAGATATCTGCACTCCCGTGTTTATTGCAGCACTATCCACAATAGCCAAGATTTGGAAGCTACCCAAGTGTCCATCAACAGGCAAATGGATAAAGAAGTGTGGTACAGATACACAATGGAGTGTATTCAGCCGTAAGAAAGAATGAGGTTCTGTCATTTGCAAAAACATGGATAGAACGAGAGGTCATTATGTTAAGTGAAATGAAATAAGCCAGGCACAGAAAGATAAGCTTCGCATGTTCTCACTCACTTGTGGGAGCTAAAAATTAAAACAATTGAACTCACGGAGATAGAGAGTAGAATGATGGTTACCAGAGGCTGAGAAGGATAGTGGGGGGTGGGGTGGAAATGTGGATGATTAATGGGCATTAAAAAATAGTTAGAATTAATAAGATCTAGTATTTGATAGCACAACAGG
0.3181778205686385 TCACTTTATCAGCTGATGTGCTGCTTATTTGTAAGTCATAAGGCATCAGCCTGGGGAACCCAGTGCCCTTCAGACACAGTGACTCAGGTTTGAGCCGACGGCAGGGACGTTATCGAAGGTCCACGGTTGGGCTATTTTTATGATTGCATTCAGTACTAATAGGGCTTTTGGAGTGTACACAGCCATGTGCTCATTGTTGAACTATACAAGATAAGATCCTTGTCCCAAGGAGCTTACTGCCTGACTTTTGCAAAAACCAGATGGCAGAAAATGGTTTCCCTCTGCCCATCAGCAATGATTGAGGGGGTGGAGATGAGAAGCGGTGCAGTCA
0.9221299449776347 TGGGTTAGGGCTGTGAGTTCCAACCCTCTGAGCACATGGTTGGTGTCCCTGGCAACCAGCACCTCAACCAGTGGGGTTATCTAGAAACTTTCCAAAAATAACCTCATTAACATAAGCTCAAGTGTGGTTAAAAGGGGCTTATGATAAGTAACAAAAGACTATATTTCATCTTTATCACTCTGGAACTGATCCAGAGCTGTTTCAAGAACCCAGGACAAAAGGCCAAATATAACCAAAGATACTCTTATTGCTGTAGTCACTTATGAAATTACACAGGTTATAGGAGCAGTCAGCCAGGAACCACGGACAAAAACCAAAATATGCACAGCACATTTTGATTAATGACAGATGGCATATATGACATAAGTTCCATAAGATTATGATACTGGACTTTCATTGTACTTTTTCTGTGTTTAGGTATGTTTAGATAAAGAAATACCATTGTCTCCCAACTGCCTGCAGTATT
0.3387043012260997 TCAATGTGTTTTCCAAAGGCTGCTAAATTTGCTTTCTGAAAATACAAGTCTGAACTTGTCCTTTGCAGGCAGAATATCAGTTTCAGAGGCTTCAGAGTGACTTCAGGATAAAGTCCAAATTCCCAACAGACTTTTAGGATCTTTTTCTTATCTCTCTATTCTTATCTCTTATCCCTTGTACCAGCACCAGAAAACACTCCTCACATTTACTGCTAGGATTTCAGCATACATTTTTATCTAAACACATTCCACAAGTAGGCTGTCATGTTTTTCAGGACTCAGCCCATCATCACCTTTTCCTGAGAAGCCTTTCTGCACTTTCCTCTTAAACCCCTGGTGGGCGGTTGGGTTGAGCACACT
0.59139238780544 TTTCTTATCACGGCTCTCCCTTTCTCTCCCTCCTGGGATTGAGGCTTGGTGTTCACCCAGTCTTTTCATGGCTGTCATCGTTTTCGGGACACCTATCTACCCCGTGATGACAGGGGTGCTGCTCCATCATCCACAATGCATAGAAGACAGCACGGACATGCAGAGACGCTCACAGTGCCTACAAGGACACTAAGCCCGTTAGTACAAAACGAGGGCCCCCACACCATCCAACTCCCAGACCAATACTTTCCCAACTAGGCCGAGCTATTTTTGGTTCTGGCAGCAGCAGATCTGATGATTTTGAGGTTTTATCAAAAGAAGCTTCTGGAATTCCCTTTTGAGGACCCTAGTGTGATAATCAGCAGATAAATATCAGGGCTGCCTACCCCTTCAGAGCTTGGCTGTTAGACCTGTCCTCAGCATCCAAAGCCCTAAGGAGGGTGTTATTAACACATCCCATGTGCCCTTCTGTAAATAGAAAGTCACGTCAGATGCTATTTTGAACTTGTAAGTGCTAATCTTGACATAACTAGACAGAGGATTGTTGTGGGGACTGTGTACTAGTGACAATAATTTTGTGATGAGATGAGTCAGAGA
0.5951000000464699 CATCGCTTGCCCTCCCCACTCCACACCTTCTGTTGTCATTGTGTTGGGGTTCTAGGAGGTTCATGACATCGCACTTCTCTTCCCTGCTGGAGATCTGAATCAATTAAGTAACATGACAAGGCGACCTCACATGAAAGATCAACATACCCACTTTATTACTGATGAAGTCAATACTGCAGAAAACATCTTTCTGCACACAAGGGCACTTCCTCACTGTGAACTCCAGAACAAGATAAGCACATGTTCCCTGTCAGCAGCCCATTCCCATCAACAAGAGGAGAGCGGAATCAGGCACACTTAGGTTATTCTTGGATTTACTAATCAGAATTCACTCTCCTCTCGCCACTGTGAGCAGAAGTAAAGAGAGAGAGGGAAGGAGTTGAAA
0.5668402656061594 TATGTCCCTCTTGCTCTGGTGTGTTGCTGTAGGGGAGGGGAAAGGCATGTGGGATTACAGCTAGGCCCCCGGGAATGTCACATAATCACTAGCTCAGCTTATCTGTGCTCAGCCTCTTGTGCATGCTGTTACTGATGTGTCATGAATACTTGAAGAGGTTACACATCCTTGCAATTCTTTGCCTCTTCACAGTTTGGTTTATTCAAAACATGGGTCTAGTCTGTAG
0.6507097519258916 GATGAAAGGAGCAGTATGCTAGGAGTCAAAAGGGGGGAAGGAAACTCTGGAGATTGTCAAGGTCAGCAAACTGCCTCGAGAGAATTAGTTCTGATATAACACTTAACCTCTCCAAGGACCTCTGTATTTTTGGAAACAAGGAGACACTAGGGAGGCAGAGAAAGCCGCTAGGGAATGTTGTTCAGAGATTATACTCTCCTAATCAAGCTGAACTCTGTTAACCCTATGATGTTTGCCAAAAGTGACTGACTCTTCTGAATTTCTGATGGCTTCATATCTTATCCTTTCTTATCTTTTCCATTCTAAGTGCACAATGTGTAAGGAGTCCCTCGGAATAAAGCAGCCCTGGCATGCCATCGGGGATTGAAGTAGGAACGATTTAACAAGGGATACTTGGAAATGTTGTCATGTGCGAGTTGTAAATTTTCTTTTTTAATCTGG
0.2063262475620461 AGGGATTTGAGCAGGGGAGTGATATGATGTGTACAACCTGTGTTTTGAGTGATTACTCTGACAGCTATGTGGAGAATATACTGTCAACACTGAAGTATATTCTCCACATAGCTGTCAGAGTAATCACTTAAAACACGAGTGGTTTAACACAAGAAACCAAAGATAGTGCCAGTAAGACGAGATAGGATACCATAGTTGCTGAAAGCAACTATGATTGCTTGGACTAGGGTAACCAAAGTGATGATAAGAAGTGGAAATATTTGAGATAAAATTTGGATGTAAAATCGTGAATGTAGTTCAAAGTC
0.9337524589334008 TTTTAATCTACTATTTCCTGTATTTACATTAGCTAAGTGCTATTCTTAATAATAAACGCCCTCTATGGATATCTCTCGCAGGCAAACATGAGACAGTTGGAGGGCAGCTCTTGCAATCTTATCAGAAGCTGAGGTGAGTGTTACAAAGGACAGACCGTCCCTGGCCCTCCGGGGCAGGAGCGCAGAGGACACTCTGCAAGAACTTATAGGTCTCTTGACTTTCACATGTCACTGCTTTGGAATGTGACTCTTTTTTTTTTTTTTCTTTTAAAGATAAAGTTCCTGAAAAAGATTAAAGCAGAGATGTTTCCAGATTCTCATGAGAAACCTTCTAGTTAGCATAGTATTTTCTCACTAGACATTCAGCT
0.3201417748067997 CATTGACAGAGTAGGAGCATCACCATCTTGGACAAGCACTGCTATCTTAAAGTTCCTCTTGATCAAAAATAGCCCCAAAGGGCATCAGCCTAATGGCTAATGTCAGCATGACCATAAACCACAAATAACATCTCTGACAAGAAACATTCCAACCCTAAGATAAACCCCTCCCTGACCAGAGACATGCCAGCCCTGAGATAACCTCCCCTCTGGCCAGAGACATTCCAACCCCCGCAATAAACTTCTCCTCCACACAGAAACATTCCAAGCCTGTGGTAAGTTCTCTTGCCCTGAACCTTTAAATACTCTTAGT
0.6106831731309605 CGTATGAATATTTAGCAAAAATGACTGCTATGCAAAGCTTGAAGCACTGTTGTCATAATGCAGAGCCCGCTTTAATCGCAGCCACAGGGAAAGCATTTGTCGCTGTCTTATCACACAGGAATGATTTTCCCATTGGCAATGGCAGCCTGCCAGCTGGCTGTAAAGCCAGCGCCTTCCTGGTCTTTCAGGTCGCAATCTCAGATGGCATGCACCACCACTGCCAGGCACTGACATTTCTATTTTTGCAGGACATGCTGGGTCAGGAAACAAAACTGCAGAATCACAGACTATTTCTTATTTACATTGAAT
0.7385319067530108 TCCAAAAGAGGCTGTAAAAAGAATGGGAAATAAGGAAAAGAGCTATGACTAAGGTGACCTCCTCCACAGGTTAAATACCAGCAATGGCCAATTTTAGTACTGCTGTACCTCCCTAAAAGATTAGACTCTCTCAGGCTCTGCTCTGGATAACCTCACTGCAATGGCAACTTGAGCCTTGTTGAAGTTGTGCAAAAACATGGCTCTATCTCTGCTGTATCACACAGCTCCCTTCAATCAAGTGATACCAGTCTCCCGGCCTCCATTCTTGACAGCCTCAAGGAGTTTTCTCGCTGCAACCCACGTTGCACTTGAAATTAATCTGACTTCTGAGCCTTCAGACCCTACGGCACTTAAACGGCCCCAACCTCACCCGTCACCCTCAGGTTAAGTGTGAACACTGGCACAGCATGAAGTGACTCCTTACTACCTATACACACTATGGCCATTTGCCACC
0.6374783815176016 CTTAATGTGACTCTATGAGAAAGCACTGTTGCAGGCCGGGGATTGGCAGGCAGCCCCGGCCCCCAGCCTCAGATAACAAGCTGCTCTCCAAGAACACGTGCTAGGAAAAGTGCTTGATCAGAGTGTCAGCTTGTGGACTGAGTAGGAACACTAAGTGGTTTTGTCTGTCACCTCCTTCACCCCAGCTGGAATTTGGCCATAATCTGATAGAAACACTTTGCCCACTTTCAGGAGAATTTTCCACTATCAGTAAGGCTGCTTTTTCATACTTCGGCTATCACCAAAGCCTTTCAGAACACTTGTACTACTATCGCCCAGGGGAGCTTATATGTCTCAAGGGTAGGGGGTGGGGGACCAAAACCATTCTGAGCATGGAACACTCAGTTGATTCAGGTTTCATCCATGTTGAATTTCAGTCCCT
1 AAACTGTTCTCTTGAAACTGCATTCCTTCCTGGAACCCTTACGGACCAGTCTGGTTACCGTGCCCCATTGTGTCTTGGGCTCAAGTCAGCCTTCATAGTGACCCCTGCTGGTCGAAACAATTTTCGAGATGATTATCAGGAGTATTTCCCCACAGGGGGGCCGTAGGGCTCAGTGTAGAAGAGCAAGGACCCCTTTCTGCGCGCTTACTTTGACATAAGATTTTGAAATGTAACGAAACGGAACTGCTTCGGTCCTTCTAAGATTATCCTCAACGATCGAGGCGAACTCTCAAAACGGAGTTCCTATTTTGATGGGTCCTGCTCTCGGAAGGAGCATTCTGCAATTGATTACAGGATT
0.2395441647540662 GTCTTGCCCAAATGCTGCAGCATGTTAGTCTGAAGTTTGGCTAAGCACCACCACACATAACTGACAGCCCCTTGTATCACTCAATTGTAGGAACTGCTGATTAGCCACATACTGGTGAAATGAGGGGCCTCAAATCAGTGCAGAGAGAAGCCTATCAGTGCTTCCCTGACCATGGGACTGTGAGTGGAACCTTTCTCACTAGAACAGAAGGCAGGAAGGACAAGCACTTTGATGTCAATGCTGAGCATAATTTGCAGGAACAGTAAGAAGAAACTCAGCCAACTGAGTTGAGGAAAGAAAAAAAGCACAGCTGAGGTGTTGAAAATGTGAATCCGTACTGGATAAGGGATAATAGAAATAGCCTCTGTCCAACAACCTTTCAACAATTAGAATGTGATAGATAGACAAGGCTATGAAACAACTAACTACATACATAACTCTCACAGCTGGGTTAACCCTAAAGGAATCTGTGAGATTTGAAACATGACTACTAAGGCACTGATAAGAACTCTTCACCAGATGGGAGCCTGTGAGGAA
0.8946105029725652 TTACAGGGTTTGTTTGTGTGGATGGAAGAGGCTGACCTGTCCCGCAGCCTGAAAACAGGAGGTGGGAGGGGGTGGGCAATGGAGCCCTCTCTCTGCATGGAGACACTTCAACGAAGATAAGGGAAAGCTTATCAGGCAGCATTCACGGTGTCAACAGCAGACAAGAAATGTTTCTAACACTTCAGCCTTGCCAACACTCCCTATTTATCTCAAGAAACACAAGTGTTTTTCTTTCTTTCTTTTTTTTGTTTCCGTTCTCTCCTGCTATAAAATGCTCAGAGTCTCACAGTGCAAGATGAAGGGTTGACACGCGGTGAAAACTCATTTTTAGATTCCATCA
0.7226282318053578 ACAAAAATAATTCAGTTGGCTTAGGTTCAAAATCCAGCCACAGTGTCGCTATTGTGCTGAAAGGTCTTTGCTTGTTGTTATTTCTCACTACTTCTGAAATCCATTACAACCCTTTGGTTATCTTCAGTGCTGTTGGTTCTGTCTAATTATTCCCTAGAGATAGACTAGAAAACACAGATATGAAAGTAAGGCTTGAGATTTTAATGACAGCAGGTTGGAGGTGGGCAGTGAAAGTGACTGACAAGTAGATGATCTTTCTGC
0.1561004893884302 ATGGAATGAAATCGAATGTGATCATCATCAAATGGACTCGAATGGAATCATCATCCAATGGAAACTAATGGAATCAACATCGAATGGAATCGAATGGAAACACCATCGAATTGAAACGAATGGAATTATCATGAAATTGAAATGGATGGACTCATCATCGAATACATTCGAATGAAATCATCGAATGGAATCGATTGGAATCATCATCAAATGGAATCGAATGGAATCAC
0.7555994973929236 CTCTGTGATTTCAGTTAAATAATAAATCCTATTCTATCAGTAAGTCCTGCCAGTTCTGTCACTTCTCATGTTTATGGGTCCTCCCACCCACACCCCACTTCACCTGTCTTATCTTACCCTCTTTCAGTTCACCCTCCATGCAGCTATCAGGGGATTCTTTGGATAAGGCCTAATTCCTTGGCAGGCATCCCAGCTTCCATGACCTCATCATACCCATCTTTCTCACCTCTCTGCTGGCCCTGTCCTCCTTAACACCCTACCTTCCAGCTATATGTCACCTGCTATTTCTCTCCCAGTGCCTTCTGCTTCTTATCTTTCACCACCCCTCCTGTGTTCCAGTGTGCCTGTACAGTCGCTTCTTGCATGGTGTTGCCCAACTCC
0.7904195647420011 TTCTGCAAAACCAGTTTGAGATCTTTGGCAGGGCTAAAATTATCCTTGCTTCCACTGGCAGAGCTTTAATTTGGATCTGTCTGTTGTCTGCTATCAGAAATCATGTTGACTTAATGGCAGAATAAAAATAGAACTCCTCTTCTCCTCCGTTATCTAAAGCTCGGGTTCTTTATCAGGGCTGTTCCCTGTCTGAGGGCTGTCATGTTGTACACTTCTCACTGAAGGCCCTCCTTTTAGAGACAGAAGTCTTTCATCATTCCACTCTGTGGGAATGTTGGTAGAAGTATGTGAACAAACATCCTTCCCTTGTCTTGAGCTTAGGGGAAAATCATTCAGTCTTTTGCCATTAATTATGA
0.5319800164794608 TTATTGTTATTATTTCTCTGTCACATAAAAGTCTGGGGCTAGTATGGTAGCTCTGCTCTATCAAGAGTATTTTAGAGACCCAGCCTATTTCTAGCTTATCAAGTCACACTAGGCTTGAAGGGACAAAGAGTACATGCTGGCTTTATCTTAAAGCACATTCCTGAGTGCTGCCTGTCACACAACATTTTCAACTTCATTCCCTTGGCCAGAATGTACTCTCATGAACCTATCTAGCTGCAAGGAAGGCTGGAAAAGAAAGTCTTCATTCAGCTGGCCATATGCCCAGCTAAACTTCTGTTAC
0.3239700628072232 ACTGTGTTCTGTGAGAATAACTTGGCCCCAGTACCAGAGCCCAGCTCTTGAAGGGATTTCTCTCACTCTAGAAGTTATTTATAGCACACTATATCATGCAAGTCTAGAGTTCCTCAGATAAGAAAAAGATTACATTCAGGAGCATATCATGACTTTAAAACAGCTGCCTGGATCTCGTTAAGCTACTGAGATACTGTTACTTGCTTATAGATCACTTACAATAGAGGGATATCTAACTTCATGGGCCTATGGCAG
0.9644056579577273 GTGTATTCAACTCACAGAGATGAACCTTCCTTCAGAAAGAGCAGATTTGAAACACTCTTTTTGTGGAGTTTCCATGTGGAGATTTCAATCGCTTTGAGACCAAAGGTAGAAGAGGAAACATCTTCGTATAACAACTAGACAGAATCATTCACAGAAACTACTTTGTGATGTGTGTGTTCAACTCAAGGAGTTTAACCTTTCTTTTGATGGAGCAGTTTG
0.1513181680602576 GTTGATCCTGCCAGTAGCATATGCTTGTCTCAAAGATTAAGCCATGCATGTCTAAGTACGCACGGCCGGTACAGTGAAACTGCGAATGGCTCATTAAATCAGTTATGGTTCCTTTGGTCGCTCGCTCCTCTCCTACTTGGATAACTGTGGTAATTCTAGAGCTAATACATGCCGACGGGCGCTGACCCCCTTCGCGGGGGGGATGCGTGCATTTATCAGATCAAAACCAACCCGGTCAGCCCCTCTCCGGCCCCGGCCGGGGGGCGGGCGCCGGCGGCTTTGGTGACTCTAGATAACCTCGGGCCGATCGCACGCCCCCCGTGGCGGCGACGACCCATTCGAACGTCTGCCCTATCAACTTTCGATGGTAGTCGCCGTGCCTACCATGGTGACCACGGGTGACGGGGAATCAGGGTTCGATTCCGGAGAGGGAGCCTGAGAAACGGCTACCACATCCAAGGAAGGCAGCAGGCGCGCAAATTACCCACTCCCGACCCGGGGAGGTAGTGACGAAAAATAACAATACAGGACTCTTTCGAGGCCCTGTAATTGGAATG
0.6281461510504646 AGGAATGGAGCAAATTGAAAGAATAACAGTGGAGAACCACATTTTTCCTCTGTTAAACCAGAGCTATCTAGAGGAACTCTGCAGTATTGACGTGAAGAGAATTGTAGTGGATAAGAACAAGGAAAATTCAAGGCTTATCAGTAGAAATGGAATGTTTGAAGTCGGAGAACTCATAGGAATGCTAGTACCAAGTACAGAATCAGATTAGCTGGAGGAGGGAGCTGGAGAATGTCTACACTTCACTAGATAATGAGAGTGGAGTGAGCCAAGAACTCAGTTGGAGTTTGACGGAATGAAGCAGAGGGTCCAACTGAGGCTGAACTGAGCGTGAACTACATTCAGCGGCCTAGGCAGTGCCCTCCTTGATAAGATAATGATAACAAACATATGCAAATGAATTAAACAGTACAGCAACA
0.2067846223118035 AGCCAAGCAAGAGGGAGAGTGGTGCCAGGCAGCACAGGATGTGTTTGTGCTGCGGGAAGCAGGGTGGGTGGGTTCTGAGCACTCTCTCGCCTGCTCAGTGTGAATACACATGACAGAGCCAAGTGGAAATTCTGTGTGTATTATCTATTGTCCTGAGTTATCTGCCAGGCTACTCCTCACCAGTGCTGCAGAAAACACAGAGCTGATAAGGCAGCATTCCTCACAGCTGACCCAGAAGCAATCCCACTGGGCCAAGGTGATGGGGAGAGTAGCTGTTGGGCAACAGAGAAACAAAGGACAAATTCCCAATCTG
0.4923119712251423 TGAAGCCTTAATGTCCTCATTTATTTTGTGGTTTGATCTATGGGCTTTCCCATTTGGCAGTGGCAGAAGGGACTTCCCAAGTGCCCACTGCTATCTGCGCTCACCTTAAATATGCCCAACCAGAGTCTTATCTCCGACAGCTCATGCATCACCCTCCCTGGGAGAGGGAGCCCCGCTGACTTGCTGACAGACCCTCAGTTAATTTCTGGATTCTTTTTTTTCTCAGTTATTTATAGCTCAGCTGCTGATATTTCAAGCTCTCATTGCT
0.7170495355856474 TAAGAAGCCTAGGTTTAATTCTGTCTAGACACTATCATCTGTTGCTTGTGTAGCCATGAGTAATAATTATAATTATAAGCATCCCTGAAGTCATGTGCAAGCTGTTAAAGTACGTTCATACACATTGTTTCCATTCCATACTGACAAGCCTGTACAGTAAGCATGGAAACTGGCATGGCAAGTGCTGTTATTTAAGTACGTAGATAAGGAAACTGAAGCATAACAAAGTGAAAGGGAACACAGTAAAACCAGAACCCAAATCCAGTTCCTTCTGAT
1 CTCCTGACCTCAAGGGATCCGCCCATCTCGGCCTTCTGAAGTGCTGGGATTACAGGCGTGAGCCACCGCTATCTAGCCCAGGCTAAGAGCAATTCTTACAGATATTAACAGCTTGTACAAAACATCCCACGCCCCTCCACAATTGTCCTCACCCACTTGAAAGTATGACTGCAATATGTACACACATTCACGTTGGATATAATGGCAATGCTGCTCATACTCCACACTTGTATTCTAAGTAGCTGACTGCATGTATGCCTCCCCCTGTTCACAAGTTCTATAAAGTCAGAGAC
0.6680098682323389 TTCCTTTAAAGATATAAAACATTGTGCTAGTGCTTCCTTTTTTGTTCTGATACCCACATCCTGTGCTCTGTGGAGAGTCACAGTTTTTGAAATATGTTGACAGCCAGCACAGATAAGCAGTGTACTTAGCCTTTGGTCAAGGACTGGAAACTGGCTAGTATCTGAATCATCTGCTTAATGCAGAACTGCCCTCCTCTTAGGGAGATGCAGCCTGGTGTGTGGTATGACATGGAGCTCTATGGTGTGT
0.2759910212139923 CAAGCGAGGGCTCTGAGGACTGCCAGCACGCTGTCACCTCTCACCGTAAGTCTCTGTCAGACATTTCTTTCAAAGACTGGGGACAGGTGGGTTCTCACTGTAATTTATCTTGGCACTGACAACAGGAGCTGGTTTGGCTGCTTGTAGACAAGGAGGTCCTGTGATAATTTTACAAAATCTTTCTGAGAACATGGTATGTGACTGCCTCCCTCACCCAGCTGCCTGGTTCTGTTTTAACTCACTTCAGTTAGCCAGGGAGAGTCCAGGTCGTCTGTTGACTAGTGATGCTTAAAC
0.4586461573035245 TTCTCATGCCTTGAGTCTAATCTCAAACCTTGTTCTCTTCTTGATCTTTGCTAACTTTGTTGTAAATGTGCTCCTATCCCACTATTGAAACAAACAGGCAAACTCTCCAACATTCGCCTTATCTATCCTCATTTCAGCTGAATTTCTTGACAGTGTAGTTCACACTTCTTTATCTCTGATGCATTCAGCTGCTCTCACCACGTTTTTAAAATCCAGTGGGCACGAGTCACCCATGACCTTTTAGTTGCCAAATCCAGTGAACACTTTTCAGTTCTTGTCTGACTTATCTCTGGCATTTATCAGTGTTGACCTTACCATAACTCTGAAACTTTTCCTGTCTTGCTTAGCTTATGTGATACCTTTTCCCTCAGGTTTTTCTTCTTTTCTGGCTCCTCTTCTTCCTTTTCCACAGCTGGCAATTCCTACTCTTACAGCTCTTCTAATGTTTTCCTTTCCTTTCCTTTATCTTTAGGCAAAGGCTATGGTGTGTGTGTGTGTGTGTGTGTGTGTGTGTGTGTGTGTGTGTGTGTGTGTGTGTTCTAGCAACCTCTTTCAAATGAATTCCAATGGATTCTAACACTAAGCTGGAGTGTCAGGTACTACTTGTGATTTCTTCTCT
0.6162200221817791 GGCTGTCTCTTGTGCCCGCTGCTCCCAAAGCCCGTTCCCTGCCTGGCTGCGGGCAGGGACCTTCCCCCACAGCCCTGCCCAACCACGATGCAGCACCCCAGGGACACGGGCAGCTGAGGACAGCCGCCCAGATAAGCTCAAGTGTCCACTGAGAGGCTGGCAGGTGGTGACGCTGGGAGTCTCAGTCGGGAGGAGGCCCTGCCCCGGCGCACCTGGCCTGGCTCTGGCTCTTTGGGGCTGCTGTGGCT
0.5441458232846802 GGTGCCAGGGACAAGGCTACAGGAACATGTACCCCACGCCATATAAGCCCATGTGGTCCTCCAGCTGCTCAGATAAGCTATTTAAAACCAGAGCAGATATGCAGGGAACAGTCATGCAACATAAACCAGCTGTCCCTCTTGAGAATCCTGATAAAGCAGAGGCCAGCAACCCAGGCCTGGGAGGGCCAGCTGGGAGCAGGGTTGGGGGGCAGAAGGCAACCTCC
0.6083962705644551 ATGGTGGGCTCATTCTCATTGATAAAGAACACTAAAAGAGTCCGAGCTTAGAGCAAAAAACCATGTGTAATTTTGAACTGGCTGGCTTGGATATACTTTTGTGATAGCCAGTGTGATAATCCAGGGGAGGTTAGATAAAAAGGCCTGGAATTCATAAAGGAGGCCTAAACCAGAGATTGTAATGCTTGAGACTTTCTTTGTAGGAGATAAAACTGTCAGTGTGGGTGAGTTGCCTGGGGAAAGAGAACAGACAAGAAGGTGACCTAGGTTTCGTTGTGAAGTACAAGGCAAGAGCT
1 AGCTATGATCGTACTACTGCACTGTAGCCTGGGTGACAGAGCGAGACTCCATCTCAAACAAAACAGAACAAAAAAACCAAGTATTTACAGAGACATGAGTCATCGAGAGGCTATCTAAACCGAGATAAGCTGCAGTGCAGTGATGACAGTTTCTTTCCACTTCCCCGGAGGGGCTCATGGCTCAGCAGATCAGCTGCAGGAAAGAGAGAAACATCGTCTCTCCGTGCGCCTTTCCTTGTATATTAATCTGCG
0.1650061755691584 TTCCATTCGATGATTCCATTTGATTCCATGCGACGGTGAGCAATTCGATTCAATTCCATGATGATTCTATTTGATTCAATTAGATGATGTTTCCATTCCAATCCATTCCATGATTATTCCATTGGAATCCATTCGGCGATGATTCCATATGAGTCAATTCAATGATGATTCCATATGGGTCCGTTCGATGATAATTCCATTTGATTTCATTCGATGCTTCTGTTCAATTCCAGTCGATGATGAGTCCGTTGGAGTCCATACGATGATTCCATTTGATTTCATTTGATGATGATTCCATTCGATTCCATTCGATGACTCCATTCTGTTCCATTCGATGATGATTCCATTCGAGTCCATTCGATGATTCCATTCGAGTCCATTTAATGATTCCATTGGGTTCAATTCGATGATGATTACATTGGATTCCATTCTATGATTCCATTCAATTCCATTCGTTGATGATTCGATTCCATTCAATGATGATTCCATTTGAGTTCATTCGATGATTCTATTCGATTCCGTTCGATGGTGATTCAATTCTATTATATTGGATGATTCCATTCGATTCCATTTGAT
0.2646058482142074 TTCCTTTAGAGAGAGCAGATTTGAAACACTCTGTTTTTGGAATTTGCAAGTGCAGACTTCAAGCGCTTCTAGGCCTATGGCAGAAAAGGAAATATCTTCGTATAAAAAGTACACAGAATCATTCTCAACAACTACTTTGTGATGTGTGCGTTCAACTCACAGAGTTTAACCTTTCTTTTCATAGAGCAGTTTGGAAACACTCTGTTTGTAAAGCCTGCAAG
1 TTAACTGTGGAAGGGAAGGCATCTTTTTAACCTTTGTTTTTGTGCCATACTTAGCCTAGAGCCTGACATTAAGCAGGTACTTCTCAAAAAAAAAAAAAAAAAACACAGGGTAGAGACAGATAACAAGGGATTCCTGACACCTACGCTGTAGATAGCTATAACATTTCAATAGGAATCTTGGGAATCTGGGGAACTGGAAGCAGCTGGGAAAGCACCGGCATCTGAGCCACTCAGTACTCTTCCAGGCTTGTGTGTGAGCCTTGCCACCTTCAGGT
0.1814433651186016 CAGTTATGGTTCCTTTGGTCGCTCGCTCCTCTCCTACTTGGATAACTGTGGTAATTCTAGAGCTAATACATGCCGACGGGCGCTGACCCCCTTCGCGGGGGGGATGCGTGCATTTATCAGATCAAAACCAACCCGGTCAGCCCCTCTCCGGCCCCGGCCGGGGGGCGGGCGCCGGCGGCTTTGGTGACTCTAGATAACCTCGGGCCGATCGCACGCCCCCCGTGGCGGCGACGACCCATTCGAACGTCTGCCCTATCAACTTTCGATGGTAGTCGCCGTGCCTACCATGGTGACCACGGGTGACGGGGAATCAGGGTTCGATTCCGGAGAGGGAGCCTGAGAAACGGCTACCACATCCAAGGAAGGCAGCAGGCGCGCAAATTAC
0.800443666393843 CAGTTTACATTTCATTACCATTCCATTTTACTTCTTTCCATTCCATTCCATTCGATTCCATTCCATTCCATTCCATTCCATTCCATTCCATTCCATTCCATTCCATTCCATTCCATTCCATTCCTTTCCGTTCCATTCCATTCCTTTCCATTCCGTTCCACTGCACTCCAATCCACTCCACTCAATTCCACTACACTCCACCACAATCCATTCCATTCCATTCCA
1 CTGAGGCAGGAGAATCATTTGAACCCGGGAAGCAGAGGTTGCAGTGAGCCGAGATCATGCCACTGCACTCCAGCCTGGGCTACAGAGGGGAAAAAAAAAAAAAAGAATTAAGTGATTACGATCTTTGAGTACATGGAAGCAGTCCAGACTCCTAAGTGGGCTGTGCCTCTGACCTCAGAAGTGTTGAATGAATTCATGTCCTAATCATCTGTGCCTCTTGTAGCTCTCTCTGTTAATAGGAAACTACTGTGGGAATGGAAAGGGAAACGTATTTTGCTTTGTGGTCTGT
0.9903064627994327 TAAACTTAAAAACATGATAAACTAAACATCAGGAGAATAAAAACAAAGCCTCAGGACTTTCAGCCTAGACTGTTTTCCATTACACAGTAACTTCTTATCAGCTTGCGACAAGTTCCTTATCCCTCCTTTTTTATAGCTCAGTGAGGAAGACTGGCCATATGTGAAATTCCAAAGAGGCAGGAAAGAGGTGCAAGGGAAAGAAGCCAGGCTCTCTAGTACTAATATA
0.777605398172448 CCTCCTGGGCTTCTGAAAGAATCAGTGCAAGAGCCAACATCTCCTTCAACCCATTGACGTCTGTGAGATACCCAGAGACGTTCAACCCAGAGATATCCAGGCTGCTTGCCAAACAAGGAAATCCAAGATAAACGTGCCATTCTGTCATGACCTTATCCTGCTGAGAGACAGACAGAAACAATGGCAGAGAGGAATAGCCTTGCATGTTTTCATGGCACCTTTCAGAAAGAGATGAAATTCACCATCAGTCACACCTCTTGGAGGTTGTACCATTTAGCTGATAAGAAACAGCCAGAGAGGCAGGGAGTATGGACACTCCTGAAGGCAATCCTATGAGGAGCCCCCTGAAACTTCTTGAAGAAGAAAAATAGCACTGTTCCCCTCCCCTTCCAACTCTTCACGCTGACAGGAGTTTCTACGAGGCAGTGTTTGTC
0.7156366395455251 AGCATACGCACTCATCTCTGGGCTATCAATAGAAGCTAAAGAAAAAATTAAAGAAACACTGGCTGCATGCCAAATTTTGGGTTAATAGGGAAGAGAAAGCTGGTTGGCAATCTCCCTTCCTAGTCCTTATCTTTTCCTCCCCTTATCTCTCCTGTGCTAGGGGTGCTGGGATGTCTGTACTCTGTAACCTCTTTCTCTGAATGGAGACAGAAGCAGGAAGTCAGGTGCCCTGCACTTTAATGTCTTATTATTCTTCTC
0.6372317573246502 CTGGCCAGGGAACAATGGGCCGAAGTCCTCAGGGGATTTGTGGGGAAGCGCGCCCCCTCCTCCTTGGGGTTTTCTTGCGGAGCTGCTGTGAAGACTCAGCTCAGCTGTGATAATTACCTGAGGTCAGCTTCTCCAGAATGCCCTTATCTCCTAAGGCCTTTGAGATAAGCAGGAATTGTGGTGTCTGCCTTGCCTCCAAACCTTTATCCTTGCTTATCTCAGTGGAAAATTCCAGCAGGGATTTCTGAACACCAAGTTAAATTCCTCCACTCAACAATCAGTTTGGCACGTGGCTGCCCGCCAGTCTGGGCAGAACAGAGGGGAGCCAAGGGAATAAACCCAAGTCCTGCC
0.1589984170090739 ATGCAGGAAAGTGATCCTGGAAAGAAGGGGTTAATATAAGCTGCACAGTGCACTCAGTGATGCCTTAAATAATTGTCACATGTCCCCTATAATCTGTCCCATGCTGTCAGCACTGAGTTAGTCATAATAATATCAGATAAGAGCTGTTCAAAGTGACACACTAACCAACATGGGAGCCACATGACTTTCTGGCTTGGCTACTGCCCTTCAGCTGAACTTTGGCTTAGAACACAAGGCTCCCAGAGGCAGCCTGGCACATGCCGCCGCGTGGAGTGTCCGGT
0.2625185930664568 AGAATACAAGTTCCCTCTCCCTACACACCCACAATTAATAGCCCCTTCTCCTTTCAGGCCCCAGAGGAGTGATTTGGCTACTCCTCCTCTTGCCAGCCCGGATTTAGTAGCTGGCACCTCCTCCTTATCACCCCTGGTTCCTGTTTGCCTATCAGTAGCCCAGCCACTGTGGCTCAGGACCCTGCTTTAAACCTGCCAGGGGGCCTTATCTTATCTCCTGGGCTGCCTTCCTAGCAGCCCGCGGGGTGGCTGGCTGGCCGGGTTCCTTAAAGGGGCTGCACTGCATTCCCACTTGCTCCATTCACCCTCAAGAGTACCCCAGAGATCTGGAGGTGTTCTACTTGTG
1 TCTACGCGCGAGGGAAGACAGGCGTTGAGGGACTGCTGGGAGGAACTGTAGGAGGAAGGGGCGGCGTTTCCGGTGGGGAAGAGTGGAGGCGTGCAAAAAGGAAGAGGGAAATCGGCAGGAGTGATAAGAAGGGGGAAGACTTTGAGTGTAACTCCCGTTCTTTTGGCCTGGGTGTTCCCGGTGGTGGGATTGGGATTGCCCCCTTGCGCGGGAGGAGAAGGGTGGATTGGCAGGAAGCCGCCAAGCGCCACCAGCCGGTCTCTCAGAAGCCGCACAGGCGCCACACAGCTCGTTGATCCCAAAAGGGAGCGCTACAGAGAGGCGGAAATCAC
0.7011972662314051 CCAGCAAGAAACCAGAAATCTAGCCCAAAGTAGTTCCTCTCCCAAACGCTCTGAGAGGAGAGAGAGCCTGACGCATCCAGCATCAAACATCTGCAACCCAGATGGGCCTATCAAAGGGAGAGTACTTATCAAGCTCTGGACTGGTCAGGAGGAGATATGAATTACAGATACATTACCCAGCCAGTTGAACAGACTTACCAAGATAAAGGAACTTGGAACTAGGCAGGGCTACATAAGCCAGATGTCTGTTTCTACATAGTAGCTGCCCTGAGAGATGATCTGCGAGAGTTAAGGGAAGGAAGGGTGTTGAGTGTCCACTTCAGTAAAATCACAAATGTCATTGACTATTCCCTGTGGTACAT
0.5572726415258359 GGTACATTGAGAGAAGTGGCACTTGCATCATTGTCAAAGGCCAGAAAAAGGTAGTGCTGAAATAAACCAGGCTCCTTTCAACAACCTGGCCACAGCTTATGGAGCCTGGCCACAGAGTCCATGTTGTCTTATTCAGATAAGATATAGAAGTCCTCTTCATTATGTTAAGTGAAATAAGCCAGGCACAGAAAGATAAATAGCACACGATCTCACTTACATGTGGGATCTAAAAAGTAGAACTCGTAGTAATAGAATGGTGGTTACCAAAAGCTTGGGGTGTATGTAGGGGAAGGGGGAGAG
0.6105831793242735 GCTCTCTATGCCAAGTCATGGATTTAAAAAAAAAAAAGGTCTGCACAATGTTAGGATCAGAATACAATGGTATGACACTTAAGAGTACTTCCAGGTTGCTTGCTTCCTGATATTACAAAAGCACGCTCAGTCATCTCTGTCCTCTATCACCAAGCACTCAGTCCTGTGATGAAAGGATGCTGGCATTCTATTTACATCAGCTAAATTTACAAAGAAACTGACTTTCTGTTGATGGCCTGTTGAGAGGAACAAATTAAAATAACTCTAAATCATGTCTGTAATTTTCTGAAGAGATACGCTTATCACACCCCACTTAGAACACCAGGTCAGATGTTATCTCGGTCTCTCCTGATATAGATTTTCTACTCCTTTGAACTTACAAGATACAGTTCTGCCTATTCATTAGGAAGGTACATAAGAA
