svm_type c_svc
kernel_type gkm_esttrunc
L 11
k 7
d 3
norc 0
nr_class 2
total_sv 1839
rho -0.102047
label 1 -1
nr_sv 986 853
SV
0.1920585949808682 GGGGCGGGGCCCAGCATGGCCGGAGAGGCTGGGGCTTTGTAATAATCACCATAACGATTATTGAATTTGAAAAGCCAGGAGTCAATGCATTTCTGCACGATTTTGTCAGCAACAAACCACAGCCTCGCCCTGCCCCACCTCCGTCCGCATAGTGCCCATGGCCAGGCTGTCTGGGCGCAGCATTCCTGGGCCTGCTCTCTGGCTCCCAGTGAGGGTCCCCGCCCCACGGGAGATAAGATAGAGCTGGTGTCAGGGAGGAGGTGTGGACGGGGCCGCACCGGCACGCTGTGAGTGATAAAAGGGGCTTTGGAAAGGTGCTGACGTGGCACCGTGCTTAATGAGGTCATCGCCGAAGCTGCTGCCCCGATAACCTGGAGGTCAGGCTCCCAGCAAGTGGCCATGGCGGGAAGCAGGGCTGTCTGCACTGCCCGTCTCCACCCAGCACCCAGTCGGCGCAGCCACTGGGTGCCCATGGGGCTTGGCTCCGAGCTTATTTCAGAGCTGTCATCCTCAACCCAAGGGTGTCCTTGTCCCGGG
0.9614974315265291 TGAGGCCTTGGTGCTGAATGGACTGTCTTGTCTCATAGAATGATTTTAACCAGACCCTGGAAAGTAGCAAGGCAGAGAACTGGACCGGCACTCTGGACTTTCTCTCCTCAACTGTCAAACAGAAGGTGGAGGTTGAAAGAGAAGCTTCCCCAGGGTTTTTTGGCACCCTGCCCAGATTTCCTGCCCAACTCTCAGCATCCTATGATTAATGGGATTCCCAGGTTGGGGATGCCTCTGAATGCCGCCCCCCCCTCCCTGCCCCACTAATCTAATCTCCTCACTTAAAGATAGGAGGGAGTGGAAGGGAGAAGCTGCAGGGAATATGTGCTAACATCAGTTACAGGCAAGCCTGTACTTACACAGAGATCTGACATTTTAAAATAAATTCTTGAGCACTCTTTAGACAAACTGCAAAGTTTAGGAAAGTGTGCAATACTCCTTGGCTCATTGGCCCCAGGAATTGGAGCCTCACTTCTTATTATACCAGAACCTCCTACCCACCTTTTTTGCCCTGTCCTTTTCCTGCCTTGGATGATTTCCCAGATGATTAATTTT
0.8953494466170323 TGTATATCGCTATACAGGTCCCTGTCCTGCCCTGCTCCACCTTAATTTCCTGCCCTTTAAGATTTTCCTTCACCAGGGAAATTTAGCATCTTTCTGCAAGACTCAGTTTAATGGCATTCTCTAGCATTTTCCGACCTTCCCTGGCTGAGCTGAGTGCTGTCTCTGCACTCTGCCCATGGCATCCTGTCCACGCAGCATCTTGGTGCAGCAATCAGCACACTGCTACATTATCTGCATGGCTGTCATCCCCATTAGGTGTGTGCCCTTGGACTGTGTGTTTTCCTCCTCGTATATGAGGCCTCAGCATAGTGCCTGAAAATAATAAACATTTGACATTCAGAAGAAAGGAGTGGAGGAATAAATAAATAAGACAGCCTGTTTTCATGAAGTGTTTTCTACATTGAATGCAATTATTCTAAACATCTCCTTTAACCTGGTCTTCTGAGCTCTTTCAGAAGAGAGTAAGCACCATAAACA
0.5658823054127773 ACTTTAGAACCAGAGTTTATACTTTGGGCAGCCTCTGGACAGTTGTGTGTCTGCTGGTCATTTCAGAAGGCCAGGGTTACTTGGATTCATTCAGGGAAAGAGCTCAGCTCACACTGATTACTCTGCCAAAAGGAAAGAACAGGAGGTTAAAAATAGACAACCCCATTGAGTTTATCGTGAGAGAGAAAGGAGCGAACGAGAGAGAATTGCCACGCCCCTAGTATGGTGACACTAAGTGCCTGTTATTTTTGCTGTTATCTTAAATGTGGAGGACAGCTTCAAGCTCTTTCCTTATCAGCTGATGTTTGATAACAAATGGAAAAAAAAATTACATCCTGACAACCCAAATTAGTTTTGCCACCGAAACTATGCCATTGTAACCATGGACTTTGAAACAAGTAAGTCTTTGACCTGGTTATCAATCTTTTCAAGATTTTTGAAATCTCTCTGATGCAAAGAGAACTACCAAAGTGTACTTTAAAAAAGTTTTGGTATTTGTCTTGGGGTTAAGTCACAAATTGCTTAAAACACATTTTTAGATTAATCTGCTTTTCTAAAACTTACTGTTCTTTGCTAAATGAAGTTTAGATGG
0.7416187546599815 TATCTGTAAAGTGAGGGGTTGGGGCTAGACAGTGTCCAGCATCCCTCCTCTTTGGTGTCTCTTAATTGTCCAGGGCAGAGCAATCCTTGGAGCAAGGCAGCCTGCTGCGGTGGTTTGCAGAAGAGGCACAGTGGGGCGGGCTGGAGGCCGCAGGGGCAGAGTGGGCCGAGGGCCTCTGATGAGGTGTGAATGAGGGAGGCAGAGCAGGGCTGGTGTGGACAGCCCTGTCCCAGCCCTATCTCCCGTCTGCGACACCCTCTCCACACCCCAGTGCTGATAAGCGGGTGTGAGCCACGGCCGCCTTGTGACAGGCCCTTCGGCAGGGAGGGTGATGGTGGGGGTCCACTCCACTTCTGAATTCAGACGTCAGCATCTTTTTCCCCCAACCCCCATTGCCCTGTCAGACTAGACAGGCCCTAGCAACCAGGCACCCTCCCTGACAGTCCCTGGCTTGGAGATTTGTTTCTGCTCCATGTGGCCTCAGCCTTCTCAGAGATGGTAGGAGACAGACCTC
0.4977550703380219 GGCCTACCACCTTAAGCTCTTTTTATGGGAATTGCACAGTAATGATTTGTAAATCTTCCAAAGAAAGGTGAAAATCAGAGAAGCAAGAATTCCCGAAGTCCTGATGTTTCACAGATTAGTAGCCTGCCATTAAGAAACTGTGGGGTTTGGGTGAGTGAGCTGGAGCCATAAGCATTATCAGGTAAAAGTGAGGTTTCCTGGGGCTGCAGAAAGAAATGAGCTTGTTACTACTTCTGGTATTAATCATAATAAGTGTTTTATCTAAGCCTGTCATGTTTAGTTTCTCCATGCAATTTACCTCTCAGGCACACTGTTCACAGTATCAGTTGGCCTTATCTTTTAACTTATAGTCTTCAAGTGCCTAAATGTATTTCCTCCAAAGTTCCCACAGTTAACATGACAAAGTGAACATCAGTGCTATTTTAAGACAATGCCGCACCCGCGTTATGAAAGACAGAGTTGCTTATGCCTGGCTACTCCTATCATCTGTTGAAAAGCTTAACAGGCAGCACTGATTCTTTGCCTAATTGCAGTTTTGCTGTGAGATTAGCAAGATTTTAAATGTAGAGCCCAAGTACGTGCTTCAATACATTCATTTATTTCATTTTTCACCTTTGCAAAGAAATAAAATAAAGATCTACTTATCCTCTATCTTGCTCGTCTTTTATCGACTGACACTTGTTAGCCAATGGAGTCAAGTAGCTTTTGAGGGACCATATTATGA
0.8406266229059084 GGCCCTTAAATAGTTATGAGTGAATGCCCAATGTGAGGTGAAGAAAGGGAGAGGTCATTAGAAAGGAAGTTGTGTACAAAACACAAGATTTTACTGCCTTGGTGAATTTTGAACCACAGCCAAATTACTTTCTTCTCTGAGAAGATATGAGGAAGAGAATAAAACTCTTCAAGGCAACAGCATGATATAAATCCAAAGCATTTTCATACTTTGGGAACGTGCTTGCATGCAGAAGTGTGAGCCGGGGGAGGAATCTTGGGTGATAAGAAAAACACGTCAGCAGGGCAGAGTGGTGAATGGCCTTCAAGATAAGGATAAGTAATTGAAATTGGTTAGGAAAGCAACAGGGAGCCAGAAGAAGGAATTGAAATGAGTAATGGGAAGCCAGAAGATTAGAAAAGCTAGACGGATTACCTTGGGAAGCAGGATTTTGAGATGGTAATGGCCAAAGGGGAGATTGTAGAATCAAGACAGGAAACAAAAAGACAAGGATGGATAGACCTATTCCCGAAACAGGAATAGTACCTTCATGAGGTCCCAGAGAGGCAGTTTGTAATAACAAAAATGAGGCCTTCACTGAAG
0.3444640967864069 TTATTCATTTATTCCCCAAAATCACTACCACCACCATCAAAGCCATAGGTGAATACTAAATGGTGTAACAATACACATGCCCTCAGCACTCTGTATCCTCTGAGGCCACACAGTAATGCATCTGCTGCATCTAAAAATGGGGCTACCACAGAACAAGGTCATTAAAAAGTGTGAGGAGATGAGTGGTTTGCTGCTGTTTTTAGCACAAGTTCAATCAGCTATGATGTCCTTATCAAGCTGTCACTACCAAGTTCCTTGATAAGATCTGACGTGTGAGGTACATAAACCTGTTCTGTTGTAGCACTGTGGCCTGTATGGAAAAGGTTAGATACATGCAAAATAATGCCCAAACATGCTGTTTAATCTTGGTGATAACAAGAAAGAAAATGGAGGTGTGAAGTGAGTTACCATTGAGGGTTGTATCAGTATAAGCAATTTGTCTGTAATGGGTGTAGAGAAGTTAAGAGAGGTTACATTCTTTAACACTGTCATTCTCACACACACACACACAAAAGCAGGTCTAGGTTCTCTATGGCTTTGTCTCTGTTCCAATAACTCTGAACAGTTTATCA
0.7795919439826893 TCTCCCAAACTCCACAGACACCCAAACAACCAAATATTCAGAGAGCCCGTGCCCTTGCCCTGCTTCAGCCCCACAGCCCCGCCTGGGTTGCTGGTCTGACCCGGCTGGGCAGGGTGGCTGTGAGCTGCCGGTGTGGCCCCAGGCACCTCAAAGGGTCCTCGGTGTTCAACAACAGGAAGTGCTGGCAGGCTTCCCTCGCTAGGGAACTGAAAGTGGTGACAACAGAGGATGTGTTCTTCAGGCTATCAGATAAAGCCCTCTGCACTGAGAACTGCTTCTGACGAGGAACAGAGACTTCACTGGTCTCTTCCCCATGCCTTGCCCTTGCCCTAACTAACTTCTGAATTTATATCACCTGTGAGTTCTGCTCTAATTCAGGGACTTGGGCGGAGAGGTTTCGGACAGTGGCCAAAAGCAAGAGACTGTCTGCATGACCCTTTAGAAACACCCGTGACCTGGTGCAGAGCTGAGCCAGCTTTGGCCACACTGTTTGGGATGCTGACTCAACGCAG
0.4431231997160039 TGTTCCTTATGAGGAGATTCCCCACTGTGGTTCAGGTTGTTAGTGCCTCTCCGTATCTTCTTTCTTGCAGATGTGACCAGGTGACCCCCCTCTGGCCAGGGAACAATGGGCCGAAGTCCTCAGGGGATTTGTGGGGAAGCGCGCCCCCTCCTCCTTGGGGTTTTCTTGCGGAGCTGCTGTGAAGACTCAGCTCAGCTGTGATAATTACCTGAGGTCAGCTTCTCCAGAATGCCCTTATCTCCTAAGGCCTTTGAGATAAGCAGGAATTGTGGTGTCTGCCTTGCCTCCAAACCTTTATCCTTGCTTATCTCAGTGGAAAATTCCAGCAGGGATTTCTGAACACCAAGTTAAATTCCTCCACTCAACAATCAGTTTGGCACGTGGCTGCCCGCCAGTCTGGGCAGAACAGAGGGGAGCCAAGGGAATAAACCCAAGTCCTGCCCCCAGGTGCCCAGAGCCTGGCGGGGATGGGACAGTTGCCTGCAGAGCAAGAGGCTGCCACCCAGTTTCACACAGGCCAGAGAG
0.5401822096564173 AAGAAACTTTTCCAAATCAAAAACTGCAAAAGTCACATATCAGCCAACACCAGAGAAAATCCACAGCAATTCAGAAAGCAATGATGAAAACTATAATCAAATTCTGCTACCTGAGTGGCACATTGCCTAATGCACTGAAAGCAAAATAGAAACCCCTAATCAAGAAGTCAGCATGTTGTTTAGGACAAGGGTAGATCAAGTATAGTGTCAACATGGCTACAAAGTCAAACCAAGCAAAAATATTGAGTGCTGACAACACTCATTTGTTTCTTATCTTTCTTTCTGATTAGCAGACTTGGACAAGGTGGCATAACAAGGTCCATGAACAGTATGTGTGTGTTTAACTACTTGTCATTTAAAATTTAGATTAGATAAGACCTCCAATAAGCCTTCACTGATTGCCACTCCCACCTCCTATTCATCTTTGCTCCTTGGCAATCCCATACACACTTATAATGATCAAATACCCTGACTGACTAAGATTTCTTTCTGTTGTCAGTTTCCTCCGTTAGACTGTAGGTTCTCTGACAACAGG
0.5276019173918773 CGAGGGTGACTGGCAAGTCAGCTGATGAGTTCTGCCTTCTGAGAGCACTGAGTGAGCAAGGCCTTTCATCAGTGTTTTGGCCTTCTCATTGGGTGAGGAAGACATTGAACCAACAGCCAACGAGATATGAACCTGTAAGAAAAAAGTCCTAGAATATAGTATTTTTCCCCAGGCCAGCAAAGTGAAGAAATACAGTGGTGACAGATGAGAAAGGCCATGTTCAAGAGATCTGAAAAGTACATTCCTGCCTTATCAGAAAATGTGTCAGACAGGTTTTATGTCAGCCTCAGTGCTCCTGCGGTGTCGACGCTCTGATAAGGACCATGTTCCAGTTAGAATGCGAGGGAGGGAAAGAGCTGCACTTTGCTTCACCATCAGAACTCTGAGCCAAATAATGAATATGTAAACTATTTTATGATTATTTTAAATGTTTGTTTGGTAACATTTATAAGATCTATTTTTATTTGGGGATAGACTGAGAAGCCACCATTTACATATTAACAAGTGACTTCAGTTCTAAGGGTTGAGATGCCTGTGTGGATTTATAAAATGGTTGCAAGATCTTT
0.441162291360476 AGAGGAAGACCTGCAAAACCAATCAACTCTGGTTCAAGTGAAGTGCCCCTGGCAGAGCCGGAAAGGTGTTACAGGGTTTGTTTGTGTGGATGGAAGAGGCTGACCTGTCCCGCAGCCTGAAAACAGGAGGTGGGAGGGGGTGGGCAATGGAGCCCTCTCTCTGCATGGAGACACTTCAACGAAGATAAGGGAAAGCTTATCAGGCAGCATTCACGGTGTCAACAGCAGACAAGAAATGTTTCTAACACTTCAGCCTTGCCAACACTCCCTATTTATCTCAAGAAACACAAGTGTTTTTCTTTCTTTCTTTTTTTTGTTTCCGTTCTCTCCTGCTATAAAATGCTCAGAGTCTCACAGTGCAAGATGAAGGGTTGACACGCGGTGAAAACTCATTTTTAGATTCCATCAAGTTCCATCAGTCGCACTCCCCTTGCAGCAGAACCCAGCAGAC
0.2454558478792574 GTAACAATCTCTGCCTGTAATAAAGGTAGAAGACTGTGCTGGAAGCCAAGTGAAGTTTTTCCTGAGGGAGGAAATGGCCAACTCAGTGACATGCTGCTAAGAATGTGAGTAAAGTCAGTATAAAGTGTCCCTTGGACTGGGCAATACATAGGCTTTTGGTTATCTTGACAAGAGCAATTTGTTTTCAGTAGTGGGATGAAAGCCAGATCAGAGTAGGTTAGAGATTGAATGGGAGGTGAGGAAGTGGAGACAGCGCACAGTTAAGTAGTTGAGATATTTGGTTGAGAAAAGGGAGAGAGAAATGGAAAGGGGCTAGCTGAAAGGAATGTGGAGCCAAGAAAGAATTGTTTTTACCATGGAAGATATGAATGGCCCACTAGAAAAGGACAGATTGGCATTGTCGGAGAGAAGAGATAACTCCCAGAGAAAAGGCTGTAAGTATTTGAGAGGTGATGAGATCCAGAGCACAGGCAGGGGCTTGGCCATTGGTCCCAGGTTTGCTCTATCCGTTAACAAGGAAAGAACAGATACAGGTGTGAAAGCAAGCAGGTTCCCATGCATGACAGCAGGAAGATGAGA
0.570854908618693 AGCATATGTGAATTTTTTGTAGACAGTTTGTTGTTTTATCAGAGGCTAACAGAAGTATGGGACTCCTAAAAAGTTTAAGAACCACTAGTTAGACAAAGCATTTAAGCTGCTCCTGGTAATCTGTAGTCATGGAGAGTTATGCAGGGATGGAGTAGGGCAATGCCCTTGAAAGCTATCTGGATGTACAAGGCTTTCCTGTCCCTACGTCAAGTAACACTTAGTAAGCACTTACTAAATGCAGAGCTCTACATGGATTATCTCATTAAATCCCTCAACACTCATTGAAGAAAGAACGATAACATGAAGTCCATTATGCCCATTACAGACAGAGATAGTAATTAGGTCGAGGTCACATAGCTACCAAGGAGTGAGGCCAGATACCTATCTGGCTATGCTGGCTCCAAGCTGGCTCTCTATTATTGTGAGAAGTGGATTGAAACAAAAAGTAAATGGACTCTGA
0.4116347370907656 CTCACCATGCTGCAAGCGCTACCGGTTTCCGAGACGCGACCACACAACCACTCAGCTCGCTCTCTCCACTCGGACTAATTCGCCTCCTCCGCCCCCAGCGCCTCATAAACACCTCCCTCCGCCAGATCCCTCCGCCGCATCCAGATAACGGAACATCGCAAACGAGTCCCGGCCAACCCCCTCCCCTCAAACTCTTCTCGGGACCCCTTTCTTCACAGTTATTTGGTCGATGAGGCAAGAGATCAAGGAAAGTGGGCGAACGGATGACGTAAGTGGGTTTCATTTCCAGCGAGCCGTTAAAAGGCCGGTGGAGCGGCCCCTGAGGGGCGCTACTTTGCGGCGCGGAGGAGCATCGTGGCGGCGATGCGTCCCCCGTTGGTCGTTGAGCCTGCCTCTGATTGGCTGGTTTGTACCTGCAATGCGTCACTGGGACTCGCAGCCGCCGCCGGGACGCGGTGCGGCTTCTGCCGTTGCTGCTCGGGC
0.9074586626891218 ACTGTTATTGGTCAGAGTTTTGCTCTAGAGGACAAGTAGGACTGTAACATCTCTAGGATGGGTCACTTCCCAAGCCCTCTATTACTTAAAAATTCAAGGAGGAACCGATGCTGGAGTACTTGTATCTCAGACTTCTAATCACTGCTCCTACGCTTTTCCAATATTACAACAAAAGACCAGTAGGGGGAGAAAAACGCACAGTACCGAACCCTTATCAGTAGTAATCTCAAAAGTCAACAGATTGATTTACTCTCAAGCAAACAGACTTCTAAGGTACGCAGCACCAAGACACTACCTTGAATCAAATCTATAGCCTATATGACATTTCTGAAGTCTCTGTTGGCATTACGCGAAAAATCCCCCACGTCTTCTGAATAGTTAGAATTGAATCCTACAAGCTGCTTCGAATCAGAATTCGATTTAAAAAAAAAAATGAGGGCATAGCAAAAGGTCTCCACGAAGTGAGTCAAAGGACTGCAGAGGGCTGTGACAGTGCATTCCGCCTTCGGGATGGTATACAACTTAAACCATGTCGGCAGAAGAACGCACAGCAACGCTTTGTAAAAAGCATTCTTTCTATTATAGAATCCATAACCACGCTGGTTAGCCACTGACAGCGGCGGTTAGCCACCGCACCTCCTCTCACCCCCGAAC
0.301124165030287 CCCTGACCTTGGGTTAACAGACCTGTCTTAGTTGAGTCAGCCACTCTGACTTAAAGTCCTGGGCATGGTCCTTGGCTTTCCACATCCTCCAGCTGGAGGTGATGAGAGCTTCACTGCATGTAACTGAAGAGTCCCTGTGGCTTGCATTCCTGGCTTTCAGTTGCCTGTTGTTCATCTTCAGCTGTGCATTATCTTTTTGGAGAGGATCAATGACACTTAGCAATAGCCATCCAATCCCACTCTCTTAATGTCTGCACCTTCTTAAGTGTCAAGCGTCCTGTAGATTTCTCTCACTAGTTCGTTCCCTTCTACTAACACACCATCCCAATTCGCAACTAATGAAAGTGTTAACAACAGGACCACCACCTGGTGCAGGGGCTGTCAGTACTCCACCTATCACCAGAAAAACAGGCCCTAATTGCCAGGCAGGTGGTGAGTGATTCAACTTCAAACTCTGTCTTATCTCCACCAGCTTTCTCAGCCCCCCTCTCACTGCCAAGTGTTGCAAGGCTGGCTGTCTAGAAGCAGTCACTGACACAGAGTTTGGGGAGCACAATACTTATTAGAGATTAATACCCATAAAAGGAAGAGAGAAGAGACAGGATTGGTCAGAGGAAGAAGGTGATCAGCAACACAGACCCACAAAGCTTTGGCTAACCTGGC
0.5317076592887582 CTGGAAAAGGGCAGTCATAAGAATAAAAAAACACCTCTAAGGAGACAGAAGACATACCTGGGTTATTCCAGTAGCTTCAGTCACAAATACTTGGCGTATACACTACCACTTGCCTCTCTTGTGCCCTTAAAAGGCTTGAATAATAAACACAATGCTGTCATCATGACTTAAGCTTAGCACCCTCTCAAACTTCTCAACACGGTATTCCCAGCAGTGAATACCCATTGATTAGATAAGGAATGTGAGAGTGAAGCCTATTTTTAATCTCTGGATAGCCTGAGAAGTGGTCCCAATGAGTTTATCCAATCTCATGTCCAATGTGATATAATACATAATATCTTTGCATAATTTTGCAATGTCATTTCACACCTGCCTTTCCAATTGAGGGGATTGGAGCACTCATACGTGACTGATGGGCAAGAAAGAGTTCTCTAGAAGGAGAAAGGGGAGAACAATGGGCCTGCCAGGTGGCACTGACATATG
0.748292481834305 CCACAGATCCAAAAAGAGAGGGTCTTTGGTGTGATCCTGGAACAGAAATATCAGTAACATTGGAGCAGACACATCATTTTCCACATAAGCACAGAGCATGAGAGGTTTTTGCCCTTTACGGTCAAACCAGATGTCTCTCATTGACCTTTTATCACGTGAAAAGAATAGAATTCAAGTCAACTTAAACGGTTATCAGGTAACCATACATGACATCATGTTTTAGTGTTTAAACGGGCAGAACACTCTTTAGGCCTTTCATTCTTCTAGCCCTCTTGAGATAACATTTGTGATAAGGTGTTGAAAAGAGCATAAGGTTTCCATCAAGCCTTTGACTCGAATGCGAACCTGTCTCCAGAGGACTTGCGGTGTTACACTTGTTTAAATGCCAAGAATCAGTAAACATTATTATAAACAAATTTTCAATAAAATCATCAAAGGTCTTTTCCCACTGAACGTGAACTAATCTTGGCCATATTTTTA
0.2960445201505644 TTTCTGTTGCTAAACACGGCTGTTGCCAACACCATCTCACTTCATTTTCCAGAGATAAGGGCATTTGTCATGCGTTTCTCAGCCCACCACTTAACAGTTCAGGAGTGGAAGCTTAAAGTGTTTCCCCCTCCCCCTCAGGACACGTGCATTTAGAAGAAAGGACAAGAATCCATTTCCTTATGTAGCAGAACCTCTGATAGTTCTATCCCAGTTCCCAGCCACTTCAGAGTGAAGACAGTCACCCAACACCTGCTACTAAAAGCCCTTATCAGCCATGTTTTTGCGGTTAATCTCCTTCTGATAAAGTGGTTCATTTTTCAGAGCTGTGAATATTGGTGACATGTAGGAGGGACCAAAATTTTCAGCCCTCATTCAACCCTCCCTTGTTTTTTATCAGTTGATTTTCCCATGTTAGAAAAGGACAGTTGCTGGTACAATCTCATAAAATGGGCTCCAGTGTTTAGAGAAGGACAGTCAGAGGAGTGGCCACCTGTTTGTTGAA
0.2629727767587999 AGAGCAGCAGCCTTCCGAACAAGAGTTTGTTCACCTTGGAACTGCCATTTACGTGCTAAACAGCTCTTGTTACAGGAGAGCTGCTATCAGGCGCTGTAGAATTTAGCAGCTCTTTGCATAGTTAGAGACAGTCCTTGTTAGGGACAAACTGCCTCAGGAAAGCTTCTTGGTGCTGCCCACCCCTCCCCCTAATACTCTGCAACTCTTCTCCATGCTGCCCACCCTTCCCCCAAGCCTCTTTACATTCCTAAGCCCTTATCTAGGTGCTGCAGTGAAGCCAGCAGACTTCACCTATCAGGCCTTTCTGCGATAAGCAAACTCCAATTATAAACCAACCTGATCGCACAGGGGGAGGTCTTGGGAAGCATAAACAAAGTTTACCTACACCCTCCTGTAAGTTCCTGTTCGTCTAGCTGCTACTATAAATGTCTCAAGGTGATATGAGGCAAAATTAACCAGCAAACAATCCCAGGATGTGGCCATACCAAAGAACTCCCTCAAACTCCC
0.9592721702201571 GAGTTGCTAAATTTGCATTTTCTTAGGCAAGATATGCATCACGTAGTTGAGAAATTTTTTGGAGATTAGTTACTTTCATTACTAGTCAAGGCACAAAATGCTAAACCTTAGAGCACTGATTCTGAGCCCTTGCATACCTCAACCCGTAATAATAAGAGAAAGTTCCTGTATACATTCCTTGCAGAGTGTGATTTGAGAAAAAGCAGGGGGATGAAATTCAGGTTCTAGTCTTTAATGACTTGAACACAGATGTTGCTGTTGACAGGCGGAGATATGTTGAGTGTTGTTTCTCCATTTGCTTAGCAAGATTTGACATGTGGTGAGCCAGAATAGAAATCTGAAGAGTTGAATCAAGATGTGTTGAGAGAACTTTGGGTGTAAGAAGTGATAAAAGAAGCAGGTCTGGATATACAACATTAGGTGGCAGATGGAAACTTTTTCAAAAAATATCTTTCCAGGATTGCCTGCTTGGATAAACTGATTGGTAAATTTAGTTGTCCTTAGAAAAGAATTTTTAAAATACAGAGGATACACAGCCAGTATATCATCACTCTAAACAAACAGTGCTCATTGTTCATCTATGTGCATTTGTTCACATTATGATAAGTGCTTACAGATGGGTCTGGCAACCTGAACTGGAGGAAATAAAATAAGGT
0.5663321743436959 AATGAATGAATGAATGAATGAATGATCCAGACCAGCCAGAGACTAAACTGCAAGCAACGTTAGGTTTCCCTGTGACCATTCAGACTTAATGTGACTCTATGAGAAAGCACTGTTGCAGGCCGGGGATTGGCAGGCAGCCCCGGCCCCCAGCCTCAGATAACAAGCTGCTCTCCAAGAACACGTGCTAGGAAAAGTGCTTGATCAGAGTGTCAGCTTGTGGACTGAGTAGGAACACTAAGTGGTTTTGTCTGTCACCTCCTTCACCCCAGCTGGAATTTGGCCATAATCTGATAGAAACACTTTGCCCACTTTCAGGAGAATTTTCCACTATCAGTAAGGCTGCTTTTTCATACTTCGGCTATCACCAAAGCCTTTCAGAACACTTGTACTACTATCGCCCAGGGGAGCTTATATGTCTCAAGGGTAGGGGGTGGGGGACCAAAACCATTCTGAGCATGGAACACTCAGTTGATTCAGGTTTCATCCATGTTGAATTTCAGTCCCTGTTTCCTGAGGACTAGACTGTACTAGATGCTGTCCTG
0.686813976472046 TAGATCTGTTCAATAGGCAAATACACATTATGGGCCTGGGTTTGCTTTTCTACCTCACAGGTCTTTAGCCAGCATTATTATCAGAACACTATGTTTGGTCCACCAGCATGGACAATTATATATCACAACAGCCCAGAAGACCCAAAGTCCCTCAAAGGAAGTGTAACAGGGCACTCATGATTGTGTCATACATTTTTCCTATCACATACTGAACCATTCAGCTACAAGAGTGTTGAAATAACTAATCAAAGATACAGAAAAAACATATCTTTGAAAGGTGTTTCAACACTCTAGTAGATAAAATGTATCTTTGATAGGCTATTTCAAGCTACTAGAGTGTTGAAATAACCTCTACTAGAGTTTCCTAGCTACTAGAGTGTTGAAATAACCTATCAAAGATACAGATAAAATGTCAAGTTACTGGCAATATAAGTTTGGGGAGTCATTTTCCAGGATTCACTATGTACACAGTAGAAAATACTTTAATACTATACTTTGTTCCTAACAGGAAAAATACAGGGGGTGGAAGTGGCATTCTACCACAAATGTGATCCACTATAACATTACTTGGACC
1 TTTAGCATATTATAGGATATTGACTTGAGTAGGAGCTCAGATTCCACAGAGAGATAGTTGGATGAGGTCTATGTATTAACACCATATTGAATACAAACTCTGTAAGTGGGAAGCATTGTTTCCAGGAAGAGCAAATACCACATTCCAACCATATTTATGGTTGTTGAGTCAGGGAGATTCCTGTCAACACTACCTTATCAGCAACTGTCTGGCTGAGAGTAAGAATAAACTTTTGCCTCTTTTATATACAGATTTTATGTAGTTAATTAAATAAATGTTAATAAAAACCATATTAAAGCAATTTCTAAAAATATCTTTTTTAGCCACTTTTTTTTAGGTCTTCAATAGAATAATGAAATCCGTGAAAAATCCTCAGGTCTTCAGGGTTTCATCTTGATATCTTATCATTCTGTCAAACTATAGGCTGAGGGAGAAACATTCTGCAGCTTCCCTTAGAAGACCTGCTTTCAATCTATCTTTCCACAGAGGCATTTTTCAGGATTCCTGTGTCTAGATTTCACCCTGGGAAAACCAGGGATAAAACCATCAGTCACATTAATTGCGGCCCAGGGAATGTTCAGCTGGCACATGTGACTAGACCAGTGGTAGAAGGCATGCAGGACT
0.6414563354205314 AGCACAGTGTAAGTTGCTAGGAATAAGGCCATCCAGAATTCTATGCTGAATAGCGTTTCAGGGTGACTTTGTATTTTGGCAACATATCCCAGACAGTTAGTGGAAATGAGAGAACATGTTTTATTTAATTTGTACTTTGGTACCTTTTATGTGAACGAGGCATGTTTAAGCACTTAATGTTGTCACCAGCCTTTTAAAACTATCTTTTTTTCCCGCTGCCCAACTGTAGTTTCCCTTCAGTGTTGAGTGGTCGTAATCTAAACACATTAAGTTTTTGTCTTGTTCTTTCTGCAGAGATAGAAAGCTGGGTCTGAAAATAAAAGCAGAGCTTTTATACAAGGAGGTCAGTGTTTGTACTCAGAAAAGAAAGTATGTAAACCAGATTTCTAATGGTTT
1 CCCAATGATCTCTGCCTCCTGGTATTCAAACCCTTGTATAATTTCCTCCTCTTGAGTGTGAGCTGGACCAAGAAACTGTTTTCTAACACATAGAATATGACAGCATTCTTGGAATATCACTTCTATGATTAGGTTACAAACTTCCCAGAGCAGAAACCTATAAATAGAAACCTCTGTGGGAACCAGTGCCTTGGTAGGGAAACCTAAACTGTGATTGATGAATTGCTATCAGTTCAGTGTGGACAAGTCTGAGAGATAAAATCTCTGGGGGAATCCAGTCATCAGGGGCCCTGAGATTTTTATCAATTTTACCTTTTGGAGATTTACCACATTCTCACAGTGAATATCAGAGACAATTTCCTTCATGCTTCCAGCAGAAGAAAGGGAAAATAAACTATTTGGAAATATTCCAGAGCATTCTGCTCTTCTTAACAAAGTCTGGCCTCAAGAGGAAAAACTATTGAATTAGAGCCTAACCTGCTGGGGTTTTCCAAACCTAACTGACCTGAGAAAAGGAAAATACCCAAATCCAGTTGGTTCTAGCT
0.8191217210762866 ACTAAAAAAACTCTTTAAAGGCTGGATAAATAGTAAGGAGTGTGTTTAATACAACTAATTTATAGATAAATGTGGTGCCAAGCTAGAATACATTAACAAGGTAAGGCTTCAGGGTCTCTAGGTAAGATAATATATTGCTTTCATTAAAAAGCAATCTGCATGGACGATATCCACCACCACTGGAAACTCTGCAGTTGTCACCTTTATCAGGGGAACAAGAGCAAGCCACTACATTTTAATCACTGGAGTTTGTCAGGAACGAAAAACAGCCAGCTTCCCACAAATCAACAGACATGTATCCTGATAAGGGAAGTGCATTGGAAAAGGACAGCTACATACCACATGACACCACCTATTCCAGGGTGATCAAAGCTCCATAATTGTTGAAGATAAATCTACTGAATTGGGCTTTAGGATGAAATAGTTGTCTTTGAACAAAGTAGACACATACTTGTACAAATTACCCACAACTTAGAACACTGTTAGATCTAAGTATATTTTGCAATGTGGGAA
0.6370255102212721 ATCTCAATGAGAGCAATTAGTACACGACCAATTCAACAACCACTAGATATAATGACTGTCCTACTTTGGTGCAGCGGACATCTTTTTGTTGTCGTTGTTCCCAACACCATATAAGTACTGATTAGAAGCAGGAATGCCTGTCCAGGCCCTGTGAAGGAGGTGATGAATGGTATGTCTGAACAGCACAGCCCTGGCTTAGTATCACTGAAATGCCACACTCCTCACTGAAGTCTGTTGATAAGCCTGACAGTGCTCAGCAACTTTTACCAGCAGACTTTATATCGGGGGACCCAAGCTGAAAGTTAGCACATGGGGTGTTCTGTCAGCACAGAAGGCTTACACCATTAGTAGATCTAAATGGTGTTTAGATTACGGAGTTCAACAAAAATCTAGGTCATTAAGTGCATAAAAGAAATGTTACAATGACTCCATTCCAAATAAAATGATGTTTGGAGGGAAACAAAGAAATTAATCTTGCAGTTTATTGGTAATAAAGAAACAAGAGACTCATATGTTGTTTTACGTATAGATATTATCTTAGTGCCATTTGGGACAGCTTATTCTTCAGCCTTTTTGAAATATGAA
0.5314219015738306 AATTTCATAAGACTGTGAGATGAATATGGATACTGTTGCCTTTGAGGTACAAAGAAATAGAAAGATTATCAGTATGGCTCACCATAGAGGAAACATTGGAGATTGAGGAATCTGAGTGTTTTCTGACCCCAGGAATGGAGCAAATTGAAAGAATAACAGTGGAGAACCACATTTTTCCTCTGTTAAACCAGAGCTATCTAGAGGAACTCTGCAGTATTGACGTGAAGAGAATTGTAGTGGATAAGAACAAGGAAAATTCAAGGCTTATCAGTAGAAATGGAATGTTTGAAGTCGGAGAACTCATAGGAATGCTAGTACCAAGTACAGAATCAGATTAGCTGGAGGAGGGAGCTGGAGAATGTCTACACTTCACTAGATAATGAGAGTGGAGTGAGCCAAGAACTCAGTTGGAGTTTGACGGAATGAAGCAGAGGGTCCAACTGAGGCTGAACTGAGCGTGAACTACATTCAGCGGCCTAGGCAGTGCCCTCCTTGATAAGATAATGATAACAAACATATGCAAATGAATTAAACAGTACAGCAACATGTGGTCCAGCTAGCCTCACCTTGGACTCTGAAAAGTTCCATAGGGGCTTAAGTCCCAGACAAACAATATAGCC
0.9700377791510172 AGGAAAACATACATACCCAACCCATATGAGTCAATGGGGCATAAGAGCTTTCTGCAAAAATAAATCTTGAAAATGTTTTTGCTACTTTATAAGTCTGAAAAATAATTCAAGCCACTCTAAACCCTTGAAATTCTGTTGGATAATGAACTTAAGGAGCTGTTGACATCCATGTCGCCTGGTGTCCACACTTGGCCTCATATCAGACAGCCACTGGAAAGCGATTTGCATGAACATGTATCTGAGAACCCTCTGTTTTATTTTTAAATGATAACAAAAGTAAGTACAACCATGATAGTAGCCTACTAATAATAAAGGGAGCTATTTATACATTTTTAAGTGACTGTGGTAGATATAGTTAGCTATCAACATGAAGTTCTTGTACCTTAGAGATGGCATGTCACTGAAAGAAACAGACTCCAGGTCATGGGAGTTCCAAATCTCCTCTCAGATGATTGGAACCCAGGAGTACACCCTTCCCCAGCATAACCTGCATGTAGATGCATAGCCCACTGCT
0.7659060707624004 GGCAATGAAGGTCAAAGCAAACTCACATTTACCTGATTAGTGCCAAATGTTTCTACTACAGGTTTTGCATGTCACCAGAAAAAAGGCCTGATATGTAGGTGTTAGAGCAGAATAGTATCTAGCCTACAGGAAGATTAAAGGATTAAAATGAACTAATACTCTACTTCCTAAAACATACAGACTTCTACACAGTGCCAGTCAAATGGCAGCCAAGTGTTATCAGCAAGGCTAAATTTGGATCACATAACCTAAAAACCACTTAAGATAAAAAGAGTGCTGAAATAAGCGCAAGCCATAATAAGGGCCAATGAGAGAATGGGTCACGTCAGGTGACATGGTTTCCAAAATAAAAAAAGGCCAACTCAAAATACAAAAGAACTGGGATAAATTCTTGATAGCTGGAATGTTTGGTGGAGGCTTAAAATGAGCACCTTACACCCCACCCCCAACAAAAGGGCCCTTAGCCATTCTTTATAGAATTGAGATCCTGCTTTAAAGAAACCAGAGCACACA
0.3136455017146703 AACAAATCAGTAAGTTAGGGTGTGTTTGCTTACAGCTCAGACACTTTGCTTGTATCAGGATTTTTTCCCCATATTCCTCAAAACTGTATATTATACACATGTGTTTTGTAAAGAGGAACTCGACTATTTTTATCTAGAAATGCCTAGATATATTTTATCTATGCCTGATATAAGTATGAGCACCACAGTAATGACAGATAAATGTTTAATTCATTCTTTAGCTGAGCACCAAGCTCTTTATTTTATCTACAAAGCACTTTAAATGCTCTTCAGTAGACATTGTCCCGTGATAACAGGAACAATTGGTAGATAGAGTGAGAAAGATTTTATTTTGCATACCAAAATGGACTATCTGTACATTGTGCTGGGGCAGGGAACAAGTTCAGCTCTGACACTGCAGCTGAGCAGTTGCTCTTAATATATGACCTCAATGACAGGGAATGATGGAGAGGCCCCTGCCTGAAGGCTGTTTGTAATGCCAAGAGCAGTAAATGAAGAGAAAGGCCTGGTCATAAGGAAAGG
1 AGGAATCCACCCACCTGAGCCTCCCAGAGTGCTGGGATTATTGGCATGAGCCACTGCTCCCAGCCCATACTTCATTTCTTTTTTATGGCCAAGCAATATGATGTTGTATGAATATACCACATTTTGTTTATCTATTCATCTGTTGATGGATGGGTTGTTTCCTTTTTTTAGCTTGTGAGAGCAATGGTGCTATGAACATATGTGTACAAGTTTTAAATCTCTTGGGTATATACATAGAAATGGAATTGCTGGATCATGTGGGAAGTCTATACTTAGCTTTCTGAGGACTTGTCAAACTCTTTTTCAAAGTGACTGCACAATTTTACACTCTTATCAGTAATGTTTGAAGGTTTCAATGTCTCCACATCTTCACTAACACTTATTGCATTATTGCATGTCACTTTGATTAAAGGCAGTCCTGTGGACATAAGGTGATATCTCATTGCAGTTTTGATTTGTATTTCCCTAGTGACTAATGATATTGAGCATCTTTTCATGTGCTCATAGGCCATTTCTATATCTTCTTTTGAAAAATATCTATAAGACTCCTTTGCCCACTTTTTAATTGGGTC
0.1318558878485795 CGTCCCACTGACCTTTCTCACAAGCTTCAATCCTACCCCGGAGTTGGAACCTAAGACTGACAGTTATTTGTTTTATGGCTGCTGGAAAGAACCTCTGGAAGTGATGAAGGGTGTTGGCCAGGCCCCTTCCCTTGCCAATCCCCAGGCTCTTGAGTCTTTCAAATGCACCAACCTCTCTGCAGCTAAGCCCTTACTGATAAAGAATACAGAAATCACTGTCCACTAGACCTCCCATCCAATGCTGCCTTGCAGCGTGCAATTTTCTGCTGATAAGTGAGGCGCTGTTATCAGTCCACATTCAGAATGCTACTCCATGCTTACTTCTTAAATGTATTCTCAATAGCCCACTTCAGCTCTAGAAACTGCAGATATAAGTAGAGTATCAGGCCTCACTGTCAGAAAGAATGCAAAAGGTTCGCTTTCTACAGTTTTCCTGGCACAACCTTCTACTCACAACCACCCATCAACCTTCCAAACCAGCTTGTATGTGATTAGAAAGGAT
0.7393461430344589 AGTCGCCATGGAACTCAGCAGGGAAGAATGGCGCCAGACCATGTATTAGAGGGAGAGTCACAGGAAACTTCCAGAGGAGTACTATCTAAACAGAAGTCCAAAGCATGAATAGGAAATTGGGGGAGGGGAGGAAAATACTGAGTCCCAAGCAGGCAGCAGAGCCTGTGTCCAGATAAGAGGGGAATGGGAACAGCATGGTGTCTGCAAGAAACTGAAGGAGGCCGGAGGTCTGGAATGTGGAGAATGGCAAGAGATAAGGGTGGCCATCCATCCTGGCGACAGCAACTAGCAACTTGGACCTTGATAGGAGTTAGGAAGGCAAAGAAGGACTGTGCAAGGCTTAATCATGTTGTAAAAGTCAAGAAACCAGATCCAAGAGGTATAAGGAGAGAAAAAAAAAATTAAATAAGTTAGTCCCAGGTCTAGGAGGACCTATTGGAAGGGATCAGGTCAGTGATTCAAACC
0.7137254865169521 CTATCCAATCCGATTGTCTTCTCTTCCTCTCCGGGCCCCACCTTATCCCCTCCAAGAGTCTCCCAGCGTGCATGGGGAGGGGCTGCAGCGAAGAGGAGAGGGGGTCCTTCGAGTCACTCTCTACGCGCGAGGGAAGACAGGCGTTGAGGGACTGCTGGGAGGAACTGTAGGAGGAAGGGGCGGCGTTTCCGGTGGGGAAGAGTGGAGGCGTGCAAAAAGGAAGAGGGAAATCGGCAGGAGTGATAAGAAGGGGGAAGACTTTGAGTGTAACTCCCGTTCTTTTGGCCTGGGTGTTCCCGGTGGTGGGATTGGGATTGCCCCCTTGCGCGGGAGGAGAAGGGTGGATTGGCAGGAAGCCGCCAAGCGCCACCAGCCGGTCTCTCAGAAGCCGCACAGGCGCCACACAGCTCGTTGATCCCAAAAGGGAGCGCTACAGAGAGGCGGAAATCACTGAGGGACAGGCGCTGCTGAAATCTCGCGAGAGGGACCCCC
0.2764178940220511 CTGGTCCCCATCAGAGCTGGCGTTCTGGAGACCACACAGGTGCTGACAGCCCCGGGCACTGATGTGCGTCAGCTCGGGCCGAGTGCTGGCTGCCCTGGCTGGGATTGGCAGCAGCACTTCTGAGCCTGGCGCTTTATTGTGTACTATCTTATCTCAATAGGAAAAGGCAATTCAGGGGAAGAATTTCCCTGTCACAGTGCTCCAGACTTTCCATTGTCCAGCTTTCTTAGTCCTGGGTCATCCCCTGGGTCTGACCATTACTCATATCCATGGAGGCACCTTATCAGGGCTGTCTAAGATATGGGGCCTATTTTTTTCTCAGTACCAGACAAACTGGAATTTATCCACCCTTTGTGGCCTGACATCACACGACAATTAGTCGGCCCAGAATCCAGCCACATTTGGGAAGCTGCTTGAAAAGCAGTCTCTAATAACCAGCTCTTTCC
0.6303666663460632 GCTCGAACTTGGCTTACCTGACAGGGGGTCCCTGAGGCTGTCCAAGAGAAACAAGACCCTAAGAAAGTATAAAAATCTGAGCTGCAACAAAGCATTTTTTTAACCTGAATTCAAAAGTATTTTCCTTAGCCCGTGCTGCATGTGCTGTATTGTTAACTTCTATCAAAGGGGTTCATATCTCAGGAATCACGGGAAACTTTCAAACATGATTGATGGCCGGTCAAAAGAACATCCACAGCGCGATAAGCTGCAGAGAGGGAATGTGCTGAGCCGGTTCAGGATTGCCTGGCTGTGCCTTTCAAATTCCTTTCATCGCAATCGGTGACTGTAAGCACTGCAGGGTGAGAACAAGCCAGGACTTTGTGGAATATTCTTAACTGCTGATATGTAATCCATACAGCTAGTGGTAGCAGCCCGAGGATAAAAGATTTAAAGAAATAGAGACACAAGGACTGATTTTTTTTAAAAAGGCAACTTGGAAGGAAAAAAAAGAGTGAGAA
0.4882550576681946 TTTTTCTGGTAACAAGTTGCTACTCTTTATGCAACCTGAAATACTTAAGAGAAGTAAGACATAACTCCAGTAGCTTTTGAATCAACAGTATACGTGTATGCACTTAGATTAATATAACTGCATCTGCACTTGCAGTGTTAATTCTATTCCCTTGGATTCACACAGAACTCGATACTGTATCTATTTGCCATGGCAACACTATCTTGATGAAATGCGGGCTTCTTATCAAAATGAGTCATACTTCTGGTAGTGACAATATGACTGTCTTCCCAGAGCACAGCAGCAACTGATTCTTGTGCTAGGAAGAGAGGGAATGTTTCATGAGTGTGTGGGTTGTAAACAGAACAAAGGGGTTATCAGCAATTCAGACTAAAAATAAATTGCAGAGTTAGCAACAGCATTCTCACTAAGGCCCTGCTCCAGAAAAGCTTCAGATAAAAATTTGTGTTTGAAATTTTTCTA
0.5428629513667538 CTTGCTAGTCACCACTTAAGGAAGTAGAGATTTTTCCAGACCCTTCTGTCACTCTGGGCAGGTGACTGACTTATAACTCAGGTGTGCATTTGCCTGCTTAAATCTGCCTCAGTTCCAAACAGCTTGCCATGCTCTATATATAGAGATGACTTCACCCTCTGTTGGAATGCAGCAGCTGTTCAGCAGTGCACACTGATATGCTTCAGAGACTTAGGCCATATCTAATTGAGCACTTCAATACTGCAGAGATAGGCGCCTTGGAAATATTTAGATAAAATACCTTTGGCCAGATGGAAGCCGGCCAGGATACCAGCATAAAATCTTCATCTCACAGGACTGCTAGTGAGCCTTGGCGGGGGGCTCCATGGAGGGAGGTGGCATCAGGAGAGATGCCAGTCTGTCCTATCCACCCCCTGCACTGTAAACATGACACAAAGAATAGTAGGAAATAGGAGAAATCAGAATTTTGTTGCTTCCTCCTTC
0.5823753393919752 GGGTCTTCTCTTTGCTGCTTGGCTGCGTGTTGCCTTTGTCTATTAAAAGGATGTGTGTAAGTATGTATGTCAACTGGGGACTTCAGCCTCTGTAGGCCAAGTGTTGAAAAGGGTGAGAGGGCTGCTCTGGTAGAAGTGTCAGAGCTGGGATGTCTGTACACCTCCCTCTCCATAGCTAGTCCTGGAGATAAGTAAGAGCAGATTCTGGGACTGAGCTGTCGCATACACCCTGGTGGTGATAACAGCAAACACAGCAATGGGCTATGTAGAGGGAGCCCTGAATAATCTCCATGAGCTGCAGAGATAGGGCCAGTGAGTGGCAAATCCTTTTATAGTGTGGAGGAGAGGAGGTGGGGAGCAGCTGCAGGAGAAGGTGGGGAGCAGCTGCAGAAGGAGAAGGTGGAGCAGGAGCTACGTTGGACAAGCCAGTGAATACTTTGCTCTGATTGGACAACCCAGATCATG
0.4760857019852515 GATTCGATCTAAACAAAAAAAAAGAAGAAGTGATGGGTCTCTAGCTGTGGTCAGGCACCTGGGATTAATTTCTGGGTGAGGAGGGGTTTTCTGAGTCCCTCAGGAAGCTTTCCTAGCTGGTTTTGTCTACAGTCACACCCCTCTGTGCTTGCCCCATCACACTGCTGACAAAGCCCTTGATTCTGAGTGATGGCACTCCACGGTTCCCTCCATCACAGGTTGGAAGATAAGGCCTGACTTATAGATAATGGCACTTGTTTTGCTCTCTCTGAAGCCTGTTCAGTCCACATGGCCCAGTGCTCTGGGGGTTACATTGCTGGCAGTCCTTGCATTCCCTGCACATTCCCCTACAGTGGACTCAGGAGTAAGAATGGCACATGGAATGCAGGCAGACACTTGGTCCTATTCTCCCGCCTGAGTTTGCAGCAGCTGCTCTCTAATTAAGCATCCTGGT
1 ATATTACTTAAAATGAAAACCAAACAACAACAAAAATTCAGTGTAACTACAAGTCTAATTTTCAATAATTATCTAAAATAAAATAAATGCTTAAAACAATAATGTGGCGGTTAACAATAACAAAATGGAGTCACTTATGTCAAAACTTTAACCAAAATGAAGTCGGGGAAGGCCATAAAGAAACTCTCTCCCTTGCATTCCTGAAATATCTGGACATCTTGTTAGTACTTGTACACAGAGCAAACAGAGATTATCACAGGAATTTCCTCTGGCCTACAGTATTTCAGATAAGACATTCAGACCTGGACAGTTGCCTAGCAACAGCTATCTCCCCAAATGAATTAGTGCCAACCCCTGCAATGTGTCCCTGAGACCAATGAGCTTTGTTTCAAAGCAGTTTGTGTAAATTTCTCTTTGTCTTTAAAAATTTCCAGTTTGTCCCAGTTTTCCTCATGTGGGCCCATGATTTTCATAGCATGTACACCCTAGGTTGCAAGCCTTTGCTATTACCAAATAAACTCTTTTGTTCTAGACAGCCTATCTCTCTGAGTTTCTTTTTTAGG
0.2685865180549644 CCTTCACCATCTCATCTGATCCTCCCAGCAGCCAGCAAGGACACGGGGCAAGGCACTGGAGGCAACAGAGGCTCAGCAGCAAGACAGGGTACGTGCAGAGAGCTGCGGGACAGACGTGGCCTCACCAGCAGGACCCGTGATTAAACAGCAGCTGTGGTTCACTAAGTGCTTTCTGCTTATTATGTGCCAAGTACTTCACATGTGGCTGCTTTGTGTCATTCTCACATCAAACCTGATGGGTGGTTACTATAATTATCTCCTTTTACAGATAAGGAAACTGAAGCCCAGAGGGGTGGAGTAACTAGTCCAGCAAAAGTAAGCCATGTAACTGGGATTCAAATTCAGCTTGAACATCTCAGCACTCATCTGTTTTCGATCACATAACACTCCCTCTAGGCATTCACAGGAGCTCAAGGATAGGAGTAGGGAGGGGAAAGCTAGGAGTCCGAAGACTTGAGGGGCCAGGCATGGTGGCATGCACCTGTAA
1 TTAAACTTAATTAATATCAATTTCTGCTTTTCTTGGTGTTTGCCATTTTGTGTCACATTATATGGCTGATTTGAAGATTTCCATCTCTAATTAATGTATTAATTATCATAAGCAATTTCTCAAATTTGAATATGGAAAATCAAAAAGGCAATAAATTTCCCTTATCAAGTGCTCTGGGTCCAACGTGCATATAGACACTCACATGTGTTAAAAGTTCAGAGTGCCTCCTTCACCACTGCTTGAGTGATTTCCCTTATCAAGTGCTCTGGGTCCAACGTGCATATAGACACTCCCATGTGTGAAAAGTTCCGAGAGCCCCCTTCACCACTGCTTGAGTGCAAGGAATAGTCTTGGGTATTTCCTTCATTGAGCTTTACTTTCATTGGGCATTCACTATCTGTTTCATCTTGGAAGATATGCTTCATCTCTCTGACCCTCACCTTTATCCTTTATAAAAGGGGATTCTAATACAT
0.3478808920929739 CCTCTGTAAGTTTGAAAGATGATTTCTTCCAGTGAAATGGATGTGAAAATAATGGATGAAAGAAGTTGTAAGTGCTCCAGCACCTAATGTAAGATTGTACCCCACACACATTCTGTCCAGGAATGAGCTTATCAGGTGCCAGCCTCAAGGCAACTAGTCTGAAAGGACACTGAAGAGCTTTCCATTCTAAAGACACTTGTTTTCCAACTTCCTTATCTTTAAGTGAGGAGATAAGTAGCAACAAAACTATGTATATCACTTCCTACAGAATTCTTGCTCCCTTATCCACATAGCTTCATCCAGTTTCAAAAAGGAAATACAACAGACTTTATCACCCTCACTCAATGGCCCCACTGCAGCAAATCTTTGTGGTCTACAGCATAATTTTCCAGATTAGTGGAACAGATCCGTTTTCCAGATATTTGTGAACACAGCTGCTGACTGCCTTATCAGTGGGGGCAAGCAACAGGCAGCATAACCCGAGTTTATTTTTTTTAGTTAAAAATAGGAACATAGCCAGCTA
1 ATGAAAGTGATTTTTAAAAAACAAAATATTTTAATGTAACATTTAAAAATATGTATATAAACTAGTCTATATGTGCCAGATTTTTTACCATAAGCATATGAACATGCACATAAACATGCACTAATATGTGCATATAAATATGCACTAATACCAATTAAAAGTCATCTCATAGTCATTCTGTTCCATCAGCCCACTTAATTACGCCTGGACTTTGGCATTTCAGCAATGTTATCTTGTGCCGACAATTCAAAGTGCTCTTTATGTCTTCTACCACACACAATTTCCTGGCTGCCATCCACAGTCAGTTAACAAACAGCTATGCTCCATCATATTTGAGTCCCTGTAAGAATAAGTGTTCACATTTGGTTTTATATAATAAAACTTTATAAATTGGAAAGCCTAATCTAATATGTGAAGGGGGTATTTCGTACTTAAATAAAACCTTGCTGATTATCAACAA
0.3083812619578185 AGATTATCATTTTCTGTAAGTAACAAGTTTATCTACCTCTTAGGAAAGGAATGGGGGGAGAGGACGGGAGAAAGAGAGAGGGGGGCAGACAGGGGGCCTGTGCATGCTCATGAGTACATCAGTCGGTATTTGTTCTGTAGAAATTCAATTTATTCAACAAAAATTCTGGTCTTTTTAGCCTTCAGCTAGATTGTGTCTGATACGCAGAGGTCACATGTGTTTGGAAGCCACTGAAAACCTCCTCCTCTTGCCTTCTCTGATTTCTGTCTCTAGAATTATCGCTGCCTTTCTTTTCTCTGGGCCACTCCCTTCCCCATTATCAGCTCTCCTCTCATGCTTTCTGGTAGTTCTCACTGTCATGCCAATGACAGACCATCTGATTAGACTGTTTTAAACATTCTAATTTTAAACTTGTGTGTGTGTGTGTGTGTGTGTGTGTGTGTGTAAGCGGTATACGTATTCCCAAAAGGCTGTTCGATGAAATTTGATTTATGTCCTCTTTCTGGGCTTACTCTCAAATATATATGAAAGAGTGCTGACTTTGTACCTAGAGGGTTTACAACTGAGCCAACTCATTCATTCATTCACTCATTCATTTATT
0.6805255359475962 GTGTTTGAACAAAATGAATAACAGAATGGAGACTTGTATTCTAATGCTTGTTGCTCATGTAAACTCATGTTCTGCATTTTAGAATCTGTTGAAGCCATAGCTTCTGCTTTGGGAATAAGCCCCATTAATCAGGTCATTCCTTTAGGTGTATTCTGAAGTAGCTACTTTTGGTGATTAAACTTCACGTATTATATTAGGTAACACAGCATGCTGTTAACAGCATGTTATCAGTAAAGGCAAGAGAAAGCATTTATTTTAGATAAGGCAGGCTAATGTCTGTCAACTATAACACTGCTCTCTGATATCAAGGTAAGAGTAAGCTACAGAATGCCATCAGCAATAGCAAACATATGCTGAGTGCCTACTATGTGCTGGGCAATATATCAGATGCTGAGAAGAGTTATATTATAATTCATAAGGGATACAAAATAGCAAGCAATTCAAAGTAGTAAAT
1 AAAAATACTATTTTTTAAGTTTTGAGGAACATTTATACTATTTTCATCTATTACTGTCAAACATGCATTCGATACTAGTAAGAAAGGTGGGAAATCTCGCCTAAGGTTTCATGAAGTAAAGTATGCATCAGAGCTGGAATGAGAACTAATTCTTGATTTTAGAAGATCCCACGTCCATGAACAGTCCTACTTAGCAATCAGTGACTCAGAATGAAGGCAGTCGAGTACAATAGCTTGAGAAAAACACAGTTATCTTCTGAATCTGTTGCCACTAGGGGTCAGGCTGTTGTTGGAAATAGTTCAGGTTTCCTCATTTAAAAAATAATGCTGGAGGACAAGCTAACCCGAATCCAGACTGTTCTTCTCAAATGCTTACTGTGATCAGATTTTCAGAATACATACCAAGTGGTATTAGGCGCTCCTGAGCAGAAGAGTTCAGACTGTAGGCCATGGTTATCGGGTCAATATTTAAAAAGTTGCTGAAAGG
0.276080274756868 CAAGTGGAATGCAATCAGATTCCATGGCCACTTCTGCATTTGTTTTTAATTCCATGTAATCACCATGGCTGCAGCTTTTAATCTCCTGAATGGCCATAGCATACATTGCTGGTTCCATGCCAATCCCCAGAGCCCAGGCACCACTGAATGCAGGTAAGTGACTCACATGCTTTGAAAAGTTCCTTGACTCACCCTGTCAGTGACTATAGTCAGGGTTCCTTATCAACAAGTCCCGCCCCTTCTTGATAGGGGAGGACCTCTCAGCAGCACGAGTTGCCACTTCATCCTTCACACAAAGCTGTGGTTGTGTGGCTCCACAGCCCCCTTGTCAGTAATGAAATGGCCATGTGTGCAGTACTGTGAAGGGCCACAGATAGTTGCCAGGCATGCCAGCTGCAATGGAGTGTTTTGAGACATTGGAGTTTATGAGTAATGATCTAGGAGAGCATAGTTATTTTTTCTGAAGTGGGCCACAGTGAGTTCATTCTGGTTTAAGGGGCAGTGTCAGCCTGTGA
1 CCTTCTGGCCACATTTTTAAAAAATTAAAAATAAATAAAAAATAAAAGTAAAACTTCATCTAAAACAAAACTCATGATGATGTTTCTTATTCTCTGATGTTGTATTATTTGAAAATTGTTTTTCTTTTTTTCCCAAGAAGTATAATAAGGCTAGAAGCATTCAGAGCGACACATTCTGAAGATACACTATCTGAAAAGAGACATGAGGAAATTCCTGTGTCTCCAAATGGCAGACTAAACTCACAATGGGGCATGACTTGTTATCACCTGCTGGAATGTTTCAAGTGGCCTGATTTGACAAGGCAGAGGTGATTTACGGTTAATGTTTTATTTGATTCCAATGTCTAACAATAGAACAGTCACTTCTGTTTATTTGGGCAACAGCAGAAATCTGACTTACTATGCAGAATAAATGCCTAGAAGACATAAAACATATTAAACATGTAGAAATAAAGCTCAACCTCATCTATGCCCTTACATTTTATAT
0.2606609495297362 GGAGAGGCAAGGACACGGGGCCTGGCGACCCCTGAGTTGAGGATTCCGCAGGCCCTGGGCCGACTCCCACTGAGGACTGAGGACCTGAGGCTCACGCTTCATCCCCAGCGCCGGCTCCCTGAGGAGGCCCCTCTGCACTCTGTCCCTCCTCAGGGGACAGGAGGGGGAGGGTGCAGATAAGGCACCGGGCCCCGGGTTATCTGGCTTGACCTTTGGAGAAGCCGAGAGGGGAGTGTTGTCACCCAGAGGAGATAGAGGGTCGCCTGGTGGGAGCAGCTTCCAGCCTTCCTGAGTGGTCAGGGGCAGGGCCCTGCGAAGACAGCCTGGACTGGGGCACTGGCCTGGCCTGTCAGCGCCATCCCTGCGCGGCTCCCAGACACCCAGCTGTGCCGGCCTGGGGCATGCATGAGCGCTCACGTGCCTTTGCTTCTGAAAGGAACTTGCAGGCTGGGCAGCCGCTGCTCCAGGGCCTGG
0.4982130804622849 TAAAGGAAGCTCCAACTGAGAGGGCAGTGACACGACAAGTACAATCCTGTCCCCTCTTCTCCTCCCCCCTCCCCACCACCTCCTGGGCTTCTGAAAGAATCAGTGCAAGAGCCAACATCTCCTTCAACCCATTGACGTCTGTGAGATACCCAGAGACGTTCAACCCAGAGATATCCAGGCTGCTTGCCAAACAAGGAAATCCAAGATAAACGTGCCATTCTGTCATGACCTTATCCTGCTGAGAGACAGACAGAAACAATGGCAGAGAGGAATAGCCTTGCATGTTTTCATGGCACCTTTCAGAAAGAGATGAAATTCACCATCAGTCACACCTCTTGGAGGTTGTACCATTTAGCTGATAAGAAACAGCCAGAGAGGCAGGGAGTATGGACACTCCTGAAGGCAATCCTATGAGGAGCCCCCTGAAACTTCTTGAAGAAGAAAAATAGCACTGTTCCCCTCCCCTTCCAACTCTTCACGCTGACAGGAGTTTCTACGAGGCAGTGTTTGTCAGTAGTATTATTAAAAAAGGAACCAGGCCAGATTAGTGACTCA
0.8094898981980932 CCTGACAAGACTTCTTATGTATTTGAAACTGCCTTGCAAGCATTTAATAGTAAAGTTTTTTTTTCTCTTTTTGGTGTCTAAAAGAAGTTTCAAAGTTACAAATGATTTTTACTTGTTAATCATAATAAAGTGGTTTTAATTCTAACCACTGCAGCATTCTCTGTTCCTTCTCAGGATGACCTGGCATCACTAGCTGGTTATATTGCTCCTTATCTGATTGGAGCCTTGTCAGGAATGCTCACCTCTTAGAACTGCCAACTGAGGCGATGCCACGTCAGCTCATTGACTCACGGCATTGAAATGAAACTAACAACTGGGACTGAAACTACAGGTCCTGTGGACAATGGCATCACAGACACATGATCTAGAGCTATGGCTTCACGTTGATCACAAGTCGGAGCTGGAACATTTTCCTTGCATTTAAATTGCTGATGCATTTCTTTCTTGAATCAGGGA
0.6054392943078547 CATGGTCACTTGGTGCTTTCTGATTGTTTTAATTTTGAATTAGTTGCCAACATTTAAAAATTAGAAAATTCTGAAAGCTAAAAAATCTAAATTTCCCTTGAAAATGTGAAAGAGCAGACAACACTTGGCCCTCATTCCTGAAGGAAACAATTTGTTAGATTAAGAAGGGGTGAGTCCTTCCAGACAGAGTATGCTTTCTAGATTAGCACAGTCCCTGTCAGCACCCATTATCTTGCACTCATTCTACTTCACTCATTTACATTATCAGCCTGGGCTCTGTGGTCTAACCTTTCCACTTTGCAAAAAAAAACTGAGAGGTCTAAGTGGTTTGGTCAAGGTCATAGATACAGGTACAGTGTTAATATCTGGCCCTAGGCCCGAGGCTTCTGGTTAAGCTCAGTGTGTTAACACTATCTTCATGGGCCCTTTGGAATCTATCAATGACCTGTAAACACCTAGAACACTCAATTTGCTGTTCCTTTACAGCCCTTACTACTTCTTACTTTCCACTGGAGTTACTTCTAGAT
0.4607942554780233 GCACTGTGTATTTCTCATGGCCTGCCTGGGAGCCCCCATCTCCAGCCTGCTGTGCTGGCTACTTCTGGCACTTATAGCCCTTGAGATAGTACCGCCAGCAGCTCCCTGTGAAGTGCTAACACCCCTTCAAAGCAGCACCAACCCAATTGTGAACAAGCTAGGAGTAAAAGACGTAAATGAATTGGTCACCCCAATGCAGGGGATACAGACTTGTTTTAATATAAAAAAGAAGTGGCCTTAACCGTGCAGGGCTTGCAGGCCTTTGTAGGCATGGGAGCATGCTGTGATCCCTGGTTCTGTGCTAAACACTCAAAAGGGCTCTCTGACTCAAGTGGAGGTGATAAACCTTTTCAATAGTAACAGGAGAGAGTGTGATATCAAAGTGCCAGAAGTCCTCACGGACCAACATTTAGCACAGACATTCAAACTGCTGAAAGAACCAAACAGAACTCAACTGAAAAAAACAGACCTTTTAAGAAAAGCAATAGATCTTAATTTGGTGGCAAGATC
0.5845794372370506 CTTGCTTCCAAATCACTTGCTGAAAAATTAAAACTAGATAAGTAAGGACAGCTGCCTTTATACCTTCTGGCCTATTCACAGGCAGATTTCCAGACGAAACCAAAGGCCTTCATGAGGAAAAACAAAGCTCCTCAGTCTCAGGGCAGCTAATGCTGGGCCTGGCATTTTTTCCACTCTTATCTAAAATATGCTACAGGAGAATCTAGGCCCAGTGATAAGCCAGGTTTCAACTTCACCTCCCCAGCCTGAGAGCGATTACACACATACTTGGGATTTAACCAGCAAGAGAAGGACACGGAAACCTGGGTCCCTCCGAGCCCAGTTTCTGTTGACACTGTTGCCAGGGCTGAGCCAATTGCACCAGTGTCAAGAGCTCCACAGGGAGGTTTCAGCAGGGAAACCAGCCCTACAGGTGTATCCAGGGAGGCAGGTGTACA
0.9152125223798462 CTTGCTTCTTTTATTCAGTATTACGGTTGACAGTCATCCTTGTTTTATAGAGCTTTGGTTCATTCATTTATTGCTGAAAGTGAAACACATTGAATGAATATATTACATTGTATTTATCCATTCTTCTGTTAATAGTCACTTGAGTTGTTAGCAACCTATCGCCTTCACAAAGAGTGCTGCCTTGAACATATTTCTGTAACTCTCCAGATGCCTATGTACAAGAGTGTCTCTACTTAATCAGGAATGGAATTACAGGACTACAGAGTGTACATGTCATCAGCTGCACTAGATAATGCCAAAATGGATTCCAAGGAGTGGTTCCCATTTACACTGTCATCAGCAGCATGGGATAGTTACCATTATTCCAGGTCCTCACCAAAATTTGATACTGTTTTGCCATTCTGG
0.5964968173670883 AGTACAAAATAAGTGAGGTCGGAGAAGTAGGTGGGAGCCAGATTGTATAGGGCCTTGTGGGTCACAGTAAAGAGTTTAGATTGTATTTCATTTGCACTGGGAAGCTATTAGAGGGAGTGATGCAATCTGAATCCCATTTTTAAAAGATCGCTGACAGCTGAATAGTCCATTGAAGTGTCAGTGAAAAGCAGGGCGAAGGCTGTTGCAGAGTCTGGGACAGCCTGGACTTGAGTGTTGGCAACAAAGACAGGGAAAAGTAGTCAGGGATACATTTGGAGATAGGGCTGACTGAATTGCTGACAAATTAAGTATTGGAGATGATAAGGAAAAGAAACTCAAGTTTTATTGCTTGGCTTAATCATTTAGTAGAATGAGAAAATCTGGGAGAGTAGCAGAGTTGGGGATATGGAAAATAAAAACTCCTACTGTGGATAAGTTAAGTTTGAGGCATAATCATTTAATCTTCATGTCTTTGCCATATTCAGATAACAATATCAGGCATCTCCCTCCTTGTC
0.5527391477447547 CCAGGGAAGGAAGAAGAGATTAAAAAAAAAAAAAAAAAGCCCCACTGCCAGTCGGGCAGCTCTCTGTCTGCTGTCTGCAGGCTGCTGCTACCCACTCGTTACAATTAAAATGAAGTGTCCGTCAGCGGCTATCTTCTCTGTGTGGCCCATATGTTTCTGAGCTGATACTGTCCGGATTATTCTGTTCGGGAAAACGATAACGGCTGTTTATAACCTTGGCAAAGACTGAGGCCTAATCAGGCTGGAGCACATTTTCACCGACTGGCTGATAACAGGCTGTTAGCAGCCTTATCGCTCGGGAGAGATAGGCCAAAATAAGCAGATCTGTGAGCACAGGAGCCCAATCGAGTGGTACACACTCTGGCCCTGGCTTTATTTTTAGATTTTCCTTTCCCGGTTGATATCGGAAGGCACAGAGGCAGGAGGTGGGGTGGATAGTAATGTGTGCCCCCTTGGGGGTCAGAGTGAGGTGGAGGGGGATGTTAATCACCATGAGAGGCAG
0.1665982106762735 CCTGCTATCTCTGGAGCCTTTCTCTTCACCTTCATCCCTTCACGTGAAACCCAACGCCAGAGCTTCTGGGACAGCCTCCTCATTGATAAAGTGTTCCCTGACTTCTCAATGAGCTTGCACACTGTAGCTGCAGCGATAATGGGCTATATCTGGCTGGCCCGGAATCTTGCCTATGTTCCAGTCAGTGCTGTGACTATCAGTTGTCTGCTGAGCATGAATGGCCAGAGGCAGAAAAAGGACAAGGAGCCCCGCTGGTGAGAAGTGGAAGTGATTAACTTATGTCGCATGCTCCAGCGGGAGTCTCAGCCAGCGATAGGCGAATGAGTGTATGATGACAGCTGCCTTGGAGTTCACACCACACCATCAGCACTCTGCAGGAAACAGATTACTTCAGGGCTTGAGAGCTCGTTGACAGCTGGAGCTTTCTGATAAAGTTGTCAGAAAGTGAAAAGGACAGTCCCAGGAAGTTGTAAGCTTCCTGTCCTTGGAGGTGTTGTGGTAGAGGAGGAGAAGTGGTGGATGGGATGTTGTAGACGAGGTTGAAAGTGCACTGATGGGCTGGGTGCGGTGGCTCGTGCCTTTAATCCTAGCACTTTGAGAAGCCGAGGCAGGCG
0.3902756102120888 GTGGATCTGTGGTAGGTGGGGGTCAGGAGGGTGGCTGCCTTTGTCCGACTAGAGTGTGGCTGGACTTTCAGCCGAGATGTGCTAGTTTCATCACCAGGATTTTCTGTGGTACAGAACATGTCTAAGCATGCTGGGGACTGCCAGCAGCGGAAGAGATCCCTGTGAGTCAGCAGTCAGCCCAGCTACTCCCTACCTACATCTGCACTGCCTCCCGTGACTAATTCCTTTAGCAGGGCAGATTAGATAAAGCCAAATGAATTCCTGGCTCACCCCTCATTAAGGAGTCAGCTTCATTCTCTGCCAGTCAGAGCTAAAAATAGAAATTGTGTAGGAGACAAACCTTGTTAATTCCCTAGAAATACATTAAGAGGATAGAGTGGAATTTTTTTTCTCTGCAATCTTGCATTTTTTTAATGGCTCTTTTTTTTTTTCCTGATAAAAACCTTTGGTAGGTAGGGAAGTTATGTTTTCAGGG
0.2903669837651829 AAAACAAAGGGGCTACCAGCCCCATGCAAGTTCGAAATCCAGCAGGGCGGTCAAATTGAGAAGGAAGAAAGGAAGGAACCAGTTAGGCAGATAGCAAAGTCCTCAGTTGAATTTCCTTTCTGATGAAAGAAGCAGCCTGAAAGATTAAACTTCACACACAGATAAGGAAGCAAGGTCCAGCATAAAAGCATGCCTTCTGTGTAATCAGCACATTTCACATATATACAGTGGGGCCTCAGTGAGCACATTCCTTTCCTTTTTTGGATGTACCCAGATAAAGAAGCTTACACTGGGAGAGGTTTACTTGGAACATGTCTGCAGCTGCAAAGATAAGAGGAGCTACACTGGGCTAGGCATGTCTGCAATGAAGAATTCTGCCCCCTAACATTTGTGCAGTAAGGGAGGTTGAACAACATGGAGTAACTCTGGCCAAGAGCCCACATGCGCACTAGGAGGGCAGGGTGGGGGCGG
0.1663417084631709 TGCCAAATTGAACAATAGCAGTGGGGAATAAAGGGGAGGAGGGAAGAGAGGACTCAGATGAAGGCAAAGAGAAAAAACAACTTTAGGAAAGTGTGAAGTTTAAGGAGACATGCCTATAACACTGGCTTTCTACCCAGTCTCATGCTAACTCCTGGCTAGAAATATATAGGGACACAGACACACACACACACAAACACACCACCTCCTTGAAGGAAGAAACATTTTATTTAATCAGGATTGCTAAGGAATGTTGCTGCTGATAAGGCGACAGAAAATATTTCTGGGAGTGCATTTTCGGAACTTGGGAACAGAGACAGTCTGTCTGAACCCAGCTCAACTTTTCTTTCTTATCACTTTTTAAAAGCATGTTATCTTTAAGAGCCAAATTAACTTTTCATGATATGGTTTCTCAGCAGCTGACACTTGGGCATTACAGGGCTGGACAGGAATGACTAAGCAGTTTTGTAAAATGACTATCCCCAGAGCTGCTGGCTTGCTGGTTTTGGTGTCAATCATATATTTAGGATCTTTTTTCCTGTCTAGATTTATGTAGCTCTTTAAGAATAGAATTGCTTGGTCC
0.4590818432753151 ATACCTAAATGCTCTGTAAGCTTAGTGAGAAATATAACACAATTTTTGCCTTTTTCCTTGGTGATTCTATCAATGTATAAAGACCTCATGATTATGAGGCTACTTTTTTCCTTTATCATCATAACTCTAAGCAGGGTAAATGCAAATGCACTGAACTTAGGTCACGAAAGTGCTACATTTCTTCTTATCAGGCCTGACGTTATCTTGCCAAATGGCATGTGAAACCTTGTCTTACCCTCTTGGAGAAGGGCAGTGTTGACAACTGGAAGACTGAGTAGGGCTGGGTTTGTTAGGCAATGGTTTCTGTGGTAGAGTTGGTAGCTGTACTGACTCAGATAACAGTTCATTCATCAGACCGTACGCTTGTGAGATTCGACGACTATAGTGTTCAGAGAGCAGCAATCTGTAGACAAAGAATTAAGCATCATTTATTAAGAGTCACTTT
1 GAGATTTCAGCTGCTATTATAGTTTTTGAAGGGCCTTCCTGTGACAAAACCACAAATCCTGGTTAAAATTTATTTTTTAAAGCATCGAAGAACTTGCAACAAGTTAGACAAATTTTCAAGGCTACCTGCTTTACTCTTCCTGCTCTTTCCCTCCTCCCAAAGAAAGAAAAATAAAACAACTCATGAGTTCAAACTGGAGTGGCAGCCACAGTAGATAAGCAAAGAGAAAAGTGGTGTTATCTAGAGGCACATACCAGTATTTAATCTGCAGTGGGCCTGAGACAAAATAGGAAAGAACTAACTAAGATGCCTGCATGACACGAGGGCCCCTGGAAGAGTGCTAACATGCTCCCAGTCAGTAGCTCCCCCAGTTTCTAATTCTGGAGCAAAGCCCCCCAATATTCTCATAAATTAAGATTAATCAAATATGAGTTCAGGCCAGGCATGGTGGCTCACACCTGTAA
0.0320228298147247 CATACATCATATTGGAAAATCATGTTATATTCCAGACTCCTGAGGCTGATGCTATCTCTCTCCCACATATATCTTAGTTTCTAAGAGAAAAATATGTGGTTTAAGCTCTGATGATTATAAAGTCTAATATAATGGAACATCCACTACACTACATACATAAACACACACACACGCACACACACACACACACACAGAGAGAGAGAGAGAGAGAGAGAGCTCTACATTTGCAAAGATAAGTCCTACTCTAAACACTCCATGCAGAAAAGACATTTCAGTTCCTGCCAATATTCTGGAGGTACTTACAGCATAAGTGGACTGAGCTAGGGAGTCTTTCATTGCTTCTTCAACACCTTTTGTAACAACTATTTTAGCAATGTCAAGTTACAGCAAGGTTAAGAACACTACTTTGAATTAAACGACTGAGATTAGGAATAAGTAGGT
0.4840448035015888 TTCCTGGACTTCACCTCAAACCCTGGCAGCAAGGGAGCCTGAGAAATGTAGTTGTTAGCCTTCCAGCCCCTATGACACAAGAGTGTGTAGAAGGGGGTAGATGTGAACAGTGAGTGCCAAAAGAGCATGTCTGGCTTATCTCTAAGCTGTCAGACATTCTCAATACCTTTTTTGATGGCTCTCCTGCTTATGTATTTTTCTATAGCCAATTAAAAACTATTGTTGTACAGTTATTATGTGCTAACACTGTGTTAGGCACTTCAGAATGTACAGAATGATAGCATGGTTTGGATCACCTGACACCTCATCCACTCAAAAAACTTATGTTTAATGTCTATCAGGTACTCAGAAAACCATCAATAGCTCCTCGTTATCTATCAAACAAAGTCCAAGGGCCTTAATTTAAACCTAACAGACTCTCCATGTTTTCATGACCTCAACTCATGTTTTAAACCTTATCTCTCATTTCTCTGCTTATTGAGCTCTTGTGGACCAGGAAAACTGGATGATTTTCTCTTCTTTATACATGAGCCTCTTTTCTGCCATCAGCACTTTAGTTACAATGTTTTTCCTCCCCAGAATGTCCTTCTTTCCATCTCCCTATGGTAAAGTGCTGCTGGCCCCTTAATGTCCAGCTCACATGTCACATCC
0.07702447796519464 AAGTTAAAAGACTGAGTAGTGTTGCAATGAAACTAAATACCTCGTGAGAAGGCAGGTGTCTTTGTTCCTCTCCCACCATGGACAGCTGGGCTGTTCCTTCTCTTCTGGGTGCTCTCAACACCTTACTATCAGCTATCACCCAGCAGATAAGAATAAAGTAGCCAAGGAGCAATAGGGGTTTTGTTTTTCACTGTTTTTGAGATTGTAGAAATTGATAGCGCACTGCACTCTCATCTTGAGATCTGTGGGCTGAGCTCCCAGGGTTCTTAACATGGGCCAAGTTAGTCTGGATGCAACCTTTTGTTATTGTCTAAGTCACTGGCAGATTTAAAAATCACAGCGGTTCACAGCCAGATGACCAGCCTAGGGATGAAGGCGGGGCAGGGGGCGGTCAGTATCTCCACTCACATGTCATCTAGTCACGATGCAGAGGTTGAAACACTGAGTTAAAGGAAGCTTATCTTCATATGAAGAATTAGAGGCCACACCTCCCTAAGCTAAATTTAGAAGTGTTAGTATGTGAACAGGAGGTATACAGTATCTCAGGTTTCCTGGGGCACCAGCCAGATAAGACATTCCAGATAATTCTCTTCCATGCCTAACTTGTACCTCACCAGTCAGGCCAGAGGAGGCACTGCAGAAGGAGCTGTCCTCTTGTGTGGCTCTGTCCTTCTTTTCAAGTTTGAGGGGGTTGTGGACCATGTGAGGCTGGACGGCTCACATGTCAGCCGCCAGGCTCTTAGTTACAGACATGGCAAACTTCCATCATTTAAGCAGTGGCACAGA
0.758689806372691 AGACCTGTAGTGCTGAAGAGTGACCTTTCTTGGGAGTGACAACACGACCATTTGAGGAGGAGCTAGTTAAAATTGGAGTCTTGGTTTTTCAAATAAAAATCCCAAAGCGCAAAGTGTATGAAGCCTTAATGTCCTCATTTATTTTGTGGTTTGATCTATGGGCTTTCCCATTTGGCAGTGGCAGAAGGGACTTCCCAAGTGCCCACTGCTATCTGCGCTCACCTTAAATATGCCCAACCAGAGTCTTATCTCCGACAGCTCATGCATCACCCTCCCTGGGAGAGGGAGCCCCGCTGACTTGCTGACAGACCCTCAGTTAATTTCTGGATTCTTTTTTTTCTCAGTTATTTATAGCTCAGCTGCTGATATTTCAAGCTCTCATTGCTAAGCAAGGAAAGGCTTGAATGCTGCGAGATGGCAGCTGAGTCCGGCGCTTGCTTCACTCTTCATCTAGTTTGTAAGGTGTGTCCCATGTCCATGGAAACACACTGGGGCA
0.2422506861837147 GCAAATTGTTTTCAGATGACCTTGGAGAGCCAGGGTAGTTTGGCTGTTACTAACTGGAAGCTGCACATTCAAACATTTGGAATATCCTGAGGATTACAGATGTGCTGAAGGGTGTCTTGGATCTCCTCCAATGAGGGTTTCAGAGGTCATCTGAAAAGAATGCTCGCCTCTGCCTCATGCCTTTTAGAAGGAGGCTCTGTGCTTGTCTAGCTTTATGCAGCTCTCTGAAATGTCAGAAGATAAGAAATGCCTCTCAGCACGAAGGCTTCCAGACACATATGTGACAAGAAATTTGGCATCAGCTTTATAAGTGTCAGATGTCTAGGATAAAGCAATATGGGTATAGTATTTCTGGTGCTATTTTGGTGCCTTGTGCATGAGCCTGCAGCATTAGAAAAACTGCTTTTCAGCTTTGGATGGTAGCCTTACTGGCGCTCGGCATGCATGTCTGAAAGTACAGTTGGGTCATATTCTAGTTATGGTCCACAGCAAGTCACCTAGAGTTGTGATATT
0.141937975432661 TAGGTATGGTTTAATGGTAAGAGCAAAGTCAGTGTAGTGGCAAAGAACAAGGCAAGAGGGTGGAGTGGTTAGCAAGTGAAGGCTCATTAATGCTTAAGGCTACCTTTGAAACAGAAGTGTCTGTCTGACCGGATTCAGGAGGCCTGTCCATCACGCCATTCTCCACCACCATGATTCATTACTCCAGAGTCTCTTATCTTCAAATCAAAAGCAAGACGAGAGGCAGATACAGATATGAGGAAGTGCTTTGCTTTTCGCTACTCTGCCAAACATAGTTTACATACCAACACTGATAATCTGTCAGCCCACCTCTCCTGGACACTTAATCATTTCCCTGGAATCCACTGGAATAATTTTTTTATGCATTACAAAGTATGCTTCAGAGTGTCTATTTCTTAAGATAAGTTTGCATTCCTTTAACCAAGTGGCATTCCCACAAAGCCCCAAGGTGGCCCGTGTTACACATTCCTTCTTACAGCCAAAGTGGTCAGTTAGGAAGGCAGCTACCTTCATGGCCTGTTAGTAAGAAT
0.8362638744066471 CAATAAAATATTTTAAGCAGATATGTTTTAGCAAAATTTGTGCTGGCTGTAGTGTGTAGAATGGATTGGAGAGGAATACAGATGACTGGTTAAGAATCTATTGCAGGAAACTGAGTAAGGGTGATATGTAATAAGATGGTTGAGATGGCATTCTTGGGAAGAGATCCCAGTGTAAAGAGAAATATATTTTGGTTTTAGATATGTTGAGATTGTGAGCCCTTGAGATACCAAAGAGAGAATGTTAAGTGGCAGTAAGATATCTGTATTTTGAGCTCAGTGAATATGTCTGGAATGTCTAGAGCCACTTAACACCTTTTGCTCCATCTGTAAGAAGAAAATAGCATGCTGAGATTAGGAACTCCCTTGAGCCAGATCAAGTTTACCTTCTGATCATGTACACACAGAGACTTTAATGCATCTATTGAATTTTATTTTGCATTCCTTACCTTCTAAAAGCCTAAACTTTATTGTGTAGCACATATAATAAACATTACAAGT
0.5677564898155185 GCCTTTTCTTCCTCAAAAATTCAGGCTCTGATAGTAGAAAACCATGCTTTTTAATGTTGTTTTTGGAAAAGCATTTAAATGTCTAATTTGAAACTAAAGCCGGATTATGACTTTATTGTACTTGGCTGTCTTGATAGTATAGGAAGGTTTATACGTTCAAGGAGAAGGAGGAAAAGACCTCAGAGAATAACTCAAAATGTTATCTCCTATAGCTTTTCCATTCTGTGTCTATTCATAGCACTTAACGTCCTTATCTTTGTTAGCACTTTGCATTTACATTACACTGTGAATCCTCTGTTATCTTTAACATTTGGTAGAGTGTTTGATACATGTTCGAATGGTTTATTTTTAGAAGCAACCAGATTGTATACCCTTATGTATGTAGCTGAGTCCTAGGTCAGTTACTTTCATGTAAAAAGGTTGACCAACATCTTGTTAGGAAATGTTTGCAGCAAGATGATGTTTTGTAACCAGTTGGTTGGAAGTACAGGTGGCTTGGACTTGCATTT
1 CTTAATCCATACAGACTCACATTGCTCTGGAATTAGACCACCTTTTTTTCTTCCCTGAATGAAGAAACCATTTATTTAACAAAACTTAGGGGAATACCTATTTTGTGACTGACACAGGAATAGATAATGAGTATATTCAACCTAGTTGAATGGAAGAAACAGACATATACAATATCCACACTACAACGTGATGAAAACTAGAGTCCCTTGCTACTTCCCCTCCTAGCTAGAGATAACTTTGCCTCCAATGACACAGGTTCTTGAAAGCTATCAGATAATAAAGCATAGCCTGTTCTTTTTCACTTCAACTGCTGAATAACTGGAGAGTTTCAATTGCTTTTCTTTAAATACTCAGGTAATGAAAAATAAAAACAAAAAGAACGCAATGACGGAAGTCTTCCAATTGTCTCCAGAGTTGAGGAATATAGTTAGATAAACAATTCACCATCAGAATAATTTTTAAATTGACTGTGTTT
0.2741828796139492 GAACTTTTCAGCCCAATCTGTGGGAGGACATAGAGTGTAGCTCCGAACACCCGCCCTCGGTATTGCCACCCACTGACTGCGTGACGGCGGCCGTGTCACTTAGCCTTTCTGTATGTAGCTCAGTTTTGTCATCTGTACACGGGCGATAACTCCAAGAAGAGGTGAACCAGATCCGACCTGCAGAGACCCGGGCACGTGGTCTGACGGGGAGGGGAGCTATGAGAAATGATAAGACTGTCATCAGCTCTTCCATCATAAGATTGATGCCATCCTGTTGCCTGGAATGGAACCTGCCCCCTGAGTTTGCTCCAGCTCATGCCTTCCCCAGGACGATAAGAGAGAATGGAAGCAGGGCATGGAGTCCTTTGATCCAGTGGCCTTCACCCCCAGCTCCTGGAAGGGCTGTTGCTGGGAGCAGATGCCGGCAGCAGCCTTCTTGCCAGTTTCATTAGCATGGAGGCTCTGAGGACAGGGAGGGAG
0.6898588959829426 TTGGAGACAGAAACTCTGGCACCTAAAAAAAAAAGAAAGAAAGAAACTCTGGCCCCTGTGGTGGCTGAGGCTACTATGTTGCCAAAACATCAAATCAAGGTGGCTAAGGCATGTGAAAGTTGCCAGTACCAGAATGGAGTCACTTATGTCAAAACCCTAACAAAGTGGAGTCAGGAGGCCCTAAAAAAGTTCTCACCGCACATGCCTATAATATACCTTATCACAAGAAATTCCTGCAGGTCCCACATGCCCCACTTCTGCACTCACCCTGCAACAGAGCTTATCACAGGAATTTTTCAGGCCTGCAGTATTTCAGACAAGCTGCCAGCACCAGGACAGTTACTCAGCAACAGCCATCTCCACCAATGAATAAACGCCAACTCCTGCACTGAGCTTCTGTGACCCGTGAGCTTTATTTCAAGCTTTATTTCATGGATTTCTCTTTGTCTTTAAAAGCTTTCCCTTTCCCCAACTCCCCTGGATACATTAATGGCCCGTCATAG
0.5556619277228356 TCATCAATTAGGCTTTGACTAGGCTTGCCTGTAGAAACCTGACCTTTTAAGTTTAGGTGAATATGGACTAGCTGAACACACCATTGCCCTCAGCACTGAGCCAGGAAATCTACTGACAGGTTAAACAAAACAGAAGGTTGTAACTGTCATAATTTGCATTGCACTTTCACGCCAACAAGGGTGTTATCAGTAGGGGCAAGCCCTGGAACACACAACTCCAGCACCCTTAAGCCACGCTACTCATAAATTTTCAAGTGAAGTGAGATAAAACATAAATTCACAAATAGCAATGCATTTCTCATCTCTCAGTCTTTTAGGTTTGCACTTTGCAAACCCACAGAGTGCCCATCAACAACTCCTTTTGGTCACCTGGCACTCCCATTGCACTAATTAGGGACTTTCAATGACCATAACACAGAAGTAAAAATAACAATGCCC
0.9061129968822411 GTTACAGTGAGCTGGGGATTCCCTGTGTTTGCATAAGGTTGTCCTGTAGCTCTTTCTGTATTTACATATGTGATCTAGTCTTGAAGGTGGCTGGCTGGGGGGGCGCTCAGTTTTGTGTATTGAAAATTGCTAGAAACTGAGAGTTGGTTATTATATTGCCATTGAACTTCCTGTGTAATGGATGGTTACCATGTGTTTGTGTTATTCTCTGGTAAAAGGCACTTTTTATACCAGTGGAGTGTAAATTCCAATGTGAAAACGTTAATCTTTGAAAACCCTGAGCTAGGCTCCTGTTAACAGCCACTTGAGGTTATCTGGTGCTAGAGGCTAACCAGATCCCATTAGGCAATCCTTTCCCTCCCTGTAGCACATTACCCGAGGGCGGGACTCTTGGAAACTTCAAACTGAGGCTCCCCATGGCTGTCATTGCTTAAGATCTCCCCTGGGTTTTTACAGAATGGGATAATGAGAAACCTTCCAGACAGAGGGGCAGTCTTATACCTGTCTCCATTCATTTTGCCTCCCTTCCTCCTCCCTGCCTCT
0.5851124118627198 GCTGTTTGAAGTAGATATTTGAGTACTGTTGGATAATTTTAATAGCGAATAACTCAAATCCTCAGAAAATAAAAAGTGGTTAGAAGAATAAGCTTACTCGAGTTGTTGAAACTAATTTCTCTGCCACCACCAACTCTTTCTGTGAGATAATTGTGCAGGTGAATGCATGGAGAATTATTTTTGACACTCTTATCTTAGACCCTCACCCTAAGCCTGGAATGTGTATCAGAAATATGGCCAACACACTGAGACAGGAGATAGGTGAGGTCATGTTGTCTGTACAGGAAATAATGATGCATCGGAAACTGAAAGTATTTTCAAACGATAGAACAGCTACCCAGGAAGAAAAGACATTTGAACCTTGGCTGACCCATCCTAACAGAAATCTGCAAGAGTAGTGGTGAGTGGAATGTGAGAATGATAGGGACTAGTGGAAGGCTTTAAAGAGTGTGCAGCAGAGGTCATCAAGTTTCCCGAGATAGGCAGTACCTACATAGCTCTAGCCACATAATACACTGGCTAAGTATTTTAAGAATTGCAAATAATAAGAAAGAAGGCAACAGCCTCTCGAAGGCAACAGCCTCTCAAAGGCTTGGCTCCAGAACGTTTTAGGAAACATTGCTCT
0.5946154163013498 TTCACAAAATGAAGATGAAAACTTAGCTACAGAGAAGTCGGCCAGACTTTCCTGCGTGACCTTGGTAGTCTGCTGGTGATTCAGAATCTCCCTACCTCAGCCTCCTGGCTTCACTCAGCCAAGACTCCTTATCCACCAACAATAAACAGCACCATGTGGCTGGCTGTTCACCACTGTCCATCAGGCCCAGACATTGTTTTTAATCCCTCTACTCTAACAGAAAATGGTTCCAAATTCCAGGACTGAAGCGATAAGAGCTCCCCTGCTAAGCACTCAGAAGCCAGATGCCATTTAATGTGCCTGGGGCCGCCGATAACTGATAGCACTCCACTACTCCAGCTAAATTTAATTTCTCCTGCCTCTGCTCGGCTTGTCTGGGCACCTTTAGAAGGGTGTTGTCCTGACAGCTGTCTTGATTCTGATGAGCTTTGTCTGCACCTGATTAGCATTCTATTTCTATGCAAATAAGCACTTGCCTTTGTGGCTCCTGGATTAATGGACACTGTGAATTGGAGCCCTGGTCTTCAGAATCCAGAGAGCTGTGGAATAAAAGG
0.6872608958721402 TGAGAAAAGCTTTGGCACATTATTTAAATTTATCTAATTTATTTAATTTTATTTAATTTTATAGAACCATAAAAATTAGGGGGAAAGGCATGAAAGACAAGATGGGGTTGGTATAAGAATGTTAAATTTATATTGAGCAGAAAGTTAATAGCAAATGTTCTAAAATGGAAAATTAAAGAACAAAAAATTAGGGGGAAAGGCAAGAAAGATAAGATAGAGTTATATCTTATCTTAAGATATATCTTAAGATTAGATATATCTTATCTTAAGATATATCTTAAGATAAGATATATCTTATCTTTAAGATATATCTTAAGATAAGATGTATCTTATCTTTAAGATATATCTTAAAGATAAGATATATCTTATCTTAAAGTTAACATGGTATAAGAATGTTAAATTTATCTTGAGCAGAAAGTTAATAGCAGATGTCCTAAAATGGATGAACTAAAGAACAAGGTAGCATAAATAGCCACAAAAACAGCTGTGAGTAGCAAAGGTTAAGGCTGTTTCTGTGTGGAGTGAGGCAGTGAGTAAGGAGAAATAGACATGCAGGGAGTTAATGCTTTTCTGTATTTTATTATTTTTGGCCATGCCTGTGCTTTTTATTTTTTTAATAAATAAAAGCCATTTTTCCAAGCTTCGTGGGTTTGAAATTAAGGC
0.5810468746894243 AAGCTTCTGGGCCCATCTCCTCCTCCCTCTCCTCCCTGCCATCTCTCCTCTCCTCAAATGTCCCTGCAGTGTGAACCCCGGCCTTGAGGCTGGGAGCAGGGAGGCCAAGAGAGGAAGCTGTACTCCGCCTAGCTCCTGGCTGTCAGCACCCATGGCTGGCAGGATTGCCACAAACTCTGGCGCTCTAAAGGCTGATAAAGCCCCACAGCCTGCACGTCTGGAGCCTGGGCCTCCAGCCCTGATAAGCTGGACCTGTCAGCACCATGGCCACACCTGCTGTAGGCAGTGAGCGCCACCCGCCTCCCCTGGCCACTCCCACTCACGGCTTCCTGTTCCCTGTGCACAGCCAAGCCCTGGCCACCATGCCTAGGCCACCCCTCCCTGGATGAAGAACAAAGTGGAGTGGCCATGGGCAAGCAGATTTGCCCATTACATTTCATCTCTGCATCCCCCCAACCCCATCCCGCTCTTAAGCACCAGCGCTGGG
0.7924941175786501 AAGATACATTAAAATAAATTATTATTTCTAAATCTTGTTCATTTTAAATGAAACAAATGCCTTGGTAGCTATATATTTTCAAATGCAACTTGAGAAGTGTTGGCATCTTTAACACAGGCTTATCATGTAAGCATCAAGCAGACAGAAGGTGTCTTGTGAACATGCTGGCTGCAGTGGCGGGGAGAGGCGCCATGACCAGCGAGGCCCTTTTATCTCTACTAGAACTCTGACAGGCCACTTTATATGGGACATGGTTCCAGGAATGACATTCCATTACAAGTGAGTCAGCATTTCTGGGACTGTCACAGCTTTACTGGAAAGTACAACCTTATCTTCCTGAACAATTACTTTCAGGAAATATGATGGAAAAAAATTTCAAAGCTCTGACCTCTCCAAATTTGCTCTTTATTTTTTCAAATTTCCTGTAGAGTTGCTCA
1 GAGTACTCCGCATATAGAAGACACCTCCACTCAGCCCAGGCTAAGTGATGCCATAAGGGCCCTCTATTACCAGACTCTTATTTTTCAAGGGAAGTTAGAAATCTTTATTTAATGTAAATTTTCCTGATTTTTAAGTTAGTAATTAATCCAAGTATAAAATTATTTTGCAGACTAAAATGCTTAAGGAAAACAAAACACATCTATGGTTTAGATTCAGCCCAAGATGATTGCTGTATAATCAGTCCATGAATTCCAATTACAACTCAACACTCAATACAACTCAACACTGCTTGATTGAAAGCAGTGGCTGGTTGATAAGATAGGAGAAAGAGGTAGTGTTTGTAGTGCTACAGAGAACAGCATATGGAAAATAAATGTAGGGGCAGGACAGAAGGAAATAAGACTGAGGCACATTTTGAAGGCCAGTAATCTAAGATTAGAGTAACAGCAAAACATCTTTTTTTTTTTTTTTCAGAGGAAGATATACACAATGGAAAAAAATCAAGGATAAGGCTAAAGTAATAGAATTAGATGTAACTATTTTATTCATTAGAGTCTTCCAGAGA
0.8533804733260912 AAGAGTACAATTCATCTGAGTCATAAATTATATTTTCCTAAAAACAGTCACGTAATCTCATATTTTTACATCTTGTTTTTTTTTTTTATGAATTGGTTGTAGAGGGTGTTCTAGCCCTGGGATATCTGGAGAACAATTATAATGACTTTTTTTCTTTTACAATTTCTAATTATTTTTAGGTGGCTTTCATTTATCTAGTGCTCTCCTTTTCACTGGAGCACTTATCATGTGTCCTATTAACACTGGTACTTGTTATCAGCTGGCTTTCAGATAATCCTGCTTAAGTGACTGGTTGATGACAGCTTTTAAGATACTGCCTCTCCAAGTTATATTTCTATTCATGGAGGATTCTAGAAGAACAAAAAGCCTTGACATGAGGCTTTCTAATAAAGGCACTCATGTGGGGCATCATGCAGTATGGAAAACAGTGGAGGCAAAACAATCCTGGTCGACTTTTCTCCTGTCACTCTTGGTCCCTGCATGAAGTCTTT
0.5596759263196561 AAAAATTAATAAGAATTTCATGCTGTTGTTGGCAGAGCATTAAACACGGCGTGGGCTCTTCTAAGTATGATGTCCTGAACAACGAACTGCACAGGTCACATGCCCTTGAAGCTGATCTGTAGAAAGCTTTATCTGGTGGAGGCAACCGGGAGTGCAAGTGGGAAGAATGCAGAGGTAGCTAGTGTGGTCTGGTAATGAGTGACTGGTTCAAAGTGTAGACAAGTCACAAGCTGCTGCTGTGACTGAGTTGAAGTGTTATTAAAGATAGAAGAGTGTAGACGTGAAAGATGAAGAGAAGAAAGAAATAAGATTAACAATGTGACTTTATACTTTATCTGCCAACATTCAGTCATGAGTCATGCCCAGAAGCTGTGAGTGTCAATTCTTATTTATTAACATCTCTTTCTTTTAATCAAAATTGATAACAGCCACAATTGTTGAGCTCACTCAGCAATAAGAGCTTCCCTAAATACTAGTAGGTGTACTGCATGAATGATGGTGTGAAAAAGCGTTAGAGACTCCAAAGCAAAACAAAACATCATGGATATCTGAAGGTTTCTCTGGCTTTCAATTAA
0.8180769982495758 ATCACACCCACAACCCTTATGTACGCCCAAGGGTGCCTGGCATGCAAGATTCTAAGAGCAATGGGTTGCAAGTCCCTTTGACAAAGTTTGCCTGGGGACCAGGAAATTTAAGTCTACATCCGAGGACCAAAGATATTTAAATTAAAAACTTCCTACCAAATCCAACAGCAGCTAAGAGAGTGGCGAATGCGATATTACAGAAATTGGTCTGCAGCCTCCAAATGCCAAAGTGGCAGCTTGTTATTTATGATAAGATAAGGAGCAGCTCGTTACTAAAGATATCCATGTCAACCCCACGCATTGAGCAGAACAAAGGATCGTTAATGATTCCTGGGCTTGTCATGTTAGAATGGGGTGGCGATGATAAAAGAGCATCTATATATGCTTTCCTTGTGACATTTCTTATTTTTAAACTCCAATATAAAAATATGTGTTAATTGTTATGATTTGTGTCACATGCTATGCTCCAGGGCTGGACAGGA
0.8291231571690543 GGGGCATCTCCAGCTTGGGAGACAGGAACAAAGCTCTGACCTAGTCCCTGCCCTCTTTGACTGCTCACCCTCTTCCAGCCCCTCTACCCAGCCTCAATCTCTCATTCTTCCTCTACTTTGAAGTCTGGCTTCTGTCTTGGCCCCTGTGGGTTTGATGACAAAGGGCAGTTCAGGAATGACACTATCTACACATACATGGCCATATGGACAATTTCAGGTGGTGGGACTTGCAGCAGCTGGGGTTCCCAGGACTGCTGACATTCTGCTGAGTGTTATTAGAAGATCAGGGACAGAGCTTATCATCTGGCTGTCACTGCCCCTTTCCAAGCCACAGCGAGCCTCCACAGAGGGGCCCTGGGGGATAGCCAGCTGCCCTGTGCTCATGCTGGAGTGAACTTTCCTCTGATCTTCCCTGTTTTCTGGATTTAGCCAGGGAAAATACAAGGGAGCTCCTTGCTCCCTGTGTGAGGTTCCAACTGAGAGATCCCACCCTTCCCAGCT
0.7223099202624839 ATTCTAATTCTACTGACTATCCTAGAAATCGCTGTCGCCTTAATCCAAGCCTACGTTTTCACACTTCTAGTAAGCCTCTACCTGCACGACAACACATAATGACCCACCAATCACATGCCTATCATATAGTAAAACCCAGCCCATGACCCCTAACAGGGGCCCTCTCAGCCCTCCTAATGACCTCCGGCCTAGCCATGTGATTTCACTTCCACTCCATAACGCTCCTCATACTAGGCCTACTAACCAACACACTAACCATATACCAATGATGGCGCGATGTAACACGAGAAAGCACATACCAAGGCCACCACACACCACCTGTCCAAAAAGGCCTTCGATACGGGATAATCCTATTTATTACCTCAGAAGTTTTTTTCTTCGCAGGATTTTTCTGAGCCTTTTACCACTCCAGCCTAGCCCCTACCCCCCAATTAGGAGGGCACTGGCCCCCAACAGGCATCACCCCGCTAAATCCCCTAGAAGTCCCACTCCTAAACACATCCGTATTACTCGCATCAGGAGTA
0.8302199940055203 TATTTGACTCCTTAATAATTAAGGCAGTAAATTCTAGCTGGAGCTAAATACCTACAAGGCCTAAAACAGCATAATGGACAACCTGGCAGGTGTCCTTGCTGGAAGATGACAAGAGTGCTGAAAGGAGAGTCCTGGTTTTTCTCCCAAGACATGACATTTGGGGGCTTCCATTAAAAAATTACCAAGCCTCTGCCACTGTAATCTCTTCCTTAAGTGCCTATGATTTTTTCACAGTCACAGGTCTATGCCTGGTCAATACCCAGTGGCCAGGTCTCTGAGCTGCGTGCAGAGATGGCAGCGACTTGGAGGGCTGGGAGGAGATAAGGGGAGGAAAGATCACTTTTCATGACAACTTACAACTTGATTCCACTTATAAGCCATTTATTTTCAGAAACAAGTAATGGGTGAGGACACAGGCCAGGTCCACAATTTGTGCACTTGAGAGATTAAGGCCTCCGAGATCAAATTACCACAGCAAACTGAGACAGAATTATTGTAGGGATGTTTGGGGAGGATGCAGAGAGAAGAGGAA
0.8828947149757502 AGACACACAGGTGAATGTTATAAGAAATGCATTCAGTGAAACCTTTGAAATAGCTGTGTGCTCTCTATGCCAAGTCATGGATTTAAAAAAAAAAAAGGTCTGCACAATGTTAGGATCAGAATACAATGGTATGACACTTAAGAGTACTTCCAGGTTGCTTGCTTCCTGATATTACAAAAGCACGCTCAGTCATCTCTGTCCTCTATCACCAAGCACTCAGTCCTGTGATGAAAGGATGCTGGCATTCTATTTACATCAGCTAAATTTACAAAGAAACTGACTTTCTGTTGATGGCCTGTTGAGAGGAACAAATTAAAATAACTCTAAATCATGTCTGTAATTTTCTGAAGAGATACGCTTATCACACCCCACTTAGAACACCAGGTCAGATGTTATCTCGGTCTCTCCTGATATAGATTTTCTACTCCTTTGAACTTACAAGATACAGTTCTGCCTATTCATTAGGAAGGTACATAAGAAATTGGCTTACAAACTACAGTGAATCAGAATGTCTAATTGTCTGACTCTGGCTCTGAGAAATGTAACTAAAATCATGAACCATAATATTAACAAAAAATTATGGTCCTTTATCTGGGAAGGTCTTTT
0.6744621028052016 AAGTGAGACTCCGTCTCAAAAAAAACAAAAACAAAAACTTTGACTTCACTTCCATCCTACTTCAGGATGCCTCCAATCGACTGAACCAAAGGATAAGTTAGAGGGCAAGGGAAACCATTGATAATAGTCTGTTGGGGCCCAGAGAAGTGTTGATGAAAGAAAGAGAGTGATTCTGGAGGAGGAAAGAGAGCACAGACAGGGCCCTTACTCCGAAGATAAGTATTGAGATAAGATAAGCAGGGAAGATAAGTATTGAGCAAATTACTACAAGTGTGATGAGAGCTGTGGAAACTTAGAATAGACGTGCCTAGCCTGAGAAGGCTTCTCTGTGGAATGTTCTTCACACATCCTGGTTCTTTTGAAACAAAACAGGCCCCTTCTACAGAGATTCTGATTTACTAGGTCTGGAGAGTATATATTTTAAAAATCCTACCCAGGTTATTTTGTCAATCA
0.6078093416432599 CATCTATATATTAGATACCTATATCATAGATATCTATATATTAGATACCTATTATATCTACAGACATCTATATATTAGATACCTATTATATCTACAGACATCTATATATTAGATACCTATATCTAGATATCTAGATTAGATATCTATGATATCTAGAGATATCTATAGATTAGATGTCTATGATATCTAGAGATATCTATAGATTAGATGTCTATGATATCTAGAGATATCTATAGATTAGATGTCTATGATATCTAGAGATATCTATAGATTAGATGTCTATGATATCTAGAGATATCTATAGATTAGATGTCTATGATATCTAGAGATATCTATAGATTAGATGTCTATGATATCTAGAGATATCTATAGATTAGATAGATATCTAGAGATATCTATAGATTAGATATCTATGATATCTAGAGATATCTATAGATTAGATATCTATGATATCTAGAGATATCTATAGATTAGATATCTATATCTAGAGATATCTATAGATTAGATATCTATGGTATCTAGAGCTGTCTATAGATTAGATATCTATGATATCTAGAGATGTCTATAGATTAGATATCTATGATATCTAGAGATATCTATAGATTAGATATCTATGATGTCTAGAGATTTCTATAGATTAGATATCTATGATGTCTAGAGATATCTATAGATTAGATATCTATGATATCTAGAGATATCTATAGATTAGATATCTATGATATCTAGAGATATCTATAGATTGGATATCTATATCTAGAGATATCTATAGATTAGATATCTCTGATATCTAGAGATATCTATAGATTAGATATCTATGATATCTAGAGATGTCTATAGATTAGATATCTATGATATCTAGAGATATCTATAGATTAGATATCTATAATATCATAGATATCTATATCGATATTAGATATCT
0.702645834840799 CATGCTGGTGTTCCTTTCTCTCTCTACAATAAGCATTTGCCTGGTGTAGTTGCCAGCATGAAATACTACATTCTGTGGGCAAGTTTCCCACTGTGTTCTGTGAGAATAACTTGGCCCCAGTACCAGAGCCCAGCTCTTGAAGGGATTTCTCTCACTCTAGAAGTTATTTATAGCACACTATATCATGCAAGTCTAGAGTTCCTCAGATAAGAAAAAGATTACATTCAGGAGCATATCATGACTTTAAAACAGCTGCCTGGATCTCGTTAAGCTACTGAGATACTGTTACTTGCTTATAGATCACTTACAATAGAGGGATATCTAACTTCATGGGCCTATGGCAGGTATTTCTGGCTATTCCCTACCTACACACCAGATTTAACCATTCTAATTTTCCAAGCTGGTTTTGGTTTCTGTGGGTAACCTACAAAGC
0.4997281890237575 AGACATTTGATTTTGTGTGTCTTCACAGGAGTGTGATTGAAACTGCTGTTTCACATAGAAAGGCCTGCGTGCAGCAGGTTGCAAACAGGTCCTGAAGGGACGGCACATCCCAGCTGGAGCGTGTGGCCCATCTGCCCGATTAGCACCGTGGCTGAAAGGAGCTGACAAGCAGCTTCTATTTTTATCTAATCTTTAAATTCCAGGAACCTCATTTCACTAAATCATAGCTTTCGAGTAGGATTGTAAAAGCTTTCCCTCTGCTCATTCCTTTTTAATCTAGGTTTCTCTCAAGAGCTCTACTCATGGAAGGCTCTATTCTGATAAACTCTCCGTCTCCCCTGCCATTACAACGTTGAAATGAAAATCCCCTGAGCTAAAAGTAAAACAAAACAGTGTCTAAGGATAACTTAGAAATTACTCATACTGCTAAAGGTATTTTAACAGATTTAAGAATTAATATT
0.718339284057424 TGCAGGAAATTAATCTCTTTTTTTCATAAATTACCCACTCTCATGTATTCTGCTATGGCAGCACAAAACAAACAAAGATGCATTCCTACCACCCCCAGCAAGAAACCAGAAATCTAGCCCAAAGTAGTTCCTCTCCCAAACGCTCTGAGAGGAGAGAGAGCCTGACGCATCCAGCATCAAACATCTGCAACCCAGATGGGCCTATCAAAGGGAGAGTACTTATCAAGCTCTGGACTGGTCAGGAGGAGATATGAATTACAGATACATTACCCAGCCAGTTGAACAGACTTACCAAGATAAAGGAACTTGGAACTAGGCAGGGCTACATAAGCCAGATGTCTGTTTCTACATAGTAGCTGCCCTGAGAGATGATCTGCGAGAGTTAAGGGAAGGAAGGGTGTTGAGTGTCCACTTCAGTAAAATCACAAATGTCATTGACTATTCCCTGTGGTACATACTAGGGAGCTCAGCCCAAAGGAATTTCTGTACCCTCA
1 CGGAAGGAAATAAATAATTAATAGACCTCAAAATGACTATTACTTTTATGAATACTAAGCCGCATTTACATTAAAATAAATATTTTTCTAGGCACTTTTGCAACAACATTCTTTTTATTGTACTTATTGAAAATAAAACCATGTGGTTTCTGATATATGAATTAGCTTGTCTTTGGAGTTGGCAGAACATGAACTTGTGTGGCACTGCCTTATCTAAAAGAGTCATATCAGATAGGCCTAAGTGCTAACATTGTAAGATACAGTGTTGGGAAAAATGCTTTGGCAATCTTTCCAAAACACTTGACTCTCTCCTCATGGAAATAATAACACATTTCATTTTTGTAGAGATTTGATATGCAGATAAATGCCAAAGGAAGAAAAATGCAGTTATATTTTGCCTTTAATTTACCAAATCTTCAACGTATAAATTATGACCTATATAATTGATTATAGTT
1 AAATTTCATTAGTGAGTTTTATATAGATATTTATGACAAAATTTAACTTGTTTGCCCTTTTTTGGTCTAATTCAAAATAAGAGTTAATGGCAAATGTCAGAGGCTAAGAACAGTTTGGAAAGGGGGTTCATGAAGGAGACCACTCAGAGACAGTGTTTTAGTGGCTAAAAAATAAGTTGCCTTTCTGAAAAATATTTGTATGCTTTTTACTCCATTGTCCACCAGAGGGAGCATCACATCTGATTAAGAGATAATGGGGAACTCCCAGATAGAAATGGAAAATCATCTGAAACTTGATCTACGAGGTGCTACAGATGGTAGCATATACAGTTAAATGTAAAATCAAATCAGAGAACCCCCAAAAGAATCTCAAAGTGAGTGGGAGGACAGCCTCCTAGGGAGATCTCATCTCTAAAAAAAAATTTTCTTTTAATTAGCTGGGTATGATGTTGCACGCCTGTGGTCTCAGCTGCTCAGAAAATTCTGGAGGCTGAGGAGGGAGGATCACTTGAGCCCAGGA
0.9830676986612435 CATAGAACCAGCTACATTCCACAGTGACCTCGGTCAGTTCACAAAATTCTTTGGCGTGTGCTTTTCCTTTATCATTTCCTTAATTAAATTGGAGTAAAAACAACTACTTAATTGGAATAATAACAAAGACTATTATGATTCTCACTATACTGTTGGGAGGAAGAACTAAGTGAATAATTAAAAACTTGATAAGGGTTTAAACATGCAAGTAGTTAGGGGAAAGTAATGCGAAGTGATTAGGGGACACTCTTGAGATAACACTCCAAGTAAGTGCTGAAACTCATGAACAAGCAGCAGGCCACTCTGGAATTTCAGGAACCTGCTTGGAGAAGATAGAGTGCCTTATGAATGACTGTACAGAAAGGGAGATAGGGTTTACTCCTTTGGTATTCTGTGACCCAAAACAGACCAGATATTAGCTGTCAAATAATCTGCACAAATCTGGTTACTACCTAGATGGTACTTGTTAGATGTTCTGAAGACATAACGCTTTCATTGAGTAGGGAACACTACATAAACACTACACCACATGCACAAAAGATGAAA
0.5784695269715876 CATTTGTAAAACATTCACATTGATACATGTATACACACATTTAAACTCCCTTTCTAAAAGAAAGATTCATAATTTTCTAAGATTACACTAAGTCTCTGTGTTTGCCAAACATGACAGCATGATAGGGAGGGAATTAAGGCCCTTGTGCTATCATATCTCGCTGGGCAAGCACAAGGCAGGAGGTGTGCTAGAGGCTGCTCTTGCTGGGAACAGCCCAGCACGTAAAGTTAACCTTGAGATCAACACCGTCAGTGAGATGAGTTACAGGACTTCATGGCAGAGCATCACAGAAACTCAGGAACATATCAAAGCATTCGTCACTCTGGTGGCAGGAAATAAGATGAAAGAATTTAGAGAATTGCAATCACACATAATAGCGTTATCACTGGTGACTAGAATTTGAATTATGTGCACATAGACTTCTCCCCCAGTAGGTACTGCTCACAAGCACTTAAGGAAAAGGGGGTTCTGGATAAAATCAATTAGAGACCAGTTACATGAAGTTGGGCAAATGCTATAGAGTATAAACAGTAGGACAGAGTGCAGCCAGGGTGGGTGAAATTCAATTGTGAGTAATAAGTGCAGTTTTGGCAGCATTGCTGGGGAATATTTT
0.7205073863570971 AATGCCTCACACATTGTAAGGCTATGTAAATGTATCTGCTGCTGCTATTATTATTGTTATTGTTATTATTTCTCTGTCACATAAAAGTCTGGGGCTAGTATGGTAGCTCTGCTCTATCAAGAGTATTTTAGAGACCCAGCCTATTTCTAGCTTATCAAGTCACACTAGGCTTGAAGGGACAAAGAGTACATGCTGGCTTTATCTTAAAGCACATTCCTGAGTGCTGCCTGTCACACAACATTTTCAACTTCATTCCCTTGGCCAGAATGTACTCTCATGAACCTATCTAGCTGCAAGGAAGGCTGGAAAAGAAAGTCTTCATTCAGCTGGCCATATGCCCAGCTAAACTTCTGTTACTATGGAAGACAAGTTGAACCATCTAGAAACAAACAAGAATAACCGAATGAGAAAAACAAAAGCTATTTATTTG
0.6836439980234194 TTGGAAATTGCCTTTTTAACTCCGTCACCTATTTTATTACTGCTGTAAACTCCTTATTACCTAAAATCAAGGTCGTTGGTTTGGCGCCAGCCTTTGTCTGTGGACCTATCAGTCATTCCACCTCTTAGCATGTGCTGTCAGCCCCAAAGACAAAGCTCTCGGCTGTAATGTATGTCCCCGTATCTCCACCTTTGTGCTCACGCTCTTGTCTTCAACACATTCCCCTTATCACACATTCCCCTTCTCAGAACTTCTTAGAGGGCCAGGGGGCCCAGCCCACTTCTGATAGCAAGGTTTCTGGTATGTTAAAAATAAAAATCCCCAAATGGTTTACAAAAATTTTTGGTATGTTTTAAATATTTGCACATAGCGCATTCACATTACTAATCTACATACTCAAATCCAATGTATGTAGACACTTGTTTGGGGACAGCAAATATATAAATGTGAGACACAGGCCA
0.5445811183860898 GCGTGAACCACCATGCCCGGCCTCAGTAATACCTTTAACTGTTGTTATTAAGAGTTAATTTATCCTTCATTATACAAGGGGCAACTGCTATCTATTTCTAAAAATGCTTATGAAGGTTTGCCATATAAAAATAACGGCAGCAAATCCACAACACTCTTTTGAAGGTTCCTTTTATCTCTTAAAGGGCAGAGCTAAATATCTAAACACAAGACTGGAAAGCTGAGCTGGAATTTCTATTCTAGTTTTATCACTAATATGTTATCACAACTTAAAAATAGTGACAACAGCTTGACACTTATTTCTTCATTTGTGGGGTGACTAAAACTAGGTAACAGACAATGGAGATAAAGAGATGCATTCTACAGAAATAAACAGATTGCAGTTCCAAATGCAGTCCTCCAGGAAGTCTGCACTTCTTCAGCAATCTTTCAAAAGATCAATTTTAAGTTCTTAAATAAATAGAAAATCTCACATTAGCCTGATACTGCTCCAGTATCACATGACCTGGAAATTCTGGCTCAGGCACAGACGCAAACTTCTTGATAATGTCTTCAAGCGCCTGGAGCCCAGCCATTCGCAGCTGGTTGCTATGATCAGTTGCAGCCATGAATGCCATGCGAATGAGGTCAGAGAGATGAAGTACCAAGAGGTCATCTAAAAATA
0.759096603738192 AGTTTAACTTATTTAGTTTCTATTGTTCTTCTGTGTGAGCTCAGTTCTGTTGCTTTAGTTCTGTTCCTGCTGCCATTTCTATTTTCTGCTCTAGAGGCCTAAGACTTGATCTGTTTATCTTTGTTCATTGTAGTTCATTTAGTTGCCAAACTTTTATTAAGTGCCTCTGTCAGTTAGTGTTGTAAACCTCAAGGACACCTTGTTAACAAGTGATTTAAGATTACTACCTGAAGTGGTTTTTATCTGTTGTTAGTGGGGTAATACCAAATGGAATTAAAATTCAGAGAAACTGCCAACTTATCTTTTAAGGAAATGGTTTAAACCTTTTCTTAACCTGGAATAAGTGTAGTTGATACTACTATTAATAGCAAGTGGTGCTATTGACTGTTACTCTACCCTGTGGCAAGTGGTTAATGTGGAATATTC
0.4209319337143734 GGCGTTACTGTGAGCATTCGTGTACAAGTTTTTGTGTGAACATACATTCCCATAGGAGTAGAACTGCAGGGCCATGTAGTAACTCTGCACTTAACCTTTTGAACGACTGCCAAACTGTTTTCCAAAACGGCTGCATCATTGTATGTGAGGGTTCCATCCAGTCTTACGAAGAATTCCGGATTTTCTGATAATAAGCAGGGGCTGTGGGAACAGGAGGTAGGAGATAAGCCTGTTGGTCTCTCCTATGTCTGACCCGCTTGCTGGCTGCTGTGCCCCGCACAGTTACTGTGCGTCACCAGCCAGATAAGATGCCTGTGTTCTTGTGGCTGGTGCGCAGACTGTGTTGCTGTTACAGGCCGGCTGTTTGTAATCCTTGCCTCCTGACTTTAGAGATACCAAGCTACCAAATTGTCTTTGTCCCATCCTTGTCCTAGTTAGAGGAAAATCAAACCCTTCATCACAAAGCAGTCCAGGTTTGAACATGTCAAAATCACCCACTTGACCAGTGAAGACAGCTGTAGCGACTTCACAGCAAGAGAGCAGCTTTTGTTTTTGTTAGGGTTTACATTCTCAAATCTGAGCTTACTCTTTT
0.6916660590076559 TTCTGCAACTCACCCAAAATTACTGTTAATTATTATCTCAAAATCTCTGTTATTACACTTGTCATACTGTATTGTAATTATTTCATTTTTTCCCATTCTAAACTAAAAGCATCCCAAGTTCAAATACTAATCCTCTTTTTCTATATCCTCAATTTATAACATAAAGCCCGGGACATAGCAAATGCTCAATAAATGTTTATGGACTGAACAAATAGGGATGAAATAATGCCCATGCCTGAACCAGATAAGATTAGAAAGGAAGTGAGGCTCATGTTCAGCTTTGTTAAGGCTTACTGAAATATCTGCTAGCTCTCAGGACATGTGCATAGTGCTGACATCCCTTGCTAATCTTGACAACGTGTGACTTTCAAGGCACTTGAAGTGAACTCTTTGTTATCCATCACTTCAGGAAGAAGTGGCAGTGTTAAAAGAAATGGAAGAAAAACAACTAAATGAATTTTTATCATACTATATTGTTCTCTTAGTGCCTGGCATTGTGCTTGCCACAAAGTAGGCACTCAAGTAGCATATT
0.1765201400017075 AAGCATGACATCCACGTGCAGAATGTGACAGCCCTCACCCAGTGGGAACCAAGCGGCTTCTGTTCACCCACAGCCCCCAAATCCCGTCCCAGCCCTCCCTCTTATCTTACCCTGCTGTGGTCAGCCTTGCCTAGGGCACACAGCCAGTAGCTGACATTCTTCAAGCTGAAGGGCTTGATAACTTTGGGGATGAATTATGACTTCCTTATCTCTGTTGAGCCCAGTGCCTGTCACAAAGTCAGCACTCAGTGGCTAGGTGTCAAATTAAATTCTTGAATTGAAGGCAGTGTTATTAAAGATGCTAAACTTTTATAGATGCCTCTTTCCCTATAGCTTGTTTCCTTCAAGATTTGTAAGTGAAACCACATTTATTTTTACCTTGTATAAGACAATCCTAAACCTCTAATCTTCCAG
0.3179605828435125 TCAGGCCCTGAGGAGTGCTAGCTCATTCTTTTACTTTGGGCAAAGAGGGCGGCTGTCACTTTCTTGTTCATGCTGAGGATTCGGCTCACTCAAGATATCTGATGCCCTTGTGACAGCGTCTGGCTGTCAGAGCTCATAGACCATCTGCTGGGACTGCCCTAGGCCCCTCCTTTAGGGCACAGAACGTGGCAATAATGTGTCCCATTTGGCAGCCTGTGTGACATTTCTTCTTGTATCTTATCAGGTGACTCAAATAATGATCATGCCTGTTGACACTTGGAGCTCTCAAAGGGAATTCTGAGCAGCAAAGGAAAGGTGACACAGAACTCAAGGGCACTGGCGCTGAGCGCTGCCCATGCAGCTGGCAATTAAGCCATTGCCGAAAACAACAATAAAACAGATTTTGGGCAAGTAGG
0.6938007871609394 AGTCTAAATGGCTTTTTGGTGTCATTTGAGCAGTGAATGAGTAATGTACAGCAGAAGCCTTAATCCGCCCCCCACCCCTAGTTTCACTTTTGTTCAGATATGTCCTAAAGATTCCATTAGCTGTCTGTCATAAATTCCAAAGTAGCCACAATTCCTGAGCATTTACAAGATCAAGATAAAGAAATGCCATCATGAAATGAGGTCGACTAAATGTCTTTGAACAAAGGGTTTCTAGTGACTTGCCTCACATGTATCTCAAGTGTGTGATAGCAAAGGCATTACAAATAGAGATTGCATCACCATGTCTACCAGCACCCTTTACTAATCAACTGACCTTGCATGAACTGTACTTACATGCCATCATTTTCATTAACCAAAACGCTAGGAGAAAGAAAGTTGAAGCTAAAACACAAAGACTCATCACAACATTTCACCTGTGTCAAGTAC
0.5759798210941736 GCATACCATTAGACTATTGAAATCACTGGAAAGAAAGCAGAAAACTGTGGTACTTTCAGCTTTCACATGATCAAGGTGTTTTCCTAGGATACAATAGGCCACTGAAGCTACACTTGATATTACATTAATAATTCAATAAAGCACATTAATTAACTACCAGTCCATGGCTTCAGCAGCTAATAGCACCTAAAGAAAATGTACTTCAACTTTCTTATCAAGAAATGGTCTTGATAAGAGACCGGGTGACTGTAACTTTGGTCATTGCTCTGGAATGTTCCTGATGGTGCTGCCAGTTTTCATTGCCCATAGGTGCAATATGGAAATTTTTATAAATGCTCTCATTTGATGCTTTTACAGATTAACAACATTTTTATATTGTATTGTAACTGAAAACAAACGAGTATTTTTCTTATCTCACCTGTAGAAAAGGGAGTGGTGAGAATTCAGGAGTTAATATTGTAAAAATACCTGAGATAAGAAATACATGTTTAAGTATTACTGGTTTTGATTGCCAC
0.8701369092671843 AACCAAGTCATGTACATTAAAAAGTTACCTATGTTTCACTAGGGAATAGAGTCTTTTTACCAGGCCTGTGGAATTAGGAAGTCAATAAGATAATAAAAATCATCATCAGGTTTTCCTGTTTGGTTTAAATAGAAGAGACAAGCGTACTATTTCTAAGAATATGTTGACCAAAATCCTGTAGCCATTGCTTCCCCAGGCTACACTGACTGATGCTGTTATCAGTCCTTGTGGATTACGGTGGACTGCCTGTCATCAGCATTGCTCACTAATATTTCCTGTTCTCCTTCTGCGAACATGGAAGGATTAAACTTTCCTCTCTCCTAAAACTTAGGTTTGGTCATGTAACTAGTCTTGGTCAATGAATGTGAAAACTGATGTGTGGCACTTCTGGGTGGAAGCTTTAAAAAGAGCTAGCACAGAATTAGCCACATTCCCCATTCCATGCTCTGTTGATTACAGAAGTACCTCTGTCAAGAAAGCCTCTGTTGAGAGGAGAGAGCTGTGGACATGGGGCTGGGATAAAAACATAGCTGTCACCATTTCTGTGAAGGGATTAGGATTCCTGAAGGCCTGGATATTCTTATGTAGGACATGGAATTTTGCCTCTGGAACTCATTTTTTTTCCAAGTGCAAAATTGAATTGGTTAAGTTCTTAATATT
0.8237221933534985 TGCTTTTTACCTCTGACTTAAGTTTCCAACTGCCCTGAAGCTAAGGTTAAACTAGGAAGGAGAGTTTCGATTCATATTTCACACGGGAGTTATCTTTGGACTGCCCTGGGCTATGTGTTTGTACCATATAATGACAGTTCCCACAAGCTTTTAAATGAACCTAGATACCTAGTTAAGTAGCTGACATACTCAAAGCTTCTGTGTCCCCATTTTAACCCAGAGTGTACAAAAGACAATTCATGTTGGCAACTTGTCAGAGACATTCTTGAATGTCAGTTTCTTGTATCAATGCTGTATGGTATCTACAAGATAAAATGGGACACACTGATACCACTGAAACAACTGATAATTTCTCCATGTTGTGAGCAAAGAGTATTTGCAATGGTTAGTTTCATGGGTCAACTTGGCTAGGCTATGGCATTCAATCAAACAGTAATTTACATGTAATGGTGGAGGTATTTTGTAGATGTGGTTAATATCTATAATCAATTAAGTTAAAGAGGTGACCTTGATAATTTGGGTGGGCCTTATGCAATTAGTTGAAGGCCTTAAGGGCAAAACTAAAGTTTCCCCAAGGAGCAAAGAATCCTGACTCAAGATTAGAGCATCAGCTCCTGCCAGAAAGTTTCTA
0.3370520632688904 TCCCAACATTAATTCATCAGCTTAAGTATCTTTTCCAGGAAGTATTCCATGAATCTCAACTTGCCTCTTTTCTGTGCTCTTCTGTTACCATATTTTATCAAACTTATTACATGTCTCTCTTTGCCCCATAACCACCATTAGACTCTGCCCTCCTTAAGACCTAGATGGAATGTTGTGTCTTCCAGTTCATTTCTGTATCCCTGTTATCTGGCAGATAATAGGCACTTGAGATAGTGTTGAAGAACTATGTGTCAGTCACTGTGATAACTGCTGACTAGTTAGTCATTTATCTAAACTATGTTGATGTTTTTTTTAAAAGTACGGCAAATTGATAAGAATTTGAAATGTTAAAATGTGCAATTAGAAGGGGCTGTCCACCTCAGTGATATAAAGAACATTAACCACAGTTCCTCTAATATCAGCAGCCCTTTTAG
0.8507287325965257 TGAGCTGAGACAATGCAGCTGAGGATCTGGGGGAATAAAGGTAACTAGAGCTTGAAGGACAGAAAAACAGAGAAGAGAAAACTGCACAGAAAACAACTCTTGAGCCCTTTATAGGGCTCAGCAGAGTATTGTTAAGCACATGCATGTTAGGGAACCACCCAAAGCTGGGGAAAGAACTACTCAAAAAGATAAGAAAGAACAGAACTCGCCACTCACACAGGGTCAGAAACATTGTCTGTCATCACCAGTCAGACAGAAAAATCTCACAGTTCAGAGGTTATCAGGTAGAGTACTCAGAATGGTCTTACCTAAGAGTAGAGAACAATTAGTCTTAACTTATACATGAATCTAGTCCTGCCTAACAAATCTTAAAACCAAGACTCCAAAGGATCAAACTATTTCCTAAGTAACTTAGCACCCCAGAACAAGTCTCAATAATATTTTTAGGATTATAAAAATATCCAGCACCTAACA
0.4606632951928097 TTTTCTTTTTTACCATGATCATAAATGGGATATACAGAGAATACAAGTTCCCTCTCCCTACACACCCACAATTAATAGCCCCTTCTCCTTTCAGGCCCCAGAGGAGTGATTTGGCTACTCCTCCTCTTGCCAGCCCGGATTTAGTAGCTGGCACCTCCTCCTTATCACCCCTGGTTCCTGTTTGCCTATCAGTAGCCCAGCCACTGTGGCTCAGGACCCTGCTTTAAACCTGCCAGGGGGCCTTATCTTATCTCCTGGGCTGCCTTCCTAGCAGCCCGCGGGGTGGCTGGCTGGCCGGGTTCCTTAAAGGGGCTGCACTGCATTCCCACTTGCTCCATTCACCCTCAAGAGTACCCCAGAGATCTGGAGGTGTTCTACTTGTGTAGGGTCAGAATTTACTATACCACCCTTCCTTCCCATCCTTTACAGTCACAGCTACTGTAGAGCTGCTACT
0.4987032214720058 AAAATTATCCTCTCTTGTAGCATTTGAGGCTGGATGGAAATTTCATCTCTTGAAGTTAGAGTTGGGATCTATGCCAGTTTGAGTCATGGGAAGTAAATGTCATTCCTGAAGATGTGAATTTCACCTACCGACATACATTGAGTGCCTCATACCCAATCCACATTGCTAAGCACCGTAGAAGCACAGAGGAATGCAAGATAAGGTCCCTGTGCTCAGGGAGTGTGAAAGATATGCACACACACATCAAACCAAAATACAAAGCAGTCGGTACAGAGGAACACGGAAGGTGAAGAGAGGGTAAGGGCTTTATCATTGTGCGGAAAGGAGACAGTTCCGCTAGCTGTGGTGCTCAGGATAAGTTTAATGGTAAAATAGGCACTTACAGGAGACCTGGCAGTGGATAAGATTTGGATGGACAGAGAGAAGAGACAGCAGGAATTTCAGGTATGTGAGGAAATAC
0.8261939239218268 TGGCTCTGCAGCTCAGTAAATGTGCCTGCGGCGCCTGGTGGGTCCCCCTGCGTCTTCGTTAGTTCCTTTTCCTTCTCTCAGACCTTTGGCTGGAAGCTGGTGGGGCTGAAAGGTGAAGGCTGCCACCTAGAGGTGAACTCTGGCACCTGCCAAAGCCTGCGAGGCGTCTTATCTTCTCATCAAGGTAACTCACCCGCTATGGGCTTGGGGAGGAGAAACAGGATGTGAAAGAAGCAGCCCCGCTGAGGACAGGGCTACTAGACTGGCCAGATTCTTTCCAGATGTTTGTAGGCCCTGGGAATGCTTTTCACAGATGTTGGGTCCCGTGGAGGTGATCCCATGCGGGAAGAGGGACATCCCATGCGGGAGTCAGGTCCCAGCAGAGCTGCTTAGCGTCTCTTGGGGAAATGCCACCTATAATTCCTTCTTCTTCTTTTTTTTTTT
0.8513648344827873 TTAAATATAACCTCTTCATTATAAGCCTTTAATTTTCTCCCCATTTTAGTGTTGTTTGTACAATTTAGAAAGGGCTATATTTAACAATATGGGGTTCTTTAATTTTTTAGCTATGAAATAAAGCATAAAAAGAAGATAAAGGTCTCTACAGGAACACAGATTATTATTTACAAAGATTAACCACAAGCTTTCCATGTTTTCCATCCTATTTATTGTGGTCTGCAAGATAAGGTGAAGTATGCAATGGCTAACTCTTGTGTTATAGTTAATTTTAACTCTCTTATCAATAAGCAGATGCCTTTTCAAGTTATAAAAAGTGTGCCATTATTACTATCAACTGGAGAGAATGAGGTCATTGTTCTCATTATACTATAAAAAGCCGGAGTGTAACAGAAGGGCAAAAACATACCTCAAGAAAAACACTCATGCCACCAACAAAATACCTTTGAAGCAAAGAATAT
0.8068626373918705 ATGACAGAAGAAAACAATTGTCAGTGAATATTGGGTAGGGGAGTTTCAGTACTCTAGAGCAGTAATTCTCAACCAGTGGCAATTCTCCCAACACACACACACACACACACACACACACACACACACACACACACACACACACATCAGGAAACATTTGGCAATGTCTGAAGACATTTTTGGTTGTCAGCCAGGGGAGAGGGATGCTGATAAACGTCCTACAGTACACTGGACAGCCCCTTACAACAAAGATTAGATAAGGCTCTTAGAAGAAAAATAATCAAAGTACATCATTTTAAATCTTCTTGCAAGTGTCAAATTAATAAATAGCAATGTAGTTTGTCATCCATATTAATTAAATAAATTTAAACTATCTCATATTCTAAAATTCATTTGAGGTATAACTTTAGACTTCAGTGAAAACCTCACTAAAATTTTAAAGTAAGATTTTCAGATTGATATTTAAATGTGGTTATGTTCCTATGTTTTGTGAAATTTTAACTACTGAAATAGAGTA
1 TGGTTTTTGATTTTTAATAACATTTGCCAATTAAAGGTCTACACAATTCCTGAGACAGTCAGAGTGTACAGAAAATAATTTTAGCCCTGGGCACTTAGTGTTTGAAGCACTCTGGGAAAGGTACTTGAATATTCATTTATTCAACAGACATTTATTAAGGGTTCACTAAGTGCCAGATACTGTTTGAAGTGCTTGAGATTCCTGGGGAGCTTTTGATCCACTAGGGGTGAGAATGGGGAGATAGACAATAAGTGATAAACATAATAAAACCTCTATTAGACAACTGGTATGTTATAGGGTGATAAGAGCTTCACAGAGTAGACTAAGATGATGTGGAAGAGGATGGAGTCTACTCATTGAGAAGTGAGATTGGACCCAACAGTTCAAAGAGGAGAG
0.4205830792067433 ACAAAAACTACAGTCTTAGTCTCTTGGCATAAAATTACTTCCTGTTGAATACAAAAAGAATCATTCAGCTGTTTGTAAGTCCAAAATGTTCAGCGGGAGAGGTCAACGGAAAGCAAATCCCAGACGCGGGCCCACTTCTTATCTCAGGAGATCGCCTCGCTAGCCCAGGGTAGGCCTTGGGGTGGAGATAGGGATAGGGGTAGGGGTGAGGGTGGCAAGCCGCACCCCGCGGAGGAAGCCGGCAGGCCCAGACGGCCCGCGCACCTCCCAGCGCCCCTGGGGCCCTCGAGCACAATGCCTTGCTGAGCAGCGCCCAGGAACGCCGGGCCCTGGCAGGCCGGCTGTGCGCGGGAGATCGCGGAGATTGGGCCTGAGTCAGGGCGCGATCGGGTTTCTCTCTGTCAGGCAGAGCGCTGGCGAGATTTCGAGATTCCTGATACAGGCAAGGTCCGAGGCAGCCGGGGAACCGGCGGGCTTCCACGCGGGGGCCCCAGTGCGCCCCGACACGCGCCCAGGCCCCGCGGTGCGGCACTCAGGGCGCCCGGCGGCCTGGCCCGCGCCCGGGGCAGATAACGAGTAACCGGAGCGCCGGCACGCGCCGGCAGGCCGCCTCGGAGTGCCCGGGCCCTGTCCGCTGGCTGGGGGCCCGCTGGACCAGGGCAGCCAGGTCCCCTCCCGTCGCCGCTACACTCGCGACCCCTCCTCTCCCTCCGCGAGAAACCCGAGGATCCGCGGACGATACCCACCTCAGCAGGCGAGAGAGGTGGTGCCCAGTACCTACCCGGTCATCCTCAAAAATGATTTTGGCTGGTATTTCCTTGCGGATGATCTTCCCAAAGATCGTGTCGCCACCAGGCCGAGCGACCTGAGCCTTGGCAATC
0.8899769938964759 TCTTAAATGTGGATGCTAAAAATAATTTGATTAATTTCAATGAACTATTACTGAATTCCTATGATTTACAGGCACTGTGCTGGCTGCTGGGACAACCTACAGCTTGTAGTTAGGTAAGGGTGGAAGGTGAGGGTATGCGTAAGAGACAGGAATGTAAATAACTACAGCATACTGTGTAAGAGCTATAAGGGCTACTAGCAAGTATTACAAGAATGCAGATAAGGGATTATCTAATCTAATTCGGTCAAAACTGGTGTCAAAGAAAGCTACCAAAAAGAAGGTAACACGTGAGATTTTAGCTAAATCTCAAAATACCAGTGGGAGTTTTCCAATCAAAATGGATTGATGGAGAGGGCATTTCTGTCAGAAGGGACATCTTAAGTGGAAGAAAAAAAAAACACACACAGTGGGTCAAAAAACAGCAGACAGAATAATTACACCCAAAAGGTATGGAAGGAATGGAGA
0.1107332535846645 TTTTATCGGATTGCACTGCGCTAGAGGCACATGTCTGGAGAGGAGGAGACGTGAACAGAGCTGTCCCCATGGCCCAGGCAGGCAAGGAAAGCAAAGGAAGCATGAAGGGAGGCCAGAGGAAAGCAAGGGAAATGCCACGCCTGCCTTACGAGCTCCGACAGGGAAGTCGAGCCCTCTTATCAGTGGTCTAGTTGACTGGAGAGATAATCTACCACGCTCGCCAGCCTGTTCTGGAGAGACTCAATGACAACCCTATCACGTTAGAGGACCTGGCTCAGCAGTAGAACACAGGCTGGCAGCAGAGACTGTGGGATTCAGCTCTGGACACCAGCACCAGCTCAGATGGGAGCTCTGCTGTGGTTTTCACTTTGCTCTGGCTTTATTTTTATCAAAAGTATTC
1 TTGTGAGACATTGTAAGTCTATATTAGTGTGGCCACAACAATGCTATGTTCAACTGGGAGCCACGCTCTACTGGCCCTTGAAAATAATTATCATGAAAGAATGTGGACATAAGTATTCAATCATCCTTTCTTCATCTGATGAAATCTAAGAAACTTCCTACCCATCAACACACACTTTTCTTTGATGAGTTTGCTATCTTTATCTGAAATGGAAATTCCACAGGTGGTATGTAATTTGATTTAAGTTTGCTTCATATGTGAGTATAGAGGCCTTATTTACTATGTGCATGAACATTTTGAGTAGATTAAGTTTAATAATAAATTACTGCTGAGTGGCTGAATAAATCAGTAAAGAGGTTTGTGTACTAGCTGTGAAATTTCTTGCTTGGTTATTTGTCATAATGAGACTGAACTCCAGGTCTAGCCTCTCTTTTGTGTGACTGGTGGAAGATTCTATTAATTAACTG
0.3543161301035641 AGTCCACAAAGTGCGCATGGAAATATACACATAAGGGATTTGAACCTGTGCTTGGCTGGTGCAGAGCCTGCCTCTCTCCCCAGCATCAGGGATGGTTTCACGGCATGTGGCCTCTCCCTGCTGCCATGCCTCCATCAACTCTCCCTTTCTCATATCAGAAGATCACAAGCATTTAACAGCCTTGCACTTGTCTGACCCGAGCTTGCTGTATCTGCCCAAGAGGGCTGGGAAGATAAGATGAAACAATCCCTGTGAAATACTGATCACTAGTCAGCACTCAAGAGGTACCAGTACATCACCATTCATCACATATTCATTTAGGACCTAATACATGCCGGGCCTTGGGATAGGCGTTCTCATCACCTTCATCACTTACTGTTACTACGTTTAACACCCTCCACTCCCAGCAACATGCAGAGTGCTTCACACA
0.6524333116780737 GATCTAAACACAGTTGAATTTAATCTAAGTCATTCAGATTCCAGAGGGACCCCTAGACCAGCATGTTTGTGAGCATAGGAATGTCTCCTTTATAAGTCTCTGACAATTTTAGTTGATTTTTATGTAAAAAAAAATGATTAATGGGAACTTTGTTACTGGAGTTGGGATGTTGCTATTCTAATACAAACTCAAATATGTGCCATTGGCTTGGGTCTGGGCAGTGGGAAGTGAGAAAACTCTGATAAGAGGATATAAAAATAGCAACACATAACAACGCGGTGAGAGTTTGGCATGGTTTGCACCTGTGGTAACTTAGGGGTGATAACAAGCACTTGTGGAAATGAACAAGGAAGTTTTGAAGCAAAATACTGATAGATAGTGCTGGTTGTCTGCTTGATAGTTGTGCTTATTAAAGTAGTAGAAAACGTGATAGGAAAGAACTGACTTCTATGCTAAGAATAGCATGACTGAATAGAGAGATCACAGAAATTCTCAGACTTTCTGAGTGGTAATGAACTAGTTCCTGCCAAGTAAAA
0.6337157904658375 AGCATATTTGATTAAAGTGCCAAAGTATTTTGGATTCATACATTATCTTTCCCAGAATAGTTTCCTTTCACTCTGTTAAATTTCCTAAACAGCCACCACTCCTCCTGAAAGAGATCTTCTTTCTGTTTTGTCTCTACTCAAGTTCTCTTGTGTCAGTTACTGACTGCCAGCTCTGTTTGAGCAACCTGAACAATGTGTTCTGTTCTTGTTCAAGAAGGCATTTACATGACAGAACTCCAAGTACCCCACCGCTAAAAGCTCCTGCTGACTCAGGTCAAAATAAGGCCAATTGTGCTGTTTATCCTAAGGGCCATTTTATCAGCAACTTGTGTCAAGGTTAGAAATGTGTCTGGTTAATGCCTTGGCTCAATGCTTTCTTTAACTACTAAATATACATGTATATGACATTGGCATCTCCCGTCCTCCCTCCATCCCATCTGGGTGTCCCTGCTCTAATAAAATATGTA
0.4920660524174971 CTCTTGACCGCTCGGCCAGGCATCGTTCTTCTCAAGGCCAAGGGCAGACAGCAGCCTGGCCCAGGCCCATGCCAGGGCCCTTCTGGGAAAGGGAGACACAGTCTATTTTTGCTCTCTGACAACACAACAGAAACAGCCGCTGTGACTTATCTCCACTGCTGAAGGACTGAGGCAGCCACACAGCTGGCTCTGCGCCCTGGGGCTGCGCAGCCCCCTACCTCAGCCCCAGCTTGAGATAAGAGTGGCGTCAGGGAGGGGCTTCAACCAGGCCAAGAATACCCCCCACCTCTCACCTCTCTGTGGTCTGCACGCCTGAGTCTGCCCCTCCCACAATTCCTCCAGGACCCCTCTAGGACTTCCTGGCCTGAGCTGGACATCCCATGGGAAGTTTTTCGCAGCCCAGCTAGGATCTCACTTCTTTGTGCAACGTCACCTACTCCGAGGCCCAGAGCCCTTGGAGGCACCCTCCCATGTCAGAGGCCAGGAGC
0.8841337774560194 ATTTTAAATTTTTTTGTGAAAGTTAGATCTCAGGTAGCTCCGTGTGAATTTAGAGGGAACCACACAAAGCGTTGAAGACACAAGTAGAGTTCAGCATAGTGCCTCATAGTTCTTTTCAAGTGTTACATTGTTTTAATGGAATCTTGGAGTGGGAGCTTTAGCCCATTGAAATGTGCTTAAAGAACAGGTTCTTCTGTCACTAGCCGAAGCTGTGTGGATGAAATGATAACAATAGGGTGTCGTGATGCATTTTTAAAGTGTGAGAAATCAGGTTGTCTAGACTGAGAGTGTGCCTACAGGGACTAGGAATTTTAGAGCCTCTGTACCCTTTAGGTGTCAAGTATATGAGAGATGCCAAGCCTCTTTATTCTGTCTTTGGCAGCAGCTCAATTGGGCTGTAGTACCTTACATGTCTTCTGCATGCAAAAACTGATT
1 TTCACTCTGATCCTCTGAATTTCTAATATTATTGTGGAATAAATTTCATTATTTCTTGTCATTACAAATCCATAAAAAATCGAAAACAAACTTTTAAGGAAAAGCATCATACAGTTTGAAGATGGAACATCCGATATAATACAAGTTCTCCTTTCTCCCCCTTAAATGTTTCTCTCTCCTTTTAGTAATGACACATGAGTTCTGATAACACATGTTGTACAATTTCTATTTTTGGAAACCTTAGTTGAAGAGTGAGACAGGTTTTATTAATTACTTTTCTAGATATGCATATGTAGCCTTTCCCTGTGATTATCTCACTCTGCCTACTAACTAAAAAATGTTGACATGGAAGGATAAATCAGGTGGATTTTGTGACTGCTGGATTATCCACATTTGATTCAGTACAGTATATCACTTAGGAATAAAACTTTTTTTTTTCCTGTGGCACATAATCTTACAATACAGATGGTGCTTAGTT
0.5512916547056598 ACTCACGACCCATTTGTTCCGCTTTCACGGTGTTTCTGCTAAGTGTTCCTCTCATCTTCCTATGGTCAACTTGCCCCACACAGTCTTGCCCAAATGCTGCAGCATGTTAGTCTGAAGTTTGGCTAAGCACCACCACACATAACTGACAGCCCCTTGTATCACTCAATTGTAGGAACTGCTGATTAGCCACATACTGGTGAAATGAGGGGCCTCAAATCAGTGCAGAGAGAAGCCTATCAGTGCTTCCCTGACCATGGGACTGTGAGTGGAACCTTTCTCACTAGAACAGAAGGCAGGAAGGACAAGCACTTTGATGTCAATGCTGAGCATAATTTGCAGGAACAGTAAGAAGAAACTCAGCCAACTGAGTTGAGGAAAGAAAAAAAGCACAGCTGAGGTGTTGAAAATGTGAATCCGTACTGGATAAGGGATAATAGAAATAGCCTCTGTCCAACAACCTTTCAACAATTAGAATGTGATAGATAGACAAGGCTATGAAACAACTAACTACATACATAACTCTCACAGCTGGGTTAACCCTAAAGGAATCTGTGAGATTTGAAACATGACTACTAAGGCACTGATAAGAACTCTTCACCAGATGGGAGCCTGTGAGGAAAACACAATGTTTAGCATATTAATGAAAACTTATATACTTGGCCAATTTTATTGGTACAATCTGTTTTTGAGAATAATGAAAAAGAT
0.7082578178817299 CTGCCCAAGCATCTAATCAATCACAAAATTTTGCTGATTCTTTCACCTTACTGTTTCTTGAATCTGTTCATCCATCATCCCCACTGCTGCTTTTTCAAGCTTCATCATTTCTTGCCTGAATTACTGCAACTGTCTTCTAGGCTTCTTGCCAGTTGTTTTACCCTCTTCAATTCGTTCTCCAAAAGCAGTCAGTGAATTTGCTGGAATGCACATCAGGCTTTCCATGACTCCCCAACGATAAGATAACATTTAAACTCTGTAGAGCAGCACTCAAAACCCTGCCTGGGCGGGCCCCTGCTTACTAACCTGACAGCAGCTCGTTCCACATTCCTCTTGGTACTTTTCATTTCAACCTAAGCCAGCACTGCCCAGTAGAAATATAGCATAGGCCATACTTCAAAGAAAGTAAAAACAGGTAAATTGCATTCTAATAAA
0.8397339108771767 AAATAGGTGGCTCTAGGAAGCTGCCTGTTCATTTTGCCTCTAACAAGCCTATGATATATTAGCAACCACCCAAATCTCTGTGGGTCAGGCCATTTGGATTATCTTGCCAGTAACAAATCTACTTTGCCTCTGAGATTAAGTGCCGCTATGTCACCCAGGATTTTAATTGCCACATTGGAGTCAGGGAGACCATTTCAACTGCATCCCATATCAGCACTGGCAGCCTCAAAGAGGAGCCACTAGTGTATTTTTAAATATGCTGATAAGCCTCTCATCAACTCCTGTCATTTCTCAAGGCCTTGGAGAAAGGAGTAGTTTCTAGACCTTCTTGAGAGTCATAAATTTCATATGATCAATGCTCTCTAGCATCGCAATCTCCTGGCCTTTGATTTTTTTCTTCACCAATACACCAAGGAAGTTCTGAACTGAATGGAAGTTAGAGATTATTTAGTCC
0.3192196832641709 TGTCTCTGAGTATGAAACACATGAGGCAGATTCTTAAGCTAAAGCATTCATACCAGCTGGGAAGAGGGGTTTTCCCGAGGAACAGTAACTTCCCTCTACATCCAGGAAAGCCTCATGGTGTGGATGGGCGTCCAACAAGCAGGCTGTTCTGGCCCTCTTTGGGTGCTGACTCTGTGTTCCCAAGGGCCATTGATAAGCTAAGCAGGAATAGTGTAACCACAGGAATGCCTGCTGATAACAGGAAAGTAGGCGGCTGCATTCCTGAGCCATGGCTGATGCTGCTCCATCCACTGCCAAGGTGTAGAAAAAAGAGACAAAGTAGTAAATTCTAAAGATTTGTCAGTCTGGGTTGGCAGCTCTTAGAGAATGGATATGTGGCAAATATGTCTCTCCCTCTGTGTGTGTGTATGTTTGTGTGTGTGCGTGTGCGTGTGTGTGTGTGTGTTAGAGAGAG
0.9242761919865927 TTACTTTGTTTAAACCAGTTCTACACATGGGTATGAAGTATATAATTAGGCTGTACTAGATATCTGAGAAGAAATCTGGGATTAGACCTGCCTCGGTGAGGTACCCTTATTATATGTTGCTGCTTGATAGTACTAACCAGCTTTAGAAGGTTCACTGTCACCCTGACATGGAGGCACATGATGCATCTGGTTCAACAGCATTAAAATACCTTTTCTAGGAGTTGCTTATCACTGGTCCTCATTGGTCCTTAACATTCTTTCCTGTCTGGGCCCCAGTCCATCTCTGGCTTCTGGTGTAAGCCATATAGATGCCACAGTCTCTTTTACTTCTGAATTTAGGATCTATTATCTCTTCTTTTGTTATTAATGTCTATAAGTGCTACATGCATTTGAGTTGGACTTTAAATGATAGGGAAGATTTCAACTGTACAGGAGGGAGGACATTAGAGAAACCTACACAAAGAAAGGTGCAGATGTTGGGGGAATATT
0.4100405385734436 CTGGTTAAGTGCCTCCTCCCTTCTCCTCCCACCTGTCAGCCCCAACCCAACAGTCCATCCATCCCACAAGGCAGGGTGGCAATGGCTGTCAGCCACAAACGCTGCCCTAGACATGCCTCCATGGCACATATCAGCCAACCTCCCATCAGGAAGAAGTGACGGAGAGCTTTTTAAAAAAAAAAAAAGCAGCTAAGCAGCTGACACTGACATGAACGCCCCTGAATGCCCTCTTCCATGGGCCAGCTTTCCAGGGCACATCTTATCTGGGCAGTACACAGGGGGCTGGGGGAAGGGAGCTGCCTTAGGGATGAGTCATCCATGCCTCTACAGAGTTAGCTACAAGAGGGCTGGCAGAGACAGGGAAGAGTCAGCCCAGAGAAGTAGGGCCCATCTAGGGGTAGGAATGCATCCTTTCTTCCCACAGAGCCTGGGCTGGTGGAGCTGCT
0.3715905203500692 ATGTGTTTCTCCAGCCTGAACTACTTCTACTCTCCACGTTCTGCTCCATTCTTTAAAGACCCCCTGCTTTTGGGAGGCCTTTCTCAGCCTGTGCTATCTACAGAAGTTTTTCCTCTGAACTCACAGTAACTCTCAGTGTTGCTATTTTGGTCCTTAAGCATACATTCTCTTTGAATGCTTATCTCTGGATGCCTGAGAGAGAGAGAGAGAGAGTGTGTGTGTGTGTGTGTTTGTGTGTGTGTCACCTGTCTAACTTGACTGCAAGCAACTTGAGAGCAAGACCATTTATCATACTTCCTGGTATAGCCTCCAGTATCATGTAGAGAACTAACAGACGGGCAGACATGTGGTTACAAAGTAGGTTCCCCTACTTTATAGGGGATATATATATCTCATATATATATATAAATTCATTC
0.06981317006100901 TCAAATTTGAGATTTAGATGTTTGATACCCTGGCATGTGGGAATAGCAGCTATAAGTCTTTTCCATAGGATTAGAAGTTCATTATAACCTGGAACTAATGGCCACAGGAACTAAGAGCCAAAGGATTTTCTAGCTGAGTCTTTTTAAGTGGCAGTTGAGCAGTTCACTGAGGGCCATGTTCAGTGCTGACAGCCCAGGAACGAGTGAAGAAGGCAGATAACAAGGCATTGACAGGGGCAGCTGGGTAAGTCTCTCAGTGAATGCTGACATGCTTTCCTCTCTCAACATCCCAGCTAAACTGGCTAGTGTCCAGGTACTATTATCTACTCTGGCAAGGACAGGCCACATTTCACTTCATGCAAAAAGTATGTCGAGCAGAAGAACTCAGGAACAGCCAAAGAAAAGTGCTTGATTCTTTATTACACTCTTCTTACCTCAACTGCTCTGCTCCTAACTATAAG
0.7338108164134023 ATTTTGTACTTCTCTTGAAACACTGGAAGATACATCAACACTAGGTCCACTCCGCTGCACAGAAACAACTGGCTTGGTCCAAGCGGTAAGTAGCTGTCCTCTTGCACACTGTGCACAAACCATCCTCTCAGAAATCATTTTCACAACCCCTTATGCACTCTGTTTGCAGCCCCTTCCACAGAGGCAGAATGGGAATGCCAAAAATGTCATCTTATCTTGCTTTGCAATAGTTCAAAGATTATGCTGCAAGTATTTGTGTGTTCAGTGAGATATTTTTAAGAACTTAAAATGCTGCATCAGATAATCAAAGCCTTGTGTATCCATCCCAAATGGCTTCACCCATTACTTTTCTTATAGCTAATTATGAATTATATCCAAATATTCTGTCTTCATTGCCTACTTACAGCAGAGACGATCTCCTTTGACAGGAATCCAACTGTGTGAGTTGCCAAGAACTTGTCAGAGAGAGGGTTGTAACAGGAGGGC
0.3065685820240299 TTCTACCAGCCAGCTCTGTGATGTGGTCAGTTTCCTTATTTGTCTGGGCTTCAGTTCTCATATCTTCAAAGAGGGAGCAGTAGTATTCCTACGTTTTGGGATATTTAAAGTGTTTAGCATAATGCCTACTGTTAACTTCATTTGTTTGATTTTAGCTTTTGTTATTGCTAATAAGTATTTCATTCAGTTAGATCATATGTGCTGATAAGGCCCAGGGGACAGATTCCAATTCTTATCTCCTTGGTCAGTTTCCCTGCACTGAAGCTGTTGATTGGAAGAGTGGCAGGCCAGGCAGGAGTGGGGGCTTATCACCACCATGTCACCACTGATGCCCCAGTCAGTACTCAATCCACACTTGGCTGGGTATAGCTTGCCTCCTGAGGGGAAGTAAGGCCAAAGCATTTTCACAGAGTGGAGGGAATTCCTGGTCCTAGTGTGTCTGACTTTCTACAAGATAACATAAGTTTAGATGCTAGAAAGCAACTTTGAGCCCTGC
0.3449761369440279 TGATACAGCAGCGGGGTGGACTTGAGCCCTGATTCCGCTGAGCCCAGTGTGGTTCTGCTGCACTCCACTGCCTGCCTTGGAGGAAGGAAGGGCAAAGGTTGTCAAAACCCCGCCTCGCGCTGCTGGCCTGCCAGCCTTTTCATCACCTCTGCTATCACAAAGTACTGGTGTGAATAAGTGTCACTTGAATAATACTGTAATCTTATCAGCATGCTGAAAGATATAAACGGAAACAGCCCTTTTCTCTCCTGCCTTCTCAGCTGACAAGCCGACCAAAGCCAAGGTTAATTCGTTGTTGAGAATTTCTCTGCCCTCTACCACAAATCTTTTATCTGGCATGTTTGTTCATCTTTCCTCTAATAGAGGTTCACACTTGCAGAGGAAGAAGGTGGGCCCAGAAATGAAACTCTGGGAGTGTGTTCTTGTCCAGCACGGAGTTCCC
0.4805644249581431 GCCTTTAAGGTGTCCTGGGCACCCGAGCAGCTGTGGGCTACGGCTTATACTTTCCCTAACTGCGGGTGGCTTTATTGGAATGTGAGACACAGGCCATTAACCTTTTACCCCAGTCATGCAGCTAATCACCAGAGCATTTCACCACCTCAGCCGTGGCTGCAAAACACTAAGCTGATTATGGGAAAGTGCAGAACACGAATGCTCTTGTGGAATTTTCAGTAGAGATAAGCATTTGCTGAGATTGAATGTGATGTGAACTCAGCGCCCTCTCCATCTTACTGTGACCTGAAGCCCAATGAGCCGGTCCCTGGGTGGACCCTGTCCCTGGGTGGACCCTGCCCCTCAGTGGCCCCTTCCAGGAAGGCCTTTGGTCTTCATGCACTCAGTCAGCTGTGGCTGGTAC
0.8730323751107794 GAGCGAAGTTCTCCCTAGTTTAAAAGGTCGCATTACTGAATAAAGTACACTATAACCTAAGAGCTTTTGACCTTCTCCCAGCCCGTTTTTAAAAAGAATTAAGACTATGCACTGTAATGCATGTTTGGTTGTTATCTCTGTTACATTAGCTCTTGAAGCATTCTGATTACAACTTGTAGCTGCCAAGCCCTGTCCTGCAGTATTATCTGGAACAAAAATTTTCCATGTGGTTGTTTTTAGCAGAGCTACTATATGCAAACTGCACGTGAAGGATATAAGTTATAAAGGAATAGAGCTTCTAGAAGGAGAAATGTGAGTTAACTTTTTTCTACCATTTAATCATTCTTTCCTCACCTCTTAGTGTGT
0.7186818149021037 GAGACCTTATTCTATCAACTTCTTTCTTTCTCTTCTTTTTCTCATCCTTCCTCCCCCCATGTCCAACCTACTCCCCTCCTCTTCTACATACAAACATTCTCATGACTCTTATATTTACAAAAAAGTTCCCAATCACTCACTATCCTCTTTAGCTACCACTCTCTCCTCTCTTATCACAAAACCACTGAAAAGAGTACTTGGCTTGCTGTCTTCACTCCTTCTCCACTCATCCTCAATCCCCCACAGTCTGGTTTCTGTCACCAACACGCACTAAAAATATGCCTTTGATGTTTTACACAGGGCTGCCTAATTTGCAAGCCCAGTGGATTTTTCTCAGTCCTCCTCATGATCTCTTCAGGCTGACACTGCTAATCTCCTGCCCTTCCTCCTTGAAACCCTTTACCATCTTGACTTCTATGATGACATGCTGT
1 AGTCTGTATGCTTTACTGAAGCACCAGTTTAATCTGACACTCACTGTGGCCTTGAATGAGTCACCTTTCAGGGCTGAGTTCTCTAATCTGTAAAATGAGAGTGTTATGTTAAATGTTTACTGAGGTTGATTATTCTATCAGCTACTTGTAATTCAGCTGCATCATTTCAGTTAGCTATAAATAAACCCCCTAAGACCCTCAGTGTGAATATGAACAACTATCATTTCATATTATTTCATATATCAAGTATTCTCATTTATAATTGGGTTGAGGTTTATTAAAAAAAAAAAAAAAAGCTTTTTGGCAAAGGGAGGGACTGAAAACAAATTCACCACTGCATGGTGCCCTGCTTGAGCCAATCTGACTGGAGCTTAAGAAACTCCACCCAGTTCTGGCTAACATCAAAGGAGACTCAACACCACTCTGCCAGAAAATAAGCCCTGTATTATCTAACCAGGCACTAAGGGAACACACAGTTTTCAAGCACAGCACTTTGTATATCTGATCTTTCATTCTGATGACATGCCTGAAGTGAAACTATTAGTGAGCCGGGTTTTTTAAAATAGGTAAACTAAGGCAAGAGGCAACTACATGGCATGATGATAAAATACTCTCTTGACTACAATCTCACTATTAAGAGCTAGG
0.4168893042071997 CTGGGGCCTGGTGAGCCAGCCCTGCGGAGGGAGGAATGTGCGACAGGGGACGGGTGGGGCAGGGGGATGGCGGTGGGGGTGGGGGGTGTTGGCTGCTATTTTGGCAGGTGCCAGGGACAAGGCTACAGGAACATGTACCCCACGCCATATAAGCCCATGTGGTCCTCCAGCTGCTCAGATAAGCTATTTAAAACCAGAGCAGATATGCAGGGAACAGTCATGCAACATAAACCAGCTGTCCCTCTTGAGAATCCTGATAAAGCAGAGGCCAGCAACCCAGGCCTGGGAGGGCCAGCTGGGAGCAGGGTTGGGGGGCAGAAGGCAACCTCCAAGACACTCCATAAGTCTCAGCACCAGAATCTTGGAAGGCAGAGGGCAAGAGTTATGTGCTGCTCCACTTGAACTGATGCTGGGGGTAAAGACATCTTC
0.3590597944762922 CATCCATTTCTGGTCATCCATTACTTAACAACGCTCATTATCTCCAGTGTCTGAACCAAAGTAGGAAAGAGTGGGAAAATCACTATCGAGACATTCTTAAAGACTTCTCTACAGAGGCCCAAAGCTTATGTAGTCCAGTATCTTTGAGCACTTAATAATCAGTGTCTGTAAAACCTTCCTAAAAATAAAGGCTTCACAGAACTGACTTCTTACACCATTAACAAAGGCCTCTCTGATTTGGCTCCATCCAAGATAAGAGCCTCTCTGTAAAAGCAAAAGCATGTATTAAGATAAAAAGTGAAGTGGATCCAATGGGACAGAAGACAGCCCTTCACAAGCAAGTATCTAGGAGGCCAAGAAATAAACAGGCAAGGGTGTCCCTCAGACATGGCCAATATCACAAGCTCAGACAGACAGGTTTCTAAACTGATACTCCTCTAAATTGGTTTTTCTAGAGCCTTCCTGATCA
0.5420896957647396 GCATCTGAGGATTTCGGTATCCTCAGGGGGCCCTGGAAGTGATCTCCAGTGCATAGTGAAGGATGACTATAGCTCCAGGTGGGTGGGGAAAGGAGCTCTCTGCATCTGAGCTGTGGGGCCTGTTTTTAAGGTTTCTAGTTTCTAAACTCCATGCCCTGTGCTGAGTTTAGAAGAGGAACTTGTTACAGTCATTCTTTGTTATCAGTGTAGCACTTAACATTTCTCTTCTACTACTGCAGGGACCCAGATTCTCCGCTCCTACGTCAGAGAATTTCTCTGTGATTTATACTGTGCTTTCAGGATGCGGTGGGTCACTCTGGTGGTTGTTGGGTGTTCTTTTACAATGGGACTCTGAAGTAGCTGATAAATAAGTGGCCCTAATGGAAAAGTGCTGAGGCACAACTCTAATTCACTTTCAAAGGAAGTGAAATGGCCTTGTTCCAGAAGAGGGATTTGGCATGTCTGCTGGAGAGAAATACTAGAGAACATTATACGAGTTGACTGATAGTCCTTCCACAAG
1 TTGAGGTTCATCTTGGCCAGGTAGTGAAGTTGTCTTAGTCCATTTTCTGCTTCTATAACACAATACCACAGACTGGGTAACTTATAAATAATAGAAGTTTATTTGGCTCAGGGTTATTGGAGAATGAGTAGTCCAAGAACATGGTGCCAGCATCTGGTGAGGCTCATCTTATTGCAGAGGGTGAAAGGTGGAAGAGAGCACTTATGATAGAGAGAGATACCAGAAACTGAACTTGCTTTATAAACAGCCTCCTCTTGAGATAACTAACCTGCTCATATGATTAATCTATTTGTGGAGGTTCCACACTTATGACCTAGTCACCTCTTATTAGTCCTTACCTCCCAAAACTATTGCATTGGGGATTAAATTTCTAACACATGAACTTTTGAGTGACACACTCAAACCATAACAGGAGTCTTTAAGCACTGCTGAG
0.7254224663887716 CAGAGAGGCTGTTTACTGGTTTTAGCAAACACACATATACCCTGCACTATTTCTCCTTTCAAACAGCCTCATATAACAAATGATCTGGTCAAGGGAGTCGTGAGACCAATTCTAGCTGAACGGAGCTGCAGCTGTTCTGTCAGCCCCTTCCCTGGGTTCCACGTGACTCTCCCAGGCCCTCTAGCAGAGCTCTCCCTTGGTTATCAGCAGTAATAGAGAGCTTCTTTATGCACTTGAGATAACTGGGAACACAACTACATCAGTGACCTCTAAATTCGCCATCCCTGTCTACTGTCAAGTACAATTACCTTGTTCCATCCTAAAGGAAAAAAATGATTTACCCTTTCCCCAGTGATAACGTTCTTTTAAGTGTTCAAAGCATTAATCAGGGAGGCTGTCTTTAATATTCTATCCTTGGATTTTATTCTATTGCAGCAGGATTTATAATCACACACTTAAAAATCTTTAGTACTTCACT
0.6040337376463851 ATTACAAAGAACAAAAAGTCTCTTTACCTACTGCTTCTGAAGTCTCCTTTCTCTTCTGTGTAAACTAATCTGATGAAATGAGCTGCTTTACTCGTTAAATATGTCAACTCCCTGGGGATGTATCCCGCCAGGGGCAGGCTGTGTAAGATCCAGCCTCTTCGTACCACCACTTCAGCTGCGATAAGAAGGTGCTTAACTTGACGGGTGAAATAGAGCGAGAACACTGGTGATAGTCACTGCTTAGTTCTAAGTGTGCTTCTGTGCAGTGATTTAAGCAGCACAGAAGAGGGGGAAGGGAGATTTAGATACATTTTATCTTTATCTTTAGTTCTGATAGGATATGGCTCACACATCCCAAACCCTAACCCTGCTTAATCTCCTTACTTG
0.4343826036733326 CCCTTCTCCGCCCAGCACTTCCCTGCCCTATTCCGATATCAGTTTTATAAAAAAGGAGAAATGTTATGTATTCTTCTTTGAGAAAGTTCATTGGCATAAGAAAGAATTTAGGGAGTCAGAAAGCTTCAACTGGTGAATGGTGGCTGTGGGCACAATTAGTGCTAGCCTTTGCAGCACGTTATCTCAGAAGATGAGATAAAACTGGTTTCAGGTTACAACAAGCAGTTTGGGCTTGCAGAGAATTACATTCTTTCAGCAATGTTGTACCCTGCGTGCTTGTTCCCCCTGGCTTCTCAACTCTGTTTTAGTTGTGAGTGACAAGAATGACCCAATTCTTATGATCAACTTTCATGATTGTTATGAGAAT
0.5553294115917982 TATCAGGTCTGGAAGGTCTCCAAAGAGGGGTCTTTCAGGAGGCTGCAAAGCACTACCAGCGTGCTCCCTGCTTCTGTCTCATCCCCCTGCCCCATTTGCTTTCTCATTTGTTCTGTGTCCAATCGCTGTCCCCACACCTCATCAATCTCCCTGGCTCACTGAGAAAGGCCAATCTCCCTCCTGCGGAGACCCCCAGTGCCTGGTGCTGACATCAGAGAGCTGGACTCTGTTTGTCCTCATAATCTGGGGACAGATAACGGCCATTAACGCCTTGCTTAATTACGAACACCCAAAGCAGGCCTACTAGTCATAGACCAGCAGAGCTGGGAGGAGACACATGGCAATCCAGGCTCCATCTTATTTTATTTCTTTTATTTAAATGAATTAATATGTGAAAGCTCTTGGAACAGTGCCCAGCACATAGCAAGTGTTTTGAAAATGTTTGCTATTATTGTTATCAGTGCTGTCACATTTATAGATGGAGAAGTAGAGGCCCAGCGAGGATTGGGGGCTTGCCCAGTTACACAGCAAGTGACAGGCTGCAGTGGGACTGAGTCCAGGCCAGGA
0.4392410489349773 AGAAAATAAAAGTCATCTGTAAATGTCCCTCTCCTCCCCCAGGCCTCAGGCTTTGCTAAGACAAGGCCGCTGAGCAGATCAGCACACATCGGGTTATTTATAAAGCTCCCGCCTTCCTCTCCACCCACTCCCCTCTCTCTTGGCTACGGAGAAGCCTTCGGCCAGGACATTCCCTTGCAGCCTACTCAAGCTGCTATATAAAGCCCTGCACTTCTCGGGGCTGGATCAGAACGTTCCTTATCTCTCTGCAGCAGGACGCTGATAATCTGCCCAGCTGGCAGGCGCTCTGAGGTCGGCTTGGGCTGCTGCTCTCAGGGCCTACAGCCCCCGTGTGGTCGTCTTCTCTGGTTCCCACTGAAACTTGGCCAACAACACTAACTGAAACCTCAAATATAGGAAGTTGTTGGCTTGTTTCATTAGAGGGCAGTTGCCAGAC
0.6594812190713594 TGCGCTTATTGTTCCTGATAGTCTAGTGACCAGCAGTTGGCGAGAACATGAGTGCAACAAAAGTGAGCTCTGGATCTTTATTATGTAGCACTGGGATCGGGACTGCACACTCTGTGTCTTACTGTGACTACATCGTGCAGAAATGGGGTGGTGAAAAGAACATTAAGTTGGTGGAGAGGCACTTTGCTGAACAAGGATATAGGCGCTGATAACAAGGCTGTGCATCAGGAAGCTGGCAGTTAATCCGATCTTGGGCGCCTCCTGGGAACCAGAGCCAGCAATCAGCATCACGCAGAAAAACAGCAGGGATCTGGAAATGAGATTTCTGAAAGTCAGGAAGTTGGCAGTTGAGTCAGAGCTGCAGAACCAGCTGGAATAAGAACCTTTAGCTATCAGTACCAAGTAACAAAGCAGCAAGGAAGAGCT
0.005390312796000092 AACTGCAGGACTCCACCAGGCTTTCTCTGGCTCCAGGACCCCCACGAAGGCCTCCTGATTTATCTGGGGCAGCTCCTGCATAAGAAGGGTGACCGTTTCCCACAGTGGAGAACCAGACACTGGGCACAGCCCACTTGATAAGACAGCTTCCATCTCCCGCCCCTCCTGGGTATGCAAAGGCATTCCTGAGTGAATAGGTTCAGGTCAGAGCAGGAGAGGTTATCACCCAGGCTGTGCCTTGAAGCTTTGCTGAGTACAAGAAAGGTAAGGAAGAGATAAGCAAGAGGTGAGAATGACGGCAGGGCTGGCAAGTGAGATCACGAGCTTTTCCTCAAACATCTGGCTAAGAATAGAAGCTTTGGGAAATTCCACAACTGGCAGATTAAGGTGATCAGCCTCTCAGCTGGAATTTGTGAAGTTTCTTCAGACTGAGCTCCCAGAGAAGTATGTGTGGTGGAATCGCTGTGCTTTC
0.8744701168029646 CCTGTATCAATTCCTTACTCAGAAAAGTGTGCTTTCAGACTTTTTACTTTTGGATTTCTGGCCCCAATCAGCCAATATCAGTTCATTATAGAATCTACAGAGACACCATAATCTTCCTATTTTAAGACACAATTTTAATTGTAATTTTGCTAAACTCTCTCCTAAGACAAGCAGCAGCTTTTTATCGCCTGTTATCTAGGGTGTTGCTTTCACAAATCCACACCCTCTGGGCCCGTCACAGGCAGCCAGATCCTGGGACTTCTCAGTCAGTTGCTTTGCTGACGGTTCTTCAGAGGTGATGAGCTGTGTGTGAAGGCCCCCTTCAGACCATGGTCCCACGAGGGCATTACACATCAGGCATATGTGCAGAGATTAGAAACTTCTCAAGGATTTCATGTTCTATTCCAAGAAGTAAGGTCTAAAAATGAA
1 CTGTGACTAATGAGTAATTCTAAAAAAGAACTGGATAGTGCAAATCATTCAACATCCAAGTAAAAAAGTACTTTGATTCTAAATTACTGGACTTTGTTTTTATAAAAAATATTACAGAAGTAGAGATATAATTTCTCACTGCAGTATCACACCAGACCACTCTGGATATAAATAGTCTGTTGGGAACTGACCAAAGCCACTTTGTTCATTTCCTTTTATCATGTTCTTTATGGCAGATAGCATATCCTTTCACAGAAAGAGATAGGTAAGTGCCGTAGGCCTTCCCCGCAGTTATTTTGATGTGAGGTATAGAGATACAAGGAAAACAAAAGTCAGACCAAATCTGGTATTCATAAAAACACATGGTTGGGTGCAATGGCTCACACGTATAGTCATAAGACCTTGGGAGGC
0.6334556097346712 TTTTTTTTAATCAGTCAACAAATGTGGGTTGAACATTTAGCGGATAATAGTCACTATGTTAGCTGCCATGGTGGATAAAGCTAATATACCTTGCAGTTTTTCCCCTTAGGATCTGACAACCTAGTTTTGTTTCTTTGGCATTGTCTAGTAACACCCAACACAGTCTGTAGCTTTCAGCTGACACTCAGTGAGTGCTCATTATCTAACAGGGATGAATGAGTGGACTGGTTCCCAATGCTCAGCCAATCTTCATGAAATTTCCCTGCTGGCTCAGTGACAAAGAGGAGATATGGCATATGTCAACGGCCTGCAAGTGTCCCAGAAATAGGAGGCAAAAGAAAATACAGCACATAGAGTCTTAAAATAGGAAGACAGTGGAACCCGTCTAGTACAAGCTTGAGCAAACATCTTTGGCTTCTTTATCTCACC
0.09695254777693869 TTCAGCAGGCAAGAAAGGTGTTGCTATTTTAAGTCCCTTAGCATAATACATCTCTTTGAACAGCACTGAAATGAATTGAACCAGATGAACTCCGCCTTGTTGTTAGTAGGTCATTTCATGCTTAACAACCCGCAACACATTCAATCCACATCAACTCAACACCTTTTTCACAAAGGACTTTAAAGCTGAAATGGTTTCCAGTGGGAGATAAGCAACTATGCGCCCTGCAGGGAAGTAGTCTTGTTAGTGGCTATCAGCTGTCACTCACTCAACTCCATTCAGAAAAGGCTGATTGATGTAGCTCTGGGGAAGGAAGATAAGGTGAATATGAGTCGATTTATTATTTTTAGCTATGTGTCTAGTTTAAAAGAATTTCATGTGACCCTTTCTAAATAA
0.7780635170917851 TATTCTATTTCCACAGTATCCAATGGTTTTATTAATCCCATTTTATAGATGAGACAGCTAAGCCTCAGAATAATGATGTGGAGTCTTGCCCCAGGTGATACAGCTACTAAGATATTGTGACTCAGAATTGAGCATCTAGTGATCCTAAGTCACAGAGCACAGTCAGGTGAATTGGATCTTACTGTCTTAAAACAAATGGTCCCTGTTATCGTGAGCTATTCTGAGGATAGAAATTGTTGCTATGTATACAGTATCATTTGCATTATCTGATTATCAGATCTCACATTTCCATGAGCGTTTTCTTTCACTGCCACATTGACAATTTTGTGTTCTTTTTTCCAATGTTCCCAGTAAGTAGAAAAGCAGTACAAGATATTTTAGTTTTGTCAAATAGGAGCCTGACAGCCAGTATACAGTCGTTTATTATTACAACTGTGTCCCAGGGCACCTCATTGCAGCTATTTTGCAAGGTATTTTTAGCTTCATGCATATGGTCCTGTGTCAGCCCATTTGTTATCTGAAGAGCCAAACACTCGTGTATTTTTAGCAACATGATTACTCTGCTTCCTTTATCTGCAGAAGCCCATCTCTTTGCCAATTACAGGATCCATTAGTTGACCAGCTGCCATATGAGCTCTGCTCCTGACATTAGATGTGTTTTTCTCCTTACGATAATATTTAGAGGAGAAGCTATTCTTTCCTGGAGCAGCACAAGTTTTGCCAAACAATATACCTGAAGTAAATGATTCACTTATATAATCTTTATTAATCTAATTAAAGTTGGCATGATAAAGCTTTTTTTTTTAATTTTG
0.3195733766540333 TTCGCTGTTGCTGCTTGCCATATTTAGTCACTGAGATCTGGAACGGGCCTGAGGAATGCTGAACTGAACTGTTGCTTATGTCATTAAAAACTCAACTAGGCAGAAAGCTAGGAATGGAGCAGTTGACAAAGATAAAGCCGAGAGCTCTGTGGCTTATCCTTAATTAGGTGTTGGCATTGGTTCTTGTCAAACAAGGGGAAAGAGAGTGTGCTGTAGCACACGGACGCACACAGACAGCCCTAGTCACAGTTGGAGAGAACACAAAGTGCATTCAAGCTGGCATTGAAAGGGATTTAGATAAGTACTCGAGGTAACAAAAATCGAAAAAGGAGGATGATAGCAATGGAAGCTTTAGATGAATTGCAACTGAGTGCACCTTTATTACAGCTTATCAGTCTCCAGACAGCTACAAACCAACCTTCCTAGTGCATTTCTCTTCGTGCTCTCCTGGATTAAAGGTCAAAGTAACTCAGATTTATATGTTCTGTCGCGCGGTCTCAGTCTCTCCCGTTGCT
0.8306322863545208 TACTGCCTTAGAGAACATGTATAGTACGTCATTAGTAATGTTTATTAAAATTGAGTTTTCATTGGAAATACTTCCTGGAAATAGCTCAGGAAATTATTTCCAAATTTAAAAAGGTTTGCAGATTGAAATAGTCTGTGAACCCTTTTTCTAATAAAAAGCATACACAATTTACATGTTTGATATGATTTAATCCATAATCTATGTATCCAGGCCACTTAATGGGAAAAAACACAAAGAGTTGAAATCATTTGCTTATCATCATGTAGATAAGAAGCCAAAATTAGGAGTGAAGTCATTCTACATTTCTGCTAAGATTGCTGTGTGGCAGATATCTGGCTGCCCTGGAAACAAATCAACAGATCTGTAAAACACTCGAAGCCTGAGTGGCCTTCTTTGCCCAGTTAACCTTCTTCCACTGGGTATTCTCCACCTGCCAATCTGGTTTCCAGACTCCTCAAGCTCTTCTCCCTTTTTCGTGCCTC
1 CCCGGCACCTACCTCTGTCAAGCTTTGGCTGCTCAGTCCGCATGGGCTGGATGTGAAAAAAGATCCCAGTATGATGCCTTCTCTAAATTTACCAGAAAGAAAGGACCTGGGATGCTTGTCCTTTAAGTGTCTCTAAACATGGTTTGCATAGCTGGATCTCAGCTTATCTGTGCCTTTCGGCTTTCGCTTCCATACATGGATCTGTTCCCAACAGTAACTCCAAGCTGTCGAAAAGAAGCTATCTGGCAGCTCTCTGCTTCATCCAACACATGGATGATAAAAATACACATATAGCGATTCTTCCAGCCAGGCCCATTTCCCACCACATGATCCTGTCACTATGCTTTTTTTTTTTTTTTTTTTTCCAAAACACTTTTGAGATTGGCATTTCTACTCTCCAAATATTTAGATCAT
0.2308025443120812 ATATTCATAGTTCTTAAAGCTAACAAAATCTTTTTTGCATGTGCTTCTTAAGAAGTAAATGCTAAAAATGAAAATGCCCACTGACCTAGGATATCCCAGGAGTGGAATCGACTGTCTGTCAGTGTGCTCTTAGAATCACTAGAGGTGTTTGACAGCTGTGCTAAGCAACAACACAGAGTGCAAAGACAAAGAAGTAAACCCAGCCAGGGCACTCTGCCACCACACTGAGATAAGTCAAGCCCTTTAACACCAGAGGCTGCTAAGGGTTTATTCCACACTCTCAGCAAGATAAGCTGCCATTCACACCTCACAAGACACTCAGATCTGGAAAGCAGCCTAGAGGAAAAAGTAAGAGATGCGAATAAGTGCAATTATTTCAGTGAAGAAATTAACAGATTTCACATTGTTTGATTTCACTCCCATGAACAGCCATCAAAAGCCATGTTCC
0.7249065142517499 GATCTATTTTTAAGTAGGATTGATAATGGTTGTGAGAAAAACCTTGCCCACCCCCTCCAGCAGTTAGGGACCCAGACAGGGAGTAAATAAAACCCATGGCAATGAACAAGTCACCAACAACTCAAGCATCTGAGACACAAGAGGCGAGAGATAAAATTTTCCTAGGTGTCTGCAACTTTGGAGATAAGGGCAGTGAGTGTGGGCAGATGGAGGCCCCAGGGAACCCTCTGTCTAGGCCCCCCTGCACTACATCACAGGTACCCTTCACAGGCCTAGTATCCATGCACTGTTCTTTTCCCCCCTTCTCCAGAGTTTGCTTTTTGGCTCATTCAGGTATTTTCCTTTCTGAGAGTCACTGGGGACTCAGAGCATCCTCAGGTTATCTGTCCTCAGGCCTAGCCGGCTCCTTGCTGGGTTCTGACCTCACCTCTGGCGTCAGTCTTATCAGGTGTGGACAGAATCGTCTCCCCAGCTCCTGGAGCTGCAAGCCCAGGATACTCCCCACACCCAGGCCTCATCCGGTATGATGGAGGAGGGCCAGGCACCTCTGGGACTAAACACAGTGGTCACCTGCCAAATCAAAATGACCACAGGGGTCTGCAAGCGAAGCCATGAGGCCCAGAATCAGGGAGGAAGGGTGGGGTTTACATAAGTGTTGACAAAGAACAGAGCAGAT
0.6689684813203378 AAATACATACACTTATATTTGCAAAGAGGAAGAGAGGTTCATTCCCCTTCTCTATTCACATAGAGCTGTGGTTGTGGAACCTTAGTGTTCTTTATTTAAGCGGGGCCTGGGGATCTGCCTGACTGCATGCAGATGTCAGAAGACCCTGAGGAATGTTGCCTCAGTGCCTTGTATGCACAGCTAGCACAGTTATCTCAAGTACTTACGGGTTATGTTATCTTCTCCCCAGCTAGGACATGGGCTGCTGGATGGCAGAGACAAATTCTATGACAGTTTTGTATCCTTAGGGCCCAGCCCTCAGAGGAAACTCAGTGAGTATTCATGGACGTAGGGAAGGAAGGAAAAGTGGGAATGACAACTTATTTTCTGTTTGGTCTGCATCAGATCTTAGAGCATCTGGAGATACATAGTTTGTTT
0.100371074217151 CAGTCATCTGTCTCGCCTGGTAACGCAAGGCACAGTTAATGTGGCCGGACTTCTAGTTCTGCTGACACGACATGTGCTGATAATAAGTCTTGAAGGCTTGGATTCAGTAGAGCCACATGGCATCACAGGGGTCTAGTGAATGAAAAGCTTCTGCAAACTTATCAGCAGAAAGATAGCAGAGAGGCCCTGCTTCTATTACCAGTGTTCTGAAGATGTTTATCACCCAGCCTTCTGAGAACAGTAGTTTGACCCATACCAAACACTTCAGAAACAATGTCAACACACCCAAGACCACAGCCAGCAAGGAATTTTCTGAGATAAGATTACAGCTTTTTCCTTAAAGAGATGCCAACCAAGTTAGTCGAGCTCCTAATATTCCCTGAGTATAGCAACGCTGTGAGTTATCCTTCATACCAGAGAATTTTAGAAGCTCAATTTTTATGCTTCCAAATACAAATATTCTGC
0.1467267930713549 TTTGGCCAAGCTCTGAGATAAAAAGGGGACAGACAAGGGCTTGAGTAGACTCAGGGCTGCCCACAGCGGGAGAGAGGAGTAGAAAGCCCTTTGAGGATTCCAAATTAGCTTTCCCTCCTGTTGAAAGATCTTGATAGTTGCTTTCTGCCCACCTTTAACTGGGAGGCTGTGTCTGACATTCCGACAGCTCAGGGTGCCCTTATCTGCTGTTGGACATGTGGCACTGTCCAGGGACAGCGCTGAGGCTTAAGCCTTCATTCCTCCGGTGCTGCGGTTGAAGGTTCCCTGCCAGCTGTCAGCCGGCTTGTCCAGCTCCACGTTGGTATGAAAACTGGAACAAGCCCTATGATTTTCCCATTTGTCCGACAAACAGAAGAGAGAAGTCCTCTGAGAGTTTGGTTTTCTAGTGCAGGAAAACAAGGGGGCTGATGGGGCTGGTGGGAAGAGACAGACTCTTTTTGGTTTGCTAAATGTTACCCTAAACCAAGCACTCAGCTAGAGGCCCTGCTTTCTGCATAGTCAAACCTGGTGCAGACAGGCTTATCCAGGCCACATCTCGTAGTGTCTGTTTGTCGGGGTTTCTTATCTCATTGCTGGCCTTCTTCAGACAATGACATTAAAGATGGTTTTTATGACCAGGGTGCTGGTATACTGAACACCCCTTGATCTGTTAACATTTTATGTATTTGTGAGGGGGATTTAACAGGAGTCTTATT
0.4976793077507646 ACTCACTTGCCATAGTCCCTTTCACTGACTCAGCAGAGAGCAACTGGAAGAAAACTCCCAGCTTCTAGCTTCTCCCACAGTCCCATAGGAGGAAAAGATTTGGCTTGTACATTTTTGTACATTGAACATTTAGGCTTTTGGCAGGGGACAGAGGGGCAGAAGGGTGGGTGGATGGTTGCCCGAGAAACTAGTTTTTATCTTATCTGTCTCCAAGTGCTGACAGGACCCAATATATTCTAGAAGCCAGGGGCTGCTGACAACAAAAGACAGCTTGGCAGCTTATAGCAGCTCCAGAGAACACCAGAAGGAGTAATAGATTACAAGGTCTTGGAAGAAAATCAACCAGTAAATCCCTCTAATTGAGAATTTACACACACAAGTCTATTGCAGATGTATCCACAGACTAGAGGTGAGAGGACCTCAGAATCTCTTACTTGG
1 GGCTCCTACAATTGACCAGGTTTCAGATTGTAATGAAATAGGCAAGTTAAGAAGCCTAGGTTTAATTCTGTCTAGACACTATCATCTGTTGCTTGTGTAGCCATGAGTAATAATTATAATTATAAGCATCCCTGAAGTCATGTGCAAGCTGTTAAAGTACGTTCATACACATTGTTTCCATTCCATACTGACAAGCCTGTACAGTAAGCATGGAAACTGGCATGGCAAGTGCTGTTATTTAAGTACGTAGATAAGGAAACTGAAGCATAACAAAGTGAAAGGGAACACAGTAAAACCAGAACCCAAATCCAGTTCCTTCTGATTCCAGGTCTAGTCCTTTTTCTACTATATCAAATGACCTCATACTTCTCTTTTCTGAAACTAAAAATTTGGAAGGTGATTT
0.5161357975918159 GACACCCTCTTGCCATAATCTGCGAGAGCAATTATGTACCCCCAATACAGCACCATATGATCATAAGAACACCTGCAGCTCCCCACCACTCCTTGGGGAAGGAAAAACTTGGCTTGTGTATCTAACATTCCAACTTTTCTAAGAGCTGCCCTAGGAACTGGCTTCTGTCTTGCCAGCCTTGTAGCACTGATGGAATCTAAAACGCCCTAGATATCTAGGGGCCAGTGATAATGTGACAGAAGTTTGAACAAGCACACAAGCAGTTGCCATGACCACTCCCTGAAGCTCAGCATGAAATGAGTTGGAGAGAAACTCCAGAGCCCAGCTTCTCCTGGGGCAGGGCTCGGGAAAGAGGTAGATCACGTGTCCAACATTCTAACATTTCTGAGGGCTGTCCAAGGGACTGGCTTCTGTCTCATCTGTCTTGTAGCACTGATAGGACCCAGCATATGGACCAGA
0.719610323308689 TTTCAGCGGAGCATTAGCCCTAATAGGTTTGGCAGGATTTTAAAATAATCAAAACAAAGCAGGTTAGAAGGTTTGATGGGGGAGGTATGTGGTGACTGCTTGAGCTCAGATCACATGGTATGTCCAGCAGCCTGGCCCAGAACAGCTCCAAGGCCTGATGCCAAGGGTCTGGGCTGAACAGAAATCTGAAGTGGCTTTATCAGAGAAATTAGTGTGTGATTAGAGCTGAGAAGAGTCACGAGTCTTAACTTCTGTTTAGCACTCCAAGAATAAGGTGTCCCGTGTGGTGCCAAATTACTCCCTCTGGGCAGTCTAAAGCATGAGTGGGATGCTTATCCAGGGAGCACGGTGGAGGAAAGGTGTGGGGGCTGGGGGGAGGCTGTGGGGTGAAGA
0.5910341432778514 TTTCCATTTTTCAGATGCCTTTCCCTCTGACTCACTTTGTCACATATATACCCACAGCATCCAAGGCACTAAACGTAATAAGTAATGACCTTGGTAATGGAAAATTCCACCTCCCTCCCTAGAGTCTGACATGCCATCACTACATTTCCAGACAGCTTATCATTAATGACAGCAGTATGAGCACATACGCATTTAAATTTACATTCCAAAGCTCCAGACAGATAAGGGAACATGGATAAAAGCTCTTGCTCCTATATTCAGACCATATGACTCCAATATATATATAGACATATTTTATTCCACAACCACTTAACTGTGAGGTCATGATGCTGATGAGCCACATGGATTTCTTCTTATAAACCAAGAGCCATCCAGCAAATCAGGATCACTGAGATATTACTACCTGGACAGCACATGAACTTTCAGCCAAGTGCTAAAGACCATA
0.7727276845190078 ATAATCCCGATGAGCTGTGAGAAGGCACTTGCCCACACAGTGTCAGAATGACCTTAGTTGTTAATTAGCCACACAGGACCTGCCCTGGATGTTAAATGTCAAAATCATGAAGGCTTTCATGGCTAATGTCACTTCTAGATTGTTGTTGCTAGCACATAGTTTGTCAAATCATTCATGCTCTTTATCAGCCTAGTAATTCCAGGATAAAGGATAACATGCATGCAAAATACCAATGTAGTAACTGGTTCACTATAGGCACTCAAAACAAGTGAGGCCCTTCTCCGTCTCACCCCCAGCTCACTCTATTTTTATTTTTGCATAAGCTTTTTGGCAGCAAATAATATCCATGAGATAAAATAGAAATGACAATCCTGCCATTTCCATTCTT
1 ATAAAGTGGAAGGTTTAGAAGAAAATCAACCAATAAAATCTATTTCAAATTGCTGAACATGAATTTGCAGGTTTTGTTTTGGGCTAATGTATCTGTTTTTTCCTAGTTTCCAACCTCACCAAGAAGAGCAGAGGGCTGGCAAACACTGGCTTAATTATCCCCATCAGTCTCAGAGACAAGGCGCTTAAGAGTTCTAGCTGCTGTAAACACTCCCCTGATAGCAGATAAGGAATCTGCTGAAAGGCAGTTTTGTCTGGGAAACCTCAGGGGCACACCAGTTAATCATTAGTGCAATATTGTATATGCATTACTACATCAAAGGAAACAGAACCCAATATTCTATTGTGAAGATTGTCTGTGTTTTCTTAAAGGTAAGAAAACAAATGCTAAACCAGAAAATAAAAGATAATAATTACATTCGCACATTTACCACAGAA
0.4990633487744884 TTTTTTTCCTTTGTCTTTTAAGGTATGAAGTAGAATAGGATAGAGAATTTTATCTCCCTGTGTCCCCCACCTCCTACCCAGGGCTTGCTTTTACATTCAGCTTTATCCAGCACGAATAATTATCAGTGAGGAATGCCAGCCATCTAAGCCCTAGTGAAGCTGTGGGTGAAGCCAGGGACTGACACTTCCTGGACTGAGAGGCCCTTCTGGGGAGAGGCATTGGCGGACAATTATTTTATTTCCTTCAGGGAGTGGCGCAGTGATCTTATCAGGGAAGATAAGAAGTACATCGGCAGTGTGAGTGACAGCTTTGGCAGTTAGTAGGAAGGGACTCAGCGGGGAGTCAAAAATATCCCAAAGATCTTGAAAGTATTTGGAGTAAGGAATGGGGTGTAAGAGATTCCTTTTCACCACCAGAATCTTAGGCTGAGAGACATTCTGTCAAGTTCCTCTATCCTGTTTACCTGTGAATGAAGCTTAGCTTGTTCCTACCACTCCCTGAAATAGTAGGC
0.9850274627062398 TTACAGGTGTGAGCCACCATGCCTGACCTCAGAATTCTTGATAACCCTGTGAGGATGGCTTAAGCTATACTCAGGTGTGTGACCTTGTACAAGTTACTAGCCTATCTAGGCCTGTTTCCTCACTTACAAAATGGGGACAAAAATAAACCTACCTCATAGTCATGAGCATTACATGAACTGTTATATCTTAGAAGCTCAGAAATGCCTGGTGGTAAATGCTATAAATACACCCTTATCATTATTAGTGAGTACCTAGGTTGTGCATGCCACTGTTGGGTGCTTTACGCACATTAATTTACTTGTCAGAATAGCCATGGGGGGGAGGTACTATTATAATGCCACTTTAGATATGAAGAAACTGACGTTTTGAGAGATTGGATGATTAAATCTCTGACTCCAAACACAACGCTTCCTCCAACGCGGTTTGGCCTTGGAGAGGAAGGCAGCTTCTTTCAAGACACCCCTGAGCGAGAAAGTCGCGTC
0.6627680683021502 TGGAAATGCATTTTTTTCTTCCAGGCAACATAAAAGCCGTTGGTCTGTGCACAGGGGTTTGGCTGGGGGCATTTCCCAAGAAAGCATGTGCACATCAACCTAAGTCAAGGAATGCAGGCTCTGGGGAAACATTCTCGCACTGAGCCATGCCAGCCTGGCACTCCACAATGTTCACACTCCTGCAATTAAGCTGTTCAGTTCTCAATCATCTGGAGCTGCTGCCAACTGCTGGCTGCTGATAGTCAGAGTGGCTGCTGCCTGGAATGTCAGCAATTCTGCTTTCTGCCTCTCCTGGACTGGCTTCACTGTACTCTCCCAGCCTCCCCAAGACAGTTAGGTGCTCATGTCCCTTTACCTAGGTGATTTTGAGAGAGAGGCCTGGGAAGGTGCAGTGGGGCTGCTCTGTAAGACTTCTAGTGCCCACAGTCTATGCCTCCTGCTG
0.2113522680440924 AGCCAGACATGAAATCTGTTGTGAATTTGTTCAAACACTCGTCTGCTCAAGCTAAAGGGCAAAGATAGGCACGTGGGTCTGTAAAAGGGTAATCAGCTCCAGGAGGGCAGGCAGCAATCCTTGGAAGGGGGGCAAAATGGTTGCAGAGTTACATGTGCTTGATCCAGTGCCATGGAGGTGTCCTGCATGCCACCCGGCACAGCGGTTAAATCTCCACCACTGGAATGCTCCTTTGCAAGTCCTCTCCAGATAAGAAGGAAAGAATGTAGCAGTTAAGAATCTTATCGTTCAAAATACCTGTCCCCAGGGACCCGCCTGCCAGGATGCACATTCCGGCTGCTGACAAGTCTGCATAGATGTTGGCTTGGTCTCAGGGTCACACATTCTATCATTTAATCGATCTTCACCAAACTGACACCAGACCTGGCGGTGCTTATGCCCTTTTCCACAGGTGACCAAGCACTGTAATGAAAAGCGGAGCTAGTCAGGGTCATTTCTGATCAATGT
0.06400518551869085 GTGCAGGGCACAGCAAGCCCACTCCCCAGGGCTGCTGTCTTTCCACGACCCTCTCACTGGCTCCTCTTGAAGTCTATGCACTTGGAGTGAGGCCACGTTTCTGCTTTTTCGATGATGAAAGCTGCTGCAGATCCCCTATCTGTGAAGTCATTTGGCAGAATCTGCGTGTTGTTGATATCAGCCATTGAAGTGAAGTCTCTTAAAATAGGCTTCTGGGACTCCGGGCACCGATGTCCTCAAAGCTCAGTGACACCAGCAGCTAAGAGACCTTGCGTAAAAATAGCCAGGGGTGAGCAGGTGGCACTTGCCCCTGACGCATGCTCACCACCTCCTCTCAGCTGTCAGCACCTCTGTCCTCTGATGTCCCACCTTCTCCCTATTATCCACCCCTTCTTCTCCCACTTGGTCCCCTC
0.4669142686802776 GAAAGAAGAAAGAAATGTGAAAAGCAGCTCAACAGTCAAAGACATTTATTTCAGAGAATAAACCTGAGAGGGATTTCTGGCCAATTTCAGTCAGGCGCCTTCTCTCTTACAGATTAAGGGTATTTAAGGGTTTAGGGAGGGAGAGCTTATCACACACTCAGAATGTTTCTGTGTGTAGGAGAGTTTGATTGCAGAGTTGGAATGTCTCTGGTCAGAGGGGATGTTATCTCGGGGCTGGCATGTTTCTGGTGGGAGAGGAGGTTATCTCAGGGTTGGCATGTTTCTGGTCAGGGGTGGTTTATCTCAGGGTTGGAATATTTCTGGTCAGAGGTGTCACTTCTGGCTTATGGTCATGCTGACATTAGCCATTAGGCTTATGTTTTGGGGCTGGATTTAGGAGGTTTTTAATCAAGAGGAACTTAAAATGGCAGTATTTGTCCAAGACGG
0.1558602313877247 TTTCAGAGAGAAACTGGGAGGAACTGTGCTGTCAACAACAGGAAGTTGATGAAAAATGAAAGAAGCCCTTGGGGAGTGAAATGAAGAGCAGATGGCTTTAATTGTTAGCCTTGCTGTGACAACTGACAAGAGAAATTCTGCTCTCTTGACATTTAAAAGATACCAGAAATACCAGTGACCACATTCCATAGCTTCTTGAAGGTTTCCATGTCAAGGAGTTCAAACTCCTCTCTATTTTCATTATTGAACAGTCCATAAAAACTGCAGGTGATAAGATCCCTGATGGGTTAGCACTCTAAGAGTTTGATAAGGCACTGAGTGCACGCAGTATAAGGGAGTGGGAAGTCACGGTGAAGGGAGGCGCTTATGCAGGGAAGTTCTGAGTGATTTATAATCTAGGCTGCTGCAAGGAAAACAAGCTCAGGTGGAAATCAAGAGCTGTCTCTATAAGCTCAGTGGATTTTCTTTT
0.5002278062427656 TACACCAGGTGGTTTCTCCAATTATAGACTGTTCAGCATTGTACTCCAGCCAAAGGGTCTAGCAGTCTGAAGCAGTGGCACCTCGTGTCACTTAGGCCCTCTGAGGGGCTGTGTTTCTGGCTTAAGTGAGATTGAGTAACAGCTTTATCTTTAGCGTGTTGAGGGAGTGCTGGGTGCTCAGGAATAATCAAGTGCCACTTTGAATGCCATCATTGCTGGAGTGACAGTTGTGGTCCAGCACATTTTGTGTTTTCCTTACGTTCTTTTCCCATTTTCAGTCCCCACCGCCCCAGCCTCCCTTGGCAAGCACAAAACGTCATGAGTTTGTATCAAGCACATGACTGCAGGCATTTGCATTAGACCACCAGTGTGACTGTCACATTGGAGATTAGATAAGCTGCAATTGCATTCATGTTTTTTTCCAAGCAAAAGCTACACAAGGAAAAAAAAAAGGCAAAGAAGACTCAGAATAGAAATAACTTATCATAGAGGGTGCAGGAAGCTTCTGTAGGGAGTAATATGTTTGGGGAGAGGTAAATATTAATAAAGGTTT
0.6299847771337512 TTCTTGACCATGGAGTTTCACCATACCACACTTTTTGGTAATAGGGGCTTGGGATAAAGCCTGTCCTCTCTAAAGATCTGTCTTTCCTTCTTTCCATAGGAAGAACTTGCTGCTCTGGGTATGGACAAATTGGATAGGGTAGAGCAAAACAGGAGAGCCTTGGCTGACAAAAGGAGACACATCAGCTAAGGGTGATGTCGGCTAGCTGAAAATACACACTAATCTAATCTGGCTGTTCTAGATGAATCTCAGGAATGTGGGAGGCTAGCATGTCAGATAGGCAATTATTGGCCGGACACAGGATTGCATAATGCAATGATGACTGGGGCTTCCTGCTTCAGCTTGAATGTGGCGAGCTTGCCAGAGAGGATTTATCTTCCCAAGAGAAACATGCCAACTTTGAGAGGATATGAAGTAACTGTTATTATGGGAAAAAAGACAGGCTTAATTTGAAAATAGTCAAGG
0.4236574425972062 GGTCTCCAGTGTACATTTGGGAACTCCAATTTCAGTGGTCGTTTAGGCAATGTAGGACGTGTTACTGCTGACAACACTCTCACTTTCACTATAACACATCTCAGGGAAGCAGCTGAAAGAGGTGGGTGATCTAATACAAGTTGTTGCAGGCATAAATAACTTGAGAAGCTCTGTTGACAATAAAAGTCTGGCATTCACAGTAGTGAACAATGTTATCTTCAAATTCAAAGGACCCTGAGATTTGTCACTGTCATCCTTTGTAGTCAAGGATGATACTGTTGACACTCTGGCTATCCCTGTATGTAAGTGTGGCTGAAAATACCCGAATGTGACAGATGATAAGGGCTTTCTGCAGAGCATACATGATAAATCTTTTTTTTTTTTTTTTTTTTGGTTTGTATCTCCTGGTCTCCCAGGGCATAGCTGGCCTTGTCACAAAGTCATCGTGTCTGTCTGCAGCAGAACCTGCTGCTCTGGCACTGGCCTCTTGGCTCTTGCATTCCAAAAACGTGGCTTGAATAGCTAGAATGTCTCTCTCCTGAACTATTATGAAGATTACACCTCCTACCTGATCTGCTTACTATCCCCCA
