svm_type c_svc
kernel_type gkm_esttrunc
L 11
k 7
d 3
norc 0
nr_class 2
total_sv 1979
rho -0.118538
label 1 -1
nr_sv 988 991
SV
0.7853816011762454 TCTGGTGGGGTCCCGGCCCTCTGGCGGAGTGCACTGAGGGATCTGGGGGATAGGAGCCCCTGTGGTGGCCAGCACCCTGCCCCTCCCGGCTGGCCCTGGCGTCTGTGCACCGAGCTGGGGGCCACTGAGTCCTGGGTGTGACTCCCACGTGCCAGGGGCCCCTGGTCCTGGCCCCACCCCAAGGTGCTTTCTGGGGAAGGTGGGCCGTGTGGCAGGGGGAGACAGCGGGGAGGGTGGGCCACGTGGC
0.7534755829207094 GGAGACAGGATTTTGTCATGTTACCCAGGCTGGCCTCAATCTTCTGGTTGCAAGGGATCAACCCACCTCAGCTTCCCAAAGTGCTGGGATTACAGGCATGAGCCACCATGCCCAGCCACAACTCTCTTCTAGTAACTCCTGTCTTTCTCCAGGAAAGCTGAAGTTTTTGATGAGACCTATAAGGGTCTCATGATCTGTCCCCGTCACCTCCAACCTCATCTTCTCCCCAATACTCCCAAACTGTGGTCTCTCTGCTCCAG
0.8652537520836877 ATTATCTGATGAGTCACGTAAGTGGCACCTGTCAGTATGGCGTGTAAGGCCTGCAAATGTATAGTCAGCCTGATACACTATTTGCTCCAGAGTATAAGATTCAGGTAAAAGTGAATCTATCTGCCCTGGGCCATGGAGCAGGGGCACAAAGGCCTTCCCAAGAGAGTCTCACCTGTAAAGTGAGGTCCTGAAATGGTTTTATGAGAGCAGATTTTCTTTATCCTCCTTTCCTCCCTCCAGGAACTTCTTTCCTCCTTTTCTCTTCCCTTGTTCCCGCCACCTTCCCTTGCCTGGCTGGCCTCATCCTTCACTGCTACAAGTGCCAACTAACTCA
1 TAGTGTTTTGCTCTCTGTTTTAAGTTATTTTAGTTCACGGTTGATGCCTGTAAATGTACTTTTACAAAATGATCTGTCTTAACAGCCTTTGCATACAGCGTGATATTCATGATATTTAATAAGCAGTAATCAGTCAAGGTGAATGCCAGTGACTAGAAGAAGAGTGTTGGGGAACCACTGCTATGGCGTGTCTCAATTCCTCATTGTATGATACTAGGGAGGGCCTCAAAAACTGTATGGCTAGAGTGGCCGCTGATGGGGAAAGGGAAACATTCAGGGAGATCAGT
1 TTGAGTCTGGGTACCTCTATCTCTTAACCAGCTGGGCACTCTTGGCTTAGCTACTTAACATCTAGTGCCTTGTTTTCCTCATCAGTTGAATGCTGGAAGTTGAGCTCTCTGATTTATGGAGCCCCTTCTGGCTATACATTCTTATCTCATGAGGACATTTTGTGATCTGGACTATATTAAAGAGCCACTCTCTAGGATTAATAACAGTACACAGCAGCCTTTTCATATTCTTTTCTTTTTCTACAGTTACTGCCCAATCAGCACTATAAAATATTCAAATCTTAAAAAATAATTCATTGAATATGTCTTCTTTTAGCACCAGCTGTAACAAAACTACATACATCAGTAGTTAGCTGCTTGCATGTGAAGCAACAGCTACATGCACATGGGAATAAGCTACAAAATGTTATTTTAATAAGATGCTGTCCACCCAAACAAACTGAATTTGAAATGTGGCACCAAACTTGCTATCTGGCTCATTC
1 TGGGATTACAAGCATGAGCCACTGAGCTCCATCTGATTTTGGATTTTTGGACGAGGGATGCTGAACCAGTTAAGTATCTATGAATATTCCAAAATCCAAAAAAAAAATCTGAAATCCAAACCACTTCTGGTCACAACCATTTTGGATAACGGATGCTTCAACCTGTATATACATGCTACAACACAGATGAACCTTGAAAACATTATGCTAAATGAAGTAAGCCAACACAAAAGGACAAATACCACATAATTCCACTTATATGAGGAACCTAAAATAGGCAAATTCAAAAAGACGAAAAGTAGACTACAGATTACCAGGGGCTGGGGGAGGGAGGATTACTGGGGACTATTTGACAGGTACAGAATTCTAATTTGGGATGATAAAAAAAAG
1 TAGAACACTCTTGAGCCCTTGAAATGTCATACATTGTAGGGGCCAGTTTTCTTATGTTTTCCCTGTCAGCAGATTTTGTTAAAAACATCTTGCTGATAGACCCTATTTTATTAATGATGAGATTCAATGAACCCCTGCAGGGTAAGGTTTTTTTTTTTTTAAATCTCTTTTGATGGGGTTTGATGTAAACCTCAAAGGTCTTCTCTCTATGTCTGTTCTATTCCTTTTCTCTTGCATTATTAATTCACCCATAAATTGCAAACTTCTAATGAAGTATTACCTTCATGCTAACTTCCTAAGTTTCAGGGCAGCA
1 TAGAACTACTGAGAGTTCAAGGAACAAATAAAGTTTAGAAGGGAAAGGTGTAATATGTTTTACTGAGAAATGAAATGTAAAGCATAGGATAATACAGACTTACAAGTTTTCTTTTCTGCAGTCCAAAGAATTAGCATATTATATAAATGTATTAATCAAACTTTTTATATGCCTTTGTAGTTATATTTTATACATTTGTTTGAGGTTTTTCACAACCTTTTTTTTCTTTTGGTTTCTGGCTTGGAGTTTCTGGTTTTGTTTAGTATTGACTCTATTTGATTTCTTGCTTTTAAGGGAAATTCCATTTACTTC
1 CTTAATGTAGGTTCCCTAGATTTGTTCTCTATACATATAACTTAAAAGTTGAGACAAGTTTGAATATATATTTATCATCCTTACTTTGGAATTACAGTTCCTATGAGAAACATCTGCATTTATTTGGTAAAAGTAGTGAGTAAATTAATTTCTAAATCCCATGATATTCTGGAGATTAAAAGTTCAGTGTCCTTTGCTAAGGTGGTGGTCAGTTTTTCTGTGGGCAGTA
1 CATTACTTCCTAAATCATACCAGTGGAAAAATTAAGACTCAGGGGCATGAGGGCTTCTGTGAGATTGGGCACACCAGATTCTGAGGTTTACAGACCTTGGATGCAGGCTCTTCTCGAGTGAGGTTGAGTAGTTGCACCTGTGCTCTGCACCCTACAAATGACAGTCAGTGTTAAGATCATTTACAAGGGAGTTTTAAAAAGAGGAGAGGCTCATTGGAGAAAAAGTAGGGAAACAAATAAGAAGGTAGAAGAGAAATT
1 TTTTCATATATTTGTTGGCTGCCTAAGTGTCTTCTTTGAGAAGTGTTTGTTCATATCCTTCACTCACTTTTTGATGGGGTTGTTTGTTTTTTCCTTGTAAGTTGTTTAAGTTTTTGGAGAATCTGGATATTAGCCCTTTGTCAGATAGATAGATGGCAAAATTTTTCTCCCATTCTCTAGGTTGCCTGTTCACTCTGATGATAGTTTCTTTTGCTGTGCAGAAACTGTCTAGTTTGGTTAGATCTCATTTGTCAATTTTGGCTTTTGTTGCCATTGTT
0.7411114166543863 AAAAAATATTGATATTTGCTTAGATTGGTTTATAAGGCCAATTACTTATCTAAGAAAGAGTAAGTAGAATAAGGCAAAATACTTACAAGGCAAAGCTACTGCTGCGGTTTCAATGCGTCTTCCAAAAGTTCACATGTTAGACACTTGGTTGCCATTGTGTCAGCGTTAAGAGGTAGAGCCCTTGGCAGGCAATTGTGTTATGAGGGGTCCACCCTCATGAATGGATTAATGCCATTATCTTGGGAGTGGGTT
1 ATCATTTCAAGTCTCTGGAAGTGGTTCTAGGGGCATATAGCAAATGAAGCATTTACTCAAGAAAATCTACCACACTTGGTAAGAAAAGTAAATCTGCAATATTTGAACCAAGATCCACTCATTCCCTTCTTGCCTCCCAGCTCAGCGAGACAGATATAACTGAGAGAACAGGACTCTGTTTACCCCCATCTCTCAATGGAGGGCTATCTTCCCAAGATGGGCAGGATGACAGCCTTTCTTCTCCTGCCCTCACCTACTT
1 CCTACATTCCTTTATTGGCCTCTATTGACACCTTATGCAAGGATGGGTGTTTCATTTACTAATAGGCAGGGATGAGAGTTAAGATTTTACAACAAGCTTGCACCGATAGCTTGGTGTAAGAGTTAAAGAAAGAGGAAAGAAACACAAAAAGTGGCTCAACAGTCAAAGACAGGTTTATTTTGGAAAATAAACCTGAGAGGGACTTCTGGCTGATTTTTTTTTTTT
0.9427209110923557 GCATTTCAGAAATTATTTAGGATCTGAATTCAATTAGGATAACTTCTTAAATCCAGTAAATGCAACCATCCAGACAGTCTCAATCTTCTTACTTCTTTACACGGAATAAGGCAAGGCTCCCAAGTTAGTTCCCATGAGTTTCCTCCTTGAGCAATTTCTCTTCTTGGAAACACTTGAGAGAAGGGGCAGTCCTATCTCACTGGGGCCCAGATGATCAGTGCTTGGCATTCCTTATCCCCTCTCCATGGTATTTTCTTGAGTCCAGTGGTAA
1 GGTGATTTTGTGACCGGCAGAAAAAAAGAATAGAATGTTACAGAAAATCAGATCACCTCATATCCAGTAAGGTTTTATTCACTAATTCTTTCACCAAATATTTTAGTACCTATGTGCCAGGTACTATTATAGATGAAGATTTTAAAACTACAAAACAGACAAAAACAGTTTCACATATGCATTAGTGCAATTTGGAATTTTTATTCTGGCCAGGTGTGGTGGCTCACGCCTGTAATCCCAGCACTTTGGGAGGCTGAGGCGGGCAGATCACGAGGTCAGGAGATTGAGACCATCCTGGCCAACACGGTGAAACCCCGTCTCTACTAAAAATACAAAAAATTAGCTGGGCGT
1 CCTGCTAACACCTTCCATCCAGACTCGTAGCCTCCAGAGCTGCGCGGCGCTGCCTTGCAGTGGTTTATGCCACTCGGTTTGCAGTGCTTGGTGACAGCAGCCCTGGCAAACTCACATACAGGCCATAGTCTCTGATCATGACATAATACAATTAGAAATATAAGAACGGAATTTTAAATTTTAGACAAAAAAACAACTTGGCAATTGTTTTTAAATCTCTTTTTACTTACTGGGTTAGAGAGAAGACCAAAACTACAACTATATGATATTTAAGAGTAATAAAAACATGAACACAACCTGCTCAAAAGGCATGAGGCAGGAGTGCATTTCTGGAAGGCCAGCTTGAGGAGCCCTGCGGACAATTC
0.7617673370174101 GTATGAAAATTCATTTTGAGAATGCTAATACACAGTATATATAATGTATTGTAATTTCAGAGAAAATATTGAGCAAAAATTAGAAGCGTATAATGATATCAGACTTTGTTCTGCATCCTGACTTCCTTCCATCATTAAGCTGTTGCTTTCATTTTTGCATAAACAGAGGCATGGACTTTGTCACAGCTTTTTCATACATAAAAGAAAGAGAGATGATACTTGCCTTTGAGTCATCACATTTAAATATAATGGAGTATTAG
1 CCAGCATGGTGAAACCCCGTCTCTACCAAAAAAGTACAAAAAGTTAGCCGGGCATGGTGGCGTGTGGCTGTAATCCCAGCTACTCCGTAGGCTGAGGCAGGAGAATTGCTTGAACCCAGGAGGCGGAGGTTGCAGTGAGCCGAGATCGTGCCACGTCACTCCAGCCTGGGTGACAGAGCAAGACTGTCTCAAAAGAAAAAGAAAAACAATCCCATTTGCAATATCTAAAAAAATAGTTAATTTGCAA
1 TGTGCAGTTCATACTCTACTAATGCCGCATGGCAAGGCAAGGAGCAGGCAGCAGTCGCAGGGAGGATAAATCCAACTGAGTATGAAAACCTCCAGAAAGGGACCTGCTGAAAAAGAATGAGGTGATACATGGACAAATTCTAAGATAAAGGGCAACCTAGGTATTTAACATATTTAACATAGGTAAAGTAGAAAAAACCCAACCTGGGGATTCAGAGGTCCATTGGATTTTTTTAAAACATAATATTGAGATTTAGTTGACTAATATAAAATGCCACAATGTTAGAA
0.743788233139406 GCTCCCCCAGTCCACTGGCTCTTGGCCCAGTTCAGCACTGGGGCTCACCTATGAGTTGCAGTTTTTGTAGCCTAGACTGCTTTTCAAGTTTAGTTTGGATCCAGAGCACTTTAGCCAACAATAGCAAGGCTTGTGGGAACTCAAGTTTGGACCTTTGGGACTGGCAATTCCCTTCTGGCTAGGGCTGGTTTAAGTGTTCCCTCTGTGTTTGAGTGTTAGCTGAGT
1 ATTGAAGGAGACTAAAGACACTTGACAACTGAACACAATGTATGATATAGAATTTATTTTACCATAATGGACATTATTGGAACATTTGAGCAAATTCAAATGAGGTCTGTAGGTTAGAAAATATTATTGAATCAATATTGATTTCTTAATTTTTATAATTGTGGTTATGAAAGAGAATATCCTTGTTTTTAGAAAATATACACTGGCGGGGCGTGGTGGCTCACTCCTGTAATCCCAGCACTTTGGGAGGCCGAGGCGGGCAGATCACGAGGTCAGGAGTTTGAGACCAGCCTGGCCAACATGGTGAAACCCTGTCTCTACTAAAAATACAAAAT
1 ATATACAAGCACACAATTCTTACAGAATTATTTATAAAAATGAAGATATCCTGAGTAGTAATGTGGTTAAATATGCTATGGTACATGGTTTAATTTTGGAAAATAATAACGTTTGTAAAATTTATAATAAGGAGGGAAAATATGTATATGACATCTTTTAAAAAGAAACATATATTAAAGTATAATAAATATGCAAAAACATTAACTGTCTTTGGATAATGGAATA
1 TGGCACATTAAGTTTGACCTAAAAATCAGTCCAGTTTCAGGGAACAAGCCGACTTTTATAAACATTTCAAGAAATAGCAAATGACTGGGTTCCACTAAAGGTATACCATTACTTAAAAGTTCCCCCTTCACTCAAAAGAGACCTTACGAATTATTTCATAATTTCACTGAATATTTGCTAGTCTATCCTTTACATCAATGCCTTTACTTACCTCTTAGCAGATATTTAGGCTTCACCTATTTCACTTTTCCTGTGGTTATCACTTAGGTCGAAAGGTTTGCTATGGCTAAAGGCTAACCAAGGACCAGGGTAAAGAAGAATGATGTCAAAATTCAAGAAGTGTTTGACTGGTGATATGGCAGAGTGACTTTGATTTAAAGCCAGACTGTAATTGATTTGCTTCATGATCTTGGGAAAAAATCATTTACT
1 TGGCAGGGGCAGTGCAGAAGGGCACAGCCACCCGGGGAGCAATGTGGCACCAGCTCAGAACCTGCTACATGCATAGGCTCCAGCATTTTCTCTGAGGTTTCACACAGTGCACAAGGGAACACACACACAGGTGACCATCACAGCCCTGCCTGTGATAGCAAAACTCTGGAAACAACTAAGCCTCTATCAAAATAGAATGGATATGTGGATTGTGGTATATCCCTATGGTGGAAAACCGTTCCCACTTACAACAAATGAACCAGGGCTTCGTGTATCAGTGTGGATAAACCTCATTACAATTTGTCGAGTGAAATTAGTAAGCCAGTACAATTCCTTTGGTTGGAGAAAACACAGATGATACCATTCAAGGATGATACACACAAAACTGATAACAGTGGTTACATCTGAGTAGGTGAAGGAGATTATGGGTGATGGTCAAGGGAGATTACTTTTAAGTACAATCATTTATTTTCTTTAATTAAAATATATTCATTTGTGACATT
0.8191478553150189 TGGTCTTGGGCCAAAATTTCACTTCAGCCTCTGGTTGGTCCCAAGCTAAGGTCCCGGGCCAAGCGAAGTTGTGCTTTCTCCAAGACAGCTCACAGACTAGTGAGCACATTCTTCCCCTTCCCAGTTCACAAAACCCCCAGATTCAGCCTCCTAGTTGGCAACCCTCTTTCGGGTCCCCTCTCCGCTGGGGAGAGCTTTCTTCTTTTGCATATTAAACTTCTGTTCCAACCTCATCCTTTGTGTCCACATTCCTTAACATTCTTGGCTGTGAGGGAAAGAAGGCAAAGACAAGAGCCTTTATCC
0.7358630243786602 CAAAGACTGGGAAGTGGTTTATGTGGCCTGTGCTCTATCTGCAAGCTTCAGGTAGGGTTGCAGTTACCACCCCAAACCCTAATGTGATCTGTCTGCCTCGCTCTGTCTGTCTGTCTATGCCTCTTTCTGTATGTTTGCTTTGTGTGTCTTCTATCCAGCGTCTCTGGCTGACACCCCCATGGCCACCCCCTCCATCTGAGGCTCCCCTGAATGTGGCCATTGTAGTCCATCTGAGTCCCACTATTTGGGGAACAGACTGGTTTCCTCACCTGTGACAGACAC
1 GCAGTGGCTCACGCTTGTAATCCCAGCACTTTGGGAAGCCGAGGCGGGTGGATCACGATATTAGGAGAGCGAGACCATCCTGGCTAACATGGTGAAACCCCGTCTCTGTGAAAAATACACAAAATTAGCCAAGCATGGTGGCAGGCACCTGTAGTCCCAGCTACTCGTGAGGCTGAGGCAGGAGAATGGCGTGAACCTGGGAGGCGGAGCTTGCAGTGAGCTAAGATCACGCCACTGCACTCCAGCCTGGGTGACAGAGCAAGACTCTGTCTCAAAAAAAAAAAAAAAAAAGAAAAATTGGCAAAAACATCTGGGGAAAGAAGAG
0.888537638566662 TCTCTTTCTGCTGGCCACACTATAGTATCAAAACAGTAATAATACATTTGGGGAGTTTGGAATATTGACTTTTTGTCAGTCAAATACCCAAGTATAAGTCCACTGATCAGCTAGCTTTCTTTGAGACCTTCAGCTAGAAACAAGATACTGAAGGAATTGGGTTTTGGTGCAGAGAAAGGAAAAGGATGATTTCCCTACACACGTGGAGTCATCAGATGTTAGAGCTAGAGCTCATCATGGAGGAGACCCTCATAATCGAGATGAGGAAAATGAGCCCTAGAAAGGCCAGGGGACAGGCCCAATTGTGCATGTCTAG
1 TCCCTCCCTCCCTTCCTCCCTTCCTTCCTCCCTTCCTTCCTTCTTTCCTTTCTTTCTATCTTCTCATATGTGAAAATAATTTTATTGGGTATTACATTTTAATTTCTTCCTTTTTATTTTTTGTGTTTCTGTTGTAGGTATTTTGATTTAAGGTTTCCAAAGGCTTACCAACATCATTTTATAACCTGTTATTTTAAACTGGCAACAAGTATGATTGCAAAAGCAAATTAATAAATGAGCAAAGAGAAAACTAATAAAAACTCTTTACTTTGTCTGCATCCCCTAACTTATTAGCTTTTTGCTGTTTCTTTTCATGTCTTATTAAATTGTCTATGTCTTGAAA
1 AATACCATCTCTGCTAAAAAAAAAAAATACAAAAATTAGCTGGCCGTGGGCGGGCGCCTGTAATGCCAGCTGTTCGGGAGGCTGAGGCAGGAGAATTGCTTGAACCTGGGAGGCAGAGATTGCAGTAAGTGGAGATCACACCACTGCACTCCAGCCTGGGTGACCTATCTCAAAAAAAAAAAAAAAAAAAAAAGAATCAAAGATTATTGCTATGTTTTAAATTCTTTGACATCAACCTTATCTCAATTGAGTTGTGAAAA
1 AACCATTGCAATCCAGCCTGGGCAACAAGAGTGAAACTCCATCTCAAAAAAAAAAAATGACATTGGATACAATATTGAATTATTGTTGGGGACACATTGGGGGCTTGATTTTGAAAGGAGTTGGGCTGTCAGTTTTCTTAGCTGCCATCATTGAATAATGCCCAAGAGCACGGGTACACTTGAAACATTGGACGTATTGAAGACATAGTGTTGGGGCCATACTTTGGAATTAAATTTTTGAGGACTTGGTTCTTCTACTCCTCTTGATAAAAATGATCCTGG
1 TCTGGTAATATTGAGGTAATTTGTTCATATTTTTAAAATAATCTCATTTATTTTATAGGCAGCCCTAAATAAACAGTTTTGGCCTTTCTATCAAAGTGATTTTTGTTAGCCTAGATTATATATGTGTATACACACACACACACACACACGCATATATGTATGCGATGTGTGTGTGTGTGTGTATTTATGTATGTTTATATGCATTTCCATGGCCTTGATGCTAACAGGAGAAACTCCACGGTGTTGTGAATGAGCGGGAGTTAGTCCTGGCTCTGCAATTGACTGGTGATGAGAAAACTGGTGTGTTCAGCACCTCTCTCTCCCGCTTGCTGGTCCCTTGCTGCCATCACGTCTCTAACTGGACAGGTGCTGGAAAGCGGGGTTGGGGGAGTGGGGGAATGC
1 ATTTGAAACTTTTTTTTTTTTTGGCTTCTTACTGGTCTTCCAATAGAACAAGAACTGGCAATAAAAGGTGATTACAGTAGTAACTGGGAAGACAAGTTAAACTTAAGTTTCGTTGTGCTTTAAGTTAGGCTTGACATTTGGAACTTTTGAAGTATGGATATATAATTCTTTTAACTTTGTGTTCTTACTCTTCACATACACCATCCTCATCCGTGGTAGTGTCTAAGCAGAACTGCGTCTGCTTGATTCTTAAATGACTTCACTACATGTGACGGCACAGAGGACACTGAGAACATAAGAACATGGCACTGTCTTTCAGAATGGCCTTTGGTTTTACTTCTTTAA
0.725558698928283 AAAATATAAATTCCTGAAATCTTGCCTCCTCTGTAAAATCAGTTTGGTGTTGTTACATATCCATGCAGTGGCTGTCATGTGTAGTTCCCCCTCTGTTGTTTTCTGGATATGCTCAAAGTTCTCCTGCCCCTGTACCTTTCTCATACCATTTCTTCTCCAGGAATTCCCTTTCTCCCCTATCACTAGCCAGATCCCACCTGTTTCTCATGGCGCAGCTTCATGCCACCTCCTCTTAGAAAACTTCTGGCCGGGTACAGTGGCTCACATCTGTAATCCCAGCACTTTGGGAGGCCAAGGCAGGCAGATCACGAGGTTAAGAGATTGAGACCATCCTGGCCAACATGGTGAAACC
1 ACCATGGCAAAGGCAATGATCACAGTGAACCACATGCTACATTTTAAGCTTCTACCTGGACACCACACAAGTCACTTCCACTCCCATTTCGGTGGTAAAGCAAGTCAATTCAAGTCTGACTTCAGCATCTTTGGGAAATATAATTCCACCCCAGGAGGGGAAGCAGATATGGGTGAAATGTAATAAAATTCACCTCTCCATAAAGTCCTAGTAGCATTGTTTTATTTGAGTGAATTCTTTTTTTTTTTTTCTTCCTTACAGATCCTCTT
1 GTGCTACTGCACTCTAGCCTGGGCAACAGAGCGATGACACGCTGTCTCTTAAATAAATAAATAAAAATAAAGAACAAAAAGTCATGGCTAAATGTGTGATACATTTCAGATTTTGAAATAGCTTCAGTTATTGAGTGTTTACTATGTATAAGCCACTTAATTTTCCTACCCCTTACAAAGTAGGCAGTGATAACATTATACCTGAGGAAATGGAACTCAGAGAGGTTTTTTAACTTGCCCCAGCTCAGGTGGCTATAGGGACAAGGTTACCACGCGCACAGTGGGTTCTGCCGGGGGTGGAATCCGCCTGTGCTGGTGTCTCCTACTCTGACGTGCGTCTCTTATGGAGGAATTTGACTCAGTTTTTTCT
1 ATGCCAGTTTTTAGCCTTTAGGTAAACAGGTATTTATGAAATGTATCTGAATGAACTTGCATGGACTTCTATAAAGGCTTTAAAGTCCTATCACTAACCAACATAAGAGTTTTAAATGGCTGAGTAGACAGAAACACCCTAAAGTTAGAAGATGAATAAACTGGGGACAGGGAACCACAACACAACAGAAAAGCCCTCTCAAAAGGAGAAGGTGTACAGGCGTATACGTTTCTACACCTATACAGGTGCTAAGTCAGATGTGCTCGGGGGCTGTCTCAAAG
1 ACGGAATGCCATGACACACAAGTGCAGAACCACTGATCTTCTCAAACTCCTCATTTGACATATAATACAAATGAGTCATAAAGAGTAGACATGATCTCCTTAAGTCAGTGGCAGGTGTGGGATAGGAATCCAAGTTTCTCACTTTCCAGTGTCCTTTTCATTGCTTCCATGCTAAAGAGGGAAACTCAAAAAAGCAGTTATAGTTCCAAGCACTGAATCATAATCCTGCACAATGGGAAGCTAACAGCGTCTTGTTTGCTGAAGCCCTGTGTAACTTTCTCAGGCTTAAAAACACAAGGAAGCATAGGTGTTGCGGGAAATTATATGACTGACCTACCA
0.8763699908743282 GAATAATGGCTGTGGAAAAGCCATTGTAGGGCCATTGGAAGTGAAAAGAATCAGAGCATTTTCCAGAATTGTCACTGCATTGGATGGCAGCATGTTTGACATTTAAGGATTTGGTTATTCCAATGTCTACTGTGCTTCACAAGATGTGATATAATAGGAGTTATTTTAGAGTCTAGATAAAGCCTGTTATACTGTCACACATCCTGTACTCTGGCTGTATTTGACCTTGCCCCTAAGTATCTGATGCATCATGGGCTCACTTTAAGCA
1 AGTAGATACGGGGTTTTGTCATGTAGGCCAGGCTGGTCTCGAACTCCTGACCTCAAGTGATCCACCCGCTTCGGCCTCCCAAAGTGCTAGGATTACAGGCATGAGCCACAGCTCCTGGCCTCTGGATTTGTTTTTGACCTACACTTTTAAACGTACAACTAAGTAATTCAGTTTTGTCTGGCTCAAATCGCTAAATGCCAAAGACGGCTCTGTATGCCAACATATTCAGAACAATGAGCTGCCAGG
1 ACCACAACCTCTGCCTCCCAGGTTCAAGTGATTCTCCTGCCTCAGCCTCCCAAACAGCTGGGACTACAGGTGGGCGCGACCATGCCCGGCTAATTTTTGTATTTTTAGTAGAGACGGAGTTTCACTAAATTGGCCAGGCTGGTCTGGAACTTCTGACCTTGTGATCTGCCCGCCTCAGCCTCCCAAAGTGCTGGGATTACAGACGTGAGCCACCGCGCCGGG
0.8809475849028013 AACTGTAAGTGGATATTTGGATAGCTCTAACGATTTCGTTGGAAACGGGAATATCATCATCTAAAATCTAGACAGAAGCACTACTAGAAACTACTTGGTGATATCTGCATTCAAGTCACAGAGTTGAACATTCCCTTACTTTGAGCACGTTTCAAACACTCTTTTGGAAGAATCTGGAAGTGGACATTTGGAGCGCTTTGATGCCTTTGGTGAAAAGGAAACGTCTTCCAATAAAAGCCAGACAGAAGCATTCTCAGAAACTTGTTTGTGATGTGTGTACTCAACTAAAAGAGTTGAACCTTTCTATTGATAGAGCAGTTTTGAAACACTCTTTTTGTGGATTCTGCAAGTGGATATTTGGATTGCTTTGAGGATTTCGTTGGAAGCGGGAATTCGTATAAAAACTAGACAGCAGCATTCCCAGAAATTTCTTTCGGATATTTCCATTCGACTCATAGAGATGAACATGGCCTTTCATAGAGCAGGTTTGAAACACTCTTTTTGTAGTTTGTGGAAGTGGACATTTCGATCGCCTTGACCGCCCACGGTGAAAAAGGAAATATCTTCCCATAAAAAATAGACAGAAGCATTCTCAGAAACTTGTTGGTGA
1 AAAAAAAAAAATCCGTATCTATCAGTGCCACTTTCATAGTCAATTTGATAGGAATGGAAGTTGAAAAATTTTCAAGAAAAGTCTAATTTTCGAAAAGTCAATACAGTTCAGTAATAACTAGCTCAAGAATGCTAAGAAGCCTAACAGTTCTTCATTTTCCACTGATGTTCCAGATCTCATATTTTATATTTTCATCCTTAGCTTCAATTCCACACATTTATAAGTGAAACCACCTTCACACTAGAAAGTAACCTTTAGTTATAAAATTTCATAGGCAGACATAGAAACAAACATCTCTAAGTATAAACTGACCCTTAATAATGAGCCAAACTACATTCTAAGTAGTTAGGATAGTAGAATTAATATTGTTTTATA
0.8025276624869139 CCTGTCTTCATCATTCTGTTCCCCTGGAACCATTTCTGGTATCAATACCTTTCAATCAAGATTTAGGAAGGAGAACAGAGTACCTTGAAAATGATGGGACAAGTGATTTATTATAGGAATTAGACCTTACATAATTATGGGGGAGATACAGAAATGCAGGTCTGGAAGGATCAGAGAAGGATCACCAACCAGGCAACATTGAGAAGTCAAATACTTCCAGCTGCCAAAGGAGGCCATGAGCAGAAGAGTGCACAGAGAGGTCTGTGGGAGGCAGTTGCCTCTGTCTAGCTATCCCCTCTGCAGGTCTGTCGCCAAGCATTTGGTAGTAGTGGGTCTGGGGTCACTTTTGGTCAGGAGAGCCATC
0.7343504989979277 CTAGCTATCTTTTTCTAAGGGTACCTTATTGAATTTTCTAAGGCTCACTTTTAAAAAGGGCATAAGTGGGAACTATGGATAGATATAGGGATAATTTTGGAATAAATATAATACAATCTTGAGCATGTAGAGACCCTCTAATTAGACAAGGGATCTGTCTACATGTAATGATAATTCTGTCTAGAGTCATGCTTCTTAAACTCTGAGACAGGATCCCACTCTGTCACCCAGGATGGAGTACAGTGGCATGATCATGGCTCACTGCAGCCTTAGCC
1 GCCGCGGCTTTTTCCCCCACGCCGCCGCGCCTTTCTGCCCGCCACGGCTTTTTTCCCCCCCGCCGCCGTGGCTTTTTGCCCAACCCGGCTTTTTGCCCGACTCGGCTTTTTAACCCCCCTGCCGGTGCCGCACTTATTTGCCCGCAGCGGCTTTTTGCACCCCCGCCGCCGCGGCTTTTTGTCCCCCCGCCGCGGGTTTTTTGCCCCCCCACGCGGCCGCGGCTTTTTGTCCCCCGCCGCCGCGGCTTTCTGCGCGCTGCGGCT
1 CAATGGGAAGTCAATGTTTAATGGGTTACAGAGTTTCAGTTTCACAGGATAAAAAAAGTTCTAGAGATGGATGGTTGTGATGGTGGCATAATATTAGGAATGTATTTATACTACTACTGAATTGTACACTTAAAAATGATTAAGATACTAAATTTTACAGTTTTTATATTTTACCACACTAACAAAAAAATGAAGAAAGGAAATACAGTAAGTCAAATTCACTGCAAG
1 TGCTTTTCTAGTTCTTTCAATTGTGATGTTAGGGTGTCAATTTTGGATCTTTCCTGCTTTCTCTTGTGGGCATTTAGTGCTATAAATTTCCCTCTACACACTGCTTTGAATGCGTCCCAGAGATTCTGGTATGTTGTGTCTTTGTTCTCGTTGGTTTCAAAGAACATCTTTATTTCTGCCTTCATTTCGTTATGTACCCAGTAGTCATTCAGGAGCAGGTTGTTCAGTTTCCATGTAGTTGAGCGGTTTTGAGTGAGATTCTTAATCCTGAGTTCTAGTTTGATTGCACTGTGGTCTGAGAGATAGTTTGTTATAATTTCTGTTCTTTTACATT
1 CTCAGACATGTCTTGAAAGGAACTGAAGTATTGCATTTAGTCTTGCCAATCCACTGATTAAAATTCTTGCCAAGTGTTACATTATGCACAGCTTCCTTATTTTGGCTGTAAATTTCATTGCATATTTTTCTAGGATGAGAAAGTTTGTACTTTTTATTTCATAAGCCCACATAATAAACACAGCTTTCTTCAAAACCGTTTGAGGTGTTGGATGCGTGTGCTGTGTTAAATATAGGGCTCCTTTGTGGAGGA
1 ATTTCTGAGACTGTTTGAACATTTTTCCTTCAAAGCTTTGATGGGAATTCCAGCATCATAAGTGAGTATATTTTTCTATTTTATGGTTATATTTTTAGAGACAGGGTTTCTCTAAGGGGAAGCTGAATATTTAGGCACTGAGACAGCCCTGGAAGTAGAAAATGGGCATATTATAAGCATAGCTATGCATCAATGTAAGTCAAAGTCCCCACAATATGCCTTGGAAGCAA
1 GTCAGGGACCTCCATTCTCGTTAGATATTTGAATTGCATAATTAAATGTATACAGAGATGGCATGCTGAATAATGCCAATAAGAATGATAGTGAAAATGATACATCTAATCTGTAGTAGGCATGAAAGACTTTTCTATATTATCTCTGTTCTGCTCATTAACCCTGCAAAGTGGGCCCAGAGAAGATAAGAATCTCATAGAAGATCAAGCAGGTGGAAAGCAGAGGAGTCAGCATAGAAACCAAGTTTCGTATGACCTCCAAATATATGTTCTTTCTAGTCCAACATGTTGATTTTCACATTTGCAAATAA
1 TCTTTGTAGGTCTCTAAGGGCTTGCTTTATGAATCTGGGTGCTCCTGTATTGGGTGCATATATATTTAGGATAGTTAGCTCTTCTTGTTGAATTGATCCCTTTACCATTATGTAATGGCCTTCTTTGTCTCTTTTCATCTTTGTTGGTTTAAAGTCTGTTTTGTTAGAGACTAGGATTGCAACCCCTGCTTGTTTTTTTTTTTCCATTTGCTTGGTAGATCTTCCTCCATCCCTTTAGTTTGAGCCTATGTGTGTCTCTGCAGGTGAGATGGGTCTCCTGAATA
1 CCAAGTCTTTCCTATTGTGAAAAATGCTGCAATAAACATGTGTGTGAATGTGTCTTTATAGTAGAATAATTTATAATCCCTTGGGTATATACCCCGTAATGGGATTACTGGGTCAAATTGTATTTCTGGTTCTATATACTTGAGGAATCGCCACACTGTCTTCCACAATGGTTAAACTAATTTTCACTCCCACCAACAGTGTAAGAGCATTCCTATTTCTCCACATCCTCTCCAGCATCTGTTGTTTCCTGACTTTTTTTTTTTTAATTTAAGTTCAGGGAT
0.8406291650410636 CACTCTCTGTTTTTCAATCATTTCCTATCTTGGAGATAGAGAAAGAATGAACTTAAATAAGAATTAAAACACCAAGTTCTTTACTAGATACTCAAAGCTTTGTCTTAAAACAAAAACATCCTTAGAAATGTCCATCACAATTACCTACCTGTGCTGCTTGTAGGCAGCCTTCTTCTCTTGCATCTCCCTCTGCGAGGCTTAAACACAGAGCTGTGGGGGAGAAAAATACATCCACGTCCTGA
0.8675849419055311 GTGAGTTAATTTGTCACCAGAAGGTAATTGGGATTTAAGTTACAGTCTCGGGAAGAAATACATCACATCGCATGATTACTTGCATTAATGGCAACCTACATCTAATTTTCACCCCCACCCCAAATCCCTTTCATCAGTTCCAGTGACCTGTTAGCAGTATAATTTGGCTCTTTCCCTGCTGCCCACCTGAAATACCAAGCATCAGCTGAGATGAGTGCTACCCTTAAAGTAGGACAATGGATGTGACTGTCTTAGCTCTGAGCTGCTGGTATTAGGAATTTTAAAAATTTTATGGATTCATTCATTTATTCATCTATATACA
1 CAAAAATCTAGATTTGTTGCTTAACAATGTTGGTTGTATTTATGGGGACAATGGGACAGAATGCTTGCAGTTGTTGCAGCTGCCATTTATCCTCATGATTCCTTACACCCTTTACTGTGAATTGTTTTATAGATGTGCTTTCCAGTATAAATGTGCTCTCCAATTAGATTACAAGCTTCTTGAAGGCAAGGATTCAGACTCCTACTAATTTTGACTTCTCTTTAGACCAGGGGTCTAAAGTTAGCTCAAT
1 GTTGGACAGGCAGTTTTGGAGATAAGATCCTGTTGAATTTCTTGCTGTTAAGGCTTTCTGAGGATTTCTCAGTGGAAATTTTGTAAGGTTATAGTTTTGGGTGGAAATTCTGGTTTACGAATCGTGGTAGCTGAAGCCAAGAACAAGAATAATCTTGATCAAAGGGTATGTAAGTCATGAGGAAAGGAAAAAGAAGCTTAAATGAGAAAGGGTGGATAAACAGGAGAGACAAGATGGAAAGAGCATTTTTTTTTTTTTTTTTTGAGGTGGAGTCTAGCTCTGTCACCCAGGCTGGAGTGCAGTGGCGCAATCTAGGCTCACAGCAACCTCTGCCTCCTGGGTGATTCTCCTGCCTCAGCCTCCTGAGTAGCTGGG
1 AGAAAAGAAACTAGAAAAATCCTAATGTCTATAAATGTGAGATGGTTAATTAAATGACTGAATAATGATATAATCATATAATACATATGTCATAGTTTGCAGCCTGTAAAAAGAATAATGCAGATCATTCTATATGTATTGATACAAAAGTGATCTGTGATATAAGTAAAAAAAATTGCAAAGGAATCTGTAGAATGTACATGTACAGTATGTGCATTATTGTGTAAGGGTACACACCAAACTATTAACAGGGATTACTTTAGGATGGTAGGGTTAAGGGTAGGTAAGGTAAATAAGACCTAATACTTTTCACATTATACACTTTAAATATGTATGTATACACATACATACATACATACACACATGAATTTAATATGTTTATATAACAATGGG
1 ATGTTTATTGTGGCATTATTCACAATAGCAAAGACTTGGAACCAACCCAAATGTCCAACAATGATAGACTGGATTAAGAAAATGTGGCACATATACACCATGGAATACTATGCAGCCATAAAAAATGATGAGTTCATGTCCTTTGTAGGGACATGGATGAAACTGGAAATCATCATTCTCAGTAAACTATCGCAAGAACAAAAAACCAAACACCGCATATTCTCACTCATAGGTGGGAATTG
1 AAAAGGAACGGTGAGCAAGGGCCCGGGAGTGGGAGAGAGCACGTAGGAGGGAGAAAAAGACAAAAAGAGCCCTGTGTGGCTGGGGTGGCTCCAGGTGAAAGTACAACTACATGGGGCTGGATAAATAAGAATGGGCTGGTGTGCCTCAAACTCATGGGAGCACCGGAAAAGTTTGGAGCAGTGGAGAGGCATGGCCCAACTGGCATTTAAAGGGAACACTCTGGCTGCAGCAAGAATATTGGATTACAAGGGTTGCTTTGGCAGTAACTGCATCCTAATTACTTCCCTCTTTCTCACTTTCTTTTCCAGTGGCCGCAGAGATTTAAATAAATGCATCCCAGATACAGAGTTAAAAGCATGCCAACAATGAGGGCTGTGT
1 GAATTTCATTATCAGTCTCACCCCAGGCTCATTCCACTGTCTGTTTATTCTGGAGGTGTCTCTCTTCCACTCACTTCTTATTCCTAACTTCAGAAATCATCATACAATGTGTTGACCTTTCCTGATATCCTGCTCAATCTCTTTTTAGATCCTTGCCCCTTTTACAAATATAAAAGCTCAATACCCTATCCCCAAGATTCTGAAATCCCTTCAAATTCCACCAGTTAGAAAGCAGAAATTTGCATTAATATTGTAAATCACATTCTGAACATATTTTTTCCACTTTTCCCAGTACATGCACGT
1 TGAAAGGACAAAAGTGTATGCTAACACCACTTTTATTCAACATTGTATCAAGGTCCCAAGTAGCACATAAAACTAAGAAAAAAAAAGTATTATAGGGATTGTCTTGTTTCTATATTGTCCTATTTCTACGGAGAAAACTTGCAAGCATCTACAAACATATTATAGATCTTATCAAGCTGAATCTGAAATCTACATAGAACAATAAAGAGTTAAGAACACTCAAAA
0.8356304810623376 TATGAGGTATTATCTCTATGTGACAAAAGGTTTATTTTCTGCCAGACTTATTAGTGCCTTTAAAATCAAAATATGCATTGTAAATATCCAAGTGAGGGACATAATATGCAATGTGTCCCAACCAAATTTGACCCTAGAAGACGTTTCTTCGTGGAGAATCTCTTACAGGTTTGGTGCTCTGCAAGACGCAGATTAAAGCCCCACCCTTTAGTGATCTGCCTATGTCCCTATCTCCTCT
1 CCTTTAGACAGAGCGTCAGGGAAGGTTTCCTTGGAAGAGACACTGAAGCAAAGGCTAAAACAGACTGAAAGGGGGTCTGGGGGAATGTCTAGGGAAGAGCCTTCTGAGTAACGCTGAGGGGGAGGATTATTAATGTCCCCAGGCAAATGCTGCAAATCACACTGCCATTATGTTATTGCCTTTAGTATCTACTTTGAGGGTTGGAGCAGAACAACACACCTGTGCCAGGTGTACAGCACAGTGCCAGACCCCCACAGGTGGTCAGTCGTGATGCTCTACTGTTTATAGTCTTGCCAGTGAAATCACCTTCAGCAGCCAGGACACACTCTCACTGTGACTCCTGCTTAGAGGTCAAATGCCATCATGGTCATAATAAGTCCCCACACTGTCATGGGATGATTCCTCTGCCAAACGTTCGG
0.7727013318224354 ATTCATGCCGTGGCGGAGGTGTACCTAAGTTGGAGTGTATGTGGGTTCTGAGAGAGGATAAATATGGAGATGCTGAGGGAAGAGCTCCAGGATCTCTCTTCTAGACATCTCAGTTTCTCCTCCTCGTTCCTGTTTTCATCAGGTCTGGGATCTGCCGATATGGGGGATATGAAGACCCCTGATTTTGATGACCTCCTTGCTGCCTTTGACATCCCTGACATTGATGCGAATGAAGCCATCCATTCTGGGCCAGAAGAAAATGAGGGGCCTGGAGGCCCAGGGAAGCCAGAACCAG
1 AATGTATTCTATTATCCTTAGGAGTAGAAAGGAGAAAGAGTTCCTGAAATCAAAAATTGAATAATAAGATCATAATTGCAAAGAGTTGGCCAGTCTAGATTAGGGAAGTGACTCAATGTTCTACTTCATTTTCTGCTGCTATAACAGAATACCACAGATTGGGTAATTTACAAAGAACTAAAGTTTATTTGGCTTATGGTTCTGGAGGCTAGGAAGTCCAAGAGCATGGCACTAGAATCTGGTGAGGGACATCCCATGGCAGAAGGCATCACATAGAGTGTGAATCTGCAAGACAGAGACAAACAGAGCAAAATGGATTCTATTATCAGGAGCTCACTCCCGAGGCAACAACATTAATCT
0.6768584995073661 ACAAGACAGAAAGTTTTGTTTGTTTCTCACAAACAAATAAATGAGTGAAGCTGGTAAACCATCCAGGAGGTAGGACAGCTCTGCCCCAGGTCACCAGGGACCTGGCTCCTTCTATCCGAGGCTCTGCTTTGCTGTAACTAAATTGTCCTCACCTGACCATCACAGCCCCATTCCAGGCAGCCAAGAAGGAGAGTTTGAGGGTCACCCAACTTCCTGATAAGTCAAAGATCTATCCAGATGTTGCCCGCT
0.9626827650187911 GTGTCACCAGAGTCACCCAGAAAGCCTGTCGGAAATATACATCTGTGGGCCCTGCTGCCAACCCACTGAATCTGCACCTCAGTTGGTGGGCCCTGAGGATCTAGTGAATTAGGTTTGCCTGATGATCCTGATATAGACAACATTAAGTGAAAAGAGCAAGTTTTAGAACAGTGCATACTGCATAATCACGTATTTCTCTTTCTCCTTTTGAAGCTTATGTGGTTATATATGGATTTACAGTTTCAGGAA
0.662874790718636 GTGCAAAGGTCCTGAAACAAAGTCAGGTTAAGAATATTCGTGGAATATAAATTAGGCCATGGTGGCTGGAGCACAGTGAAGGGAGAGAAGTAGGAGGTGAAGTCAGAGCAGGAATCCATGAAATCTTGAAGGTCATTCTAAGGATTTTGGCTTGTACTAAGAGGGAATTGGGGAGCAGTTGCAGAAATTTGAACAGTGACATGATCTCTCTGGACTTCTCTCTTCATATCCATGTTTTGGAGAGGGGCACACTACTTGGATTTC
1 CAGGCAATCCCCTGGCCTGGCTAGAAAACCCAACGCCGCCTGCAAGGCCCACGCTGGCCACATGGGGGCGCCCGAGCACCAAGTCAGGTCCCAGGTGCCGCTCAGGGTGGCCTCAGCTGGGGCCCATCAGCCTGCTGGGATCGATGCAGGGGGAGGGCAGGGCCCAGTGTGTGAGCGGGCCACCCCTGGGGACTGGTCTAAAGCGCTGCTGTGCTCAGCATGCTT
0.9376445378914949 AGTGAAAATAAGAATTTACTCATGGTGGTGGCGGCTTCCTAACTCTTTTCTAAGCCTAGTTCTCCAACTTTCCCATTAATCCTGTGACAAATTCTCCAAAACATTTTCTTTTCTGCTTAAATTAGTTAGAATCAGCTTCTTTGGTTTGCTATTGAAAGTGATGATAAGGCTGGGCACGGTGGCTAATGCCTGTAATTCCAGCACTCTGGGAGGCAGAGGCGGGAGG
1 CAAATCCATTGGTAATGCTTAGTAGCATAACTGCTGCATCAAGTGGTAAGCTCTGTAGGGAATTGCAAAGCTGTTTTCCAATGTGGCAAAACCATTTGGCATTCTCTTTTTTGCCACTGCTGTCTTCTCCTTCCTCTACCTCTCCCTCTTTCCATTCCTCTTTTTCTTCTTCTGGTCTCTTCCTCCTCTCTTTTTTTTTTTTCTGTCACTTTCTGTCTCTCTCTTCACACACGTGCGCGCGCACACACACACACACACAGGGATAGTTTAGGAAATTGTTGGAGGTTATCTAACATGTTAGTTTTGAAATTAACAAGTTGGGAAAGGCCATTATAGACAATACTAATTAATACAAATGAATTATAAAGAGAAGATACAATATGAAGCCTCTTCCTCAGGTCCCAGTATTAGTCAATATCTTCCTCTATTTATCTGC
1 TCAGCTCTGCCGTTTACCTCAATGTGAGCTTGGATAAGTTACTGAACCTCCTTGTGCCTTGTTTTCCTCACCTATGAGATGGAGACCTACTTTCATAGGGTTTTTATAAGGAGTAGCATATATAAGATAAGTCATATATGTCACATATATGTGTCTACCTTCCATATTTATCATTTTGTTGCTATTACTTTATTTTTTTAATTCAAAATTAAAATTAAATTTTTATTGTTATTTAAGATAATTTCATCAAGTGTGTAAGCAATGTC
1 TAACTAATGGTAGAGTATGAAGCCTAATTGTACTAGCTAATGTATTAATCCAGAATCTTGCTGAATCAGTCACAGCTTAATATTTATAATCCATTGTATTTTTCTCAGGAAAATTCCAGGCTATAGGTTTAATATCTGTTTGGGAGTTCTGGAGTCCAGAAAAAAAAAGAAATATTGAGAAGTTTCCATTTCTGGGGTACTCCAGCATTCAGCTGTACCAGGATGATCCCGTGGTTTGGCAGCAGGAGAAATCCGGGATTGTACCATTGGGAATTTGCTAGCTGAGGAGAGGTGACCACTTTGA
0.9190718472773293 CTCTGGTAACTTCTAAATCCATCAGCCTGGTGAATAAACACCAGAATTCCACATCTACCTGCACACCTAACCAGCTGGGGACTCTGTTGTATCCCACAAGCCCTGTGCCCATTAAGGGGTCAACCCATCCTGCCCTCCTCAGCTGGACTACATTAGAATGTCTCCCTCATTCCCTAAACTTGTTCAAAGCCTCATGCCCACTTAATTTCCCTGCATCTTTCTAATCGCTCACCTTACTTTCTGTATGAAATAGCTCCACAAACTTGAAGCTGATTGC
1 ATTGTAACAGTTTTATTCATAATAGCCCAAAACAACACAACCCAAATGTTCACAGGAAACAGATAAAATGTTTTATATTCATATGATGAAATATTCTTTAGCAATACCATAAAATAAACTACTGATGCAAGCAACAATATGGGTTAATCTCAAAAGCATTCTGTTTAGAGAAAGAAGCCAAATTGCATACTATATGATTATGTTTATATATTTAATAAAATTCAAGAACAGCCAAAGCTAATCTATAATGATAGAGGTAAAAGATAATGGTGCCCACGGGGGAAGGGCTATGGAATTAACTGGCAAAGAGTATGATAGAACAATCTGGAAAGAGAAAAATGTGCTAAAACTTGACTGATATGTTAGTTACAAGGATGTTGATTATAAAGGTA
0.6860245616184051 GCACAGTGGGTCTTGTCCTCTTGGAACATTGTCCTGAGACTGCCATGAAGGTAAGCCAGTCTGGTCCACTGGAGGAGGAGATGCCACATTTAGGAAAACCGAGGTACCCCTGGTGGCAGCCAGCAACAACTGCTAGATAGATATCTTGGACCATTAGATGGGGTTACCCTATGGTGAATGACTGTTTTCAGGCACATTCAGCCAATCCACAGAATCATATCAAATTATAAATCATTATAGATCCT
0.9108264031779431 AGGATAGAATTGAATCCATTGAGAGCTGTGAGCCAATTGAGGGATGATTGGTTAATAGATTGTGGCTTGAAGCTGTGGAAGGTAAGGGGTGACACTTGACTCCTATTAGCCTTGTAGAAACACCTCAGAGATTCACAGGAAGCAAACTTTGACCATAAAAATATAAGACTCACAGCGCACCGAGTTCTCTTAGCAGCTACCTTAGAGTTGAGAAAGTTTTGGGCCTCTTTAATAAACAAGCACAAAGCAGTTCTTGCCAAATACGGCCTGCTCTGGGGCCACAGGGTTAGCTTAGGAGACAACTTTCTTG
1 TCCACAATGATAAAGCAAGTTGCATGACTTTCATGTTCACGCCTATTTCCTCTGCTCTACAGTCCCTCAGAGGTGATACTGATGGGACTAGATGGAAGCTGCATATCCAGTGTGTCTGTATTAAAATCCAGCAATCCAAAGGTAAAGAAGTCTCAATCTTTCATAATGGGTTGCAAGAAATCCTGCCCCAATTTTGCCCTGGAAGAAAATATTATCTTTATTATACTGGACAGAAATTAAGTCTGCTATTTCAGAAGGAGACAATATAATTTTTTAAAGTCT
0.9282826504697245 GAGAAAGAGATATACTTTACTCTGAGCTTGTTTTTCCTAGACTTTTCAGACATATTATGAACCAGGAAAAGAGTCTGTAGCCTGGTTTGGGAGGGTGAAGGGGTTGCTATCTAAGAAAAGATATCTAAAGTCAACAGATTTTCTGGAGGAGATTGGCACTGGGACTACAACCTATCTCTAATTTTCAAATTGATATCTTTGGGCCTACGCATACAACTCTCTCCT
0.8706784145512836 AAATTTAAGACACTTTTCTATATAATCATTTGAGCTTTCACCAAGAATATTATTTCCATATATGTTGACAGGCGGGAGAGGAAAGTTTCTTAGCAGAACTGAGATGAAGGCATGGCTGGTCTCAGTGAGTCCTCTCACGAAACAGACACAGTTTTATTGGTCCAATTCTGCCCCTAATTCTGGGATCTGTGCATGCATGTTGGTGATGCTGGCACAGGTTATCCTTCCAGGAGTTGCTATAGAAACAGG
1 CCGTGTAAGCCAGGATGGTCTCAAACTCCTGACCTCATGATCCACCCACCTCGGCCTCCCAAAGTGCTGGGATTACAGGCATGAGCCACCGCGCCCAGCCATAAATTGTTGTTTTAAGCCACTACATTTTTAGGTGATTTGTTAAATAGTAACATATATCTAAAACATCTAACATAGAAAATAATAAAATGATAAAAATCTTGAAATTTCTGAAATTTGAAATTTCAGAAATTTTGATGCCAAAATTGATTTCAATATTGG
1 TGTTTGAGGACCATTCTGCCATTGACATCCCAGAGTTTAGTTCCTTCTCGACATTCTCGACATCCCAGAGTATAGTTTCTTCACTGGGATTGGTATACAAATGTTAAACAAACAAAAAGCAACAGCTAACAAGCAGCTAATAGGGATTCCTCATGCACTCTCCAGCTGACAGGATTTATTTTTGCCAGCTTTGTAGTTGGAAAAGACGGGTTTCTTCCGGAGGCTTTGCTGCCTGTGCCTATTAAGCAATTCCAGGACTCAGGCCCATCCTTGGGCCAAAGGTTTAAAAAAGAAACAAAAGAAGACAAAATAAATCGCCTCAGTGCTGTACAGGTCTTT
1 AGATTTTCTAAATGCTAAGTCAAGAAAAGAGGAAAAAATTCCATTCCCCTAAGAGAGAATGATCCAACTGGTCAGATTCCAGGACATTGATTGGACCATGTTTTGTGGGACTGAAGCTTTCAGAAGTTTTTAAAAGGTCAGCATAAGCAATAACTTCTCTTCTCAGACTCTCCATGCCTTCCATAGGTGGCAATCAGACTAAATCTCTGCCCTGGCAAACTACTTTTTCTTTCTCTCTCTGTATATATACGTGCATATACATATATACATACAGATGCATAT
0.1267406724713256 AGCTGAACATCTGTATTTCTAACAATTTCCTGGGCAATGCAGCTGCTGCTGCTGGTGGGAGCCCCACTGCCCTAGCCCTGATCAAACAGGGACCATGACTGCCTTGCTCACCTCTGTACCCGCAGAGCCCAGGACATAGTAAATGCTCAAGAAATATCTGCTTAGTGAATAGAGAAATGGGTTCATTTATTTATTATTCCACTTGGAAATAATTTTGGGGAGAGTCAAAGGTCAGCCTTTGATTAGAGTGAAATTTCCTTCACTGACAGGTCACTGGAAGTATTTGCAGGAAATGGAATTATGGGAAAAGTCCTTCTAGGGTGACATAACTGTGGGTGGGTCATTTCAAAATTGGTGTCATCATTCATTCTGTCATGGT
0.3289593896231772 GATGGGTGATTTCTGCATTTCCAACTGAGGTATCGGGTTCATCTCACTGGGGAGTGTCAGAGAGTCAGTGCAGGACAGTGAGTGCAGCGCACCGAGTGTGAGCCAAAGCAGGGCCAGGCATCGCCTCACCCAGGAAGTGCAAGGGGTCAGGGAATTCCCTTTCCTAGTCAAAGAAAGGGGTGAGAGTTTGCACCTGGAAAATCAGGTCACTCCCACCCTAATACT
1 TCTATGAAATCCCTCTCACAATTCCAATTGTCCTTTTTTGCAGAAATGAGAAAGTCACCTACTAGAATAGCATTAATCCAAAATCTGAAAATAGCAAGTGTTGGTGAAGATGTGGAGAAACTGGAACCTTTATGCAATGCTAATGGGAATGTAAAATGGTACAGCCTCCGTAGGAAACAGTTTGGCAGTTCCTTAAAAGGCTAAATATAGAATTACATCATCCCCTAGAATTTTCACTTCTAGGTAAATACCCCAAAGAGTGAA
0.5957327406790345 ATGAGGTGGGCCTTGGAGAATGGGGTGGGTGGAGACAGATGAGAGAGATGAGGGGAGAGGGAAGGAGGGAGGGAGAGAGAGAGAGGGAGAGAGAAAAGCAAGAAAGGAGAGAGAAAGAATGAACAAAAGCATTCATTCCAGGCTTCCAGGCTCAGAGAATTGTATGAATAACGCTACAGGTGAATGAGAGTACAAAATAGATCAGGCTAACCCAGAGACTTATCCTTAGCAGACATTATTTGAAAGGACAGTTCACCCTCTAAGTTTCCTTAAGAAGTTTTCACTGGAAAGCTCCTGTCTTCCGCTTTCATAGTTTGGTGG
0.7043392563026228 AGGAGAAGGAGGTAGAGGAGGAGAGAAAGAAGAGGGACAGAAGGTTCTGAGCTGCTAGTTACTATACCGTTGTCCACTGTGATTGCTGTTACTCATTTGTGGTTATCACTAGGCATGGACACGCTCTGAGATACTTCCATATTTGGATTGATTTTTTTCCCCAGAAATTCATAGCCAAATAAGGTCATTGAGAATGTAACTAGTTAAGTAAGGTCACATTGGAATAAACTGGTCTTCTTATTCAATATGACTGGTGTCTGTATGAAA
1 CTCACATTTGTAATCTCAGCACTTTGGGAGGCCAAGGCAGGTGTATTGCTTGAGCCTAGGTGTTCAAGGCCAGCCTGGGCAACATGTCAAAACCCTGTCTCTATAAAAAATACAAAAATTAGCCAGGTTTGATGGCACATGCCTGTAGTCCCAGCTACTCAGGAGGCTAAGGTGGGAGGATCGCTTGAGCCCAGGAGGTGGAGGTTGCAGTTGGCCGAGATTGCACCATTGCACTCAGCCTTGGTGACAGAGCAAGACTCTGTCTCAAAAAAACAAAAATAAAAACA
0.9688369901787338 GAAAAAGTGAGAGAGAAAGAAAAGAAATATAAAAATGAACATCGGTAAAGAAATCAATTGGGATTGGTTTGCAGGTTTGGTTCCAAAACGCACGAGCCAAATTCAGAAGGAACCTTTTGCGGCAGGAGAATGGGGGTGTTGATAAAGCTGACGGCACGTCGCTTCCGGCCCCGCCCTCAGCAGACAGCGGAGCTCTCACTCCACCCGGCACTGCGACCACTTTAACAGACCTGACCAATCCCACTAT
1 TACCCTCTTTAAGATAGCTGAATAGAGAGGAATCAATATTTCTAAAATAATAAAGTCTACATTTTATAAAAGAATTAGCTAATACTTTCTAATAATTCTAATAACTTTGATAATTTAGGTATGGTTTATGAAAAGTTGACTTTAAAATCTTTTAGGCACACATGTATTTTTTACCTGGAAAGAAAACTACTTAAATATGGGCACACAAGATGTAAGAAGACCAGTGAAAAATAATATGGAGGAGCAATGAAGTGATATATGCTGAAAATGTAATAGAAGTAGAATTGGCTAGGTGCGGTGGCTCATGCCTGTAATCCCAGCACTTTGGGAGGCCAAGGCG
1 TGGCTGTTTATTTCACAGCCATATCCCTAGCACCTGGAATTACGCCTGGTATTTACAAGTTCTTAATACATATTTGCATGAATGAATAAATGAACGAATTCTTTACCAATGTTCCTCTTTCTCTCCTCTCTTCAACTTACCCCACTATACTGTCTTTCTTCCATTTAATTTATATTTAAGATAAAGATAGCCCTCTTATTAAGTCTTTCTTTGTTTCTTATAGCTTAGCTGGCATTTCTTCAAAAATAATTTAGAATAGTCTACACTCACTGCTTTTGCTTGCTCATCTCTCATCCAATGCCTTCC
0.8627169799930766 TCTTTGTCACAACTGCTCAACTTTGCTGTTGTAGCACAAAACAGCTATAGACAATTTGTAAACAAATGGGCATGGCTGTGTTCCAAGAAATTTTTTTTTTTGAGACAGAGTCTCACTCGTGTCACCAGGCTGGAGTGCAGTGGTGTGATCTTGGCTCACTGCAACCTCCACCTCCCGGATCCAAGCAATTTACCAACTTCAGCCTCCCAAGTAACTGGGACTGCAGATGCCTACCACCACACCCAGCTAATTTTTGTATTTTTAGTAGAAACAGGATTTCACCGTATTGGCCAGGCTGGTCTCGAACTCTTGACCTTGTGGTCTGCCCGCCTCAGCCTCCCAAAGTACTGGGATTACAGGCAT
0.8075791925423136 AAGGAATTATTCCACAGTTAAGCAAGGAGAGGTGAGATGAGAGGTGGATTTCCAGCCATACTGCCAAGCCGACCTCACTAAGCTGACCTCAGCCATGTTCAGGCTCAGCTTTCTTCCTTGTCCAAGAATGAGAAACCCAGAGCCTGTTCTTCCCATCAACTTCCTGCTAGTGCATAAAGAAAGCTCACATCTCCTGGCTGAGAAAAAGCAGCCCCACAAGGCTTGTGAAT
1 AGAACTGGGGGAACAGAGACTTTGGGGAGGGTGTAGGCATTCCAGGGGGCCTAGCTAGGAGGAGACCCCTTAGTCATGGCTTTCTGGTGCCTGGAAGTAATGTGAACCAGTTAAGGGCCATAAAAATCTGTACATAAGGGACCGCTCCTCATTTTTCTCCTTTTTCACAGAATAAGTCCAATTGCAAAATATAATTATAATGTATAGAATGGTGTTTAGGCCAAATATGTTGGTTTTCTAATTTTTATTGAACCCAAATAGTATTGCAATAGAAAATGAGGGTTTTTTTCTTTTTCTTTAAGCCAAATTTGAATT
1 TTTTAGGTTCAGGGGTACATGTGCAGGTTTGTTGTATAGGTAAAATCATATCATGAAGTTTTTGTGTACAGATTATTTTATCACTCAGGTACTAAGCATAGTACCCAACAGATTTGTTTTCTGATTTTCTTCATCCTCTGATCCTCTACCCTGAACTGAGCCTCAGTGTCTGTTGTTCTCTTATTTGTGTCCACGTGTTCTCATTATTTTGCTCCCACTTATAAGTGACAACATACAGTTTTTTATTTTCTGTTCCTGCACTAGTT
1 GAGTTGAACCTTTCTTTTGAGAGAGCAGTTTTGAAACACTCTTTTTGTGTAATCTGAAAGTGGATATTTGTCTAGCTTTGAGGATTTCGTTGGAAACGGGATTACATATAAAAAGCAGACAGCAGCATTCCCAGAAACTTCTTTGTGTTGTTTGCATTCAAGTCACAGAGTTGAACATTCCCTTTCATAGAGCAGATTTGAAACACTCTTTTTGTAGTATCTGGATGTGGACATTTGCAGCGCTTTCAGGCCTAAGGTGAAAAAGGAAATATCTTCCCCTGAAAACTAGACAGAAGCATTCTCAGAAACTTATTTGTGATGTGCGCCCTCAACTAACAATGTTGAACCTTTCTGTTGATAGAGTAGTTTTGA
0.5619684662495088 CACACTGGGAACGACTAGACAGGGGCAAGGGTTGAAAAACCAACTGTTGGGTACTACGCTCACTCTCCGGGTGACAGGATAATTCATGGCCCAAACCTCAACATCAAGCAATGTACCCATGTAACAAACCTGCTCATGTACCCCTGAATCTAAAATAAAAGTTGAAATTATTAAAAAGAAAAAAAAAAAACTGTAACAGTAGTTCTTAGCCAATTAAGGCAGTATACTAATTAATCCTTTTTTCGGCGGGGGGGGAGGGAGCAGACAGAGTCTCACTCTGTCACCCAGGCTGGAGTGCAGTGGCGCAATCTTGGCTCACTGCCACCTCCACCTCCCGGGTTCAAG
0.674395716205487 CACCTGGCCCAGGGCTCACTCACCATTCGGGGTGGTATCGTTGTCCCAGTCCCAGGCCTCCACGATGAGGGTAAAGGAGCGCTGCAGACATGGGGAGGCGGGTCAGGTACCTGAGGCCACACCTGCCTGCCTCGTTCAGGGTGGGACAAGGCCCAGGGCTCAGACGCTGCCCCTGGGTCTGCCAGGCTCTGGCCCTTCCTCCCCAGCCAGGGACCCACCACCCTCCTCATCCTCAGGCCACATCCTCTGCAGACCCAAAA
1 CCAGGCTGTGAGCTGGAACAATCATAGAGCTCACCTTATTTGCTTTCCCGCTCTTAGAGATCACTGTCCTGTGCTGTCTGATGTTCAGTGTCTAAAAACTATACTTTCTGATATTTTGCCCATTTACTTTTTAGCATTTTTCAAGACAGGATCAATTAGGTCTTTGGTATTCCTCTTTGCCTGAAGTGAAAGTCTTGAACATTATGGCTTCTGACTGTGGTTGATGAGTAATATTT
0.06786432426233033 GTAGCGACACTGCCTCCCTCCGGAATAAAGGGGAGATTTGCATAGAGCCTTAGAAAATACAGAAAGTGGCTGGGCGCGGTGGCTCGTGCCTGTAATCCCAGCACTTTGGGAGGCTGAGGCAGGCGGATCACCTAAGGTCAAGAGTTCCAGAACAGCCTGGCCAACATGGTAAAACCCCGTCTCTACTAAAAATACAAAAAAATTAGCTGGGCGTGGTGGCGCATGCCTGTAGTCTCAGCTACTTAGGAGGTTGAGGCACGAGAATTCCCTGAACCCAGGAGGCAGAGGTTGCACCGAGCCAGATCACGCCACTGCACTCCAGCTTGGATGACAGAGTGAGACTCCGTTTCAAAAACAAAACAAAACAAATACAGAAAGTGTTTCTCCTGGAAGCCAAGGGTTAATCTCCTTACTGTAATTATTGTAAAAGATTTGGGCTCTTTAAACTCAGGATTCCTCTCCCGTAATGAAGGTCACCA
0.4958387350455696 GCCTTCTCCTACTCCAGGCCCCAGTGCTGTGCGTCCTACGAGCACCACCTGCTGTCTCACCTCTTCCAGGAAGCCCACCCTGATCCCTCTAGTCCCAGCCTCAGACACTGAAGCAACATCAGGTACCTCTCGAGTTTTCTCTTACACGCTTTCCCTGGCCTTGCAGTTTGGCTGAGTCTTTCCTCTGGCTCTGTAGACAGAAGCCATCTCTGGGTTCCTGTGCTTGCCATTCCTCCATAAATCACTTACCACCGTCAAGAGGCAACAGGTCTGGGGCTGCACACGGAGGCCCAACTGCGGCACCTCTGCCACCAACCTTGAGCTGCAGGACTGTCTGCATGTGGGGTCCACAAGGCGGAAGCTTCTGCCAGCACCTTGGGGATAAGGGTGGTGGGGCTGCACGGGGAAGGGGAAGGCTGCTTCCCTGGGGACAGTGTCCCCACAGGCCGGGGATCCCTGCGCACGGTCCCAGGCTG
0.7647000382456216 AGACAGTGGGCGCAGGACAGTGGGTGCAGCGCACCATGTGTGAGCCAAAGCAGGGCGAGGCATTGCCTCACTCGGGAAGCGCAAGGGGTCAGGGAGTTCCCTTTCCGAGTCAAAGAAAGAGGTGACAGATGGCACCTGGAAAATTGGGTCACTCCCACCTTAATACTGCACTTTTCCAACGGGCTTGAAAAACGGCACACCAGCAGATTATATCTTGCATCTGGCTCAGAGGGTCCCAAGCCCACGGAGTCTCGCTGATTGCTAGCACAGCAGTCTGAGATCAAACTGCAAGGTGGCAGCGAGGCTGGGGGAGGGGCGCCCGCCATTGCCCAGG
0.9387589442710085 CTAGAGAAAGGGGATGGCATAGTACTTGCTGACTACTGCCACTGGGAAGGGGTTGGAAAGGGTTTGGCAATGCCAGGTAACTGAGTTATCCCCTAAATAAACACTGAATTCCTCTGTTTTCTGTCTCTTTCATTTTTGCTCAGAGAGCTCCCATGGGTTCCCCCTGGACAGACTGGCTTCCATAACACTAGCAAGCAGCCTCCTTGTATTCACCAACAGGCATCTGCTTATTCTTCATTTCATCCAACTATTGGTTCTCATTTGTTTTAGCTTTTCCAGAAATTTAATAACTCTCTTGTATATTAGTGCTACATTTCACCTTTTTCTATTTGCTATTGCTGATTTATTTTT
1 TTTAATCACTACATTTAAAGCATCAGAAACTATTCTTGGAGCTGTAGATATACAGATGAACATCATCAGGACCCTGACCTCGAACAGAAAATGAGTGTTTAGGTAGAAGGCAGAAACAAACCAGTTAAAAAAAAAAAGTGAACTGAATTATCTTTCATTCATCTCTTTACATTTAGTATTCTTCTCTGGTCTCTGCCCCAGCAGTTTGACCTACAGGGGCTACATCAATAGGCTTTCTAACTCTCTGTCCTCCTGTAGGATTCAGCCAATGTGGAACCGTGGAAGGGACTGGAATGAAGAAGGGTGACATCAGACTTTATATTCCCCTGGCTTTCTTCTTAATGGTTCACCTTGGTTTGCCTTCGCCCTTGTACTGAAAGTCACCAAGCCTA
1 AGCTCTACCACCCACACTTCTCCAAGGTCATGTCTTGTCTAAGAGTGGTGTCCCTGATGTATTTTAAATAAAAAGCGGCATTTTTACAAAATGCATATGGCAGAACTCCATGAAAAAGAACCACCCTCAGTTCTGTGTGTGTGCATGTGTGTGCCCGTGTGGGCTTCAGATCCCTTGCACTTCCCTCCACTTTGAGGAGGGAATGGGGAGGTTGTCCCAATCACGACTGTATTTTGAGCCTGGTGTGATAGAGCCCAGAATGAAAGTTAATTTGTTT
1 GAAGGCAGTGACCTCTGAGTTGATTACTACATGATAATTAAAGGGGAATGAAAGATGGCATTCTTGACCAAGTAAAGAGCATAAGTCAAGGTCTAAAGGTATGAAACAGCCTGATTTCTATAGGGAAGCAAAAGCAATTTGATATAATTAGAGTATAAACTGCAAGGCAAGAAGTGTTGAGAGAGGTGATTAGAAAGACAGAGCTGAAACAACAGGCTTAACCACTGAAGGGTCTTAAGTAGGAGACCCTTTCTTGGTCTTTCC
1 AGGGATTGAACAGGTGGTCTTTCTCCTGAAACCTGGGTGATCCAATAATAACTTTCTTTTTCTTTTTTTTTTTTGGAGACGGAGTCTTACTCTGTCACCCAGGCTGGAGTGTAGTGGCGCGATGTCGGCTCACTGCAAGCTCCGCCTCCTGGGTTCACGCCATTCTCCTGCCTCAGCCTCCCGAGTAGCTGGGACTACAGGCGCCCGCCACCACGCCCAGCTAATTATTTTTTTTGTATTTTTAGTAGAGACGGGGTTTCACTGTGTCAGCCAGGATGGTCTCTATCTCCTGACCTCGTGATCCGCCCGCCTAGGCCTCCCAAAGTGCTGGGATTACAGGCGTGAGCCACCGTGCCTGGCCTAATAATAACTTTCA
1 AAAGGGCCCCATGCCCCCTCCTTTGAGACAATCCTACCTCTAAAAGTATGGTTTAAATTTGCCAACCCAGTACAAAAAGGAAGAATATCAGGCCTCCTACATATTCACAACCGTCTGTCACTAGATCTGGAGCAGCTTTTGGAAGCTTTTTAAGCCTCTCTCAAGTGTTTCCTTTCCTTACATCCAGGTGATTACTGCATTCAAAAAATATTTTTCTCCCTTTCAG
0.4181236190637704 GGGAGTGCCTAAAAGTAGCTAAGAATGAGCCCAGTGATCTTCCAAGCAGGGAGATCATCTCTCTTTTCTTCCTCCCTTGGGGCAGCCCCTGTCTTTGACATAGGCTGACATAGTCAATGCTGCCTCTTACAGCTGAGAGAAGGGGCCAGGGAACCCACAGCACCCAGAGTCCTCAGCTGAGCTGTCTCCACCTGCTGCCCCTCTGTGGAGTGCTGCCTTTTGGGCAGACACTGCCATCTCTGCCACTGAT
0.9966138666915582 ACAATCACAAGGTCCCACAATAGGAGACAGCAAGCTTGAGGAGCAAGGAGAGCCAGTCCCAGTCTCAAAAGTGAAGAACTTGGAGTCTGCTGTTTGAGGGCAGGAAACATCCAACACGGGAGAAAGATGTAGGCTGGGAGGTTAGGCCAGTCTCTCTTTTTCACATTTTTCTTCCTGCTTATATTCTAGCCACACTGGCAGCTAATTAGATTGTGCCCACCTAGATTAAGGGTGGGTCTGCCTTTCCCAGTCTGTTGACTCAAATGTTAAT
1 TGAAGAAGGTGCCTTGTTTCCTCTTCGCCTTCCACCATGATTGTGCGTTTCCTGAGGCCTCCCTAGCCATGCCGAACTGTGAGTCAACTAAACCTCTTTTCTTTATGAATTACCCAGTCTTGGGCAGTTCTTTATAGCAGTATGAAAACAGACTAATACACTCAGGCTAGAGTGCAGTGGTGAGTGGTGTAATTATGGCTTACTGCAACCTCGACCTCTTTGGCTTGAGAAATCCTCCTACCTCAGCCTCCCAAGTAGCTGGGACTGCAGTCCTGGTTAATTAAAAAAAAAATCTTTTTTTTTTTTTTTTTTTTTTTGTAGACATGGCGAGGGAGGTGTGTGGTCTTGCTTTGTTGCCAGGCTGGTCTGGAACTTCTGGCCTCAAGTGATCCTTGCACCTCAGCCTCCCAGAGTGCTGGGATT
0.9630078561530316 GGAGAAGCAAAATCAGTCTTTAGATCTAATATACAAGTCTGAGAGTTAGCCATTTTTAACCTTAGTTTGAGGAAAGAAAGGACAGCATGCCCAGAAAGCCCACGGAAAAAGATAGCCAAGGCGAAAATCATGAGGAACACCAACATATAGTAGGCAGAAGAGACCAGCAAAGATGACTTGGGAAGGAAGAGTCAGGTGAGAACTAGGAAAGGGAGTGAGTGTACAGAGCATTATGGAAGCCAGAAGAGGGAGAATGATGAAGTGTC
0.7733173566127302 ATCCTGTCTGCCAAAGGCCAGAACCAGGCTGGAAGGGAAAAGGATCCAAAACACAGCCCACACAGCCCTCCAGCTCCCCGGTGCTCCTCCACTGTTCATTGTCCTCTTAATATCAGGAAATGGAATCAAAAGCCAGAGTTACCTTAATTGACGGACCTGTGGGGGAAAACAGCCCAAAGCCCTGCCCAGTCTGTCTCCCAGGAGGGCAGACTTGCCCCAGAGCCAGATGCAGCCAGGAGGAGCAAGTGCCAGGAGGGACCCCCTGGGATGAGGATGGGACATCACCAGTGACTTTGGTTTTCCCCCAGTTTGGGTCCTG
0.8108904082356598 GGGGGGGCACGGTGCCTGTAATTATTAAACATGAATTCAATTAAGCTCACTGCCTTTCTGCTTTATGCCCTGCTCCCTCTAGAGAAGGTGTTTATAGGTGGGGATCCTTCCCAGAGCTGGTACTGTAGCGCTGTTCCCTGTAACCTGGCACCCCTCCTGCCTCTTCCCCTGTCCATGATTGCAGGGATCTGAGGTTTCCTGGAAGGTTGGGCCCTCAGATGGGCTTGATAGGTGCCTTCCTGGTCCGGAGAAAAGGGAGATTAGTGATAGGACATCCTTGCTAGGCTCTGCTCTCCTACCAGAATGATTCAAGCCCCTGTGTGGGGAAGGCTTTTGGGTTTCGGGTTGTTTATAGC
0.7896341892800937 AACTATAATCTGGCCAGTTGTGACCTTTGTGAAGAAAGTTACGTAAAGAGAAGGGATTAGTAAGAGCTGTAGCATTGTGGTCAGAAAACTCCAGAACCAGTAACTTGGATTTACAATCTGGCTTCATCACTCATTCGCTGTGTGACCCTGGCTGTGTGGTCTTTTAACATGGAATCTTCATTTGTAAAATGGAGGTAATACGGTTGTGTGAAGATTAAATGAGGTAAAACCTATAAAGTACT
1 CCAGCTTCTGTTTTTGGATGTTTTATAGTGTCTTTATTTTTTTTAATACAGTTCTTATAACTGTTTTCCCCTCTGGATTCACATGACGACTTCACTCCTTCACTATTACCAGAAGTAAACCACTACCCCTGTTAATGTCATTTTAATTATTTCTGTATAAAAATTCTCCAGAACATTGGCAGCCACTGATGGGTAAATGTGAAGGTCTATTTTCAGGTCCTGTCTTACTGCACTTCTCTCTCCATTGTTTGAAATACCATGACTGTGCTGATGGTG
0.8905692635895104 AGCTATGTCACCATCAGCAATTGAGAGAAGTCTAAGCCCATTTCAGAGTCTTCCATCTGAACTAATCCCAGGAGTCACAAGGATGCTTACTATGTACTAATAAATGTGGTCAGCCAGGTGCCATGCGTGCTCTGTCCCTGCCCTGACTCTCCAAGGTAACAGTCCCCAGTAAGCCACCCTTTGATGCTGCTGTTGAAGGAACTTATGCCCTTCCCAGAGTGATGATGGTGCCTGTGAAATCCACTGAGGCCTCAGAGGAGCTATCTTCTTTCACTTAGGAAGCCAGCACCCACAGTATCCTCAAGAAGTGTGAAGCACTCTTTTAGTTTTTATTGACTCTTGTTCCAGCTGTTTCTCATTCAGACTCAATCATGAGC
0.7221322285364614 CTGTCGGAAAAGTGCAGTATTAGGGTGGGAGTGACCCAATTTTCCAGGTGCCGTCTGTCACCCCTTTCTTTGCCTAGGAAAGGGAACTCCCTGACCCTTTGTGCTTCCCAAGTGAGGCAATGCCTCGCCCTGCTTCGGCTTGTGCACGGTGCACTGCACCCACTGTCCTGTGCCCACTGTCTGGCACTCCCTAGTGAGATGAACCCGGACCTTAAGTGGAAATGCAGAAATCACCCGTCTTCTGCGTCGCTCACGCTGGGAGCTGTAGACCGGAGCTGTTCCTATTCAGCCATCTTGGCTGCCAGCTCTATTTTCTTTTTCAAGTGACATTTAATTACTCAGTTCACACCTCCTCAACAACACATACT
0.8085542434394942 AGCCCCGCGCCCCCAACCCAACGCACACGCAGGTCGCGCAGGAACTAGGCGCAGTCCGGAGCGCAGGGCATGGTCTTTATTAAGATGGGGACGGGCAGCGCGCTCAGGGCGCATCCAACACCAGCAGCTTGTGCATGTACGAGTTCAGCCAGTGGCGGCGCTCGAGGGCGGCCAGCAACCGCGCGCGCTCCCGGAAGGCCGCGTCGTCCGCCAGCGCCAGGCTCC
1 TTCCAAGATGCCTCCATTTTCCCCATAAGTATTGTTCTTAAGAAATGTTCAGTCTGTTCAACGATTTGAGCCCCTTTCTATTGACTCTCCAGGAGTCAGTACACTGTCTGACAGGTCTCAGAATTTTTCTGAACATTTTCTGACTCAGGGGAGGGCGCTTTCCTCCTGTGAGTAAACTCTGATTGATGTTATCTGTGTTCTTTTACCAGTAGAACCTCACAGCACTCTCTTCAATGCTTTTTGTTTGTTTGTTTGTTTGTTGTTTTTTTTTTACTATATGGGCTGTAGAGATGACTTTGCTGATTTAGGACATTTATTTCCCTTCTTAAG
0.9103127484009774 CTTCCTTTGTGCCATGGCTCCCAGGAAACACTGGGGCAAATGGTTGGACTACTGTGGTTCTCTTTTCTTTGGTTCTCATTTTCTATTTCTATTGGTGTTTTAATTGCCTCATTGGATGTATTTTTGTGTGTGAAATATGACAGGAAACACAGGTATGTTAACTAGGCTGGAAGAGATTAATGTGTGGCACAGTTGCGGGGTGCAGGGGAGTCCTGGCAGGGTGGAGAGTTAGCAATTGTTGTGGCCCAGGTGGGAGGCGATGTGGTCATGCTGGGAGGGAAGTTTAGATGTGTCCAAGAGAAGTTGCAGAGAGCCCGCAGCATGATATCTGACCATGTCAGTTTCACAAGGGGGACAGCTGCAGGTGGCTGACACATCCAGACACGTGTA
1 GAGCAATATCAAGACCCCAAATTTGTTGAGGTGGGGCAAAACTGTTACTTCACGTGACTAAAGACGTTTATATTGCTGTCCCAACCAGGACTCCAAAGGAGGTGGCTGTCCTCTTGAATCCAAACCAGGGGACCCATGTTGGGCTTGCGCGCTTCTCGCCAGGACACGGCCCAGAGGGTAGGTCTCTCATTCATAGTAGCCACATTAAGCCTGGCTGTCTACTCTAGTCTATGATC
0.7040447644580015 CTTTGGCCTCAGACTCCCGAGTAGCTAGGATTATAGATGCCTGCCACCATGCCCGGCTAATTTTTGTATTTTTAGTAGAGATGGGGTTTTGCCATGTTGGCGAGGCTGGTCTCAAACTCCTGAGACGGCCCACCTCGGCCTCCCAAATTGCTGGGATTACAGGCGTGAGCCACCGCGCCGGGCCACAGATTCTTAAACTTTCTTAGAACATTATGAGATTTTTTTTTTTTTAGCTCAACAGCTACCATTAGCATTAGTGTATTTTATGTGTGGCCCAAGACAATTCTTCTAGTGCGGCCCAGGGAAACCAAAAGATTGGATACCCCTGCTGTAAAGGATGCCAAATTTAATTAAACCAGTCCGTGAAGCAATTTATGCCCCA
0.9329247896354174 ATAAGCAAGAGTCTAAAACCAGAGAAAACACTGACTCACCCTGTTTCATTTTCCCTCATGAAACAGCACAGACTTGGGGGCCATCTCATTTTTGAGGAAGCCCAGAACAAAAGACTGTGACAGTAATTATGGAATCTGGGAGGCAGGATGTGGGAAAGCGGGTGAGGTTGAAGGTTAAGTCAGAGTAGAGAAAAGTGTCTTGATGTTTCTCCCGTCTCCCTCCATGATGAGGCCTAGACAAAGGCATCTGAAGACCCCTGCCCAAGGCCTCGGAAAAAGAGACCTAGGAGTGCAAGTTCTTACCAGGCAAGGAATGTAAATATGGGAAGAACAGAACGGGCAAGGGAGGGCTGGGA
1 CCTCTTCAGAAGAAAGAATTCTACTGAGGTGCATAAGGCAGAAAAAGAGACTGGGGCAAGTTTCAGAGTGGGAGTGGAAGTTTATTGAAAAGCTTTAGAGCAGGAAAGAAAGGAAAATACACTTGGAAGGGATCCAAGTGGGCATCTTGGAAATCAAGCACCTTGTTTAACCTTGAACCTCAGATTTTATATGCCGGTCTACTTCTAGCATCTTGCATCCTTTTCCTTTCAGTCTTCCCTAAAGGTGAGTCACCCGC
1 AGCAGGTAAGCCTGGATGACTGACTAGAAGTAATTTCTTTCTATTAGGATGTGACATGAACATTTAAAAAATGGAAAAAGTCAGTCTATAGAAATTCGTATCTCTTTATCTATATAACTATAGTATTTATATACTTATAGACATATAGATATATGAAATGAAAACTCAAGCCTGCCCCACTCAGCTGACAGTTCTCAAATGAGCAGTGTGTAGTAGTCATTTGGTGTGGTGGTAGAGGAAGTCTTATCTTTAATATGCAAAAAAAGAAAAAGCCATGAATTTCATATGGATATCACGCCAAAAGGATGCAAAACAATGCGCTGC
1 CCAAGTACTGACAAGAACCAGGCCTCATATTGAAGCTCTGAAAACAGACTATCAAAATGCTCAGGAGTATGCATTACCAAAGAGATACTCTAGATAAAGCTCCAGTGTCATGGCTCACTATGGTATTCAAGAAGCTGCAGTAGACAGATCCAGAGTGAACTTTGAAGAAGAAACAAGCAATTCTCTTCAACTAGGAGATAACATACACAAACCAAGAGAGGATCCATACCCAGAAAGGCTGGGGAGATCTTCAGAATCCCTATATGGAATGAGTGGAGAAAGCCTATCCTGTGTGAAAGCAGTCTGGGAAAGTTGACTGATTCTTCAGATGCCAGAAATCCCAACAAAAAA
1 AGAATGATCCATTGAATACCTAAGTCAGATTATGCCACTTCTCTGCTTAAAACCCTCCAGTACCTTCCTGTAATGGTTAACATTAACTGTTAATTTGACTGGATTGAAAGATGCAAAAGTATTGTTCCTGGGTGTCTGTGAGGGTGTTGCCAAAGGAGATTAACATTTGAGTCAGTGGATCGGGAAAGGCAGACCCACCCTCAATGTGGGTAGGTACCATCTAATCAGCTGCCAGTGTGGCTAGAGTAAAGCAGGCAGAAGACG
1 ACTGCATTTGTTAGAAGGGGATGGAGGCAAGGGTCGGTTTCCTGTACCTTTGTACATTTCCATAAATGCGTGCAAGTTGTATTTTTCTCTCCAGGCATTAAAATAGGCTGTTACTTAAGGCCTGACAGCTCTCATCTACCATTACTACAACACTGGAAACTCTTTCGTGAAGTATAAATTACCTTTGGAGTGAATTGAATGTGTGAGTAGTCTGTGGAGACGCTAGACACTGTCGCTTTGCAAAGTAAGTTCTGTCTTTTGGCATCCCCTTCTCAATTCATTCTGCCTCTGCTCTTGTTTTCCTAAGTAGACTTTTATCTTTTTTGAGAAAGAGAATTTTCAAATGGCAGAGAGGATGGAACAAAATGTTGGGGAATCTCGGGCCTT
0.940938550393297 GGAGAGAGAGCCAGAGAGGGGAGGACCTGACCTACCGAGGGGACAGACGCCCGAGAGAGTCGGCGCCTCTGGGGTCTCGGGAGCTGGGCTGGAGTGGGGTCCGCAGGGGGTGGGTGGGGGGCTGAGGGGCGCAGTGGGTATGGAGAGAGAGGCCAGGGCTGGGCCGGGCGGGCGCCGGTCCGAGTGCGAACGGTGGAGCTCCTCTGGGGTTGACGGGTCGGTTTGGGGTAGGGGTGTGCGTTCAAGAGGAGGCGGGCCCGGGCGGGTGGGGAAAGCC
0.8518987559453577 TTTGGTGCATTTCACAAAGGCTCGAATCACGGTTCTGACCGCCAACCTGTAGCAGCGATTTTTCCTTCCCCGGAAGTGCTGGGACAGAAAACGAGAAACCAGGGTTGTCAGCGGGGCCCGCGCCGGCCGCCCCTTGGCCCGCGGGATACCCCGGGCGCCCAGTGCCCAGGCCGGGCAGGCGGCACTCACCCTGGCGTGCTTCAGCACCTCCTGGATCCGAAAGTAGCGGTCGGTGACGCGATTCCGCAGCCAGAGCTGCGCGGTGAGGAAGACCATGGCGCCTGCAGGCCGGCGT
1 CCCAGGGCATGACCCCCGATGAGTGTGAGGCGCTGAGGCCGAGTCTGGTCCTTGGCGAGGAGGCCCAGAAGGCCCAGGTGCCCGTCCTGAGCGTTATCCAGGGCCCTGCCTCAGGCCTCATGCCGGGGCCAAGCCCAGGGCTGGCTGGTGGCCACGCAGAGGTGAGAGGGGCGGGGAAGTGAGGCTGGGTTGGAGGAAAGCTGAGGGGCCCAGGCCTCCCACTCCAGCCCCCGAGGCAGACCCTGGCCCACCCAGGGACCCCCTCCCATGCACACAAGCACACACAACACGTATATG
1 TTCCTTGTCTGTAAAAACGAAGACAGTACCCAGCACTTTGGGAGGCCGAGGCGGGCGGATCACGAGGTCAGGAGATCGAGACCATCCCGGCTAAAACGGTGAAACCCCGTCTCTACTAAAAATACAAAAAAAAAATTAGCCGGGCGTAGTGGCGGGCGCCTGTCGTCCCAGCTACTTGGGAGGCTGAGGCAGGAGAATGGCGTGAACCCGGGAGGCGGAGCTTGCAGTGAGCCGAGATC
1 CTGGGCTCAAGGAATCCTTCTGCCTTAGCCTCCTGAGTAGCTAGGGGTACAAATGTGAGCTACTGTGCTTGGCTTCATATACTGTTGTTTCATGTGTTCTTAAAGCTTATAAAAAACGTATCATATTCTGCAACATTTTTTTCCCTCTCAACCTTAGGTTTCTGAGATGTGTCCACATTGGTATCTGCAGCTCTATTTCCTTCTTTAAGCTGCAGTAGAGCGCTCC
1 AAATTTGAAATCTTAATCCTCAGTACCCAGGAATGTGACCTTATTTGGAAATAGGGTCTTTCTAGATGTAATCAAGTGACAATGAGTCATCCTGGATTGGGGGCTGCTGGTGAGGGGGCAGATACAATGACTGGTGTCCTTATAAAAGAAGAGAATGAGGGCCGGGCGTGGTGGCTCATGCCTGTAATCTCAGCACACTTTGGGAGGGTGAGGTGGGGGGATCACTTGAAGTCAGGAGTTCGAGACCAGCCTGGCCAATAATAACAATAAAAAAGCCTTTTTAGATTCCAAGCCACTGAAAGAAAACTGTCCCTTAGTTAATGTCATGCT
1 TTGGAATCCTAGTTCAATTGACCTCATCAAGAAGTGGGCCAAATGGAGGCAAGTGGCTCATACCATTGTTTATTTTCTGAGCTAGGCTTCCCAGGAAATACTCTCCTGTATTTTTTTCTCTGTATAGATAATGCCATGTCCCCTGGAAGCCAACTAAGAGTCGGGGTGGGGTGGGTGCAGAACAAGAAGAAGATATAACCACTAGAGCACCATTTCTGGCTTTCCATACCCCTATTACAAAAGAATGAGGGTCCCATATCTCTTTCTAGCATTTCAATCACTGCCCTATCCTTTTCAATGATGAATGATCTATGTTAAGCATTTTATATAGACAGATTTTTTTAATCCTAGCAATTCTAAGAGGCTATTATCATGCCCATTTTAAAAATAAACAGAG
0.4994198479470345 ACTCCAGCCTGGGAGACAGAGTGAGACTCCATCTCAAAACAAACAAATACAACATGGATGTGTCCACCTGGAGCAATAAACAGAGCCTGTGAGGAGGGGTGAAGTACAGAGATTTCTGCAAACTGGCTGTGTAATCCTAATGAGAAGCCTGGGCTGATAACCACTTAGCCAAGCATTGCCTCTCAAGCTTTAGTGAGCTTAAAATTCACTTGGTAATTTTGGACCCACTCTACGTAATGGGATTCTGCAGGTTTGGAAAGGATCCATGGATAAATGTTTTAAACAAGACCCCTGTCAATGTTAATGTTG
0.9824012927640267 CTCCAACATTTTTAGGTATTTTTAACAATAGCACCCAACTACTGGCACCAAAATATGTATTGGTTATATGTTACTGCATAACAAATTATTCAAAATGTAGTCAATTAAAATAACAAACATGTCACAGTTTCTGTGGAGCAGAAATCCACATGTGACTTAGCTGGATCGTCTAGCTTAGGGGTTCTCACAAGCTCTAATCAAGGTGTCAGAAGGGGCTGCAATCATCTCAGTGCTTGAAAGGGAAAAGTCCTCTTTCAAGCTCACTTTTATGATTGTTGGCAGGATTCCATTACTTGCAGGCTGTTGGACTGGAGGCACAGACTGGAGTTCAGAGAACTCCCATAGTTTCTTGCCATTGAT
1 AAAGAAGAAAATAGAATAAGCTAATTGATCACTGTCTAGGCAATAAGTGGCTGTTAAAGGATACCAATAAGAACTAGTTAACCAGATAGTAAAGGCTTGAATAATAAAACAGAGGACTAAGGACATTAAAATGGTATAAGAAAAAAGAAGACTACTAGCAAAAAAAAAAAAAATACAAATCTTCCTAAATACCAAAAAATTGTTTTATATAAACAGAGAAGACAA
0.9885747240321254 CCTCGCACCCATGCCCTGGGCACCGCAGATGATTGGGTGTCCATCTGTGAGTCCGTGACAGTGTTGCGTGGACTCAGAAACTCAACATTACAGCATCACTTCAGGATTTTGGTTTTCAATGTCATGTATTCTCAAGCCTTTATTCCTCCTTCTCTCCTGGGATAGTGATGACCTGTAATCGTCACTTGCTCAGAATTGATCATTCACGAAATATTTAAATGAAAAGTGATTGCAAAACCTCAATTACTTTTGCACCGACCTAATCATTGGCTGCCGCGGGCTCTGTGGGA
0.8646907511298099 GCTTTCTTTTTCCTGTAAGTTTAAATACTTCTACAGTTATGTCTTTTACAAAAGAGAGATGTTAGTAGCAAAAGGTGCAACATTTGCTAAACAGTTCAGGTGACATCTACGAACACCATCACCCTGAGTTTTCACAAACAGCCTGAAAGAAGATGTCACGTTCACTTTTCTGAAGCCAAAACAGAGGCTCAGAGAATCAGCTTACCAAAGGTCTCTCACAGCTGGCAGATCTAAGAGTCTAAACCGTTTCTGTTGGGCTCAAGGCCCATGTTCCATTTGGTTATACTCTCCTCCCACAAAACTCCCTTAGGCTTTGGAAACTGAAAAAA
1 GAAGACTGGATATTTTAAATTTAGCGTGTGAAACTCCCCTCCTCCTCTTGATCACTTTCATTACCCTTCTAACTCCCTGAGGGCAAAGATCATTTCATTCTATGTTGCCTATCATAGTGCTTGAGATGGAGAAAGTGATCAGTAAACATCTGAATCACAAAGTTGAATTTTGTTTGTTGAAGGTGAACAACATGAGGCAGCCCTAGGATTCTAAAACCATTTTGTGCTACAGTAAGATAATAGTTTCCTTTTCTCCCCTAATTCTTTAAAAAACAAGTAAAGATGCTATTGGCTATTTGTGACTCTACC
0.8649815842839381 CTTAGGTTGCTTCCAAATCTTGTCTACTGTGAACAGTGCTGCAACAAACATGAGGTGCAGATATTGATTCAATATACTGATTTCCTTTCTTTTGGGTATATACCCAGCAGTGGGATTGCTGGATCATATGGCAGCTCAATTTTTAGTTTTTTGAGGAACCTTCAAACTGTTCTTGATAGTGGTCGTGCTAATTTACATTCCCACCAACAGTGAATGAGAGTTCCCTTTTTTCCACATCCTCCCAGCATT
0.8298094441413832 TCTATTTTTGTGGATTCTGCAAATTGATATTTAGATTGCTTTAACGATATCGTTGTAAAAGGGAATATCGTCATACAAAATCTAGACAGAAGCATTCTCACAAACTTCTTTGTGATGTGTGTCCTCAACTAACAGAGTTGAACCTTTCTTTTGATGCAGCAGTTTGGAAACACTCTTTTTGTAGAAACTGTAAGTGGATATTTGGATAGCTGTAACGATTTCGTTGGAAACGGGAATATCATCATCTAAAATCTAGACAGAAGCACTATTAGAAACTACTTGGTGATATCTGCATTCAAGTCACAGAGTTGAACATTCCCTTACTTTGAGCACGTTTGAAACACTCTTTTGGAAGAATCTGGAAGTGGACATTTGGAGCGCTTTGATGCCTTTGGTGAAAAGGGAAACGTCTTCCAATAAAAGCCAGACAGGAAGCATTCTCAGAAACTTGTTCGTGATGTGTGTACTCAACTAAAAGAGTTGAACCTTTCTATTGATAGCGC
0.4469869171902252 TCTTTGCAAAGAGCAGCTTTGAAACACTCTTTCTGTAGAATCTGCAAGAGGATATTTGGATAGCTTGGAGGATTTCGTTGTAAACGGGTATGTCTTCAGATAAACTCTAGACAGAAGCATTCTCAGAAACTTCTTTGGGATGTTGCATTCAAGTCACAGAGTAGAACATTCCCATTCATAGAGCAGATTTGAAACACTCTTTTTGTAGTATCTGGAAGTGGACATTTGGAGCGCTTTCAGGCCTATGTTGAAAAAGGAAATATCTTCCCATAAAAACTAGACGGAAGCATTCTCA
0.8338598858443858 GAGTTGAACCTTCCCTTGTGAGTTCAGGTTGAAACGCTCTTTTCGTAGTATCTGCAAGTGGAGGTTTGGAATGCTTTGAGGCCTACGGTAGTAAAGGAAACAGCTTCATGTAAAAACTGGACAGAAGCATTCTCAGAAAATACTTTGGGATGATTGAGTTCAACTCACAGAGCTGAACATTCCTTTGGGTGGAGCAGTTTTGAAACACACTTTTTGTAGACTCTGCAGGTGGATATTTGGACCTCTCTGAGGATTTCGTTGCAGACGGGATAACGTCACCTAACTAAACAGAAGCTTCCGCAGAAACATCCTTCTGACGTTGGCCTTCAAAGTCCCGAGTTGAGCCTTCCTTTGGTAGTTCACGTTTG
1 GAGAAAATTTTAGAGAAGTGAAACGTAATACAAACACAAGGCACAGCTCTAGAATTTTGCTACAGCCAAAGTCCTGGATAGTAGGGCTGGGAGCAAGGTGGCTGGATGGAGTTGGTTTTACAAGAATCACAAACATCTGTCAAAATGTGACTGAATATGGGGCCCTAAATATGTAAATTAAACACGTAACAAGCCACAGAGCATGGGTGGCAGCCTGCCTATGTGCACTGTCTACACAAATAGGCTTACTCAAATGGGAAAAGCATGAGATGGCAGCGAGCTCATTGGCAAAGT
1 TGGCCTCCCTAAGTGCTGGGATTACAGATGTGAGCCACTGCGCCCGGCCTTTTTTTTTTTTTTTTTTTAATTTTTTGATATGGAGTCTCACTCTGTGGCCCAGGCTGGAGTACAGTGGCACAATCTCAGCTCACTGCAACCTCTGCCTCCCGGGTTCAAGCTATTCTCCTGCTTCAGCCTCCTGAGTAGCTGAAGTAACAGGTGTGCGCCACCACACTCGGCTAATTTTTGTATTTTTAGTAGAGATGGGGTTTCATCATGTTGGCCAGGCTGGTCTCGAACTCCTGACCTCAGGTGATCCACCCACCTCGGCCTCCCAAAGTGCTGGGATTACAGGCGTAAGCCACTGCACCTGGCCCTGGATACTTTAAATAATCTCTAAAATACTTACAAAACCTAATACAATGTAAATGTTATGTAAATAGTGGTTCTACAGTACT
0.7037259127444704 TGAGAGTCCCCAGAGTCATCTGGCTCCCAAGAAGCACAGGGTGGGTGCAGGGGTGGGTTAGGGACTCGGGATCCTGCCAGGGTAAACATCTGCCCTCTCTAGCCTCACCTGGTCACAGGGAGCAAACACTCAAACCCCGCAGCCCTGGAGCAGCCCAGGAAGGCAGCCTAGCTCTGAATCAGGCGTTGTGCAGAGAGAAAGGGTTTGACTGCGGTCTGAACAAGCTCTGAGTCTGCAACAGCCCCAGCCTCCTTGGGCCAG
1 GAACCAGAACTTTGTCATAAAATTCTTGGACTACTTGAGTTTCTGGATTAGAAAGTCTCCTCCTCACCCCCTCCTCACCCCCTCCCCACCCCCACAATGATGATAGCTCCAGTCTTTCTCATAAACACCTAACAAGAGTAAAATGTTTTCCCTTCAGAAGGATAACAAAAAGAATAACACCAAGGAGATTTCGTTATAGTGCAGCTGCTTCTCTGGTTGGCAAGAGACACAG
1 ATACAAGAGGAATATGATCATTATGTTTAACTTCCTGTGCCCTCATGAAGCTTGTGGTTTAGCTGCAAACAAAAAACACACAAACACTGAGGCAAGTATGACCTAAGGTCCAGTGGAAACTAGAGTGAACATTACTCTAGGTTTGACATGGACTGAGCAGGTTCCCTGGATATGGAATTTTCTGTGCTAAAACCAGGGAAGTCCTGAGCGAACCATAATGAGTTGGTCACCCAAGTGGGCAGATGCAAGTTACAAGATCCACAAGAGATCCAAGAAAGGAACTAGCAAGCACTAGGATCTCTATAAT
1 AGCGCAGGCAACAAAAGCATGAATAAACAAGTGAGACTGTTTCAAACTAAAAAGCTGCACAGCAAAGGAAACAGTCAACAGAGTAAAGAGACAACCTATGGAATGGGAGAAAATCTTTGCAAGCCATACATCTGATAAGGGGTTAATATGCAAAATATGTAATGAGCTCAACTCAATATAAGAAAATATATAGCCTGATTAAAAAAATGAACAAAGGGCCTGAATAGACATTTCTGAAGAGAAGACATACAAGTGGCCAACAGATACATAAAAATACGCTCAATATCACTAATCATCA
0.8465644080015647 TCCCCATCTTTCAAGGCCTCACTGAGGTCCCTGCTCTCTGCAGTCTCCCTGGTCACCCAGCCAGAGCTGCCTTCTCCTCCCCAGAAGAGCTGGCAAGCATTTGGGCTTTTGGTGATATGTAGATTAGCACATTGTTGTGGGCTGTTTCATAGCCTCGTTGTGTTTTTCCAGTGAGCAACTTATTTGCAGTATTTGTCTCAACATCTGGATTATTGAGGCAAAACCCAGAGTCCAGGATAGTGTCAACCTTCACCCTACCCTGCCAGCATTTCCCTGAATCTGGGGGCATCAGCCGCCAGGAGGCTTGGGAGCTCTCAGGAGGTGACCTCAAGCTGGAGAAAGA
1 CAAGGAACAAATACCTCTTTCACTTTTCTTCTCATATAACATCGTGTCCTCTCCCCAAAGATGACAACTCAAATCTTCTCTAATAACTGTATCCAATTTAAAGTCCAGGTCATGAAGAGTCATCTCCACAAGATCTGGATGTGGTTCTCTCAAGGAGGCAAACTGTAAGCTAAAACAGATAAATGTCTGCCCCTCCAACTCTGAATCTATAGGAGTAGAGCCGGGAAAATTAACCGTGGTTAAAACT
1 AGCACTATTGTAGCACTTACCATATGTATTAAAATATGTATTTGTGGCTGGGCGCGGTGGCTCACGCCTGTAATCCCAGCATTTTGGGAGGCCGAGGTGGGCGAATCACGAGGTCAGGAGATTGAGACCATCCTGGCTAACATGGTGAAACCCTGTCTCTACTAAAAATACAAAAAAATTAGCCGGGCGTGGTGGTGGGCACCTGTAGTCCCAGCTACTTGGGAGGCTGAGGCAGGAGAATGGTGTGAACCCGGGAGGAAGAGCTTGCAGTAAGCCAAGATTGCCCCCC
1 CTGTCTTCCACAATGGTTGAACTAATTTGCACTCCCACCAACAGTGTAAAACTATTCCTATTTCTCTACATCCTCTCCAGCATCTGTTGTTTCCTGACTTTTTAATGATCACCATTCTAACTGGTGTGAGATGATATCTCATTGTGGTTTTGATTTGCATTTCTCTAATGATCAGTGACGATGAGTTTTTTTCATGTTTGTTGGCTGCATAAATGTCTTGAGAAGTGTCTGTTCATATCCTTTGCACACTTTCTGATGG
1 TTCAGCAGACTTATCAGATGTTGGTAATAAGCTGTTTCTCATGGCATGTGTGGTTTGTGCACTCATACCACATACATGTGTCAGTGGGAATACTTCAATTAGAAGTTTTAAGAAGTGATATCTGTACATGAAGGAAACTGGAAAAATAGGATGGGGGAAAGTTATGAATAAAAACCACTCATGCAGTTCGGCCCCAGAGATTGCTAGCATGTGGAAAGTTGTGTGTATGTGTATACAAATATGTTCATA
0.7805545818456763 CTTTTGCTGTAGGAGTATCTGGAGTTCGGAGATGGTGGAAGACAGGGGTACAATGTCAGAGCTGTGAGATGCTGAGTCAACGCCTGAATCCAAGGTTTCCACCTCCCCAGGTTTCCAAAAGCGGATATAAGAGGGTTCTGTACTCACCGGTTTTGGAGCTTGGTTCAGTGGGTGAAGGCCAACTATTTGAAGGGTTTCCTAGAACATGAGACAGGAGAGAGGTGAGGAAATGAGGGTGTCTGTCCTCTACTCAGTGGAAATCTTTGAGGATGGTTCATGGCCAACACTCTGTTATCTAATATTGGGCCCTGGGAGTCCTGGGATCCTTTTTTCCATAATTTTTTTATGTGACGCCCACTGTCTTGAGACTTCAAGGTATAAAGAGAAAACAGGAGCATCACACT
1 TAAACCACAGCCCTATTGCATAATATTCTGGATTCAACCCTGAGTGATACAAGAATCAAATGAAATCATGGATCTAAAGCAATTAGGACAGCATCAGGCACATAAATTATTAGTTATTTTGTTATCATTATCATTGCTTTCATTGCTATTAATGCCACAGGACTTAGAGACCCTGCTTGTCTGATTGCCTCATTCTGCAGAGGAGTAAACTGAGATTCTGCCAGGTGAAATGACTTGCCCAGGGTCATGCAGCTCAATTGTGACCCAGCCAGCATCAGGACTCAGGCCTTCTGATTGCCAGTCTCACCCTTTTTCACAGACTATACCCTGCTGCACAAATGAGCC
0.9048030718627302 CAACCATGACCCAAGGGATCCCTGATATGTCATCATGTTACTGCTAAAAGGCAAATGGTAGTTAATTCTCTCTCAAGTCACTGTTGGTGAGTCAAGAGGGGAAGAGCATAAACTGACTCAGATGGAAAGTATTTATGGAACAGAACATAAAACACTTCACAGCCCCACACTGTACTGTCTTCAGCCCTCAGAATGTGTTGCAGCCAGGAGGTCTCTCAGAATATTTCAAAGTAGTTCTCAGGGGTAGGCGGGAAGGGGATTATTGAAGGTTCTTCTTTTCCCATCATTTGAATTTTGCTGCTGTTTGCTTTTCATTTCGTCTGGCAGTTGCACTGTTTATGTGTGTTGATTGAGATGGTGAAGGCCAGGGAGT
1 ATTTCTGACTTAATTTCTCTGAGGAGTATCTCGGGAATTTACCTCTTTGACAAGGCCCCAGATGATTCTGTTAGAGGTGGTCTGATCAGTGAACCACACTTTGAGAAACACTACAGGACCATCTTTTAGCCTGACTGCATTAATTAGTACTTTATGCTCAAACAACAGGCATATATTAGCTCATGTTTTATTGTGGGTTGGCAATTGGAACTGCATTCAGCTGAATGGTCCTTTCACTGGTATTGCCTGAGCTTGCTCTTGAAGCTCCAAGTAGCTGGTGGCTCAG
1 AATTTATGGTGTGAATTGGGACAAACCATTTCACCTTTCTGAGTCTCGGGTTCTTCACACGTGGAACAGTGGAAGCTTTATCAGAAGGTTTCTAAGGCCTTTCCAGGCTCTGACACCTATGATTTTATGAATTAGAATTTGCATTAAGGTTCTTCAGTCGCCAGTGACAGAAATCCAGTTGCAACCAGTTTAATTTTAAAAGTGGCATTTATTGGTTTAGGT
0.7496104436037642 CTTAGCTGGGCTCCCATCAGGGAATGCAGGGAGCCACCCGGTCAGATGACAGGACTCAGCTGCTCCTGGTTGAGGAAATAAATAGGAATTCTCCACTCTCCTCCAGGAGAATTTATATTCAACTGTTATTGACAGTTCTTAACATGTAATGCCTTGATATCAATTGTATAAAAAGATTCCTGTCGAGGCAGCATCCTCCTTCAGGCAGTCTTTGAGAAATGACACTGATCCCTCCTTTCTTGGCTCATCATTTGGCCACATGAATAAACTCAAATATAATGAGAACTGCCCTGAAGAGATGTGTGCCTTGTATTACTAGGTTGGTGCAAATGTAATCGATTACTTTTGCACCAACCTAATATTTTCTGTTCAAAATTGTGAGCCCCTGGGAAGGCTGCGTGGTGCCTTCCGTGCCTCTTGCCTGTGAGGAAAAATTGCCGAATAACCTTGGACTCA
1 ATTTGTTGTTGACTTCTGAGAGATACTGCTTCATCAGGTTAAGGAAGCTGCCTTTTATCCCAAGATTACTGAGTATTTTTCTATCATGATTGAATATGTTATTTTATTAAATGCTTTAAAAAATTCTGTCATTTTTAAGATCATCTTAAGACAATCACCTTAGGTAAAGAGTTGGCCTAGTTTTCAATTAGACATCCACACTTTTTTCAGCATTTATAACCTCTTCTATTTTCATTTGT
0.9059825520756877 TATCATGTCCTTTGAAGGACTATGGATGCAGCTGGAGGCCATTAACCTTGGCAAACTAACATAGGAATAGAAAAGCCAAATACCACATGTTCTCACTTACAAATGGGAGCTAAATGATGGAATACATGGACACCTACAGGGCAACAACACACATTGGGGCTTACCAGAGGATGGAGAGTGGGAGCTGAGAAAGGATTGAGAAATGTGGCTAACAGCTACTAGGCTTAATACCTGGGTGGTGAAATAGTCTGTACAACAAACCCCCAATGACTCAAGTTTACCTATGTAACAAAACTGCAC
1 AGCCCTTCACAAGGCTCAACTATACAGAGGACACAAAACCAATAACACTAAACAGCATTAGAAAGACTGTTTACAAAGCACTGTTGAATTTCTGATAGAAACAGGTATCCACGGAAATCAGTGTAGAGGCTTCTTGCGAAACAGGAAACAACAGTCAAGTAAAAAGACTAGAGGGCCAGGCGCAGTGGCTCATGCCCGTAATCCCAACACTTTGGGAGGCTGAGGCAGGAGGACTGCTTGAGCCTAGGAGTTTGAGACCAGCCTGGGCAACATAGCGAGACCTCATCTCTACAAATAATTTTTTAAAACTACCTAGGCAGGCCAGGCGCAGTGGCTCACACCTGTAAT
0.5622524981993988 TATTCACAATAGCAAAGACTTGGAACCAACCCAAATGCCCATCGATGATAGACTGGATAAAGAAAATATGGCACATATATATCATGGAATACTAAGCAGCCATAAAAAAAGGATGAGTTCATGTCCTTTGCAGGGACATGGATGAAGCTGGAACCATCATCCTCAGCAAACTAACAGAACAGAAAACCAGAAACTGCATGTTCTCACTCATAAGTAGGAGTTGAACAATGAGAACATATGGACACAGGGAGGGGAACATCACACACCAGGGTGAGGGGCTAGCGGAGGGACAGCATTAGGAGAAATAC
1 GCTAGTTTTTGCCTTTTCTTTCCTCAAAATTATATTGCCTTCCTTTTTATTAAGAAAAGAATAGCTCTAAGAATTCCCACGAGTCACACAACTAAATACCAGAGGTGAGGAGTCTGTGTTCCTCTGGGAGGCCAACACATGGGGAGAGGTGTTAGAGTCCATTGCCCCAACATACTCAAGGGCATTACTCCTCCATTCTCTTTTCATTTTTTCATATCAAGTTGTTGTTTCTACTGTATCATTTTCATCAGCATATAAACATATCGTTATTTTGCTCATTTTAGAATGAAAGTCATTTATCATGTCTCTGCT
0.9232912922262589 TCAAAGTTCCAAAAATCTCTAAGGCAGGGTCAAAATGCTGCCAGTCTCTTTGCTAAAGCATACATAGCAGGAGTCACCTTTGCTCCAGTTCCCAACAAATTTTTTGTCTCCATCTGAGACCAACTCAGCCTGGATTTCATTGTCCATATCATTATTAGCGTTTTGGTCAAAGCCATTCAACAAGTCTCTAGGAATTTCCAAACTTTCCCACGTTTTCCTGTCTTCT
1 TGCTCTACAAATATTTATTGTGTAAATAAATGTATAAGCAAATCATTGTAGTATGAATAATTTTCACAATTGATCTCTGCTTTGTGTTTTTACACCTATATTTCCTTTATATCCATGAACTTGGGCTTTTTTGTTAAATTAAAACGTGAGAAAATTGACATATTAAGATAAATGATTTGTAAACACAATTTATAATATCTCAGGTCATTAGATGCTACATTTAGGATCCATAATTAAAACTGCTAAATGTAGTTTTTATACAACTTTG
1 GACTCTACTGAGAGTATCATACAATATATGGGATATGCATTTGTTATTTTCTAAAATATGAAATTATTTCGAATTCCAAAACATATCTGGCTTCAAAGGTTTCAGAAAGAGATGGTAGGCCAGTGATAAAATAGGGGAAATGATATGTAAATAAAAGAAACAAAGAGATTAAATTAATTAGAAATACTAAAAGAATGGAAAAAAGAAAAAAAAGATCCAGTAGAAGGATAATTGATGCTTTTGAAATGAGGCAAACAAAAGCAATAGAAGTATATTTAAAGACCTAATAAAAAAATTTCT
0.853000416439618 CTGCCCATTTGCTTTCATTTTCAGTATTCTAGAGCCCCTCATGAATGTTTGATAAAATAATTCATATAGAAATACATATATTTCTTTTTTCCTGGATACAAACATGGAAACAGCTTAAGATTTGGAAATTCTAGACAAGGTTGCCAGGCTAAAGAAATGTCTTCTCAGCAAGAAAATTTAGAATGTTCTTGTAATTGGGCCTGGTGCGATGGCTCCTGCCTGTAATCCAAGCACTCTGGGAGGCCTACCTAGGCAGGTGGATTGCTTAAACCTAG
1 TCCATTTGGGACCATCTCCATCACTCCTGAAGAGTTTTGGGCCAGAGGATATGTTGATGCTTATGCTGCTTGCTGTACCATGAATTAAAAAGTCCCTTGTCTTTGACCCAGGAGTCTCAGGTCTTCTGAAATTTTAGTAAGCTAACTTGTCAACTTGTAAGTAGAGTAAATCTCAGACCATATAGAATTTTTGACATCTACTGAAATTAAAAACCCATTTTTACTGCAGTATC
0.7138186877967658 TAGATTAAATGCATCAGTTCTTTACTAGTTGGTGTTTCCTAAGGATAAAGATACTCTCTTACATAGTCATGCTGATTTCAGATCCTTTGGAGATACACCCAGTAGTGGAATTGCTGGATCATATGGTAGTTCTATTTTTAACTTTCCGAGGAACCTCCATACTGTTTTCTGTAATAGCTGTACTAATTCACACTCCCACCAGCAGTGTACAAGGGTTTCCTTTTCTCCACATCCTCGCCAGTATTCGTTACCTT
1 TGGGTCCAGGTGAAGAAATGAACAAGGCCAAGAAAATTTTAAGCAAGGGTATGACAAGTTCAGATTTGCATTTTAGAAAAATCGCTTATACACAAATATAAAATCATCTTGACTGAAACATAGAAAAAGATAGTCATCTTCAATGAGAAGCCCAAAAATCATCAAAAAAAAAAAAAAAATCTCAAGGTACTTTGAAAGAGCATTAGCTAGCAGGGCGCAGTGGCTCATGCCTGTAGTCCCAGCACTTTGGGAGGCCAAGACAGGTGGATCACAAGGTCAGG
1 GTTCAGAGGAATAGATATGGAACAGAGAGATGTAAATTGTATCTTTGTTATTGCTTTATCTATTCCTAGTTTATTATTTTATCATTTGTACTGGCCTGATAAAATTTTCATTTAATTGGGTATCTATTTAGAGAATTACTGCCATCTATCATATAGTACTCTGCTGGAGAAAAAAAAATCCATACCTAACTGTTACTAAAAATGAGACAGCATATATTACCTTTCAAAATATTTTGAGGGAAACAA
1 ACCAGCAAACACATTAGGTAGCCAATGTTGCACCTTGGGGTGTCAACATAAAACTCAGGGAGCCAATGTCTATACCTTCGGGTATCAACATAAAACTTACAAACCTGATACATTGAGTCTTTTGCCCATTCAACTCTAGAACACTGGATACTTGAAACATGACATTATTTTCTCAATGGATAAGAGAGTAATTTTCCATCCAGAAAACCATTTGAGAACATGAAGGCTGCAAAAGTGCAAGACATTTGATAACTTATTAGAAGGACCTCATGCTGTTTATCATTCCAGTGCTGAAGCTTTAACCATGAAGAAAAAGCAAAGTTTACTTACGCTGGCAATATCTCCATCTTTTCTTTGATAAATACCTCTCGCAAGAAAC
0.8315168540582567 TTTATTCATTTGTGTATGTTGAAGCAGCCTTGCATCCCAAGTATGAAGCCAACTTGAACCTGGTGGATAAGCTTTTTGATATGCTGCTGGATTTGGTTTGCCAGTATTTTGTTGAGGATTTTTGGATTGATGTTCATCAGGGATATTGGTCTAAAATTCTCTTTTATTGTTGTGTCTTTGCCAGGCGTTGGTATCAGGATGATGTTGGCCTCATAAAATGAGTTAGAGAGGAT
0.9961262337656889 AAATTGTTTAGAACAGTATCTGAGATGTAGTCAATTCTTACGCAGATTTACTTCACTGAATTTTCACAACAGTCTTGTGATTTGGGTACTATTATTCTACTTTTTATATTCCAAAACCCAGGCACAGAGAAATGAAATGACTTTGCCAAGATCGCACAGCAAATAAGCAGGGGAAGCCAGGGCTCACATCAGGCCCCTGCTTTGGGGCTGTGCTTTTAACCCTTGCTATCCCCTCCCTGTAGATAAGTGACTCATCCAATGATC
0.629846955404429 CACAGAGAGAGCGAAGTGCCCAAAGAAAAGATGGCTGATGAGCAGGGAGACATGGATCTACAGATCAGCCCAGATAGGAAAACCTCCACTGACTTCTCTGAGGTCATTAAGCAAGAGTTGGAAGACAATGACAAATACCAACAATTCCGCCTGAGTGAGGAGACAGAAAAGGCACAGCTTCACTTAGACCAAGTACTCACTAGTCCTTTCAACACAACATTTCCACTC
1 GATATTCTAAAATATCTATCATAGCCAAGCAAAGGCAGCCTAAGCTTGTCTAAAAAAAATATATGGATGCCAAAATTATGAAACTGGGAAAAAATGAGTTGTGCGTATTCTGTTCTTGCAATCCAGCTAAAGGTCAATGTCATTGATAGTATTTTAGGAGCTAGATTATCCTGAAATAAATATGTGTCTATCGACTGGTAGGCTTCTCAATAAATGTAATAGATTTTTATCATGCAGAGAAAAATAATTAGCCTTGTTACTTTCCGCTGAGGTAGCATGAA
1 CACATGCTTGGATAACATTCCAATGTTGAGGTTAAGTTTTAGTATTTATAATTTAAATGGACTGTTAGTCATTTTTAAAATTTTGAATTATTCATTGCCTTGGATAAATCAACAAATTGGTCAATGAGAAAGGCTCCTTTAGAGTTTTTCAAAGTTTCCAAAGTGGGTCTATGGAAGTAGGCTTCAGAAAATATTTTTTAAATTGAAAAAAACAGCATTAAAGTCAAGTTAAAAAAAAGGAAG
0.9779928141683615 AGTTGAATGCCTCTCCCATCCCAAGCTTTTGTCCTGCAAATTTTATAGTGTTTGGTTTAGTGACTTTCCTAAGAGACATAGTCTGAATCAATGGACCTGATTCAGGAATCTCAGATCTCTGAGGTCAGAAAGTCCTGACTGACCTAGCCTTCCCAGACCTTGGATTTCAAGCTTCTAACTCAGGACCATATCTCATTTGACTCTTTTACCTATAAGGCCCCTTCTTTCCTAGATCACTGCATTATTTTTCCAAGTTAAAGAAGTTGCTAAAGGCATGGGTTCATGAAGCTGCGGTCAAGACTTGATCCTCAAATGGATACATTAGCTTCCCTCTGTGCCATGGGCACAAAAGC
1 AGACCAATAACCCAAGGGGTAAAACATATATATTTGGTCCCTGGAGAGAATTTAGACTGTGATCCAGATGTATCTGTACTCCTCTTACCATAACCAAATTTTGCTTTCTACTATACTACCAGACTGTTTGCCCCCATTCCTTTTCACTGCACATATATTTGTTGAGCTCCTACTTTTGGTCAGGTGTGGAGAGAAAAAGCCCACAGTCCCTGCCCTTGAGGAACACATAATCCAAAAAAAAATGCATGGGTGGCTCCAGGTGTTGTAGGGTCTTAGGCAAGTATAATTTTGGACATGCATTTTAAGAAAAAGAATACAAAATTACAAATGCAGAATTACTAATAAAAGTGAATATTTATTGTATAGAGAAAAT
0.94865159733227 AACACTCTTTTTGTAGAATCAGCAGTTGGATATTTAGAGCGCTTTGAGGCCTATGGTGGAAAAGGAAATATCTTCACATAAAAACTAGACAGAAGCATTCTGAGAAACTTTTTTGTGATGTGTGCATTCAACTCACCGAGTTGAACAGTCTTTTTATTGAGCAGTTAGGATACATTCTTTTCGTACCATCTTCAAATTTGTATTTGGACAGCTTTGAGGCCTATAGTGGAAAAGGAAATATCTGCACATAAAAATTAGACAGAAGCATTCGGAGAAACTTCTTTGTGA
0.4248836521626343 CCCTTCGTGTCTCTACTGTCTTTTCTCTGGGCTTGCCTCCTTCACTATGGGCAAGCTTCCACTTTCCATTCCTCCTTCTTCTCCCTTAGCCTGTGTTCTTAAGAACTTAAAACCTCTTCAACTCTCACCTGACCTAAAATCTAAGTGTCTTATTTTCTTCTGCAATGCCGCTTGACCCCAATACAAACTTAACAATGGCTGTAAATGGCCAGAAAACGGCACTTTCGATT
1 TGCTAGATTATATATATATATATATATACACACACACACACACACATACAATGGAATACTACCCAGCCATAAAAGGAATGAATTAATGGCATTCGCAGCAACCTGTATGATACTAGAGACTATTATTCTAAGTGATGTAACTCAGGAATAGAAAAACCAAACATCGTGTGTTCTCACTCATTAGTGGAAACTAAGCTATGAGGATGCAAAGGCATAGGAATGACT
1 TTCAGTTTGGGGAGGATTATATCATTTTCCCAGGGTCCTTATTGGTGATAAATAGATACCTCATCTCTTCTGAGCAGAAGGTCTTTGAAACTATTTTATAATAAGAATCCACATTCAATTTCCATTGAGTAAAATAAAAGTATTATAATTCAAATTCAACAGTGCATATAAAAATAATATTTTGTATACTTGGTACTGTTTGATGTTTTCCATTAATATATTTGTATTTTTTGACTTCCAGTTTACCCTTTGATTTGAAAAAAAAAAGAAGTATTATCACATTTTTTGAATAAACACTTTTTTATAATTTTATT
1 GCACTGTGCTAAGCAATTTACAGACATCATCTCGTCTGATCCCTTTCAAGAAGTCTATGAAATATGTATTTCCCCTAGTATCTCCGCTTTACAGATGACAAAATTGAGGCTGAAAGGTTAAGCACTTTTCCAAGGTCACACAACTAAGAAGCTGCAATTACACAGGTAATGAAACCCAGATCTACAAGATTTTAAAGCTAAAAGGAGCATTTGGAAATGCAAATGATTTTATGACAATGTCCATTGTTAAG
1 ACAACATTTTGGAAACACTCTTTTTGTAGAATCTGCAAGTGGATATTTGGATAGCTTTGAAGGTTTCGTTGGAAACGGGAATATCTTCATATGAAATCAAGACAGAAGCATTCTCAGAAAGTGCTTTGTGATGTTTGCATTCAAGTCACAGAGTTGAATATTCCCTTTTATAGAGCAGGTTTGAAACACTCTTTCTGCACTACCTGGAAGTGGACATTTGGAGCGCTTTGAGGCCTATGTTGAAAAAGGAAATATCTTCCCATAAAAACTAGACAGAAGCATTCTCAGAAACTTGTTTGTGATGTGTGTATTCAACTAACAGAGATGAACCTTTCTTTTTACAGAGCAGTTTTGAAACACTCTTTTTGTGGAATCTGAAAGTGGATATTT
1 GGAAATGAAAGATACATTTTGGGGATTACAAAATATAGTGGAAAATTTTAACAGTACAGTAAACCAAGTAGAAGAAATAATTCCAAAGCTTGAAGACAAGGCTTTCAGATTAACCTGATCAGACTAAAATAAAGAGAAAAGAATTAAAAGAAGTGAACAAAGTGTACAAAAAATGTGAGACTATGTAAAATGTCCAAACCTAAGAATCATAGGTCTTCCTGAAGG
0.7165290641882626 TCTCCTTTTTAAGGGTCTAATAATCCAGTGGAAAAAAGAAGTTTTCACACAAATAATTATAACAACAATATACAGCACGTGCTATATAAGTGATACAATCAACATGCTGTAAAAAATTCAGATGAAGAAGCACCCAATTTCTGGCTGGGATAATTAGAAGGGGAAAAAACTTCTCAGAGGAAGTAGCATTTGTACTGGTTTGATGGATGGATAGGACTTCAACATGTGGGTGGGAAGGTTTGGGAGAATAGTCCTGGCAGACCAAGCGAACGTACAAGCAAGGGAGATGCAAATACAAATAGGTTGACTTTGGCCAAAGTAAAGGATGTGTGGGGAGAAACTAGGCAGAAAGGGCCAAAGCACAAAGGTTGGATACATTTGATGATGAAAAGAAAAAAGAATGGATGGAGGCCAGGCACGTTGGCTCATGCCTGTAATCCCAGCACCTTGGGAGGCTGAGACAGGCAGATCACTTGAGGTCAGGAGTTTGAGACCAGCCTGGTCAACATAGTGCAACCTTATCTCTACTAAAAATACAAAAATTAGCCGGGCATGGCGGTGGGTGCCTATAATCCCAGCTACTCGGGAGGCTTGAGCCTGGGAGGCAGAGGTTGCGGTGAGCCAAAATTGTGCCACTGCATTCCAGCCTGAGTGACAGAGCAAGAATCCATCTCAAAAAAGGAAAAAAAAAAAGA
1 ATTCCTAGGTATTTTATTCTCTTTGAAGCAATTGTGAATGGGAGTTCACTCATGATTTGGCTCTCTGTTTGTCTGTTGTTGGTGTATAAGAATGCTTGTGATTTTTGTACGTTGATTTTGTATCCTGAGACTTTGCTGAAGTTGCTTGTCAGCTTGAGGAGATTTTGGGCTGAGACAATGGGGTTTTCTAGATATACAATAATGTCATCTGCAAACAGGGACAATTTGACTTCCTCTTTTCCTAATTGAATACCTTT
0.7146288396160836 ATGACCCCAAAAGCTGGTACCCTGCCGGGGGGCAGAGGCAGGCTGTGTGTTTGCCGCACTCTCTCCAGGCCTGAGAGCTGTGGGTTTGCATGAGCAGGCCTATGTGGAGGACCAGGAAGGGCCAGGGCAAGGCCAGACAGAAGCAAGCTACAGAGCCACGAGGGGTGGGGGCCGTTGTGCCCCACCCAAGGGCCCTTGTTCCTTCACCAGGTCCTGCTCATCCTGGAGCCCCCCCCTCAGCTGCCTCCACACTCCTGCCATTTGCAGTATCCCACACAGGTGACAGCAAGAGCAGGC
0.5715706260740782 CTGAATGCTTTTAACAACACCCAAGTCACCTCTTGAATGCTTTGCTGCTTAGAAATTTCTTCGCCAGATACTCTAAATCATCTCTCTCAAGTTCAGAGTTCCACAAATCTCAAGGGTGGAGGAAAAATGCCACCAGTCTCTTTGCTAAAACATGACAAGAGGCACCTTTGCTCCAGTTCACAACAAGTTCCTCATCTCCATCTGAGACCTGAAGGCAAGGAGGAGCAAGTCCCGTCTTACAAGGATGGCAGCAGGCAAAGACAGAATGAAGAAGATGCAAAAGCAGAAACCCTTGATAAAACCATAAG
1 GAACAAAGTATTGGAAACAGGAGGAAGAGCCATTCTTGTTGAAAATTGACAAAGAACTTGGCTGAATTGCATCCATGTACTGGTATATTGTAGAAGGTAGTACTTAAGAGCTATGAACTAGGATATTTGGCAGAAGAAATTTCTAAGCAAAGTATTCGGAATGCTGCGTGGCTTCTCTGGACTGCTTGTAGTAAAATGAGAGAAGACAGAAAAAAATCAAAGATGGAATTCATAACCAAAAGGAAAGCAGAACTTGAAAATTTGGAAAATTCTCATTTTAACCATGTAAAGAAATAAAAACTGTAAGAACACCAGGGGTGTGGCCAAGAGAATGTTTGCTAAGGAGATCAGTATAAATAGAAGAATCCAGATGCCATTAATCAAAACAATGGAAGAATGACCCATAAGGCATTTCAGA
0.8415013686290516 TAAATCAGAGCTGTTGTAGGATCTTCTTAGGTCTGCTAGGCTCGCCTGCACCTCTCATTCTCCCACCTAGTCTCTCAGCTGCATCCTGGCTTTTTTTTCCCAATGCTCTTGGGGAAGGAAATTTGGGTGGGGGAAAAGAGCTTACAGGTAATGGCTAATTGAAGAGTTGGGGATTTTCTCAGAATTTTAATTATCTCTGCTACTTAATTAGCTCCTTGAGGCCATGGATAGCTGGAGGTGGCTCTGTAGAGGGTGCGATTTGACTCATCCAGGTCAGCTCCCTTTCTCTCTGTTTCTTCAT
0.8645498772395226 AACAGAGTACCACAGATGGAGTAATTCATAATGAACAGAAATTCGTTGGCTCACAATTCTAGAGGATGGGAATTCCAAGATTGAAGGGCCGGCATCCTTTAAGGGCCTTCCTGCAGTATAATCCCATGGCAAAAGGGCAAGTGAGGGCAAGAGAGAGAGAGCAAGAAGAAACCAAGTTTGTCCTTTTATAAGGAACCCACTCCCATGATAAAGAGCTTGCTCCCACAATAAGAAACTCACTTCCACAATAACAACATTAATCTATTCATTACCTTTCATGGT
1 GGAAGACAAAGGAAAACAAACAACCACAGCTGTTCTGATCAGATAAGAGGCTTTCCTTTCCTAAGTTTTCGGCACCTGTTGGCCCCTATTACCACTGTTGTGGCTACCACCAATCTGCTGAAGAATGCCTGGGGGCTACAGCAGGAGAGAGAGAAAAGAAAGAAAAAATAAATAAATGGGAATTGCCTCACTCTGATCATTAGGAGACTCCTTTGCTGTTCCTTATAACAAAAGGGATTCTCCTAGGGCTCTCCCTTTCTGTGCCCTGGTGCCCATTTCTAGATTTCAGGCTTCCTGAAT
1 AGGCAAAAACCATTATGGGAAAAATAGTAGAAAATTGGCTACTTAAAAGTTAACCACACTTAAGAAAGTCTAGCATGCAAGGTAGTGATTATCCTGGAGCATTCAAAAGGCATTTGGGTCTCATTTACGAGGGGTTTTCTGCAGACCTCAGTTTCTTAAATTTTAGTCAATATATTTTTAAAGTAGGCATAATTTATCACACGCTTTTGCAGCTTTACTCTTTATAACTCTAAGAAACTGTAGAAAATGTTTTCTTTCCCTGTCTCCTACATGTTTGAAGATGAAATTGAAAATTCAGCCAATAAAACTGTGCTAAAAAGTTTGA
0.7756834829131777 GCACCCTAAACACCAAACAAACAATGAAGGACCAAGCGGGAGATGCTGGCTGGCACCCTGACTGCGTGCTTCTGGCGTGCCCATTAGGAGAGAGGAGAGCAGAGGATCGTGCAAAGACACTTTTTTATCACTGGGGGAACCATGCATTCACTGAGAAATGAGTTGTTCTTCCAGAATTCTGTCCTTGTGACAGGTAACATAACTGTCATGTGAGTAACAGACTTCATCTTGGCAGATGTGACACCACATGGGAGCCCAC
1 TTTTTGTCTTTCAGTGCCTGGCTTATCTCATTTAGCATATTGTCTGTCCTCCAGATTCATCTACGTTATCACAAATGACAGGATTTCCCTCTCATAAGGCTGAATAGTATTCCATTGTGTGTTTGTACCACATTTTCTTTATCTGTTCATTGGTTGATGAACACATAAGTTGATCCCATAACTTGGCTGTTGTGAATAATGTTGTAGTAAACACAGGAATGGAGATAGTTCTTTGATATACTTTTTTTCATATTCCTTGGATATATACCCAGAAG
0.4812712794632949 CCATCTCAGTCTCCTGAGTAGCTGGGACTACAGGCATGCATCACCACATCCAGCTAATTATTTTCTGTAGAGATGGGGTTTTGCCATGTTGCCCAGGCTGGTCTCAAACTCCTGGACTCAAGTGATCATCCCACCTCAGCCTTCCAAGGTGCTGGGATGACAGGCCTGAGCCACCATGCCCAGCCTTCTCTTTCAATCGCATTGTCTGGCTAGCAGTAAATCAGTCTTCTGTATACTCAATATAATCTGT
1 CTCCGTGCAGTAGAGGAAAAACAAACAAGAACTGAAAGAAATGGAAGGTGAAATGTCAAGTACCTAAGGCATTCCAGTCTAACCTTGAGCAGAGGCCAGCTACTGAACGCAGAAGGTAATAAGACAAATTCCAGAGTGTGTTTTTATAATGGGATGGCTTGCAAGCCATGCTGACAGCGGGCTATACTCTCACAGCTCTATTTATTTATAGCTCCCCCTCCACCCAAATGCTACAGAACAACAAGTATTCTGACAAGTTGGAATGC
0.3179054894285972 CATTTGCCACCATGCCCAGCTAATTTTTGTATTTTTAGTAGAGAGGGGTGATCCGCCCACCTCAGCTTCCTAAAGTGCCGGTATTAAAGGAGTGAGCCGCCATGCCCAGCCCATTTAATATATTTTTAATCACTCAGATTAGATGATAAGTTTCTTGGAGGAAAAATCAACTTACCTGGGTATTCCTTAAAAATGCCCACTGCTGTGGCCGGGCACAGTGGCTCACCCCTGTAATCCCAGCACTTTA
1 TGTACTATCTGGAAGTGGACATTTGGAGCGCTTTCAGGTCTACGGTGAAAAAGGAGATATCTTCCAATAAAAACTAGATAGAAGCAATGTCAGAACTTTTTTCATGATGTATCTACTCAGCACACAGAGTTGAACCTTTCTTTTGAGAGAGCAGTTTTGAAACACTCTTTTTGTGGAATATGCAAGTGGGTATTAGGCCAGCTTGGAGGATTTCGTTGGAAACGGGAATACGTATAAAAAGCAGACAGCAGCATTGTCAGAAACTACTTTGTGATGTTTGCATTCAAGTCACAGAATTGAACACTCCCTTTCACAGAGCAGGTTTGAAACACTCTTTTTGTAGTGT
1 TCCCAAAAGAATCTATCATAACATCTAAATATGTTTTTAAAATAATAAAAATTTAAATTTATTGCACTTAAAATATTCAGATCCCATGAAATAAGTGGAAGAGATTTCTCTGAAGAGAGCCTTGCAAGGGGGCTGTGGTGAATTTAACATGACTCTGCCAGAGACACTAAAATGTTTAAATAAATTGAATTGCCGGTTAACTAAAGAGGGCTCAAGGCTAATATGGCATCAAGCTTATAGTATTATCCTTATTTCTCTTGCCTTCATTTGGATCTATGTGACATCTTTCTCGTGT
0.6506263975496943 CATTTCAAACCTAATTCTTTCTCTTAGAAGCAAACTTGTCCCACAGTCCTCTATGCATCAGAAGATTTCAAGCCTCCAAGTGGCTTCTGCTGTGTTATTCAGGGACATTCTATCCATGGGGAGTGCTCCAGTCTGAAGCACTTCCTACCACAAAATGCCCCCACATCAAGTGCCTTCTCCAACACCACACGGAGAGGGGCTTCATCTCATTTTGGAAAGCAGTTGTAAGTGTTCCCACATTTGAATGCTTCAGACCTTGCAAGAGACAATTTGTCTGCCATGGAGAGAGAGAAACTCAGGAAGGACAAGTCATTCACTCACCGACAGTTACTAAGAACATTGCCAAAAAGACAGCCTGGGAACCTTCATTCTTAGTCCAGAGCTCTTTTCACTCTAACAAGCCTGCTCCCATCGCAGCCTCCTTCCTGTCCTTTAAAACT
0.8374434492297502 AGCCTGGGCAACTGAGCAAGATCCTGTCTCTACAAAAAAAATTTTAAAATAACCAGGCATGGTGGCACATGCCTGTAGTCCCAGCTACTTAGGAGGCTGAGGATGGAGGATCACTTCAGCCTAGTAGGTCAAGGCTGCAGTGAGCCATGACTGTGCCACTGCAAGCAAAAGTTCTTTGGAGTTGTCAATAAATATGAATGTGAAGACACCAAAATGTTTGAGAAACTGTTGCTACATAGCAATAAGCAAGAACACACTACACCTACATACAAGAATAAATGAGTCTCACAAATATATTATATATGAAAAGCCAGTCACACCTATGAAACGTCATAA
1 TGTTATGAATTTGTAATTTTTACTAACATGAATTTTGTATGTTTTCCTAAAAGTTTCTCACTTTTTTTCCCAATTCTCTTGGCCTAGAATCAGTGATACCCAGTAGCAATGAGCGCACCCAGCACCTGGTTCTTGTTTTCTAAATACCATTCTTCAGTAAAAGGAAACAGAGCCCCTGGGAGGGGTGGCTGATTCTAAGATTGGAGCAGGGAGAATAGCAGATGAGTCTGGAGCATAATTGTATTGGCAGAAGTTAAGGAAGTACTTAAGAG
0.8845342807360759 ACGGTAGACAACGAAATATCTTCATGTAAAAACTACGAAGAATCATTCGCAGAAACCACGTTGTGATCTCTGCATTCAACTCACAGAGTTCAACCTTTCTTCCTATAGAGCAGTTATGAAACAGTCTCTTTCTAGAATTTGCAAGGGTGTATTTAGAGGGCATTGAAGCCTACGGTAGAAAAGGAAATATCTTACCATAAAATCTAGTCAGAAGCATTCTCAGAAA
0.7031421323904234 TCAGTCATTCCTCACCTGAGAGCCCTACCTAACCCTTGACACCTTCTGTCCCTTTTCAGGCCTCCCACCTCCTGCCTTCCTGGCCTAGAGATCAGGAGCAGGCCACTGTCTCTACACTCAGCAATGGCCAACCCTGAGGAAAGCCAGCAGAAACATGGCTCCTAGAACAAGCTGTGAATTTGTTTAAAAATAAAGACTATTCTGGGTGCAGCTGCCACCGTTTGTCATGGCGCCTAAAGAAATAAATGATTTTTTATATATGTAGAGAGAGCAGAGCAAAGCTGTCAGTCTGCTGGTCTGTAGA
1 TTCAGTTATCTCCATCTGGTCCCACACTTGACACATGGGGATTATTACAATGCAAGATGAGATTTGGGAGAGAACACAGAGGCAAACCATATCACAAATTTTAGCAAGTAAGACAGACAAAACTTTAACTTCAAGGAAGAGTAAAACCACAAACCTGCCTGCAACAGAATCTCTAAATAGGTAGCAAAGAGAACCCATACCTTAAAGCTTTAAAGTCGAGCTTTCAATTCCATCCCCATCAAGCATGCAATCAGGTCACTTGAATAAAATCTGAATTCACCTAAGCCGGGGAGAATCGAAACCCACGGGGGGCTTTGCCAAGAACTTTTGCAAACTTCAGCAAAAGTTGGTTGG
0.9490106533402272 TTTTTATTGTTTTTTGTTTTTGTTTTTTGAGATGGAGTCTCGCTCTGTTGCCCAGGCTGGAGTGCAGTGGCATGATCTCAGCTCACTGCAACCTCTGCCTCATGGGTTCAAGCTATTCTCCTGCCTCAGCCTCCCGAGTAGCTGGGACTACAGGCATGCATCAGCATATTCAGCTGATTTTTGTATTTTTAGTAAAGACAGGGTTTTACTGTGTTGGCCAGGCTGGTCTTGA
0.8627378241427318 GACTCCAAAGAGAACATGGTCCCAAGTTGGCCCACATTAGAGGAAGCCAATATGCATGCTGAGGCTCAAAGTTTAGTTTTTACTCAAGGAATGAAATCTGGGAGAGGAAAGGAATTCCAAACAATGTCAGTGAAGAATAATTTTGTGAACTGAACCTACTGAGCCAAGAGAAGGACTTACTTAAGGGATGGAGGTGGATATTTGTGTGTATTTTGTAGGAGAAGTATAAGGATGTTCATGGGTTGGACAGGGGGTCTGTTAGTTGTCCTTCAGGATTACTGTAATTGCTATGGTTCCAAAGGGTAGACCAGAACCTCCTGGCTGAAAACGCTTTAGAA
0.9325155574929617 TGAGGGGCGGATGTGTATCAATATGGAGTGGGGGGCCTTCGGGGACGATGGCTCGCTCAACGACATTCGCACTGAGTTTGACCAGGAGATTGACATGGGCTCACTGAACCCGGGAAAGCAACTGTGAGTAGGCCCTTCCTGTGCGAGTGGGCTTGGCGGGGGCCTGGAGCTGAGTCTGGGGCTGGTCGGGGCCAGGGGGTTGTTTCTTTACAGTCTTACATCCCCAAAGCTTGCCAAGGTGGCCACTGGTCATAGGAATGTCTGTGACTATAAATTGCTGAGAGGATCTAAAACAGAGAGCAAGCGGATATACCAGATTATAGCTAATAATGTGTTTCCTTCACAGGAGTCATTTTGGAAGGTTCTATTCTGAGTGTAAGTGGGTGGCCCTGCTCTTTCTTTCCACC
1 TTGACTAGATGCAAGACATGTGTTTGTATGCCCCCTTTTTCCTCCTCCTTAAGACACTAGGAAACAATATTCCCCTCAACATCTCCAGCAGTGGACCTCAGGGGTAATAACTCATTTGGACAGGGAAACCATCTAGGTATCCAGATTGTTTAGGGTAATCATTGAAAAGGAGAAGCAAATTTTTTTTTTAATCATAGCCCAGTTAACATCACTCAGAGTTTCCTCCATCTCAAGCAGCTCACATCCTTC
1 AACCCAGTAACCTGCGGATGGCCCAAATGTATTCAATCTGTAGTGGCAACAGCTTTGCTAACAGAATAAAGTAGAAAAATAACTTTTAGAGGAAACCTCATTGTGAGCACACCTCACCAGATCAAAACTATCTTAAGTCAAAAAAAAAAAAAAAAAAAAAGCAAAAAGGTAGCTTACTGACTCAAGAACCTTAAAGTATGAGGCTATTCTGTTAGAAAAAGATGACTTAACATTAACCACTGATAATTCCCTTAACCCAGCAGGTTTTCTA
1 AAAACACCAACAATTCACCATAAAAGTTTACCTCCTATTAACCCTCTCCCACCACTGAGAAATAAGAAAAACAAAAAACACCAAACTGGTGTTCAGATTGTAGTGGTATTCTTCCCTAGAATAGAAAGTAGATACTTTAAACATCACATAAATAATACCTTCCCATGGTAGAAATGCTAGAAAAATGAAAAGAAAACAGGAAAAGTATCCATTAATTCCATTGCCCAGAGATAATCACTGCAAGCATTTTAGTATACAGCCGTCTAGATTTACACAGACCCACACACTCCCCAAATATACGCAA
0.9835394319603673 GCGGTGACAGAAATGTTCTTTTTCTTGAGTATGGCTGTGTTTCATGACTGTATACATCTTTCAAAAGTCAAAAAATTATATATATTGAGTAGATACAATTTGTTGCACATAAATTATACCTCAATCAAGTTTAAACAAACAAATAATGCCAGACCAGGAGGCAGGACTTTGAAGCATGAGTTCCTGTTCTGTTCCTGCAGGCCATTTGCAAGTTACTAAACTTTTTGGACTCTAAATTGTCATGGAACAGA
1 CAATTCCCTGACTTCCTTGAAGAGAAACTTCATATCTAATTTAGACCACCTCTGCTCTGTGGCCCCAGGCCGACTTCCCAGGTTACATGAGTGCTCGTCGCACTTTGTTATGATTGTGGAGCGCAGGCACTGGTGTTGCCTCTGCTTTTCCCTCTTTCTCTCTACCCATCGCAGTGTTTAAACAAATGAATGTATAATCAAGTCAGTCTTTTTTTTTTTTTAATTTAA
1 TTTTCAGCTTATTTGGCTAGAGAAAGCAGGTTTTCCTGGGGAAATTTCATTTTCTTCCCCTCTAGGACTTTCTGAGTTACTGCTTCTTCCCACCACCAGTTCTTTATATATGAAGCAAAAAGAAATCCTGGGAATTCACCGCCTTATTGTTCCTCAGGTCCCAAGGTTCCTAGGCAGTTCGCCTTCTCTCTGCTTTTCAAAGTCCTCATGTTTATTTCATGTGTCCAATTTCTAGGGGTTTTAGCTGTATTTAGTAGGAGAAATTGAGAGAAAGAAGT
0.8881005688146247 AGCTTAAGTGTGTAATAGGCTATACCTATTAGTAGGTACCACTCTGTGATGTTTGCACAACAACTAAGTCACCTAGCAATGCATTTCTCTTCAGAATGTATCCTCATGATTAAACAATGCCTGACTGTATGCATTTTTATTATCATCATTTGATAGATGAAGAGAAAAAGGCAAGGAAAAGTCAGACAATTGGCCCAAGATCACCCAGCCAGTAAGTGGTGGATCCAGAATAGCAAATGAGAGAAGACAGGGAGTTAGCAATACTTGAGGGTTGGTGCCCTGTGATTCTTCAGATGAGGGTGGGGTTCAGGATGGGAAGCCATGGACTGCCTCCCACCACCACACAGGAGAGGATGATCTATCTTCCAAAGATACTGTCCCTCTAGCCTGGGG
1 ATAGCTGACAGCCTGCCGTGGGCTGGTCTTTGATAGAAATGCTGCCATTATGTAAGAGGTTACATAAATCATCTTGTGATGTCTGCGTCGCATGTCCACAGAGGCGCTGCCAGGCCACTCTGTCCTCCGCGTGGCCTTTGTTATGTTCCCCGAGCTGGTGTGGTCGGTCGGGCCTAACTCTCCAGGGCAGGGGTGGCTGGGAAGAGTCTGTAGCCCTGGGCTAGC
1 ATGTTCAGAGAAAATAAAAAATCAGGGTGGGTTAGAATAATTGAGTTCAAATGGACCTTGGAATTAGGTTAGTGGAGGAGATAGCATTCCAAATGGAAATAAACAATGCGAATAAGGAAACATGTTAGACATGTATGGAGATTATGAAGTAGCCTTAAATGATAAGATTGGAGGAGTGTGGCTTGAATAGCTGTAGATTTAGGGCAGAAGGTCTGGTTAGGCCGTGGGAGGTCACAATATGGAAGACCTTAAAAGAAAAGATGG
0.8255561335818428 GCTGCAGCATACGAATTTGGAGTAAGGGTCACCGTTCAGTCAATAACCCCTCCATACTGTGAGCCAAAGGCAAGCTCTGGGGCATTGGAACATAGAAACACAGAGAAAGATGCATGTCACACTCATCAAATGAACAGCCCCTACAGGATCTTGAACGCTGCACATCTCAGACGCAGGTTCCTTCTGCACCAGAGCCTTGTAGCATGTGCTCCTGGAGGAGAAAGGCTGTCAGAATCCAGGAAGGCTA
1 ATCAAAGTTTCTGTTTTTAGATAACTTTCATTTTAGATAACCTTGCTTTAAGGAAAGGTCATCATTGCTGTATTTTCTTCCAGTTGACTACCTTTTGGAAGACTAAAGGCATGGCTACAAGCAGAGCCTTTGCAGTTTCACAGGCATGCCTGCAGTCTTCTTCTGAACCTGTACGGAAATCCTCTAGGGGATTTATCTAAAGGGCTCTATCTATCAATCCTTAGCCTTACTTTCTGAA
0.6897167060112493 ACATTATGCAGGACAATCTGCTTTATTCAGTCTACCAATTTAAATGTTAATCTCATCCAGAAATACCCTCCTACAAATACCCAAAATAATGTTTGACCAAACATTTGGGTACCCCATGGCCCAGTCAAGTTGACACATAAAATTAACCATCACAGTGGGCTTTCAACTATCATAGTATATATAATATACTGGCAGAGATAAACTGATTGATTACCTATTGTCAGGCTATTATAGAAATCTATGAGGCTGGATCC
0.7935136582080496 GGTGTTTTAGTCATGAAGTCCTTGCCCATGCCTATGTCCTGAATGGTAGTGCCTAGGTTTTCTTCTAGGGTTTTTATGGTTTTAGGTCTAACATTTAAGTCTTTAATCCATCTTGAATTAATTTTTGTATAGGGTGTAAGGAAGGGATCCAGTTTCAGCTTTCTACATATGGCTAGCCAGTTTTCCCAGCACCATTTATTAAATAGGGAATCTTTTCCCCATTTCTCGTTTTTGTCAGGTTTGTCAAAGATCAGATGGTTGTAGACGTGTGGTATTATTTCTGAGGGCTCTGTTCTGTTCCATTGGTTTATATCTCTGTTTTGGTACCAGTACCATGCTGTTTTGGTTACTGTAGCCTTGTAATATAGTTTGAAGCTAGGTAGCGTGATGCCTCCAGCTTTGTTCT
0.9913593041388178 CCTATAAAAGGAACAACAAAGTCGGGATAGCAGCACTCTGTTTACAGCATGGTTGGTTGAATATTTTAAGCCCACTGTTGAGGCCTACTGCTCAGAAAAAGATTCCTTTCAAAATATTACTGCTCATTGGCAATGCACCTGGTAATCCAAGAGCTCTGATGGAAATGTACAAGGAGATTAATGTTGTTTTCATGACTGCTAACATAATATCCATGTGCAGCCCAGCCCATAGATTAAGGAGTAATTTCAATTTTTGAGTCT
1 CATAAAAGCCATTATAATTATTTGGCTAATCATTATTCACATCACAGTATAAATCAGGGTAAAATAATTATGCTCAACTTGATTGAGCATAGAAGGAAAATAGAAGCTCAGAGAGATTAAGCAACAGCTCGAGGTGACCTGGCAAAGTTAGTGACGGAGATAAGAACTGATCCATCTCCTCAATGAAAACCACAGCATTCACTGACTCACGCTACTTCATCAAGACAACTGAGCATTAGAATGAAAACATTTTGGTGGCTCATGCCTG
1 TTAGTCATGAGTGATTTATTAGGTCCAATTTGAAGAGTTGGCTTCTCAACTTTAGGAGTCTGAGGAAAGGGTATTTTCTATAACACTGCACATCTTTTTTTTTTTGTAATTACATATGTATACCTTTGCTGTTTTAAAATAGACATATGAACATTAAAAATCCCTATAGAATAGGAAAATATACTCTTCTAAACTATTATGACATATACTATGCCAGAGAAGATTACTTCTGTATCAGCCCAAGCCCTGGCAGAGAAGAGAACTGGTGCACTCAAAGTGGGTAATTTGAATGAGTTTAGTGAAAGAACCATTTACAATT
1 TGATTCTCAGAACTGAAACTCAATTCTACTCTTGGCAGGCTTGACTTTCCAGTATAGATCAATCAATGGGGAAGGGGAGGAAGCTTGATGGAATCTTGAGGGTTAACCATGAATCAGACATCTGATCCTTGTGAGGGAAAATGGATAGTTCAAATTGGAGTGTCCAGTATGCATGATGCATTTTTCCTCAATTCCAATGAGTATTTATACTCAAAAGGTTCATAGGTAGGATGTCAGCAA
0.9445400675763037 CAACCTAGCGTTGACAGTTTAAGCCAAAGCAAGCCCCATTCTTTGCTGATAGTTTTTCTAGCAATTGCCTAAGTGGCAGTTGGAAAGAACTTATTGGGAATGTAGCTACAGACACTCTCCCTTCTGGCCTCCCTTGATCTCCTTTCATCCTTTTATGGTAACGCCTAAGGAAAAAATATAACTTCCATCTAATACAAGATGGAAAAAAAAATAGATGTGCATAGATTCCTTCTAACTGAAGGAAATCATTCAGTGAATTATATACATTTCTCTCTCTATATATATATATATTTGTACACACACGTATATATAACCTATTCTCTATCATTTATCTTTCTATCGTTTATCATATAT
0.8565587261587002 TGGCTCACATTTGTGCTCATTACACATCAGACATTTCCATGATATTCAACTCCCTACGGTTTAGATGTGAGAATAGCACATGGAAACAAGGACACTCACACCCAGTTGTGTTTCCCATCCCTGTTTCCTGGCTCATCACTACATGATGAGATGCTTGAGGGAGCTGCTCTTCACACTTAACGCCCAGCACTCAGCGTGTGCCCAGATAGAATGGAGGCATGGATGGTA
1 TTTTAAGTTTGTCTATGTTGAATGCATTAGTTATAAAATTTTAAAAAGTCTTTTTCTTTTTTTTTTTGAGATGGAGTCTCGCTTTGTCGCCCAGGCTGGAGTGCAGTGGCACGATCTCGGCTCACTGCAAGCTCCGCATCCCGGGTTCACGCCATTCCCCAGCCTCAGCCTCCTAAGTAGCTGGTACTACAGGCGCCCGCCACCATGCCCAGCTAATTTTTTTTTTTTTTTTGTATTTTTAGTAGAGATG
0.9840076983331563 TGTCTGTGCAGGGATAGGAAAGAAGATCAGTGGAACAGCACAGAGTGCTCAGAGGCAGACCCATGGACACCTGGGGGATTTAATACGTGACAAAGGTGGCATCATTATTTTCAGAGGAGGAAATACCTAAAACTAACACATTAGTTCATGAAGACACATTTAAAATCATTAGTCATCAGAGAGCTGCAGACTGAAATGACAATGAGACCTCATTGTATCCTTATTAAACTGATGAACTAGAAAGCTAGATGGTACCAATGGGCAGGGACGATATGGGAGCCAGGGAGAGTCTAGACTGCTTCAGCTGCCTGGAGAAAAACACAGTGCTTCTGCTGAGCCAGCAATCTTGCTACTGGTTGTTTATCTTGAAGAAACATTCTTCCAGATCTA
1 GATCATTGCCTTTGGAGTTTGGGAGAGGTACGGGAAGTGGCCTGATCCCTGCTTCCATACTTCACTCCTCCATCCATCCTTCCCTCCCTCTTCCCCTCCAGCTAAATGGACAATTCTAGCCAACATTGAGTCACTCAATAAGTCTCAACAGTGGGTGTGTTTGCTGAGATTGTCCAGCAGTTGAGCAGTTTGGTCTCACCTCCCTCGCTAGTTGAGACCAAAAAGAGACAAATAACTTTTTCATGGTCTTTGAAACATAATGCTTATTTCGTGGTCAATGGCTTTAAAAAAATCTGTTTCTTGTTTTCTTCAACAAACTCACTAGTTTTCCCTTAACTGATATTGTAAAAATTAAAGTAATCTTGAAAATGTTTTGACAAAAGTAAAATTAAAGGGACATCTTTTCTTAAAAAAAAAAATG
1 ACTTTATCATTTACATGTTTCAAGGATGCTATTTTATATAATCTTTAGAGCAACCTGTGAGGTAGGCAAGGCAAGTATTTCTATCTTCATTTTAATGCACAAGAATGTGAAATACAGAGGTGCTTGAAAGTGCTAGAGCTCAAATTCAAACTTTGATATTTTATTTTTTTGGCATTACTGTGCTGCATTATCACATTTGACAGCTGTGCTGCTGTGGCCAAAACACCAAAAGAAATTCTGGGTATCTCCAGAGAGGGAATTTAAATGTGTATCTTTGGGTCTGCAGAGGCTGTGGGACCACCTCT
1 GGACACAGGGCCTTTGTCACCAATGACTGAGCCCGGGTTATTTTAAATTACCATGTACATTGTAGCTCCAAGCGTCTTTCAAAGAATATTCAGGTTTCCCAGGGAAACATTCAAGTTACATAAAGCACAGATGTCCATGCCTTCCCCTCTCTTAAATTAGGTAAAATTGGAGGTCCTGGAGAGATAGGTGTGCTTGAATCTTGTTTCTTAGAATAAGCTCCGAATTGACAAAGCCTCCCATTCTGTTTGCAAAGAC
0.4046944409732674 ACTGCAAATAAAGTTCATTGTTTCCAGGAGAAAGGTGTACACCAACCACTGTTTTTTTTGAGACAAAGTCTCACTTTGTCACCCAGGCTGTAGTGCAGTGGGGCAATCTCAGTTCACTACAACCTGCGCCTCCCAGGTTCAAGCGATTCTCCTGCCTCAGCCTCCTGAGTAGCTGGGATTACAGGCGTGCGCCACCATGTCCAGCTAACTTTTGTATTTTT
1 CTTATGTCATTTAATATTGACTTTAACTCTTGAATAACTTCCTTATTTCAGCATCAATTCTTATCACCACCCTGTATGACTTGAAAATCTACTCAAGATCATCTGACTGCATGGCAGAACTATTTACTAAAATATAGAATGTAGGAGAAAAATAAGGGTAGTAATGAATTTGTACTTCAAGGTCTTATGTGCCATCCAAGTAAAGTGGATCTAGAGCTCAGAAAAAAACCTAAGGAATAAATAATATAAATATTTATAGATAAAGAGATAAGTTTATCTTCCTAGGAATTGAT
0.585712249522138 TAGAGACAGGGTTTCACCACGGTGTCCAGACTGGTTTCAACTTCCTGGGCTCAAGTGATCCACCCACCTCAACCTCCCGAAGTGCTGGCTGGAATTACAGGGGTGAGCCACCATGGCCAGTCTGTTTTTGTACTTCTTTTAAACAAAAATAATAGGTTTTATTTGACATGATGTTAGAGACCCAAAATCATTATTCCTGGTTACATATAGAATTAAATTAAAATATTTTCCTCTTATACCCAACTCTCCACAAT
1 AAATAAATCCAAGAAGATAATTGGTATAATAAAAAGAAAAATAACTAAAAAATAAATAAATGTAATAATTAAATCTACATATCGTTTAAATCAACTCCAAGTCTTTGTAAGAGTTATAAGTTATTTAGGGCCATTTGACATGTAGTTTTTAAACAAGTTACTTATTTCATTTAAGTCTCACAACAGTCAAATAATATACCTATTTTCAGAACATTTTATAGATCCATTCACCCATTCCTCTTTTCAGCAAATGTTCTTGAGTGCCCTTTGTGTA
0.3338371949533351 TTTTTTTTCTTTTTTGAGATGGAGTCTCACTCTGTCATCCAGGCTGGAGTGCAGTGGCACAATCTTCGCTCATTGCAACTTCCGCCTCCTGGATTCAAGCGATTCTCCTGCCTCAGCTTCCCAAGTAGCTGGGATTACAGGTGCCTGCCACCACACTCGGACAGTTTTTGTATTTTTAGTAGGGGTTTCGCCATCTTGGCCAGGCTGTTCTCGAACTCCTGACCTCGAAGATCCCCCTGCCTCGGGCCCCCCAAAGTGCTGGGACTACAGGCGTGAGCCACCGTGCCTGGCCAGCTTTTTCTAACACTAAGCAGCAGCAACTGGCCCCCACCTCCCACCCACAAACCCAAGTCCCCAGGGGCAGCTTCTTAGTATGTATTCTCTGAA
0.5115390093386296 TTCTTCCAACCAAGAACATTGAGTGTTCCCAAGACAAACCAAACCAACCCTCTGTCAGCTGGCATAGCAATAATATTTGTGGGAAGTTTATGAAAAATCTTATCTAAGGGACTGTTTTAGGAATCAAGGCACCATCGAATGACCTCTTTTGTTTCCACTTTAGATGCAGCAGCAGGAGCATGACTCCCTGAAGGCCAGCCTGTGTGTCCTGGCCCTGGGGCTGGGCCGCCTTCTTTGCTGGTGGTGGCTGGCCGAGCTGATGGCTCACCTGATGTACATGCATGCCATCTACAGCAGCATCCCCCTCCTGGAGACT
1 AAATTTCTGGAAATGAAAGACAAGCTTAGAGAAATACAAAATACAATGTAATGTTTCAACAATAGACTAGAAGAAGTAGAAGAAAGAACTTCAGAGCTCAAAGACAAGGCTTTCAAATTAACCTGACCAGCTAAGACACAGCAAAAATAAAAATAAAGACTTCAAAAAATTTGGGATTCTGTTAAACAAACATAAGAATAATTGATGTTTCTGAGGAAGAAGAGAAAGCTAAAAA
0.9074127290178596 AATCTGATCATAAAATGGCAAAATATCTGAATATATATTTCTCAGGAGAAGACATACAAATGGCAAACAGGCATTTGAGAAGGCACTCAACATCATTGATAAACAGAGAAATGCAAATCAAAACTACAATGAGGTATTATCTCCCTCCAGTTAAAATGGCCTCTATCCAAAAGACAGGCAATAACAAATGCTGATGAGGATGTGAAGAAAAGTGAACCCTTGTACGCTATTGGTGGGAATGTAAATTAGTACAATCACTATGGAGGACAGTTTGGAGACTCCTCAAAAAACTGCAAATAGA
0.335992731964056 ACAATAGCAAAGACTTGGAACCAACCCAAATGCCCATTAATGATAGACTGGATAAAGAAAATGTGGCACATACCCACCATGGAATACTATGCAGCCATAACAAAGAATGAGTCCATGTCCTTTGCAGGGACATGGATGAAGCTGGAAGCCGTCATTCTCAGCAAACTGTCACAGGAACAGAAAACCAAATACCGCATGTTCTCACTCAAAAGTAGGAGTTGTTAAACAATGAGAACACATGGATACATGGAGGGGAACGTCACACACCAGGGCCTGTCAGGAAGTGGGAGGCAA
0.8521054531394844 GAAAAAGGAAATATCTTCCCATAAAAACTAGACGGAAGCATTCTCAGAAACTTACTTGTGATGTGTTTGCTCAACTAACAGAATTGAACCATCGTTTTGAAGGAGCAGTTTTGAAACACTGTTTTCGTGGAATCTGCAAGTGGATATTTGGCTAGCTTTGAGGATGTCGTTGGAAACGGGATTACATATAAAAAGGAGACAGCAGCATTCTCAGAAACTTCTTTGTGATGTCTGCATTCAAGTCACAGAGTTGAGCATTCCCTTTCATAGAGCAGGTTGGAAACACTCTTTTTGTAGTATCTGGATGAGGACATTTGGAGCGCTTCCAGGCGTATGGTGAAAAAGGAAATATCTTCCGTAAAAACTAGACAGAAGCATTCTCAGAAATTTATTTGTGATGTGTGCCCTCAACTAACAGAGTTGAACCTTTCTTTTGATAGAGCAGTTTTGAAACACTCTTTTTGTAAAATCTGCAAGAGGATATTTGGATAGCTTTGAGGATTTCGTTCC
1 AGCATTTTCCTTTTAGAACAGAGAAGGAGCGGGGAATGCATCTGACTAGGTACCCAGTCTTGTTTTTGTTTTTCAGAGTTATTCTGGATATTTTTGCTTGCCCATTAATTAAAAAAACCCTGTTCATAATTTTATTGTAATGTCCTGAAATTTAAAGATGAGTGAAAGGAGAATTAGCATATATATATACTTTTTTTTTTTGAGACAGGATCTCACTCTGTTGCCCAGGCTGAGTGCAGTGGCACAATCATGACTGACTGCAGCTTTGCCCTCCCCAACTCAAGCAATCCTCCCGTCTCAGCCTACCAAGTAGCTGGGACTACAGGTACACACCACTACACCTGGCTAACATCTTTAATAAAATTGAGTTTTTCCTACCAGATACACAGTTATTCAATCTATTCAAGAGTCTTTTGTGCTACTCAGTAGTATTT
1 CTCTGTGACTCTTCTATCCTGGTGGAGGTGTACTTAGATACATTTCTTTATTTTCAATTTTTAGGGAAATAGTTATATAACTAGTTAACATATTTGTGTGGAACCAATGTCACATCATCAAAATAAATTCTAAGAGTCCTGGCTTTGATTCTTAAAGATAAATTCAAAGACTCTCTCTTTGTCACTTTTTCACCTTGTCGTCTTCTCTTCACCTATAACTATTTTTTAATAAGTATTGTTTATACT
0.9083723897120866 CTCTCATGAGTGGGATTAGTAACCTTATAAAAGAAGGCCAAGGGAGTTTTTTAGCCCCTTCCAGCATGTGAGAACACAGCAAGAAGCAGTTCTTTCTGTGAACCAGGAAACAAGCTCTCACGAGACACCAAATCTGTTGGCACCTTGATCTTGGACTTCCCAGCTTCCAGAACTGGGTGAAATAAATTTCTGCTATATAAAAGCAGAACGAGTTTAGTGTATTTTGTTA
0.8600111869799365 TTTCAGGGAAAGGGGTGGGCAATTCCTGAACCTGAGGGTTCCTCCCCTTTTTAGACCATAGAGGGTAACTTCCTGACATTGCCATAGCATCTGTAAATGGTCATGGCGCTGGTGGGAGTGTCTTTCAGCATGCTAATGCATTACGGTGCGCGTATAATGAGCAGTAAGGACCACCAGAGGTCACTTCCATCACCATCTTGGTTTTGGTGGGTTCTGGCCAGCTTCTTCATGCATGC
0.8418767107223607 GGGCAAGAACCCCCCACGCCTTCTCCGTGTCTCTAGTCTCTTTTCTCTGGGCTTGCCTCCTTCACTATGGGCAAGATTCCACCTTCCATTCCTCCTTCTTCTCCCTTAGCCTATGTTCTTAAGAACTTAAAACCTCTTCAACTCTCACCTGACCTAAAATCTAAGTGTCTTTTTTCTTCTGCAATGCCACTTGACCCCAATACAAACCTGACAGTTGTTCCAAATAGCCAGAAAACGGCACTTTCAATTGTTCTATCCTACAAGATCTAAATAATTCTTGTTGTCAAATAGGCAAACGGTCTGAGGTGCCTGACGTCCAGGCATTCTTTTACACATCGGTCCCTCCCTAGTCTCTGTTCCCAATGTAACTCATCCCAAATCTTCCTTCTTTCCCTCCCACCAGTCCCCTCAGTCCCAACCCCAAGCTTCACTGAGTCTTTCTAATCTTCCTTTTCTACAGACCCATCTGACCTCTCCTCTCCTCGCCAGGC
0.9524814983109268 AGACCTAGCCTCCCCATTTCTTCCCTGGAGGAATTTTGGTGCTTCCAGTTTTCTCATTCTCCTTCACTCTCTAATCCTTTACCGCTAGGGACATCACTGAGATGGCTCCCCAAATGGCACCAATGGCCTCCTGGGGCCTTGTGCCTGGCTTCCTTCAGCTTCCTCTCTGCAGCACTGGACAGCGACAGCAACCCATTCATTCTCTTTGAGAATTCTTCTTCACGTGAGGAGGCACCCCTG
0.9023729820156892 CTTGCCCTCTGTTCAGTTGCCACTTATTGAACCTTCCTCCAGCATCTGTCTCAAAGCTTCTCTTTGCTGTTTCCCCTCAAACAACCTTGTTCAGAATCCAACATTACCGCACATCTGGGTCATTGCCAGGGCTTCCAAACTGGTTTTCCCACTTCAAAGTGTTCTCTAGTCCAATGCTTCCTGAAATGTCCCTAGATTAACCTTCTTGAAATACAAATGCTTTTGTGCCCCTGACTAA
1 GCTTTATCCATGTCCTTGCAAAGGACATGATCTCATTCTCTTTTTATGGCTCCGTAGTATTCCATGGTGTATACGTGCTACATTTTCTCTATCCAGTCTATCATTTATGGGCATTTGGGTTGATTCCAAGTCTTTGCTATTGTGAATAGTGCTGCAATAAACATACGTGTGCATGTGTCTTTATAGTAGAATGATTTATAGTCCTTTGGGTATATATCCAGTAATGGGATTGCTGGTTCAAATGGTATTTCTTGTTCCAGATCCTTGAGGAATCACCACGCTGTCTTCCACACTGGTTGAACTAATGTACACTCCCACTAACAGTGTAAAAGCATTCCTATTTCTCCGCAGC
0.8347057525674654 AAGAATAAAAGTAGTGGTAGGTGCTGTAGAAAAAGTCAAGGAAATACTTGATTTGGGACTTTGGCAAGTTTTTGGTGGCTTTGAGACTTGTAGGGAAGGAAAGCCAGTAAAGAGTTTAAGAACTGTGCTGCAGGGAAACGTGTGCCAGTGATTCTGCAGGGCAAGGGAAATGCTAAAGCTGTACTTTCACTGTATTCATGTACTGATTTTTCTTAACGTTGATTAT
1 CCATAACTGGCTAGTTTTTGTATTTTTTTTGTATTTTTAGTAGAGATGAGGTTTCATCATGTTGGTCAGGCTGGTCTCAAGCTCCTGACCTCAGATGATCTGCCTGGGTCAGCCTCCCAAAGTGTTGAGATTACAGGAGTAAGCCACCATGCCCAGCCGGAAGCTTTGTTCATTTTTAAAAATTCTTTTGTCTTTGACAGATTGGGTTAATTCAAAAACCTTGTCTTTGAGCTCTGAAGTTCTTTCTTCTGCTTGTTTGATTCTATTGCTGAGACTTTCCGGTACATTTTGCATTTCTCTAAATGTGTTCTTGATTTCCAGAAGTTGTGACTGTTTTTTATTTATGCTATCTATTTCATTAGAGAAATTTCCTTTCATATCCTTTATCAC
0.7108079160833062 GGGTACTGTTAAAGGCATTCAGTTTTATAAGGGAAGCAGAGCACAAGCATTTGGAAAATTTGGAGCCTGACTATGCAATAGAAAAGAAAAACCCATTTTCTGGTGAGAAATTCAAGCCAGCTGCAGAAATTTGCATAAGTAGCAAGGAGCCTAATGTTCATCCCCAAGACCATGGGGAAAATGTCTCTAGACCATGTCAGAGACCTCATGGCAGCCCCTCCCATCACAGGCCTGG
0.8270868927229517 CCTCAACATAACCCTGATATGACAACCACCCCTAGCCCACCCCACGTGCTCACACATTCTCCAATACCATTTAGAGACAGGACTCTGCCTTATTAGTAATAGGACTGGTTATATATAAACATCCCTTGTGTATTCATACTACAAATAGAATGAGTTTAACACACGTAATCCCCAAATATGTCTGTAACTGTTTCCAGTCAGTTTCTATCCAGGCCGTCATCGACTGCGCATAAATAGCTGGCTGGCT
1 AATCCAAAGATGAGTCAAAGTTTATAGACAAAAGGGGGTAGGGTGCTCATTTCGGCAACATGTATACTAAAATTGGAGCAATCCCGGAAAGATTCGCATGGCCCCTGTGCAAGGAGGACTCGTGAAGCGTTTCATATTTCTGCAGAACAATGTGAAGGCATTAAATGGCACTGTACTGTACACTTACAGTGTTTAAACTGGTACAATTTATGTTATGTATGTGATAATATATATCACAATTTTTAAAAAGAGAGAATGGGTGGAGTTGCAAAAGCCCCATTGCAGGCAGAGGGAGC
1 TCCCTGATAATCCCAGCCACAGAATATTTCAAACTCACCGACATGTCCTCTAAATATCAGATATGAAAAGGCTTCCACTCTTGCACCTGTCTTGCTATTATTTTACAGATGTGTTCTAAAAGCTATAAAGACGGAAATCACTATTAGTGTGTCACTTATGTGATATTCAGACACCTGAGCTCTGTGATGATTTTAATGCCCCACAGGTCTTTCAGAAATCCACCTC
1 TGTCTAGAGGATGGCATAAGTTCATTGTAGTATAGATAATGCATATCATACAAATCGTGTTCAGAAACCCCTGCTAAAACCAGTCTCCTTGTTTTATGATCACATTATATGAAGGAGTAAATGCTGTATCAGATATTCCAGGAATAAAACTTGCTTATCAAAATCACCCTACACAACACCTCAGTGTCCAAGGGAACATAAAAGGTAATGTCAAGGGTTCCCGCATATCAACATAAATGTGATTTTCAGATAAGCAATTACAGCATAGTCCACAGTAATATCCGACATTTTTATTGCTCGAATATTTTTGTAATAAGGAAAAATAGTTCAGTACAAATTTATGATATTTTTACAGTAGATTGAAACTAGTAT
1 GGCACATCCCCAACTAATTACAGAAAACATTAAATTGTGTTTGGAAGATGCAACATTCTGAAAGTTCACTAAAGCACTTGGCTCTCTCTGAAATGCCCCTTCAGCTGGTAAGAGAAGATCATTTCATATCCCCTCTACTGATCCGCTTGATTGCATGTCAGCTCTATTAGGCAGTTGCTTCTCACTAATCCAAGCTGACTTTTTATTAGCCACTTAGACCTCAAGCACCAGACACATGACAATTTTAAGGTTTAAAAGCTGCCCTCAGTTAGATCTAAACAGAACTTAGATCTTAGCTATGACCGAAATACATCATTAGAATTTGAAG
0.7064931720118165 CACATAGCCATTCTGCTTGCCCAAGGGTATATCAAGCTGTTTAGAGGTTCAGGGGTCTCTCTCATTTGAGGGTGTGTATGCAGCAGTTTGGCTGACTCAAGGGTGGGTTTTCCATGGATAAGACTGTCGTACTCTCCCTCTGGCTAGAAGTGCAGCAGTGAGGGTTGGTTTCCCTGCTATGTAAAGCCAAAGCCACAGCAGATCCTGGCCCAGGTTCTGCACAGGTGGTGTTG
1 CCATAAATAGTTGTCAGAGGATCCCAGATGCTTAAAAAATATTGACAGGAAAAAAAAAAAGCCTGTCAGTTATGTCACTGCTGAGATTTGAAACCCCTCCTGGTATTTCTTTCCAGAAGACTGGGGGACCCACCATTCATGGAGCCCCCATCCCAGGAATGAGGGGTCTCCTAAGGCCTTCAGAGGCCCCCGGTAATGGAGAAAAAAAGCAAGCAATAGATTTTCCCGGCTTTT
1 AAGACAGACAGCCAAGTGGAGATAACAACTGGGCAGTTGGATTCATCAGCCTGGAGTTATACAGAGAGCTCTGGAATGGAAATAAAGAGGAAAGGACTTTGGGAATAGGTGAATCCTCCCAGAATAATGTGTAGAGAAAGGAGAATAGAACACAGGGGACAGAAAAAGGGAAGAGATTTGTTATTAAAACCAACCATCCATCAGATATCTTCCGATACAACACTTGTTGGAGGTTTCCTCAGTGTGAGTTATTCAGGACCAGAGCTAAAGACCATATTCCCAATAAAATCACTGCTGGGAAG
0.7043136978705239 GAAGAAGAGGTCTAGTAGGATAAGAAGAGTTATAGGACTGTCTCTTAGTGGAAGAGGGGCCCCCTCCTGACAATGCAGCATCTTCACTGTGGCCCTGAGCTTCACACCAGGGAAGGACTGACTTCCCCAAGAAGGGCACACATGCAGGCAATAGCCCGCCAGCCTGCTTTGAAGTTCCTCCAGCAGGCTTTGGAGAAAGAGCTTTCTTCTTGAGTTCTGACTTGGAAATAGGGATCAGAAATGACGGTCTCTGCAAGTGGGTTTGATATGGAGAAACTTCTGGACACA
0.685489188365289 TGTTTTGAGACTGGGTCTTGCTCCATCACCCAGGCTGGAGTGCAGTGGCCCGATCTTGGCCCACTGTAGCCTTGACCTCTCTGGGCTCAGGTTATCCTCCAACCTCAGTCTCCCAAGTAACAGAGACCACTGGTGCATGCCACCACACCCAACTAATTTTTGTACTTTTTTATAGAGATGGGGTTTTGCCATGTTGTGCAGGCTGGTCTTGAACTCCTGGGCTCAATAATC
1 GTGGACCTGGGAGGAAACTAATTATTTCTTTAGAATTGAAAAAGAGCAAAGTGCCTGAACGTGCATTATTTTTAAAGTATCTTGTGAGATTTTTAAAGAATACTGAATGGTTGGCAATATATAACAAATTCATCAAAAATTTAGTATTGCATAATGGTTTTCTGCTCAAACAGTGAAATACTCTTTGGGGAGTGGCTTCAGAGGGATATTGGCTTCTGCTTTTTCCTTTCACAATTCAGAATGTAAAATGCTTAAAGGTGT
0.2674480461130669 TATTCTAGCTCCGGGCTTTTCTCTCTCTCTCTGCTTTGAGATGGAGTCTCATTCTGTTGCCTAGGCTGTAGCACAGTCATGCAATCTCGGCTATTGTAATCTCCACCTTCCGAGTTCAAGTGATTCTCCTGCCTCAGCCTCCTGAGCAGCAGTGATTACAGGTGCACACCACCATGCCCAGCTAATTTTTGTAATTTTTGTATAGATGACGTTTCACCATATTGGTCAGGC
1 TGATGAAAAGGTCAAGGTGGTCTGGTCTGAGTGAAGTCACAGCAAGAACCCTTGTCCAGGGCCATTCTCACCTTTGGGGACAGCTCCTTCCCTGTATGGTCCTCATGTCACTGCACTTTCCTGCCTTGTTTCTTGCTGAAGCCATTATTTCTTAATTCCTTAGTAGATATGCAGAGCGGACATCCCAAAGAAGCTAGAAAAATTGATGAGCAGGGAACAGATCAAATCCTCTCCATC
1 AAAAAAATTAGCCAGGTATGGTGGTGAGTGCCTGTAATCCCAGTTACTTGGGAAGCTGAGGCAGGAGAATCACTTGAACCCAGGAGGTGGAGGTTGCAGTGAGCAGAGATTGCGCCATGGCATGCCAGCCTGGGCAACAAGAATGAAACTCCATCTCAAAATAAATAAATAAATAAAATTTAAAAATAAATAAAAATAAAATAAAATTCAAATTTTTTACCGTGGACATCAGAGCCTATAATGATGAGGCTCCTGATTTCCTCTCCTTGTCCTACCTCATCTTCTGCCTCTCCATTTCCTTGCTTTCTATACC
1 GATTTGAAACACTGTTTTTCTGGAATTTGCAAGTGGAGATTTCAGCCGCTTTGAGGTCAATGGTAGAAAAGGAAATATCTTCGTATAAAAACTAGACAGAATGATTCTCAGAAACTCCTTTGTGATGTGTGCGTTCAACTCACAGAGTTTAACCTTTCTTTTCACAGAGCAGTTAGGAAACACTCTGTTTGTGAAGCCTGCCAGTGGATATTCGGACCTCTTTGAGGCCTTCGTTGGAAACGGGATTTCTTCATATTATGCTAGACAGAAGATTTCTCAGTAACTTCTTTGTGTTGTGTGTATGCAACTCACAGAGTTCAACCTTCCTTTAGACAGAGCAGATTTGAAACACTCTTTTTGTGGAATTTGCAAGTGGAGATTTCAAG
1 AAAGAAAAGAAAAGAAAGAAAGAAAGAGAGAAAGAAAGAAGGAAAGAAAGAAAGAAAGAAAGAAACAAACAAACAAACAAACAAACAAAGAAGGAAAGAAAGAAAGAAAGAAAAAGAAAGAAAGGAAGGAAGGAAAGAAAGAAAGAAAGAAAGAAAGAAAGGAAAGAAAGAAAGAAAGAAAGGAAGGAAGGAAGGAAGGAAGGAAGGAAGGAAGGAAGGAAGGAAGGAAGGAAA
0.9035036927949949 ACCTCTGGGTGAAAGTGGGACACCAACAGACACTGCCTCCCTTGAGTGGAGGTGTAAGCTGTGCTCCCTGCTGGGTAGGGGAGGGACTCCCTGACACTGGTAGGGGAGATGAAAAGTTAAGTGGCTAGCCCTACCTCACACTGTTTTATTCAGTCTCGTTGATGCTGGGCAGGGTGGAGGATCAGTTCCTTGGGTCCCCACTGACACCAAGAGGTGGGGAGACAAGACAGCCTACCAGCTCTCCTTCATGCCATCTTGTTCAGCCTTTTTGCTGCTGGGTAGTTGGG
1 TGTGTAACACACATCCCAAATTTAGCAGTGTAAAACAAAACTCCGTTTTATCTTTTATGGTTCTGATGTTTGGGCTTGGCTAGGCAGATCTTTTTTAGGGTTTCTCTTGAAGGTGCAGTCAGGTCATAGCTGGGGTTGGAATCACTTAGAAGCCTTCCTCACCAGCGTCTCTTATGCAGTTGGAGATAGATGGTAGCTGGGCCTGGAGTCATTATCTCAGAGGGATCCTCATTCATATGAGGTGGCTGGGCTGGG
1 GAAGTCAGGAGATCGAGACCATCCTGGCTAACAAGGTGAAACCCTGTCTCTACTAAAAATACAAAAAATTAGCCGGGTGCGGTGGCGGGCGCCTGTAGTCCCAGCTACTCGGGAGGCTGAGGCAGGAGAATGGCGTGAACCCGGGAAGCGGAGCTTGCAGTGAGCCGAGATTGCGCCACTGCAGTCCGCAGTCCGGCCTGGGCGACAGAGCGAGACTCCGTCTCA
0.8066613059579295 GCGGAGTAAGAGGTAGCAACACGGCAAGCTGTGCCATTTGTCTGATAGAAAACAAAACCAGTAAGAGTACATAAACCTGTGACAGTGGTAAGGAGACCAGGGCAGTGATGAAGGGTGACCTGCACTTTCTGTGCTCTGGACTTAGGCATTTGAATTGTTTTAATGCAGATGGCATTCACAAACCATGCAGTTCACGTGTTCTAAGTGTATAATTCATTGGTTTTCCGTGTATTCACAGAGTTGTGCAACCATCACCACTGTCCAACTCCAGAACATTTTGATGAGATCCTGTTCCTATTTG
0.9311454208203699 ACCATTGTAAAACCTAAGATCAGTGCTTGACATATTTTGCAGACCTCGCACTCGATGGATCAGCTGGCACTACCCAAATGGATAAACAGGCTCATCTGATCTGTGGTCCCCACCCAGAAACTGACCCAGCATAAGAGGACCGCTTCAACTCCTATAACTTTGTCTCCAACCTGAACAATCAACACTCCCCTACTTTCTGACCCCCTACCCACCAAATTACCCTTAAAAACCTTAGCCAGGC
0.8141192506133333 TGGGATTACAGGCATGAGCCACTGCATCTGGCTTGATCTAGATAATTCTTACGATCACTTCTAATTCTGAGATTCTGAGAAAGACCAAATGAATTGTACAGTGAGGAGAAAGAACTGATTAAAAGCTTGCACATATCAGAAGTCACTTTCTTCAGACTCTTTATCTTTCCCCAGCAAAATTTAAAAAGTAACCCCAGAAACGTAGTGTCTTGCTATCAATAGGATAGAAAGCAAATCCATGTCTTCTGATATCCCTAATAATTCC
0.770747368557252 CCAGCAGGCAGGAAAGGCTAAGTCAGCTGCACCTCAGGGACCAAGGCTGCCATACCCCCCAGGGACTCTGTCCCAGGGAGATCAGAGTTCTGTTCCTAAAACCCTGGCTAGAGTTGCTGAAATTCCCATGGGGAGGCCCTGCCCAGTGAGGAGGGATGGATTAGGGTCCCACTTAAAGAAGCAGTCTGACCATGATCTGCCACAGCAGCTGTGCTGCACTGTGGGGAATTCCTCCTGGTCCTGAACACCCAGACTCCTTGGTGCTGACAAGGTAGAAGGGCTGACTTGAGCTGCCAAGATGGTAGCCACCCCTCCCACCTGGGAAGTCAGTCATCTCAGGCAGTCTCCAGCCTGCTACCACTGGCCGGCTGGAATTCCAGGCC
1 TTTTCGCCTTGGCGTACTCTTTTTTTTTTTTTCCTCCCTGGTAAGATGCCAACGCCTGTTGAATGAATTAAGCACGTTTTAGTGGGATTTAAGTCCGGCCTCGCAGAAGTTGATTGATTGCATTATTTTCTAGGAGCTGGTCTTGTGGGGCAGCCCTAAAATGTATCTCCAAGTGACCCTGCACTCATCACTTGCTGCCTTGGACTTAGTTTCCTCA
0.383982139643999 TTGCTCAGCTCTGAAAATGGGAATTCAGCTGCTCCATGAGAGCTCAAGCATGAAATCAATTGTTCTGAAGAACTTCATGATGTGAGAAAAACAAATGAGGAAGTAGGGTTGTCTGGTCCTGCCATGGACAGATAGTCAGGACCCTGATAACAGGTTAGGAGGGCAGATGTCATTTCCTGACCCCTTCTCTCTCTTTTTTTGAGATGGAGTCTCGCTCTGTCACCCAGGCTGGAGTGCAGTGGCCCCATCTCAGCTCACTGCAACTTCTGCCTCCCGGGTTCCAGCAATTCTCCTGCCTCAGCATACCGGGTAGCAGGGACTACAGGCACGTGCCGTCATGCCTGGCTAATTTTTGTATTTTTAGTAGAGATGGGGTTTCACCATGTTGGCCAGGCTGGTCTTGAAATCCTGACTTCGTGGTCTGCCCTCCTCAGCCTCCCAAAGCCTTGGGATTACAGGCA
0.982523185759698 TTAGAGAGTCCATCTCTCTTGATTATCTCGACATCCCTTACTGCTGGCCTGTGAGATCTCTTCCTGTATGCTGTCTCATTTTTCCATATTAAGGTGGCTCTAAATATCAGTCTGCCTTAAAACCCGTGATGTTTTCTTTCCAGAAGGGGTTTGGAAGTCTCAGCAAGCTCACTAGCAGAACAGAGCATCTCTTTACTCTATGGAAATGGACTAACTC
1 TTTGCATTTTTAGTAGAGGCGGGGGTTTCTCCATGTTGGTCAGGCTGGTCTCAAACTCCCGACCTCAGGTGATCCTCCCGCCTCGGCCTCCCAAAGTAATTTTAAAAAGGAATGAACTGGTTTGATTTTTCCGCTTTCAAAATTCTGTTTTCATATGATAAACCACAAAAATCAGTAAAGCTGTCTAGTCTTATTTTATAGTTCACATTTTAGGATTGA
0.3164409660693598 TCCAGCTAATTTTTGTATTTTTTGTAGAGATGGGGTTTTGCCATGTTACCCAGGCTGGTTTCAAACTTCTAAGCTCCAGCAATCCACCTACTTTGGCCTCCCAAAGTGCTGGGATTACAGGTGTGAGCCATCACACCTGGCCTAAAACTTTTTCATCTAGCCTTTTACCCAAGTGTCCGTAATATTCCCTTTCCCTAAACCTTTTTTTTTTTGACAAGCCTCACCTGGG
0.8835288610012441 TAATACCATCTTGATGTGTTCCCCTTGCAGACACAGAATGGGGTCTAAGAAACTTGGGCCAAACTAGAAAGGGCCTAACTCTTGAGTCAGCTCCTCCAAACAAGGGCTAGAGTTGGAGTGGCTTGGTAGAGCTCGCATATGGCATTTTAGTTTATGTCCCACACTCATAAATGCTGATAATTCCTTCTGTTAGACTTACTTTTAGAATGCTCT
0.8654892959282241 CTAAGAAACGTTTAATGAGACAGCACTTTTCCCAGTGAACATACAGGCCATCTGGAGCAGTATTGTCTGCCTCTCTCTCCACAACCCTTCCCAAAATACCTCCTTGGGATTTCCCACTTTTACATCATTCCCCATTAGGAAGGAAGCCTAGACTTGCAGAATGGCTGGATATGGGCTGTCTGACTCCCCCGACCCTGCCTGAATGCAGAGCTCTGACGAGGTAGGTTGGCCACGAAGCCAGGCTCAACTGATGCACAAAGGAAAAATAAATATATCCCCTCTCACCCCAGAGCAGCTGAGGTACCCACA
1 GCTACATCTCAATTTTTACTATCTCCTGGGCTCAGCTGGTTGAACAAGAAATGGACACTTGAGTCCAGAAACACATTATAACATTTAATGTTATAGTTACCATGCAAAAGCATATTGCCTAGAAAAAATAACTAATCTCCCCAAAAGTGGCCTTAACCTATTATCTGGAGTTATGCTCATTTAAGTAAGAAGTATCTATTTCATATCAAGAAACAGCATATTATGTCATTCACAGAGCTTAATATACATTGTAAGACACTTTTCAAAATTTTATA
0.7910053079927412 GGAAGCAAGGAAGGAAGGAAGGAAAAGAAGAAGAAGAAGAAAAAGGAAAAGAAGGAAAAGAAAGAAAAGAAGGAAGGAAGGAAGGAAGGAAGGAAGGAAGGAAGGAAGGAAGGAAGGAAGGAAAATAAATTAATACAGTATCAGTCAAAATTATCATAGTTTTACAAGAAAGTTGACCAAATTATTTTCATTTATCCGAGAGAAAAGTGATGCAGAAGTAGCCCAGAAAAATTCCGAAAAAACAATAACAATAATGATGTTCAACCACATACAAACATTTATTATACAGCTCTGATAATTAAAACAGCATGGCAGTAGAACTAGAATAGACAGACGTGTCCACGGAAAATAAGA
0.4756872728036342 GACCGTGGCCCAGAGAATTGGCATGAGCACGAAGGAGCAGGTGCCCTGGTTGCCAGGTCCAGCTCCACCTTCAACAGGTCCTTTGGGGCGAGGCAGGGGATGTGCCAGACTTTTGTGTCTCTCTCTGCACTTGGAGGAAGGGCTGTGCTGCTTGAACCCTGGGGTTGGGCCAGCCCTGACATCCTCTGAGCAACCAAAGGGGCAGCCAGGGAAGGCTTTTGGCAGGTA
0.6066379859721059 GCAGAAGCTCCCAGCTGACCTGTTTCTCTGGGAGAGAAGGGCAGTCAGCAGGGGCAGCTGTTGCAGATGGGAGGAATAGTCTCCCACAAAAAAGGTTTCAGTGACAGACACGGGGTCTCTAAAAATAGTCATGCTGAGAGCCCAATGGCCCTTGGCACAATTGCTGGTGTTGGGGTAGAAGATGTCTTGGAGTTTGCTCAAGTGGTTGAGAGGGAGGGAGGTGCCATCAACTTGGAGGAACTGGCACCAAGCCAGGGAGATAGAAATCCAGGCAAGGCTGTGGGGCAGGTTAGGGAGCAAGGCTGCAGGGGTGACTCAGGAAGAAGGTGGGGGAGGTGACAAGCCCCCAGGCAGGGGCCC
0.9392510796659549 GGTGCCCAGGCTGTGGTGTCTGTGACCCTGAAGCCCCAGACAGGGTGTTACAGCATGCTAATTTGCTCTTTTAGTCCCACTGTCTGCAGCCCGATGGACAGCAGCATGTTAACAGCTCTATCAGCCCCTTGTCCTACTTGGGCCCATGGCTCTGGGGCTGAGCTACTTCCCATTATGTGGGGCAGAGGGCCACAGTGTTGCAGCCTTCTTTGTACCCC
1 ACTCCCTGGGTCCTGGGTCAGTTTGACCCTAGCCCTGGGGTGAGGCAAGCCCCCTCCTATGAGGATGAGCAAAAATACTACTCTCTTCGCCCTGAGTTGCTTTCTGGATCTGGGGCTTCAGGACTTGCTGCTTCAGTCAGCCTTTATTAGCACCAAAGACTTTATGAAGATCCCACACACAGACACACATCCCTTCCCGCCTCCCCCCTGCCTTCAGTAGGATCTGGCTCCGTGGCTGGAGGACCAACCCCTATAGTGGGAATGCAGAGCTTAACGTGTACTGCTTGTGTGTGTGCGTGAGTGTGTGTG
1 CAATCCCTCTTCTCTGCTGTTATTTTATTTTTTATTTTTATTTTTTTGAGCAGATTCTCACTCTATTGTCCAGGCTGGAGTGCAGTTGCATGATCTCGGCTCACTGTAGCCTCTGCCTCCCATGTTCAAGCAATTCTTCTGCCTCAGTCTCCCCAGTAGCTGGAATTACAGGCGCCCACCACTAAACCTGGCTAATATTTGTATTTTTAGTAGAGATGAGGTTTCACCATGTTGGTCAGGCTGGTCTTGAACTCCTGGCCTCAAGAGATCTGCCTGCCTCAGCCTCCCAAACTGTTGGGATTACAGGCATGAGCCACCACACCCGGCCA
0.9039333216376996 ACCCACAAACGTGATCAAACCAAGTGGATATTTACAGCCCTGGGCTATCATCCTCATTTCCCTGGCTGCAGTTGTGGCTGCTGTTGGATTGTCAGTAGGACTGAGTTTTTGTCTGGTGAGTACCCAGGGTGGGTTCATAGGGGAGCCTGGCAAGAAGGCAGGGGGGAATCATGTCAGCAGTGCTTTGGAAAAATCCAGAATGAGAAAGGGGA
1 ACCTGGCAGCTTGCTTCAGCAGAGCAAGAAAGCAGAGAGGACCAGAGAGAGTGCGACCAAGACAGAAGAAGTCACGGAAGATTTTTGAAACCTGTGATGGCTAATTTTGTGTGTCAGCTTACTTGGCCACCCAGATATTTGGTTAAGCATTATGCTGGGTGTCTTTGTGAGGATGAAATGAACATTTAAATTGGTAGGCTGAGTAGAGCAGATTGCTCTCCTCAACATGGGTGGACCTCATCCAGTCAGTTG
1 GAAGCCAAGGTGGGAGGATTGCTTGAGCTCAGGAGTTCAAGACCAGCCTAGGCAACATGGCGGGACCCCGTCTCTACAAAAAATTTAAAAGTTAGCTACACATGGTGCTGCATGCCTGTGGTCCCAGATACTCAGGAGGCTGAGGTGGGAGGATTGCTTGAGCCCAGAAGGTTGAAGTTGCATTAAGCCATATTCACGCCACTGCGCTCCCGCCTGG
0.9468107035396621 AAATTCACGGGCTGTAATGAAAGACTGGGTTCAAACCTCAAAGCTTTCTCTTAAAAGCCAGTTGATTTGAGCAAATTATTTCAGCTGTATTTGTCTCAGCTTTCTCATAAGGAAAACAAGCATACTAACAGTGCCTATTCCATAGGTATAATACAAAGACTAAATGAGTTAAAACAAATGGATTGTCTAGAACAATACCTCGCATATAGTTCAC
1 CCGCCTTTGCTGAAGTGACAGACATGAGCCAAGAAGCTCTCATGGATGTTTCAGCATGCACAGTCATCACAGAGAGCAGGGACAAGTTTTCCCTGCTGAGCCCTGCCCAAATGGAAGAATCATGAGCAAGTAAATAAGATGTTGATTTAAGTCAAGATGTTTTGGAATAGTTTGTTATACAGCAATAGATAGATGAAACAATAGTCAACATAATAGGCATGTTTCTAAGCACATGCTAATGACATCCTTATGAAA
0.8828896050272578 TTTCTGAGCCCATTGAGGCCTATGGATGAAATAGGAAATATCTTCACATAAAAACTAGACAGAGGATTTCTGAGAAACTTCTTTGTGATATGTGGTTTCATCTCACAGAGTTGAACCATTCCTTTGATTGAGCAGTTTGGAAACAGTCTTTTTGTAGGATCTGCAAAGGGATATTTCTGTTCCCATTGATGCCTATGGTGAAAAAGGACATATCTTCACAT
0.9437388657622223 ACGGCTCTTGTCATTTCATCCACTGCTCATAATAACGCTGGAATGAAGGCAAGAGAATTTTAGAGTATTGGCAGGAGAATGAGATGTTTGAGCTGTTACTCTTTCTTAACCTCATACATCCCTCCCTATGCCACTCTGCTGTACAAACCCATGAAAATGTATTGTGGTCTTTATAAGAAGACTAGCAGAGGCCTTGGGGAAACTCAACAAAAGGATTC
0.8956843522757054 GAGAAATGGCAGGACAAGTCATAATGCATGGAAAGGTACCTACTTGTCACGGGTATGACCACTCATTTGTCTCCTGCCCCCAACCGAAACCTTTTCTATCTTAGGGTTTTTCCTTTTATCTCTTCCCACCTGACAACCCGACCCCCTCTCACTTACCCTGTGTGTCTTGCCCCACACCCTTTCCACTACTGTCCTTGACAGCAGGAGGCAGCAGATTGCTGAGGCCCCCACATGGAGGAGGATGTAGAACAGGC
0.8117134753280535 CTTCAGTGGATGGCTTCTTTGGATGGCCTGCATGTTCCTGCAGGGGGCTGAGTCCTGCTCATCTTCACTGCAGGCTCTCTGCCACTCTCTCTGGGCTCCAGCCACAGAGGCGTTGTTTCAGTCCCGCATTTGGGTCATGCTCCCTCCCACCACAGTGTTAGTCTCCTCTGATCACAGGCAAGGTCACATCCCTATTACATGTTTTCACACCACATACCTGTCCTTGGCACTTGTATAGTTATGTAGCAATTAACTA
1 CCAGCAACAGCTCTACATTGCAAAACGGCAGCCAAAAAGCTTTACTAGATATAGATCTCTGACACAAAAGTAAAATTGTATATACATATATATGTGTGTGTGTGTGTGTGCGTATACATATACACATACATGTCAGGCCTCTGAGCCCAAGCTAAGCCATCGTATCCCCTGTGACCTGCATGTACATATGTCCAGATGGCCTGAAGCAAGTGAAGATC
0.8811036405532033 AGGAGCCCCGAGCAAGGACCAGGGACCAAAGCCCCACAACCAATGATGTTCTAAAAACTACTCCCTTCTCAGACATCCCAAGAAGTGAGGGAAGGGACAAAATTTTGAGAAATGAGGACGGAGTTCAATCTTTGAAATGATAAAATAGTAAGCCAACTCTGACTGAATATTCATGAAAAGGAGCTCAATTTTATGCTGAAAGTAACTAAGCTAGCTGTAATTGGCATAATTATTTTCACT
1 AATAGTGGGAGACTTTAACACCCCACAGTCAACATCAGAGAGATCAACGAGACAGAAAATTAACAAGGGTATTCAGGACTTGAAGTCACGTCTGGGCCAAGAGGGCCTAGTAGACAGCTACAGAACTCTCCACCCCAAATCAACAGAGAATACATTCTTCTCAGCATCTCATCACATTTATTCTAAAACCGACCACATAATTGGAAGTAAAATACTCCTTAGCAAATGCCAAAGAACTGAAATAATAACAGTCTCTCAGACCACAGTGCAATCAAATTAGAACTCAGGATTAAGAAACTCACTCAAAACCGCTCAACTACATG
1 ATGTTGTCATTGTCATTTCTCCAAAGATATTTATGGGTTCAGATACATCAGCGACTTAGAAATGTTGTTAAAGCTTAGATTTCACCAAGAGAAATCATTAGCAACTCTCTACCATGGTAGGGTCAAAGCTGGGGGCTTACAAAATACAATGTTCAATGTGAATCCTCTAGCTTTTCCACCTAAATCTGTGAAGAGTCCAGATGCTAACTTAAGCCAGAATTATTTTCTTCTTTTTCAGGAAAATCAAAAAATTTTTAGACTCACAAGTACTATGAACTCAGAGTAAGAGATAA
1 TACACCAATCCAATGTATATTTGGTTTTTTCACATGGTCCCGTATTTCTTGCAGGCTTTGTTCATTTATTTTCACTATTTTTTCTCTAATCTTGTCCTCTCACTTTATTTCATTAATTTGATCTTCAATCACTGATATCCTTTCTTCCACTTGATCAATTGGTTATTGAAGCTTGTGCATGTGTCACATAGTTCTCGTGCCATGGTTTTCAGCACCATCAGGTCATTAAAGGTCTTCTGCACACTGTTTATTCAGTTAGCCATTCGTCTAACCTGTTTTCAAGGTTTTTAGCTTCCTTGCGATGGGTTAGAACATGCTCCTTTAGCTCGGAGAAG
1 ATCAATGTTGACTTCTTGAAGTTAAACCAATTTGGCTTGGAAGCATTATTATTTACATGTGTATACTTTCAGCTCACATTTTAATGAGAACTTTTACCTCTATGCTCATAAGAAAGATTGGCCTTAATATGCCATATTTTTATTATCTTAAAATATTAAAATGATAATCATTCTATCATTATGTTCAAAATGTTTATTTTTAATGTTGTTTTTATTTTGAAGATGTTTAGAACTATATTGTTAATTTCCTTATATTTACAAATTTTAAATTGTTACCCTATTCATTATTTCTATCTTTCCTATGGTAAGATAATTTTT
0.5366813347372892 TGAAGGGAGGAGCTATGCTATGGGCTGGGACAGGAAGAGGGGCACAAACAGTGAAGAGACACCCCTGCAAACCAGGGGACACCAGACAGGACCTGCTACACTGGGGGGCCCCTTGCCATGAGAAAGTGGCCTGGAGAAAAGAGGTGACAGAACCCACCGGCTGAGATGAGAAACGGGGCATCCGTCAGGCCCTTCTGGGAGCTG
1 TTGTTTATCTGAAATTCAAACTTAATTGAGCATCCTGTATTTTATTTGGCAACCTTATCACTGTGGCCCTACATGACAGCTTTGAAAAGGGTCCATGCAAGGAAGGGATCCTGAAGCTTAAGTTTCATTAGCATTGTAAATCTGTCCTGATTCTACTGTAAAGCTTAACCTCAGTTACTGTTAACCAAGGTTAACAATAAAATGTTCACCAAAAAAATGCCG
0.3413951867862922 ATGTCAGGCCTCTGAGCCCAAGCTAAGCCATCATATCCCCTGTGACCTGCAGGTACACATCCAGATGGCCAGTTCCTGCCTTAACTGATGACATTCCACCACATAAGAAGTGAAAATGGCCTGTTCCTGCCTTAACTGATGACATTATCTTGTGAAATTCCTTCTGGCCCATCCTGGCTCAAAAGCTCCCCTACTGAGCACCTTGTGACCCCCACTCCTGCCCGCCAGAGAACAAATC
0.4429682578444398 GAGGGACTGTAGATAAGAACACAGGTTGGGGCTGGGCACAGTGGCTCACGCTTGTAATCCCAGCACTTTGGGAGGCCAAGGCAGGCGGATCACCTGAGGTCAGGAGTTTAAGACCAGCCTGACCAACATGAAGAAACCCCATCTCTACTAAAAATACAAAATTAGCTGGGCATGGTGGTGCATGTCTGTAATCCCAGCTACTCG
1 AGTCTGGTATCGAACTTCTGGGCTCAAGCTATCTGCCTGCCTTGACCTCCCAAAGTGCTGGGATTACAGGTGTGAGGCCCTGTACCCAGCTCAATCCTGTTTTTATACTAGAAGAACATTCTCTATCTGGGTCTTCCAAACTTGATTCTTACTGGTTAATTTGTCCTGTTCTTTTGCTGGTCCAAGAAAATATCCTGAAATCTTTATTTCTTCTCCGTTTCCTCCTTGTCCTAGGACAGACTAGCCCTA
1 CTCTATGCTCCTGCAGCACTCATGGCATATTCCACATAGATCAACACCTGTGCACAAAAGTATTCAAAAGCTCATTCATTTTATCTTGGTTTTTCCAGTATTACCTCCTAGGAGGCAGGAACTGCATTTTACACAGACTCCAAAGCACTTGCACAGTAATGAACATACAATAGGAATTTATTAGCTAGACACTCAGAAGGTTTATGAACCCTCTTT
0.7438880070662335 GGCATTTTGCCCCTGCCCTAGAGATCTGTGGAACTTTGAACTTGAAGGAGATGATTTAGGATATCTGGTTGAGGAAATTTCTAAGTGGCAAAGTGTTCAAGAAGCAGAGCATAAAAGTTTGGAAAATTTACAGAATGATGAAGCAATGAAAAAGAAAAACCCATTTTCTGGGGAGAAATTTAAGCCTGATGCAGAAATCTGCATAAATAACGAGTAGCTGAGTGTTAATCACCAAGGCGATGGGGAAAATGCCTCCAGGGCATGTC
