svm_type c_svc
kernel_type gkm_esttrunc
L 11
k 7
d 3
norc 0
nr_class 2
total_sv 7517
rho 0.192588
label 1 -1
nr_sv 3859 3658
SV
0.2673798386962013 CCGGGCGCGCCCCGCCCCTCGCCTTTAAGTTCTCAGCTTTCCCTCCGCCCCGCAGGTAAAGGCCAAGTCCGCAGACAACCGAGGGAGCCGCCCCCGGCCCCGCCCCGAGCCCCGCCCCACCTCCCCCAGGGGGCCGCGCCGGCCCGCCCGCCCCGCGCATTCCAGCGTGCGCGCTCCCGGACCCGGACGCAGATAGGGACCTAGGCACAAACGCAGACATCCACATGTGACCCACAGACACAGGCACA
0.5746573041215745 TTACTGTCTCCCCCGATGCCAAAATTATCTTTGCTGTTGGATCAGACCACACCCTCAAGGAGATTGCAGATTCCTTGGTGAGTCTGCCCCTGCCCCGCCTCTGGGCTGGTGCACGGATCTGCAGGGACAGCTTCCCGTGCTTACAGCACAAAGTATGCACGGAATGAGGGCCTCTGCATACAGGGCCCCTTCTTCCCAAGATAACATCAGGCTCCTCATTCCTTTTAGATTAGCTCAGTTATCGTCACTTCCTGAATTTCCTGCCTAGTTTCCTTCCTGACTGGGTGAAATTGTAAATTGCGGGGCTCTTTTTCATTTCCCTTTTACTTGCT
0.9590532836350377 GTAGGTTTCTCTATGAAATCTTCCAAGATAAAAATAAAAAGAAAAACAAAAAGAAAACTTCATTTGCTCTCCTCGTTCACCAAAATAAAACTCAAATTCCTTAGCTGCCTGCCATACCCAGTCCCCTTTCATAATCTAGCTCTAACCTATCTCTCCAGCCTCATCTCCAATGTCCTCCTTTCTTCCCCCGCACAGTGCAAACACACAATATTGACATTCCAGCCTCCAGCTACTCACTCTTCCCAAATAGGTCCCTGCTTCCAAGTCTCAGCACCTGTGCTTCACTCT
0.9784597206321857 AAATGGTAAGCTTAATAGAGATGGAGCCTCCAGGACTGGCATTCATAGTGAAGATTATCTGTAGAAATTTTGGAGTAAATCGTGTGTGTACACAGAGATCATAGGTCAAACAGAGATACAGGAGTGAGGGTCACGAGGTCCTGCTGTCCAGCACCACCACTAGGAGAATCTCCCTTTATTGCCAACTTTGTAGAGAATGGGTTTGAGTTTATGAAGGATATTCCTTTGTATATTTGAATCTGGGATCTCTGACTTCCTAGAAATTGCATGCAAAATTTGTTCATATTTCCAGAGTAGAATTTACTTTCATCAGATCATGAAAAGGATCTAAGAGCAAATTGACAGAGACAGAAAGTAGATAGGGCTTATCTAGGGCTGTGGAGGGGCCATGGGGAAGAACAGCTAGTGATTGCTAATGGTTTCTTTTAGGGTTGATGAAAATGTTCTAAAATTAGATTGTAGTGATGGTTGCACAACATTGTGAATATATTA
1 AAGCATAATTAAGGTTCAGGCAGTATCATAAGTGTCTTCAGGAATACAAAATAACTGTTTTTGCATCTAGAGTTTCTGGGAACATTTTCTGCCTAAACACAAGCCACTTATAGCTGTTTTCCTGTGTTCTAAAAGCACCCCAGGCACTGTGAAGACACAGAACATGTGGTACTCATAGAGGTGGCAAATAATCAGCATGGCTGTCATTGTGACGATTAGCAGAAAGCAGTGTGCTGAGAGGAGTGAAGGTATAGGTGAAAGGCAGCGGGCACTGGCTTATATTTATTTTATTCTCATAATTGCAGGGCAGTTTTCTTCAATTTTATTCTATATGCTATCTCAGATCATTAAAGCAGTGGAGAAGGACAGGAATATTGAGTTAGTTAGGGATAT
0.06923249504609767 TATCAGCACTAAATTTAATCTGTCATCACATTGTCCAATCATCCAGTTTAATTAGATCCTTCTGGATTTCCTCATAATCTGCATGTTTTTTCACTAACCTAAATAATTCTTGGTGATCAGCAGAAATGTAACACCTCACTATCTACTACATTCTCCTTATCACTAACATAGTTTAACAGCCCTCAGCCTGCTATCAGCATCTTGAGCACCCCGCTGTGAAGTTGCTTCCTCTGGAGAAATAGGTACTCTTCATTTCAAACAGCTTAATCCATATTTATCCTTAAGAAAGCATACCCTTCTGATTCTACCAGTTTT
1 ATTAATAACAAGAAGTGAAATGATATTTTCTTCTATAAATGCACACCATTCTAAAAAAATAAAAACTAAATGGTAAGACTCAAAGAAATGCATGACAAAAATGTGTAAAATTCTATTCTGAAATTCTTTCAGGACCTTGATTTTCCTTTGATTCTAATTAGAGATAACATGTATTTTGTCCAATAAGATTCTCTGCCTAAAAGATTGCAGTGAGATAAGAGCCAAGGAAACAAAGATGTGAGGTTTGTGTGTTTGTTTGCTTTTCTGCAAAGTTTTCTTCAATCCTGAGACCTTTAGGCTAGAAAAGAA
1 TGGGTATCTTCTTTGGAGAAATGTCTATTCAGATCCTCTGCCCATTTTAAAATTGTGTTACATGTGTTTTTTATTGTTGAGTTGTAAGAGTTCTTTATATATTCTAGATACTAGACCCTTATCAGACATACGATCTGCAAATATTTTCTCCCACTCTGTAGTTGTTTTTTCACTTTTTTCACAGTGCCTGTTGAAGCACAAGAGTTTTCCATTTTGATGAAATCCA
0.451906876513414 ATCCATTGTCATGGAAACAGGAAAACTCGCCTTTTTTGTTGGAAGTGAGTAAAACTCCAGAAAAGGAGTTGTACTTCAAAATAAACCTTAGATCTCAACCAAATTTGGGGTGATCAGGGATTCTCCAGAGGGAGTTGCTCCCAGACCTCAGAAAATTGTCTTATCTTTGAGCAACAAAGATAACCTAGGCTGGAACCAAGTACTGGTAAGAGATTTGTCAAAGGTCAGGGGCACCTCCTCTCAGAGTCCCTTCCGTCAGCCG
0.7346547706684773 CTCAGCAAATGCTTCCCTAACAGTGTTAGGTACGTTTACTGCTCCATGGGTCCCTGCTTTTGTTGGAGTCTTTGGGAGCTACTCTTGGTCTTAATGAGCAAGAAAAATAAGTTTGAGATTACCTCTGTGATTCTTAGATCTTTATCTTATTTCACAATTTTATGCAAGGTTATGTCAGTCTAGGAATTAGTGGGTCAGATAACTGAAATGTGGGAAAATACATAGGGCAAAATTAGGTAGGCATCCTTGTCACAATAATTGAAAGTTCAAATTCCTTT
0.9189557465822068 AGGATTCTATAAGTTTGTCTTTGGTTCTCAGTGGCAGGCAAAATAACTGCTCCTATATTGAAGATGCAGGTTCAAAGGTGTGAGTGTGGTTTGCAGACTGGCCTCCGTGTTCCAGCATTCCTGAGACCCGGCTTTGTTATCTAGAATGGGTTACCAATTATTAGGTGTGTGCTCTGGAAGCCCATAGAATAGGCAACAGTATAGTTCCTGGAGCTCTGTCTTCTAGATAAATATTATGTTCATTTCTGAATTTTAT
0.4825813426813747 GACAGACACTTTAAGAACAGCAAATGTTCCTTCTTATAGATAACAAATGATATTCCACCGTTGCTCTTGGGTTAGAAACGGGCCTCTTCGTACTCTACTCCAACCTGTGACACACACCGACCGCCTCCTGGTGTCCCCCAAATCCTAGTGTTGATGAAAAAGAACCACGAGAAATTACAGGAACCAAGAGCAGGTTAAACTTTCACATCGATTGCACTGATAAGCAGAGCCACTTACCCAGCACAGCCAGACAGCTCA
0.4645971717466677 ACACACACACACACACCGGTTTCTATCCTGAGAGCCCCAGGACAGAAAAGATTGTAATCTACCTCTAGCCTAAAAACATCCCTAGCACTCAGCAATTTAGTTTAGTCACATGGAGACAAACTGCCCCTTTATCACTCAATTCTCCTCCTTTGAAGATTGGACCCACACTGGTTTATTTTTTATCTTTTCATGATCTATGGTCTTTTGTAACATTTAAAATAGTAAC
0.8486696095368375 ATGAGGTGATGGCTTCCAATAATGGGCCTTCGCATTCTGAAGATGATGTGGTTGAAATGTGAATGGTTCAGTCTGCTTGGGAGATGATCTTTCCAAGACAAGCTCCTGAACTGATGCTGCCTTATCTTCTTACATGTGTTCCTTTGTTCCCAAGTCACTTACTGGGACTTCAGATGCCATCTCAGGTCCTCTGCTTCCCTCTTCTGGTCAATTGAAGGGAATCTTTATAGCCATTTAGAGCTCAGGGGAAGAATTAATATATGATGCTACC
0.2813374231339073 TGACCATAAGAACTGGGTCACTCTTGTCATACCCAACTAAAACAGAGTTGAGATGCCAGTGGGGGTAAGCACTCAAGGTACAAAACATTGATCCAACAATGTAATTCTCTGCAAGCCTGACTGCAGAAACTGCTTTTTGTAACCTGAAACCAGCTTTATCTACAGCTTCTGAGATAGCCTGCTTCTTGCTATCTAAGATAGACAGGACTAATTTTGCCCACAGTGGTTGCTCACCAAGTGGAGCTTACCATCTCCCCAAACCCTTGCTAGTGCCAATGAACTTTCTTAAAGGGCAATACACAACATTTCTCCTTTCTATAAAACCTCTAACCTTCTCTTTGTTCTTTGGGTA
1 AACCCAAAAGTTAAGAAGGACAGTGGGCTTTCTTCTGCTTCCTACCTCTATGTTTAAAAACCCATTAGAGGTTTGGCTGAAGGCCGACCACACTCTCTGACATTCTCCCTTCTCCTCATGACTGGCTTTGTCAGGCAGGTTGATAATCTTCCTGGGTAAACAGACTCAGAGTGCACTGTGGATATCTAGCTCATGGCAAGATAAGTCCCAAGGTCTAAATCGGGGAAGTGGCAGGAAACTACTTAGTCCAAGTAGTAACCCTAACTTGGAAAACAAAGGTCCCACCTTTGTTTTCCAAGTTAGGGTTACTGGGGAACCCTATCTTTTGGGAGTTATTGGGTACTAACTACCGTTTTTAGAG
0.002835848437981793 GATTGCTAACTGTTTCTTCCTTTTGAAGCTTCGTCCCAGAGGGGCACCCAGCAGATGCCAGCCAGAGCTCTCCTGTATGAGGTGTCTGTCGGCCCCTACCGGGAAGTGTCTCCCAATCAGGAGGCAGTCTGTCCCTTATCAGAGTGTAAACAAAGCCACTTTCAAACAAAGTTTGAACGAAGTTCAAACAAAGGTTGAACGCTTTGTTGGTAGATCTGCTGCTCTCTTCAGAGCTACCAGGCAGGGA
0.9156387499634666 GCTCTCACCGCCGCGGCCCGGGTTCGATTCCCGGTCAGGGAAAGAGTAACATCTTCTTTTACTGCTTTCTCTCAGGATCTTTTAAATAAACGTTATCTGCTAGTCAATCTTCCCCATCCCACTGAAAACTGAAATACAGAAAATGTAGAAAAACACAAATAAAGAAATCGCTCACCATTCTATCACCCGAAGACCACTCAATATCTAGGTTTTGAAACAAAGTGGAAGTATGCTATAATACTATTTTATCACCAGCTGTTTTTGTTGTTGTTGAGACGGAGTTT
0.7925171976403126 CTCGGGAGAAATAAGAAGCGTCGACCTTTACACAAGCTAGCTAGCGCGAAGGCCGCACAGCTCTTCCTTTATCTACGCGGGGCTGCTTTTTGCAGAGATTTGTCTGTCCATGGTCTGCAGTCTCTTGGGTTCTCAGGGTCTGTGAAAATCTACGTGTTTTTCCCTAACCTCCAGTCACATTTCACACAGCGTCTGCTTCTAGCCGCAGCCCCCTCAGGAGTTTGTA
0.1526396046823417 AGGAGGTCAGAACTGTGGACTCGCTGCCTTTTATCCCTTTTGAGGCTGGAGGATCAAAGGTTAGAGATAAAATTGTTTAGAGGAGTATCAAATGTTAGAGATAAAGGTGCTTTAGACACTCTCAGCCCTATCTATATAGATTCCACCATCACCCAATAAGACAGCTGGGGTGGGATTGGGGTCAGGCCAGTGGAAAGGGGGTTGCAGTTTCACTTTGAAGCAAAAGGTTTGGTAATTGGCAATATTCTTATTTCTAGATATCTTCCCAGATTGTTATCATAATGGTCCCTGTTGGATGGGATGAAATAAACTTTTTTTTATTAATACATAATA
0.8680606387007074 ATTCTATATATTCTGTAGTCAGATTAGTAAAAGAATGAGAGCCTCATTATTCAATAATTTGTATCATTGCTTTTTGGTAATGATGTATAACTTCACACTTTAGTGAAATACTGATTACAATCTATAATTTTAGATTTCAGACAACTTCAAATTGTTCTTTCTTAATCTTTACATTTTTTATTTAAAGGTAATGAATTTTTAGATAGCCAGCAAACTAAAATTTGCT
0.1149789339174084 AAAGAGGTGATGACATCAAGGGGTATGTCACAAGCCAAAGTTTAGTTAGCCTAAGTTAGTTAGCTGGTTTGCAGTTTTTATCCACTAAGTCTGATCTTCTGACCCCTCAGTTTTACAACTTTCCACTCTCTGTGCTGCATAGCACCTCTCCACTTCTGAGTTAATCATTTCTTTGCCATTATCTGGCAAGAATTCTTATCTCTTTTGCTGTCACTTTATAACAGGGTCCTCTTATCAACCTGCATAGAGTCATGTGATGAGTCAAAGCCTATCAAAAGTTTCCATTCTTCTGATTAGAAACCATCATGAAACTGGATACATGGTTTACAGCAGGTCACTAATGTTGGAAAAAGTACAGAGTCCAGGGAAAGACTTGCTTGTAACTTTATGAATTCTGGATTTTTTTTTTTCCTTTGCTTTTTCTTAACTT
0.3815115790153835 TTTTTACAGTTGGTTTCTTTGAATCAGAATCTAAACAAGATCCTCACATTAATTTAATATCTCTTAAATCTCTTTAAATCTAGACTTTGGACGTTCTCTTTCAGCTGGGGCTTTCTTTACCAACAACCAGCCTCAGCCCTCGCAGTCTTTATCTCGCTCCTGGATTGGCAGGGAGCTGAAAGATCAGAAGCAGGAGGAATGAAGTCAACACAGTGAGAGGGTGGGAGGGATGGTGTGAGTATCAGATGCCTAAGATCTTATGAAAAAAAATTCCTAATCAGCTTCAGAAGAAACAGATTAGAATAAGAGACTCTTAAGAACTGGAGTTGACCTGCATGCTCTCCTAACACCTAAGAATGTCAAGAATTTACAGAGATTATAAGAGGCTGATTCCTGTGGGCAAGAGAGGGAGGGCAACAGAAAGGAAATCACGATGAATCTAATGGACAACATACAAGCATAGGCAGGACCTAATTTACAGGGCCCAGTGCAAGATAAAAGTCT
1 CTACAGGCATGCACCACCACGCCTGGCTACTGGCTTTTTTTTTTTTTTTTTTTTTTTTAAATAGATGGCATCTCAGTATGTTGCCCAGGCTGGTCTCGAACTCCTGGGCTCAAGGGAGACTCCTGTCCGGCCTCCCACAGTGCTGGGATTACAGACGTGGCCACCGAGCCCGGCCCAGCCCTCTACTCAGAGATAACGTCAATGCGCAGGCTTAGGTTGAAGGATTAATGGTCATTAGTGCACCAACAGCCCCTACCTTTAGTGGGCACATCAGCACATTCCACGATTAATCACAGCTCCTCACAGCTGC
0.7061929791327153 TTGTTGACAAGCATAAGCTCAGCTTCTGGGCAAATGCCCCTAATGTTTGCCTTCAGATCTATTGAGAAACCACCTATCAGGCAGGAATGCAGGTGCAGGAGGCTCCCTGAGGCCTTTGTCAACAGGCCCTTTGGTCCTGCACATAGATAGGCCTGGCCTTACGGGATTGGGCATCTGCGTGTGGCCCATCCTGTCGAGGGGGAGCAGGCTGGGTGTCTGCCCGTCTACCCTAGCTTTTTTCTGTGTGAGTTCAGCAGCAATTGCCCTCTAACCATTTCT
0.7138628830615319 TCAAGCACTGGTGCACCAAGAATTCAAGGCCTGGGCCCCACAGCTCTCTGGCAGCAGCATTTCAGCCTTATAAGGCAGTGTAAGTTGTTTCTAGGTGCTGAGGAGACTGGAGATATGGGCGGCAGTGAGTCCACATCTCTCCTCCCCTACCTGGCAGTCCCCTCCCCATCCAGGCACTGATAAGATATTGCAGTCCTGACTGTGTCTCCCTGAGATTTAAGAGAGGTATCGGGAGACACACCCTATGTGTTTGGCTTCCATCCCCAGCCCTGCCCATTTGCTGCTGGGAGTAAACCAAAGCAAAAAGCACTCTGAAATGGAACCAAGTC
0.6666111070532073 GTAGTTAGATGAGGCCAGCGGATATAAGTGGAAGAGATCTATGCAGGTCTAGGGGATGCGTTTGAAAGGAAAAGATGCACTCTCTCCTTCCCTCTTCCCACTGGCTGGTGCACCACTTGAGCCATGCAGACAGCCCTTCCTGGCATCCTAGGAATGTCAGAGTGTCTAGATAAAAGGATCCTGGGTCTGTGACTCTGTAGCCACCACAAGAGCATAGGCAGTCCTAATGACTCTGGGGAATTAAGCTACTTTACTGACCTAAAATTTTAGGAAAAAAAACCAAAAAACAATCATTATCTTGTTTAAGCCACTTTGATGTTGCA
0.7908963558988522 CTAGAAATAATTAAGTTTAGAGAGGAAGGCATATCAAAAGCCAAGATAGGCTGAAAGCTAGGTCTCTCATGCTAAACAGCCAAGTTATGAATGCAAAAGAGAAGTTTTTGAAGGAAATTAAAAGGGCTACTCCAGTGAACAAACAAATGATAAGAAAGCCATTATTCTTATCTTATACTTATCTTATTGCTGATATGGAGAATGTTTTAGTGGTCTAGATAAAAGATCAAACTACCCACAACATTCCCATAAGCCAAAGACTAATCCAGAGTAAGGCCCTAACCCTCTTTATTTATATATATATATTATATATATATAAATAATGTCATATATAAATATATATA
1 GTCTGCACCGGTAACTACAGTCACTCCCTCCCCTTATCCACAGGAATATGTTCCAGGACCACTAGGGGACGCCTGAAACCCCAGATTGCCATCAATTGAAATACATTGCTGTTCATGTCTTCCACCCACAAATGTAATGCCCTTTCTATATTAACTAAGCATTTATCACACACTGTGCCTGTACATTGTGCATTTTGAGGTGTAACAACAAAACTGGCTTGAATTTCTTTTTCCTTCTACACAATTTCATGGACAGAAG
0.4990047299098894 AGATCATCACTTTGGTTTCAATTGGTTTTGAAGTGTCGCTGAAAGAATTCTTTTGTTTTTACTTTAGGCTCGTGGGTTTGCACTGTAACCATATCTGCTTTTCTACATCTCTGTTTGACACTAGTTTGACCTCTGCTTACCTCATACTTGCTAAAAAGAAACATATCTAATACCATCCACCTTAGTGATAAGAGCAAGAGAAAACAAACAGTGGAAAGACCCTTCAGAAGTGGATGACCTACTATTAGCTGTGGGAGGCTGACGACGTCCACCCCGGGCTTG
0.1408442015142913 CCTCTCTACCTAATTGTGCTCTAATCTGTACTTAGGAGTATAGTTTTTTAAGTGGGACATGTCAGGCTTTTATGCCACAGATTAAACTCCAAGGCAAATAAATGTGTGACAGCTTAAGAGGCGAAAAGAAGAGTCTTCGTCAAATGGCAGAGTTTGATTGTTTAACCTAGACTAATCAGTCTTTGGAGGGCCTGCCACATGTCTTCCAGACGGCTAGAATGCTCAGGAGATAAGAGTGGGGCCTATCGCTCTGTGGCTTTCTCCCCCTGCATTAGCCGCAGAGCTGAGTGAGTCTATGAAAACCCATTGGTCGGGCTGCCCTAGCAACACAGAATGCTGTGCTGACACATACTCCATCACATGTTTGCGATGAAAATGCTGTATTTTTAGAACACTTCAAAGTCAGGAAA
0.06741705022635594 CTTAAGTTATTAGGTAGATGAGTGCTGATAGAGTTACTTGGAAGAACTGAGGTAGGAGAGCTGTGTTTGAAGATTCCTGGAGATAAGAAAACATTTTCAGAGAAAGAGTGAGTAATCTGGTTTACATTCTGCTATTGCTGTTGTTGGAGGTTAATTCTGTTGGGAACACCTGTGTTCACACAGGTAAATACCAACTGGCTCTTCCTTAGGGGATAAATAGTGTATAAAGTTGGTGTAGAAAATGCTGGTGAAGGAGTTTTTAGTAATGGAACTTAGCCCAAGGGCAAATTGTATATCACTCAACACTTTTCACTTGCTTATCTTTCAGGAATTTTAAGAAGGTTAAGGC
0.2207240360058665 TTTGGCAGACAAAAGACATGAGCAGACTCCCAATAAGTCTTCTATGTCTGAGCATATTCCCTCCCCTACCTTCTTGCCTCCCTTAACAAGCTGACCCAAGTCACCTAGTAGAAAGCTACCCCTTCCTAACTTAGCTGACTAGGCTGAATTCCTAACCATAAAAGGAAGAACCTAATCGCTTATCTCCTTGAGTGATGCCTCCCAAGGTTGCTAAGGCAGGACTCTGACATTCCTGATAAGAATTTTAGCAGATGCAGTTGAAAACTCCCCACCTCTACATGCTTACACATCACTCTTTCCTCTGACTTAGCTTCCTTAAAATGACAAGAGCTCAGCCTTTCAGGAAGTTAACACCGGGATCTCTTTTCTAGTTG
0.3590850081724523 CTGCTCTTGGTCACCCTCTGCAAACAAACTTATAAGCACAACTACTGCTGACAATCTCTCCTTTCTCCCCAAGTACACCTTACTAACATACGATCTGTGAAACACACTAGTGTTTCTTCATTCACTATCTCAAGCCAAGTGAGAAGGACTTTAGAACCACTTAAAGCATTTAAACCCCAGAGTATGAAGAAAATGTGATTGTTATCAGACTTAGGTTTGAAAAATTCTAAAGTCTGGAGCCTGGTGGGAGGGCCCGCGGAGGCAGAACGAAGAAAGGAAGCTT
1 CAGTCCCTAAGCACTCTCCATTTTGCCAATTTGCACTGCTTCTCCCTGTTGCCTTTCTTGATCTTTAAGCATATATGATACCTGCCCAGACCCTGAAGGCCTTTGAAGGAGAGCTCCTGATAAGATATGGGGAGGAATTTGGCTGAGTTCTGGTCCCAGGAGTTCTAAATTGCAGGCAAGGCAGAAGCTGTGCATTCTACCTGCGATGGAGACTTTTCACTGACAGGTGAGAGTTGCATCTTAATTGTGTTTTTCCTGTGGCTTAAAAATGTTTTTCACATATTCAATCATTCATTCCTTCATGTTTGATTTAAACAGGCATCCCTGAGGACCCAGTATGT
1 AAACCTGCACATATGCCCCCTGAACCTAATTTTTTAAAATTATTTTATACATGATAACTGTATTTCAAATAGAAAGTTCTCTCTCCTTTCTCAAGTGCCTCTGTTCTTCCAGCAGAGGGTGCTGTTGTTATAGGAAGTTGAAAGAGCACATAGAGATAATAGCAAAGGCCATCCCTCCACTTGTCTCAGCCATGCCTGAAAGCCCCAAGTAGGTGGCTCACATTGCTGCAAGAGACAATGTTGCTGTTCAAAGGCCAAACAATACCTGTAGAC
0.2889098883993232 AAGGTGTTAATGAGACATCGGTCATAGGTCCAGGCTCTGGGTTGACTGGTAAGCTTTGCTCTGGCCCATGGCCACAGACCCTGACTCCCCCTTGCCAGCTGTCTTGCACATGTAGCTATGGCTCATTATGGGGACACAGCAGGGGGTGGAGATAAGACAAGGCAAATCTGTCATCTCTGCCAGAAAAGACAACTCCTACTGATAGGTCAGTAACCTTTTCATTGGAAGAACAGCACGTTAGTATTAGC
0.772194565706434 GGCCTGTGTTTGGAGGGCAGCTGGGTGGGGCCTGGCCCCAGGTCCACCCCCTCCAGGCCCTGACCATCCTGTAGCAGAGATAAACGTCTCTGAGTAGCCAGCCGCCTAATGAGACTGTCAGGGGACTTCTTAATGAGATTAGGCAGGGCCCTAGCTTTGCCTCACAGTGCTAGGACTTCTATTCAATTAATCGTTCAGAGCGGAGCAGACGCTGCCCAGGAGGCAG
0.1171639420482488 AGAATACTCTTGATAGTGTAGTGAAACCAAGGAAGTTATTTTTTTAATATGCAAAGAAATGATTTGAAATTAGGGCCTTCCACAGTTTCAAACATAATAAAAAGCCTTCGTTTTCAGGAAAAAAAAAAAAGTTGGGAAAAATGCTTCTAAATTTGTTGGAGCTGACTTTTGCCTCTCAGATTGTTATCTAATTGGTTTTGTTTTCTGATTTATGGAACATGAATAGACTTTACTTCTTTGGATCCTTTAAAAAAATCATTATGAACTAAAGTGTTTGTATGCAGATAAGCTTATCTGTACATTCATGGTTTAGTTGATTTCTTGATTTGGTGTGTTCCCATGCTGCTGAAGCCAACAAAACAGAAGGAGAAA
0.004577007992455697 CACACTGACATCTGATCCAGGTTTTAAACTTGGACAGTCTGGGAATGAACATCTGTAATTTACTGCGGGCCATGCACTGTGGTGAGAGCTGTCAGCTTAGTGCTTTTAAGTGGTGAGAGCTGTCAGCTTAGTGCTCTTATCTTTACATGAGAAAACTGAGGCTGGAAAGGTCAAGCGTCTTACTGGAGGCCACATAGTTGGGCAGCTGCAGAATCCAGAATCTAACATGAAATCTAATCTTTCTGGCCGTAAGGCTGTGTTTTAAGGGCTCTGTTAAGCTACCCTTCCTAGCAATCCAGCTCAGGCCACACTCACTTTCTGGGAGTGCAGGGAGGACCAGAGCTAGCTCCTGCCTTGGGCAATT
0.6366388583324586 CCATAGCCTAGGGGAGAGTATTCTGTAATGGTTCAGAGCTCACATTCTAAAGTCAGACTGCCTGGGTTCCAACCTTGCTCCTGTCTCATTGCTTATCTGCACTGAGCAGGCCACTTAAACTCTCAGTGCCCCAATTTCCTTATGCTTTTAAAGGATGATGATAAGGCTACCTACCTCACTGAGCTACTGTAGGGGATAAATAAGTTAGTAAGTGTGAAATACATAGACTAGTCACTGACAAAATAAGTGTTACTTAAGCATAAGACATTACTATTT
0.8419800865159344 GGCCCACGGCCGCGGCCCACAGCGCGGTGAGCACGAGAGGCAGCTGCGCGGGCGCCCCGTCCGTGCTCCCAGCCGCCCAGGGCTGCCCCATGGCCTGGACACCCAGCTGTCGGAGCCGGAGGACTAGGCCGCTTCCGTATTGGGGCGGAGATAGCGGCAGACGGACGTCTGCTACGGCCAATAGAAGCTCGGAAGGGGGTGCGGCGAGCGCTCAGACTCTCAGGGAACGGCCGGCCCACGCGGCGAGTTGATCTGGCCAAC
0.9419461913626833 TTTATCTATTTATTATTTTGCCCCTCATCTTGAATGAAAGACAAACAAATTTTAAAGTTTATTTCTAACCAGAAGTTAAAACAGGAAAGTGCAATCTGAAAATCTGAAAGGTAAACACAGCTGACATTTACTTCTGAGGGTAAGCCGATTTGAAGATCCAAGTCTAGAGTCTTGGAGCAGAACAGCTTTTCTAAATCAGATGTTTCTTTATTAAGTCCAAAATATATTCAT
0.2184572083792553 TACTATGGAAGAGGTCATTAAGCTACATGAGTTCTACAAAAGATGTGGGAAACCTCTGAACACTCAAGCAACTAGATAACAACTTTTCACTGTGGAACATTCCTTCCCCTTATCATTGAGGTTTTAAACAGCAGTGTCAACCTTTGTGTACTCACTCCATCACTCTTCATAGCTCCTAGCATGATCCTTATCTTAGCCAGGCATCAGGACCCTCTAACCTCATGCTTACTCTTGTAGCATCACTTCAGGCTCTTTGTTCACTTGGCAGCCAGGATGCCCTTTTTATTTATTTATTCCTTACTTCTTAAATCTTGTTTCATTTTAGATTCAG
0.4047566166398336 AGTAGCAAACTCATATCTTACCTGGTTCAGCACTATTTTTCAAGTGTAGGCTCCTATCTGATCTCTGACTGCATTTCTTACTAGGATCCTTGAGGGTCTTATCTGCATGTAAAGTCTGGCTGTCAAAGTGGTATTTGTGCAGGGTTTATAGTCATATTTTGGGTCTTACTCCTGAAATTCTTTCAATGCCGGATTTTTCCCCTTTGAACTTCCAGCTGTTATTTCAGTCATAAACACAATTCTTTGGTACTTT
0.3541112103375208 ATGCAATGGTAACCTCAAATACAACCCCTTCACTAGAAAACAATATAAATGCAAATAGTGAATCAGTAAGGTCATTTCCACTCATTTTTAGCACAGATTAACAGAAGCAGATAACAAATATTAGGCAAACAACTAGAAGGAATTTTTTTAAAGGGATAATCTACCAGGCATGGTCGCTACTGCCTGTAATCCCAGCTACTCAGGAAGCTAAGATAAGAAGATCACTTGAGCCCAGTAATTCAAGGCTGCAGTGAGCCATGATTGTGCCACTTTACTCCAGCCTGGATGACTGAACAATACCTTTTTTTT
0.3497540231529987 AACTAACAAGCTAATTAAAAATAGCCTTAAAGTAAGGACACTTGTGTAAACCAACAACTTTATCAGAAAAGGTTTTCCCTGGAATTTCCCATCCTCATTCAAAGGGACAGGCAGTGTTCTGGATTCCAAACAATAGATTCTAATCAATAGCTCCTCCTATTCAAATAGTGGCAGAATCCTACCTGCCTTCCTTCCCTCCAGTGGAATGTTAGTATCTCTCTCAATGAATCATTAAAATTCCTGGCTTGTTATGATGTACCCGTCACTATACCTACATAATATCAAGC
1 TCAATGTTTATAAGCAATATTATTGAAGAAGAAAATGAAACCACAAAATGAGGGCCAGGTGGTAGACAGGAGGCCTGTGTCCCATGCTTAGTGCTGCTCTGAGATAGTATAGTATTGACCTTTTCACCTAATCTCTCTGAACAAATTCTCTCTCTAATTGTCTGCCTCCCAGAGTTGCTGGAAGCACAAGGGAGATAATACGAGTGTGTCTTGGATTTTGTCAAGTCCTATAAACCAAGAAGTGTTC
0.1663727309434759 CTTGTATTTGTTAGGAAGCTGGAGTCAATTATCTTTACAGTCCCTTCAACATCCAACATTATGGGGTAAAGCGGGAAGACAGGCAGTCAGGAGCCATTGGTTATAGTCCAAGCTCTGATAGAAGTTGGCAAGTCATTTAACCACACCTAGCCCAGTGAGCTTATCTGCAAATAGGGCTAACGTTATCTCTTCTGCAAATAGCATGCATTGAAAGGCTCTAGAAAAGTTGACTAAGTATACTAGAAGATTAATGTGTTCTTGGCATGGTTGCTAGTGCTGCCATTGTAGGTCAAAAACAGCCACAGACAGTTTGTAAACAAAT
0.2691201351804766 ATGCCCTCCCCAACCAATGAGGTATTGCAGGTTGTAAAGATCCGCCCCAACCCACTACTGCCATCAGCCCTGCTGATGGCCCAAGATTCACCATGTGTAATGCAATAAAGACATCATTATCTGTGTTGCCTGTGCTAGATCAAAAGACCAGCTTGGGAGACTGACACTCTTCTATCTCTACAGCTAAGCCTGTGTATCCTGGCAATTATACTAATGGCTTTATCAATGACCTTTCCCAAATTAGTACGTTAACCCCATTCTTATCACAGTGGCCTTCCTCCTGAATAGAGCTCATGATGCCCTACTTATCTGCCTGTCTCAAGCTCTAAACTTCATTCCTCCAAACGTGTTTTCCAAAACGGAGTCTTGCT
1 CTTAGAGAAGATACAGTATTGTTATATCCTCTCACTGAAATCAGAGACATATCTTTTGAGTATGTTAGGCAGATGATCATGACATTAGATGAACTAGGAATACAATATTTAGGAAAAAAGTGATTTCGAACCTTATGGTGTCAAGTTTCTTTTTATCTGTACATGTCAAGTGTTCTCACAGGCAGACTTTTTAGAGAGATTGCTATCACTGACAACTTCCAGAGTTTGAGAGTTTTTTGAATATACTACTTAAAAAAATCTCCATATGGTTTTCATTTGAAAAAACATATTACAAACTGAGACATTCACTATAAATTAAATTGAAATAATCAAAATATAATTAAGCTATTTGTGAGTTTACATTTTGCAAAACATTTTAGAAGCAAAATCATT
0.3834173098459703 CTGAGCGGACTCTCTCCAGGGACTGCCGCCGGGGAGGCTCAAAGCTGTGTCCTTGCGATTAGTTTGGTACACTTGGTTCAGCAGCCTGGGGAATGTGGGGAGATGTGTGCCTGCACAGTATCAACGTTATCAGCTGCCCTGTTCATGTCGCCTCTCCCTGAAGGACACTTTCATAACACAGTAACACTTAGGAGAAGGTTCCCCTCCTTTACTTCTGTTTCTCTGCTGATAAACAAATGTCAGGCATCTTCCTGGATCCGGGCCCTGATTCACTAAGTTACTGTATATCCATTGCCCTTTTTTGTCCTCCAAACACTGAGCTCTCAGTGCTCTTCTGGCTGGATCCAGATTGTGAAGATTACAGCCCCACTGGTTCCTTTCAGG
0.3808966287230723 GGAGAGATAAGTCTCAAAGGATTTTGGAATTCACTCAACTGTTTGAATGGAATGTTCTTTCCCCAGATATCTCCTGAGCTGTTTCTCTGGTCTCCAAGTTTCTGCTTAAATGTCACCTTATCAGTTGAGGCCTTCCCTGACTATTTTACTTAAAATAGTTCCACTCCAGCAATTCCCTCCCTCCCTCTCTCCTTTTTCAGACAAGATCATGCACAATTTTGCACAACTCCAGGAAGTAACAC
0.4465834249199608 TTTCCGTATGTGGAGCATCTCTGTAACTCCTCTAAGGTCACGGGTGTTAAACCCACTCCCGAGACACCATGACAACACAGAACACACTGCGTTGGGACGTCAGCTGGGTCAGCTGAAGGACTTGTGAGTGCAGCTCCCTGAGCTGCAGCTGACCACACAAGTGGGCAACTGAATACAGTCCCCATAAAGCATGTTTATCTTATCTGGGGCTGGAGATTAGCTGTGTTGTGCAGAAGGGAAGAGGCATTCCAGGTCTTTCCAGCTGTCTTGCCTGTGAACATTTATCGTCCCCTAGTTCCGACGTTTATTATCCCCCCGGGTGGATAGCACTAATTCATACCAGTCTGTCCGATGGCAGCAACCCCCATAGATGTATGGGTCATGGCGGAAGAGGGAGAAACCCCAGACTCTTGCTATTTG
0.35593435415775 AATAGGGATGAAGTGGCATTTCATTGTGTCTTTTTAATTTCCTTGTTTAGCAATGTAAATTTTTCCTATGGAATGTAAGCAATTTTCTAGATCACATTCATTCCACACTACCTAATGAGCACCTGTACTTCTCTTCCAAATAGCCTTTTTAGAGTCCTGCCCTGGAAATTACTTCCGTTAGTTGCTTCCTTATCTTTAAACCATCTAAAGCACCATTGCTTGGTTTAGCATTTTACCTCCTCGAAGCAGAAGCGCTATCTAGTGGCCCAATAGAGTAGCTGCAGGGGCAGCCCCCATTTTCACTAGTGCCTGTCTTAGTAACAAGGTCCTTGATATGCTTTATCTGGTGCTGCTGA
0.6995214799956134 GCTCCTCAGACATACCAGGCATACTTCTGCTTCTAGGTCTTTGTCCTTCTGAGTTCCTTCTGCCTGGCAAGCTCCTCCCCGCACCAGATAGTATAATGGCTCTTTCAGAACATTCAGATCTCTACTTCGCCTTATCAGAGTAGCTTGACCACCTTTATCTAAAACAAAACTCCCTCCCAGAATTGCCTATTCACTTACCTCATTTGTTTTGTTTTGTTTTTGAGAAAAGGTCTTGCCCTGTCACCCAG
1 GAGGACATTAAATTAGCTCATAGAAATTAATGGTAATTACATAAAGGCTAGAACAGAAAATGTTAAAATGGTTTTCTCAGGTGCAGAATGAAAGCATGGGGAGCCTGGAAGGAGAAATTCAGAGCGCCTGGTTTATGTTCTCGGCCTGACTCAGCACTTGGTTATCAGCAGAGGGCGGGGATGAGGCCTTTAATGAGAGGGTTGTGGGAGTGAGAAGAGAAAGGGAAAGACGAAGGAGGAACAGGGAGGAACGCAGGACACAGTGAAAA
0.8141141537104846 CTCGAACGGGTCCGCCGGCCGCGCCGCCTGCGAGCCAGTCTGACAGCGCGCTGCACACCTCCGCACCCCACTTCCGGCGCACTTCCGTACCCCTCTTCCGGCGCACTCCCCGCACTCCACTTCCGCAGATTAGGGGGCTGGCACGAGTCACAGCACCTCGTGCGTCACTTGGCGGCGCCGGACGTTGGGCTGCGCAGGATTTGAGACGCTCCCCTGACCACCACTT
1 TGCCCACCTTGGCCTCCCAAAGTGCTGGGATTACAGGTGTGAGCCACTGCGCCCGGCCTCTAAGAAAATTTTTGAGAGCTACTTGTTCTGTTGCCTGGAATTCCACCGTAAGTACGACGTTGTGTCTCCTTCTCCAGGGCTACTAACTAAACAACAGAGGGTATTGTGTTATCGACAATTATTTGATTGATAACTATCAGCAAACATTTGCCAAGGCATTCCTTTAAAGATAGCCTAGTGACTCTATTAACTACTCCTTCTTCCAGGCTTCTAAGTTCTGTTGGAGGTAAGTAGATCCCAGAGATAAAGCACCTACCATAGGACCTGAATCTTGGTAGAAATAAATTATATCATCATGTTATCATATTATCATGTGTTTTTCTATCTTTAAAGTCTTATGTGAATATTCTGCTTGAAAAATATGTGTCCTCTGTTA
0.3099409262021114 AAAAAAAGTCAAAATGAAATATTTTAAACATACACAAAGGAACACACAACAAATCCCCCACTATGACCCAGCAACAGCAATCATCACTCGTTAGATACTGTTATCTGTACCCTCCACTAATCCTTCCCACTAGAGTATGTGGAAGCAAATCCCAGGCATTGTATCATTTCAATTCTAAAGATTTTGTATGTATCTCTAAAAGATAAGGATGTTTTAAAAATATGTAACAATTATATTATCTCACCTTTAAGAAAACCAATTCCTT
1 TCAATAGTACATAAATGTAATTGTTGTAGAATATCAGCTTGCACTGCATTCAACTTCAGTAGAAATCTGTACTAGGAAGAAGGCATTTTTTTTTTTCACTTTATAAAAGTCAACGGGCGAGTAGCCCAGAGCTGATTCAGCTGCTCAAGATAACACCAGAAACTGATAATTCTGCCTACTTCTCATGCTTTCAGACTCACTGGAATTCACAGCATCAGCTCCGTGGCTTTCCCACTCCCTGACCGCAGATCTTGGGACTTCTCCGCCTCCATATTGCATGAGCCAATTTCTTCTTATATACATAT
0.3784678083406874 AAATATGGATCAGCTGAGACCATTTAAAGCCGCTTTTTATGGAGTTATCGTTAGGACTTTTCCCCTTGGGCTGCTTTGTGTACTATTTCCCAGAGCCTCCTCTTCCAGGATCTAGTTATCTAAAAAATATAATTCTTTCTCCTTGCCAGGGAGATCACAGCCTCCCAAAGACTGATAAGGACGTCTGCATTCCTCCCCGGAGCCTGGGCAAACTATTCCCAAGAGTTCCATCACTCCGGGCGGGAGGTGCCGTGGACCTCAGTCAGGGTTTCTGCT
0.7952815538632519 TGTCTAGAAACTGCACGACTTCCTAAAAAAGACAAACACATACCTTACATATCCACATGGCACCAACATAAGCTATTTCCTAGGGAGAACCTAAAATAGTCATTATTTTCTATCAATTTGTTTCTCACTGGCATCTTCTAGGGGCAATTCAGGGAATACAAGGGTATGCCAATTTCAAGTGCTAATCTACTGCGGTTTTTCAAATAGTCCACAAAGTGTATTTGGCTACTCAGATTAGTCCCTATTGTAAATACACACTGTTTAAAGCTATCAGATAAGTAAATTAGCTGGTTAACTAACTTTAAGTAAATTTGTTCCAAATCATTAATTCACAGTTAATGTGGTTTTTATTTAAATCTAATTCATATTAGTTCTTATTTAAATTTAATT
1 GTTCTGTATTCCTCCCTGTCAGGTTGAGCACTGGGAAAAATCCATTCACCATGGGGGAGAGCGCCAGAGGCTTATTACAATTATGTAATGCTAGGCCTAGACTACCATGGGGCAGACTGACATTCCTGCCCTATCACCCCACTGGATAATACCCACTTAGGTTTCAAGATCTAGCTCAAAGTCCACATCCTTTGAAGTCTTGCTTGAGCCCTTGCATAAAGCTGGCCATTCCCTTTTCATGTGCCCTAT
1 CTTGCTGTCACTGAAAGCAGAACAAAGACCCAAAAGAAAAAGCAAAGAAGACAGACTAGGCTTAAATTTTAGCAGAAGAGTAAATATCTTCTTGGTCCTTTAGTAACTTAAAACCATTACAAGTTTCTACAGAGGAATGTAATTTCTGTCCTTGGTTATCTGGAAAAGATAAAACAGAGCCGTGCTTTCAGTACTTGGCCGAGGACATGGGGGCATTTTAAAGTGTTGGAATGATTGAACACAAGCCATGCTGCTGAGTCCTGGACACCCAACACTTTAAATGAG
0.6417726709623655 CTCCCAACCGCTATTGCAATTATTTGGTCAGCTGGTGGCCTGTCTCAACAGAGAGGGCAGGAAAACAAACAAAAAAAACAAAACTCTTGAGTAAAATTATCTTATCAGTCTCAAGTGGTTAAAGCTGCCATGCAGGGCCCTCTGTGTAAAGAAATAGTTCTCCCCCTTCAACAACTCTGAAAAGTAAAAGAACAAAACTGTGCTCTCTCCAAAAAGCATTAGTGAC
0.4171195739333154 GTTATGAGAGACCACTTGATCTTCGGGTGTATGATGGCTGGTAAGGCACTAGCAAAAGCTAAAGTTTGGGAGGTGCCTCACAGAGGTTGCAGTGAATGGATATCTTTGCCTGTCTCTTATCTGTAAACATGTAAACATGTAACCCAAGTCTCTACACAGCTGCCAATCCTACCTTAATAAGCTTTCTAAAAGTAAAGTTTAAAATGGGGGACTAAAGAAAACCAAAAATATTTATCCCAAAATATACTTCTTTGACATCTTTCA
0.6333972895693429 AAAAAGAGAAGCAAGGCAGCAAAAAAGGAGCACAGTCACAGCATCACAATGTCACAGATGATTGCTTAGTCTACAAAATGTCACCAGAGACTACTGAAATCACTCAGTCTCAAACAGTCCATTGTGGATCGGGGAGTGGGGTTGAGGGGTGGGGAGATAGCAATCAATTTGCCTGCTGGCTTCTTTCTGCTTTCTGCCTTTCACTGAGGAAAGAAAATTCACCCTTAGGGCACTGACTCCCTGTACTGTGACTTGGTGACAGACTGAAGAATCAATGCCAATCTTGTCTGGTCAGTGCTAAGACATAGTAAGTGGTTTTTCTTCTCATTTGGTAT
0.4724265666843416 ATTAAAACAGACCCAAAAAGCCAGGGGGAGAAAGCCCTCAGAGCACATAACATTGCTCCAGGAAGATAATTTCCTACAAGCCAAGTTGCTGAAATTGCCTGTCGTAACCTGAAACCAGTTTTATCTAATGGCCACTGAAACAACCTTGAATGTTTTATCTAAGGCCCTCACTTGCCAGTCAAAACCTGCCAGCTCCCTAACACTTTACTAATGGCAATGAATTTTCTCAAAGAACAAAGCATAACATTTCCCTTTTTTTAAATAAAACCTCTAACCTTTTGTT
0.3916957670962812 CTTGCAGGATCGTTGTGAAGATTAGATGAAATCGTGCATACAAAAAGGGTTTTATATACTGTCCTAGGTTAAACATGTGTTGGTTAGATTTGCCTCTAGCTTGAGAGATACTCCCTAAAGAAAAGGACTTCTACGTGCCAGTAGGCACCAGCAGGGATTCCCTGCGGGCAACCTTTGAAGGCTGATAAGCATCTCTAACAGCTGCATAAGAGAATACACGGACCAGCTAGAGGGCAAGGGTCATGCCCTTTGCCCTTCTGCTCTCAGCTCAAAGGACATCTGCCAAAGATCCCCTGCAGGGAAATTTAACTCTAAGGAGAGAGGCCCAGCAAACATTTTAAGAGATCATTACATGTTCTCTTACAGACCTATCCCTTCGT
0.6161213502256627 GTAAAGAACGCCTGACTCCTCTTTACAAACCCCAGGCTCCATTTAAACTGCAGATTCCGCGGGCATTTCTTCTTATCTAACTCCGCCCTGTGGGTTCCCAGGCGCTGACTCCCTCATCCTGCAGTTTCAATCCCTGCCTTGACTCATCCTCCTGGGCCTGCCTCTCCCCTCCAGAGTGCCTGTTCCTGCCTGCTCGGTGACTGAGCTGATCTCTCTAGGAATGACC
0.6827066767753819 CATTTAAGGTTTGTTGACCTTCAGACACTAGAAGCCAACCCGCTTGTAGATAGATTGTTTAAACACAATCTTCTAAATCAATGTGGACAGACCCTTTAAACACAATCTCCTTAATCAGTAAGTAAGCCCTTTTGTGTTTAGTTGTTTGGATTCTCCGCTGTGGAAAGAGATTGCAGGTGTGTGTTAATCACTACATTAGGACCATCTGATTGTGCCTGTTCTAATTACATGATATGAAAATCAGCAGAGGCTCAAAAGCATC
0.3136625696336909 CCATAAACCAGCCCATTGCTTGAGGCAACAGAGAACTTCTCCCGGTAAGCAAGGCTATACCCAGCCACATTGGCCACAGACAGCTCCTACCCATAGGCACCATCTACTGGCTTGAGGTTGAACTGCACAGCCCAAGATAAGACCTGTCAGCAGAAGTGCATAGGGCTATAGAAGCAAAGCCAAAATATACTACCCAGCCTTCTCTGTAATCACATCCTCCAGGGAGGGGGTGAAAGGGAAAGGGAAA
0.5270692861754857 CTTTTAAGGAAATCACTTAAGGAATTGAAGATTTAGAGTAAGAGTTTTGGTTAGTAGACTGGCTTTGCTGTTAAATCCTTCCACTCTTCTGGCAGAGAGATTAATTTCCCTAATCAGTATCAGCAGAAGATAAACTTGTTTATATTCCTGCTGTTTTGTAGATCCCTTCTCCTGGTCCTTCTTCAATAGAATATTAAATTCTTAGTTTGTATACAGCAGAGAAGGTCACTTATAAAATTCAAAAAGTGAGCAAACAGGTCTAGATTAATTCCAAGAGTTACCAGGAATTAATTGCAGTTTATTTTGCGGAGGTGATTACAGTGCTTTTGATGAAATG
0.244270306146206 CAACATGAATTCTCTGCTTTATGATTAGAGCTGATTACTGTGAGAAGGCTTTATGACTTTCAGGAAACAAATAAGTTTTTTTTTCCATATATGAATGCTCTGATGCATACTGAGAACTGATTATCTGGATACCAGGGTGACTGAATGGAGCCCTTATCACAGTCACTGCATTGATAGGCTTTATCTTAAGTATGAGCATGCTGGGTTTCTTCATATTTGACATTTGAAGGCTTCCTCACAGTTAGTTCACATATAGGTTTCTCTCCTGTATGAATTTAGTAACGTAGTTGAAGATGTGATTTCTTAGCAA
0.782331924342697 CACCTACTAAGTTTCTGCAGCTGACACTTCCAGGCTTAAAGTCTAGCACGCCAGCTCAGTCACACATGGTCTGACGAGTCCTCTTTGCAACTCAGCCCCAACCCAGCCACCCGTGCAATTTTGCTAATTCAAACAGCTTTCCCGTTTAGAGAGGTTGATAGCCATCTCCCATCTCCTTTTCCTACTGACGTCATCCCACATTTTCTCCGGAGACAAATAAGGGTAGAGTTCCTGGGATAGTTTTCAGGCTGCCTAAGATAGGAGTGCAGTGGCCTCCCGAGTCCACCCCACATCTCAGGCTTTGGACAAGTCGTCAAAAGTGAGAGGGAGGTAATGAAATAAATCACCTAGCTAGGGTTAAAGGGCAA
1 ATCCTCTTAGCGCTGACGAGCTGGGCAGTTAGTTTGAAATTCTGGGCTAGAGACGCAAATTATTATTAATTTCCATATAAAGTGGTTGGTAGGAGGAGCCACAGGGCTCAGGGAGGTCACTGAGAAAGGGAAGAGCAAGATAGGAATCTCCACATGCAAGACTTCGGGAGGGGAAGGGGGAGACCAGAAAACCGGAAGGGGAGGAGAAGACTGGCAGAGAGATCCAGAA
0.8760891382712004 AAATAAAATCACTCAAAAATAAGGAATAGCTGAAGCAGACCTAGAATTACCTTGGTGGAATTACCTTCTTAAGAACAATTAGAAGTTTATTCTTTAGGTCAGGAATGCTGTTGCCAATCTTCCACAGCAGGTGATAAGAATTAAATTCCCTCATGACCGAGGAAACGTTCTTTCTGCTAATCTGGTTCCACCTGGAGGTTCAACAAATAGAAGATAGAGCACACGGTGTGTTTAGTCTTAACCACATAGCCCGAGGCACTGGGGAAGTGTCCACACGATGTTTGCCTTCTGTGAACCTGGAAAGCAATTTTTTTCTAG
0.2212649843759143 CCAGATACATGAATAGGGAGACCACGGTTCTGCAGTTGACATTTCTTCAGCTGCTCTTTCAGAGGTCTTAACATTTTTTCTCACCAGATACTTGCCTGTGAGCTGCTATTTGAAAGATAAGGTGTGCTGAGTAAATGATTAAGCAAGTGAGACAATAAGAAGCAACGTAATCTCATCAGAGACTACATCTGTTTTTTTCTTCTAGCGTAATCACTGGGGTTGTAACAAGCAGGTAATCATCTAATGTTGGATGAATAAATAAAATGAGT
0.5495476106330407 TAGTTTTTACCACTGATAATACTATAGTCCAAATGGGAGTGCCAGAAATCTCTGCATGTCTGGCCACTCCCTGAACCAAGATTACTGTATCATTGCTATCTTGACGGTAAGTGATCACATCCACTTTACATGTGCCATTTACTTGCTTCTGCTGGCCCAAGAAGCTCTTGATTCCACTTAAATCTGTTGATTCTGCCATTAAGTTGTTATCTTCCCCGCCAGCATTCCTGACTGAAAAAAAAAAAAAGAATTGAAAAGAATTGAAAGAGTCAATTCCAGTGTGGCAGAGGCTTCTTTGACAATTGCTTGTAACAATGAAGGAGAAAATACTGTGAGTAACATAATTCACAGGCCAATGGACAGGGTACATAGGGTAGATC
0.8407151045892044 CTGGAATGTTAGAGACAAACTGCCCCAAAAAAGCTTCTTGGTGCTGCCCACCCCTCCCCCTAATGCTCTGCAACCCTTCTCCGTGCGGTTCACCCTTCCCTCAAGCCTCTTTACATTTCTAAGCCTTTATCTAGGCGCCACGGTAAAGCCAGCAGACTTCACCTGTCAGACCTTGCTGTGATAAGCAAACCCCAATTACAAACCATCCAGAACTCACAGCAGGAGGTCGTGGGAAGCATAAACAAACTTTCCCTACACCCTTCTGTAAGTTCCTGCTCTTCATCTAGTTGCTACCACAAACATCACAAGGTGATATGTGGCAAAATTAACCAGCAAACAAC
0.7905540271308138 ACAGCCGTCGCCCTGGAGCCAGGCAGCAGCCTTAAGCTTCCCTGGGAGGCTGACTGGCTGGGAGCAGGGAGGTCCCATCGGGGAAGTAGGGGCGTGCAGGGGGCTTGGCGCCTGCAGTCCTGGAGGGGCAGGGCAGATGATAAGGCTAAGTACCTCCTGTCCTTTGCTCAGCCAGCCACTAGGAGGAGGCCGCAGAGAAGAAGCCGCCAGGGGCTGGGGGAGGCCAGGGACGGGGCAGGGAGGAGGGGCTGGGCTGAAT
0.3578244845684615 GTGCTGAATGCAAGAATGAATAAAATCACTTCATGACACTTGGTTCTGTCCACCATGAGTTGGGCAGAAGTTGTTCTAGATAAGAGAAACTAGTAATTCAATATGGCTAAGCAGCCAAGCTGGCTGGAAGATAAGGGCTGTTTGGGTAAATGATATGTAAGTTAGAGAAGAGTCACAGAACTGCCACTGCTTGCCTACATATGCATTAAAGAGCTATAAATAGGACATCTGTCCTG
0.0008368761690795421 TTCCTCATCTTAGTGCTAGTGCACTTGGCAGAGCTGATGGCTCTGATTCCTGTATTTTGAATCCTGTAATAGCCCATGCTGACCACACTTGGGGTCAGGGGATATAGATAAAGGGGCACTGGGTGGCTTCTCTTCTCCACGGAGCCTTGAGATCGAGTGCTTCTAAGTCCTGAAGGTTTGCCTATCTTATCTGGGAAACCAGTAATAGGAAAGAATAACACCCCAGCCGGTATCTCTAACCCTCACCTTGCAACAAGTGTAAAATGAGAAGGGGAGGGAAGATTCGCCCCAAAGTCTCACGAGATGGGGCCTCCAAGGACTTATCAGGAGCTTGCTAAGCAGGTAACTCTGTACCGGGGGCTCCAGCAGCAGCCGGGGAGGAGAAGGCTGATAATGGGATTTGCGTTTACCCAGCAAAACCAACAGGGAGCAATCTTCAGTGGGTGGAGGAAGAATGTGAGCTCACGATAGCCCAGG
0.2118079369672855 TCACTCTCAGCCCCCTAGCCCCTGGAGGTTGTTCAGGCCTCAAGCCAGGCCAGCCTGAAGATTCCTATTCCCAGGCAGCTGGGCTGTGGCCCCAGGAGGGCGGCCAACAAGGGGCCTAGTGGCTTATCGCTCTGCAGCGACTCCCCAGCAGGCAGACTGGCTCCGCTGCTGCAGAGCAAAGCTGATAAAGAGGACAGAGCCTGGTGTTTACTGGAGCCGAGTCTGGGGAGAGTTGGGCCTCCCAGGGGCGGCCCTGTCTCCTCTGGGAACAGACTGTCTGTTTGCGGAGATACCATCACATTCCTGCAGCCTTGGCCACCCCAGGATGGATTGGGGGAGGGAGTGGCGGAGATTGGTGGGGAGGAGGCGATATGACAGCTGCGGTCCTCTGTTTCCCTGGGGCCAATGCTGAGGAGGCCTGAACTGGGTCCTCCAGGGGGATTCAGGTTTCCCAGCCTGATTACCAAGTACTTT
0.5075297852729127 TCAGGTGGGAGAAGCTTGAGGTGGAGAGCAGACATTCCACACAGGAGCCTTTCCAGGGGCATTCCCTCACCCTGCTCCCCCAACCCCCGCATTCCTGGCTGATCTGTCTCCTACTTGCCTGGGAGTGCCTGGCTCCAGAGTCCCAGGCACTGCAGATAAGAGTCACACCTCAGAGGCCAAGGGGACAAATATGCAGGACAGGCTGCTCAGATAGAGGGAGCCTCAGGAAGGGGTCAGGCTCCAGAGGGAGGCCCTGGGAAGGAAAAGCTCTTCGGGGGGATGTGGTGGGATGGTATGAACTCAAAGGCAGAGGCCTGACCTGCAGGCCCCT
0.5561795241045374 TGTGAACACAAAAGTATCTGAGACAGATCTCAATCAATTTAAAAAGTTTGTTTTGGCAGTGTTAAGGACGTGCCCGTGACACAGCCTCAGCAGTCCTGATGACATGTGCCCGAGGTGGTTGGGGCATAGCTTGGTTTTATACATTTTAGGGAGACATGAGATAGCAATTAATATGTGTAAGATGTACATTGATTGGGTTCAGAAAGGTGGGACAACTCAAAGCGGGGGAGGGAGCTTCCAGGTCATAGGTAGATAAGAGACAAACAGTTGCATTCTTTTGAGACTCTGATTAGCCTTTTACTGAATACACAAGTTCCATGTGAGAGGAAACTAGAGGAGTAGTCAC
0.06418357811038601 CCTCAGCCAGGGCTCTTAAAATTTAACCTGAAAGACTGGTTCAGGCCATGAAGGGAAGAGGAGGTGGAAACATGCCTCATTATACCTCTCAGGCACTAACATCAACGCAGACTTTTCAGTCTGATAAGAAACATTTCTCTCTGCTCTCTCAGAAGCCTGCTAGCTAAAAGCTTCATCTGCATGATAAAACTTTGGTCTCCACAGCCTCTTATCTCAACCCAAACATTCCTTTCTATTGATCCCAGGTCTTCAGACAAACTCAACCAATCGTCAACCAGAAAATGTTTAAATTTACCTATAGCCTGGAACCCCCACCTCCACTTTGAGTTGCCTACCTTTCTGGACCAAACCAATGTATGTCTTAAATGTACTCGATTGATGTCTTATG
0.2953307032414842 ATCATGTTTTAGTATATATAAACCCCTCACTCTATTACACAGCCCCCAACAATCCAAAAAGTCATTGTTTATTCATTGTGACTCCCAAACTGGCCCTTGTCAGCTCCTGCTGGAGAGCTTGCTGATAAAAATCAGCAGATGATTGGACGCACACATTCTTAACATGACTGACCCATGACATCTCAGAGGGCAGCTCGAGAGCCTGTCATTACAGTACAATACATTTCTTTCTTCTTTCTTATCTAGCCCAGATGACTTCGAGATTTTTAT
0.6887665638615519 AAGATTCCAAGTCATTCATTAAAGTCCCGATGCGGCCGGCCCCCAAGATCTCAAAAGGAAATATTGCCGAGTTCCGTTTCCCAGAGCATCTATTTCCCCTCGAGTATTGCAGATGTAATCATAAACACAAGCCAGTTACAGCCACAACTTCATGCTTTAGCGAGAACCCAGTGGCTCCTGCAAAGTCCTTACGCTGCTAGAAACCCCGCCCCCGTTCGTAACTATGGGAACGGCTGACACGCTGAGAGCCGGAGATAACCCTGTTCCGCCCCCTCCCTGACAGATACTGTTTCCCACTGTCTGTCCACATGGGCGCACCGCCTCACTATTGGCCAGGGCTCCAGGACTGTGCCTGGCCTCAGCCAGTAAACGGCCTGTG
0.1876816111566746 AAGCTCAAGTTCCTTTGCAAATGCTTGCAACTACAGTATATCCCTGGAAGGCAGGGAAAGGTTATCAGCGTTGATAGCAGAGCAGGAGGGATTGGGAAATGGAGACCTTTGAGGAGGTCAGAACTCTTAAATTAGCTGATAAGTGCTCAAGGCATTTGTATTTTGACAGCCCATGGTAGCATCAGATAAATTGCCTTTTAACGGGGAACGTATTGACATGTAGTGG
1 CTCCCAGGGTAGTACAGTGGGGAAGGTTCCCCTCCCCCACCTCTTTTCCCAGACGTGGTGGATGGGGGAGGGGACTTCGCTGGAGGTGTTAAAGTGCCATTGAGATGGTAACCACACCAAGGGGCCCCCACTTTTCCATATCAATGGCATTCCAGTCCCTGATTAGGCCCCAACCTTAACCCTTCCTTTCCCAAGATCCAACTGAATCCAGGTGCACGGGGGCCTAGGAGAGGGTCTAGGACCTCCCAACCTAGG
1 CCACCAGCCTCTAGGCCTTCATCCAATCCTTTTGCAACTCAGTGATTCATGACTTTTCCCTGCATCCAGTCTAGTCTCTTTGCTGGTCCATTGTTTCCATAGTTGCCAGTTTAATCTTCTTAAAATGCTGCATTTTTGAAGTCAGTCTCTTTTGGTCCCTCTCAGAAACATTTAAATAGCTATCTGTTGCCACAGGGGGAAAGCTTGAACCTCTTAGCCAGTCATTCAGAGCCTGCCCTCTGCTGGGGCCTGCTTTCCTCTACAGATGCTTCTCCCACTCTGCCTGCCACAGCCCTTGTAGCTGGCTGATTGCCCTGTACCTCGCAGGCTCTGGAAGTCTTCAGCTCCTTCATGGAGCCTTTGCCAGCCATTCTTTTCAAGACTTTGCTGTTGTTCACTGCCTGATTTGTTCATTTG
0.9014815716546762 AACGTCCCCAAAGGCTGATGGCTTGTGTGTGCGTTTGAAGTCAAGTCATTCACAGAGCTAATTTGAGGCTCTCCTCGGAAACTATATTTGCTTTCTGAGTGCATGGTGAGTTTTCATTTGGGCCCTGACCAGCTGACAGCTATGCAAGTTTGTAGATACCAGTAATTGAATATAGATAACCTTGATGGTTGACCTCGTCAGAGCCAGGCCTGCCTGTTCCCCATTGTTTCTGGTTTTGCCAGTAGATACTAAACTGCTGCTGGATGAAT
0.3451865195384427 TATTCAACATGGCCAGGTGTCATGATCACCCTGAGGGGTTAAGAACATGGGTTTTCAAGTCAGGCCCTGGGCCTACTTTCCTGCATTCGCCACGGTGTGTGAGGCTCCTCAGGAGGGTGAGGCCTCACTGAGAGAATGACAGTATCCACATTCAAGCACCAGGCACAGCCCAGGCAGAGATAAGGACCCACGTCAGTGCCAGCCCCACCCACCTGACAGATAAGGCGGTGGTGCTCCCACAGGAGGCCCCAGAAATCCAGCCCAGCCCTCAGATCTCCCTTGGAGCTGCACTCCCTCAGCTCCTCATAGGCTGAGGGGCCTT
0.9483027132674505 AGTTTGTTGTTACAGATCATCTGAGAGAAAATGTGTTGAGTGAGAAAGAAGGAGCCCTCTTAAGAACACCAGTATCTAAGGGTTGGGCAGAAAGAAAACAATAACAGAAAAAAAAGGAGATTGAGAAGAAACAATCTGATCTGATTAAATTGGAGAAAAACCAGAAAAGCACAGTGTCACAGACACCGAGATAAAAGTGTTTTAATAAGGAGAACCTTGTCAACAGTGCCAAATGCTGCCCAGAGGGGATTTCTTGCCTAAGGACTTAGAAGTGTTCCTTA
1 GTGGTAAATGGGTGCTTGAGATGAGGAACCCATGTGGAATAGTCAAGAAAACAGCTGAATAAACACATTTGGAGTGCAGAAGCAATGCCTGGGCTGGGAATAAGGATTGCAGAGTCCTGTAGGTTCAGGCATTTGAAGCCAGGGAGGGTGTAAGTTCTTACTAGAGTAATTGAGGGACGTCAGGACCAAGGACAGAGCTGTGTGACTGATAACATCCATTGATAGGAAAAGGGAAGGGCAGAGTACTCACCTAAGACTAAGAAGAATTGGTCAGGGAGGCAGGCAACAGGTGAGAGGCATAGAGCTTCTAGAAGGAAGAAATAGCCCCAAATGTCACATGTTGCAGAGGGGCCTGGCCACACCCCTGCCCCCT
0.1278437294049542 CTTGGCGTGCTTTGTGATCCCACCTGCAACCCACTCAAGTGATCATTGTATCTCCACTTAGAGCTAGGAAAATGAGGGCCCACAGGGGTTAATAGTTTGCCCAAGGCTGTATGCGAGTCCATGGCAGAGCTGGGGTGGTCTGACCATTGCCTTATCTGGCCTGGGGGCCGCCTTTCAGCCTGGAACAGGCAGTACTGATAACAGCTGACTTTCCAGCGGTCTTATCACTTTGTAAAGTGCTTCCACACACTGCGACCTCCCTTTGCTCTCACAGTGACAGGCCCAGGGAGTGGGGTGTAGTTGTCACTCCCTTTGTGTGCACATGAAGCTGAGACCCAGCCCAGCTTATCCTGCACTCTGAGGCAGAGCCAAG
0.3371110673252496 GCGGCGCGCATGCGCAGCCCTCGGGCCGGCCCGGGCGCACCTTTTCTGTCTCCTGCCACATTGTGAGCGCTCCGCCGCCCAGATAACCGCCGGCTCCCCGCGCCGCCCCCGCCTTCTCCCACTCCGCCCACTGCCGGGAGCCCAGGTAAAGACGAGAGCTGCGCATGCGCGGCGCTCTCCGTGAGTCGGGGGGCGTGGTTGCCGAAAGGAAGCCAAAGTGAAGAGT
0.2601625505805429 TATATAATATGCATATACATACATAATACATACACATATATGTACACATACACACACACTTTTTTTGTTTTGTTTTGCTCTGTCATTTCCCCTGCTCCCTTTAGAAGCCTGCTATCTTCTCACAAACAGCTTCTGAGCTGCCTTAACTGATAAGCCTATGAATGGGTAAGCTCTTTCAGACTTCTCCAGGATCTCTGGCAGCTATGCTGGCTGAGGGAACAGATAACCCTGGGTTTGAGGAATGACAGAAGGTTTCTTGATCCACTAGCTGACTTACTAAGCACTCTTCTACATAGAGATCCAGGGTCTGTGTTTTCAAAGATCTCATGA
0.4101450321128608 CCCTCCTGACCCCTTGCTGACATTAAACAGCCCCTGCCCTGGAATGCCGCTCCTGGCCTGGCATCCTGGGAGCGTGTGTCCAGCCTGCGGGACAGAGATAAGCGTAAACCTAGCCTCTGATTCTGAACACTAGCTAAGGCTCCCGACAGTTGACGAGATTGATGATTTTCAGCTGGTATGTCTCCGTAACTGAGGAGGCCATAGCTTTGATGTATTGGTCAGATCAATTTGGCTTAAG
0.06064758960076709 AGGAATGTCTTCAGTGGACTCTGTTCATATGCCTGCTCCCTAATTTCTAGCTAAAGGAGGCAGTCAGGGCAAGCAGTTGGCCTGTCCTGAACCTATCAGTGTTAGCAATGGTGATCCCTACAACCTCCACACAAGTCGGCTTGCCTTATCTTTTGATAAAAGCCTTAGCAAAGCAAAGCACACTAACCCAAAGTCTTTCTCTTTCAAGATAACAAGGCAAACTTTATCAAGACTGCAGCCAGGGGCGTAGTGTGGCTCTGATTTCTGGAGGCGTGGGCTGGTGGGGGAAGGAGGCCCCAGCAGGGCTTTGCAGTGCTATTGACTCCTTTTACCATCTTCTCAAAAAAAACCTCCAGCTCTTGCTTTCATACTGCTTCCTCCA
0.6250619108435577 GGGTAAATCTATTATTTTAAGGGAGGGTGGGAGTGGAGAGAGGGACTCAAGTATTCCTTGTTCCAGTGGAATTTGTCCCAACCTCCCACAGCATTGCCTCCAGCCCATCTTGCATTCTTGGCTTTTGAAGAGGAGGGGCAACCCCCTTCTTATCTGGGATTGCCTGCTTAAACAAACTCAGTGGTGTGGAGGTATTGTCCTTTGGAAACTTGGCCTGGGACACTTTACCAAGTGTCTGCAAACATTTAGACATGGAAAACTACCCACTGTTAACCCAGAGCTCATTGTCTCTGCTCAGGGCTGCTCTTCTCTGAAAGTGGCTTGTGGTTGGGGGTGGAGGTGGTGAGAGTCGGCCCA
0.4022762295482593 GGGAAGGGGAAATTTCCAGGGGGAAGGAACCTAAGAAGATTATCACAATAGGGTGATGATAGCAGATGAAGCATTCCAGCCTAAGAAAGCCACATGAGCAAAGATATGATCTGCAGTTGAGCAAAATAAACAGATTAAATGGGAAGGGGACCAGTATGACTGAAGCAAAGACTGCTTCTTTTAGATTCCCGGGAATGAGGTCAAGGTGGGAAGGCAGATTAGGAAGGGCCACTGGTCACATTCAGATGGATTCGTGGT
0.5403107989854065 GTTGATATCAGGGTATTGAAACCCAGTGGCTGTTATATGTCAGAGTAACTTACAGTGAATGCCAACAATCTTCTTTTCCTAATTGCTGCTGCTCAACATGATGGCATTGTTCAGTCTGGAATCCCTCTCCACTCCCTCTCCAGGGATAAGCAGCTGACAGCTCTAAGGGGGCAGGATGGATTCCCATCAGATAGCAAGGTGGAGTAGTTATGTGTGCTGGTGGGGGAAATGCACTCTCTGCTTTGTATTTGGGTCTTGTTTTGGGGACTGGTAACTTCTTCCTGTTTTGATAAATATATAAATAACTCTAAGTATCAGGAGAGACAGTAACTTAGGCTTCTTAAAGAACGGA
1 ATCTCAGGCGTTCCTCCCACCTTGGCCTCCCAAAGTGCTAGGATGACAGGCATGAGCCAACATGCCCAGCCTCTGCAATAGGTTTTCTTATCTCCCAAAGGCCGTGCTCACTGCTGCCCCCAAGCCTTTGCTGAAGCTGGTCCCTCTGCTGGAACACACTCCTGCTTCCTCTCCACCTATTTAAATCCTCCATAACTTTCTTTGTTATAAACATTTTTTTTTTCTAATTTTGAGGAAAGTAAAAAGGAAAGACAAGTGCAAAGACAA
0.2655660439334184 TCTGGTCCGCGGGCAGCGCCCCCATCGCCCACCATCAACCAGGCAAAGCCCAGCGTGTCTCCATGGAGATGGCAGCAGGACCCGACCCCGTGCTGGCCCGCACTCTCGGCCTCCTTATCTGGTTTAGGAATGCGCGGTATCCACGCTCGCTCGCGCGGGAGCCACGCCTCCTCTCCCCCCCGCCCCCGAGACCGCCACACGCGCGGGGCCCCCACGTCTCCAAGCGGCACTGGAAGGATTCCTCTCCGTCCCGCCAGGGGTCCCGCCTCGAGATTCTGGG
0.3664576644363007 GCGAAATTCGCCATTGTCACATGATGGAGCAACCTATCGAAAGCGGAGGGAAAGGTGCCGAAGTCACGTGACTACGCACGCAAACACTCCCGCTTGCACCACGTGCAACTCACGCCCACCCCCTCAGCCCCCCCCTTATCTCTTTTCGCCCCTCCCTCCCATTTGGGTTGGGCCTGCGTCGAGGCGCAACGCGGCGTCAAAGGGGGCGGGGCTTCAGCCGGTCACGTGTTCCCGCACCTCCCCGGCGCGCGCCTGCCCGCCCGCCCGCTCGCCCCCGGTCCGGACTCCTCCTCCTC
0.2619494034181925 CCTGCCCCTCCGTCCCCCGCCCCCGGCACAGTCCACAGCTGGGTCAGCAGCTGCCTCCGCCGGACGCAGCTGACCAGGCCCTTCCCGACCAGGCGCCTCTAAGTGGCAGATCCCCGAGGGGGCGGGGCCAGCACTCAGCCTGGGTAGAGATAAGTGCCTGGCGGGAGGAGGCAGGGGCCCTTCCCGAGCCCAGAGGCCGCTTGGGGGCAGGGGAGGGAGTTGGGCCGCAACAGCTCCCGTTCTGGCTTCAGACACACGTTTTTTTTTTCTTTGTGGCCCTGGACAGGTGACTTACCTTA
0.3399786646321085 TCATTTCCAAGCCTGGCTTGTTTCCTTTTACCGCTCCTCTCCAACGAGGATCGCAGAGCCCTCATGCCGAGCGGCTCGCTATGGGGCCGGCTCGCCCGCTAGAGTGGTCAGGCCTGATTATCCCTGGCAGCTCTGTTATCTGGGGTAAGACACAGGAAAACGTGCTTCCGGTTCTCGGCGGAAGTAGCCCCGAACGGTAGAACCGATGGGAAATGTAGTCCAGGGCAGAAAAGCGGTCAACC
0.8284693302408985 CAAGTAGTTACAAACATGCACTACCCAATCCTGCCTGAAGGTGGGAGTCTTCAGTTATGTAATGGTCCTGTTATCAGGCATCTGACGTCTGCTCACTCGCGATTCTGCATTTAGGTAGTCCTCAAATTTACTATCAATGTAATCGATAACAGGCTGCCAGCAATTACTACTATCCACTGCATCTCCAAATCCTGAGGTATCAACTATCCTGAGCAGCAACTAAACACCACC
1 CTTAATCATTTGCCTAAAACTATAAATTCAAAGAAAAAGAGTTAACACAATTGTACTGACTTCCTTCTGCAAAGAGCTCATGCACACGATGCAGTGTGTGGTGGGGCATTGAGACTGTAGCCACGTGGTGACCTGGTCCCAGGCAATCCCCATTACAGCTGTGTTATCTGATGCCCTGGAGTCTTGATACAATGCAGTTTCTGGGGAAAGGCCTGGCTTCTGTGTTTTTATCAGCACTCAGGCAACACTGACGCTGATGACCCCGGACCACACTGAGGATGCTCATTAGGAGAAGAACTAACACCAGGAGCACTCTCAGAACTAAGAAAGCA
0.8439526444892207 GGAAAGTCTTTACTAAATAAAAATGTTCAAGTATAGATATCTTTGCTGCCACCATCTTCAAAACATCCAAATGTGACCATGAAGGCTTCTCCTACTTCTACCTCAACTAGCACAATCATTAAGGTGATGAAAGTGAGCCATTTTCACATTGCCAATAAACTAGGAGGAAGTCAGTCACTGTTGAATGCAATCGCTATCAGCTGCGGACAGCTCCTGGTGCTGAAAGGGAAGGCAGAGAAGCCTGCTCACAATAGCTCACTCCACCAGCCTTTGAAAAATCACAGCAAAACTGAATGAGGTGGCAAGTGCTCAGCCTGAATAGCACTGTCTACAGAACAATGGCAGCCAACTCTAAATCCTACTATAATCACATTAATGAGATTAATCAGTGAATTA
0.9689508618986438 ACATGGGTGGAACAGTGAGCAGCTCACTGCCTGCGTCCATTTCTCCATGCAGAGCTCTTGCTGGGTGAACTAGAATTAGGACAAAAGGGTCTGCAAACAGCAATCTGTCATGAGTCTGAGTGAAAAGGAGAAAAAAGGGATCTGATTAGAAGAAACAAGTGGTGAGTTTTGTGTGTATCTTCTACATCAGTAGTTCTTCCGAGTCAGGCAGAGTTGTAGCCAGGGGAATGAATACTTGTTTAACTTAGTACAAGTTTACCTGAGATTAAGGGCAAGTTGAATACAGCCAGTATCTTTTGTTCCAATATTGACTTAGTCTTGTTGTCACAAATCAGCTATTGATATTTGGTGTCCC
1 TAAATAACAAATATAGGGAGAGAGTTAAAAGAATAAGAATAAAATACATATGTACCACCTACCTCAAAACATAGATTCTTATCAGTATACCTTATGTGTCTTTCTGTGATCATGTCTCTTCTTCTGTGGAAGAGGTAAATAACCACTGTCCTAAATTTGTGTTGATAATTTGCTGCTTTTATTTATAGCTTTACCTAGTATATATGTATTGCTAAAATAGACTAAA
0.1258843844350089 TGGGGGTGAGGACAGACTTGGTTTTGCATCCCAGTGCCACATATAAGAGCTGTGGGACTGTGGCAGAGTCCCCTAATGCCAGTAAGCCTCAGTTTCTTCATCTGTAAAATGGGGCAACAATCGTCCTTATCTCCTAAGATTGTGGTAAAGATTCACCATGACAAGTGGATGTGTAGGAAGCATTCCTAGTGTCTGGGACAGATAAGGGCTCAGCAAGCATTAGCCATTGTGATGAATTGACCCTACTGGCTCTGTGAACTTTGCCATTCACCGCAGCAAAGGAGGAAATG
0.2891384140967594 AATAGTTCCCTGTGTGCTAGCCTGTGAGTTTTTCTCTCCAACTAGCCTGGGTACTCAGGAAAGTGAGATCAACTTCTGGGTGGCCTTGGGTGTAGCTGACCTGTGCAAATAGGGGAGACAGTTGACATACAGATGAAAGGGGAGATGGGAAGCCATACAGAGGAAGGAGAAGATCAGGAACCAGAGATAAGATAATTCTGTAAATGGATACTAAATTGAAGTCTGGGCTTCCTGACAGCTCAATCAAAAAGTGAAACACAATTGGTTACATCACTCTTACTGTCTGAAAAAAGGAAGCAATATCAGCTCATGAGGAAATGTAATCTTTT
0.2768244682528502 ATGTGAATTTTGTGCGATATGATTAATATTGTAGGAAATTAACACTGTCAGCACAATGAAGGAAGGATTGGCAAGGTGAAAGCTCTCCAATTTGCTTATCTCCTCCGAGGCTCACAGTGTGTGTGTGAAGAACAGATAATAAGTCCACATGGCTGAAGGGGAGAGCAACTGGAAGACAAACACAGGAAGGAGAGACTGGAAAGTTAGATTAGGTCAAGACTCTGCAGGACTTGATTGTTAATAACTTAATCTTTCTTTTATAGGCAGGCTTTATATCACTTATGATCACAATTATATTAGTTGTCCATGTGCAT
0.7488394850874152 CTCGTCAAGTTCATGCACAGCCTGTCTCCTTTTCTTCTCCCTCTGACTCCTGCAGTCAGCCGATGTTTAAACCCAGGAGACGCAGGTCAAGCCACAGGGAGCTCAGCTTCCTGACATCCACCTGAGAAATGCCAGGAGGGCTTACTGATAACATAATGGATGTCAGTTTAATAAATTCTGACTCAAGGTGACATATAGCTATTTACAGAGATATAACATATTAACATATATATTAACATCTATCATTT
0.1922622897460511 AGAAAAGGCAGATTAACAAGAGAAAAATAAACAGAACTTTATTGACACATGCATCACTCTTACCTGTGAGAGCACTCAGTGATGCGAGCACTCAGTGATGAGTGATGATGGTTAGAACCTAAGCTTATAAAGCATCTTAGCAAAACAATCATTGTTGTGTAGGGAAATGACAAGACAAAAGAAAAGGATTTTGAGCTTCTAGGGGCAGCATGTTGTGGGAAGGCAAATATGTAAGGAAACTAACCATAGATAATGGTCAGTTAATAAAGTTTCTTTTGTTGATTCCTCTGCTGCTATCTCAAGTTGATAAGGGTCTAAAGTTGTCTCAAGAGATTAGCTTCTATCCTTCCTGGTAGAGAGAGGAGGGGGGCGCTGTTACACATCTGTCTCTTCTTTGGCAAAGAGGAAGGACAGAGGTTTTCCTTAAATATGCTGCTTCTCAATTTCATTCCTCTCACAATAATCCTTATGCCAAAGTGGCATATTTCGGGGGTGACATATATT
0.6733131833348703 ATATGTACAATTATTGCATGTCAACCAAAGTTAAAAGAAAAAAAATCTTTTAGGGTCAGATGTGTTTTGGAATTAAATGTTTCCTTTGAGAAAAGTACCTATCAGCCCCATGGGCCGCAGACAGCTAGCTCTCCATAGTCAAGCACACTGATATCTCTGCAGCAGAACTTAGGAATGTTTGCTCAGTGCGATAAAGACCATGAGCAGCCTCCTGTTGGTTTGAGTCAGGTTTCACTACTATTAAATGAGCTCAGGTCAGCCAAACCAATTGTCAGAAACTTTGGGGTTTGGGAATTGTG
1 ATAAAATAATGCACAAATAATCCTCTAATCGTTTTAAAAGGACCTGTTGTTTACTTTGAAATGATATTAATGCTTTTAAAATTTTAAGTCAATTTTTTCCCTTCACTTCAGAATGCTATTCATGTTTAGATAGCTAATCTTACACAAATAAAATAAAGAGTCTGCCCTGACAGGAACCTCTTTTACTTCATTTTTTCTTTTTCTTTTCTTTCTTTCCTTTTTTCTTTTCTTCTCTCTCTCTCTCTTTTTCTTTCTTTCTTTCTTTCTTTTTTTCTTTCTTAGCAGGATTTACTTTATTA
0.4655013678570923 CTGTCTGCTCACAGTCATGTGACAGGGGCTTCCCCAGCCAGAACCTCCAGGGAGCACAAATAAAGGAAAGAGCTGGAAGGCACAGTACAGCATTTGTTCTGTCCAAGCCTTACATATCAGCATGGGCAGGGAGAATGTGGTGAAGTTTTCTTTCAAGGACTTTGTTTGATAAGGAAGGACATTTATCAGTGAAGAGAGGTTTTGAGGGAAGTGAACCAATCTTGAGATAAGTACACAAAAGAGCTTTGAGTCTGGTGTTTCCCTGTTTGCTTCTGCCCCCTGGAGGAGCAAATACTCCATGATTAGAGACGTGTGAGTCCTTTGGAATAGAATAGCAGTGATGGAACTGGAGTCCTAGTCCAGGTT
0.1529015619031144 ATGGAGATCCAAAGGAAAGCCTGAAGCACTTTGTGGCTTCCACGGGTTCGTTTCTAGGAAGCTTTTGCTTTACCTGGGGAAACCCCAAGCTCTACAGTGAGAAAGTTGTAAATTAGCCTTTAGGAGACGCTGTTTGTCAAAGTTATCTTAACCCTGGAAAAGGGGAGGGAAAAAGGCAGATAAGCAGTGATGACATCAGCAGGAAACTAGTATCAGGCTACCCAGTCCTGAAGATTCAGTTTTCACTTAAACAACCAGCAAGTCTTGAAGTCTCTTCCCAAGCAAATGGGAGCTTC
0.6798558691025177 AGAGACTAAACTGCAAGCAACGTTAGGTTTCCCTGTGACCATTCAGACTTAATGTGACTCTATGAGAAAGCACTGTTGCAGGCCGGGGATTGGCAGGCAGCCCCGGCCCCCAGCCTCAGATAACAAGCTGCTCTCCAAGAACACGTGCTAGGAAAAGTGCTTGATCAGAGTGTCAGCTTGTGGACTGAGTAGGAACACTAAGTGGTTTTGTCTGTCACCTCCTTCACCCCAGCTGGAATTTGGCCATAATCTGATAGAAACACTTTGCCCACTTTCAGGAGAATTTTCCACTATCAGTAAGGCTGCTTTTTCATACTTCGGCTATCACCAAAGCCTTTCAGAACACTTGTACTACTATCGCCCAGGGGAGCTTATATGTCTCAAGGGTAGGGGGTGGGGGACCAAAACCATTCTGAGCATGGAACACTCAGTTGA
0.1488370800451359 CCATCAGCTACAGTGTTCTTGGGTCTCCTTCCAGCTGGGCACATCCCATAGCCACCCCTCTTGGGCCACAGCCTTATCTGCTTGTCCCAGATAAACAGTGAATTGGCCTAATCAGTCTGGCTGGACTGGCTGGCTCCAGGGAGGTCTGCTGGTGGTGCCACTAACAGGAATGGAGCCACTCACACGGCTGACCCCCTTCCCCACCCCATAGGCCCTGTCGCCACCGCCATCTCTCGTCTAGGAAATGCCAGGCCTCGGTTGCACT
0.5044154265615273 CCCTTGATTGAGAAACACTGGTTTAGGGAATTAGAGTGTGAGTTTAGTAGAGGAGTTTGAGGCACTAGGTGGGACAAACAGGTGAGAGCATCAGGAGGCCTGGGAAAGGCAAAACTGAAATTCCAGAGATTAGAGAGAGAGAGAGAGAGAGAGACAGAGACAGAGACCAGAGCTGAATAGGAAGATTTGAAGGTTTTGTATTATCTCACAAAGGAGCAATAGTGGATAAGATATCTG
1 AAGTGAAGAAGTACACTAAAGTGTTAGAGGGCTGGGTGCAGTGGCTCACGCCTGTAATCCCAGCACTTTGAGAGGCCAAGTTTGAGGCTGCAGTGACTTCCCACTACACTCCAGCCTGGATAACAGAGCGAGACTCCATCTCTTTAAAAAAAAGTGTTAAAAGGAGGAAACTAAGCTTTGCTGATATCAGCTATGAGCCAGGCACTATGTTAGAAGGAATGGGCCTCTTTAAAAAGGGAAACGTGTTCTTAGTGCTGTTTTTTAAGGTGATATGTTGAGTTGAGTTGTGCCAAAGCAGGAAGTATTTTCC
1 GGATACAATACAGAAGTTACAATCATTGGATACAGATCGCAACATGCAGGCTCAAATGTATCCATGCAAGACAATCAGTAAAACTCTAAGATCCAGAAATAAATCAGTGTCCTTTTCAGGGTCACTGGGTTATGCATTAATCACTGTGTCAACAATTTGAGAGACTCATGATAAGATTCAGGGACAAGATTTCACCATGAATCACAAGACCTTCCCAAGGTGGGTTAATTGGAAAGCCTGTTTACTTTTAAACTAAACTGCCAAATGTGACCTGTAGATTATCACATTCCCTTTTTGATTAA
0.8531422181899679 CTGCAATGGGGTGATGAGGGCTGGCCCAGGTGACAGGTGACTGCTTGGCCAGCTGCCCCTGCCCTGCTCTCCAGATGCCAGTCAGCTACGCTGAGGGGTCTTCCCCAAAACATGGGAGTCAGAATGTACACGCCTAAAGATTACATTCTTCTCTGACACCAGAGATAAGCCAGAAGAATGGGAGGGTGATTGTGGGAGGAGACGGTACCAGGTTGTCAAGTCTCCGGGAAGAGCCAGCTCTCTCCCAAAATGGAATGTAGAAAAGAGGCTTCCAAGTGGTAGAAACCAAGATATCTGAGTGGGTTCACTGACGTGGCTGCCCTGCCTGTGAGGAAATGATCTGG
0.1552794422374216 CAACCATATCAATGGGCTTATAGTTCCTAAGTGTGTAATTCCTCCCTGCCTGGGCCTAGAAGCTCCCTATCTATCCACATTCTTAGCCAGAGGTTTCCTCTTCTTATCTCATAATACTATTTGCCTAGTTCTCAGAGACCCCAGAGTCTTAACTGTCTCTTTCTGCCTTTCTGTCCCAGAAAATTGTGATCAACTACATAGTAGTGATGGGATTTTATCTCAGGACTTCCAGACATTTAATCCACA
0.3372472272657768 GACTATTTATACCCCTTGGAACATCAGCAGGCCAGCCAGGAGGCGAAGACCTTCGCAACATGTCCAAGGCCCGCAGCTGCTACCCCTCCTCACCCAGGGCTTCCGTGAGGACCTGCTCAGTGTTATCAGTGCACCCACTCCACAGATAAGAAGCTGTGCCTGGCCCCACTAATGGTATTATTTTAGGGACCACTCAAAGGACAGGCCAGGATTGGGGCCTGGGTCATCTGTCATTCCTTCCTTCATCGACACGCTAAATAAGGGTCAAACAGAGACCAGCACTTGTTTGCAG
1 AGTCATTTCCAATGAATCAATCTCACTATTATTCCCTTTTTCACTTGCCTGTAACAGTCACCAAAATAGGTAAAAGCAAACTGTGGATGCCTTGGGAAAAAAATTCTTTCCATTCACTGATTAGATTTACAGGAAGATTGCCAATGGTATCCAGAGTTGTGGAATCAAAGAAAGCACTGAGGTCACAGGCCAAATCACAGCTGACACAGGCAAACAGTTGCACAAGTGGAATAGAATACAATGCCTGATTCTCACTTG
0.1234020722105984 AGGATGTTTCCTATTTTTGTTACTTCTAAATTTAGACTAAGGCTGTAGTCCATCCTGCCCGTTGTACAAAATTTTCTCGGTTGTTTTCTATTTTAACTGCAGTGGTCTGCTGATACTGCTTTATCTCTGCCCCATCACAGAGCAATCTTTCAGTTATTTTATCCTGTTTATTTGCCTCCACTTTTATCTTCCACTGTTAAGTGGGGACTAGGAAGCAGAAGCAATCAGAAGGCAGATAGGCAGAGACC
0.5399171217071908 CTCTCCTGCAGCCTGTATGGCCAAGCCAGGTTCCTGATGCTATCTTTGCAGCTTCTCATCACCCATTGCTCTGACTTCCCACTGGTGCAAAGCTAATCTTTGCCCTCGTTACCTCATTCCTGGCTTTTGCAAGTATCCTAAAATAGCTTCACTGCTTTCAATATGTCTCTCTTAAGTCCTTCCTGGCCCTAGGCAACCTACCCGAGCTGTTTCCCAATCTTCTCTAACAAACATTCTCCACTGAAGATAGCCTTGTTTAGTCCACCCCACAAGCACGCCTGCCCAATCCTGTCTCTGCCTGTCCCTTTGTTGATGTTGTTCCCCATATCTGAAATGCCTTTCCGCCTCCTCTCCTGGCTATCCGGACCTCACCTCTAGTTTAAGTTCAGCTCAGATTTCACCT
0.5167876127452483 ACCCAAAAGAGATTAACTAAGAGTCTGGCACCTTTTAGAGACATTTACCATCTATTTGCTCTGAAGCCTGCTACGTGGAGGCTTCATCTGCACAATAAGAACCCTGGTCTCCACAACCCCTTATCTTAACCCAGACATTCCTTTCTATTGATTCCAGGTCTTTAGATAATAGCTGTTTCAACCAATTGCCAATCAGAAAATCTTTGAATCCACCTATGACCTGGCTAGGTCACAAAAAGCATCCAGCGTCTGCCAGGCTCCTTCTCCTGGGTCCTTTAATCTTGGAACCCAGTCGCCATGTCAAGAAGAAGTAGAGCGGCCACATGTCATGTATGCAATGCAAT
0.7441909117666549 TTAAAATATAGGATGCTTGAGTCACCAGCTTGCCATCCTGTGTCATTCAACACCTCCTCCAGACTCTTCGCAGGAAGGTGACCCAGAAACCCCTTGAAGGACATGATACCGTCCCTGTGCTCTGATGTGCCCCCTGGTGTTTGAGTGGAGTGATTTTTAGATAGCGGTTTGCCTGTTAAAACCTTCCCTTTGTTCCCTATATTATTGCTTGCATTTTAGGGCTTCTCAGTTGAAGGATGTGGTTGAAAGAGCCCAGTTCCTCAGCTGCTCCTCTGGGTGACTAGAGTGTGGGTAACTGATGTTTTAGGTCCTGGAGAAAGCAGTGATGATCACAAATAGTAGAATGGAGAAATGGTTATCTCATATTGATCTTCAG
0.01549794691363537 AAGCTTGCTGACCTCAGTCTAGCCCGGAACCAAAAGCTAACATTTACAGAGTAATCACTGTCTAAGCACTTCATGTGACTTTTCTCACTTAATCTTCATAACAATCACATGAAGTGTGCACTTTTGTTATCTCCTTTTCACGGATGAGTAAACAGCGACACTGAGAGGCTAAGAAATGTGCTCCAGGTCACACAGCCAGGAAGTTGGAGATCTGGGATAAGAGTAGCGCAGTCAGGTTTGGTGACCTGCATTCCTACCTGCTATCCTCTCTTGCCTCTGAAATGAGGTGA
0.1005444174142153 GAAGCCCTTATCTAGAATATAGAACAGCTCCTAGAAATCACTAAGAAAAAAAGCAAATAGCCCACAATGGTTAATTTTATGTATCAACTTGACTGCACCATGGGGTGCCCAGACCAAACACTGCTTCTGAGTGTGTCTGTGAGGGTTTTCCAAGATAAGATTAGTATTTGAATCAGTGGACCCAGTAAAGTAGATTGCCTCCTCAATGTTGGTGGGCATCATTCAAC
0.2078762240251875 GGTTATTGAGGAAATGGTTTGAGATTATATTTGTTGATCTTAAATCATTCAAAACGTTGTGTCCTTAATTTGTCATCAAGCTGCAAACAAGGGGAAGATTTTTATCTGTTCTACAGGAATCCACTGATGATAGCAACTGCAGAAGTAGTCAGTCTTTTCTTCTTATTCCAAGATTAGGAAGTAAACATAGAAGTTCATCACGTAAACTTATTTAGGAATTAAAAAGAAAGGAAATAATA
1 CTAAACTCTCTAGAATCTGGTTTATCAGTGAGCTCCCTGGATAGACACTTTGTTATTTTTAACTTCCGCCCTCATCCTCCTCCCCTTTTAGAATCACTAATTAAGGAGGTCTCTCTACTGTGAGTTTTGTGACCTCTGTTTCCCTGGTAACCAGATTGCATATCTGATTGTACCCAGCATCCCAGCTTCTGATGACATGGTCACAGCGTCCTATAACCACTAAGGTGAGACATAGGCACCAAGAAATAGTTACCAGACATTTTATATGGGTTGCCCCAGGGTGCTGTGGATGGAGG
0.3249664364484054 CTACCAATCACAGCAGCAGCGTCTCACTGACCTTTCCACTCATTGAGTGGAAAGTATGTCAGGGTTCTCCAGATAAACAGAACCAATAGGAGAGAGAGAGAGATGGATTTTAAGGAATTGGGTCACATGATCGTGGATGCTGATAAGCTGGAACTTGGTAGGGCAGGCTGGCTGGCTTGAAACTCAGACAATATCTCTACTTTACATCTTGTGACAGAACTTCTCCTTTTCCAGGAAACCTTGGTTTTTGCTCTGAAGGCCTTCGGTTGATTGATTGAGGCCCACATTACTGGTGATAATCTCCTTTAC
0.376759356972282 CAAGAAAATTTGGAATACATAGATACCATTTTACCCATAAGTCTTTCCAACAAAATTGGAAGGACTTACTGATATGCAGCAAAAATTAGAATGAGGACATGACTAGTTTTAAAGTAGTAAAGTCAGCTATGTTTGTTTGCTTTTATTGACCCTGTTTTTATCTTATCTTACCCCCTGCAGGGTTATCTCTCTACCTGTGTTCCTACTCTTTCCTCCTCCTCCTCTTTCAACATCACCATAATAGCAAGGGGTTAGCTGAAGCCATGCAACTGGGAGAGGTCACTCAATTAGGGATTATGGAGTGAGCAACAGGGT
0.99706579892134 AATATCAAATAAAGATCTTTCTTTCTTTCTGTGGATTTTTGTGTATAATGAGATAAAGTAACAACAAAGTGCTTCTAAGAAGATTATGTTTTAATTGTAGGATTTTTTATTTGCTTTGATCTTTGTGTAGATGGCTATCTTGACATAGGTACTTAGAAATATCTACGGAGAATCATTTATTGCTAAACTCAAAGAAAAAGGACAGTATTTTAAGATTCACCATCATAACAAATAATAATTTATTTCATAAAAGTCTGAGTATGCTTGTACAA
0.7431167245880941 CTTCCTGTCTCTTTCTCTCTCTCTCTGTCTCTCTCACGCACACACACTCATGCGCATACACGGATTTAACTATGCACAGTAGATGAGTAGAATTATTTAAATTAAAGCAGATAATTTCTGTGTAGTTGTTCTACAAAATTACAAAGATTGTTATCAATAATAATACATCGGAGGTAAGGATTTACTATAATAAGCATAAGTAACAGTTATAGGTACATAGATATAAATATACATAAAAATTATGGGTAAATTATACATGATGATAATGAAGGTAAATAGATAATAGATTTTTATGTTTATATTCT
0.5460339083933852 TTCAAGACTGAATTCTGATTCTTTTGATTATTTCAGATTGACAGAGCTAAAGACAATGGAAACAGTTTCAATAGAAAGAAGCTACAGGACTTCTTACAGCCCACAGTACCAGAACATCAAGCTATTTAGCTGCAGATGTGTACTACTCTTGAAGATAAGAAAAGCAGTAATCCTGAGGGCAATTCAGAGGTCATCAGGTCTGTCTCCTTGGTTTTCAATGGGGGAGAGAG
0.8039365419968857 CTCATTCATTGATGCAAACGAAATACTGTGGCCATAATTGGGGTTTAGCATCACAATTCATGTACTTATACTCTTTAAGCTGAGTGACTAGGTGTTACCCATAGGAAGAGATCAGCAGGGGTCATTTTAGAAACAGCTCAAGATGGCTATCTGGGGTGAGGGGAAGGCGACCTCTGTGAAAAGAGGAAAAAGGCATATCTGGACCTGAGTTACCAACAACAGGATATTTTTTTAAATGCCTCAAGGGAACCAATTTTTAG
1 CATTAATGTAAAGGGCAACATTAATCAACATCATGGAACTTAAAAGGGCATTAAAGAGTGATCTTTTTCCCTATGCAACAAGAATCTTTTCAAGTAGTTGTGTTAACTGCAGCAGATTCAAGGCACATTCTGAGTTTGTAATCAGAAGGCAAATCTAGAGAGGCCTCTACTGGCGAATCTGTCTCTGTGCAGTTGTCCTTGCGGAACTGCCCTGGAAAAACAAGCAGGAGAATGACTTTCGGCTTTTTTTTATTGGAAAGTTGCACACCAGATGGATG
0.1711670442884533 TCCATCCCAATTTGTGACCTGTTAAAAATGTTAAAAAAAAAAAAAGTTGTATCACAAAATTGATAACATGTGGTAACCGATTAGGAGAGTATGGCCTTCAGATAGCAATCTCAGTCATTGTATAGATGTTGTTTCCAATGGTAAAAGCTCTCTAATCCTGTTTTGTCATGGAAATACTTATAGTACCTATCTCTTAAATATGTAGAAAGGATTAAATAAGAATATTCAAGTAAACCACTCATTT
0.7184932521496806 TTTAAGTTTTTGAGACAACGAAACTTGTTCATACCGCAAAGCCTTTATAGTTGCTATTCCCTCTTCCTGGCATGATCTTTTCTCGGCTTGTTGAATTTCTAGCTCCTTCTCATCATTGAGGTTTCACCTCATTTGTTATCTCCTTAGAGTCAATGCTTCAGTCACAGCCCACTCCCACACTCACATGCTATCCCATTATCCTGTTTTATCTTCTTCAGAGTACTTACTTG
0.1205503873979756 TTCTTCTTTTCAGAGTTTCAAACACAAAGGAGAGGAAGGTTCAGAAGAGAACAACCCTTGCTTCCCAGTTATCAGCTCTTATCTCCTCCTCCTTATCCAGCTAAAACAGATGTTCCAGGGTTGAGGGGCTATTTCAAGTTCCTCGTGGCTACCGCCTCACCCTCTCCAATCCATGGGCCTTCCAGAATGGAGGTCAGTAACTCCTCTGGGAGTATGCCTCAGAAGTAGAG
0.3313527101091965 ATTCTTTTCAACTTGATCTATAGATTCAATGCAATTGCAATCAAATCTCAGTAAGCTCTTTAGCAAACTGATTCTCAAGTTTATATTTAAAGGCTAAAGACCTAGCACAGTTAACACAATACTCAAGAACACAGCTGGAGGGATAAGAACAATGGAACAGATTAGAGAGGTCACAGATAAGCCCATTGCAAATACAATCAACTGAGAAAGGTGCAAAGTCAATTCAATAGTGAAAGCACAGATTTTCAACAAATTGTGCTGAATCCTCACATGCAAAAAAAGGGTA
0.3141395803706876 AAAAATAGGAACCAGAGAAAGCAATTATTCCCATAGCATATTTAAACCAGATAAATATTTCTGCTTGCCATCTTGCAATTTGAAAGTTGGAAATGGCTTATGGTGAGTTAAAGAGTTTGGAATGTGGGCCTATCTAGGAAGATAGCAAAGTCGTTAAAAGTGAAGTTTCTGAGGTCAGGCACCTCAGTTTATCTTCTAGCTTTGTTGTTTATGATCTAGGTGGCTTTAGGCAGTTTGCTTAATCTCCTGTCTCTCAGTTGCTTCCCAGATATACACTCGAGAGTTGAAAAAT
0.4977711252754508 CCTTTACCATTGAAATCTCTGCATGGTAGTGTTCTGGTTATACTGCCTTCTTTCTGATAAGGCCTTAGATCACTCAGCAGATGATCCGGCCTAGGCTGCAAAAGATAAGCTGTGCAGTCCTAGGACAAGGTGCTTTTCCCCGTGCCTCCAGACCGGTAACACTGCTTCCTTCTTAGGACCTTTCATGTCTCCTCATAGTTTTCTAACTCCATACTTTCTTTTATGTGCCCTTGC
1 ACCATCTGCCAGAATGTTATTTGCTGGATGAATATGGCTTGAGCAGATTTGGTAATATATAACACTTGCCACTAGGTGGCTCTTGGTCTTGATAAAGCTGACATTCAGCATAGATAGGTTTTTCTACCTAGAAACCCACGTAGAAACTGACCCCCGGATTATATTCACTTTTTTGCCTTTTCTGTACCTATATTTTTTGAAGTGGAATATGAAACACATATCATAT
0.9460735273036895 GGGTATTGAAAAGACAGATGAGATTATATTTATAAGAGTACAAAATGTTGAAGGATAAAAAATGCAATATGAATTTAGATCATTTTTATTCTTTTAAATTCAAATAAAAATCAAGTAAGAAGATAACAATCTCCTTGTGTTTTACTGTTCATATGTAAGGTGTTATAAGAATAATTGGATTTGGCATATTTGGTGAAGCAGTTGAGCCATTTATAAGCTTTACAATGATATTTGAATTTTTTTTTAAAGTCGTAGAAGCTAGGCTTCTATTTATATTTCTGGGAGTTTCAATCTCCATTAGCAGATATATCAGATCT
1 ATCAATGTTCGTAGCAACGGAAGTTGCTAAATGAGCTAAAAAGACGTGTAAGTTATCTTCTAAATTACTGAACTTCTCATTTTCTCTACACAGACAACCACTAGGTGGCGTCTGCCCACTGATATTCTGATGTATCTTGCAGATACACAGGAAGCCAACACACGAATTGTTCCTTGAGAAGTGGATCAATGATGTGATGGTTTGGAGGGTCCAGTTTTTATACTTGCTATGAGGCTTGATATTTCTAATGTA
0.3777447250941713 AGATGAAAAAGCAGGAACCTACAATCATTAACTATAGGGAAAACAAGAACTCATAACACTTACAGAGCAAGGAGCAAGATATAGTTACATAGCAGACGGCATGGGATTCGAGGGGGAAGTTTACTTACACTAAAGGAGAGATAGGAGAACTTATCTCCTCACATCTCTATATTGAGGGAGTGCTGGGAAAGTCTTCAGGGCACATCCCTTTGAGCTCTGGCCCTTAGATAACGTTATCAAAACTTTGCCTGTTACTGCCTTTGAAATGAGTCTGCCTAACACAGGCAGCTTGTTTTATTTTTTTCTTTTAATTTTTATTTTGCTTTTCTTTCTTTAATATCCTGCCTCACTATATGTGCCTAAGTACAAATTATGGTTCTGCAATTTATATGGAA
0.5182206341730288 AGAAATACAGGGCAATTTCCTAAACTTGATTTTTTAAAATCTACAAAACTCTATAGCTAACATGATATTTAATGGTGAAAAACTGAATTATTTACCTCTAGACCAAGAGCAAGATAAGGATTTCTGCTCTCAGCACTCCTATTCAGTATAGTGCTGGAAGTTCTAGTCAGTGCACTAAAACAAGAAAAATAAATAAACAGCATGTAAATTGGAGGGGAGACATAAT
0.1067138147436469 GAAAATAAAAGTTAAAAGACTGAGTAGTGTTGCAATGAAACTAAATACCTCGTGAGAAGGCAGGTGTCTTTGTTCCTCTCCCACCATGGACAGCTGGGCTGTTCCTTCTCTTCTGGGTGCTCTCAACACCTTACTATCAGCTATCACCCAGCAGATAAGAATAAAGTAGCCAAGGAGCAATAGGGGTTTTGTTTTTCACTGTTTTTGAGATTGTAGAAATTGATAGCGCACTGCACTCTCATCTTGAGATCTGTGGGCTGAGCTCCCAGGGTTCTTAACATGGGCCAAGTTAGTCTGGATGCAACCTTTTGTTATTGTCTAAGTCACTGGCAGATTTAAAAATCACAGCGGTTCACAGCCAGATGACCAGCCTAGGGATGAAGGCGGGGCAGGGGGCGGTCAGTATCTCCACTCACATGTCATCTAGTCACGATGCAGAGGTTGAAACACTGAGTTAAAGGAAGCTTATCTTCATATGAAGAATTAGAGGCCACACCTCCCTAAGCTAAATTTAGAAGTGTTAGTATGTGAACAGGAGGTATACAGTATCTCAGGTTTCCTGGGGCACCAGCCAGATAAGACATTCCAGATAATTCTCTTCCATGCCTAACTTGTACCTCACCAGTCAGGCCAGAGGAGGCACTGCAGAAGGAGCTGTCCTCTTGTGTGGCTCTGTCCTTCTTTTCAAGTTTGAGG
0.02486350332958659 CCAATCTGACTTGTTAGCTCCTTATTCAAAACTGCAATGGCTCCCCGCTGACTATCTTTTAAAAACAAACCCCTTCATCTATCTCTTAGATTTCACAATAGGAACCCAATCTAAGTTTCCAGGCTTATCTTTGATTACATAGCAGCATGAACACAATCCACCATCTAAAGAGCATTACCCTTTCTTCTGTAAACATGTCCTAGGCTTTTTAGATCCTATGCCTTTGCCCTTACTCTTCTCTCCACCTAAAATA
0.7095574459386257 CGCTGTCTCCCGCCTTCCCTGCTCCCTTTATACTGCAGAATGTTCCCTCATCCGGGAACTCGGATTGCTCATCCCACCAATGGCTGCCACCCGCCCTCGGGACGCGTCCTTGAGACTTCAGCCAATGAGCAAGCGAAGAAAAGGGTGGAGGGGCGGGCGCTTCTAATCTCAAGCCGCGATTGGGGCGTGGGGGGAGAGGCGGGGGAAGGCGGAGGGATGGGAACGGGGGAGAAGAAGGGCACCGCGGCGGGAGGGAAGAAACAGAGCGAGCTACGCTGCAGGAGCGCAGTTACCAGCC
0.4201630697939461 TTAACAAGTCAAAGTAACTGGGGCTGAAAGGAAACGGGGATGACCACTCCAGACAGGAAGAAAACCCACAAAGGTCTTGTGGCAAGAAGTAACACGGAAGGGACAAGGTACAGAAGGGAGGCCAATGTGTCTGGAAAGTTAGTGCAATGACAGACACACAGGGTGAGATAAGGCTGCAAAGGAAGTTGAGGAGGATGAGGTAAGGGTTTGTGGGCTATGTTAAGAATATAAGCCTCTATGATAAGAGCATAGGAACAGATTTGCGTTTTGACAAGATCACCCAGTCTCCTGTATTGAGAATGGATTTGACCGAG
0.3683834146090567 CCACTCTGGCGGTCAGGGGGAGGTAGTAGGAAGGCTGGGTGTCGGTCACGCGACCCGGCGGGGGCTGACGTCATTCACATCACGTGAACACGTCTAGACTGTTTCGCTTTGCAAAGGGAAAAAAGAAAAGGGGCCGTCGTGTGTGCTTTTGCTTTCAGCCAGATAGTGGCAATTGAGTGCACTCCGTAAATGGCTATCTGGAAAAACCATTTAGCAGTTCAAGAATGTGTCCTTCCCTTTAGCATATCTGCCATTGTTTTCAGTAGGAGGAAAAAAAAAGTATGCATTACGATTTAAA
0.7552441980112798 GGCGTGGAGATTAAACCTTCATGTGTCCTTTACTATTTACAGAATTATTAAATGTAAGTTTTTCAATCATACTTATACCATTAACTGCTTGGATTTAATCTGTTAGTGCAAGATAACTTTGGCTCTCCCTTCCGTCCTCCTTTCCCTTATCTCGCCCCACGTGAGGACATTCTCCTGTGTGTGAAGCTGCTTTCCTTTCCTCGAAGGTGGGCCGAGCAAAGGAGAGTGACGCAAGAGTGGGCTGTGTCCTGGATGCTGCGAGCGCCTCTGCCTCCTTGAGAATGAGCCCATTAGCCG
0.5831545998756112 CTTTGGAACAGTCCAGCAATTTCCCACTTCTAACAGACCCCGTTCTGGGACACAAGGAGAGCCCAACGACCCAGCGAGATGCTGGGTTCAGCCTGGAGACCGACTGGCTGAATCCACATGCATCTCAGATAAAGCGTCTCAGATAAGGGACCACTCTGTCCCTGCTCAGGGAAGCAGGGAAGCAGACAAGCTTTGCTGTGATTGCCAAACTTAAAAAGGCTGTACCTCTCCAACCTCTGTGTGTTTCAACAGCAAAAGAA
1 ATCACTTCCAGAGCTAACCTTCATCACAGTTCACTCTAAACTTCAAATTTCTCCAACCTGGGAACTAGTAGTGATCATCTTACTTGGTTACATGCGGGAAGACTAGAAGGTGAGATAACAATCACCAAGGTACACACAGGACACAGCACCTAGATGGTATTTGTAATCATTGAAACACTTATTTATGCTGTCTTTCCTATTTCATTTCCTAGGGTAGCAGTTCATATTTTTATTAGAGAATGAAATATTTAGACATGTCATTGGCTAGTGTA
0.5043090401981796 GGCTTGGGAGGCTGGGGTGGCGGGGGATGGGGGGGATAGCAATACAGAAAAAACAAATCCTGACGCACGCAACCCCAGCGGTCGCTCTCACTTTGCTGTGTGAAAAACCCAAAGGAATGATTGCGAGTCCCCCGCAAGGGGGGTTGGTCTTCCTTGCTGACAAGAGTAGAAAGATAAGGTGCAGAAGGCAGTGATTGAGAGGAAAGGAGAACGAGGGAGAAAGAGTCATTTATCATGTTTTCTCTAATTTCCAG
0.7688605554129931 GTGCAAAAAGGAAAAAAAAGAGTTGGATGATCATAGCAGAGTAATGGCTAGATGTGACTCAGCAAACTGCAGACAGGAAACCAGTTTCCTCCAGGTAACAATGACTTTATCTGGTGGAAGATAGTGTTGGCAGGGGAAAAGAAGTCTCACTGGGAACTTGAAGAGGAAGGAATTGTGGCTGCCATCAGTAAATATTTGGATGACAGGGCTCTCATGCGGGTGTTTGTGAGTAAGGAACGGTAACAAAGCCTGGGCCACAGCC
0.3740218689541323 CCTGGGTTTCTTCCTGTTGCTACATGGTGAGTATCTTCAGAGCAATGGAAATTAACACAATATGAAGATAGAGAATGTCTCCTCTCCCCTAATTTGTCATGTTTTTTGATAGCAAAATCTAAACTTAGCTTTCTAATCTTCCCCAGAACAAATTGCTTACATTCCAGGGTAAAAGGACTTCCCATCTTTCCCCAAAAGAGGATGTGTTTACATTCCAGAGTAAAAGATAGTCATGTCAATCTCTCTCCCTCTCTCTGAGGATATGCCAGCAGTTCCAACATAAGCTCTGGGTTTTGATAATTTCAGAGTTCCTCTCCTATGA
0.4345439059741109 ATAGTCTGCAGTTTCGTGTTTTCCATGTTTGAGGAGTTCTTTCTAAGCTTACCAGGCGGGCTCTAAAAGAAGGATTCCTGGAATTTGATTTTTATCTCCACCCGAGAGCATCATCGAAGCAATCTCCTAAATCTCCCCTAGAGCATTCCACAGCAACCCTTGGAGGCAAAGGACATAAGGGAGGTGGGAGAGGCGAGTGGTGTCTTGTGATTTGCCAATGTCATTCCTGCCATGGCTTCAGCTGAC
0.5332994234048453 CTTAATACCATGTTTTTGGTAGTCAGAAAAATGGCTCCCCCAAATATGTCCACATCCTAATCCACTTTATCTGTGACTTTGCTACATCACATGGAAAAAGGAACTTCAAAGATGTGTTTCAAGTTAAAAACCATTAGCTGGGGATTATTCTGCATTATCAGAGTGAGGCCAATCTAATGACAAGAGTCTTTAAAAGCAGATAAGCTTTCCTAGTGGTGGTCAGGGAGATGTGTCAACAGAAGCAAGGTCAGAGGAACGTGGTGTTGCTGGCTTTAAAGATGGAGGAAAACAGCTATAAACCAATACATGTGAGTGGCCTCTAGAGACAGGAAAAGGCAAGGAAACGGATACTG
0.810664241896205 CTTCAAATCTCTTGACTCTCCATTTAACCCCAGTGCCCCATGATTACTAGCTGCAGCTACATTAACGCTCTTGAGATAGGCTTTTTTCATTAGAATAGTGACATATTAAAATTTATACATTAGATCCTTATCACATAAAATACCCAATCCAAAGAAGTAACAGAATAAGATGGTTGCTTTTATTCCTGGTGCTGAGTTGAAATGATATGCATTCTAATAAAATGGGAAAGAATGACAAGTGATCTGTCAAAGAATAGAATTCATTTTACAGGGTTTGCAAACGAAGCAGAAGA
0.2562796392743882 TGGCGCCACAGTCCCCCACTGTTACTACTTTAGTTGATACCTTTATTAGTTCAGATACCCCCTCTTCTAGGAAGCCTTCCCTGGCTTTCCCCTGCTAATACAGGGTCGCAGAGGTGTAGATACGTTTCCACCTTATCACAGTTACTGCATCACAATGGAATGCACTGTTAACATGTCTATCTTCCTCATAGAGGCTTCTTGAAGGTACTGTGTCTTTATCTGGCACATTCTTTGCATTGCCTAGAGGACAGAGTCTGCATTCTTGGCAGGACAAATAAGAGCCTTAGCAGCCTTCGCAAGCCCCTCTACCAGCTTTATTGCCTGCTGCTCTCCTGGCAGAAACCCTGTCCCTCTCTCAACGTCCTAATGCCCTCAGCACTTCATCCTTAGTATGCTTCCCTCTTCCCTAGCTCCATCAGAATTCTTTACCTAC
0.5168867762604774 TGTTTTGTTTTGATTCCAGCTCCCTCTCTACCCAGCTGAGCCACATAGAGAGAATGAAGCCTGCCATTTTGCACACAGTTTTGCCTTTGCGGCTGTTTATTTTGCTAAGACTCTTAAACCTGTCAGCGAAGCGGTTTCCAGCCCAGTCTCTGTGGTAATAATCTCCCTTTCTAAGAGATAAGCACCCCGAGTGAGACAGATTGGAAGACAAACTAACACACCAAAGTTGCTGAGTACACACGACTCTTTAAAGATGGCCTCATTCACTACTCAGGCTTTATTAACTTCAAAAAAGAAAAAGAACAACAACAAAAAAGTCGAGCTTGGAGGTTTCAG
1 GTCCATCATGGTCTAAATCCAGAATATATTATATCTGGAATATATATACCTAGAATATAGACACCTAGGTCCAAGAGAGCAGAAAGGCTTCCCGGAGAGGGTGGAGCCTAAACTGGACTTATTTTATGTTTCCCTCTGACTACTGTTGTCTTCAAAGAACACTGTCTTCTACCCCACCTCCACCTTAATCCACTAGAATCTGTTTCTCAAATATTGTCTTAGCAACCCGTTTACTGATTAACACTGACAAGCCAAACAGGCCAGCATCAATGCTG
0.8374019843082643 CAGGCTGGTCTGGAACTCTTGGGCTCAAGGGATCCTTGTGCCTCGGCTTCACAAAGTGCTGGGATTACAGGCGTGAGCCGCCGCGCCCGGCTCTAAATAATTTCTTATCGCCCTCCCTCAGTTTGTTTTTCCTGTTATCGGGTCACCCACACATTCCACAATTGTCAAATAGGTGAGGGCACAGGTACGGAAGCGTCCCGCATTCCCTCCAGATTTTATCACGCTGAGACACAAAGAGAAAAATAGCTCCTGGCGACCGCATGAAAACCCCGATTTCAAAACAGCCACATGCAGTTTAATTTCCTTAAAAG
0.3227274665098038 AAGGCAGTCATGGTTCCTCCCCAGCTCAAACTTTCCCATGTGAAATCCCGTGGGCCAGTTTGAGGTCCACTGGCCACTAAAATGCAATCTCTCTGTTTTGGAAACTTTCCTCAGAACTAATTAGCAACAAGAGACGCTCACAGATAAGAACCTCAAATACCAAAACACCACTGATAAGGCACTAACTGACATGCCTAGACCTGAGGAGGGAATCATGTCTGGGCTTCATCTCCCCAGCAATGGGTAGTAAAGGCAAACAAGCCATTGAAGGAACAAGTTCAGCAACAAAAAAGCAAGGCCCTAAATAGCTTTTGTTAATGAGAAGTGATTTGGATACACATACAT
0.09860175979598773 AGCAGCGTGGACAGACAGTCATACAGGTGTGGGCCGGGACCTTAGAGGGCAAAATAAAATGCTTCTGGAGTCTAATCTTGAGCCAAATTGACTAAAAAGGACAGCCCGGCAGAGAACGTGCGTGATGTGAGTTACTCTGGCACCGAGAAACCTGTTCTTATCTGGCAAGTACGCCCCCTGCTGGCCGCGGTGCTGAACTCCGCCTCTTGGTCCTGCGCCAGACAGCCCTCGGAGCTCTCTGGTTTAGACCGGGGGAAGGAGAAAGGAGCTCTGGCAGAGCGAGTCCCTTGTAAAGCACACAATGGGAGCAAAGGGTGCCGTCACAGCAGTCACCGCCCCAAACCACAATCTTTGTCCAGTCACGGTTCTCTGCAGTCAGATAAAATCCAAGCAAGCTGAAAAGAAT
0.8596473214309134 GACGATATCCACCACCACTGGAAACTCTGCAGTTGTCACCTTTATCAGGGGAACAAGAGCAAGCCACTACATTTTAATCACTGGAGTTTGTCAGGAACGAAAAACAGCCAGCTTCCCACAAATCAACAGACATGTATCCTGATAAGGGAAGTGCATTGGAAAAGGACAGCTACATACCACATGACACCACCTATTCCAGGGTGATCAAAGCTCCATAATTGTTGAAGATAAATCTACTGAATTGGGCTTT
0.5675168128542593 TCAACAACAACGATGTCAGATGACTGATTGAATAAGCATGTATCAGTAGCTGTGGTCTATACCTTCAAACCAATTGGGATAAATAATAAGACAAAGGCATGAAAAGATAAACAGAAACAATACCTCACATACCAAGTGCTAGTGTCAGGATACAAATGAGAAGAGATAAGGGGGAATGAGCAAGAGATAGTGGGGCCTGACGTGGTCAGGAAACTATATTTGAGCTGAATTTTAAAGAAAGTACCTGAATGAGTAGAGATGACATGAGGCAGAATTTATAGTATATCAAATCATGATCAG
0.1257938449716335 GGCCTGGCTTGAAAAGCTTTAAGCTGAAAGAATAACAAAGGATTAGACAGAGCAAAAAGAAAGTTGTCTTATCAGAGAGCAAACTCATTTAGTGAAACAATCAGAAAATGAGCTGTCAAGGGGCTGCAGCCAGGCATGTATCTGCTCCTCTCTGATAAAAAGGAAACAAACATAACGTTCCAGGAGATAATACATTCAGTTAATCCTAAACTTTCAGAAGTTTCTGGTTTTATTCAAGGAAAACTAAAATGAGGT
0.6120234874276106 AGGGACCCAAGGAATTACAAAAGAGAATAACAAATGTTTGCTCAGAACACAATGCAGTAAATTCCCTGGTGCACTCAACCAGTATAACAAACAGGTCCTTTGTAATCTCTAAGATAAGGCTTATAATTAGCCAGGGACCGGGTGACATGAATCTGACATGAGTAGACATAGTGGATTCACCTGTGGTTGGCCTGGCTGGTAGTCCAGCAAAAGGGGGGTGGTTGCT
0.3781396368713493 TGAAAAAGTGGTATTTTTGTATACAGTAATCCAAGAATCGTTCTGACCCCTATTCCTTACAGCTAAATAAACTGCAAGGCATGCAGTCTTTGGTGTTCTGCCAGCAGGAGCATTGAGATAAGAATTCCCACTATGAACACCGTGTTATCCTTTTGCCACTATCTACTGATTAAACCTCAAAGGCCCTTTCAAACTGTCAGGGAAAGCACACACAAGGCGTTCTATGTGGATATGTGTGGCAGGGAAGGGCAGGGAGTTCTTGAATTCTACGTTTTG
0.7998534923912338 TTTCCACTAATCCTCAACTGTTGGTCCTTGACTGCTTGTATTTTCTCATTGGAGTCTACTCTTCCCCATGGGATTATATTCGGTTTGTAATGTTTTCACTGGGTGAGAAGAAATGAGAGGATCAGCCTCACACCTAAGCCAAACTACTCCCTGGATAATCCTCTCCAGATAGCAAACACCAGGAAAGCAAAGATAAACGTCACATGGGCAACTCCAAGGATACACATCCCTAGTAGGAATACTTCAAGGCTTCCCCAGGTGCCTAGTAACAAAAACGATGTGGTCCACAAGCAGGAAAGATACACATTCCCAAGCAGAGTTTAAAGAAGTTAAACACTGACCCCCACCAAGCAGGCAGGGGACCTGATAACCTCTCCTAGTCAGGCCGCCCAGAGAG
0.6863068453417295 ACCTCTCAGTACCAGGGTGAAAGTGGAGACGCAATCTCCCTTGGAAGACGTTAGTCTCCATCTCTAACGCTCCCGAGACACGGTTCGCAATTAATTATGACGTCACAGCCAATCGTCAACGCGAAAGCCTGACGCTCTAGCCGGCTCTATCTCGCTGCCCCGCCGCGGGCGCAGAGCTGGCGCTCTAGCCCACGGAGTTGGTTAACTCCTCTCACCGGCCCCTGGA
0.5764735708020947 ACCAAGGTAGTTTTAAAAGGCATGAAGGATGAGAACCACCATTCTTATTTAGTGGCTCTGGACAGCGTCACTTGGAAACAGAACTGCCTCATGCACAGATAACAATGCCTGACACCCATTACACTTTACATGCACGTTCACATCTGCCTTTTGGATAAAGGGCAAGAAGAAAGGAACATTTACCATTGAGAAAGAATTAGAAGCCTTGTTAGTCTCCTTTTAAGACTTCTTCACATTCCACATGGATTAACTGTTAGGGAGAAAA
0.2934594618798537 TTCAAACTGGGAGGAGCCCACCACAGCTCAGCAAGGCCATTGCTGCCAGACTGCCTCTATAGATTCCTCCTCTCTGGGCAGGGTATCTCTAAAGAAAAAACAAAGGCAGCAACCCCAGCCAGGGTCTGATAAGATAAAACTCCCATCTCCCTGGGACAGAGCACCAGGGGGAAGTGGAGGCTGTGGGTGCAGCTTCAACATACGTAAACATCCCTACTTGACAGCTCTGAAGACAGCAGCAAATCTC
0.1824221348516851 AGGTGAGAAAGTTGGGAAGCAATCTGATAAAATTTTCTTTTAAGCTGGTATTAAAATGAGCTTTCGGCCTTTGAACACACAATAACAGATAAATGAAAGGCATACCAGAAAGTCACTGGGTGGCAGGGAGGAAGCCAGTTAGGGGATTTTGTATTTGTGCTAGATAATGTGCACTCAGATAAGCAAAGGATGAAGTTGGTGATCTTTGTCTCTGGATTCACTTGCATTCTCTAGCTGTAGGCAGTAGCACAGCATCTTCCCATC
0.5521826965798328 ATGAATTTGCTGCACTGTTATCTATAGCATTAAAACATAGACATTCCAATCATTTTCCCATTTAACATTTCTGCTTTAATTAAGGCAGTTTTGGTCGTGCACTATTTGAAGTGAAATAAGTAGACGTTTCCTGTGCCCTGGGCTGTCTAGATTGAATGTGAAGATAGGACTGCCTCAGGGCCCCGTATTGGAAATTCAGCCTGAAATTTGATTTACTCAGCCTCTCCATAGGTCCTTCATTCACTTGGCTGATTTTGAAATCACC
1 TTGAAGGATTCCCTGAAACTCATGCCTCTACAGGACACCAGGTGGCAGTGCAGCCTAAGAAGTGACTGTGAGCGTATCAGGTGCGATCTGTTGCTTGAGTACATCAAATTAAATAAACCAGTATAATTTTTTGCGTGCCTATGGAAACCTTTGAGCCACTTAATCATCATGGCTTCAATCTCATTTCTAGAAATGATCAAGGCATGATATGCCCTTTCAGTGACACCATTGTATGTG
0.4584212871623953 AATGGGAATAAAGTACCTGCAGGCACGCAGTAGTTTTCAATAAGTGTGTATGTATTGAACTGAAGGGCCTTAGGACTGATTGCTAGGTTTGCCTAGCAAAGGCTGACACAGACTGTGAAGATAAGGGCAGGCTCCAGCATGGAGAAAGAGGCTGCTGACATCCATGCCCTGTGATCTCAGGGATCCAGCAAGGCCAGCCTTTCCTGTTCTCTTTCTTCCTCTGCAG
0.1042544183551738 TTTATTTAGTTAAACTGTGAAGGCAGATCTGTGTGCTTTTCAGTGCAGGCATTCTTTTTTCTTTTTGACCCTGGAATATCTCCGTTTTGTGTAGACAGAGACCAGTTGTCAGCTGATAGACTATCACTTGAGGGGTGATGGCAGCAGTAGATGCATGGGAAAACATCTTGATAAGGCCTTGGAGAAAAGGCTGCTCTTTCGGAAGCAGGGCCCATTTGCCAAGAAGGCAGCAAGGGAAATCGCTGGT
0.2064405321812277 CATGTCAACGTCTCTCAGGTAATAGAAGTATTACTGGTGCCCTTCACATGCTTGACAAGCTTTCGGTTTGCTTCTCCATGATTGGTCATGCAGAAGGGTGCTTTCTTATGCTGTAGTGTGTAGCCTTCTTTCCTTCTTGACCTGCTAATTCCTTTATCACCACCCTTTCCTCCTCTTATCTTAATCTTTCAAGGGAAAGAGATACCCAAGACAAACACATTTCCTGAACATTCTTTTTGGGCTTAAGATGATAAGCCTCTTCTAACCAATCTGGACCCAAGAACAGGCCAGTGAGTGCAGTGTCCTGAGTTCTCTTTCTGATGGAAATCCCAACGCATTTGGGGGGAGGTCAAGAATCCTGCCCTGCTCTAAGGTGGACCTTCATGAGAGGGAC
0.9585459631996546 TAACTATCAATAGGCCAGTGGTTTGACAGTTGAGCTTTGCTTAGTCACCAGGAACCCTCAGGAGATAATGCTATTTTACTTGCAAACAGAGATGTTTCAGTTATGGACGTCTGTGTATTGTAGTTTATCTCTTCCTCTTTGCGATGCAATTTGAGAGAAGTTCATGAATTTGGTGGCCATAGTTTGATCTGTAGTGCAAATTAGCATAGCTATCAAAGCAATCAATCTGTGTTTTGATGTGACTGTTTTTCTCTACCAGAAGTGGAGAACAGGACAGAATGAAGGAGATTTGAGGAGCACGTCAGGCTAAATGTCTCTCATTCACCTATTTCAAAGTGGATCAGCCCCTCTCTGCCAATGCACCTTCCTAGTATAATTTTCTGAGAATCTTTTTCTGGCTTAGGTTAGAATTCAGTGAATGGCAGAATT
0.1834011991146252 TGTAAGGTATGCATTCATCTAAAGATGTAAATGGTTAACTTCTTTTAATCTATAACCAAGGTCTGAGTCCTAAATACCTTCCTCTGGAGCCTCAGTAAATTTACTTAATCTAAATGGGTCCAGGTGCTGGGGGGATTACCCTTATCTTGTCTCCTGCTAAATTACAGAGGTTTTGGGAGTTCCTTCAGACCTCCAATAAACTTGTTTGTGGAGGCCTAAGGAGTTTCCTTAGACCCCCAGTGAAACTTGTTTAATCCTAAATGGGTCCTGTTAAGAATTCCTTTGTTATTTTGTCATGCCT
0.5215996169227962 CCATTTTGGTTCCTGAATAAGATGACTACAAAGAGGAAAGGCTACATACCTCCCTCACATTTTGCCACGAGGAAATTCCCTGCAGGCCCCAAGAGCTTTACCCTAAAGCTTATCGGTTAGAGTTCACCATGGTAACGTAAATTGATAGCTTATCTTCACAGGTGCAGAGACATAGGACAGAACTCAAAGACATCCCTCTGCCCACCTGAGACAAATGCATATCTGATTGTTTCCTCTGCCCTATTGTTTCCATTATC
0.9377863806151722 CTTTGCCTTTTTCTCCCTAGTTTTCATTTCTTTCTTTTAGGGCGTCAGCCCCCCACCTCTGTGGTTGGGAGGGACTATTGCACGTCTACACTCTCGTGGGGATGAAATAGTGTTTGAGTTCGTTATTTGCATTTGCGCGTTATCTCCCCGAGGAGATGACAGCTTCTCTGCCAGCAGCGGGCAAAGGTGGGCTCTGAAGCAGAGGAGAGGAATTATCAGGAAAAGC
0.5692385253551333 GACATATGGAATGGAACACAATAGACAACCCCCAAATAAATACATTCATTTACAGTCAATTGACTTTCAGCAAAGATGTTAAGAACACATAATGGGCAAAGGATAGTCTCTCTAATAAATGGTACCAGGAAAATTGGACATCCACATGCAGAGGAATAAACTTAGATCCTTATCTCACACCATATACAAAAATCATCTCAAAATAGATTAAAGATTTAAATATAAGACCTGAAAATTTAAAATTATTAGAGAGAAACATAAGGGAAAAGCTCTATGACATTGGTCTGACCAAAGATTTT
0.9565933987155981 AATTTTGGCTGAATCCATTTACTCATTCACTTCATTGTTCCAGTGTCTACTGTAGACAGGCATGCTCTGTTTCTGCCTCTCAGTTCAGATTCCTGAGACTCAGGATCTGATCATTGGCCAGCCTGTGGATTGAGTAAACTATGCAATCAAGAAGGTTATCACAGATACAGCGTTGATCAACACAGACAAACTCTCTGGCCTCATGCAGCTTATGGTGTCATGATTATCACCTGTAATAGAACATGGTCACT
1 CCACTTGCATGTTTGTACCATTCATATCAGGATTCTTGAACCCTCATAGTGAGGGAAAAAAAGGTGCAAAGTACAAAGAAAACACAAATAACTGAAAGATCAAAACCACAGATAGCATCTATAGGGTAAACTCAAGATCAGAGAATGGTTAATATCTTCAGTTTATTTTAACAAATATCCTTTGAAAGGGAACTACAATATACTACGATTTTACTTAAAATATAAATAATTTTTAAAAACTTAATATGAATTATTCTACTTTTATAAAAATAAGATT
0.3773165373637596 AGGAATTTCTCAGAGATGCCAAGACAGCAGTGTGTGGCGGGGGTGCCACCGGCTGCCGGACAATTAGTCCCAGAGCCTGGTCCTTTGGAAAAGGTGTTCTGCTGGTGGAGACTCGCTGGGCTGTGATGTGATCGTGTCGGATGCCAAATTCCACAGTCAGTCCCTTTCAGCAGTCACATTCCTTAGATTCTTATCAGGGATTTTCCCCCCCAAGTGAACACTGGGAACCAGCCTCCCCGCTGATTGCAGGAGGATGGGAGGAAATTAAAAGCAGGAATCCTGGCGGTTGTCCTGGTTCGTCACCAGCTTGCCGTGCCAGCTTGAGCCCTTCCCTTCCCCTTTCCCCTTCTCTGGGCCTCGGTTTTCTCACCTGTAAAAAGGGGGTTGG
1 AGCAGTCACGAAGCTGAGAACAAATCATTGGAAAGCATATATGCTAAAATGTGAGACTGACCAATAAAGAAATTAGGAGTGAGGAAGTTACTGAACTGCATTTTAGGAATGTATGTAAATTCTACATAAAGTATCTTTTTAATAATTAAAATTTGAAAAGGTGTGGTAAACTGATAATCTAAATAAGGATCTGAGACAAAGCACCTGCATAGCTACTGGAGGACATGGTCCAGGGGCCCACTGCCACCTAGTGGTGGTGCACCAAATACAGTAAAGTAATAATGCTGCCTCCTAAACAGTGGTCT
0.499592027269948 GCTTATAAGCAAGGCACCTCACTTATCTCGTGATCCCGGATATGCAATATCTCCCTGTGGTAATTGAGTAAGGGCTCAGCCACAGCTACTTATTTTTAGGAAATCCAAATAAGGACTTCTGATCCCAGTTTTAGAAAATGGGAGACAAAACTAGGCGGGGTTGGAAGCTGGTTTGGCACCTCTGAAGATAACTGTAACATACCCCAGCAGCTTTCTGACAACATCTCCTCCCACCCCACCCTTCTCAGGAGAGGGTGGGAACAGAATCTAAACATTGTCTGCTTCCTCCTG
0.238468298647077 CATTTTGTCTTTAAAAAACTCTCGACTTTCCTTGCCTTCCTGGATACACCTATGGCCCGGCCACGGTTCGCCATGGCACAGGAATTCCCAGATTGCAATCACCTATCATTCCTTTCCAAATAAACTCATTTCTCTGGAGAGCTTCTCTGTTATTTTAGGTTGACACTTTCTAAAGTATTTTATATGTAGAAGAAAATAGAAAGCAATCGAGTCACTTTATTACAAGTCTAAGTAAAAACTTTGTTTTATTTCTAAAAGTTTTTCTAAAAGCATATGATCTGAGACACCAAAATAGACACCCCTTTAGCAACTAAGACGGGCCCCAAGGTTAAAGAAACAAACGTTATCTCCAGGTCAAGGGTTCAGGGTCTGGCAGACATGGCAGATTTCTGAATTCCTGTCTGAGATATCAAGCTGATTTACAACCCAGACCACTACAGTGCTGATTGGACAGAGGACCAGCCTTACAGACATTCTTTTTGGATAAGCTACTGCAGACCTCAGGTCAGTTTCAG
0.8687768223441036 TGAATTGGAGAAACTCTGTGTTGTCTCTGAGATGAGAGTAGCCTGTAAGAAATTATTTTAGCCTTCTGACCCTCTGCTATTTGTTTTTCACCCATCTTCTTGTTTTAATGCCCTTATCAACTATGGTAGTGCTCTGTAATTTGTCAGAAAACTGACTCCTCTGTCATGGGTATATTCGTCTATATATCTTCAGCTATCAAGAGCTTAATATTTATCCTATTCTTTAATTTGGGTTTTTGGGTTTCCCAACATATTTTGCTCCTCAAATTAATATTTTTCAGATCCTCAAAAGAAAGATTCAGAGACCAAGACTTAGCATCATGTGACAGAGACAGGAGTTCAAGAGACAGATCACCTCGTGACAGAGATCGGAAAGATAAGAAGCGGTCCTATGAGAGTGCTAATGGCAGATCAGAAGACAGGAGGAGCTCTGAA
0.579656296472717 AATGGAACAGAATAGAAAGCCAGAAATAAACTTGCACATTTATGATCAATTCATTTTTGACAATGGTGTCAAGAACCCACGATGGGGAAAGGATAGTCTTCAATAAATGGTATGGTGAAAACTGGTTATCTACATGCAGAAGAACAAAATTAGATCCTTATCTCACACCACGTACAAAAATTAACTCAAAATTGATTATAGACTTAAATATAAGAACTGAAACTATAGGACTACTAGAAGAAAACATAGAG
0.4377391816795203 ACTACATCTGTGCATTGAACTGTGTTGAAAGTTCACCTGCTCTGACTCTTAGACAAGGGTTTGGTCTTCAGCTCTTTCTGCTAATCTACTGCATGAGATAAGGGCTTCTTTGTAAGCTGCCAAAGCACTCTGGCTCTCATGCTTAGTTTTCAATGACTTGCTAATTGAGCATGGCTTGCATTGTCAAACCACTCCTCATGCCAACTATGCTAGTCAGGTTCTCCAGCAA
0.01608504985292263 AGCTACCAAAACTAGGCAAACAGTGCTCTTGGTCCTGACGCCTCTATTGACCTCTACCCATGCTCACATTACTGTATCTCAAATCCCTAAGAGCTGCTTGGGATGCTGATCACGGTGAGGGCAGAGAGTAGGCTCAGCCTCTTCAGGGTCTTCCCCACCCTTTCATATCTCAGGATCCAGCTTTCCTGACGAGAAGCCTTGTCTAGATAAGGCAGGGAGGCCCTGGTGCCTACAAGTTGAT
0.1362584608631749 GCATGACTTCCATCTGGATGGCTGCTCTCAGCCTCCAATCTCCTCTCCTTGGTTTCTGTTTATTCTGCAGGTTGAACAGTACCCTTGTTGGCTACTCATCTATCTTGGCCCTAGGGATCCCCACTGTGAATTCAGGGATTTGGAGGCTGATAAGAGACAGAGATATGACCACTAGGTGATAGTAGCACACAATGAACTTGATTTCAGCAACACTTTGATAGGATTGTGTGCAAAGGGAAGCCCTTCCCAGAATGAAACCTTCCAGAAACAAGGGGCCATGCAGAAGGAGAAGAAGGCAAAAGAATTCAGGAGGGAAAGGGGAGTGGCAGAGAAGCCTCATGTGTCTAGGCAATGTCACTCAGGGAGTCCTGATTGGAGAGCTCCCAGTGGCAGCAGTGGCTTAGGGTCTTTTATAACCCCAGGGCTTGTCTTATCTATGGCTAGCAAACATTGGATACAGATATTTTGCAAGGTAGGCAAAGC
1 TAACAAACGCCTCCTACCAAACTAAGGTTCCACTAAAGGTCTGGGAATAAGGGCAAAGAGATGTATAGCCTTATCGCGACCGCAAGGGTGGGGCCTTGCAGTGGGAAACAAAATAGAAGGCAAGCTATCCCGAGAGGTTTAAGGGGGCTGAGGACTCGGCTCTCGGGAGATCGCCCATCAGGCGGTGGACACGGGGCAGCTTCGAGAGGAAGGAGACAGTGGACTGCTGGAGGAATGT
0.3093219580348415 AATCAGGAAACTTATCTGTGGACAAAGGCACTGCAGCAAGAGAGAGGCTGTGCTGGCACGCCACATTCCCGGCAGCCAGATCTAACACCACTGATAAAGCTGTCTGTCTTGGTCAGAATTCACTCAGGACCATGGTAGAGTCAAGCTTTGCTATACTGCCCGCATTCTTCTTGGTTTAACAAACAGTTCATTCAGGAACAAAACCACTCCTTCCTATCAGAATTGATGGAGGTCTGACTGTA
0.5293745171454514 TATTATCTTTAAATTAACTCCAGTTGACTACTCACCTTCCTCAGCAGAGTCCATAATTAGGTATTTAGATGGCATAGGTCTTGAAAACTCACTTTCCCACCTCCAGAGTAGAGGAATCTGTCCTTGAAGTGCTTAGGTTGAACTGATTTGTTTGTGGTTGCCTTGTCAGAGGTGGCTGTAATCTACTCCTTTGTCATAGTAGATAATCCTTATCTGCAGAGAATACTGAGTCTGTGAGAAAACACTTGTTCATTTCTACCCTACCACCATTTCTCTTTCCAAAGTGGGAATTTGCAGTGAATCATAGATAGTACAGCTACAATGCCTTAAGGAAATATAATTTACATTGGAGGGAAATCTCAGTTACCTGGCATATAATAGCAAGA
0.4954552199594723 CCTATTCCAAGACTATATTTTCTGCCCTCCCCTCAGAAGCTTTCTCTCATAAGCTATTATTGTAATCCTGGTTTGATAAAAAGCCCTGATAGGACGGGAGGTGTTTGGTGTGGGAGCCATATCATGCTATCAGCCCATCTCCCCGCACAGCTGCTCGCTGTTGTTGTTTTTAGCCTTATCACCTCCTGCCAATATGCCAATAAATTGCCCAGATTGTTCTCCATTCTGGGGCTG
0.1907193062943272 CCTCCTCCCTTGTCAGTGACAAGGTAAGGTAATCCTATACACAGGCTGCTATTGTGAGCTGAGAAACTGGCCTCCTTCACTGCCAGAGACCAGATGCACCTCTTCTATCCTAATCTGTAAACGACTTAAAGGAGCCTTATCTCGGGGCTCTTCGGCTTCATTTCATGCTTGATTTACTTTAATTTGTCTGATAGGGCACAAGGATTTGGAGACAGCCCATCTTTCTGCAGAAAACGTTCAGATTTT
0.3186637881817849 CTACTCCAAAATATGGCACCATGGCATTTGATAAAATAGCAGAATCAGGAAGTTCTCTCTGACCCTCTTCCACCCCCACCCCTGAAGCAAGCTGTAAAAGAATTCTCCAACCTTCCTATACCGGGAAGAAAGGAATGTCCTTATCTCTGATGACACAGACTCACAGAAGAATCCAAGCAAACAGACCTTGCTAAGTGTCCCTAGTTTATTACCATTAGATCATAACCCCTTTGTCCACTTCTTCATCAAGCCTAAGTATAAACAGATTGTCCTGCTTCTTTGGATCTTCATT
1 ACTGTATTCGACTCCGTTCCTTCTCACAAGATCATTGGCAAGTAAGGCAGGCAAGTGGAATGACAAATTAGGATAGCTATCTGGTAAAGTGTTCCTTGTAATGGACTAAATTCACCTCTGGGTTTTAGTGTTGAGGAAATATGAAGGCATTGCACCATCTAGTGGTTCTATTGGACCCACAGCTATTTTTTGCTTTCTCTGTTGGTTGTTACTGACGTTCTCTGAG
0.3674736258555186 ATATATTTCCCTTGTTTTCTAGAAGCCAGACACCATTATGTTTCTCTGCATTCGCAACTACATTGAATGAAAATTGCATATATTTGACTTTTATGAGAAAGAGAAACATTTTTGAATAGCTCTGTTATCTTCTGTGTAGACACATGGCTGCTAGGCTGTAAACTAATTAGCATGGGCAGGAGATACCAGAGAATAGTTTGTCCCAGAAGCTGATAAGAAGACACTATAGAGACTCAGAAATAACACCAAGTGATCTCTCTGTCCCCTGCTCAAAAGTGATAATGCTAATACAAGTTTATTAAAATTTGTAATCTAATATGCTCTGCTAATTTCCTCTTGGGGATAGTACTCATATTAAAAGAGTTGCTTATTTTAC
1 ATGAGTGATTTTCTTCAAAGCCCAAAATGCGATTTTTTTAATGAAACACTGTGTTAAAAGTACAGAACGGTAGTTTAGAAAGGTAGCTCTTGAATGTGACTCACAAGGCATACCAACAGGACCCTGTCTTTTACGGGGATCACATGGGGCTGTACTATCAGCTAGGGGCTGGCTGTGCCCTCTGGTGGTTGGATACTGTGTTACTTGGTCTCTAGAACCTCACACTTAAAAGTCAGACAAGTGTCCTCAAATACTTAAATCACAGAATTTTAATTCTAGCGAGTCCTTGGTTATTATTCTGAGGGAAGATTTCTACAGTCAAAAGAGAACC
0.957296349448109 GGGCGTTTTAAATAGACCCATTTAGAGCTGGGGTTGGGGGAGAAGGAGGGGGGTGGAGAGACAGAGATTGAGACAGGCTGGGAGACAGAGACAAATCAGGAAAGAGAGATGGGCCCTAGAAGAGAGAGACTGGGAGAGGAGAGACAGAAGGAAATGCAGAGATACCATTGAGATAAGACACTGAGGGCGAGGCTCCCACGGAGGCTGAGATGGACAGAGAGAGGGTGATGG
0.4160669827474127 ATATGCTTGCTTGGAGATTGCAGGGGCTATTCCTGAAATAAACCAGGCCTGGAGACTCAGCTGCAGAATTCTTCCCCATCTAGGGATAACCTTAAGGTGGTTAATCTACAACCCAGCCATTGTTAAGATGGCACCAGTCTGCATTCCAGATTAACAATAACTTAAGATAGCCATCAGGACAAGACATATAGAACCTGCACCCTGCCCCACTCCTTCATTTTCATTCGAAGTTTTCTTTCTTAAAACCCCTCACTAAGCCTAAAATTTGAGATGGTGTCTTGGAGGCCTTAGCCTGACCATC
0.7988960221379284 CTTGGATAAACACTTTGCTCCCCTGGCCTTCACGTCTCCATCAGCAGGAGGGAAGGGAGGGCCCCAGAGCTCTGCACATTCCTCAAAGGGATTCTGACCCTCCTCCCCTACAGCCTCTAACTGTCTGTTGGTCACCAGGATTAGTTTCACACCTTTTATCTCTGTTTATGTCACTCACCATGAGAAGCCCAGCGCTCCTGGAATATCTCCTGTCTCTAAACTTTCGCTATATGGCTCTTTGGAACCCTTTCTCTGACCCCATCTCCCACTCCTCTTCCCCAATCCCCC
0.8057354806420944 CTGCTGTGGCCACAGGAGTGCCCACATTACCCTCCCCTAACTTCAGGCAGCTTATTGTGGAGAGACACTCCCTCTACCTGGGGGAGAGAGAGGGAAGAGAGCAAGAAACTTTGCCTGGGAACCCAGAGAATGTTCCCTTATCTTCCCCAAGTCCATCAATGCTGGGTATCTAGGTATCTGTAAGAGTTGCAGCACACCTGGGCTTAGGGTGCCCTCTAGTGCTGAAACAACTG
1 TTCTGCATTGCTTTTTAAAGTTATAATAGAAAGATACATTTATAATAATAAATCAAGTGGAAAATCTAAAGCATCCCTTTTCCCTTGTCCTTTCACAGCCCCTTGAAGACACCAGTGTTGACAGTTTGATAACGAGAAAGTGAGAGAAGGAAAGAAAGGCAGAGAGGGAAAGGACAAACAGACCAACTGATAAAACAGGTTAATAATCATGTATATTTCAAAAGAGCTAGAAGATCTAAAATGTTCCCAACCCAAAGGA
0.6020130448218395 TCAGAAGGCCTGGTGGTGCTTCCACGTGGAACCGACAGAAGAGCAATCTGTAGCCCGCTTCTCTCTCTAATCGCACCATGAGACCTTGTCTCCTCCGACTCTCCAATCTGCTCAGGATCACACCAAGTGTTTACTTCAGCTTCAAAAAAAGCAAACAGTACTCCTGCTCCACCAGTTCTGTGTCAAAGCAGCAAGGAACTTAATCTCTCCAAACCTGCCTCCTCTTTAAAACAAG
0.9668753294409141 AATATGGAACAGTAAGTTGTAGAAAGCCACAAGAGGCCTCTGAGGAGTAAAGCCTTCTAATTGCCATCATGTTCCCATGACCAGAATGTGACCTGCTCTCCTATCTATAAACACTGTGCTCAAGGAGAAAGATACTCCTTTGAAGCACTGGAATGTGGCCAGATATGCCAGCTCCTAGTTAGGCCCACTCCCCACAGCTGCTCTCTGATAAGTTAAAAAATAAATCAGTAGTTAAGTTTATACTGCTTCAGCACAAAGAAAATTTACCTAAACCGCCATTCCTATACATTAGGTGTATGACACACGGCTCT
0.08103667837659199 CTAAATGACCAACCAAATAAAAATCTTTCAGTACCTTCTCACTGAACTGAGAATGAAATATCAACCTGCAGCTTACAGCGCTGTATCTGGCTCTCATTTCTCCAATCTTATTTCATTTCTCTTTACCCCTTATCAGCTACTTCACTTCGGCCATACCAGCCTAATCTCTTTCTTCGTTAAGACTCAGTTCCCATCTCATGGCATTACATTCTTGACATTCCACCCCACCTCCTGAACAATACTTTCTTCTTCTGGATGTCAGCCAGGTCTCAAGAGCAGCCTCCCAATATTGCCACTCACAACAATTCATCATTTCTGCCTATTTGTTTCCTTCACAGAACTGATTACAATCTGAAATTAGCCAAAGCATCCATAGCCATACC
1 GCAAACTCACCCCTGACGCTATGTCCCTTGGACATTATCCTTGTATACACAAAAAGTGCAATTAACGAGTGGGTAGAAGTCAAGGGGTGGAGCCTCCGTCCTTGGGCTTGAAGCCAATGTCCCTCAATGCGCCTGCGAGACTCCCACGCCCTGGGAAGGATGCCTATCGATTCGCTCTGGGCTCGGCAGTTCTTTCTGATAGCAGGCAGCCATCTTGCCTGGAGCCTGAGAAAGGGAGGAGAGACAGAAGGAACCGGCGACAGTGGTCTCAGGGCCGCTCCGG
0.5259980677677618 TAAACTTTTCTGCTATTTTAGTTTCATAACCTCCCAATCCTATCCACTAAACACTAATTCATGTGATTCTCCCTCTGAAATTCTTTAGTCCACAATCCTGCTACTTTCCCAGTTTATCTTATCTCCTACAGTGGTTGTTCTATCAGCTTTCCAAATAGCCTTCCTCTTTCATTCACTCCTTCAATCCAATATACTCACTCAACAATTATTATCCTCCCAAATCAGGGTTTCCAATCAATTGTGTATAATGAAGATATACTATCAAAAATTTTTTTCTGTGGCCAAAAATATTTGGGAAACATAGC
1 AGTTAACAGAAACGGAAGAAATCTGGAACCAACAAGAGACTTACCACATCTACAGAGAGGCTGGGGGAGGGGTGCAGATCAGGAGATGGGAGAGTGAGGGAGAAACAGAAGCTGGGAGAGATAGGAGACCAAAGGAAGGGGGAAGGGTGGCGGCATGCGGGGAGGCTGCTAGTGCTGTAGGCGGCAGAGGGATATTAATAGTACCTGGGGCCCTTCCAGTCTCTTA
1 CTAGCAACCCTCAGGTCCCAATAGCCTCAGTCCTATGCACAGAATAAAGCTGTATTAGTAAAGAATTGAGAAATTATTTGGATGTGGAAAAAGGACTGAAAAAAGCAAAAACTTAAAACTGCCAAGCACATATGCCTTGCCTACTGATAATATTGAAAGTATTAGTCAGTCTTCTACCACCATCTGGTGGTAATCTGTGGTATGAGCCAAAGAAGATAATTCTGGTGTTAAGGTACAAATAAATTTCAATTTACAAGCATATTTTAAATGGATTATTTAACTTGATGATTATGGAAATGTTAG
0.1221253801462176 TTGTATTTAGTTCCTTACTTCCCTACCTTAATAAGTACAGGGGCGGCATTTGCTGCTCCTCTGGAAGGGTGAGGGGAGGGAGGAACGTGTGGGTGTGCTTATGGCACTGTTTGCTCCGGCTAGCTAATGTTTGGTTTCCTTATCTTTGGAGAGTGTAATGGGTGTTGGTGCCAGCTTGGAGGCCACCTGATCTCAATCAGACTCTAAAGTCATTAACGAAGCTACTAGGAGGTAGGCCTCCACGTGGCCTGCAGCCAGAGCTT
0.03703474212826027 TCATACTCAGCCTACTGCATGAAAGATCTTTTTCAAAGTTTTATGTAAACAAAGCAAAATTCAAGCTGGCAGCTACAAAAATAACAGGCAACTGAAATTCTGCAGCATTTTTCAACTTTTTGAAAGGAAAGAAACAGCTCATGCCAAAGTAGTTAAGGCAACCTGGAATCTCAGCATCTGATAATGTCAGCTATCTACTCAGAGTTAAACCAGCAGAGGGGCGTGAGCCTGTCTCCCTTGCTTATCTGGCTTCAGTGTTTCTCTCTCTGACAGAGGAGTGATGTGTCAATTGAGGGCCATGCCTCCCAAAGCACAGAAAGCCCCAGGCTTACCCTACAGCACCGGTGTTACAGTTG
0.5567712003972533 CATTCACCATCCTTCCATTTGTCCATATGACCTCATTCCTCTTGGGCACTGGACAAGAATTCAGGACACACTGGGTGCAGGTCACCAAAAAGGCTGTCACCCTGCCTTTGCCCTTGCTGGCAGAAGGCAGCCACCCCATGTGACAAGGCAGGGGGCCCACTGAGTTGATAACACACTGCTCTCTGCAAACAGCAGAGATAAGAGAGCACTGTAACATGCCCTCTGGGCCTTGGGGTCAGAGGCATCCCTGCCTGGACACTGCTGTGGGGCCTGCGTAG
1 AATTTCAGTTTTGCAATATGAACAAGTTCTAAAGATCTGCTGTACAACAGTGTGCCCATAGATAACAATCTTTGCCTTTTGGACAAAAACTCTACAGTCTTTGGATAATGTAAAAGAACCTTTGTAATTTATGTGGTCATCATTGATTTTCATCACTTTTTCCTCTCATACCAGGGTTTTAGTCCCACCTAATTTTGTACTAACCTCCTGCCTTTTCACGCCTCTGTATGTTTCCATATGTCCT
0.2391032275322079 TTTCACTCATATGTTCTAATCACTTTGCATTTTTTCTCCTGTACTGTGTGGGATTTGAGAGTCGAGGTGAAAGGAAGAACCCAAACAAAGAGATTGTTCTTAAAGGCATGTTAGGGTCCTTTGGGTTAATTATACAAGGTTTGCTGACAGCGCCTGATAAGACCGTTGAGGTCATTCTGTTGTTGACGTCTCTTCAATCTCAATACGCCACTCAGCAAAGGCCAAGGCAGATAGAGCTTTTCCACTATCTTTATAGCACAAAATGCTACGCTGAAGAGAGAAAACACACACTCTCTCTCTCATTCTTACA
1 GATGGCAGGGGTTTGTTTTAGTTCTGGATTCAGTAAATTAAGATGGTATTTCCAGTTTGGTTCAGTTCCTGTTCTCCCCTATACCCCATGTAATTAACCACCTTCCCTCCCTTCTTGTTAGCTTGGTCTGTGGCCTACTGATAAGCAGGACTTGATGTGACAGCTGAGATGAAGTACATGGGATAATTAGGCAGACAAGAGCACAGGATTCACTGGTTTCTGAGACAGAGACACGTGGAATTCTTTTCCTCGTTGGTTAAAA
1 TTAGTAATAAGGATGATAAAAGAATATTCAGTTATTTAGTTGAAATAAAACAAATTTGCAGCACAAATTTGAATTAATGAGAACATATTTCTGTGCCTTATTCCTAGTAGTCTAAGGCCTTTTTATTCAAGGACATTCAGCTTCACTGGATGTTATTTAGTTGTTCACATGTCCCTGTGAGGTCAAGATAAGACAGATAGCCGTTATCTACTGTTAGCTGTCACATGGAGAAGAAACAGACTTTCAAGGTACAAGAATTGAAGCATGTGTAGGAAGCAGAGAGGTGTCTCATCATTGCTTCAATCTTTCACTGTCACACTCTCCATCATAAGGTCAGCTGTTGAAGTTTGTAGGTGTCATGATACAGGTACAGCCTGAAGAGT
0.0969559601042211 AAAAACCCACTTTGTATTCTTATAAAAAATAAACTCCTATAGTGTTTGAGTAATAATACACTTTTTTGAGTGTTGATTTACAAGAGCTATTTAATCTACCCTAATTAATATATTATTGAAAGATACTACCAAATGCTGAGTGTTCTGGCCTTCTTCCCTCCTCAGCCTCAGGAAACTGGCAGCAAGGCTTTTCTCACACAGATAAGATACTGGAAGTTTCCCTTCCCTAACACTGACTACACAGATAAATAACTTGCAGATAACAGTTTGGGGGGAGGGGATACAGCCTTCAGTGAAATACCCAGGTCAGATCACCTCACAGTGAAGCCCACTATTTGAAGAGATTCACCTGTGCTTACAGTGCTTTTAACATGTTTTTCTCACTCCAAAATATATTTTTAATGTAAACATCAATAAACGCA
0.3015394522556657 TTTAGAAAGGGGAGGGGGGGAAATAGTTAAAACAATTTTACAGAAGTAGGCAAAAAAGTTAAAAGGAAAAACTGTTACAGGAAAGTAAACAGTTCTAGGTCTAGGGGCTTTAAGACTATTACAAGGTGATAGACGCCAGGCTTTGGGCGTTATCAATTGGACGAATTCCTGAGAACTGCAGATACTGCTCGCCACAGTATCTTATCAGTTAATTGCATTCTTGGATGTGCTGGGAGTCAGCTTGTACAAGTTAAGTCCTTGGGGAAGGGGCTGCCAGTGAAAGAGCCAAGATGGAGTCTGTCTGGCTCTCTTAGCTAAGGGAGAGTCAATTCAGGTGGAAATAAGGCTAGGTGATTAAAAGAAAGGGAGAGTCTAAGAACAGGGTTAGTAAAAACAAGGTTGGGCATTACAT
0.7605217651268449 ATGAGACAGAGGGGACAGGTCAGAAAAGAGAGAGGAAGGTAGACCAGTTAGAAGCCACAGTAGTGATTCAGATGTAAGGTGATGATGGGCTGGACCAAGGAATTGACAGTGGGAATGAGGAAGGGAGAAACCCAAGAGAGATCTCCTTAAAAGGCAATGGAATTTGGTAACAGAACAGAGATAAAGAAAGAGGGAGAGGTGAAGATGGCTCCACAGTGACTAATTTGAGGCAACAGGATAGATAACACAGGAATAGCAAAGACTGAGGACGCTGGGTAGATGACTTAAATTTTGTTTAACTCCAAGACATCCACACGGAGATGTGTCCAAAAGGCTAGCAGAAGGACAGAAGCCGGATTGTAGAAGGT
0.4051946273225199 CTTCCTGAATAGGTTTTTAATGCAGACAAAAGTGCCCTATTCTGGAAAAAACTGCCACAAAGGACACTTATTAGTAAGGAAGAAAAGTGAGCCCCAGCACTGAAGGCAGGCAGGGAGAGGCCAACTCTACTGCTTTGTGCAAATGCAGCCGGGTTTATGATCAGGACTGCTCTTATCTACAAAGCTGCTAACCCCTGAGCCTTGAAGGGGAAGAGATAAACACCAGTTGCCAGTCTCTTGGTTGTGGAACAAGACTGGGACAACAAAAT
0.3187751732152412 GTCTTTCTGGAGACTGCATCAACACTTTCCCTCTGCTTGAGTTTCTTTCATCACTTTTCAAGCTGTGGATTGGCTATCAGTAAATCAGTCCATATCAGGTTGACCGAGCAAGTGGCCACCTTATTGGCTCTCAAGCACTTGCTGGTCTACCTTATCTTTTAAAAGCCTTTTAAACTTCATGTAGACACACAATCCTGAGGCAGGAGGGAAACATTTTGGATTCAACAATCCAGCACAGTTTGTAAACATTTGCCTTA
0.7364736615238667 TAGCCTTTTTGATTTGAGTGCATTGAGGTTTCAGAGATACTTTTGAACTATTTATTGCACCATTTAAGTTTAACTTTGGTCCTCTGGTCACAGTGTGGAATTACTTTTGAAGAGGAGACAGGGAAATCTTCCAGCCTTTAATCTAAAGATAAGCCTTATCACATGGTGAGTATGTCCAGGCAAACAAATCTGATGGGGGGTGTGGGAAGTGCTGGGCTGAATAGTTAAGCTTTGTCCACACTCTCAAACTCTTGGAAGCATATGGGAGTTTAAACATGTTCATGTTAGCAAAGTTCAGCTTTATTGCCTTAAAGATGATGCCTTGTTGGTACACTTTGTTTCTAAAATTTAAA
0.5564890438914035 TAAACATCAGCGAATGGAATCGAAAGGAATCATCATGGAATAGATTCGAATGGAATCATTGAATGGAATGGAATGGAATCATCATAGAAAGGAATCGCAGGGAATCATCGAATGGAATCAAACGGAATCATCGAATGGAATGGAATGGAATCATCATCGAATGGACTCAAATGGAATAATCTTCGAAAGGAATCGAATGGAATCGAATGGAACAATCAAATGGACTCCAATGGAATCATCTAATGGAATCGAGTGGAATCATCGAATGGACTCGAATGGAGTCATCATGAAATGAAATCGGATGGAATCAATGAAGGGACTCGAATGAAATCATGGAATGGACTCTAATAGAATCATCATCAAATGAAATTGAATGGGATCATCCTCAAATGTAATGGAATGGTATCATTA
1 TGATTGCTAATTCGGACATGGGTCACACCACAGTTTTACACCTTCGAATACAAGATTTCTGCAGTTCCACTACATGTCCACTAGAGGCCTGTGAAGAGCTTTTTTCCCCCATCACGTAGAGTCTGATAACCAAAAAGGCCAGAATTAAAACAAATAAGAAATATTGATTAGACACGAGTAAGACAAGGATCTAATTGGTACGTAACCTCACAGTAAGTATCATAATTGTGGATAAAATAATCAAAATGCAACA
0.6725251791900634 TCATTTAAGACCTAACCAGATAAATGATTCTAGACTTGAAAGTAAAAAATAACAAGAAGCCTCTCCCACTGAAATCTAATTCCTGCTAAAAACAACTGTAACCAATACATGGAAGGGACTATGGTGAACACGGAAATGCTCTCCCATATCTCCCTTCAAGATAATACTTGTTCCAGCTGTCAGCAGATAGCCTCAAACTCTTAGCTTCTGCAGTGTTTCCCTAAGCCTAGGAGGAC
0.6550885911543063 CCTCAGCCTCCAGTGGGGAAGGGGTGAGCCCCCAGGGTGGGACTGATCTCCAGACAGGCTTGCGCTGCAGGAGCCCTTGGGGCCTGTGGGAATAGCGGGGCCTCTGACAGACGCTTTATCAGGCCCTGTCGCCAGCGTTATCTGCGGCTTCTCAGCAAAGAAGGAGCTACAGTCACTCAGACCACTCCAGGCCGGGAACAAAGCAGCCGAGTCAGCTGGCGTCCCATGGCTCTACTGCCAGACCCGTGGGCTCGGCAGCCTGTGCCCCAAGCTGGGTGTTC
0.7221007517065257 TAGAACCCTAGCAGCCCCATGTATTCTCTGGGAATTATAGCCAGTTGTCTTTGGGGAGACTTTTTCAGTGGAGTCACTGCTGTGTAAATGTTTGATTTCTCATTTGCTGCCAGTGTCACATTCCGGCTCCCTATCTGTCCCTTCCGTGTTGATTGTACTGGACTTTGCTCTTTTGGGATCAGTGGGCTAGATGGGAAAGAAAGCTCAGCAGGAACTGGTAACTTTG
0.5089687318946561 GCCCCAAAAAGATTTAAAATGTCCAACTTTTAGAGACTTTTTACCAAGCGATTTAATGTAACATGTGCTCTATTTTGCTCTTACAATTATCTGATTACATTGTGTACTGTTTTCCTGATAATGGCTTTCTCTAATCTTAGCACCTAAGATACGAAGGAGCTGCTTTGCTGTAACCAAAGGCTAGAGTGGTAAGGTGGTGGGTGACTTTACATTTGAAAGGGTCTTGAATGGCTAAAGAACAATCTGTTTTTATTTAAAGACTTCCAAGTAGGCATTTTACTT
0.4535733416112155 AAATTTTAAAACGTCTTGAAGAACACCTAAAAAAGACAATGTGTGTGACTTTCAGTTTTATAAAGGCCACTTGGGGATTATGAAAATTAAAAACCTCTGCTGACTCATGGCTGGTTTTGCTTTGGCAAAATCAAGTCAGATTACAAGGAAATTCATGTATTCAACCACTTTGAAAATTCCTTATAGATTGTTATCTTTTCTTTAATTTTTTTTCCTGACAGCTAACACAGAACTTGGTACATAATGAGTCAATAGTAAATTTTTGAATAGTGAGTGGAGGACTGGATAAAAGAAGGGAAGAAGGAGGAAATAAAGGAAAAAGAG
0.7847372242800921 GACTTCTAATTTGAAAGTCAACACTTCCTAATCTAGCTGGAGTCCTTGATGAAACTCCTTGGCTGCATGTGCTATGCTGTCACAAAGAGGGAAGCTGCTGCCATTAAAGACAGGAATGTTGGTCTTTGAGCATTCCTATGCAATCTTCACATGGCTTCAGTACACATTCACTGCTTCCTATGATATCTACTCCTTGGTTCTGAAAAATCTGTATCAATTTAAAACCAGTGCAGCCGAA
1 CAAAGAGAAAATTAAACAGAAAAATACTGATACATTTAATAACAGAAAAAACATACATTTCAGATAACAGTACAAAGAAGATTTTAAGGCAAATTCAACCAAATATTAAGTTTTTAGGAAAAGATGGTTATCTCATTTTTTTTTTTGGGTTTCCCTAAGATTTTATAAATGTCTCATAATAAAGAAATTATTCAGAAAGAAACAACTGAAAATTAAATTTCAGTAAAAGTCCCCTAAGAAATTAATATTCAAATAACCAAT
0.3467354381750196 ATTTAATCCTCACAGGAAGGCTATGAGGGAGAGACTCTTCCTTTCCTCTCCTTTTGCAGAGAAGATAACTGAAGCTTGGCAGATTCAGTATTTTTGCCCTTGGCCACTTCCCCAGTATGTAGCTGAGTCAGCACTCAAACCAGGGCTATCTGATTATAGAATCCATGCCCTTAACCACAGGGCTGATTACCTCCTATGGAGCTGTCAGTTCAGAACCCAGCTCCATCCAGTCTAGCCTCACACTCCACTCATCACTCAGCTTCAGCCCAGTGGTTGTCTCCAGCTCTGCATTCTTC
0.740565243152684 GGGGGGCCGGTGTCACCACGACTGCCTGGGAATCCAACTCCTCCAGGGGGGCCACGCTCTCCTTTCAATCCTACAGAACCCTGATGTGAGAAGAAGAAAAAGACACCGTTATCAGAGACACACCAACACCCTGTCCTTATCGCATTCTTCTGACATTTGTGGTCAATAAGTACTAGAGTTAACTGGCTCACACTATTTATTTACTTCATCTACCCTCCCAGGAGGGCCACCTTGTAGTTAATAAGTGAAACCAGCATTCTTCTCCCTAAGCTGAGCATTCTTCCTCCCTCATCTACTTAGGGAGATACTTTAGAGAATGAGATGTTGATACCTGGAATCTTTTGAA
0.09373132789188841 CATGCAGAATGAAATCCAAACCCTTATCATGGCCCACAAGGCTTTCTCTCATCTCCTACCCATCTCCCTCTGGCCTGGTTGGCTTCCAACCACATGAGCTTACTTAGCATTCCTCAAACATGCCAAGCATGGTCCCATCTCAGGGCCTTTGCCTCTGCAGCGCCTTCTGCCTAAACACTCTTCATCCAGATATCTGCAGTGCTCACACCCTCATGTTTAAGCACCTTATCATAGACACATTCCCTGGTTATCTCATGTAAAACAGAAGCCAACCCACCTACTCAATCACTCTCCATCCCTTCTAGAAGCAAAACACTTCATGCTCCAGCATACTTGCTAAGAAACCTGTTCTGCTCCTTTCCTCATTTTTAAATTAATTTTATTTACTTTTATTTCTTTTAGAGATGGAGGTCTCATTATG
0.125645140928676 TTAAACGAAAAGGTAGCAGAACAATAGCCAAGGAAGTTAAAGCTCCAGAGATGTTTGCTTTTCCTACAGAAACTAAAGATAACATCCTAACATACATCCTTGAGTTGTCTTTTAGAGGCTTGAAACCCCACTGAATGGATCTGCTGGCATACAGACTCCAGATAAGGGGGAAATGAAGACTAAATTTTAGCTATTACCCTTTGTTTTATTAGTAAGTTTCTTCCTGAGGAACTTAGAGAAAGTCATTCCCTCTAGCAAGTCAGCATTTTTCTACTGAACTTAAATGTTT
0.1508568466535267 CAGGTACATCAGCATTTTCTGCTCTCTGTAACTTCACTGCTCCTTAAATCAAACAAACAAACATAGTTGCTTCCCCAGAATAGCATAGATTAGGCTCTCAAGCCTTGCCCTTCTCACAATACACCCTACCTTGTTGACATGCTATCTTTGTGCTGCTTTTGTTCCTGTTTATCGCTCAGAAAAGTACTTGTTTATAGAATCCGTTCAATGCCCTATTCATCCCTAGAAGTTAAGTGTGTTGAAATTAAAAGGCTCTGCTTGAATTTGATAAGTTAAATGACAGAGGACAGAAGGTTTAAACAGCTTTATCTTAGGCTCCTATAAAAAGGCCCTAAAATGCAAACAT
0.1086573703131846 AAATCAACCAATAAAATCTATTTCAAATTGCTGAACATGAATTTGCAGGTTTTGTTTTGGGCTAATGTATCTGTTTTTTCCTAGTTTCCAACCTCACCAAGAAGAGCAGAGGGCTGGCAAACACTGGCTTAATTATCCCCATCAGTCTCAGAGACAAGGCGCTTAAGAGTTCTAGCTGCTGTAAACACTCCCCTGATAGCAGATAAGGAATCTGCTGAAAGGCAGTTTTGTCTGGGAAACCTCAGGGGCACACCAGTTAATCATTAGTGCAATATTGTATATGCATTACTACATCAAAGGAAACAGAACCCAATATTCTATTGTGAAGATTGTCTGTGTTTTCTTAAAGGTAAGAAAACAAATGCTAAACCAGAAAATAAAAGATAATAATTACATTCGCACATTTACCACAGAAACAAAGAATGTTCTACTTTACATTTTTTTTTTCAAGAAAGA
0.6748910665938231 TATATTGATGAAGATGTCATGAGCTCAATAAACTGCTTTGTTCTAAGAGAAGAAAGAAGTTTCTGTAAAAGCAGGGGCTTCTGAGAAAAGAGGGAAATGTGAACTTCAGACTTCAGTGGCTTCACACACTTCTGCCCTGAGCAGTATTGATAAGAATGCAGTCTCTCAGGTTGAAGTATGTCACTTTCACCTTTTCAACTGGGTGGGGAGAATGATATCTGGGGAATGTGAAGTGTTTTTACTGCAGGCTTTCTGCAAAGACCAAAGGGAGAGATAGGGCCTGAAAAATGATGGG
0.6893796930608546 ACTTCTTGTAAATGGAATCTGGCGGCAGATTCCATTCCAGGTCCAAGCAATGGCCTGGACTTTGCCCTTCATTGTTACCTTGAATGACAAGGGGGATAAGGAAGACTGCTAGGCGGGTTTGCTTCCCACTTCCCCAGGAACCCTGGAAATGCACCATCGCATGCATGCCACACCCTCTTCACATCTATGCGTCTACTTTCCACCCATGCCTGAGATTAAATCTCAT
0.2710875714353927 CAGACAGGCTGTCTGAAAAGAAACTGATAGAACGATGTGTGCTGTAAATCAGGAGGCTTACTGTTACCTCTTCTAGGAATGCTAGCCAGCTTTTCAACTTCTCTATCTCAGAGTGACACTGAAAAATGTGCCTGTTATCTTCCCATGGGAGAGAAAAGCATTTTATTAGCCCTGTCTTTTTGCTGACTACAGCCTAAGTTCATTCACCAGGACAATTTCTAAGGTTGAAGCCAAAGACACTTGTGGGAAATAGCAAGAAGAAAAATAGCAAAGAAAA
0.614963882954088 CTCTTTTTCTTCCTCTTTTCTGATCCTCTGTCCTGAAAATTCCACCTCCCTTAACAGCCTTGGACCCCACTATCTGCCTTAGCTCAGGTAAACTGCTTCTCTACTTTTGTTCCATATCTATTAGCCAAGATAGGCAAAGTGTCTCCAGGAAGAGAGCCTGAGTGATTATGGTGTTTACCTCTCCTAGTCTTTTTCTGTTCTCTCAAGTTCTGCACTGCCTATCATGCAATGCCTGAAAACTGTTGCTTTATATATTTCATCAGGTTCATAGTTGTATACAATGTTTATTCAAGGAATAAATCGAATATCAGTTTTCCATC
0.6334107649939688 ACAAAACATTGTTCACTCGTAGTGTACCTAAGGGATGAATTAATAAGTTGGAGCATCAGATTCTGGAATTTTCCCGAAAGATAGCAAGAAAAGCTAAAGAGACATGGATGACAGATAACGATCAAATAAGATTTCCCAAAGGAGAGAAGAAAATTGAAGAGAGGAAAATATTTGAAAAAATAATGAAGATGGCGTTCCTATTCTGGTGATATATCAGGATATTATTTTACCACT
0.01327252535870536 TTCTCTAATGGAGTGACACTGAAGCAGAAATCTAGATAAATGAATGATGAAGCAAACACTGTTAGGGAAACAGTGTTCAAATCAAAGGAAACAGCAAGTACAAAGGCCCAGCAAGGAGACAAGAGTAGCTTCAGTAAAAGGAATGCTGTATAGATAAGATGTCGTGTATGAGATTATAAAAGAGCTTATTGGGGAGACAGAAGCACACAGGGACTTGTAGGTAATGGCAAGGAATTCAGATCTCATTTCAAATGAGATTGA
0.457996277448768 AAGCTTTTATTCCTAATGTGACTCCTGCCCTCGTGCCCTTTCCCCATTGGCTGGGGTCGGACTGCACAATCTAAACTAGACCCAATTGGCTAAACATTTAAACTTTCTTAGATAAGGTGGGCGCATGATGGGAGAGAGGGGAGAGGAGGAAGGGGTCATCTACAGAGGACTAGAGAGCCAGTCTTTTCCTAAATAAGGAAAGGAATGTGAGCTGGGGCTGTGGCAT
0.8522921471681602 ACCTTGGGGAAGTGGATATAAATAAAAACAATGACTCTTTTGTGTGGGTGGAAGGAGTGTAGGAGCTGGATAAAGCTTCTGGCTTGGAAAACCACCCCCTGCACATCCAAGTCTTCCCCTGTTGTGCTTATCTTGTGCTTATCATGTGACGTAATCCTAACTTCTTCATGACTTATGGCCACTTCCTCCTGGGACCCAGCTGGAGTGAGCAAGTGAGTAAAATGCAAGCTCTTTTAATTCTTGAGACAGCAAAGCATAT
1 TTACTATTTAAAATAATTTTCACACGGTGGTTTACAGTTTAGAATATCATGTTCACAAACATTACCATATTTGAGTCTCACTGTAATATTGCCCAGATTTGTGCTTACCTACAAATAGGGGCCGACAGAGCACAGAGAGAGATGGAATGAGACGTGCTCTCAGCACTATCACTGCTGCTCTCTGATGCCATCTAGTGCAGGTTCAGCTGAACACTTATTTCTATTTAAAGCCCTATTGCCATCT
0.7105110982248112 CTAGCAACAAAAAGAAGGAAAAGAAAAAGAAATTCTCCCAAATTCTATGCAATTTACAGTCCTGCAACTACATACGGAACTGGGATTTGCCTGAGAGACATATTGCAAAACAATCGGCCCCAAGGAAAATTCCAGAACTCAACAACACTCACAGTGGCCTAGTGATGGTTATCAGAATGGTGTTTCTAAATGGTGCTTATCAGTGTGCAGAGTCACTTATCACCAGTAGGCAAAGAGTTCCATGGATGTGGTTCAAAGGGCAGCCCAAGAAGCACCTGGGTCACATTCCTGCCCATCTGCCTGCAGCCCTCCCACGCCAGTAGGTAACCTAGACTTGCTTCACAGGGTCGGGGTTTGGGAAGACAAGGCATCTATGA
1 TGATTGAGCAGCTTCTCTCAGTTCAAGGACTGCAGTAGAACTAAGAGCTGAGGTTTGCTGAAAAAATGTCAGTGCAGGCAGACCAGCCCACAGTACTGAGGAATGTGGGAGGGATTAGTTCTATTTGACTAAGATTTCAAGATGACCACTCATCAATGTACACAAACTGCTTGATAAAAATGCTTCTGAAAGAAACTTATTCAATTGTCAAGGTTTTTAGTATGGGTGTAAATTTTATCCATCCCAATTTATTGTGAAAACAACTATTTACTGTCTAATAACTGGGTTTTTTAAATTTAATTCTACAAGTTACATTCAAACTAATGTTTGATTGCATTTAACCTACATTATCT
0.6959550003963881 CACACACATACAATACCCATCACCCTGCCCCTGGAGCAGTATCATTGAAAGACTATTAGCCAGTCTGGACTTTGAGTTCTGCCAGGTATCAGCAATCTCCTATCAGTAGAGAGCACTTGGTAAACCCAGACTTTCAACCCCTCTCAGCCATAATAAGGCATTCCATCCCCTACTACTGAAGTGAAGTCAGCAGAGGCCTAGTGAGGAGCCTGAAATTCCATACCATCCA
0.7020480079291133 CTGCAGATGTCTTCAAATTCTTTCCTGCTGCTTCTAGACTATTCTTCCTCTCCCTCTGGGACTTCATTCCAAATCATCATCACTCTGGGTAACTTCAGTATCTACAAGATAACCCAGCCATGGACGTTGCCTCTCAATTTCTTGACTCCCTGTGCTCTAATGAGCTTCTCCTCTACCTATTTCAGTCATCTTTCCCCAGAGCCACCCCCTGAGCCTTGTTATCACC
0.1667892155614925 GCAGGGTTTACTTTGATTGCTAAACTTAGCTGTGAGACGATCTTGAAGGGAGTCTTCAGGAGCAAACTGTTAGTCTTGATAATAAGTTGTTTAGGTCTTTCCTAGTCTTATCTTTCAGGAGCCAGTAATTCTGAAGCATGCAGATAAGGTATTATTGCTTGGTCCCAGCATTGTTTAACATAGGGACAGAGAATCAGGTTGGGCTTCAATTATTGAGTCTCACATAGCATTTTTGCCTTCAACAATATAGTATCTTTTCTAAAAAATTATTTTTGTTACCTAA
0.2777950753219792 CAAGAGTGCCAGCCAGGCAGATTCTCTTATCTCCTGGACTCTGCTTGGAGAGGCCGAGGAACAAAGAAGAATGGCAGGGGAGGAACGGGACCGCTGCACAGCCTCGTCATCTTTTAAACATGTTTCTTGGAAATTCAGAGGCATATAGGAGCAAATTTAGCTTCTAAATGGCCTATTCCCATACCTTGGTTTATTCCAGTCCCATTGGTAAATGGATCAGGGGAAACAAGGCAGGATAGACAAGTAACTTGTAAGGGGATGTCTGAAGCCAGATTGCCAAGTCTCTCTGAGCAGCTGAGTAGGTGGACGTGGGTGCCCTCTGCTGGACACTGGAGAATCTGCAGTGATGCTTATCTGGACCCTCACCCAGGGGCTGAGAGCTTCAGCCTGGAGTTAAACCTTCTGAGTAGAGTACCCAGGGTCCCTTCAGTCACAACAGGCCTCTCCAAAGGCTGTCTCAGAGAAGTGT
0.4383795616186234 AAAGCCATCATGTTCCACAGACTGTACAGATTAGATGCAAATTGACTCAGGGAGAGGAAAAAAAGCAGGTCTCCCAATCTTCATGTTATCTCTTCACCACACTTCCAAAAAAAACACTTGCAAATAACCTTAAATAATCAGTGGTTTTAGTAGGCGAGAGTTGCCCTTAAGGAAGTCAATGAAACCCCTCCTTTCATAATTGTTTTATTTTTCATTCTTGCATGATTAAACCATATGAAAAGAATACTTCAAGCTTGTTTAAAGCAGTACCCTTCAAATCTTGTCCCATCAGTTCTCTGGCAGTTCAATCAATGTTAGATAGCATCAAAAATCTATTTCCTGTCCCTGACAAGAGAGTCTATACGATTATCTGTTTTGAATGACAAATGCAAACTCCGTACTATCTCAAGTTGCCAACTGCACTTTTTTTTTTTAACCTCCATGCATTATTGGAACTACAG
1 TCGATCCCTCCCACCTCGGCCCGCGGGAAGGGGGCGTCACCTGGGCCCGGAGCGGAGGGCGCCACCCACACATTCTCGCCATTCTCCTTATCGGCTTCCACGTAGCCTGGAACAGAGAGGGCGGCCTGGAGGAAGCGCGGCGGCCAGGGGCGGCCCGGTCCGTCCGAGCGGGGGCGGGAGAGGTGAGCACTGGGCCCCCGAACTCCCCGAAGGGGCACCCACCTAGCACCTTCTCGTAGTCCTCGT
0.03474340388031903 ATTTAGGATTAAACAAATTTTTATTGGAGGTCTGAAGAGACTCTCCAGACCTCCACAAACAAGTTTATTGGAGGTCTGAAGGTTTGGAGGTCTGAACTCCCCAAACCTCCATGATTTAGCAGGAGACAAGATAAGGGTAATCACCCCAGCACTGGGATCCATGTAGATTAAGTAAATTTACTTAGGTTCCAGAGGAATGTCTTCAGGACTCAGACCTTAGTTATAGATTAGAAGAAGTTAATCACTTATATCTTTAGATGCCTGCACACTTA
0.9363071224113356 TTCTTAGACGGTGTTGGCTGATGGGATTTCTGGGGCTTGCGGGTTCAGCGTTCTCAACAATCTCTGACGAGTGAGGTGGTTAGAGAGATTACCCACTTTTGCAGCGGATTTTGCCTAAGTGATGCTATGATTGAGGGCCCCGGAGTCTGCTCCTATTTTGGGAAGGCTCACGGTGTCCTGGGGTTATCAGTGCTCACAACATCACACTCAGGTTATCTGGAAGACGCCAGCGTGGGCAGAGTGTGAAGTGAGGAAGTGCTGT
1 AACTGTATTACAGTTTTTGAGCGAGCCCCATCTTGGTTGAATGACTGCAGGTAGATAATTATGAAAGGAAGTTTGGTTGCTTTTGAATTTTACATTTTCTATCAGCACCCTCTAGTGGTTATTATTAATTAGCAAGATAAATGGCCAAGTGTCAATTAATGAGATGCTGAAGACAGATAGCTTTTAAACATATTTAGTTCCTTTCAAGTTTTAAGACAGCAGAGCACTTGTCACAAATTTTAATATGTGTCATAGTTTTGCTATGAAATGATTAAATTAGCATTATTGAGGTGATATTTGAATTTAATTTCATATTTGTTAATAGTGATACATCTTAATACTAAAAGCATTT
0.7904878743194973 CCACATCCACACACCATGCTTCTGACAGTTAGTGAGTGCAGGCTATGGACATTGCACATTTATTTCTAACAATAACTTCTTACCTTCCCTGCTCTGTTCTCAGTCTTAAGCCTACTTCTCCTTTATTCCTTATCTCTATCCCATTGTCAGCCAAATTCTTGCTCTTTGGACTCTAGTTTACTTAATGCAGTTTAGTCCAAGGTTTTTGCAAATGGTATTGGATTAGAGTCCCCTTATGAAGTAGGCTTT
0.3981498108681691 AACACTGAGGCCACTGTGCCTCCTCTAGCTTGAGCTCCTCCAGTCTCTGCACCCCCACTGACAGGTCCTTAATCCTGGCCTTCTTATCTCTGTCCTAGGTGACCCTAACAGCTTTTTCACAGGCATCGCTGGGCTCCAGGCTATTTGCCTCCCTGGAGATTTTCAAACACAGACCTGATCACATCACCTGCCTACTTAAAACCTCACTACAGGGCTGCCCTGCACCCTTGGTTAGAGTTGAGCTCCTCAGTGCCCGCCCCTCCTGCTGCCTGCCCTGCATGGCTTCTCATACCTGGGTCAGGAACT
0.97309936386374 GGGAAGTCCCTAATTCCTATTTTAGCTTGTCCATACTCCAGTGTCCCAAACCTTGTCAGTTTATCCACCAGAGGGCACTCCAGCCCCGCCTGTGTTTAACTGTAGCCTGGAAGAACGAAGATAACATTAGGCCTCTGAAAGGTGAATAATTGGGGTCCTGAGTGAAGCAGGCCAAATATTTCTCAAAGAGAACAATGTCACCAGGTAAAAGCAAATGAAATTATACAATGCCAAATGAATAGTTTTTTTTTTAATTTTCA
0.7008387457304626 GAACTAAATTCAGTTTGTCCTACCATGTCTTTTCATTATCTTGTGCTTCACTGAACATGTCACGAGTTTGCAGAAACAATTCCTTCTGCCTGCATGCCCTTCCCCAGTGTGCCCCCTCACTCTGCTGTGGCTTGTCCCTGGTTTGTGTCACGTCCCCCAGATAAGGTCACTCACACTTCCTCCATGCTCCAAGGCGCTTATTGCCCTGGGTGCCTACTTTCTCCTATCATTACCATCTGTTTACAAGCCTTCCTCCTTTTCTGACTGTACAGTTCT
0.8508988924063883 TGCTAGCTGGTTGTTGACACTGATTCTTCAGCTTTTTGGGGGGAATTGTTTTGCATGATGAGTTCATTCTAAGTTGCCACCTGCTATCTGCCAATGGATAAATTCCACAGCATCTCACAATATGAGTTAGACCTTGGAACAGGCTTTACTGAGGAAAAGAAACTGACGTCAGGGTCAGCCAGATAAGATAGAAGGGCCTGCTGAGGCCGCTGCACTCTGCTGGTTGGATTTGTGGTCCAGGGAGGAACATACCCTCCCCAGTCCCACTCCCACCCCCATAATCTCCTTTTTTGT
0.4645192790508798 CTTTTAGTTTACACATAAAAGGGGTGCTTCACACACAGGACAAGGAAATGGGAAGTTATAAGGACCCCGGACATTATCTCCCTGTACATCTGTTTTCTTCTCAAGCTGGTTTTTATCACTCAGTCAACACCATGGGGAAGATAGCCACTTCACAGGCCTTGAGATCTCTATCTTATTTTAGGAAAACGGAGCATACTAAACCAAGGGCGTTTCCCTCTCAGTTCTAAATTCAGCAGGAGAGGATTTTATTGTCTCAGCTCATGTCAAACAAG
0.6920139935864059 ATGGAAAGAATGGACAAGGCGGGCTGCTCAAAGCACTCTGGATAGCCTTGGAGGATGCATGGACAGAGGAAAGCCCAGCTTCAGCCAGGAGGCCCCAGGGTGTTTGTTCCAGCAGATAAACATCCTTCCAGGAACAGTTTAGATCATCTGATATAAAAAAGTGGCCTCTGACCCAAGGCAGTTTTGTTCTGTTCTTTCTCAGCCAGTCAAGTGTAAGTGAAGAATGTGGCTGAGATTGGGATCTGGCCTGGAGTGCCTCACAGGGGGACACGACGGTTTAAATGCGGCTGAACCTTCTTTGGAATGCTGCCTGACTGGTGCTTCAGGTGTTACTTAAATTCTTAGCAAAGACAAAAGGAATCGAAAACAAGGTATACTAAACTGACCATTGTGCTATAGGGGC
0.01349438557554083 GCCCATCAGTGTATTTCAAGCCATGGGAGTGGATGAGATGGCCCAGCACAGGCAGGAAGGATGGACCCAGGGTGACTCCCAAGAACACTGATGTTTAATTGATGGGCAGAAGAGGGGTGCAAAGAGCTGGTGAGGCAGAAGACAAACAGAGCACAGGTCAAGCAGCCGGGGCCAGAGAACATTCCAGAAAAAGCATACAACAGCGTTAAGGGCTGTAAGATAAGAACGGTAAGATAAGTGTAAGATAAGGACGGAAAACACATGGCTTGGGTTTAGCGACCAGGAGGGGCAGGGCACAGGGAGGGAGTTTCAGAGGGCTGCAGGACTGCGAGGAGTAGGTGGCCTGG
0.9944286305230922 TCGAGGGCCTGGAGCAGTGCGCAAGGTGCGCTGAAAGCCTGCCCCTGGATGAGATCCTTATCCTGGCTGTGATGGCAGTGGCAGTGGGCTGGGTCCCTTGTTGAGTGGAAAGGGGGACTGCGGTGTCCATGGTGCAGTAGGTGGCGCTCTTCTGTCTTAGAGCCTGCCGCCACTGCAGCTGGTGCCAAGGGGCCTTCTGCCACTAGAGGTGCCATTTTTCACATGATGAACTTAGCCTAG
1 AAAGGCAGCCAAGGCTTACAGGGTCAGCTGCCTTGTACCTGTTCTCTCTGTCGCTGCATTTCCCAGTCACTGACTCTTCGCCAGCCCTGGGACAACCTGTGTCTCCCTGGTGATCCCCTAATCCACATTCCGACACTATCTCCCACCACTCTCTGCTCGTGACCTCCAATGCAGTCAAACTAAATGGCTTCTTGTCCTGAATATGCCCCAGGCACTTCCATGCTATTTTTTTTTTTTCTCATA
1 TTCCTCTTATGTGGTGTAGTATTACTGATTTAGATCTTGCACATGCGAAGGGCATTACTAATGAAACCCTACTAGCTTTGTTTCTTACAGCACAAGAGCTCCTCTGTGCCTGTCATCACCCTCTTTACATCACACATATTTGCTCTCATTCTGGGCTATCTAGTCCTTATCAGAAGGGAACCTTCGAGCTGATGCTCTGGTACAAACACAGATGTGGTTTGCAGAGTCTCCTGCCTTTTTGCAAGCTCAAGCTGATCATTGTTTTTTTTTTCATTAGAACGCCCACAGTCTTAAACAACAG
0.2422242295026487 AGAAGAATGGGACACAATGACTGGCTGGTCTAATTCATGTGCCCACCAGTGGAGCAGATGGGGACCAACTTATCTTTTGTTGAAATAAGTAAACAAAAAGGAGCTGCTCTGGATTGTCTGCAAGGTTTGCGAAGAATTAGCTGAGTCAGTGATCAGTAAACAATGCCAGGAGCTTGCTCTGGTAAGGTCTGCATTCTTTAAAAATGGTGTCATAGATATCAGAAAGTGAACATGGTTAACCATTTGTAATCATCAGAAAACAAGAAAGGAAAATAAA
0.1405013532542562 CTTTAAATAAATGTACTACTTTTAAAGTCAGCCTTTTAAGTTGTCAGGGAAGGTCCTATCTTCTTCCCTATTTTAAAACTCCTTCCACAGTTAATAATGCCTCGCCTTATCACAGCACAGCAGGGAGGCGCTCATCAGGACTGCTGAGTCCATCCACGGGTAATGGTGCAATCTGCTTGTCCTACATGAGCTCAGGTAATCATTAATATTATCTCATTGCTCCTTCGCAGCCTATGAGGTCCTAAAC
0.4331989231852492 AAATAAAAAATAATAATTTCCTCAGGATATACATCCTCTCAGAAAAGAAAAAAAAATTTCTCGTTTTGACAGAAAAAGGAAATGTATAAGCAAGTCAGTGGAGAACTTTCTTCATTTTTAAATTATCGACTTTCCTCCGACTGTGGCGGGGTAGAGATTCTTAGGCTTGAAAGGGGTCTCTTGAGGTTGCCCAATTCTCTCCCCATAGCTTTGATTCCAGCAGATAAGGATCTAATTTCTCAACCTGCCAAGAATGGAGATTGCCCAAGGTCCCTTGGTACCTCATTCC
0.2533144956483427 GTAGTTGAAGAAGTTGGGATTATTACTCAGGGAGGGAGAACATGCACTATGGGGAGCCATGAAGTGTCTTAGGTAAATGGTATTAGAAAGCACTTAAAGGATTTGGGCTTTGATTAGGTGATTTGGGAAAGACTCCGTGGAAAGAGGTGGGAAGGGTTGCTCAAGATTAAGTGCCTTCAGGAAGTGGAGACAGTTCAGTGATTATCTTATCTAGGAGGATGGCAGGCTAAAAGACAAGCCTAAAGCTGTAACTGACAAGCATTAGTCATCCATATCATGGAGAGAGGGGAATGTTTGATTTTGAAAGACAAAACAAATTAAAGATCTAATTGGCTTTTATTTGCAATTCCAGAATAGGCAAAACTTCATTCTCTAAAATAGAATCTGTTCCAATGAGCTAAGCAGAGGAGGTTGGCTTTATAGG
0.3381449341203613 ATTACATTGTTAATATATAATATCCAGAAGGGCCCATGGCCTCAGGTATACAAATAAACTCTCATGGTGGGATTTTACAAGGGCTTGGAGCTTATCAGCAGGTGGTCAAAGTCCGGTCCTAAAGACATTTGGAATGTGTGGTGTTTGGACAACCCAGGCCTGCTGCGTTAACTCTTTACTGCCATCTGCCATCCTGCCTGCCTTTACTGACAGGAAGCCATCAAGGAAATAGTTGCCTAGATAGCAAAGAGCTCACCAGATGGTACTGGAATTGGGTGCAGTGCTCCCTGGTGCTGTGTGCCCCTTCCCTATGCAGGC
0.7569670135187536 TGCCCTTGATTTTTGAGACCCTCTTCTAGAATGGGTGCCCTCTGGTGGACATTCACAAGGAGCACAGACATTTACACCTATACCAGTTTCCCAGGCTTTCTTATCACCCATCTTCCACTCTTGAACTTGCCAAGTCTCTGGCCAACCAGGAATGGGCCCTGGGTATGCAGAAGGACCTAACAATCAGCCTCCCAGGACACTAAGCACAGCAGTAAAGAGCAGATAA
0.6898756477748579 GTAATGACTTGCAAATATTGATGAAAACACAAACTACAGATATTGTGTTTTCAGGGAGTGAAGGTGGGGAGAGGGGATAAGGAGGAAAATAAACTGAAATGAAGTCCGGTTATCTCCCATCTGTGGCTGCTCCTAATCCCCCAGCCCACAGGAATCCAATGCAGTCCCTTATCTGCCCTGTCAATCACTCAATCACCGCCCAGTGCTTGGTGGGCACCGCACGCCCTCACACACACTCAAACACATGCTCACACATGCACACACATGCACACACTTCACTGACTCTTGCTCTAACACTCCCACCCACCCCCAGCCCATTACTCCTCTGAGTAGGAGCAGCCAGCACGCGGGTCCTGCCAGATGGATGCAATTTGCATAATATCAGCAGTGGAGGCT
0.3584790167796501 CAATCACGCATCTCCTCCAGAGCCGGACCCAACCTTCCCGTGTCCCTCTGCGGAGCACGCGCAGTACGCTGCCGCGCTCGCACACGCTCGCGCCCGGAAAGCCGGGGAACCGGAACCGGCCTAAAGCCAAGATAAGAGTCCGCTGATTTGACGTCACAAGCAGGCTGCCTTTCTCCGGTCCCGAGGCTCCAGCCTTGCCGCCCTTCTTCCTGATCGCGCAAGCGAGAGCTGGTTCGCAGCAACGCAGTGTCTTTTGTAGACTGATATTCTGG
0.4226097935843191 CACAAGGACAGCTAGCTGCTTATACAAAAACATTTGCCTGACACACTGTCTCACAAGCCCAATCCTATGAAACAGCCTGCTGTAGCTAAGATTACAAGTTTTATCTAGCAACTGCCACCACTCACCAATCACAGCTTGCCAGCTCCCAAAAGACATTCTGACACCAGTAAGCTTATCTTTTCCCAGTGAAATCCTGTTTATCCTTTGTTCTCCAGACATACTGGAGACCACCCTGATCTGTATGTGTGTCCTGAATTGCAATCCTATTTCTAGTATGTTATTCCCAAATAAAAG
0.7793859455003507 CCATATTCTGACAATACACCCAGATAAGAGGAGACTTGGTGACCTTTCCTTTCAACTGGCATGAATATGCATGAGGGTACAGAGGGATTCGTGCCACTTCTTAAAGGAAAAGAGAGCCATGTGATTTAATCAGGTATGTCAATCAGCCTAAAAGCAGAAGCTAGGTATTAAGTGTATCTTAACATCTGAGAAAAAAGGTGATCTGAGAGGTTTGTTCTAGACTCTGG
0.001284617987769323 ATGTACACAAACTTGATTTTAAAGGTGTTTCCTGCCTTGTTAACCCAATCATTATAAGACAAAGGAACAGTTGGATCGTTGCTATGTTGGCAAAACGCATTAGCTTTCTTGTAAGGGTGATTTGCCACTTCAGGGATAATTAGGCCACTTAAACGCTTATCTTAGTCAATGGACTGGGAAGTCTTTATCCTTATCATGAGTGATGTGGTTCAAAGAAAATCTCAGTTCTAAATGGAGAGGCTGTTTCAGCACAAGTAGTACCTACTAGGTTGCTGGACATTTTAATCTTTAGAATTTACCAACAGCCTGGTTTATGTAGCGCCAAGACTTATCTCTAAAATATTTCTTCCTTCTCTAATTA
1 AAAAATTTAAGCGTTTTGAAATCGGTAGTAAAATTTTATTAGACATAGGAATAAACTTGTTTTCCAACCTCATAAAGAGCCCAAAGCTAGGGGAAAAAAAAAAAAAAAGAGTAATCCTTTCTTCATAAGTAGCCATATCCCAAGCTTCCTGGGTAAGTGTTGGACTAAGAATGTGTTAAGATAAGATATTAGAGTAACAGATAGCGCCCAGAGAAGAGGAGTCATTTGCCTGTTTGTTTTCCACAGCAAGGAACAACACTGGATTGAGAGCATTCCTCTGTGTCATTTACAGCCTCTGGCACAGCACCGGGTGCTTATGGAATAGCTAATGCATGTTCGTCAGGAAGTGTAGAATTCTCTTTGTAAAACTCAGC
0.6265959333027751 GGCTCCCTGCAAGCATGACCAGGGACTGCTGGGTGCTCAATGCAGGGCTGGGTTAGCCCGGCTCCCTCCCGAGAGAAGCCCACAGCCCTAGGTCAAGATAAGCCAGTGCCCAGCTGCCTGTGATATGAAGCAGGAGGCAGATGCGATAAGAGGTGTCAGGGCGGGCCCGGGAACTTTTGAACTTAAGGGGTGGGAGGGCCAGGAAGGCATCAGGGAGGAGGTTTCGTAGGAGCCTGAATGTGGAGACACTGCAGAGGGAAGGGGCAGAG
0.5016947099667377 GAGAATTTGGGATATTGGTAACCAATCAGAAGGTTTCAGGAAAAAAACAGTTTGCATTTGGTATAACTTAAGAGACTATTTTGGAAATTTAATAAACCTAGAACAAAGTTATTTGAAACTCCAGTAATGAATACAATGGTTAAATTCCACTCATTCCTGCATCATGGCAGAAATACCCTTATCTCTGAACACAAACCAAAATACACAAAGTCCTGATGCCTATCTGCCAGCCCTGGAGGGCAGCCTGGCAGTGTGAGAAGGAAGAAATCTCTTAAGAGCCTTCTCTTTTACCATATGTGCTTTCTACTAACTCTGTCATCTTTTACTTCATCCAAACTGGAAATGAATGAGCAGGCCTTCTCAGATGGCAGAGGCTACTGATGTTGGCAGTAAATATATAAAT
0.759136440863735 GTGAACATGATAAGGGCTAGTATATTCTCAAATCAAATTAATCCACAATTCTAGCATTTAAGATACAGTGCAAATCCCTAATTCAAGTATAAAGTATCACCTACAAAGCCAAAATAAATGGGGTAAGATAACAGTTCTCAGTGTTGGGTTATAGTGTCAATGCAAGACTTGAGCTGTGTTAATTCAACAAGCTTGATCTTGATTGCCAAAGCATGCTTGTCAATATTTAGCTCCCAGAGGGCATGTCAGGGGCCTTTACAGAAACTAGCTTAAATACAAAATACTATAGCAGGATTTGTGATCCTTTTCCTAATACTCAGATTAAAC
0.371581155862674 TAGATTCTGAGTAGATCAGTTAAGATCTTCACGCCTATAGAAATGGCAGACAGAATCTCAAATTTTAAAGGACAACTAGGATGTTGATAATCTCTTCTGGTTCCAAGTAGGGTAGAGCATAAGCTGTTTCAGCAAAGTTCTTGTTCTCAAAATCCCCAGGCAATCTTAGGTGTCTTGCAGAGATATGAAGTTATTTCTAATATCTAATCTAAATCTCTGTCTGCCACTCAAGTCTCTTCCCTTTATCACAACCCTAAGT
0.4965470365070697 GGTGCATCCCCCTGCTGTGGGACGTGCCTGGGCTTTGGCCTGCAGAGGCCTGGGTGGAAATTCTACTCAGCCAAGGTGGCAAGGGTCCTCTTTAGTGATAAAGAGCTTGGCGTTGGCAGCAGACAGACCGGGGTTTGGATTCTCACTGTCAGTTGTGTGACGTTGGCCAAATTCCTTAACTATCTCAGAGCTGACTTCCTAATCTGTGCAAACAGGGAAAGGTAGCACCTACATCATAAGTGTGGGAGAGTAGTCAGG
0.1813670693744444 CGCAGGTGCCGCCGGCAAGCTGCAGGGCGCCCTGATGGAGGGGCCGCAGCAAAGGGCAGGTGGAGGTGGACTTTGACCCGGGCCGGCTTCCCGGGGAGCCAGGCTCCTTATCTGATCTAGGAGCCAGGGCCGCATGGGGGCGGGGGTGGGGCCCGGGAAGGAGCTGGAAAAAACAGCCAGGGCTGCACCTGGCACCGCCCGTAGTGATAGCGTGGCGATGGGCGCGATAACACAGCAGCGCAGGAGCTGTCTGCCGCTTGGCGGGTCCAGCGAGGCTCCCTCGCGGTGGCTGGAGCTCAGATGCCAGCCACTTTGATTTATAGCCAAAAATAATAG
0.4875333304848806 AAACTTGATGGTTTGCTTTAAGGTATCACTAGATACCTTGGGGTGATATCTAATCACACCAATGAAGAGATTGGGTATTTGTTTTTCCCAAATCCCTAAGTGCTGATTTCTCCAGGGCAGTACACAACCTCTTATCTTTAGCACTCACTTTGACTTGCATAAGTTTCCTGGCTTGGATGATAAGCTATATGGTCACCCTGCTTATTCAGAGAAAGGTTCATAGTGTTCTTTAATGACTATTCTAATACATGAAAACCATTTTTTGTGACTT
1 TCTTCTAAGATTGCCCTGGGTTTTTTTCAGGTTTGTTTGTCTTGTCTTCTGCAGACAAAGGGCTGAAATTGCTGAAAATAAGACCAAGCTCTTATCATGTGAGTGGCTGACATACAATGAAAGGCACACACTCAGCCTCACCAGGTGTCTACTGATAAAGTGAGACCATTGACTAGGAAATAATGGAACTCTACAACTTCAGATGGGGATGTGTGGAAGGACCCTGATGAAGCTGGGGACACTAAGTTCCTGAATTCCCATGAGTTTATTTTCCAGAGGAAATGGCCTTCACCTCCCTCACAACCCACTCCCCTGTGGGGGCAACATCCCCTCCCTCACCCAAGCTGCTATCAGCCTCTCCACCTTTGTCTGAGATTAACCCTGCACTGGCTGAGCAACAGTGATGG
