svm_type c_svc
kernel_type gkm_esttrunc
L 11
k 7
d 3
norc 0
nr_class 2
total_sv 12037
rho 0.24387
label 1 -1
nr_sv 6101 5936
SV
0.1312554301263055 CCGGGCGCGCCCCGCCCCTCGCCTTTAAGTTCTCAGCTTTCCCTCCGCCCCGCAGGTAAAGGCCAAGTCCGCAGACAACCGAGGGAGCCGCCCCCGGCCCCGCCCCGAGCCCCGCCCCACCTCCCCCAGGGGGCCGCGCCGGCCCGCCCGCCCCGCGCATTCCAGCGTGCGCGCTCCCGGACCCGGACGCAGATAGGGACCTAGGCACAAACGCAGACATCCACATGTGACCCACAGACACAGGCACA
0.3799360355498068 CTTGGGAAGCTCTGCTTCTTTGCTCCCATTCTGAGCTGATGCCAGATTCTGAGCCTCACGTGCTTGGATGGAAAATGCAGTCAGCGGCTCAGAGAAGGGCCTGCCCAGGACTAGGAGGAAGAGAGCACTACGCTGCTCTCCCTGTTCTTGGGTTCCTCCAGGCCCGGCTGCTGATTTTATGGCCTTATCTGCCCATCTTGTTATCTACAGAGGGAGCAGCTTTCTAGAAGGCATTTCTTCGAGAGAAAGAAATGGAGAC
0.507284405096732 TTACTGTCTCCCCCGATGCCAAAATTATCTTTGCTGTTGGATCAGACCACACCCTCAAGGAGATTGCAGATTCCTTGGTGAGTCTGCCCCTGCCCCGCCTCTGGGCTGGTGCACGGATCTGCAGGGACAGCTTCCCGTGCTTACAGCACAAAGTATGCACGGAATGAGGGCCTCTGCATACAGGGCCCCTTCTTCCCAAGATAACATCAGGCTCCTCATTCCTTTTAGATTAGCTCAGTTATCGTCACTTCCTGAATTTCCTGCCTAGTTTCCTTCCTGACTGGGTGAAATTGTAAATTGCGGGGCTCTTTTTCATTTCCCTTTTACTTGCT
0.9377701794413347 GTAGGTTTCTCTATGAAATCTTCCAAGATAAAAATAAAAAGAAAAACAAAAAGAAAACTTCATTTGCTCTCCTCGTTCACCAAAATAAAACTCAAATTCCTTAGCTGCCTGCCATACCCAGTCCCCTTTCATAATCTAGCTCTAACCTATCTCTCCAGCCTCATCTCCAATGTCCTCCTTTCTTCCCCCGCACAGTGCAAACACACAATATTGACATTCCAGCCTCCAGCTACTCACTCTTCCCAAATAGGTCCCTGCTTCCAAGTCTCAGCACCTGTGCTTCACTCT
1 AAATGGTAAGCTTAATAGAGATGGAGCCTCCAGGACTGGCATTCATAGTGAAGATTATCTGTAGAAATTTTGGAGTAAATCGTGTGTGTACACAGAGATCATAGGTCAAACAGAGATACAGGAGTGAGGGTCACGAGGTCCTGCTGTCCAGCACCACCACTAGGAGAATCTCCCTTTATTGCCAACTTTGTAGAGAATGGGTTTGAGTTTATGAAGGATATTCCTTTGTATATTTGAATCTGGGATCTCTGACTTCCTAGAAATTGCATGCAAAATTTGTTCATATTTCCAGAGTAGAATTTACTTTCATCAGATCATGAAAAGGATCTAAGAGCAAATTGACAGAGACAGAAAGTAGATAGGGCTTATCTAGGGCTGTGGAGGGGCCATGGGGAAGAACAGCTAGTGATTGCTAATGGTTTCTTTTAGGGTTGATGAAAATGTTCTAAAATTAGATTGTAGTGATGGTTGCACAACATTGTGAATATATTA
1 AAGCATAATTAAGGTTCAGGCAGTATCATAAGTGTCTTCAGGAATACAAAATAACTGTTTTTGCATCTAGAGTTTCTGGGAACATTTTCTGCCTAAACACAAGCCACTTATAGCTGTTTTCCTGTGTTCTAAAAGCACCCCAGGCACTGTGAAGACACAGAACATGTGGTACTCATAGAGGTGGCAAATAATCAGCATGGCTGTCATTGTGACGATTAGCAGAAAGCAGTGTGCTGAGAGGAGTGAAGGTATAGGTGAAAGGCAGCGGGCACTGGCTTATATTTATTTTATTCTCATAATTGCAGGGCAGTTTTCTTCAATTTTATTCTATATGCTATCTCAGATCATTAAAGCAGTGGAGAAGGACAGGAATATTGAGTTAGTTAGGGATAT
0.273306106903409 TATCAGCACTAAATTTAATCTGTCATCACATTGTCCAATCATCCAGTTTAATTAGATCCTTCTGGATTTCCTCATAATCTGCATGTTTTTTCACTAACCTAAATAATTCTTGGTGATCAGCAGAAATGTAACACCTCACTATCTACTACATTCTCCTTATCACTAACATAGTTTAACAGCCCTCAGCCTGCTATCAGCATCTTGAGCACCCCGCTGTGAAGTTGCTTCCTCTGGAGAAATAGGTACTCTTCATTTCAAACAGCTTAATCCATATTTATCCTTAAGAAAGCATACCCTTCTGATTCTACCAGTTTT
0.1903215660713144 ATTAATAACAAGAAGTGAAATGATATTTTCTTCTATAAATGCACACCATTCTAAAAAAATAAAAACTAAATGGTAAGACTCAAAGAAATGCATGACAAAAATGTGTAAAATTCTATTCTGAAATTCTTTCAGGACCTTGATTTTCCTTTGATTCTAATTAGAGATAACATGTATTTTGTCCAATAAGATTCTCTGCCTAAAAGATTGCAGTGAGATAAGAGCCAAGGAAACAAAGATGTGAGGTTTGTGTGTTTGTTTGCTTTTCTGCAAAGTTTTCTTCAATCCTGAGACCTTTAGGCTAGAAAAGAA
1 TGGGTATCTTCTTTGGAGAAATGTCTATTCAGATCCTCTGCCCATTTTAAAATTGTGTTACATGTGTTTTTTATTGTTGAGTTGTAAGAGTTCTTTATATATTCTAGATACTAGACCCTTATCAGACATACGATCTGCAAATATTTTCTCCCACTCTGTAGTTGTTTTTTCACTTTTTTCACAGTGCCTGTTGAAGCACAAGAGTTTTCCATTTTGATGAAATCCA
0.420927433451841 ATCCATTGTCATGGAAACAGGAAAACTCGCCTTTTTTGTTGGAAGTGAGTAAAACTCCAGAAAAGGAGTTGTACTTCAAAATAAACCTTAGATCTCAACCAAATTTGGGGTGATCAGGGATTCTCCAGAGGGAGTTGCTCCCAGACCTCAGAAAATTGTCTTATCTTTGAGCAACAAAGATAACCTAGGCTGGAACCAAGTACTGGTAAGAGATTTGTCAAAGGTCAGGGGCACCTCCTCTCAGAGTCCCTTCCGTCAGCCG
0.4233948372079257 CTCAGCAAATGCTTCCCTAACAGTGTTAGGTACGTTTACTGCTCCATGGGTCCCTGCTTTTGTTGGAGTCTTTGGGAGCTACTCTTGGTCTTAATGAGCAAGAAAAATAAGTTTGAGATTACCTCTGTGATTCTTAGATCTTTATCTTATTTCACAATTTTATGCAAGGTTATGTCAGTCTAGGAATTAGTGGGTCAGATAACTGAAATGTGGGAAAATACATAGGGCAAAATTAGGTAGGCATCCTTGTCACAATAATTGAAAGTTCAAATTCCTTT
1 AGGATTCTATAAGTTTGTCTTTGGTTCTCAGTGGCAGGCAAAATAACTGCTCCTATATTGAAGATGCAGGTTCAAAGGTGTGAGTGTGGTTTGCAGACTGGCCTCCGTGTTCCAGCATTCCTGAGACCCGGCTTTGTTATCTAGAATGGGTTACCAATTATTAGGTGTGTGCTCTGGAAGCCCATAGAATAGGCAACAGTATAGTTCCTGGAGCTCTGTCTTCTAGATAAATATTATGTTCATTTCTGAATTTTAT
0.02239057600285523 GACAGACACTTTAAGAACAGCAAATGTTCCTTCTTATAGATAACAAATGATATTCCACCGTTGCTCTTGGGTTAGAAACGGGCCTCTTCGTACTCTACTCCAACCTGTGACACACACCGACCGCCTCCTGGTGTCCCCCAAATCCTAGTGTTGATGAAAAAGAACCACGAGAAATTACAGGAACCAAGAGCAGGTTAAACTTTCACATCGATTGCACTGATAAGCAGAGCCACTTACCCAGCACAGCCAGACAGCTCA
0.5071989039124587 ACACACACACACACACCGGTTTCTATCCTGAGAGCCCCAGGACAGAAAAGATTGTAATCTACCTCTAGCCTAAAAACATCCCTAGCACTCAGCAATTTAGTTTAGTCACATGGAGACAAACTGCCCCTTTATCACTCAATTCTCCTCCTTTGAAGATTGGACCCACACTGGTTTATTTTTTATCTTTTCATGATCTATGGTCTTTTGTAACATTTAAAATAGTAAC
0.6809129895986286 ATGAGGTGATGGCTTCCAATAATGGGCCTTCGCATTCTGAAGATGATGTGGTTGAAATGTGAATGGTTCAGTCTGCTTGGGAGATGATCTTTCCAAGACAAGCTCCTGAACTGATGCTGCCTTATCTTCTTACATGTGTTCCTTTGTTCCCAAGTCACTTACTGGGACTTCAGATGCCATCTCAGGTCCTCTGCTTCCCTCTTCTGGTCAATTGAAGGGAATCTTTATAGCCATTTAGAGCTCAGGGGAAGAATTAATATATGATGCTACC
0.3055574085771847 TGACCATAAGAACTGGGTCACTCTTGTCATACCCAACTAAAACAGAGTTGAGATGCCAGTGGGGGTAAGCACTCAAGGTACAAAACATTGATCCAACAATGTAATTCTCTGCAAGCCTGACTGCAGAAACTGCTTTTTGTAACCTGAAACCAGCTTTATCTACAGCTTCTGAGATAGCCTGCTTCTTGCTATCTAAGATAGACAGGACTAATTTTGCCCACAGTGGTTGCTCACCAAGTGGAGCTTACCATCTCCCCAAACCCTTGCTAGTGCCAATGAACTTTCTTAAAGGGCAATACACAACATTTCTCCTTTCTATAAAACCTCTAACCTTCTCTTTGTTCTTTGGGTA
0.9954258467725701 AACCCAAAAGTTAAGAAGGACAGTGGGCTTTCTTCTGCTTCCTACCTCTATGTTTAAAAACCCATTAGAGGTTTGGCTGAAGGCCGACCACACTCTCTGACATTCTCCCTTCTCCTCATGACTGGCTTTGTCAGGCAGGTTGATAATCTTCCTGGGTAAACAGACTCAGAGTGCACTGTGGATATCTAGCTCATGGCAAGATAAGTCCCAAGGTCTAAATCGGGGAAGTGGCAGGAAACTACTTAGTCCAAGTAGTAACCCTAACTTGGAAAACAAAGGTCCCACCTTTGTTTTCCAAGTTAGGGTTACTGGGGAACCCTATCTTTTGGGAGTTATTGGGTACTAACTACCGTTTTTAGAG
0.7361444276251484 GCTCTCACCGCCGCGGCCCGGGTTCGATTCCCGGTCAGGGAAAGAGTAACATCTTCTTTTACTGCTTTCTCTCAGGATCTTTTAAATAAACGTTATCTGCTAGTCAATCTTCCCCATCCCACTGAAAACTGAAATACAGAAAATGTAGAAAAACACAAATAAAGAAATCGCTCACCATTCTATCACCCGAAGACCACTCAATATCTAGGTTTTGAAACAAAGTGGAAGTATGCTATAATACTATTTTATCACCAGCTGTTTTTGTTGTTGTTGAGACGGAGTTT
0.6948806509133587 CTCGGGAGAAATAAGAAGCGTCGACCTTTACACAAGCTAGCTAGCGCGAAGGCCGCACAGCTCTTCCTTTATCTACGCGGGGCTGCTTTTTGCAGAGATTTGTCTGTCCATGGTCTGCAGTCTCTTGGGTTCTCAGGGTCTGTGAAAATCTACGTGTTTTTCCCTAACCTCCAGTCACATTTCACACAGCGTCTGCTTCTAGCCGCAGCCCCCTCAGGAGTTTGTA
0.03752448528448374 AGGAGGTCAGAACTGTGGACTCGCTGCCTTTTATCCCTTTTGAGGCTGGAGGATCAAAGGTTAGAGATAAAATTGTTTAGAGGAGTATCAAATGTTAGAGATAAAGGTGCTTTAGACACTCTCAGCCCTATCTATATAGATTCCACCATCACCCAATAAGACAGCTGGGGTGGGATTGGGGTCAGGCCAGTGGAAAGGGGGTTGCAGTTTCACTTTGAAGCAAAAGGTTTGGTAATTGGCAATATTCTTATTTCTAGATATCTTCCCAGATTGTTATCATAATGGTCCCTGTTGGATGGGATGAAATAAACTTTTTTTTATTAATACATAATA
0.512194289177022 ATTCTATATATTCTGTAGTCAGATTAGTAAAAGAATGAGAGCCTCATTATTCAATAATTTGTATCATTGCTTTTTGGTAATGATGTATAACTTCACACTTTAGTGAAATACTGATTACAATCTATAATTTTAGATTTCAGACAACTTCAAATTGTTCTTTCTTAATCTTTACATTTTTTATTTAAAGGTAATGAATTTTTAGATAGCCAGCAAACTAAAATTTGCT
0.02985932597871388 TTTTTACAGTTGGTTTCTTTGAATCAGAATCTAAACAAGATCCTCACATTAATTTAATATCTCTTAAATCTCTTTAAATCTAGACTTTGGACGTTCTCTTTCAGCTGGGGCTTTCTTTACCAACAACCAGCCTCAGCCCTCGCAGTCTTTATCTCGCTCCTGGATTGGCAGGGAGCTGAAAGATCAGAAGCAGGAGGAATGAAGTCAACACAGTGAGAGGGTGGGAGGGATGGTGTGAGTATCAGATGCCTAAGATCTTATGAAAAAAAATTCCTAATCAGCTTCAGAAGAAACAGATTAGAATAAGAGACTCTTAAGAACTGGAGTTGACCTGCATGCTCTCCTAACACCTAAGAATGTCAAGAATTTACAGAGATTATAAGAGGCTGATTCCTGTGGGCAAGAGAGGGAGGGCAACAGAAAGGAAATCACGATGAATCTAATGGACAACATACAAGCATAGGCAGGACCTAATTTACAGGGCCCAGTGCAAGATAAAAGTCT
1 CTACAGGCATGCACCACCACGCCTGGCTACTGGCTTTTTTTTTTTTTTTTTTTTTTTTAAATAGATGGCATCTCAGTATGTTGCCCAGGCTGGTCTCGAACTCCTGGGCTCAAGGGAGACTCCTGTCCGGCCTCCCACAGTGCTGGGATTACAGACGTGGCCACCGAGCCCGGCCCAGCCCTCTACTCAGAGATAACGTCAATGCGCAGGCTTAGGTTGAAGGATTAATGGTCATTAGTGCACCAACAGCCCCTACCTTTAGTGGGCACATCAGCACATTCCACGATTAATCACAGCTCCTCACAGCTGC
0.8008699634369238 TTGTTGACAAGCATAAGCTCAGCTTCTGGGCAAATGCCCCTAATGTTTGCCTTCAGATCTATTGAGAAACCACCTATCAGGCAGGAATGCAGGTGCAGGAGGCTCCCTGAGGCCTTTGTCAACAGGCCCTTTGGTCCTGCACATAGATAGGCCTGGCCTTACGGGATTGGGCATCTGCGTGTGGCCCATCCTGTCGAGGGGGAGCAGGCTGGGTGTCTGCCCGTCTACCCTAGCTTTTTTCTGTGTGAGTTCAGCAGCAATTGCCCTCTAACCATTTCT
0.5170307871754029 TCAAGCACTGGTGCACCAAGAATTCAAGGCCTGGGCCCCACAGCTCTCTGGCAGCAGCATTTCAGCCTTATAAGGCAGTGTAAGTTGTTTCTAGGTGCTGAGGAGACTGGAGATATGGGCGGCAGTGAGTCCACATCTCTCCTCCCCTACCTGGCAGTCCCCTCCCCATCCAGGCACTGATAAGATATTGCAGTCCTGACTGTGTCTCCCTGAGATTTAAGAGAGGTATCGGGAGACACACCCTATGTGTTTGGCTTCCATCCCCAGCCCTGCCCATTTGCTGCTGGGAGTAAACCAAAGCAAAAAGCACTCTGAAATGGAACCAAGTC
1 GTAGTTAGATGAGGCCAGCGGATATAAGTGGAAGAGATCTATGCAGGTCTAGGGGATGCGTTTGAAAGGAAAAGATGCACTCTCTCCTTCCCTCTTCCCACTGGCTGGTGCACCACTTGAGCCATGCAGACAGCCCTTCCTGGCATCCTAGGAATGTCAGAGTGTCTAGATAAAAGGATCCTGGGTCTGTGACTCTGTAGCCACCACAAGAGCATAGGCAGTCCTAATGACTCTGGGGAATTAAGCTACTTTACTGACCTAAAATTTTAGGAAAAAAAACCAAAAAACAATCATTATCTTGTTTAAGCCACTTTGATGTTGCA
0.3019462057102361 CTAGAAATAATTAAGTTTAGAGAGGAAGGCATATCAAAAGCCAAGATAGGCTGAAAGCTAGGTCTCTCATGCTAAACAGCCAAGTTATGAATGCAAAAGAGAAGTTTTTGAAGGAAATTAAAAGGGCTACTCCAGTGAACAAACAAATGATAAGAAAGCCATTATTCTTATCTTATACTTATCTTATTGCTGATATGGAGAATGTTTTAGTGGTCTAGATAAAAGATCAAACTACCCACAACATTCCCATAAGCCAAAGACTAATCCAGAGTAAGGCCCTAACCCTCTTTATTTATATATATATATTATATATATATAAATAATGTCATATATAAATATATATA
1 GTCTGCACCGGTAACTACAGTCACTCCCTCCCCTTATCCACAGGAATATGTTCCAGGACCACTAGGGGACGCCTGAAACCCCAGATTGCCATCAATTGAAATACATTGCTGTTCATGTCTTCCACCCACAAATGTAATGCCCTTTCTATATTAACTAAGCATTTATCACACACTGTGCCTGTACATTGTGCATTTTGAGGTGTAACAACAAAACTGGCTTGAATTTCTTTTTCCTTCTACACAATTTCATGGACAGAAG
0.4564464347110276 AGATCATCACTTTGGTTTCAATTGGTTTTGAAGTGTCGCTGAAAGAATTCTTTTGTTTTTACTTTAGGCTCGTGGGTTTGCACTGTAACCATATCTGCTTTTCTACATCTCTGTTTGACACTAGTTTGACCTCTGCTTACCTCATACTTGCTAAAAAGAAACATATCTAATACCATCCACCTTAGTGATAAGAGCAAGAGAAAACAAACAGTGGAAAGACCCTTCAGAAGTGGATGACCTACTATTAGCTGTGGGAGGCTGACGACGTCCACCCCGGGCTTG
0.1936818164278697 CCTCTCTACCTAATTGTGCTCTAATCTGTACTTAGGAGTATAGTTTTTTAAGTGGGACATGTCAGGCTTTTATGCCACAGATTAAACTCCAAGGCAAATAAATGTGTGACAGCTTAAGAGGCGAAAAGAAGAGTCTTCGTCAAATGGCAGAGTTTGATTGTTTAACCTAGACTAATCAGTCTTTGGAGGGCCTGCCACATGTCTTCCAGACGGCTAGAATGCTCAGGAGATAAGAGTGGGGCCTATCGCTCTGTGGCTTTCTCCCCCTGCATTAGCCGCAGAGCTGAGTGAGTCTATGAAAACCCATTGGTCGGGCTGCCCTAGCAACACAGAATGCTGTGCTGACACATACTCCATCACATGTTTGCGATGAAAATGCTGTATTTTTAGAACACTTCAAAGTCAGGAAA
0.1106623491153231 CATACTGCTGAGTTTCTGCAGATTTTTTTTACCTTTTACACAGATACTGCCTGGTGGGCTTGGAAAGAGAATTCCTTAGTCTCCTCTCAGTCCCGCAGGCATTTGGCTCATGAGATAAGGAAACTAAGACATACCAGCAACCAGCGCCAGCATTACTGGCTGAGAAATCTCGTTGACTTCAGGTCCTACCTGCATCACTTTTCCATGTCCAAAATATCAAGAAACACATTCAGGAAACTTAAAAAATAAAAGCACCTTCTTGAGATAAGAAA
0.0973959711107308 CTGCTCTTGGTCACCCTCTGCAAACAAACTTATAAGCACAACTACTGCTGACAATCTCTCCTTTCTCCCCAAGTACACCTTACTAACATACGATCTGTGAAACACACTAGTGTTTCTTCATTCACTATCTCAAGCCAAGTGAGAAGGACTTTAGAACCACTTAAAGCATTTAAACCCCAGAGTATGAAGAAAATGTGATTGTTATCAGACTTAGGTTTGAAAAATTCTAAAGTCTGGAGCCTGGTGGGAGGGCCCGCGGAGGCAGAACGAAGAAAGGAAGCTT
0.47470116190778 CAGTCCCTAAGCACTCTCCATTTTGCCAATTTGCACTGCTTCTCCCTGTTGCCTTTCTTGATCTTTAAGCATATATGATACCTGCCCAGACCCTGAAGGCCTTTGAAGGAGAGCTCCTGATAAGATATGGGGAGGAATTTGGCTGAGTTCTGGTCCCAGGAGTTCTAAATTGCAGGCAAGGCAGAAGCTGTGCATTCTACCTGCGATGGAGACTTTTCACTGACAGGTGAGAGTTGCATCTTAATTGTGTTTTTCCTGTGGCTTAAAAATGTTTTTCACATATTCAATCATTCATTCCTTCATGTTTGATTTAAACAGGCATCCCTGAGGACCCAGTATGT
0.9911755668086192 AAACCTGCACATATGCCCCCTGAACCTAATTTTTTAAAATTATTTTATACATGATAACTGTATTTCAAATAGAAAGTTCTCTCTCCTTTCTCAAGTGCCTCTGTTCTTCCAGCAGAGGGTGCTGTTGTTATAGGAAGTTGAAAGAGCACATAGAGATAATAGCAAAGGCCATCCCTCCACTTGTCTCAGCCATGCCTGAAAGCCCCAAGTAGGTGGCTCACATTGCTGCAAGAGACAATGTTGCTGTTCAAAGGCCAAACAATACCTGTAGAC
0.9184264663106021 GGCCTGTGTTTGGAGGGCAGCTGGGTGGGGCCTGGCCCCAGGTCCACCCCCTCCAGGCCCTGACCATCCTGTAGCAGAGATAAACGTCTCTGAGTAGCCAGCCGCCTAATGAGACTGTCAGGGGACTTCTTAATGAGATTAGGCAGGGCCCTAGCTTTGCCTCACAGTGCTAGGACTTCTATTCAATTAATCGTTCAGAGCGGAGCAGACGCTGCCCAGGAGGCAG
0.09623184300529306 CACACTGACATCTGATCCAGGTTTTAAACTTGGACAGTCTGGGAATGAACATCTGTAATTTACTGCGGGCCATGCACTGTGGTGAGAGCTGTCAGCTTAGTGCTTTTAAGTGGTGAGAGCTGTCAGCTTAGTGCTCTTATCTTTACATGAGAAAACTGAGGCTGGAAAGGTCAAGCGTCTTACTGGAGGCCACATAGTTGGGCAGCTGCAGAATCCAGAATCTAACATGAAATCTAATCTTTCTGGCCGTAAGGCTGTGTTTTAAGGGCTCTGTTAAGCTACCCTTCCTAGCAATCCAGCTCAGGCCACACTCACTTTCTGGGAGTGCAGGGAGGACCAGAGCTAGCTCCTGCCTTGGGCAATT
0.2688363433742555 CCATAGCCTAGGGGAGAGTATTCTGTAATGGTTCAGAGCTCACATTCTAAAGTCAGACTGCCTGGGTTCCAACCTTGCTCCTGTCTCATTGCTTATCTGCACTGAGCAGGCCACTTAAACTCTCAGTGCCCCAATTTCCTTATGCTTTTAAAGGATGATGATAAGGCTACCTACCTCACTGAGCTACTGTAGGGGATAAATAAGTTAGTAAGTGTGAAATACATAGACTAGTCACTGACAAAATAAGTGTTACTTAAGCATAAGACATTACTATTT
0.8648239765298036 GGCCCACGGCCGCGGCCCACAGCGCGGTGAGCACGAGAGGCAGCTGCGCGGGCGCCCCGTCCGTGCTCCCAGCCGCCCAGGGCTGCCCCATGGCCTGGACACCCAGCTGTCGGAGCCGGAGGACTAGGCCGCTTCCGTATTGGGGCGGAGATAGCGGCAGACGGACGTCTGCTACGGCCAATAGAAGCTCGGAAGGGGGTGCGGCGAGCGCTCAGACTCTCAGGGAACGGCCGGCCCACGCGGCGAGTTGATCTGGCCAAC
1 TTTATCTATTTATTATTTTGCCCCTCATCTTGAATGAAAGACAAACAAATTTTAAAGTTTATTTCTAACCAGAAGTTAAAACAGGAAAGTGCAATCTGAAAATCTGAAAGGTAAACACAGCTGACATTTACTTCTGAGGGTAAGCCGATTTGAAGATCCAAGTCTAGAGTCTTGGAGCAGAACAGCTTTTCTAAATCAGATGTTTCTTTATTAAGTCCAAAATATATTCAT
0.3765002917767906 TACTATGGAAGAGGTCATTAAGCTACATGAGTTCTACAAAAGATGTGGGAAACCTCTGAACACTCAAGCAACTAGATAACAACTTTTCACTGTGGAACATTCCTTCCCCTTATCATTGAGGTTTTAAACAGCAGTGTCAACCTTTGTGTACTCACTCCATCACTCTTCATAGCTCCTAGCATGATCCTTATCTTAGCCAGGCATCAGGACCCTCTAACCTCATGCTTACTCTTGTAGCATCACTTCAGGCTCTTTGTTCACTTGGCAGCCAGGATGCCCTTTTTATTTATTTATTCCTTACTTCTTAAATCTTGTTTCATTTTAGATTCAG
0.02374965941221672 AGTAGCAAACTCATATCTTACCTGGTTCAGCACTATTTTTCAAGTGTAGGCTCCTATCTGATCTCTGACTGCATTTCTTACTAGGATCCTTGAGGGTCTTATCTGCATGTAAAGTCTGGCTGTCAAAGTGGTATTTGTGCAGGGTTTATAGTCATATTTTGGGTCTTACTCCTGAAATTCTTTCAATGCCGGATTTTTCCCCTTTGAACTTCCAGCTGTTATTTCAGTCATAAACACAATTCTTTGGTACTTT
0.1318516079723422 ATGCAATGGTAACCTCAAATACAACCCCTTCACTAGAAAACAATATAAATGCAAATAGTGAATCAGTAAGGTCATTTCCACTCATTTTTAGCACAGATTAACAGAAGCAGATAACAAATATTAGGCAAACAACTAGAAGGAATTTTTTTAAAGGGATAATCTACCAGGCATGGTCGCTACTGCCTGTAATCCCAGCTACTCAGGAAGCTAAGATAAGAAGATCACTTGAGCCCAGTAATTCAAGGCTGCAGTGAGCCATGATTGTGCCACTTTACTCCAGCCTGGATGACTGAACAATACCTTTTTTTT
0.3171607045957702 AACTAACAAGCTAATTAAAAATAGCCTTAAAGTAAGGACACTTGTGTAAACCAACAACTTTATCAGAAAAGGTTTTCCCTGGAATTTCCCATCCTCATTCAAAGGGACAGGCAGTGTTCTGGATTCCAAACAATAGATTCTAATCAATAGCTCCTCCTATTCAAATAGTGGCAGAATCCTACCTGCCTTCCTTCCCTCCAGTGGAATGTTAGTATCTCTCTCAATGAATCATTAAAATTCCTGGCTTGTTATGATGTACCCGTCACTATACCTACATAATATCAAGC
1 TCAATGTTTATAAGCAATATTATTGAAGAAGAAAATGAAACCACAAAATGAGGGCCAGGTGGTAGACAGGAGGCCTGTGTCCCATGCTTAGTGCTGCTCTGAGATAGTATAGTATTGACCTTTTCACCTAATCTCTCTGAACAAATTCTCTCTCTAATTGTCTGCCTCCCAGAGTTGCTGGAAGCACAAGGGAGATAATACGAGTGTGTCTTGGATTTTGTCAAGTCCTATAAACCAAGAAGTGTTC
0.279334858080338 CTTGTATTTGTTAGGAAGCTGGAGTCAATTATCTTTACAGTCCCTTCAACATCCAACATTATGGGGTAAAGCGGGAAGACAGGCAGTCAGGAGCCATTGGTTATAGTCCAAGCTCTGATAGAAGTTGGCAAGTCATTTAACCACACCTAGCCCAGTGAGCTTATCTGCAAATAGGGCTAACGTTATCTCTTCTGCAAATAGCATGCATTGAAAGGCTCTAGAAAAGTTGACTAAGTATACTAGAAGATTAATGTGTTCTTGGCATGGTTGCTAGTGCTGCCATTGTAGGTCAAAAACAGCCACAGACAGTTTGTAAACAAAT
0.8394704227825334 CTTAGAGAAGATACAGTATTGTTATATCCTCTCACTGAAATCAGAGACATATCTTTTGAGTATGTTAGGCAGATGATCATGACATTAGATGAACTAGGAATACAATATTTAGGAAAAAAGTGATTTCGAACCTTATGGTGTCAAGTTTCTTTTTATCTGTACATGTCAAGTGTTCTCACAGGCAGACTTTTTAGAGAGATTGCTATCACTGACAACTTCCAGAGTTTGAGAGTTTTTTGAATATACTACTTAAAAAAATCTCCATATGGTTTTCATTTGAAAAAACATATTACAAACTGAGACATTCACTATAAATTAAATTGAAATAATCAAAATATAATTAAGCTATTTGTGAGTTTACATTTTGCAAAACATTTTAGAAGCAAAATCATT
0.3386232208387501 CTGAGCGGACTCTCTCCAGGGACTGCCGCCGGGGAGGCTCAAAGCTGTGTCCTTGCGATTAGTTTGGTACACTTGGTTCAGCAGCCTGGGGAATGTGGGGAGATGTGTGCCTGCACAGTATCAACGTTATCAGCTGCCCTGTTCATGTCGCCTCTCCCTGAAGGACACTTTCATAACACAGTAACACTTAGGAGAAGGTTCCCCTCCTTTACTTCTGTTTCTCTGCTGATAAACAAATGTCAGGCATCTTCCTGGATCCGGGCCCTGATTCACTAAGTTACTGTATATCCATTGCCCTTTTTTGTCCTCCAAACACTGAGCTCTCAGTGCTCTTCTGGCTGGATCCAGATTGTGAAGATTACAGCCCCACTGGTTCCTTTCAGG
0.03392310323899326 AACTTCCTCATGGTCTCTTCTGGAGTTTTTTTTTCCTCCCTAAATTCTAGTCACATTTACAGTTGCTCAACTTTAGATGCTCCTTCCTATCTAAAGCCATTGAACATGCTGTTATCTCTGTTTGCAGAGCTCTCCTGTCCTTCCTGACTAGGTTACTCTTACCCAAAGATAACTTTCTCCAGGGAAAGCTTCTCTAGCATGCTAAATCAGTTGGGTTCTCATATATGCTTGCAAGATACTCTGAACTGTTTCATCAAGATGAAAGCATTTATTGTACAATTGAGTATGTCTGTCTTCCCTGATA
0.125154335527835 GGAGAGATAAGTCTCAAAGGATTTTGGAATTCACTCAACTGTTTGAATGGAATGTTCTTTCCCCAGATATCTCCTGAGCTGTTTCTCTGGTCTCCAAGTTTCTGCTTAAATGTCACCTTATCAGTTGAGGCCTTCCCTGACTATTTTACTTAAAATAGTTCCACTCCAGCAATTCCCTCCCTCCCTCTCTCCTTTTTCAGACAAGATCATGCACAATTTTGCACAACTCCAGGAAGTAACAC
0.4205094290462069 TTTCCGTATGTGGAGCATCTCTGTAACTCCTCTAAGGTCACGGGTGTTAAACCCACTCCCGAGACACCATGACAACACAGAACACACTGCGTTGGGACGTCAGCTGGGTCAGCTGAAGGACTTGTGAGTGCAGCTCCCTGAGCTGCAGCTGACCACACAAGTGGGCAACTGAATACAGTCCCCATAAAGCATGTTTATCTTATCTGGGGCTGGAGATTAGCTGTGTTGTGCAGAAGGGAAGAGGCATTCCAGGTCTTTCCAGCTGTCTTGCCTGTGAACATTTATCGTCCCCTAGTTCCGACGTTTATTATCCCCCCGGGTGGATAGCACTAATTCATACCAGTCTGTCCGATGGCAGCAACCCCCATAGATGTATGGGTCATGGCGGAAGAGGGAGAAACCCCAGACTCTTGCTATTTG
0.1258927229996794 AATAGGGATGAAGTGGCATTTCATTGTGTCTTTTTAATTTCCTTGTTTAGCAATGTAAATTTTTCCTATGGAATGTAAGCAATTTTCTAGATCACATTCATTCCACACTACCTAATGAGCACCTGTACTTCTCTTCCAAATAGCCTTTTTAGAGTCCTGCCCTGGAAATTACTTCCGTTAGTTGCTTCCTTATCTTTAAACCATCTAAAGCACCATTGCTTGGTTTAGCATTTTACCTCCTCGAAGCAGAAGCGCTATCTAGTGGCCCAATAGAGTAGCTGCAGGGGCAGCCCCCATTTTCACTAGTGCCTGTCTTAGTAACAAGGTCCTTGATATGCTTTATCTGGTGCTGCTGA
0.6286025328065654 GCTCCTCAGACATACCAGGCATACTTCTGCTTCTAGGTCTTTGTCCTTCTGAGTTCCTTCTGCCTGGCAAGCTCCTCCCCGCACCAGATAGTATAATGGCTCTTTCAGAACATTCAGATCTCTACTTCGCCTTATCAGAGTAGCTTGACCACCTTTATCTAAAACAAAACTCCCTCCCAGAATTGCCTATTCACTTACCTCATTTGTTTTGTTTTGTTTTTGAGAAAAGGTCTTGCCCTGTCACCCAG
1 GAGGACATTAAATTAGCTCATAGAAATTAATGGTAATTACATAAAGGCTAGAACAGAAAATGTTAAAATGGTTTTCTCAGGTGCAGAATGAAAGCATGGGGAGCCTGGAAGGAGAAATTCAGAGCGCCTGGTTTATGTTCTCGGCCTGACTCAGCACTTGGTTATCAGCAGAGGGCGGGGATGAGGCCTTTAATGAGAGGGTTGTGGGAGTGAGAAGAGAAAGGGAAAGACGAAGGAGGAACAGGGAGGAACGCAGGACACAGTGAAAA
0.7505957899043085 CTCGAACGGGTCCGCCGGCCGCGCCGCCTGCGAGCCAGTCTGACAGCGCGCTGCACACCTCCGCACCCCACTTCCGGCGCACTTCCGTACCCCTCTTCCGGCGCACTCCCCGCACTCCACTTCCGCAGATTAGGGGGCTGGCACGAGTCACAGCACCTCGTGCGTCACTTGGCGGCGCCGGACGTTGGGCTGCGCAGGATTTGAGACGCTCCCCTGACCACCACTT
0.5481310085189065 TGCCCACCTTGGCCTCCCAAAGTGCTGGGATTACAGGTGTGAGCCACTGCGCCCGGCCTCTAAGAAAATTTTTGAGAGCTACTTGTTCTGTTGCCTGGAATTCCACCGTAAGTACGACGTTGTGTCTCCTTCTCCAGGGCTACTAACTAAACAACAGAGGGTATTGTGTTATCGACAATTATTTGATTGATAACTATCAGCAAACATTTGCCAAGGCATTCCTTTAAAGATAGCCTAGTGACTCTATTAACTACTCCTTCTTCCAGGCTTCTAAGTTCTGTTGGAGGTAAGTAGATCCCAGAGATAAAGCACCTACCATAGGACCTGAATCTTGGTAGAAATAAATTATATCATCATGTTATCATATTATCATGTGTTTTTCTATCTTTAAAGTCTTATGTGAATATTCTGCTTGAAAAATATGTGTCCTCTGTTA
0.7240025801797768 TCAATAGTACATAAATGTAATTGTTGTAGAATATCAGCTTGCACTGCATTCAACTTCAGTAGAAATCTGTACTAGGAAGAAGGCATTTTTTTTTTTCACTTTATAAAAGTCAACGGGCGAGTAGCCCAGAGCTGATTCAGCTGCTCAAGATAACACCAGAAACTGATAATTCTGCCTACTTCTCATGCTTTCAGACTCACTGGAATTCACAGCATCAGCTCCGTGGCTTTCCCACTCCCTGACCGCAGATCTTGGGACTTCTCCGCCTCCATATTGCATGAGCCAATTTCTTCTTATATACATAT
0.1776728439818741 AAATATGGATCAGCTGAGACCATTTAAAGCCGCTTTTTATGGAGTTATCGTTAGGACTTTTCCCCTTGGGCTGCTTTGTGTACTATTTCCCAGAGCCTCCTCTTCCAGGATCTAGTTATCTAAAAAATATAATTCTTTCTCCTTGCCAGGGAGATCACAGCCTCCCAAAGACTGATAAGGACGTCTGCATTCCTCCCCGGAGCCTGGGCAAACTATTCCCAAGAGTTCCATCACTCCGGGCGGGAGGTGCCGTGGACCTCAGTCAGGGTTTCTGCT
0.9472573829584224 TGTCTAGAAACTGCACGACTTCCTAAAAAAGACAAACACATACCTTACATATCCACATGGCACCAACATAAGCTATTTCCTAGGGAGAACCTAAAATAGTCATTATTTTCTATCAATTTGTTTCTCACTGGCATCTTCTAGGGGCAATTCAGGGAATACAAGGGTATGCCAATTTCAAGTGCTAATCTACTGCGGTTTTTCAAATAGTCCACAAAGTGTATTTGGCTACTCAGATTAGTCCCTATTGTAAATACACACTGTTTAAAGCTATCAGATAAGTAAATTAGCTGGTTAACTAACTTTAAGTAAATTTGTTCCAAATCATTAATTCACAGTTAATGTGGTTTTTATTTAAATCTAATTCATATTAGTTCTTATTTAAATTTAATT
1 GTTCTGTATTCCTCCCTGTCAGGTTGAGCACTGGGAAAAATCCATTCACCATGGGGGAGAGCGCCAGAGGCTTATTACAATTATGTAATGCTAGGCCTAGACTACCATGGGGCAGACTGACATTCCTGCCCTATCACCCCACTGGATAATACCCACTTAGGTTTCAAGATCTAGCTCAAAGTCCACATCCTTTGAAGTCTTGCTTGAGCCCTTGCATAAAGCTGGCCATTCCCTTTTCATGTGCCCTAT
0.5424180665733486 CTTGCTGTCACTGAAAGCAGAACAAAGACCCAAAAGAAAAAGCAAAGAAGACAGACTAGGCTTAAATTTTAGCAGAAGAGTAAATATCTTCTTGGTCCTTTAGTAACTTAAAACCATTACAAGTTTCTACAGAGGAATGTAATTTCTGTCCTTGGTTATCTGGAAAAGATAAAACAGAGCCGTGCTTTCAGTACTTGGCCGAGGACATGGGGGCATTTTAAAGTGTTGGAATGATTGAACACAAGCCATGCTGCTGAGTCCTGGACACCCAACACTTTAAATGAG
0.2814154675826477 GTTATGAGAGACCACTTGATCTTCGGGTGTATGATGGCTGGTAAGGCACTAGCAAAAGCTAAAGTTTGGGAGGTGCCTCACAGAGGTTGCAGTGAATGGATATCTTTGCCTGTCTCTTATCTGTAAACATGTAAACATGTAACCCAAGTCTCTACACAGCTGCCAATCCTACCTTAATAAGCTTTCTAAAAGTAAAGTTTAAAATGGGGGACTAAAGAAAACCAAAAATATTTATCCCAAAATATACTTCTTTGACATCTTTCA
0.5590237594621965 AAAAAGAGAAGCAAGGCAGCAAAAAAGGAGCACAGTCACAGCATCACAATGTCACAGATGATTGCTTAGTCTACAAAATGTCACCAGAGACTACTGAAATCACTCAGTCTCAAACAGTCCATTGTGGATCGGGGAGTGGGGTTGAGGGGTGGGGAGATAGCAATCAATTTGCCTGCTGGCTTCTTTCTGCTTTCTGCCTTTCACTGAGGAAAGAAAATTCACCCTTAGGGCACTGACTCCCTGTACTGTGACTTGGTGACAGACTGAAGAATCAATGCCAATCTTGTCTGGTCAGTGCTAAGACATAGTAAGTGGTTTTTCTTCTCATTTGGTAT
0.3604744223856905 ATTAAAACAGACCCAAAAAGCCAGGGGGAGAAAGCCCTCAGAGCACATAACATTGCTCCAGGAAGATAATTTCCTACAAGCCAAGTTGCTGAAATTGCCTGTCGTAACCTGAAACCAGTTTTATCTAATGGCCACTGAAACAACCTTGAATGTTTTATCTAAGGCCCTCACTTGCCAGTCAAAACCTGCCAGCTCCCTAACACTTTACTAATGGCAATGAATTTTCTCAAAGAACAAAGCATAACATTTCCCTTTTTTTAAATAAAACCTCTAACCTTTTGTT
0.3724393532259143 GTAAAGAACGCCTGACTCCTCTTTACAAACCCCAGGCTCCATTTAAACTGCAGATTCCGCGGGCATTTCTTCTTATCTAACTCCGCCCTGTGGGTTCCCAGGCGCTGACTCCCTCATCCTGCAGTTTCAATCCCTGCCTTGACTCATCCTCCTGGGCCTGCCTCTCCCCTCCAGAGTGCCTGTTCCTGCCTGCTCGGTGACTGAGCTGATCTCTCTAGGAATGACC
0.1482909732314601 CCATAAACCAGCCCATTGCTTGAGGCAACAGAGAACTTCTCCCGGTAAGCAAGGCTATACCCAGCCACATTGGCCACAGACAGCTCCTACCCATAGGCACCATCTACTGGCTTGAGGTTGAACTGCACAGCCCAAGATAAGACCTGTCAGCAGAAGTGCATAGGGCTATAGAAGCAAAGCCAAAATATACTACCCAGCCTTCTCTGTAATCACATCCTCCAGGGAGGGGGTGAAAGGGAAAGGGAAA
0.5937926836574298 CTTTTAAGGAAATCACTTAAGGAATTGAAGATTTAGAGTAAGAGTTTTGGTTAGTAGACTGGCTTTGCTGTTAAATCCTTCCACTCTTCTGGCAGAGAGATTAATTTCCCTAATCAGTATCAGCAGAAGATAAACTTGTTTATATTCCTGCTGTTTTGTAGATCCCTTCTCCTGGTCCTTCTTCAATAGAATATTAAATTCTTAGTTTGTATACAGCAGAGAAGGTCACTTATAAAATTCAAAAAGTGAGCAAACAGGTCTAGATTAATTCCAAGAGTTACCAGGAATTAATTGCAGTTTATTTTGCGGAGGTGATTACAGTGCTTTTGATGAAATG
0.1623133952730853 CAACATGAATTCTCTGCTTTATGATTAGAGCTGATTACTGTGAGAAGGCTTTATGACTTTCAGGAAACAAATAAGTTTTTTTTTCCATATATGAATGCTCTGATGCATACTGAGAACTGATTATCTGGATACCAGGGTGACTGAATGGAGCCCTTATCACAGTCACTGCATTGATAGGCTTTATCTTAAGTATGAGCATGCTGGGTTTCTTCATATTTGACATTTGAAGGCTTCCTCACAGTTAGTTCACATATAGGTTTCTCTCCTGTATGAATTTAGTAACGTAGTTGAAGATGTGATTTCTTAGCAA
1 CACCTACTAAGTTTCTGCAGCTGACACTTCCAGGCTTAAAGTCTAGCACGCCAGCTCAGTCACACATGGTCTGACGAGTCCTCTTTGCAACTCAGCCCCAACCCAGCCACCCGTGCAATTTTGCTAATTCAAACAGCTTTCCCGTTTAGAGAGGTTGATAGCCATCTCCCATCTCCTTTTCCTACTGACGTCATCCCACATTTTCTCCGGAGACAAATAAGGGTAGAGTTCCTGGGATAGTTTTCAGGCTGCCTAAGATAGGAGTGCAGTGGCCTCCCGAGTCCACCCCACATCTCAGGCTTTGGACAAGTCGTCAAAAGTGAGAGGGAGGTAATGAAATAAATCACCTAGCTAGGGTTAAAGGGCAA
0.7037735475582082 ATCCTCTTAGCGCTGACGAGCTGGGCAGTTAGTTTGAAATTCTGGGCTAGAGACGCAAATTATTATTAATTTCCATATAAAGTGGTTGGTAGGAGGAGCCACAGGGCTCAGGGAGGTCACTGAGAAAGGGAAGAGCAAGATAGGAATCTCCACATGCAAGACTTCGGGAGGGGAAGGGGGAGACCAGAAAACCGGAAGGGGAGGAGAAGACTGGCAGAGAGATCCAGAA
0.765502126288266 AAATAAAATCACTCAAAAATAAGGAATAGCTGAAGCAGACCTAGAATTACCTTGGTGGAATTACCTTCTTAAGAACAATTAGAAGTTTATTCTTTAGGTCAGGAATGCTGTTGCCAATCTTCCACAGCAGGTGATAAGAATTAAATTCCCTCATGACCGAGGAAACGTTCTTTCTGCTAATCTGGTTCCACCTGGAGGTTCAACAAATAGAAGATAGAGCACACGGTGTGTTTAGTCTTAACCACATAGCCCGAGGCACTGGGGAAGTGTCCACACGATGTTTGCCTTCTGTGAACCTGGAAAGCAATTTTTTTCTAG
0.2629870253035193 CCAGATACATGAATAGGGAGACCACGGTTCTGCAGTTGACATTTCTTCAGCTGCTCTTTCAGAGGTCTTAACATTTTTTCTCACCAGATACTTGCCTGTGAGCTGCTATTTGAAAGATAAGGTGTGCTGAGTAAATGATTAAGCAAGTGAGACAATAAGAAGCAACGTAATCTCATCAGAGACTACATCTGTTTTTTTCTTCTAGCGTAATCACTGGGGTTGTAACAAGCAGGTAATCATCTAATGTTGGATGAATAAATAAAATGAGT
0.3839153785954296 TAGTTTTTACCACTGATAATACTATAGTCCAAATGGGAGTGCCAGAAATCTCTGCATGTCTGGCCACTCCCTGAACCAAGATTACTGTATCATTGCTATCTTGACGGTAAGTGATCACATCCACTTTACATGTGCCATTTACTTGCTTCTGCTGGCCCAAGAAGCTCTTGATTCCACTTAAATCTGTTGATTCTGCCATTAAGTTGTTATCTTCCCCGCCAGCATTCCTGACTGAAAAAAAAAAAAAGAATTGAAAAGAATTGAAAGAGTCAATTCCAGTGTGGCAGAGGCTTCTTTGACAATTGCTTGTAACAATGAAGGAGAAAATACTGTGAGTAACATAATTCACAGGCCAATGGACAGGGTACATAGGGTAGATC
0.1824478262007519 CTGGAATGTTAGAGACAAACTGCCCCAAAAAAGCTTCTTGGTGCTGCCCACCCCTCCCCCTAATGCTCTGCAACCCTTCTCCGTGCGGTTCACCCTTCCCTCAAGCCTCTTTACATTTCTAAGCCTTTATCTAGGCGCCACGGTAAAGCCAGCAGACTTCACCTGTCAGACCTTGCTGTGATAAGCAAACCCCAATTACAAACCATCCAGAACTCACAGCAGGAGGTCGTGGGAAGCATAAACAAACTTTCCCTACACCCTTCTGTAAGTTCCTGCTCTTCATCTAGTTGCTACCACAAACATCACAAGGTGATATGTGGCAAAATTAACCAGCAAACAAC
0.6530715004985318 ACAGCCGTCGCCCTGGAGCCAGGCAGCAGCCTTAAGCTTCCCTGGGAGGCTGACTGGCTGGGAGCAGGGAGGTCCCATCGGGGAAGTAGGGGCGTGCAGGGGGCTTGGCGCCTGCAGTCCTGGAGGGGCAGGGCAGATGATAAGGCTAAGTACCTCCTGTCCTTTGCTCAGCCAGCCACTAGGAGGAGGCCGCAGAGAAGAAGCCGCCAGGGGCTGGGGGAGGCCAGGGACGGGGCAGGGAGGAGGGGCTGGGCTGAAT
0.1807917510563755 GTGCTGAATGCAAGAATGAATAAAATCACTTCATGACACTTGGTTCTGTCCACCATGAGTTGGGCAGAAGTTGTTCTAGATAAGAGAAACTAGTAATTCAATATGGCTAAGCAGCCAAGCTGGCTGGAAGATAAGGGCTGTTTGGGTAAATGATATGTAAGTTAGAGAAGAGTCACAGAACTGCCACTGCTTGCCTACATATGCATTAAAGAGCTATAAATAGGACATCTGTCCTG
0.2851413778120443 TCACTCTCAGCCCCCTAGCCCCTGGAGGTTGTTCAGGCCTCAAGCCAGGCCAGCCTGAAGATTCCTATTCCCAGGCAGCTGGGCTGTGGCCCCAGGAGGGCGGCCAACAAGGGGCCTAGTGGCTTATCGCTCTGCAGCGACTCCCCAGCAGGCAGACTGGCTCCGCTGCTGCAGAGCAAAGCTGATAAAGAGGACAGAGCCTGGTGTTTACTGGAGCCGAGTCTGGGGAGAGTTGGGCCTCCCAGGGGCGGCCCTGTCTCCTCTGGGAACAGACTGTCTGTTTGCGGAGATACCATCACATTCCTGCAGCCTTGGCCACCCCAGGATGGATTGGGGGAGGGAGTGGCGGAGATTGGTGGGGAGGAGGCGATATGACAGCTGCGGTCCTCTGTTTCCCTGGGGCCAATGCTGAGGAGGCCTGAACTGGGTCCTCCAGGGGGATTCAGGTTTCCCAGCCTGATTACCAAGTACTTT
0.4452709217408163 TCAGGTGGGAGAAGCTTGAGGTGGAGAGCAGACATTCCACACAGGAGCCTTTCCAGGGGCATTCCCTCACCCTGCTCCCCCAACCCCCGCATTCCTGGCTGATCTGTCTCCTACTTGCCTGGGAGTGCCTGGCTCCAGAGTCCCAGGCACTGCAGATAAGAGTCACACCTCAGAGGCCAAGGGGACAAATATGCAGGACAGGCTGCTCAGATAGAGGGAGCCTCAGGAAGGGGTCAGGCTCCAGAGGGAGGCCCTGGGAAGGAAAAGCTCTTCGGGGGGATGTGGTGGGATGGTATGAACTCAAAGGCAGAGGCCTGACCTGCAGGCCCCT
0.06834197790548745 TGTGAACACAAAAGTATCTGAGACAGATCTCAATCAATTTAAAAAGTTTGTTTTGGCAGTGTTAAGGACGTGCCCGTGACACAGCCTCAGCAGTCCTGATGACATGTGCCCGAGGTGGTTGGGGCATAGCTTGGTTTTATACATTTTAGGGAGACATGAGATAGCAATTAATATGTGTAAGATGTACATTGATTGGGTTCAGAAAGGTGGGACAACTCAAAGCGGGGGAGGGAGCTTCCAGGTCATAGGTAGATAAGAGACAAACAGTTGCATTCTTTTGAGACTCTGATTAGCCTTTTACTGAATACACAAGTTCCATGTGAGAGGAAACTAGAGGAGTAGTCAC
0.06399997236610144 CCTCAGCCAGGGCTCTTAAAATTTAACCTGAAAGACTGGTTCAGGCCATGAAGGGAAGAGGAGGTGGAAACATGCCTCATTATACCTCTCAGGCACTAACATCAACGCAGACTTTTCAGTCTGATAAGAAACATTTCTCTCTGCTCTCTCAGAAGCCTGCTAGCTAAAAGCTTCATCTGCATGATAAAACTTTGGTCTCCACAGCCTCTTATCTCAACCCAAACATTCCTTTCTATTGATCCCAGGTCTTCAGACAAACTCAACCAATCGTCAACCAGAAAATGTTTAAATTTACCTATAGCCTGGAACCCCCACCTCCACTTTGAGTTGCCTACCTTTCTGGACCAAACCAATGTATGTCTTAAATGTACTCGATTGATGTCTTATG
0.5555219440086465 ATCATGTTTTAGTATATATAAACCCCTCACTCTATTACACAGCCCCCAACAATCCAAAAAGTCATTGTTTATTCATTGTGACTCCCAAACTGGCCCTTGTCAGCTCCTGCTGGAGAGCTTGCTGATAAAAATCAGCAGATGATTGGACGCACACATTCTTAACATGACTGACCCATGACATCTCAGAGGGCAGCTCGAGAGCCTGTCATTACAGTACAATACATTTCTTTCTTCTTTCTTATCTAGCCCAGATGACTTCGAGATTTTTAT
0.7634002810371605 AAGATTCCAAGTCATTCATTAAAGTCCCGATGCGGCCGGCCCCCAAGATCTCAAAAGGAAATATTGCCGAGTTCCGTTTCCCAGAGCATCTATTTCCCCTCGAGTATTGCAGATGTAATCATAAACACAAGCCAGTTACAGCCACAACTTCATGCTTTAGCGAGAACCCAGTGGCTCCTGCAAAGTCCTTACGCTGCTAGAAACCCCGCCCCCGTTCGTAACTATGGGAACGGCTGACACGCTGAGAGCCGGAGATAACCCTGTTCCGCCCCCTCCCTGACAGATACTGTTTCCCACTGTCTGTCCACATGGGCGCACCGCCTCACTATTGGCCAGGGCTCCAGGACTGTGCCTGGCCTCAGCCAGTAAACGGCCTGTG
1 CTCCCAGGGTAGTACAGTGGGGAAGGTTCCCCTCCCCCACCTCTTTTCCCAGACGTGGTGGATGGGGGAGGGGACTTCGCTGGAGGTGTTAAAGTGCCATTGAGATGGTAACCACACCAAGGGGCCCCCACTTTTCCATATCAATGGCATTCCAGTCCCTGATTAGGCCCCAACCTTAACCCTTCCTTTCCCAAGATCCAACTGAATCCAGGTGCACGGGGGCCTAGGAGAGGGTCTAGGACCTCCCAACCTAGG
1 CCACCAGCCTCTAGGCCTTCATCCAATCCTTTTGCAACTCAGTGATTCATGACTTTTCCCTGCATCCAGTCTAGTCTCTTTGCTGGTCCATTGTTTCCATAGTTGCCAGTTTAATCTTCTTAAAATGCTGCATTTTTGAAGTCAGTCTCTTTTGGTCCCTCTCAGAAACATTTAAATAGCTATCTGTTGCCACAGGGGGAAAGCTTGAACCTCTTAGCCAGTCATTCAGAGCCTGCCCTCTGCTGGGGCCTGCTTTCCTCTACAGATGCTTCTCCCACTCTGCCTGCCACAGCCCTTGTAGCTGGCTGATTGCCCTGTACCTCGCAGGCTCTGGAAGTCTTCAGCTCCTTCATGGAGCCTTTGCCAGCCATTCTTTTCAAGACTTTGCTGTTGTTCACTGCCTGATTTGTTCATTTG
0.8950380103318826 AACGTCCCCAAAGGCTGATGGCTTGTGTGTGCGTTTGAAGTCAAGTCATTCACAGAGCTAATTTGAGGCTCTCCTCGGAAACTATATTTGCTTTCTGAGTGCATGGTGAGTTTTCATTTGGGCCCTGACCAGCTGACAGCTATGCAAGTTTGTAGATACCAGTAATTGAATATAGATAACCTTGATGGTTGACCTCGTCAGAGCCAGGCCTGCCTGTTCCCCATTGTTTCTGGTTTTGCCAGTAGATACTAAACTGCTGCTGGATGAAT
0.6627167190864357 TATTCAACATGGCCAGGTGTCATGATCACCCTGAGGGGTTAAGAACATGGGTTTTCAAGTCAGGCCCTGGGCCTACTTTCCTGCATTCGCCACGGTGTGTGAGGCTCCTCAGGAGGGTGAGGCCTCACTGAGAGAATGACAGTATCCACATTCAAGCACCAGGCACAGCCCAGGCAGAGATAAGGACCCACGTCAGTGCCAGCCCCACCCACCTGACAGATAAGGCGGTGGTGCTCCCACAGGAGGCCCCAGAAATCCAGCCCAGCCCTCAGATCTCCCTTGGAGCTGCACTCCCTCAGCTCCTCATAGGCTGAGGGGCCTT
0.8389557773262272 AGTTTGTTGTTACAGATCATCTGAGAGAAAATGTGTTGAGTGAGAAAGAAGGAGCCCTCTTAAGAACACCAGTATCTAAGGGTTGGGCAGAAAGAAAACAATAACAGAAAAAAAAGGAGATTGAGAAGAAACAATCTGATCTGATTAAATTGGAGAAAAACCAGAAAAGCACAGTGTCACAGACACCGAGATAAAAGTGTTTTAATAAGGAGAACCTTGTCAACAGTGCCAAATGCTGCCCAGAGGGGATTTCTTGCCTAAGGACTTAGAAGTGTTCCTTA
1 GTGGTAAATGGGTGCTTGAGATGAGGAACCCATGTGGAATAGTCAAGAAAACAGCTGAATAAACACATTTGGAGTGCAGAAGCAATGCCTGGGCTGGGAATAAGGATTGCAGAGTCCTGTAGGTTCAGGCATTTGAAGCCAGGGAGGGTGTAAGTTCTTACTAGAGTAATTGAGGGACGTCAGGACCAAGGACAGAGCTGTGTGACTGATAACATCCATTGATAGGAAAAGGGAAGGGCAGAGTACTCACCTAAGACTAAGAAGAATTGGTCAGGGAGGCAGGCAACAGGTGAGAGGCATAGAGCTTCTAGAAGGAAGAAATAGCCCCAAATGTCACATGTTGCAGAGGGGCCTGGCCACACCCCTGCCCCCT
0.1986583782361712 GCGGCGCGCATGCGCAGCCCTCGGGCCGGCCCGGGCGCACCTTTTCTGTCTCCTGCCACATTGTGAGCGCTCCGCCGCCCAGATAACCGCCGGCTCCCCGCGCCGCCCCCGCCTTCTCCCACTCCGCCCACTGCCGGGAGCCCAGGTAAAGACGAGAGCTGCGCATGCGCGGCGCTCTCCGTGAGTCGGGGGGCGTGGTTGCCGAAAGGAAGCCAAAGTGAAGAGT
0.1536012772722704 TATATAATATGCATATACATACATAATACATACACATATATGTACACATACACACACACTTTTTTTGTTTTGTTTTGCTCTGTCATTTCCCCTGCTCCCTTTAGAAGCCTGCTATCTTCTCACAAACAGCTTCTGAGCTGCCTTAACTGATAAGCCTATGAATGGGTAAGCTCTTTCAGACTTCTCCAGGATCTCTGGCAGCTATGCTGGCTGAGGGAACAGATAACCCTGGGTTTGAGGAATGACAGAAGGTTTCTTGATCCACTAGCTGACTTACTAAGCACTCTTCTACATAGAGATCCAGGGTCTGTGTTTTCAAAGATCTCATGA
0.5731385031928915 CCCTCCTGACCCCTTGCTGACATTAAACAGCCCCTGCCCTGGAATGCCGCTCCTGGCCTGGCATCCTGGGAGCGTGTGTCCAGCCTGCGGGACAGAGATAAGCGTAAACCTAGCCTCTGATTCTGAACACTAGCTAAGGCTCCCGACAGTTGACGAGATTGATGATTTTCAGCTGGTATGTCTCCGTAACTGAGGAGGCCATAGCTTTGATGTATTGGTCAGATCAATTTGGCTTAAG
0.7046117593555365 GGGTAAATCTATTATTTTAAGGGAGGGTGGGAGTGGAGAGAGGGACTCAAGTATTCCTTGTTCCAGTGGAATTTGTCCCAACCTCCCACAGCATTGCCTCCAGCCCATCTTGCATTCTTGGCTTTTGAAGAGGAGGGGCAACCCCCTTCTTATCTGGGATTGCCTGCTTAAACAAACTCAGTGGTGTGGAGGTATTGTCCTTTGGAAACTTGGCCTGGGACACTTTACCAAGTGTCTGCAAACATTTAGACATGGAAAACTACCCACTGTTAACCCAGAGCTCATTGTCTCTGCTCAGGGCTGCTCTTCTCTGAAAGTGGCTTGTGGTTGGGGGTGGAGGTGGTGAGAGTCGGCCCA
0.7153427782559221 GGGAAGGGGAAATTTCCAGGGGGAAGGAACCTAAGAAGATTATCACAATAGGGTGATGATAGCAGATGAAGCATTCCAGCCTAAGAAAGCCACATGAGCAAAGATATGATCTGCAGTTGAGCAAAATAAACAGATTAAATGGGAAGGGGACCAGTATGACTGAAGCAAAGACTGCTTCTTTTAGATTCCCGGGAATGAGGTCAAGGTGGGAAGGCAGATTAGGAAGGGCCACTGGTCACATTCAGATGGATTCGTGGT
0.7605008298272028 GTTGATATCAGGGTATTGAAACCCAGTGGCTGTTATATGTCAGAGTAACTTACAGTGAATGCCAACAATCTTCTTTTCCTAATTGCTGCTGCTCAACATGATGGCATTGTTCAGTCTGGAATCCCTCTCCACTCCCTCTCCAGGGATAAGCAGCTGACAGCTCTAAGGGGGCAGGATGGATTCCCATCAGATAGCAAGGTGGAGTAGTTATGTGTGCTGGTGGGGGAAATGCACTCTCTGCTTTGTATTTGGGTCTTGTTTTGGGGACTGGTAACTTCTTCCTGTTTTGATAAATATATAAATAACTCTAAGTATCAGGAGAGACAGTAACTTAGGCTTCTTAAAGAACGGA
1 ATCTCAGGCGTTCCTCCCACCTTGGCCTCCCAAAGTGCTAGGATGACAGGCATGAGCCAACATGCCCAGCCTCTGCAATAGGTTTTCTTATCTCCCAAAGGCCGTGCTCACTGCTGCCCCCAAGCCTTTGCTGAAGCTGGTCCCTCTGCTGGAACACACTCCTGCTTCCTCTCCACCTATTTAAATCCTCCATAACTTTCTTTGTTATAAACATTTTTTTTTTCTAATTTTGAGGAAAGTAAAAAGGAAAGACAAGTGCAAAGACAA
0.007838045739287631 TCTGGTCCGCGGGCAGCGCCCCCATCGCCCACCATCAACCAGGCAAAGCCCAGCGTGTCTCCATGGAGATGGCAGCAGGACCCGACCCCGTGCTGGCCCGCACTCTCGGCCTCCTTATCTGGTTTAGGAATGCGCGGTATCCACGCTCGCTCGCGCGGGAGCCACGCCTCCTCTCCCCCCCGCCCCCGAGACCGCCACACGCGCGGGGCCCCCACGTCTCCAAGCGGCACTGGAAGGATTCCTCTCCGTCCCGCCAGGGGTCCCGCCTCGAGATTCTGGG
0.4317808179486888 GCGAAATTCGCCATTGTCACATGATGGAGCAACCTATCGAAAGCGGAGGGAAAGGTGCCGAAGTCACGTGACTACGCACGCAAACACTCCCGCTTGCACCACGTGCAACTCACGCCCACCCCCTCAGCCCCCCCCTTATCTCTTTTCGCCCCTCCCTCCCATTTGGGTTGGGCCTGCGTCGAGGCGCAACGCGGCGTCAAAGGGGGCGGGGCTTCAGCCGGTCACGTGTTCCCGCACCTCCCCGGCGCGCGCCTGCCCGCCCGCCCGCTCGCCCCCGGTCCGGACTCCTCCTCCTC
0.3033196789664558 CCTGCCCCTCCGTCCCCCGCCCCCGGCACAGTCCACAGCTGGGTCAGCAGCTGCCTCCGCCGGACGCAGCTGACCAGGCCCTTCCCGACCAGGCGCCTCTAAGTGGCAGATCCCCGAGGGGGCGGGGCCAGCACTCAGCCTGGGTAGAGATAAGTGCCTGGCGGGAGGAGGCAGGGGCCCTTCCCGAGCCCAGAGGCCGCTTGGGGGCAGGGGAGGGAGTTGGGCCGCAACAGCTCCCGTTCTGGCTTCAGACACACGTTTTTTTTTTCTTTGTGGCCCTGGACAGGTGACTTACCTTA
0.06668723884938006 TCATTTCCAAGCCTGGCTTGTTTCCTTTTACCGCTCCTCTCCAACGAGGATCGCAGAGCCCTCATGCCGAGCGGCTCGCTATGGGGCCGGCTCGCCCGCTAGAGTGGTCAGGCCTGATTATCCCTGGCAGCTCTGTTATCTGGGGTAAGACACAGGAAAACGTGCTTCCGGTTCTCGGCGGAAGTAGCCCCGAACGGTAGAACCGATGGGAAATGTAGTCCAGGGCAGAAAAGCGGTCAACC
0.7959537322058073 CAAGTAGTTACAAACATGCACTACCCAATCCTGCCTGAAGGTGGGAGTCTTCAGTTATGTAATGGTCCTGTTATCAGGCATCTGACGTCTGCTCACTCGCGATTCTGCATTTAGGTAGTCCTCAAATTTACTATCAATGTAATCGATAACAGGCTGCCAGCAATTACTACTATCCACTGCATCTCCAAATCCTGAGGTATCAACTATCCTGAGCAGCAACTAAACACCACC
0.9401455065311288 CTTAATCATTTGCCTAAAACTATAAATTCAAAGAAAAAGAGTTAACACAATTGTACTGACTTCCTTCTGCAAAGAGCTCATGCACACGATGCAGTGTGTGGTGGGGCATTGAGACTGTAGCCACGTGGTGACCTGGTCCCAGGCAATCCCCATTACAGCTGTGTTATCTGATGCCCTGGAGTCTTGATACAATGCAGTTTCTGGGGAAAGGCCTGGCTTCTGTGTTTTTATCAGCACTCAGGCAACACTGACGCTGATGACCCCGGACCACACTGAGGATGCTCATTAGGAGAAGAACTAACACCAGGAGCACTCTCAGAACTAAGAAAGCA
0.990169161773632 GGAAAGTCTTTACTAAATAAAAATGTTCAAGTATAGATATCTTTGCTGCCACCATCTTCAAAACATCCAAATGTGACCATGAAGGCTTCTCCTACTTCTACCTCAACTAGCACAATCATTAAGGTGATGAAAGTGAGCCATTTTCACATTGCCAATAAACTAGGAGGAAGTCAGTCACTGTTGAATGCAATCGCTATCAGCTGCGGACAGCTCCTGGTGCTGAAAGGGAAGGCAGAGAAGCCTGCTCACAATAGCTCACTCCACCAGCCTTTGAAAAATCACAGCAAAACTGAATGAGGTGGCAAGTGCTCAGCCTGAATAGCACTGTCTACAGAACAATGGCAGCCAACTCTAAATCCTACTATAATCACATTAATGAGATTAATCAGTGAATTA
0.9894414320819787 ACATGGGTGGAACAGTGAGCAGCTCACTGCCTGCGTCCATTTCTCCATGCAGAGCTCTTGCTGGGTGAACTAGAATTAGGACAAAAGGGTCTGCAAACAGCAATCTGTCATGAGTCTGAGTGAAAAGGAGAAAAAAGGGATCTGATTAGAAGAAACAAGTGGTGAGTTTTGTGTGTATCTTCTACATCAGTAGTTCTTCCGAGTCAGGCAGAGTTGTAGCCAGGGGAATGAATACTTGTTTAACTTAGTACAAGTTTACCTGAGATTAAGGGCAAGTTGAATACAGCCAGTATCTTTTGTTCCAATATTGACTTAGTCTTGTTGTCACAAATCAGCTATTGATATTTGGTGTCCC
1 TAAATAACAAATATAGGGAGAGAGTTAAAAGAATAAGAATAAAATACATATGTACCACCTACCTCAAAACATAGATTCTTATCAGTATACCTTATGTGTCTTTCTGTGATCATGTCTCTTCTTCTGTGGAAGAGGTAAATAACCACTGTCCTAAATTTGTGTTGATAATTTGCTGCTTTTATTTATAGCTTTACCTAGTATATATGTATTGCTAAAATAGACTAAA
0.2608952766443772 AATAGTTCCCTGTGTGCTAGCCTGTGAGTTTTTCTCTCCAACTAGCCTGGGTACTCAGGAAAGTGAGATCAACTTCTGGGTGGCCTTGGGTGTAGCTGACCTGTGCAAATAGGGGAGACAGTTGACATACAGATGAAAGGGGAGATGGGAAGCCATACAGAGGAAGGAGAAGATCAGGAACCAGAGATAAGATAATTCTGTAAATGGATACTAAATTGAAGTCTGGGCTTCCTGACAGCTCAATCAAAAAGTGAAACACAATTGGTTACATCACTCTTACTGTCTGAAAAAAGGAAGCAATATCAGCTCATGAGGAAATGTAATCTTTT
0.3174873061557341 ATGTGAATTTTGTGCGATATGATTAATATTGTAGGAAATTAACACTGTCAGCACAATGAAGGAAGGATTGGCAAGGTGAAAGCTCTCCAATTTGCTTATCTCCTCCGAGGCTCACAGTGTGTGTGTGAAGAACAGATAATAAGTCCACATGGCTGAAGGGGAGAGCAACTGGAAGACAAACACAGGAAGGAGAGACTGGAAAGTTAGATTAGGTCAAGACTCTGCAGGACTTGATTGTTAATAACTTAATCTTTCTTTTATAGGCAGGCTTTATATCACTTATGATCACAATTATATTAGTTGTCCATGTGCAT
1 CTCGTCAAGTTCATGCACAGCCTGTCTCCTTTTCTTCTCCCTCTGACTCCTGCAGTCAGCCGATGTTTAAACCCAGGAGACGCAGGTCAAGCCACAGGGAGCTCAGCTTCCTGACATCCACCTGAGAAATGCCAGGAGGGCTTACTGATAACATAATGGATGTCAGTTTAATAAATTCTGACTCAAGGTGACATATAGCTATTTACAGAGATATAACATATTAACATATATATTAACATCTATCATTT
0.4047415539936913 ACACGAGGGGAATCATCATCGAATGGAATTGACTGTAATCATCGATTGGACTCGAATGGAATCATGATTGAATGGAATCGAATGGAATCAACGAATGGACTCCAATAGAATCATCATCGAATGGAATCGAATGGAATCAAAGAATGGACTCTAATGGAGTCATCATCAAATGGAATCTAATGGAATCATCTAATGGACCTGAAAGGAATCATCATTGAATGGAATCGAATGGA
0.8252561361802325 ATATGTACAATTATTGCATGTCAACCAAAGTTAAAAGAAAAAAAATCTTTTAGGGTCAGATGTGTTTTGGAATTAAATGTTTCCTTTGAGAAAAGTACCTATCAGCCCCATGGGCCGCAGACAGCTAGCTCTCCATAGTCAAGCACACTGATATCTCTGCAGCAGAACTTAGGAATGTTTGCTCAGTGCGATAAAGACCATGAGCAGCCTCCTGTTGGTTTGAGTCAGGTTTCACTACTATTAAATGAGCTCAGGTCAGCCAAACCAATTGTCAGAAACTTTGGGGTTTGGGAATTGTG
1 ATAAAATAATGCACAAATAATCCTCTAATCGTTTTAAAAGGACCTGTTGTTTACTTTGAAATGATATTAATGCTTTTAAAATTTTAAGTCAATTTTTTCCCTTCACTTCAGAATGCTATTCATGTTTAGATAGCTAATCTTACACAAATAAAATAAAGAGTCTGCCCTGACAGGAACCTCTTTTACTTCATTTTTTCTTTTTCTTTTCTTTCTTTCCTTTTTTCTTTTCTTCTCTCTCTCTCTCTTTTTCTTTCTTTCTTTCTTTCTTTTTTTCTTTCTTAGCAGGATTTACTTTATTA
0.1133135341658761 CTGTCTGCTCACAGTCATGTGACAGGGGCTTCCCCAGCCAGAACCTCCAGGGAGCACAAATAAAGGAAAGAGCTGGAAGGCACAGTACAGCATTTGTTCTGTCCAAGCCTTACATATCAGCATGGGCAGGGAGAATGTGGTGAAGTTTTCTTTCAAGGACTTTGTTTGATAAGGAAGGACATTTATCAGTGAAGAGAGGTTTTGAGGGAAGTGAACCAATCTTGAGATAAGTACACAAAAGAGCTTTGAGTCTGGTGTTTCCCTGTTTGCTTCTGCCCCCTGGAGGAGCAAATACTCCATGATTAGAGACGTGTGAGTCCTTTGGAATAGAATAGCAGTGATGGAACTGGAGTCCTAGTCCAGGTT
0.1412735263255414 ATGGAGATCCAAAGGAAAGCCTGAAGCACTTTGTGGCTTCCACGGGTTCGTTTCTAGGAAGCTTTTGCTTTACCTGGGGAAACCCCAAGCTCTACAGTGAGAAAGTTGTAAATTAGCCTTTAGGAGACGCTGTTTGTCAAAGTTATCTTAACCCTGGAAAAGGGGAGGGAAAAAGGCAGATAAGCAGTGATGACATCAGCAGGAAACTAGTATCAGGCTACCCAGTCCTGAAGATTCAGTTTTCACTTAAACAACCAGCAAGTCTTGAAGTCTCTTCCCAAGCAAATGGGAGCTTC
0.5278369346907247 AGAGACTAAACTGCAAGCAACGTTAGGTTTCCCTGTGACCATTCAGACTTAATGTGACTCTATGAGAAAGCACTGTTGCAGGCCGGGGATTGGCAGGCAGCCCCGGCCCCCAGCCTCAGATAACAAGCTGCTCTCCAAGAACACGTGCTAGGAAAAGTGCTTGATCAGAGTGTCAGCTTGTGGACTGAGTAGGAACACTAAGTGGTTTTGTCTGTCACCTCCTTCACCCCAGCTGGAATTTGGCCATAATCTGATAGAAACACTTTGCCCACTTTCAGGAGAATTTTCCACTATCAGTAAGGCTGCTTTTTCATACTTCGGCTATCACCAAAGCCTTTCAGAACACTTGTACTACTATCGCCCAGGGGAGCTTATATGTCTCAAGGGTAGGGGGTGGGGGACCAAAACCATTCTGAGCATGGAACACTCAGTTGA
0.2588848583271552 CCATCAGCTACAGTGTTCTTGGGTCTCCTTCCAGCTGGGCACATCCCATAGCCACCCCTCTTGGGCCACAGCCTTATCTGCTTGTCCCAGATAAACAGTGAATTGGCCTAATCAGTCTGGCTGGACTGGCTGGCTCCAGGGAGGTCTGCTGGTGGTGCCACTAACAGGAATGGAGCCACTCACACGGCTGACCCCCTTCCCCACCCCATAGGCCCTGTCGCCACCGCCATCTCTCGTCTAGGAAATGCCAGGCCTCGGTTGCACT
0.3426195698921961 CCCTTGATTGAGAAACACTGGTTTAGGGAATTAGAGTGTGAGTTTAGTAGAGGAGTTTGAGGCACTAGGTGGGACAAACAGGTGAGAGCATCAGGAGGCCTGGGAAAGGCAAAACTGAAATTCCAGAGATTAGAGAGAGAGAGAGAGAGAGAGACAGAGACAGAGACCAGAGCTGAATAGGAAGATTTGAAGGTTTTGTATTATCTCACAAAGGAGCAATAGTGGATAAGATATCTG
1 AAGTGAAGAAGTACACTAAAGTGTTAGAGGGCTGGGTGCAGTGGCTCACGCCTGTAATCCCAGCACTTTGAGAGGCCAAGTTTGAGGCTGCAGTGACTTCCCACTACACTCCAGCCTGGATAACAGAGCGAGACTCCATCTCTTTAAAAAAAAGTGTTAAAAGGAGGAAACTAAGCTTTGCTGATATCAGCTATGAGCCAGGCACTATGTTAGAAGGAATGGGCCTCTTTAAAAAGGGAAACGTGTTCTTAGTGCTGTTTTTTAAGGTGATATGTTGAGTTGAGTTGTGCCAAAGCAGGAAGTATTTTCC
0.5981008452336132 GGATACAATACAGAAGTTACAATCATTGGATACAGATCGCAACATGCAGGCTCAAATGTATCCATGCAAGACAATCAGTAAAACTCTAAGATCCAGAAATAAATCAGTGTCCTTTTCAGGGTCACTGGGTTATGCATTAATCACTGTGTCAACAATTTGAGAGACTCATGATAAGATTCAGGGACAAGATTTCACCATGAATCACAAGACCTTCCCAAGGTGGGTTAATTGGAAAGCCTGTTTACTTTTAAACTAAACTGCCAAATGTGACCTGTAGATTATCACATTCCCTTTTTGATTAA
1 CTGCAATGGGGTGATGAGGGCTGGCCCAGGTGACAGGTGACTGCTTGGCCAGCTGCCCCTGCCCTGCTCTCCAGATGCCAGTCAGCTACGCTGAGGGGTCTTCCCCAAAACATGGGAGTCAGAATGTACACGCCTAAAGATTACATTCTTCTCTGACACCAGAGATAAGCCAGAAGAATGGGAGGGTGATTGTGGGAGGAGACGGTACCAGGTTGTCAAGTCTCCGGGAAGAGCCAGCTCTCTCCCAAAATGGAATGTAGAAAAGAGGCTTCCAAGTGGTAGAAACCAAGATATCTGAGTGGGTTCACTGACGTGGCTGCCCTGCCTGTGAGGAAATGATCTGG
0.06054438183677148 GACTATTTATACCCCTTGGAACATCAGCAGGCCAGCCAGGAGGCGAAGACCTTCGCAACATGTCCAAGGCCCGCAGCTGCTACCCCTCCTCACCCAGGGCTTCCGTGAGGACCTGCTCAGTGTTATCAGTGCACCCACTCCACAGATAAGAAGCTGTGCCTGGCCCCACTAATGGTATTATTTTAGGGACCACTCAAAGGACAGGCCAGGATTGGGGCCTGGGTCATCTGTCATTCCTTCCTTCATCGACACGCTAAATAAGGGTCAAACAGAGACCAGCACTTGTTTGCAG
1 AGTCATTTCCAATGAATCAATCTCACTATTATTCCCTTTTTCACTTGCCTGTAACAGTCACCAAAATAGGTAAAAGCAAACTGTGGATGCCTTGGGAAAAAAATTCTTTCCATTCACTGATTAGATTTACAGGAAGATTGCCAATGGTATCCAGAGTTGTGGAATCAAAGAAAGCACTGAGGTCACAGGCCAAATCACAGCTGACACAGGCAAACAGTTGCACAAGTGGAATAGAATACAATGCCTGATTCTCACTTG
0.1308325320335107 AGGATGTTTCCTATTTTTGTTACTTCTAAATTTAGACTAAGGCTGTAGTCCATCCTGCCCGTTGTACAAAATTTTCTCGGTTGTTTTCTATTTTAACTGCAGTGGTCTGCTGATACTGCTTTATCTCTGCCCCATCACAGAGCAATCTTTCAGTTATTTTATCCTGTTTATTTGCCTCCACTTTTATCTTCCACTGTTAAGTGGGGACTAGGAAGCAGAAGCAATCAGAAGGCAGATAGGCAGAGACC
0.113208267247096 CTCTCCTGCAGCCTGTATGGCCAAGCCAGGTTCCTGATGCTATCTTTGCAGCTTCTCATCACCCATTGCTCTGACTTCCCACTGGTGCAAAGCTAATCTTTGCCCTCGTTACCTCATTCCTGGCTTTTGCAAGTATCCTAAAATAGCTTCACTGCTTTCAATATGTCTCTCTTAAGTCCTTCCTGGCCCTAGGCAACCTACCCGAGCTGTTTCCCAATCTTCTCTAACAAACATTCTCCACTGAAGATAGCCTTGTTTAGTCCACCCCACAAGCACGCCTGCCCAATCCTGTCTCTGCCTGTCCCTTTGTTGATGTTGTTCCCCATATCTGAAATGCCTTTCCGCCTCCTCTCCTGGCTATCCGGACCTCACCTCTAGTTTAAGTTCAGCTCAGATTTCACCT
1 TTAAAATATAGGATGCTTGAGTCACCAGCTTGCCATCCTGTGTCATTCAACACCTCCTCCAGACTCTTCGCAGGAAGGTGACCCAGAAACCCCTTGAAGGACATGATACCGTCCCTGTGCTCTGATGTGCCCCCTGGTGTTTGAGTGGAGTGATTTTTAGATAGCGGTTTGCCTGTTAAAACCTTCCCTTTGTTCCCTATATTATTGCTTGCATTTTAGGGCTTCTCAGTTGAAGGATGTGGTTGAAAGAGCCCAGTTCCTCAGCTGCTCCTCTGGGTGACTAGAGTGTGGGTAACTGATGTTTTAGGTCCTGGAGAAAGCAGTGATGATCACAAATAGTAGAATGGAGAAATGGTTATCTCATATTGATCTTCAG
0.3034651086230681 GGTTATTGAGGAAATGGTTTGAGATTATATTTGTTGATCTTAAATCATTCAAAACGTTGTGTCCTTAATTTGTCATCAAGCTGCAAACAAGGGGAAGATTTTTATCTGTTCTACAGGAATCCACTGATGATAGCAACTGCAGAAGTAGTCAGTCTTTTCTTCTTATTCCAAGATTAGGAAGTAAACATAGAAGTTCATCACGTAAACTTATTTAGGAATTAAAAAGAAAGGAAATAATA
1 CTAAACTCTCTAGAATCTGGTTTATCAGTGAGCTCCCTGGATAGACACTTTGTTATTTTTAACTTCCGCCCTCATCCTCCTCCCCTTTTAGAATCACTAATTAAGGAGGTCTCTCTACTGTGAGTTTTGTGACCTCTGTTTCCCTGGTAACCAGATTGCATATCTGATTGTACCCAGCATCCCAGCTTCTGATGACATGGTCACAGCGTCCTATAACCACTAAGGTGAGACATAGGCACCAAGAAATAGTTACCAGACATTTTATATGGGTTGCCCCAGGGTGCTGTGGATGGAGG
0.05188816858580117 CTACCAATCACAGCAGCAGCGTCTCACTGACCTTTCCACTCATTGAGTGGAAAGTATGTCAGGGTTCTCCAGATAAACAGAACCAATAGGAGAGAGAGAGAGATGGATTTTAAGGAATTGGGTCACATGATCGTGGATGCTGATAAGCTGGAACTTGGTAGGGCAGGCTGGCTGGCTTGAAACTCAGACAATATCTCTACTTTACATCTTGTGACAGAACTTCTCCTTTTCCAGGAAACCTTGGTTTTTGCTCTGAAGGCCTTCGGTTGATTGATTGAGGCCCACATTACTGGTGATAATCTCCTTTAC
0.8055655451946376 AATATCAAATAAAGATCTTTCTTTCTTTCTGTGGATTTTTGTGTATAATGAGATAAAGTAACAACAAAGTGCTTCTAAGAAGATTATGTTTTAATTGTAGGATTTTTTATTTGCTTTGATCTTTGTGTAGATGGCTATCTTGACATAGGTACTTAGAAATATCTACGGAGAATCATTTATTGCTAAACTCAAAGAAAAAGGACAGTATTTTAAGATTCACCATCATAACAAATAATAATTTATTTCATAAAAGTCTGAGTATGCTTGTACAA
0.7274274393024702 CTTCCTGTCTCTTTCTCTCTCTCTCTGTCTCTCTCACGCACACACACTCATGCGCATACACGGATTTAACTATGCACAGTAGATGAGTAGAATTATTTAAATTAAAGCAGATAATTTCTGTGTAGTTGTTCTACAAAATTACAAAGATTGTTATCAATAATAATACATCGGAGGTAAGGATTTACTATAATAAGCATAAGTAACAGTTATAGGTACATAGATATAAATATACATAAAAATTATGGGTAAATTATACATGATGATAATGAAGGTAAATAGATAATAGATTTTTATGTTTATATTCT
0.5318989702396616 TTCAAGACTGAATTCTGATTCTTTTGATTATTTCAGATTGACAGAGCTAAAGACAATGGAAACAGTTTCAATAGAAAGAAGCTACAGGACTTCTTACAGCCCACAGTACCAGAACATCAAGCTATTTAGCTGCAGATGTGTACTACTCTTGAAGATAAGAAAAGCAGTAATCCTGAGGGCAATTCAGAGGTCATCAGGTCTGTCTCCTTGGTTTTCAATGGGGGAGAGAG
0.8581488417675118 CTCATTCATTGATGCAAACGAAATACTGTGGCCATAATTGGGGTTTAGCATCACAATTCATGTACTTATACTCTTTAAGCTGAGTGACTAGGTGTTACCCATAGGAAGAGATCAGCAGGGGTCATTTTAGAAACAGCTCAAGATGGCTATCTGGGGTGAGGGGAAGGCGACCTCTGTGAAAAGAGGAAAAAGGCATATCTGGACCTGAGTTACCAACAACAGGATATTTTTTTAAATGCCTCAAGGGAACCAATTTTTAG
0.9013210218970129 CATTAATGTAAAGGGCAACATTAATCAACATCATGGAACTTAAAAGGGCATTAAAGAGTGATCTTTTTCCCTATGCAACAAGAATCTTTTCAAGTAGTTGTGTTAACTGCAGCAGATTCAAGGCACATTCTGAGTTTGTAATCAGAAGGCAAATCTAGAGAGGCCTCTACTGGCGAATCTGTCTCTGTGCAGTTGTCCTTGCGGAACTGCCCTGGAAAAACAAGCAGGAGAATGACTTTCGGCTTTTTTTTATTGGAAAGTTGCACACCAGATGGATG
0.7658633047067861 TTTAAGTTTTTGAGACAACGAAACTTGTTCATACCGCAAAGCCTTTATAGTTGCTATTCCCTCTTCCTGGCATGATCTTTTCTCGGCTTGTTGAATTTCTAGCTCCTTCTCATCATTGAGGTTTCACCTCATTTGTTATCTCCTTAGAGTCAATGCTTCAGTCACAGCCCACTCCCACACTCACATGCTATCCCATTATCCTGTTTTATCTTCTTCAGAGTACTTACTTG
0.3112464327041649 AAAAATAGGAACCAGAGAAAGCAATTATTCCCATAGCATATTTAAACCAGATAAATATTTCTGCTTGCCATCTTGCAATTTGAAAGTTGGAAATGGCTTATGGTGAGTTAAAGAGTTTGGAATGTGGGCCTATCTAGGAAGATAGCAAAGTCGTTAAAAGTGAAGTTTCTGAGGTCAGGCACCTCAGTTTATCTTCTAGCTTTGTTGTTTATGATCTAGGTGGCTTTAGGCAGTTTGCTTAATCTCCTGTCTCTCAGTTGCTTCCCAGATATACACTCGAGAGTTGAAAAAT
0.3732509883836058 CCTTTACCATTGAAATCTCTGCATGGTAGTGTTCTGGTTATACTGCCTTCTTTCTGATAAGGCCTTAGATCACTCAGCAGATGATCCGGCCTAGGCTGCAAAAGATAAGCTGTGCAGTCCTAGGACAAGGTGCTTTTCCCCGTGCCTCCAGACCGGTAACACTGCTTCCTTCTTAGGACCTTTCATGTCTCCTCATAGTTTTCTAACTCCATACTTTCTTTTATGTGCCCTTGC
1 ACCATCTGCCAGAATGTTATTTGCTGGATGAATATGGCTTGAGCAGATTTGGTAATATATAACACTTGCCACTAGGTGGCTCTTGGTCTTGATAAAGCTGACATTCAGCATAGATAGGTTTTTCTACCTAGAAACCCACGTAGAAACTGACCCCCGGATTATATTCACTTTTTTGCCTTTTCTGTACCTATATTTTTTGAAGTGGAATATGAAACACATATCATAT
0.9513326187117246 GGGTATTGAAAAGACAGATGAGATTATATTTATAAGAGTACAAAATGTTGAAGGATAAAAAATGCAATATGAATTTAGATCATTTTTATTCTTTTAAATTCAAATAAAAATCAAGTAAGAAGATAACAATCTCCTTGTGTTTTACTGTTCATATGTAAGGTGTTATAAGAATAATTGGATTTGGCATATTTGGTGAAGCAGTTGAGCCATTTATAAGCTTTACAATGATATTTGAATTTTTTTTTAAAGTCGTAGAAGCTAGGCTTCTATTTATATTTCTGGGAGTTTCAATCTCCATTAGCAGATATATCAGATCT
1 ATCAATGTTCGTAGCAACGGAAGTTGCTAAATGAGCTAAAAAGACGTGTAAGTTATCTTCTAAATTACTGAACTTCTCATTTTCTCTACACAGACAACCACTAGGTGGCGTCTGCCCACTGATATTCTGATGTATCTTGCAGATACACAGGAAGCCAACACACGAATTGTTCCTTGAGAAGTGGATCAATGATGTGATGGTTTGGAGGGTCCAGTTTTTATACTTGCTATGAGGCTTGATATTTCTAATGTA
0.3258453981332695 AGAAATACAGGGCAATTTCCTAAACTTGATTTTTTAAAATCTACAAAACTCTATAGCTAACATGATATTTAATGGTGAAAAACTGAATTATTTACCTCTAGACCAAGAGCAAGATAAGGATTTCTGCTCTCAGCACTCCTATTCAGTATAGTGCTGGAAGTTCTAGTCAGTGCACTAAAACAAGAAAAATAAATAAACAGCATGTAAATTGGAGGGGAGACATAAT
0.07223175409300304 CCAATCTGACTTGTTAGCTCCTTATTCAAAACTGCAATGGCTCCCCGCTGACTATCTTTTAAAAACAAACCCCTTCATCTATCTCTTAGATTTCACAATAGGAACCCAATCTAAGTTTCCAGGCTTATCTTTGATTACATAGCAGCATGAACACAATCCACCATCTAAAGAGCATTACCCTTTCTTCTGTAAACATGTCCTAGGCTTTTTAGATCCTATGCCTTTGCCCTTACTCTTCTCTCCACCTAAAATA
0.7819029889012526 CGCTGTCTCCCGCCTTCCCTGCTCCCTTTATACTGCAGAATGTTCCCTCATCCGGGAACTCGGATTGCTCATCCCACCAATGGCTGCCACCCGCCCTCGGGACGCGTCCTTGAGACTTCAGCCAATGAGCAAGCGAAGAAAAGGGTGGAGGGGCGGGCGCTTCTAATCTCAAGCCGCGATTGGGGCGTGGGGGGAGAGGCGGGGGAAGGCGGAGGGATGGGAACGGGGGAGAAGAAGGGCACCGCGGCGGGAGGGAAGAAACAGAGCGAGCTACGCTGCAGGAGCGCAGTTACCAGCC
0.2152774322289712 CCACTCTGGCGGTCAGGGGGAGGTAGTAGGAAGGCTGGGTGTCGGTCACGCGACCCGGCGGGGGCTGACGTCATTCACATCACGTGAACACGTCTAGACTGTTTCGCTTTGCAAAGGGAAAAAAGAAAAGGGGCCGTCGTGTGTGCTTTTGCTTTCAGCCAGATAGTGGCAATTGAGTGCACTCCGTAAATGGCTATCTGGAAAAACCATTTAGCAGTTCAAGAATGTGTCCTTCCCTTTAGCATATCTGCCATTGTTTTCAGTAGGAGGAAAAAAAAAGTATGCATTACGATTTAAA
0.1535445512954063 GGCGTGGAGATTAAACCTTCATGTGTCCTTTACTATTTACAGAATTATTAAATGTAAGTTTTTCAATCATACTTATACCATTAACTGCTTGGATTTAATCTGTTAGTGCAAGATAACTTTGGCTCTCCCTTCCGTCCTCCTTTCCCTTATCTCGCCCCACGTGAGGACATTCTCCTGTGTGTGAAGCTGCTTTCCTTTCCTCGAAGGTGGGCCGAGCAAAGGAGAGTGACGCAAGAGTGGGCTGTGTCCTGGATGCTGCGAGCGCCTCTGCCTCCTTGAGAATGAGCCCATTAGCCG
0.3053375269700584 CTTTGGAACAGTCCAGCAATTTCCCACTTCTAACAGACCCCGTTCTGGGACACAAGGAGAGCCCAACGACCCAGCGAGATGCTGGGTTCAGCCTGGAGACCGACTGGCTGAATCCACATGCATCTCAGATAAAGCGTCTCAGATAAGGGACCACTCTGTCCCTGCTCAGGGAAGCAGGGAAGCAGACAAGCTTTGCTGTGATTGCCAAACTTAAAAAGGCTGTACCTCTCCAACCTCTGTGTGTTTCAACAGCAAAAGAA
0.876316590162268 ATCACTTCCAGAGCTAACCTTCATCACAGTTCACTCTAAACTTCAAATTTCTCCAACCTGGGAACTAGTAGTGATCATCTTACTTGGTTACATGCGGGAAGACTAGAAGGTGAGATAACAATCACCAAGGTACACACAGGACACAGCACCTAGATGGTATTTGTAATCATTGAAACACTTATTTATGCTGTCTTTCCTATTTCATTTCCTAGGGTAGCAGTTCATATTTTTATTAGAGAATGAAATATTTAGACATGTCATTGGCTAGTGTA
0.5504029060287076 GGCTTGGGAGGCTGGGGTGGCGGGGGATGGGGGGGATAGCAATACAGAAAAAACAAATCCTGACGCACGCAACCCCAGCGGTCGCTCTCACTTTGCTGTGTGAAAAACCCAAAGGAATGATTGCGAGTCCCCCGCAAGGGGGGTTGGTCTTCCTTGCTGACAAGAGTAGAAAGATAAGGTGCAGAAGGCAGTGATTGAGAGGAAAGGAGAACGAGGGAGAAAGAGTCATTTATCATGTTTTCTCTAATTTCCAG
0.6692397589096275 GTGCAAAAAGGAAAAAAAAGAGTTGGATGATCATAGCAGAGTAATGGCTAGATGTGACTCAGCAAACTGCAGACAGGAAACCAGTTTCCTCCAGGTAACAATGACTTTATCTGGTGGAAGATAGTGTTGGCAGGGGAAAAGAAGTCTCACTGGGAACTTGAAGAGGAAGGAATTGTGGCTGCCATCAGTAAATATTTGGATGACAGGGCTCTCATGCGGGTGTTTGTGAGTAAGGAACGGTAACAAAGCCTGGGCCACAGCC
0.2657705685385147 CCTGGGTTTCTTCCTGTTGCTACATGGTGAGTATCTTCAGAGCAATGGAAATTAACACAATATGAAGATAGAGAATGTCTCCTCTCCCCTAATTTGTCATGTTTTTTGATAGCAAAATCTAAACTTAGCTTTCTAATCTTCCCCAGAACAAATTGCTTACATTCCAGGGTAAAAGGACTTCCCATCTTTCCCCAAAAGAGGATGTGTTTACATTCCAGAGTAAAAGATAGTCATGTCAATCTCTCTCCCTCTCTCTGAGGATATGCCAGCAGTTCCAACATAAGCTCTGGGTTTTGATAATTTCAGAGTTCCTCTCCTATGA
0.7456141390145349 CTTAATACCATGTTTTTGGTAGTCAGAAAAATGGCTCCCCCAAATATGTCCACATCCTAATCCACTTTATCTGTGACTTTGCTACATCACATGGAAAAAGGAACTTCAAAGATGTGTTTCAAGTTAAAAACCATTAGCTGGGGATTATTCTGCATTATCAGAGTGAGGCCAATCTAATGACAAGAGTCTTTAAAAGCAGATAAGCTTTCCTAGTGGTGGTCAGGGAGATGTGTCAACAGAAGCAAGGTCAGAGGAACGTGGTGTTGCTGGCTTTAAAGATGGAGGAAAACAGCTATAAACCAATACATGTGAGTGGCCTCTAGAGACAGGAAAAGGCAAGGAAACGGATACTG
0.2708313749448345 CTTCAAATCTCTTGACTCTCCATTTAACCCCAGTGCCCCATGATTACTAGCTGCAGCTACATTAACGCTCTTGAGATAGGCTTTTTTCATTAGAATAGTGACATATTAAAATTTATACATTAGATCCTTATCACATAAAATACCCAATCCAAAGAAGTAACAGAATAAGATGGTTGCTTTTATTCCTGGTGCTGAGTTGAAATGATATGCATTCTAATAAAATGGGAAAGAATGACAAGTGATCTGTCAAAGAATAGAATTCATTTTACAGGGTTTGCAAACGAAGCAGAAGA
0.1935288927384511 TGGCGCCACAGTCCCCCACTGTTACTACTTTAGTTGATACCTTTATTAGTTCAGATACCCCCTCTTCTAGGAAGCCTTCCCTGGCTTTCCCCTGCTAATACAGGGTCGCAGAGGTGTAGATACGTTTCCACCTTATCACAGTTACTGCATCACAATGGAATGCACTGTTAACATGTCTATCTTCCTCATAGAGGCTTCTTGAAGGTACTGTGTCTTTATCTGGCACATTCTTTGCATTGCCTAGAGGACAGAGTCTGCATTCTTGGCAGGACAAATAAGAGCCTTAGCAGCCTTCGCAAGCCCCTCTACCAGCTTTATTGCCTGCTGCTCTCCTGGCAGAAACCCTGTCCCTCTCTCAACGTCCTAATGCCCTCAGCACTTCATCCTTAGTATGCTTCCCTCTTCCCTAGCTCCATCAGAATTCTTTACCTAC
0.4201604343108887 TGTTTTGTTTTGATTCCAGCTCCCTCTCTACCCAGCTGAGCCACATAGAGAGAATGAAGCCTGCCATTTTGCACACAGTTTTGCCTTTGCGGCTGTTTATTTTGCTAAGACTCTTAAACCTGTCAGCGAAGCGGTTTCCAGCCCAGTCTCTGTGGTAATAATCTCCCTTTCTAAGAGATAAGCACCCCGAGTGAGACAGATTGGAAGACAAACTAACACACCAAAGTTGCTGAGTACACACGACTCTTTAAAGATGGCCTCATTCACTACTCAGGCTTTATTAACTTCAAAAAAGAAAAAGAACAACAACAAAAAAGTCGAGCTTGGAGGTTTCAG
1 GTCCATCATGGTCTAAATCCAGAATATATTATATCTGGAATATATATACCTAGAATATAGACACCTAGGTCCAAGAGAGCAGAAAGGCTTCCCGGAGAGGGTGGAGCCTAAACTGGACTTATTTTATGTTTCCCTCTGACTACTGTTGTCTTCAAAGAACACTGTCTTCTACCCCACCTCCACCTTAATCCACTAGAATCTGTTTCTCAAATATTGTCTTAGCAACCCGTTTACTGATTAACACTGACAAGCCAAACAGGCCAGCATCAATGCTG
1 CAGGCTGGTCTGGAACTCTTGGGCTCAAGGGATCCTTGTGCCTCGGCTTCACAAAGTGCTGGGATTACAGGCGTGAGCCGCCGCGCCCGGCTCTAAATAATTTCTTATCGCCCTCCCTCAGTTTGTTTTTCCTGTTATCGGGTCACCCACACATTCCACAATTGTCAAATAGGTGAGGGCACAGGTACGGAAGCGTCCCGCATTCCCTCCAGATTTTATCACGCTGAGACACAAAGAGAAAAATAGCTCCTGGCGACCGCATGAAAACCCCGATTTCAAAACAGCCACATGCAGTTTAATTTCCTTAAAAG
0.1910064007031525 AGCAGCGTGGACAGACAGTCATACAGGTGTGGGCCGGGACCTTAGAGGGCAAAATAAAATGCTTCTGGAGTCTAATCTTGAGCCAAATTGACTAAAAAGGACAGCCCGGCAGAGAACGTGCGTGATGTGAGTTACTCTGGCACCGAGAAACCTGTTCTTATCTGGCAAGTACGCCCCCTGCTGGCCGCGGTGCTGAACTCCGCCTCTTGGTCCTGCGCCAGACAGCCCTCGGAGCTCTCTGGTTTAGACCGGGGGAAGGAGAAAGGAGCTCTGGCAGAGCGAGTCCCTTGTAAAGCACACAATGGGAGCAAAGGGTGCCGTCACAGCAGTCACCGCCCCAAACCACAATCTTTGTCCAGTCACGGTTCTCTGCAGTCAGATAAAATCCAAGCAAGCTGAAAAGAAT
0.3998127270205549 GACGATATCCACCACCACTGGAAACTCTGCAGTTGTCACCTTTATCAGGGGAACAAGAGCAAGCCACTACATTTTAATCACTGGAGTTTGTCAGGAACGAAAAACAGCCAGCTTCCCACAAATCAACAGACATGTATCCTGATAAGGGAAGTGCATTGGAAAAGGACAGCTACATACCACATGACACCACCTATTCCAGGGTGATCAAAGCTCCATAATTGTTGAAGATAAATCTACTGAATTGGGCTTT
0.7733897601512588 TCAACAACAACGATGTCAGATGACTGATTGAATAAGCATGTATCAGTAGCTGTGGTCTATACCTTCAAACCAATTGGGATAAATAATAAGACAAAGGCATGAAAAGATAAACAGAAACAATACCTCACATACCAAGTGCTAGTGTCAGGATACAAATGAGAAGAGATAAGGGGGAATGAGCAAGAGATAGTGGGGCCTGACGTGGTCAGGAAACTATATTTGAGCTGAATTTTAAAGAAAGTACCTGAATGAGTAGAGATGACATGAGGCAGAATTTATAGTATATCAAATCATGATCAG
0.3845194525159181 AGGGACCCAAGGAATTACAAAAGAGAATAACAAATGTTTGCTCAGAACACAATGCAGTAAATTCCCTGGTGCACTCAACCAGTATAACAAACAGGTCCTTTGTAATCTCTAAGATAAGGCTTATAATTAGCCAGGGACCGGGTGACATGAATCTGACATGAGTAGACATAGTGGATTCACCTGTGGTTGGCCTGGCTGGTAGTCCAGCAAAAGGGGGGTGGTTGCT
0.5254415813330593 TGAAAAAGTGGTATTTTTGTATACAGTAATCCAAGAATCGTTCTGACCCCTATTCCTTACAGCTAAATAAACTGCAAGGCATGCAGTCTTTGGTGTTCTGCCAGCAGGAGCATTGAGATAAGAATTCCCACTATGAACACCGTGTTATCCTTTTGCCACTATCTACTGATTAAACCTCAAAGGCCCTTTCAAACTGTCAGGGAAAGCACACACAAGGCGTTCTATGTGGATATGTGTGGCAGGGAAGGGCAGGGAGTTCTTGAATTCTACGTTTTG
0.23558516483499 TTTCCACTAATCCTCAACTGTTGGTCCTTGACTGCTTGTATTTTCTCATTGGAGTCTACTCTTCCCCATGGGATTATATTCGGTTTGTAATGTTTTCACTGGGTGAGAAGAAATGAGAGGATCAGCCTCACACCTAAGCCAAACTACTCCCTGGATAATCCTCTCCAGATAGCAAACACCAGGAAAGCAAAGATAAACGTCACATGGGCAACTCCAAGGATACACATCCCTAGTAGGAATACTTCAAGGCTTCCCCAGGTGCCTAGTAACAAAAACGATGTGGTCCACAAGCAGGAAAGATACACATTCCCAAGCAGAGTTTAAAGAAGTTAAACACTGACCCCCACCAAGCAGGCAGGGGACCTGATAACCTCTCCTAGTCAGGCCGCCCAGAGAG
0.6362899819532077 ACCTCTCAGTACCAGGGTGAAAGTGGAGACGCAATCTCCCTTGGAAGACGTTAGTCTCCATCTCTAACGCTCCCGAGACACGGTTCGCAATTAATTATGACGTCACAGCCAATCGTCAACGCGAAAGCCTGACGCTCTAGCCGGCTCTATCTCGCTGCCCCGCCGCGGGCGCAGAGCTGGCGCTCTAGCCCACGGAGTTGGTTAACTCCTCTCACCGGCCCCTGGA
0.8809749967519119 ACCAAGGTAGTTTTAAAAGGCATGAAGGATGAGAACCACCATTCTTATTTAGTGGCTCTGGACAGCGTCACTTGGAAACAGAACTGCCTCATGCACAGATAACAATGCCTGACACCCATTACACTTTACATGCACGTTCACATCTGCCTTTTGGATAAAGGGCAAGAAGAAAGGAACATTTACCATTGAGAAAGAATTAGAAGCCTTGTTAGTCTCCTTTTAAGACTTCTTCACATTCCACATGGATTAACTGTTAGGGAGAAAA
0.2884514781545702 TTCAAACTGGGAGGAGCCCACCACAGCTCAGCAAGGCCATTGCTGCCAGACTGCCTCTATAGATTCCTCCTCTCTGGGCAGGGTATCTCTAAAGAAAAAACAAAGGCAGCAACCCCAGCCAGGGTCTGATAAGATAAAACTCCCATCTCCCTGGGACAGAGCACCAGGGGGAAGTGGAGGCTGTGGGTGCAGCTTCAACATACGTAAACATCCCTACTTGACAGCTCTGAAGACAGCAGCAAATCTC
0.5416531140889195 ATGAATTTGCTGCACTGTTATCTATAGCATTAAAACATAGACATTCCAATCATTTTCCCATTTAACATTTCTGCTTTAATTAAGGCAGTTTTGGTCGTGCACTATTTGAAGTGAAATAAGTAGACGTTTCCTGTGCCCTGGGCTGTCTAGATTGAATGTGAAGATAGGACTGCCTCAGGGCCCCGTATTGGAAATTCAGCCTGAAATTTGATTTACTCAGCCTCTCCATAGGTCCTTCATTCACTTGGCTGATTTTGAAATCACC
1 TTGAAGGATTCCCTGAAACTCATGCCTCTACAGGACACCAGGTGGCAGTGCAGCCTAAGAAGTGACTGTGAGCGTATCAGGTGCGATCTGTTGCTTGAGTACATCAAATTAAATAAACCAGTATAATTTTTTGCGTGCCTATGGAAACCTTTGAGCCACTTAATCATCATGGCTTCAATCTCATTTCTAGAAATGATCAAGGCATGATATGCCCTTTCAGTGACACCATTGTATGTG
0.03911724102754623 AATATCTCTTAAAACAACTGTTCTTAAGACCTCCTGGATTGCATCAATTCAGTGATTTGGCTGGAGAAGGTGAAGAGTTTGATCCTGTTTTAGGGTGTTAGTCAGTGAAATGTTGGTTAGGGAGATCCCAGAGCCTTCTGTATCTTATCTCTTTCCTGAAATTCTCCACCTCTAAAAAGATAAAGGTTTCAAGCCATTAGTGTGGATCTTTGCATTAACTTATTGACCTTTTAATTATTTCTTTATCTTTGGCTGAATAAGCTCTAAATGGAGCTTATTTAAGTAAATACTTTAAAATAAGTGTAAAGTGCCAAGACACTGAGGTTTACAAAATGACCACCGCTCATGTGATC
0.1939515821437714 AATGGGAATAAAGTACCTGCAGGCACGCAGTAGTTTTCAATAAGTGTGTATGTATTGAACTGAAGGGCCTTAGGACTGATTGCTAGGTTTGCCTAGCAAAGGCTGACACAGACTGTGAAGATAAGGGCAGGCTCCAGCATGGAGAAAGAGGCTGCTGACATCCATGCCCTGTGATCTCAGGGATCCAGCAAGGCCAGCCTTTCCTGTTCTCTTTCTTCCTCTGCAG
0.04236121785719283 TTTATTTAGTTAAACTGTGAAGGCAGATCTGTGTGCTTTTCAGTGCAGGCATTCTTTTTTCTTTTTGACCCTGGAATATCTCCGTTTTGTGTAGACAGAGACCAGTTGTCAGCTGATAGACTATCACTTGAGGGGTGATGGCAGCAGTAGATGCATGGGAAAACATCTTGATAAGGCCTTGGAGAAAAGGCTGCTCTTTCGGAAGCAGGGCCCATTTGCCAAGAAGGCAGCAAGGGAAATCGCTGGT
0.4147423037611663 CATGTCAACGTCTCTCAGGTAATAGAAGTATTACTGGTGCCCTTCACATGCTTGACAAGCTTTCGGTTTGCTTCTCCATGATTGGTCATGCAGAAGGGTGCTTTCTTATGCTGTAGTGTGTAGCCTTCTTTCCTTCTTGACCTGCTAATTCCTTTATCACCACCCTTTCCTCCTCTTATCTTAATCTTTCAAGGGAAAGAGATACCCAAGACAAACACATTTCCTGAACATTCTTTTTGGGCTTAAGATGATAAGCCTCTTCTAACCAATCTGGACCCAAGAACAGGCCAGTGAGTGCAGTGTCCTGAGTTCTCTTTCTGATGGAAATCCCAACGCATTTGGGGGGAGGTCAAGAATCCTGCCCTGCTCTAAGGTGGACCTTCATGAGAGGGAC
1 TAACTATCAATAGGCCAGTGGTTTGACAGTTGAGCTTTGCTTAGTCACCAGGAACCCTCAGGAGATAATGCTATTTTACTTGCAAACAGAGATGTTTCAGTTATGGACGTCTGTGTATTGTAGTTTATCTCTTCCTCTTTGCGATGCAATTTGAGAGAAGTTCATGAATTTGGTGGCCATAGTTTGATCTGTAGTGCAAATTAGCATAGCTATCAAAGCAATCAATCTGTGTTTTGATGTGACTGTTTTTCTCTACCAGAAGTGGAGAACAGGACAGAATGAAGGAGATTTGAGGAGCACGTCAGGCTAAATGTCTCTCATTCACCTATTTCAAAGTGGATCAGCCCCTCTCTGCCAATGCACCTTCCTAGTATAATTTTCTGAGAATCTTTTTCTGGCTTAGGTTAGAATTCAGTGAATGGCAGAATT
0.3556799036919667 CCATTTTGGTTCCTGAATAAGATGACTACAAAGAGGAAAGGCTACATACCTCCCTCACATTTTGCCACGAGGAAATTCCCTGCAGGCCCCAAGAGCTTTACCCTAAAGCTTATCGGTTAGAGTTCACCATGGTAACGTAAATTGATAGCTTATCTTCACAGGTGCAGAGACATAGGACAGAACTCAAAGACATCCCTCTGCCCACCTGAGACAAATGCATATCTGATTGTTTCCTCTGCCCTATTGTTTCCATTATC
0.9776377614480672 CTTTGCCTTTTTCTCCCTAGTTTTCATTTCTTTCTTTTAGGGCGTCAGCCCCCCACCTCTGTGGTTGGGAGGGACTATTGCACGTCTACACTCTCGTGGGGATGAAATAGTGTTTGAGTTCGTTATTTGCATTTGCGCGTTATCTCCCCGAGGAGATGACAGCTTCTCTGCCAGCAGCGGGCAAAGGTGGGCTCTGAAGCAGAGGAGAGGAATTATCAGGAAAAGC
0.8308738901214893 GACATATGGAATGGAACACAATAGACAACCCCCAAATAAATACATTCATTTACAGTCAATTGACTTTCAGCAAAGATGTTAAGAACACATAATGGGCAAAGGATAGTCTCTCTAATAAATGGTACCAGGAAAATTGGACATCCACATGCAGAGGAATAAACTTAGATCCTTATCTCACACCATATACAAAAATCATCTCAAAATAGATTAAAGATTTAAATATAAGACCTGAAAATTTAAAATTATTAGAGAGAAACATAAGGGAAAAGCTCTATGACATTGGTCTGACCAAAGATTTT
1 AATTTTGGCTGAATCCATTTACTCATTCACTTCATTGTTCCAGTGTCTACTGTAGACAGGCATGCTCTGTTTCTGCCTCTCAGTTCAGATTCCTGAGACTCAGGATCTGATCATTGGCCAGCCTGTGGATTGAGTAAACTATGCAATCAAGAAGGTTATCACAGATACAGCGTTGATCAACACAGACAAACTCTCTGGCCTCATGCAGCTTATGGTGTCATGATTATCACCTGTAATAGAACATGGTCACT
1 CCACTTGCATGTTTGTACCATTCATATCAGGATTCTTGAACCCTCATAGTGAGGGAAAAAAAGGTGCAAAGTACAAAGAAAACACAAATAACTGAAAGATCAAAACCACAGATAGCATCTATAGGGTAAACTCAAGATCAGAGAATGGTTAATATCTTCAGTTTATTTTAACAAATATCCTTTGAAAGGGAACTACAATATACTACGATTTTACTTAAAATATAAATAATTTTTAAAAACTTAATATGAATTATTCTACTTTTATAAAAATAAGATT
0.236721020058225 AGGAATTTCTCAGAGATGCCAAGACAGCAGTGTGTGGCGGGGGTGCCACCGGCTGCCGGACAATTAGTCCCAGAGCCTGGTCCTTTGGAAAAGGTGTTCTGCTGGTGGAGACTCGCTGGGCTGTGATGTGATCGTGTCGGATGCCAAATTCCACAGTCAGTCCCTTTCAGCAGTCACATTCCTTAGATTCTTATCAGGGATTTTCCCCCCCAAGTGAACACTGGGAACCAGCCTCCCCGCTGATTGCAGGAGGATGGGAGGAAATTAAAAGCAGGAATCCTGGCGGTTGTCCTGGTTCGTCACCAGCTTGCCGTGCCAGCTTGAGCCCTTCCCTTCCCCTTTCCCCTTCTCTGGGCCTCGGTTTTCTCACCTGTAAAAAGGGGGTTGG
1 AGCAGTCACGAAGCTGAGAACAAATCATTGGAAAGCATATATGCTAAAATGTGAGACTGACCAATAAAGAAATTAGGAGTGAGGAAGTTACTGAACTGCATTTTAGGAATGTATGTAAATTCTACATAAAGTATCTTTTTAATAATTAAAATTTGAAAAGGTGTGGTAAACTGATAATCTAAATAAGGATCTGAGACAAAGCACCTGCATAGCTACTGGAGGACATGGTCCAGGGGCCCACTGCCACCTAGTGGTGGTGCACCAAATACAGTAAAGTAATAATGCTGCCTCCTAAACAGTGGTCT
0.908157228986842 GCTTATAAGCAAGGCACCTCACTTATCTCGTGATCCCGGATATGCAATATCTCCCTGTGGTAATTGAGTAAGGGCTCAGCCACAGCTACTTATTTTTAGGAAATCCAAATAAGGACTTCTGATCCCAGTTTTAGAAAATGGGAGACAAAACTAGGCGGGGTTGGAAGCTGGTTTGGCACCTCTGAAGATAACTGTAACATACCCCAGCAGCTTTCTGACAACATCTCCTCCCACCCCACCCTTCTCAGGAGAGGGTGGGAACAGAATCTAAACATTGTCTGCTTCCTCCTG
0.1056266667296829 CATTTTGTCTTTAAAAAACTCTCGACTTTCCTTGCCTTCCTGGATACACCTATGGCCCGGCCACGGTTCGCCATGGCACAGGAATTCCCAGATTGCAATCACCTATCATTCCTTTCCAAATAAACTCATTTCTCTGGAGAGCTTCTCTGTTATTTTAGGTTGACACTTTCTAAAGTATTTTATATGTAGAAGAAAATAGAAAGCAATCGAGTCACTTTATTACAAGTCTAAGTAAAAACTTTGTTTTATTTCTAAAAGTTTTTCTAAAAGCATATGATCTGAGACACCAAAATAGACACCCCTTTAGCAACTAAGACGGGCCCCAAGGTTAAAGAAACAAACGTTATCTCCAGGTCAAGGGTTCAGGGTCTGGCAGACATGGCAGATTTCTGAATTCCTGTCTGAGATATCAAGCTGATTTACAACCCAGACCACTACAGTGCTGATTGGACAGAGGACCAGCCTTACAGACATTCTTTTTGGATAAGCTACTGCAGACCTCAGGTCAGTTTCAG
1 TGAATTGGAGAAACTCTGTGTTGTCTCTGAGATGAGAGTAGCCTGTAAGAAATTATTTTAGCCTTCTGACCCTCTGCTATTTGTTTTTCACCCATCTTCTTGTTTTAATGCCCTTATCAACTATGGTAGTGCTCTGTAATTTGTCAGAAAACTGACTCCTCTGTCATGGGTATATTCGTCTATATATCTTCAGCTATCAAGAGCTTAATATTTATCCTATTCTTTAATTTGGGTTTTTGGGTTTCCCAACATATTTTGCTCCTCAAATTAATATTTTTCAGATCCTCAAAAGAAAGATTCAGAGACCAAGACTTAGCATCATGTGACAGAGACAGGAGTTCAAGAGACAGATCACCTCGTGACAGAGATCGGAAAGATAAGAAGCGGTCCTATGAGAGTGCTAATGGCAGATCAGAAGACAGGAGGAGCTCTGAA
0.192535261198175 AATGGAACAGAATAGAAAGCCAGAAATAAACTTGCACATTTATGATCAATTCATTTTTGACAATGGTGTCAAGAACCCACGATGGGGAAAGGATAGTCTTCAATAAATGGTATGGTGAAAACTGGTTATCTACATGCAGAAGAACAAAATTAGATCCTTATCTCACACCACGTACAAAAATTAACTCAAAATTGATTATAGACTTAAATATAAGAACTGAAACTATAGGACTACTAGAAGAAAACATAGAG
0.5098823633176027 ACTACATCTGTGCATTGAACTGTGTTGAAAGTTCACCTGCTCTGACTCTTAGACAAGGGTTTGGTCTTCAGCTCTTTCTGCTAATCTACTGCATGAGATAAGGGCTTCTTTGTAAGCTGCCAAAGCACTCTGGCTCTCATGCTTAGTTTTCAATGACTTGCTAATTGAGCATGGCTTGCATTGTCAAACCACTCCTCATGCCAACTATGCTAGTCAGGTTCTCCAGCAA
0.03976233164015738 AGCTACCAAAACTAGGCAAACAGTGCTCTTGGTCCTGACGCCTCTATTGACCTCTACCCATGCTCACATTACTGTATCTCAAATCCCTAAGAGCTGCTTGGGATGCTGATCACGGTGAGGGCAGAGAGTAGGCTCAGCCTCTTCAGGGTCTTCCCCACCCTTTCATATCTCAGGATCCAGCTTTCCTGACGAGAAGCCTTGTCTAGATAAGGCAGGGAGGCCCTGGTGCCTACAAGTTGAT
1 TAACAAACGCCTCCTACCAAACTAAGGTTCCACTAAAGGTCTGGGAATAAGGGCAAAGAGATGTATAGCCTTATCGCGACCGCAAGGGTGGGGCCTTGCAGTGGGAAACAAAATAGAAGGCAAGCTATCCCGAGAGGTTTAAGGGGGCTGAGGACTCGGCTCTCGGGAGATCGCCCATCAGGCGGTGGACACGGGGCAGCTTCGAGAGGAAGGAGACAGTGGACTGCTGGAGGAATGT
0.1875385468169189 TATTATCTTTAAATTAACTCCAGTTGACTACTCACCTTCCTCAGCAGAGTCCATAATTAGGTATTTAGATGGCATAGGTCTTGAAAACTCACTTTCCCACCTCCAGAGTAGAGGAATCTGTCCTTGAAGTGCTTAGGTTGAACTGATTTGTTTGTGGTTGCCTTGTCAGAGGTGGCTGTAATCTACTCCTTTGTCATAGTAGATAATCCTTATCTGCAGAGAATACTGAGTCTGTGAGAAAACACTTGTTCATTTCTACCCTACCACCATTTCTCTTTCCAAAGTGGGAATTTGCAGTGAATCATAGATAGTACAGCTACAATGCCTTAAGGAAATATAATTTACATTGGAGGGAAATCTCAGTTACCTGGCATATAATAGCAAGA
0.2907613359084747 CCTATTCCAAGACTATATTTTCTGCCCTCCCCTCAGAAGCTTTCTCTCATAAGCTATTATTGTAATCCTGGTTTGATAAAAAGCCCTGATAGGACGGGAGGTGTTTGGTGTGGGAGCCATATCATGCTATCAGCCCATCTCCCCGCACAGCTGCTCGCTGTTGTTGTTTTTAGCCTTATCACCTCCTGCCAATATGCCAATAAATTGCCCAGATTGTTCTCCATTCTGGGGCTG
0.3378476474008243 CTACTCCAAAATATGGCACCATGGCATTTGATAAAATAGCAGAATCAGGAAGTTCTCTCTGACCCTCTTCCACCCCCACCCCTGAAGCAAGCTGTAAAAGAATTCTCCAACCTTCCTATACCGGGAAGAAAGGAATGTCCTTATCTCTGATGACACAGACTCACAGAAGAATCCAAGCAAACAGACCTTGCTAAGTGTCCCTAGTTTATTACCATTAGATCATAACCCCTTTGTCCACTTCTTCATCAAGCCTAAGTATAAACAGATTGTCCTGCTTCTTTGGATCTTCATT
0.8353165332681297 ACTGTATTCGACTCCGTTCCTTCTCACAAGATCATTGGCAAGTAAGGCAGGCAAGTGGAATGACAAATTAGGATAGCTATCTGGTAAAGTGTTCCTTGTAATGGACTAAATTCACCTCTGGGTTTTAGTGTTGAGGAAATATGAAGGCATTGCACCATCTAGTGGTTCTATTGGACCCACAGCTATTTTTTGCTTTCTCTGTTGGTTGTTACTGACGTTCTCTGAG
0.1766598621920061 ATATATTTCCCTTGTTTTCTAGAAGCCAGACACCATTATGTTTCTCTGCATTCGCAACTACATTGAATGAAAATTGCATATATTTGACTTTTATGAGAAAGAGAAACATTTTTGAATAGCTCTGTTATCTTCTGTGTAGACACATGGCTGCTAGGCTGTAAACTAATTAGCATGGGCAGGAGATACCAGAGAATAGTTTGTCCCAGAAGCTGATAAGAAGACACTATAGAGACTCAGAAATAACACCAAGTGATCTCTCTGTCCCCTGCTCAAAAGTGATAATGCTAATACAAGTTTATTAAAATTTGTAATCTAATATGCTCTGCTAATTTCCTCTTGGGGATAGTACTCATATTAAAAGAGTTGCTTATTTTAC
1 ATGAGTGATTTTCTTCAAAGCCCAAAATGCGATTTTTTTAATGAAACACTGTGTTAAAAGTACAGAACGGTAGTTTAGAAAGGTAGCTCTTGAATGTGACTCACAAGGCATACCAACAGGACCCTGTCTTTTACGGGGATCACATGGGGCTGTACTATCAGCTAGGGGCTGGCTGTGCCCTCTGGTGGTTGGATACTGTGTTACTTGGTCTCTAGAACCTCACACTTAAAAGTCAGACAAGTGTCCTCAAATACTTAAATCACAGAATTTTAATTCTAGCGAGTCCTTGGTTATTATTCTGAGGGAAGATTTCTACAGTCAAAAGAGAACC
0.3144171617420249 GGGCGTTTTAAATAGACCCATTTAGAGCTGGGGTTGGGGGAGAAGGAGGGGGGTGGAGAGACAGAGATTGAGACAGGCTGGGAGACAGAGACAAATCAGGAAAGAGAGATGGGCCCTAGAAGAGAGAGACTGGGAGAGGAGAGACAGAAGGAAATGCAGAGATACCATTGAGATAAGACACTGAGGGCGAGGCTCCCACGGAGGCTGAGATGGACAGAGAGAGGGTGATGG
0.4868268598379986 ATATGCTTGCTTGGAGATTGCAGGGGCTATTCCTGAAATAAACCAGGCCTGGAGACTCAGCTGCAGAATTCTTCCCCATCTAGGGATAACCTTAAGGTGGTTAATCTACAACCCAGCCATTGTTAAGATGGCACCAGTCTGCATTCCAGATTAACAATAACTTAAGATAGCCATCAGGACAAGACATATAGAACCTGCACCCTGCCCCACTCCTTCATTTTCATTCGAAGTTTTCTTTCTTAAAACCCCTCACTAAGCCTAAAATTTGAGATGGTGTCTTGGAGGCCTTAGCCTGACCATC
0.8758745772720922 CTTGGATAAACACTTTGCTCCCCTGGCCTTCACGTCTCCATCAGCAGGAGGGAAGGGAGGGCCCCAGAGCTCTGCACATTCCTCAAAGGGATTCTGACCCTCCTCCCCTACAGCCTCTAACTGTCTGTTGGTCACCAGGATTAGTTTCACACCTTTTATCTCTGTTTATGTCACTCACCATGAGAAGCCCAGCGCTCCTGGAATATCTCCTGTCTCTAAACTTTCGCTATATGGCTCTTTGGAACCCTTTCTCTGACCCCATCTCCCACTCCTCTTCCCCAATCCCCC
0.4947480606357604 CTGCTGTGGCCACAGGAGTGCCCACATTACCCTCCCCTAACTTCAGGCAGCTTATTGTGGAGAGACACTCCCTCTACCTGGGGGAGAGAGAGGGAAGAGAGCAAGAAACTTTGCCTGGGAACCCAGAGAATGTTCCCTTATCTTCCCCAAGTCCATCAATGCTGGGTATCTAGGTATCTGTAAGAGTTGCAGCACACCTGGGCTTAGGGTGCCCTCTAGTGCTGAAACAACTG
0.9796998312228227 TTCTGCATTGCTTTTTAAAGTTATAATAGAAAGATACATTTATAATAATAAATCAAGTGGAAAATCTAAAGCATCCCTTTTCCCTTGTCCTTTCACAGCCCCTTGAAGACACCAGTGTTGACAGTTTGATAACGAGAAAGTGAGAGAAGGAAAGAAAGGCAGAGAGGGAAAGGACAAACAGACCAACTGATAAAACAGGTTAATAATCATGTATATTTCAAAAGAGCTAGAAGATCTAAAATGTTCCCAACCCAAAGGA
0.5473014760300307 TCAGAAGGCCTGGTGGTGCTTCCACGTGGAACCGACAGAAGAGCAATCTGTAGCCCGCTTCTCTCTCTAATCGCACCATGAGACCTTGTCTCCTCCGACTCTCCAATCTGCTCAGGATCACACCAAGTGTTTACTTCAGCTTCAAAAAAAGCAAACAGTACTCCTGCTCCACCAGTTCTGTGTCAAAGCAGCAAGGAACTTAATCTCTCCAAACCTGCCTCCTCTTTAAAACAAG
0.6143540009767481 AATATGGAACAGTAAGTTGTAGAAAGCCACAAGAGGCCTCTGAGGAGTAAAGCCTTCTAATTGCCATCATGTTCCCATGACCAGAATGTGACCTGCTCTCCTATCTATAAACACTGTGCTCAAGGAGAAAGATACTCCTTTGAAGCACTGGAATGTGGCCAGATATGCCAGCTCCTAGTTAGGCCCACTCCCCACAGCTGCTCTCTGATAAGTTAAAAAATAAATCAGTAGTTAAGTTTATACTGCTTCAGCACAAAGAAAATTTACCTAAACCGCCATTCCTATACATTAGGTGTATGACACACGGCTCT
1 GCAAACTCACCCCTGACGCTATGTCCCTTGGACATTATCCTTGTATACACAAAAAGTGCAATTAACGAGTGGGTAGAAGTCAAGGGGTGGAGCCTCCGTCCTTGGGCTTGAAGCCAATGTCCCTCAATGCGCCTGCGAGACTCCCACGCCCTGGGAAGGATGCCTATCGATTCGCTCTGGGCTCGGCAGTTCTTTCTGATAGCAGGCAGCCATCTTGCCTGGAGCCTGAGAAAGGGAGGAGAGACAGAAGGAACCGGCGACAGTGGTCTCAGGGCCGCTCCGG
0.1289335975421706 TAAACTTTTCTGCTATTTTAGTTTCATAACCTCCCAATCCTATCCACTAAACACTAATTCATGTGATTCTCCCTCTGAAATTCTTTAGTCCACAATCCTGCTACTTTCCCAGTTTATCTTATCTCCTACAGTGGTTGTTCTATCAGCTTTCCAAATAGCCTTCCTCTTTCATTCACTCCTTCAATCCAATATACTCACTCAACAATTATTATCCTCCCAAATCAGGGTTTCCAATCAATTGTGTATAATGAAGATATACTATCAAAAATTTTTTTCTGTGGCCAAAAATATTTGGGAAACATAGC
0.8819529016336438 AGTTAACAGAAACGGAAGAAATCTGGAACCAACAAGAGACTTACCACATCTACAGAGAGGCTGGGGGAGGGGTGCAGATCAGGAGATGGGAGAGTGAGGGAGAAACAGAAGCTGGGAGAGATAGGAGACCAAAGGAAGGGGGAAGGGTGGCGGCATGCGGGGAGGCTGCTAGTGCTGTAGGCGGCAGAGGGATATTAATAGTACCTGGGGCCCTTCCAGTCTCTTA
1 CTAGCAACCCTCAGGTCCCAATAGCCTCAGTCCTATGCACAGAATAAAGCTGTATTAGTAAAGAATTGAGAAATTATTTGGATGTGGAAAAAGGACTGAAAAAAGCAAAAACTTAAAACTGCCAAGCACATATGCCTTGCCTACTGATAATATTGAAAGTATTAGTCAGTCTTCTACCACCATCTGGTGGTAATCTGTGGTATGAGCCAAAGAAGATAATTCTGGTGTTAAGGTACAAATAAATTTCAATTTACAAGCATATTTTAAATGGATTATTTAACTTGATGATTATGGAAATGTTAG
0.1082877511666817 TCATACTCAGCCTACTGCATGAAAGATCTTTTTCAAAGTTTTATGTAAACAAAGCAAAATTCAAGCTGGCAGCTACAAAAATAACAGGCAACTGAAATTCTGCAGCATTTTTCAACTTTTTGAAAGGAAAGAAACAGCTCATGCCAAAGTAGTTAAGGCAACCTGGAATCTCAGCATCTGATAATGTCAGCTATCTACTCAGAGTTAAACCAGCAGAGGGGCGTGAGCCTGTCTCCCTTGCTTATCTGGCTTCAGTGTTTCTCTCTCTGACAGAGGAGTGATGTGTCAATTGAGGGCCATGCCTCCCAAAGCACAGAAAGCCCCAGGCTTACCCTACAGCACCGGTGTTACAGTTG
0.9897639589192648 CATTCACCATCCTTCCATTTGTCCATATGACCTCATTCCTCTTGGGCACTGGACAAGAATTCAGGACACACTGGGTGCAGGTCACCAAAAAGGCTGTCACCCTGCCTTTGCCCTTGCTGGCAGAAGGCAGCCACCCCATGTGACAAGGCAGGGGGCCCACTGAGTTGATAACACACTGCTCTCTGCAAACAGCAGAGATAAGAGAGCACTGTAACATGCCCTCTGGGCCTTGGGGTCAGAGGCATCCCTGCCTGGACACTGCTGTGGGGCCTGCGTAG
0.4182480344173751 AATTTCAGTTTTGCAATATGAACAAGTTCTAAAGATCTGCTGTACAACAGTGTGCCCATAGATAACAATCTTTGCCTTTTGGACAAAAACTCTACAGTCTTTGGATAATGTAAAAGAACCTTTGTAATTTATGTGGTCATCATTGATTTTCATCACTTTTTCCTCTCATACCAGGGTTTTAGTCCCACCTAATTTTGTACTAACCTCCTGCCTTTTCACGCCTCTGTATGTTTCCATATGTCCT
0.8141624943596735 GATGGCAGGGGTTTGTTTTAGTTCTGGATTCAGTAAATTAAGATGGTATTTCCAGTTTGGTTCAGTTCCTGTTCTCCCCTATACCCCATGTAATTAACCACCTTCCCTCCCTTCTTGTTAGCTTGGTCTGTGGCCTACTGATAAGCAGGACTTGATGTGACAGCTGAGATGAAGTACATGGGATAATTAGGCAGACAAGAGCACAGGATTCACTGGTTTCTGAGACAGAGACACGTGGAATTCTTTTCCTCGTTGGTTAAAA
0.9224951207209062 TTAGTAATAAGGATGATAAAAGAATATTCAGTTATTTAGTTGAAATAAAACAAATTTGCAGCACAAATTTGAATTAATGAGAACATATTTCTGTGCCTTATTCCTAGTAGTCTAAGGCCTTTTTATTCAAGGACATTCAGCTTCACTGGATGTTATTTAGTTGTTCACATGTCCCTGTGAGGTCAAGATAAGACAGATAGCCGTTATCTACTGTTAGCTGTCACATGGAGAAGAAACAGACTTTCAAGGTACAAGAATTGAAGCATGTGTAGGAAGCAGAGAGGTGTCTCATCATTGCTTCAATCTTTCACTGTCACACTCTCCATCATAAGGTCAGCTGTTGAAGTTTGTAGGTGTCATGATACAGGTACAGCCTGAAGAGT
0.02318724832021473 AAAAACCCACTTTGTATTCTTATAAAAAATAAACTCCTATAGTGTTTGAGTAATAATACACTTTTTTGAGTGTTGATTTACAAGAGCTATTTAATCTACCCTAATTAATATATTATTGAAAGATACTACCAAATGCTGAGTGTTCTGGCCTTCTTCCCTCCTCAGCCTCAGGAAACTGGCAGCAAGGCTTTTCTCACACAGATAAGATACTGGAAGTTTCCCTTCCCTAACACTGACTACACAGATAAATAACTTGCAGATAACAGTTTGGGGGGAGGGGATACAGCCTTCAGTGAAATACCCAGGTCAGATCACCTCACAGTGAAGCCCACTATTTGAAGAGATTCACCTGTGCTTACAGTGCTTTTAACATGTTTTTCTCACTCCAAAATATATTTTTAATGTAAACATCAATAAACGCA
1 ATGAGACAGAGGGGACAGGTCAGAAAAGAGAGAGGAAGGTAGACCAGTTAGAAGCCACAGTAGTGATTCAGATGTAAGGTGATGATGGGCTGGACCAAGGAATTGACAGTGGGAATGAGGAAGGGAGAAACCCAAGAGAGATCTCCTTAAAAGGCAATGGAATTTGGTAACAGAACAGAGATAAAGAAAGAGGGAGAGGTGAAGATGGCTCCACAGTGACTAATTTGAGGCAACAGGATAGATAACACAGGAATAGCAAAGACTGAGGACGCTGGGTAGATGACTTAAATTTTGTTTAACTCCAAGACATCCACACGGAGATGTGTCCAAAAGGCTAGCAGAAGGACAGAAGCCGGATTGTAGAAGGT
0.1410112798176035 CTTCCTGAATAGGTTTTTAATGCAGACAAAAGTGCCCTATTCTGGAAAAAACTGCCACAAAGGACACTTATTAGTAAGGAAGAAAAGTGAGCCCCAGCACTGAAGGCAGGCAGGGAGAGGCCAACTCTACTGCTTTGTGCAAATGCAGCCGGGTTTATGATCAGGACTGCTCTTATCTACAAAGCTGCTAACCCCTGAGCCTTGAAGGGGAAGAGATAAACACCAGTTGCCAGTCTCTTGGTTGTGGAACAAGACTGGGACAACAAAAT
0.7470035833036425 TAGCCTTTTTGATTTGAGTGCATTGAGGTTTCAGAGATACTTTTGAACTATTTATTGCACCATTTAAGTTTAACTTTGGTCCTCTGGTCACAGTGTGGAATTACTTTTGAAGAGGAGACAGGGAAATCTTCCAGCCTTTAATCTAAAGATAAGCCTTATCACATGGTGAGTATGTCCAGGCAAACAAATCTGATGGGGGGTGTGGGAAGTGCTGGGCTGAATAGTTAAGCTTTGTCCACACTCTCAAACTCTTGGAAGCATATGGGAGTTTAAACATGTTCATGTTAGCAAAGTTCAGCTTTATTGCCTTAAAGATGATGCCTTGTTGGTACACTTTGTTTCTAAAATTTAAA
0.1302819496031963 TAAACATCAGCGAATGGAATCGAAAGGAATCATCATGGAATAGATTCGAATGGAATCATTGAATGGAATGGAATGGAATCATCATAGAAAGGAATCGCAGGGAATCATCGAATGGAATCAAACGGAATCATCGAATGGAATGGAATGGAATCATCATCGAATGGACTCAAATGGAATAATCTTCGAAAGGAATCGAATGGAATCGAATGGAACAATCAAATGGACTCCAATGGAATCATCTAATGGAATCGAGTGGAATCATCGAATGGACTCGAATGGAGTCATCATGAAATGAAATCGGATGGAATCAATGAAGGGACTCGAATGAAATCATGGAATGGACTCTAATAGAATCATCATCAAATGAAATTGAATGGGATCATCCTCAAATGTAATGGAATGGTATCATTA
1 TGATTGCTAATTCGGACATGGGTCACACCACAGTTTTACACCTTCGAATACAAGATTTCTGCAGTTCCACTACATGTCCACTAGAGGCCTGTGAAGAGCTTTTTTCCCCCATCACGTAGAGTCTGATAACCAAAAAGGCCAGAATTAAAACAAATAAGAAATATTGATTAGACACGAGTAAGACAAGGATCTAATTGGTACGTAACCTCACAGTAAGTATCATAATTGTGGATAAAATAATCAAAATGCAACA
0.4920141908653921 TCATTTAAGACCTAACCAGATAAATGATTCTAGACTTGAAAGTAAAAAATAACAAGAAGCCTCTCCCACTGAAATCTAATTCCTGCTAAAAACAACTGTAACCAATACATGGAAGGGACTATGGTGAACACGGAAATGCTCTCCCATATCTCCCTTCAAGATAATACTTGTTCCAGCTGTCAGCAGATAGCCTCAAACTCTTAGCTTCTGCAGTGTTTCCCTAAGCCTAGGAGGAC
0.6323153027873376 CCTCAGCCTCCAGTGGGGAAGGGGTGAGCCCCCAGGGTGGGACTGATCTCCAGACAGGCTTGCGCTGCAGGAGCCCTTGGGGCCTGTGGGAATAGCGGGGCCTCTGACAGACGCTTTATCAGGCCCTGTCGCCAGCGTTATCTGCGGCTTCTCAGCAAAGAAGGAGCTACAGTCACTCAGACCACTCCAGGCCGGGAACAAAGCAGCCGAGTCAGCTGGCGTCCCATGGCTCTACTGCCAGACCCGTGGGCTCGGCAGCCTGTGCCCCAAGCTGGGTGTTC
0.87357238833436 TAGAACCCTAGCAGCCCCATGTATTCTCTGGGAATTATAGCCAGTTGTCTTTGGGGAGACTTTTTCAGTGGAGTCACTGCTGTGTAAATGTTTGATTTCTCATTTGCTGCCAGTGTCACATTCCGGCTCCCTATCTGTCCCTTCCGTGTTGATTGTACTGGACTTTGCTCTTTTGGGATCAGTGGGCTAGATGGGAAAGAAAGCTCAGCAGGAACTGGTAACTTTG
0.7501747855833286 GCCCCAAAAAGATTTAAAATGTCCAACTTTTAGAGACTTTTTACCAAGCGATTTAATGTAACATGTGCTCTATTTTGCTCTTACAATTATCTGATTACATTGTGTACTGTTTTCCTGATAATGGCTTTCTCTAATCTTAGCACCTAAGATACGAAGGAGCTGCTTTGCTGTAACCAAAGGCTAGAGTGGTAAGGTGGTGGGTGACTTTACATTTGAAAGGGTCTTGAATGGCTAAAGAACAATCTGTTTTTATTTAAAGACTTCCAAGTAGGCATTTTACTT
0.174883434869367 AAATTTTAAAACGTCTTGAAGAACACCTAAAAAAGACAATGTGTGTGACTTTCAGTTTTATAAAGGCCACTTGGGGATTATGAAAATTAAAAACCTCTGCTGACTCATGGCTGGTTTTGCTTTGGCAAAATCAAGTCAGATTACAAGGAAATTCATGTATTCAACCACTTTGAAAATTCCTTATAGATTGTTATCTTTTCTTTAATTTTTTTTCCTGACAGCTAACACAGAACTTGGTACATAATGAGTCAATAGTAAATTTTTGAATAGTGAGTGGAGGACTGGATAAAAGAAGGGAAGAAGGAGGAAATAAAGGAAAAAGAG
0.467700126171232 GACTTCTAATTTGAAAGTCAACACTTCCTAATCTAGCTGGAGTCCTTGATGAAACTCCTTGGCTGCATGTGCTATGCTGTCACAAAGAGGGAAGCTGCTGCCATTAAAGACAGGAATGTTGGTCTTTGAGCATTCCTATGCAATCTTCACATGGCTTCAGTACACATTCACTGCTTCCTATGATATCTACTCCTTGGTTCTGAAAAATCTGTATCAATTTAAAACCAGTGCAGCCGAA
1 CAAAGAGAAAATTAAACAGAAAAATACTGATACATTTAATAACAGAAAAAACATACATTTCAGATAACAGTACAAAGAAGATTTTAAGGCAAATTCAACCAAATATTAAGTTTTTAGGAAAAGATGGTTATCTCATTTTTTTTTTTGGGTTTCCCTAAGATTTTATAAATGTCTCATAATAAAGAAATTATTCAGAAAGAAACAACTGAAAATTAAATTTCAGTAAAAGTCCCCTAAGAAATTAATATTCAAATAACCAAT
0.4877204820778291 ATTTAATCCTCACAGGAAGGCTATGAGGGAGAGACTCTTCCTTTCCTCTCCTTTTGCAGAGAAGATAACTGAAGCTTGGCAGATTCAGTATTTTTGCCCTTGGCCACTTCCCCAGTATGTAGCTGAGTCAGCACTCAAACCAGGGCTATCTGATTATAGAATCCATGCCCTTAACCACAGGGCTGATTACCTCCTATGGAGCTGTCAGTTCAGAACCCAGCTCCATCCAGTCTAGCCTCACACTCCACTCATCACTCAGCTTCAGCCCAGTGGTTGTCTCCAGCTCTGCATTCTTC
0.3008789410893618 GGGGGGCCGGTGTCACCACGACTGCCTGGGAATCCAACTCCTCCAGGGGGGCCACGCTCTCCTTTCAATCCTACAGAACCCTGATGTGAGAAGAAGAAAAAGACACCGTTATCAGAGACACACCAACACCCTGTCCTTATCGCATTCTTCTGACATTTGTGGTCAATAAGTACTAGAGTTAACTGGCTCACACTATTTATTTACTTCATCTACCCTCCCAGGAGGGCCACCTTGTAGTTAATAAGTGAAACCAGCATTCTTCTCCCTAAGCTGAGCATTCTTCCTCCCTCATCTACTTAGGGAGATACTTTAGAGAATGAGATGTTGATACCTGGAATCTTTTGAA
0.2735554364721595 CATGCAGAATGAAATCCAAACCCTTATCATGGCCCACAAGGCTTTCTCTCATCTCCTACCCATCTCCCTCTGGCCTGGTTGGCTTCCAACCACATGAGCTTACTTAGCATTCCTCAAACATGCCAAGCATGGTCCCATCTCAGGGCCTTTGCCTCTGCAGCGCCTTCTGCCTAAACACTCTTCATCCAGATATCTGCAGTGCTCACACCCTCATGTTTAAGCACCTTATCATAGACACATTCCCTGGTTATCTCATGTAAAACAGAAGCCAACCCACCTACTCAATCACTCTCCATCCCTTCTAGAAGCAAAACACTTCATGCTCCAGCATACTTGCTAAGAAACCTGTTCTGCTCCTTTCCTCATTTTTAAATTAATTTTATTTACTTTTATTTCTTTTAGAGATGGAGGTCTCATTATG
0.04131354127206924 TTAAACGAAAAGGTAGCAGAACAATAGCCAAGGAAGTTAAAGCTCCAGAGATGTTTGCTTTTCCTACAGAAACTAAAGATAACATCCTAACATACATCCTTGAGTTGTCTTTTAGAGGCTTGAAACCCCACTGAATGGATCTGCTGGCATACAGACTCCAGATAAGGGGGAAATGAAGACTAAATTTTAGCTATTACCCTTTGTTTTATTAGTAAGTTTCTTCCTGAGGAACTTAGAGAAAGTCATTCCCTCTAGCAAGTCAGCATTTTTCTACTGAACTTAAATGTTT
0.07058717117932987 AAATCAACCAATAAAATCTATTTCAAATTGCTGAACATGAATTTGCAGGTTTTGTTTTGGGCTAATGTATCTGTTTTTTCCTAGTTTCCAACCTCACCAAGAAGAGCAGAGGGCTGGCAAACACTGGCTTAATTATCCCCATCAGTCTCAGAGACAAGGCGCTTAAGAGTTCTAGCTGCTGTAAACACTCCCCTGATAGCAGATAAGGAATCTGCTGAAAGGCAGTTTTGTCTGGGAAACCTCAGGGGCACACCAGTTAATCATTAGTGCAATATTGTATATGCATTACTACATCAAAGGAAACAGAACCCAATATTCTATTGTGAAGATTGTCTGTGTTTTCTTAAAGGTAAGAAAACAAATGCTAAACCAGAAAATAAAAGATAATAATTACATTCGCACATTTACCACAGAAACAAAGAATGTTCTACTTTACATTTTTTTTTTCAAGAAAGA
0.7867516023733316 TATATTGATGAAGATGTCATGAGCTCAATAAACTGCTTTGTTCTAAGAGAAGAAAGAAGTTTCTGTAAAAGCAGGGGCTTCTGAGAAAAGAGGGAAATGTGAACTTCAGACTTCAGTGGCTTCACACACTTCTGCCCTGAGCAGTATTGATAAGAATGCAGTCTCTCAGGTTGAAGTATGTCACTTTCACCTTTTCAACTGGGTGGGGAGAATGATATCTGGGGAATGTGAAGTGTTTTTACTGCAGGCTTTCTGCAAAGACCAAAGGGAGAGATAGGGCCTGAAAAATGATGGG
0.1582565153322048 ATGTAGCTTTGGTACAGGCCCATCTTTCCAGCTGAAGGTAATGTGAGCTGGAACTGGTCACAGAGGCCCTGGCAGCTGGCTTAACCTGTTTATATAAAGACGGAACACAGCCACTGATTAAGAGAGCCACCTCCTACTGATTGGTTTTGGAGTGGAGCCCAGAATTTTCCATGGAGATAGCTTTTAAAAGTTAGGTCAGCATCTCAATGAAAGATAAGGACACACAAGAAAGCCCTTGTGGGTTGCCCTGTCTTGAGAACCCCCACTGTTCAGCAAGGATCAGAATAGATATATGTGACCAGTGAAATGCTTCTACTAGGTTTATCTCTGTGAAAAGATCACTTTTCCCGGAGTGATCTTGTGGACTGAGGATTAAGTGGGTAAGCTTGAGCC
0.7848591084367144 ACTTCTTGTAAATGGAATCTGGCGGCAGATTCCATTCCAGGTCCAAGCAATGGCCTGGACTTTGCCCTTCATTGTTACCTTGAATGACAAGGGGGATAAGGAAGACTGCTAGGCGGGTTTGCTTCCCACTTCCCCAGGAACCCTGGAAATGCACCATCGCATGCATGCCACACCCTCTTCACATCTATGCGTCTACTTTCCACCCATGCCTGAGATTAAATCTCAT
0.118054769459191 CAGACAGGCTGTCTGAAAAGAAACTGATAGAACGATGTGTGCTGTAAATCAGGAGGCTTACTGTTACCTCTTCTAGGAATGCTAGCCAGCTTTTCAACTTCTCTATCTCAGAGTGACACTGAAAAATGTGCCTGTTATCTTCCCATGGGAGAGAAAAGCATTTTATTAGCCCTGTCTTTTTGCTGACTACAGCCTAAGTTCATTCACCAGGACAATTTCTAAGGTTGAAGCCAAAGACACTTGTGGGAAATAGCAAGAAGAAAAATAGCAAAGAAAA
0.9858366767280049 CTCTTTTTCTTCCTCTTTTCTGATCCTCTGTCCTGAAAATTCCACCTCCCTTAACAGCCTTGGACCCCACTATCTGCCTTAGCTCAGGTAAACTGCTTCTCTACTTTTGTTCCATATCTATTAGCCAAGATAGGCAAAGTGTCTCCAGGAAGAGAGCCTGAGTGATTATGGTGTTTACCTCTCCTAGTCTTTTTCTGTTCTCTCAAGTTCTGCACTGCCTATCATGCAATGCCTGAAAACTGTTGCTTTATATATTTCATCAGGTTCATAGTTGTATACAATGTTTATTCAAGGAATAAATCGAATATCAGTTTTCCATC
0.6903459877949613 ACAAAACATTGTTCACTCGTAGTGTACCTAAGGGATGAATTAATAAGTTGGAGCATCAGATTCTGGAATTTTCCCGAAAGATAGCAAGAAAAGCTAAAGAGACATGGATGACAGATAACGATCAAATAAGATTTCCCAAAGGAGAGAAGAAAATTGAAGAGAGGAAAATATTTGAAAAAATAATGAAGATGGCGTTCCTATTCTGGTGATATATCAGGATATTATTTTACCACT
0.3101097964296606 TTCTCTAATGGAGTGACACTGAAGCAGAAATCTAGATAAATGAATGATGAAGCAAACACTGTTAGGGAAACAGTGTTCAAATCAAAGGAAACAGCAAGTACAAAGGCCCAGCAAGGAGACAAGAGTAGCTTCAGTAAAAGGAATGCTGTATAGATAAGATGTCGTGTATGAGATTATAAAAGAGCTTATTGGGGAGACAGAAGCACACAGGGACTTGTAGGTAATGGCAAGGAATTCAGATCTCATTTCAAATGAGATTGA
0.8988640267147151 ACCTTGGGGAAGTGGATATAAATAAAAACAATGACTCTTTTGTGTGGGTGGAAGGAGTGTAGGAGCTGGATAAAGCTTCTGGCTTGGAAAACCACCCCCTGCACATCCAAGTCTTCCCCTGTTGTGCTTATCTTGTGCTTATCATGTGACGTAATCCTAACTTCTTCATGACTTATGGCCACTTCCTCCTGGGACCCAGCTGGAGTGAGCAAGTGAGTAAAATGCAAGCTCTTTTAATTCTTGAGACAGCAAAGCATAT
1 TTACTATTTAAAATAATTTTCACACGGTGGTTTACAGTTTAGAATATCATGTTCACAAACATTACCATATTTGAGTCTCACTGTAATATTGCCCAGATTTGTGCTTACCTACAAATAGGGGCCGACAGAGCACAGAGAGAGATGGAATGAGACGTGCTCTCAGCACTATCACTGCTGCTCTCTGATGCCATCTAGTGCAGGTTCAGCTGAACACTTATTTCTATTTAAAGCCCTATTGCCATCT
1 TGATTGAGCAGCTTCTCTCAGTTCAAGGACTGCAGTAGAACTAAGAGCTGAGGTTTGCTGAAAAAATGTCAGTGCAGGCAGACCAGCCCACAGTACTGAGGAATGTGGGAGGGATTAGTTCTATTTGACTAAGATTTCAAGATGACCACTCATCAATGTACACAAACTGCTTGATAAAAATGCTTCTGAAAGAAACTTATTCAATTGTCAAGGTTTTTAGTATGGGTGTAAATTTTATCCATCCCAATTTATTGTGAAAACAACTATTTACTGTCTAATAACTGGGTTTTTTAAATTTAATTCTACAAGTTACATTCAAACTAATGTTTGATTGCATTTAACCTACATTATCT
0.3240135385043471 CACACACATACAATACCCATCACCCTGCCCCTGGAGCAGTATCATTGAAAGACTATTAGCCAGTCTGGACTTTGAGTTCTGCCAGGTATCAGCAATCTCCTATCAGTAGAGAGCACTTGGTAAACCCAGACTTTCAACCCCTCTCAGCCATAATAAGGCATTCCATCCCCTACTACTGAAGTGAAGTCAGCAGAGGCCTAGTGAGGAGCCTGAAATTCCATACCATCCA
0.7289004669166428 CTGCAGATGTCTTCAAATTCTTTCCTGCTGCTTCTAGACTATTCTTCCTCTCCCTCTGGGACTTCATTCCAAATCATCATCACTCTGGGTAACTTCAGTATCTACAAGATAACCCAGCCATGGACGTTGCCTCTCAATTTCTTGACTCCCTGTGCTCTAATGAGCTTCTCCTCTACCTATTTCAGTCATCTTTCCCCAGAGCCACCCCCTGAGCCTTGTTATCACC
0.1734958874900586 AAAGCCATCATGTTCCACAGACTGTACAGATTAGATGCAAATTGACTCAGGGAGAGGAAAAAAAGCAGGTCTCCCAATCTTCATGTTATCTCTTCACCACACTTCCAAAAAAAACACTTGCAAATAACCTTAAATAATCAGTGGTTTTAGTAGGCGAGAGTTGCCCTTAAGGAAGTCAATGAAACCCCTCCTTTCATAATTGTTTTATTTTTCATTCTTGCATGATTAAACCATATGAAAAGAATACTTCAAGCTTGTTTAAAGCAGTACCCTTCAAATCTTGTCCCATCAGTTCTCTGGCAGTTCAATCAATGTTAGATAGCATCAAAAATCTATTTCCTGTCCCTGACAAGAGAGTCTATACGATTATCTGTTTTGAATGACAAATGCAAACTCCGTACTATCTCAAGTTGCCAACTGCACTTTTTTTTTTTAACCTCCATGCATTATTGGAACTACAG
0.9353558768217041 TCGATCCCTCCCACCTCGGCCCGCGGGAAGGGGGCGTCACCTGGGCCCGGAGCGGAGGGCGCCACCCACACATTCTCGCCATTCTCCTTATCGGCTTCCACGTAGCCTGGAACAGAGAGGGCGGCCTGGAGGAAGCGCGGCGGCCAGGGGCGGCCCGGTCCGTCCGAGCGGGGGCGGGAGAGGTGAGCACTGGGCCCCCGAACTCCCCGAAGGGGCACCCACCTAGCACCTTCTCGTAGTCCTCGT
0.7824425381057556 TTCTTAGACGGTGTTGGCTGATGGGATTTCTGGGGCTTGCGGGTTCAGCGTTCTCAACAATCTCTGACGAGTGAGGTGGTTAGAGAGATTACCCACTTTTGCAGCGGATTTTGCCTAAGTGATGCTATGATTGAGGGCCCCGGAGTCTGCTCCTATTTTGGGAAGGCTCACGGTGTCCTGGGGTTATCAGTGCTCACAACATCACACTCAGGTTATCTGGAAGACGCCAGCGTGGGCAGAGTGTGAAGTGAGGAAGTGCTGT
1 AACTGTATTACAGTTTTTGAGCGAGCCCCATCTTGGTTGAATGACTGCAGGTAGATAATTATGAAAGGAAGTTTGGTTGCTTTTGAATTTTACATTTTCTATCAGCACCCTCTAGTGGTTATTATTAATTAGCAAGATAAATGGCCAAGTGTCAATTAATGAGATGCTGAAGACAGATAGCTTTTAAACATATTTAGTTCCTTTCAAGTTTTAAGACAGCAGAGCACTTGTCACAAATTTTAATATGTGTCATAGTTTTGCTATGAAATGATTAAATTAGCATTATTGAGGTGATATTTGAATTTAATTTCATATTTGTTAATAGTGATACATCTTAATACTAAAAGCATTT
0.7228409097361664 CCACATCCACACACCATGCTTCTGACAGTTAGTGAGTGCAGGCTATGGACATTGCACATTTATTTCTAACAATAACTTCTTACCTTCCCTGCTCTGTTCTCAGTCTTAAGCCTACTTCTCCTTTATTCCTTATCTCTATCCCATTGTCAGCCAAATTCTTGCTCTTTGGACTCTAGTTTACTTAATGCAGTTTAGTCCAAGGTTTTTGCAAATGGTATTGGATTAGAGTCCCCTTATGAAGTAGGCTTT
0.5302712378325398 AACACTGAGGCCACTGTGCCTCCTCTAGCTTGAGCTCCTCCAGTCTCTGCACCCCCACTGACAGGTCCTTAATCCTGGCCTTCTTATCTCTGTCCTAGGTGACCCTAACAGCTTTTTCACAGGCATCGCTGGGCTCCAGGCTATTTGCCTCCCTGGAGATTTTCAAACACAGACCTGATCACATCACCTGCCTACTTAAAACCTCACTACAGGGCTGCCCTGCACCCTTGGTTAGAGTTGAGCTCCTCAGTGCCCGCCCCTCCTGCTGCCTGCCCTGCATGGCTTCTCATACCTGGGTCAGGAACT
0.6575306172252874 GGGAAGTCCCTAATTCCTATTTTAGCTTGTCCATACTCCAGTGTCCCAAACCTTGTCAGTTTATCCACCAGAGGGCACTCCAGCCCCGCCTGTGTTTAACTGTAGCCTGGAAGAACGAAGATAACATTAGGCCTCTGAAAGGTGAATAATTGGGGTCCTGAGTGAAGCAGGCCAAATATTTCTCAAAGAGAACAATGTCACCAGGTAAAAGCAAATGAAATTATACAATGCCAAATGAATAGTTTTTTTTTTAATTTTCA
0.6628200411946498 GAACTAAATTCAGTTTGTCCTACCATGTCTTTTCATTATCTTGTGCTTCACTGAACATGTCACGAGTTTGCAGAAACAATTCCTTCTGCCTGCATGCCCTTCCCCAGTGTGCCCCCTCACTCTGCTGTGGCTTGTCCCTGGTTTGTGTCACGTCCCCCAGATAAGGTCACTCACACTTCCTCCATGCTCCAAGGCGCTTATTGCCCTGGGTGCCTACTTTCTCCTATCATTACCATCTGTTTACAAGCCTTCCTCCTTTTCTGACTGTACAGTTCT
0.4918114379847733 TGCTAGCTGGTTGTTGACACTGATTCTTCAGCTTTTTGGGGGGAATTGTTTTGCATGATGAGTTCATTCTAAGTTGCCACCTGCTATCTGCCAATGGATAAATTCCACAGCATCTCACAATATGAGTTAGACCTTGGAACAGGCTTTACTGAGGAAAAGAAACTGACGTCAGGGTCAGCCAGATAAGATAGAAGGGCCTGCTGAGGCCGCTGCACTCTGCTGGTTGGATTTGTGGTCCAGGGAGGAACATACCCTCCCCAGTCCCACTCCCACCCCCATAATCTCCTTTTTTGT
0.280758859312851 CTTTTAGTTTACACATAAAAGGGGTGCTTCACACACAGGACAAGGAAATGGGAAGTTATAAGGACCCCGGACATTATCTCCCTGTACATCTGTTTTCTTCTCAAGCTGGTTTTTATCACTCAGTCAACACCATGGGGAAGATAGCCACTTCACAGGCCTTGAGATCTCTATCTTATTTTAGGAAAACGGAGCATACTAAACCAAGGGCGTTTCCCTCTCAGTTCTAAATTCAGCAGGAGAGGATTTTATTGTCTCAGCTCATGTCAAACAAG
0.4634240035027988 ATGGAAAGAATGGACAAGGCGGGCTGCTCAAAGCACTCTGGATAGCCTTGGAGGATGCATGGACAGAGGAAAGCCCAGCTTCAGCCAGGAGGCCCCAGGGTGTTTGTTCCAGCAGATAAACATCCTTCCAGGAACAGTTTAGATCATCTGATATAAAAAAGTGGCCTCTGACCCAAGGCAGTTTTGTTCTGTTCTTTCTCAGCCAGTCAAGTGTAAGTGAAGAATGTGGCTGAGATTGGGATCTGGCCTGGAGTGCCTCACAGGGGGACACGACGGTTTAAATGCGGCTGAACCTTCTTTGGAATGCTGCCTGACTGGTGCTTCAGGTGTTACTTAAATTCTTAGCAAAGACAAAAGGAATCGAAAACAAGGTATACTAAACTGACCATTGTGCTATAGGGGC
0.8574991158082202 TCGAGGGCCTGGAGCAGTGCGCAAGGTGCGCTGAAAGCCTGCCCCTGGATGAGATCCTTATCCTGGCTGTGATGGCAGTGGCAGTGGGCTGGGTCCCTTGTTGAGTGGAAAGGGGGACTGCGGTGTCCATGGTGCAGTAGGTGGCGCTCTTCTGTCTTAGAGCCTGCCGCCACTGCAGCTGGTGCCAAGGGGCCTTCTGCCACTAGAGGTGCCATTTTTCACATGATGAACTTAGCCTAG
1 AAAGGCAGCCAAGGCTTACAGGGTCAGCTGCCTTGTACCTGTTCTCTCTGTCGCTGCATTTCCCAGTCACTGACTCTTCGCCAGCCCTGGGACAACCTGTGTCTCCCTGGTGATCCCCTAATCCACATTCCGACACTATCTCCCACCACTCTCTGCTCGTGACCTCCAATGCAGTCAAACTAAATGGCTTCTTGTCCTGAATATGCCCCAGGCACTTCCATGCTATTTTTTTTTTTTCTCATA
0.5800380622415846 TTCCTCTTATGTGGTGTAGTATTACTGATTTAGATCTTGCACATGCGAAGGGCATTACTAATGAAACCCTACTAGCTTTGTTTCTTACAGCACAAGAGCTCCTCTGTGCCTGTCATCACCCTCTTTACATCACACATATTTGCTCTCATTCTGGGCTATCTAGTCCTTATCAGAAGGGAACCTTCGAGCTGATGCTCTGGTACAAACACAGATGTGGTTTGCAGAGTCTCCTGCCTTTTTGCAAGCTCAAGCTGATCATTGTTTTTTTTTTCATTAGAACGCCCACAGTCTTAAACAACAG
0.1278693487198955 AGAAGAATGGGACACAATGACTGGCTGGTCTAATTCATGTGCCCACCAGTGGAGCAGATGGGGACCAACTTATCTTTTGTTGAAATAAGTAAACAAAAAGGAGCTGCTCTGGATTGTCTGCAAGGTTTGCGAAGAATTAGCTGAGTCAGTGATCAGTAAACAATGCCAGGAGCTTGCTCTGGTAAGGTCTGCATTCTTTAAAAATGGTGTCATAGATATCAGAAAGTGAACATGGTTAACCATTTGTAATCATCAGAAAACAAGAAAGGAAAATAAA
0.4341614233219676 CTTTAAATAAATGTACTACTTTTAAAGTCAGCCTTTTAAGTTGTCAGGGAAGGTCCTATCTTCTTCCCTATTTTAAAACTCCTTCCACAGTTAATAATGCCTCGCCTTATCACAGCACAGCAGGGAGGCGCTCATCAGGACTGCTGAGTCCATCCACGGGTAATGGTGCAATCTGCTTGTCCTACATGAGCTCAGGTAATCATTAATATTATCTCATTGCTCCTTCGCAGCCTATGAGGTCCTAAAC
0.1767276991892298 AAATAAAAAATAATAATTTCCTCAGGATATACATCCTCTCAGAAAAGAAAAAAAAATTTCTCGTTTTGACAGAAAAAGGAAATGTATAAGCAAGTCAGTGGAGAACTTTCTTCATTTTTAAATTATCGACTTTCCTCCGACTGTGGCGGGGTAGAGATTCTTAGGCTTGAAAGGGGTCTCTTGAGGTTGCCCAATTCTCTCCCCATAGCTTTGATTCCAGCAGATAAGGATCTAATTTCTCAACCTGCCAAGAATGGAGATTGCCCAAGGTCCCTTGGTACCTCATTCC
0.05505245474700257 GTAGTTGAAGAAGTTGGGATTATTACTCAGGGAGGGAGAACATGCACTATGGGGAGCCATGAAGTGTCTTAGGTAAATGGTATTAGAAAGCACTTAAAGGATTTGGGCTTTGATTAGGTGATTTGGGAAAGACTCCGTGGAAAGAGGTGGGAAGGGTTGCTCAAGATTAAGTGCCTTCAGGAAGTGGAGACAGTTCAGTGATTATCTTATCTAGGAGGATGGCAGGCTAAAAGACAAGCCTAAAGCTGTAACTGACAAGCATTAGTCATCCATATCATGGAGAGAGGGGAATGTTTGATTTTGAAAGACAAAACAAATTAAAGATCTAATTGGCTTTTATTTGCAATTCCAGAATAGGCAAAACTTCATTCTCTAAAATAGAATCTGTTCCAATGAGCTAAGCAGAGGAGGTTGGCTTTATAGG
0.021080795485426 AAAAGGGACTGTAAACCCATCACTTCATTTTGGAAGCAAATAACCATTCTTTCTTTTACAATGCTTAACTTTCTTAAACAGTGCTTACTTAAGAATTCCAGGAACTAGCCATGAGATAAAAATCAAGGATGTGAAATGTCCCCTGGAGAAGAAAAATACTGAGCAGTTAATCTACAAACCTGTTTCAGTCTAGCTGACCACTAGATGGCCCGTTACTCAAGATAATAATCAGAACAAGACATGCTGACCTGTACGTAGCTAACTCTTGCACACAGTTTTCCAAGCCCCTTCCTCTTTAAAATCCCTCTG
0.8624413128459544 TGCCCTTGATTTTTGAGACCCTCTTCTAGAATGGGTGCCCTCTGGTGGACATTCACAAGGAGCACAGACATTTACACCTATACCAGTTTCCCAGGCTTTCTTATCACCCATCTTCCACTCTTGAACTTGCCAAGTCTCTGGCCAACCAGGAATGGGCCCTGGGTATGCAGAAGGACCTAACAATCAGCCTCCCAGGACACTAAGCACAGCAGTAAAGAGCAGATAA
0.2346111034816767 GTAATGACTTGCAAATATTGATGAAAACACAAACTACAGATATTGTGTTTTCAGGGAGTGAAGGTGGGGAGAGGGGATAAGGAGGAAAATAAACTGAAATGAAGTCCGGTTATCTCCCATCTGTGGCTGCTCCTAATCCCCCAGCCCACAGGAATCCAATGCAGTCCCTTATCTGCCCTGTCAATCACTCAATCACCGCCCAGTGCTTGGTGGGCACCGCACGCCCTCACACACACTCAAACACATGCTCACACATGCACACACATGCACACACTTCACTGACTCTTGCTCTAACACTCCCACCCACCCCCAGCCCATTACTCCTCTGAGTAGGAGCAGCCAGCACGCGGGTCCTGCCAGATGGATGCAATTTGCATAATATCAGCAGTGGAGGCT
0.3860210942223266 CAATCACGCATCTCCTCCAGAGCCGGACCCAACCTTCCCGTGTCCCTCTGCGGAGCACGCGCAGTACGCTGCCGCGCTCGCACACGCTCGCGCCCGGAAAGCCGGGGAACCGGAACCGGCCTAAAGCCAAGATAAGAGTCCGCTGATTTGACGTCACAAGCAGGCTGCCTTTCTCCGGTCCCGAGGCTCCAGCCTTGCCGCCCTTCTTCCTGATCGCGCAAGCGAGAGCTGGTTCGCAGCAACGCAGTGTCTTTTGTAGACTGATATTCTGG
0.3991975206981241 CACAAGGACAGCTAGCTGCTTATACAAAAACATTTGCCTGACACACTGTCTCACAAGCCCAATCCTATGAAACAGCCTGCTGTAGCTAAGATTACAAGTTTTATCTAGCAACTGCCACCACTCACCAATCACAGCTTGCCAGCTCCCAAAAGACATTCTGACACCAGTAAGCTTATCTTTTCCCAGTGAAATCCTGTTTATCCTTTGTTCTCCAGACATACTGGAGACCACCCTGATCTGTATGTGTGTCCTGAATTGCAATCCTATTTCTAGTATGTTATTCCCAAATAAAAG
0.8131621137643162 CCATATTCTGACAATACACCCAGATAAGAGGAGACTTGGTGACCTTTCCTTTCAACTGGCATGAATATGCATGAGGGTACAGAGGGATTCGTGCCACTTCTTAAAGGAAAAGAGAGCCATGTGATTTAATCAGGTATGTCAATCAGCCTAAAAGCAGAAGCTAGGTATTAAGTGTATCTTAACATCTGAGAAAAAAGGTGATCTGAGAGGTTTGTTCTAGACTCTGG
0.01311399479804687 ATGTACACAAACTTGATTTTAAAGGTGTTTCCTGCCTTGTTAACCCAATCATTATAAGACAAAGGAACAGTTGGATCGTTGCTATGTTGGCAAAACGCATTAGCTTTCTTGTAAGGGTGATTTGCCACTTCAGGGATAATTAGGCCACTTAAACGCTTATCTTAGTCAATGGACTGGGAAGTCTTTATCCTTATCATGAGTGATGTGGTTCAAAGAAAATCTCAGTTCTAAATGGAGAGGCTGTTTCAGCACAAGTAGTACCTACTAGGTTGCTGGACATTTTAATCTTTAGAATTTACCAACAGCCTGGTTTATGTAGCGCCAAGACTTATCTCTAAAATATTTCTTCCTTCTCTAATTA
0.7529577138592151 AAAAATTTAAGCGTTTTGAAATCGGTAGTAAAATTTTATTAGACATAGGAATAAACTTGTTTTCCAACCTCATAAAGAGCCCAAAGCTAGGGGAAAAAAAAAAAAAAAGAGTAATCCTTTCTTCATAAGTAGCCATATCCCAAGCTTCCTGGGTAAGTGTTGGACTAAGAATGTGTTAAGATAAGATATTAGAGTAACAGATAGCGCCCAGAGAAGAGGAGTCATTTGCCTGTTTGTTTTCCACAGCAAGGAACAACACTGGATTGAGAGCATTCCTCTGTGTCATTTACAGCCTCTGGCACAGCACCGGGTGCTTATGGAATAGCTAATGCATGTTCGTCAGGAAGTGTAGAATTCTCTTTGTAAAACTCAGC
0.01199320012313181 GGCTCCCTGCAAGCATGACCAGGGACTGCTGGGTGCTCAATGCAGGGCTGGGTTAGCCCGGCTCCCTCCCGAGAGAAGCCCACAGCCCTAGGTCAAGATAAGCCAGTGCCCAGCTGCCTGTGATATGAAGCAGGAGGCAGATGCGATAAGAGGTGTCAGGGCGGGCCCGGGAACTTTTGAACTTAAGGGGTGGGAGGGCCAGGAAGGCATCAGGGAGGAGGTTTCGTAGGAGCCTGAATGTGGAGACACTGCAGAGGGAAGGGGCAGAG
0.634007494798688 GAGAATTTGGGATATTGGTAACCAATCAGAAGGTTTCAGGAAAAAAACAGTTTGCATTTGGTATAACTTAAGAGACTATTTTGGAAATTTAATAAACCTAGAACAAAGTTATTTGAAACTCCAGTAATGAATACAATGGTTAAATTCCACTCATTCCTGCATCATGGCAGAAATACCCTTATCTCTGAACACAAACCAAAATACACAAAGTCCTGATGCCTATCTGCCAGCCCTGGAGGGCAGCCTGGCAGTGTGAGAAGGAAGAAATCTCTTAAGAGCCTTCTCTTTTACCATATGTGCTTTCTACTAACTCTGTCATCTTTTACTTCATCCAAACTGGAAATGAATGAGCAGGCCTTCTCAGATGGCAGAGGCTACTGATGTTGGCAGTAAATATATAAAT
0.4532303162190902 GTGAACATGATAAGGGCTAGTATATTCTCAAATCAAATTAATCCACAATTCTAGCATTTAAGATACAGTGCAAATCCCTAATTCAAGTATAAAGTATCACCTACAAAGCCAAAATAAATGGGGTAAGATAACAGTTCTCAGTGTTGGGTTATAGTGTCAATGCAAGACTTGAGCTGTGTTAATTCAACAAGCTTGATCTTGATTGCCAAAGCATGCTTGTCAATATTTAGCTCCCAGAGGGCATGTCAGGGGCCTTTACAGAAACTAGCTTAAATACAAAATACTATAGCAGGATTTGTGATCCTTTTCCTAATACTCAGATTAAAC
0.1566163752194623 TAGATTCTGAGTAGATCAGTTAAGATCTTCACGCCTATAGAAATGGCAGACAGAATCTCAAATTTTAAAGGACAACTAGGATGTTGATAATCTCTTCTGGTTCCAAGTAGGGTAGAGCATAAGCTGTTTCAGCAAAGTTCTTGTTCTCAAAATCCCCAGGCAATCTTAGGTGTCTTGCAGAGATATGAAGTTATTTCTAATATCTAATCTAAATCTCTGTCTGCCACTCAAGTCTCTTCCCTTTATCACAACCCTAAGT
0.3886072028255466 GGTGCATCCCCCTGCTGTGGGACGTGCCTGGGCTTTGGCCTGCAGAGGCCTGGGTGGAAATTCTACTCAGCCAAGGTGGCAAGGGTCCTCTTTAGTGATAAAGAGCTTGGCGTTGGCAGCAGACAGACCGGGGTTTGGATTCTCACTGTCAGTTGTGTGACGTTGGCCAAATTCCTTAACTATCTCAGAGCTGACTTCCTAATCTGTGCAAACAGGGAAAGGTAGCACCTACATCATAAGTGTGGGAGAGTAGTCAGG
0.02417804236482682 CGCAGGTGCCGCCGGCAAGCTGCAGGGCGCCCTGATGGAGGGGCCGCAGCAAAGGGCAGGTGGAGGTGGACTTTGACCCGGGCCGGCTTCCCGGGGAGCCAGGCTCCTTATCTGATCTAGGAGCCAGGGCCGCATGGGGGCGGGGGTGGGGCCCGGGAAGGAGCTGGAAAAAACAGCCAGGGCTGCACCTGGCACCGCCCGTAGTGATAGCGTGGCGATGGGCGCGATAACACAGCAGCGCAGGAGCTGTCTGCCGCTTGGCGGGTCCAGCGAGGCTCCCTCGCGGTGGCTGGAGCTCAGATGCCAGCCACTTTGATTTATAGCCAAAAATAATAG
0.5799948764963591 TCTTCTAAGATTGCCCTGGGTTTTTTTCAGGTTTGTTTGTCTTGTCTTCTGCAGACAAAGGGCTGAAATTGCTGAAAATAAGACCAAGCTCTTATCATGTGAGTGGCTGACATACAATGAAAGGCACACACTCAGCCTCACCAGGTGTCTACTGATAAAGTGAGACCATTGACTAGGAAATAATGGAACTCTACAACTTCAGATGGGGATGTGTGGAAGGACCCTGATGAAGCTGGGGACACTAAGTTCCTGAATTCCCATGAGTTTATTTTCCAGAGGAAATGGCCTTCACCTCCCTCACAACCCACTCCCCTGTGGGGGCAACATCCCCTCCCTCACCCAAGCTGCTATCAGCCTCTCCACCTTTGTCTGAGATTAACCCTGCACTGGCTGAGCAACAGTGATGG
0.3751181044266175 CTCATGTCCAAAACACTCGGCACCTTGATTGGTTCAACAAACACTGTTCTGATATGTGACAATCCCTATCAAGGGCATCAGTGAACAGGGAGTCGACATAGGCAAAACTCCAACCCAGTTACACTTCACTTATCAGGAAGTTAGTTATCTGGTGACATCAAGTAGCTACACAGCCCAGTGAGACCTAAACAGAAGGAGTTTAGGAGCTGTCAGAATACATGTTGAAGTCCATACACT
1 CTTGTGGACATGGCCTCAGAAGCTTCTGAGGCAGAAATCCTATAACCAGCCCTTTCCTCCTCTGGTTCTTCTCTGTGACCAGCTTTGATGCCAGCTCATCTCCCTGGGGGAGGGTTAATTACTCGCAGGCACTATCCGCTCATCTCCCAGGCCTCTTATCTGAGACATAAGCATTTAGGCAAACACATTAGGCCAGAGCAGGGCAGAGCCTTTGGACAAACATCTCTGGGCTTTTCCTGGGCTGTGGATGCACATGGGCATTGGCCTGGCCTCCTCAGTGCCCACCCCCC
0.3165908381445522 CGGTGTTTTTATGTAAAATGTGATGGAATTAGTCCCATTGAACCAAGGAGTAACAATTTTATGTAGCCAATACTTGTTTATTCATTAAAAAATTTATTAAGTGCTCACTATTTTCAAGGCACTCTTTCAGGCAGTGGAATTTCAGTAGTTATCTAAAGATTTGCAGTAAAGATAGCGAAGCGTTACAATAAGATAACAGAATTGTGGAAAGGAAGAACAAAGAGGGTGAA
0.3385823833370013 TTGCCTTTTGTTATAGGAGTGTTGGCCATGATCCTTATGATGGGTAAGAAAAGTTATTACACCTTTCCTCTTCTACAGGAGGGTAGATGGGAGACACCATAGTTTTGTGACAATGTCTGTTTGTTTGGGTAGGAAGCTGATAAGAGAGTCAGTCTTCCCTCGTTGCTACCAAAGAGGGGATTTACAATGACAGTTTTGTTATCTTGACTTCTAATAGGAGGCTGTGCTCTTAGGCAGATAATGAAGGAAAAAAAGCACATTCTCAAATGTTTTTAACTCAAAACAACTTTTATGCTACAATAAAATATTTTAGACCCCCTTAATACAGAGAAAGGCAAAAATGTCTGAATACTTATTACTA
0.5395180400896096 ACTTCACCCCCATGACCTACATAGGGTAGCCTAAGTCATAGATCTCGAATCCTGATCTGGTAGCTCTGAAAGGTTTAGCTTCCTAATAAAGCCTCTTGTGCTGTCAGACTCTCCCCTCCAGGTTATTAACCTTGCCTTTTCCCTCCCACTATCAACAACTGACTCCCCCTAGTGGGAAAAGAAAAATCCGTATCAGGAAAAGGTCAGGGTTCCTGTCCTATCTACAGTTAGTATTTTATAGGCTTTTGGAAGAGGG
0.9174860901323836 TTTATTAGTAGTCTTCTCTTTTCTCTGACCTCCCTTTTACCAGCCTTTCACAGACCTCAGCAGCTGCCAAGTTGAATCTGCAATTTGAGATGATAACAGCAGTATTCAGGCTCAATAGATGTGCGGAATGTCTGTAAGATACTTAACTGATTACAAGAGAATGGGGATAGGCCAAAAAGCCCTCTGTGCGAGCTTTTTGAACTTAGTTCAATTCTCCAACACCTTGTTTTCATAG
0.4505193955371884 CACAGGGTGGCTTCCAGGTCATCGGTAGATTTGAATATATTCTGATTGGCAATTGGTTGAGTTATTATCAATAGAAAGGAATGTCTGGGTTAAGATAAGGAGTTGTGGAGACCTAGGTTTTATCATGCAAATGAAGCCTCCAAGTTGCAGGCTTTAGAGAGAGTAGACTGATAATGTTTCTTACCAGACTTAAGGTCTGTGTTTATGTTAATGCTGGAGAGGTATACTGAGGCATGTCTACCCCCCACTTCCAGTCATGGCCTGAACCAGT
0.06970616171159209 TGGAGGTAGTCGTTAATTTCTTGGTATCATTGCTAGCTCTTAGCCTTACCCTTGGTCTTTCAAGGAAAAAAAAATGCCTGATACTGTCGTTAACAGTTTAATTTATGACTATTTGCAAAATGTGGAGGCCTGTGTGGAGAATGCAAATCGCCTCACAAAGAGATAAAGGTTCCTGTTATCTGATTCAGAGGGAGACACACAGTTCCGAGGATGCCGAGGGAAGGAGTCCTGTGCAAACAGATCTTTTAGTTCCTGTCCACAGACACCTCTACATTCTGTAGACATGCAGA
0.6070069378222598 AAAACAAAACCTAAAGCATCTTAAGTCAAATCACTAAAAATGGTCTCCAAATTTCTCTGTGTCTGACCTCGTCTGAGCCTCACTGAGCTTTGAGCTCTCCCCCTGTACAATGTCAAGCCAGGGAGGCAGCCATAAGTGATAATCTATGTAAACTCAACCACTCTCTCATTACCCCAGAGTAGATTGTAAAAACTGATACTGCCTCTTGAGAGTTCTTTTGGAGAGCACTCTCTACTTCCAAAGTAGCTCCCAAACTTGATAAGATCCAAATCTTTGGAGGAAAGATTAACATAGAACCCAGTGGGGATTTTTAATCACATTTAAGCAAGATAACGCGTTATCGGAGTGAAAATTAATCCACACTTCTAGACTATGTTACTTGTGCAACTTGACCCATGGAAATTCATTTAACTAGTTA
0.923417263751276 CACGTTGGGCATGCTGGCTCACAAGGTGCTTGATTAGCTGCTTTGACATAAACGTTCAAGGACGTTTGTTGGTTAAGTTAAGACCTAAACCAACAGCAAATACAACTTGCCCTGGAAAGCATTCCTGTCTTGTTTGTATTCTCTGATACTGTCTACTTCAAAGGTCCTGACACCGCCTCCCACCCTGGGAGCCTCCTCCCAGGAGCACAGTGCCTATAGCGCAGTCCCCTGACACTGGGCCGGGATGAAAAGCCACAGGGGGGATG
0.3340389038928576 TCATAACCTTTCTTGAAAAGCAGGACCTATGATTAGGTTTCTCCATTCCAAACACTTCAGTGGTTTCTGATTGCCGAACAAATTAAGCACACATTTTTCATCTTGCTGGCATGCCCTTTCCTGAATACATTATCTCAGAAACCTTCCTTATCTCCACCATGGCTGTCACCTTGTCTTCCTCCAAATCCCTGCAGTCCCCTACTTATACCACTGGGGGGAAGCTGTTTTAGAGTGATTTTTAGGCTTCTTGTGGCCTTCTGAGCTTTTTTTTATGTAAGAAATTATATATGTTTTGGCAAGATACTGGCAAACTGCCATGTGCATAATTGGTGCTTAATAAATGTTTGTAT
0.6322381490912882 AGATCCAAGCTGCTTGGCCACTTTCTCTGTTCTGGGGAAGGGCGGGGTGGGGGGGCACCTCCTTTACTCTCTAAGAAGGAGGGATTTCTAGCTATGCAAATATATCCAGTGCATTCTGATCTAATCTCTTCTGGCCCCAAGAGGGGACTTACCCAGATAAGAGGCGCTCTTCAGAGAAAGTGAGAGGGTGCCACAGCAGGGCTTTCACCCACCAATAAGCTGATGAATTTTTAATGAGTTTCTCACACTTCACTCTAGTAACATTATCCAGGCAGTGCTGAAGAGGAATGGCTACAACCTCTGTGCTCAGCCA
0.7407057404895816 ATCCATGCCCATCTTCATAACCCAAAAGGTATTTATTTTTCTTTTACTTTTTGTTAAAGATAAAAGAGTTGGAACACTGTCTTGAATGGCTGGAAAAAGTCCTGAATGGTCGAACTTCACTCATGATTTTAATATTTGACTCAGAGGGAAGAGGAAAAGTCTATCAGATCTTGAAGAGATAAGAATTATTGTAATGGGGCCGGGCGCGGTGGCTCACGCCTGTAATCCCAGCGCTCTGG
0.3266634154702096 CAAGGCTATTTAAGTTCTGTCCCAAAGGGCCTTCTCTTGATAACAGCAATAATAACTTGGACTTTTAAAGTGCTTTACATTCTACAAGTATTTTGTTGGGGGCAGGGCATGGATTATCAGCCCCATTTCAGTGATAAGGAGAAGCACACAAAGAGAAAGTGGCTGTCCTGAGGTCACAGGCAGCCAGAGTTAGCGTGTGAATGCCATGTGTTTTCCAAGTCCTTAGGGCAACTGGAGTCTTTCCTGTGGCCAGGAGACAGCCTCCCAGAACCTTACCCTCCACGCATTTGACACTCTCTCTCCCTTC
0.721826437301273 CGTTTTGTTATCCGCCCCGGTGGCCTAATGGATAAGGCATTGGCCTCCTAAGCCAGGGATTGTGGGTTCGAGTCCCACCCGGGGTAAAGAAAGGCCGAATTTTAGTGTTCCTTATCGGGCAGAAGAGTTAGAATGCGGTATACTCCAGTGGAGGTGCGGAGTTTCCGAAGGGTTACCAAAAAGGCTCTAAATCAGAAACCTCTACCTGTTTTCAAGGAAGACGAGCACAATT
0.6050118898404301 TGGAAAACAGGACCATTGTTTCTCGTTCAACTTGGTTAACTGCAAAACATTGATGATAACCAGGAAATGCTTGTTGGTTGAAAGGAAAAGAAGAAAGAAGTAAAGCAATAAGCAAGGTGCTGTGGGGGCCATGAACATGGCAAAGGCAAAGCCCCTACCATCCAGATGTAGAACCTGTAGCTGGACAGACAAATTGCAGATTGCTATCTTTGAGTCTCCTGTAAGGATGAAGTATATTTATGAGAGGGGAAAAAGAACTTTAAAAAAACTTATTTTTTCCTTATTGTGGGCTATATCATACATACAGGAATGCATAAAAGTAGTATGTAGAGT
0.761373875979017 CAGACTGGGATCTAGGACTCATGTTTTCTGGCTTTTTATCTCACCCCCATGTGCACACTGTTTTCTTAACTATTGTCTGTCACAGTGTAGGGCCTCTAATGTTTATTGAATAAATAAACAGTATCAGCGCTGACTTTGTTTCCATGATAAGCCACTTGCAGGCAGGGATTATGCTTTATTAACTTTGTATTTTCTACAATGCCTAGGACAGATTTTAAGCTCAAATCAAATACCCTAAAAGATTGGTTGAATTTGGTTTGAAAACAAGAATGACAGCAGCATACATGTGGTGTACAGTAGTAAGCCATTTTC
0.3784531782320298 AACTTGCTTGTGTTTATTAACAAAGTATCTCGCCTTCTGCTCTGAGCCTTGTCTCCATGGCCCCTCCCCCAATGGCAGGAGGAATTTTAATGGGAAGATTTATTGAATAGATAAGAATGATTTACTTTGCATTTTTAGTTTATAAGGAACCCTTTTCTAGAGCTAATGTCAAATTTTGGAAGGAATCCACCATAAAAACTGTCCAAATGGAGCAGTTTGGATTCTCCCAATGATAATGTGACCTCCCAAAGGGTAGACAGAGCCAGTTTGGGAAAGTAAACTAGTAAGCTATGTG
0.5662438076792413 CTTTGTATTGAGTTGCATGTTTCCACCTTCTGCTGCCACACTCAAATTCTCCTCACTCCCCCCTAAAAAACAGTTGAGAGATAACACCCCTGCACAAGGAAAGGGTTAATCTTTGAGTGTTCTTAACTAAAGAGACCCACAGAGGATTAACAGCTCCACTTCAGTGACTACCCTAAAATAGCTTTTATCCTCCTGCCCAAGAGTTACTTGGGGATCTGAAGAACTC
0.7433561884744896 TAATTTGGCTAAAGCGCTGCAGCTGCAAAGTGAAGAAGCTAAAATTCAAATCTGGGCCTGGCTTCAAACACCTCCTCTTTTCACCACAGGCCAGGCAGCCTGTCCTTTCTCTGGCTTTGTTCTTATTGATCAACTATGTTTACTAGATAAGGGCTGCAGGATAAGCAGGCATCATTTCAGCGGTGCTGGAGGGTCAGGTAGTGATTTGTTCTTTACTGGAGTCTCCAAAGAGTGTTTCCACAGTGCTCCTAGTTCCAGGTAATCCAAACCATGCAAAAATGTAGAAGATCAAGTAAAGTCAGTATCTGATAGAGGCTC
0.2811840816319091 TGCGCTGGGGCAGCTCAGAAAACAGAAGGCAGAAAGACTCTACTTTAGCTTGCAAGGAATATCAGCATTGTGGCTAAGCTTATGCTAGAACCAAGCCAGCTAAGGTCAAATGCTATCTCTGCTACTTCCTAGCTATCTGATTCATGTTCTAAATTAACAGGAACACCTACCTGCTAAGAGGCTGCCTCACCATTATTTAGTGAGTCTTTGTTGGTCAGCTAGAAATGAAGCCAGGCTATCAGGGTAAAGAAGCCCTCTTCTTGATTTCTGGTATCAGTTTCAACGCTGTGTGTTAATCCATATGTTTGCACAGCCTGCTCCCTCCTCACCCC
1 GCATTTTGCCAACAAGGATGTTTTGTTTAATTAAAAAAATAAATCAAAACCTAAAAATTGCATCCAACCAGATGAGGATACAACAGACACATTCTTCCACTATCAGTTCTGACCAGAGGACTCTGTGACTATGAAAGATTAGGCCTTCAACATCTTGCAGTCACTTGTGATAAGAATTTGGCATCTGCTGACAAAGGATCTACCACCTCAAAGACTTGTCGTTGTAAGACTGACTGACCACCCAGCCGAGACCAGGACTCCTTTTGTCTTCTTCGCTCCCCAAG
0.6055748148494438 CCTCCGTAGGTCTCGGTTTCCCTCTCTGGGGAGGGGGGGGCGATGTCCTTGCCAGCAGAGGTGCTGCTCAAGTGCAGGGCTGGCATCCCAGCGACTCGCCCAAGGCCACCTCGCCAATCCCCGCACCCTGCGTGCCACTCCCCCAGCACTGCCGCACGCCCGGCTCCCCTCCCCCACCTCTCCAGGAGCAATTGTTTATCTGCCAGAGGGTGACAGGCGGCTGTGGCTGGCATGTTGAGCCGCCGTCCAGAGATCAGCTGGCGGCTGCTGAGCAAACAGCACGAGCTAATCAGCAAAAGGTCACGCCGGCTCCCCGAGTCCCCGCATTTGAAGTCATGCCTCACACGGGCGGGCTGGAAGGAACCTGGGACGTTGAGTTAGTGGCTCAGTGACCAGGTCAGCTTCAAG
1 TTGAGACGGAGTCTCGCTCTGTTTTTTAATGATGCAGATGCTCAGAGAAGTTTAAGGTATAAGAAAAGAAAATACATTTAAATGTTTAAAAATGTATAAAATAATCTAATCACAGAAGGAACATCTTAGATCCAGATAAGATATTTTTGCAACAAAGCTACAAATGATCTACACAACTATTTATTAAGAAACTCTACAATAAATAATGTTATAGAGCAAAAGTTTTCTCCAC
1 ATCCTGTGTAAATTAGAATTCCCAGTAAAGTGGCATAATTGAAAATTGGGCTGACTGCATGGAATGGGGAAGAGAGTCATTTTAGCACGATAGTGCATGTTCCATCAAAAGGTAGTGCACCAAGGTGGCGACTGACAGCTCTTAAAATAAGTTTCAGATTCTCTCTCTAGATAGGAAGTTTTTAACTGCCTGATATATGCAATAGTGACATCCAGTGGTTGTAGAGATAATTACAAGTGTATCTCATTTTAAAATATAAAATGTTTTATATTATAATCAAATATTCTGTGTTGTCCAATATTGTCTATATTTTTTATTTGGCAATATGCAAGT
0.5613301690071736 CTTGTTTTAGTTTGAGGAAGGCTGTGGACATTTTAAAGGGAGGGAATGATACGGGCTGTTCTCATCTGATACTTGTGCTTCTCTTCTCCCTGTTCTTTTGAGTTGGACTGTGGCCACGGAAGGGCAGAGGAGGAGAAATCTTCCAGCAGTCATGGGGAGACACAGATATCCTTTATCTTAGTTGGGATTAACAAAACAAATTAACTTTGGGTGTGAGGAGAAGCGCTTCAGATAAGAAATGGGCAAACTTGGCGGGGGTTGCTGATAGTGACACCACATCTTCCCTGTCTTTACTTGGGGACCATTTATTTTTATTTTCCCCCTCTCTTTAAAAGCTGTTGTATCTCTAGGAAAAAAAAAAGGCTCCACCTTCAGGAATGCAGTGTGGTTTTACTTCTGGTAGGTGAAGAAAATTTAGCTTCTGGATTTTTCTATGCTTGA
0.9006665698827955 CTCAAAGCACAATGTGGATTTGGGGACCAAAGGTCAGGGACACATCCCCTTAGAGGACCTGAGTTTGGGAGAGTGGTGAGTGGAAGGGAGGAGCAGCAAGAAGCAGCCTGTTTTCACTCAGCTTAATTCTCCTTCCCAGATAAGGCAAGCCAGTCATGGAATCTTGCTGCAGGCCCTCCCTCTACTCTTCCTGTCCTAAAAATAGGGGCCGTTTTCTTACACACCCCCAGAGAGAGGAGGGACTGTCACACT
1 TGTAAGCTTACTGACCTGAATCTTTGACTCCTTGTTTTCTCTGGATTTGGCTGGAGTGGAGACACTGATGGAGCACTGATAGGGCTGATTGAACAGCCCCCAGCTTTGCTTGGCAGGAACCTCCCTTCCCTTCTCCGCCACCTCCCCCTCCCTCCACATGACATTATTGTTCCTTGGCAGAGCCTCTGTTTTCCTGGATTCAGTACTTCTTCTTTTTCTTGAAATTTATTTTAAAATTATTAGTTTT
0.07829410791361868 ATGGACGCCTCTGTTTTTAAGCTAACCACAATCTCCTTCACATGGTAGCCCTTTCAAACTTCAAATATCTTCTACCAAGAAAAGCCCAATCCCTTTAAAGGGCTCATTTGATTAGGTCAGGCTCTTAGAGGATAATCTCCCTATCTTAAAATCAATTGATTTGGGGCCTTAACTACATTTGCAAAATTCCTTCACAGCGGCACCTATATTGGTGTTTGCTGAATAACAGGGAGGGCGTGTGTGAACACCAGAGGCTTTAATCTTGAGGGCCATCTTAGAATTCTGCCTGTGACAGGATTATTTAGTAAATATTGATTTACCCTCTTCATAG
0.4606747884019795 CTCCACTGCAGCACTGTAATGTAAGTGAGAGTATCCAGCTGCTATCTTTGATCTCTCTTGACCCTCACTCATGATAACAAGCCTGGATGAGGACAGAAAGAGCTGCTGCACTACCCCACTTTGCAGCCTAGTGACATGTCCAGCAGGCTAAGGACACCAGCTTATCTGAAAGTGACTGCCAGCCAGAGTCCCACCAGTTGGAATTCCAGTCGTGTGTGGGGTGGGTAGGGCAGCACTCACTGCCTGTGATCATCAGTGTCCTTGTTCTGCTCCCTCCTCTCACCCACCCCACCCCTGCCAAGGCCTCCCTAGCCCTTCAACTGTGAGG
0.1102821712728559 TGCAGAAACTAGAGCTAGTCTTCGGATTGAAATGAATTACCAATAAAGGGTTGGGAAATGGATCAAGGAGAGGGAAGCGTTTTGATGGTCCCTGCTCCGAGGTTCAGCCCATTTGCAGTTGCTGATAACCTTGTCAGGTCACCAGATAAAGGCAAGTCTTGTCACCCTCAGGCACCTGGCTGCGAAGTAATAAAACGGTTGCCTTATCATCTAAAGGTGGAGTGAGTCAAACCTCAGCCCAGGGTAATTATAGTAAACTGAAATTGCCTGTCCTTTACAAAAAAAAAGG
0.4218269216642562 AATTACAGGTCGTATTCAATTCAGAAAAGCCCCTGTTTATACTTCCCACTGGGCATGTTTAGCCCTGCTCACTGTCCTCTCAGTCCAGATGTAGCTCATCAGTAGGAGCCATTTTTACTACACTGTTGCTTAGAAACACAGCTGATATCCCACCTTTATCAGGTTTCCAGGGAAACAGTGCAGGAAGGTTAAGGAGAGGTCATTTTTTATCTGAAGAGGGAGAAAGGTTTTGTTAACCGTTTACTCACACTAATTTATTGACAAAATCAATAGAAAACATAATGCTGGCTGTAGGATCCATGCAGTCGACTTTATTAGAGGCAGTGTTTGTTTCTAT
0.9389336067120292 TTTTGAAAAGTGCTAATGTACAAACTTGTCAGGCCCAGCCTTCGGGGAGGGGAGGGCTGCAGCAGGGCTCTGGTGCTGGGGGACTGATAAGAGGCAGCACTGCTACAGGAGGCTGGGCATCTTTCCGTTGCTCACTTCTTTCTCCAAAGTACTCTTTGGCTGGGAGGTGGGTGAGAGCTGGGTCAGGGAGAACAGAGACCACTTCTTCAGATCTTTCTATTCTTAAG
0.09106033383328978 CCGGATCATTCCAGCAAATGAGAGGAAAGCACTCCCTGTTCTGTTACAATTGCCAGCTCTTCTCTAGGGACTGGTTACCAGCAGGGCCAGAGGTGATGAGGGGGAGATAAGGCCAATTAAGAATTCAGACTGGGGAAGCAGGAAACAGAAGCCACAGGGTGAATTCCAAAGGGGAAGATGGGAAATGAGACTATGGGTCACTGTAAGCATTCAAGGTAGAATACAAATATGA
0.4771781024079562 GGCGCCTCATGAAAGGAAACCAATGTCAAAGAAATAACACAACCCAGGAGAGTCTGGAAAAGGTCCCTTTCTGACCACCCAGCTTTCTTGGCCCATAGCAGCCATGGAAATAATCTCTCTCAGTACTGGTCATTAAACTCCCATTATCTGACCATCGATCACTGTGGGAGGCACAGGCTGCAAGTGCATTCAAGGGCTCTGAATGTGTTCTATTTACAGAGCAATCACAGGAACAAGGGAAGAAGATAAACTTCATCAAGCCCCTGACCTGTAAGAATGTGTCAGCTACCAAGGTAATTAATGCCTCATTTCAACAGCCAAGGCCAATCTGATTCTAAAAGAGCCATTTATCTCTTAAGAATACTGCAATGCAATAAAGAATAAGAAGTGAATCTAGCCCAGCCAGAGCTCTGCAGTAATCAAAT
0.7383934592443389 TCCGTCAGCTATTCTTGCAGCAAAAAAGCTTGAACCTGACCAGACTTCAGGAACCACTGCTATCTGTAAACTTACAAGGAGGAATTCCAGATTGAACTGGTTATCAGGCTTTTAGGCTGCACACATGGGCTAAGTCTAAGAGATGCCCTTCCCTGAATCTGTCCCTTTCATGTCTGTGGGCCTGTCACTGCCCCAGCAGGACACACCATCTCTGGCAATGTCACTGTGTTT
0.6719645618848509 AATTACTTGATCCTTATATGCCCCACGCGGGACTCATACTACGTTTCCCGTGAACACGTGCAGTCCAAACCCCGCCCCTGATATTTATCTCAGTGGACGGTGGCCGGAAAAGGACAATGGTTTCCATGTCAGCGGATAAACGCTCTCCCCTCGGCTCCCGGACGCGACGGAGGTCGTAGTAGTAGTGAGTACGTGCTGAGGAGCAAAGGAGTAACCAAGAGATCCAGTGACCGACAGAGCAAGAGCCATGCCGCGCC
0.2280134064500286 CGAGGTTTACCATTTAACTAGATTAGAGATTGTATTCTTTGGTGCAAAATTTAACCTAAATGCTTTGTGAATGTACACAAAACTGAGTCCTTTATCTCAGAATCACAGCTGCAAACAAATGACAACCCATGCTTGAGCATTAACTCATTATCACTTAGACCTTTGGCCAAGCCTGTGATTGCTTAGATAAAGCCTTACCCTCCACCTTTGCCTACTTCTTTGTTTTTTGAAGACTGAAGCCATATAAAAACTTCAAATTCATTTAACTGAATAGTCCATGTAAGGAGGATGTTTAACTTATTT
0.9266504205980632 AAAGTGTGGAAAAATCATTACCACTCCCTTTGTACATTCCCTTTGTAAAGAATAAGAGCAAATTATGTTGCCATAGTTTTCACACTGTCTTTTCTTAAGAGATGGGGAATAGACTGACACTTTTTTTTTCATTATCTACAAGATTAAACATTGACTTAACACTAGATACTCTGAGCCAAGAGATAATGGGAGTTGTTTCCTCCCATTCCTTCTAACTCTTTTAAAGCTTCAGTCGCCCATTTTTCATAATCACTAACAGTTTAGAAACTCAACTTGACACACAAAAAATTTAATTCAAGGAGAAAAGGCACGATTGA
0.03031504356076426 TTACAGCAATCCAGCCCTCTCCCAGTGGGTCCCTAGGACTCTGCACCTTCCTGGGATGAGTGGGTAGGAGGTTGCCTGCATTTTTAATCTCTAAGCTCTTTGCGTTTGGGGAGTGAGGTCGTTCCTGTTTGGAAAGGCTGTTCTTATCTGGATGGAGCCCCACCTGTTTCCCTGGAGGGCAGAGTTCGCTGGGGAGTAACAGGAGTTAAGGCCTCCAGGTCCTCACAATCTTCATGTCACATGAGCTAAGCAGTAAACAGCTCTCCAGGACC
1 ACAGATGCCCCCCAGAAGCATGCCCTCTGGAAAGGGAGAGGAGCAGGAGGGGGCTTCAGGCATGCTGGGCCTGGGGGGCCACCCCCTGGCCTTTGCTAAGTTCCTGGCTGGTCTGAGCCCTCTTCTTTCCTCTCCCCAGGCCTTGCAAAGGCCATATCTCTTCCTTTTCATGACTCTGGAAATTCCATACATACTTTCTGCATTAGGAAGACATTCTCTGCATGCTGATCTCGTTAAAAAGGAAAAGCCAAGGAGCATCCTGCACCTCCCTCCTGTAAGCGAG
1 GAGGCAATTTTCACATTATATGCAGCACTCCTAGGCTTATCCTCAGAGCATCCAATTCTGGACTGCACAACTATGAAGCCTGACACTCTACAGCTATTACCACCTGCTCTACTATCTTTAATCCTATTGCAAATAGATAGATCAATAGATAGATAGAGAGATAGATGATAGATCGATAGATAGATAACAGATAGAAATAAATAAATAAATAAATAAATAAATAAATAAATAAATAAAAGACATGGATACAGATAGGTTAGAACAAAG
0.8234440485466077 ATAACAAATTCCAAATCAGAATGTCGCTGTGCTGGAGATCCCTCCGTCCCAGGGTGTGCCCAGCCTTGGGGGTTCCAGCACCGTCCTCTGGGATGGGCTGCCAATCACCATGGCAGCAGGAAATGCAGATGTTGTTTGGCATTCCAGAAATGCATAGAGATCCGTGGAGATAAACTCAGAGCGCAGCCTGCGCATTCCAGCAGGCCTGACTAACTACGGAAACATCCCGGCGGGCGGCGCACAGCACACAACATCTCATTAAACAAT
0.2558016196172902 TTTATATTGAAAGAAATAGGCCAGCAGAGACTTAGGGATTTTAAATTGGCTTGCTTTTTAGCTGTTTCAGTCACCAGTGAAGAGCCTATGTGCATTTTGTAGTAGATAATGTAAAATTTGTCATCTTTTTCTTTTCTTTTTTTTAGAATAGCTGATATTTTGATAACAATCTCTAATTTGCATGGGCACCACATTTCTTATATTAAAAGAATTAGTGTTTTGGCTTCTGTACTG
0.3125615182859793 TGCCACTTTCAGTCAATAAATATTTATTGAATGCCTACCAAGTGCCAGACACTGGGGCCATCCTGTCCTGTGAGCCCTGGTTTCTGTGCTCACAGAGCTCAGGGGTCTAACAGAGGAATGCACATAAGTAAACAACCAGAATACTGTAGGATGAATGTGAAAACAATGATAAGCAGGCAGTGTTGACTTAGCACACAAGAAAGACACCTAACTCAGACTCAGGAGGACTCAGACTC
1 CGTCTGGTCCTGGAGTTTTATTGCTTGATAGGCTATTAATTATTGCCTCAATTTCAGAGCCTGTTATTGGTCTATTCAGGCATTCAACTTCTTCCTGGTTTACTCTGGGGAGGTTGCATGTGTCCAGGAATTTATTCATTTCTTCTAGATTTTCGAGTTTGTTTGCCTAGAGGTGTTGACAGTATTCTCTCATGGTAGTTTGTACTTCTGTGGGATCAGTGGTGATATCCCCTTTATCATTTTTTATTGCATCTGCTTGATTCTTCTTCCTTTCATTCTTTAATAGTCTTGCTAGTGGTCTATCAATTTTGTTGATGGTTTCAAAAAA
0.2818073596752241 CACCACCAACACTGCTACAGACCAAAAAAGAAAAGCCAACATCTTTATTAACTCTTTGAATAAATTGTTATTGTGCACACATCAAGTGCTGGGAGCTGGGCTAGGCATTGTGAGAGTTACAGTCACATGGAAGCCATGCTCCCTGGCCCACAGCTACTCACAGGTCTAGCCGGGGAGATAAGACATTACTATCAGCCACTATCAGGCAGATGCCATAAATGCCATGTACATGAGTGGTGGGATCTCAAATGCCGTAGGATTTCAGAGGAGGGGGAGAAGATGTCTGGCTTAACAGAGGAAGTTCGAGTCTAGTTGGCCTTTTGTTTTCTCAATAAATATTTATTGGG
0.4681783124975013 CTTTTGAATGATTTTTCCACCTCCTTCTTCCCTTTCAGCTCATTCTTCTAGCCACCAGAGCTTTTTGTGTAAACCACAACACTGATAATGTCATTACAGCACATGTGTTATCACTTCCAAGATAAAGTCAAAGTGCCTTGGCAGTAAAAATGCTTTGTCCTAGTGAATTATATGCTTTCTTATGTTTTGATCTAGTGATTTGGTTTATAAGAACTTCTTTTAAAGAAATAATCAGATT
